-0.099228
0.853530
0.645523
-0.545523
-0.872365
0.263329
-0.290948
0.786242
-0.610723
-0.912392
0.366098
0.935019
-0.259081
-0.621057
-0.048590
0.339628
0.665356
-0.375267
0.609529
-0.423344
-0.720495
-0.985275
0.329702
0.561458
0.137482
-0.770940
-0.057808
0.529998
0.107159
-0.392100
-0.126565
-0.182943
-0.532121
-0.437232
0.323833
0.567796
-0.187226
-0.666054
-0.819904
-0.076246
0.002090
0.392641
-0.237958
0.260565
-0.824700
0.923795
0.399414
0.938353
0.433780
-0.455517
0.805205
-0.595273
0.158439
0.713229
0.438926
0.254618
0.299693
-0.168385
-0.012018
-0.710952
0.175289
0.850240
-0.306260
-0.954392
-0.035393
-0.834540
-0.018586
0.143456
-0.466049
0.041345
-0.956776
0.792322
0.108072
0.344480
0.318845
0.537295
0.832024
-0.925175
-0.258155
0.616503
0.905799
0.030114
0.872087
-0.910179
0.984751
0.497216
0.786893
-0.368142
0.323323
-0.811067
-0.475079
-0.518059
0.662225
-0.641463
0.749124
-0.379353
0.943653
-0.712205
-0.540688
0.355317
0.012660
0.162233
0.608249
0.477968
-0.752492
-0.204844
-0.022832
0.911247
0.849617
0.110396
-0.788205
-0.161771
0.192085
0.608722
0.569527
-0.781712
0.593634
0.061539
0.735478
-0.174857
-0.148236
0.734981
-0.504321
0.492029
-0.789444
0.188867
0.649328
-0.712256
-0.668937
-0.692773
-0.957704
-0.650717
0.182288
-0.212739
0.009052
0.702263
-0.637003
-0.501225
-0.167475
-0.252772
-0.796656
-0.896076
-0.801774
0.805306
0.604052
0.284967
-0.730896
0.028446
-0.074401
0.279127
-0.720463
-0.166221
-0.264976
-0.345009
0.371487
0.897716
-0.038179
0.070870
0.305175
0.065445
-0.423689
-0.595191
0.721438
0.228759
0.451431
0.871880
0.917760
0.187364
0.590230
-0.493233
-0.809902
-0.657417
0.144861
0.045264
0.598489
0.199187
-0.760533
-0.824582
-0.162783
0.342463
0.796733
-0.458930
-0.371120
-0.704433
-0.124192
0.459371
0.872280
-0.041261
0.973263
0.902389
0.701067
-0.756157
0.372193
-0.091364
-0.409282
-0.115372
0.836884
-0.778823
0.758400
0.673793
0.998209
0.300250
0.794067
-0.518344
0.553536
0.821276
-0.927675
-0.896684
0.602964
0.698818
0.601928
0.544217
0.675960
-0.596436
0.009062
0.260024
-0.689574
-0.613917
0.419809
0.223087
0.232618
0.768291
-0.653744
-0.632934
-0.082879
0.272817
-0.709740
-0.397315
0.399552
0.881189
0.016705
-0.051663
-0.731811
-0.390591
0.221975
-0.176378
-0.564743
-0.365918
-0.163200
-0.548814
0.131544
0.295897
-0.367572
0.098289
0.252025
0.025478
0.772806
0.007266
0.599741
0.674765
-0.768287
0.683986
-0.438777
-0.654011
0.485385
0.654347
-0.255477
0.201681
-0.270161
0.990929
-0.378077
0.410813
0.281777
-0.581885
-0.672497
0.672609
0.111939
0.980643
-0.103509
-0.839901
-0.132442
-0.698654
0.814207
-0.534295
-0.019605
-0.013420
-0.512665
0.275177
0.340407
-0.883783
0.079055
0.688958
0.537255
0.009583
0.174248
-0.318818
0.062822
-0.202895
0.261664
-0.322289
-0.950354
-0.103585
0.196954
-0.443956
0.267540
0.240715
0.522865
0.441392
0.564010
-0.771792
-0.119823
0.308205
0.969156
0.467507
-0.307014
-0.918106
-0.020601
-0.070053
-0.176848
-0.830361
0.604120
0.645166
-0.254595
-0.781435
0.426516
0.730913
0.601743
-0.530930
0.716251
0.029259
-0.940785
0.791270
-0.524683
-0.303937
-0.402113
-0.206120
0.773115
-0.830377
0.435278
0.997487
-0.184116
0.149744
0.401762
-0.215262
-0.006167
-0.269243
-0.596042
-0.093440
-0.313415
0.918419
0.081713
0.793994
-0.349315
0.059084
0.181490
-0.401233
-0.355015
0.748629
0.122979
0.567648
-0.047485
0.349195
0.805108
-0.629641
-0.796212
0.910699
-0.134055
0.919549
-0.917842
-0.868939
0.032176
-0.898079
-0.230991
0.396379
-0.395857
-0.166781
-0.775859
-0.997534
-0.020996
-0.137346
0.682407
-0.355019
-0.040273
-0.543494
0.860769
-0.078461
-0.699092
-0.723589
-0.981480
-0.937433
0.240299
0.138424
0.698871
0.706739
-0.674513
0.710983
0.837587
0.206849
-0.276928
-0.363202
0.201468
-0.171948
-0.843783
-0.307043
-0.669024
0.416182
-0.365694
0.187661
-0.712563
-0.654112
0.983549
-0.966840
0.169278
0.794604
0.072401
-0.453626
0.189135
0.327242
-0.963679
-0.537439
-0.492671
0.107082
0.355242
0.133876
0.966834
0.029166
0.592057
-0.184077
0.779313
0.365163
0.923099
-0.600916
0.825166
-0.060398
0.756731
0.034039
0.462272
0.139868
0.807947
0.596195
-0.591205
-0.953720
-0.245711
0.775142
-0.361735
0.161979
0.203550
-0.064719
-0.245588
-0.737783
0.369124
0.909797
-0.802151
0.762072
-0.595824
0.044025
-0.481120
-0.037017
0.305038
-0.778616
-0.410452
0.753422
0.969137
0.905998
-0.724413
0.105797
0.691594
0.084729
-0.493489
0.703866
0.470259
-0.257495
0.520030
-0.586373
-0.758689
-0.799209
0.692957
-0.172864
-0.509482
0.702669
-0.321356
-0.503187
-0.677492
0.775978
0.035323
0.059491
-0.130874
-0.748672
-0.035938
-0.672846
-0.584566
-0.939891
0.833697
0.216258
-0.199098
-0.625522
0.636616
-0.062481
0.841332
-0.899787
0.588914
0.501677
-0.576091
-0.124021
-0.995382
-0.438207
-0.083476
-0.695347
-0.214145
-0.361687
-0.077801
0.199391
0.900122
-0.645529
0.692015
-0.100735
0.499237
0.062828
-0.395039
-0.267329
-0.193720
0.439565
