-0.402796 -0.347411 -0.297119 -0.137157 0.458950 -0.242780 0.179951 0.270373
0.253549 -0.155465 -0.445978 -0.110411 -0.340084 -0.089478 -0.265329 0.022482
0.001443 -0.172015 -0.316802 0.071424 -0.040085 0.332316 -0.468964 -0.077099
0.402360 -0.171567 -0.003727 0.320674 0.336200 0.253516 0.282538 -0.413000
-0.476027 0.429228 -0.204565 0.425979 0.244706 0.273136 0.201075 -0.060346
-0.040921 -0.433072 0.270279 0.227887 0.441159 -0.268666 0.376368 -0.077069
0.485064 0.416079 -0.095402 0.019198 -0.351825 0.396988 0.240988 0.075675
0.089080 -0.213365 -0.288870 0.295935 -0.079360 0.342143 -0.026926 0.109525
-0.284181 -0.334193 0.193802 0.256184 -0.022458 -0.267962 -0.248041 -0.072163
-0.001330 -0.399475 -0.144817 -0.260071 0.306817 -0.260331 0.441815 -0.019519
-0.037230 -0.326447 0.017722 -0.084241 -0.069616 -0.143351 0.071053 -0.001860
-0.396321 0.289372 -0.227319 0.226649 -0.063516 0.092209 -0.498391 0.006232
-0.068248 -0.038413 0.115314 0.055217 -0.499884 0.226971 0.149776 0.017969
-0.435908 -0.476311 0.481992 0.208877 -0.194607 -0.428307 0.058613 -0.257139
-0.203016 0.360879 0.165170 -0.156591 -0.460485 0.097386 -0.140131 0.031027
0.464677 -0.401903 -0.332608 -0.256443 -0.309511 -0.235882 0.115912 0.129860
-0.001096 -0.346710 -0.061925 -0.131438 0.277921 -0.116005 -0.484789 0.265485
0.060545 -0.217875 0.192638 0.076073 0.434886 -0.384822 -0.248160 0.007999
0.181011 0.328639 0.477704 -0.478252 0.013651 0.317979 0.344809 0.350972
-0.286046 0.195028 0.284432 -0.066290 0.172430 -0.476541 -0.162055 -0.325611
0.436728 -0.017295 -0.073851 0.248452 0.258034 -0.156489 -0.051944 0.497183
0.490678 -0.104794 0.041872 -0.430562 0.389270 -0.399814 -0.469347 0.318860
-0.431238 0.454624 0.216380 0.469851 -0.265852 -0.285060 -0.337384 0.291933
-0.223623 -0.160997 -0.216193 -0.384291 0.099229 0.010721 -0.074985 0.133521
0.324071 0.449905 0.379963 -0.320947 -0.204558 0.453103 -0.166812 0.086430
0.353793 0.464929 -0.452989 -0.033144 0.327478 0.076247 -0.105404 0.206804
0.295856 0.455269 0.252544 0.341295 0.249747 -0.497593 -0.262486 -0.139698
0.169739 0.396005 0.026992 0.090052 -0.243105 -0.380132 -0.498403 0.475271
-0.058277 -0.404872 0.243385 -0.084915 0.274588 -0.271000 0.484996 -0.370172
0.112383 0.407750 -0.213595 0.430790 -0.307128 -0.417801 -0.131650 0.207062
0.347594 0.491029 0.025783 0.160077 -0.316114 -0.046702 0.404894 0.184752
-0.025294 -0.492492 -0.142936 -0.350062 0.194813 0.485024 -0.275375 -0.031170
-0.087023 -0.412159 0.040687 0.178123 -0.054955 0.236590 -0.159761 0.072266
0.434321 -0.151161 -0.398084 -0.273056 -0.122622 -0.005715 0.137416 -0.114428
-0.463655 0.088104 0.097654 -0.390791 0.316564 -0.212266 0.037849 0.058531
0.378790 0.290884 -0.447902 -0.120184 0.029123 -0.223450 0.357368 -0.313371
0.404269 -0.300600 -0.153096 0.136082 0.241310 0.388952 -0.415926 -0.372856
0.278365 0.174045 0.394427 -0.257025 -0.128475 -0.381004 -0.072130 -0.487155
-0.127128 -0.122007 0.233724 -0.353154 0.220167 0.056941 0.368495 -0.240493
0.261658 -0.009854 -0.482784 0.100370 0.397011 0.419788 0.348634 -0.188142
-0.145835 -0.052265 0.445458 0.097711 0.471135 -0.212020 0.377074 0.433696
0.005439 0.149341 -0.216080 -0.407941 0.009781 -0.279595 0.263279 -0.077195
-0.327406 -0.269111 -0.175924 0.121016 0.061669 -0.204705 0.393920 0.042717
0.326337 -0.033658 0.381489 0.117336 0.318682 0.073161 0.437896 -0.486331
-0.385193 0.066116 0.190469 -0.268359 -0.201278 -0.365352 -0.050507 0.482850
-0.158253 -0.489154 0.430622 -0.045541 0.067495 0.481639 0.094265 -0.323166
-0.093682 0.253196 0.250325 0.365784 -0.310815 -0.195410 0.226877 0.350363
-0.438153 0.413216 -0.343937 -0.133436 -0.024013 0.476165 -0.253473 0.096386
0.149127 -0.385034 0.100851 -0.118848 0.093364 0.239728 0.223222 -0.201694
-0.178802 0.144408 0.148371 -0.203182 0.288258 -0.399330 -0.210636 0.417920
0.354471 -0.197875 0.481455 -0.213817 -0.013497 -0.352812 -0.132867 -0.246577
-0.341247 -0.084966 -0.215612 -0.427059 -0.474167 -0.359265 -0.052805 0.484007
0.350761 -0.343534 -0.130217 0.140262 0.327132 0.048381 -0.180145 -0.091488
-0.246981 0.266532 -0.185277 0.005798 -0.192817 -0.217798 0.412074 -0.391053
-0.446790 0.433054 0.450552 0.359519 0.388354 0.437396 -0.237810 0.204563
-0.378964 0.379089 0.410122 -0.003704 -0.021397 -0.347362 -0.467220 -0.145274
-0.343760 -0.227490 -0.062971 -0.312543 -0.179290 0.437783 -0.297731 0.271818
-0.089264 0.108024 -0.063795 0.263675 -0.461759 0.158534 -0.240684 -0.432870
-0.219376 -0.428487 0.317250 0.369508 0.427299 0.159251 -0.341735 0.277138
0.375267 -0.434794 0.090327 -0.284059 0.252449 0.334633 -0.422300 0.177320
-0.301484 -0.344703 0.312462 0.137782 0.126521 0.146051 0.441122 0.155983
0.341361 0.468075 -0.149121 -0.322247 -0.440505 -0.366006 0.043703 0.295861
-0.217937 -0.214430 -0.077390 -0.326387 0.286948 0.440239 -0.407773 -0.048921
-0.439900 0.150084 -0.339000 0.396727 -0.081146 0.144358 0.030658 0.126557
-0.068829 0.025659 -0.398608 0.073762 -0.077471 -0.394562 0.317329 -0.057908
-0.018478 0.313198 0.196678 0.013810 -0.323550 -0.477972 -0.253411 -0.480449
-0.338688 0.325006 -0.002861 -0.322649 -0.224642 0.225793 0.469691 0.283276
-0.424178 -0.246693 -0.380918 0.063674 -0.173195 0.342222 -0.050206 0.056426
0.022644 0.244564 -0.008554 -0.218802 -0.304721 0.392063 -0.356611 -0.352011
-0.431890 0.452325 -0.299935 -0.295046 -0.074499 -0.317623 0.266133 0.030028
-0.176885 0.415120 0.219241 0.433310 0.408862 -0.488249 0.227885 0.428499
0.135770 0.293649 0.253535 -0.387432 -0.148215 -0.343837 0.254875 0.177080
0.359536 0.372265 0.001885 0.391938 0.384685 0.281713 0.154752 0.278845
-0.263038 -0.097467 -0.120046 -0.408449 -0.179205 -0.039884 -0.295147 0.435261
0.338965 -0.471117 -0.437024 -0.241381 -0.101505 0.067110 -0.147188 -0.249219
-0.108045 0.307199 0.093861 0.374905 0.334271 0.435263 0.290119 -0.347686
0.431006 0.030304 -0.233091 -0.489313 0.183105 -0.145265 -0.154348 0.042617
-0.368775 -0.410127 0.044020 0.231547 0.271521 -0.216683 0.044203 0.093984
0.016371 -0.035866 -0.071276 -0.078766 -0.324483 -0.111161 -0.192886 -0.209475
0.174927 -0.012373 0.168258 0.021697 -0.205877 -0.212751 -0.390636 0.456020
0.434630 0.370489 0.265997 -0.207746 -0.197777 -0.301253 0.298543 0.371517
-0.090717 -0.177929 -0.384194 0.199166 0.352361 -0.121253 0.495445 -0.059430
0.104490 -0.086335 0.366831 0.068759 -0.141834 0.209737 0.437068 0.239311
-0.088437 -0.210702 0.175980 -0.355237 -0.474157 0.375719 0.157390 -0.005501
-0.326275 0.087408 -0.484066 0.417655 0.097535 -0.307380 -0.399681 -0.037300
-0.030909 -0.381450 -0.306183 -0.409138 0.355740 0.103357 0.051134 -0.079743
0.350150 0.047917 0.027482 -0.047699 -0.171113 -0.368147 -0.065973 0.356737
0.192872 -0.362515 0.321686 0.482235 0.348935 -0.409756 -0.333639 -0.166074
0.060042 0.178246 0.312685 -0.420172 -0.044641 -0.130326 -0.432114 0.235248
-0.398659 -0.043651 0.058450 -0.424731 0.072335 0.017046 0.266404 0.007464
-0.284547 0.082908 0.198992 0.471006 -0.460144 0.088392 -0.027573 0.296238
-0.316411 0.074772 -0.224553 -0.466182 -0.271735 0.392991 0.346827 -0.242077
0.425059 -0.347523 0.323825 -0.386113 -0.035408 0.437403 -0.262435 0.100817
-0.046574 0.371515 0.488728 0.094227 -0.461345 0.037793 -0.228605 0.230178
0.448492 -0.497058 -0.173609 -0.470765 -0.251360 -0.088617 0.166910 -0.269171
-0.100127 0.348301 0.269338 0.403615 -0.182643 -0.284724 0.117220 0.376909
-0.398661 -0.303250 -0.048629 -0.271768 -0.101104 -0.364242 -0.097753 0.184433
0.306552 0.477082 -0.217952 0.068586 -0.417746 -0.435393 -0.049517 -0.353802
-0.376852 0.373650 0.277370 0.080482 0.478653 -0.045170 -0.108916 -0.144355
0.429363 -0.443067 -0.214254 0.019404 0.240259 0.044185 0.360125 0.245684
0.384749 -0.185462 0.014416 -0.352454 0.223103 -0.487351 -0.289520 -0.039448
-0.134621 0.057552 0.019504 -0.125613 -0.091756 -0.235829 -0.432020 0.330144
-0.095897 -0.440786 -0.006868 -0.043299 0.421027 0.178898 0.232088 0.419004
-0.245368 0.367864 -0.243255 -0.169838 0.390437 -0.330525 0.475897 -0.084593
0.327853 -0.322926 -0.207079 -0.488844 0.237785 -0.490068 0.295754 -0.062697
0.493247 -0.418069 0.294368 -0.347862 0.265960 0.335379 -0.136906 0.091785
-0.017962 -0.019120 0.466576 -0.132415 -0.064977 0.382460 0.066560 -0.410083
-0.114298 0.220603 -0.135707 0.198885 0.330186 0.054731 0.403583 -0.280572
-0.185228 -0.293853 0.128968 0.083329 -0.061594 0.394904 0.228274 0.339068
0.246067 0.468808 0.215731 -0.131305 0.088200 0.415026 0.275623 0.218776
-0.068422 0.228989 0.218302 0.071153 0.393666 -0.106196 -0.320814 -0.489278
0.071461 -0.388112 -0.076415 -0.120906 -0.129714 0.073086 0.224376 -0.401118
0.330771 -0.237041 -0.427474 0.321101 0.410951 0.013026 0.315710 -0.005118
-0.273244 -0.472779 0.239067 0.194702 0.370355 0.179540 -0.431922 -0.078172
0.413160 0.296627 -0.282377 -0.096022 -0.392819 0.045030 0.134799 0.206609
-0.239430 -0.225156 -0.480326 -0.076699 -0.411598 0.143504 0.399251 -0.240651
-0.024919 0.214241 -0.315415 -0.357467 0.402821 0.456406 0.191326 0.016692
0.302884 0.083650 0.067719 0.466668 -0.486198 0.081978 -0.289737 0.014772
0.480777 0.007144 -0.471586 -0.199704 0.248371 -0.018338 0.056480 -0.278631
0.454772 0.090108 -0.306901 0.039124 -0.117683 0.332634 -0.345812 0.483367
-0.433026 -0.069756 0.049553 -0.408893 0.178987 0.422946 0.335214 -0.162604
-0.235765 -0.192575 -0.149062 0.001629 -0.040305 0.395838 -0.093022 -0.114762
-0.277870 -0.044183 0.400079 -0.294675 0.042318 0.034871 -0.055481 -0.394995
0.334571 0.026389 0.478557 -0.066829 0.049027 -0.430153 -0.078945 -0.229315
-0.068242 0.083884 0.312400 0.318131 0.228464 0.209745 0.425401 -0.190133
-0.377177 -0.487437 0.406487 -0.217960 -0.317617 -0.491646 0.234583 0.003402
0.448682 0.055692 0.111704 -0.305033 -0.366280 -0.247245 -0.101911 0.045109
-0.491715 0.366237 -0.459987 -0.398872 -0.175515 -0.025463 0.306735 -0.338338
0.302010 0.153352 -0.331318 0.274960 -0.014341 -0.007492 0.475991 0.475804
0.365448 -0.458774 0.406966 -0.363074 -0.485732 -0.486600 -0.137850 0.375979
-0.086539 -0.070725 0.140906 0.020789 -0.125685 -0.088218 -0.077567 -0.265960
-0.358725 -0.000324 -0.381645 0.064212 0.412466 -0.044535 0.193365 0.195484
0.318998 0.294748 -0.104088 -0.489745 0.040769 0.108132 -0.330970 0.288111
-0.039013 0.248026 0.475847 -0.060217 0.421026 -0.335437 0.126587 0.468402
-0.118499 0.464927 0.282071 -0.034225 0.252103 0.474069 0.179328 0.090441
0.161670 0.074569 0.479936 0.060786 -0.240092 -0.024508 0.199989 0.384221
-0.396225 0.054924 -0.059589 0.222333 0.094533 -0.249544 0.128620 -0.212760
-0.148251 0.149778 0.036634 -0.374161 0.066806 -0.467524 -0.412235 0.383452
0.255203 -0.155840 -0.485018 0.122706 -0.269159 -0.169615 0.274180 -0.463634
0.300191 0.436713 -0.235926 0.164141 0.186585 -0.067303 0.494432 -0.008073
0.035236 -0.434388 -0.167012 -0.434453 0.248896 0.265425 -0.049757 0.014341
-0.367874 0.173427 0.445135 0.065752 -0.160150 0.465508 0.284145 0.349556
0.383056 0.285563 -0.151664 -0.000450 -0.472292 -0.083390 0.009144 0.037840
-0.097165 -0.176182 -0.409775 -0.313553 0.380755 0.052173 0.411835 -0.074035
0.206777 -0.119971 0.099104 0.006526 0.070986 0.328825 -0.247098 0.264372
0.382321 -0.435051 0.238151 -0.436672 -0.281578 0.035470 -0.360830 0.482473
-0.230767 0.388269 -0.220589 0.420324 -0.275171 -0.399684 -0.070774 0.259107
-0.164346 0.053381 0.350132 -0.031310 -0.495619 0.109621 0.228728 0.045111
-0.338960 0.146290 0.025135 -0.446848 -0.263432 0.114477 0.384733 -0.036815
0.260774 -0.498564 0.133863 -0.067330 0.186636 -0.227171 0.386508 0.445231
-0.208441 0.269948 -0.248931 -0.313852 0.354958 0.234875 -0.191496 0.332495
0.161418 -0.391380 -0.236894 0.058494 -0.286863 -0.010430 -0.306599 0.485277
0.483296 -0.333319 -0.425123 0.030709 -0.327975 0.096991 0.290103 -0.148279
-0.399394 -0.002829 0.120567 -0.033025 -0.131183 -0.427173 0.404879 -0.077122
-0.347287 0.264225 -0.157694 -0.165330 0.006161 -0.141634 0.133896 0.476760
0.249935 -0.048158 -0.388475 -0.006897 0.180421 0.200745 -0.011137 0.288371
0.431588 -0.062203 0.355977 -0.223231 0.117269 0.049538 0.450528 -0.113694
-0.486337 0.411307 0.252230 -0.012120 0.165210 -0.167695 0.489236 0.019158
-0.454583 -0.174299 0.429591 0.384739 -0.352799 -0.226884 -0.428349 0.051736
0.314722 -0.105864 -0.163951 0.213145 -0.018220 -0.469484 0.491826 -0.156636
-0.094798 0.282720 -0.488058 0.052225 -0.393016 -0.042634 -0.476617 -0.458499
-0.048235 0.498388 -0.081401 -0.310148 -0.236803 0.217542 -0.472326 0.481060
0.415658 -0.344395 0.217801 0.446111 -0.202807 0.222983 0.386849 0.448438
-0.379947 -0.475597 -0.103996 0.491749 0.185736 0.235629 0.392712 0.328478
0.467514 -0.032643 -0.086392 -0.121893 0.476315 -0.405874 0.131032 -0.261029
0.490010 -0.273430 0.089204 0.169157 -0.397447 -0.304925 -0.167274 -0.219323
-0.406850 -0.344592 0.450851 0.292872 -0.144437 -0.082887 -0.297375 -0.022143
0.214232 0.444496 -0.258950 -0.123152 0.055113 0.499497 -0.187474 -0.484644
0.219061 0.429571 0.399496 0.175757 -0.402586 -0.477426 -0.168890 0.261214
0.061389 -0.172497 0.153718 0.139673 0.059391 -0.076065 -0.378902 0.118623
0.460345 -0.263822 -0.435192 -0.410632 -0.137464 0.065169 -0.343758 0.042164
-0.009381 0.218572 -0.412167 -0.129620 -0.458192 0.255006 0.104384 0.292539
-0.312019 -0.439361 -0.070874 -0.125362 -0.121134 0.073373 0.059915 0.434724
0.221747 0.270233 0.017466 0.051035 0.049885 -0.336046 -0.482360 0.233364
-0.465087 0.386573 0.313181 0.151568 -0.036165 -0.028422 -0.074167 0.289441
-0.099711 -0.470327 0.224375 -0.453487 -0.203960 0.356975 -0.226354 -0.010151
-0.424556 -0.430120 0.258142 0.127020 -0.446332 0.319349 -0.175018 0.397930
0.457361 -0.057008 0.241943 0.230205 -0.406326 0.285033 0.069568 0.320012
0.288068 -0.225140 -0.109330 -0.168066 0.369135 0.485827 0.291029 -0.169486
-0.012031 0.453014 -0.319830 0.430781 0.229547 0.288968 0.065882 -0.378012
-0.124629 0.145374 0.347019 0.285007 -0.211847 0.251096 -0.333127 0.186831
-0.389509 -0.241958 0.366063 -0.372790 -0.059723 0.026794 0.499140 -0.344124
-0.473246 -0.428370 -0.184917 0.179980 0.070016 0.041298 -0.017144 -0.286277
0.141644 0.419621 -0.159385 0.187783 0.173082 -0.150773 -0.334451 -0.253375
-0.314761 -0.114618 0.043877 -0.086277 0.230617 -0.359202 0.124183 -0.350012
-0.024317 0.351293 0.081459 -0.470317 -0.310995 0.190815 -0.165617 0.319125
-0.220567 -0.254806 -0.089211 -0.013604 -0.354241 0.153758 -0.428964 -0.470405
-0.287816 0.457081 -0.381698 -0.336556 0.320774 0.218957 -0.230403 0.032440
-0.414273 0.485177 -0.399829 0.297275 0.418912 -0.031066 0.291227 -0.322080
-0.153526 0.416424 0.008763 -0.292424 0.172507 0.033640 0.352144 0.077708
0.149047 -0.273840 0.249820 0.391970 -0.063392 0.148870 -0.394188 -0.444760
0.308697 -0.177653 -0.366140 -0.487411 -0.123926 0.456576 0.253575 0.489766
0.244719 -0.416541 -0.222050 -0.140087 0.364963 -0.186346 0.035567 -0.020008
0.170502 -0.405328 -0.295119 -0.326348 0.184943 -0.417735 -0.412799 0.367737
0.062330 -0.059549 0.412346 0.204121 -0.210178 0.369005 0.293453 -0.189939
0.052092 -0.268312 -0.419796 -0.027388 -0.092823 -0.426100 -0.245750 -0.193309
-0.261162 0.450961 0.100475 0.416249 0.325896 0.466913 0.344080 0.269620
0.430844 0.447959 -0.092431 0.141415 -0.144869 0.106266 0.160485 0.439445
-0.235225 0.482041 -0.189123 -0.306180 0.235552 0.461132 -0.379928 0.433329
-0.252256 -0.001075 0.434611 0.433158 -0.306787 0.488483 0.461860 -0.283404
-0.394578 -0.181574 -0.067313 -0.361202 0.120911 -0.181875 -0.358755 0.278669
0.486030 0.244736 0.119353 0.166474 0.372843 0.197183 0.195342 0.365714
0.348516 0.481055 0.450415 -0.459167 0.168780 -0.000433 -0.036858 0.327858
-0.202289 0.111384 -0.031379 -0.346391 0.300132 -0.211243 0.206625 0.325280
0.323816 -0.429384 -0.281065 -0.232901 -0.102237 0.465164 -0.453937 -0.052656
-0.039143 0.143753 -0.434601 -0.401642 0.069905 -0.130369 -0.191660 0.233460
0.473424 -0.157166 -0.130566 -0.018594 0.266536 -0.040580 -0.349474 -0.061859
0.124634 0.031169 0.081100 0.097880 -0.332480 -0.277501 -0.380546 -0.078733
0.317908 -0.116299 -0.077967 0.474348 -0.222265 -0.022531 -0.348539 0.332636
-0.490825 0.318812 -0.112475 0.205648 -0.258255 0.344480 -0.020609 0.341733
0.379764 0.084683 -0.009391 -0.134679 0.174885 -0.114480 -0.051104 0.258665
-0.454394 -0.446368 0.069360 -0.141400 -0.376955 0.362494 -0.061093 -0.398912
0.307423 0.255888 -0.127360 -0.411651 0.112267 0.416411 0.122652 0.044234
0.475842 -0.037590 0.277559 0.029631 -0.134132 -0.273995 -0.423802 -0.177288
0.451964 -0.103875 -0.042869 0.334284 -0.129733 0.320295 0.244997 0.429311
-0.051450 0.125418 0.281133 0.317004 -0.334386 -0.205366 -0.321273 -0.009583
-0.451649 0.370387 0.266569 -0.420400 -0.150162 0.136768 0.370406 0.264412
0.182459 0.114329 -0.294861 -0.301034 0.018851 0.197290 -0.290329 0.442701
0.414772 0.383064 -0.245080 0.174109 -0.011106 0.490389 0.321599 0.348240
-0.254132 -0.192303 0.383645 -0.431331 0.238476 -0.122954 0.400529 -0.419237
-0.075470 0.377976 0.254454 -0.221897 -0.388122 -0.286287 0.259980 0.499784
-0.275157 -0.454212 -0.164123 -0.166575 0.286139 0.207240 -0.081037 -0.430111
-0.333377 0.318550 -0.477466 -0.099498 -0.446796 -0.163817 0.428141 -0.276925
-0.355555 -0.298698 0.183811 -0.202076 -0.378197 0.075504 -0.262929 0.333032
-0.449480 -0.183275 0.128734 -0.300162 0.438647 0.146670 -0.260453 0.449327
0.106430 0.147892 0.327381 -0.096092 -0.342721 0.335650 -0.051473 -0.180228
-0.265788 -0.417517 -0.314817 -0.305938 -0.016555 -0.410747 0.404929 -0.361138
-0.425338 -0.425038 0.288606 0.333383 0.379873 -0.278726 0.013636 0.342980
0.499418 -0.151096 0.074539 -0.200779 -0.085292 0.196014 0.220374 0.201087
-0.323398 -0.237891 0.090052 0.153047 -0.355046 -0.380192 -0.368659 -0.229046
-0.059870 -0.110065 -0.084965 0.292113 0.060888 -0.420299 0.472318 -0.139437
0.416169 -0.089742 0.023623 0.131731 0.258693 -0.415582 -0.028504 0.326427
0.381973 0.028286 0.124200 -0.154728 0.261011 -0.242858 -0.479202 0.493917
-0.094487 -0.463097 0.282042 0.433173 -0.135211 0.169988 0.441425 -0.078310
0.488561 0.165357 -0.466034 0.196751 0.014250 -0.338035 0.343471 0.046666
0.054266 0.371444 -0.436159 0.042669 -0.413655 0.486727 -0.254188 0.235952
0.422128 -0.270054 -0.298785 0.024408 0.246592 0.089419 0.359733 -0.389900
0.492006 -0.019229 -0.453136 -0.369582 -0.154754 0.287778 0.250698 -0.325359
-0.272189 0.099130 0.277197 0.314389 0.357098 -0.069213 -0.301891 0.241929
0.032064 0.233342 -0.298359 0.008401 0.332953 0.499222 -0.126444 0.318553
-0.283736 -0.183987 0.198199 -0.329459 -0.218104 0.234988 -0.423749 -0.178080
0.318228 -0.141667 -0.295030 -0.222459 0.491617 0.406983 0.359153 -0.476163
-0.222754 -0.474469 0.015016 0.486830 0.299738 -0.302848 -0.279170 0.047868
-0.276566 -0.122694 0.089118 0.164032 -0.209663 -0.472290 -0.340236 0.050430
0.395291 0.396162 -0.449356 0.322896 -0.215077 0.193143 -0.124213 -0.344968
-0.147530 -0.412294 -0.218553 -0.159724 -0.227940 -0.490603 -0.328714 0.409923
-0.187225 0.002646 -0.470753 0.418342 -0.181218 -0.089055 -0.455773 -0.092376
0.341518 -0.432837 0.031748 -0.372537 -0.046347 0.333572 -0.414794 -0.437921
0.172600 0.453728 -0.405576 -0.121272 -0.128951 -0.332996 0.082447 0.020760
0.300844 -0.471611 -0.006539 0.273752 -0.241844 -0.167626 -0.193538 0.040534
0.084679 -0.138932 0.052567 -0.384502 0.011080 -0.193411 -0.099163 0.472694
-0.359869 -0.090951 -0.244094 -0.045522 -0.218709 0.046832 -0.171496 -0.344496
0.227959 0.164626 -0.434994 0.033505 -0.484524 0.233482 0.026611 0.273821
-0.102373 0.057183 -0.102726 0.203187 -0.002768 0.041692 -0.395331 -0.330409
0.011677 -0.266791 -0.017093 -0.423736 -0.086797 -0.425131 -0.432081 0.473522
0.208728 -0.207292 -0.484580 -0.105068 -0.423647 -0.344570 -0.000897 -0.011884
-0.466170 0.489680 -0.158599 0.285029 -0.125645 -0.385564 0.360891 0.383585
0.344163 0.172716 -0.021339 0.139099 0.232502 0.417071 -0.122844 -0.196877
-0.134658 0.182307 0.278236 -0.131089 0.127032 0.268241 -0.129005 0.334310
-0.100006 0.197711 -0.421528 0.384649 -0.323899 0.266962 -0.433199 0.389573
-0.041369 0.247730 -0.085090 0.238760 0.288626 0.406014 -0.260098 -0.356388
-0.098755 -0.293577 0.323319 0.438498 0.225037 0.444775 0.267071 -0.418508
-0.293119 -0.438698 -0.309888 -0.343218 -0.047548 0.461265 -0.333164 0.212766
0.434209 0.166948 -0.363173 0.045078 0.271060 0.028021 0.387679 -0.059166
-0.277696 0.198236 -0.453077 -0.006753 0.402077 0.007815 0.020516 0.387520
0.439604 -0.474440 -0.344307 0.179273 0.421293 0.037170 0.217716 -0.164975
0.389858 -0.350394 -0.269312 -0.391784 -0.448244 -0.224787 0.490786 -0.144104
0.344560 0.405999 0.203364 -0.491820 -0.032738 0.139219 0.091560 0.033301
-0.062429 0.378827 0.296731 -0.335165 -0.453104 -0.104009 -0.013148 -0.286535
-0.498197 0.085073 0.298168 0.415396 0.169812 0.261938 -0.166978 -0.397288
-0.090956 0.073786 -0.361208 -0.479388 0.280202 0.039991 -0.439813 -0.216915
0.143894 -0.365361 0.171395 0.060121 0.098747 0.270445 -0.064736 -0.139226
-0.194425 -0.265301 -0.343816 -0.141820 0.138775 -0.390524 -0.333570 -0.028944
0.120325 -0.495132 0.098348 0.466696 0.392390 0.179209 -0.426785 0.068619
-0.181449 -0.036042 -0.423966 -0.380845 0.106762 0.399884 -0.291436 0.370153
-0.431538 -0.127562 0.339442 0.171921 -0.336760 -0.077442 -0.464963 -0.120238
0.425078 0.398366 0.259392 -0.166539 0.256324 -0.085278 0.339759 -0.426600
0.039925 0.229419 0.233476 0.484792 -0.431114 -0.004046 -0.049213 -0.201672
-0.263642 0.260889 -0.129044 0.225489 -0.152331 -0.449157 0.377813 -0.423379
0.342289 0.395106 0.416915 0.088798 0.448634 -0.049982 0.363297 -0.410949
-0.033694 0.063908 0.107612 0.011223 0.219829 0.429302 -0.073275 -0.206443
0.201564 0.217695 0.422896 -0.426664 -0.132191 0.127813 0.024202 0.402823
0.472437 -0.462243 0.313214 0.385767 -0.157349 0.316078 0.126574 0.486640
-0.130895 -0.389469 -0.332198 -0.399131 0.271791 -0.371105 -0.177551 -0.229515
0.392437 0.359503 0.178850 -0.160058 0.046494 0.092401 -0.163060 -0.266714
-0.094527 -0.022278 -0.339173 -0.078127 0.486712 0.108251 -0.160779 0.371561
0.009585 0.020761 0.374923 -0.495801 0.322256 -0.233522 0.008004 0.069750
0.044909 0.066042 -0.076402 -0.120512 -0.262072 -0.168648 0.062327 -0.476373
0.189521 0.445536 -0.470600 -0.117130 -0.139531 -0.240818 -0.109667 -0.291283
0.215329 0.119720 -0.234682 -0.091840 -0.051353 0.336878 0.182210 -0.014682
0.386191 -0.294190 0.346390 0.111382 -0.416005 -0.398851 -0.372479 0.130100
-0.455615 0.044055 -0.060173 -0.370985 -0.022251 0.128766 -0.381689 -0.250876
0.466949 -0.152203 0.070964 0.385172 -0.245139 0.132394 0.210808 0.107821
-0.352805 -0.170525 -0.495433 -0.266444 0.176616 -0.260854 -0.347497 -0.042609
0.254671 -0.099784 0.407080 -0.446909 0.448074 -0.097381 -0.037142 0.010131
-0.081092 0.467239 -0.308836 -0.101413 -0.490233 0.172436 -0.320683 0.056146
-0.267337 -0.498759 0.444339 -0.198538 0.455361 -0.171197 0.307297 -0.259368
-0.349188 -0.429890 0.180647 0.459419 0.299844 0.443322 0.057756 -0.154765
0.222536 -0.445214 0.046521 0.054041 -0.329063 -0.465519 0.465303 -0.127507
0.256420 -0.100093 0.221278 0.123767 0.384606 0.105017 0.128890 -0.023730
0.242639 0.485057 -0.273665 0.400208 0.095794 -0.223581 0.062519 0.234487
0.445321 0.165253 -0.284227 -0.492181 -0.275757 -0.406345 0.258909 0.108957
0.347287 0.419117 -0.308872 -0.075811 -0.399704 0.233742 -0.113805 -0.334532
-0.280648 -0.089270 0.394891 0.264847 0.354833 -0.088651 0.461866 -0.145935
0.149227 -0.131696 -0.269326 0.153994 -0.122490 -0.045554 -0.138707 0.398374
-0.050046 0.371372 0.182612 -0.408113 -0.451228 -0.258014 0.285350 -0.055576
0.307591 0.436923 0.292322 -0.025326 0.467023 0.073271 -0.215711 0.024702
0.408234 -0.381859 -0.178240 -0.422819 -0.135253 -0.116288 0.025159 0.482190
0.481775 -0.264014 0.147874 0.389882 -0.040090 -0.494737 0.365672 0.490940
-0.232532 0.176779 -0.427700 -0.241701 0.109631 0.232058 0.151599 -0.167411
-0.133346 -0.451640 -0.311631 -0.493113 -0.242322 -0.442042 -0.296428 0.428433
0.496222 -0.486692 -0.133450 -0.453026 -0.452507 0.469879 -0.413611 -0.199835
-0.159946 -0.416395 0.318862 0.042250 0.189426 -0.078245 0.414373 -0.447563
0.113695 -0.383427 0.216992 -0.383977 0.289887 -0.382026 0.262646 -0.069204
0.113021 0.068269 -0.154233 -0.347361 0.368787 0.074725 -0.152491 0.117162
0.017404 0.419642 0.442846 -0.185817 0.265948 0.173935 0.068344 -0.285448
-0.403434 -0.080845 -0.418188 0.031039 -0.167416 0.414993 0.355102 -0.262421
0.112427 -0.172125 0.062770 -0.026614 0.028759 -0.296001 -0.097704 0.364288
-0.440901 -0.119850 -0.193401 0.234138 0.378947 0.210246 0.448763 -0.365723
-0.028361 -0.233243 -0.176850 0.056827 0.247560 0.175806 0.487435 0.424273
0.285685 -0.059424 0.296123 -0.386138 0.116444 0.188831 -0.393849 -0.399629
-0.006705 -0.496154 -0.254320 -0.123548 0.287524 -0.191313 0.066144 -0.354627
-0.497602 0.103574 -0.202238 0.113522 0.032727 0.052112 -0.385977 0.129981
-0.175528 -0.316765 -0.147114 0.351696 -0.017025 -0.173990 0.420169 0.099364
-0.216116 -0.156973 0.277708 0.085841 -0.465126 0.336539 0.076537 0.065518
0.084639 -0.349027 0.069688 -0.262381 0.271696 -0.065351 -0.100566 -0.090485
0.133190 0.005885 0.186728 0.317138 0.152862 0.317328 -0.283965 0.255904
0.084677 -0.333485 -0.346865 -0.362507 0.278970 0.466517 -0.247733 0.393429
0.060627 0.351512 0.284650 0.020182 0.451490 -0.339695 0.150095 0.317144
0.241347 -0.323875 0.280021 -0.118272 0.431933 -0.496447 0.233104 -0.265135
0.458538 -0.356448 0.398884 0.051421 -0.204100 0.284300 0.435153 -0.084095
-0.324302 0.429470 0.138941 -0.430013 0.308791 0.070751 -0.379976 0.065692
0.394110 0.221192 0.202619 -0.369374 0.437004 0.057440 0.261781 0.485767
-0.388704 -0.093397 0.383281 -0.267142 0.405934 0.136946 -0.269016 0.377929
-0.293441 -0.249647 0.000061 0.171757 0.039719 -0.423500 -0.477999 0.098433
0.418404 0.182049 0.291280 -0.244079 0.360069 0.058169 -0.024024 -0.418808
-0.033736 -0.125884 0.012459 0.378860 0.469744 0.268529 0.303230 -0.243385
0.410196 0.324165 0.204375 0.248819 0.229292 0.270635 0.344012 0.302539
-0.391682 0.132746 0.341620 0.421716 0.211963 0.209719 -0.145401 -0.013284
0.303659 -0.430242 0.319599 0.021170 0.416132 -0.179992 0.238707 -0.009440
0.000781 -0.312187 0.312200 0.244929 -0.050182 -0.417877 -0.130674 -0.480796
-0.247798 0.038791 0.316349 -0.397926 -0.363425 0.466421 0.181718 -0.056753
-0.283410 0.436208 0.460911 0.115223 -0.262947 -0.368637 0.059652 -0.259395
-0.318396 0.264505 -0.121405 -0.220167 -0.381625 -0.430434 0.341123 -0.354499
0.264892 -0.163276 0.169980 -0.261029 0.472054 0.221401 0.001518 -0.357246
-0.256386 0.353476 0.206170 -0.154492 -0.451727 -0.187310 0.085836 0.385853
-0.439523 0.320969 0.351169 0.089234 -0.059675 0.012522 -0.207344 0.259708
-0.126867 0.243871 -0.128823 0.169743 -0.050216 -0.282460 -0.449377 0.411392
-0.342977 -0.319961 0.279411 0.249783 0.004169 0.298770 -0.325653 0.006057
-0.421170 -0.109192 -0.051623 0.468845 0.455433 0.494706 -0.004865 -0.480335
0.145142 -0.303303 0.397073 -0.435984 -0.402238 -0.343287 0.460376 -0.185780
-0.284846 0.000500 -0.056717 0.257803 -0.158417 -0.406245 -0.306111 -0.194183
-0.062178 -0.475002 -0.155042 0.333777 -0.124344 -0.221373 0.284095 -0.405073
-0.491993 -0.075403 0.130714 -0.418356 -0.340133 0.445019 0.273838 0.300439
-0.106154 0.399276 0.488761 -0.276629 0.425312 -0.367447 -0.348417 -0.151746
0.061519 0.150093 -0.146633 -0.426745 0.270618 -0.374610 -0.319573 -0.435151
-0.465005 0.271318 -0.481154 0.090407 -0.077054 -0.184194 -0.139835 0.005054
-0.247645 -0.496056 0.379896 -0.213843 -0.428363 0.431371 0.482750 -0.136158
-0.451922 0.403086 0.208501 -0.308376 0.004885 0.152034 0.268772 -0.132182
0.225918 0.456943 0.342675 -0.186892 0.029322 -0.426421 -0.324039 -0.493381
-0.484564 -0.092657 0.125161 -0.332659 0.249307 -0.426862 -0.262242 0.212005
0.077808 -0.366282 0.227585 -0.479023 -0.485445 -0.215604 -0.031527 0.321584
-0.074032 0.401108 -0.258986 -0.132490 0.128895 0.134766 -0.318113 0.237992
-0.314563 -0.436653 -0.188424 0.087728 0.084953 0.420290 0.016337 -0.246163
0.078857 0.432320 0.125012 0.177817 -0.425400 0.401550 -0.364682 -0.169461
0.116595 0.457372 0.382518 -0.200461 0.287495 -0.285543 -0.126052 -0.391230
-0.024178 -0.042611 0.030585 0.415771 0.238056 -0.150129 0.426775 0.421545
0.289150 -0.268136 0.233479 -0.341427 0.113855 -0.336129 0.236659 0.463985
0.000025 0.430374 0.467356 0.083898 -0.005474 0.211828 -0.246164 0.319959
0.296882 0.239641 -0.036787 0.178250 0.023652 0.093635 0.105498 0.233171
0.143088 0.086401 0.108356 -0.144080 0.026628 0.062637 0.344289 -0.379778
-0.204032 0.013482 0.007810 -0.075797 -0.344482 0.445061 -0.453420 -0.330744
-0.101109 -0.453153 0.442924 -0.118928 0.170095 -0.157015 0.114951 -0.331315
0.099910 -0.072602 0.437140 0.282930 0.296432 0.266468 -0.124315 -0.263746
0.391792 0.366839 0.217676 -0.034676 -0.086907 -0.395537 -0.146602 0.136492
0.446718 0.378459 0.298260 0.262216 0.450553 0.463591 -0.130083 0.019036
0.007108 -0.186599 -0.234820 0.494489 -0.217080 0.439282 -0.294255 0.445238
0.366234 0.084932 -0.033177 0.289762 0.238650 -0.132949 0.382259 0.121713
-0.109457 0.014805 0.387699 0.157965 0.183971 0.365867 0.315563 0.367156
0.166466 -0.320791 0.221859 -0.257511 0.383678 -0.047193 0.246250 0.266592
-0.192444 -0.048391 -0.244435 0.418793 0.438782 -0.295028 0.191471 -0.010564
0.019503 0.481555 -0.377140 -0.276218 -0.142943 0.076091 0.153309 0.186968
0.196188 0.113389 0.341449 -0.141060 0.256564 0.145711 -0.381943 0.222987
-0.099556 0.289100 0.023140 -0.271179 -0.174371 -0.439007 0.323258 0.058308
0.000450 0.211813 -0.227194 0.485419 0.077607 0.426955 -0.051912 -0.134921
0.162131 -0.019733 -0.360981 0.369157 -0.073774 -0.134621 0.118606 -0.340601
-0.316517 -0.388692 -0.324447 0.159348 -0.168797 -0.421804 0.240681 0.283360
-0.438337 -0.035568 -0.010415 -0.377044 -0.117350 -0.155317 -0.171475 0.103013
-0.411040 -0.113761 -0.201265 0.109800 -0.283777 0.166346 -0.035210 0.283929
0.352913 0.109605 0.212877 0.263927 -0.440178 0.032420 0.302899 0.119979
0.125024 -0.267108 0.229726 -0.219704 0.348719 -0.408623 0.262722 -0.168309
0.195445 0.241609 -0.262704 -0.373255 -0.377864 -0.040203 -0.181438 0.071283
0.477422 0.457149 -0.036639 -0.449645 -0.228426 -0.486236 0.065298 0.387063
-0.415873 -0.108391 0.360202 -0.179982 0.259608 -0.465633 0.268168 -0.369702
-0.059057 -0.375725 0.440484 0.423435 -0.056051 0.379962 -0.158217 -0.274090
-0.251369 0.455378 0.355497 -0.391046 0.176558 0.148264 0.303895 -0.143158
-0.210663 0.195958 0.450939 0.184699 0.295843 0.113389 0.276778 -0.401964
0.447740 -0.168832 0.354201 -0.229190 -0.477757 -0.134057 -0.059720 -0.071431
-0.478261 0.111822 0.106724 -0.232932 -0.052040 0.212147 -0.126102 0.256565
-0.482244 0.327635 0.416661 0.398810 0.259229 -0.363518 -0.436068 0.356026
0.150982 -0.329412 0.267321 0.279713 -0.228077 0.356457 0.417736 -0.424652
0.103444 -0.374396 0.105947 0.262932 -0.371076 -0.152535 0.300124 0.485953
0.271872 -0.384127 -0.421696 0.185186 -0.046283 0.012282 0.152141 0.261004
0.144643 -0.003128 -0.069073 -0.454631 0.009474 0.223504 0.136445 0.196134
-0.194555 -0.221807 -0.309209 0.412285 -0.042258 -0.082963 0.031369 -0.415203
-0.249684 -0.455989 0.223703 0.411081 -0.066806 0.203536 -0.217787 -0.174760
-0.423344 -0.310890 -0.136500 0.319899 0.296665 0.329581 0.141843 0.311052
0.133846 -0.360684 0.071615 -0.004065 -0.355663 -0.246849 -0.333133 0.419457
-0.303387 0.005276 0.077017 -0.411755 0.370868 0.005914 0.399172 -0.018008
0.134864 -0.270096 0.420995 -0.325558 -0.188501 -0.084526 0.137805 0.078607
-0.273669 0.021778 -0.091114 -0.027264 -0.231126 0.446754 -0.221776 -0.361402
0.310309 -0.153935 0.142736 -0.230102 0.300204 -0.255555 0.443736 -0.139848
-0.278086 0.468743 0.486157 -0.165545 -0.162022 -0.243424 0.278329 0.451135
-0.206588 -0.023523 0.024035 0.313465 -0.406705 0.441402 -0.186304 0.258112
-0.482056 0.275599 -0.249624 -0.428763 0.386129 -0.099894 0.301243 -0.038985
-0.223459 0.247466 0.053418 -0.040182 -0.065613 0.157319 0.250738 -0.377092
-0.358754 -0.215948 0.119913 -0.218244 0.303241 0.160251 -0.116356 -0.272766
0.495771 -0.482892 -0.085605 0.090244 0.339449 0.197238 0.020636 -0.041078
0.079990 0.396344 -0.134964 -0.006688 -0.229171 0.407236 0.199787 -0.196717
0.399177 0.383012 -0.386754 -0.349815 0.352532 -0.104931 -0.169406 0.171776
0.365054 0.302107 -0.142905 -0.400503 -0.070003 0.441634 -0.113923 0.439399
-0.494666 -0.016301 0.281750 0.384825 0.431394 -0.232883 0.199499 0.436807
-0.204127 -0.384187 -0.367845 -0.454659 -0.337898 -0.058461 0.406042 0.171981
-0.438301 -0.384876 0.310858 -0.481481 0.394601 0.429722 -0.427824 -0.455844
0.207690 0.233065 0.267627 -0.258708 -0.185896 -0.164077 0.084550 0.375818
0.180401 -0.415179 -0.012049 0.057652 -0.014828 -0.424224 -0.350219 0.292621
-0.473288 -0.040505 -0.331191 -0.441579 -0.305135 -0.302289 0.182493 0.333510
-0.320625 -0.226598 0.117529 -0.349083 -0.197293 0.305599 -0.038384 0.450022
-0.438800 -0.454512 -0.359086 -0.230177 0.482662 0.224150 0.133421 0.076480
0.416146 0.454765 0.033618 0.491257 0.248695 -0.000091 -0.171696 -0.024051
-0.220702 0.030942 -0.480914 0.043722 -0.334808 -0.379637 0.157282 0.422094
0.097758 0.350094 -0.019233 0.021243 -0.138518 0.000023 -0.157552 -0.446138
-0.486639 -0.209705 -0.175464 0.466383 0.495659 0.161998 0.035790 0.401151
-0.066747 -0.064431 -0.268524 -0.451991 -0.435459 0.248663 -0.293737 0.206669
0.034459 -0.035269 -0.142099 -0.028871 -0.439809 -0.257295 -0.268902 0.305105
0.460708 0.372500 0.453770 0.474963 0.431447 0.084522 -0.335753 0.134561
-0.029668 -0.472602 -0.259249 0.341503 0.488393 -0.060403 0.026133 -0.275712
-0.404105 0.197825 -0.119637 -0.417372 0.145370 0.317290 0.416563 0.106547
-0.202910 0.190912 0.025017 -0.258018 -0.201975 -0.255963 -0.136709 0.363673
-0.334729 0.287927 0.179846 0.387878 0.047356 0.186519 -0.498664 0.055827
-0.267830 -0.444245 -0.137533 -0.435923 -0.400434 0.446008 0.177326 0.033582
-0.475830 -0.141273 0.108542 -0.477058 0.452047 0.092215 -0.373199 0.269733
0.089005 -0.296743 -0.491695 0.152635 -0.115655 0.408340 -0.263765 -0.478346
-0.348413 -0.235020 0.141032 0.318455 -0.356375 -0.430731 0.343178 -0.424204
0.067300 -0.069792 0.163247 -0.024508 -0.027572 -0.288147 -0.235817 0.079258
0.434706 -0.281417 -0.075733 0.399607 0.450731 -0.093213 0.131208 -0.146749
-0.168532 -0.447898 -0.382932 -0.207705 -0.067012 0.348328 0.183891 0.070174
-0.154263 0.268054 0.459674 -0.299790 0.478997 0.249774 -0.453795 0.313708
0.014708 -0.435411 0.107629 -0.000355 -0.012038 0.444014 0.215717 0.403441
-0.197650 0.318437 -0.340465 0.046997 0.206369 0.420253 0.265060 -0.463421
0.224330 -0.091487 -0.048009 0.469036 -0.008420 -0.222490 0.429108 -0.003566
-0.230577 0.327524 0.358340 0.481748 -0.415368 -0.157599 -0.071345 -0.358075
0.121019 0.199336 -0.275052 0.434127 -0.013054 -0.036311 0.399951 0.449191
-0.123129 0.498063 -0.315032 0.043870 0.466729 -0.200831 -0.239860 0.308864
-0.202742 0.079811 0.036698 -0.243942 -0.098490 0.048805 0.030138 -0.189076
0.191619 -0.061592 0.012770 -0.036448 -0.333524 0.240873 -0.170742 0.146266
0.193834 0.057512 0.469480 0.132942 0.011772 0.178338 -0.382340 0.223389
0.287933 0.080011 -0.432694 0.185120 -0.105868 -0.205264 0.494015 0.125785
-0.128065 0.343310 0.497787 -0.233928 -0.394991 0.279091 0.405898 -0.491030
0.390424 -0.020560 0.473554 0.203728 0.420068 0.271531 -0.362637 0.293909
0.303629 -0.007362 0.496860 0.006398 -0.333875 -0.383366 -0.007304 -0.192609
0.043824 -0.350829 -0.296691 -0.081666 -0.182694 0.457229 -0.123526 0.466198
-0.365372 0.184277 0.412846 -0.195842 0.344822 -0.413182 -0.354660 0.109857
-0.037037 -0.338721 0.306853 -0.236969 0.484656 -0.420442 -0.326104 -0.491576
0.231647 0.330015 -0.354083 0.103489 -0.184513 0.124786 0.290429 0.128543
0.133247 0.080308 0.413308 -0.150055 0.291129 -0.303760 -0.230509 -0.274853
0.143153 -0.268739 0.381012 0.199593 0.123046 0.453332 -0.288353 0.205934
0.429960 0.138950 0.490276 -0.041619 -0.340131 0.356146 0.253659 -0.441949
0.407994 0.261676 0.278495 0.224848 -0.010955 0.052884 -0.408334 0.495951
0.173080 -0.053759 0.201496 0.081700 -0.345097 -0.373768 -0.160108 0.436227
0.164105 -0.045537 0.302230 0.083002 -0.460929 -0.137308 0.025613 -0.492558
-0.321456 -0.143905 -0.020671 -0.322350 -0.043590 0.241115 0.040729 0.143907
0.012698 0.064402 0.081159 0.048448 0.197594 0.055371 0.215496 0.191590
-0.142216 0.105538 0.258253 0.121493 -0.051603 -0.123755 -0.257997 -0.061675
0.209576 0.315449 -0.224445 -0.292590 -0.002508 -0.045148 -0.239525 -0.307012
-0.207494 0.344418 -0.281904 0.488607 -0.452802 0.013713 0.420955 0.081785
0.366067 -0.369435 -0.195971 0.376052 -0.499073 -0.058948 0.473651 0.205832
0.482082 0.193456 0.401672 0.123673 0.245913 0.401802 0.353586 0.204162
0.018787 -0.366111 0.436558 0.450325 0.058321 -0.352401 0.338817 0.227514
0.485343 0.238698 -0.394845 -0.496995 0.299770 -0.136027 0.227872 0.383511
-0.368461 0.391140 0.325202 -0.495570 0.218166 0.349942 -0.423541 -0.144653
0.010063 -0.191079 0.482094 0.127039 0.148476 -0.131313 -0.425384 0.423258
-0.147171 0.480186 -0.181375 -0.305404 0.088794 0.441075 -0.280136 -0.104088
0.434561 0.293435 0.022125 0.400918 -0.328955 -0.068612 -0.305383 0.335688
0.321442 -0.312212 0.341502 -0.177219 0.467002 0.486182 -0.091101 -0.146496
0.041924 0.096082 0.190725 0.442782 -0.134933 -0.251332 0.337409 -0.229198
0.494651 -0.197016 0.202818 -0.247106 0.047211 0.152825 -0.341844 -0.274655
-0.441166 0.187072 -0.452296 0.106118 0.379609 -0.048887 0.354253 0.152848
-0.031557 0.157165 -0.170566 -0.439473 -0.360307 -0.033450 -0.445445 0.157936
0.483420 -0.402899 -0.437881 -0.363060 -0.156733 0.436939 -0.413370 0.002839
0.067928 -0.471195 0.412617 0.206790 -0.064690 -0.245100 0.044410 -0.080942
0.158760 0.055380 -0.353960 0.066588 0.209257 0.364630 0.215017 -0.334045
0.325236 -0.346063 0.493604 -0.159415 -0.181000 0.066419 0.168665 -0.362656
-0.074580 -0.251556 -0.050397 0.049688 -0.251553 -0.064076 0.259844 -0.450988
0.237891 0.240813 -0.060054 -0.159825 -0.022641 0.229884 0.393191 0.264896
0.359971 0.145098 -0.115094 0.116878 -0.032374 -0.256143 0.269258 0.046212
0.081089 0.041479 -0.430035 0.335941 0.331328 -0.016601 -0.320758 -0.454001
0.189845 -0.286203 0.333312 0.191387 0.238077 -0.403219 0.233789 -0.090756
0.030745 0.258330 -0.268237 0.417909 -0.002851 0.447189 -0.137719 0.166285
0.212463 -0.026681 -0.488936 0.225583 -0.263291 0.268710 -0.179890 -0.404791
-0.384116 0.240250 -0.377912 -0.168657 0.280249 0.098476 -0.303104 -0.459970
-0.498234 0.191852 -0.163771 -0.320135 -0.081968 0.150038 -0.003338 -0.099905
0.251883 0.153463 -0.152590 -0.004025 0.259508 -0.392658 -0.199106 0.409589
0.247232 -0.485075 0.116011 0.406560 0.360266 -0.198399 -0.417196 -0.428069
-0.153413 -0.444889 -0.201244 0.424474 -0.006447 -0.352883 0.422313 -0.492201
0.195507 -0.127326 -0.369555 0.090592 -0.293198 -0.034405 0.488436 -0.172581
0.299086 0.471519 -0.433143 -0.363892 -0.060320 -0.231438 -0.161457 0.354977
0.219557 0.370692 -0.408866 0.056553 0.478090 0.485558 0.063558 0.248407
0.264132 0.397457 -0.152590 -0.325466 0.281494 0.362287 -0.304148 -0.102236
0.150962 -0.166621 -0.329857 -0.227862 0.303410 0.401049 -0.431183 -0.333490
0.068358 -0.058911 -0.066503 -0.375589 0.210443 0.277838 -0.153282 0.183372
-0.134000 0.077628 0.183310 -0.350698 -0.436027 -0.397476 0.042986 -0.477847
0.134528 0.208134 0.188424 -0.417521 -0.262259 0.145452 -0.114833 -0.078127
-0.076454 -0.058573 -0.288236 0.054589 0.093663 0.335126 0.352347 -0.237382
0.160593 -0.372909 0.242050 0.267249 0.122705 -0.460270 -0.284521 -0.355763
0.376907 -0.304988 0.287437 0.371919 0.236132 -0.167442 0.382151 -0.102053
-0.377782 0.466724 0.076033 -0.015968 -0.444839 0.232095 -0.130136 -0.017951
0.245217 0.111029 -0.063612 -0.309414 -0.180656 -0.141069 -0.011491 0.355521
0.447774 0.286686 -0.414588 0.255424 -0.492212 0.191064 0.475642 -0.294693
-0.435202 -0.399862 0.003771 -0.244474 0.007879 0.182552 -0.498475 0.042204
-0.433668 0.404324 0.097328 0.125831 0.336646 0.298881 0.391745 -0.242165
-0.402498 -0.179707 -0.032695 0.079130 0.390046 0.102168 -0.353148 -0.168404
-0.254297 0.289084 0.251443 -0.282010 -0.212997 -0.419810 -0.461608 -0.191936
-0.288233 -0.309393 -0.117966 -0.397183 -0.298131 -0.059444 -0.090959 0.430672
0.051765 0.454354 0.471282 0.432080 -0.370097 -0.355511 -0.098022 0.061173
-0.276292 -0.002713 0.333042 0.186401 -0.134452 -0.181454 0.175514 -0.209823
0.248070 0.184233 -0.377456 -0.008231 0.425990 0.095539 -0.153068 0.122653
-0.468115 0.458603 0.117090 0.452263 0.044240 -0.113137 0.254318 -0.083746
0.263811 -0.483692 -0.057156 -0.097643 -0.059576 0.388961 0.469692 0.465376
0.145602 0.011215 0.329618 -0.470183 -0.196625 0.044559 -0.184192 0.022857
-0.252933 0.216581 -0.482272 0.189305 -0.084283 0.132332 0.163050 0.054177
0.181682 -0.401147 -0.180217 0.205726 -0.382553 -0.017442 0.123758 -0.365806
0.239034 -0.121298 -0.274190 0.299208 -0.006546 0.415712 0.177567 0.449212
-0.499470 -0.189357 -0.227762 0.403433 -0.231336 -0.360272 0.080531 0.264966
-0.218717 0.007490 -0.106627 -0.140363 -0.228580 0.031448 -0.029028 0.135175
-0.069889 0.020197 0.187629 0.123427 0.285517 -0.006564 0.114702 0.130536
-0.491002 0.187373 0.251657 0.307051 0.085290 -0.219886 -0.297516 -0.035145
-0.351219 -0.457282 -0.031054 0.361140 0.388592 -0.325988 -0.395528 -0.055801
0.286892 -0.074585 0.188312 0.180966 0.280270 0.296880 -0.077152 -0.099017
-0.444303 0.255257 -0.331556 -0.032483 0.324925 0.238407 -0.479295 -0.152647
-0.342977 -0.255592 -0.142075 -0.197900 -0.363304 -0.022194 -0.270393 -0.285071
-0.115993 -0.072328 -0.210287 -0.102664 -0.059578 0.420911 0.204661 0.363259
-0.210050 -0.244470 -0.050743 -0.114983 0.088513 -0.019668 -0.265040 0.160986
-0.241737 0.334633 -0.465953 0.294360 -0.143040 0.357548 -0.490159 0.182684
-0.407764 0.389513 -0.184050 0.202689 -0.361765 0.354816 -0.176449 0.480858
-0.122204 -0.135031 0.017399 -0.315818 0.260232 0.310658 0.042233 0.356773
-0.345946 0.390654 0.082983 -0.400419 0.040576 -0.358692 0.308333 0.304832
-0.480427 -0.159927 0.436398 0.307404 0.416909 0.366749 0.023119 -0.308037
-0.021013 -0.270858 -0.290782 -0.442268 -0.157089 0.172317 -0.231912 0.416847
0.378913 0.075487 -0.089454 -0.313053 0.471735 0.480311 0.002729 -0.461630
0.467768 0.366012 0.276834 -0.382100 -0.096659 0.466680 -0.229584 -0.034286
-0.280542 0.094067 0.222237 0.164891 0.432304 -0.189246 0.111211 -0.469704
-0.251096 -0.387349 -0.381388 -0.413140 0.210059 0.384284 -0.293670 -0.018114
0.024215 -0.189283 -0.429318 -0.315043 0.070664 -0.354260 -0.388673 0.220629
-0.286891 -0.385460 0.326355 0.317345 -0.319978 0.004796 0.092969 -0.328430
-0.092312 -0.294928 0.067408 -0.483201 -0.213796 0.334184 0.377249 0.316216
-0.417933 -0.151070 0.159571 0.327154 0.070524 -0.368238 -0.278223 -0.466511
-0.054315 -0.496257 -0.192154 -0.309274 -0.270149 -0.339094 -0.035141 0.072637
0.080216 0.206258 -0.112198 -0.110706 -0.141972 0.495185 -0.082083 -0.150079
0.344611 0.134703 -0.152924 -0.280031 -0.114427 0.307381 0.241073 -0.437269
0.173762 0.178354 0.267352 0.308932 -0.405958 0.116593 -0.164001 -0.437022
-0.316259 -0.068307 0.006650 -0.297464 -0.098355 0.227147 0.120271 0.351595
0.305887 0.352163 0.318599 -0.251836 -0.317963 0.101784 0.267951 0.260133
0.084823 -0.403611 0.333617 0.154516 0.164971 -0.135636 0.301735 -0.319581
-0.270633 0.227626 -0.089816 -0.293854 -0.495054 -0.004808 -0.467538 0.098330
0.030597 0.328927 -0.051285 -0.017225 0.156948 -0.048340 -0.466656 -0.352900
0.392870 -0.226398 -0.429427 0.074924 0.061648 -0.082454 -0.456671 -0.107602
-0.115185 -0.472321 0.455066 -0.153481 -0.194474 0.473446 0.228105 -0.331886
0.423281 -0.092138 0.114955 -0.016025 0.292964 -0.208626 -0.441429 0.186554
-0.357786 0.026210 0.343446 -0.203881 0.482752 -0.414695 -0.167952 -0.466331
-0.212468 0.194105 0.360092 0.443867 -0.040817 -0.200269 -0.036522 -0.427574
0.494407 0.216740 0.283252 -0.458181 0.022833 0.090692 0.046605 0.074978
-0.484693 0.214891 -0.216683 0.076517 -0.441839 0.465548 -0.299671 -0.147247
0.462318 -0.347772 0.009577 -0.419583 0.050431 -0.290328 -0.324729 0.254570
-0.204682 -0.086668 -0.257419 0.470144 0.056584 0.105091 0.330614 0.303381
-0.260159 0.051827 -0.010848 -0.443831 0.160814 -0.325162 -0.417115 -0.188411
-0.199978 0.262747 0.034417 -0.380927 -0.356270 -0.302945 -0.439615 -0.317644
-0.171752 -0.433744 -0.444177 0.481074 -0.079478 -0.423193 -0.369613 0.417762
-0.310957 0.224066 -0.468309 -0.072886 0.142901 0.029773 0.359714 -0.300891
0.109818 -0.267467 -0.170971 -0.072370 0.353934 -0.415628 -0.364240 0.208409
-0.258560 0.129231 -0.258056 0.253274 -0.272797 0.442934 0.418451 0.055474
0.456967 0.324227 0.083435 -0.398099 0.045872 -0.368500 0.484325 -0.422259
-0.071494 -0.100556 0.257604 -0.044538 -0.359063 -0.433791 0.291087 0.254694
0.119225 -0.095661 -0.364669 -0.265158 -0.038394 0.284020 -0.398247 -0.474173
0.421122 0.210813 -0.392105 -0.038056 -0.165554 0.263794 0.215343 0.457465
-0.160738 -0.096778 -0.314346 0.270829 0.372523 -0.270511 0.411236 0.339428
-0.385394 -0.053748 0.336998 0.147904 -0.277062 0.221664 0.422514 0.343039
0.097259 0.443035 0.310881 0.166190 -0.360959 -0.262202 -0.363407 -0.085993
-0.464766 0.373456 0.062230 0.032690 -0.190477 -0.276936 -0.269893 0.385512
0.236958 -0.098197 0.089195 -0.186295 0.383158 0.478673 -0.410296 0.171806
0.443087 0.428377 0.198350 -0.446094 -0.223200 -0.416785 -0.395174 -0.168848
-0.269211 -0.302879 0.246638 0.452340 0.389926 -0.405253 -0.364592 -0.487512
-0.000826 0.355544 0.383387 -0.083523 0.122680 -0.001719 -0.065350 0.025740
0.246096 0.037558 0.065486 0.263820 0.269424 0.220212 -0.485890 -0.343977
-0.173370 0.215237 -0.206758 -0.161807 0.263969 0.359924 -0.190410 0.214686
-0.223355 -0.254401 -0.109096 -0.164991 0.080764 -0.462693 -0.296881 -0.446782
-0.409920 0.438743 -0.172806 -0.273657 0.047618 -0.422809 0.269851 -0.023335
-0.334904 -0.494970 0.339369 0.446511 0.246193 0.203109 -0.479022 -0.477491
-0.150074 0.345477 0.465162 -0.443443 0.483198 0.171523 -0.214804 -0.083697
0.419224 0.218993 0.326393 -0.226550 0.326649 0.151429 0.291603 0.260324
0.220313 0.298838 -0.277769 -0.465130 0.320097 -0.431298 -0.222936 -0.163844
0.462454 0.435750 0.037417 0.266497 -0.173777 0.389696 -0.261005 0.192893
0.273716 -0.118477 0.008319 0.489685 0.080990 0.083631 -0.107000 -0.471063
-0.174633 0.306610 0.234039 0.290898 0.214946 0.242304 0.390110 -0.297784
0.346731 0.359990 -0.258689 0.267998 -0.039160 0.220223 -0.106188 0.062544
0.412778 0.336085 -0.212385 -0.143889 0.148352 -0.011837 0.300133 0.302980
0.474702 -0.297318 -0.441738 -0.121291 0.062025 -0.385264 -0.310228 0.351658
0.244746 -0.168920 0.000471 -0.208545 -0.078181 -0.023802 -0.366918 0.436469
-0.413675 -0.028214 0.077931 -0.073983 0.238583 0.493174 -0.473920 -0.203621
-0.030215 0.068784 -0.462762 0.137062 -0.005588 -0.362020 -0.475398 0.013212
-0.316338 -0.059860 0.294950 -0.455938 0.358939 -0.040805 0.089014 0.418847
0.175473 -0.150338 0.447611 -0.315242 0.141046 -0.428492 -0.413714 -0.009662
0.189032 0.396140 -0.011096 -0.150437 -0.097590 0.124637 0.184035 -0.493644
-0.161780 -0.490615 -0.286700 0.114279 0.476360 0.269203 -0.196456 -0.328732
-0.165435 -0.359391 -0.420280 0.452996 -0.239222 0.438754 0.267766 0.406931
0.373162 -0.060129 0.479340 0.274354 0.339141 -0.271492 0.120450 -0.054632
0.386183 -0.250293 -0.468426 -0.478096 -0.103376 0.225320 -0.278714 0.000542
-0.178545 0.446246 0.215759 0.157187 0.474741 -0.348753 -0.463852 0.322238
-0.448030 0.401852 -0.229700 -0.407695 0.379228 0.280900 -0.390740 -0.258065
0.154700 -0.491185 0.012850 0.137335 0.216908 -0.184933 0.041045 -0.044387
-0.282256 -0.300961 0.256016 0.086779 -0.025364 0.487053 0.467547 -0.157180
0.114082 0.000580 -0.025386 -0.457002 0.065943 0.286242 0.349486 0.369759
-0.305404 -0.233912 0.330605 -0.410334 -0.366723 -0.402442 -0.404219 0.275472
-0.096631 -0.093588 -0.130262 0.472672 -0.194983 -0.471459 0.056706 -0.429604
0.463516 -0.299975 0.045438 0.162424 -0.423194 0.097898 -0.098395 -0.060965
-0.363300 0.127791 -0.239214 -0.364281 0.218947 0.176441 0.421725 -0.178978
-0.289028 0.157739 0.493394 0.425545 0.202653 -0.403089 0.452748 0.490615
-0.138912 -0.124090 0.365598 0.424696 -0.053327 -0.407493 0.094193 0.319179
0.211700 -0.275980 0.394462 -0.372055 -0.442020 -0.459127 0.012399 -0.083462
0.497793 0.433976 0.289784 0.441447 0.219226 0.031378 -0.215150 -0.253395
-0.123221 -0.480118 -0.365131 -0.464106 0.200726 -0.028909 -0.205109 0.234625
-0.414000 0.027115 -0.154632 -0.451141 0.300324 0.478595 0.266001 0.168470
0.065731 0.119797 0.312713 -0.267246 -0.215538 -0.273409 -0.431867 -0.227716
-0.437080 0.479942 -0.375717 -0.260173 -0.213763 -0.032121 -0.217910 -0.386381
-0.494364 -0.254893 0.187517 0.407699 -0.230683 0.171965 0.455879 0.182277
0.363102 0.120914 -0.204406 -0.448302 -0.159775 0.439407 -0.374631 0.431397
0.270248 0.397684 0.075133 0.370720 -0.254231 -0.208742 0.076112 0.216174
-0.193698 0.108172 0.392563 0.149884 0.301253 0.033987 0.050809 0.311586
-0.175114 0.187076 -0.087986 -0.462994 -0.218721 0.302920 0.295203 0.028322
-0.305294 0.469733 0.210901 0.270283 0.357881 -0.067632 -0.299438 -0.106997
-0.162760 0.479106 -0.439785 -0.495758 0.227237 -0.328099 0.228927 0.202159
-0.261269 -0.345957 0.278068 -0.248861 0.065258 -0.120956 -0.179366 0.229290
-0.246963 0.205019 0.119393 -0.161125 0.418868 -0.153941 -0.052280 -0.254626
-0.237987 0.170365 -0.028361 -0.438234 -0.170274 0.395605 0.263263 -0.133440
-0.122402 -0.350355 -0.339569 -0.280802 -0.147863 0.070599 -0.382629 -0.382398
-0.251191 -0.136385 -0.456232 0.205810 -0.348468 -0.466023 0.038448 0.425374
-0.478034 0.495768 0.260286 0.080448 0.043148 -0.157375 0.367130 0.236520
0.253645 -0.470197 0.455192 -0.172401 0.263087 0.003485 0.272156 0.335963
0.471312 0.437341 0.181105 -0.024559 0.154873 -0.247096 0.061046 0.027005
-0.007493 0.031146 0.484073 0.032861 0.131216 0.381811 0.389330 -0.282253
-0.457558 -0.273253 -0.290050 0.242675 -0.395542 -0.163234 -0.176838 -0.024003
-0.441467 0.246259 -0.375331 -0.249516 -0.115384 0.377920 -0.035220 0.480024
0.155481 0.470334 -0.023997 -0.459643 -0.221588 -0.161558 0.354914 0.128424
-0.421844 0.151055 -0.356397 -0.076469 0.303590 -0.256595 0.127769 -0.258096
-0.178673 0.307144 0.286715 0.498957 0.191209 0.433260 -0.338683 -0.299005
0.282563 -0.123646 0.427052 -0.353106 -0.033821 -0.391959 0.052741 0.059248
-0.074204 0.498724 -0.103885 0.323944 -0.110217 0.228181 0.032019 -0.214655
-0.438048 0.208359 -0.352078 -0.350303 0.121672 0.262572 0.366182 -0.471380
0.309708 -0.176657 -0.316510 -0.398727 0.435891 -0.488925 -0.080680 -0.071543
0.365413 -0.197146 0.087343 -0.004140 0.121977 -0.107073 -0.293077 -0.134437
0.250257 -0.304181 -0.314003 -0.158193 0.300653 -0.263757 0.271169 -0.379569
0.072482 -0.256833 -0.266278 0.309446 -0.324018 -0.271410 -0.381292 0.162973
-0.226871 0.195513 0.403465 0.280248 0.462771 -0.087253 -0.357703 -0.147347
0.251945 -0.477942 -0.172063 -0.446713 0.061021 0.009719 -0.007063 -0.371610
0.380655 0.342247 0.467001 0.079807 0.352975 0.138550 0.367935 0.402400
-0.493671 0.495662 -0.481794 0.000716 -0.298646 0.422532 0.489257 0.424719
0.184107 0.232491 0.325719 0.313940 0.084620 0.270710 -0.208868 -0.186256
-0.190306 -0.440601 0.438429 0.004006 -0.395675 -0.472863 -0.120690 -0.092667
-0.112223 -0.403977 0.283847 -0.283366 0.147587 0.121416 0.019315 0.347613
0.122521 -0.408478 0.424149 -0.344850 0.275062 0.219634 -0.098214 -0.028859
0.181411 0.094709 -0.445663 0.268478 -0.367684 -0.274217 0.376857 0.411686
-0.112611 -0.407557 0.449509 -0.016462 0.435664 -0.287361 0.185632 -0.188515
-0.110811 0.042271 0.244245 -0.481469 -0.194427 -0.321285 0.485313 -0.197721
-0.499537 -0.498395 0.343917 -0.126090 -0.231309 0.496574 -0.484440 -0.386818
-0.235647 0.116555 0.403641 -0.474842 0.436371 -0.219176 -0.323906 0.135942
0.487263 0.451197 -0.496325 -0.102363 -0.317776 0.054760 0.115511 0.230860
0.332037 0.366641 -0.158636 0.347481 -0.223620 0.212059 -0.178550 -0.215286
-0.465619 0.131248 -0.455713 -0.143275 0.411860 0.357380 0.127222 0.086477
0.278341 0.290301 0.406618 0.239877 0.444939 0.413982 0.459917 0.072337
-0.021406 0.101131 0.050902 -0.037660 0.444888 -0.111274 -0.481867 -0.221114
0.270407 -0.407418 -0.028495 0.295549 -0.232762 0.190065 0.321487 -0.090774
-0.483030 0.299166 -0.378595 -0.259528 -0.337877 0.233538 -0.082573 0.453931
-0.420528 -0.046543 -0.025457 0.063333 -0.494927 0.009584 -0.198530 -0.144158
-0.437401 0.270888 -0.112385 0.321435 0.188449 0.223753 0.315867 -0.399643
0.027622 0.176418 0.225974 0.483320 0.366010 -0.072987 -0.380867 0.263140
-0.082850 0.127711 0.131111 -0.291216 0.435188 -0.275867 0.471845 -0.011152
-0.327698 -0.474175 -0.231279 -0.493179 0.063403 0.103777 0.060287 -0.042575
0.479104 -0.124624 0.240107 0.277901 0.012694 0.251130 -0.468372 -0.497778
-0.048620 -0.462713 0.149282 0.153309 -0.172751 -0.461500 -0.258572 0.448792
-0.290694 0.154634 -0.081629 0.108126 0.083255 -0.393553 -0.073399 -0.403096
0.433272 -0.000045 -0.486811 0.293803 -0.272909 0.150168 -0.395636 -0.248355
0.282847 0.175661 -0.335848 -0.228371 0.454085 -0.275402 0.001993 0.292762
-0.045631 0.377723 0.222172 0.162842 0.079023 0.032101 0.419395 0.062156
0.203287 0.015284 0.127989 -0.348960 -0.173542 0.203058 0.359139 0.179466
-0.016521 0.440809 0.013248 0.419045 0.257704 -0.199218 0.093891 -0.193233
0.277160 0.322396 -0.203643 0.387438 0.096632 -0.451545 0.187228 0.351526
0.045721 0.145419 -0.273208 0.256802 -0.246381 -0.324236 0.287262 -0.011533
0.157513 0.253068 0.367360 -0.391029 -0.056343 0.319107 0.434986 0.330188
0.325115 0.135287 -0.209754 0.074855 0.188196 0.049162 0.484829 0.124088
-0.067945 -0.001550 0.405948 0.254796 0.375030 -0.426969 -0.366153 0.268295
0.464606 -0.092231 -0.416071 -0.387041 -0.466707 -0.062065 0.165194 0.045733
-0.020243 -0.014408 0.097129 0.414012 0.060202 0.117869 0.138467 -0.202674
0.356167 -0.325670 -0.247214 0.102103 -0.113486 -0.315721 0.274506 0.266606
-0.367391 0.146703 -0.221189 0.154803 -0.323070 -0.221142 -0.265973 0.243776
-0.193022 -0.080827 0.416906 0.293697 0.135592 0.412588 0.205617 0.067299
0.170636 0.268183 -0.073342 -0.129071 0.001695 0.248909 0.203356 -0.039113
0.020351 -0.331907 -0.040821 0.231051 -0.207864 0.061010 0.434163 0.044969
-0.395706 -0.027512 0.018911 0.378844 -0.118940 0.027205 0.377007 0.200050
0.371684 0.444484 -0.381629 -0.157618 -0.018745 -0.050799 -0.487791 -0.355306
0.188389 -0.085057 -0.305320 -0.171024 0.434409 0.315080 -0.270870 -0.084420
0.025661 -0.363838 0.120666 0.469799 0.004367 -0.077901 -0.296344 0.212479
0.046621 -0.147719 -0.197610 -0.438228 -0.372823 -0.418267 -0.131257 0.300683
0.202240 0.119281 -0.413770 0.041217 -0.365699 0.493174 0.168081 -0.139782
0.206423 0.434743 -0.331173 -0.341932 0.257877 -0.274868 0.029306 0.449016
-0.014294 0.402440 0.228418 -0.425929 -0.494343 -0.111344 0.464656 0.444275
-0.304893 -0.105827 0.399283 -0.190749 -0.160137 -0.031694 -0.062523 -0.060141
-0.345408 -0.414182 0.249059 -0.073925 0.033000 0.464991 -0.385924 0.044457
0.147360 0.153486 -0.283969 0.115043 -0.166301 0.221337 -0.471759 0.201499
-0.072557 0.358629 -0.216003 0.339551 -0.159796 0.030084 -0.178036 0.171070
-0.432223 0.337858 -0.000327 0.212121 -0.041007 0.158243 -0.325752 0.157146
-0.018610 0.259469 -0.191237 -0.171645 0.110203 -0.409410 0.089694 -0.466661
0.080844 0.494770 -0.050314 0.241529 -0.305368 -0.440693 -0.329993 0.450318
-0.433011 -0.023863 0.234345 0.076777 -0.402657 0.320555 -0.297443 -0.244422
0.001960 -0.041907 -0.345733 0.077287 -0.087202 0.378714 0.283682 0.322188
-0.090258 0.066806 -0.052816 -0.200345 0.432899 0.091171 -0.050704 -0.365578
-0.147448 -0.435715 0.127193 0.320517 -0.238003 0.481246 0.314885 -0.181667
-0.374918 -0.369542 0.159591 0.113066 -0.274238 0.310056 0.274293 0.474863
0.255734 -0.104787 0.269669 -0.415800 0.156362 -0.389921 0.292055 0.435031
-0.029154 0.235624 -0.280968 -0.397610 -0.102926 0.134254 0.008510 -0.298255
0.030875 -0.324273 0.073568 -0.364356 0.362156 0.108675 -0.378993 0.401794
0.064616 0.436622 -0.410680 -0.087591 -0.281367 0.402258 -0.408915 0.197876
-0.137126 -0.257573 -0.165344 -0.001842 0.379168 -0.147029 -0.186095 -0.266972
0.256464 -0.149287 0.371385 -0.382347 0.386051 0.374397 0.359439 -0.461622
-0.432605 0.085275 -0.314393 -0.059067 0.220570 -0.317410 -0.276853 0.081632
-0.393467 -0.462576 0.421032 0.066437 0.213984 -0.499195 0.260431 -0.224482
0.441556 0.008155 -0.142118 -0.466769 -0.154653 0.112181 0.083388 0.184777
-0.229186 -0.159264 0.167510 -0.460140 0.070270 0.397448 -0.370137 0.326109
0.433507 0.214556 -0.001347 -0.393555 0.065239 0.252848 0.036283 -0.257669
-0.478491 0.393386 0.333208 -0.361983 -0.474065 -0.272677 -0.111557 0.335971
0.374548 -0.033493 -0.056335 0.338748 0.278650 -0.065526 -0.305203 -0.407660
-0.213871 0.185425 0.293348 0.461342 0.391487 0.183410 0.235836 0.368413
0.182286 -0.296658 -0.375211 0.215830 -0.085011 0.061729 0.422966 -0.241702
-0.433171 -0.254211 0.012584 -0.203424 -0.320697 0.005840 0.392395 0.205860
-0.012464 -0.425051 0.179557 0.332855 0.031023 0.067030 -0.178738 0.448857
0.178900 0.096009 -0.395359 -0.104969 0.485372 0.486585 -0.485002 0.473984
0.410016 0.417926 -0.257432 0.478310 -0.356914 -0.429744 0.343654 0.471542
-0.336946 -0.411171 -0.149835 0.031809 -0.395818 0.211372 -0.312237 0.194997
0.485546 0.417667 -0.303042 0.365623 -0.275937 -0.050618 0.391579 -0.397987
0.387418 -0.125868 0.251260 -0.092762 -0.159310 -0.421359 -0.474021 -0.073330
-0.166291 0.288000 0.041970 0.167256 0.298641 -0.058073 -0.218566 0.431371
0.485707 -0.047947 0.480631 0.190059 -0.342698 0.085991 0.428492 0.380497
0.216425 0.333996 -0.292997 -0.163406 -0.216556 -0.291783 0.178143 -0.047258
0.003849 0.114282 -0.425566 -0.276910 0.116236 0.482301 -0.406081 0.306227
-0.221812 0.163591 0.253953 -0.304260 0.107639 0.163410 0.284298 -0.092728
-0.139268 0.288777 0.273141 0.450822 0.070822 -0.116151 0.066575 0.002418
0.469286 0.366106 -0.236715 -0.376148 -0.403034 -0.376658 -0.200203 -0.190675
-0.073974 -0.419550 0.063219 0.051601 -0.423296 -0.144798 -0.215065 -0.075409
0.358304 -0.167591 0.442132 0.066295 0.103484 -0.283912 0.227383 -0.447160
0.293904 0.112364 0.285709 -0.007876 -0.318814 0.389647 0.089703 -0.443213
0.238964 -0.176497 -0.464421 0.271421 0.094450 0.291337 -0.118065 -0.262416
0.193237 0.038492 0.147358 0.333213 -0.041612 0.266656 -0.039786 -0.137027
-0.043443 -0.319698 0.422724 0.461554 -0.079252 0.348586 0.056312 -0.273848
0.279916 -0.204291 0.470422 0.287325 0.446203 0.127315 -0.050177 0.338713
0.168772 0.493846 -0.140420 0.297717 0.035173 0.094845 -0.150937 -0.202431
-0.429728 -0.156086 -0.349992 0.483351 -0.128967 0.336020 0.104212 -0.114138
0.186332 0.084380 -0.296388 -0.227066 -0.424544 -0.193877 -0.059448 -0.289043
0.417215 0.035830 0.223909 -0.123600 -0.365654 0.027700 -0.411204 0.212533
0.202830 0.489442 0.223782 -0.210786 0.125711 -0.064908 -0.486555 -0.217524
0.177426 0.153908 0.402599 -0.088653 -0.387099 0.387384 -0.217951 -0.491399
-0.430185 0.195775 -0.126444 -0.344375 0.268994 -0.440698 0.298486 0.068594
0.287926 0.497560 -0.213515 0.347482 -0.105054 0.145725 0.111431 -0.359295
-0.352343 -0.218339 0.484720 0.461188 -0.109669 0.257131 -0.209581 0.480041
-0.276102 0.042608 -0.402482 0.479280 0.175083 0.484967 0.432171 0.465366
-0.034394 0.107804 -0.240502 -0.383293 -0.439512 -0.314857 -0.118750 -0.170164
-0.344746 -0.197093 0.279631 0.005729 -0.155080 0.167814 0.333563 0.257449
-0.270929 -0.403369 -0.271009 0.030341 -0.138489 0.145837 -0.255387 0.116331
0.385321 -0.229949 -0.009787 -0.357083 -0.360111 0.242102 -0.184329 0.393447
0.034023 0.420134 0.175256 -0.253498 -0.136864 -0.009066 -0.388803 -0.275976
0.226079 -0.164052 -0.144967 0.057515 -0.074932 0.450558 0.129287 0.042983
-0.199790 -0.400242 0.376072 0.450757 -0.424705 0.199560 0.053439 0.149405
0.362792 -0.440306 -0.246464 0.183059 0.193150 -0.086245 0.318602 -0.021588
-0.354628 0.145282 0.223229 0.455812 0.371554 -0.086803 0.263824 -0.247781
-0.279106 0.020790 -0.272460 -0.171977 -0.139270 0.162813 -0.026236 0.247459
-0.171842 -0.283478 -0.208080 0.094618 -0.247329 -0.185169 -0.381390 0.008071
-0.189611 0.369833 -0.026280 0.495657 0.015309 0.416585 -0.143401 -0.156317
-0.408561 0.021772 -0.245765 0.483195 -0.494297 0.369929 -0.213494 0.122317
0.416263 0.472791 0.168673 -0.399786 0.087417 0.423709 -0.278246 0.274045
0.459839 -0.086394 0.120160 -0.183577 -0.071401 0.027780 -0.328252 -0.124418
-0.005661 -0.136296 0.111143 -0.403165 0.459996 -0.036933 0.246599 -0.235855
0.132664 -0.478174 0.487138 0.037855 0.041384 0.424993 0.204609 -0.050303
0.088212 -0.187246 -0.223732 0.283689 0.171622 0.022489 0.407059 0.353428
-0.385825 0.106106 0.221596 -0.470557 0.019912 -0.055195 -0.129440 0.111977
0.074345 0.173927 -0.012217 -0.391174 0.435069 0.213423 -0.139455 -0.041794
0.226355 -0.273561 -0.001674 0.112974 0.186907 -0.383172 -0.366845 -0.489776
0.256009 0.337323 -0.333503 0.237585 -0.039976 -0.022244 0.061652 -0.168791
0.179133 -0.385602 -0.141075 0.297729 0.132358 -0.119332 0.358328 -0.325587
-0.358387 -0.334626 -0.001497 -0.494111 0.341594 -0.043130 -0.186403 -0.163652
-0.193213 -0.232494 0.226239 0.136089 0.469889 -0.058860 -0.248653 0.334772
-0.216486 -0.058734 -0.486003 -0.465212 -0.046149 0.125467 -0.187360 -0.038545
-0.121742 -0.067434 0.412238 -0.277360 -0.280420 -0.349810 0.397431 0.370467
-0.409106 -0.342664 0.023086 0.428142 0.166730 0.093946 0.425292 0.216131
0.160503 0.323611 0.483449 0.275142 0.418827 -0.050930 0.173488 0.454379
-0.364329 0.468643 0.472742 -0.358776 0.293102 -0.389667 0.111724 0.007044
0.179454 -0.113891 0.396122 -0.436715 0.227617 -0.046053 0.028937 -0.152621
0.035840 0.090620 0.328264 0.003005 0.411204 0.305722 0.351800 -0.212527
-0.468065 -0.039914 -0.089798 -0.490366 0.079465 0.324806 0.096854 -0.151564
0.218429 -0.177535 0.332395 -0.440318 0.499153 0.054891 -0.285497 -0.185615
0.441285 -0.254484 -0.484079 -0.312966 -0.335531 0.267624 -0.112215 0.051376
0.139984 -0.454777 0.248214 0.153390 0.326051 -0.229728 -0.494014 0.251091
0.257726 -0.231511 -0.429280 -0.409311 0.092504 0.116868 0.204869 0.082242
-0.189895 0.121247 0.406449 -0.429606 -0.449075 -0.463471 -0.313253 -0.047952
-0.297785 0.341660 0.461905 -0.490298 0.130879 0.119477 0.071787 0.398490
-0.339054 -0.314672 -0.476677 -0.466014 -0.203107 0.435211 -0.075456 -0.116666
0.471146 0.270571 0.070786 -0.474142 0.251272 -0.158659 -0.495578 -0.188359
0.460979 0.132567 -0.026190 0.197291 -0.001112 -0.128238 0.367572 -0.443170
0.158468 0.169831 0.028850 0.349337 -0.443338 0.084627 0.159644 0.386193
0.285386 0.350591 -0.251093 0.428266 -0.464803 -0.390235 -0.332256 -0.317718
0.186342 0.342699 0.249089 0.487942 -0.304891 0.359823 0.037899 -0.220123
-0.410642 0.460359 0.014264 -0.441666 -0.343095 -0.405136 0.469758 -0.027133
0.444719 0.204275 0.100858 0.354690 0.195356 -0.154126 0.268374 0.420486
-0.008928 0.315036 -0.332277 0.231545 -0.037625 0.206651 -0.435359 0.149652
0.360623 -0.162121 0.293993 -0.046797 -0.130239 0.458485 -0.276253 0.272193
0.248896 -0.166881 -0.201150 -0.208798 0.414225 0.004891 -0.201139 -0.215737
-0.279200 0.029732 -0.071971 -0.381217 -0.362857 0.385956 0.317869 0.443783
-0.490084 0.302784 -0.372629 -0.140854 -0.058261 -0.098979 0.367224 0.156754
0.271772 -0.006538 0.224039 -0.349652 0.437437 0.096565 0.053193 0.101884
0.236306 -0.131738 0.195167 0.349824 -0.318417 0.104995 -0.344925 0.139167
0.354566 0.394210 -0.408189 -0.223996 -0.332657 -0.145213 0.223270 0.432737
0.192112 0.208083 -0.450653 -0.426510 0.382894 0.383366 -0.280125 0.127543
0.240813 0.089278 -0.163557 -0.011595 0.261403 -0.499396 0.035366 0.015862
-0.173343 -0.054106 -0.201238 -0.291265 -0.396801 -0.491472 0.000017 0.420951
-0.124451 -0.330485 -0.414750 0.482422 0.152229 -0.203841 0.150048 -0.314043
0.276023 0.330274 0.110033 -0.137372 -0.309615 0.360504 0.029288 0.377809
-0.392411 -0.261116 -0.448789 -0.149684 0.308653 -0.458652 0.244914 -0.138085
0.181150 0.061915 -0.279101 -0.399519 -0.225229 -0.312242 -0.361918 0.078426
0.165828 -0.348134 -0.425835 -0.188771 -0.464945 -0.381401 -0.437489 -0.225526
-0.456145 0.256900 -0.184495 0.392207 -0.088752 0.398267 0.470581 0.348736
-0.328007 -0.466398 -0.361696 -0.319900 -0.296846 -0.248196 0.111191 0.337472
-0.108387 0.044551 -0.135193 -0.409143 -0.390784 -0.413570 -0.167400 0.304435
0.462464 0.461301 -0.063762 -0.211217 0.447232 -0.015936 0.483445 0.020668
0.419433 0.104591 -0.332438 -0.496218 0.105396 -0.296385 0.102002 0.273949
-0.070345 0.266236 -0.232568 -0.133561 0.339506 0.489990 0.174731 -0.350336
-0.466266 0.203725 -0.135727 0.295344 -0.260990 -0.054888 0.188221 0.389540
-0.024530 -0.067733 0.306828 0.235158 -0.408442 0.448840 0.349444 -0.413265
-0.283513 0.076963 0.271617 -0.275642 0.164975 -0.275750 0.200285 -0.033791
-0.368532 -0.376779 -0.254536 -0.244898 -0.115632 0.252948 0.417066 -0.216780
-0.217004 0.412715 -0.250800 0.204488 -0.334539 0.337622 -0.231380 -0.130138
-0.335729 0.242068 0.311908 -0.108546 -0.350058 0.007986 -0.462396 -0.366662
-0.468578 -0.034085 0.103108 0.362614 -0.173211 0.464736 0.458957 0.407856
-0.250228 -0.478341 -0.426315 -0.014960 0.390897 0.069209 0.314252 0.033033
0.439917 0.362853 0.189935 -0.198884 -0.402644 0.254450 -0.347782 -0.073346
0.105379 -0.297671 -0.069383 0.392764 0.008401 0.065420 -0.144525 -0.094018
-0.387629 -0.155134 0.138970 0.191108 0.493107 -0.030405 -0.465178 -0.276431
-0.222746 0.436899 0.475867 -0.213979 -0.011426 0.085516 0.341308 0.138769
0.149770 0.191268 -0.124297 -0.288573 0.120743 0.180276 0.072028 0.429193
-0.259151 -0.006534 -0.073999 -0.187562 -0.189701 0.124898 -0.473676 -0.365369
-0.235114 0.171314 -0.039703 -0.454159 0.249675 -0.085946 -0.283649 -0.073209
0.074997 0.116844 -0.347238 0.361836 0.469755 -0.450585 0.050316 0.043103
0.194525 -0.125233 0.401046 0.216328 -0.274489 -0.394285 0.341193 -0.129051
0.038725 0.235361 0.236403 0.464752 0.104310 0.260879 0.167294 0.139253
0.387171 0.329197 0.361974 0.050014 0.246588 0.273629 -0.189060 -0.193271
-0.119982 0.445861 -0.363514 0.360672 0.365635 0.260406 0.488425 -0.361277
-0.167023 -0.035064 -0.122853 -0.348188 -0.042722 -0.142175 0.221922 0.332085
0.136823 -0.108016 -0.231851 0.286264 -0.431509 -0.448888 -0.148021 -0.004390
-0.056642 -0.165797 0.325744 0.164777 0.062273 0.265664 -0.198648 0.131460
0.106449 0.165254 0.493937 -0.294240 -0.203645 0.004459 -0.457628 -0.236337
-0.457540 -0.060813 0.420975 -0.375530 0.382344 0.295539 0.291001 0.310156
-0.061054 -0.083898 0.080435 -0.260477 0.204780 -0.140833 -0.277876 -0.370476
0.424815 -0.283828 -0.110743 -0.008816 -0.487154 -0.076890 0.227631 -0.329123
-0.325050 0.208356 0.351024 -0.199112 0.104285 -0.132489 0.372779 0.002886
-0.169579 -0.288086 -0.374267 -0.167153 -0.163736 -0.321786 0.006386 0.453268
-0.200640 0.486039 -0.265549 0.468094 0.150076 0.164704 -0.464439 -0.374159
-0.438656 -0.094573 -0.433864 -0.426561 -0.462921 -0.135521 0.145955 -0.035565
-0.329334 0.465733 -0.206913 -0.009190 0.141932 0.465407 0.070786 0.097526
-0.423025 -0.237664 -0.027570 0.456084 0.054972 -0.258750 -0.101569 -0.090069
-0.326904 -0.337280 -0.474882 0.205653 -0.433514 0.378995 0.006758 0.214451
-0.277751 0.078929 -0.473277 -0.457395 0.185966 -0.185239 -0.028217 0.059597
0.495646 0.476989 -0.132940 0.451220 0.070434 0.490087 -0.271741 -0.070751
-0.183122 0.123174 -0.473986 0.071651 0.487885 0.184409 -0.154901 0.047685
-0.198219 -0.246341 0.003432 0.173124 -0.078913 0.053213 -0.434500 -0.171732
0.336643 -0.058971 0.203588 -0.165928 -0.244866 -0.191538 0.464955 0.341706
0.070539 0.251760 -0.004114 -0.223363 0.228335 -0.260588 -0.123019 0.333434
-0.318503 0.192909 0.034564 -0.307368 -0.070121 -0.109083 0.374608 -0.229315
-0.494653 0.470976 -0.447426 0.083307 -0.473400 0.060394 -0.087626 -0.280603
0.418982 -0.048254 -0.076402 0.294583 -0.268311 -0.124772 0.010845 0.435074
-0.011136 0.432867 0.039496 0.045336 0.080688 -0.441219 -0.033887 -0.354430
0.044195 0.174362 0.298328 -0.059983 -0.491648 -0.008101 -0.488953 -0.463980
-0.031852 0.352571 -0.093776 -0.248457 -0.430698 0.174402 -0.483357 -0.006671
-0.354750 0.104946 -0.042832 -0.255096 0.291936 0.374891 -0.424933 0.076938
-0.237259 0.048063 -0.010167 0.137334 0.274531 -0.379612 -0.156235 -0.029561
-0.090336 -0.481923 0.191782 -0.388012 -0.329052 0.414071 -0.365453 0.390224
-0.084521 0.222369 0.340246 -0.163808 0.058998 -0.494977 -0.285443 0.478751
0.166871 -0.232464 0.327526 -0.052387 -0.046258 0.385314 0.030253 -0.428846
-0.210382 0.061065 0.480722 -0.460059 -0.492499 0.394668 0.028995 -0.073168
-0.204094 0.440935 -0.441834 0.453914 0.124101 -0.256943 -0.003049 -0.457747
0.437336 0.034282 -0.383885 0.030876 0.000491 -0.352100 -0.399952 0.008592
0.103411 -0.317384 0.360706 0.416562 0.333449 -0.396657 0.119785 0.019332
-0.330870 -0.232735 0.285934 0.316595 0.050032 0.268227 -0.373113 -0.159974
-0.192511 -0.111331 0.202799 -0.263922 0.137233 0.263934 -0.393559 0.473521
0.169624 0.026348 0.360527 -0.123475 0.457015 0.378316 -0.207786 -0.145903
0.414355 -0.142127 0.347681 0.226701 -0.208479 -0.419061 0.069551 -0.123935
0.009361 -0.381118 0.370337 -0.285207 0.498165 -0.263417 -0.357713 0.253791
0.015951 0.299769 -0.200329 -0.021095 -0.053901 0.343598 -0.211041 0.282336
-0.188683 -0.119418 0.464700 -0.324432 -0.378937 0.081829 0.045530 0.266257
-0.158980 -0.492461 0.418437 -0.221750 -0.000548 0.453928 0.461482 0.169587
-0.412622 -0.249319 -0.140092 -0.094057 -0.398422 0.365793 -0.408748 0.340458
0.367071 0.383448 -0.495045 -0.260975 -0.056507 -0.055162 -0.273196 0.083217
-0.333349 -0.499848 0.155814 0.287350 -0.302926 0.055747 0.313337 -0.372255
-0.382164 -0.393182 -0.442076 -0.328894 0.469572 0.492802 0.016237 -0.210133
-0.065900 0.205052 0.490449 -0.439904 -0.451945 0.243790 0.107722 0.082811
0.190487 -0.271882 -0.429143 -0.484631 -0.357796 0.488039 -0.018350 0.193764
0.282094 0.231763 0.456313 -0.284100 0.238705 0.131973 0.268061 -0.102833
0.373059 -0.029543 0.341814 -0.016609 0.178160 0.496864 -0.380895 -0.492117
0.004316 -0.057938 -0.422381 -0.052721 -0.063218 -0.045095 -0.135991 -0.103637
0.032740 -0.443553 0.267192 -0.327742 -0.378742 -0.420549 -0.215613 -0.140413
0.430695 -0.306047 0.304166 0.152347 -0.181061 0.167709 0.029505 -0.115648
-0.290414 0.152115 -0.216206 -0.023516 -0.341353 -0.085123 -0.315030 0.355652
-0.439324 0.116179 0.410494 0.053387 0.366665 0.252456 -0.453332 -0.418023
-0.317844 -0.174052 -0.357113 -0.323980 0.197031 0.364373 0.131434 0.201263
0.307126 0.242480 0.160849 0.280716 -0.203659 0.480289 -0.351063 -0.237368
0.179728 0.357056 -0.138965 -0.222664 -0.272916 0.187143 -0.251606 0.160153
0.176498 0.346860 -0.281055 -0.441444 -0.247279 -0.269279 -0.158534 0.346594
0.322671 0.484382 0.440322 0.148579 0.067676 -0.356978 -0.034225 0.431418
0.045919 0.102537 0.156059 0.462675 0.344505 0.316370 -0.389531 -0.329726
0.019985 -0.243772 -0.001583 0.285182 0.150606 0.242784 -0.137446 0.139276
-0.395765 0.204933 -0.288474 -0.420300 0.295708 0.057524 0.113651 0.001670
-0.417930 0.170897 0.394800 0.245196 0.035960 -0.175689 0.237708 -0.151025
0.199878 0.319154 0.313816 0.482408 0.435734 -0.394756 -0.062747 0.263209
-0.328320 -0.201216 0.211570 0.253284 -0.418172 0.362815 -0.203048 -0.368536
0.467300 -0.127477 -0.124957 -0.047636 0.381036 0.225973 -0.419781 0.411583
0.118554 -0.041661 0.435563 0.379359 0.211885 -0.406173 0.155372 -0.000811
0.462407 0.446929 0.329515 -0.274804 0.333423 -0.432836 0.389380 0.466361
-0.313473 0.455402 -0.372774 0.147205 0.142311 -0.355599 0.260970 0.421059
0.287186 0.127527 -0.441421 0.422582 0.146186 -0.427243 -0.068313 0.132458
-0.138688 -0.369076 -0.092788 0.373291 0.087655 -0.092916 -0.193098 -0.375633
0.025736 0.039427 -0.435565 0.353767 -0.330393 -0.209463 -0.488221 0.167650
0.413963 0.496120 -0.059550 0.148846 0.298362 0.208912 -0.332771 -0.443870
0.184445 -0.271870 0.253262 0.105952 -0.064284 -0.340271 -0.244917 -0.315889
0.153724 -0.443691 0.380845 0.014279 -0.459898 -0.412095 -0.087656 0.296740
-0.157871 0.032206 0.136940 -0.430571 -0.004065 -0.031628 0.100475 -0.375932
0.434262 0.362694 -0.300935 -0.228266 0.045596 0.192956 0.193634 -0.154500
-0.232246 0.158652 0.025240 0.326949 0.389229 0.017619 -0.218560 -0.299486
0.073282 0.128701 -0.215664 -0.234580 -0.488336 -0.381488 0.359910 0.336165
0.298689 0.186385 -0.484766 -0.295708 -0.150886 0.052884 0.266901 0.361901
0.101433 0.127020 -0.267825 0.350097 -0.308677 0.290048 0.087585 -0.412815
0.361583 -0.479874 0.233911 -0.009970 -0.129645 0.318029 -0.461223 -0.401998
-0.441792 0.270111 0.083823 0.140787 -0.079909 0.310021 -0.072114 -0.459344
-0.134530 0.252559 0.301935 0.402860 -0.161183 0.154993 0.118781 0.251645
0.278222 -0.150630 -0.472738 0.353776 0.309648 -0.368113 0.368927 -0.282966
0.277473 -0.091669 -0.010843 -0.332264 -0.128499 -0.291031 -0.360438 0.290999
0.283013 -0.332665 0.312056 0.424116 -0.299330 0.449335 0.148961 -0.339528
0.160229 -0.081204 0.238347 0.036326 -0.000817 -0.219311 -0.037613 0.243902
-0.212822 0.277294 0.315807 0.495704 0.401875 -0.464431 0.479100 -0.332956
0.277375 -0.182224 0.062428 0.306584 -0.003181 0.198263 -0.071702 0.496848
-0.192979 -0.096319 0.302011 -0.393845 0.447616 0.198241 -0.027486 -0.388753
0.049499 -0.204438 0.064430 -0.368671 0.201462 0.321683 -0.336839 -0.046033
0.137832 -0.488087 -0.437185 -0.492033 -0.498592 -0.010345 -0.337907 0.404514
0.354992 -0.312340 0.238647 0.269854 -0.496336 -0.499673 0.244632 -0.059545
-0.365655 0.363189 -0.438986 -0.377545 -0.060893 -0.405779 0.027578 -0.228277
0.355299 0.455138 0.491443 -0.185614 -0.102337 -0.406351 -0.347357 -0.452258
-0.042615 0.203664 0.436939 -0.090020 0.147049 -0.336406 0.197118 -0.169844
-0.340095 -0.498824 0.182146 -0.136565 -0.443662 -0.461505 0.270153 0.051024
-0.218422 0.293478 0.286880 -0.083008 0.433770 -0.124402 0.315349 0.175149
0.267040 -0.183602 0.179201 0.465241 -0.368436 -0.422618 0.479259 0.201964
0.416010 -0.154448 -0.198258 0.386492 0.140815 -0.485600 -0.198365 -0.211977
0.027339 0.365876 0.165429 -0.026256 0.454192 0.201230 -0.441713 -0.004802
0.065664 0.492767 0.173402 -0.107741 -0.062514 0.455275 0.137543 -0.420394
-0.437366 -0.430831 0.358139 0.367630 -0.215355 -0.220264 -0.469325 0.487939
-0.109433 0.200024 -0.030523 -0.040289 -0.068003 -0.075817 0.024540 0.222063
-0.161615 0.225116 0.175697 0.385603 -0.145113 0.269524 0.448602 0.065321
-0.072117 0.153728 0.110669 0.320615 0.441266 0.257502 0.465156 -0.195967
0.124911 -0.256332 0.017477 -0.312123 -0.015394 -0.208057 -0.294768 0.256408
0.343574 0.218566 -0.292844 -0.392532 0.325983 -0.492578 0.457725 -0.273150
-0.105579 0.080345 -0.190928 -0.498011 0.180804 0.279388 0.043255 -0.149308
0.109309 -0.211143 -0.421734 -0.010197 0.315124 -0.304720 0.482003 0.481312
-0.084859 -0.434381 0.442492 -0.345497 0.374431 -0.276963 -0.048777 -0.410803
0.359435 -0.293920 -0.200869 -0.210891 -0.392419 0.008190 0.337541 0.202446
0.491096 0.481775 -0.082451 -0.302565 0.155479 0.430689 0.006431 -0.317653
0.192384 -0.301877 -0.154540 0.096359 -0.314850 0.350091 -0.426903 -0.004643
0.124036 -0.014006 -0.081699 0.392022 -0.072329 0.380110 0.394020 -0.408065
0.018630 0.368803 -0.417280 0.273749 0.301825 0.208758 -0.141113 0.326476
0.015225 0.128597 -0.453736 0.208068 -0.368378 -0.078596 0.302647 0.082083
-0.308809 0.089334 0.433819 -0.100972 0.394101 0.239803 0.294448 -0.244963
-0.260033 -0.208170 -0.123903 0.270270 -0.499448 0.089421 0.273666 -0.440190
-0.455263 -0.025840 0.337591 0.205701 0.231202 0.405604 0.113069 0.447582
0.160746 0.220946 -0.205691 -0.498440 0.205641 -0.428719 0.067664 0.045348
-0.028027 0.264590 -0.138869 -0.464116 0.235320 -0.246498 0.471875 -0.223018
-0.066653 0.129469 -0.028119 -0.389757 -0.499863 -0.186062 0.007343 0.003892
-0.405222 0.073616 0.044287 -0.015277 -0.219553 0.165478 0.355113 -0.224154
-0.299372 0.346453 -0.494152 -0.095520 -0.497294 0.442157 0.440036 0.130826
0.199801 0.387072 -0.203081 -0.020553 -0.234366 0.080979 0.155164 0.407583
-0.011102 0.109205 -0.235702 0.101190 -0.152040 0.481440 0.199242 0.170442
0.407893 -0.267037 -0.240885 0.153366 -0.124988 0.204860 -0.457455 -0.172909
-0.495504 0.300268 -0.460171 -0.414201 -0.110923 0.237375 0.146552 0.343169
0.455087 -0.050530 -0.437491 -0.344165 0.112806 -0.413041 -0.048107 0.414235
0.109498 -0.033637 -0.375047 0.305093 0.206287 -0.184336 -0.025376 -0.029103
0.349557 0.055602 -0.101090 0.391913 -0.086666 0.117420 0.422202 -0.151559
-0.429546 0.037319 -0.011791 0.218972 -0.356026 -0.482995 -0.179404 0.466581
0.037362 -0.388482 0.491955 0.475170 0.120572 -0.260372 0.104968 -0.456247
-0.433896 0.491422 0.285644 0.020158 0.433628 -0.019047 0.291333 -0.433359
-0.468472 -0.470926 -0.275596 -0.421148 0.405178 0.467503 0.015888 -0.127422
-0.151469 -0.372686 -0.043802 0.029285 0.215470 -0.164455 0.144886 0.243021
-0.068874 0.127896 -0.293690 0.331177 0.186958 0.428145 -0.497088 0.303799
-0.206015 -0.142791 0.394338 -0.352948 0.339054 -0.314514 -0.365669 0.009141
0.186802 0.013531 0.083243 -0.391267 -0.229738 0.483589 0.281703 -0.275333
0.271770 0.307070 0.469974 0.246746 -0.415521 -0.240328 0.081430 -0.227850
0.331782 0.443266 -0.442462 -0.208940 0.181174 0.025230 -0.294946 -0.156392
0.380207 0.308140 -0.195972 0.154249 -0.496938 0.091806 -0.018486 0.130867
0.320053 0.395251 -0.479734 0.069392 -0.465187 -0.489102 -0.375350 0.476316
0.432336 -0.087065 -0.155178 0.380631 0.023510 -0.425034 0.083735 -0.296091
0.226061 0.498090 0.337736 -0.490950 -0.413917 0.361620 0.152312 0.213619
0.074391 0.281351 -0.134993 0.084698 0.284186 -0.378627 -0.260670 0.425288
0.343943 0.429806 -0.022418 -0.021309 0.395077 0.342471 -0.269778 0.426373
-0.216130 0.112723 -0.430315 -0.283556 -0.024766 0.129325 -0.197446 0.336901
0.291149 -0.311838 -0.141309 -0.114420 -0.348014 -0.275282 0.368318 -0.405969
0.006426 0.160852 0.230795 0.058891 0.491442 -0.353239 -0.146318 0.402389
-0.329166 -0.312434 -0.303699 -0.236561 -0.258540 -0.492746 0.129354 0.246113
-0.040759 0.246000 0.171311 0.496991 -0.099777 0.221498 0.397131 -0.424721
0.192070 -0.152464 0.155239 0.289270 -0.358914 -0.228598 -0.208854 0.213682
0.469779 -0.000047 0.125564 0.435050 0.427155 0.421786 0.044431 0.209518
0.290737 -0.422972 -0.333902 0.328312 -0.473184 -0.086079 0.176590 -0.327210
0.384582 0.429528 -0.427877 0.440238 -0.229500 -0.052442 -0.376056 0.048437
0.360007 -0.232021 0.065190 0.273967 -0.272904 -0.000277 0.027914 0.286676
-0.337381 -0.008544 -0.080857 -0.383764 0.062645 -0.414217 -0.341538 0.475745
