0.017868
-0.161398
-0.315275
-0.119900
-0.816553
0.311035
-0.960467
-0.604380
0.721261
0.335698
-0.449695
-0.432958
0.820654
0.084158
0.905845
-0.489786
-0.359018
-0.200648
-0.953545
0.750215
-0.112114
0.707969
0.089097
0.264405
-0.511590
0.847749
0.956409
0.529334
-0.038785
-0.519547
-0.421360
0.171923
-0.562287
0.721140
-0.984986
0.595022
-0.723342
-0.768592
0.997219
-0.692073
0.239337
0.961642
-0.724005
-0.458736
0.326907
0.665059
-0.153009
0.001532
0.305373
0.998844
-0.809602
0.953328
-0.077582
-0.897162
-0.293325
0.664240
-0.166668
0.497642
-0.017485
-0.712183
-0.807810
0.067680
-0.894386
-0.127367
-0.930323
0.646255
-0.706273
0.646249
0.638400
-0.211037
-0.485096
0.008357
-0.070641
-0.561622
0.502982
-0.828035
-0.649307
-0.202987
-0.725577
-0.102541
0.750168
0.745718
-0.558404
-0.421833
0.132841
0.657094
-0.946844
0.203117
-0.479631
0.515821
0.122446
-0.458606
-0.370501
0.353305
-0.997865
0.789023
-0.656079
-0.060088
0.871084
-0.569643
-0.609027
-0.571815
-0.586030
-0.647723
0.720564
-0.278483
-0.285261
0.220970
0.776731
-0.800338
-0.769347
-0.756062
0.508543
0.052121
-0.911650
-0.352127
0.153722
-0.659318
-0.002721
0.941769
-0.204950
-0.743895
-0.613583
0.732289
-0.282654
-0.136962
0.853539
-0.217016
-0.097907
-0.076364
0.108798
-0.308538
-0.810720
0.446228
-0.570922
0.511079
0.653580
0.194789
-0.894848
-0.215031
0.157955
-0.922916
0.125336
0.486920
-0.007165
-0.989054
-0.338568
-0.253879
-0.459316
0.549816
0.072976
0.927160
-0.624781
0.756295
-0.797788
-0.036473
0.964289
-0.150041
-0.164761
0.589501
-0.431206
0.748668
0.040915
0.380254
0.336661
0.237430
-0.076546
-0.571347
-0.623051
-0.806380
-0.190012
0.948834
0.303339
0.268469
-0.137847
0.069201
0.917415
0.411594
0.805978
0.871748
-0.764991
0.669415
0.069796
0.134896
-0.109968
0.937505
-0.621273
0.928746
0.734606
0.660038
0.684309
-0.746130
0.091351
0.797843
0.409677
-0.087192
-0.276802
-0.820494
0.559740
0.861369
-0.929648
-0.588360
-0.562592
0.872354
-0.527279
-0.692796
-0.609752
0.824898
0.251979
0.601167
0.728274
-0.304198
-0.548142
0.891387
0.541546
-0.634382
0.306384
-0.130481
0.443814
0.873339
-0.785375
0.039099
-0.126665
-0.027439
-0.156468
0.185913
0.275218
0.962774
0.793511
-0.879338
0.296367
-0.143660
0.712458
-0.304653
0.343708
-0.258175
0.624246
0.473146
-0.569010
-0.737690
0.253650
0.789376
-0.778551
-0.691154
-0.417341
0.765651
0.416315
-0.284635
-0.705148
-0.383334
0.100479
-0.860137
0.564422
0.630146
0.641114
-0.278379
-0.065031
-0.518146
-0.372306
-0.738219
-0.394071
-0.528005
0.860007
0.285997
0.997659
0.779559
0.582903
-0.837692
-0.045599
-0.185275
0.104325
-0.782686
0.586010
0.989648
0.779798
-0.196677
0.212599
-0.310718
-0.407401
-0.609629
0.898587
0.668242
-0.616158
0.623976
0.826570
0.355417
-0.529487
0.929038
-0.140086
-0.493930
0.543699
0.670252
-0.991388
0.988156
-0.584004
0.619881
-0.209531
-0.256914
-0.609008
-0.041166
0.284505
0.965974
-0.193291
-0.508249
0.509146
-0.063537
-0.629249
-0.421141
0.815210
-0.467938
-0.490543
0.887597
-0.550621
-0.201609
-0.676117
0.565811
0.834791
0.696761
-0.898928
-0.388400
0.519934
0.561677
0.456750
0.753356
0.489542
0.498706
-0.764312
0.005750
0.165289
0.573783
-0.506550
0.355944
-0.622940
0.921253
0.835720
-0.295899
-0.052135
-0.812384
0.751078
0.575586
0.959957
-0.397359
-0.326287
0.316962
-0.951098
0.423836
-0.008790
-0.303448
-0.938214
0.890297
0.499411
0.733218
0.771410
0.062586
-0.508601
-0.945636
0.420034
0.487989
-0.047732
0.280878
0.776117
-0.300873
-0.717945
0.805785
-0.335674
-0.576456
-0.759779
0.979646
-0.734916
0.160480
0.261824
0.276935
0.425499
-0.307872
-0.660572
-0.478592
-0.507295
-0.339597
0.712819
0.530049
-0.566755
0.819593
0.137668
0.108571
0.220671
-0.729840
0.349501
-0.851859
-0.181930
-0.555264
0.485813
0.659500
0.520843
-0.001612
0.855941
0.057315
0.475030
0.031375
0.843370
-0.063359
-0.098847
-0.566168
-0.998864
0.538485
-0.935702
-0.691434
-0.665270
-0.347523
-0.175483
-0.538642
0.000419
0.699460
-0.552109
-0.499134
0.164889
0.980556
0.278054
0.865867
0.057083
-0.393596
0.971242
0.812214
-0.461739
0.094566
0.011006
-0.183354
-0.332900
-0.745548
0.701042
-0.544264
0.107962
-0.367277
0.311746
-0.870106
0.163455
0.697584
0.213133
-0.114297
0.605505
-0.977967
0.807808
-0.699921
0.319972
0.198854
-0.011873
-0.045534
-0.551168
-0.295575
-0.963124
0.288019
0.553297
0.423412
-0.049955
-0.508868
-0.552819
-0.172139
0.648831
-0.597303
-0.964278
0.903858
0.526039
0.811804
0.100647
0.699578
0.229473
0.143684
0.479540
0.459562
-0.055063
-0.375571
0.466249
-0.650385
-0.072155
0.468293
0.719122
0.703444
0.237321
-0.484212
0.974625
-0.823195
-0.320528
-0.049389
-0.429755
0.691399
0.685464
0.905950
-0.768202
-0.021470
-0.694620
-0.905255
-0.720425
-0.171292
-0.440727
0.228772
0.302670
-0.972445
-0.086905
0.620605
0.060882
-0.956337
-0.310337
-0.799425
0.884808
0.202746
-0.430385
0.264710
0.962010
-0.110124
-0.706514
0.975295
-0.094984
-0.352197
0.956091
-0.738157
0.890833
0.008128
-0.152690
0.004826
-0.482329
0.719062
-0.441025
-0.220221
0.953054
-0.397199
-0.216325
0.360070
0.349625
-0.289564
0.433504
-0.277402
0.143901
0.800183
-0.922041
-0.752124
0.494222
0.613888
0.213064
0.427173
-0.316923
0.038334
-0.644175
-0.971751
-0.470851
-0.783501
-0.452188
-0.441290
-0.242758
-0.321985
-0.820537
-0.595771
0.981620
0.008439
-0.370837
0.529513
0.791009
0.533751
-0.383081
-0.811317
0.540181
0.312459
0.540374
0.204820
-0.804233
-0.171645
-0.103568
-0.214530
0.758823
0.787486
-0.344385
-0.164513
0.005359
-0.296140
-0.173184
-0.486556
0.569444
0.676273
0.052920
0.636455
-0.473101
-0.769628
0.442081
0.195712
-0.864945
-0.482886
-0.762645
0.789457
-0.353468
0.436125
-0.687417
0.999531
0.745063
0.844715
-0.771962
0.894986
-0.289670
-0.167677
0.796751
0.410545
-0.922497
-0.321968
-0.811958
0.497029
-0.727059
-0.263312
-0.406263
-0.262243
-0.228157
-0.476207
-0.223692
0.067811
-0.242264
0.932405
0.819595
-0.882563
0.396637
-0.083247
0.124018
0.503039
0.446863
0.257896
0.509141
0.738108
0.112381
0.720692
-0.159555
-0.321953
-0.591281
0.776058
-0.600410
0.944140
0.221044
-0.401750
0.456964
-0.990285
0.897748
-0.056720
-0.127727
0.043428
0.196336
0.990019
-0.230633
-0.295759
-0.650926
-0.007423
-0.934815
-0.193453
-0.474541
-0.582081
0.147281
0.160877
0.653525
-0.143215
0.736473
0.135491
-0.659362
0.455762
0.447491
0.725096
-0.822143
-0.887422
-0.530593
-0.147512
-0.022203
0.978184
0.661408
-0.044702
0.330428
-0.473365
-0.266838
-0.075544
-0.389039
-0.269906
0.744209
-0.732427
0.695333
-0.698799
-0.905499
0.974373
0.496142
0.184266
-0.281591
0.190379
-0.484765
-0.752148
0.192890
0.506147
0.611545
0.111755
-0.340429
0.363792
-0.166175
-0.025769
-0.526596
-0.865251
-0.752313
0.530642
0.800556
-0.862758
0.263257
0.656396
0.172353
0.394547
0.175044
-0.125744
0.995335
-0.595189
-0.037249
-0.901852
0.165957
0.314668
0.283094
0.249521
0.212393
-0.453687
0.745974
-0.819184
-0.556524
0.654882
0.182725
-0.107500
0.446641
-0.263535
-0.713985
-0.253233
0.010307
-0.788500
0.631461
0.545012
-0.778358
0.918192
-0.898112
0.767333
0.104506
0.638902
-0.932244
0.900993
-0.445604
0.880703
0.064831
-0.074800
-0.761103
-0.534536
-0.708335
0.097228
-0.673587
-0.263813
0.824411
0.826867
0.658175
0.240293
0.380991
0.916185
0.562932
-0.975206
0.014380
-0.320566
0.055090
0.939864
-0.360669
0.086618
0.287481
-0.429558
-0.949920
-0.072561
0.235339
0.493463
0.207889
-0.917494
0.309992
-0.968394
0.502017
0.090410
0.393450
-0.755421
-0.947965
-0.846519
-0.992212
-0.331282
-0.097820
0.535322
0.305135
-0.409218
-0.822531
0.885009
-0.177594
-0.086509
-0.936837
0.228398
0.332105
0.773291
-0.014324
-0.457724
-0.605036
0.646135
0.754954
-0.543328
0.142426
0.120748
-0.422894
-0.835144
0.775523
0.041951
-0.071197
0.645872
0.433246
0.149738
-0.417899
0.458821
0.329159
0.986198
0.627831
-0.094260
-0.211148
-0.788115
0.681392
-0.211832
-0.016779
0.790328
0.149641
0.228564
-0.202710
0.163998
-0.055711
0.491296
0.601154
-0.693016
-0.429376
-0.522429
-0.489751
0.897293
0.751477
0.749702
0.639316
-0.213396
0.377504
-0.224272
0.419117
0.784969
-0.659217
0.943989
-0.500659
0.721127
0.006357
-0.975718
0.024578
-0.289437
-0.664124
0.569418
-0.213086
-0.994585
0.110085
-0.455910
-0.636954
0.413392
-0.813781
-0.650044
-0.278870
-0.587454
-0.005948
-0.549405
0.674767
0.764155
0.739369
0.348306
0.305574
-0.798956
-0.855090
-0.109469
0.682240
-0.676435
0.774846
0.508181
0.297194
-0.480516
-0.766106
0.275580
-0.566733
0.373699
0.869916
0.671726
0.479662
0.693196
0.253532
0.358970
0.996457
-0.877392
-0.761952
-0.342440
-0.632384
-0.910071
0.387011
-0.943415
-0.434931
-0.130792
-0.424382
-0.891891
0.961515
-0.069575
0.625033
-0.556092
-0.074402
0.367689
0.299655
-0.256577
0.573882
-0.123523
-0.581145
-0.534894
0.535015
-0.239529
0.630090
0.516072
0.321736
0.495579
-0.171145
-0.364555
-0.170296
-0.179117
0.861422
0.242917
-0.959478
-0.763030
-0.450860
0.058079
-0.676261
0.099347
0.096795
-0.951541
-0.783384
-0.706906
0.235320
0.973396
0.949002
0.246143
-0.232096
-0.701545
-0.241750
0.935813
0.845729
0.408794
0.066775
-0.087505
-0.511762
-0.931058
0.998780
-0.677909
-0.880018
0.368000
-0.269631
0.188589
0.126271
0.333667
-0.356832
-0.510746
0.973252
0.629752
-0.432798
-0.351189
0.915387
-0.692844
-0.704106
0.035757
-0.685949
-0.504106
0.594524
-0.798477
-0.485699
-0.359090
0.147691
-0.061733
-0.743636
0.011449
0.307811
0.432262
0.227211
-0.800981
-0.867294
-0.878586
-0.679324
0.581730
-0.380913
0.126022
0.310228
0.958486
0.658442
-0.510291
-0.831038
0.179970
-0.840989
-0.414128
0.524146
-0.442788
0.896295
-0.347675
-0.213500
-0.051515
-0.371690
-0.466133
0.204834
0.579812
-0.492218
0.970729
0.235572
-0.631380
-0.240561
0.529448
0.499030
-0.078038
0.837329
0.773116
0.296896
0.229212
0.234694
-0.568859
0.195559
-0.511048
-0.252156
-0.180598
0.463254
-0.967486
0.631527
0.738184
-0.325021
0.217616
-0.556095
0.318628
0.521906
-0.589480
0.093627
0.749646
0.700525
-0.069000
-0.832876
-0.484626
0.906408
0.918759
0.281891
-0.337051
-0.626616
-0.396413
0.422326
-0.097402
-0.681014
-0.458779
-0.675640
-0.337498
-0.619161
0.083477
0.377794
-0.146409
-0.803367
0.442738
0.686116
0.553814
-0.393325
0.992032
0.654016
0.470161
0.716869
-0.998351
-0.292283
-0.627723
-0.859533
0.832053
0.964461
-0.714857
0.201610
-0.807618
-0.846723
0.973182
0.421523
0.356023
0.734011
-0.991273
0.874030
-0.016974
-0.884615
0.454022
-0.713402
-0.609941
0.106863
0.295755
0.110020
-0.691393
0.523015
0.833361
0.856477
-0.992768
-0.781025
-0.296595
0.581298
-0.707128
-0.290396
-0.438823
-0.451509
0.519853
-0.721990
0.354352
0.296188
-0.121300
0.036609
-0.671493
0.908217
-0.289591
0.796501
0.838320
-0.770331
-0.308926
0.758847
0.942718
-0.458159
-0.925379
-0.797130
0.130633
-0.841366
-0.856446
-0.322609
-0.622442
0.903084
0.919362
0.283321
0.408238
-0.033063
-0.352346
0.329280
-0.448730
-0.618546
0.256953
-0.819656
-0.294510
0.158053
-0.026036
0.512588
-0.041555
0.885019
-0.488122
0.437379
-0.876229
0.199238
0.866777
0.092108
-0.416211
0.474921
-0.828885
-0.975069
0.415362
0.208615
-0.186996
0.012947
0.888291
-0.947597
-0.266625
0.049335
-0.415324
-0.319722
-0.684797
0.005991
0.591050
0.547700
-0.934265
-0.922555
-0.009017
0.121199
0.355886
-0.363872
0.170296
-0.370600
0.388090
-0.729898
0.785412
0.710328
0.014497
-0.979741
-0.090150
-0.426512
0.844779
-0.594644
0.097956
-0.121456
-0.723426
0.948219
0.480891
-0.850437
0.383914
-0.862345
0.046848
0.755982
0.031798
0.011951
0.317692
0.022346
-0.400975
0.240063
-0.885394
0.721535
0.318008
-0.691618
-0.827281
0.848580
0.125056
0.969215
-0.848103
-0.342429
-0.985829
-0.471933
-0.919136
0.757938
0.358148
-0.343798
0.383759
-0.998015
0.981732
0.875131
-0.959114
-0.097709
-0.986568
0.502648
0.239429
-0.379275
-0.121576
0.104666
0.105343
0.653430
0.864220
-0.115703
0.676647
0.399962
0.352788
-0.582709
0.176537
0.711925
-0.741727
0.434114
-0.215915
-0.171945
-0.998715
0.436352
-0.006882
0.362745
0.918147
0.975878
0.837819
0.218859
0.086703
0.041714
-0.780688
0.011929
-0.782827
0.675235
-0.902555
-0.053049
0.410252
-0.543407
-0.691111
0.777591
0.771777
-0.339951
-0.039840
-0.771109
0.727364
-0.311926
-0.415065
-0.003442
0.245383
0.422139
0.809013
0.946697
0.721467
0.674403
0.523896
-0.385896
-0.355361
0.640209
0.490562
0.531478
-0.196602
0.830277
-0.219107
0.558715
0.607765
0.611981
-0.911205
0.738914
0.902560
-0.426329
0.002418
0.871102
-0.713607
-0.602087
0.312095
0.230049
0.205114
-0.268993
-0.358832
0.243623
-0.098169
0.336887
0.770326
0.285459
-0.787223
0.197717
0.178042
0.644255
0.609092
-0.446856
0.631667
-0.896390
-0.299914
-0.505865
-0.405341
-0.381501
-0.364690
-0.682940
0.758934
-0.574651
0.780029
-0.519053
-0.577558
-0.240003
-0.280135
-0.407491
0.581347
-0.355932
-0.443675
0.475714
-0.148575
-0.631057
-0.303974
0.230271
-0.922178
-0.815485
0.503901
-0.401177
-0.950444
0.766691
0.148111
-0.878340
-0.337446
-0.121930
0.735196
0.984494
0.704358
0.460532
0.869366
0.276574
0.702074
0.639454
0.923772
0.419239
0.872557
0.147052
-0.665418
-0.489965
0.591590
-0.577613
0.712992
-0.819726
-0.499658
-0.380856
-0.830283
-0.098525
-0.070795
-0.476690
0.855696
0.976353
-0.823220
-0.883171
0.025106
0.324099
0.879744
0.361368
0.584850
0.408917
0.516042
-0.830050
0.865960
0.049622
0.920452
-0.301992
-0.556883
-0.953418
0.124659
0.297824
-0.169437
-0.968839
-0.375224
-0.959711
0.332199
0.871367
0.135512
0.128144
-0.138230
-0.144372
0.371661
0.537034
0.076690
0.445868
-0.458518
0.871214
-0.048175
-0.172515
-0.419381
0.371184
0.590055
0.365120
0.305256
0.918204
0.464638
-0.527465
-0.151966
-0.266514
0.207729
0.608584
0.412488
-0.060069
0.351820
0.898506
0.127612
0.240225
-0.258743
-0.776957
0.998080
-0.996141
-0.960040
0.434955
0.425773
0.948884
0.973784
0.857860
-0.715084
0.031719
0.849238
-0.377872
-0.733008
-0.713300
0.409747
-0.251264
0.625811
0.094032
0.022612
0.730864
-0.208175
0.037403
0.320922
-0.564325
-0.307998
-0.585293
0.073230
-0.722297
0.062856
0.020333
-0.005819
-0.314624
-0.004606
-0.853917
-0.618230
-0.644371
-0.580479
0.751492
-0.149155
0.888738
-0.862122
0.978156
-0.787995
-0.368926
0.389597
-0.310268
-0.004065
-0.135819
0.907700
0.043774
-0.847276
-0.890452
-0.013032
-0.825320
0.162494
-0.255843
-0.559738
0.980884
0.959243
-0.838639
-0.524571
-0.809533
-0.320675
0.432200
0.703736
0.076787
-0.009399
-0.676843
-0.472428
0.859537
0.130296
-0.498782
-0.824524
-0.556606
-0.370243
0.592933
0.303925
-0.039938
0.021754
0.280750
-0.751960
-0.373349
-0.242315
-0.115221
-0.729436
-0.038880
-0.517021
-0.266552
0.899206
0.094333
0.656389
-0.413925
-0.209769
0.933640
-0.676899
-0.762446
-0.437370
0.820179
-0.214284
-0.160683
-0.941857
0.298418
-0.687518
-0.261058
0.458542
0.080284
0.078552
-0.853508
-0.798098
0.671842
-0.561457
0.182155
0.373508
-0.409920
0.119446
0.814830
0.424002
0.830653
-0.356755
0.541621
0.535715
0.179013
-0.364031
0.902090
0.774078
0.993011
0.037541
0.596864
0.462279
-0.145142
0.018601
0.006092
0.418548
-0.219030
-0.933033
-0.051168
-0.937518
-0.129825
-0.500026
-0.123946
0.161743
0.815392
-0.098151
0.047565
0.720013
0.277511
-0.961188
0.072973
0.924029
0.991340
0.578107
0.223521
0.307974
0.451500
0.398847
0.837596
-0.791731
-0.860778
-0.838456
0.104717
-0.440408
-0.765041
-0.649990
-0.589899
-0.788371
0.492363
-0.619878
-0.102387
0.398542
-0.101292
0.135101
0.357971
0.951789
-0.636541
-0.331074
-0.563177
0.206409
0.113319
0.952402
0.464637
-0.865674
-0.231387
0.074000
0.566026
-0.047431
0.436012
0.708979
-0.608457
-0.319484
-0.626490
0.692363
-0.939038
0.912375
0.918341
-0.433730
0.371735
-0.154168
0.586159
0.996512
0.613846
-0.576795
-0.190503
-0.421793
-0.985304
0.231033
0.793214
0.819587
0.988557
-0.831310
-0.850157
0.619158
-0.110328
0.066081
-0.056429
0.994621
-0.975569
0.107028
0.879965
0.040710
-0.482820
-0.993878
0.869514
0.707268
0.648478
0.237080
-0.596897
-0.882398
0.680114
-0.796463
-0.864760
0.680502
-0.963538
0.022540
-0.745147
0.137094
0.460427
0.532067
0.039172
-0.634194
0.311906
0.784963
0.904401
-0.027683
-0.514442
0.318935
0.489407
-0.049333
-0.706754
-0.431988
0.024084
0.181075
0.447190
0.792570
0.043995
-0.549847
0.684039
-0.393503
0.440281
-0.597968
0.037861
-0.281322
-0.639316
-0.685977
0.596016
-0.961154
-0.063325
0.838444
0.750047
-0.257439
0.484979
-0.485960
0.069433
-0.995530
-0.390089
0.227188
0.184414
-0.626508
-0.526279
-0.383746
0.662724
0.151667
0.657475
-0.407225
-0.918260
0.755828
-0.780729
-0.237302
0.109439
0.684484
0.306810
0.055960
-0.702044
-0.910117
-0.158177
-0.345658
-0.650166
-0.668937
0.983791
0.811235
0.295800
-0.008692
0.072640
0.656994
-0.081608
0.580827
0.728901
0.551662
-0.423227
0.049844
0.992254
-0.457224
-0.042163
0.712390
-0.962297
0.236148
-0.738710
-0.176689
0.512614
0.177975
0.754854
-0.771474
-0.137570
0.526374
-0.830451
0.546759
0.466690
0.448383
-0.531267
0.541219
0.307946
0.006318
0.332434
-0.717137
-0.902665
0.979317
-0.288962
0.960025
0.451417
-0.859021
-0.996738
-0.499247
0.539500
-0.951033
0.980291
-0.451523
-0.679206
0.510053
0.107524
-0.393114
-0.674501
0.697337
0.642748
-0.021542
0.355807
0.699717
0.344031
0.011517
0.287517
-0.529096
0.459638
-0.577320
-0.130779
-0.337072
0.246171
0.973180
0.399845
0.714317
-0.787239
0.728277
0.350341
-0.353744
-0.727945
-0.106807
-0.569286
0.277182
-0.781458
0.698924
-0.609714
-0.454133
-0.348073
0.297025
-0.319272
-0.648301
-0.598667
-0.052464
-0.454120
0.836792
-0.379995
0.688827
-0.747517
-0.166535
0.764170
0.148595
0.372259
-0.090461
0.158508
0.621798
0.749794
-0.684965
-0.930168
0.320235
-0.777270
-0.844897
0.888230
0.520144
0.993819
-0.428982
0.713150
-0.056752
0.454031
-0.200098
-0.199576
0.049821
0.955012
-0.315370
-0.732222
-0.827105
-0.665285
0.587156
0.223789
0.133858
-0.310468
0.013222
-0.106407
-0.465335
-0.859680
0.608554
0.210354
-0.367080
-0.313477
0.818603
0.363599
-0.737590
-0.581134
0.558277
-0.856825
-0.113644
0.737770
-0.606654
-0.271783
0.848249
-0.169759
-0.869569
0.003324
0.843929
-0.123186
0.317634
-0.571309
0.288174
-0.991198
-0.987884
-0.138780
-0.448669
-0.382769
0.832604
0.933894
-0.362203
-0.726336
-0.017836
-0.451540
-0.368337
-0.624937
0.685299
-0.126296
-0.907870
0.629551
-0.182798
-0.127507
0.035010
0.015418
-0.143944
-0.527253
0.081144
0.429104
0.329807
-0.177438
-0.642150
0.573633
0.187226
0.364579
-0.335574
-0.852608
-0.754058
0.757858
-0.450137
-0.210318
-0.724201
-0.726791
-0.596624
0.611172
-0.826508
-0.073906
-0.953479
0.010795
-0.457121
0.324426
-0.413250
-0.114945
-0.133160
0.391758
0.038628
-0.556199
-0.224999
-0.700532
0.205329
0.719700
-0.781891
-0.212330
-0.549953
-0.115787
0.383987
-0.558242
0.777576
-0.002342
-0.640227
0.420334
0.758869
0.364979
-0.758845
-0.225214
-0.352041
0.497654
0.840801
-0.220658
-0.448476
-0.051236
-0.567776
0.433331
0.515433
0.575125
0.262056
-0.272406
0.263337
0.716685
0.190431
0.063009
0.190362
0.311188
-0.544378
-0.524180
-0.544426
0.717346
-0.278194
-0.682503
-0.027283
-0.528684
-0.259101
-0.937688
0.253310
-0.365917
0.164334
-0.069796
0.623763
0.821328
-0.378519
-0.385598
0.266211
0.838794
-0.986244
0.407540
0.190999
-0.663221
-0.293624
-0.563702
0.533723
-0.912283
0.548048
0.403763
-0.530109
-0.591269
-0.606067
0.013090
0.201699
0.838947
0.758227
0.270016
-0.130232
0.184006
-0.985087
-0.907152
0.229976
0.791462
0.769030
-0.518514
-0.367535
-0.508431
-0.540695
-0.681764
-0.548953
0.117128
0.633640
0.098540
0.205281
-0.662762
-0.395897
0.843843
0.247150
-0.447508
-0.411354
-0.094498
0.968628
-0.024048
-0.300002
-0.651076
-0.166598
0.866150
0.567853
0.874721
-0.175539
-0.312665
0.989646
0.378761
0.655848
0.126512
-0.954400
0.650938
-0.670588
0.019978
-0.656494
0.506737
-0.766593
0.202935
-0.892451
0.245259
-0.136700
0.105096
-0.121036
0.833390
-0.400706
-0.560992
0.749011
-0.889216
-0.545218
0.242961
-0.362061
-0.337644
0.791807
0.788579
0.316867
-0.052132
-0.874473
-0.350496
-0.089539
0.982400
-0.748693
0.297694
-0.267256
-0.751700
0.432866
0.674420
-0.651217
-0.615772
0.008421
0.315784
-0.993585
-0.891418
-0.954692
0.789836
0.216833
-0.755182
0.760710
-0.113896
0.506619
-0.485391
-0.659539
-0.659751
-0.895822
-0.854077
-0.097623
0.925388
-0.190514
-0.249773
-0.414306
-0.795259
-0.802470
-0.038973
-0.724730
-0.614051
0.600497
-0.188111
0.424963
-0.631720
-0.124776
-0.722585
-0.388114
-0.078477
0.018780
-0.794122
-0.041391
-0.483757
0.503453
0.204176
-0.146730
0.301598
-0.690271
-0.263064
-0.344238
0.833913
0.912680
0.650461
-0.236249
0.154678
-0.644428
0.915185
0.972323
-0.600553
0.569924
-0.385737
-0.335798
0.725328
0.524804
0.982796
-0.475418
0.108039
0.451923
-0.975486
0.997391
-0.632131
-0.149169
-0.306080
-0.309944
-0.919937
-0.186228
-0.827032
0.727650
-0.709455
0.204550
-0.124463
0.531681
-0.506488
-0.284380
0.390127
0.658857
-0.320633
0.737492
-0.403755
0.446819
0.332357
0.826432
0.315513
0.808715
0.191275
-0.272532
0.289211
-0.715628
0.768996
-0.144298
0.656450
-0.709325
-0.939562
0.300425
-0.488744
-0.567201
-0.561767
0.566827
-0.524027
-0.828002
-0.088938
0.123756
0.956740
-0.132530
-0.375640
0.375674
0.363633
-0.231584
0.105502
-0.290689
-0.546989
-0.464703
-0.337601
0.454617
-0.937446
-0.704493
-0.230411
0.570888
0.864944
0.901298
0.855676
-0.285382
0.316065
0.463346
0.659973
0.887895
-0.741672
0.637404
0.921061
0.653297
0.074797
-0.988300
0.495012
0.863312
-0.643508
-0.616155
0.370630
-0.787565
-0.889596
0.592297
0.036761
0.265142
0.888962
0.365789
-0.580807
0.146192
-0.948148
-0.299266
0.767674
0.761050
-0.175790
-0.374778
-0.525714
0.720859
0.928648
-0.952944
-0.657590
-0.774568
0.749798
-0.663015
0.571934
-0.797714
-0.063829
-0.779679
-0.647913
-0.708835
-0.112661
-0.141153
-0.436599
-0.387308
0.909136
-0.313725
0.037628
0.679223
-0.404250
-0.261220
0.923631
0.196865
0.101283
0.943152
0.341843
-0.424277
-0.299540
0.324177
-0.394490
0.340729
0.858875
-0.797601
0.865492
0.324538
-0.611797
-0.703934
0.002466
-0.348018
0.964462
0.701381
0.396485
-0.351320
0.433426
0.137320
-0.020942
-0.146540
0.169226
0.139680
0.830522
0.148935
0.063313
0.794567
0.096119
-0.884888
-0.141696
-0.905750
-0.426212
0.254252
-0.119095
0.211183
-0.114182
0.283291
-0.979204
0.469699
-0.882048
-0.157453
-0.158532
-0.773565
-0.474855
-0.903783
-0.217103
0.567903
0.245428
0.160814
-0.130791
0.766762
0.181547
-0.422518
0.823743
-0.733478
-0.162938
0.056735
-0.580131
-0.485716
0.314340
0.230379
-0.276631
0.031781
-0.670169
0.508862
0.735163
-0.653382
-0.158864
-0.860323
0.538660
0.091282
0.068838
0.498955
-0.752219
0.708178
0.647349
-0.873433
0.072621
0.807724
-0.884753
0.544535
0.966011
-0.791714
0.652491
-0.803321
0.526774
-0.862880
0.600900
0.301027
0.812626
-0.448978
0.361645
-0.688197
0.225484
0.828121
0.439150
0.575505
0.360122
-0.633719
0.937301
-0.926401
0.519345
-0.828182
-0.714261
-0.520629
-0.839961
0.489292
-0.060020
-0.283185
-0.296881
0.602635
-0.514398
-0.553111
0.415651
0.447855
0.991052
-0.070000
-0.512863
0.758452
0.623548
0.639980
-0.735097
0.543844
0.038752
0.319181
-0.172136
0.520551
0.017522
0.410529
-0.874896
0.027521
0.358020
0.047254
-0.399504
-0.298532
0.391867
0.441836
-0.267566
0.373448
0.050774
0.341879
-0.334267
0.098935
0.747983
-0.053278
-0.246012
-0.458529
-0.075449
0.882688
-0.799789
0.989723
-0.952605
-0.913315
0.162814
0.108900
0.203277
0.292023
0.346053
0.652526
-0.743405
0.274217
-0.761134
-0.668766
0.214771
0.424993
-0.376884
0.570412
-0.015000
-0.478861
0.685525
0.932952
0.035480
-0.944905
-0.766792
0.058352
0.666490
-0.723259
-0.070258
0.270859
-0.415530
0.922345
0.058021
-0.471719
0.595868
0.737603
-0.068497
0.493715
0.122987
0.638799
0.754906
0.984917
-0.381133
-0.464935
-0.520379
0.311213
0.385483
-0.704543
-0.925450
-0.885882
-0.263258
-0.305938
-0.084078
-0.139547
0.092104
0.336112
-0.971130
-0.004881
0.388766
0.545592
0.241727
-0.228888
0.070891
0.937984
0.511393
-0.679455
0.001737
0.654785
0.334190
-0.914552
0.900069
-0.783539
0.926759
0.143922
0.161355
0.722475
-0.089047
0.138347
-0.878083
0.310747
0.565671
0.520138
-0.979725
-0.759036
-0.687176
0.487699
0.957952
-0.734148
0.677274
-0.696629
0.847618
-0.262757
-0.751115
0.988181
0.824676
-0.559797
-0.093361
0.558506
0.057382
-0.214496
-0.467676
-0.136304
0.698131
-0.944672
-0.731662
0.616370
0.270226
-0.690971
-0.335170
-0.026561
-0.422398
0.837171
-0.974307
0.621748
0.251687
-0.862644
-0.616211
0.145408
-0.808476
-0.016781
-0.302747
-0.867292
0.232524
0.944924
-0.869845
0.276694
0.105724
0.689460
-0.140742
0.959548
-0.264572
-0.830324
-0.477656
-0.176828
-0.226589
0.726303
-0.888118
0.373797
-0.867374
-0.510038
0.069604
-0.425007
0.450231
-0.341613
0.913777
-0.633639
-0.621387
-0.808241
0.224165
0.546600
0.836847
0.609417
-0.283089
-0.154966
-0.097439
-0.992108
0.378674
-0.317796
0.783152
0.204964
-0.308606
0.961962
-0.215590
-0.148912
0.413557
-0.256995
-0.926576
0.622762
-0.603158
0.438917
0.245749
0.679575
-0.610323
-0.911710
0.576438
-0.080103
0.011840
0.117587
-0.705672
-0.208466
-0.937217
-0.935342
-0.236023
-0.504644
0.066776
-0.609013
-0.110690
0.130099
0.019498
-0.028915
-0.095507
0.815866
0.636998
-0.295834
-0.158504
0.676334
0.280145
-0.925588
-0.665924
0.875125
0.232515
0.666479
-0.141215
0.825400
0.301772
-0.035614
0.769831
-0.891379
-0.093428
-0.850741
-0.925331
-0.077368
0.187437
-0.929221
-0.579670
0.499844
0.539508
-0.220908
0.677260
0.009331
-0.330988
0.439376
0.815604
-0.736646
0.608989
-0.442278
-0.591156
0.042974
0.445058
0.386196
-0.301207
-0.686452
0.904063
0.383719
0.062999
-0.022519
-0.538198
0.730481
0.195151
0.693079
-0.193902
-0.126311
0.018419
0.492548
-0.145152
-0.698160
0.746062
0.761606
-0.431868
0.909410
-0.010303
0.545076
0.526432
-0.452787
-0.343644
0.015932
-0.303608
0.040103
0.738416
-0.134843
0.106796
0.762331
0.946664
-0.431403
-0.407824
-0.417220
0.411476
0.317142
-0.653346
-0.448562
0.952489
-0.726696
-0.362274
0.202242
0.586397
0.113734
-0.677826
-0.995177
-0.610637
0.924428
0.298194
-0.963986
-0.131991
0.068572
-0.100451
0.756059
-0.317522
0.338960
-0.839706
-0.771095
-0.066587
-0.177694
-0.781820
0.198292
0.013814
0.708662
-0.010208
0.675959
-0.548782
0.380193
0.367425
-0.409373
-0.018337
0.334591
-0.055922
0.020875
-0.550063
0.430248
0.111942
-0.500955
0.907933
-0.196960
0.983540
-0.769945
0.580629
-0.506374
0.514746
0.736999
0.948028
-0.490906
-0.958914
-0.477988
0.698307
0.695759
-0.116046
-0.251819
0.829685
0.158520
0.545991
0.885582
0.177517
0.572780
-0.641259
-0.700990
0.463296
-0.578792
0.937950
-0.911085
-0.315130
-0.394617
0.025843
-0.451865
0.409277
-0.102627
-0.754111
0.011312
0.784612
0.845984
-0.482330
-0.928940
0.443243
0.726984
0.679749
-0.680145
0.708111
0.750876
-0.094983
-0.763748
-0.123643
0.150535
0.233155
0.398625
0.290372
-0.133758
-0.112860
0.937825
0.641472
0.498664
-0.041963
-0.993010
0.727697
-0.491695
-0.130398
0.999036
-0.511194
-0.813308
-0.965150
-0.456609
0.464318
0.731988
-0.782819
0.430410
0.018997
0.970592
-0.176148
-0.510226
0.616999
-0.994257
-0.974930
0.283626
-0.596821
0.354509
0.761693
0.584934
-0.755904
0.587765
-0.952615
-0.587812
0.256462
-0.856008
0.833280
0.321318
0.338902
0.041840
0.199559
0.576088
-0.335110
-0.728428
-0.489846
0.612441
-0.615432
-0.264983
0.020032
0.366104
-0.128621
-0.927875
0.321064
0.187572
-0.554618
0.884265
0.115906
-0.097865
0.784754
-0.087498
-0.314159
0.443579
-0.531793
0.958460
-0.083030
-0.666406
0.211955
-0.690552
-0.377225
0.253546
0.479789
0.250430
-0.212867
-0.163214
-0.152083
-0.930857
0.503814
0.612335
0.708168
-0.803431
-0.970505
0.585023
0.197140
-0.878770
-0.810276
0.221780
-0.089073
-0.966348
0.554785
-0.123327
0.597457
-0.172679
-0.912057
0.819739
-0.365503
0.664137
0.639497
-0.302989
-0.070627
0.032779
-0.210133
-0.290176
-0.238674
0.233947
0.310710
-0.093948
0.516512
-0.250394
0.428684
0.263603
0.545386
0.111424
-0.185496
-0.013857
0.769940
0.052582
-0.151269
-0.664128
-0.323829
0.003610
0.268372
-0.752988
0.316481
-0.020224
0.148742
-0.970049
0.239941
-0.012158
-0.485060
-0.198560
-0.888169
0.966760
0.404209
0.445657
0.202436
-0.556635
-0.596363
0.991195
0.418458
-0.720982
-0.533257
-0.569957
-0.565143
-0.829557
0.056900
0.035214
0.297139
0.361933
-0.124193
-0.547130
-0.947895
0.355745
-0.874218
-0.204451
0.874623
-0.148814
0.217227
0.244690
-0.872497
-0.691161
0.852567
0.203715
-0.279894
0.391567
-0.044696
0.490711
0.974680
0.494183
0.333210
0.499463
-0.301357
-0.439419
0.502350
-0.159751
-0.332300
-0.478965
-0.382061
-0.517044
0.147807
0.287916
0.811094
-0.864302
0.416438
0.097104
-0.234741
0.447070
0.430620
0.190786
-0.761615
0.433853
-0.423583
-0.270505
-0.286415
0.152778
-0.808204
0.075693
0.195276
0.547225
-0.502481
0.122435
0.641423
0.572073
0.937627
-0.451179
-0.366290
0.195492
-0.989636
-0.744116
0.813910
0.593783
0.469886
0.727719
0.486303
0.197327
0.780325
0.623141
-0.997420
-0.852776
-0.988998
-0.513231
-0.236917
-0.946128
0.973424
-0.325454
-0.799088
0.199403
0.224229
-0.998089
-0.580161
-0.667798
-0.794611
0.774045
0.320352
-0.829407
0.923914
-0.236162
0.020021
0.959325
-0.261715
-0.749872
0.713461
0.168044
-0.658927
-0.453313
-0.246463
0.439371
-0.145969
0.330683
-0.392835
0.593315
-0.544517
-0.768842
0.618093
0.589835
0.265165
0.491372
-0.637761
-0.040311
0.673901
0.352301
-0.042239
-0.530144
-0.321076
0.143805
-0.458961
0.282836
-0.325040
0.915840
0.358227
0.613066
-0.234579
-0.540225
-0.201689
0.911056
-0.418327
-0.365745
0.702518
-0.098919
-0.739065
-0.381180
-0.728061
0.422752
-0.155961
0.530937
0.703991
-0.321411
0.456598
0.116962
0.998520
0.617436
0.711617
-0.613834
0.172704
0.141445
0.863429
0.435865
0.069104
0.007501
0.470891
-0.283207
-0.769028
0.844666
-0.482294
0.379880
-0.865412
-0.478822
-0.674085
0.053262
0.107725
0.591950
-0.738659
0.409594
-0.251398
-0.988721
0.213012
0.087538
-0.652698
0.028523
0.317485
0.630531
0.381774
-0.449673
-0.572295
0.047564
0.318572
-0.946221
-0.616281
-0.394007
-0.606460
0.211698
-0.270847
-0.035880
0.138084
0.407175
-0.069119
0.758194
0.573512
0.069623
0.706822
0.075412
-0.103394
0.423473
0.767985
0.093368
0.124859
-0.359242
0.825826
0.720048
-0.957912
0.419725
-0.215166
0.224317
0.437317
-0.683500
0.864960
0.594825
0.148543
-0.263232
0.657862
0.292358
0.374109
0.815699
-0.087378
0.758089
0.062643
-0.854817
-0.747177
-0.226354
-0.194986
-0.377225
0.738735
-0.082832
-0.905036
-0.214236
0.461417
0.936093
-0.446415
-0.576914
-0.277653
-0.221906
0.284762
-0.735714
0.093634
0.755854
-0.371846
-0.320371
-0.471368
-0.926292
0.905893
-0.022080
0.416840
-0.447740
-0.041871
0.794220
-0.631585
-0.661119
0.827662
-0.403568
0.072471
0.096730
-0.841561
-0.148395
-0.287394
0.889994
-0.761877
0.098819
-0.931080
-0.478379
-0.567819
0.710867
-0.220172
0.999722
0.074704
-0.357389
0.084166
0.918800
0.178316
0.529974
-0.809684
0.316388
-0.587818
-0.077038
-0.788758
-0.434499
0.497502
0.985304
0.198756
0.665015
0.430986
-0.980674
-0.820962
-0.552514
0.760112
0.427889
-0.903265
0.284516
-0.054627
-0.520144
-0.163221
0.911638
0.462328
-0.772984
-0.035779
-0.923166
0.905568
-0.574417
0.562609
-0.645333
-0.293050
-0.225387
-0.039715
-0.150888
0.005788
0.100254
-0.412817
-0.471357
-0.678542
0.894125
0.524461
0.797891
-0.335511
0.323519
0.003082
-0.623549
0.065060
0.928907
0.243037
0.206373
-0.881274
0.432674
0.740775
-0.274671
-0.881677
-0.075789
-0.621343
0.561027
-0.234122
-0.778183
-0.217441
-0.332730
0.015009
-0.741468
0.893093
0.296812
0.101576
0.063897
-0.775260
0.768420
-0.403340
0.366153
-0.401722
0.708481
0.828073
-0.759375
-0.408470
-0.926730
0.812363
0.300261
-0.848681
-0.982571
0.805453
-0.963735
-0.482924
-0.679031
0.108919
-0.708560
0.235972
-0.257745
0.642384
0.232397
-0.401443
-0.191105
0.996306
0.025238
0.794644
0.557216
-0.354721
0.536705
0.335846
-0.193517
-0.412439
0.452417
-0.360229
-0.787020
-0.165328
0.895397
-0.902133
0.017748
0.773862
-0.767346
-0.006157
0.145244
-0.938156
-0.345687
0.388474
-0.872445
-0.365738
0.639565
0.056462
-0.571488
0.586797
-0.715224
-0.154583
0.308140
-0.709299
0.543215
0.265017
0.983859
0.870697
-0.064014
-0.469267
0.822974
0.993839
-0.096629
-0.952390
-0.005428
-0.251908
-0.936566
-0.183292
-0.505353
-0.364457
-0.777230
-0.679911
0.105092
-0.145150
-0.638095
-0.253939
-0.130357
-0.148016
-0.452623
0.079838
0.538223
-0.607759
-0.886438
0.713230
-0.764249
0.200059
0.309871
-0.331221
0.646660
0.476959
-0.816266
0.015376
0.632483
0.573557
0.082900
-0.424339
0.713696
0.805636
-0.151026
-0.759122
-0.304266
-0.297115
-0.490580
0.269655
0.455114
0.955496
-0.895570
-0.823664
0.368103
-0.599035
-0.596888
0.526649
0.009829
-0.242141
0.386276
0.081199
0.425760
-0.646302
0.269680
-0.513558
-0.240898
-0.609760
-0.291671
-0.554360
0.562067
0.890159
-0.734114
0.402814
0.108142
0.108178
0.945616
0.296432
-0.364890
0.975741
0.580551
0.608703
0.934313
-0.819764
0.207242
-0.478528
0.482723
0.752454
-0.860271
-0.785859
0.014373
-0.570007
0.093999
0.162479
-0.477487
-0.606258
0.683177
0.225747
-0.745485
0.492678
-0.965414
0.177533
-0.933143
-0.477380
0.083892
0.296439
0.941033
-0.453270
-0.341176
-0.880398
-0.403931
0.412262
0.070988
-0.793722
-0.233101
0.168159
0.916850
-0.282055
0.890331
0.909547
0.237620
0.018049
0.969517
-0.178141
0.800961
0.769695
0.859533
0.303238
0.627336
0.691089
-0.630034
-0.990497
-0.407893
-0.859993
0.245718
-0.570556
-0.570361
-0.664618
0.375774
0.194562
0.865430
-0.426072
0.310579
0.773469
0.675359
-0.280014
-0.790388
-0.716176
0.382214
-0.678463
0.020575
-0.825429
0.273981
0.049898
0.559859
0.677766
0.806192
-0.203304
0.853878
0.536634
0.889908
0.332263
0.122353
-0.812127
-0.888993
-0.729349
-0.535508
0.118643
-0.443883
0.551310
0.090983
0.680169
0.931856
0.353751
-0.995483
0.527841
-0.337956
-0.609425
0.894816
-0.510025
-0.225968
0.924232
0.182294
0.129262
-0.997816
-0.141112
-0.832998
-0.659326
0.680531
0.862305
0.430466
0.099227
-0.213547
0.817748
0.871857
0.154275
0.419255
0.292632
0.088218
0.878727
-0.745006
-0.748778
-0.151391
-0.545824
0.969388
-0.982352
0.956910
-0.579014
-0.846183
-0.748159
0.879150
-0.074576
-0.321720
-0.470907
-0.910793
-0.845095
-0.095760
-0.601900
0.497428
0.398364
-0.480081
0.201716
-0.408167
0.893110
-0.746268
0.164740
-0.205721
-0.247455
0.420999
0.888483
-0.161250
0.217570
0.299484
0.600567
-0.483183
0.107638
0.539584
-0.434808
-0.433241
0.209649
-0.488577
0.652716
0.025646
0.148274
0.247828
0.742706
-0.517633
-0.216971
-0.534975
-0.237220
0.376251
-0.595169
0.929355
0.184557
-0.848979
0.251010
0.079001
-0.490671
0.019135
-0.201811
-0.252211
0.247922
0.336922
-0.772059
0.807844
0.249484
-0.104105
-0.956047
-0.481707
-0.399499
-0.204477
0.274800
-0.142731
0.335594
-0.525792
0.703870
-0.171172
-0.378839
-0.344072
-0.464066
0.396193
0.898726
-0.538279
0.847750
0.787472
0.850784
0.336844
-0.881719
0.989197
0.887736
-0.690631
-0.217461
-0.210686
0.461056
0.375631
0.533696
0.518977
-0.266575
0.655019
0.331836
0.868223
0.462425
-0.024965
0.949559
-0.466183
-0.155034
0.851395
-0.055000
-0.213312
-0.788585
-0.197797
-0.301284
0.485724
-0.081753
0.376299
0.347291
-0.995184
0.409585
-0.561652
0.504697
0.383504
-0.258524
0.789411
-0.937818
-0.590556
0.837489
-0.388342
-0.926916
-0.873264
0.733868
0.398737
0.602715
-0.616456
-0.839439
-0.574590
0.656086
-0.199463
-0.672594
0.343678
0.663965
0.253990
-0.953680
0.807840
0.615183
0.050917
0.349338
0.791082
-0.656409
-0.030766
0.107313
-0.760739
-0.331348
-0.156133
-0.588077
0.271352
0.446321
-0.181719
-0.006616
-0.783355
-0.656216
0.946708
-0.141237
0.338153
-0.104580
-0.878275
0.094656
0.965290
0.007577
0.176522
0.864828
-0.622063
0.760310
0.371504
0.273952
-0.822380
0.886289
-0.332173
-0.439723
0.311629
-0.314638
0.580076
0.928180
-0.984205
0.764432
0.526145
-0.159080
0.875065
0.528273
-0.357014
0.727439
-0.132148
-0.779169
0.883805
-0.694104
-0.604289
0.904385
0.311451
0.838465
0.316793
0.306491
-0.220557
0.044957
-0.103763
-0.166973
-0.433961
0.587164
-0.439379
-0.961566
0.653910
0.547300
0.883927
0.598469
-0.585949
-0.191596
0.210227
-0.680952
0.113324
-0.963431
-0.676127
0.362164
0.138628
0.892631
-0.423914
0.001266
-0.211942
0.857413
0.100971
0.234998
0.935272
-0.727625
0.641733
0.497624
0.284107
-0.606220
0.478471
-0.777234
-0.775625
-0.634732
-0.371730
-0.316193
0.491872
0.487183
0.217126
0.598329
0.583550
0.355347
-0.400067
-0.390577
0.734194
-0.168995
0.796124
0.388618
0.255807
0.605015
0.901624
-0.954845
0.243459
0.168136
0.068771
0.696843
-0.719683
-0.027645
0.049125
0.743025
-0.846024
0.320309
-0.146172
0.072677
-0.402084
0.324385
-0.555274
-0.479419
-0.690970
0.285621
-0.769914
0.142232
-0.643922
0.872193
-0.607740
-0.313837
-0.395323
-0.177721
0.017319
-0.989567
-0.784372
-0.479366
0.074155
-0.430833
-0.885202
-0.357157
0.369562
-0.079461
-0.355356
0.959345
-0.312360
-0.626421
0.127654
-0.454890
0.984256
-0.848202
-0.086245
0.193921
-0.866023
0.970988
-0.745333
0.554870
0.552392
-0.728459
0.553753
-0.507529
0.562181
-0.936141
0.011982
-0.977142
0.585247
-0.700556
-0.669390
-0.447384
-0.579987
-0.044138
-0.742744
-0.929083
0.437604
0.573960
-0.992113
-0.609934
0.062686
0.605292
0.455909
0.013528
0.980482
-0.748272
-0.553292
-0.243225
0.526375
0.074949
0.569922
-0.982991
-0.659676
0.134677
0.388133
0.557487
0.445389
0.578052
-0.725412
-0.460023
-0.214930
0.191079
-0.460162
-0.202910
0.595851
0.130136
-0.794194
0.358470
0.351528
-0.103276
0.732726
0.191924
0.916554
0.453270
0.232108
-0.343144
0.770742
-0.338404
0.118982
-0.045150
-0.728692
-0.644656
-0.744371
0.563859
-0.952714
0.818937
0.646034
0.172804
0.897688
0.726867
0.551598
-0.231620
0.280105
0.759474
0.442679
-0.642743
-0.871617
-0.819606
-0.219781
0.296234
-0.651629
-0.641905
-0.705273
0.557582
0.618703
0.594643
-0.218080
-0.729206
0.094206
0.764210
-0.493569
-0.572156
0.706454
-0.864893
-0.819337
-0.192960
0.098908
-0.967450
-0.954683
0.759326
-0.656007
0.443808
0.268642
-0.000596
-0.904441
0.553844
0.567179
0.503974
-0.212809
-0.522218
-0.361127
-0.622576
0.567787
0.895287
-0.186359
-0.114227
-0.262929
0.241289
-0.137391
0.070695
0.735052
-0.179442
-0.986008
-0.119398
0.497463
-0.240006
0.221030
-0.717299
0.619060
-0.564334
-0.125477
-0.723349
-0.862094
0.571853
-0.893416
-0.102742
-0.409748
-0.340697
-0.050517
0.346331
-0.995121
-0.512462
0.412698
-0.262690
0.010964
0.825856
0.731928
0.654874
-0.403762
-0.936700
0.433737
0.064986
0.277381
0.193777
-0.438044
-0.936206
0.764099
-0.717324
-0.143611
0.672239
0.945950
0.747317
-0.022072
-0.982240
-0.763413
0.392015
-0.102517
0.779462
0.948433
0.301270
0.422221
-0.393400
0.817239
0.445660
0.521861
-0.953555
-0.327065
-0.203453
-0.075132
0.801290
-0.279031
-0.778134
-0.270327
-0.384820
-0.470383
0.984540
-0.821609
0.839280
0.672437
0.273087
-0.933437
0.714021
-0.043661
-0.609839
-0.282710
0.351121
-0.567523
0.327914
0.482634
0.637035
-0.938990
-0.066577
-0.765166
-0.950877
-0.467400
0.053275
0.324326
-0.736972
-0.554955
-0.076751
0.113278
-0.371613
-0.039260
0.460581
-0.596961
0.622349
0.968510
-0.004666
-0.132672
-0.689450
0.237203
0.218400
0.744335
0.719813
-0.485606
-0.436392
-0.812714
-0.160360
-0.948275
-0.008017
-0.368664
-0.129142
-0.544412
-0.900313
-0.523126
-0.264494
-0.308836
0.044211
-0.059965
-0.076885
-0.539694
-0.349262
0.357291
-0.017541
0.224385
-0.674934
-0.657631
-0.950463
0.805216
-0.024819
0.546798
-0.145957
-0.198147
0.507267
0.492097
0.508442
-0.071868
0.040356
-0.026647
0.130790
-0.412784
-0.674948
-0.106111
-0.941607
0.251668
-0.508934
0.890949
-0.730248
-0.987276
0.962791
0.568394
0.955419
-0.332761
-0.901902
0.994595
0.563353
-0.868157
0.194316
-0.768074
-0.278688
0.575490
-0.409186
-0.942078
-0.251993
-0.058309
0.248156
-0.516638
0.409847
0.650794
0.078534
-0.216099
0.969646
0.411204
-0.698413
-0.060524
0.814905
-0.871230
0.843055
0.201752
0.712066
-0.372981
0.899490
-0.047195
-0.024111
0.745072
-0.190988
-0.189519
0.406812
-0.680186
-0.797250
0.304584
0.576115
-0.510259
-0.973256
0.687610
-0.314891
-0.546353
-0.491945
-0.656556
0.773835
0.553326
0.480722
-0.728716
-0.060386
0.041060
-0.897240
0.247729
-0.243121
0.313361
-0.158535
0.157121
-0.892349
0.672251
0.260509
-0.200734
0.396803
0.553388
-0.305961
0.372131
0.966078
0.211559
-0.441362
0.261251
0.526066
0.404314
0.530100
0.777014
0.394383
0.147301
0.997508
-0.328885
-0.070974
-0.017518
-0.043351
0.773364
-0.520556
0.258999
0.105700
0.482710
0.130065
0.568485
0.329517
0.050329
0.419201
-0.020039
0.403858
-0.315503
-0.506555
0.720403
-0.196694
0.055456
-0.889755
0.137222
0.208608
-0.723780
0.377334
-0.007312
0.171599
0.543851
-0.441154
0.035494
0.126145
0.411033
0.421746
0.085378
-0.505218
0.884363
0.602054
0.065258
-0.590859
0.173589
0.754479
-0.452547
0.951356
-0.597374
0.112373
0.340730
-0.961262
-0.270264
0.094494
-0.357008
0.932362
0.998119
0.497183
0.286182
0.912805
-0.206655
0.769625
-0.835764
-0.846251
0.953905
0.381709
0.262290
0.158693
0.140811
0.446121
0.182400
-0.499427
-0.648215
0.769130
-0.389694
0.832656
-0.936433
-0.828402
0.017923
0.631721
0.082969
0.924609
0.834632
0.714874
0.414960
0.972101
-0.115573
0.195550
0.348943
0.050153
0.838372
0.258344
-0.707799
-0.273272
0.043088
0.350038
-0.885325
0.306449
-0.508475
-0.848628
-0.759177
-0.164548
-0.895616
-0.710244
-0.760089
0.426246
-0.550938
0.619377
-0.347800
0.546695
0.448782
0.826501
-0.013389
-0.637276
0.454247
0.058612
0.380725
-0.634493
0.013597
0.962744
0.886041
0.266191
-0.896489
-0.979658
0.190654
-0.664103
0.899452
0.569430
-0.550525
0.898534
0.578049
-0.537126
0.289603
0.142438
0.220887
0.448208
0.789547
0.726982
-0.142706
-0.599587
0.699440
-0.673903
0.713675
-0.148735
0.862339
-0.278047
-0.472056
-0.847897
0.931579
0.847609
-0.442240
0.855793
-0.195845
0.181268
-0.192007
0.146623
0.915732
-0.718218
0.713783
-0.809387
-0.104196
0.471642
0.099419
-0.070107
-0.693682
-0.870385
0.955790
-0.385949
0.510328
0.579501
0.626466
0.718995
-0.996551
-0.470767
0.692392
0.460327
-0.035960
0.211666
-0.519496
0.214356
-0.403120
0.986667
-0.846064
-0.951466
0.244418
0.020851
0.152395
0.606964
0.329602
0.676050
0.913359
-0.358146
0.207952
0.499133
-0.847019
0.765047
0.473339
-0.094720
-0.499837
0.386884
-0.252146
0.443275
0.555350
-0.763577
0.386668
-0.637926
0.321663
0.033856
-0.571101
-0.567322
-0.526402
-0.929689
-0.616828
-0.964700
-0.883666
-0.902847
0.376849
-0.551313
0.380576
-0.118467
-0.378212
0.259208
0.933870
-0.946656
-0.200891
0.639524
0.067565
-0.228278
0.819043
-0.089865
0.588309
0.419801
0.699106
-0.659209
0.701081
0.189737
-0.630831
-0.579862
0.669624
-0.243056
-0.491831
-0.279218
-0.788465
0.318267
0.037042
-0.693726
-0.880124
-0.883945
-0.998858
-0.667660
-0.912045
0.313276
-0.595161
0.656806
-0.649429
-0.525017
0.292899
-0.549232
0.496636
-0.921608
0.149477
-0.978829
0.087781
0.311022
0.385863
-0.549032
0.425083
0.198322
0.094856
-0.362265
-0.784647
0.780265
-0.346331
0.128527
-0.784081
-0.590647
0.189610
-0.808575
0.329025
0.588398
-0.849601
-0.001296
0.755405
-0.430887
0.534912
0.806291
0.572729
-0.382641
0.637895
0.263486
-0.991101
0.628659
0.360683
0.489173
-0.107298
-0.080690
-0.713812
-0.969016
-0.253117
-0.640694
0.445544
0.968845
0.284831
0.418973
-0.789430
-0.437905
0.972103
0.215179
0.664059
-0.320995
-0.416524
-0.260982
-0.288104
-0.381305
-0.253179
0.441457
-0.594610
-0.392401
-0.208423
-0.637857
0.450229
-0.912144
0.870499
0.270186
-0.469122
-0.660210
-0.376356
-0.570855
0.851383
0.758560
0.153723
0.451998
0.998932
0.793184
0.045583
-0.970126
0.247539
-0.335721
0.272621
0.924270
-0.997452
0.380600
0.678942
-0.972346
0.472128
0.767308
0.625635
0.144545
-0.207230
-0.558630
0.049525
-0.377442
-0.661605
0.114054
0.436175
0.030870
-0.735412
0.311625
0.393941
-0.675018
0.334250
-0.700086
0.737412
-0.927590
-0.720986
0.949935
0.873153
0.303469
-0.346237
0.721251
-0.253465
-0.347740
-0.978986
0.885679
-0.099108
-0.852175
-0.819083
-0.672967
-0.977967
-0.752362
0.759055
-0.032791
0.113925
0.471019
-0.275628
-0.984271
-0.356885
0.037102
-0.983038
-0.165910
-0.047799
-0.911831
-0.297304
-0.024628
-0.364235
-0.707069
-0.249824
-0.784500
0.812428
0.785566
0.007444
0.774772
-0.560109
-0.822201
-0.463745
0.746076
-0.574633
-0.910772
0.159636
-0.513786
0.897163
-0.390371
-0.999101
-0.801803
0.257731
0.302775
-0.157503
0.403324
0.023077
-0.483783
-0.981431
-0.994463
0.408058
0.387040
-0.881116
0.605800
0.326024
0.479180
0.476017
-0.873457
0.055193
-0.330584
0.562897
0.641683
-0.281053
-0.400979
-0.528982
-0.372750
-0.905264
-0.924969
0.580419
0.820321
0.383167
0.776422
-0.248225
0.673481
-0.867024
-0.398284
-0.053740
0.580901
0.393035
0.207396
-0.624218
0.488349
-0.907361
0.342606
-0.123623
-0.600950
0.780669
-0.001961
-0.389567
0.691984
-0.877533
0.478994
0.166195
-0.510003
0.221921
0.738259
0.015780
0.406418
-0.946860
0.144891
0.424654
-0.307224
0.948538
0.614581
-0.552076
-0.563876
-0.528208
-0.258158
-0.224294
0.111226
-0.622527
0.208347
-0.379760
0.544050
-0.963647
-0.216820
0.089426
-0.281244
-0.471973
0.120349
-0.056729
-0.029412
0.348287
0.646600
-0.613444
-0.845764
0.584315
-0.003912
-0.529655
-0.777255
0.451840
0.130978
0.043484
0.363602
-0.956407
0.526853
0.270753
-0.713639
0.366412
0.152569
0.293363
-0.891656
0.800504
0.854847
0.011916
-0.580149
0.564066
0.294375
0.013539
-0.740108
-0.380655
-0.057031
-0.964315
-0.656987
-0.152386
0.233154
-0.777099
-0.148282
-0.992115
-0.434300
-0.404559
-0.538315
0.835933
-0.391994
0.978678
0.089560
0.695686
-0.906055
-0.048423
0.580158
-0.255841
0.054185
-0.207890
0.946451
-0.967610
-0.498270
-0.232220
-0.064106
-0.528357
0.534693
-0.204660
-0.032050
-0.606042
0.948296
0.591493
-0.477127
-0.742714
0.986978
-0.493555
0.900176
0.800889
-0.311687
0.320997
-0.268142
-0.657921
0.550200
0.167363
-0.965423
0.098753
-0.674423
0.838339
-0.876946
0.189073
0.812937
-0.961686
0.792204
0.924291
-0.781086
0.391234
-0.310701
-0.685857
0.379821
0.037024
0.850662
-0.679451
-0.513721
0.174289
0.112767
0.849466
0.856317
0.538407
-0.211896
0.609335
-0.327485
0.618938
0.257951
-0.651169
-0.350638
0.137868
-0.153388
0.635933
0.547380
-0.477126
0.553312
0.018447
-0.137724
0.217468
-0.722192
-0.873520
0.232623
0.604471
-0.544428
-0.858336
0.461917
0.748987
-0.136295
-0.253270
0.898181
-0.591139
0.759543
0.168275
-0.395978
0.919138
-0.027675
0.815328
-0.006722
-0.525692
0.710223
-0.670246
0.979867
0.272224
0.937983
0.095565
0.396110
0.572243
0.273711
-0.004145
-0.469315
0.449669
0.633141
-0.328607
0.395736
-0.087995
-0.735936
0.984635
-0.553775
-0.410086
-0.640354
-0.608135
-0.414336
0.897725
-0.029182
-0.805820
-0.002351
0.628435
0.395746
0.655759
-0.039031
0.749636
-0.861425
0.552797
-0.060400
0.756694
0.528556
-0.715501
-0.637423
0.961356
0.291114
0.660777
-0.004980
0.229360
0.015249
-0.964860
-0.653110
-0.930573
0.973259
0.439696
0.554014
0.038610
0.418792
-0.483894
-0.277451
0.442800
0.882168
-0.944706
0.545715
-0.006365
-0.150429
-0.374202
0.362118
0.289545
0.679322
0.859608
-0.629425
-0.570750
0.271446
-0.501753
0.601446
-0.933248
-0.154298
-0.700946
0.771194
0.488286
-0.070035
-0.481271
0.978708
0.475510
-0.939551
0.875462
0.046152
-0.706836
-0.633556
0.880270
-0.796402
0.189015
0.100169
-0.418066
-0.541841
-0.222258
-0.396851
-0.797117
0.488568
-0.469997
0.914521
-0.633706
-0.435802
0.381203
0.222395
0.520774
-0.374217
-0.340710
-0.309973
-0.756030
0.550911
-0.511532
-0.571115
0.413291
0.598574
-0.094702
0.213260
0.791953
0.261553
0.349594
-0.217955
-0.399980
0.091658
-0.933534
0.390021
-0.090623
0.636166
0.991253
-0.534735
-0.329237
-0.788368
0.534674
0.789988
0.042012
-0.245224
-0.416731
0.740125
0.367088
-0.401624
-0.954472
-0.676270
-0.194026
-0.509337
0.355046
0.618941
0.420738
0.314037
0.863410
-0.146577
0.605614
0.054032
0.434411
-0.408711
0.115631
0.791956
-0.484290
0.449960
-0.221939
0.570277
-0.246237
0.319345
-0.051175
0.874479
0.921535
-0.075188
-0.233118
-0.272891
0.846009
0.895348
-0.016240
-0.563642
0.926365
0.072608
0.026480
0.205783
0.102206
0.825697
0.216122
-0.097829
0.062945
-0.324327
-0.697949
0.422922
-0.764046
-0.480167
0.218372
0.121838
0.694103
-0.300629
0.086081
0.605649
0.758552
0.484312
0.614752
-0.322347
0.131133
0.340227
0.950037
0.033510
-0.727312
-0.138402
0.930194
-0.515010
-0.959157
-0.012763
-0.244480
0.990113
0.726365
0.036937
0.105772
0.929320
0.477261
0.221906
0.772973
-0.260489
-0.733166
0.743956
-0.365414
-0.568831
0.871817
-0.170738
-0.539479
-0.556309
0.797011
-0.164342
0.928231
0.743751
0.913023
-0.834251
-0.544269
0.314611
-0.613021
-0.377338
0.463535
0.734236
0.105500
0.356224
-0.913835
-0.896254
-0.686558
0.718183
0.334301
0.735059
0.599575
-0.142712
-0.228852
-0.786400
0.303962
-0.668341
-0.114077
0.801533
0.352736
0.908934
-0.291416
-0.830660
-0.519020
-0.636407
0.562070
0.723447
-0.041932
-0.346239
0.434268
-0.715916
-0.753115
-0.781570
-0.721349
-0.539400
-0.599294
0.811727
-0.630362
-0.622885
-0.499982
0.655282
-0.982124
0.455523
-0.856350
0.609179
0.160941
-0.149206
0.841643
-0.545433
0.238226
-0.868049
0.880094
-0.558684
-0.183721
0.321584
0.295446
-0.966656
-0.668856
0.470952
0.336388
-0.763380
0.016807
0.623850
0.232373
-0.375190
-0.688108
0.774424
0.046697
-0.257003
-0.846640
-0.806962
-0.413318
0.348208
-0.876490
-0.891160
0.480538
-0.122286
0.479716
0.585265
0.001092
0.643378
-0.526284
-0.499584
-0.074984
-0.519820
-0.051629
-0.541319
-0.024741
0.121273
0.087455
-0.876038
0.122435
-0.900664
-0.361837
0.916814
-0.874959
-0.731116
-0.185099
-0.816546
0.003400
0.725489
0.922762
-0.131807
0.669705
-0.672899
-0.021195
0.458563
0.469406
0.000354
0.918330
0.550638
-0.480493
-0.978368
-0.192535
0.121759
-0.790404
-0.302582
0.384912
-0.297191
0.023660
-0.701220
0.384058
0.659957
0.215274
-0.173876
-0.787502
-0.510991
0.015365
0.225611
-0.347578
0.393327
0.472202
-0.149276
-0.892761
-0.919204
-0.074947
0.037511
-0.599185
0.650553
0.765222
0.255064
-0.656608
0.263034
-0.658613
-0.742326
-0.874617
0.796312
0.194040
0.297517
-0.082261
-0.332714
-0.719587
-0.663435
-0.326182
0.405137
0.742187
0.676973
-0.702736
0.573173
-0.669538
0.228662
0.351719
0.025690
-0.689598
0.639279
0.894282
0.537526
0.630908
0.443480
0.302040
-0.845555
0.669571
-0.851703
-0.735581
0.442109
0.028947
-0.326279
0.510464
-0.357510
-0.464417
-0.437850
0.576815
0.380310
0.674927
-0.265417
0.499292
-0.554073
0.796297
-0.014516
0.305489
0.747391
-0.135411
0.631777
-0.202000
-0.922224
-0.892163
-0.694255
0.596319
0.247601
-0.752137
-0.439947
0.909445
-0.533613
-0.791818
-0.943651
0.389897
-0.968115
0.066757
0.037700
-0.059527
0.771253
-0.026063
0.719629
-0.457406
0.168786
-0.468950
0.972120
-0.539732
-0.190481
0.721839
0.796967
-0.848354
0.541883
0.155342
-0.881007
-0.788870
-0.002327
0.579679
0.684286
-0.144254
-0.273561
0.178492
-0.447190
-0.732752
0.152887
0.407055
-0.591837
0.439296
0.697734
-0.117059
-0.693219
-0.088051
-0.115830
0.665037
-0.354949
0.612102
-0.331682
0.328769
-0.010298
-0.333383
0.731268
0.552715
-0.774697
-0.154477
0.802082
-0.166542
-0.238678
0.427645
0.697666
-0.475100
-0.619583
0.276811
-0.816329
-0.841677
-0.538214
0.715017
-0.325960
-0.426615
0.573730
-0.008870
0.644513
-0.581559
-0.359705
0.355682
-0.543105
-0.025968
0.546733
0.824083
0.455703
-0.189763
0.180390
0.165889
-0.322146
-0.156134
0.125746
-0.573757
-0.330753
-0.708605
0.544087
-0.397296
0.442417
0.404185
-0.087410
-0.116984
-0.050353
-0.989480
-0.407125
0.014092
-0.191376
0.735661
0.688329
-0.601970
0.192098
-0.594589
-0.600073
-0.386409
0.464168
0.639499
-0.220334
-0.587514
-0.763517
0.040732
-0.074774
0.228176
-0.809321
0.685371
-0.380774
0.154781
-0.810712
0.185075
-0.906093
-0.092764
0.400352
0.715944
0.928736
0.672909
0.645351
-0.277380
0.158693
0.986223
-0.173712
-0.421983
-0.380001
0.719708
0.243425
0.337596
0.918935
-0.400466
-0.141163
-0.861446
0.870750
0.180291
-0.976273
-0.245856
-0.316809
-0.547205
-0.996858
-0.276674
-0.910439
0.155627
0.277469
0.263715
0.545738
0.432411
0.304582
0.338348
-0.021179
-0.666890
0.527657
0.405426
0.348340
0.221616
-0.604367
0.928528
0.866477
-0.027608
0.287581
-0.905821
0.574410
0.568877
0.391083
-0.059905
-0.506839
-0.746453
0.160468
-0.466121
0.050295
0.269930
0.826951
0.270542
-0.094148
0.538441
-0.647951
-0.747627
-0.264532
-0.521826
-0.553971
0.234173
0.903713
0.674792
-0.267894
-0.297055
-0.656338
-0.922612
0.377077
0.021572
0.584762
-0.902869
0.183278
0.184534
-0.371231
0.955349
0.591810
-0.026974
0.197723
-0.933915
-0.314779
-0.233560
-0.797588
-0.085817
-0.442987
0.235688
-0.189854
0.787176
0.840047
0.970842
0.589616
0.966536
0.483079
0.464178
-0.618488
-0.215492
0.432496
0.577038
-0.720103
0.774119
0.791253
-0.281596
0.079917
-0.520266
-0.630055
-0.715894
0.046666
0.709859
-0.834336
0.689967
0.512647
0.531830
-0.022048
0.507570
-0.493583
0.441213
0.036560
0.549403
0.881669
-0.792297
-0.852118
-0.499498
0.034257
-0.097459
-0.642541
-0.783397
0.876094
0.842205
0.714027
-0.711610
-0.880700
0.638629
0.036131
-0.849888
-0.650453
-0.528168
0.527377
0.910846
0.787341
-0.217739
0.997938
0.169598
-0.446445
-0.354440
0.312512
0.808621
-0.310582
-0.610610
0.540066
-0.363234
0.011063
0.444816
-0.860840
0.845672
-0.757500
0.208948
0.078497
0.008953
-0.821128
0.845770
-0.283560
-0.222736
-0.767001
0.400606
-0.349617
-0.663317
-0.827845
0.410515
-0.269354
0.113217
-0.140230
-0.747549
0.803930
-0.352817
0.772320
0.256952
-0.853995
0.000551
-0.414460
-0.008958
-0.225417
0.731181
-0.707796
-0.166568
0.217739
0.395806
-0.390156
-0.090717
0.468654
0.262989
-0.236167
-0.856904
-0.217354
-0.601551
0.995524
-0.400575
-0.833704
0.031986
-0.345167
0.740454
-0.039377
0.652379
-0.231144
0.714720
-0.223727
-0.182245
-0.605943
-0.926829
0.640009
0.411574
0.690419
-0.760065
-0.954939
-0.656490
-0.859187
-0.067417
-0.446968
0.037198
-0.422821
0.901247
-0.121189
-0.335002
-0.391762
0.860774
0.247260
-0.975033
-0.705123
0.308095
-0.828732
-0.501955
-0.707744
0.073700
0.705553
0.256427
0.039474
-0.176759
-0.336576
0.593195
0.349370
-0.005143
-0.143165
0.971079
0.442720
0.418829
-0.867282
-0.974065
0.751600
0.000415
-0.655563
0.834611
0.365945
0.939528
0.347789
0.026178
0.720520
0.045588
0.056498
-0.829162
0.520551
-0.895390
0.407994
-0.375913
-0.164798
-0.082402
0.442783
0.014502
-0.906934
0.738670
-0.443262
0.471090
0.887270
0.062778
-0.919149
0.912859
0.256591
0.094944
0.879643
0.387011
-0.557702
0.310843
0.999894
-0.595390
-0.691132
0.757073
0.336961
-0.360673
0.311095
0.828321
-0.623451
0.349399
0.687569
-0.064470
-0.074164
-0.792567
-0.205903
0.175646
-0.552620
-0.462033
0.381026
-0.825225
-0.814203
0.452436
-0.103465
-0.796506
0.600258
-0.694266
0.843612
0.748231
-0.076531
-0.569922
0.876969
0.843167
-0.896186
-0.656361
0.979085
0.849697
0.084639
0.798849
-0.692082
-0.636104
-0.845020
0.559996
0.566515
0.551041
0.129308
-0.624648
0.501662
-0.287421
0.527557
-0.856223
-0.553057
-0.812494
0.343481
0.301046
0.869856
0.055362
0.297950
0.366660
0.830099
0.260371
0.822845
0.275235
-0.409615
-0.033741
-0.528407
0.301117
0.995577
-0.479718
-0.773683
0.429675
-0.806699
0.089064
0.685329
-0.136207
-0.039156
0.334025
0.620143
-0.442703
0.381994
0.056169
-0.544433
0.592465
0.616219
-0.748993
0.686057
-0.423917
-0.505531
0.466111
-0.567803
0.193719
0.306981
0.932150
0.720273
-0.831676
0.168777
-0.639545
0.761165
-0.999750
-0.024915
0.286582
-0.088871
-0.537164
0.472220
-0.514573
0.153842
0.408510
0.709043
-0.991107
-0.484073
0.018628
0.025734
-0.792679
-0.198440
0.877275
0.332170
0.427506
0.311840
-0.639351
-0.249177
-0.382222
-0.418688
0.708711
-0.354446
-0.834018
-0.137222
0.695806
-0.836928
0.068301
0.257122
0.873252
-0.835012
0.211788
-0.462023
0.492284
-0.299247
-0.158726
0.980050
0.358567
0.258123
0.214820
-0.155300
-0.442818
-0.680266
0.206969
0.272920
-0.880764
0.008539
0.280579
0.565966
0.264443
0.913761
0.296564
0.475656
0.838452
-0.591807
0.262020
-0.372399
0.367552
-0.747011
-0.683077
0.114190
-0.448942
0.444334
0.537422
0.879398
0.040091
-0.436528
-0.330465
0.905414
-0.805349
-0.980954
0.051306
0.138884
-0.352445
-0.169405
-0.729259
-0.615399
-0.733003
-0.793065
-0.464579
-0.600024
0.896552
0.906306
0.115694
-0.601463
-0.864345
-0.166768
-0.452016
-0.717920
-0.384384
-0.812126
-0.533664
0.958837
-0.930111
-0.761356
0.489301
-0.708314
-0.397640
0.867573
0.024983
0.383436
0.545139
0.072124
0.395297
-0.235731
-0.527594
-0.309676
0.326365
0.312980
-0.695100
0.043454
-0.203497
-0.409844
-0.949701
-0.807180
0.741928
-0.127855
0.869970
-0.512578
0.561279
-0.372182
-0.312622
0.765486
-0.588723
0.687650
0.701762
-0.187547
0.822960
0.148549
0.857189
-0.532361
-0.236969
0.634686
-0.144101
-0.084270
-0.785022
0.205740
0.100268
0.390827
-0.061953
-0.338984
-0.061802
-0.799560
0.168391
0.198967
0.420679
0.556448
0.307814
-0.009161
-0.612826
0.748723
0.117106
0.864782
-0.793935
0.271528
0.856611
0.897312
0.433900
-0.928792
-0.586467
0.906107
-0.413151
-0.615468
-0.869994
0.313842
0.743104
0.486082
-0.252570
-0.901060
-0.457768
0.868193
0.002343
0.133285
0.859585
-0.640999
-0.145397
-0.915980
0.421358
-0.708474
0.864886
-0.923902
0.570881
0.130831
-0.517804
0.227612
-0.469499
-0.695242
0.803020
-0.951309
-0.274981
0.599715
0.300654
-0.791463
-0.362672
0.838071
-0.355296
0.785601
0.415479
-0.444627
0.249655
-0.459600
0.580715
-0.515365
0.571744
-0.704828
0.530198
-0.373893
0.015101
-0.420358
-0.694062
0.007613
-0.432825
0.113177
-0.641403
0.897929
0.269365
-0.846018
0.102736
-0.052696
0.984377
-0.353121
0.526538
0.353474
0.215609
0.028117
-0.466051
-0.475175
-0.222272
-0.520065
0.832575
-0.471228
0.935509
-0.700664
0.583728
-0.022309
0.167173
-0.887893
-0.876122
0.657758
-0.931852
0.339734
-0.701283
-0.567008
0.499014
-0.211115
0.822761
0.255359
-0.051724
-0.220041
0.605300
0.774393
0.679427
-0.228750
0.573309
-0.149159
0.170327
0.515326
-0.094003
0.973698
-0.536094
0.378888
-0.222787
0.782277
0.215387
-0.784056
-0.265308
-0.510844
-0.987480
-0.761657
-0.990988
0.862568
-0.807596
0.951170
-0.784262
0.922936
0.248406
0.955836
-0.700888
-0.709774
-0.437001
-0.948556
-0.197521
-0.390984
0.182694
-0.299988
0.562531
-0.882593
0.322036
0.105049
-0.967097
-0.016610
0.445786
-0.124093
-0.436489
-0.027775
-0.286977
0.724871
-0.298000
-0.015194
-0.219735
-0.884368
0.563531
-0.929789
-0.176804
-0.273030
0.716121
0.600751
-0.169433
-0.894944
-0.790496
0.087354
0.076001
-0.631032
-0.229395
0.867842
0.240262
0.125070
0.308031
-0.309548
-0.767344
-0.780924
-0.403043
0.401312
-0.632877
-0.192331
0.927834
0.020933
0.474939
-0.205559
0.818147
-0.170205
0.773757
-0.954377
0.655243
-0.429441
-0.631514
-0.066175
0.984827
0.699874
-0.741753
0.000592
-0.530795
-0.073241
-0.672001
0.192055
-0.630124
-0.847459
-0.435674
-0.633758
-0.250183
0.741272
-0.980087
0.655873
0.067279
-0.174463
-0.216491
0.072927
0.453485
-0.012873
0.657149
0.872825
0.223516
0.108993
0.310071
0.164880
0.274061
-0.640640
-0.085973
0.345286
0.497858
-0.779218
-0.528030
-0.737525
0.983574
-0.402927
0.926616
0.760905
0.523073
-0.186761
0.408016
-0.070197
-0.906590
-0.277605
-0.549071
-0.603250
0.265863
-0.145936
-0.397967
0.785843
0.239801
0.059591
-0.379908
-0.377928
0.994616
0.946204
0.807867
0.135658
0.534660
0.309887
-0.977935
-0.130058
0.028072
0.311588
0.932638
0.240350
0.886902
-0.697145
0.147211
-0.973415
-0.649961
-0.355827
0.520735
-0.606964
0.556599
0.319094
0.816132
-0.867075
-0.479303
-0.087400
-0.027351
-0.773881
0.402547
-0.768427
-0.876513
-0.685775
0.656467
0.229413
0.476962
0.464686
0.608162
-0.573942
-0.161913
-0.661392
-0.399587
-0.242137
-0.193101
0.347754
-0.945314
-0.927601
0.871617
-0.588576
0.586132
-0.480803
-0.556991
0.318025
-0.503766
-0.008639
0.586716
0.546664
-0.869942
-0.723606
0.219822
-0.549430
-0.278210
-0.849848
-0.651480
-0.767573
0.607778
0.474131
-0.529945
0.761864
-0.512479
-0.228717
0.980891
-0.096502
0.946677
-0.644006
0.921764
-0.303628
0.657848
-0.338374
-0.346803
0.557241
-0.203371
-0.191788
0.896507
0.769708
-0.172941
-0.259923
-0.591997
-0.730883
0.167580
-0.890666
0.127139
0.355181
-0.582622
-0.705556
0.301711
-0.897021
-0.107764
-0.092438
0.511986
-0.300239
-0.471832
-0.211509
-0.305880
0.045266
-0.623638
0.646718
0.239103
-0.475346
-0.809420
0.658386
0.132954
-0.745079
-0.731785
-0.456491
-0.262991
0.501146
-0.598045
-0.319694
-0.167998
0.219771
0.082814
-0.476667
0.471849
0.211625
0.571007
-0.594177
0.144474
0.495353
-0.473981
-0.782611
-0.670296
-0.806812
0.968464
-0.348776
-0.690344
-0.878560
0.854631
0.059048
0.705239
-0.955078
0.588034
0.336864
-0.155632
-0.226611
-0.337828
0.918263
0.081714
-0.177679
0.715146
-0.257904
0.318682
0.045012
-0.055449
0.316190
-0.915810
0.285190
0.591830
-0.351708
-0.313258
0.235830
-0.154333
-0.600859
-0.977180
-0.209218
0.839949
0.228651
0.742823
-0.836694
-0.982232
0.222131
0.571656
-0.906228
0.433555
0.785723
-0.671043
0.885851
0.503362
-0.986556
0.709820
-0.738662
-0.187281
-0.539999
0.246538
-0.804454
0.594212
-0.661622
-0.333240
0.907890
0.216153
0.220070
0.863859
0.564124
0.157881
0.250143
0.751969
-0.583450
0.100952
-0.019695
0.074523
-0.645586
-0.944169
-0.349051
0.024488
-0.213964
-0.992033
-0.778619
-0.619366
-0.679605
-0.513471
0.741126
-0.809436
-0.753449
-0.876844
0.887653
-0.597263
0.959708
0.297290
0.282794
0.226575
0.049938
0.363417
0.696285
-0.081290
-0.963153
0.231486
-0.131375
0.666940
0.021169
0.891079
0.087307
0.259733
0.106369
0.719428
-0.662928
0.241479
0.781156
-0.425163
0.878827
-0.614712
-0.087667
-0.451294
0.311175
0.324205
-0.327086
0.902353
0.212265
0.752444
-0.131711
-0.678085
-0.200184
0.442768
0.678948
0.121922
-0.701367
-0.120119
-0.475253
-0.502314
-0.903311
-0.654629
-0.366544
-0.770811
0.187356
-0.928029
0.218151
-0.818433
0.385432
0.032295
0.003550
-0.474959
0.993091
-0.391857
-0.809486
-0.315708
-0.175502
-0.537447
-0.145460
0.475994
0.614399
0.012051
-0.773583
0.440360
0.491932
0.522818
0.753654
-0.016015
-0.462299
-0.628807
0.826056
0.016125
-0.095002
-0.107219
-0.685520
0.222993
-0.729187
-0.282240
0.788907
0.049718
-0.656121
0.561255
0.389123
-0.042993
0.007225
0.981870
0.391733
0.838057
0.773407
-0.658587
-0.222970
-0.218436
-0.332962
0.295448
-0.892054
-0.176607
-0.087935
0.349176
0.747017
0.999427
-0.867507
-0.337384
0.510942
-0.140445
0.334768
-0.204112
0.410839
0.696370
0.164663
0.525242
0.703879
0.385250
0.538148
0.412678
-0.883670
0.616018
0.895590
0.810544
0.801307
0.947991
-0.545482
0.503758
0.859685
0.751949
0.681240
-0.155705
-0.546565
0.639851
-0.951718
-0.659999
-0.477805
0.943618
0.199229
0.614517
0.954337
-0.882464
0.676527
0.451256
0.115618
-0.237334
-0.450310
-0.503710
0.154695
0.354291
-0.921621
0.744626
0.919423
0.788543
0.574671
0.592557
-0.244482
-0.265873
0.403001
0.423070
0.115545
0.043259
0.462261
-0.217922
-0.522577
0.166214
0.823992
0.690572
0.103819
0.446299
0.629762
0.985873
-0.139651
-0.393007
0.901741
-0.206514
0.035166
-0.754055
-0.693926
0.507573
-0.126124
0.920267
0.291425
0.438585
-0.007186
-0.077017
-0.458464
-0.142941
-0.000250
-0.320053
0.413852
-0.984088
-0.006003
-0.010755
0.866876
-0.937919
0.586914
0.849946
-0.815105
0.812598
0.726032
0.537638
-0.230955
0.937803
-0.008327
-0.193555
0.717172
0.367049
-0.047781
-0.199859
0.281787
-0.335598
0.803444
0.730100
0.694987
0.444231
0.194512
-0.497759
0.012466
0.287071
0.137512
-0.268263
0.296640
-0.454030
0.819235
-0.192037
0.487629
0.478781
-0.003481
0.695412
-0.795887
0.105182
0.087135
0.675219
0.232196
-0.545366
0.097137
-0.078021
-0.025408
0.142511
0.841942
-0.346245
0.475956
-0.882879
0.441057
0.800886
-0.619595
0.872639
0.077521
0.748397
0.764505
0.515088
-0.902046
0.587937
-0.826763
-0.351881
0.755346
0.469835
-0.144976
0.703851
-0.153318
-0.971282
0.549862
0.841925
0.591333
-0.605790
0.889881
0.270066
-0.886770
0.639284
-0.342324
0.167909
-0.991400
0.477765
0.416716
0.816016
-0.995077
-0.172356
0.081443
-0.594988
0.384662
0.664657
0.262071
0.828017
0.764850
-0.192988
0.376136
0.273097
-0.098729
0.489479
0.064580
0.113730
-0.321256
0.766851
0.196940
-0.148481
-0.727077
-0.810546
0.914564
0.252151
0.862213
-0.465996
-0.153752
-0.930077
0.618383
0.909749
0.231887
0.242366
0.156597
0.726527
-0.080692
-0.371568
0.932338
-0.534534
-0.845263
-0.871973
-0.141606
-0.316056
0.200502
-0.134924
-0.316233
-0.977765
0.954694
-0.988515
0.146200
0.865718
-0.709407
-0.747603
-0.682049
0.935611
-0.481650
0.750489
0.865970
0.277865
0.851135
-0.662400
-0.432670
0.810604
0.107741
0.415138
-0.902820
0.069757
-0.332015
0.361112
-0.109464
0.475096
0.314333
-0.611872
-0.748219
0.796121
0.858919
-0.374841
-0.242609
-0.303086
-0.812124
-0.831990
0.715557
-0.173122
0.845075
-0.189160
-0.569965
-0.782709
-0.202807
-0.322212
0.610381
-0.910561
-0.705716
-0.256675
-0.572352
-0.748972
0.228924
0.407556
0.243268
0.587870
-0.838968
0.497554
-0.472758
0.144666
0.332189
0.314224
0.534743
-0.738701
-0.398070
-0.347300
-0.716749
-0.194322
-0.099128
-0.904941
0.574151
0.705651
0.001702
-0.663020
-0.377060
0.531403
0.767359
-0.442948
0.998246
-0.054247
-0.793841
-0.023689
0.242743
0.545972
0.255537
0.912247
0.291666
0.104930
0.224236
-0.822257
-0.371567
-0.613119
0.928657
0.890840
-0.564146
-0.576826
0.165758
0.825833
-0.280779
0.906389
0.583367
0.200912
-0.870345
0.005033
-0.826096
-0.411970
-0.153681
0.227660
-0.936987
-0.707619
0.033588
0.996298
0.458628
0.331255
-0.461608
0.959230
-0.517903
-0.030271
0.296993
-0.792646
0.554886
-0.058366
0.577080
0.461939
0.288932
0.853256
0.548246
-0.726992
-0.603264
0.045646
0.442988
0.118550
0.775777
-0.540960
0.472473
-0.976705
-0.315299
0.634849
-0.281130
-0.186521
0.221705
0.963678
0.972352
0.523190
0.425019
-0.575218
0.676576
-0.674921
0.475467
-0.365542
0.284881
0.304229
-0.709866
-0.428378
0.786768
0.196602
-0.127558
-0.836261
0.986962
-0.300535
0.292040
0.580862
-0.969168
-0.889625
-0.772684
-0.080070
0.078440
0.905045
0.153464
-0.744746
0.728478
0.870341
-0.212026
-0.549286
0.531316
0.833084
0.452118
0.558239
-0.637295
-0.076422
0.942807
0.177126
-0.601570
-0.333375
0.060660
-0.641310
0.833953
0.318176
0.062295
-0.931916
0.755914
0.445749
-0.672625
0.064162
0.898743
0.490162
-0.725634
0.347648
0.492567
-0.302805
0.233565
0.546214
0.877069
-0.283625
0.914666
-0.617629
-0.271159
0.854835
-0.448583
-0.934238
-0.244743
0.121281
-0.590889
-0.847606
-0.616707
-0.445411
-0.087959
0.662704
0.532721
0.836038
0.113327
0.154601
-0.775672
0.727474
-0.003311
0.527817
0.776163
-0.171153
-0.033529
0.643362
-0.883990
-0.433798
0.213178
0.034569
0.153765
0.852817
0.742013
-0.805567
0.517215
0.042190
-0.910891
-0.239912
-0.039882
0.696421
-0.118307
-0.151089
0.746208
0.789163
0.186067
0.054238
-0.869480
-0.330096
-0.924180
-0.580816
-0.506330
0.195147
0.370536
0.708890
0.229333
-0.515574
-0.524358
-0.382891
-0.696772
-0.120500
0.084745
0.104958
0.738095
-0.163859
0.846279
-0.801385
-0.979042
-0.830167
0.563414
0.123806
0.702737
0.992597
-0.656984
-0.168859
-0.877667
-0.919455
0.663728
-0.818609
-0.303908
0.304303
-0.159646
-0.482278
0.227390
-0.938278
0.552162
0.635423
-0.054158
-0.233413
-0.789935
-0.060115
-0.084651
-0.402296
0.660874
0.804255
0.044505
0.559214
0.131845
0.298518
0.593356
-0.973647
0.624969
0.516856
-0.086175
0.453080
-0.659826
0.753678
-0.530079
-0.889644
0.073554
0.545947
0.597812
0.483524
-0.135532
-0.822325
-0.276013
0.785928
-0.948837
0.858049
0.722840
0.722585
-0.051673
0.820797
-0.636935
0.540596
0.160480
-0.392504
-0.304890
-0.395863
-0.013041
-0.374735
-0.136085
-0.693861
0.629372
-0.129002
-0.239482
-0.936869
0.710137
0.512848
0.631010
-0.491558
0.321410
0.770195
-0.644025
0.692113
0.738261
-0.216683
-0.184769
-0.799402
0.164948
-0.812757
0.318696
0.696549
0.034365
0.717160
0.604549
0.759260
-0.414721
0.089552
0.006111
0.656444
-0.901517
-0.958862
-0.652188
0.141237
0.126833
0.252220
-0.266464
-0.349605
-0.364205
-0.706533
-0.633069
-0.358951
-0.574519
0.147168
0.423541
0.658317
0.265485
0.487582
-0.144576
-0.078721
-0.071301
-0.586322
0.980671
-0.932063
-0.869174
-0.116910
-0.454108
-0.710003
-0.017579
0.681610
-0.649634
0.572257
0.590340
0.123527
-0.887665
0.510595
0.121034
-0.907456
-0.277452
0.901589
-0.377024
-0.929653
0.671864
0.199094
-0.361402
0.257946
-0.763579
0.482519
0.014716
-0.611789
-0.783249
-0.198596
-0.236541
-0.888888
-0.462678
0.124809
-0.081594
0.583094
0.955744
-0.921223
-0.557412
-0.859980
-0.347682
0.186386
0.875533
-0.699236
-0.803729
0.249104
-0.564801
0.291739
-0.372505
0.504000
0.242316
-0.451143
-0.128445
-0.998617
-0.631318
0.360738
0.084059
-0.373355
-0.736537
0.310026
-0.479711
-0.922021
0.350783
0.465378
0.207721
-0.819411
0.783774
0.616697
0.163111
0.508333
0.733648
-0.679176
0.422730
-0.604664
-0.388410
-0.026757
-0.659218
-0.270015
-0.945976
-0.362957
-0.866027
0.241085
-0.632026
0.729730
0.617099
0.894258
-0.575350
0.872828
0.554207
0.447611
0.450117
0.800757
-0.781288
-0.842849
-0.754287
0.619371
-0.555413
-0.202470
0.276539
0.195847
-0.271034
-0.168334
0.467400
-0.090101
0.450011
-0.346141
0.851605
-0.449246
0.154706
0.685706
-0.992170
-0.536331
0.238734
0.799272
-0.581630
0.092883
0.034484
-0.151580
-0.077747
-0.676433
0.788400
-0.807625
-0.989408
0.338753
0.681117
0.338336
0.365621
0.616131
-0.405534
0.750662
0.882874
0.477742
0.906603
-0.293362
-0.451887
0.797504
-0.788458
-0.553210
0.230808
-0.060442
0.707845
-0.569782
0.645793
0.922102
-0.414714
-0.670390
0.114675
-0.518250
-0.282753
0.892302
0.592383
-0.514362
-0.141133
-0.338969
0.320121
0.085670
0.017700
0.760824
-0.927944
0.582455
0.858593
-0.562203
-0.300154
0.907427
-0.374122
0.400543
0.813026
0.032423
0.847262
-0.333387
0.773231
-0.580233
0.554594
-0.284730
0.347599
0.552240
0.638081
0.761948
-0.744335
-0.553898
0.310964
0.049006
-0.361390
-0.779028
-0.806037
0.173196
-0.798764
-0.763402
-0.295978
0.415100
0.790936
-0.403545
0.435948
-0.296687
0.186887
-0.166751
-0.647171
0.856216
-0.781347
-0.828668
0.996298
-0.674110
0.141604
-0.540358
-0.823975
-0.148602
0.268770
-0.119959
0.018633
0.907203
-0.808757
0.550965
0.038651
0.177714
-0.263581
-0.544879
0.605149
0.106974
0.495744
0.397579
0.198559
0.361628
0.733609
-0.888386
-0.878533
0.224570
0.129908
0.442581
-0.273353
-0.498189
-0.449076
0.016995
0.982187
0.164154
-0.846947
0.388484
0.602050
-0.798285
-0.725644
0.065919
0.085807
0.286153
-0.929148
0.377076
-0.443473
0.366251
0.113567
-0.521826
-0.565665
-0.702052
0.020853
0.221434
0.912147
-0.582609
0.781528
-0.396412
-0.924020
-0.099620
0.462199
0.272834
-0.732064
0.509180
0.440809
-0.138948
-0.928356
-0.308861
0.694247
0.001904
0.208963
0.236422
0.709529
-0.932157
-0.548463
0.359763
0.935062
0.808627
-0.636511
0.387397
-0.513136
0.642982
0.266400
-0.662356
0.620395
0.493683
0.299360
-0.943359
-0.748586
0.893566
-0.489722
-0.828136
-0.123365
0.768718
0.952350
0.239013
0.820726
-0.393944
0.260551
0.205536
-0.383812
0.953583
-0.138134
0.208771
-0.800044
-0.033246
0.721009
0.718771
0.893643
-0.355155
0.851586
-0.166525
-0.658898
0.674741
-0.308314
-0.759307
0.109194
0.515782
-0.845741
0.064478
0.028349
-0.897731
-0.005612
-0.062084
-0.447253
0.415198
-0.402877
-0.228375
-0.227054
-0.988299
-0.053693
0.917313
0.350079
-0.084070
-0.857008
0.161672
-0.960979
-0.010219
-0.019105
0.998955
-0.039556
0.425557
0.882651
-0.219200
-0.909951
-0.990233
0.436339
-0.142198
0.473023
0.650770
-0.890631
0.310435
-0.349673
-0.813787
-0.038246
-0.948870
0.543151
0.033926
-0.264710
-0.131746
0.437026
0.599206
0.871137
-0.944844
-0.738531
0.896661
0.065746
-0.142290
0.857687
-0.374304
0.984816
-0.301135
0.610739
0.935576
0.518903
0.404255
-0.253415
-0.183716
0.307183
-0.041909
-0.209849
-0.535596
-0.800154
0.931371
0.798008
0.283687
-0.936030
-0.423469
0.355156
0.863117
0.907683
-0.305965
-0.317048
0.550837
-0.641313
-0.895372
-0.724933
0.680869
0.644152
0.136048
-0.248506
0.885882
-0.464690
0.903731
0.631975
-0.693784
-0.996301
-0.825543
0.241794
0.645213
-0.238905
0.271366
-0.844115
-0.371161
0.803381
0.466121
-0.190789
-0.498071
-0.532770
-0.976751
-0.506526
0.139420
0.136255
-0.148995
0.438512
-0.437033
0.505898
0.245520
-0.303358
0.117914
-0.894223
-0.404768
0.401454
0.072794
-0.062790
-0.848131
-0.933098
0.416616
-0.475654
0.447143
-0.871043
-0.582994
-0.784164
-0.036306
0.912986
0.497533
0.321523
-0.545756
-0.796498
0.576913
0.058294
-0.294924
0.436764
0.052689
-0.993845
0.414530
-0.637969
0.895935
0.926281
0.603249
0.251649
0.835272
-0.779776
-0.478710
-0.533509
0.037577
0.922459
-0.619133
0.596168
-0.070748
0.801369
0.436224
0.962320
-0.152751
0.791450
0.533992
0.014701
0.190792
-0.305123
-0.670433
-0.437063
-0.919074
-0.091078
0.337559
-0.851774
-0.796075
-0.583387
0.392003
0.512839
-0.374776
0.294275
-0.499800
-0.651520
0.898781
-0.213160
-0.191870
0.388039
-0.385057
0.222456
-0.696105
0.738940
0.682837
0.577662
-0.953275
-0.591749
0.859132
-0.408240
-0.941499
0.233748
0.767262
-0.218391
-0.946052
-0.324103
-0.181606
0.741831
-0.654774
0.101786
-0.601361
0.438369
-0.817481
-0.504515
-0.540697
-0.244537
-0.089430
-0.492009
0.816246
-0.638034
0.247665
-0.828757
0.212299
-0.482229
0.583871
-0.185394
0.830388
0.373090
-0.429635
0.845553
-0.062140
-0.943377
0.191529
0.896932
-0.448944
0.978094
-0.038572
0.124349
-0.629219
-0.505693
-0.383594
0.135879
0.902588
0.270540
0.473847
-0.583230
0.413888
0.330814
0.278595
-0.522210
0.029186
-0.133022
0.968809
-0.515428
-0.724067
-0.633353
0.967843
0.679576
-0.778017
0.098463
0.738214
-0.470319
0.069728
-0.222066
-0.653618
-0.079341
-0.645252
0.239436
0.646094
-0.839876
0.918322
0.900659
0.329524
0.634912
0.956683
-0.848285
-0.453908
-0.702409
0.367298
0.968460
-0.381641
0.453152
-0.073838
-0.913585
-0.319506
-0.460755
-0.141485
-0.681626
-0.552148
-0.619590
-0.127743
0.750190
0.039750
0.919803
0.409542
0.798186
-0.835450
0.406044
-0.173666
0.608420
-0.598590
-0.717668
0.166915
-0.709476
-0.482584
0.863366
0.491421
-0.776585
0.001707
0.069937
-0.360200
0.243214
-0.134413
0.997695
-0.959746
-0.447449
0.423006
0.524056
0.043527
-0.599685
0.771187
-0.364222
-0.162094
-0.187334
-0.261740
0.782559
0.292325
-0.669714
-0.898818
0.997648
0.719546
-0.080575
-0.596834
0.302556
0.688668
-0.036214
-0.855958
-0.166577
0.091859
0.792501
0.633707
-0.019019
-0.391862
0.527021
-0.692333
0.326760
0.058828
-0.041339
-0.127766
0.973366
0.217252
0.422858
-0.347773
-0.747950
0.511787
0.664015
-0.662868
-0.079389
-0.031166
-0.410870
-0.547641
-0.611625
-0.097869
-0.748134
0.533303
-0.589759
-0.806026
0.586604
0.771492
-0.490932
-0.707986
-0.371514
0.388400
-0.280933
-0.243585
-0.571400
0.025099
0.654524
0.482743
0.621856
0.132412
0.940446
0.239641
0.005593
-0.078994
0.098244
-0.780960
0.442368
0.971734
0.682879
-0.738243
-0.108255
-0.434870
0.097597
-0.442502
-0.359905
-0.758515
0.169532
-0.031505
0.703621
0.628263
-0.035751
-0.604828
-0.850178
0.147186
0.617410
-0.415184
-0.180776
-0.200362
0.969336
-0.315257
0.854807
-0.386567
-0.561436
-0.541138
0.519778
0.685141
-0.576954
-0.484818
0.509582
-0.867800
0.954417
-0.682468
0.803445
0.275786
0.408023
0.814557
-0.896516
-0.084845
0.559105
-0.973254
0.962413
0.449934
0.594237
0.769646
-0.415097
0.025089
-0.341064
0.690572
-0.337357
-0.743724
0.250956
0.920425
-0.948390
-0.264825
-0.762759
-0.282413
0.261237
0.245122
0.393079
0.377348
-0.986593
-0.475681
-0.777335
-0.969761
-0.960215
0.118347
0.961496
-0.706448
-0.138058
-0.008820
0.281779
0.410091
0.670936
-0.410527
0.626852
-0.824505
-0.185044
0.253300
-0.824855
-0.510676
0.334577
0.478820
-0.012494
0.909590
-0.776033
0.033543
0.633127
0.772421
-0.457614
-0.288197
-0.180632
0.908622
0.020020
-0.682962
0.165944
0.736459
-0.646761
0.571013
-0.243500
-0.798354
-0.258497
-0.325905
0.287099
-0.671517
-0.078774
-0.778660
0.060488
0.258063
-0.558531
-0.212185
0.617618
0.830141
0.752700
-0.792168
0.307366
-0.219474
0.401642
0.692461
0.451265
0.773724
-0.849423
-0.794330
0.293338
-0.604358
-0.314938
0.208820
-0.494518
-0.076606
0.788675
-0.360720
0.850672
-0.745958
-0.149707
0.996203
0.965218
-0.016151
0.350317
0.033388
0.223034
-0.994413
0.035980
-0.313295
0.487200
0.289155
-0.138324
0.390078
0.115051
-0.139931
-0.095844
-0.579260
-0.734095
0.249692
0.317997
0.859530
0.691857
0.838355
0.750258
0.808361
-0.393452
0.373768
-0.988829
0.425065
0.525118
-0.450481
-0.738198
0.732450
0.014884
-0.309332
-0.390254
-0.400167
0.628437
-0.490515
-0.679632
0.551753
-0.893447
0.590608
-0.509975
-0.952188
0.608519
-0.821040
0.745506
-0.215323
-0.882834
0.890166
-0.070930
0.377033
0.340093
-0.385540
-0.568768
0.235907
0.065928
0.372858
-0.826870
-0.687810
-0.285269
-0.849531
0.587255
0.869209
-0.733224
0.063035
-0.464193
-0.122093
-0.096652
-0.074948
-0.118176
0.508812
-0.464765
-0.997261
-0.670689
0.635832
0.446466
0.925195
-0.709799
0.791213
-0.319712
0.226901
0.572815
0.702093
0.717931
-0.554135
0.879469
0.823192
-0.544390
0.747520
0.961877
0.264732
-0.670305
0.535591
0.831035
-0.375382
0.197261
-0.229116
-0.974765
0.521594
0.784454
0.961040
-0.917771
0.811773
0.649952
-0.691994
0.163938
-0.781433
0.134647
-0.171605
0.331358
-0.459143
0.891381
-0.597791
0.189895
-0.616686
0.016022
0.595150
0.276824
-0.884192
0.946074
0.662170
0.530925
0.330616
0.241738
-0.908823
-0.751069
0.824913
0.164764
0.491814
0.121897
-0.299840
0.928011
-0.709552
-0.091167
-0.717845
0.395868
-0.810404
-0.229421
0.020044
0.386806
-0.036600
0.656204
-0.193328
0.965367
0.617239
0.761469
-0.407684
-0.966738
0.989173
-0.960166
-0.183220
-0.862868
0.651003
0.596836
-0.153780
0.783809
-0.023779
0.030869
-0.814665
0.437748
0.737978
-0.373746
0.720261
-0.437845
0.720494
-0.858563
0.747332
-0.125530
0.052981
-0.868956
-0.433659
-0.161024
0.927830
-0.304368
0.177927
-0.419666
-0.339226
-0.236531
0.872379
0.889383
-0.466105
0.317082
0.184187
0.748884
0.059555
0.390045
0.662133
-0.526190
0.747248
0.257658
0.991557
0.097582
0.939274
0.592364
-0.145199
0.435488
-0.766595
0.464256
0.381870
-0.293312
-0.253921
0.214040
0.723505
0.453103
0.677284
0.102349
-0.346977
-0.786154
0.288519
-0.471066
-0.685953
0.139038
-0.213158
0.773682
0.308200
-0.578233
0.790381
0.747847
0.551421
0.014467
-0.599281
-0.362895
-0.834599
0.546955
-0.519047
0.427180
-0.194633
0.881520
-0.629437
0.689535
0.033812
0.423010
-0.380450
-0.537902
-0.775387
0.639344
-0.836029
-0.284182
0.268557
0.988854
0.389643
-0.013044
-0.314976
0.241606
-0.762838
0.478793
-0.992699
0.557159
-0.979180
-0.125364
-0.750040
0.893836
-0.325287
-0.885210
0.951004
0.801359
0.122717
-0.281883
0.255084
0.988513
-0.979323
-0.141745
-0.448657
-0.470864
0.040658
0.758072
-0.365690
0.729868
0.412662
-0.609544
0.014091
0.441096
-0.230480
-0.960835
0.957559
-0.456014
0.687530
-0.880808
-0.248113
-0.560643
-0.946237
0.843360
0.250701
0.136635
-0.541900
-0.997619
0.312084
-0.708719
-0.459121
0.069091
0.227394
0.169734
0.245266
0.891999
-0.590012
0.544708
0.805270
0.205094
-0.058873
0.497787
-0.157558
0.851614
0.473434
0.800432
0.860572
-0.699480
0.481711
0.204178
0.090806
0.129932
0.158528
-0.991340
0.603858
0.693661
-0.017907
-0.423799
-0.507392
0.861677
0.472148
-0.988412
0.315948