-0.998921
-0.671869
-0.155024
0.610378
0.693378
0.548713
-0.961343
0.462768
-0.220395
0.417259
0.257599
0.347452
0.803190
0.673922
-0.999882
0.355821
-0.539812
0.143815
0.730673
-0.616401
-0.649661
0.568297
-0.436064
0.221600
-0.276013
-0.090363
0.188320
-0.441252
0.097797
-0.911931
0.543952
0.897778
-0.242892
0.508159
-0.406513
0.475534
-0.795911
0.008852
0.482056
-0.525521
0.475364
0.968095
-0.006234
0.189276
0.389602
0.375403
0.658511
-0.041817
0.039613
-0.942110
0.200359
-0.375493
-0.282218
-0.208538
0.335161
-0.300183
0.102122
-0.881032
0.368152
0.513645
-0.870732
0.537253
-0.197798
-0.903786
0.125756
0.928987
0.091042
0.613402
0.155712
-0.076258
0.408333
-0.319237
0.211360
0.769026
-0.297295
0.169373
-0.421578
-0.402379
-0.655284
-0.503556
0.446599
0.796322
0.029626
-0.180577
-0.592782
-0.926280
0.427249
-0.358089
-0.037857
-0.274659
0.443229
0.526714
-0.318402
0.852499
-0.321153
0.010398
-0.003681
0.667111
-0.513383
-0.314341
0.376325
-0.597918
0.845200
-0.212948
-0.292650
-0.572068
0.146387
-0.011432
-0.110789
-0.047857
0.303830
0.241650
0.559713
0.002057
0.318854
-0.796878
-0.912074
-0.072633
-0.826089
0.723463
0.287552
-0.910281
-0.060199
0.984119
0.974650
-0.985475
-0.364912
-0.149992
0.397713
-0.177959
-0.127948
-0.822935
0.383779
-0.877634
-0.264571
-0.492066
0.620259
0.181572
-0.147647
-0.234832
0.034186
-0.495352
0.797290
-0.029934
-0.999146
0.130644
0.116211
0.969508
-0.098183
0.578512
0.696743
0.701280
-0.446288
-0.384019
-0.015991
0.642987
-0.128248
-0.856701
-0.110132
0.878398
-0.938363
0.419810
0.650168
-0.341709
-0.922151
-0.439655
0.595113
-0.174096
-0.483515
-0.834720
0.073795
-0.179329
-0.866894
0.015615
-0.426290
0.725240
0.549552
-0.494881
0.956874
-0.975019
0.292574
-0.342600
0.846521
-0.410428
-0.320484
0.174136
-0.910067
0.128375
0.183704
0.215069
-0.362028
-0.128868
0.935232
-0.504812
0.866488
-0.580876
-0.787387
0.021113
0.818602
-0.351560
-0.261317
0.224221
0.555410
-0.491749
0.325784
-0.786852
-0.111001
0.893599
0.367540
0.097434
0.281145
0.737280
0.929129
-0.625612
-0.562053
-0.919943
-0.828018
0.192644
0.354642
-0.903557
0.601817
-0.803012
-0.303633
0.866085
-0.015465
0.662768
-0.348704
0.101424
0.015349
0.307608
-0.250391
-0.026092
0.395598
0.239302
0.049373
0.945861
0.406841
-0.264532
-0.421810
0.723728
-0.977252
-0.906215
-0.881530
0.529127
0.037889
-0.441941
-0.240055
-0.299108
-0.714084
0.479243
0.613624
-0.023115
0.147450
0.316130
-0.763878
-0.573126
0.645643
-0.053190
0.298712
-0.750903
0.111657
0.580313
-0.577815
0.066764
0.553485
0.619288
-0.478868
-0.512598
-0.461225
-0.315584
0.113716
-0.268319
0.063765
0.142879
0.753353
-0.823195
-0.500668
0.224015
-0.553997
0.291802
-0.032241
-0.070929
0.185493
0.724796
-0.057984
-0.960240
0.557219
0.118394
-0.263690
-0.661063
0.761912
0.609286
0.184786
0.363206
-0.201673
-0.214439
-0.440217
0.957851
-0.620053
0.150761
0.440223
0.740307
0.120083
-0.187017
0.419466
0.896623
-0.423663
-0.914350
-0.114571
0.274408
-0.085624
0.618096
0.197840
0.227952
-0.582945
0.239378
-0.251261
-0.542444
0.738137
-0.914701
-0.438976
-0.245350
-0.479414
0.413955
0.444554
0.184790
-0.189787
0.437963
0.610524
-0.438443
0.293391
0.759543
-0.498972
-0.417204
0.489982
0.542478
0.118355
0.637436
0.064274
0.037340
0.579250
0.942794
0.494340
-0.060689
-0.812546
-0.914635
-0.747042
-0.908831
0.247871
0.425069
-0.465629
-0.703288
-0.149737
0.884759
0.159024
0.253880
-0.564502
0.035649
-0.486378
0.254668
0.868669
0.637851
0.834739
-0.560748
0.191732
-0.164246
-0.324633
0.124222
0.027166
0.948444
0.249966
-0.644229
0.943577
-0.802358
0.268378
0.420557
-0.004905
-0.604509
0.033857
0.973274
-0.617214
-0.663907
-0.512001
0.321590
0.712984
0.849999
0.930108
-0.751751
-0.174174
0.196372
0.322171
-0.213377
-0.852370
0.451911
-0.690093
-0.174528
0.600226
0.649102
0.605986
0.764469
0.156150
-0.142804
0.911253
0.627046
0.470217
0.182328
-0.296589
-0.495076
-0.497917
0.456490
0.021207
-0.659029
0.770413
0.513614
0.449305
0.632316
0.290073
-0.660373
0.331771
-0.530873
-0.297926
0.890944
-0.880114
0.619425
-0.024377
-0.486468
0.218955
-0.070223
0.236817
-0.423538
0.436696
0.182436
0.838581
-0.037260
-0.219571
0.506332
-0.701058
0.263377
-0.195943
-0.619118
-0.874647
0.891120
0.729251
-0.854951
-0.608182
0.347483
0.232672
0.940107
-0.027620
0.517342
0.285491
0.841222
0.665125
-0.745281
-0.024376
0.699312
-0.024008
0.387354
0.236159
-0.516132
-0.555024
-0.908117
-0.602174
0.680279
-0.716950
-0.208105
0.091025
-0.056443
0.808881
0.519919
-0.563157
0.719393
0.232622
0.979634
-0.420738
-0.659505
0.501775
-0.058133
-0.460241
-0.454582
-0.675746
0.575159
-0.021887
0.165799
0.731203
-0.925098
-0.540999
0.237408
-0.563598
-0.130394
0.262482
-0.957543
0.638223
0.044863
-0.550787
-0.213380
0.899764
0.130485
-0.777653
0.797238
0.693853
0.717839
-0.433868
0.503302
-0.198347
0.692408
-0.613053
-0.590658
-0.215982
-0.683205
-0.071212
-0.061452
-0.846203
-0.646270
-0.868731
0.168018
0.300131
0.257765
-0.363690
0.925866
0.395966
0.568545
-0.124230
-0.416312
-0.320984
0.078244
-0.067184
-0.232517
0.648934
-0.154979
0.671409
0.550759
-0.634102
-0.315666
0.549601
-0.935887
-0.751534
-0.788715
-0.912827
-0.574926
0.518238
-0.242264
0.400555
-0.410715
0.445025
-0.603483
0.698409
0.240840
-0.009904
-0.240968
-0.830629
-0.913382
-0.496756
-0.797934
0.016403
0.360756
0.255828
-0.046030
-0.676545
0.172835
0.536893
-0.064142
-0.832190
0.833107
0.743112
-0.165807
0.681591
-0.903735
0.452195
0.591534
0.929478
0.465263
0.278055
0.760707
0.930668
0.157312
-0.350164
-0.063105
-0.792520
0.555591
0.317503
-0.250042
0.551062
0.424754
-0.882042
-0.314279
0.071023
-0.774689
-0.271702
0.845029
0.405169
-0.228670
-0.588160
-0.699179
-0.616108
-0.409591
-0.591434
-0.733008
-0.317717
-0.972644
-0.589228
-0.379655
0.472181
-0.189564
-0.822032
0.001453
0.544349
0.630648
-0.010888
-0.288662
0.136814
0.190892
0.781879
0.570888
-0.300626
-0.421912
-0.347535
-0.778166
-0.447821
0.041316
-0.006803
0.780101
-0.390426
-0.374532
0.370363
-0.550169
0.459601
0.667962
-0.740439
-0.147903
0.313678
0.871690
0.896425
0.805204
0.660883
0.875636
0.528118
-0.897389
0.622286
0.189041
-0.373040
-0.946669
-0.347519
-0.640131
0.983417
-0.849730
0.709035
0.774012
0.200829
-0.264695
0.455695
0.670370
0.738827
-0.769657
-0.307670
-0.856571
0.719481
0.001845
-0.355558
-0.592238
-0.246787
0.223643
0.646136
0.119119
-0.537510
-0.266292
0.584850
0.572674
-0.941583
0.879868
0.844177
-0.334088
-0.757196
0.643570
0.591216
-0.302647
0.833058
0.290341
-0.181455
0.989886
-0.274785
0.167172
-0.055771
0.904230
0.098801
0.657479
0.838640
0.337960
-0.307535
-0.922690
-0.937212
0.752118
-0.238058
0.780006
-0.707079
-0.486837
0.708755
-0.133018
0.082805
-0.638795
0.152626
0.734838
0.622847
-0.812920
-0.346107
-0.215828
-0.990728
0.516759
-0.744219
-0.417588
-0.454889
0.092736
-0.588238
0.946594
-0.302205
-0.839378
-0.755868
-0.718383
-0.823139
0.772480
0.660240
-0.857157
-0.292307
0.789752
-0.554032
0.120688
-0.476821
-0.975270
-0.881997
0.833719
0.584698
-0.480497
0.352568
-0.212476
0.319076
-0.319981
-0.550235
-0.463732
0.236726
0.735735
-0.520762
0.913214
0.230787
-0.227431
-0.374757
-0.502365
-0.971127
0.690671
-0.262713
0.676269
-0.054068
0.400725
-0.585568
-0.025447
-0.226199
-0.157908
-0.302156
0.679874
-0.974127
-0.215779
0.053265
0.197102
0.868171
0.052193
0.667816
-0.388094
0.961962
0.391094
-0.462872
0.087158
0.276228
0.858853
0.099228
0.460306
-0.823380
0.311546
0.138007
0.492518
0.387743
0.189868
0.124439
0.711484
0.789256
-0.416249
-0.271170
-0.948693
0.172611
-0.171849
-0.455562
-0.407317
-0.548196
0.032147
0.082943
0.150727
0.599091
-0.230309
-0.237030
-0.547793
0.757825
0.614072
0.763385
0.783699
0.933763
-0.300616
0.668339
0.859116
0.174506
0.258027
-0.594298
0.177701
0.415928
-0.044700
0.008936
0.823945
-0.333342
-0.863774
-0.539452
0.107476
0.150121
0.395306
0.715199
-0.680967
0.119893
-0.208625
-0.375245
-0.162448
0.791255
-0.924104
-0.235443
0.844702
-0.384366
-0.356535
-0.992549
0.248167
-0.305359
-0.277488
0.659533
0.155408
0.511596
0.213839
0.656885
0.768675
-0.374120
-0.983457
-0.233844
0.057001
0.773016
0.707255
0.016767
0.395733
-0.774510
-0.679632
-0.723937
-0.392296
0.377852
-0.285576
-0.669303
0.295756
-0.275597
0.393812
-0.908402
-0.194478
-0.268782
0.067929
-0.583423
-0.101583
0.143820
-0.840683
0.381253
-0.852832
-0.940894
0.083606
0.745968
0.642424
-0.034405
0.411928
-0.651399
-0.767638
0.623785
-0.780125
0.576201
-0.408208
0.010634
-0.515377
-0.724095
0.330364
0.539545
-0.397408
-0.008815
0.186368
-0.230869
-0.329670
-0.810866
0.817057
-0.981967
0.203986
-0.004731
-0.964733
0.497141
0.953942
-0.581303
-0.213817
-0.201323
-0.839671
-0.319316
0.660758
-0.330938
0.975353
-0.321319
-0.002067
0.048893
0.870549
0.168889
-0.291710
0.195300
0.068105
-0.237471
-0.599594
-0.167405
0.803825
-0.693405
-0.478676
0.461764
-0.104890
-0.628475
0.473049
0.697767
-0.832521
0.322474
0.719154
-0.936920
-0.749222
-0.835302
-0.939734
-0.651269
0.195210
0.350678
0.176925
0.773170
0.028577
-0.434676
-0.868254
-0.786376
-0.772343
-0.760442
0.476034
-0.594609
-0.225773
-0.034088
0.130547
0.968238
0.863316
-0.274010
-0.039470
-0.787406
0.305721
-0.820694
0.019120
-0.906370
-0.718535
-0.933931
0.168437
-0.218782
0.641853
0.231363
-0.249706
-0.417005
-0.511550
-0.373913
-0.762362
0.138117
-0.998208
-0.584414
0.871425
0.823694
-0.495677
0.904445
-0.348451
-0.683997
0.454862
-0.704117
-0.325949
0.613064
0.691464
0.775980
0.040732
0.238531
0.360611
0.681919
-0.537073
-0.079592
-0.795259
-0.229469
-0.100249
0.891197
-0.653125
-0.036092
0.266410
-0.122787
-0.021352
-0.240805
-0.553892
-0.598921
0.188408
-0.017664
-0.289542
-0.615412
-0.315668
-0.834382
0.492989
-0.429937
0.597913
0.082191
0.507842
0.038266
-0.432981
0.566842
-0.961628
0.075244
0.938238
0.189657
0.818545
-0.662181
-0.272954
-0.594333
-0.721674
0.707339
0.714134
0.513173
-0.843430
0.438997
0.434479
0.049230
-0.722953
-0.140577
-0.841320
-0.680570
0.067374
0.652571
-0.041908
0.010931
-0.551584
0.755313
-0.195434
0.016533
0.489471
-0.723554
-0.735157
-0.196616
-0.770220
-0.827395
0.429992
-0.230401
-0.228745
0.812004
0.937092
-0.980215
-0.623644
-0.329337
0.754765
0.832979
0.218118
-0.626092
-0.842624
-0.432920
0.358699
0.396485
-0.192049
-0.907139
-0.852922
-0.689392
0.272357
-0.930980
0.902029
-0.188590
0.226174
0.935451
-0.696333
-0.889899
0.655770
-0.946185
0.658278
0.620959
-0.640137
-0.210198
0.573227
0.945728
0.855403
0.363865
-0.908428
-0.348444
-0.000668
-0.161866
-0.674782
-0.401486
0.836347
0.056000
0.358222
-0.979795
-0.835472
-0.811811
-0.892785
0.889421
-0.606206
0.650029
-0.966602
0.601641
0.477170
0.483226
0.953353
0.122985
0.110089
-0.218899
-0.287132
-0.715153
-0.897319
-0.921443
-0.959010
-0.432813
0.278017
0.629912
-0.691723
0.410419
0.668493
-0.332716
-0.260908
-0.820461
0.801698
0.028559
0.716948
-0.147197
-0.821449
0.303992
-0.446203
-0.035305
0.639745
-0.527457
-0.972551
-0.797441
-0.858159
-0.128870
0.490353
0.437900
-0.218166
0.427800
-0.449999
0.713500
-0.546320
0.141256
0.407686
-0.632539
-0.873195
-0.069048
0.535450
0.662053
-0.368769
-0.074270
0.032478
-0.417598
0.890731
-0.684034
0.171432
0.260303
-0.129639
-0.593560
-0.551078
0.664767
-0.584098
-0.289985
0.740445
0.334538
0.816064
-0.061748
0.967525
-0.344923
0.617438
0.800738
0.506939
0.037488
0.645660
0.504053
0.983979
-0.505145
-0.712743
0.680820
-0.597023
0.721214
0.366157
0.031841
-0.228664
0.747301
-0.160128
-0.864957
0.900843
0.042918
-0.492625
-0.738241
-0.896907
0.189003
0.207584
0.001032
-0.180966
-0.514473
0.586697
-0.787538
-0.498320
0.496567
0.865081
0.327729
0.996003
0.529584
0.127051
0.826905
0.705971
0.561063
-0.893845
0.510042
-0.832913
-0.385561
0.944978
-0.560021
0.372848
0.715955
0.331790
-0.298674
0.414342
0.265393
0.903273
-0.911888
0.419852
-0.694425
-0.511072
0.073677
-0.472675
0.909062
0.999926
0.102332
0.281190
-0.311162
0.977201
-0.577275
0.784181
0.896693
-0.690892
-0.446551
0.870610
0.163622
-0.794880
-0.567718
0.359826
0.470452
-0.654017
-0.793420
-0.587319
-0.510885
-0.453864
0.907697
-0.580875
-0.513483
-0.497165
0.235458
-0.232048
0.547295
0.124068
-0.570534
0.607498
-0.461807
0.792118
0.381000
0.619004
-0.555808
-0.944692
-0.505785
-0.392541
0.308086
-0.311912
-0.668420
0.687988
0.821824
0.891910
-0.837823
-0.443299
0.772147
0.077723
-0.996563
-0.516564
0.366977
-0.782426
0.755871
-0.643219
0.178389
0.674118
0.090398
0.394411
0.971414
0.519731
0.948507
0.699153
0.070406
0.958075
0.811102
-0.321123
0.193992
-0.711082
0.391583
0.704834
0.207779
0.215984
-0.282090
0.420235
-0.968867
0.096135
-0.705843
0.865210
-0.915337
-0.209301
0.222048
0.883657
0.875848
-0.124914
0.858761
-0.289179
-0.199091
-0.737691
0.121099
0.430724
-0.776374
0.732588
0.626752
-0.944470
-0.531237
-0.914737
0.455887
-0.335084
-0.849997
-0.683653
0.289987
-0.004650
0.995124
-0.860735
0.184184
-0.547104
0.768097
0.189612
-0.715483
-0.267793
0.160208
-0.674310
-0.654011
0.297986
0.525987
0.004698
0.621320
0.726601
-0.367618
-0.967310
-0.415272
0.610034
0.007945
-0.042716
0.124386
-0.875717
0.999737
0.673770
0.022353
-0.136425
0.794480
0.745066
0.105257
-0.916877
0.418301
0.540994
0.012724
-0.317068
-0.693530
0.792880
-0.055944
-0.121693
-0.620430
0.545272
0.999938
-0.347411
-0.228442
-0.887447
-0.869302
0.408804
-0.236426
-0.616172
-0.812786
-0.519308
-0.017565
-0.509396
-0.218634
0.262938
0.601200
-0.090975
0.084661
-0.064600
0.287398
0.335496
0.953814
0.754724
-0.745169
0.565138
0.799055
-0.839897
0.208644
-0.717702
-0.757462
0.510732
-0.427368
0.726262
-0.264007
0.753114
0.349325
0.898319
0.827899
0.458507
0.172170
-0.711413
0.769491
-0.961600
-0.747080
0.389221
-0.089078
0.381000
0.016339
-0.033400
-0.631231
0.929096
0.854470
0.549497
0.420611
-0.586376
-0.369258
-0.218173
0.768630
0.623698
0.613612
-0.498005
-0.103663
-0.963393
-0.778019
0.983138
0.076719
0.586453
-0.324325
-0.697267
0.012849
-0.185837
0.441491
-0.983469
0.298263
-0.673262
-0.805931
0.611286
-0.688113
-0.842822
-0.136441
-0.846229
0.551545
-0.460934
-0.230113
-0.662952
-0.509674
-0.258448
-0.574172
-0.851569
-0.482147
0.259725
-0.493724
0.439429
-0.326879
-0.681550
-0.888439
0.976840
0.801544
-0.506187
-0.349684
0.177326
-0.395727
0.013531
0.754899
0.131332
0.237165
0.234204
-0.057528
0.775522
-0.678579
-0.468918
-0.447060
0.709887
-0.996504
-0.670732
-0.644059
-0.165528
-0.281387
-0.319971
0.426955
-0.040755
-0.090330
-0.947409
-0.228692
-0.493145
0.598691
0.530628
0.041242
0.460967
-0.883397
-0.116307
0.107374
0.012485
-0.363048
0.723760
-0.474677
-0.531128
0.819051
-0.761958
-0.213144
-0.462572
-0.474276
-0.250275
-0.126778
-0.207137
-0.017852
0.032824
-0.956065
0.385790
0.079679
-0.995160
-0.970094
0.845824
-0.030309
0.843568
0.940851
0.123235
0.909047
-0.746913
0.002561
0.250527
0.993269
0.982636
-0.102347
0.572906
-0.994973
-0.853866
0.218539
-0.618935
0.638724
0.303487
-0.568427
-0.711006
-0.715205
0.805700
-0.200632
-0.749964
-0.114325
0.324768
-0.426761
0.148277
0.714414
0.044397
-0.312097
-0.159060
0.207551
-0.370302
-0.509243
-0.451962
0.684330
0.153402
-0.857381
0.626820
-0.326867
-0.988133
-0.767633
0.033810
-0.502758
0.917969
-0.386370
0.990540
0.392356
-0.649566
0.944504
-0.447849
-0.818549
0.379612
0.157632
0.939371
-0.317447
0.669412
0.473107
-0.113874
-0.568303
-0.104210
-0.827079
0.156887
-0.703791
0.557747
0.483258
0.641845
0.211330
-0.500684
0.345946
-0.235783
-0.104871
-0.883608
0.552879
0.587057
-0.751761
0.201877
0.789254
0.468019
0.650780
-0.386737
-0.731681
-0.723346
-0.853871
0.503841
0.650533
0.844632
0.961616
0.747534
-0.106452
-0.282103
0.632506
-0.719650
0.356023
0.930270
-0.910868
-0.674184
0.947488
0.662126
0.044189
-0.939447
-0.625377
0.084368
-0.172939
-0.142657
0.470206
0.854964
-0.642268
-0.620490
-0.860372
0.498155
0.410036
-0.366451
-0.239782
0.458123
-0.266780
-0.411537
-0.531177
0.794766
0.882953
-0.184112
-0.442599
0.127294
-0.992964
0.914083
-0.193076
-0.120566
0.548635
0.826399
-0.473271
-0.785608
-0.692931
0.197188
0.066602
0.144528
-0.388332
0.405425
-0.147412
-0.037522
-0.540547
0.901524
0.816087
-0.468553
-0.210916
0.965023
0.009154
0.042079
0.896403
-0.251247
-0.163185
0.560575
0.789830
0.650092
-0.763264
-0.960657
-0.971975
-0.010901
0.197265
-0.134368
0.700052
0.925095
-0.965140
0.378677
0.512785
-0.199679
0.276035
-0.383193
-0.157431
0.955542
-0.140557
0.352156
0.652750
-0.070632
-0.467410
0.748038
-0.373656
0.258341
-0.691611
-0.771994
-0.039880
-0.559357
-0.316162
-0.640308
-0.659888
-0.257338
0.647193
-0.038889
-0.432755
-0.963112
-0.531127
-0.616819
-0.054004
0.740851
-0.115066
-0.205995
-0.849424
-0.385593
-0.200923
-0.145752
0.900859
-0.229023
0.153811
-0.281366
-0.249669
0.879713
-0.746393
0.505639
-0.091125
-0.747282
-0.747441
-0.518207
-0.365612
-0.967120
-0.290662
0.834494
0.831964
-0.558636
-0.017616
-0.211052
0.411252
-0.879576
-0.166162
-0.593695
0.954938
0.251775
-0.797295
-0.256822
-0.724098
0.559523
0.047113
0.042890
-0.351511
0.072404
0.763852
-0.761403
0.945312
-0.409467
0.734559
0.054323
-0.054669
0.060583
0.586275
-0.552298
-0.518019
-0.991781
0.740309
0.607941
-0.525394
-0.035308
-0.934477
0.233082
0.020566
0.417064
0.249337
-0.158975
-0.720171
0.453296
0.443508
0.414666
0.099939
0.171273
0.388544
0.794895
-0.479495
0.452734
0.450588
-0.971567
-0.500812
0.716547
0.055371
-0.496601
0.441455
0.509181
0.351215
0.265737
-0.850773
-0.998632
0.074107
-0.329974
-0.191074
0.023537
0.779541
-0.475367
-0.026219
0.975998
-0.974171
-0.188179
0.539984
-0.434150
0.826685
0.856380
0.948162
0.144810
0.743397
-0.735246
-0.592024
-0.451988
0.293899
0.610036
0.344990
0.077827
0.973248
0.055017
-0.938521
-0.628000
0.426013
0.726323
-0.200805
-0.173824
-0.341965
0.248812
0.237729
0.888652
0.080816
0.189709
0.749312
-0.503309
-0.692828
0.417629
-0.816501
0.939197
0.384034
0.690834
0.137645
0.770379
-0.126450
0.261710
-0.558260
0.198120
0.355917
0.714142
0.648633
0.837354
-0.263680
0.852810
-0.223986
0.050522
0.357272
-0.114151
-0.960718
0.160753
0.831438
-0.006451
0.003897
0.152889
-0.903595
-0.251901
-0.129178
-0.058497
0.806234
0.696948
0.813871
-0.303091
0.291915
-0.009286
0.168179
-0.116573
-0.901731
0.888810
0.413744
0.122698
-0.532347
-0.739910
0.239531
-0.416640
0.350544
0.094827
-0.919078
0.623265
-0.734077
-0.719301
0.696916
-0.859800
0.852461
0.120976
0.433675
0.207165
-0.425830
-0.970544
-0.339431
-0.104754
-0.647732
-0.345690
-0.028187
-0.993835
-0.919690
0.526751
0.982461
0.778513
-0.594854
0.079363
-0.464998
-0.640773
0.428408
-0.915295
-0.696429
0.768515
-0.831746
-0.172121
-0.702644
-0.088883
-0.436075
-0.943967
0.004613
0.097367
0.276995
0.941070
-0.589035
-0.084746
-0.765940
-0.838313
0.264715
0.791896
0.603335
-0.093670
-0.189641
0.328964
-0.824040
-0.347511
-0.913470
0.506587
0.295785
-0.437028
0.135298
-0.911749
-0.785596
0.797612
-0.570087
-0.761897
0.210938
0.362304
-0.031508
0.125383
0.724533
0.286308
0.410800
-0.597235
0.059031
-0.923706
0.222267
-0.041586
-0.618616
0.646011
0.843422
0.932226
0.425276
-0.271632
-0.627527
-0.486963
-0.135281
-0.926381
0.642829
0.120843
-0.422704
0.378730
-0.614927
-0.307989
-0.648080
-0.365999
0.316126
0.142172
-0.520499
-0.231246
0.167192
0.599912
-0.412013
0.400461
-0.208706
-0.245734
0.675057
0.676881
0.965518
0.839690
0.657708
-0.139534
-0.804682
-0.308359
0.798388
0.771783
0.450068
0.441711
-0.696623
0.522531
0.229739
0.873706
0.686242
-0.908224
-0.585576
-0.813115
-0.697580
-0.626431
0.618209
0.764498
0.300352
0.603883
0.602176
-0.417880
0.312610
-0.807141
0.656701
-0.742516
-0.801667
-0.479848
0.932341
-0.141545
0.881308
-0.300086
-0.807746
0.412847
-0.292548
0.616956
0.467954
-0.100571
-0.859368
-0.660840
0.610437
0.729212
-0.624746
0.266035
0.583972
-0.046276
0.982139
-0.319584
0.118729
-0.100172
-0.409655
-0.621440
-0.002682
0.275743
-0.720820
0.819030
0.786764
0.851437
-0.164470
0.174885
-0.061155
-0.894564
-0.424021
-0.827849
-0.873441
0.983745
0.704968
0.582497
-0.106310
-0.627405
0.950393
-0.696116
0.759878
-0.715366
0.970473
0.633735
-0.112242
-0.503410
-0.881249
0.371532
0.814748
0.653302
0.471180
-0.840814
-0.828095
0.324247
-0.208376
0.265911
0.088052
0.181755
-0.366648
-0.947517
0.024455
-0.549024
0.673870
-0.965082
-0.187510
-0.230451
0.713372
-0.016335
0.418745
0.069880
-0.803196
0.128818
0.585122
0.004875
0.687046
0.540882
0.503199
0.025992
-0.054243
-0.316193
0.967628
-0.378194
0.572557
-0.227413
-0.076881
-0.168328
0.982212
-0.296053
0.009055
0.522824
-0.014223
0.597619
0.695593
0.782826
0.651575
-0.107539
0.916161
0.395323
0.219830
0.415487
0.799577
-0.358307
-0.772806
0.014158
-0.192961
0.575282
0.210189
0.101396
-0.443984
-0.698637
-0.467698
-0.997655
0.169085
0.357704
0.060381
-0.634773
0.691769
-0.990206
0.730893
-0.046416
0.068378
0.138142
0.943801
0.345690
0.523051
-0.306685
0.871474
0.162068
0.295328
0.046994
-0.742841
-0.861019
0.747148
0.336241
-0.291581
0.714595
0.365055
-0.634221
0.714419
-0.371238
0.642284
0.022095
-0.135586
-0.020466
0.660731
0.817138
-0.974690
-0.101471
-0.382211
-0.107145
0.205099
0.762726
0.594258
-0.756124
0.660305
0.146704
0.999173
0.852716
0.979800
-0.223499
-0.936150
-0.135370
-0.869471
0.718669
-0.068734
-0.067331
-0.283094
-0.808626
0.074746
-0.240035
0.619941
-0.428383
-0.749457
-0.995564
0.198806
-0.652937
0.566205
-0.178428
0.280164
0.242281
0.048324
-0.441935
-0.374080
-0.763709
-0.615559
0.848697
0.416393
0.348410
-0.121293
-0.732856
0.696153
0.567740
0.836192
-0.286453
0.198371
-0.793063
-0.693840
-0.117409
-0.562257
-0.161016
0.277593
0.661288
0.621741
-0.194330
-0.717750
-0.184524
-0.902575
-0.392661
0.893137
0.512682
-0.785358
-0.842088
0.020017
0.034132
-0.006612
-0.172181
0.604694
-0.238603
0.349989
0.848591
-0.433759
0.832899
0.456886
-0.020667
-0.818412
-0.616288
-0.246279
0.981721
-0.360097
-0.168128
-0.294222
-0.983568
0.620452
-0.192016
0.163442
-0.807371
0.853386
0.960178
0.647946
0.246389
-0.669549
0.675359
0.712120
0.937786
-0.787469
0.894435
0.161632
0.675271
0.142363
-0.762354
-0.421537
-0.910322
-0.711306
-0.368041
0.298149
0.338715
0.086238
-0.586373
0.884381
-0.746361
-0.011957
0.307054
0.137373
-0.338390
-0.619898
-0.694790
0.953303
-0.389559
-0.490605
0.844151
-0.963513
0.171691
-0.448552
0.411226
0.958750
0.525332
-0.647293
-0.921144
0.110547
0.087053
0.560423
0.294538
0.086148
0.769230
-0.210500
0.918145
0.864379
0.900504
-0.608153
-0.852730
0.069032
0.451106
-0.861915
-0.047496
-0.196637
0.668841
-0.784751
0.169318
0.188236
-0.536906
-0.345293
-0.420513
-0.663088
0.657217
0.862758
0.001680
-0.119775
0.360968
-0.679648
0.142472
0.966575
-0.255806
-0.951643
0.958662
-0.751622
0.902391
-0.973341
0.561642
-0.259449
0.940382
0.572955
0.042387
-0.030394
-0.038425
0.915246
0.672222
0.057316
0.687577
-0.394361
-0.110760
0.280818
0.233103
-0.703404
0.836673
-0.439529
0.282019
-0.855188
-0.303661
0.457220
0.078952
-0.339949
-0.329389
0.035806
0.910096
-0.349341
0.528654
-0.255673
0.279548
-0.803989
-0.736982
-0.354617
0.263204
-0.957876
-0.123373
-0.215333
0.537950
0.250864
-0.999025
-0.144593
0.040158
0.848557
-0.379471
0.656395
0.567718
-0.324624
0.888383
0.838145
-0.339425
-0.848812
-0.225718
0.797497
0.221801
-0.963957
-0.487236
0.899939
0.537449
-0.247652
-0.110132
0.713480
0.282879
-0.995254
0.175527
0.384056
0.091827
-0.613713
0.980043
0.505570
-0.698910
-0.146430
0.226882
0.415931
0.899849
-0.292591
-0.487949
-0.097496
-0.338936
0.164288
-0.867187
-0.380657
0.128474
0.593959
0.320801
0.569204
-0.312092
-0.207427
-0.502607
0.559114
-0.985947
0.796624
-0.197533
0.619906
-0.603945
-0.674209
-0.419882
0.890903
0.724164
-0.624666
0.225641
0.439715
0.469679
-0.154142
0.006054
0.615436
-0.857783
0.052561
-0.321061
0.056933
0.795159
0.033055
-0.963694
0.930723
0.703036
0.512992
-0.212596
-0.066845
0.679368
-0.989775
-0.288672
-0.921282
-0.647203
0.781185
-0.443022
0.648850
0.865151
-0.731996
-0.082735
-0.093604
0.615210
0.520594
0.985696
0.150733
0.180724
-0.351119
-0.239344
-0.243017
-0.877715
0.835010
0.968054
-0.095146
-0.112726
-0.473229
-0.657654
-0.331835
0.431989
-0.591654
-0.992342
-0.781567
0.842365
-0.482042
0.170405
-0.375123
0.702460
-0.183516
0.426793
0.235248
0.720618
0.635701
0.120749
0.200603
-0.078958
-0.264900
-0.540020
-0.842983
-0.253575
-0.707988
0.875274
-0.874569
0.342622
0.907079
0.457762
-0.400681
-0.774757
-0.673617
-0.440235
0.768715
0.783175
0.678016
0.632368
-0.048885
0.530080
-0.551276
0.691230
0.361622
-0.777279
-0.064435
0.166929
0.370570
0.291599
0.586378
-0.401779
-0.219777
-0.067023
-0.171145
-0.035532
0.819384
-0.980678
0.943108
-0.755631
-0.134118
-0.473543
-0.168081
-0.351721
-0.410417
-0.097474
0.390230
0.164738
-0.993882
-0.324490
-0.321015
0.166191
0.147804
-0.972356
0.316936
0.081830
0.781027
-0.039226
0.704590
-0.561067
0.579110
-0.914777
0.318778
-0.678740
-0.005747
0.709194
-0.699584
0.831506
-0.560532
0.190201
-0.485001
-0.534900
0.371222
0.395333
0.836171
-0.100783
-0.948361
0.448758
0.847460
-0.638835
-0.916157
-0.858553
0.837782
-0.634534
-0.759865
-0.684806
0.636857
-0.817825
0.491262
0.640110
0.034756
0.378810
0.424966
0.158846
-0.289192
-0.741348
0.213096
0.098474
-0.077856
-0.079546
-0.739075
0.753497
-0.697224
0.391542
-0.622455
-0.915176
-0.779490
0.178208
-0.321474
0.930055
0.334101
0.049764
-0.570679
0.351370
-0.816814
0.750881
-0.786344
0.805784
0.370247
0.897400
-0.600742
-0.036379
-0.066581
-0.916538
-0.198232
-0.590587
-0.273606
-0.361098
-0.851812
0.637603
-0.699537
0.288873
0.022425
0.689833
0.674079
0.300165
0.739006
0.318417
-0.853714
-0.251504
0.249421
0.832483
0.928105
-0.701119
0.301659
-0.255095
0.279069
0.615762
0.803336
-0.676856
0.052994
-0.925364
0.540446
-0.921494
0.954492
-0.764813
0.362511
-0.025785
0.325052
-0.891663
-0.315776
0.307327
-0.820777
0.939878
-0.847987
-0.008554
0.208518
-0.510785
0.109895
-0.626926
0.696271
0.659497
-0.019318
0.656594
-0.687143
-0.408557
0.716937
-0.614235
0.828674
-0.236046
-0.642582
-0.446201
0.676770
0.954063
-0.866546
0.571362
0.117794
-0.259539
0.599128
0.248255
-0.222205
0.651152
-0.734945
-0.596791
-0.606215
-0.159277
-0.961173
-0.195675
0.390059
0.489052
0.691161
0.473184
-0.186315
0.466619
-0.014607
-0.552114
-0.440035
0.097876
0.664725
0.238958
0.406642
0.088885
-0.773436
0.887747
0.111091
0.247073
-0.007594
-0.432851
-0.223829
-0.819290
0.475854
-0.669070
-0.383367
-0.009539
0.446477
-0.278682
0.216498
-0.344973
-0.779200
0.627017
0.963010
-0.513597
-0.951614
0.838014
-0.381456
0.538907
0.545404
-0.518980
0.871004
0.204900
0.787015
0.699769
-0.802027
-0.030036
0.608759
0.807227
-0.900889
-0.210769
0.195149
-0.250718
-0.887553
0.993338
-0.068956
-0.343881
-0.935745
0.983718
-0.532373
0.406631
0.645305
0.057374
0.514491
-0.315608
0.586179
0.973936
-0.297521
-0.799710
-0.839820
0.360851
0.126316
-0.145790
-0.426157
-0.612787
-0.613235
-0.090319
-0.029276
-0.582059
-0.923100
0.062548
-0.966335
-0.398956
-0.201516
0.186552
0.095321
0.234682
0.688264
-0.067901
-0.077588
0.982993
0.478324
0.810345
-0.959272
-0.705489
-0.061899
0.839764
-0.673202
-0.535650
-0.262217
-0.534368
0.712082
-0.294939
-0.912252
0.871857
0.348494
-0.065719
-0.812799
-0.450702
-0.846577
0.364343
-0.803085
-0.837593
-0.523869
0.593850
0.572810
-0.222326
0.030286
0.961542
-0.747532
-0.006101
-0.949884
-0.060672
-0.089236
0.942482
0.147856
0.394674
0.074093
0.064114
0.734259
-0.646084
-0.336216
0.073842
0.517990
-0.291820
-0.950049
-0.651262
-0.230838
-0.376419
0.962936
-0.944982
0.808294
-0.035403
0.277270
-0.134226
-0.328160
-0.595744
0.541601
0.280129
-0.955805
0.601577
0.487446
-0.105480
0.859851
0.427264
-0.715551
0.376249
-0.376745
0.418580
0.270127
0.649065
0.461906
0.069417
-0.529995
0.768066
-0.719440
0.066624
-0.807057
-0.927292
-0.902050
0.558367
0.099329
-0.011856
-0.385499
0.860661
0.055962
-0.534089
-0.495724
-0.880471
0.734051
0.439441
0.268150
-0.787211
0.183683
0.309069
0.997288
0.772945
0.512802
0.229234
-0.952630
-0.474540
-0.696581
0.207329
0.036357
-0.034293
0.969373
0.417860
-0.773657
0.684561
0.433874
0.719285
-0.975256
0.926454
0.299220
0.338556
-0.598486
0.908868
-0.611145
0.187985
-0.188868
-0.331697
0.420443
0.474225
0.633230
0.044677
-0.350520
0.250892
0.211839
0.657724
0.850316
-0.109899
0.698841
0.676316
-0.858996
0.900399
-0.034153
-0.349172
-0.036760
-0.870924
-0.080038
-0.191776
-0.017737
0.627473
-0.065767
0.010679
-0.889618
0.055748
0.514991
0.065358
-0.350461
0.311875
0.572867
-0.365287
-0.610575
-0.154157
0.196506
0.125505
-0.385047
-0.343762
0.576564
-0.745148
0.536708
-0.427059
0.619290
0.892776
0.661705
0.007788
-0.002041
0.370454
0.805702
0.640585
-0.720294
-0.838099
0.756062
-0.006100
0.576805
-0.483781
-0.182751
0.652414
-0.768342
0.489139
-0.995289
0.072135
-0.213486
-0.896518
-0.670822
-0.326488
0.892830
-0.458316
0.539528
0.344858
0.241281
0.424370
0.973219
0.779474
0.874980
0.786481
0.204677
-0.048712
0.170405
-0.175373
-0.437237
0.287252
-0.891383
0.301036
0.929272
0.809094
0.872545
0.637472
-0.080363
0.922571
0.288720
0.995726
-0.100839
-0.883991
0.874387
-0.212263
-0.605884
-0.949571
0.644422
-0.644283
0.168848
-0.523684
-0.480746
0.281434
-0.822096
0.767119
0.417719
0.402320
-0.441215
0.660432
-0.770449
0.264090
0.790107
-0.238390
-0.192570
0.049107
-0.193806
0.642823
-0.540994
-0.161830
-0.221410
0.893975
0.230646
0.266452
0.735549
-0.224325
0.493080
0.039664
0.191769
-0.319539
0.458728
0.130130
-0.385242
-0.266866
0.137656
-0.252860
0.589037
0.315540
-0.043051
-0.613050
0.882970
-0.034107
0.625577
0.269277
-0.886860
-0.003400
0.794383
-0.249851
-0.047631
0.335267
0.710544
0.006365
0.130010
-0.615396
0.216055
-0.304593
0.273128
0.025242
-0.324671
0.180160
-0.345432
-0.895954
-0.732808
0.313471
-0.558759
-0.826191
0.691303
0.255244
-0.297206
0.024733
0.605598
0.761336
-0.047419
0.200354
0.237447
0.272008
0.821097
-0.961886
0.087012
0.002245
0.025448
0.023558
0.205078
-0.848551
0.360909
-0.936328
-0.659034
0.547696
-0.373700
0.817948
0.109490
0.584367
0.915803
-0.384006
-0.264283
-0.235255
0.937939
0.200440
0.872683
0.883755
-0.997921
-0.632218
-0.883441
0.123526
-0.161322
0.181850
-0.660115
-0.365071
-0.209043
-0.157670
-0.618067
0.151117
-0.771008
0.153587
0.666737
0.983936
-0.971727
-0.036691
-0.869492
0.272621
-0.952460
-0.205784
-0.947452
0.710394
0.550744
0.144968
-0.993255
-0.688832
-0.699707
-0.094604
0.146493
0.732942
-0.063162
-0.520297
-0.175533
-0.620247
0.042441
-0.607076
-0.789564
0.658611
0.912189
0.217210
0.326443
0.091201
0.234444
-0.448723
0.846523
-0.198657
-0.248795
-0.389037
-0.898716
0.372764
-0.639454
0.301116
0.321642
-0.335115
0.328162
0.362559
0.426940
-0.989621
-0.827807
0.239805
-0.611169
0.033209
0.880327
0.388783
-0.408465
-0.678507
-0.337313
0.142197
-0.088492
-0.174637
-0.278344
-0.263338
0.871704
-0.033971
0.203201
0.588416
-0.573862
-0.161858
0.401477
0.388788
-0.275266
0.562696
-0.828339
-0.742608
-0.062296
-0.313655
-0.332853
0.266802
-0.235237
-0.884557
-0.521082
-0.317172
-0.252514
-0.519036
-0.406288
-0.934772
-0.364809
-0.545039
0.871053
-0.538215
-0.373297
-0.839528
-0.120873
0.965688
-0.473679
0.078424
0.575909
-0.246215
0.541514
0.708687
0.590891
-0.590966
0.251491
0.794877
-0.052111
-0.646505
-0.811013
0.772115
-0.597019
-0.146926
-0.911994
-0.080410
0.400216
-0.487086
-0.789135
-0.133439
0.508871
-0.647060
0.958978
0.841290
-0.845862
0.135811
0.232049
-0.193034
0.243346
0.450958
-0.169030
0.292780
0.596576
0.883369
-0.403077
-0.543842
0.373154
-0.726567
-0.466403
0.512243
-0.488329
0.578989
0.035081
-0.139695
0.816316
0.745042
0.889002
0.946042
-0.372020
-0.101945
0.337119
0.191216
0.215043
0.922476
0.192347
0.406472
0.075222
0.504348
0.206321
0.203055
0.709894
0.142941
-0.211020
0.235966
-0.344254
-0.492387
0.682262
-0.496359
0.144296
-0.531719
-0.363369
0.530633
0.862541
-0.676379
0.966726
-0.275963
-0.331200
-0.586309
-0.627092
0.884129
0.997623
0.305954
0.506485
0.138569
0.365283
-0.618739
0.652256
-0.249419
-0.796480
-0.846213
0.475634
-0.691747
0.105308
0.316701
-0.723541
0.324984
0.944945
-0.841102
0.438276
-0.299754
-0.718365
0.158053
0.057597
-0.662246
0.662730
-0.146460
-0.305521
-0.497802
0.326884
0.870968
0.183727
-0.353815
0.539183
-0.996598
-0.985604
0.665645
0.159491
0.656766
-0.961191
-0.486075
-0.601132
0.631037
0.617381
-0.840926
-0.033041
-0.942463
0.274697
0.146913
-0.018706
-0.882732
-0.994618
-0.026464
-0.939203
0.113694
0.220501
-0.650023
-0.439886
-0.726238
-0.144949
0.293678
-0.241017
0.047800
0.849542
0.725686
0.251263
0.477958
0.190953
0.502060
0.422078
0.839723
-0.347461
-0.392717
-0.068115
0.259763
-0.527225
-0.247186
0.111167
0.702511
0.331416
0.518843
0.182618
0.544407
0.262536
0.864001
0.451678
0.471270
-0.123482
0.206128
0.033503
0.234859
0.196118
-0.001792
-0.026537
0.401730
0.433820
-0.735748
-0.037464
-0.161311
-0.247269
-0.149668
-0.510216
0.266481
-0.724941
0.917157
0.902672
0.468556
-0.853891
0.296147
0.919963
0.995166
0.624027
-0.569451
0.225517
-0.173844
0.300730
0.111282
0.091667
0.226164
-0.244923
0.319670
0.550561
-0.823689
-0.196761
-0.789562
-0.269247
0.850929
0.778025
-0.321275
-0.971669
0.818840
-0.881588
0.334926
0.350921
0.247719
-0.369114
0.784500
0.956774
0.082068
0.249576
-0.372648
0.630500
-0.797731
-0.648740
0.677258
-0.456005
-0.614819
-0.502698
0.566030
-0.846548
0.855409
0.793800
-0.291389
-0.501181
-0.371386
0.982910
0.621542
0.136903
-0.613213
0.631572
0.664645
-0.306169
-0.823020
-0.352888
-0.454796
-0.729108
0.278844
0.692189
0.184271
0.759999
-0.503838
-0.372986
0.101729
0.372423
0.743711
0.280295
-0.953035
0.566809
-0.561118
0.675713
0.179875
-0.242709
0.691231
-0.835631
-0.165298
-0.655301
-0.641237
0.195279
-0.191030
0.045297
0.608299
0.470857
-0.978342
-0.886621
0.595238
0.926037
-0.934536
-0.298723
-0.058508
0.633822
0.374579
-0.053178
0.334610
-0.003254
-0.067234
0.253917
0.421884
0.197181
-0.265750
-0.027184
-0.550157
-0.690551
0.749599
-0.339353
-0.847359
-0.191254
-0.424303
-0.544003
0.848147
-0.922369
-0.284315
0.982914
0.906876
0.586322
0.054380
-0.226598
-0.319429
-0.494070
-0.327516
-0.291848
-0.064603
-0.012359
-0.719986
-0.530496
-0.541383
-0.847304
-0.594214
0.245048
-0.120980
0.310902
-0.213710
-0.544374
-0.321953
-0.738015
-0.966245
0.288726
0.083064
-0.862052
-0.134310
-0.199621
-0.033017
-0.845944
-0.843882
-0.797547
-0.563961
-0.565051
-0.870528
0.492011
-0.340920
-0.297916
-0.620297
0.168062
0.456782
-0.207167
0.015746
0.758506
0.149540
0.796456
0.921862
-0.876352
-0.400526
0.516665
0.586450
-0.336771
0.470869
-0.262115
0.961330
0.300679
-0.199371
0.240432
-0.312323
0.713095
0.534437
-0.663097
0.985248
0.751431
-0.511955
-0.252699
-0.567839
0.786873
0.337422
0.580334
0.234747
0.812918
0.104887
0.526174
0.076223
-0.617580
0.331838
-0.097391
0.023166
-0.397374
0.890666
-0.711951
0.936063
-0.834179
0.781643
0.563901
-0.646053
0.829626
-0.861457
-0.671345
0.276444
-0.998819
0.075575
-0.675234
0.424701
0.381263
-0.373251
0.514340
-0.958282
-0.625496
0.170218
-0.993981
-0.715339
-0.991720
-0.618924
-0.924364
-0.873087
-0.783349
0.572026
0.751867
-0.378787
-0.437132
0.766409
0.773176
-0.805921
0.733972
0.541583
-0.539739
0.412885
-0.874365
-0.497763
-0.070055
0.968599
-0.422000
0.567993
-0.479749
-0.825249
-0.422617
0.095599
-0.184492
0.873685
-0.503364
-0.188231
0.352647
-0.655539
-0.359258
0.946029
-0.091955
0.718084
-0.911437
0.834925
-0.450010
-0.203792
0.708256
0.978713
-0.470686
-0.597774
0.368556
-0.019897
0.968681
-0.296753
-0.621557
0.875457
0.063593
0.769082
0.120809
-0.813693
-0.558837
-0.044004
-0.784042
0.223552
-0.941057
-0.098711
0.352219
-0.949361
0.239849
0.906523
0.023308
-0.741610
0.755404
0.526361
0.700822
-0.261654
0.087177
-0.363595
0.233017
-0.424874
0.817792
-0.275444
0.996526
-0.392626
0.874135
0.882193
0.968446
0.816761
-0.818091
-0.109725
-0.423824
0.004439
0.996708
0.848242
-0.526237
0.465583
0.606682
-0.122569
0.672739
-0.139064
0.771958
-0.410743
0.312512
0.201701
0.620612
-0.690790
0.957664
0.414848
-0.650802
-0.055965
-0.684921
-0.990658
0.783304
-0.281709
0.660203
-0.029696
0.487424
-0.015033
-0.050146
-0.025173
-0.291950
0.795319
0.927605
0.164042
0.974853
-0.208108
0.604032
0.387905
0.994793
0.962501
-0.860301
-0.230040
0.672298
-0.950180
-0.477740
-0.829569
0.284952
-0.645303
-0.653467
-0.471818
0.651434
-0.638043
-0.964436
0.796920
0.412992
0.571076
0.389194
0.902533
0.561877
0.344458
0.955891
0.565426
-0.154521
0.937486
0.807831
0.458669
0.163852
-0.275878
0.375246
0.906123
0.894479
-0.115424
-0.749728
0.726560
-0.850349
0.176918
-0.010453
-0.245038
0.888919
-0.315234
-0.386791
0.468793
0.438912
-0.368201
-0.808524
-0.207604
-0.276635
0.627264
0.827348
0.303960
-0.034663
0.895341
0.387843
-0.726650
0.626683
0.393150
0.780754
0.776362
0.827584
0.046189
-0.520670
0.989718
0.309603
0.027678
0.240861
-0.028199
-0.813402
0.572735
-0.935541
-0.275968
-0.466287
-0.668823
-0.489688
-0.177778
-0.885251
-0.302807
0.177590
-0.327547
0.867527
-0.763926
0.269997
0.819041
-0.432028
0.145150
-0.094703
-0.996777
0.291402
-0.614217
-0.013669
-0.805830
0.929838
0.359676
0.469861
0.181168
-0.951037
-0.277693
0.783665
0.062633
-0.420940
-0.624901
0.380843
0.686814
-0.860537
0.885292
-0.306435
-0.271852
0.394383
0.760825
0.536872
0.587607
-0.155207
0.504591
-0.886953
-0.069866
-0.679963
0.216106
-0.657712
-0.700063
-0.219105
0.479264
0.084712
0.229394
-0.634316
-0.361241
0.421602
0.845974
0.153333
0.348264
-0.464610
-0.365825
-0.182646
0.212445
-0.138591
-0.276849
-0.151996
0.238895
-0.021806
-0.915205
0.726504
-0.294211
-0.195675
0.874613
-0.316540
0.981356
-0.252722
-0.269089
0.527527
-0.665044
0.947106
-0.572514
-0.121331
-0.660814
0.680206
-0.480468
0.911428
-0.753980
-0.905391
-0.675594
0.817031
-0.712721
0.223889
0.947966
-0.064990
0.393240
-0.404574
0.159479
0.433036
0.719210
-0.488667
0.724972
0.100596
-0.839604
0.342703
-0.353648
-0.501697
0.613496
-0.860567
0.884132
-0.072288
0.607021
-0.518163
0.493174
-0.837458
0.716635
-0.873692
0.286195
0.098697
-0.099060
0.642980
0.367080
-0.139702
0.137571
-0.408454
-0.243678
-0.160175
-0.692835
-0.591735
-0.622757
0.190223
0.000514
-0.725483
0.986632
-0.847452
0.461428
-0.517933
0.796623
-0.553132
-0.067455
0.981634
0.788634
-0.721026
0.428796
-0.782362
0.229545
0.904800
-0.517435
-0.482441
0.709351
0.709170
0.105979
-0.863018
-0.147333
0.742385
0.394550
0.412468
-0.889241
0.445430
-0.117812
0.814429
0.152619
0.945067
-0.713169
0.168029
0.007282
0.355278
0.139258
-0.345119
0.266149
-0.711991
-0.136579
0.405764
0.110971
-0.335482
-0.677952
-0.704781
-0.232745
-0.039560
-0.883577
0.937985
0.210001
0.401029
-0.527230
0.210400
0.625883
-0.240606
-0.142087
-0.783445
-0.945723
-0.505881
-0.249260
0.250256
0.102937
-0.799325
0.376979
-0.281282
-0.529177
0.400184
0.490957
-0.214022
-0.993837
0.181452
-0.642022
-0.433724
0.755786
-0.389251
-0.011385
-0.716659
-0.881389
0.274863
-0.507887
0.232064
0.676844
-0.285702
-0.946019
-0.656873
-0.326694
-0.061773
0.766967
0.186047
-0.000918
-0.451182
-0.015502
0.833454
-0.428690
0.045308
-0.219235
0.874774
-0.361549
-0.727628
-0.824078
0.590766
-0.932127
0.299156
-0.537990
-0.237550
-0.851310
-0.119230
0.418112
-0.405535
0.961711
-0.005753
0.364443
0.656746
0.188150
-0.025867
-0.760772
-0.479017
-0.726666
0.939217
-0.190526
0.447408
0.767180
-0.993571
0.583689
0.383472
0.011535
0.011903
0.759086
0.919416
0.024737
0.679769
-0.392761
0.826561
-0.447018
0.610079
0.632658
-0.032498
-0.378624
-0.511853
-0.962105
0.989607
-0.347802
-0.594840
-0.635501
0.761711
-0.833970
-0.220560
0.883531
0.531127
0.450725
0.663405
-0.439714
0.989404
-0.013313
-0.100606
-0.607022
0.129937
0.035404
-0.555842
-0.780942
0.059408
-0.225701
-0.610015
-0.043692
-0.389534
0.514973
-0.084481
-0.702714
-0.362355
-0.033003
-0.984660
0.811191
-0.751008
-0.937052
0.461102
0.624131
0.445890
0.812640
0.775267
-0.893612
-0.391521
-0.846577
0.390803
-0.813403
0.125493
-0.059350
0.212398
0.064635
0.326135
0.359952
-0.043572
-0.818120
0.750554
-0.474829
0.062980
0.277931
-0.955173
-0.709301
0.882032
-0.110856
-0.473281
0.816505
-0.730079
0.173523
0.576822
-0.013758
-0.069192
0.175937
-0.062572
-0.037525
-0.168427
-0.447354
0.704968
0.634177
0.709846
-0.032893
-0.097032
0.060539
0.836361
-0.664306
0.503875
-0.842880
0.578478
0.154625
0.573839
0.745063
0.252978
0.208753
-0.091571
0.198733
0.887522
-0.621692
0.791493
0.598595
0.003226
0.387407
0.742472
-0.835645
-0.266841
0.493946
-0.484108
-0.076799
0.153816
0.979322
0.910182
0.692340
0.758053
0.325571
-0.391466
0.829136
-0.380691
0.081622
-0.599478
-0.583116
-0.045671
0.026395
-0.504597
0.981159
0.876052
-0.672870
-0.437546
0.919209
0.693600
0.607577
0.385799
0.260472
-0.532526
0.751977
-0.497750
0.343706
0.552694
0.582650
-0.329450
0.815631
-0.418378
0.166930
0.700979
-0.444778
-0.846297
-0.567230
0.153335
-0.324764
-0.406941
-0.166645
0.334170
0.953587
0.608946
-0.429420
-0.818931
0.514135
0.926281
-0.792186
0.300330
0.451306
-0.973195
0.957207
0.494221
-0.988260
-0.998263
0.958534
-0.149804
0.223257
0.775544
0.216290
0.843264
0.112349
0.514977
0.212769
0.642196
0.510948
-0.950980
-0.027978
0.353619
0.639979
-0.842954
-0.247975
-0.725922
-0.803827
-0.183693
-0.849106
0.608566
-0.441683
0.592911
0.354906
-0.979565
0.981668
-0.649270
-0.857522
0.290240
-0.164903
0.489417
0.511700
0.041431
0.565724
0.747783
0.532138
-0.530825
-0.477480
0.532013
0.494016
-0.906724
-0.775299
0.670384
-0.539572
0.714942
-0.862410
-0.662832
0.834880
0.155121
0.594323
0.104522
-0.153046
-0.314765
-0.910014
0.847454
0.344399
0.064700
0.971923
-0.521965
-0.326593
-0.798791
-0.938071
0.071545
0.584050
0.591081
0.350063
0.594942
0.106862
0.041451
0.104547
0.870357
-0.448122
0.745153
0.505914
0.375182
-0.372871
-0.357268
0.144946
0.615572
0.202983
-0.241862
-0.633144
-0.603649
-0.922498
0.804265
0.885803
-0.189097
0.739657
-0.269650
0.345238
-0.206886
0.374424
0.055960
0.653681
0.715340
-0.123425
0.286012
-0.958208
-0.652487
0.894621
-0.973873
0.127473
-0.741759
-0.025987
0.598758
-0.894432
-0.137525
0.947369
-0.153728
-0.961800
-0.796171
-0.088742
0.107347
0.589724
0.533417
0.408299
-0.205123
0.960964
-0.382423
-0.197693
0.646478
-0.061721
0.936190
0.525400
0.559338
0.093974
0.538845
-0.496717
-0.154570
-0.135587
-0.095312
-0.352993
-0.691784
0.518263
-0.807549
0.011928
-0.301831
-0.479599
-0.879324
0.017967
-0.229522
-0.321026
0.769315
0.296354
0.232435
-0.430968
-0.214193
0.680529
0.656548
0.056091
-0.311688
-0.755990
0.380435
0.067175
-0.238957
0.254545
0.666523
0.111873
-0.046672
-0.291269
-0.283833
-0.154858
-0.246880
0.368929
0.623282
-0.780734
-0.043545
0.127904
0.915513
0.837920
-0.932367
-0.724582
0.276086
0.299750
0.223548
0.773246
0.041741
-0.431662
0.810369
0.010525
0.047928
-0.398108
-0.248245
-0.397206
0.272195
-0.916395
-0.447913
0.116401
-0.515666
-0.681280
0.453252
0.444608
-0.423932
0.972768
0.119038
0.778093
0.920607
0.234686
0.060949
0.383082
0.615538
0.022888
0.489565
0.124001
-0.452728
0.935436
0.163442
0.866861
0.738509
0.362035
0.169710
0.144296
0.586101
0.214247
0.463465
0.522792
0.392700
0.587781
-0.829842
-0.382141
0.405865
-0.254489
-0.538742
-0.174318
0.374816
0.289955
-0.120987
0.508613
0.727164
0.137357
-0.056994
0.067919
-0.801421
-0.592612
-0.160425
-0.252188
-0.343324
-0.370930
-0.210764
-0.381695
0.962756
-0.156131
-0.648453
-0.614019
0.008049
0.295945
-0.830976
-0.221558
-0.815999
-0.709026
-0.328606
-0.221030
-0.427594
-0.555087
-0.105597
-0.732622
-0.626058
-0.840502
0.503061
0.999737
0.399861
0.423310
-0.603293
0.528395
0.330575
-0.806394
0.004741
-0.040882
0.086188
0.829522
0.118638
-0.048441
0.706416
-0.922191
0.304219
-0.305283
-0.101706
0.133255
-0.138991
-0.265583
0.744738
-0.936951
-0.916002
0.523158
0.519171
-0.896840
0.212870
-0.495059
-0.675371
0.042514
-0.764674
-0.066979
0.483706
-0.139379
-0.691383
-0.844785
0.958813
0.422799
0.279546
0.516773
-0.571384
0.053000
0.664573
0.844832
-0.939064
0.037274
-0.834404
-0.045918
0.084161
-0.808399
0.717521
0.656479
0.839409
0.119269
-0.544716
-0.822133
-0.315576
-0.759148
-0.003253
0.703607
0.734245
0.647339
0.994791
-0.723448
-0.097990
0.472436
0.701427
-0.972399
0.428805
0.145787
0.927559
-0.494344
0.396989
0.584235
0.880435
-0.391594
0.526237
-0.209634
0.939362
0.868362
-0.241874
-0.873870
0.862585
0.888298
-0.693687
0.085204
-0.495749
0.060946
0.949112
0.448658
0.898761
0.989848
0.464984
0.942893
0.448951
0.989789
0.608970
0.358742
0.901303
0.760865
0.239074
-0.553524
0.518578
0.417473
-0.020647
0.630203
0.978112
-0.256074
0.185539
0.427576
0.970579
0.064967
-0.856398
0.266436
-0.236224
-0.792858
-0.768282
0.142015
-0.463803
-0.982092
-0.104394
-0.122854
0.580036
0.303652
-0.899847
-0.892211
-0.706207
0.060117
-0.758406
-0.062175
0.178359
0.468587
0.348822
-0.996736
-0.470337
0.180100
0.188731
0.661152
0.456687
-0.815457
-0.667614
-0.829896
-0.004120
-0.936317
0.499618
0.996135
0.659798
-0.555665
0.221406
0.323568
-0.521410
0.333722
-0.792150
0.233876
-0.982313
0.563974
-0.642377
-0.259280
0.349717
-0.989452
0.873076
0.912899
-0.177758
0.906723
0.402346
0.591567
-0.993766
0.391800
0.825108
0.866705
0.216599
0.274397
0.434855
0.947660
-0.276084
-0.308299
-0.484884
-0.135296
-0.960266
0.248022
0.768621
-0.314400
-0.196178
0.192831
0.219590
0.201764
0.681120
0.639138
-0.169076
0.967860
-0.234515
0.329998
0.254317
0.750472
0.258626
-0.952375
-0.481436
0.637873
0.003823
0.693513
0.083933
-0.302132
-0.084204
-0.770944
-0.501275
0.603325
-0.290798
-0.742927
0.032944
-0.451973
0.110922
0.423015
-0.643963
0.515173
-0.620975
-0.098273
0.007577
0.280684
0.084450
-0.549522
-0.703313
0.441791
-0.431514
-0.088022
0.395507
0.817886
0.423142
-0.274405
0.921978
-0.622014
-0.273311
-0.101374
-0.498043
-0.768919
-0.934790
0.935906
0.295607
-0.970662
0.354608
-0.412325
0.722605
-0.939776
0.623366
0.515928
-0.795708
-0.711899
-0.079056
-0.527714
0.515739
0.067942
0.832730
-0.762676
-0.345157
-0.952786
-0.968829
-0.540236
0.345776
-0.553327
0.931359
0.719440
-0.196644
0.531940
0.245344
-0.710381
-0.177980
-0.381275
0.085445
-0.508685
0.979939
-0.283937
-0.154360
-0.153877
-0.482171
0.422369
-0.736813
0.236578
0.341854
-0.851560
0.534464
0.594327
0.338424
0.552760
-0.552875
-0.139991
0.232952
-0.520181
-0.893909
-0.022326
0.184778
-0.804938
-0.098868
-0.732873
0.743075
0.525607
0.752529
-0.305152
-0.328309
-0.602993
-0.229121
0.879373
-0.201672
-0.684718
-0.714477
0.325893
-0.866320
0.882459
0.931128
0.665189
-0.719211
0.875476
0.323403
0.610180
0.849238
0.688569
0.621844
-0.264914
0.153644
-0.828062
0.072691
-0.746755
-0.789820
-0.566242
0.512994
0.953993
-0.900736
-0.080433
0.854861
-0.850338
0.273423
0.394376
0.914763
-0.413433
-0.436021
0.177299
0.629579
0.083528
0.503819
-0.350514
-0.195856
-0.094670
-0.105488
-0.838248
0.768894
0.896152
-0.813200
0.152394
-0.857434
-0.717845
0.659129
0.463086
-0.448605
-0.016741
0.543648
-0.101658
-0.363616
0.703160
0.390952
-0.999940
0.097776
0.044267
-0.088922
-0.129148
0.317826
-0.646076
-0.380131
0.208754
-0.399075
-0.512332
0.738024
0.761950
-0.942066
0.044869
0.617529
-0.521783
0.017959
0.486263
0.279334
-0.811409
-0.213533
0.498159
0.229730
-0.204878
-0.468302
-0.070487
0.318481
-0.080564
0.869820
0.624030
0.159142
-0.514249
0.896766
0.805935
-0.616705
-0.183060
-0.728756
-0.649132
0.698238
0.253674
-0.573196
-0.941697
-0.399993
0.505664
0.773158
0.637145
-0.029110
0.119467
-0.747511
-0.047650
0.525095
0.642948
-0.643494
0.814124
-0.062950
-0.237231
-0.020681
-0.585694
-0.102451
-0.749546
0.937640
0.118612
0.952894
-0.767814
-0.981894
-0.815803
0.424935
0.260971
-0.386716
0.028659
0.578675
0.179788
-0.142200
0.086791
0.929979
0.659193
-0.223675
-0.682551
-0.446520
0.311244
-0.158496
0.225700
0.775468
-0.208567
-0.798622
0.670944
0.684616
0.126940
0.180520
0.045892
0.552739
-0.967150
-0.194017
-0.810174
-0.333814
-0.613773
0.374742
0.232469
0.133939
-0.734243
0.363695
-0.442832
-0.790569
0.201947
0.031859
-0.380632
0.282447
0.045593
-0.848448
0.365266
-0.364007
-0.981043
-0.082951
-0.509502
0.613234
-0.459864
-0.818761
-0.656111
0.188462
0.939767
-0.255195
-0.066192
-0.499655
-0.389828
0.140408
0.114280
-0.678015
0.540163
0.917422
-0.164449
-0.784976
0.580322
0.175732
-0.650622
0.657220
0.504880
-0.943590
0.934056
0.705591
0.906470
-0.309538
0.450468
-0.623048
-0.925225
0.582044
-0.846407
0.754441
0.894013
0.238390
-0.666357
-0.937457
-0.183639
-0.862046
-0.854024
-0.172916
0.725839
0.826573
-0.389321
-0.111877
0.852255
-0.597406
-0.691871
-0.045216
0.274646
-0.162553
0.288799
-0.600626
-0.496898
-0.360794
0.096252
0.214508
-0.344187
-0.307491
0.708964
-0.203741
-0.799890
0.961513
0.609688
-0.185766
-0.448370
0.614394
0.279665
0.043402
0.311911
0.352237
-0.453173
0.017812
0.996147
-0.475281
-0.057056
0.391380
-0.997998
0.300320
0.256502
0.011304
0.450454
0.891394
-0.043545
0.487022
-0.783082
0.530233
0.241878
-0.134897
-0.300397
-0.813223
0.603094
-0.670581
-0.412993
0.448090
-0.833410
0.252220
0.327751
-0.286433
-0.424038
0.226784
-0.949725
-0.995796
0.520637
0.220931
-0.111781
0.137636
0.754903
-0.948313
-0.227544
-0.315003
-0.327710
0.215445
-0.943978
-0.093013
0.568460
0.267728
-0.211213
0.843002
-0.513099
-0.556120
-0.391514
0.172529
0.105690
0.465065
0.986832
-0.994843
0.788330
-0.208364
-0.644790
-0.134927
-0.915206
-0.186215
-0.191649
-0.764947
0.990041
0.528594
-0.355855
-0.518147
-0.305060
0.873208
0.802647
-0.172365
-0.125343
-0.442109
0.748615
0.112805
-0.101784
-0.453578
-0.201351
-0.725423
0.532176
-0.535378
-0.028500
0.778389
0.310712
0.146357
-0.794857
-0.682505
0.172764
0.361390
-0.257172
-0.094024
-0.703923
0.239696
0.456337
0.597062
-0.123642
-0.241731
-0.425472
0.370979
-0.754520
0.596998
0.040588
0.016824
-0.856337
-0.367592
-0.931217
0.705374
0.878573
-0.365404
0.031364
0.519670
0.147522
0.023385
0.280331
0.406154
-0.961268
0.770454
0.623804
-0.907662
0.375036
0.021152
0.935576
-0.420214
0.279655
0.875828
-0.198222
0.629854
-0.959768
-0.847558
-0.068297
0.904310
-0.481144
0.567443
0.302068
-0.318315
-0.415983
-0.545742
0.418390
-0.871873
-0.831032
0.384194
0.821424
0.557300
-0.287698
0.461330
0.208267
-0.897206
0.940783
0.818168
0.994037
-0.194603
0.953813
-0.540377
-0.610268
-0.618195
0.486330
-0.631019
0.387605
-0.276242
0.642303
0.357895
-0.778024
-0.706379
-0.124721
-0.976058
0.195959
-0.281462
0.966964
0.795599
0.115262
-0.330066
0.171651
-0.989966
0.691910
-0.804937
-0.437988
0.596270
-0.483300
-0.781481
0.406537
0.849281
0.297523
-0.246242
0.112084
0.205900
0.178623
-0.273044
0.494528
-0.735150
0.473133
-0.335250
-0.968676
0.101261
-0.687786
0.168035
-0.058555
-0.006697
-0.858815
0.367130
0.357249
0.444300
-0.933618
-0.325710
0.977620
0.850537
-0.526305
0.182241
0.298174
-0.930851
0.827929
-0.260129
0.001516
-0.622447
0.521054
-0.815538
-0.379630
0.793308
-0.200195
0.480194
0.314138
-0.313793
-0.369904
-0.387376
-0.974121
0.677657
-0.673411
0.454888
-0.832218
0.382952
-0.988895
0.473447
-0.176772
-0.841026
0.505048
-0.187950
0.591199
-0.814731
-0.663244
0.863142
-0.372275
-0.547572
0.288263
-0.717229
-0.631144
0.870284
0.026589
0.038443
-0.638639
0.194191
-0.834472
0.526818
0.844917
-0.349047
-0.837666
-0.645690
-0.529550
0.972084
0.117511
-0.382442
0.259623
-0.906430
0.642135
0.123635
0.099076
-0.251069
-0.603673
0.293791
-0.890588
-0.416485
0.104205
-0.561225
0.453836
-0.446263
0.261285
-0.575859
0.170422
-0.640378
0.978615
0.819467
-0.481221
-0.862717
-0.687655
-0.752923
0.775249
0.547309
-0.318927
-0.247975
-0.254660
-0.548155
-0.892393
-0.422168
-0.782035
0.853787
-0.518136
0.785449
0.102369
-0.533649
-0.452408
0.755006
-0.220791
-0.077335
-0.682503
-0.408412
-0.483066
0.559102
-0.175259
-0.379288
0.767299
0.556780
-0.173924
0.952337
0.032654
0.897493
0.991653
-0.178503
0.489481
-0.068459
-0.679905
0.651394
0.416541
-0.208815
0.231314
0.309552
-0.064189
-0.331836
0.065960
0.263396
-0.580921
0.663889
-0.173297
-0.650243
-0.056512
0.432813
0.147420
-0.605429
-0.665944
0.929823
0.821583
-0.107081
0.264850
0.659828
-0.081538
-0.340604
-0.093777
-0.826406
-0.445470
0.355615
-0.078897
0.673169
-0.765579
0.590306
-0.747834
-0.563373
0.115478
0.883233
-0.686669
-0.836141
0.188648
-0.331098
-0.524001
-0.663440
-0.560129
-0.620913
-0.745543
0.538263
0.321356
0.193139
-0.766341
0.777420
-0.897312
-0.057459
0.176966
0.585005
0.783420
-0.225784
-0.203266
-0.526114
0.697899
-0.192847
0.607294
-0.327486
-0.768060
-0.200972
0.569876
-0.773332
-0.117493
0.570862
0.538756
0.845176
0.221932
0.147376
-0.264938
-0.751536
0.289335
0.977681
0.250594
-0.805949
0.419106
0.540114
0.490989
-0.592511
-0.472460
0.283199
-0.684339
-0.815179
0.947641
0.056735
0.162293
-0.385022
0.074772
0.276948
0.025270
-0.306382
0.588282
0.639881
0.194465
-0.868162
0.138979
-0.081413
-0.776004
0.613761
0.032640
0.804819
0.743803
-0.644274
0.486440
0.490239
0.019738
0.962999
0.728928
0.249614
0.302693
0.449860
0.203832
-0.170212
-0.522608
-0.935856
0.411451
0.750473
0.446731
-0.399406
-0.825108
0.169009
-0.743292
-0.970741
-0.252536
0.372535
0.025752
-0.781786
-0.753306
0.655243
0.778470
0.735946
0.414901
-0.968383
0.133614
-0.450233
-0.468581
-0.317538
-0.991376
-0.641806
0.319606
-0.987934
0.446064
0.907089
-0.749478
0.539320
0.250454
-0.835527
-0.056793
-0.352053
0.356625
0.760403
-0.588198
0.721622
0.939215
0.087034
-0.211241
-0.109989
0.422728
0.991186
0.847487
0.782594
0.957538
0.068294
0.869826
0.478039
0.773662
0.457393
-0.168634
-0.896545
-0.701751
0.373058
0.288266
-0.857083
0.698070
-0.777773
-0.576161
0.896837
-0.902461
-0.822418
0.490668
-0.152724
-0.041955
-0.132012
0.297892
-0.766397
0.474561
0.358677
-0.867976
0.106447
-0.437796
0.737262
0.082280
0.271656
0.159665
0.520488
-0.798837
0.279444
0.099482
-0.832848
0.236205
-0.770133
0.753229
-0.940192
-0.015559
0.544052
-0.742853
-0.795073
0.958744
0.752300
0.925882
-0.615283
0.027585
-0.274186
-0.939379
0.074743
0.094521
-0.577976
-0.995250
0.144693
0.228980
-0.053680
-0.051991
0.708047
-0.584969
0.845204
0.449595
-0.620368
0.348913
-0.099856
-0.284654
0.238369
0.512096
-0.276699
0.475035
-0.322884
0.387329
0.738592
0.448388
0.631635
0.074910
-0.268351
-0.420497
-0.066098
-0.250505
-0.042402
-0.100680
0.868082
0.409988
-0.246548
0.909850
-0.243698
0.112510
-0.030916
0.002883
-0.446377
0.635564
-0.482651
0.438882
0.066667
0.394237
0.883654
0.060136
0.539379
-0.027641
0.851666
0.014757
-0.249662
0.104510
-0.857476
0.752967
-0.689219
-0.840345
0.088685
-0.732459
0.176155
-0.046992
-0.153258
-0.628203
-0.441744
0.465477
-0.014012
-0.256820
-0.547930
0.917920
-0.025831
0.255460
0.018387
-0.427087
0.256566
0.279069
0.118697
-0.160474
-0.404959
-0.332448
0.840147
0.141644
-0.425157
0.170038
-0.166848
0.407556
-0.743289
-0.165479
-0.452092
0.419610
-0.955102
0.334857
0.785132
-0.829189
-0.402125
-0.385737
0.057211
-0.079123
0.715550
0.875220
0.952046
0.185558
0.108001
-0.693088
-0.757703
-0.185475
0.939964
-0.758490
-0.981387
0.564302
0.671384
-0.144817
-0.886032
-0.224189
0.550989
0.127428
0.206559
-0.596248
0.918722
0.834708
-0.551973
0.201954
0.646791
0.247361
-0.043164
0.842070
-0.637684
0.509957
-0.838189
-0.993235
-0.891781
0.734543
0.102040
-0.640336
0.852756
0.647877
0.245552
-0.105719
0.017430
-0.157959
0.369536
-0.842806
0.529474
0.861238
-0.684962
-0.212118
-0.426713
-0.389208
0.852172
-0.788236
-0.580247
0.706853
0.590755
0.935315
-0.847277
0.670666
0.828562
-0.607250
-0.323026
-0.602626
0.223560
0.155488
0.752457
-0.384257
-0.779308
0.626151
-0.280374
-0.010071
0.847369
0.839809
0.552638
-0.288214
-0.127194
0.557117
0.019972
-0.957950
-0.025989
0.763615
0.696620
-0.879947
-0.376747
-0.934821
-0.971928
-0.319735
0.838061
0.953084
-0.274217
0.842885
-0.151298
0.773616
0.894752
0.422403
-0.633931
0.171035
-0.125863
-0.757718
-0.553962
0.345841
-0.369991
-0.834550
0.451638
0.129048
-0.462770
0.687001
-0.577242
-0.842854
-0.748716
0.359230
-0.311174
0.298750
-0.870600
-0.959519
0.101015
-0.461750
0.354947
-0.821024
0.256896
-0.294740
0.706243
0.612343
-0.205520
-0.967621
0.612619
-0.321181
-0.112672
0.158182
0.724904
0.313850
0.210815
0.760233
-0.791086
0.342306
-0.604162
-0.026689
-0.267615
0.542109
-0.532913
0.716201
-0.794111
0.399890
-0.624796
0.406496
0.359836
-0.247385
0.228106
0.861504
0.834348
0.832350
0.861749
-0.481942
-0.987713
0.079102
-0.120162
-0.960851
0.045522
-0.262034
0.885729
0.159142
0.486496
0.066643
0.939176
0.462000
0.740721
0.575288
-0.835184
0.735761
-0.688098
-0.318676
0.247461
-0.415910
0.615122
0.442079
0.340133
0.148409
0.188534
-0.571533
0.706527
0.890596
0.716018
-0.903580
0.948912
0.862989
-0.321256
0.148795
-0.775190
-0.149565
0.710664
0.117624
0.373242
-0.227431
0.484739
0.155104
-0.872949
-0.438853
-0.052218
-0.211212
-0.963566
0.782713
-0.128387
0.235425
0.801781
0.745800
0.597051
-0.519304
-0.243744
-0.542463
0.977109
0.610318
-0.745259
0.774062
0.728987
-0.584959
0.801811
0.666374
0.705355
0.685296
0.707067
0.964410
0.770685
0.422834
-0.789557
-0.899441
-0.053003
-0.205951
-0.446836
-0.123875
-0.994754
0.075010
0.653649
0.207465
-0.800441
-0.917587
0.051483
0.322669
-0.895411
0.726949
0.750425
0.759758
0.813167
-0.296445
0.961879
0.222015
-0.399225
-0.168489
-0.378338
-0.762941
-0.253532
0.131146
0.581034
-0.618975
0.465043
0.055775
-0.938643
0.042637
-0.401691
-0.049100
-0.396707
0.794871
-0.915001
-0.813339
0.123627
0.383500
-0.867154
0.970004
-0.054341
-0.978924
0.879321
0.481831
0.237720
-0.998678
0.644305
0.827362
0.252719
-0.748917
-0.103616
0.767427
0.989836
-0.208699
0.614722
-0.939693
-0.589647
0.302924
0.005107
-0.320236
0.966895
0.434534
-0.099410
0.366979
0.034243
-0.577864
-0.949151
-0.945418
-0.918891
0.146627
0.644418
0.763974
0.003028
0.130629
-0.505550
-0.565375
0.420124
-0.964965
0.691391
-0.046740
0.173076
-0.971907
0.436756
0.874347
0.473963
-0.092665
-0.793387
-0.794544
0.568116
0.090868
0.178462
0.536722
0.837126
-0.536934
0.224202
0.095328
0.365079
0.189157
-0.954836
0.694789
-0.356859
0.405952
0.025712
0.691536
-0.645441
-0.370987
0.187913
-0.212038
-0.942781
-0.455593
0.593520
0.524797
-0.376480
0.904392
0.351454
-0.097639
-0.988029
-0.297599
0.888365
0.073182
0.040368
-0.030079
0.297729
-0.505114
0.586275
-0.876028
0.968683
-0.978649
0.217413
0.372566
0.165868
0.578639
-0.319887
0.600003
0.653668
0.235243
-0.293034
0.313295
-0.154964
0.753000
-0.996908
-0.822295
0.365082
0.975227
0.712979
0.961920
0.634607
-0.147423
-0.463751
-0.225579
0.828688
0.715322
0.901716
-0.951928
0.766800
-0.944076
-0.675479
0.090787
-0.775128
-0.908624
0.929303
0.710197
0.107120
-0.572381
-0.199303
-0.650307
0.206105
-0.235933
0.415426
0.932650
-0.815674
-0.054226
-0.664817
0.553960
0.154648
0.091833
-0.237514
-0.417915
-0.288876
0.033804
-0.050349
0.950585
0.150015
0.518251
-0.519284
0.306296
-0.109336
-0.397742
0.130003
-0.534603
0.510411
0.113461
0.800892
0.143576
-0.622480
-0.103374
-0.508068
0.335158
0.662629
-0.551066
-0.749827
0.273481
-0.872335
-0.064453
0.289322
-0.229666
0.545030
0.437274
0.248719
-0.685057
-0.700023
-0.708575
-0.324008
0.247608
-0.350494
-0.847277
-0.112822
-0.291109
0.352255
-0.637290
-0.924034
-0.860919
0.843599
0.317434
0.866449
0.868301
-0.549677
0.678531
-0.078650
0.962506
0.628312
0.408644
-0.202463
0.444024
0.170801
-0.174608
0.164075
-0.406384
-0.240007
-0.315052
0.616430
-0.622437
0.164098
-0.858194
-0.363568
-0.437639
-0.356218
0.322017
0.969429
-0.339051
0.132039
0.348823
-0.698559
0.396418
0.007431
-0.478126
0.678248
0.463658
0.672893
-0.102227
0.636541
0.048314
-0.428923
-0.195631
-0.710695
0.543127
0.070504
-0.064344
-0.535968
0.537483
-0.517901
-0.927968
0.865695
0.087407
0.062862
0.973293
0.035785
-0.990545
-0.915779
0.503213
-0.626266
-0.749381
-0.411603
-0.274297
0.023449
-0.215425
-0.573352
-0.035883
0.546513
0.278966
-0.392319
0.379766
-0.371997
0.709975
0.688016
0.853368
-0.336029
0.660655
-0.420073
-0.270777
-0.670064
-0.349640
-0.070636
-0.582529
-0.302035
0.913388
-0.383477
-0.445124
0.055725
0.725634
0.777849
0.230789
-0.141419
0.846058
0.209187
0.612358
-0.418637
0.569359
0.138354
-0.259207
0.865250
-0.369305
-0.070588
0.454981
0.284800
-0.559917
0.053448
0.288533
-0.720317
0.777565
0.686203
-0.469487
-0.469071
0.345558
-0.130490
-0.303599
0.094893
-0.498057
0.103218
-0.747008
0.231383
0.613563
-0.308585
-0.479217
0.683135
-0.768033
0.646468
-0.867205
0.572251
-0.315045
-0.821797
-0.401005
-0.311170
-0.330600
0.859292
0.682995
-0.029949
-0.081166
0.125854
0.705076
0.869383
0.117805
-0.117235
-0.335941
-0.151760
0.042665
-0.498384
0.011663
-0.036022
0.805846
-0.457556
0.087873
0.986746
-0.518860
-0.224440
0.683632
-0.362352
-0.163149
-0.647191
-0.234895
-0.847843
0.901498
-0.025172
0.108823
0.943226
-0.826657
0.694686
0.190672
-0.782445
0.190542
-0.915927
0.192068
0.833958
-0.186603
0.399451
-0.095392
0.784208
-0.453309
-0.855578
0.901318
-0.329503
-0.630798
-0.769342
-0.463395
0.329347
0.453680
-0.215256
0.675847
-0.393048
0.989136
-0.642971
-0.494079
0.243223
-0.682971
-0.794740
-0.228207
0.987353
-0.615773
-0.648396
0.996107
-0.902087
-0.158974
0.590812
-0.283875
0.354952
-0.153698
0.200477
-0.344073
-0.328095
0.811461
-0.139928
-0.092965
-0.953795
-0.024477
-0.169192
-0.283062
0.554253
-0.955266
-0.905146
-0.931000
0.177121
0.502254
-0.922059
0.900778
-0.508908
0.186702
-0.177828
-0.550797
-0.625002
0.359368
-0.819187
-0.317404
0.171955
0.106417
0.380312
-0.335127
0.529421
-0.385194
-0.190502
0.326157
-0.795079
-0.643451
0.618643
0.771980
0.044353
-0.391083
0.738387
-0.034524
0.599118
-0.950324
-0.891648
-0.212990
-0.402825
-0.511685
0.361335
0.196516
0.694098
0.231567
-0.915705
-0.100863
0.957458
-0.222748
0.806576
0.250372
-0.498475
-0.058306
0.370649
-0.271903
-0.144675
-0.801425
0.485140
-0.253102
0.848481
0.752960
0.901623
0.437089
-0.324898
0.215747
0.798033
-0.103243
0.125133
0.921816
-0.632663
0.576260
-0.098581
-0.702689
0.312095
-0.835374
0.444646
-0.416350
0.496611
0.522653
-0.031899
0.973611
0.356959
-0.759943
0.126898
0.314761
-0.106720
0.315540
0.066727
-0.215895
0.118306
0.745418
0.328683
-0.372917
0.756483
-0.500791
-0.964941
-0.347916
0.821041
0.889566
0.350831
0.892890
0.609660
0.258027
-0.521980
-0.853051
-0.199954
-0.434353
0.493502
-0.902518
-0.924489
0.437160
0.002811
-0.623028
-0.042487
-0.030199
0.934109
-0.385450
0.448216
-0.623462
-0.207006
0.662418
0.901915
-0.743093
-0.618420
0.377337
-0.098149
-0.383784
0.596828
0.474681
-0.518175
-0.872796
-0.971974
0.320561
-0.072739
0.236018
-0.632590
0.503220
0.205851
-0.390133
-0.928598
0.810426
-0.577395
-0.816306
0.714711
0.235311
0.860799
-0.351724
-0.138662
-0.934855
0.630198
-0.414507
-0.603674
0.318306
-0.741681
0.784466
0.581185
-0.641223
0.459218
0.854750
-0.858215
-0.682325
-0.680140
-0.755842
-0.183689
0.149998
0.335861
0.515426
0.913900
0.741517
0.169896
-0.504771
-0.066291
-0.227276
-0.221598
0.106021
0.293740
0.765424
-0.326417
-0.915266
0.859923
0.663566
0.476354
0.845275
0.518639
0.437411
0.376927
-0.883650
0.883740
0.286296
0.502374
0.536289
0.379091
0.278869
0.981428
0.191636
-0.065735
-0.293042
-0.432662
-0.727608
-0.244068
-0.407835
0.833231
0.100672
-0.713253
-0.237820
-0.641769
0.924063
-0.065896
-0.099168
0.294832
0.766107
0.772671
-0.855773
-0.202320
-0.217497
-0.590549
-0.838831
0.449633
-0.641201
0.731427
-0.860143
0.287592
0.115866
0.891335
0.058352
0.267820
-0.899534
0.297562
0.339479
0.574073
-0.412280
0.179432
-0.760107
-0.544750
0.810825
0.119650
-0.800191
0.385894
-0.688280
0.593563
-0.225338
-0.694948
-0.447332
0.304703
-0.262953
0.503975
0.042565
0.124142
-0.683997
0.589809
0.559641
-0.961562
0.937609
-0.486998
0.493283
0.418525
-0.342820
0.158581
0.217451
-0.433153
0.293112
0.195060
0.004399
0.836384
0.038569
0.589153
-0.927332
0.295449
0.765570
-0.962057
0.771210
-0.561969
-0.003812
0.277579
0.426219
0.716317
0.074344
-0.335194
-0.525351
0.690354
-0.372759
-0.935701
0.719639
0.717255
-0.348794
-0.354041
0.159942
0.857538
-0.249520
-0.924988
0.484829
0.415646
0.726737
-0.698426
-0.628902
-0.892083
0.996282
0.070786
-0.843935
0.479190
0.398635
0.551204
0.244251
0.485812
-0.968048
0.841310
-0.602534
0.841154
0.548671
0.396461
-0.241795
-0.779020
0.086498
-0.155372
-0.235582
0.671105
-0.092057
-0.415849
0.794864
0.665475
0.144843
-0.247891
0.472105
-0.023325
0.920634
-0.866702
-0.579712
0.025423
0.797631
-0.811993
-0.235803
0.897783
-0.372353
0.257419
-0.753800
-0.450194
-0.456218
-0.709112
-0.912872
0.593680
-0.711407
-0.482754
0.497870
-0.175274
0.865132
0.315044
-0.852483
-0.723074
0.694485
0.163414
-0.462021
0.753719
-0.143508
-0.217504
-0.258766
0.692067
0.826595
0.210074
-0.185093
-0.529775
0.125849
-0.480358
0.092042
-0.513953
-0.366330
0.305607
-0.645127
-0.689326
-0.223111
-0.436301
-0.949874
-0.965172
0.890990
0.813062
-0.559489
-0.417783
0.574887
0.729204
-0.632123
-0.674579
-0.354203
0.520201
0.732353
0.560724
-0.928415
0.090746
0.435006
-0.091708
-0.084764
0.509474
0.409530
-0.327836
-0.736764
-0.655703
0.734390
0.607334
-0.248205
0.466539
-0.080500
-0.312077
-0.472110
0.812956
-0.718968
-0.803521
-0.029062
0.495020
-0.402562
0.947643
-0.275089
0.617406
0.109045
-0.350987
0.187497
-0.839798
0.099189
-0.445166
0.016620
0.550933
0.279111
0.678229
-0.838266
0.405919
-0.158391
0.042580
0.818243
-0.328530
-0.131640
-0.984872
0.903644
0.353078
-0.989187
0.886629
-0.813695
-0.425187
0.015631
-0.687885
0.450369
-0.242127
-0.679217
0.248341
-0.261685
0.467902
-0.947064
0.015371
0.625726
-0.371400
-0.640192
0.002850
0.526504
-0.114850
-0.093620
-0.668659
-0.095713
0.377035
0.562663
-0.413312
-0.463002
0.297071
-0.122395
-0.993831
-0.743455
-0.466368
0.871778
0.390225
-0.963611
-0.151365
0.349734
0.576860
-0.691859
-0.811085
0.624947
0.526019
-0.014867
0.857652
0.131680
-0.623607
0.167649
-0.552719
-0.674338
0.114612
0.062567
-0.769126
0.210440
-0.469999
0.445108
0.611076
-0.879498
0.822816
0.257189
-0.323945
0.298518
-0.762199
0.149252
0.362868
-0.263743
0.524183
0.911125
-0.300025
-0.248070
-0.775798
0.283989
-0.748841
0.619304
-0.071489
0.494907
0.851530
-0.621463
0.804391
-0.493470
-0.613910
-0.936545
-0.576501
-0.687861
-0.318825
-0.456938
-0.308694
-0.775273
-0.466912
-0.219987
-0.010489
-0.592647
-0.520884
-0.879592
-0.781335
-0.122936
0.549153
0.684348
-0.407682
-0.276175
0.473403
0.891355
-0.062673
-0.707355
-0.444563
0.261257
-0.596322
0.320204
0.187284
0.780281
-0.468673
0.670553
0.694925
0.800889
-0.326385
-0.534722
0.917896
0.349521
-0.583121
-0.209298
0.499104
-0.697357
-0.411063
0.848036
-0.127039
0.886573
-0.874590
0.927523
-0.695120
0.434925
0.887882
0.744995
-0.289062
-0.920226
-0.344909
-0.039776
-0.719267
-0.146941
0.613724
0.163385
-0.265051
-0.151432
-0.391557
-0.093067
0.071899
-0.432084
-0.704510
-0.031432
-0.802502
-0.922961
-0.615919
-0.867599
-0.407599
-0.502181
-0.652933
0.373003
0.569360
0.306568
0.517633
0.016599
0.500925
-0.363001
0.196601
0.343275
0.933214
0.593444
0.620963
0.226333
-0.084738
-0.735268
-0.183618
0.537834
0.865556
-0.962971
0.420077
-0.848082
0.158224
-0.001186
-0.233632
-0.818762
0.827972
-0.582253
-0.745636
-0.922656
-0.730840
0.731387
0.517407
-0.493575
0.670682
-0.689064
0.604944
0.017605
0.168413
0.981658
0.716328
-0.372853
0.356778
0.663969
-0.182244
0.740371
-0.035384
0.944308
-0.866837
0.262664
0.154942
0.116257
-0.865515
0.830887
-0.481163
-0.931434
-0.416432
0.223716
-0.056111
-0.620248
0.051080
0.383211
-0.083102
-0.162591
0.600697
-0.746217
0.125703
0.768958
-0.411149
0.358388
0.514409
-0.617047
0.778543
0.609074
-0.011378
-0.154351
0.292838
-0.361764
-0.446568
0.623399
0.574244
-0.894552
0.591984
0.633270
-0.995361
0.227352
0.691761
0.317062
-0.844396
0.046052
-0.773679
0.266807
-0.359291
0.474631
0.963658
0.243720
-0.863552
-0.454939
0.720445
0.071451
0.125051
-0.824294
-0.189500
0.823132
0.049001
0.210935
0.215915
0.860366
0.183754
-0.609429
0.498090
0.658215
0.591600
-0.656681
0.466381
-0.586008
-0.785357
-0.787305
-0.524898
0.352597
0.707799
0.763395
-0.686090
0.126659
-0.621521
0.906234
-0.741756
-0.718119
-0.889478
-0.580140
-0.101146
0.510616
0.056342
0.106363
-0.045460
-0.715125
-0.140666
-0.066913
-0.789609
-0.567365
-0.133487
-0.973021
-0.560815
0.161964
-0.960907
0.824670
0.054042
0.539449
0.979206
0.180092
0.020138
0.597641
0.283072
-0.933707
-0.966085
-0.437522
-0.795452
-0.376467
0.425178
0.226599
0.123223
-0.903938
0.247787
0.110765
0.076925
-0.670037
0.912626
-0.214228
0.738154
-0.222594
0.865214
0.791678
0.743666
-0.012699
-0.782912
-0.980267
0.291010
0.142914
0.261196
-0.226460
-0.988570
0.026998
-0.207888
-0.389164
-0.076977
-0.495664
-0.942803
0.895265
0.410573
-0.800685
0.902682
0.994662
-0.839545
-0.811477
0.505838
0.706921
-0.917762
0.111200
-0.694803
0.961676
0.030544
-0.874675
0.812848
-0.457125
-0.909866
0.919821
-0.068499
0.343981
-0.320032
0.341633
0.741145
-0.487705
0.445776
0.558623
-0.169118
0.803652
-0.332805
0.293033
-0.224683
-0.754196
-0.181319
-0.123621
-0.206929
-0.373405
-0.776005
0.060591
0.301456
-0.575022
-0.132444
0.190713
-0.543864
-0.717570
0.093761
0.602674
-0.440066
0.774024
0.001214
0.963826
0.748519
-0.866066
-0.331206
-0.298660
0.885674
-0.167765
0.694307
0.840160
-0.859964
0.022917
0.138969
0.308177
-0.054888
-0.739956
-0.365285
0.170985
-0.088355
-0.991632
0.151938
0.830230
0.886926
0.931448
0.984778
-0.654690
0.605040
0.012018
0.486170
0.379131
-0.326950
0.757681
-0.866924
-0.482959
0.782272
0.683273
0.662925
-0.185472
-0.316232
0.924861
0.013535
0.008904
0.506321
0.268973
-0.546670
-0.126400
0.120660
-0.194145
0.749259
-0.152076
0.452078
-0.877108
0.967140
0.137944
0.729009
-0.270172
0.250614
0.305831
0.306599
-0.063518
0.484531
-0.578809
-0.577825
-0.708608
0.898423
0.178454
0.418526
0.588260
0.389466
-0.528239
-0.016378
0.677240
0.401365
0.379600
-0.734299
0.950138
-0.466397
0.564174
-0.914825
-0.974896
0.990783
-0.627279
-0.725531
0.479390
-0.046887
0.648973
-0.047015
0.291338
0.150121
-0.048757
-0.156876
-0.998074
0.233541
-0.589286
-0.423736
0.109055
-0.697290
0.829290
0.911640
0.599903
-0.385528
-0.337302
-0.260820
-0.037957
-0.490148
-0.673186
0.777093
-0.988130
-0.942200
-0.006205
0.039729
0.818158
-0.504879
0.523036
-0.133629
-0.812826
-0.609707
-0.207492
0.264487
0.154887
0.404173
-0.985726
-0.166579
-0.424459
-0.080281
-0.851678
-0.410166
-0.747950
-0.838243
-0.605738
0.514947
-0.639806
-0.221686
-0.800932
0.977796
-0.927140
-0.225436
-0.510729
0.681543
-0.704888
-0.224983
-0.274142
-0.392107
-0.800140
-0.925415
-0.740708
-0.867508
0.752910
0.360543
-0.315666
-0.934539
-0.170629
0.351829
0.089996
-0.732796
0.794514
0.344299
0.832966
0.709285
-0.377911
0.888142
-0.934094
-0.167261
0.476032
-0.358759
-0.950582
-0.026171
-0.785075
0.980048
0.536577
0.150122
-0.688252
-0.937761
-0.902710
0.855572
-0.516507
0.282662
0.112963
0.875618
-0.408035
0.148534
-0.884407
0.300962
-0.508895
-0.075164
-0.619076
-0.974879
-0.705679
-0.977314
0.828014
0.028761
-0.703540
-0.873110
0.382515
0.052178
0.252924
-0.727131
0.367955
-0.301421
-0.849816
0.936457
0.404452
0.158853
0.234546
0.057674
0.872838
-0.321291
-0.570264
0.185115
0.741622
-0.421265
0.000769
-0.008686
0.744699
-0.333695
-0.500981
-0.833160
-0.424357
0.764310
0.048280
-0.417210
0.156292
-0.449864
-0.294139
-0.561314
-0.202859
0.936795
-0.995809
0.154611
-0.887959
-0.512959
-0.538682
-0.679964
-0.201843
-0.118511
-0.104863
-0.004811
-0.327959
-0.365681
0.347616
0.946157
-0.442856
0.019370
-0.056968
-0.598393
-0.865324
-0.104356
0.328975
0.012138
-0.345412
0.483430
-0.856026
0.644694
0.399984
0.617748
0.270202
0.931713
0.374554
0.058028
-0.601937
-0.858652
-0.451457
-0.106079
0.606361
-0.600700
0.285179
-0.475495
0.440035
0.515351
0.380999
-0.574667
-0.851219
-0.394533
-0.914180
-0.696100
0.495723
-0.893352
0.878092
0.001703
-0.309189
-0.344855
0.978246
-0.114545
0.872090
0.559345
-0.810615
0.051047
-0.152809
0.236109
0.330291
0.588947
-0.613869
-0.475457
0.723710
-0.912186
0.480816
0.050000
-0.599154
0.552541
0.019522
-0.453998
0.442682
0.867916
-0.401098
0.764624
-0.358516
-0.072902
-0.112336
-0.039636
0.070499
0.364179
-0.329016
0.618058
0.424172
-0.935944
-0.645482
0.322842
-0.395118
-0.082267
-0.892847
-0.049618
0.514070
-0.912450
-0.086766
-0.368767
0.361747
0.386206
-0.805750
0.852134
0.092596
0.493309
-0.809642
-0.496899
-0.798146
0.225284
-0.969680
0.699871
0.559251
-0.508669
0.729409
0.199832
-0.150334
-0.468702
0.064497
0.798979
-0.932406
0.240516
0.876888
-0.871361
0.310361
-0.164228
0.452428
0.970847
0.903021
-0.196068
-0.044376
0.019747
-0.087281
-0.819579
-0.147227
-0.090388
-0.036846
-0.664295
-0.168932
-0.398077
-0.549622
-0.368780
0.584557
0.813742
0.883562
-0.030041
-0.331247
0.806289
-0.364938
-0.081157
-0.596131
-0.301838
-0.960812
0.959225
-0.910340
-0.323779
0.176332
-0.742029
-0.355015
0.027027
-0.827743
0.880349
0.265889
-0.116519
-0.371160
-0.664940
-0.471028
0.125217
-0.127876
-0.105635
0.988035
-0.270797
-0.006629
-0.169935
0.792322
-0.833471
-0.238024
0.343100
-0.033984
-0.161057
-0.113725
0.865736
-0.042832
0.569989
-0.580137
0.878506
0.474016
0.524275
0.980708
0.643384
0.789564
0.882553
-0.865274
-0.635124
-0.531205
-0.669405
0.180007
0.641832
0.970403
0.954952
-0.454335
-0.970436
-0.592777
-0.347048
-0.231059
0.627542
0.479682
0.845835
0.261802
-0.737133
-0.361938
0.050180
0.466096
-0.224972
0.304603
-0.687526
-0.669384
-0.987099
0.782313
0.279626
0.912227
-0.288160
0.629708
-0.165819
-0.566938
0.228087
-0.624992
-0.490926
0.595425
-0.520288
0.174170
0.523279
0.707280
-0.499944
-0.747298
-0.003635
0.513513
0.576814
0.385544
0.935001
-0.966619
-0.291120
-0.128414
-0.141280
0.121291
-0.110385
0.544098
0.746527
0.239673
0.701803
0.458360
0.498186
-0.592258
0.010711
-0.690929
0.367121
-0.886438
0.793677
-0.644391
0.609550
-0.787020
-0.482111
-0.391463
0.931809
-0.933911
0.334034
0.339154
-0.377345
-0.927033
0.823836
-0.723017
-0.029428
0.279376
0.444911
0.654104
-0.115638
-0.792163
-0.171985
-0.758859
-0.056095
-0.057913
0.258159
-0.232142
-0.050630
0.665652
0.309731
0.512368
0.233490
0.005216
-0.262265
-0.138263
-0.934065
-0.040722
-0.617755
0.383455
-0.169432
-0.311674
0.931138
0.842797
-0.361966
0.720834
0.509225
0.437726
-0.447739
0.060522
0.612827
-0.471675
-0.765941
0.350520
0.053998
-0.262102
0.701902
-0.017518
0.697238
0.332015
-0.052221
-0.114480
0.774902
-0.671671
-0.134651
-0.839445
0.730814
0.796890
-0.804408
-0.278529
0.685541
-0.144237
0.559102
-0.350252
0.479249
-0.578900
0.040562
-0.339932
0.115151
0.448187
0.538170
-0.477741
0.860602
0.214048
0.355535
-0.820463
-0.903437
-0.075799
-0.483289
0.494592
0.196181
0.704629
-0.466612
0.231951
-0.437004
-0.143555
0.113239
-0.551255
-0.352701
0.110292
-0.646297
-0.662810
0.486656
0.916041
0.066036
0.947096
0.488991
0.756355
0.878692
0.742389
0.293921
0.203392
0.068763
0.993417
-0.391751
0.150160
-0.672847
-0.137959
0.448675
-0.394044
-0.562975
0.569263
-0.401623
0.848267
-0.420725
0.763267
0.426404
0.412656
-0.752995
0.357308
0.012682
0.093851
-0.371581
0.026120
-0.095379
0.958442
0.958811
-0.219063
0.525808
-0.608070
0.776543
-0.231907
-0.831790
0.688420
-0.489696
0.487522
-0.959691
-0.290709
-0.274621
-0.759080
-0.431827
-0.656184
0.561879
0.658922
0.857865
-0.065713
0.460061
-0.929519
-0.621854
-0.353427
0.176210
-0.380022
-0.259956
0.650748
-0.068707
0.214951
0.870902
-0.154876
0.873691
-0.107214
0.059003
0.122380
0.615375
0.662150
-0.662011
-0.508720
0.994976
-0.605649
-0.296201
-0.624657
-0.884301
0.849334
0.186754
0.509556
0.652838
-0.668642
-0.496287
0.164607
-0.969941
-0.169376
-0.803028
-0.032519
-0.381822
0.864348
0.972965
0.952278
0.353581
-0.169947
0.520578
0.987484
0.194256
-0.214217
-0.303566
-0.396095
-0.227627
0.560158
0.058799
-0.197158
-0.226364
-0.195609
0.779800
0.500212
-0.785687
0.284812
0.756985
0.221983
-0.936841
0.320158
-0.760778
0.676518
-0.888812
-0.600360
-0.638988
-0.921309
0.485246
0.757624
0.023574
-0.769389
-0.021628
0.961083
-0.854830
0.536030
-0.565773
-0.582468
-0.231689
-0.244174
0.294120
-0.463287
0.551906
0.928911
0.568881
-0.588729
0.165006
-0.024720
-0.181920
-0.179943
-0.936647
-0.066930
-0.378580
0.452935
-0.380463
-0.910006
-0.668112
-0.461838
-0.935061
0.328938
0.541280
0.051547
-0.582735
-0.829369
-0.110288
-0.061005
-0.132046
-0.830787
-0.911101
-0.711334
-0.972230
-0.066885
0.059619
-0.185803
-0.229082
0.682579
-0.809737
0.238587
0.995404
0.869992
0.178196
-0.959432
0.494328
0.556246
0.811165
-0.249161
-0.078366
0.244022
-0.997058
-0.987539
-0.029510
0.759832
0.862837
-0.891629
0.253379
-0.485606
-0.015330
0.493142
-0.404175
0.612418
-0.754813
-0.623684
-0.815435
0.777014
0.456627
0.043931
-0.885708
-0.058185
-0.061935
0.457673
-0.816199
-0.170238
0.627737
-0.265643
-0.894918
0.394718
0.761449
-0.202852
-0.225104
-0.750266
-0.267266
-0.780271
0.548542
-0.106306
-0.561578
-0.766809
-0.822601
0.355360
0.360342
-0.673767
0.644885
-0.920164
0.220838
0.503838
-0.354493
-0.981299
0.125254
-0.323677
-0.697745
-0.320599
-0.282735
0.124374
0.165724
-0.371780
0.177344
-0.272306
0.160314
0.806444
0.560959
-0.321664
-0.126649
-0.790744
-0.921281
-0.445768
-0.200646
0.224701
0.797496
0.370311
-0.699411
-0.367324
0.597813
0.184234
0.544051
-0.934968
0.713754
-0.987181
0.792905
-0.909266
-0.557898
0.330999
0.339468
-0.233270
-0.378471
0.209897
0.714246
-0.722158
0.885534
-0.953161
0.547629
0.834472
0.500923
-0.471135
-0.073706
0.602374
0.197976
0.496097
0.968942
0.237959
-0.328104
0.469114
-0.306292
-0.540719
0.139150
-0.247529
0.009692
0.613941
0.893112
-0.450577
0.818198
-0.356644
-0.574878
-0.994795
-0.058923
0.073864
-0.386442
-0.100378
0.131974
0.248851
-0.061133
-0.648487
0.271052
-0.823211
0.741107
-0.632660
0.687846
-0.871573
-0.882531
0.783906
0.657341
0.745649
-0.843022
-0.904068
-0.061365
0.217305
-0.710163
-0.424047
0.940667
0.982615
0.627533
0.445711
0.328346
-0.354807
0.968175
-0.515968
-0.964330
0.155099
-0.404281
-0.895895
-0.309475
-0.790770
0.309950
0.975514
-0.989248
0.920971
-0.404142
-0.790517
-0.045764
-0.786761
-0.413117
0.159001
-0.311344
-0.788980
0.307139
-0.580206
0.463574
0.887290
-0.565899
-0.509631
0.266910
0.218382
0.287546
0.068235
0.372381
-0.083940
0.893243
0.125252
-0.629685
0.038532
0.241827
0.664259
-0.274633
-0.126750
-0.570013
-0.681386
0.052629
-0.908639
0.695026
-0.953064
-0.781733
-0.921969
-0.634096
0.854642
0.753665
-0.390730
0.881448
0.001320
-0.097864
0.257686
0.541106
0.463791
-0.687891
0.026641
0.399531
-0.278371
0.991748
-0.541536
0.213474
0.550094
0.773130
-0.748278
0.209131
0.383344
-0.897128
0.536381
0.812599
-0.821688
0.995184
0.959947
0.533967
0.408602
-0.337648
0.352319
0.406574
0.466455
-0.943641
0.006520
0.019591
0.615654
-0.853038
0.540913
0.380520
-0.586022
-0.780278
0.552197
-0.532959
0.702077
-0.020076
0.159890
-0.011004
0.717303
-0.548342
-0.910038
-0.214423
-0.742055
0.213023
-0.895264
0.644159
-0.829559