-0.010902405
0.057312012
-0.021209717
-0.025588989
-0.010795593
0.067260742
0.0015735626
-0.0025157928
-0.0025062561
-0.020599365
0.031555176
0.086425781
0.050140381
-0.0085220337
0.031494141
-0.062011719
0.034912109
0.072570801
0.054504395
0.083862305
0.084838867
-0.054473877
0.063964844
-0.042205811
-0.064331055
0.0096969604
0.024459839
0.057769775
0.039276123
-0.028045654
-0.054046631
0.057037354
-0.048461914
0.063415527
0.033691406
-0.011863708
0.063720703
0.0043640137
-0.025741577
0.0098495483
-0.028030396
0.066772461
0.028640747
-0.088195801
0.084106445
0.0046424866
0.053253174
0.089660645
0.0088119507
0.032806396
-0.046875
0.0024795532
0.074951172
-0.028961182
0.084655762
-0.013633728
-0.020278931
0.041748047
0.095397949
0.083435059
-0.081359863
-0.056518555
0.075439453
0.044158936
-0.053466797
-0.078918457
0.053100586
0.058380127
0.057006836
-0.053466797
0.074951172
0.04107666
-0.10150146
0.053863525
0.026077271
-0.065429688
-0.046936035
-0.011955261
0.074279785
0.052947998
0.065734863
0.04800415
-0.063476562
-0.057250977
-0.041442871
0.031616211
-0.012496948
-0.090148926
-0.031402588
-0.037902832
-0.029724121
0.03326416
0.038421631
-0.074035645
-0.067687988
0.010345459
-0.062316895
-0.063903809
-0.071411133
-0.032562256
0.020843506
-0.019592285
0.001701355
-0.058654785
0.069274902
0.032104492
-0.060058594
0.089355469
-0.017944336
0.07989502
0.055267334
-0.031677246
0.0011091232
-0.082702637
0.00086927414
0.087036133
0.050598145
-0.024139404
-0.046936035
0.036987305
0.084228516
-0.0054779053
-0.087768555
-0.073059082
-0.086181641
-0.011825562
0.051239014
0.073364258
