0.000165
0.003687
0.015541
-0.004036
-0.032379
0.007359
-0.021210
-0.005501
0.031921
-0.005264
-0.043060
-0.045105
0.028824
-0.026978
0.019409
-0.029877
0.010017
-0.000791
0.014359
-0.050140
0.014854
-0.000507
0.026947
0.035797
-0.003561
-0.043243
0.014030
0.007694
-0.014465
-0.004017
-0.008888
-0.047028
0.007748
-0.020889
-0.025970
-0.001770
-0.035828
-0.037537
0.003500
-0.009041
-0.045868
-0.023865
0.026382
-0.003826
0.039185
-0.042694
-0.011848
0.018326
-0.001144
0.004539
0.005329
-0.021545
-0.029221
-0.010063
-0.040405
0.005413
0.010666
0.006554
0.019516
-0.004982
0.032623
0.009979
0.004520
0.001425
0.009941
0.025482
-0.029007
-0.045654
0.017883
0.000217
-0.003429
0.039520
-0.035522
-0.017883
-0.015144
-0.045654
-0.002924
0.023636
0.020859
-0.011513
0.000981
0.010704
-0.000759
-0.001454
-0.038391
0.015228
0.015167
0.033936
-0.038422
-0.010216
-0.000759
0.028580
-0.048370
-0.003225
-0.019745
0.049561
-0.039581
0.047089
0.023300
0.035583
-0.007206
0.018936
0.030899
-0.024216
-0.013466
0.037628
0.002934
0.024078
-0.024033
0.001271
-0.009651
-0.012383
-0.027115
-0.010162
0.000344
-0.016968
-0.047546
0.028519
0.033112
-0.025146
-0.031204
0.038452
-0.005524
-0.031708
0.002655
0.018768
-0.016861
0.003971
-0.031677
0.018921
0.011070
-0.005199
0.009758
0.015671
-0.009377
0.018936
-0.029510
0.004086
-0.013115
-0.008270
0.000303
0.001930
-0.003155
-0.037811
-0.029495
-0.021744
0.030090
-0.001933
-0.028381
-0.008408
0.012123
-0.011391
0.011345
-0.034698
0.011948
-0.002266
-0.031219
0.031952
-0.002897
-0.014198
-0.020874
-0.025543
-0.022369
0.010109
0.029831
0.001453
0.017105
0.032227
0.026581
-0.038055
0.004333
-0.009323
0.045776
0.031677
0.023743
-0.009712
0.025330
0.033325
0.005360
-0.005074
-0.027374
-0.005424
0.032440
0.023132
-0.001687
0.003029
0.004406
-0.018692
0.000059
0.002478
0.024033
-0.017288
-0.035461
0.012756
-0.019547
-0.011566
0.014664
-0.008270
-0.015976
0.017014
-0.001380
0.011658
-0.008759
0.003853
-0.027573
0.038635
0.001326
0.026413
-0.009583
-0.027084
0.007488
0.006886
0.003056
-0.027786
0.033936
0.034332
-0.013763
0.007267
0.038177
0.015869
0.009781
0.031677
-0.007324
0.021393
0.021423
-0.016602
0.022964
0.005432
0.026428
-0.017044
-0.007614
-0.018158
0.028412
-0.037323
-0.026657
-0.022308
0.011963
-0.020462
0.000064
0.017975
-0.026962
0.008781
0.004807
0.022263
-0.004601
-0.021011
-0.017578
-0.007511
0.026932
-0.005188
0.013023
-0.013115
-0.016327
0.030289
-0.021103
-0.006504
0.028107
0.036041
0.040161
-0.007244
-0.003349
0.018112
0.003258
0.015366
0.021393
0.024597
-0.029495
0.003693
-0.019913
0.002058
0.018890
0.036743
0.013596
-0.024429
-0.033600
0.009964
0.024414
0.027115
-0.026825
0.031082
-0.035156
0.040375
-0.005348
-0.009598
-0.037170
0.019028
0.020447
0.031021
-0.012703
-0.024292
-0.009644
-0.023010
0.020523
0.016953
0.039062
0.011131
0.041290
0.004131
-0.006599
-0.028519
-0.020416
0.011703
-0.029434
0.017578
0.021851
0.037476
0.033691
0.021912
-0.019638
-0.028046
0.023376
-0.016785
0.027374
0.003698
0.017197
-0.016159
0.022308
-0.027725
-0.019455
0.028748
0.006058
0.034027
0.028992
-0.029327
0.029556
-0.002501
0.023972
-0.011635
0.012306
-0.019882
-0.021729
-0.009659
0.028229
-0.001879
0.022400
-0.004963
-0.003956
0.002495
0.004635
0.022263
-0.011147
0.004734
0.005527
0.007957
-0.006966
-0.028351
0.012032
0.005234
-0.011108
0.028290
-0.038055
0.015411
-0.002630
-0.038666
0.013878
-0.028763
-0.018509
0.040314
-0.017197
0.016693
0.030014
0.023941
0.001959
-0.021988
0.014046
0.025726
-0.002228
-0.022903
0.025101
-0.025009
0.018173
0.013268
0.020279
-0.008179
-0.033691
0.012115
0.031830
0.025940
0.007717
-0.021500
0.010582
-0.001919
0.021439
0.009010
-0.016479
-0.008392
0.009766
0.003849
-0.039185
-0.001778
-0.006062
0.021759
-0.028687
0.035248
-0.000114
-0.026871
0.020050
-0.019821
-0.034973
-0.016510
-0.027634
0.008087
-0.008476
0.011749
-0.004524
-0.006317
0.001238
0.004025
0.031799
-0.020477
-0.029541
0.016037
-0.011292
0.031830
0.020584
-0.033997
0.039490
-0.039825
-0.020370
0.003489
0.017273
0.008827
0.005146
0.030685
0.009384
0.003527
-0.016068
0.026657
0.015480
-0.010612
-0.032288
0.023712
0.004707
0.004276
-0.032440
-0.037140
-0.012474
0.000101
-0.037354
0.012344
0.005947
-0.006981
-0.021652
-0.029556
-0.001239
-0.034058
0.022919
0.034241
-0.015091
0.006371
-0.045410
-0.034393
-0.006248
0.016006
-0.040863
0.032471
-0.024094
-0.006763
0.031143
-0.006351
-0.021057
0.036652
0.000631
-0.020706
0.005322
0.040955
0.034241
-0.039124
-0.031235
-0.030792
0.023499
0.026154
-0.010918
-0.024658
-0.018234
-0.029556
-0.028534
-0.009094
0.011200
-0.021072
-0.009247
0.039764
-0.003227
0.016617
-0.039886
0.026550
-0.007080
0.013573
0.014503
-0.004162
-0.000113
0.003948
-0.004696
0.016327
-0.013550
0.008057
-0.027496
0.012527
0.002153
-0.018204
-0.032928
-0.014908
0.006031
-0.021423
0.007828
0.018570
0.026505
-0.035095
0.017944
0.001783
0.011513
0.027161
-0.009651
-0.028488
0.004303
-0.006638
-0.018875
0.036896
-0.014610
-0.017288
-0.001389
0.032928
-0.036804
0.014702
-0.021774
0.007874
0.010605
0.031982
0.033325
-0.032074
0.019547
0.017822
0.029221
-0.013695
0.008499
-0.017349
0.002724
0.031433
0.024261
-0.009125
0.008842
0.021332
0.012703
-0.002831
-0.004658
0.011063
0.031128
-0.010307
-0.022400
0.010406
0.025925
0.018845
0.022537
0.009178
-0.002924
0.034821
0.018021
0.013206
-0.018906
0.003614
0.004475
0.004105
-0.004879
0.000575
-0.010719
-0.017410
0.027298
0.002697
-0.010109
0.006435
0.025223
-0.026230
-0.036530
-0.027344
0.034943
-0.016632
-0.010162
0.015091
0.023026
-0.014885
0.034271
-0.018677
-0.027084
-0.007866
-0.007843
-0.007641
-0.014114
-0.029587
0.006500
-0.009102
0.034729
-0.027206
0.029739
0.028748
0.018814
0.004742
-0.026260
0.013908
-0.022903
-0.023148
0.039154
-0.031799
-0.015068
0.028900
-0.032318
0.036499
-0.023407
-0.021347
-0.005138
-0.035156
-0.000670
0.009941
-0.017029
-0.016388
-0.005604
-0.017899
0.011993
-0.011124
-0.007374
-0.004040
-0.035980
-0.002499
-0.008469
0.034637
0.019730
-0.034698
0.000438
0.007626
0.010384
-0.033295
0.033417
-0.034027
0.001548
0.013885
-0.007706
0.005203
0.015053
-0.012901
-0.028915
-0.028305
-0.053619
0.043549
0.028519
0.007584
0.048584
-0.001930
0.022278
-0.050995
0.001329
-0.028015
-0.024216
0.045898
-0.032990
0.024521
-0.006119
0.011391
0.025955
0.012276
-0.049652
0.031677
0.041992
0.047577
-0.045624
-0.022369
-0.004898
0.045715
-0.010269
0.004635
-0.018295
0.011589
0.016464
0.009041
-0.018280
0.020660
-0.009834
-0.015854
0.029404
-0.023727
0.036591
-0.014481
0.008392
-0.014641
-0.016739
0.044403
0.028336
0.031204
0.014404
-0.038544
-0.026932
-0.023651
0.006908
-0.024857
0.042847
-0.008530
0.044769
-0.002874
0.014496
0.042755
-0.027420
0.022247
-0.018784
0.019821
0.009628
0.000991
0.003096
-0.003017
0.007957
-0.012474
0.015411
0.025757
-0.019379
0.018051
0.034058
0.028564
-0.002674
0.018875
0.000804
-0.013947
0.036102
0.043762
0.021408
-0.016647
0.016312
-0.027054
0.054352
0.006310
0.012238
0.009155
0.059753
0.023834
-0.025803
0.039825
0.004147
-0.001579
-0.004303
-0.028107
0.022293
0.013451
0.047821
-0.039764
0.014435
-0.004837
-0.023590
0.025696
-0.012558
0.022797
0.012993
-0.011360
0.013824
-0.010902
-0.015236
-0.021301
-0.001201
-0.019043
-0.026260
0.000844
0.048126
-0.048431
-0.034271
0.033569
-0.045715
-0.032654
0.017548
-0.010193
0.000802
0.012207
-0.009621
-0.001728
-0.005222
0.015457
-0.022156
0.014793
-0.017136
0.011353
0.036896
-0.020920
-0.016251
-0.006599
-0.040985
-0.000269
0.001038
0.035248
-0.039825
0.030792
-0.001775
0.013443
-0.022385
-0.008240
-0.008362
0.006893
0.001623
-0.029892
-0.009872
-0.018631
-0.008224
-0.000108
-0.014229
-0.002901
0.014389
0.030136
0.011673
0.012970
-0.007324
0.017349
0.025345
0.009300
-0.003517
0.034424
0.034851
0.027145
0.001448
-0.019119
0.009499
-0.017563
-0.006496
-0.000917
0.013603
0.014969
-0.029083
0.010696
0.005783
-0.009399
-0.007133
-0.031235
0.034332
-0.000495
-0.017075
0.034973
-0.005920
-0.004154
0.002810
0.012695
-0.021973
0.002716
0.037994
0.009827
-0.031494
0.036469
0.005657
-0.025116
-0.024292
-0.011353
-0.017029
-0.010597
0.035736
0.008873
0.040039
0.000013
0.033813
-0.023270
-0.043640
0.037445
-0.021835
-0.001019
-0.007618
-0.000027
-0.000921
0.021896
0.034088
-0.039154
-0.016861
0.038513
0.008850
-0.028366
0.001232
-0.021881
0.030457
0.036987
0.034149
0.029953
0.029922
-0.018906
-0.009796
0.033722
0.020218
0.006561
-0.000798
0.027344
-0.029510
-0.005444
0.033447
0.019302
0.033264
0.025116
-0.010361
0.023270
0.035187
-0.022980
0.017685
-0.030930
-0.023148
0.009750
0.002378
0.000278
-0.013420
0.036804
0.009689
-0.014252
0.014473
0.033051
0.020279
0.020706
-0.011337
-0.017426
-0.012566
-0.010513
-0.030762
0.029877
-0.018356
-0.018082
-0.014252
0.002132
0.028656
-0.004734
0.021454
0.038757
-0.001122
0.024902
-0.006058
0.026505
0.007805
0.033569
-0.005531
0.028809
-0.006226
-0.027802
0.030563
-0.008209
0.019623
0.002836
-0.010414
0.035706
-0.033569
-0.016769
-0.003651
0.016708
0.030350
-0.021149
-0.033386
0.029373
0.035431
0.025055
-0.008331
-0.023941
-0.034546
0.023941
0.026016
-0.026855
0.000526
0.023376
0.004284
0.016220
0.013168
-0.011848
0.011765
-0.021561
-0.026199
-0.003668
-0.012100
-0.008202
0.006275
-0.026169
-0.021255
0.012779
0.019592
0.034058
0.037292
0.030182
0.001887
-0.016724
-0.029663
0.027390
-0.006916
0.018570
-0.009636
0.036285
-0.001369
-0.024948
-0.025085
0.017853
0.012825
0.022385
0.014229
-0.025513
0.010422
-0.028030
-0.011726
-0.002419
0.014786
0.009407
-0.037598
-0.002110
-0.026764
-0.031204
-0.033844
-0.022873
0.029190
-0.023560
-0.015350
0.034332
-0.008186
-0.017319
0.014725
-0.032715
-0.009918
0.024292
-0.026672
-0.025467
-0.009651
0.003462
-0.028076
-0.032806
0.001454
0.023148
-0.007355
-0.000291
0.007404
-0.018814
0.013466
0.003397
0.005161
0.006310
0.023270
-0.024948
0.006340
0.034882
0.040619
-0.005917
-0.004486
-0.024811
-0.000975
0.008263
-0.016754
-0.008553
-0.000404
-0.010361
-0.000452
0.012909
0.005554
0.003664
0.014244
0.020660
-0.026657
-0.006290
0.033966
0.019302
0.001575
0.028687
-0.025513
-0.016281
0.023010
0.005978
-0.024002
0.011253
0.025528
-0.005825
0.004131
-0.018585
0.027603
0.006073
-0.030197
0.006363
-0.032959
-0.026382
0.039398
0.025070
0.008377
0.025482
-0.012184
0.027725
-0.021439
0.002363
-0.012070
-0.020203
0.003407
-0.023376
-0.017105
-0.021515
-0.006199
0.004784
0.007721
0.015823
0.000977
-0.009552
0.025757
0.014313
-0.002434
0.004456
-0.027435
-0.016174
-0.002274
0.022751
-0.023972
0.015556
-0.023300
-0.009972
-0.021057
0.019073
0.031128
-0.012009
0.002827
-0.015778
0.011253
0.027954
-0.012009
0.023895
0.011856
-0.012024
0.004868
0.033051
-0.013374
-0.004337
-0.003622
0.009140
-0.020416
-0.018112
-0.012009
0.020096
-0.036194
0.003778
0.006798
0.026886
0.018661
-0.001814
-0.028229
0.001851
-0.013451
-0.022980
-0.015457
0.027191
-0.028351
-0.030609
-0.028290
0.012627
-0.034393
-0.015884
-0.029663
-0.015205
-0.014885
0.022430
0.017502
0.015213
-0.025604
-0.015152
0.000799
0.003626
0.015686
0.026291
-0.034698
-0.032257
-0.014404
0.034576
0.001008
0.026779
-0.021561
0.006371
0.019501
-0.002003
0.029755
0.026535
0.032867
0.009666
-0.006371
0.017059
0.028732
0.016052
-0.004776
0.029846
0.029419
0.003403
-0.024063
-0.031586
0.041077
-0.032379
0.019974
0.041107
-0.027161
-0.013000
0.011124
-0.029373
0.002613
-0.017303
0.008873
-0.020996
0.015038
0.002790
-0.006443
-0.040375
0.027252
0.027298
-0.001863
0.009644
0.009979
0.010910
0.009789
0.016571
-0.023148
-0.028397
0.029053
0.009300
0.030289
0.027756
0.027252
0.030136
-0.010422
-0.030975
0.036652
0.020218
-0.002016
-0.009987
0.010185
-0.028671
0.015572
0.026566
0.026001
-0.009048
-0.004128
0.035706
-0.001642
0.024826
0.007580
-0.012299
0.006668
-0.007763
-0.002935
-0.000236
-0.019913
0.032990
-0.019226
-0.013870
-0.032959
0.011749
0.011971
0.002197
-0.038208
0.010941
0.021912
0.011528
0.035004
-0.023392
-0.010414
0.034698
-0.034515
0.035065
-0.024567
-0.028503
-0.031342
-0.023529
0.010750
-0.027786
-0.013222
-0.028778
-0.023590
0.031799
-0.022842
0.019836
-0.003220
-0.014992
-0.029922
-0.038025
-0.021881
0.038269
-0.029160
-0.001781
0.010849
-0.016449
-0.004261
0.013947
0.018173
0.013718
-0.033417
-0.010674
0.011162
0.021255
0.026367
0.036163
0.018753
0.022491
0.021698
-0.022842
-0.005512
-0.006496
-0.028061
-0.016556
-0.017502
0.021255
-0.003843
0.016205
0.035553
-0.017136
0.004787
0.010834
0.003473
0.000533
0.032623
-0.002510
-0.030975
-0.034607
0.018951
-0.004372
0.030991
0.009819
-0.032471
0.024124
-0.031021
-0.008438
0.020416
-0.023102
0.025833
0.028793
0.022156
-0.036835
-0.029694
0.005253
-0.008713
-0.014969
-0.012924
-0.016891
-0.027084
-0.019379
0.015961
-0.017715
-0.036133
0.007828
0.032104
0.033600
-0.018524
0.020340
-0.031311
0.029282
-0.020050
-0.034882
0.013565
-0.020767
0.025726
0.032776
-0.036865
0.035156
0.035797
-0.025940
-0.019257
0.021393
-0.024811
-0.014893
0.011810
0.016205
0.030167
0.009071
-0.023468
-0.027542
0.022400
0.014618
-0.004982
-0.024826
0.019867
-0.001800
-0.002733
0.022003
0.008720
-0.011322
0.008545
-0.013237
-0.036041
-0.011353
-0.031525
0.011246
0.016953
0.030853
0.017776
0.006630
0.018829
-0.012611
-0.006069
0.011055
-0.005383
0.022217
0.024414
0.000895
-0.001963
0.006832
-0.037842
0.013344
-0.006432
0.007515
0.028824
-0.027771
0.004307
0.021103
-0.002714
0.036591
0.030823
-0.016266
-0.018295
-0.032837
-0.035187
0.008858
0.025635
-0.009972
0.035950
0.011726
0.009148
-0.034180
0.022369
0.027832
-0.029480
-0.014793
0.027084
0.028915
-0.023361
-0.002048
-0.026321
-0.015076
0.006363
0.028488
-0.002182
-0.025940
-0.036957
0.010483
0.001515
0.027023
-0.031586
-0.026031
0.008408
0.036346
-0.016357
0.021759
0.021225
-0.019196
0.034546
0.003132
0.025330
0.036896
-0.034302
-0.014328
-0.016602
-0.028824
-0.023087
-0.012375
-0.030182
-0.023148
-0.027008
-0.018417
-0.032288
0.017807
0.038330
0.024963
-0.016571
-0.003269
-0.012085
-0.021652
-0.026749
0.004215
-0.017914
0.005886
-0.000294
-0.029373
-0.004421
0.032623
0.034912
-0.015259
-0.025558
0.013557
-0.012810
0.011757
-0.000308
0.036102
0.029007
-0.014603
0.025528
-0.028793
0.003376
0.005428
0.029816
-0.014160
-0.014435
-0.025223
-0.009781
0.026337
0.015686
0.030319
-0.032990
-0.024200
0.023163
-0.003563
0.020401
-0.022827
-0.023712
0.011345
0.033356
0.037445
0.014076
0.020630
0.032379
0.013062
-0.011261
0.021469
0.023743
-0.023087
-0.002508
0.023331
-0.003368
0.011436
0.015038
-0.026718
0.034637
-0.009773
0.032074
0.008179
0.015884
0.038025
0.014534
-0.005337
0.024841
-0.000852
-0.013786
-0.024765
-0.000084
-0.013336
-0.021530
0.025421
0.028229
0.030014
-0.018799
0.029800
-0.010071
-0.027145
0.015182
0.020340
-0.032257
0.003475
-0.026215
-0.024353
0.025192
-0.036896
-0.019562
-0.017715
-0.035858
-0.012154
-0.029114
-0.041901
-0.032623
0.010033
-0.063904
-0.027557
-0.032379
-0.022354
-0.032257
0.015121
0.005516
-0.026733
0.026703
-0.004189
-0.049683
0.005524
0.016754
-0.030777
0.011063
0.024994
0.013123
0.012344
0.012863
-0.060455
-0.029648
0.005516
0.021591
-0.024277
0.053009
-0.026001
-0.004726
0.021561
0.004509
0.027893
-0.022919
0.015884
-0.046692
-0.022095
0.011230
-0.073914
0.041016
0.019928
0.037567
-0.038177
-0.026901
0.015541
0.038055
-0.045898
-0.018051
0.032745
0.007549
0.034729
-0.016953
-0.048737
0.013809
-0.041046
0.017410
-0.024170
0.002474
-0.057526
-0.026230
-0.004387
0.014923
-0.022263
-0.009865
-0.021591
0.009171
-0.077393
-0.018204
-0.004047
0.004829
-0.024460
-0.003656
0.017776
0.023163
-0.007439
0.022125
0.024094
-0.009407
0.031555
-0.001491
-0.027267
-0.046448
-0.036499
0.023941
-0.004089
-0.024902
-0.052887
0.025940
-0.020996
-0.026840
0.001895
-0.003653
0.027557
-0.055420
0.043640
-0.040558
0.032990
-0.074707
0.010651
0.017395
0.048767
-0.015900
0.011757
0.035065
-0.001957
0.000400
0.028580
-0.007263
-0.012810
-0.015747
0.012764
-0.000531
-0.046417
-0.051422
-0.013054
0.055237
-0.025497
0.017319
-0.023697
-0.040863
-0.043091
0.008247
-0.029907
-0.001839
-0.015144
-0.015762
0.041565
0.015411
0.034668
0.013565
-0.037567
-0.006748
0.025345
-0.001442
0.026505
0.031372
0.031677
-0.008247
0.040619
0.021423
-0.006107
-0.019150
0.028625
0.016891
-0.017258
0.020340
0.043823
-0.021713
0.029358
-0.023239
-0.021637
-0.004658
0.008202
-0.026993
0.017838
0.055023
-0.039673
-0.029007
0.043121
0.023941
-0.005825
-0.030869
0.011131
-0.015083
0.013763
-0.012070
0.027206
0.003124
0.039764
-0.016907
-0.001694
-0.022797
0.002773
-0.008118
-0.009361
0.046295
0.017288
0.006527
0.000239
-0.000806
-0.003656
0.009605
0.011971
0.024506
-0.027588
0.030334
-0.022873
-0.015541
0.010002
-0.000086
-0.024231
0.009682
0.036713
-0.010551
-0.002565
0.027740
-0.019760
0.051788
0.023697
0.023972
0.023270
-0.030518
0.022995
0.011917
-0.015236
0.003189
0.021210
0.042511
-0.019394
0.030380
-0.029785
-0.019012
-0.010635
0.022354
0.040710
-0.023621
0.019379
-0.010010
-0.023743
-0.043671
-0.005062
-0.003668
-0.020279
0.001274
0.027939
-0.018677
0.029892
0.023468
0.002508
0.034637
-0.013931
0.008430
-0.025925
0.013840
-0.031738
-0.026016
0.012444
-0.015930
-0.000861
-0.007599
-0.000943
0.032715
0.030457
0.012329
0.029922
0.001666
-0.042847
0.039429
0.016129
0.003035
-0.020721
-0.032257
0.000670
-0.019699
-0.011284
0.015175
0.002619
-0.008209
0.000108
0.004726
-0.021774
0.002743
0.012207
-0.017181
-0.023132
-0.008331
-0.016144
0.003378
-0.004238
0.020950
-0.027481
0.005383
0.037720
0.013611
-0.002958
-0.041260
0.024246
-0.015839
0.026596
-0.008316
-0.032745
0.002699
0.029953
-0.031525
0.000126
0.028168
0.020737
0.008476
-0.018219
-0.000452
0.000350
0.006523
0.032806
-0.023956
-0.020187
0.025726
0.026505
-0.017715
0.014610
0.005421
0.019043
-0.040009
0.008026
-0.026154
0.000432
-0.005779
0.022675
0.011513
0.019791
0.021408
0.036133
0.015373
-0.000659
0.001385
0.010605
-0.020660
-0.025650
0.011848
0.014465
-0.003046
-0.012466
0.006187
0.029922
0.032623
-0.017197
0.031616
-0.017792
-0.019913
-0.001776
-0.029282
-0.030167
-0.031830
0.013062
-0.024017
0.010582
0.002876
-0.018173
0.023132
-0.008011
-0.016678
-0.020721
0.003843
0.022308
0.020889
-0.003067
0.034668
0.014984
0.019150
-0.021591
0.018967
-0.025131
-0.007397
-0.016083
0.038147
-0.027847
-0.014595
-0.017044
0.037262
-0.000473
0.025909
-0.034271
-0.025726
0.007576
-0.011269
-0.004139
-0.015701
-0.022263
-0.014549
-0.012611
0.036224
-0.005989
0.021561
-0.021042
0.026398
-0.037598
0.027740
-0.014999
-0.012505
-0.013435
-0.003798
0.004459
-0.003778
-0.044464
-0.042603
0.026718
-0.000002
0.007008
-0.031525
0.021072
0.037140
-0.008522
0.001032
0.036163
0.039368
-0.021912
-0.010971
-0.009598
-0.018967
0.033264
0.008514
-0.021378
0.005150
-0.017532
0.023941
-0.019272
0.018433
-0.032959
0.007236
-0.013634
-0.003389
0.012871
-0.009674
-0.020508
0.023621
-0.005871
0.043213
-0.015289
0.015419
-0.031952
-0.005054
-0.022095
-0.056183
0.013779
0.036804
0.015137
0.021515
-0.001147
-0.026520
-0.013756
0.014633
-0.013229
-0.025833
0.036713
-0.011162
0.020096
0.013458
0.028030
0.017914
-0.033630
0.046936
0.005108
0.029831
-0.027756
0.004276
0.019943
-0.018417
-0.032928
-0.026016
-0.057709
0.026825
0.012444
-0.020218
0.030304
-0.006966
-0.030106
0.045776
-0.007648
0.039520
0.061249
0.030594
-0.002077
0.013710
0.034180
0.047760
-0.004108
-0.014160
-0.006966
-0.020645
0.027557
-0.023453
-0.032501
0.028458
-0.018631
-0.023270
0.007866
0.024994
-0.019348
-0.017883
-0.028412
-0.010307
0.033234
-0.024307
0.019165
-0.009895
0.034363
-0.040955
0.016266
0.024323
-0.028519
-0.028778
0.000874
0.035278
-0.018097
0.022644
0.019836
-0.013695
-0.016388
-0.028198
0.010239
-0.014275
0.009491
-0.035492
0.037964
-0.011452
0.013763
-0.018570
-0.036652
0.048157
0.025711
-0.038208
-0.009377
0.026215
-0.015930
0.003157
0.018814
-0.005112
0.034607
0.002165
0.006844
0.017929
0.018448
-0.035034
0.027603
0.030502
0.009590
0.008080
-0.017029
0.039276
-0.015213
0.019897
-0.028610
0.025528
0.000438
0.002625
-0.023819
-0.011482
0.011406
-0.002649
0.040680
0.005283
-0.028168
0.023163
0.036652
0.008858
0.003510
0.010300
0.014565
-0.006783
0.046021
-0.001829
-0.034668
-0.017075
-0.008507
0.003366
0.029984
0.007565
-0.004414
0.014763
0.014015
0.004967
-0.009903
0.028137
-0.003847
0.025589
0.002260
-0.026215
-0.024292
0.026367
0.038696
-0.007462
-0.036652
-0.010689
-0.028061
-0.015823
0.034515
-0.035614
0.024155
0.036163
0.010498
-0.016617
0.003618
0.026505
-0.011223
-0.043945
0.016983
0.008339
-0.022705
-0.037415
-0.023697
-0.025909
0.025345
0.010101
0.018280
-0.022888
0.030441
0.027573
0.013252
-0.029007
0.008492
-0.009781
-0.004478
0.036224
-0.031403
-0.012230
0.010567
-0.006004
0.024170
0.043152
-0.023041
-0.007706
0.000827
-0.039154
0.000175
-0.025101
0.039703
0.031006
-0.007740
-0.007019
-0.032166
-0.020554
0.003603
-0.036499
-0.007370
0.014595
0.029282
-0.020782
0.023972
-0.022110
-0.021271
0.029129
-0.044373
0.022156
-0.018600
0.040283
0.031006
0.041626
0.009735
-0.030655
0.025375
0.015480
-0.009659
0.033997
-0.041077
-0.040131
-0.016266
-0.003971
0.019608
0.000949
0.010658
-0.025787
0.032318
0.005344
0.041168
0.011887
-0.002335
-0.005409
-0.005951
0.009521
0.043274
-0.020721
0.015205
0.014626
-0.007214
0.027313
0.021805
0.008133
0.044006
0.000481
0.017014
0.020950
-0.002419
0.013657
-0.028564
0.029037
0.035797
-0.014450
0.035431
0.015541
-0.003386
0.027328
-0.015381
-0.029282
0.038391
0.012955
-0.019318
-0.001020
-0.023254
0.045410
-0.024094
-0.021500
-0.023575
0.022690
-0.014580
-0.003777
-0.006798
-0.035980
0.026566
0.029556
-0.024460
0.020218
-0.020996
-0.028854
-0.011650
0.003304
-0.009354
-0.037140
0.018967
0.016357
0.010887
0.008972
0.004456
-0.000502
0.037323
0.003944
-0.016830
0.005806
0.028580
-0.015182
-0.029465
0.009987
0.037201
0.012566
-0.024094
-0.006565
-0.022049
0.016006
0.032837
0.021820
0.011719
0.026703
0.013016
-0.017532
-0.007301
0.017471
0.038452
0.024078
-0.022049
-0.008965
-0.002909
0.022446
-0.015320
-0.012192
0.029099
0.009979
-0.031464
0.047882
-0.014320
0.012985
0.026245
0.030701
0.034912
0.036804
0.023315
-0.004688
-0.030777
0.001066
-0.033722
-0.030090
-0.040192
0.018845
0.013924
0.003815
-0.010452
-0.029755
-0.001481
-0.008087
-0.017456
-0.011093
0.032867
0.010223
0.031830
-0.011330
0.024429
0.010651
-0.021622
-0.008392
-0.012199
0.007442
-0.054688
0.022263
-0.021378
-0.030014
0.005981
0.023621
0.004547
0.009506
-0.005371
0.052856
-0.023544
0.050354
0.030884
-0.003574
-0.046204
0.040924
-0.024918
0.043854
0.038422
-0.008141
-0.007053
-0.003614
-0.006779
0.029510
0.039185
-0.026047
-0.010040
-0.010536
0.020767
-0.002218
-0.017822
0.035980
-0.052917
-0.027176
0.006287
0.027954
0.012222
-0.009590
0.022552
-0.000484
0.050049
-0.034821
0.020065
0.038635
0.003284
0.030411
-0.001143
-0.010582
0.004204
-0.034943
0.016418
-0.033539
-0.051575
-0.017395
-0.028381
-0.033112
0.008728
-0.008141
0.028015
0.005005
0.020340
0.053375
-0.028305
-0.012718
0.017273
-0.012466
-0.014206
0.007172
-0.007587
0.035156
-0.027374
-0.010643
-0.009590
0.015915
0.012131
-0.004902
0.008270
0.051544
-0.032959
-0.023712
-0.000884
-0.001823
-0.039490
-0.026871
-0.008827
-0.049561
-0.035065
0.019836
0.021286
0.056183
-0.009766
-0.049866
0.017380
0.011902
0.029999
-0.016556
0.013283
0.014496
-0.001676
0.015167
0.015869
0.022995
0.019638
-0.018906
-0.021667
-0.006210
0.018753
0.022629
0.058777
-0.015282
0.018326
0.018845
-0.023315
0.005550
0.005772
-0.008209
-0.023758
-0.013695
0.000459
0.024109
-0.043365
-0.027130
-0.020142
-0.032043
0.011086
0.032898
0.020142
-0.015205
-0.009453
0.051819
0.006298
-0.034027
-0.033875
-0.008057
0.020065
-0.029663
0.037018
0.017838
-0.027054
-0.015961
-0.013588
-0.006287
0.019653
-0.001575
0.026794
0.045715
-0.025772
0.008087
-0.003033
0.021454
0.020050
-0.008430
0.009911
0.020615
0.006996
0.023102
0.017670
0.039062
-0.010651
-0.023132
-0.018433
-0.003588
0.017227
-0.035736
-0.011887
-0.008636
0.007545
-0.006008
-0.001704
-0.034027
0.040344
0.030533
0.008812
0.021957
-0.033142
0.020432
0.026550
0.029037
-0.032410
-0.016693
0.031433
0.011971
0.008179
-0.030518
-0.020187
0.020844
-0.008812
0.051147
-0.000051
-0.019791
-0.023224
-0.037964
-0.004726
0.012085
0.017502
0.016418
0.033142
0.021149
-0.007099
0.013634
0.018951
0.045959
-0.002083
0.036102
-0.002571
-0.022324
-0.033630
-0.019760
-0.006500
-0.000396
0.005001
-0.015495
-0.007095
0.040771
-0.034729
0.002003
0.007385
0.019211
-0.000365
0.026810
-0.050354
0.039429
-0.033020
0.015930
-0.024246
0.019592
0.002424
0.010651
-0.000630
0.030075
0.032288
0.011528
-0.010086
-0.033203
0.023483
-0.011612
0.031372
0.035126
-0.013138
-0.042847
-0.004040
-0.027420
-0.045319
0.032837
-0.000558
0.014854
0.010033
-0.033569
0.028580
0.015823
0.029099
-0.018204
-0.053986
-0.021423
-0.009628
0.024292
-0.044220
-0.053467
0.013306
-0.027863
0.004971
0.042633
-0.030731
0.016846
-0.010139
0.008957
-0.007271
-0.015930
-0.036713
0.015556
-0.006962
0.019318
-0.007072
0.001197
-0.040405
-0.000253
-0.047058
0.003864
0.035675
-0.000299
-0.025879
0.001194
-0.027679
-0.002462
-0.035065
-0.013367
-0.039032
-0.023590
0.014183
-0.038086
0.020844
0.006031
0.010735
0.019379
0.005657
0.019531
0.028381
-0.024780
-0.050507
-0.024857
-0.018951
0.017960
0.016602
0.012405
-0.012993
-0.035156
0.020981
0.010216
-0.005558
-0.007721
-0.000092
0.010117
0.000937
-0.014717
-0.008018
-0.030334
-0.011818
-0.006001
-0.020355
0.003075
-0.026443
0.005527
-0.042786
-0.009865
0.039062
0.022598
-0.026062
-0.033875
-0.006145
-0.028931
-0.029922
-0.019058
-0.047211
-0.026413
-0.023087
-0.045532
0.007523
-0.001798
0.055878
-0.055084
0.049622
-0.026810
0.023727
-0.030304
-0.006752
-0.011658
0.041809
-0.038635
0.030640
-0.059662
0.042175
-0.046997
0.031982
0.003048
0.030899
0.032959
-0.014618
-0.031372
-0.009789
0.017090
0.030746
-0.016449
-0.034119
-0.016968
0.018616
-0.046692
-0.017288
-0.005573
-0.024506
-0.018372
0.007236
0.018112
0.032104
0.065308
-0.051147
0.045288
-0.009216
-0.007778
-0.069824
0.017151
-0.010765
0.000733
0.043915
-0.051758
0.047180
-0.008797
0.083374
0.039795
0.018875
-0.067566
0.031250
0.019775
0.030426
-0.038422
-0.039734
-0.023407
0.063354
0.029205
0.037201
0.030426
0.016754
-0.036499
0.046967
0.024323
0.065735
0.016144
-0.024582
0.016937
0.029221
0.055084
0.011223
0.017471
0.038208
-0.065918
0.041473
-0.019943
0.003632
0.071350
0.027222
-0.038116
0.045044
-0.010864
-0.007076
0.025635
0.020645
0.040863
0.019211
-0.009918
0.049011
-0.006485
0.022522
-0.016907
0.022858
0.038391
0.015961
0.017319
-0.011635
0.015007
0.062500
-0.028976
0.038727
0.008194
0.001160
0.054565
0.021545
-0.058350
0.034882
-0.021988
-0.024826
0.002291
0.020187
0.054688
-0.067078
-0.032623
0.044464
0.076538
0.052948
-0.013100
0.002525
0.017838
0.000037
0.017792
0.014595
0.022720
0.010338
-0.049652
-0.025543
-0.018219
-0.030624
0.022156
-0.015854
0.058899
-0.000463
0.038696
0.058685
0.029800
0.045685
0.039276
-0.038483
0.058899
-0.008682
-0.022842
-0.036041
0.010948
0.035583
0.055573
0.045654
-0.002674
-0.062866
-0.021988
0.054169
0.015732
0.015251
0.000246
-0.017105
0.024704
-0.010078
0.041718
-0.017288
-0.043152
0.029007
-0.035980
0.029175
0.032257
0.013283
0.023270
-0.019272
-0.040527
-0.022995
-0.022583
-0.019516
-0.029129
-0.033203
0.024475
-0.033295
-0.001307
-0.025024
-0.006042
-0.028381
-0.035370
-0.044800
-0.006058
0.012650
-0.023682
0.015221
-0.029190
0.034515
-0.033844
0.032684
0.001127
0.027618
-0.026001
0.003853
-0.036499
0.042358
0.009155
-0.022354
-0.034973
-0.015221
0.008408
0.016556
0.026581
0.007114
-0.027908
-0.004192
-0.000585
-0.000915
0.019012
0.007545
-0.014336
0.015869
-0.020935
0.007618
-0.001648
0.011650
-0.017883
0.042999
0.017380
0.008797
0.012238
-0.036987
-0.020905
0.008942
-0.015747
-0.021362
-0.033325
0.018234
0.028351
0.029480
-0.020218
0.000986
-0.015022
-0.023575
-0.006756
-0.004631
0.029343
0.016907
0.006390
-0.003744
0.016281
0.048828
0.019867
-0.007248
-0.019608
0.024551
0.041260
0.013046
-0.006981
-0.001065
-0.037231
0.014305
0.023071
0.026291
0.018921
-0.025955
0.007973
-0.064697
0.021317
0.010742
-0.009079
-0.005684
0.017838
0.021011
-0.024460
0.002253
0.027832
-0.027512
0.030243
-0.002151
0.002560
0.033539
0.002766
0.006054
-0.011124
-0.020706
-0.012054
-0.000112
-0.015701
-0.030182
0.031372
-0.002382
0.020691
0.016556
0.018799
0.000435
0.039459
-0.008232
-0.028488
0.007439
0.006897
-0.006397
-0.017746
0.012268
0.026260
-0.018707
-0.010780
0.000843
-0.036072
0.022186
0.017563
0.010689
-0.008835
0.007252
0.016541
-0.035583
-0.032898
-0.002363
0.001727
0.026642
-0.001822
0.025345
-0.031860
0.027374
0.041962
0.008980
-0.003405
-0.010986
-0.040314
-0.014244
0.027588
-0.005665
0.019165
0.009743
-0.013184
0.014610
0.015465
-0.032806
0.044739
0.007751
-0.005959
0.030441
-0.028244
0.002123
0.022247
-0.001887
0.037140
0.017868
-0.002228
-0.031342
-0.016647
-0.037689
0.034241
0.004543
-0.012444
0.029541
-0.028839
0.011185
-0.035034
0.002184
-0.006252
-0.031677
-0.037567
0.000408
0.028976
0.004089
0.016602
0.070862
-0.013069
0.009796
0.003492
0.044037
-0.030563
-0.032318
0.008369
0.020508
-0.000519
-0.010765
0.020599
-0.037781
-0.018570
0.016800
0.041107
0.026947
-0.031494
-0.001129
-0.024689
-0.022812
0.045441
-0.019653
0.009445
0.005138
-0.011368
0.018265
0.024109
-0.050690
0.009903
-0.032379
0.013496
0.012779
-0.005283
-0.015854
0.027908
-0.001318
0.002691
-0.030457
-0.036163
0.022888
0.029724
-0.020081
-0.004055
0.013680
-0.020599
0.000885
0.003067
-0.017975
-0.036133
0.011299
0.026031
0.011261
0.004711
-0.032074
-0.029495
0.032532
0.017700
0.039398
-0.015327
-0.011490
-0.017105
0.041168
-0.021561
-0.018295
-0.042908
-0.002478
0.011459
0.013145
0.020935
-0.038391
0.024078
-0.046967
0.013245
-0.043701
-0.018082
-0.021439
-0.030029
0.007076
-0.039459
-0.040405
0.022400
0.030975
-0.009300
0.000635
-0.035248
-0.031113
0.036865
0.021179
0.026291
-0.012100
-0.012062
-0.026581
0.012474
0.011421
-0.020462
0.027008
-0.017548
-0.007050
0.003389
0.023773
0.019867
-0.027313
-0.018280
-0.036682
-0.038330
-0.003515
-0.022461
-0.023972
0.017380
0.002659
-0.043518
-0.026138
-0.019180
-0.005848
0.039001
-0.004128
-0.005310
-0.026978
0.003704
-0.025970
0.005535
0.030624
-0.021820
-0.035919
0.000509
0.011063
0.026886
-0.025192
-0.006588
-0.022308
-0.041443
0.004196
0.044312
0.021408
0.037476
0.043976
0.041077
-0.030640
0.021606
0.033752
-0.007622
0.034393
-0.037689
-0.030823
0.002377
0.020935
-0.020157
0.011673
-0.003645
-0.005039
-0.015457
0.000070
-0.012482
-0.031097
0.022461
0.015060
-0.034393
-0.007919
0.027603
-0.027954
-0.015564
0.009254
-0.010361
0.023254
0.001202
-0.018784
-0.027451
0.020309
-0.014633
0.003223
0.014420
-0.024429
0.013809
-0.034149
0.027435
0.011368
-0.018463
-0.023285
0.001006
0.007153
-0.015053
0.000557
0.021469
0.020798
0.023560
0.017502
0.006798
-0.015526
0.031342
0.017914
0.007126
0.035217
-0.003885
0.001063
0.013748
0.026596
-0.013664
0.029434
0.036957
0.029495
-0.005161
0.006176
0.013237
-0.038788
-0.018143
-0.025208
0.005222
-0.017090
-0.002579
0.012566
0.011589
-0.008545
-0.015701
0.002016
-0.032898
-0.022751
-0.012306
-0.024384
-0.009315
-0.009384
0.023102
0.003313
0.024857
-0.012695
-0.037567
-0.035278
-0.002649
0.010475
0.039520
-0.015533
0.020325
-0.015045
0.027863
-0.012169
0.026230
-0.010101
0.027710
0.032074
0.011345
-0.010475
0.038696
0.027710
-0.015358
0.012184
-0.036804
-0.019394
0.011192
-0.012558
0.005085
0.011749
-0.033325
0.032440
-0.017242
-0.001024
0.041199
0.036743
0.010445
-0.022476
0.006435
0.003134
-0.033386
0.018890
-0.021606
0.023544
-0.018707
0.038025
0.031158
0.019928
0.001707
0.017639
-0.007496
-0.018250
0.020584
0.029938
-0.028519
-0.009827
0.023224
0.002106
-0.003281
0.019165
-0.041138
0.024261
-0.021545
0.015442
-0.001831
0.017105
0.031860
0.030014
0.005047
0.000122
0.016617
0.010902
0.026276
-0.013168
-0.020798
-0.037292
-0.009079
-0.006657
0.020523
0.015022
0.027435
-0.030670
0.008438
-0.030167
0.028244
0.001663
0.018982
0.000197
-0.025864
0.001623
-0.017929
-0.038544
0.039124
-0.026337
-0.000738
0.000133
0.014671
-0.017792
0.010941
0.004929
-0.004311
-0.055084
0.000329
-0.060608
0.010963
0.009628
-0.010033
0.018539
0.001314
0.006657
-0.016891
0.066833
0.023804
0.027451
0.015686
0.034729
-0.021851
-0.005589
0.016190
-0.006413
-0.022720
0.047424
-0.022934
-0.017288
0.018066
-0.017303
0.006519
-0.004173
0.035370
0.032288
0.019699
-0.019363
0.002228
-0.026245
0.046234
0.029068
0.010078
-0.009621
-0.002636
0.037170
0.045197
0.023010
0.031769
-0.054291
-0.003429
-0.011734
0.007298
-0.005695
0.033386
-0.055878
-0.007153
0.014488
0.029175
0.036194
-0.008278
-0.034454
-0.009972
0.058960
-0.030060
-0.031235
0.017532
-0.025696
0.031082
-0.000234
0.025177
0.017197
-0.016266
-0.069702
-0.054382
0.015671
0.012558
0.005608
0.007614
0.031494
-0.013741
-0.044281
0.022949
-0.013863
0.008110
-0.001004
-0.005157
0.017197
-0.006802
0.020599
-0.008812
-0.018326
0.003515
-0.040466
-0.013916
0.007790
-0.012825
-0.018982
-0.002726
-0.020706
0.018646
0.038452
0.028839
0.027161
0.006054
0.023026
-0.019531
0.026657
-0.002508
0.006554
-0.032623
-0.046417
0.009346
-0.043518
0.024704
-0.036530
-0.021774
-0.040161
-0.002895
-0.049408
-0.074829
-0.004452
0.013504
-0.006039
-0.034058
0.009048
-0.003340
-0.027588
0.006153
0.012962
0.023880
-0.008461
0.010246
-0.010834
0.029739
-0.003094
-0.008263
-0.031250
0.008690
0.025925
0.034668
-0.028381
0.032043
-0.022644
-0.029449
0.033936
0.008560
-0.015930
-0.021622
0.003143
0.018661
0.024582
-0.015495
0.005020
0.011215
0.017654
0.005623
0.025864
-0.025238
0.020889
0.018295
0.039368
0.007957
0.034088
0.029053
0.030212
0.033997
-0.033142
-0.015526
0.028473
0.002775
0.018616
0.026154
-0.010429
-0.005051
-0.011192
0.030090
-0.010963
-0.023727
0.010735
0.018982
0.030212
-0.031204
0.020279
0.032867
0.002573
-0.013863
-0.028885
-0.021011
-0.002844
-0.012230
0.011955
-0.022491
0.013550
0.030731
0.003817
-0.002115
-0.014442
-0.018906
-0.010773
0.001658
-0.018433
0.009125
-0.023010
0.009773
-0.031616
-0.009583
-0.006203
0.030243
-0.012642
0.024994
-0.006008
-0.009918
-0.004612
-0.002203
0.030014
-0.021896
-0.024628
0.033478
-0.028122
-0.011475
0.005619
-0.014992
0.000317
0.003168
0.020996
0.010574
-0.030228
0.008614
-0.021332
-0.015106
-0.012810
-0.029404
-0.020691
0.022385
-0.019760
0.025772
0.018677
-0.006004
0.005737
-0.029510
-0.003088
0.020157
0.023239
0.012718
-0.026337
-0.004883
-0.021820
0.033264
0.013977
-0.025818
0.015411
0.023682
0.021103
0.036072
-0.008934
-0.014809
0.002138
0.024292
-0.021469
0.027573
-0.030014
0.009010
-0.021393
-0.021545
0.006676
0.014870
-0.010231
0.000525
0.026917
-0.011848
-0.002928
0.028580
-0.009438
0.002615
0.015381
0.003181
0.030777
-0.029785
-0.016739
-0.018753
-0.014381
-0.010414
0.002441
-0.030624
-0.017944
-0.014816
0.009743
-0.003500
0.037109
-0.007774
0.016510
0.036224
0.010544
-0.007046
-0.028946
-0.001932
0.021515
-0.006264
0.033905
-0.002638
-0.030045
0.026688
-0.025940
-0.019638
0.030319
0.005203
-0.009132
0.011208
-0.021225
0.025314
0.019928
0.031738
-0.010010
-0.004654
0.005577
0.021072
0.034882
-0.030426
0.029953
-0.015701
0.027405
-0.026337
0.019989
-0.018600
-0.013924
-0.026489
0.010239
0.004688
0.021484
0.008972
0.025299
-0.018143
0.017853
0.013084
0.006424
0.011208
-0.022278
0.028519
-0.017807
0.032196
0.003876
-0.014435
-0.006443
0.017105
0.013199
0.032043
0.030533
0.022629
-0.018936
-0.013184
-0.023209
0.012100
0.018799
-0.010620
0.030670
0.030411
-0.012764
-0.002335
-0.016830
0.026596
0.017670
0.028656
0.023544
-0.017029
0.018890
-0.029221
-0.019562
0.015076
0.033905
0.030060
0.029175
0.008591
0.008247
0.028275
0.009613
-0.036133
-0.002155
0.034332
0.011024
0.005329
0.020416
-0.002060
0.037384
0.032104
-0.000462
-0.033813
0.043549
0.006149
-0.046417
-0.008453
-0.012444
0.025482
0.011650
0.022293
0.026810
0.007889
-0.004627
0.004250
-0.022095
0.001067
-0.014603
-0.020218
-0.020096
0.007198
0.019394
0.007446
0.023972
-0.007408
-0.018417
0.035431
0.015793
-0.034637
0.024048
0.033813
0.044708
-0.001938
0.009552
0.003597
0.005207
-0.000877
0.005203
-0.016739
0.039368
0.026108
-0.006172
-0.030609
-0.003023
-0.040741
0.017212
0.029831
0.021240
-0.054047
0.020050
0.019852
-0.041992
0.022461
0.010956
-0.018875
0.018677
0.011978
-0.026932
0.017883
-0.016144
0.034546
-0.020966
0.044495
0.018280
0.013969
0.011772
-0.002497
0.033569
0.003447
0.005398
-0.001540
-0.000348
0.011009
0.005894
0.041046
-0.011528
-0.001645
-0.010727
0.011818
0.008873
-0.025558
0.032471
0.022034
-0.022049
-0.007195
0.002558
0.016754
0.013283
-0.017715
0.027069
-0.001703
-0.015160
0.000110
0.035583
0.000772
0.006645
0.031403
0.031555
-0.010231
-0.032928
0.024765
-0.035004
0.011703
0.018829
-0.026627
-0.001065
0.019180
-0.030807
0.039948
0.012871
0.020309
0.019302
-0.024490
0.015625
-0.025009
0.018112
-0.019684
0.001668
0.003481
-0.029404
0.031860
-0.006840
0.001274
-0.000542
0.040710
0.026901
0.000173
-0.010551
-0.031860
-0.017975
0.020905
-0.007313
0.015518
-0.014641
0.007202
0.004890
-0.001648
-0.001234
0.008888
-0.001024
0.009666
-0.027481
-0.015190
-0.011978
-0.017502
-0.026672
-0.005142
0.025604
-0.006237
-0.030396
-0.003956
0.007904
-0.025574
0.009567
-0.003277
0.004047
-0.018600
0.008163
-0.041534
-0.015656
0.003117
0.002270
-0.012718
0.025421
-0.006790
0.020081
0.006142
-0.023407
0.000136
-0.005260
-0.001814
-0.018829
0.017685
-0.006977
0.022598
-0.009026
0.033752
-0.024307
-0.015511
0.027847
0.010994
-0.029510
0.011665
0.007702
-0.019394
0.015076
-0.005295
0.038147
0.008904
-0.014420
0.010345
-0.007126
0.007771
0.029236
0.001809
0.035400
-0.024796
0.022232
-0.023712
-0.001760
0.027039
0.025803
0.026382
-0.019226
-0.021454
0.019791
-0.037781
0.014503
-0.007050
0.037384
-0.023712
-0.025345
-0.014992
-0.017502
0.016434
-0.032196
-0.013008
-0.001213
-0.019455
0.006958
0.009392
-0.008316
-0.029907
-0.006580
-0.024216
0.006638
0.008781
-0.015099
0.027603
0.037872
-0.015007
0.012703
0.036011
0.011635
0.011925
0.028580
-0.017487
-0.033356
0.012177
0.024063
-0.021698
-0.032074
0.004803
0.005108
0.019562
0.033478
0.026154
0.023544
0.004978
0.019821
0.013428
-0.010521
0.002100
0.013336
0.031097
0.037781
-0.025726
0.006199
0.029846
-0.001030
-0.012329
0.015457
0.028580
0.023987
0.022049
0.035645
0.010765
-0.013519
0.014496
-0.018021
0.028595
-0.009033
0.000899
0.002808
-0.019028
0.019775
-0.028824
0.020844
0.013367
-0.019028
-0.030151
-0.018661
0.001851
-0.010941
0.031097
0.014122
-0.037476
0.026703
0.024521
0.037323
-0.003292
-0.005409
0.012413
0.031006
0.008797
-0.008102
0.030731
-0.025467
0.014297
-0.018509
-0.010590
-0.019119
0.023026
-0.029861
0.001576
-0.000322
-0.028687
0.033112
0.037018
0.002758
-0.011360
0.029236
-0.000988
-0.024551
-0.035919
0.005718
0.000395
0.014389
0.006641
0.017075
-0.006474
0.024597
-0.020309
-0.009026
0.003477
0.026794
0.009956
-0.032562
0.021469
0.027527
0.007214
0.011551
-0.013443
-0.004402
0.020798
-0.018341
0.003029
-0.004257
-0.039459
0.013542
-0.003447
0.014236
-0.013130
-0.005684
-0.037201
-0.002831
-0.013245
-0.024139
0.002230
0.019119
-0.015205
-0.007313
-0.025162
-0.008858
-0.022781
-0.012367
-0.029251
0.019516
0.002779
-0.024002
0.035034
0.035614
0.033295
-0.031799
-0.011848
0.006691
0.004211
0.025208
0.036560
0.031311
0.009560
-0.015762
0.033936
-0.011940
-0.001518
-0.019653
-0.028366
-0.025787
0.031052
-0.006371
0.030869
0.019455
0.036102
0.024796
0.000179
0.041168
0.021744
-0.020218
0.032776
-0.034210
-0.003702
0.006210
-0.015198
-0.023468
-0.031860
-0.039307
-0.015213
0.009422
-0.000028
0.035858
-0.041626
0.024429
0.023621
-0.007122
0.034241
-0.016113
-0.027985
-0.033905
0.012276
-0.037659
-0.007648
0.016556
0.002878
-0.003254
0.005878
-0.015099
0.027100
0.014931
-0.023758
0.026474
-0.024078
0.028152
0.013115
-0.007126
-0.016693
-0.019363
0.008331
0.029449
0.001168
-0.007805
0.017426
0.026398
-0.030365
-0.025848
0.013268
-0.006622
0.003744
0.012955
0.017319
-0.048279
0.017838
-0.020233
0.025604
0.021774
-0.013397
-0.002493
0.003744
-0.005180
0.006474
0.021072
-0.000236
0.022385
-0.020584
-0.017105
-0.004066
0.019821
0.019897
-0.013992
-0.031982
-0.014587
-0.010910
-0.011368
-0.009026
0.014557
-0.012497
0.002621
-0.011566
-0.004925
0.039673
-0.031647
-0.011497
-0.005768
0.016083
0.014435
-0.000428
0.038605
0.015991
0.018433
0.008804
0.008217
0.026062
0.004635
0.028976
0.012894
-0.007622
0.025864
-0.013771
-0.009811
-0.006104
0.036865
0.034790
0.005611
0.008766
0.011688
-0.031311
-0.042999
-0.005726
0.025528
-0.010521
0.025879
-0.004631
0.025528
0.002064
0.006435
-0.000311
-0.028763
-0.000365
-0.001533
0.016022
0.007812
0.039551
0.033142
0.015701
-0.040192
-0.035034
-0.020432
-0.047089
-0.001282
-0.022659
0.020279
-0.018326
-0.004768
-0.039093
0.023422
0.049835
0.005627
-0.009552
-0.003307
-0.017838
0.011070
-0.000152
0.015305
-0.004154
0.019180
0.027237
-0.028519
0.038025
-0.023468
0.006336
0.003452
0.020020
-0.006138
-0.018066
-0.012474
-0.020859
-0.027145
0.028732
-0.005367
-0.013908
0.034668
-0.030106
0.026886
-0.023865
0.003637
0.012360
-0.040375
-0.014717
-0.010132
0.008530
0.007225
0.002522
0.001310
-0.016602
-0.025253
-0.016556
0.004341
-0.017395
-0.011719
-0.002970
-0.001331
0.025116
-0.015671
0.018951
-0.018372
-0.018158
0.028214
-0.015022
-0.021133
0.025223
-0.007881
-0.013931
0.014206
-0.011436
0.020691
0.014984
0.001451
0.025360
0.010277
0.012070
0.032104
0.025696
0.019333
-0.025681
0.010025
0.038483
0.032043
-0.043213
-0.014374
-0.001399
0.019058
-0.049622
0.018356
-0.005421
0.007111
-0.036865
-0.008553
-0.018402
-0.012207
0.009628
0.030807
-0.035187
-0.006596
0.015335
-0.032776
-0.013733
0.005859
-0.005886
-0.010658
0.004227
0.024963
-0.016006
-0.029694
0.012215
-0.015434
0.000959
-0.009575
0.018494
0.023788
-0.033173
0.018631
0.001146
-0.029907
0.013908
-0.009964
-0.035156
-0.032349
0.002731
0.022324
-0.008354
0.021240
-0.033325
0.034241
-0.019073
-0.032043
0.020889
0.002016
-0.022461
0.016617
-0.006416
0.006081
0.033386
0.020798
-0.015152
0.023834
-0.011940
0.000638
-0.030777
0.018707
-0.007717
0.002117
-0.013794
0.019592
0.020325
-0.031342
-0.006321
0.024078
0.002729
0.014236
-0.029129
0.027100
-0.030701
0.018982
-0.017090
0.024826
0.018707
-0.009621
-0.012199
0.015015
-0.027557
0.020844
-0.018524
-0.010124
-0.002073
-0.001375
0.005001
0.035919
-0.012505
0.005596
0.012093
0.041168
-0.023499
-0.017090
-0.022934
-0.031403
0.012939
0.017899
-0.029388
-0.026459
-0.027969
-0.018082
0.017990
-0.026352
0.021057
0.011375
0.012367
0.027023
-0.008278
-0.005810
0.017746
0.016266
0.029312
-0.005329
0.034576
-0.029083
0.021622
0.034485
0.025284
-0.028992
0.028870
0.004200
-0.033356
0.028290
-0.028961
0.023361
0.017151
0.034149
0.014603
0.035370
0.014580
-0.009125
-0.015884
-0.010353
0.039551
0.028061
-0.022873
-0.000828
-0.003136
-0.015373
-0.027908
-0.023056
0.040619
0.025711
-0.008720
-0.001766
-0.018188
-0.015205
0.005222
0.021744
0.013046
-0.030136
0.009277
0.031204
0.027283
0.026352
-0.030884
0.008255
0.001661
0.023758
0.004829
0.003403
0.032166
-0.036682
-0.027206
-0.012131
0.012299
0.005135
0.016800
-0.028839
-0.012077
0.027008
-0.014641
0.029465
-0.009163
-0.038025
0.009109
-0.004848
-0.006134
0.009903
-0.027710
-0.035370
-0.036163
0.045074
0.009697
0.024170
-0.018799
0.011154
0.020905
0.012901
-0.020081
-0.027725
0.003777
-0.009361
0.019669
0.026382
-0.021225
-0.026016
-0.011055
-0.016632
0.021774
-0.015274
0.021744
0.016037
-0.012932
-0.032166
-0.013672
-0.029053
0.031174
0.033356
0.024521
-0.008469
0.001082
0.028473
-0.013702
-0.005257
0.013542
-0.003595
-0.009872
0.008690
-0.007828
0.016769
0.026810
0.006580
-0.007812
-0.028137
-0.022827
-0.002441
-0.001388
-0.014153
0.013611
0.010582
-0.002775
-0.025772
0.013718
-0.002337
0.009277
-0.031128
0.004150
-0.007980
-0.012138
-0.012283
0.017319
-0.023651
-0.005947
0.009583
0.001120
0.008278
-0.021133
0.005775
0.014130
0.015129
-0.050476
-0.004257
0.007328
-0.018250
-0.007904
-0.022690
0.030258
0.012161
0.010178
0.030869
0.033356
-0.000020
-0.010971
-0.004486
0.029785
-0.028214
0.043915
-0.018173
-0.029755
0.064819
0.003283
-0.023087
0.037598
0.038788
0.005810
-0.029739
-0.034241
0.019302
-0.029465
0.017914
-0.018051
-0.006599
0.024948
-0.005322
0.029999
-0.004681
0.037292
0.045990
-0.011803
-0.026215
-0.003527
0.041565
0.049896
-0.008400
0.039185
0.042755
-0.019730
0.010429
0.024124
-0.009499
0.003395
0.003925
0.027466
0.006691
0.007973
0.011841
-0.011787
-0.003929
0.013268
0.028275
-0.025391
-0.035156
0.009750
0.015427
-0.010307
0.010483
0.012039
-0.012306
0.018738
0.033478
0.027328
-0.028961
-0.033020
0.006149
0.015205
-0.018234
0.006149
0.014999
-0.000414
-0.029907
0.030548
0.002417
-0.027206
-0.040070
-0.033081
-0.027344
0.014229
-0.031708
0.028458
-0.016434
-0.019638
0.025848
0.016678
0.004902
-0.010010
-0.027588
0.018539
-0.028671
0.000416
-0.000911
0.000401
0.021927
0.001103
-0.007069
0.037720
0.002625
-0.008949
0.017960
-0.018097
-0.017532
0.006454
-0.019348
0.028229
-0.014214
0.008652
-0.011559
0.010345
0.034637
0.001427
0.016159
0.013496
-0.010368
-0.016968
0.030975
0.040436
-0.030869
0.000889
0.012550
0.019638
-0.019135
0.013969
0.026260
0.014771
-0.004711
-0.018829
-0.030136
-0.025116
-0.014885
0.016632
-0.022186
0.025055
-0.031555
-0.045715
-0.006496
-0.023865
0.002682
0.017761
-0.024780
0.041199
-0.025726
0.009743
-0.019882
0.045898
0.020370
-0.018829
-0.040588
0.014572
-0.014198
-0.002096
-0.021210
0.022552
-0.038696
-0.028229
0.001256
-0.007244
-0.034027
-0.004982
0.030716
0.004642
-0.030899
-0.006306
-0.042511
0.021652
-0.018539
-0.013428
0.023788
-0.035492
0.014107
0.032928
-0.033722
-0.011070
0.029373
-0.017059
-0.001425
0.028458
0.022278
-0.031769
0.015884
0.025864
-0.036987
-0.009178
-0.037933
-0.010193
0.025833
-0.000216
0.012093
0.028275
-0.004345
0.019958
-0.014580
-0.027222
-0.032532
-0.008354
-0.010574
-0.014275
-0.004883
0.011887
-0.000073
0.015541
0.024399
-0.034515
0.030106
-0.019424
-0.011017
-0.027512
-0.007427
0.005295
0.035339
0.030411
-0.013878
0.025620
-0.032654
-0.020081
-0.021667
-0.011803
-0.013596
-0.012497
0.021393
0.006069
0.005508
-0.042969
0.032410
-0.013931
0.002718
0.040680
-0.021866
0.031677
0.014671
-0.006519
0.025009
0.028870
0.006203
0.006531
-0.020828
-0.032379
-0.035980
0.000930
-0.007927
0.006222
-0.010757
-0.037689
0.007687
-0.004501
0.026627
0.017487
-0.004868
0.039520
0.022278
0.016266
-0.030350
-0.014839
0.025772
0.005405
-0.006969
0.008995
-0.008286
-0.011787
0.016617
0.002724
-0.004490
-0.029373
0.026306
-0.009254
-0.026199
0.023697
0.030731
0.005363
-0.030167
-0.008759
0.028549
0.011673
-0.032379
-0.000394
-0.000431
0.000009
0.024277
-0.028809
0.034607
0.013405
0.008072
0.019501
0.031189
0.015930
0.035156
0.001088
-0.001243
0.036896
0.013641
0.019821
-0.008064
0.027847
-0.004864
-0.013840
-0.001467
0.021561
-0.028625
0.013062
0.011612
0.036713
-0.056610
0.025131
-0.018661
-0.033569
0.043396
0.000802
-0.018417
-0.028763
0.002998
0.022980
0.043396
-0.005180
0.011726
-0.011185
0.038208
-0.014023
0.023438
-0.015244
0.031525
-0.030258
-0.008301
0.033203
0.027481
-0.035309
-0.003859
-0.027786
0.044952
0.031616
0.032654
-0.034088
-0.019760
-0.048309
-0.016205
0.022781
-0.019226
0.011101
0.028000
-0.023453
-0.035004
0.015808
-0.021469
0.036926
-0.008820
0.014610
-0.000428
-0.020630
-0.016876
-0.006664
0.015327
0.034241
-0.012871
-0.004711
0.033386
-0.046448
0.021713
-0.022018
-0.007427
0.004684
-0.012878
-0.026169
0.032990
0.037994
0.016678
0.024200
-0.016525
0.019806
0.010033
0.005093
-0.017975
0.029755
0.063843
0.031708
0.020172
-0.015320
-0.021591
0.045288
-0.024796
0.025986
0.008804
0.001014
0.049622
0.014297
-0.014221
-0.009560
-0.030457
-0.027344
0.002323
-0.025543
-0.020798
-0.020187
-0.041473
0.027145
0.020432
0.025879
0.024902
-0.021561
-0.017029
0.031113
-0.037018
0.005070
-0.008339
-0.004547
-0.016541
-0.026459
-0.006775
-0.026794
-0.034149
-0.024719
0.007198
-0.015366
-0.010941
-0.012566
-0.005077
-0.010033
-0.025299
-0.000158
-0.018433
-0.037079
-0.029541
-0.001451
0.002672
-0.001616
-0.005798
0.013390
-0.016418
-0.024460
0.035919
-0.039917
0.018448
-0.011528
0.015244
0.019562
-0.015068
-0.021851
0.014328
0.025253
-0.004940
0.001100
-0.010696
0.024414
0.014870
-0.004620
0.018143
0.019119
0.014069
0.023636
-0.021103
-0.000943
0.033966
-0.011963
-0.000509
0.024780
-0.009209
0.003302
0.034027
0.015511
-0.001009
-0.024933
-0.002584
-0.002207
-0.005234
-0.005962
-0.015656
-0.024277
-0.023697
0.018890
-0.005375
0.011414
0.023743
0.031982
-0.036102
-0.030914
0.002823
0.007286
-0.001852
-0.039886
-0.021027
0.000075
-0.014709
0.005695
0.002607
0.002558
-0.031616
0.020187
0.010864
-0.011787
-0.023331
0.017563
0.021194
0.016342
-0.025742
-0.037170
0.007607
-0.013313
-0.000283
0.036713
0.032776
-0.026825
0.016815
0.029266
-0.008179
-0.001809
0.024628
0.013710
-0.030670
-0.011955
-0.014595
0.025543
-0.025558
0.020767
0.004467
-0.016693
-0.037537
-0.033600
0.004173
0.030960
-0.016220
-0.024887
0.035980
-0.016510
0.025406
-0.037445
-0.032318
0.037872
-0.008797
-0.021011
-0.019241
-0.021362
0.027100
-0.034119
0.010521
-0.010635
0.027176
0.003403
-0.034576
-0.005360
-0.006813
-0.046082
0.001375
0.010536
-0.012138
0.019485
0.027618
0.001928
-0.008629
-0.017212
0.010063
0.027328
0.016190
-0.030518
-0.005581
0.010262
-0.021591
-0.004509
0.003023
-0.021347
0.008270
0.037750
-0.032501
0.022903
-0.007397
0.031708
-0.010872
0.030945
0.013756
-0.031952
-0.013611
0.030411
-0.007381
0.010742
0.003338
0.032410
0.041443
-0.015228
0.003408
-0.011093
0.026703
-0.014076
-0.003576
0.020462
-0.030960
-0.015205
0.012161
0.012444
0.033630
0.009163
-0.014961
0.009392
0.036499
-0.011215
0.019867
-0.000420
0.025208
0.013138
-0.017136
0.019897
0.017090
-0.002342
0.036926
-0.002413
-0.032471
-0.031250
0.029449
0.008949
-0.001741
0.027954
0.013573
0.034576
-0.003418
-0.008537
-0.002123
0.018677
0.027496
-0.006706
-0.007587
0.018265
0.009888
0.026062
-0.014183
-0.036072
0.018158
0.004494
0.000550
-0.012589
-0.008743
-0.032867
-0.004627
0.027832
0.025452
0.005863
0.004807
-0.009148
-0.014832
0.016861
-0.020935
-0.008293
0.038208
-0.017151
0.008942
-0.005661
0.005245
-0.007626
-0.009438
-0.010719
-0.026871
-0.011864
-0.039703
0.020752
-0.004978
-0.014732
-0.014648
-0.009102
-0.001098
-0.003986
0.002897
-0.030823
-0.037537
-0.006493
0.017700
-0.001306
-0.017776
0.034973
0.027100
0.018646
-0.007153
0.012177
0.012985
0.013435
0.026138
0.004314
-0.007973
-0.017868
0.031250
-0.009216
0.008247
0.020386
-0.011528
0.003494
-0.005451
0.017258
0.001584
0.020569
0.055115
0.038635
-0.013092
0.025665
-0.012482
-0.041351
0.028854
-0.033051
0.023605
-0.045776
0.017807
-0.013451
0.009026
-0.018082
0.004894
0.001409
0.014473
-0.058014
-0.076965
-0.017212
0.055298
0.008804
0.011726
0.008202
-0.016693
-0.020233
0.022888
0.000629
0.000401
-0.012810
-0.006596
-0.024811
-0.006935
-0.026138
-0.050751
0.030380
0.038116
0.001908
-0.014984
-0.004223
0.043274
0.051086
0.013725
-0.008018
-0.013832
-0.008575
0.026917
-0.010269
-0.030441
0.013893
0.012680
0.020660
-0.017044
-0.013100
-0.008224
-0.055084
0.064087
0.020401
-0.001516
-0.009384
0.003281
0.057983
-0.019043
-0.004894
0.052368
-0.029999
0.012177
0.022995
-0.016739
-0.038666
0.014290
0.023026
0.014030
0.005680
0.016327
-0.017746
-0.095093
-0.035614
-0.001899
0.006119
0.004829
-0.065186
-0.010979
0.029343
0.025131
-0.011063
-0.019363
-0.000220
0.020233
0.008171
0.015442
-0.003283
-0.013763
-0.004395
-0.004425
0.021042
-0.019379
-0.002121
0.023361
0.028961
0.029938
-0.004852
0.030121
0.031250
-0.017502
0.026031
-0.052307
0.051178
0.013855
-0.027466
-0.046234
0.018143
-0.010681
0.027130
-0.008087
-0.047485
0.043274
-0.008812
0.011055
0.023972
-0.054169
-0.009674
0.036713
0.012733
0.027023
0.004768
0.061340
-0.006111
-0.025848
0.050812
0.046570
0.029221
0.083313
-0.018860
0.050049
-0.047668
0.035828
-0.000085
-0.010658
0.030212
-0.033691
-0.080994
0.007614
-0.000407
0.009651
-0.009048
-0.024536
-0.040588
0.068298
0.039673
0.068787
0.016357
-0.018738
-0.086365
0.048309
0.033936
0.008392
-0.000963
-0.089111
0.035675
0.017761
0.012733
0.012978
0.005634
0.103149
-0.009354
-0.010284
-0.011269
0.061768
0.064636
0.033661
-0.005474
0.066589
0.015640
-0.039124
0.035858
-0.012444
-0.003181
0.030670
0.024887
0.038483
-0.098389
0.040527
0.046051
0.061188
0.009071
-0.040680
0.057861
0.025192
0.063660
0.032013
-0.094666
0.064636
0.059998
0.001496
-0.012543
0.036011
0.009811
-0.008614
-0.002514
-0.020035
-0.011299
0.041687
0.025467
-0.043732
-0.016617
0.087402
0.062286
0.062622
0.041718
0.057739
0.021973
0.025986
0.046692
0.043610
0.051941
0.080383
0.007671
-0.028763
0.044983
-0.065491
-0.007401
-0.072571
0.101440
0.035095
0.016876
-0.045898
0.057251
0.002592
0.062256
-0.019211
0.050262
-0.054260
-0.047272
0.025681
0.001771
0.043030
0.074829
0.023132
0.055695
0.004360
-0.042267
0.049774
0.020126
0.025909
-0.012985
0.005722
-0.020767
0.050171
-0.082397
0.027588
0.009506
0.011398
-0.013557
0.009659
-0.006176
-0.005913
0.026535
-0.037659
0.001072
-0.026428
-0.033905
-0.002472
-0.007027
0.032593
-0.017761
-0.021790
-0.018921
-0.006618
-0.037445
0.009895
-0.027374
0.018295
0.017960
-0.013145
0.019135
0.035919
-0.010155
0.015762
0.003910
0.007011
0.016510
-0.017059
0.034760
0.041046
-0.012375
0.032593
0.038635
-0.027359
0.030945
0.010033
-0.025574
-0.015617
-0.006790
0.017151
-0.012016
-0.015533
0.031281
0.022812
0.006065
0.026062
-0.007492
-0.027130
0.028732
0.011147
-0.032532
-0.028458
-0.026184
-0.024277
0.026581
-0.029633
-0.013557
0.009254
-0.020401
-0.006458
-0.012321
-0.029037
0.014359
0.037537
0.016724
0.008850
-0.027328
-0.006664
-0.019348
-0.025269
0.026749
0.019852
0.018661
-0.020462
0.004650
-0.013191
-0.020966
-0.012405
-0.007179
-0.023926
0.023193
0.012711
0.000317
0.007744
-0.006729
0.021500
0.030106
0.020905
-0.027908
-0.003599
0.012245
0.028900
0.010231
-0.031158
0.006847
-0.008018
0.031372
-0.004166
-0.002237
0.007404
-0.011932
0.001597
0.011276
-0.028076
-0.016251
0.020721
-0.023453
-0.033356
-0.011017
-0.022964
-0.029587
-0.003283
-0.025757
0.008705
0.026306
-0.010475
0.006767
0.031052
0.034393
0.025589
-0.012154
0.002470
-0.005783
0.027298
0.040466
-0.017715
-0.002792
0.014755
-0.008156
0.029114
-0.027847
-0.031830
0.008667
-0.019913
-0.003649
0.028641
-0.018723
-0.022842
-0.010681
0.030746
-0.019424
0.028305
0.042542
0.004448
-0.032562
-0.021133
-0.031464
-0.020111
0.035522
0.022018
0.021271
0.030487
0.028320
-0.024246
0.010574
0.027695
-0.033295
0.012947
0.008408
0.002893
0.038635
-0.007149
0.015617
0.015793
-0.024490
-0.030273
-0.019440
-0.010498
0.017776
-0.013054
0.014412
0.020309
0.047333
-0.011528
-0.032532
0.034546
-0.011734
-0.013939
-0.033813
-0.032928
0.010445
0.024567
-0.013336
0.028717
0.009392
0.001600
-0.042114
-0.011292
0.009605
-0.018356
-0.028702
0.036255
0.019165
0.017853
-0.020615
-0.008385
0.001186
-0.019791
0.030945
-0.029678
-0.009605
-0.028687
0.024582
-0.011559
0.035614
-0.035797
0.005512
-0.016830
0.006268
0.009598
-0.047241
-0.026703
0.024384
-0.005589
-0.022934
-0.043518
-0.007366
-0.021423
0.027618
0.012329
-0.014221
0.009552
-0.002789
0.008141
0.020905
-0.013702
0.042908
0.042145
0.020294
-0.015137
0.020157
0.000698
-0.037506
-0.026550
-0.024536
0.011696
0.044617
-0.027176
-0.028564
-0.016968
-0.027939
0.017181
0.015884
0.031830
0.004509
0.002510
-0.019714
0.002813
-0.036652
0.026794
0.013832
0.034760
0.013847
-0.007393
0.037567
-0.013992
0.022644
-0.013687
0.054810
0.006508
0.010635
0.003563
0.023834
0.003922
0.006130
0.029480
0.019852
0.032227
0.037140
-0.002226
-0.020874
-0.004395
0.009003
-0.021606
-0.029922
-0.019180
-0.040100
-0.010986
0.002970
0.026855
-0.033264
0.049866
-0.023834
-0.035187
-0.024689
-0.018814
-0.019363
-0.016281
-0.055847
0.008644
0.033905
0.011330
0.011688
0.020920
-0.018997
0.016800
0.009178
0.007694
0.030533
0.060486
-0.011208
0.014183
0.032654
0.028885
0.046661
-0.017181
0.002623
0.027176
-0.043762
0.008430
-0.037354
0.001382
0.010742
0.014305
-0.007710
-0.030807
0.022491
0.013298
0.034515
-0.014053
-0.002893
-0.003033
0.010666
-0.038391
-0.017578
0.006695
-0.043701
-0.002569
-0.058289
-0.021194
0.028214
-0.022171
-0.015068
-0.017990
0.013412
-0.021332
0.029327
-0.002764
-0.019119
-0.020142
-0.019882
0.023621
-0.038788
0.016113
0.045868
-0.032898
0.001750
-0.023941
-0.009857
0.037781
0.014633
0.030167
-0.040161
0.040985
-0.033813
0.023422
0.030228
0.037842
-0.023071
-0.008324
-0.015930
0.042206
-0.001062
0.006725
0.004402
0.008896
-0.019333
-0.003563
-0.017822
0.024323
0.033051
0.027908
-0.014511
-0.056274
0.008339
0.022522
0.032379
0.039917
0.016113
0.000057
-0.006767
0.001718
-0.003145
-0.004715
0.021088
-0.012611
-0.005032
-0.013145
-0.027405
0.032227
0.012611
-0.011810
0.001281
0.009682
-0.016312
0.015404
0.005119
-0.023865
-0.010338
0.022858
-0.001475
-0.009285
-0.023575
0.010979
0.028336
0.019165
-0.016296
0.004265
0.014374
-0.028305
0.033203
0.026291
-0.015686
-0.018341
-0.031677
0.028473
0.036835
-0.007820
-0.039276
0.006611
-0.013885
0.031021
0.021149
-0.033234
0.011414
0.029556
0.024948
-0.014084
-0.026291
0.024384
-0.013351
-0.024368
-0.014168
-0.014435
-0.014313
0.000748
0.031769
-0.021225
0.005890
-0.033966
0.014984
-0.012779
-0.003469
-0.016663
-0.002876
-0.024384
0.029800
0.000808
0.017181
-0.013763
0.010735
0.033386
0.018265
-0.009956
-0.004261
-0.002228
0.035767
-0.002941
0.014236
0.014175
0.002232
-0.011246
0.014030
0.012398
0.035187
0.022232
-0.004581
0.032806
-0.003004
-0.032104
-0.000498
0.000067
-0.003263
-0.001079
-0.001807
-0.023148
-0.035706
0.004326
-0.030670
-0.025101
-0.014755
0.034698
-0.019562
0.023651
-0.007088
-0.018280
-0.019241
0.028137
-0.025726
-0.005039
0.032318
-0.037018
-0.024307
0.011856
-0.012520
0.008156
0.002054
0.026306
0.023193
0.021545
0.014145
0.002028
-0.017471
-0.009224
0.017487
-0.015388
-0.017868
-0.027832
-0.013657
0.028625
0.030502
0.003233
-0.032837
0.006702
0.023834
-0.029312
0.013321
-0.024948
-0.042480
-0.030258
0.000504
0.000970
0.002493
0.004993
0.014023
-0.013290
0.013191
0.019241
0.008804
0.003693
0.005653
-0.023010
-0.021713
-0.005257
-0.037964
-0.024384
0.038574
-0.038544
-0.029419
-0.012932
0.019836
-0.000207
0.025162
-0.014442
-0.010674
-0.018875
-0.006683
-0.028717
-0.020004
0.015747
-0.022095
-0.034912
0.022781
0.021240
-0.014343
-0.006680
0.046387
0.000624
-0.036987
0.039124
-0.030380
0.037201
-0.013252
-0.007565
-0.015823
0.015854
0.034241
0.016953
0.021072
0.014900
0.015160
0.004074
-0.028885
0.023209
0.016998
0.016800
0.028732
0.003763
0.019592
-0.001053
0.029770
-0.045441
-0.020065
0.007278
-0.000649
-0.037567
0.044769
0.028839
0.003765
-0.000594
-0.009743
0.025223
0.011971
-0.007229
-0.044373
-0.018692
0.001539
-0.009491
0.037964
-0.025696
-0.019852
0.043243
-0.022537
-0.001637
0.018234
-0.015945
-0.035553
-0.014908
0.001157
-0.013779
0.011009
-0.004509
-0.014931
-0.040619
0.020355
-0.023331
-0.001137
0.024719
0.011520
-0.033844
0.016022
0.033051
0.032257
0.004566
0.013893
-0.004139
-0.023697
-0.039001
-0.005100
-0.012329
-0.005871
0.007172
-0.048737
-0.021088
0.012733
-0.016617
0.007343
0.029572
0.031403
0.016754
-0.026764
-0.013115
0.036102
0.006809
0.003500
0.031204
0.019897
0.015556
0.019913
-0.002100
0.016541
-0.021408
-0.023804
0.030579
0.005936
-0.023453
-0.005939
0.016647
-0.016068
-0.022766
0.002100
0.029037
-0.004696
0.012054
0.027069
0.027802
-0.014214
-0.000691
0.034607
0.000002
-0.032990
0.034576
-0.015106
0.020966
0.015083
-0.026886
0.028641
-0.013588
-0.003859
0.022217
0.030640
-0.022522
0.028763
0.011322
0.007568
0.019394
0.030258
0.012939
-0.014603
0.011971
0.021057
-0.030777
-0.000724
0.023666
0.031143
-0.008476
0.025604
0.012383
0.032318
-0.006973
-0.016022
-0.012604
0.033112
0.009209
-0.027710
-0.015869
0.026932
0.020660
0.016571
0.033630
0.026520
0.008278
-0.022522
0.017227
0.031586
-0.007675
-0.037689
-0.034698
-0.012749
-0.027664
0.020081
0.013962
-0.028885
0.006683
-0.031403
-0.025757
-0.012543
-0.014671
-0.027176
0.005779
-0.012459
0.031799
0.010803
0.023071
-0.018433
0.006264
-0.007240
-0.018097
-0.033173
0.009651
-0.012962
0.019913
-0.012497
-0.010818
-0.020859
-0.029938
-0.023911
0.008659
0.016342
-0.008698
0.004467
0.027985
0.005268
0.027283
0.026932
0.028824
-0.016266
-0.026917
-0.010513
0.009544
0.006691
0.009727
0.036316
-0.008530
0.003082
-0.034698
0.035095
-0.012077
-0.001468
-0.009514
-0.007465
0.025467
-0.003448
-0.022919
-0.000505
-0.001010
0.032196
-0.012207
-0.001845
-0.017807
0.018906
0.013878
-0.013657
-0.027039
-0.023392
-0.029449
0.018478
-0.034210
0.022369
-0.017990
-0.001122
0.024307
-0.024597
-0.020660
0.007629
0.024109
0.015030
0.036255
0.023056
-0.018875
0.015640
0.019211
-0.032684
0.028625
0.023651
0.018951
0.032318
0.026413
0.014877
0.010521
0.007828
-0.021561
-0.000830
-0.020477
-0.032257
-0.012825
-0.026016
-0.018311
-0.027283
0.023422
0.003057
-0.036224
0.033020
-0.010635
0.012856
0.023651
0.019974
0.006317
-0.004723
-0.022079
0.017014
-0.003952
-0.000623
-0.002087
-0.024933
0.008507
-0.001482
-0.034332
-0.012016
-0.021332
-0.014015
0.030380
0.001799
-0.023712
0.001989
-0.010605
0.024872
0.025757
0.032654
-0.031738
-0.028519
0.004051
0.025513
0.011101
0.029816
0.026184
-0.031342
0.030090
-0.023148
0.013969
-0.014877
-0.013618
-0.000032
-0.036102
-0.027710
0.030487
0.035461
0.028412
0.005905
0.005226
-0.028580
0.027985
0.034668
-0.024979
-0.007645
0.014496
-0.028488
-0.007355
-0.026733
0.027939
0.022385
-0.015656
-0.003387
-0.025055
-0.024490
0.027588
0.003603
0.028336
0.013466
-0.012085
0.011620
0.034821
0.006180
0.028458
0.030151
-0.014763
0.042419
-0.038910
0.033600
-0.025711
-0.032806
0.019089
0.032288
0.039062
0.017685
0.002325
0.037506
0.022003
-0.028442
-0.000199
-0.022766
0.012123
0.002220
0.037811
-0.021683
0.005840
-0.035736
0.031158
-0.008545
-0.012772
0.006313
0.027603
-0.000392
0.015167
-0.040802
-0.011703
-0.006496
-0.030472
0.010406
0.041016
0.018768
-0.008873
0.015991
0.029053
-0.034882
0.027359
-0.020828
0.014069
0.036530
0.011757
-0.002939
-0.008919
0.043121
-0.028946
-0.011353
0.016037
-0.014214
-0.014175
-0.025452
0.002399
0.028183
0.003714
0.006882
-0.002043
-0.021210
-0.024521
-0.018066
-0.019974
0.023285
-0.007366
-0.020081
0.017715
0.011208
-0.038879
0.002743
0.035614
0.017014
0.018341
-0.018509
0.021332
-0.014938
0.007957
-0.000463
-0.035675
0.003254
0.004314
-0.018646
-0.020432
0.002954
-0.008919
0.033813
0.044067
-0.029404
0.029114
0.010689
0.020294
-0.000387
0.004673
-0.020477
-0.012093
-0.006382
0.009567
0.020233
0.010002
0.010139
0.002352
0.029251
-0.013123
-0.016159
0.005836
0.009949
0.006981
-0.009399
-0.000314
0.023499
-0.029648
0.035645
-0.028275
0.026764
-0.007950
-0.033264
0.005619
0.005878
-0.018173
0.017578
0.007229
-0.002228
-0.035187
0.038666
0.034241
-0.015656
-0.026978
-0.009987
-0.024353
-0.007420
-0.018982
-0.016098
0.020416
0.019791
0.022415
0.001568
0.018600
0.022552
0.028305
0.022491
-0.001384
0.001621
-0.032562
-0.035492
0.020020
-0.033081
0.015144
-0.007481
-0.012177
0.011696
0.015991
-0.000710
0.033112
0.019775
0.024017
-0.016129
-0.026596
0.020401
-0.020111
0.012466
-0.035522
0.004555
0.014114
0.006283
-0.032104
0.015762
0.040100
-0.019958
0.025513
-0.010071
0.014862
-0.016144
0.029144
0.009560
-0.026901
0.032104
0.004978
-0.017044
-0.026794
-0.008026
0.025513
0.007996
0.014130
0.032440
0.017166
-0.016266
-0.023483
-0.007046
0.010078
0.007343
0.030899
-0.032349
0.006615
-0.017517
0.008423
-0.036072
-0.029663
-0.014923
-0.023087
-0.000152
0.022354
-0.008057
0.028839
-0.018478
-0.023682
-0.031982
0.023712
-0.007614
0.029495
0.011055
0.023361
0.032532
0.020111
0.021423
-0.024124
0.002146
0.025085
0.020844
0.035614
-0.005394
-0.025269
-0.005005
0.034821
-0.022049
0.028702
0.017181
0.011543
0.001378
-0.004738
-0.030136
0.005959
-0.029037
0.015854
0.035431
-0.005394
0.007107
0.016083
-0.031738
-0.009705
0.008072
-0.013603
-0.020554
0.020462
-0.013695
-0.005119
-0.017410
0.016830
0.024124
0.000759
-0.015205
0.016312
-0.002520
-0.010521
0.004059
-0.015686
-0.034424
-0.042847
0.030563
0.013016
-0.010315
-0.000691
0.028000
-0.028137
0.001002
-0.020401
0.010803
-0.023102
-0.008827
0.038269
-0.008179
0.041595
0.026398
-0.033020
-0.033600
0.015656
-0.022278
-0.022766
-0.006836
0.027481
-0.027054
-0.023483
0.024033
-0.020920
-0.007771
-0.027786
0.004906
-0.005558
0.042358
0.005764
0.024139
-0.038605
-0.033234
-0.046112
-0.024246
0.000525
-0.008522
0.025284
0.037842
-0.011459
-0.015259
0.003632
0.000189
0.019470
-0.039001
-0.012703
-0.015610
0.054504
-0.024200
-0.003103
-0.003792
-0.009766
-0.005150
-0.015221
0.008011
0.003658
-0.006992
0.033539
0.010353
-0.016647
0.011787
-0.019669
0.039825
0.033386
-0.032532
-0.004787
-0.016571
-0.004482
0.026184
-0.012901
0.047150
0.003498
0.030533
-0.015495
-0.003918
-0.020889
-0.021240
0.010101
0.002687
-0.024567
-0.025375
0.006039
0.003117
-0.007809
0.020142
-0.010559
-0.024109
0.018631
-0.001522
-0.021851
-0.044678
-0.009071
-0.039215
-0.013039
0.024994
0.000010
0.005741
0.038483
0.014069
0.014130
-0.018814
0.027267
-0.011780
-0.018005
-0.023376
-0.007599
-0.009521
-0.007206
0.026962
-0.025467
-0.044983
0.014900
0.023788
-0.000182
-0.051910
0.035400
-0.017563
-0.038666
-0.050507
-0.013092
-0.018311
0.021927
0.008003
-0.009171
-0.035095
0.032776
-0.061188
0.003117
-0.021011
0.031891
-0.024170
-0.027344
-0.011292
-0.014824
0.000657
-0.000863
0.008652
-0.015472
-0.061951
-0.017838
0.041138
0.009064
-0.019913
-0.032776
0.055054
-0.002653
0.050751
-0.038361
-0.049194
-0.046600
0.048187
-0.004333
0.052643
0.004200
0.000721
-0.000491
0.001269
-0.015404
0.032745
-0.057983
-0.049744
-0.010078
-0.051880
-0.044495
0.034912
-0.029572
0.007889
-0.000676
-0.038788
-0.031128
0.040009
-0.020294
0.003633
-0.022461
-0.042664
0.050171
-0.034515
-0.029678
0.008385
-0.039459
0.003986
-0.065186
0.049286
0.014084
-0.005062
0.030212
0.025055
-0.006908
-0.040344
0.013000
0.012825
-0.055206
-0.007618
0.026215
-0.056335
-0.039276
-0.002373
-0.039703
0.006096
0.014099
-0.007683
-0.035278
0.012383
0.013657
0.083435
-0.042969
-0.025391
-0.022583
0.034241
-0.000715
-0.007355
-0.011505
0.025192
-0.025604
-0.003222
0.015793
0.023682
0.015427
0.004517
-0.010666
-0.002777
-0.004574
-0.008453
-0.049591
0.065308
-0.011452
-0.026138
-0.039856
0.004944
0.030334
0.000781
-0.034088
-0.000388
0.046387
0.021805
-0.007591
0.022415
0.018188
-0.060760
0.024368
0.003521
-0.029083
0.004723
0.035858
-0.020081
-0.042084
-0.018768
-0.029495
-0.011520
0.001277
0.023224
0.014954
-0.006897
0.031891
0.006165
-0.012199
0.013573
0.003841
-0.006336
-0.031647
-0.005623
0.014572
0.035034
0.006062
0.009872
-0.015480
0.017792
0.001616
-0.010216
-0.002935
0.024368
-0.025803
-0.008713
0.021393
0.014137
-0.015030
-0.028076
-0.038574
-0.028122
0.001835
0.028381
0.013702
0.005814
0.008957
-0.007759
0.019531
0.004734
0.023178
0.031433
-0.015808
-0.022278
0.031281
0.033783
0.018799
0.025284
0.007042
0.024948
0.015373
0.007656
0.005943
-0.002323
0.027481
0.002037
0.005787
-0.012291
-0.019470
-0.002806
0.013458
-0.010788
-0.034363
0.018982
-0.009041
0.004436
0.027954
-0.039612
0.007694
-0.033600
0.021912
0.029510
0.012909
-0.031494
-0.012260
-0.027893
-0.002007
0.018250
0.028809
0.011726
0.016495
-0.010437
-0.033112
-0.017166
0.016708
-0.025620
0.026810
-0.016296
0.002541
0.003750
0.019653
-0.021393
-0.013672
0.015930
-0.021652
-0.032990
0.027542
-0.010208
0.042999
-0.000486
-0.015579
0.028015
0.025375
0.030518
0.029160
-0.024628
0.001554
-0.032288
0.041504
-0.022522
-0.001234
0.031830
0.024399
0.028748
0.004585
-0.027451
0.026703
0.019318
-0.015930
-0.019592
0.020447
0.016251
0.013496
0.012749
0.001367
-0.011345
-0.020493
0.025711
0.025604
0.010750
0.002888
0.022964
-0.019196
0.018433
-0.032349
-0.018967
0.007072
-0.003038
0.019333
0.039978
-0.020126
-0.020233
-0.031158
-0.013611
-0.004120
0.017517
0.030182
-0.033386
0.043396
-0.021378
-0.000851
-0.015289
-0.010376
-0.007099
-0.003151
-0.007214
0.009972
0.010429
-0.013123
-0.027725
-0.015121
0.032806
-0.037628
-0.041840
0.007957
-0.006569
0.006115
0.014053
0.027985
-0.021790
0.017166
0.021255
-0.003016
-0.013954
-0.006897
-0.014008
-0.035004
-0.027878
0.020523
-0.020035
-0.020905
-0.026245
0.012428
0.002066
0.016037
-0.005505
-0.047394
0.010452
-0.001220
0.016968
-0.014793
-0.007637
0.005905
0.003155
0.038513
-0.001081
0.012146
-0.013397
-0.024857
-0.025146
-0.010750
-0.023422
-0.026474
0.007858
-0.007019
0.031403
0.022995
-0.048370
-0.028488
-0.021851
-0.021729
-0.018463
-0.013069
-0.010338
-0.003469
0.010750
-0.004932
-0.045990
-0.052399
0.008736
0.036102
0.008385
-0.015701
0.009392
-0.028519
-0.035004
0.021698
-0.028427
-0.003773
0.006348
-0.004650
-0.047363
0.039948
0.004936
0.004204
-0.005817
0.016357
-0.020477
0.006824
0.000856
0.034088
0.018799
-0.005035
0.030304
-0.040039
-0.050568
-0.042694
0.014694
0.007484
0.046936
0.031281
-0.004940
0.033234
-0.023804
-0.000356
0.036194
-0.042542
0.047821
-0.011047
0.001045
0.013710
0.024323
0.002394
0.032654
0.015961
-0.017258
-0.031250
0.027451
-0.001913
0.008598
0.023300
0.014732
-0.013283
-0.010101
0.039307
0.014275
0.012283
-0.030685
-0.026062
-0.006691
-0.031036
-0.021103
-0.027100
-0.003227
-0.030106
0.012749
-0.003168
0.007534
0.021866
0.024567
-0.034058
0.028137
0.006241
0.019714
0.023697
-0.010429
-0.034790
-0.012398
0.034454
-0.022141
0.029495
-0.015083
0.018295
0.011253
0.035736
0.027237
0.009232
0.006382
-0.021881
-0.005184
0.001284
0.032227
-0.019028
-0.000574
0.018463
-0.019272
-0.002455
0.002592
-0.001297
-0.022064
-0.017609
-0.023010
-0.021057
-0.036987
0.025330
0.006760
-0.003637
0.008171
-0.005287
0.013931
-0.005650
-0.020081
0.017197
0.008255
-0.022354
-0.004257
0.030502
-0.036407
0.009308
0.007023
-0.031281
-0.011383
0.031921
0.024979
-0.016342
0.025681
0.029282
-0.016754
-0.024033
-0.018219
0.003725
-0.029404
-0.012245
-0.026840
-0.021606
0.020660
-0.032349
-0.021194
0.000875
-0.006138
-0.029007
-0.003590
0.000303
-0.032166
-0.013016
0.035767
-0.039520
0.022522
0.001620
-0.026703
0.018448
-0.024384
0.034760
-0.001027
0.021698
0.002367
0.032990
-0.005589
0.005745
0.019562
-0.021500
-0.023483
0.012276
0.003450
-0.011925
-0.027466
-0.015495
0.022751
-0.005497
0.037689
-0.001038
0.006798
-0.021484
0.022507
0.003325
-0.014191
0.018097
0.018875
0.050873
0.009949
-0.005695
-0.011162
0.013580
0.062622
-0.007607
-0.025085
-0.009956
0.037659
0.045258
-0.036713
-0.005753
-0.045837
0.053894
0.043976
0.044861
0.002863
0.042786
-0.067261
0.045654
0.047058
0.051270
-0.035645
-0.047699
0.046082
0.011559
-0.000626
0.009239
0.040558
0.033936
-0.046875
0.063904
-0.031342
0.047516
0.011909
0.029541
-0.042084
0.022858
0.033112
-0.050964
0.014275
-0.011627
0.034821
0.024719
0.012512
0.025558
-0.000612
0.032379
-0.021957
0.043610
0.016571
-0.005119
-0.009712
0.056000
-0.004532
0.048431
-0.041809
-0.004223
0.008881
-0.006420
0.011375
0.033478
-0.017700
0.037384
0.021103
-0.000881
-0.010475
0.015686
0.026520
-0.030533
-0.057892
0.012352
0.038208
0.000745
0.028915
-0.020599
-0.001363
-0.001013
0.025467
0.010490
0.029663
0.011421
-0.019608
0.006439
0.003077
-0.022354
0.027512
-0.057007
0.021942
-0.006004
-0.031494
-0.036560
0.029846
0.000676
0.014114
-0.061371
0.060150
-0.018433
-0.035980
-0.017090
0.021011
0.041077
0.001993
0.055359
0.065369
-0.042877
-0.032532
0.021072
0.050537
-0.055481
0.023529
0.041534
0.027100
0.030289
0.005604
-0.008362
-0.004139
0.034332
0.023544
0.021713
0.004543
0.015732
0.002487
0.016861
0.007053
0.033997
0.005474
0.016617
0.005898
0.040833
-0.009598
0.025772
0.015137
0.036774
-0.018951
0.007973
0.036804
0.015129
-0.031738
-0.013618
-0.015327
0.011200
-0.002062
0.001745
0.026611
-0.004269
0.017563
-0.029251
0.000451
0.000482
-0.034882
0.011345
-0.007851
-0.021210
0.036407
0.006821
-0.007423
-0.018417
-0.021820
-0.012642
-0.020081
0.023026
-0.021973
0.027634
0.003052
0.032532
-0.021942
-0.013405
0.021118
-0.010544
-0.022476
-0.011353
0.010971
-0.004021
0.000321
0.007023
0.000378
-0.003578
0.039520
0.025009
0.030151
-0.023682
0.009857
0.036072
0.018982
0.006332
0.032227
-0.017776
0.025833
0.012108
-0.004456
-0.010277
-0.034607
0.020493
0.012787
0.025497
0.020370
-0.012749
-0.015732
0.009026
0.012100
-0.034546
0.001222
0.016846
0.018784
-0.003681
-0.002264
-0.026566
-0.008804
-0.007126
-0.012192
0.028229
-0.008270
0.010696
0.005898
0.020599
-0.024734
0.006493
-0.011017
0.021179
0.000003
0.041656
0.000658
0.029739
-0.028290
-0.022903
0.019562
-0.025024
0.020309
-0.014282
-0.014534
0.010696
-0.004181
0.014160
-0.011177
-0.017639
-0.015671
-0.025269
0.028366
0.029343
-0.016052
-0.020111
0.007843
0.004620
0.015869
-0.031830
0.017822
0.004131
-0.008789
0.027771
-0.000377
0.006886
-0.018845
-0.032288
-0.013611
-0.053284
0.019913
-0.009056
0.003410
0.034149
-0.023514
0.035248
0.031860
-0.013321
-0.008202
-0.015610
0.032074
-0.011002
0.003731
-0.012741
-0.009041
-0.008774
-0.007740
0.003674
-0.019821
0.033783
-0.004250
-0.026810
-0.021194
0.012398
0.024780
-0.049957
0.016312
-0.016220
-0.038055
0.016907
0.029495
-0.004669
-0.014015
-0.032501
-0.012955
-0.002848
0.014023
0.017380
-0.056854
0.034454
-0.052185
-0.015594
-0.024841
-0.045807
0.031433
-0.047272
0.013374
-0.014206
0.038696
0.000904
-0.054260
0.015373
-0.021439
-0.015961
0.010826
-0.020721
0.041443
0.031113
-0.044983
0.033417
-0.045135
-0.023682
-0.008751
-0.051331
-0.001811
0.019684
0.007267
-0.055328
0.008026
0.003494
0.040558
-0.032501
-0.034149
0.015236
0.007633
0.005497
-0.016510
0.009430
-0.007099
-0.061951
-0.001513
-0.010185
0.035400
-0.015671
-0.044220
0.006104
0.000268
0.038818
-0.008835
0.021759
0.034149
0.025543
0.005665
-0.012390
-0.023041
0.026596
0.020889
0.001170
0.006126
-0.035156
0.039093
0.003643
-0.035980
-0.027481
0.012650
-0.033112
0.035095
-0.048798
-0.012230
-0.004116
-0.041626
-0.027863
-0.025406
-0.010811
-0.005882
0.016342
-0.004089
0.087036
0.067749
-0.072266
0.047333
-0.012711
0.068542
-0.031250
0.006699
0.004784
-0.012413
-0.005161
-0.084900
0.077026
-0.037872
0.033783
0.025970
0.009064
0.001896
0.065247
0.005135
0.031158
-0.066528
-0.011894
-0.033813
-0.010345
0.036987
0.002062
-0.033203
0.027328
-0.023224
-0.051727
-0.035431
0.049805
-0.048767
0.002306
-0.055847
0.026199
0.000027
0.010086
0.012749
-0.015945
-0.015503
0.072998
-0.053833
0.034027
0.044037
-0.003616
-0.027878
-0.035309
0.055939
0.022552
0.021851
-0.028061
0.022034
0.016510
0.007359
-0.009369
0.029449
0.032166
-0.041351
-0.031219
0.011360
0.002565
-0.012810
-0.001792
0.067322
-0.033630
0.019623
-0.031891
0.037384
-0.013054
0.046844
0.023468
-0.073853
0.054871
-0.041901
-0.036469
0.010925
0.040039
-0.034698
-0.046021
-0.010956
-0.018326
0.032532
-0.032593
-0.048615
0.033722
0.080505
0.052094
-0.052795
0.045654
0.044006
-0.008232
-0.026352
0.026230
0.038574
0.041748
0.064636
0.031738
-0.000157
0.036621
-0.056976
0.045105
0.004963
0.004555
-0.035767
-0.028320
0.026443
-0.003412
-0.027191
-0.025635
0.002821
0.001178
0.011497
0.047668
0.035492
-0.059998
-0.002541
0.038757
0.001937
-0.050720
0.008232
0.010780
0.057953
-0.004719
0.005577
0.006531
-0.023407
0.044586
0.032440
-0.029663
0.040009
-0.003012
-0.008499
0.017303
-0.002876
-0.006020
0.015511
-0.004616
-0.041901
0.043213
-0.022842
0.011940
-0.014198
-0.022552
0.017349
0.020340
0.022079
0.046875
0.000866
0.008484
-0.014946
-0.005795
0.026810
0.031830
0.023071
0.034088
-0.031281
-0.043732
-0.023727
0.005272
-0.032715
0.036133
0.004757
0.034332
-0.015022
0.022690
0.043854
0.017593
-0.027634
0.047729
-0.001213
0.028534
-0.009628
0.005608
0.005611
0.018768
0.044495
-0.008415
0.044037
-0.033081
-0.020020
0.001074
-0.024643
0.042480
-0.028244
-0.008148
-0.036377
-0.008209
-0.006916
0.014343
0.023178
0.024460
-0.010902
-0.017685
0.014740
-0.015137
-0.007137
0.015945
0.023453
0.012901
-0.026611
0.003099
-0.008797
-0.038635
-0.011757
-0.021515
-0.019379
-0.006325
-0.022675
-0.033905
0.040680
-0.010147
-0.003693
-0.006996
-0.011642
-0.008316
0.016617
-0.024002
0.009972
0.007149
-0.012085
0.038147
0.014549
0.042969
-0.007988
0.010017
0.019287
0.006676
-0.031189
-0.017624
-0.022797
0.003542
-0.029236
-0.008675
0.004845
-0.014259
-0.027756
0.020752
-0.011795
-0.031128
-0.005394
-0.020248
0.024719
-0.024582
-0.019516
0.000911
-0.029633
-0.021774
-0.005577
0.021454
0.020538
-0.024597
0.042358
-0.017944
-0.084656
0.019348
0.010521
-0.045441
0.008270
0.035217
-0.006973
-0.033722
0.024780
-0.030014
-0.007305
0.037567
-0.013596
0.000322
-0.033478
0.046356
0.037872
0.032959
-0.029953
0.011246
-0.022659
0.041473
-0.047852
0.006145
-0.033356
0.024551
-0.026031
0.045959
-0.016724
-0.036560
0.013962
0.038269
-0.047638
0.023911
0.000938
0.012436
0.033600
0.007652
-0.043182
-0.005997
-0.017273
0.004772
0.016968
-0.002995
0.041290
0.032806
0.045441
0.002436
0.013351
0.003513
-0.007114
0.014877
0.001925
-0.026291
-0.007011
-0.034576
-0.004704
-0.019135
-0.014114
-0.009789
-0.071045
0.032349
0.010689
0.011711
0.016708
0.008575
-0.012901
-0.019226
0.020660
-0.029144
-0.018097
-0.022949
-0.018890
0.016373
-0.045258
0.008011
-0.020508
0.007751
0.043640
-0.013626
0.039673
-0.027328
0.052460
-0.025360
0.005219
-0.030075
-0.025787
0.051788
0.025330
0.039429
0.033905
-0.016800
-0.016068
-0.028778
-0.027908
0.022736
0.001315
-0.028412
0.026398
0.005878
-0.011208
0.017471
0.040466
0.034180
0.002497
0.017227
0.027222
-0.013809
-0.024033
-0.038818
-0.019135
-0.037781
-0.016281
-0.010056
-0.013100
0.032227
0.022568
-0.007645
0.045044
-0.025513
-0.014854
-0.003254
0.020645
0.023529
-0.043030
0.022064
-0.001765
-0.020813
0.046997
0.008263
-0.009743
0.028397
-0.036804
0.015556
0.029160
0.028473
0.021805
0.008163
0.007690
0.016739
0.032898
0.023087
-0.019241
0.017609
-0.011200
-0.035278
0.009575
-0.013451
0.035645
-0.035065
0.010330
0.020737
0.015503
0.003241
0.033356
-0.039856
0.028305
0.015160
0.022186
-0.012512
0.004551
0.009613
-0.026840
-0.035889
-0.003628
0.025833
-0.008247
0.000246
-0.027969
-0.021286
0.029739
-0.015045
-0.027115
0.014519
-0.011078
0.034485
0.034790
0.032562
0.030060
0.018692
-0.000717
0.011780
-0.023605
0.024689
0.028290
-0.014389
0.038391
-0.034363
-0.017914
0.033936
0.000484
0.011650
-0.015221
-0.005821
-0.013107
-0.015671
0.009010
0.001074
0.016312
-0.000477
-0.032532
0.015930
0.010010
0.008614
0.024063
-0.039581
0.005592
0.000639
-0.030884
-0.003178
-0.031113
0.024689
-0.002369
0.019730
-0.033325
-0.010231
-0.039276
-0.029694
-0.026337
-0.004185
0.032593
0.016327
-0.015320
-0.019394
-0.024460
0.022034
-0.029434
-0.002970
0.033264
-0.030746
-0.024490
-0.012703
0.012886
-0.021606
0.015068
-0.003468
0.028534
-0.000183
0.026733
-0.016953
-0.011032
0.034668
0.020691
-0.035004
-0.031616
-0.006001
0.014626
0.002312
-0.008698
0.011765
-0.000566
0.002790
-0.015839
0.014381
-0.026886
-0.022217
