0.015404
-0.013054
0.037628
0.028427
0.024841
0.012466
0.020920
-0.032379
0.022461
-0.016129
-0.012794
0.022842
0.012207
0.003347
-0.009178
-0.026352
-0.030151
0.012253
0.018219
0.023071
0.004761
-0.007690
0.022018
0.025269
-0.025116
-0.028458
0.034546
-0.004951
0.030243
-0.003204
-0.002398
-0.000802
0.032593
-0.000994
-0.027710
-0.000728
-0.034760
-0.018600
0.031586
0.033630
-0.012962
-0.012329
-0.031494
0.039246
0.009750
-0.035645
0.027802
0.015320
-0.033264
0.002092
0.030609
-0.017258
-0.021606
0.019104
0.023315
-0.029800
-0.026291
0.012718
-0.035492
0.006329
0.021698
0.006096
-0.009468
0.037506
0.024124
-0.011391
0.004131
0.023117
-0.031250
0.011299
-0.027496
0.009270
0.021149
0.008728
0.013939
0.002926
0.003454
0.016785
-0.022079
-0.010414
0.021530
0.020142
0.029739
0.014305
0.001471
-0.011681
-0.017502
-0.019409
-0.002211
0.019073
-0.031952
-0.020309
-0.016769
0.029877
-0.037567
-0.016922
-0.008110
0.026398
-0.013290
0.018066
0.024811
0.016403
-0.021851
-0.016006
-0.010330
-0.022995
0.003918
0.019333
0.021072
-0.006989
0.003302
-0.009682
-0.019119
-0.032013
-0.004353
0.031891
-0.008339
-0.025650
-0.020950
0.034973
-0.020432
-0.020447
-0.021973
0.014275
0.037811
-0.033997
-0.012962
0.021805
0.028061
0.006165
-0.012436
0.036835
-0.009811
-0.017120
0.013199
0.030457
-0.007637
0.013565
-0.016403
0.024078
-0.030838
0.002373
0.010742
-0.004555
-0.035065
0.024445
0.031525
-0.023773
-0.036133
-0.012436
0.027832
0.031769
0.027710
0.024872
0.012207
0.006382
0.029221
-0.000412
0.041779
0.002729
0.036743
0.033295
0.010948
-0.032715
0.033203
-0.018631
-0.024918
0.022156
-0.015808
0.028412
0.004204
-0.013618
-0.024673
-0.037506
0.008026
-0.031982
0.020050
0.012787
0.010269
0.017868
0.030151
-0.015083
-0.014641
0.016464
-0.022812
0.008339
0.013000
-0.017471
0.039581
-0.022766
-0.020477
-0.018768
0.015686
-0.005421
-0.028183
0.029205
-0.011215
0.016800
0.024368
-0.012024
0.019836
0.008255
0.004253
-0.003435
0.003164
0.022827
-0.002628
-0.022369
0.019806
0.014366
0.041534
-0.013374
0.028717
0.018845
0.035370
0.007645
0.007359
-0.000256
0.024765
0.007484
0.000647
-0.000207
-0.003038
-0.014748
0.000180
0.000107
0.020813
-0.018738
0.014763
-0.019745
0.030899
0.024078
0.004498
-0.035461
0.045959
-0.024811
0.012459
-0.013084
0.027252
-0.008858
0.025757
0.009354
0.037201
0.010490
-0.012634
-0.033722
-0.008987
-0.034973
0.038208
-0.019791
0.031036
0.022324
-0.002033
-0.031219
-0.007168
-0.007126
-0.020020
-0.025482
-0.002829
-0.007526
0.028885
-0.020981
-0.006744
-0.029251
-0.020233
0.020569
0.022507
-0.008835
0.010162
-0.025620
0.028244
-0.017746
0.011345
-0.024628
0.002481
-0.029160
0.015266
0.016342
0.030685
0.026337
0.002337
-0.018936
-0.000156
0.013016
0.005962
0.022446
0.021118
-0.014748
-0.029709
0.000203
0.036713
0.045929
0.017288
-0.003857
-0.037354
0.030289
0.021835
-0.045380
-0.011909
0.008400
0.029739
-0.037842
-0.008606
-0.024399
-0.011154
-0.033081
0.016541
0.023758
0.026550
0.024185
-0.008469
0.023544
-0.005020
-0.005154
-0.018600
-0.022263
0.025223
-0.011475
0.004757
0.000450
0.006767
0.012207
-0.015945
-0.041260
0.000083
0.010338
-0.021408
0.016922
-0.013008
0.005276
-0.017792
0.030914
0.022278
0.016312
0.004772
-0.013618
-0.020493
0.011101
0.007111
0.014229
0.012444
-0.019608
-0.015541
0.050293
0.025253
0.010475
-0.001815
0.039795
-0.029739
0.030380
0.012444
-0.004726
0.025452
-0.013412
-0.024811
-0.009499
-0.026764
0.021729
-0.004364
0.005413
-0.008537
0.008827
-0.001260
-0.005669
-0.024002
-0.021133
-0.023727
-0.032623
-0.017807
0.030533
0.001720
-0.000656
-0.029892
0.013908
0.024094
-0.026474
-0.041595
-0.014214
-0.004398
0.019089
-0.012741
0.002012
0.025681
0.009880
-0.021072
-0.037720
0.010719
0.019470
-0.021225
0.006760
0.024872
-0.024750
0.013222
-0.021393
-0.015144
-0.011154
0.012672
-0.038910
-0.004894
-0.028229
-0.016602
0.026978
-0.006313
-0.000735
0.009636
0.001159
-0.018188
-0.034454
0.017441
0.008781
0.018494
-0.020615
0.017242
0.011040
0.030396
0.007851
-0.025574
-0.011848
-0.011391
0.027924
0.026276
-0.004818
0.021622
0.028488
0.003551
-0.029755
-0.020340
0.021057
-0.022675
0.006588
0.013496
-0.023926
0.018051
-0.021240
0.015503
-0.022476
0.003580
0.013885
0.017395
-0.012306
-0.027481
0.006947
0.008385
0.004101
-0.003906
-0.009689
-0.029648
0.016541
-0.032104
-0.028976
-0.020462
-0.016891
-0.022568
-0.012291
-0.023605
-0.008675
-0.011246
0.026688
0.010071
-0.006439
-0.005005
0.005680
-0.016083
-0.010071
-0.000206
-0.011909
0.037292
0.029007
0.005154
-0.018723
-0.021133
-0.006611
0.022903
0.007629
0.041290
0.019699
0.005386
-0.029709
-0.009560
-0.039459
-0.009033
0.013245
0.008186
-0.020203
-0.000501
-0.003412
-0.010277
0.010826
-0.017014
-0.012428
-0.003263
0.013046
-0.026367
-0.013069
0.035767
0.003878
-0.023483
0.037018
0.036743
-0.006596
-0.024399
0.032440
-0.030029
0.015045
0.003315
0.028427
0.035889
-0.032532
-0.026779
-0.012527
0.012428
0.025848
-0.003462
0.031860
-0.014664
-0.040222
0.031219
-0.019775
0.005264
-0.010483
0.003258
-0.033813
-0.006729
-0.014572
0.015717
0.033569
-0.011093
-0.011063
0.016129
0.006859
-0.013664
-0.025528
-0.017120
0.013504
0.004852
0.039185
0.017212
-0.002140
0.012978
-0.024063
0.015671
-0.019333
0.025970
0.019363
-0.024658
0.015327
-0.002327
-0.023529
-0.015450
-0.037323
-0.009583
-0.025024
0.026596
-0.024689
-0.014999
-0.004871
0.007267
-0.035400
-0.018982
0.012787
-0.021820
0.017532
-0.007397
0.034760
-0.020752
0.027084
0.020294
-0.018997
-0.022446
0.007919
0.003218
0.022491
-0.024948
-0.023270
0.010666
-0.024689
0.026749
0.030838
0.015793
-0.017365
-0.006012
-0.041626
-0.038544
-0.026337
0.022568
0.020599
-0.034760
0.006279
0.003809
0.043335
0.028610
-0.010117
-0.019806
-0.006607
-0.001112
0.017349
-0.027222
-0.010277
-0.024734
0.036743
0.013634
0.028122
0.026581
-0.017410
0.008629
-0.013329
-0.007145
0.003420
-0.028763
0.032806
0.006519
-0.022827
-0.022812
0.009201
0.029419
0.040558
-0.027664
-0.010849
-0.002531
-0.030304
0.009941
0.016525
0.005051
-0.008263
0.028839
-0.004539
0.007896
-0.033966
-0.013458
0.004677
0.029800
-0.043335
-0.005917
0.003960
0.014641
-0.039917
0.002920
0.028564
-0.019394
-0.005817
-0.031952
-0.030609
-0.029816
-0.028732
-0.005726
0.010254
0.028625
0.022980
-0.039917
-0.019882
0.021164
-0.032928
-0.025803
0.024734
0.032379
0.010056
-0.026733
0.030838
0.013687
0.042969
-0.022171
0.006577
0.007576
-0.014137
0.008842
-0.003283
-0.021439
-0.021927
0.020752
0.010200
0.017426
-0.042542
-0.001781
-0.012001
0.012337
0.029984
0.011551
0.024826
-0.005329
0.029572
-0.008759
0.029724
0.008568
-0.007538
-0.025391
0.029556
-0.020401
0.016647
-0.002611
0.000062
-0.010681
0.011665
0.028198
0.003401
0.015022
-0.009659
0.011818
-0.034119
-0.019012
-0.006073
0.000877
-0.033508
-0.000589
0.005535
-0.032562
0.017075
-0.023560
0.014420
-0.043701
0.005192
0.022141
-0.026505
0.001976
-0.034882
0.001941
-0.025986
0.009697
-0.002571
-0.036804
-0.019882
0.008957
-0.007679
-0.015610
-0.020874
0.026016
-0.015503
0.024216
-0.011543
0.006493
-0.013313
0.018463
-0.025742
-0.021011
-0.022324
0.022018
0.004940
-0.015915
0.032959
0.017899
-0.028702
0.007290
0.006641
-0.009163
0.020813
-0.008507
0.028763
-0.026871
0.016678
0.003328
0.005432
-0.014977
-0.054443
0.004086
0.026245
0.018692
-0.025070
-0.028610
0.036469
-0.033661
0.012077
-0.017578
-0.016006
0.019302
0.006779
0.015038
0.008263
0.027634
0.005253
0.001070
0.019882
0.034149
-0.017380
-0.004486
-0.022400
0.026840
-0.008354
0.035461
-0.011017
0.001567
-0.004940
-0.006100
0.019897
0.002796
0.054993
0.009499
-0.013008
-0.081238
-0.002270
0.043274
0.004265
-0.042725
-0.005573
-0.045929
0.058258
0.046967
0.061615
-0.030991
0.016846
-0.013901
0.038391
-0.012405
0.056519
-0.012794
0.011871
0.012970
-0.016983
0.014038
-0.002029
0.009178
0.036743
-0.034698
0.049744
-0.017899
-0.004177
0.010635
0.008553
0.011818
-0.000508
0.018036
0.010468
0.054565
0.030945
0.016739
0.004135
-0.002893
0.032410
-0.039124
-0.006733
-0.058563
0.043518
0.050964
0.019852
0.019501
-0.019135
0.044556
0.028381
-0.017624
0.020447
0.001763
-0.043579
0.068542
-0.029114
-0.039948
0.029633
0.020950
0.005367
-0.044403
0.018600
0.011574
-0.065674
-0.054657
0.016983
0.033264
0.005901
0.025116
0.017532
0.043304
0.039185
0.028168
0.029358
-0.006424
0.021881
-0.048279
0.025986
-0.010536
-0.015282
0.042542
-0.011681
-0.010071
0.006489
0.004055
0.019409
-0.004425
-0.016785
-0.009117
0.010132
0.049469
-0.008430
-0.015656
-0.025604
0.035126
-0.011642
0.035950
0.024933
0.015884
-0.028488
-0.022430
-0.010788
-0.019562
0.011963
-0.021500
0.027954
0.022202
-0.025772
-0.014854
-0.012802
-0.025726
-0.017120
-0.019043
0.020065
0.031189
0.027115
-0.029739
-0.004200
0.034973
-0.022964
-0.041870
-0.022461
-0.004829
-0.027344
-0.029114
-0.004894
-0.037964
0.035553
-0.010109
0.030670
-0.039429
-0.004913
0.023605
0.007481
0.032776
-0.019669
0.000193
-0.014961
0.034180
0.005116
0.031647
0.016861
-0.010544
0.036499
0.027969
0.014656
0.006821
-0.018188
0.025665
-0.016205
0.004150
-0.033844
0.010033
-0.027161
0.018677
-0.007881
0.007912
-0.007248
0.042725
0.003387
-0.043060
-0.006763
-0.033600
0.018661
0.014977
-0.043060
-0.013702
-0.031738
0.014374
0.028061
-0.001382
-0.016724
0.017654
-0.019653
-0.021286
-0.002138
0.000112
-0.020477
-0.033905
-0.012718
-0.028030
-0.003674
0.024902
-0.045563
0.003855
-0.011742
0.050415
0.034027
0.069092
-0.007343
0.026230
-0.027878
0.017670
-0.023926
0.005783
0.007332
-0.009613
0.018036
0.022354
0.007305
0.004463
-0.022522
-0.023743
0.016754
-0.005337
0.025925
0.006603
-0.009842
0.011978
0.027222
0.003199
0.010849
0.011253
0.025391
-0.027771
-0.043793
0.033783
-0.013245
-0.010986
0.028168
0.007549
-0.003750
0.040955
0.023224
0.015701
-0.030594
-0.034424
0.002157
0.024567
0.011940
-0.046539
0.020966
-0.000323
0.009659
-0.013893
-0.018921
0.011696
-0.047729
-0.014252
-0.005283
0.009529
0.017639
-0.008034
-0.007286
0.003784
-0.033386
-0.003637
-0.035675
-0.033203
-0.044678
-0.009369
0.008438
-0.036499
0.019577
-0.032379
0.033386
-0.006088
0.049255
-0.003048
0.042938
-0.027634
0.008049
0.026978
-0.005764
0.009247
0.025528
0.017517
-0.018280
-0.022964
-0.011444
-0.021225
-0.005383
-0.016357
0.047119
-0.036835
-0.020447
0.025360
0.000921
0.013985
-0.031982
-0.029556
0.025070
-0.006706
-0.013031
-0.008659
-0.018021
0.019333
-0.004490
-0.012177
-0.002861
-0.001170
0.020630
0.037079
-0.009727
0.016174
-0.024155
0.051453
0.002542
-0.008827
0.006187
-0.040344
0.034271
-0.053497
0.030777
-0.020660
-0.016479
0.043671
0.001876
-0.014381
-0.013855
0.047180
-0.005402
-0.028671
-0.016312
0.004818
-0.035919
-0.009109
0.004684
-0.003527
0.016861
0.024185
-0.041016
0.024017
-0.019119
-0.031677
-0.024521
0.021957
0.000364
0.026505
-0.062347
-0.001281
0.004791
0.004944
0.039948
-0.020523
0.032837
0.006096
0.011322
-0.040771
0.023224
0.030609
0.046997
-0.021622
0.022354
0.042603
0.026321
-0.022110
0.043213
0.000276
-0.021362
0.024521
-0.002333
0.001814
-0.018982
-0.033844
-0.004734
0.009842
0.032043
-0.037170
-0.033051
-0.044647
0.012924
0.023758
-0.016998
-0.002314
-0.007275
0.033997
0.031921
0.014221
0.017715
-0.000633
-0.018707
-0.030304
0.005009
0.018890
0.044647
-0.019852
0.003632
-0.032990
0.042114
0.000734
0.022949
-0.020004
-0.017227
0.004986
0.019897
0.040375
0.019760
0.014542
-0.030869
-0.002533
-0.020584
0.041504
-0.012169
-0.014343
0.001207
0.026505
0.000923
0.010475
0.013466
0.015266
-0.017487
0.041656
0.033936
-0.024597
0.027786
0.003321
0.005981
-0.040192
0.017639
0.005806
0.001844
-0.013184
0.027084
-0.029877
0.021423
0.039001
-0.043976
-0.021271
-0.026703
-0.015373
0.032745
0.017227
0.020340
-0.027664
0.019882
0.047882
0.025162
-0.001081
-0.017700
0.028931
0.030914
0.002508
-0.005104
0.000388
-0.031082
-0.013023
-0.028122
-0.007137
-0.031097
0.018936
0.030807
-0.044922
-0.026321
-0.003952
-0.025162
0.023544
-0.006405
-0.044861
0.004051
-0.009552
0.025742
0.034943
-0.002264
0.012711
0.007111
-0.030838
-0.004868
-0.004551
-0.009773
0.028839
-0.010765
-0.003727
0.030609
0.040894
0.013062
-0.010178
0.027649
-0.020523
0.010056
0.032715
0.008820
-0.019836
-0.052185
0.041321
-0.035217
-0.042847
0.014214
0.010422
0.037415
-0.003120
0.021698
0.015541
0.007927
-0.035889
-0.020706
-0.018707
0.006847
-0.001285
0.042175
-0.022263
0.048798
-0.033752
0.007038
0.028442
-0.020264
0.010834
-0.002920
-0.009125
-0.014938
-0.004612
0.021484
-0.023407
-0.023041
-0.023453
-0.001327
0.025253
0.026230
0.037384
-0.004299
0.000959
0.007580
-0.052673
-0.024155
0.009834
0.017120
-0.030396
-0.026825
-0.005474
0.035431
0.013947
-0.015411
-0.007748
-0.034027
0.040741
-0.026810
-0.011192
0.014519
-0.016464
0.018585
0.004292
-0.012321
-0.016174
0.027817
-0.018906
0.009918
0.007122
-0.020859
0.011147
-0.025162
0.018967
-0.004711
-0.014183
-0.002047
-0.016144
0.017334
-0.033234
-0.018082
0.031036
0.023117
0.019821
-0.000592
-0.003025
0.007095
0.034973
-0.008842
-0.019791
-0.039825
-0.032684
0.001453
-0.021866
0.034973
0.010689
-0.005939
-0.004059
-0.008614
0.018631
0.017258
0.027328
-0.004375
-0.009987
0.012703
-0.035980
-0.007488
0.009888
-0.026291
-0.009720
0.017349
-0.018234
-0.025497
-0.001623
-0.004757
-0.038055
-0.029480
0.042358
0.002279
-0.037048
0.000075
-0.026474
0.011101
-0.028671
-0.014755
-0.033356
-0.005634
-0.027145
0.023560
-0.003252
-0.013016
0.002007
0.004616
0.002718
0.017181
-0.012726
-0.008781
-0.018951
0.039337
0.028503
-0.019363
0.004345
-0.001507
0.034302
-0.025955
0.022186
-0.028015
-0.008141
-0.014748
0.001289
-0.010925
-0.025787
-0.002893
0.000242
-0.003891
0.002686
-0.002098
0.026001
0.044678
0.000183
0.018082
-0.004589
0.027451
-0.005524
0.017883
0.026459
0.052094
-0.016922
-0.029510
0.003405
-0.012482
-0.000941
-0.066284
-0.058350
-0.055847
0.007179
-0.035309
0.060364
0.036377
0.001907
0.000842
0.042175
0.007111
-0.013237
-0.004520
0.005615
0.008751
0.041077
-0.005943
-0.015480
-0.047150
0.009018
0.046753
0.014885
0.019836
-0.033417
0.001472
-0.005070
-0.022934
0.010689
0.009590
-0.012253
-0.010658
-0.043091
0.000009
0.038086
-0.045563
0.006947
-0.033875
0.014214
0.022049
0.045349
-0.006645
-0.022598
-0.013107
0.012596
0.017242
0.039642
-0.035553
0.045715
0.005127
-0.025497
0.014458
-0.067444
-0.022018
-0.030655
-0.040283
-0.022095
-0.010338
0.003511
0.022720
-0.038116
0.006664
0.000918
0.008293
-0.010056
0.022812
-0.007771
0.055695
-0.046997
-0.010513
0.005581
-0.013817
-0.031281
-0.035156
0.027435
0.036499
0.015808
0.011124
0.034119
-0.059357
-0.004803
-0.000256
-0.012703
-0.049591
0.056915
-0.010109
-0.019806
-0.008919
-0.025940
-0.017426
-0.030472
-0.019806
0.018494
-0.037476
0.031189
0.046509
0.021240
0.018570
0.037567
-0.009018
0.042297
0.039154
-0.030991
0.005520
0.054016
-0.028824
-0.012833
0.050690
0.008583
0.064453
-0.080200
-0.029404
-0.019760
-0.026840
0.018646
-0.004738
-0.014435
-0.029099
-0.030899
-0.016754
-0.004005
0.019333
0.030365
-0.017899
-0.008041
0.039490
0.040894
0.014153
0.041565
0.007107
-0.065613
0.047089
0.034363
0.020737
0.014267
-0.040131
0.019165
0.025085
-0.013290
0.044952
0.006500
-0.025269
-0.022919
0.014374
0.024185
0.034149
-0.012634
0.000223
0.018250
-0.008011
-0.023041
0.006813
0.028854
-0.000425
0.023148
-0.015251
0.022339
0.023224
-0.001860
-0.026031
-0.028244
0.044800
0.039551
-0.019211
-0.013252
-0.016876
-0.002869
0.042603
0.038879
-0.009178
0.013855
0.001513
0.001616
0.001377
0.002615
0.019760
0.018295
0.014565
-0.025299
0.029449
-0.003210
-0.004284
-0.027252
-0.010658
0.026382
-0.008278
0.020279
0.036102
0.027435
0.027313
-0.009560
0.017578
0.042450
-0.025345
-0.026489
0.018219
-0.023148
0.006001
-0.014893
-0.012764
0.042358
0.038086
0.041138
0.022125
0.006363
-0.001980
-0.007942
-0.012169
0.026566
-0.040985
0.033051
-0.019943
0.045746
-0.011826
0.014183
0.008430
0.024307
0.015434
0.013794
-0.020081
0.001390
-0.031799
0.001938
-0.019516
0.001739
-0.005192
0.006351
0.006283
0.004303
0.012787
-0.013626
-0.018509
0.026733
-0.034180
-0.025055
0.003357
0.029053
0.032776
-0.046570
0.024506
0.063660
-0.013885
0.016464
-0.018250
0.017395
0.009613
0.022659
0.012932
0.014572
0.026215
-0.022247
-0.040039
-0.024353
-0.007133
0.025970
0.012939
0.032898
0.028656
0.020081
0.014786
-0.009392
-0.004314
-0.006031
-0.026886
0.028473
-0.000650
0.008781
0.030518
0.042786
-0.002419
0.029068
0.024597
0.007679
0.029617
0.007336
0.028473
0.015701
-0.011635
0.015335
-0.018204
0.006275
0.026581
-0.023590
-0.007103
-0.016373
-0.020782
-0.014084
0.008995
-0.012436
-0.002350
-0.004929
0.004353
-0.012009
0.048889
-0.034149
-0.013504
0.005543
-0.021317
0.029160
-0.026489
-0.009529
0.036591
0.019638
0.008476
0.000089
0.000947
-0.009689
0.021988
-0.023361
0.053040
-0.017181
0.023773
0.065125
-0.035950
0.035797
0.026810
-0.007595
-0.051056
0.034973
0.038971
0.041809
-0.035156
-0.011284
0.009399
0.022675
0.019165
0.002832
-0.010239
-0.024338
-0.006859
0.052856
-0.019348
-0.020187
0.006165
0.011116
-0.026291
-0.001750
-0.008827
-0.047974
-0.017593
0.031082
-0.016403
0.032990
0.026627
-0.003593
-0.006813
0.008980
-0.023163
-0.008865
-0.023499
-0.019867
0.029907
0.025330
-0.002546
0.028671
-0.043793
0.018600
-0.018661
0.034149
0.032288
-0.015327
0.020493
0.003736
-0.041718
-0.019135
-0.033752
-0.033325
-0.039276
0.039948
0.013359
0.023407
-0.019608
-0.010063
-0.001083
0.019943
0.037842
-0.016724
-0.021027
-0.011917
0.003626
-0.016724
-0.009796
-0.025635
-0.018509
-0.017365
0.013062
0.036713
0.018921
0.010872
0.034943
0.010170
0.001788
-0.023392
-0.010200
-0.020325
0.014961
-0.042908
0.027893
-0.023743
-0.043213
0.016922
0.038727
-0.005733
0.013107
0.011169
-0.000831
0.029648
0.000283
-0.017242
-0.001607
-0.047424
0.001612
-0.028961
0.004047
0.016953
-0.000868
-0.006203
0.003330
0.003050
0.031342
-0.003849
0.003250
0.046478
-0.038483
0.003542
0.020889
-0.012993
0.006687
0.024261
-0.013275
0.027679
-0.026794
0.026276
0.048828
-0.004841
-0.016464
-0.023376
-0.021378
0.039429
-0.021225
0.005028
0.007664
0.016968
0.001841
0.008926
-0.003506
-0.031219
0.036194
-0.017456
-0.000650
-0.024429
0.008659
0.040314
0.008850
0.020508
0.036469
0.034607
0.007175
-0.035980
-0.024490
0.047272
-0.005516
-0.038177
-0.001468
-0.016464
0.012466
-0.004234
-0.029114
-0.005997
0.011208
0.022446
-0.023224
0.008682
0.002583
0.010338
-0.032898
-0.007866
0.017105
-0.029358
0.008652
0.010704
-0.028931
-0.010857
-0.019806
0.031921
-0.006508
-0.029297
0.031158
-0.012543
-0.031830
-0.016418
0.026001
0.032440
0.011452
-0.023010
0.004848
0.021713
0.004063
-0.013748
-0.030594
0.014214
0.016464
-0.034668
-0.030609
-0.014954
-0.015099
-0.035614
0.025864
0.006863
-0.022079
0.027725
0.027145
-0.027435
-0.007030
0.005753
0.031235
0.034363
-0.010849
0.024887
-0.032166
0.014465
0.001296
0.015900
0.042633
-0.018921
-0.019272
0.048859
-0.018066
0.015945
0.022415
0.030151
-0.012589
0.033875
0.025330
0.021027
-0.029160
0.009148
0.001007
0.017960
-0.014961
-0.021774
-0.014351
0.017746
0.018875
0.013458
-0.016464
0.032928
0.019485
-0.032074
0.002968
-0.034668
-0.019211
-0.033752
-0.008987
0.043640
-0.017731
-0.008293
-0.020386
-0.037231
0.026627
0.009628
-0.012810
0.031372
-0.019958
0.027954
-0.004299
-0.022385
0.024109
-0.006001
-0.017838
-0.002489
0.004650
0.025940
-0.010376
-0.003075
0.021957
0.009354
0.026138
-0.010719
-0.020920
-0.014885
-0.000428
-0.006214
0.021118
-0.025513
0.033234
-0.006454
0.008530
-0.001933
0.001495
0.000784
0.023895
0.028946
0.052704
0.002527
-0.008514
0.023407
-0.034821
0.004009
-0.004631
0.015373
-0.018295
-0.009583
0.005161
-0.001649
-0.031799
-0.029633
0.013382
0.041229
0.016632
0.003878
-0.017303
0.003098
0.012138
0.024216
-0.028366
-0.030014
0.003571
-0.017792
0.017258
-0.012856
-0.023056
0.024963
-0.025696
-0.022720
0.004086
-0.026855
0.008148
-0.012581
-0.011894
-0.016556
0.020706
-0.049316
-0.024124
0.041718
0.015701
0.012268
-0.011047
0.000820
0.002100
0.019028
-0.031021
0.005924
-0.015350
-0.010010
0.022736
-0.012123
0.027618
-0.007996
-0.018753
-0.011131
-0.018799
-0.027573
0.002085
0.013229
0.016922
0.024689
-0.011665
-0.036621
-0.020721
-0.010323
-0.001204
0.019089
0.024811
-0.018982
0.031555
-0.010674
0.025970
0.032318
0.000813
0.015793
-0.019653
-0.008995
0.021851
0.003735
0.026169
0.011604
-0.029160
-0.023636
-0.015976
0.021347
-0.027115
-0.018768
0.012596
-0.033630
0.001077
0.037537
0.019730
0.029663
0.003756
-0.033752
0.034729
0.012108
0.000606
0.027359
-0.013924
-0.014938
-0.009010
-0.024796
0.015320
0.005569
0.002327
0.014725
0.028488
0.015701
0.021103
-0.019348
0.006439
0.010429
0.030212
-0.021805
0.033905
-0.016159
0.004192
-0.018890
0.017044
-0.002291
0.017136
0.016830
0.014030
0.010765
0.037231
0.004795
-0.020233
-0.014900
-0.013420
0.006535
-0.012466
-0.004169
0.009552
0.004417
-0.029129
0.016937
-0.014374
-0.011002
-0.012596
0.001500
-0.033295
-0.012383
0.011887
0.027679
-0.016388
-0.001174
-0.019547
0.006138
-0.038635
0.007912
-0.013260
0.001166
-0.022659
0.014130
0.037201
0.003487
0.016068
0.000821
0.034393
0.003380
-0.002642
0.013344
0.018890
-0.014587
0.015762
0.010193
0.017792
-0.032288
0.030106
-0.012962
0.026672
-0.002491
-0.028564
0.006931
0.004082
-0.017609
0.032349
0.001292
0.005569
0.021027
0.020889
0.000312
0.011368
-0.000410
0.035095
0.014801
-0.013832
0.019104
-0.010162
-0.024597
-0.014130
0.001164
0.037018
0.021683
0.025208
0.019547
-0.026077
0.013908
-0.012253
0.002077
-0.011330
0.016159
-0.020111
0.034271
0.026535
0.023972
-0.000529
-0.014763
-0.023209
0.017181
0.010506
-0.005154
0.014786
0.003826
-0.029037
0.010086
-0.002987
0.025528
-0.012169
0.019104
0.029755
-0.023743
0.036621
0.003952
0.001005
0.030304
-0.009933
-0.003746
-0.031952
-0.025635
0.037292
0.020050
0.024673
-0.027023
0.005989
0.032471
-0.002674
-0.030701
-0.003096
-0.027161
-0.004036
0.034729
0.037750
-0.010429
-0.023987
0.011581
0.021484
0.010094
-0.003252
-0.037323
-0.012779
0.031708
-0.039673
0.038361
-0.023819
-0.029129
0.035187
0.000848
0.006287
-0.026993
0.023132
-0.018921
-0.022491
-0.023941
0.020859
0.026062
-0.017517
-0.003857
0.033051
0.027084
-0.002819
0.006756
-0.031281
-0.017670
0.026276
0.037720
0.000742
-0.009209
0.012352
0.020798
-0.000604
0.024338
0.027542
0.010330
-0.013710
-0.000268
0.015282
0.032318
0.013237
0.006432
-0.006783
-0.014038
0.039642
0.006927
0.003111
-0.025711
0.011574
-0.031860
-0.012573
-0.022400
0.029419
-0.009377
0.031311
0.016464
-0.031555
0.011436
0.015137
0.007244
0.013763
0.003716
-0.002277
0.013710
0.003361
0.002708
-0.017929
0.022171
0.001121
0.013573
0.007866
-0.019501
0.022583
0.001887
-0.006233
-0.020981
0.020508
0.016983
-0.012764
-0.004761
0.031021
0.001872
-0.023361
-0.001684
0.006313
-0.006435
-0.024933
0.001779
0.016373
-0.031677
0.014008
-0.035034
0.017426
-0.005909
0.031586
0.009224
0.012306
0.037170
-0.006218
-0.015327
-0.005100
0.030655
0.023514
-0.033417
-0.034302
-0.019333
0.022156
0.001670
-0.005901
0.033325
-0.026947
0.010399
0.029007
-0.023605
0.011879
-0.023071
-0.005695
-0.010117
-0.026413
-0.030350
0.014664
0.008926
-0.018814
-0.013351
0.019073
-0.017990
0.038849
-0.002705
-0.008774
-0.011108
-0.023239
0.022476
-0.006947
-0.015457
0.024429
-0.001394
0.007336
-0.022232
0.005611
-0.013832
0.017731
-0.022186
-0.008568
-0.023285
-0.028839
0.026276
-0.012718
-0.007557
-0.014366
0.007072
-0.019943
-0.003576
-0.019516
-0.032745
-0.008484
0.023361
0.018494
-0.006927
0.020386
0.005909
0.018539
-0.008827
-0.030151
0.015129
-0.030167
0.005848
-0.028107
-0.010765
-0.029709
-0.025986
0.027710
-0.021423
-0.001827
-0.028015
-0.005177
-0.009819
0.023880
0.000316
-0.005959
0.004307
-0.014091
0.021011
-0.014328
-0.014282
0.008469
0.008575
-0.013359
-0.018921
0.030579
0.023926
0.034943
0.001828
0.016541
-0.026382
-0.019852
0.015930
-0.002863
0.014488
0.001736
0.008301
-0.010147
-0.029099
-0.029861
-0.032959
0.004669
0.036530
-0.020325
-0.028198
-0.006939
0.008965
-0.013206
0.034821
-0.026337
-0.015884
0.026169
0.005039
0.026123
-0.028320
-0.007515
-0.019867
-0.014351
0.003723
0.017685
0.037872
0.037354
0.026016
0.007328
0.014107
0.013008
-0.025406
0.030563
-0.009575
-0.020126
0.035889
-0.023193
0.008209
-0.037842
-0.021317
-0.028366
-0.009964
-0.015160
0.046967
-0.028763
0.009888
-0.001019
0.032593
0.034882
-0.005379
0.024902
-0.001238
-0.011978
-0.029984
-0.001531
-0.029617
-0.022980
-0.015671
-0.013023
0.023453
0.001396
0.026260
0.014267
-0.035278
0.031921
0.003334
-0.011345
0.011230
-0.020035
0.026596
-0.023132
0.031189
0.001579
0.038239
0.017319
-0.002745
0.029251
0.012886
0.041595
0.008308
-0.029495
-0.007042
0.023407
-0.011505
0.007423
-0.009460
0.015152
-0.010155
-0.011749
-0.016785
0.020050
-0.006084
0.008316
-0.006039
0.033875
0.017822
-0.007927
0.010300
-0.037689
0.029922
-0.030914
-0.010162
0.012833
0.026611
-0.028046
0.028732
0.040161
0.017349
0.015747
0.037933
0.022614
-0.007114
-0.029572
-0.006096
0.019531
0.004044
0.019073
-0.002260
-0.028992
0.015190
-0.011040
0.002293
0.002953
0.028046
-0.010139
0.009857
-0.002811
0.026215
0.030991
0.026962
-0.035339
0.012856
-0.027740
0.021683
0.034180
0.030197
-0.008141
-0.014236
0.032013
0.006531
0.031433
0.025955
0.032623
-0.000019
-0.029007
-0.021484
-0.009514
0.039429
-0.022263
0.017883
-0.006985
0.013268
0.012360
0.014290
0.010719
0.039276
-0.017578
-0.010719
0.033905
-0.000221
-0.009758
0.008873
0.027710
-0.025421
0.000539
0.034882
-0.029404
0.001713
-0.024979
-0.026276
0.010628
0.014549
-0.014496
0.009064
-0.002342
-0.031281
-0.025208
0.018616
-0.011391
0.043152
0.010315
0.012672
0.025177
-0.006485
0.005810
0.024673
0.001463
-0.027939
-0.028595
-0.026016
-0.003622
0.011848
-0.020691
0.007275
0.017792
0.006893
-0.031647
-0.003660
-0.009102
-0.017807
-0.042145
0.015640
-0.019791
-0.041077
0.030960
-0.015671
-0.015579
-0.015808
0.036285
-0.018738
0.009758
0.021042
0.016296
0.031677
-0.017441
-0.028122
-0.007759
-0.004295
-0.009438
0.027008
-0.023880
-0.024551
-0.029724
0.022507
-0.036407
0.019424
-0.006260
0.017838
0.008728
0.033691
-0.015121
-0.058746
-0.044647
0.011299
-0.005199
-0.026962
0.021088
-0.031281
0.048767
-0.022003
-0.025787
-0.002136
0.019638
0.026566
-0.009354
0.006748
-0.016708
-0.033234
-0.014595
0.012047
0.000704
-0.036163
0.022568
0.004604
0.016251
0.039062
0.017410
-0.011978
-0.033630
0.027435
-0.057556
-0.027710
-0.010811
0.016113
0.012115
0.035858
-0.007820
-0.011581
-0.031860
0.038696
-0.004726
0.009811
-0.005985
-0.014160
0.006901
-0.015022
-0.045746
-0.003088
-0.045837
-0.017960
0.023438
0.007343
-0.019836
-0.004963
0.025604
-0.034088
-0.045837
-0.004650
-0.030624
0.003056
-0.019730
-0.017593
0.041962
0.029480
-0.051208
0.015327
0.016586
-0.016418
-0.014618
0.046265
0.018723
0.011536
0.009590
-0.019333
0.009438
-0.025681
0.038849
-0.036560
-0.020874
0.002306
-0.033112
0.029373
-0.004768
0.014740
-0.015541
0.031525
0.009491
-0.037384
0.001552
-0.034210
0.009026
-0.017242
0.005058
0.031982
0.028305
-0.011047
-0.014114
0.033325
-0.008362
0.019989
-0.016937
0.007317
0.012672
0.019135
0.019852
-0.017349
-0.022858
0.010338
-0.001219
-0.003328
0.028030
-0.023239
0.032867
0.004368
-0.014458
-0.008736
-0.011505
0.026871
-0.027832
0.034912
0.019958
0.029419
-0.001451
-0.032623
-0.016617
-0.014565
0.014427
-0.038391
-0.011856
-0.028839
-0.032684
0.039642
-0.042542
0.042297
0.026779
0.023911
0.008232
-0.033875
-0.019257
0.005077
-0.025696
-0.003414
-0.006409
-0.024368
0.011139
0.028946
0.014496
0.012779
0.028000
-0.020325
0.011391
-0.027390
0.014603
-0.022568
-0.018692
0.015274
0.014168
-0.001632
-0.025085
0.012360
-0.016754
-0.006073
0.001161
0.019272
-0.029800
0.004379
0.006664
-0.017593
0.035217
-0.033142
-0.037048
-0.012207
0.036377
-0.036499
-0.017578
-0.024704
-0.011139
0.003414
-0.012611
-0.018433
0.036377
0.031708
0.012100
-0.000811
-0.018448
-0.008453
-0.014244
0.029510
0.019043
-0.001169
0.033630
-0.001122
0.005978
-0.002428
0.000715
-0.007107
-0.000172
-0.016312
-0.028549
0.028885
0.042572
0.034546
0.041962
0.037384
-0.027023
-0.010277
0.024185
0.013298
-0.036591
-0.016617
0.030685
0.021149
0.006805
0.018295
-0.024338
0.024963
-0.005951
-0.004158
-0.040222
0.031036
0.037750
0.025879
-0.025558
-0.034607
0.005070
0.011124
-0.010864
-0.024109
-0.034210
-0.029572
0.000481
0.018936
0.030289
0.032654
-0.009933
-0.026764
0.007366
0.018173
-0.024536
0.001797
0.027344
0.010742
0.036499
0.018890
0.030624
0.020004
0.029022
-0.034851
0.009666
-0.031616
-0.037445
-0.010689
0.007793
-0.018692
0.025864
0.028778
-0.011589
-0.039917
-0.006828
-0.004524
0.000742
0.006916
-0.004131
0.013550
-0.018372
0.015602
-0.025696
0.032471
0.007996
0.008308
0.009041
0.008072
-0.039642
0.007568
-0.050293
0.029160
-0.024704
-0.014290
-0.035706
-0.031311
-0.028778
0.031052
0.024582
-0.038971
-0.021454
0.001524
-0.016464
-0.014618
-0.033112
0.037384
-0.010956
-0.000941
-0.031616
0.003025
-0.012589
-0.011696
0.005016
0.022629
0.038361
-0.027771
-0.004284
0.019989
0.006264
-0.011238
0.032501
0.013649
-0.002161
-0.020264
-0.041595
-0.029144
-0.018463
-0.027328
0.009682
-0.003563
-0.011253
0.048096
0.019669
-0.035034
0.031281
-0.016830
-0.018829
-0.005558
0.005924
0.020218
-0.010330
0.027756
-0.032074
-0.032776
0.028427
0.027954
-0.043427
-0.027802
-0.033142
0.004063
0.014816
-0.017792
0.003351
0.003395
-0.004925
-0.011124
-0.027603
0.024124
0.012512
-0.031235
0.001795
0.001890
0.023499
-0.040527
-0.010529
-0.000624
0.039764
0.000707
0.034698
-0.014679
0.009315
-0.012901
-0.006439
0.028183
0.011589
0.032013
-0.023468
-0.034698
-0.029480
-0.009605
0.045807
0.031281
-0.014275
-0.033356
0.029602
-0.047974
-0.005901
0.010002
-0.044128
0.046021
-0.011314
-0.008949
0.020538
0.001833
-0.021561
-0.008606
0.002399
-0.019547
0.019211
-0.012451
-0.000393
0.017426
-0.012733
0.009621
-0.017715
0.007858
-0.024231
0.013634
-0.004398
-0.002964
0.026962
-0.020035
-0.031097
0.030533
-0.011169
0.015778
0.025787
-0.017105
0.024658
-0.011749
0.000607
0.049713
-0.027100
0.020264
0.033539
-0.031860
0.016083
0.018661
0.026794
0.027054
-0.012482
0.020416
-0.022049
0.007248
-0.024704
0.022812
-0.009407
0.004829
-0.027069
-0.033722
0.032715
-0.000468
-0.007710
-0.007656
-0.025345
0.008362
-0.020554
0.018326
0.011055
0.012955
-0.024704
-0.018005
-0.042267
0.012138
0.007851
0.009972
-0.027344
-0.013512
0.007473
-0.041595
-0.018021
0.014763
-0.031235
0.000157
-0.025894
0.020172
0.021500
-0.004234
-0.002502
0.004669
-0.012558
-0.024994
0.021378
0.022842
0.029556
-0.003284
0.000907
0.017624
-0.044128
-0.037842
-0.029617
0.003952
0.006371
-0.017319
-0.005703
0.035522
0.021530
-0.029282
0.027924
-0.011795
0.025223
0.032440
-0.004391
0.013580
-0.012123
-0.001378
-0.014221
-0.019241
-0.003601
0.022156
0.008728
0.006470
0.004517
0.002865
0.034729
-0.029800
0.015121
0.035889
-0.030014
0.011711
-0.005592
0.017487
-0.003204
-0.031677
0.024353
-0.001986
0.021347
0.025665
0.012001
0.015915
0.000048
-0.000803
0.044128
0.018890
-0.034271
-0.007133
-0.016235
0.022766
0.031982
0.021027
-0.027939
0.029190
0.003708
0.038300
0.014809
-0.012161
-0.015541
0.006107
-0.024902
0.015366
0.024231
-0.038239
-0.008408
-0.025177
-0.013947
-0.021149
0.015053
0.011261
0.006176
-0.014626
0.005253
0.036224
0.011459
-0.027374
0.010719
0.039246
0.028580
-0.039154
-0.015762
0.006157
0.011322
-0.024826
-0.028687
0.006935
0.025116
0.014725
0.019653
-0.010178
0.037659
0.019119
0.001481
0.019562
-0.019363
-0.027863
0.028351
-0.027267
-0.030090
-0.008232
0.006824
-0.003229
-0.029739
0.018524
0.004837
0.005306
-0.032288
0.024979
-0.016678
-0.021286
0.008553
-0.035095
-0.017502
-0.013672
0.010490
0.021973
0.005821
0.021469
0.010033
-0.007057
0.028473
-0.002565
0.037781
0.024384
-0.001033
-0.031433
0.001421
-0.006004
-0.020721
0.028122
-0.009766
0.031097
0.032074
-0.009911
0.006577
-0.003351
-0.027924
-0.034454
-0.028168
-0.001369
0.033173
0.024033
0.028519
0.001359
-0.007763
-0.011749
0.003395
0.043091
0.005089
0.009850
-0.005486
0.035583
0.031113
0.022644
0.008255
0.022644
0.029938
-0.023727
0.034668
-0.002447
-0.014244
0.028351
-0.031769
0.011703
0.026520
-0.041718
-0.029861
-0.032745
0.005535
0.026978
-0.013985
-0.001938
-0.035309
0.032776
0.025375
-0.021286
0.025620
0.015373
-0.013138
0.023987
-0.014206
-0.004036
-0.025436
0.022446
-0.036346
0.019485
-0.013145
-0.043793
0.028061
-0.011650
0.001860
-0.024216
0.025192
-0.007301
0.045105
-0.007698
0.019180
-0.026306
-0.005108
0.049438
0.060211
-0.015854
0.045776
0.017563
0.012573
0.029785
-0.034698
-0.026932
-0.037018
-0.008568
0.003714
-0.002251
0.017471
-0.024399
-0.035400
0.058929
-0.006702
-0.047333
0.031921
-0.038666
0.008812
0.011589
-0.020508
0.026733
0.009888
0.016907
-0.021240
0.020523
-0.009697
-0.031128
-0.024124
-0.018478
0.032196
-0.029465
-0.013504
0.037384
-0.010124
-0.019440
-0.016235
-0.027939
-0.014534
0.010948
-0.044373
0.003130
-0.003660
0.027481
0.018005
-0.021439
0.054260
0.040161
0.023834
0.036591
0.018005
-0.012466
-0.038605
-0.002176
0.040771
0.040253
0.022751
0.027191
-0.026840
-0.001420
0.022476
-0.027100
-0.049561
-0.003656
-0.018784
0.026855
-0.030930
-0.018677
0.034302
-0.000223
-0.005249
0.031586
-0.003757
0.021362
-0.034698
-0.002199
-0.033508
-0.025604
0.031708
-0.024307
-0.006695
0.006531
0.016159
-0.022873
-0.015465
0.004822
-0.054535
0.008766
-0.014397
0.021439
-0.021164
-0.041931
0.014183
-0.004444
-0.036163
0.053436
0.013382
-0.029861
0.019470
-0.014908
0.003572
-0.040070
0.004925
-0.016739
0.012016
-0.013077
-0.041870
-0.029877
-0.036896
-0.033844
0.036560
-0.025101
0.023605
0.021271
-0.036224
0.012993
0.028275
-0.001037
-0.006542
0.033844
-0.034271
-0.023697
-0.018814
0.019257
0.033539
0.042053
-0.026840
-0.039215
-0.029022
0.042053
-0.016739
-0.003885
-0.022720
-0.014275
-0.001391
-0.033356
0.003397
-0.022598
-0.003498
0.012772
0.027115
-0.029510
-0.001489
-0.005962
-0.039368
0.009506
0.038300
0.023972
-0.000414
-0.000058
0.002054
-0.004299
0.012978
0.052551
0.000468
-0.035370
0.010590
0.004391
0.037537
-0.000935
0.039093
-0.018356
0.023804
-0.021576
0.027573
-0.032227
-0.007473
0.017670
0.014320
0.032898
0.025436
-0.021729
-0.040527
-0.021851
0.004120
-0.026733
0.022125
0.005207
-0.027237
-0.003056
-0.049500
0.008362
-0.015289
0.036072
0.017273
-0.018921
0.025955
-0.010704
-0.049500
-0.013695
0.010498
0.022003
0.023529
0.029755
0.047241
-0.007492
-0.020065
-0.025345
-0.019455
-0.024155
-0.008850
-0.036011
-0.002653
-0.009048
0.056030
-0.010185
0.014969
-0.030441
-0.058014
-0.006374
-0.035980
0.011749
0.049805
-0.005836
0.001842
0.006973
-0.006176
0.017624
-0.011269
0.022522
0.000480
0.045532
0.046509
-0.001692
-0.002642
0.000458
-0.034546
0.037170
-0.048248
-0.002682
-0.087769
0.030304
-0.018112
-0.015717
-0.014381
-0.026276
0.003401
0.024307
0.003122
0.043243
0.030411
-0.031860
0.005455
0.021240
0.030136
-0.034302
-0.042755
-0.028473
0.006073
0.042023
0.025558
-0.016525
-0.012161
-0.030991
0.045197
-0.025253
0.024734
0.006138
-0.040985
0.009048
0.022507
0.002010
-0.034851
0.037781
0.053528
-0.038147
0.021927
0.034515
0.034882
0.068604
0.017426
-0.010651
-0.021103
-0.028793
0.032074
0.045380
0.038910
-0.029129
0.021255
0.038239
-0.025818
-0.010864
0.003590
-0.015198
0.029495
-0.005180
0.002903
-0.017563
0.027710
-0.003313
0.033447
-0.014793
-0.012497
0.034485
0.021439
0.067566
0.007221
-0.038147
-0.016144
0.003172
-0.038910
-0.006409
0.014526
0.051544
-0.039001
0.027420
-0.020081
0.063599
0.010750
-0.017014
0.030731
0.061462
0.017044
0.003531
0.022110
0.018951
0.010666
-0.032623
0.015091
0.014954
0.027161
-0.028625
-0.000662
0.040283
-0.001628
0.029404
0.008682
0.003597
0.029129
0.026215
0.033722
0.022629
0.002014
0.013611
-0.040710
0.040253
0.015114
0.028824
-0.032440
0.024536
-0.077148
0.030685
0.012848
0.008827
0.014671
0.005409
-0.014122
-0.009804
0.009041
0.002323
0.002888
0.022125
0.035675
-0.005177
-0.026703
0.034760
0.035309
0.028824
-0.024323
-0.018143
-0.025299
0.010300
-0.015915
-0.013206
0.025024
-0.001450
-0.011871
0.018585
-0.030472
-0.005295
0.027756
0.015656
0.020432
0.032593
0.029663
0.034729
-0.003054
-0.016830
0.015015
-0.015701
-0.025833
0.032898
0.000094
0.010147
-0.001192
-0.001308
0.000798
-0.034119
0.024368
-0.009789
0.001409
0.021942
0.002518
0.008598
-0.029678
0.042664
-0.034943
-0.026108
-0.009331
-0.004875
-0.003649
-0.023636
-0.024551
0.013420
0.025650
0.027054
-0.036499
0.020233
0.010208
0.033722
-0.002888
-0.033020
0.021057
-0.030823
-0.002296
-0.016479
-0.008621
0.017960
-0.006546
0.014153
-0.003386
-0.014015
-0.005291
-0.007523
-0.021820
0.014481
0.032104
-0.026321
0.001020
-0.008163
0.033234
-0.012543
-0.005505
-0.029739
0.004570
0.018402
-0.002636
-0.018341
0.000259
-0.012878
-0.007172
0.004505
0.010330
0.006062
-0.011742
-0.021133
-0.017929
-0.007874
-0.019516
-0.018860
-0.024750
0.004917
-0.001184
0.022217
0.007957
-0.013992
-0.022888
0.031586
-0.018311
0.007927
-0.005100
0.019806
-0.026077
0.009354
0.010361
-0.012634
0.026749
-0.010849
-0.033844
0.027969
0.019852
0.010422
-0.012161
0.003855
0.020020
-0.041779
-0.030029
-0.009552
-0.000638
-0.008553
0.026169
0.012444
-0.043335
0.018219
-0.018707
-0.014526
-0.020447
-0.006126
0.021591
-0.023438
-0.004417
-0.030029
0.029419
0.024658
0.020889
-0.037720
0.022751
-0.017380
-0.010223
-0.009033
0.016052
0.006306
-0.017426
0.000605
0.034821
0.012360
0.026810
0.033386
0.019409
0.022461
0.016541
-0.011223
-0.004520
0.037201
-0.022186
0.002497
-0.028107
-0.011154
-0.027084
-0.024109
0.029175
0.022018
-0.032227
0.034729
0.005501
-0.019104
-0.003925
0.028809
-0.003519
-0.036743
0.013687
-0.013710
0.005703
0.001630
0.014442
-0.033875
-0.024155
0.008583
-0.017151
0.015152
0.026215
-0.028015
0.005619
-0.016357
-0.036194
-0.010361
0.019089
0.041290
0.005459
0.026199
0.011848
-0.000519
-0.031677
0.008621
-0.008728
0.025620
0.007236
0.049133
-0.025635
-0.025024
0.015373
0.017517
0.024948
-0.002594
0.027222
-0.019623
0.020752
0.026154
-0.024887
-0.008347
-0.020401
0.020111
-0.034637
0.023560
-0.014908
-0.019440
0.038055
0.006073
0.004707
0.020126
0.035675
0.037720
-0.024597
-0.030899
-0.003464
0.003941
-0.026199
0.008865
0.028320
0.027557
-0.049988
0.023575
0.035645
-0.028320
0.005123
-0.008751
-0.024017
0.016525
0.017624
-0.017288
-0.028122
-0.034149
0.016922
-0.013031
-0.012169
-0.009399
0.039062
-0.057831
-0.037415
-0.040833
0.045654
0.014175
0.032196
0.034576
-0.034607
-0.027771
0.041901
-0.003143
-0.014275
0.029816
0.014145
0.040955
-0.037018
-0.047089
0.008713
-0.010803
-0.043518
0.015793
0.018967
0.021744
0.017883
0.006588
0.009911
-0.026443
0.048126
0.006584
0.027817
0.031311
-0.025970
-0.006847
0.006973
-0.018097
-0.014679
0.004482
-0.022217
0.000866
0.014328
-0.046875
-0.056091
0.041290
0.012901
0.046906
0.026230
-0.015686
-0.036591
0.044312
-0.014687
0.047699
-0.002356
0.000891
0.014908
-0.004322
0.032043
-0.004871
0.024841
0.016830
-0.003229
0.015312
0.006069
-0.024414
0.012840
-0.012054
0.005302
0.010429
-0.012405
0.032410
0.012192
-0.029175
0.051941
-0.100891
-0.020447
-0.042847
0.018890
0.031525
0.034760
0.043091
-0.035309
0.011101
0.028671
0.044220
-0.033752
0.015617
-0.005165
0.041199
0.102661
-0.021118
-0.001399
0.033966
0.057587
-0.038361
-0.026886
0.014320
-0.011284
0.032318
-0.065552
0.017166
-0.022461
0.014061
0.008438
0.012833
-0.029510
-0.004375
-0.029694
0.031128
0.016586
0.020905
-0.034698
-0.019836
-0.032837
-0.003630
-0.013718
0.017487
0.032288
0.007099
0.012573
-0.001454
-0.008469
-0.018600
0.015732
0.030823
-0.011055
-0.038086
0.017456
-0.021317
-0.023315
0.009109
-0.000391
0.016800
-0.032684
0.027176
-0.027908
0.019775
-0.020233
-0.025421
0.029327
0.003382
-0.011787
0.004684
-0.024963
-0.033630
0.034760
0.005493
0.025864
-0.031647
-0.020462
-0.017441
0.020508
-0.001900
-0.011787
-0.004879
0.019897
0.032074
-0.007919
0.030304
0.032440
0.018051
-0.028000
-0.013870
-0.036530
-0.027100
0.018890
0.025101
-0.004272
-0.020493
-0.014580
0.013359
0.021072
-0.032501
0.012039
0.002728
0.005508
-0.003639
0.001613
0.001665
0.022476
-0.017609
0.015602
0.033356
0.038513
-0.026917
-0.015190
-0.009880
0.023605
0.010773
-0.001950
-0.031464
-0.009262
0.015244
0.002981
-0.031342
-0.030746
0.028061
-0.014175
-0.001640
-0.010979
-0.007645
0.004387
-0.027191
0.002670
0.036774
-0.000099
0.005344
-0.004635
0.040497
-0.000756
-0.000109
-0.002777
-0.026337
0.022400
-0.016861
0.012482
0.011078
0.037415
0.001953
0.016724
0.010887
0.014397
-0.012665
-0.025620
-0.003126
-0.007599
-0.024719
0.035309
-0.018829
0.003986
0.034912
0.029419
-0.027222
0.000005
0.000413
0.021881
0.002007
0.026962
-0.012413
-0.028671
-0.036804
-0.046356
-0.014977
0.001459
-0.033447
-0.034363
0.034882
-0.016968
0.038788
0.028397
-0.006432
0.027725
-0.006760
0.032562
-0.015793
0.001817
0.039429
-0.001309
-0.005268
0.009857
0.005459
-0.030045
-0.008698
0.011230
-0.016205
0.020020
0.000302
0.001473
-0.012169
0.021957
-0.024338
-0.035461
-0.018219
-0.023254
0.017242
0.039307
-0.012123
0.018967
0.022034
-0.020615
0.025284
0.011620
-0.023743
0.027802
0.025757
0.008827
0.022995
-0.019913
0.022232
-0.009270
-0.010788
-0.013748
-0.027908
0.000974
0.023880
-0.033722
-0.010139
-0.019531
0.017731
-0.014671
0.008728
-0.013954
0.032898
-0.006405
-0.013283
0.004276
-0.001693
-0.016724
0.004581
0.031113
0.011261
-0.013420
-0.035370
-0.019012
-0.009735
-0.017303
0.016327
-0.005520
0.003765
0.020172
-0.020325
-0.024689
0.028320
-0.035065
0.042175
-0.016037
0.029358
-0.011948
0.025436
-0.027359
-0.058533
0.023483
0.007957
0.029510
-0.025330
0.039276
-0.020233
0.012276
0.007408
-0.020981
0.005196
-0.032867
0.023911
-0.030396
0.027283
0.047150
-0.033386
-0.000774
-0.023361
0.009094
0.007767
0.020218
-0.029999
-0.024796
-0.033386
-0.021118
-0.015388
-0.023422
-0.011337
-0.022858
0.022552
0.024811
0.026978
0.023315
0.002628
-0.035828
-0.013115
-0.020203
-0.035797
-0.013550
-0.009430
-0.024277
0.035736
-0.033875
-0.008324
0.011200
0.024231
0.012260
-0.040161
-0.017395
0.007778
0.022903
0.022842
0.015282
-0.002289
0.017044
0.020935
-0.029251
0.013222
-0.026016
0.011940
-0.003265
-0.001838
0.005852
0.015717
0.017548
-0.002005
0.045563
0.002701
-0.044556
0.018692
-0.003078
0.023514
0.012527
0.029221
0.020706
-0.038818
0.018234
0.035187
-0.001150
0.013451
0.028778
0.005569
0.015236
-0.028793
-0.015991
-0.012680
-0.035553
-0.018555
0.008606
0.037689
0.027893
-0.046326
0.015236
-0.046631
-0.009239
-0.015472
-0.047607
-0.016708
0.013428
0.017746
-0.019623
-0.017105
-0.018204
0.033173
0.019684
-0.008492
-0.023926
0.001951
-0.016571
0.016479
-0.026337
0.003521
0.017273
0.006752
0.003370
0.025696
-0.008118
0.010857
0.003269
-0.020370
-0.025528
0.025696
0.023880
0.007561
-0.007793
0.025757
-0.003397
-0.064697
-0.005707
-0.007206
-0.007675
-0.021042
0.012527
-0.019180
-0.002663
-0.024765
0.070190
0.008713
-0.018982
-0.000960
-0.016510
0.027054
0.041229
-0.020660
-0.016815
0.029617
-0.007851
-0.001177
-0.017227
-0.016129
0.007767
-0.017654
-0.065002
0.016495
-0.039124
0.001884
-0.022003
0.014465
-0.053467
-0.014130
-0.020416
-0.031311
0.001367
-0.018341
0.004551
-0.022079
0.034454
0.002743
0.024902
-0.018417
-0.026871
0.004295
0.015808
0.005219
0.004051
0.005123
-0.010910
0.028168
-0.028397
-0.020416
-0.035919
-0.024841
-0.021530
0.008202
0.005653
-0.016891
0.017288
-0.034546
0.037170
-0.023956
0.017471
0.013756
-0.013283
-0.032440
-0.047211
0.013779
-0.007114
-0.060883
-0.016312
0.006035
-0.024673
0.005184
-0.013245
-0.032166
-0.053101
0.007809
0.022079
0.004822
-0.019699
-0.040497
-0.063354
0.027374
-0.030304
0.014931
-0.004623
0.021210
-0.024307
-0.022476
-0.000067
-0.041809
-0.018814
-0.044586
-0.003000
0.004261
-0.057465
0.002598
-0.004425
0.010269
-0.003252
-0.058044
0.015266
0.007126
-0.004963
-0.017273
-0.007042
-0.022919
0.036621
-0.049316
0.014343
-0.004742
0.019775
-0.017624
-0.021744
0.001584
-0.054504
-0.021271
0.000882
-0.028503
0.004528
0.004894
-0.011421
0.047241
-0.022369
-0.009369
-0.007568
-0.001984
-0.044403
-0.002863
-0.036591
0.034180
0.004612
0.019699
-0.033173
-0.041077
0.031403
-0.003344
-0.050201
-0.049561
-0.008736
-0.021133
-0.047913
-0.024963
-0.032990
-0.018478
-0.026154
-0.007603
-0.049042
0.032379
0.051910
0.008507
0.011696
-0.038910
0.010826
0.000968
0.014923
0.000727
0.028336
-0.051422
0.005802
0.006439
0.009659
-0.018723
0.003481
0.030914
-0.031921
0.028137
-0.026962
-0.045807
-0.013489
-0.057678
0.009468
-0.003675
-0.028305
-0.031372
0.036591
-0.015015
-0.062927
0.014359
0.002815
0.039154
-0.013344
0.000497
0.003077
0.000689
-0.028946
0.004833
-0.027771
0.031586
0.002380
-0.002867
-0.019928
-0.001110
-0.016327
0.024414
0.034851
-0.005970
0.031097
0.019897
0.013344
0.007477
-0.034119
-0.021118
-0.018829
0.006180
0.035858
0.000088
-0.033020
-0.019775
-0.004684
0.007191
-0.005943
-0.041382
0.014984
-0.014023
-0.037140
0.033356
0.045258
-0.004009
-0.043884
-0.011047
0.001764
0.027786
-0.002254
-0.012062
-0.008774
0.025864
-0.023315
-0.035553
-0.032379
0.002029
-0.010872
-0.005035
0.045898
-0.017700
0.002745
0.009132
0.002663
-0.036530
0.026901
-0.016281
-0.005684
-0.001196
-0.002678
-0.022888
0.020706
-0.024582
-0.011734
-0.013664
-0.004696
0.013397
0.037018
0.014153
-0.011581
-0.056946
0.047638
0.008629
-0.011276
-0.043610
0.056519
-0.009705
0.024673
-0.032867
-0.005913
0.022446
-0.036865
-0.003704
0.009644
-0.023987
0.038635
0.002966
0.016296
0.013702
0.055725
0.021667
-0.038116
-0.015900
-0.018845
-0.002495
0.017120
0.011414
0.024277
0.022995
-0.012970
-0.027145
0.026886
-0.014427
0.024017
-0.021896
-0.011703
-0.004478
0.000752
0.009850
-0.010773
-0.006134
0.031403
0.009109
0.019409
-0.018723
0.044739
0.025040
0.016556
0.023392
0.012505
-0.002832
0.014236
0.020676
-0.012733
0.003283
0.019836
-0.026337
-0.001474
0.017136
0.036560
-0.038483
-0.010078
0.014984
-0.038849
-0.021164
0.012276
-0.032776
-0.021149
-0.017761
0.004776
-0.019028
0.021591
-0.032990
0.012772
-0.003975
-0.001896
-0.033630
0.026398
0.014870
0.018982
0.020493
-0.022720
-0.004883
0.039154
0.024765
-0.034790
-0.002289
0.019958
-0.030975
-0.015442
0.038361
-0.000596
-0.017059
0.003674
0.001336
0.008476
-0.011604
-0.030060
0.012909
0.011986
-0.010223
0.015625
0.010872
-0.022156
0.048523
0.017288
-0.037903
0.006248
-0.026352
-0.021103
0.015747
-0.001984
-0.011993
-0.009735
-0.003862
-0.004566
-0.039093
0.037323
-0.034058
0.022659
0.010239
0.019363
-0.032288
0.012589
0.009521
-0.014053
0.012054
0.016159
0.030548
0.011177
-0.017395
-0.045807
0.004589
-0.012871
0.002760
0.022003
-0.034302
-0.025208
-0.011749
0.027679
0.008430
-0.020569
-0.018692
-0.048431
-0.020706
-0.038177
0.048859
-0.020874
0.006748
0.046051
0.044495
-0.007820
-0.027527
-0.006359
-0.009789
-0.014809
-0.028931
-0.006531
0.048767
0.031799
-0.039551
-0.035675
0.004181
-0.004620
0.019211
-0.019714
0.029327
0.023849
-0.027039
0.018982
-0.008873
-0.026367
-0.034668
0.007267
-0.011726
0.013596
-0.028198
0.035400
0.015381
-0.010033
-0.004848
-0.035126
-0.016830
-0.032959
-0.038971
-0.038177
-0.039795
0.005310
0.018509
-0.022705
-0.001006
0.029053
-0.045837
0.018341
0.048676
0.002649
0.045105
-0.039856
-0.002275
-0.003294
-0.006821
-0.004993
0.008003
0.009605
-0.024231
-0.012009
0.017090
0.043976
-0.009811
-0.000143
-0.027695
0.023636
-0.013954
-0.010002
0.018829
0.046265
0.018875
0.011688
-0.017349
0.018494
0.033630
-0.011620
0.016083
-0.016922
-0.036713
0.020340
0.019547
-0.033112
0.006294
-0.025604
0.011742
0.020508
-0.036499
0.029694
0.007812
0.015038
0.027267
-0.056763
0.004612
0.008568
0.016983
0.020325
0.008263
0.024673
0.027237
-0.013916
0.013702
-0.008041
0.042236
-0.027267
-0.018173
-0.023468
0.050995
0.039429
0.023453
-0.004108
-0.039978
0.019577
0.012108
-0.007767
0.006981
0.050598
-0.000973
-0.022369
0.033905
0.037994
0.017670
0.018021
-0.021820
0.018112
-0.022385
0.015640
-0.012398
0.033936
-0.006989
0.033752
0.028946
0.001235
-0.006588
-0.065613
0.015396
-0.058960
-0.019867
-0.049255
0.000390
0.022491
0.031921
-0.065857
0.020599
0.012680
-0.012886
-0.012192
0.049469
-0.033722
0.034515
0.055908
-0.054901
0.053802
-0.013809
0.032654
-0.020157
0.026535
-0.023849
0.004528
0.006184
-0.003859
-0.001102
0.005795
-0.004421
-0.012810
-0.014771
0.013390
-0.018204
0.034393
0.013077
-0.009521
-0.034546
0.020981
0.002569
0.000855
-0.014076
0.005058
0.019913
-0.001776
-0.006275
0.018677
0.008232
0.019455
0.015404
0.032532
-0.022736
-0.000940
0.014565
0.017471
-0.012375
-0.034851
-0.036407
-0.035797
-0.028519
0.035126
-0.030090
-0.014374
0.032806
-0.025803
-0.004322
0.023941
-0.005913
-0.019226
0.041321
-0.024109
-0.003384
-0.016785
0.040802
0.044617
0.021713
0.018356
-0.035645
-0.023972
0.028717
-0.006237
-0.011490
0.005516
-0.016464
-0.004402
-0.010910
-0.024704
-0.006313
0.022995
-0.024948
-0.005249
0.022156
-0.022095
0.012711
-0.018738
0.030777
-0.020157
0.020554
-0.023636
0.024124
-0.025772
-0.009132
0.013008
0.024002
-0.000932
-0.006634
0.026337
0.031799
-0.000123
0.024963
-0.007488
-0.015472
0.036743
-0.002302
-0.043457
-0.025101
-0.037170
-0.034515
0.009079
-0.022583
-0.006077
0.028015
0.023087
-0.027466
0.029892
0.001217
0.018448
-0.002108
0.014046
-0.015717
0.003433
-0.006546
0.020065
0.009102
0.030090
0.026398
0.034393
0.007614
-0.011063
0.033051
-0.035065
-0.000450
0.029388
0.024765
-0.000760
-0.013115
0.003260
0.013054
0.015251
0.006477
-0.021957
-0.043243
-0.024384
-0.033722
-0.000584
-0.016968
0.010902
-0.000234
0.021484
-0.014366
-0.015915
-0.007015
0.013428
-0.009613
-0.028336
-0.008446
0.021683
0.013756
-0.011452
0.032745
-0.015320
0.029434
-0.011856
0.026489
-0.032288
0.010635
-0.002735
0.000422
-0.032349
-0.000171
-0.022873
0.030670
0.002047
-0.024963
0.001772
-0.011658
0.001527
0.010544
-0.006718
-0.000330
-0.005775
0.026154
-0.020782
-0.028839
-0.030075
-0.011871
0.011665
0.013412
0.006641
-0.011505
0.034760
-0.037048
-0.004391
-0.008400
0.019135
0.012329
-0.028564
0.018631
-0.029465
0.003124
0.003378
-0.007504
0.010056
-0.019180
-0.036316
0.025909
-0.003195
-0.032410
0.010765
-0.028839
0.008255
-0.013435
0.032715
-0.034332
-0.013603
0.001151
0.006706
0.036530
0.016769
0.024399
0.029327
-0.036865
0.027954
-0.026382
-0.028214
0.012642
-0.038849
0.001032
-0.010880
-0.024948
0.018524
0.030716
0.031891
0.027496
0.024231
-0.027115
-0.020691
-0.026642
0.032532
0.035828
0.035126
0.036804
-0.023392
-0.031799
-0.037048
0.021851
0.025391
0.021500
0.027405
0.027145
-0.037537
0.007950
-0.034363
-0.007610
0.004272
-0.011673
-0.005566
0.001500
-0.012848
0.021606
-0.020599
0.031738
0.004070
0.000491
-0.014160
-0.034943
0.003027
-0.034973
-0.010826
-0.039276
0.004532
0.000460
0.017120
-0.006622
-0.033600
-0.013580
0.029129
0.002731
0.021454
0.024078
0.031067
0.043304
-0.028214
0.019012
0.027191
-0.025162
0.002846
-0.031586
0.034241
-0.006641
-0.010239
-0.008972
-0.007572
-0.016037
0.044189
0.007355
-0.016876
-0.023224
0.029648
0.014778
-0.027222
0.014717
-0.015198
-0.034363
-0.003693
0.028503
0.021774
0.007980
0.017105
0.004162
0.010422
0.000139
0.022797
0.030670
-0.024536
-0.015656
0.010521
-0.022949
-0.027878
0.003853
-0.001431
0.018570
0.022263
-0.008240
-0.007118
-0.030060
0.028046
0.022110
-0.019653
-0.008484
-0.028793
-0.013489
0.006496
0.024506
0.001590
0.023483
0.018875
-0.008392
-0.000694
0.009369
-0.029633
-0.006081
-0.008324
0.019302
0.024734
-0.020157
-0.013016
-0.036041
-0.002468
-0.015732
-0.015533
0.019989
-0.003731
-0.003216
0.009438
-0.009857
-0.028824
-0.037781
-0.003479
0.006821
-0.008438
0.004578
0.000584
0.012352
0.038635
0.030457
0.001833
0.002802
0.027817
-0.038208
-0.033173
0.019058
0.007778
0.017929
0.011032
0.000142
-0.019333
-0.012108
-0.009163
0.009529
0.027634
-0.003534
-0.025558
-0.002995
0.022919
0.022598
0.007084
-0.022781
0.009033
-0.029053
0.021286
0.015182
-0.009682
-0.013412
-0.012985
-0.004234
0.003757
0.002760
-0.023392
-0.004299
-0.018005
-0.001159
0.003387
0.015915
0.035858
-0.013054
0.026154
-0.011169
-0.005917
0.039734
0.018555
0.004784
-0.022873
-0.024658
-0.023712
-0.029037
0.011711
0.036163
-0.014420
-0.043213
0.024551
0.028961
-0.016327
0.011444
-0.022964
-0.037079
0.027969
-0.021530
-0.010262
-0.025024
-0.007793
-0.011925
0.014191
0.038208
0.035065
-0.036133
0.017471
-0.024551
0.027191
0.004383
0.035156
-0.020309
-0.014786
0.050079
0.026413
0.032501
-0.004467
-0.014549
0.030319
-0.013359
-0.024139
0.016281
-0.013237
-0.011772
-0.005974
-0.006901
0.010681
0.020859
-0.009834
0.039551
-0.013023
0.029037
0.006172
-0.005848
0.034241
-0.039948
0.029083
0.021881
0.026443
0.038361
-0.048584
0.011307
0.006588
0.003265
0.000900
-0.059143
-0.026413
-0.003778
-0.004517
0.012482
-0.006866
-0.015335
0.023544
0.021957
-0.029968
-0.050262
0.033966
0.039795
0.040588
0.018326
-0.015884
-0.027069
0.045471
0.005104
-0.010773
0.001153
0.020905
0.000439
-0.022095
0.010719
0.043762
0.004623
-0.044403
-0.021927
-0.033966
0.005657
-0.033173
0.028519
-0.018967
0.010277
-0.041595
0.009750
0.013458
0.018738
0.015282
0.005577
-0.040344
-0.020218
-0.011917
0.002188
-0.004700
-0.016052
0.032104
0.045593
0.022461
0.016144
0.040863
0.018311
0.021042
0.009163
-0.023117
-0.012619
0.050385
0.010406
0.002893
-0.004761
0.004551
-0.005375
0.019608
-0.016464
-0.023560
-0.023407
0.022385
0.009148
0.022369
-0.010437
0.015808
-0.016815
-0.019394
0.034698
-0.030090
0.034454
0.006237
-0.015015
0.000302
0.002184
0.000123
-0.042603
-0.008560
-0.004017
0.026215
0.008865
0.035248
-0.008514
0.004093
-0.014748
-0.031738
0.033691
0.037842
0.000487
0.002932
-0.003395
0.020752
0.031021
0.031769
-0.007896
-0.019211
-0.031235
-0.002401
0.024353
0.012283
-0.004082
0.000637
-0.043396
0.013992
0.033539
-0.040710
-0.006023
0.010193
0.021469
-0.000212
-0.021744
0.001779
-0.036133
-0.002436
-0.007633
-0.026260
-0.027206
-0.043274
-0.020599
0.004116
0.034241
-0.002518
0.003139
-0.015434
0.031952
-0.022034
0.011253
0.006691
-0.004234
-0.028397
-0.003654
0.008316
-0.035004
0.005577
0.025436
0.014641
-0.023102
-0.020844
0.003853
-0.017426
0.042755
-0.020447
0.026840
0.011246
0.024323
-0.028824
0.024551
0.009308
-0.028763
0.022736
0.016388
-0.011185
0.032471
-0.025345
-0.008255
0.000419
-0.032379
0.016922
0.030304
0.030411
0.033112
0.003523
-0.018585
-0.032318
-0.014519
0.002495
-0.015839
-0.020126
0.041901
-0.024963
0.040863
-0.019577
-0.035706
0.007618
-0.019836
-0.039124
-0.021942
-0.018600
0.028763
-0.016251
-0.041718
0.015099
0.007114
0.012886
0.006569
0.020203
-0.035309
-0.009621
-0.025192
-0.013161
0.000866
0.003584
0.000791
-0.018372
0.025986
-0.010864
-0.018524
0.029572
-0.032745
0.028458
-0.000953
0.002209
-0.031738
0.014130
0.001266
0.003492
0.019806
0.009590
-0.016632
-0.017288
-0.012405
0.018341
0.037354
-0.042847
-0.028336
-0.039520
0.045258
0.032715
-0.015175
-0.020142
0.019577
-0.026428
0.011894
-0.014030
0.008934
-0.013649
0.026321
-0.011757
0.003513
0.020172
-0.013260
-0.024445
0.006874
0.017639
-0.012634
0.043793
0.019577
0.005192
-0.029419
0.015961
0.003498
0.022583
0.013947
0.015640
0.015579
0.013008
0.018829
0.006824
0.005058
0.000582
-0.004395
-0.013153
-0.005749
0.028473
0.011070
0.012726
0.015762
-0.013336
0.022781
0.018768
0.040649
-0.048248
-0.000933
0.001019
0.035492
-0.009964
-0.054504
-0.007458
0.029434
0.017609
0.008888
-0.020905
-0.026535
0.031647
0.004009
0.009171
-0.020935
0.047150
-0.029984
0.035095
-0.001763
0.021133
-0.018799
-0.013885
-0.028488
-0.023361
-0.029449
0.036530
-0.017212
0.017868
0.011864
0.040009
-0.019150
-0.024078
0.020966
0.015228
0.003805
-0.004002
-0.000668
0.008736
-0.032745
0.018066
-0.013138
0.043091
-0.012871
-0.022720
0.011673
-0.037170
0.002520
0.007050
0.039948
0.004028
-0.015625
0.001055
-0.007462
-0.023743
-0.023499
0.034088
0.019760
-0.020538
0.021851
0.027420
0.002855
0.027023
0.009674
-0.010620
0.018570
-0.014633
-0.041687
0.011200
0.011986
0.022141
0.013283
0.025421
0.004738
0.006821
0.008698
0.007339
-0.006958
0.030930
0.033447
0.001014
0.004719
0.001183
-0.022995
-0.004616
0.012718
-0.022018
0.011330
-0.011604
-0.020447
0.007702
0.002037
0.027802
-0.016937
0.030609
-0.006504
0.009384
-0.014626
-0.020096
-0.010239
0.018600
0.017731
0.033905
-0.007957
0.022507
-0.015945
0.023468
0.013275
0.000622
0.039673
0.013100
0.016159
0.021759
-0.018967
0.024872
0.011360
0.026474
0.005249
-0.035034
0.025681
-0.033234
-0.012154
0.030991
-0.003334
0.037323
-0.024963
-0.018250
0.013870
0.009743
-0.000959
-0.022034
-0.032867
-0.020264
0.001526
-0.006477
0.040070
-0.003897
0.011620
-0.003250
-0.026382
-0.014709
0.003778
0.037476
0.009300
-0.011047
-0.004208
0.005657
-0.006382
0.032257
-0.016998
0.020554
-0.038300
0.012115
-0.022354
0.026062
-0.016235
-0.016617
-0.003765
0.031143
-0.019180
-0.004822
0.017761
-0.009361
0.011826
0.026886
0.012878
-0.013550
-0.004005
0.038055
0.023224
-0.018799
0.036621
0.007137
0.044128
-0.002979
-0.021240
0.022171
0.016403
0.014618
0.025620
-0.012894
0.004272
0.020523
0.019333
0.016006
-0.003664
-0.011711
-0.009560
0.000433
0.034119
0.018707
-0.023911
0.020111
-0.031647
0.008125
-0.035583
0.022385
0.009491
0.002771
0.026932
-0.015686
0.026306
-0.020294
0.022812
-0.006405
-0.033386
0.002604
-0.010086
-0.007740
0.014503
0.031097
-0.008423
0.018967
-0.018341
-0.024109
-0.010925
-0.021088
0.022385
-0.014267
0.003527
0.025833
-0.012321
0.035309
-0.005852
0.001832
0.006557
-0.023712
-0.018661
0.025024
0.001738
-0.027145
0.022659
-0.032379
0.016129
0.016418
-0.019730
0.029587
-0.004627
0.008553
-0.029922
0.001332
-0.007675
-0.007828
0.026962
0.032104
-0.007740
-0.030640
0.014847
0.015366
-0.009102
-0.025253
-0.020523
-0.021530
0.002472
-0.029449
-0.018250
-0.022293
0.030670
0.008583
-0.026733
-0.023575
0.030655
0.019547
-0.000385
0.022354
-0.015251
-0.020203
0.036011
-0.014099
-0.009041
-0.020050
-0.029968
-0.008385
-0.026215
-0.006886
0.033234
-0.014374
0.026779
-0.022125
-0.021576
-0.021500
0.032257
-0.017380
0.036133
-0.032745
0.014977
-0.003878
0.006905
0.025162
0.019806
-0.029297
0.010658
0.025070
-0.008369
-0.020676
0.012352
-0.012306
-0.010551
0.028839
0.031158
0.008026
0.020279
0.002306
-0.026978
0.019516
-0.016342
0.002272
0.025269
0.019318
0.032257
0.009712
0.002083
0.025574
0.015251
0.011177
0.033112
0.016571
-0.002056
0.007366
-0.020309
0.020355
0.019226
0.013748
-0.016754
0.029816
-0.019363
0.007320
-0.037842
0.014778
-0.002729
-0.028519
-0.027496
0.000514
-0.023682
0.024933
-0.024185
-0.010612
-0.003372
0.018677
-0.027496
-0.025162
0.035736
0.004345
0.020020
-0.019882
0.018784
-0.011673
0.001315
-0.001774
0.024399
0.024689
-0.002089
0.029221
-0.012802
-0.017395
-0.027710
-0.015701
0.036926
-0.030731
-0.006031
-0.010117
0.012245
-0.024841
0.015656
-0.027802
-0.003599
-0.029175
0.015518
0.004734
-0.026535
-0.025757
-0.016083
-0.028870
-0.015541
0.032013
-0.023865
0.008705
0.020538
-0.006718
0.015358
-0.007111
0.015900
-0.014397
0.004253
-0.007198
0.010376
0.011353
-0.025772
0.004810
-0.001860
0.026642
0.027527
-0.033386
-0.024338
0.022583
-0.028076
0.016968
0.031799
0.019363
-0.024109
-0.014488
-0.020721
0.008751
0.002323
-0.007973
-0.011459
0.034424
0.025269
0.038391
0.020935
0.004292
0.025528
0.006477
-0.023163
-0.031342
0.014008
-0.014351
-0.032959
-0.008842
-0.008171
0.032257
-0.035095
0.026123
0.016479
-0.006443
-0.005344
-0.012413
0.011604
-0.029037
0.006275
0.013779
0.007187
0.017563
-0.006866
-0.009750
0.027908
-0.009918
0.007339
-0.018250
0.039886
0.031555
-0.020386
-0.008430
-0.017578
-0.005203
0.025482
-0.026321
0.024017
-0.018387
0.021378
-0.026657
0.026001
-0.011833
-0.024048
0.003460
-0.009598
0.001636
0.000594
0.034637
0.002701
0.010056
-0.002258
0.038696
0.031677
0.026138
0.006340
0.005215
0.006195
-0.024063
-0.033234
-0.014381
0.014587
-0.000435
-0.026917
0.024536
-0.029694
0.034058
0.008484
-0.011612
-0.019135
-0.003019
-0.021500
-0.021088
-0.030975
-0.032074
0.008926
0.018936
0.038300
-0.010788
0.011200
-0.008484
0.033417
0.005001
-0.012924
0.022598
0.029739
0.010933
0.010361
0.040283
0.030701
-0.023605
0.012909
0.020615
0.026596
0.016052
-0.006977
0.011314
-0.014061
-0.016861
-0.033478
0.020538
-0.021454
0.025543
-0.007618
-0.018036
-0.014465
-0.026184
-0.000731
0.017059
0.009041
0.017136
0.009056
-0.018967
-0.037079
0.032959
0.011024
0.002504
0.014938
0.000722
0.005390
-0.012131
0.036285
-0.010231
0.000450
0.012039
0.001235
-0.011070
-0.022308
-0.004265
-0.013023
0.027267
-0.004601
-0.007103
-0.019394
0.024734
0.027893
0.007027
-0.015503
0.006538
0.014839
0.028229
-0.023514
0.000014
-0.011322
-0.005619
0.018433
-0.000416
-0.008583
-0.014572
0.025360
-0.025879
0.008575
-0.028809
-0.009003
0.006893
0.008034
0.026352
0.013741
0.031586
0.018005
0.021042
0.001213
-0.014015
0.023621
-0.021790
-0.031738
-0.032013
-0.013863
0.006618
0.040070
-0.038269
-0.001632
0.007294
0.041077
0.016266
-0.020859
0.021408
0.014755
-0.005898
0.023376
-0.031006
-0.057404
-0.026382
-0.002600
0.005653
0.027786
-0.034698
0.013626
0.033539
-0.007656
-0.000813
-0.025467
0.025772
-0.038208
0.007973
-0.036469
0.009033
-0.017395
-0.023254
0.018234
-0.018417
0.003937
-0.000932
-0.002026
-0.008804
0.040314
0.027542
-0.026443
-0.005146
0.002537
0.033234
0.002956
-0.006134
-0.034821
-0.024307
0.012794
-0.012558
0.034088
0.009476
-0.018631
-0.006592
-0.026749
0.032562
-0.031097
0.023895
-0.026459
0.022675
-0.022690
0.039490
0.005325
-0.004597
0.004623
-0.006088
-0.016479
0.035461
-0.025925
0.022217
-0.020660
-0.027069
-0.028427
-0.031189
-0.022614
-0.018753
-0.017212
0.021561
-0.023209
0.022949
-0.015808
-0.017181
-0.029922
0.002323
-0.012222
0.034393
-0.008392
0.023224
-0.030640
0.012009
0.001266
0.025009
0.039429
0.009796
0.006226
0.013687
0.004082
0.003105
-0.023331
-0.005035
0.014908
0.012329
0.034515
0.033478
0.031982
0.013107
-0.031769
-0.018250
-0.009842
0.018753
0.010956
0.028778
0.011253
0.002741
-0.005695
-0.034424
0.039398
-0.016983
0.014496
-0.017303
-0.014923
0.017899
-0.020966
0.010849
0.032684
-0.014130
0.026199
-0.000712
-0.000601
-0.014748
0.012955
0.019989
-0.017197
0.029572
0.023987
-0.009018
-0.003822
0.028992
-0.028961
0.005905
-0.011635
0.013756
0.030655
-0.032532
0.014671
0.010506
-0.005997
-0.022186
0.035370
-0.022003
0.012802
0.022598
0.027115
-0.005386
0.032227
0.040009
-0.022858
0.014900
-0.012680
0.022705
0.010483
-0.017914
0.024475
-0.031372
-0.000827
0.035492
0.025177
-0.006199
-0.028458
-0.022644
-0.006126
-0.029205
0.006950
0.023239
0.008720
-0.023911
0.010750
0.012444
0.007702
-0.018738
-0.024643
0.005814
-0.000122
0.017532
0.016525
-0.002684
0.010674
-0.014236
0.018936
-0.001953
0.001265
-0.008148
-0.026749
0.015640
-0.036407
0.028320
-0.018997
-0.013489
0.034851
-0.043762
0.022308
-0.026733
-0.030106
-0.024384
-0.004780
0.019333
0.025146
0.034424
0.029724
0.008141
0.025574
0.032776
0.030487
0.038757
-0.026749
-0.001462
0.020691
0.020416
-0.011574
0.025543
-0.010818
-0.002596
-0.023087
-0.029434
-0.028336
0.023117
0.017822
0.031433
-0.001800
0.002840
-0.018188
0.026047
0.010300
0.009872
0.014153
0.017883
-0.014671
0.017242
0.017593
-0.003475
-0.009727
-0.019333
0.012115
-0.030762
-0.017288
0.011696
0.025146
-0.003941
0.007935
0.025131
0.026703
0.000211
-0.017670
-0.012230
-0.030869
0.006111
0.004444
0.001591
0.008820
0.045044
0.034729
0.027649
0.017929
-0.012123
0.006901
0.020493
0.020309
0.002850
0.024643
0.000366
-0.014442
0.039856
0.021088
-0.000627
-0.027252
-0.024994
-0.032043
-0.013550
0.016708
0.017731
0.016617
0.012764
-0.014099
-0.016983
-0.037781
0.043396
0.014709
-0.025848
0.009880
0.017242
0.034210
-0.019760
0.016418
-0.016983
0.042572
-0.009163
-0.017578
0.013992
-0.023315
-0.022095
-0.016266
0.022766
0.026581
-0.030655
-0.005283
0.017166
0.034698
-0.001278
0.005383
0.043091
-0.027252
0.004192
0.022858
0.013504
-0.012962
-0.018036
-0.037415
0.028931
-0.020905
-0.017990
0.022888
0.008461
0.002409
0.026657
0.004143
-0.030823
-0.009659
-0.024185
-0.013885
0.024536
0.005276
0.031464
0.023087
0.009430
0.015854
-0.005917
0.020935
0.006180
0.017761
0.014030
0.036072
0.009804
-0.022675
-0.018051
-0.006702
0.000295
-0.009178
-0.009216
0.000973
-0.005123
-0.010918
0.002390
-0.029694
0.030426
-0.025665
-0.023285
0.032379
-0.033722
-0.014763
0.007767
-0.035675
-0.038757
0.028870
0.028976
-0.029877
-0.026367
0.021957
0.017578
0.018555
0.004532
0.009048
-0.009171
-0.026031
-0.020157
0.019226
0.018417
-0.064148
-0.020432
0.045868
0.023178
0.001986
0.000862
-0.000407
-0.063599
0.003113
-0.004581
-0.021011
-0.003330
0.003222
-0.035339
-0.034363
0.033051
0.049530
-0.011253
-0.011002
0.011230
-0.000140
0.015045
0.033020
-0.004459
0.018570
0.019745
-0.015541
0.024384
0.011330
0.030396
-0.005390
-0.000151
0.010086
0.009384
-0.023331
-0.023178
-0.013062
-0.005951
0.005642
-0.013885
-0.018631
0.009697
0.022675
-0.034729
-0.017288
-0.006775
-0.019165
0.015823
0.017700
0.028214
-0.009651
0.022781
-0.000934
-0.005318
-0.003807
-0.022003
0.042175
-0.012314
0.018661
-0.020523
0.038147
-0.013756
0.044220
0.018433
-0.012428
0.037323
-0.037598
0.013351
-0.014931
0.007210
0.004189
-0.010010
-0.039368
0.056793
0.011581
-0.024323
0.015587
0.008537
0.013580
0.051361
-0.005402
-0.025787
0.008095
0.026169
-0.007053
-0.011818
-0.025375
-0.042999
-0.006523
-0.036346
-0.027512
-0.006638
-0.021255
0.036102
0.014816
-0.012070
-0.023773
-0.031189
0.032471
-0.004288
-0.035095
-0.022064
0.032043
0.048553
-0.022125
-0.017517
0.012199
0.031525
-0.034607
-0.035980
-0.017227
-0.018097
-0.001789
-0.007332
0.007687
-0.023026
-0.006615
-0.003941
0.010834
-0.030334
0.002859
0.034821
-0.024384
-0.016953
-0.015602
-0.035278
-0.013977
0.006092
0.030228
0.012054
0.031006
-0.005497
-0.000933
0.033875
0.007092
0.006378
0.015587
-0.006538
-0.033051
-0.008224
0.026672
-0.024597
0.023666
0.023407
0.024750
0.013474
-0.003714
-0.014793
-0.025024
0.018234
-0.027466
0.025574
0.025177
-0.024261
0.005798
0.008759
-0.005001
0.011642
-0.004761
0.005829
0.012733
-0.006756
0.009346
-0.019058
-0.001329
0.019302
0.023132
0.008888
0.024612
0.017395
-0.023468
-0.001982
0.003271
0.039978
-0.002869
-0.028076
0.012794
0.023254
-0.015915
0.021362
0.037872
0.025864
0.003998
0.006310
-0.024780
-0.007675
0.015137
0.019241
-0.038177
-0.005215
-0.010551
-0.011871
-0.016174
-0.009079
-0.007896
-0.025284
-0.029129
0.007008
-0.008423
-0.015244
0.025146
-0.017609
0.013138
0.026779
0.016617
0.016800
-0.027832
-0.014427
-0.029190
0.026367
0.003548
0.020111
-0.003786
0.031921
0.016251
0.000431
0.001671
-0.017380
0.007267
0.003979
0.032593
0.011688
-0.011894
0.002745
0.019241
-0.008316
-0.028107
0.010757
0.039703
-0.022842
0.005642
-0.040924
0.004642
0.033600
-0.014404
0.003901
0.000208
-0.004860
-0.001105
0.036835
0.019211
-0.017731
0.029282
-0.031143
-0.023376
-0.009232
0.005501
0.028976
-0.002398
-0.012344
-0.031555
-0.017975
-0.015854
0.018875
-0.015144
0.033813
-0.009224
0.010117
-0.045044
0.012817
0.003826
0.008484
-0.026917
-0.004395
-0.029404
-0.006989
-0.023987
-0.030975
0.017654
-0.027069
0.044037
-0.001115
-0.000057
-0.008400
0.012360
-0.006512
0.015396
-0.030579
-0.004955
-0.018768
0.017715
-0.047882
-0.029694
-0.023468
0.030685
0.001387
0.010864
-0.006039
0.004787
-0.032043
0.034698
-0.000145
0.034607
-0.003704
-0.048218
0.029297
0.019287
-0.033722
-0.001828
0.015381
-0.031128
-0.017944
0.001228
-0.013672
-0.010529
-0.003643
-0.022751
-0.041626
0.023376
-0.030838
-0.024689
0.022522
-0.033356
0.011436
-0.024414
-0.003998
-0.018463
-0.008530
-0.038605
-0.017563
0.025085
-0.012405
0.042938
0.015533
-0.004677
-0.028625
0.027130
-0.036499
-0.040497
-0.012352
0.023407
-0.030716
-0.001832
-0.019485
0.002953
-0.039642
0.002861
-0.011574
0.017120
-0.026230
0.019104
0.007065
0.016312
0.022263
0.017303
0.036041
0.001603
-0.011848
0.012474
0.029861
-0.019196
-0.024231
-0.050415
0.015511
-0.010414
-0.000169
0.014740
0.039764
-0.017868
-0.002029
0.034393
-0.016647
-0.018600
-0.004829
-0.031403
0.044800
0.029388
0.025314
0.011963
0.003281
-0.007030
-0.022064
0.017670
-0.019119
-0.015549
0.020767
0.011192
0.034454
0.007618
-0.030914
0.012100
-0.026978
0.006138
-0.018433
0.001257
0.011604
0.016357
0.025101
0.014534
0.031677
-0.020721
0.009117
-0.028305
-0.013596
0.020294
0.040161
0.050720
-0.021057
0.018280
0.015930
0.014816
-0.003836
-0.014084
0.011002
-0.000733
0.048981
0.010971
0.002224
-0.035156
-0.017563
-0.016434
-0.007328
0.001266
0.030212
0.027908
0.019730
-0.023010
-0.009560
-0.046661
-0.009796
-0.025879
-0.016205
0.000229
-0.003288
0.026794
-0.011894
-0.000888
-0.036407
0.051422
-0.012054
0.036713
-0.030655
-0.023575
0.036072
-0.010162
0.002033
-0.030533
-0.000733
-0.011108
0.029755
-0.003206
0.004330
-0.010735
0.003918
0.044373
-0.018890
0.036438
0.023605
0.020477
0.037567
-0.005531
0.016861
-0.028793
-0.010948
0.005810
-0.003336
-0.007504
0.012970
0.015228
0.040802
0.006485
-0.008797
-0.031235
-0.021515
0.021622
0.064514
-0.012939
0.042938
0.040100
0.005215
-0.007023
-0.005119
0.020386
0.014305
0.048157
0.041504
-0.009872
0.000931
-0.000936
-0.024063
-0.016922
-0.009247
-0.009140
0.028137
-0.008530
0.004082
0.017487
-0.005024
-0.002789
0.020447
0.010674
-0.020065
0.031952
0.042175
-0.009438
0.015076
0.018066
-0.060455
0.026978
0.015533
0.036896
-0.018753
0.011452
0.001477
0.005859
0.024933
-0.006851
-0.006798
0.008675
0.012993
-0.026382
-0.016708
0.016068
0.024658
0.017319
0.037262
0.002340
0.028458
-0.023178
0.033905
0.019653
0.010780
0.014801
0.035248
-0.022812
-0.020020
0.003849
0.025787
0.031952
-0.011803
0.031647
0.012787
-0.009033
0.039001
-0.013741
0.032166
-0.007935
0.024048
-0.024521
-0.022202
0.030914
-0.015747
-0.036285
-0.015167
-0.030594
0.028107
0.028381
0.026642
-0.029770
0.026581
0.002666
-0.034790
0.005489
0.007481
-0.004017
0.003262
0.026993
0.032471
-0.015320
0.007488
-0.009697
-0.023483
0.010185
0.005516
0.005161
0.021927
-0.000828
0.003345
-0.012383
0.029007
0.021729
-0.004490
-0.031067
0.006634
-0.008972
0.017059
0.010727
0.025116
-0.024139
0.010002
0.004604
0.004242
0.022675
-0.018768
0.027512
-0.008858
0.010727
-0.032104
-0.030991
-0.019516
0.033722
0.036194
-0.033447
0.010086
-0.028229
0.022034
-0.025696
0.027893
-0.028229
-0.010956
-0.016510
-0.025772
0.015327
-0.009056
-0.034973
-0.014084
-0.016403
0.005211
0.024750
-0.017532
0.017670
-0.007488
-0.027725
-0.020599
0.008698
0.002760
0.030685
0.024673
-0.025360
-0.020462
-0.015244
-0.034515
-0.028152
0.001143
-0.014458
-0.009506
-0.009697
0.010811
0.025696
0.033295
0.001462
-0.024139
-0.016342
0.040741
0.023056
-0.015305
0.030472
0.036804
0.044098
0.010658
-0.016052
0.000722
-0.024826
0.029999
0.026474
-0.023972
0.001315
0.007572
0.005016
-0.010681
0.014076
-0.000099
0.018600
0.012016
-0.009102
0.016891
-0.046661
-0.012665
0.038239
-0.011948
0.009895
-0.017441
-0.056305
0.001276
-0.036163
0.000531
0.031921
0.014496
-0.006134
-0.014076
-0.029083
0.033966
-0.020966
-0.009979
-0.036896
-0.007942
-0.030579
0.000856
0.014977
-0.045898
-0.021347
-0.007957
-0.002460
-0.003300
-0.026108
-0.039429
0.039764
0.018448
-0.024246
0.016922
0.010658
0.031342
-0.046509
0.026917
0.011063
0.004589
0.018311
0.009651
-0.022308
0.018555
-0.014664
-0.010399
0.025101
0.042084
-0.006042
-0.021790
-0.034088
0.035797
0.020721
0.014847
0.022278
-0.005150
-0.006760
-0.003855
-0.009293
0.004620
-0.008972
0.005196
0.016068
0.031311
0.008087
0.018417
0.024155
-0.017242
-0.004116
0.017822
-0.018951
0.018188
0.020081
-0.050659
0.010536
-0.008835
-0.028183
0.001243
0.001631
0.020294
0.030411
0.006863
-0.009331
0.025055
-0.004005
0.013191
0.017029
-0.038452
0.018951
-0.015495
-0.002739
-0.010925
-0.016693
-0.043579
0.005230
-0.028580
-0.017502
0.030029
0.025070
-0.006363
0.025940
0.027328
0.037140
0.032715
-0.004845
0.024414
-0.004978
0.031982
-0.015396
0.037262
0.013992
-0.002607
-0.012657
-0.011185
-0.018219
0.004551
-0.000501
-0.003910
-0.016632
0.008377
-0.000489
-0.060059
-0.022324
0.020508
0.012444
-0.045441
0.005959
0.024689
0.031158
-0.010605
0.036011
0.021774
-0.025482
0.009956
-0.015518
-0.018921
-0.008652
-0.012283
0.004272
-0.040314
0.007935
-0.013016
0.010590
0.041046
0.020996
-0.003099
-0.012764
-0.030960
0.006367
0.028687
-0.040741
0.014626
0.030060
0.028793
-0.003422
-0.018967
0.014000
-0.011665
-0.005737
0.020340
0.012939
-0.001306
-0.043518
-0.012512
-0.001764
-0.003700
0.014076
-0.041656
-0.008507
0.014206
0.024490
-0.002125
0.010666
0.033966
0.035828
0.000111
-0.030106
-0.016953
-0.015083
-0.003115
-0.014351
0.023102
0.020004
0.012054
-0.027237
0.002111
-0.001216
0.050446
0.017746
-0.014702
0.041412
0.031174
-0.025269
-0.010582
0.033264
-0.003443
-0.008347
-0.015388
-0.022430
0.008003
-0.023682
-0.061462
-0.015884
-0.015717
0.024368
0.007660
-0.031372
0.008522
-0.019287
0.003633
-0.025375
-0.038391
0.014282
-0.029556
-0.020370
-0.010063
-0.026001
-0.007263
0.008522
0.005417
0.030945
0.012138
-0.001749
-0.012978
-0.002903
-0.038269
0.027603
-0.005463
-0.013771
0.001361
-0.006992
-0.015686
0.006012
-0.037689
0.008881
-0.009300
0.028030
0.009735
-0.017029
-0.013199
-0.022293
0.005978
0.014977
0.025772
-0.010529
0.001714
0.001230
-0.018982
-0.010689
-0.008484
-0.015671
-0.007435
-0.022278
0.011345
0.015594
-0.014977
-0.008904
-0.008965
0.006603
-0.026367
-0.018448
-0.012291
0.038940
0.018555
-0.023148
-0.010048
-0.013649
0.023209
-0.003603
-0.027893
-0.000854
-0.015121
0.032837
0.028946
0.044739
0.000116
0.030624
-0.033936
0.031464
-0.007462
0.035034
0.039551
-0.027466
0.001586
-0.023514
0.024078
0.025192
-0.014397
-0.001518
-0.001609
-0.015465
-0.010826
0.032135
0.016937
0.026337
0.035126
-0.018356
-0.024658
-0.011528
0.022934
0.004894
-0.024918
-0.027344
0.022964
-0.007629
-0.029633
-0.022720
-0.001810
0.041229
-0.014847
-0.025696
-0.029800
0.001160
0.039612
-0.002996
-0.026917
0.009911
-0.014702
-0.032654
-0.022675
0.029205
-0.024902
0.004063
0.006420
-0.027191
0.020432
0.032196
-0.008224
-0.033600
-0.041534
-0.008606
-0.000822
0.029083
0.004498
0.043579
0.021729
-0.008240
0.023972
-0.002317
-0.001164
0.012001
-0.030014
0.002913
0.038666
-0.001283
0.029892
0.037476
-0.007420
0.010231
-0.032684
0.014404
0.014252
0.013107
0.029907
-0.012230
0.005638
0.019928
-0.004604
0.034576
-0.021118
-0.012993
0.016556
0.025223
-0.039612
-0.022705
-0.014656
-0.030930
-0.036407
0.013756
0.019653
-0.002333
0.018860
0.019440
0.000345
0.031113
-0.007332
0.033142
-0.008148
-0.020569
0.022949
0.014465
0.028351
-0.013412
-0.028168
0.020218
-0.002975
-0.015991
-0.020294
0.008034
0.006470
-0.030807
-0.005390
0.006500
0.004814
-0.036407
-0.006916
0.037506
0.002466
0.022675
-0.026474
0.014442
0.027435
-0.033905
0.008278
0.001924
0.023499
0.012978
0.024811
0.019333
-0.019241
-0.002626
0.009964
0.001116
-0.008377
-0.010788
-0.014236
-0.015259
0.033630
0.016357
0.027267
0.003399
0.018829
0.022644
-0.008072
0.032227
-0.013588
-0.023880
0.009155
-0.038849
0.030594
-0.028183
-0.036346
0.028549
-0.024826
-0.021362
0.012451
0.021286
-0.013428
-0.038696
-0.031830
0.022827
-0.032898
0.003889
-0.002331
0.004971
-0.000086
-0.025604
-0.009140
-0.022217
-0.000629
0.011864
0.010544
-0.027847
0.020203
0.000846
0.028076
-0.029480
-0.007660
0.042603
-0.019669
0.007236
0.030609
0.024368
0.014046
-0.008232
-0.018219
0.013542
-0.000598
-0.009918
0.007118
-0.040833
0.005501
-0.011261
0.009705
-0.022507
0.005444
0.007927
-0.030380
-0.003922
0.020126
-0.019089
-0.013588
0.021957
0.006546
-0.008957
-0.020447
-0.011574
0.011749
0.017151
-0.025345
0.016861
0.005226
-0.035431
-0.023590
-0.019516
-0.015022
0.008698
-0.002356
0.024750
0.037140
-0.034241
-0.008354
0.034485
-0.006248
0.009613
-0.040649
-0.017075
0.022369
-0.036713
0.018768
-0.024292
0.043823
0.005901
0.021820
-0.014816
0.004906
-0.017853
0.000892
-0.014038
-0.006535
-0.004322
-0.047180
-0.002220
-0.028580
-0.010818
-0.001847
-0.028564
0.020126
0.025253
-0.047424
-0.019897
-0.008141
0.017654
0.003881
-0.036194
0.019730
0.004749
0.012543
-0.006321
0.014229
0.012726
0.004276
0.006760
0.040039
-0.009636
-0.034912
-0.000068
-0.023804
0.000912
0.002048
0.000420
-0.038940
0.029648
-0.017975
-0.006737
-0.046844
-0.025681
0.012726
-0.026520
-0.021423
0.015320
0.043518
-0.005142
0.020142
0.027924
0.028503
-0.022598
0.008682
-0.015083
0.001196
-0.011551
0.036407
-0.054382
-0.007290
0.031204
-0.016403
-0.019043
0.029602
0.009430
0.042297
0.032806
0.002443
-0.027649
0.022293
0.006371
0.011520
-0.006237
0.003349
0.004105
-0.037048
-0.033417
-0.018021
-0.017120
-0.004047
-0.017395
-0.002523
0.017853
0.032928
0.005795
-0.006191
-0.040222
0.033234
-0.025986
0.010292
-0.028442
0.015640
-0.027206
-0.001897
0.006294
-0.006042
0.008568
-0.009628
-0.005939
0.003305
0.017914
0.019653
0.025131
0.022659
0.018265
-0.023300
-0.003880
0.025009
0.020142
0.035553
-0.005733
-0.020508
0.024109
-0.005520
-0.017014
0.029755
-0.036743
-0.005985
0.027100
0.006474
-0.009453
0.012352
0.037292
-0.002081
0.026886
0.020004
-0.047424
0.047363
-0.009018
-0.006290
-0.004166
0.023468
-0.018250
0.027405
-0.011101
-0.017548
-0.011040
-0.037811
0.008469
0.015106
-0.006073
0.002756
-0.008842
-0.005520
-0.023010
0.006573
0.028687
0.031677
0.024765
0.020370
0.001464
0.007927
0.013908
-0.036560
0.042114
-0.000265
-0.003128
-0.020844
-0.008797
0.016953
-0.033386
0.009048
0.034515
0.035126
0.044464
-0.018143
0.004314
-0.008217
0.007130
-0.017899
-0.009338
0.050354
-0.023392
0.019943
-0.021362
0.043213
0.035095
0.025833
0.012230
-0.000752
-0.026611
-0.031342
-0.026978
-0.017288
0.012169
-0.003517
0.011444
0.027710
-0.036438
0.015976
0.037537
0.003193
-0.036499
0.022125
-0.006374
0.019623
-0.000695
0.034729
-0.030884
-0.012695
0.026611
-0.017899
0.005207
0.014977
0.010368
-0.014717
0.001478
0.002192
-0.005737
-0.039307
0.020615
0.007797
0.017838
-0.024017
-0.004341
-0.010887
-0.028366
-0.025757
0.026215
-0.004696
0.028702
0.004055
0.006645
0.021286
0.018051
0.025421
-0.020584
0.041412
-0.004353
0.001784
0.003307
-0.023849
-0.033234
0.031738
0.012405
-0.002529
-0.036957
0.030380
-0.021942
0.037231
0.032104
-0.020569
0.010277
0.024048
-0.009605
0.006210
0.023819
-0.001968
0.017120
0.010086
0.009727
0.031113
-0.002655
0.028763
0.037415
-0.017166
-0.008720
0.031952
-0.009933
0.018845
0.005733
-0.035828
0.027069
0.019073
0.030502
-0.023666
0.020660
0.002811
-0.015053
0.038696
0.001334
-0.008743
0.010422
-0.023132
0.041870
-0.037720
0.024765
-0.003681
0.000439
-0.022964
-0.001797
-0.029877
0.024124
-0.013718
0.013580
-0.023056
0.014786
-0.024872
-0.033112
0.001406
0.038300
0.027542
0.004387
0.028641
-0.000689
0.015457
-0.007267
0.029022
0.019409
0.005409
-0.033722
0.009415
0.000706
0.003231
-0.021210
-0.026413
-0.025345
0.040802
-0.024811
-0.029388
-0.005894
0.036682
0.030640
-0.029953
0.010368
-0.024658
-0.020508
-0.013535
-0.010155
-0.030975
0.035614
0.004536
0.016083
-0.017838
0.042084
0.014351
-0.019363
0.006779
0.025085
-0.011909
-0.035095
-0.000233
0.041260
0.008896
0.029236
-0.016586
-0.002808
0.026871
0.027939
-0.015549
-0.029160
0.019150
0.033325
0.026077
0.015190
0.014183
0.016693
0.013733
0.030823
0.011696
-0.018372
-0.010582
-0.014137
-0.002218
-0.023102
0.022720
0.035309
0.026367
