-0.053192139
-0.047363281
-0.01348877
0.0004658699
0.014480591
0.017883301
0.084411621
0.080444336
-0.07434082
0.03237915
0.051696777
0.047912598
0.0010356903
0.059234619
-0.055664062
0.071960449
-0.023864746
0.05758667
0.045257568
0.019134521
0.071838379
-0.070068359
-0.062438965
0.0094146729
-0.013923645
0.07244873
0.047790527
-0.061035156
-0.0058822632
-0.028015137
-0.057525635
0.082397461
-0.0021953583
0.015731812
-0.057220459
-0.067077637
-0.041503906
-0.059265137
0.075866699
0.057525635
-0.0048027039
-0.055358887
-0.02645874
0.039093018
0.063537598
0.040618896
0.035797119
-0.042938232
0.0057029724
-0.052215576
-0.074523926
0.062866211
-0.0012960434
0.00026798248
-0.024154663
0.063476562
0.066101074
-0.084289551
0.097717285
0.03062439
0.048553467
-0.05279541
-0.058166504
0.047576904
0.0019645691
-0.077636719
-0.063110352
-0.00038957596
0.094543457
0.041503906
-0.0091247559
0.059082031
-0.037963867
-0.074951172
0.055511475
-0.050323486
-0.046020508
-0.010559082
-0.037994385
0.028503418
0.049804688
0.04498291
0.067504883
0.018035889
0.03527832
-0.08190918
0.030487061
0.035736084
-0.064697266
0.051025391
0.058013916
-0.016815186
-0.024520874
-0.036437988
-0.057342529
0.051177979
0.0076980591
0.070373535
-0.020523071
-0.041168213
0.023406982
-0.072631836
0.087768555
0.072692871
0.048431396
0.072265625
0.028991699
0.045654297
0.025222778
0.022689819
-0.009765625
-0.020629883
0.011764526
-0.029418945
0.069030762
-0.025115967
0.082946777
0.055908203
-0.097717285
-0.062072754
-0.02053833
-0.039825439
-0.06640625
0.065429688
0.041473389
0.067504883
-0.04208374
0.084960938
