-0.038007602
0.051361505
-0.0026132073
-0.073773563
-0.05769835
0.034637671
0.043524764
0.066614978
0.013475753
0.025644522
-0.04214469
0.014417259
-0.081977636
0.061833512
0.060286187
0.067612536
0.068153493
-0.065677427
0.041450247
0.074453227
-0.010030389
-0.044390183
0.025116164
0.062156104
0.041741826
-0.00086240546
-0.034468584
0.01557956
0.082090713
-0.058386706
0.026107762
0.086608313
-0.037015088
0.081744395
0.00064065674
-0.046321575
-0.056017891
-0.053243402
-0.066390224
0.024732819
0.028959751
0.08551117
-0.046883281
0.066493906
0.058190212
-0.024720279
-0.014025205
0.027871966
0.080641732
-0.05109743
0.072048657
0.055332858
-0.078810923
0.0042585712
0.029664908
0.045352783
-0.037403166
-0.073016681
0.025213175
0.0077629131
0.054775551
0.035473924
0.05331888
-0.034520142
-0.023921883
-0.070339918
0.030359838
-0.058698211
-0.044103332
-0.017208368
0.094677135
0.088911489
0.042107213
0.062593177
-0.079245552
0.057746395
0.03959937
0.058673635
-0.025871694
-0.015251637
0.043041505
-0.070432946
0.012997123
0.051487826
-0.018195217
-0.017073831
-0.0098493733
0.017640453
-0.066972263
-0.037066583
0.0074779768
0.057411265
-0.060701586
-0.054552123
-0.084846936
0.0087630907
-0.035059314
-0.00047426697
-0.0077021946
-0.0045429664
0.065733232
0.023406705
0.061869163
0.0044304584
-0.075512148
0.016792733
0.069995493
0.05072264
-0.089699998
-0.04067985
0.018919809
-0.080276795
-0.051995736
0.059634954
0.075072885
0.071177021
-0.021424806
-0.035256382
-0.029915426
0.047785066
-0.073129803
0.06987495
0.08981137
-0.042773381
-0.062954627
-0.055017501
0.021671787
-0.06559246