-0.11193848
-0.16320801
-0.3527832
0.39404297
0.13623047
0.2208252
-0.08782959
0.26977539
0.074462891
-0.050323486
0.34716797
0.36132812
0.034362793
0.15625
-0.22583008
0.14025879
-0.20581055
0.027542114
-0.081970215
0.23205566
-0.37304688
0.1270752
0.042572021
0.25024414
-0.15112305
0.25390625
0.046356201
0.078430176
-0.30712891
0.10565186
0.30932617
0.15161133
0.35205078
0.24194336
-0.35498047
-0.060272217
0.28710938
0.10345459
0.10675049
0.025177002
0.20605469
0.15991211
0.24987793
-0.23034668
0.025909424
-0.090026855
-0.2578125
-0.26342773
-0.011352539
-0.027923584
0.043609619
-0.12854004
-0.10559082
-0.26928711
-0.39282227
0.26171875
0.10571289
0.31616211
0.2265625
0.13684082
0.25756836
-0.23132324
-0.26025391
-0.25512695
-0.13598633
0.33105469
0.15808105
-0.39648438
0.15075684
0.29248047
0.19677734
-0.38989258
0.26391602
0.35913086
-0.0090713501
0.012496948
-0.11688232
-0.21411133
0.22595215
-0.38183594
0.22119141
0.026535034
0.14892578
-0.057373047
0.22619629
0.018920898
0.047790527
-0.17980957
-0.15075684
-0.24499512
-0.16711426
-0.26928711
0.18383789
-0.32177734
-0.19750977
-0.10235596
-0.33325195
0.20544434
0.17346191
-0.033905029
-0.020355225
0.14355469
0.18359375
0.090148926
-0.16394043
-0.32421875
-0.37280273
-0.11633301
0.19897461
0.10131836
0.051879883
-0.27319336
0.14599609
0.36645508
-0.056091309
-0.085876465
0.37109375
0.26293945
-0.34814453
0.30541992
-0.13562012
-0.2512207
-0.046173096
-0.047271729
0.084594727
-0.02557373
0.089355469
0.38476562