0.068726
0.027222
0.078491
-0.058411
-0.076782
0.033966
-0.005081
-0.057434
0.026093
0.059418
0.037537
0.082458
-0.001961
-0.021133
-0.058990
0.097046
-0.065369
-0.024384
0.026169
0.008080
-0.062927
0.072388
-0.002806
0.072266
0.033020
0.056366
0.069214
-0.090637
-0.050903
-0.029709
0.060669
0.053955
-0.001715
0.078369
0.037720
-0.041656
-0.006584
0.086426
0.003313
-0.014214
0.014183
-0.028458
-0.037445
-0.092529
-0.017715
-0.007858
0.012848
-0.075806
0.046021
-0.017197
0.003914
0.000614
0.027817
-0.074280
0.022110
-0.082275
-0.029800
-0.020264
-0.084106
-0.042877
-0.024857
0.105957
0.014824
-0.084045
0.036682
0.071777
0.032593
0.036774
-0.031006
0.063049
-0.050934
-0.065674
-0.049164
-0.060883
-0.005295
-0.032227
-0.087036
0.002413
0.032288
-0.099243
-0.030045
0.052002
-0.071472
-0.029922
0.071777
-0.084778
0.028351
0.089722
-0.025497
-0.008896
-0.046478
-0.070984
-0.095276
-0.060608
0.026108
0.043518
-0.051147
0.079529
-0.073242
-0.010231
-0.039673
0.003454
0.042053
-0.047821
0.096130
-0.039703
-0.018005
-0.016251
-0.013245
0.040527
0.088257
0.008087
-0.002304
0.097107
-0.029480
0.033966
-0.071716
0.067383
0.010338
0.001563
0.033325
0.014565
0.011620
0.066589
-0.076355
0.046356
0.093872
-0.030762
0.073914
0.014091
0.049164
-0.067261
0.045990
-0.020050
-0.078491
0.020004
-0.045166
0.049530
-0.059204
0.025055
0.072754
-0.018021
-0.035065
-0.076416
0.014252
0.019867
-0.067993
-0.011803
-0.016373
-0.032867
0.077087
-0.011711
0.045990
-0.037964
-0.028107
0.058258
0.008522
-0.076538
-0.092529
0.054993
-0.043823
-0.014847
-0.051514
-0.037018
-0.052155
0.064819
0.073914
0.019379
-0.009590
0.062561
0.062988
0.077698
0.038727
0.037384
0.057068
0.019562
0.014732
0.012772
0.009880
-0.093750
0.074280
0.075623
0.039490
-0.006325
0.006630
-0.028351
-0.031708
-0.036774
-0.080811
0.002245
-0.080444
-0.045227
-0.082092
-0.057129
0.047150
0.019394
-0.067749
-0.012878
-0.052063
0.069580
0.066772
-0.014008
0.013084
0.025375
-0.068970
-0.047302
-0.046906
0.033630
-0.066467
0.035126
0.025146
-0.018066
0.026199
-0.048645
-0.027298
-0.056946
0.072632
0.043762
-0.011902
0.029221
0.048584
0.039429
-0.008270
-0.001458
0.059906
0.050995
-0.046722
-0.091125
0.016968
0.074890
-0.054504
-0.022400
-0.055969
0.068726
0.032013
-0.086365
-0.019531
-0.049896
-0.092712
0.071594
-0.072266
0.032043
-0.047363
-0.018372
-0.057251
0.016357
-0.024704
-0.055389
-0.101868
-0.065186
-0.031189
-0.002377
-0.071777
-0.076721
0.038483
0.093689
0.019608
0.066284
-0.067261
-0.002541
-0.114685
-0.096497
0.021851
-0.049561
-0.004547
-0.073181
0.068298
0.027390
0.035339
-0.031769
-0.027023
-0.000152
-0.031097
0.030304
0.068909
-0.083008
-0.024033
0.007561
0.045929
-0.016312
0.048462
-0.035553
-0.047577
-0.018295
-0.010109
-0.088196
0.002001
-0.064880
0.037415
-0.045624
-0.071777
0.088013
0.042053
-0.025436
-0.064514
-0.094543
-0.012726
-0.075256
-0.010582
-0.098450
-0.054047
0.056427
-0.012032
0.050354
0.045441
-0.074036
0.029602
-0.094849
-0.100098
-0.126221
0.041931
0.084534
0.044556
-0.004791
-0.044434
0.054504
-0.034912
0.053101
-0.009201
-0.025192
-0.010239
-0.036682
0.069153
0.025894
0.040070
-0.099915
0.049042
-0.076172
0.039337
0.063110
-0.097046
0.085876
0.059235
-0.052734
-0.070190
0.057068
0.006416
0.069336
0.003624
0.025787
-0.034302
-0.065369
-0.018051
0.093506
0.094849
0.030884
0.001310
0.006092
-0.037476
-0.102844
-0.080627
-0.024200
0.018723
0.049011
-0.053101
0.018188
0.078796
0.034241
-0.041840
0.043427
-0.004642
0.082764
-0.002247
0.053192
-0.036407
0.042206
-0.061249
-0.028488
0.075317
-0.004066
-0.054901
-0.078003
-0.071777
0.026611
0.081787
0.028992
-0.001888
-0.091919
-0.029846
-0.097412
0.013916
0.097290
0.083008
-0.039246
-0.047852
0.041382
-0.050415
0.022614
-0.083984
0.006355
0.035278
0.074097
-0.060913
0.083435
0.075134
0.072815
0.047638
0.010956
0.086914
-0.030563
0.061188
-0.039490
-0.026688
0.006062
0.067810
-0.038574
-0.002966
-0.081726
-0.026123
-0.016998
-0.013084
0.026306
0.006771
-0.009605
0.009514
-0.059631
-0.038849
0.029327
0.072021
0.058197
-0.034363
0.068359
-0.051788
0.015053
0.019257
-0.020401
-0.046722
-0.025177
-0.047668
0.082642
-0.060303
-0.078369
0.018143
-0.046692
0.048553
0.066650
-0.077393
-0.008171
0.055603
0.055145
-0.088806
-0.042816
0.073914
0.073059
0.067688
-0.055145
-0.080322
0.059967
-0.019516
0.003115
0.027832
-0.049011
0.052307
0.045197
-0.065369
-0.022446
0.051575
0.014282
0.005760
-0.035889
-0.006485
0.050781
-0.033478
-0.066406
0.036041
0.080139
-0.051361
-0.027298
0.079346
0.002279
-0.070129
-0.006729
-0.050781
0.039093
-0.033295
-0.009575
-0.060638
0.034424
0.077454
-0.002169
-0.083923
-0.055420
0.018066
0.072937
0.034546
0.028214
-0.051636
-0.089600
-0.035583
-0.016861
0.038818
0.009918
-0.065308
-0.040192
-0.085266
-0.089661
-0.067200
0.098816
0.036713
-0.089539
0.019638
-0.083130
-0.082581
-0.002020
0.017502
-0.026459
0.033661
-0.025131
0.019470
0.082825
-0.044617
-0.010880
0.004272
0.019348
-0.041107
-0.051666
0.039429
-0.009888
0.043671
-0.058624
0.012985
-0.044891
0.019699
0.071533
0.051208
-0.010910
-0.078003
-0.097351
0.005287
0.057190
0.070801
-0.067017
0.033020
0.068726
-0.073975
-0.055664
-0.079895
0.013763
0.010735
-0.072693
-0.091736
-0.022430
-0.062012
0.019089
0.039978
-0.059052
0.063232
-0.040497
-0.076599
0.034821
-0.019943
-0.057190
-0.021149
0.083191
-0.017548
-0.055359
0.058044
-0.022324
0.078918
0.074829
0.056519
-0.043488
0.078247
0.043243
0.046204
0.053497
-0.001817
0.045563
0.033478
-0.038086
0.042572
0.053375
-0.062500
0.096802
0.064209
0.019852
0.061798
0.045410
-0.094055
-0.031982
-0.004181
-0.066650
0.046082
-0.067139
0.085876
0.060608
0.066650
-0.039093
-0.055145
-0.003532
0.028107
-0.074036
0.071167
-0.068481
-0.064941
-0.035614
-0.050079
0.068848
-0.030746
-0.060883
0.073853
0.060974
-0.017487
0.083069
-0.080750
0.040833
0.020737
-0.025620
-0.076782
-0.094421
0.034790
-0.024490
-0.043427
-0.080566
0.006454
0.081116
0.088562
-0.002853
0.004570
-0.019302
0.075867
0.036804
-0.068604
-0.046661
0.071167
-0.064697
-0.038055
-0.083801
-0.075500
-0.065491
0.024872
0.014862
0.066589
0.031586
-0.043793
0.069946
0.060577
-0.066711
0.014793
0.013802
-0.056091
0.002934
0.042633
0.054077
-0.062988
-0.021240
-0.039764
-0.045502
-0.036438
-0.027527
0.003870
0.074463
0.079956
0.082703
-0.084961
-0.080994
0.021072
-0.061127
0.042877
0.032959
-0.001860
0.020050
0.076843
-0.060547
-0.088684
-0.051575
0.048187
-0.090576
0.049011
0.088318
-0.083252
0.059174
0.029327
-0.007202
-0.063721
-0.048462
0.030060
0.020294
-0.002676
-0.057129
0.016373
-0.055450
-0.053284
-0.002884
-0.045532
-0.078735
0.028961
-0.060516
0.068787
-0.079956
0.080872
-0.005775
0.059113
0.051880
0.049622
-0.062103
-0.061401
0.083313
-0.036285
-0.022537
-0.010788
-0.032898
0.031403
-0.027527
-0.000096
-0.000974
0.068726
0.035217
-0.059418
0.016098
-0.048920
-0.016632
-0.072571
-0.032806
0.074158
-0.054688
-0.046753
0.026276
-0.030762
-0.049316
-0.071045
-0.065491
0.032288
0.060516
-0.036835
-0.018082
0.039642
0.002617
0.030014
-0.054779
0.002314
-0.028458
0.007065
-0.043610
-0.042023
0.043823
0.014023
-0.042542
-0.056915
-0.079834
-0.059174
-0.041260
0.010361
0.070496
0.078125
0.027756
-0.005432
0.078918
-0.041046
-0.032867
0.059631
-0.009468
-0.064209
0.077209
0.074280
-0.077637
-0.008904
-0.077087
0.001453
-0.043365
0.077881
-0.066833
0.046417
-0.066467
0.007435
-0.055359
-0.014420
0.019272
0.049988
0.032562
-0.059937
0.062561
-0.077820
-0.006844
0.059479
0.011795
0.010925
0.019119
-0.004101
0.034698
-0.068848
0.069763
0.069824
0.080994
-0.019852
0.059753
-0.023636
-0.028885
-0.013382
-0.053253
-0.064514
0.006504
-0.071716
0.078064
-0.030777
-0.013588
-0.045135
-0.043884
-0.050812
-0.056793
0.035858
-0.016129
-0.038666
0.008804
-0.045227
0.002913
0.049896
-0.052460
0.006832
0.078247
-0.009117
-0.060028
-0.044495
-0.049194
0.033325
0.040283
-0.024200
-0.075195
0.076050
0.026886
-0.012619
-0.066528
0.027771
-0.030197
0.059814
-0.085022
0.016174
0.012344
-0.076904
-0.070068
0.068298
0.059448
-0.068359
-0.063782
-0.085632
-0.057495
-0.019775
-0.094116
-0.007950
-0.090942
-0.062622
0.065613
-0.000461
0.036652
0.045349
-0.060425
-0.033295
0.072510
0.053253
0.012192
-0.082764
-0.028412
-0.060242
-0.066650
-0.037292
0.046967
0.093872
0.069397
0.039337
-0.069031
0.072937
-0.029419
0.067078
-0.010384
0.064819
0.058533
0.057678
-0.011887
-0.014740
-0.015167
-0.005013
-0.070618
0.075989
-0.036316
0.064453
0.079285
0.066040
-0.011475
0.069275
-0.020935
0.045807
0.011513
-0.039917
-0.065308
-0.068481
-0.078186
-0.008987
-0.071411
0.026108
0.052429
0.010941
-0.022507
0.041321
0.091064
0.011566
0.005146
-0.052002
0.043457
-0.061218
0.047302
-0.029510
0.058350
-0.014496
-0.090759
-0.079163
-0.089661
0.005684
0.053650
-0.046692
-0.018539
-0.025177
0.043640
0.049347
0.016525
0.082581
0.057190
-0.028122
0.006844
0.031952
0.054901
0.085266
-0.013664
0.088196
-0.051758
-0.093018
-0.074036
-0.056946
-0.018799
-0.039062
0.022873
-0.090637
-0.066650
0.026352
-0.017929
0.044647
0.112122
0.041168
-0.020737
0.089172
-0.069641
-0.001715
-0.106384
-0.002693
-0.012169
-0.062744
0.064758
-0.043976
0.056152
0.033997
0.039612
0.061432
-0.039093
-0.038300
0.045074
-0.048767
0.059296
0.048920
-0.057861
-0.008781
-0.058380
-0.078857
-0.037048
-0.018158
0.047577
-0.022156
-0.093506
-0.003971
0.002743
-0.025024
0.060852
0.014641
-0.098816
0.062347
0.097351
-0.028183
0.079651
0.067810
0.057220
-0.044983
0.017456
0.020355
-0.019119
0.036804
-0.050507
0.043304
0.070923
-0.006489
-0.043457
0.091980
-0.034729
-0.082581
0.038147
0.052673
0.008095
0.051605
-0.069763
0.040527
-0.002542
0.099792
-0.007107
0.074097
0.065735
0.010811
-0.009148
0.048492
-0.052765
0.094177
0.059814
0.037964
-0.023529
-0.063354
-0.062927
0.058075
-0.011307
0.092407
-0.043823
0.022354
0.009254
-0.038025
0.071594
-0.067749
-0.042603
-0.014214
0.062500
-0.078552
0.048798
-0.018997
-0.054657
-0.060211
0.009079
0.021576
-0.063843
-0.046600
-0.036560
-0.082092
-0.051208
-0.082886
0.054413
0.083923
-0.020615
0.025665
-0.001063
0.092529
-0.008667
-0.014008
-0.072327
-0.040558
-0.030777
-0.090698
0.037506
0.016846
-0.085754
-0.049103
-0.004620
0.028610
0.038666
0.085205
-0.047302
0.083374
-0.063354
-0.031555
-0.008263
-0.069763
-0.040558
-0.061859
0.092896
0.059662
-0.031204
-0.000092
0.042145
-0.067932
-0.020264
-0.033173
-0.008766
0.020508
0.009956
0.051270
-0.003504
-0.054413
-0.022125
0.011536
-0.078125
0.047638
-0.004528
0.024261
-0.000581
-0.049194
-0.069214
0.077271
0.036896
0.069275
-0.039490
-0.087280
0.071777
0.061462
0.040436
0.007965
-0.064148
-0.011894
0.004719
-0.076050
-0.006500
0.009148
-0.061737
-0.037537
0.039368
0.004017
-0.034973
0.023834
-0.071960
0.071533
0.010368
0.058899
-0.011589
-0.061737
0.011826
0.024246
0.070007
0.026215
0.054413
0.003252
-0.034393
-0.046753
-0.042786
-0.083435
-0.018921
-0.023148
0.015213
-0.022079
-0.059052
-0.053680
0.077637
-0.023529
0.012108
0.060669
-0.014511
-0.011414
-0.074402
0.014236
-0.004757
-0.038605
0.021057
-0.070984
0.073059
0.050842
-0.044830
0.008217
0.014763
-0.048340
-0.014229
0.064026
0.077576
0.079773
0.022079
-0.053864
0.052887
0.034363
-0.037323
-0.110229
0.051453
-0.056091
0.006268
0.049286
-0.008263
0.019409
0.033234
-0.052429
0.050262
0.109192
0.058105
-0.026443
0.075684
-0.071472
-0.054504
0.062225
0.052643
0.062683
-0.013397
-0.053406
-0.003660
0.067444
0.038269
0.099121
0.009834
0.015129
0.046387
-0.026138
-0.033936
-0.082825
-0.041504
-0.008591
0.112305
0.017685
-0.030777
-0.015472
-0.072327
-0.028030
-0.025360
-0.064270
-0.119568
-0.049225
-0.012215
-0.040161
0.057343
-0.052063
0.014435
-0.098267
-0.046448
0.058624
-0.010811
0.010132
-0.016739
0.046661
0.060303
-0.061249
-0.075684
0.053436
0.000837
0.044220
-0.046906
0.021744
-0.045776
-0.078430
0.044250
-0.091309
0.006416
-0.078064
-0.029022
-0.079468
-0.113281
0.078918
-0.058319
-0.029831
-0.037750
0.019028
-0.002436
0.009224
-0.112427
0.046387
-0.076721
-0.077393
-0.077087
-0.013039
-0.026184
-0.087585
-0.109802
-0.030853
-0.024796
0.080933
0.022507
-0.087952
0.092285
0.074280
-0.005314
0.075073
-0.053070
0.066101
-0.052765
0.018387
0.089417
0.067871
-0.009201
0.061279
-0.016769
0.062317
0.061920
-0.023911
-0.073120
-0.002308
0.029404
-0.046265
0.042633
0.052917
-0.086670
0.094360
0.085022
-0.081177
0.097961
-0.026520
-0.060913
-0.100769
-0.060577
-0.077271
-0.043579
-0.062805
-0.009171
-0.035522
-0.003784
-0.082825
-0.081604
0.018784
0.056427
-0.048737
0.032562
-0.003250
0.013275
-0.026718
-0.089111
0.095093
0.059906
0.012154
0.071045
-0.067932
0.014450
-0.015289
0.017670
-0.070618
0.065918
-0.054199
0.049286
-0.046234
0.006550
-0.010841
0.098633
-0.060211
-0.074707
0.023636
0.018768
0.093384
-0.064331
0.036835
-0.017075
-0.021988
-0.015495
0.020935
-0.044006
0.063416
0.061951
-0.034302
0.052521
0.043213
0.044067
0.096741
0.023849
-0.028671
-0.096375
-0.046692
-0.087646
-0.094299
0.045776
0.038757
-0.082520
-0.000544
-0.047058
-0.025284
0.028656
-0.018265
0.030792
0.000391
0.011322
0.066895
0.076660
0.004528
0.004230
-0.008682
0.025772
0.091003
-0.004971
0.028198
0.016678
-0.032104
0.067749
0.013039
0.086243
-0.017181
0.030502
0.030014
-0.073242
0.047729
0.074463
0.092590
-0.036835
0.005276
0.062988
-0.070740
0.070435
-0.044556
0.074646
0.029694
-0.046021
-0.099060
0.068054
0.018784
-0.046570
0.028534
0.064575
0.037933
-0.043427
-0.053406
-0.059662
0.010368
0.053925
-0.037476
0.026169
0.057159
-0.033905
-0.018234
-0.031189
0.057373
-0.067078
0.054657
-0.013443
0.084839
0.061401
-0.043091
-0.055725
-0.027985
0.050537
0.026123
-0.042236
0.021439
-0.058075
0.028412
-0.013306
0.096741
0.077026
-0.002596
0.065491
0.000128
-0.049347
0.007542
0.058868
-0.008018
-0.080200
-0.031952
-0.067383
-0.060669
-0.030060
0.015450
0.014091
0.077026
0.032379
-0.029572
0.000920
0.032227
-0.054535
0.036133
-0.009468
0.066101
0.015266
-0.024643
-0.045197
0.066833
-0.052948
0.092590
-0.027191
-0.040619
-0.053894
0.062744
-0.035767
0.054077
0.013741
0.025208
-0.065613
-0.033997
0.023651
-0.030960
-0.046631
-0.013863
-0.093689
0.072876
-0.073914
-0.073914
-0.065186
-0.074097
-0.023026
0.063721
0.011871
0.063965
-0.041473
0.006077
0.026215
-0.045197
-0.033508
-0.073547
0.048737
-0.019958
0.005989
0.050903
0.008179
-0.032501
-0.043182
0.065979
-0.072510
-0.081848
-0.047058
0.055389
0.018082
-0.029160
0.007481
0.016953
-0.015259
-0.042175
-0.048004
-0.030685
0.083374
-0.004822
-0.060028
0.091187
-0.053986
0.072266
0.075134
0.036102
-0.001232
0.071045
-0.061584
-0.014687
0.061127
0.051361
-0.016769
0.008690
0.001820
-0.069946
-0.017990
-0.023651
-0.065247
-0.012711
0.045441
0.054901
-0.098267
0.023865
-0.065796
0.035187
0.012932
0.013008
0.001473
-0.015404
0.075928
0.064636
0.046204
-0.009422
0.006340
-0.028976
-0.057648
-0.050293
-0.003160
0.019943
-0.039886
0.050751
0.028320
0.061981
0.010628
-0.009033
-0.056549
-0.030289
0.023300
-0.054352
-0.064575
-0.000461
0.055634
0.026932
0.086243
-0.087708
-0.026062
0.014709
-0.045074
0.035736
0.060822
0.059540
0.052307
-0.051208
0.047058
0.064453
-0.010895
-0.052612
-0.034393
-0.004990
-0.023422
0.063599
-0.058807
-0.084045
-0.037933
0.080261
-0.049438
-0.045990
0.083984
-0.076416
0.031342
0.016052
0.018417
0.049194
0.049469
0.038727
-0.060547
0.088562
0.040436
-0.077332
-0.051788
-0.045044
0.059296
0.063293
-0.073486
0.077454
-0.024124
-0.053558
-0.041321
-0.056305
0.061798
-0.003780
-0.074036
-0.088745
0.075073
-0.023178
0.017441
-0.056000
-0.049988
0.012756
0.016449
-0.067810
-0.011147
-0.016312
0.034119
0.057495
0.003885
-0.029877
0.069031
0.036133
-0.039307
-0.036591
-0.080200
0.076721
0.029343
0.030121
0.019867
0.022430
0.035065
-0.077759
0.075500
0.072876
-0.086060
0.037720
-0.058380
-0.084595
-0.083313
-0.030304
0.001059
-0.033600
-0.040771
0.084473
-0.059509
-0.026505
-0.016373
-0.021027
0.011101
0.071655
0.045746
0.017746
0.066162
0.039551
-0.039734
0.030762
-0.013466
0.086487
-0.008385
-0.049225
-0.040466
-0.060425
-0.030075
-0.083496
-0.009789
-0.075195
-0.003647
0.077271
-0.020050
-0.049347
-0.006836
-0.077393
0.005573
0.001548
0.088013
-0.001147
0.007355
-0.061768
0.065918
-0.069824
-0.044128
-0.069397
-0.022781
-0.026505
-0.015793
0.007904
0.081543
0.001966
-0.000233
0.029526
-0.039551
0.043121
0.066650
-0.072571
-0.054443
-0.074280
-0.050568
0.009232
0.013184
0.027863
0.046509
-0.005013
0.063416
0.059418
-0.097351
0.020462
0.037567
-0.077148
0.005219
0.025528
-0.064758
0.021271
0.060883
0.063416
-0.096924
0.000651
0.000529
0.042267
-0.032166
0.078430
-0.010460
0.008659
0.094360
0.007389
-0.046082
0.065796
0.086426
-0.010483
-0.070740
-0.039459
0.020935
-0.042633
-0.007072
0.043640
0.045410
0.006405
-0.089966
0.076904
0.025955
0.097046
0.062317
0.026840
0.083496
0.042511
0.063171
0.089905
-0.005753
-0.027603
0.000144
-0.077332
0.051300
0.030289
-0.022034
0.046875
0.019928
-0.055176
-0.064819
0.025040
-0.011902
-0.021301
0.017456
0.017303
-0.007008
-0.036407
0.049744
-0.084290
-0.084229
-0.015366
0.006535
-0.035583
0.043945
-0.056183
-0.079529
-0.008392
0.087708
-0.035950
0.002491
-0.071960
0.060608
-0.001546
0.064331
-0.042816
0.039551
0.030670
0.022903
-0.066772
-0.078796
0.006649
-0.028961
0.007912
0.029419
-0.085388
0.056885
0.049255
-0.047668
-0.048096
0.041687
0.037842
0.049561
0.030228
-0.014336
0.059692
-0.071960
-0.076538
0.101746
0.056519
-0.009094
0.040070
-0.011307
0.069824
0.055481
-0.028534
-0.053741
-0.066101
-0.005814
0.025391
0.077759
0.043823
0.019333
0.012863
-0.010056
0.024277
0.015343
0.057953
-0.016220
-0.014053
-0.076355
0.018967
0.026855
0.057404
-0.057129
-0.052094
0.016510
-0.019272
0.018631
0.121399
0.048737
0.035645
-0.012993
0.067261
0.026825
0.077393
0.048706
-0.063782
-0.071106
-0.037415
-0.013397
-0.082153
-0.068237
0.022354
0.058350
0.074402
-0.064453
0.009537
0.004402
0.070496
-0.046906
-0.116089
-0.084717
-0.067139
-0.043579
-0.035431
0.061737
-0.018784
-0.072388
-0.069641
-0.034882
-0.062500
-0.065796
-0.029709
0.051971
0.042480
-0.060242
0.063843
0.062622
0.011574
-0.061127
-0.014252
0.028412
-0.079407
-0.074280
0.055969
-0.002003
0.081848
0.017059
-0.023682
0.067200
0.083435
-0.070862
-0.040863
0.062561
0.054565
-0.066589
-0.052124
0.003162
0.032013
0.027496
-0.037476
-0.058075
-0.041229
-0.054260
0.072021
-0.061005
0.021622
-0.001531
-0.030579
-0.024414
0.037292
-0.066589
-0.081909
0.056732
-0.057739
-0.052124
0.037354
0.014145
-0.010353
-0.064575
0.026276
0.039490
-0.064636
0.005310
0.030121
0.045227
-0.065002
0.086365
-0.019669
0.029099
0.072510
-0.037567
0.068481
-0.052887
-0.092773
-0.072327
-0.064758
0.088074
-0.034912
0.069824
0.010094
-0.021759
0.035004
0.065613
0.028076
-0.093811
-0.034027
-0.071106
-0.018188
-0.005913
0.025192
-0.064514
-0.000500
-0.095703
-0.049103
-0.103882
-0.060059
-0.066528
-0.053070
0.043060
-0.056213
-0.040222
-0.077820
0.059021
0.033752
-0.013824
0.033752
0.050385
-0.012520
-0.020599
0.003929
0.031204
-0.077026
0.002148
-0.011086
-0.031799
-0.047882
0.007252
-0.065918
-0.023849
0.001881
0.004616
0.015900
0.043152
-0.076294
0.037720
-0.051697
-0.044861
-0.001408
-0.091187
0.076172
0.036469
-0.012039
0.054169
-0.081177
-0.074463
0.060944
0.047272
-0.079468
-0.116699
-0.085144
0.010246
-0.068542
-0.032623
-0.092224
0.067078
-0.043121
0.063416
0.005669
-0.051239
-0.088318
-0.095215
-0.098755
-0.044373
0.034973
-0.070618
0.051147
0.052612
0.029633
-0.002157
-0.065918
-0.057312
-0.009529
-0.059479
-0.033966
0.038300
0.086609
-0.052368
0.039398
-0.068665
-0.081604
-0.066772
-0.083191
-0.064148
0.006271
-0.051208
0.093201
-0.019913
0.049866
0.008003
-0.086121
-0.005573
-0.078125
-0.010284
-0.055389
-0.080933
0.081177
-0.042511
-0.050262
0.044617
0.068481
-0.073059
-0.052032
0.072021
0.005108
-0.054047
-0.026840
0.056915
-0.062256
0.023575
0.055176
0.072754
-0.057098
-0.030594
-0.052460
-0.050598
0.063171
0.036652
-0.005276
-0.014481
-0.081482
-0.051758
0.077332
0.029175
0.051727
0.037964
-0.067627
-0.038727
0.018127
-0.038666
-0.064209
-0.032928
0.082764
-0.071472
-0.074036
-0.052338
-0.035767
-0.037903
-0.073730
0.056610
0.027832
-0.103149
0.031982
-0.078430
0.054291
0.020111
-0.002380
-0.041138
-0.060699
0.039551
0.002787
0.037628
-0.060944
-0.065979
0.076294
0.068665
0.028122
-0.030273
0.039703
0.064758
0.076599
-0.038757
0.055176
-0.070312
0.029053
0.015854
-0.002092
-0.034882
-0.013176
-0.008232
0.023087
-0.068237
0.051483
0.019470
0.007706
0.065552
0.058990
-0.021347
-0.078369
0.023666
0.068909
0.081970
-0.055481
-0.074829
0.035614
0.070068
-0.073853
-0.059479
0.050690
0.063660
0.083313
0.007500
0.051666
-0.018234
-0.059479
0.055725
0.054169
-0.070679
-0.078003
0.003622
-0.012016
-0.011040
-0.087280
0.003628
-0.037415
-0.046417
0.017517
-0.022812
0.054871
-0.020477
0.072876
0.014877
-0.003819
-0.057465
-0.036987
0.029724
0.007389
-0.035736
0.036407
-0.029419
-0.068298
0.071899
0.000312
0.073730
0.027161
-0.048615
-0.030075
0.047119
-0.068848
0.024490
-0.050232
-0.070068
0.049408
0.021851
-0.062744
0.112305
0.129028
0.020432
-0.076843
0.015015
0.030792
0.053223
-0.021194
0.057373
-0.095276
-0.048248
0.002773
0.041260
0.023743
-0.007275
-0.092529
0.013260
0.095520
-0.077332
0.045074
-0.054626
0.027924
-0.020035
0.026001
0.065674
-0.065796
-0.031281
0.061096
0.071716
0.024887
0.016068
-0.051239
0.062012
0.065613
0.095947
-0.017624
-0.013283
0.014633
-0.106323
-0.038940
0.086365
0.042694
-0.085815
0.047699
-0.089417
-0.080444
0.077576
-0.066772
0.040924
-0.050018
0.070740
-0.011711
0.002098
-0.017120
0.042084
0.051636
0.021866
-0.042603
-0.010696
-0.079773
0.040802
-0.061310
0.041168
0.071899
-0.070435
-0.045776
-0.054413
-0.089294
0.049713
0.054657
-0.032745
0.017380
-0.084167
0.101562
0.074585
-0.084839
0.092957
0.071899
-0.079590
-0.030151
0.059113
-0.035278
-0.063721
0.055542
0.093689
0.026550
0.007393
-0.006935
0.071533
-0.012489
-0.043671
0.050354
0.058533
-0.006287
-0.066711
-0.087708
-0.007393
-0.031403
0.064514
-0.060944
-0.029617
0.039948
0.020508
0.040314
-0.024796
0.069763
-0.082764
-0.087402
0.037384
0.106262
0.077759
0.038635
-0.035706
0.047516
0.007240
0.003443
-0.009026
-0.012344
-0.070251
0.091309
-0.042572
-0.104919
-0.025620
0.000840
-0.054596
-0.045105
-0.071533
-0.071716
-0.038422
-0.087830
-0.051575
-0.075745
0.024780
-0.039886
-0.063721
0.052399
0.044098
-0.013718
0.014755
0.081116
0.083374
-0.049744
0.047394
-0.041748
0.016190
-0.042572
-0.040039
0.059753
-0.060394
-0.014748
-0.067749
0.061890
0.008064
-0.010384
-0.054779
-0.002813
-0.049347
-0.076050
-0.040314
0.071594
0.050018
0.064331
0.071777
-0.026871
0.006111
0.083252
-0.002785
-0.009285
-0.049591
0.011391
0.039398
-0.054504
0.041809
0.045868
-0.051422
-0.090881
0.042267
-0.010193
0.062469
-0.062622
0.009384
-0.027985
-0.081543
0.037079
-0.046692
0.014946
-0.016663
-0.072693
-0.065552
0.046051
-0.040833
-0.001474
-0.035309
0.059143
0.019196
-0.015305
0.041290
0.034760
0.003506
0.063965
-0.069580
0.061584
0.011909
-0.064575
-0.023071
0.040497
0.002729
-0.033936
0.037933
0.003792
0.059753
-0.037384
-0.009163
-0.023315
-0.048187
0.040741
-0.021545
-0.015129
0.052368
0.032135
-0.051544
-0.048584
-0.080505
0.034058
0.062164
-0.047119
0.052582
-0.011604
0.029770
-0.036224
-0.010979
0.073975
-0.074768
0.065063
0.081909
-0.052643
0.051849
0.063110
-0.022324
-0.017899
-0.049988
0.085693
-0.082703
0.019653
-0.064209
0.037170
-0.041656
0.004459
-0.078735
-0.078308
-0.048645
0.075012
-0.054749
0.046021
0.008453
0.094666
-0.028473
0.003901
0.071106
0.069519
-0.005138
0.069153
-0.006180
-0.030579
0.029831
-0.090027
-0.036316
0.084167
-0.027283
0.034729
0.007801
-0.058136
0.076050
-0.056885
0.017746
-0.058319
-0.082153
-0.083435
-0.053619
0.073914
-0.086304
0.050598
0.006584
0.070190
0.075867
0.078918
-0.040771
0.056244
-0.061035
-0.037964
-0.026184
-0.068298
-0.039337
0.055573
0.063293
0.056335
0.035797
-0.094971
0.033203
0.050232
-0.009338
-0.002338
0.000150
0.028610
0.061279
-0.029724
-0.021042
-0.063599
-0.044250
-0.004810
-0.073242
0.040741
-0.061646
0.004574
0.054016
-0.006042
0.039276
-0.067688
0.055573
-0.020889
0.054962
0.079468
-0.072754
0.057037
-0.088501
-0.072815
-0.042297
-0.002254
0.043060
0.061646
-0.045990
-0.072937
0.032990
0.071899
-0.053040
0.078918
0.013870
-0.043915
-0.043915
0.037354
-0.020813
0.030151
0.006226
-0.002098
0.080872
-0.077759
0.069458
0.008720
0.039886
0.080383
0.002972
0.055756
-0.061218
0.092102
0.084167
0.007874
-0.059998
-0.065918
0.048492
0.044189
0.021988
0.073425
0.057068
0.060181
0.038940
0.059967
0.011490
0.053040
0.028824
-0.058411
0.077698
-0.093323
0.047668
0.072632
0.070801
-0.001587
-0.009872
0.040924
-0.049835
0.031677
-0.075623
0.035431
0.076050
0.062042
0.054962
-0.047546
0.018204
-0.100281
0.017700
-0.064941
0.065552
-0.028503
0.067444
-0.013504
-0.003952
0.019272
0.039062
0.037933
-0.039337
0.078186
-0.005615
0.094360
0.046204
0.002459
0.059753
-0.032898
0.072083
0.087524
-0.063660
0.031128
-0.041046
0.040771
-0.074036
0.067749
-0.058258
-0.025681
0.019241
0.036407
0.007774
-0.046326
0.049164
-0.024887
-0.033600
0.041138
0.054840
-0.045227
-0.003801
-0.056885
0.062805
-0.073669
0.073425
-0.065308
0.000443
0.061584
0.029877
0.051697
0.020111
0.089844
-0.043823
0.075745
-0.039795
-0.004562
0.074158
0.047089
0.023590
-0.094055
-0.080383
-0.039551
-0.069824
0.021927
-0.086487
-0.063660
0.035065
0.089722
-0.059021
-0.073547
-0.005798
-0.068054
-0.070801
0.072571
0.100281
0.009056
-0.015541
0.029724
0.026947
0.074280
0.051941
-0.048676
0.077148
0.041199
-0.020325
0.096252
-0.019119
0.037354
0.094604
-0.071228
-0.083923
-0.064087
0.004078
-0.094849
0.037354
0.017822
0.081055
-0.064148
0.061035
0.011726
0.085083
0.002796
-0.035156
0.026855
-0.036163
-0.058746
0.053558
-0.061920
0.087524
-0.028580
-0.040466
-0.045868
-0.022156
-0.014290
0.059662
0.064514
-0.067505
0.000699
-0.041260
0.005600
0.065735
-0.015732
-0.013489
-0.067444
-0.081421
0.050781
0.059326
-0.013245
-0.027039
0.008354
-0.028290
0.074585
-0.058167
-0.015190
-0.071716
-0.044922
0.015778
-0.044952
-0.056610
-0.015411
0.088074
0.001259
0.006489
0.111389
-0.046082
-0.004978
-0.028992
0.070251
-0.001457
0.054993
-0.085510
-0.030533
-0.003889
0.008392
0.015572
0.026489
0.012978
0.052063
-0.068787
-0.070923
-0.009811
0.082642
0.035767
0.101135
-0.037537
-0.057068
-0.036743
-0.037201
-0.033997
0.050018
-0.018188
0.073242
0.036316
0.094177
-0.003580
-0.013016
-0.094116
0.112000
-0.015343
-0.002903
0.081604
0.061829
0.050476
0.049561
-0.032990
-0.057404
-0.086487
0.021164
0.005199
0.072693
-0.045593
0.082153
-0.070190
0.050415
-0.077393
-0.024872
0.046539
-0.087280
-0.035492
-0.025223
0.064209
-0.043915
-0.067749
-0.068054
0.023575
-0.043915
-0.078918
-0.099182
-0.007282
0.012779
-0.068848
-0.023010
-0.036011
-0.072937
0.057587
0.015823
0.001041
-0.008537
0.064697
0.019592
0.052856
-0.079041
0.050629
0.051941
0.005150
0.035431
-0.005909
-0.043854
-0.065735
-0.063416
-0.058350
-0.034882
-0.052521
-0.071472
-0.016998
-0.037506
-0.069336
-0.039917
0.024948
-0.085815
0.069214
0.050507
-0.056671
0.043396
-0.081238
0.034790
0.037659
0.025681
0.095032
0.072327
0.046448
0.054413
0.026184
-0.024048
-0.015556
0.004902
0.088379
-0.062378
-0.044861
-0.026566
0.031113
0.053131
0.087036
-0.001919
0.007866
-0.067444
-0.079834
-0.047089
0.002291
-0.006512
0.017685
-0.010567
-0.054352
-0.085205
-0.053864
0.034241
0.057220
0.121521
0.010506
-0.092224
0.035919
0.023468
0.044220
-0.053406
0.063171
-0.019669
0.080383
-0.029465
0.046967
-0.054504
-0.051666
0.064331
0.071716
-0.012230
0.024673
-0.022064
0.044769
-0.095703
0.021835
0.069885
0.074158
0.039276
0.044647
-0.022903
-0.061584
0.037750
-0.058105
0.016083
-0.035767
0.014519
-0.031082
-0.029694
-0.037109
-0.056335
-0.087830
0.027206
-0.071594
0.047394
0.082214
-0.077271
-0.087830
0.078186
0.001930
0.086792
-0.030960
0.035095
-0.015144
0.070068
-0.032379
-0.037750
-0.088806
-0.030151
-0.039825
-0.012161
-0.068176
0.061981
-0.079346
0.085815
0.028625
0.081055
-0.070923
-0.066650
0.042969
0.027573
0.059540
0.065186
0.032806
0.099243
0.029007
0.080811
0.078369
-0.003874
-0.085144
-0.002729
0.086365
0.083252
0.048828
-0.049957
0.035400
0.065796
-0.047180
0.077698
-0.020935
-0.073242
0.012520
0.016418
0.015305
0.047363
-0.020279
-0.010178
0.052673
0.055420
-0.093323
-0.052979
-0.069519
-0.007866
0.057129
-0.025497
-0.097229
-0.058197
0.016357
-0.090515
-0.015503
-0.045074
-0.032623
-0.012009
0.055115
-0.032593
-0.041992
0.006065
-0.060211
-0.005543
-0.058624
0.005402
-0.033569
-0.061188
-0.075073
-0.041443
0.062561
0.030960
0.026382
0.076721
-0.035828
-0.078369
0.027283
0.065613
0.066101
0.005634
-0.067200
-0.094055
0.067749
0.035553
-0.092163
0.083130
0.021774
-0.031311
0.046661
0.082214
-0.002916
0.052155
0.018875
-0.037079
0.004734
0.055237
-0.068604
-0.026520
0.002220
0.047363
-0.065796
-0.094971
-0.073425
-0.001462
0.044800
0.074158
-0.025299
0.084961
0.048309
-0.046082
0.010101
-0.060883
0.024368
0.078491
-0.032135
-0.020340
-0.033356
-0.050537
-0.020508
-0.030746
-0.063293
-0.073853
0.051941
0.009888
0.066650
-0.019989
-0.087341
0.061127
0.078308
-0.006557
0.078979
-0.072021
-0.042908
-0.039825
0.012413
0.041870
-0.083679
-0.017746
-0.033966
-0.050079
-0.010155
0.002132
0.080017
0.023376
0.034119
0.006245
-0.019730
-0.021500
-0.024719
0.046783
-0.047363
-0.010780
0.038940
-0.045746
-0.001016
-0.040131
0.054688
-0.080872
0.055115
-0.078308
-0.045013
-0.078857
0.063416
-0.020905
0.040070
-0.024307
0.063721
-0.011368
0.024628
-0.011513
-0.020401
-0.038818
-0.040955
0.026001
-0.016312
-0.076294
-0.083862
-0.057098
-0.076904
0.060608
-0.082520
0.024338
-0.076355
0.012924
-0.060394
-0.037231
-0.000929
0.005009
0.075684
0.069092
-0.038757
-0.017654
0.008392
-0.030029
-0.069763
0.088379
-0.068848
-0.090759
-0.058319
0.062103
0.033752
0.026443
0.076111
-0.082153
0.068970
0.001081
-0.076599
0.063599
0.067627
0.043610
0.022583
-0.079041
0.065186
0.074768
0.015511
-0.052551
-0.000161
-0.056915
-0.064819
-0.042114
0.037323
0.048340
0.069702
0.048889
-0.008530
-0.069153
-0.031097
-0.049500
0.062164
-0.058777
0.008110
0.002605
0.034027
0.010979
0.003763
0.012268
0.091858
0.075867
-0.028839
0.034698
-0.079224
0.009506
0.002104
-0.038361
-0.049194
-0.020599
0.043335
0.068054
-0.046478
-0.001794
-0.089722
0.014603
0.039032
-0.006176
-0.013435
0.050018
-0.093323
-0.048798
-0.037964
0.008675
0.004364
-0.035461
-0.045166
0.054962
0.053802
-0.014755
-0.025711
0.008293
-0.049561
0.013390
-0.094849
-0.090332
-0.033539
-0.001390
-0.054077
0.043030
0.043213
-0.088928
-0.094116
-0.065613
-0.037201
0.000276
-0.064941
-0.070251
0.000288
-0.047241
0.042755
-0.019424
-0.024384
-0.004303
-0.048187
-0.054169
-0.078430
-0.056152
0.077698
0.031525
-0.031799
-0.002714
0.013748
0.085815
-0.033264
-0.051758
0.036377
0.030060
-0.100525
0.014854
-0.014824
-0.026581
0.043121
0.088684
-0.085327
-0.018448
0.072510
0.002201
-0.071838
0.059204
0.010475
-0.079712
0.080322
0.041412
-0.020844
0.076355
0.074768
-0.074036
-0.025558
-0.019913
0.014336
0.019165
0.016953
-0.001418
0.053802
0.036285
-0.069946
0.086914
-0.039429
0.004017
-0.093506
0.048920
0.012474
0.048035
-0.070435
-0.012566
-0.013634
0.069824
-0.030579
-0.006481
0.061981
-0.004494
-0.042236
-0.080872
-0.024582
-0.063721
-0.042419
0.024780
-0.016647
0.000427
-0.018158
0.026993
-0.004841
-0.089539
-0.096252
-0.023621
-0.025116
0.025574
-0.055573
0.000572
0.021423
0.001014
0.096497
-0.058441
0.083008
-0.069763
-0.066345
0.048096
0.006409
0.060791
-0.071655
0.055542
0.031006
-0.083679
-0.103943
-0.043182
-0.046600
0.002264
-0.053406
-0.006939
-0.047516
-0.015823
-0.071472
-0.086609
-0.042480
-0.094910
0.004230
0.026901
-0.088562
0.084839
-0.006863
0.057220
-0.060730
0.025497
0.002785
-0.022186
-0.105713
-0.085022
-0.001456
0.046356
-0.012901
-0.051086
-0.002460
-0.042023
-0.039429
0.012123
-0.053375
-0.055328
0.000042
-0.051636
-0.075928
0.013321
-0.096191
0.062744
0.023758
0.027832
0.070190
0.076294
0.048187
-0.029068
0.008598
0.086670
-0.048401
0.014832
0.026077
0.020248
-0.074402
-0.014992
-0.033905
-0.092041
0.081116
0.024048
-0.074463
0.082886
-0.028671
-0.049713
0.099060
-0.067993
-0.022964
0.086243
0.033844
-0.044861
0.004517
-0.033356
-0.057281
0.023148
-0.088684
-0.090271
-0.007957
-0.020706
-0.020599
-0.049927
0.096558
-0.022644
0.014824
-0.088623
0.002674
0.023682
-0.001873
0.062195
-0.057404
-0.013092
-0.052460
0.076843
-0.085999
0.050842
0.055206
-0.005692
-0.064148
0.013680
0.000491
-0.041290
0.066833
0.057281
0.071777
-0.093018
-0.078003
0.055969
0.093689
0.082520
-0.041595
-0.038452
-0.062561
0.087463
-0.019012
0.055511
-0.067200
-0.081177
0.078369
0.037842
0.006130
0.099182
0.045441
-0.014771
0.027328
0.086060
0.022278
0.026871
0.035858
0.082214
-0.057007
0.004299
0.098328
-0.078857
-0.007507
-0.003452
-0.053375
0.020981
-0.050690
-0.057465
0.008202
0.092285
0.057343
-0.031174
-0.011040
0.036530
0.048828
-0.032684
-0.088135
-0.010849
-0.064087
-0.025116
-0.044922
-0.075867
-0.067566
-0.048157
0.023224
-0.043854
0.047546
0.035492
-0.000059
0.052887
0.140381
0.045197
-0.073242
0.043915
0.059357
0.021469
-0.069214
-0.060944
-0.002310
-0.032959
0.089417
0.016144
-0.060181
0.071411
-0.008850
0.047668
-0.008675
0.065613
0.038422
0.076416
0.075806
-0.037170
0.070312
0.053711
0.023239
-0.089600
-0.067200
-0.030258
-0.029739
0.002953
-0.082031
0.039612
0.065369
-0.074768
0.059204
-0.011871
0.042877
-0.027100
0.077698
0.075562
0.030090
0.050354
0.077026
0.062225
0.007412
-0.071716
0.027328
0.026443
0.053680
-0.015762
0.055725
-0.023788
-0.075012
0.040710
0.076843
0.051056
-0.059082
-0.086670
0.043518
0.057190
-0.011223
-0.050385
0.004776
-0.004478
-0.076294
-0.023560
0.051544
-0.085754
-0.021851
0.049255
-0.018066
0.073730
-0.080139
0.028580
0.069763
-0.088501
0.001200
0.013618
0.035553
-0.050415
-0.040436
-0.087952
0.078125
0.046387
0.022903
-0.054810
0.070007
0.050140
0.048492
0.046936
-0.041443
-0.002666
0.036865
0.080017
0.037506
0.059082
0.038849
0.088684
-0.062500
-0.037262
-0.066467
0.071838
-0.081970
0.066223
-0.060089
-0.009949
0.016129
0.016785
0.086365
0.003773
0.040955
0.022079
0.066162
-0.041443
-0.017029
-0.057678
0.027939
-0.082214
-0.046295
0.074463
0.021133
0.019302
-0.031647
0.046356
0.044617
-0.083008
-0.045898
-0.042999
-0.028214
-0.032959
-0.029007
0.000682
0.051483
0.080383
0.070740
0.003426
0.069031
0.076599
0.035553
0.069946
0.011406
0.037262
-0.059021
0.010612
-0.027939
-0.030533
-0.019501
-0.005520
0.004959
0.072266
-0.003748
-0.059387
-0.028290
-0.070923
0.087158
0.019211
-0.079590
0.022568
0.071533
-0.095337
-0.037262
-0.021744
-0.030090
-0.045227
0.033234
-0.020752
0.071716
0.057953
-0.081970
0.068542
-0.078979
0.089417
0.050629
0.090942
0.046265
-0.006363
-0.047302
-0.086792
-0.084229
-0.016693
-0.017151
-0.016907
0.037750
-0.033051
0.004982
-0.060028
0.044495
-0.073425
0.014809
-0.005600
0.086731
0.035797
0.056885
-0.046326
-0.000386
0.044464
-0.083984
0.057617
-0.007889
-0.046387
-0.052979
-0.033905
-0.042328
-0.019104
-0.044250
-0.058105
0.077942
-0.014679
0.027191
0.057312
0.066528
-0.038086
0.048981
-0.025848
-0.023804
-0.048706
-0.083496
-0.009834
-0.002800
-0.016525
-0.052948
-0.091553
-0.108582
0.050720
0.050964
-0.031616
-0.084290
-0.098572
-0.055389
0.037964
0.088928
0.060608
0.017151
0.026031
-0.002232
-0.061890
-0.034393
-0.058167
-0.109253
-0.019028
-0.037445
0.021484
0.024673
-0.057465
-0.077576
0.005871
-0.037445
-0.058167
-0.032166
-0.050293
-0.026733
-0.042755
-0.047546
0.044006
0.090393
-0.011749
-0.136841
-0.065674
-0.069885
-0.064941
-0.023651
0.072327
0.064453
-0.053162
0.036743
-0.020477
0.047363
0.007214
-0.051056
-0.023422
0.033447
-0.019089
0.053558
-0.056702
0.061737
-0.044037
-0.020386
-0.066589
0.009735
-0.020874
0.007889
-0.009941
0.001708
-0.091370
0.016327
-0.035797
0.056427
0.066895
0.007500
-0.070007
0.045319
-0.026459
0.027618
-0.048126
0.033142
-0.039978
-0.038757
0.072510
-0.069885
-0.004940
0.061768
-0.031113
0.068604
0.082764
0.046448
0.058685
-0.000013
-0.054749
0.089844
-0.008698
-0.045197
0.056122
0.045532
0.020981
-0.081909
0.039276
-0.085754
0.044983
0.089478
0.064331
-0.027237
-0.074402
-0.015091
-0.058533
0.028320
-0.023315
0.053711
-0.020813
-0.008118
0.033173
0.053009
0.000095
-0.080383
0.070007
0.054169
0.013908
-0.032349
-0.030975
0.050781
-0.076294
-0.014450
0.091187
-0.099976
0.053619
-0.005917
-0.019806
-0.044800
0.047333
-0.027496
0.056946
0.040466
-0.029541
-0.015465
-0.089233
-0.024750
0.051880
0.096497
0.000066
-0.004848
0.077148
-0.062988
0.071899
-0.012062
0.078796
0.017685
-0.059540
-0.085388
-0.032867
0.011513
0.035278
0.036926
-0.036163
-0.082336
-0.061981
0.090515
-0.054962
-0.055634
-0.023727
-0.003633
-0.071533
-0.001678
0.042786
-0.015083
0.073914
-0.026703
0.017654
-0.091919
-0.047668
0.093140
0.036530
-0.043793
-0.039093
-0.032684
-0.094910
-0.002647
0.051208
-0.063477
-0.050262
0.078125
0.043732
0.076599
0.045349
-0.051849
0.013611
0.043457
-0.005386
-0.060699
-0.098083
0.113159
-0.079407
-0.066040
0.072693
-0.017212
-0.034149
-0.005222
0.013321
-0.045013
0.030640
0.071838
0.002295
0.059662
-0.073608
-0.009216
0.056671
0.007507
0.050781
-0.000229
-0.023254
-0.046234
-0.040680
-0.037079
0.043610
-0.048401
-0.060455
0.077026
0.040253
0.036621
0.009644
0.046753
0.049133
-0.020050
-0.047699
0.069275
-0.085083
0.083069
-0.035797
-0.046539
-0.025940
0.069946
0.048767
0.028900
0.023346
-0.042267
-0.079895
-0.065796
-0.029053
-0.086243
0.075134
0.059448
0.043701
0.062195
0.024277
0.014305
0.088562
0.021454
0.042664
-0.040619
-0.089600
0.034943
0.050781
0.044922
-0.088867
-0.081726
0.078979
0.065430
-0.051056
0.045288
-0.009811
0.059906
-0.088623
-0.054993
0.002218
-0.005680
0.009834
-0.046143
0.043488
0.045410
0.047180
0.013535
-0.089417
0.024780
-0.048157
0.044525
0.081543
0.048859
0.018829
0.054016
0.081055
0.043854
-0.056580
0.067017
-0.012894
0.001287
-0.031082
-0.026291
0.058868
0.046753
0.039917
-0.029541
0.040375
-0.081238
-0.015579
-0.053375
0.009369
0.029251
0.086975
0.039581
-0.029221
-0.055847
0.049835
0.034790
-0.065857
-0.057953
-0.061951
0.033295
0.025055
-0.055756
0.076111
0.074158
-0.013771
-0.036469
0.048523
-0.082520
-0.011482
0.066528
-0.007721
-0.077332
-0.087952
0.009323
0.039429
-0.000377
0.068420
-0.037079
-0.023163
0.066345
0.069519
0.079834
0.059326
-0.039734
-0.038208
0.015198
-0.082397
-0.019928
-0.043427
-0.077820
0.082886
0.034912
-0.058899
-0.052521
-0.026962
0.080139
-0.078491
0.030243
-0.045288
0.064026
0.091797
0.066467
-0.047607
-0.044403
0.046265
0.024216
-0.015305
-0.076721
0.060120
-0.028946
0.051025
-0.016251
0.073059
-0.057678
-0.033081
0.043823
0.023224
-0.055176
0.000423
0.062988
-0.082642
0.014565
0.036377
-0.044189
0.065613
0.065674
0.040070
0.007687
-0.040894
0.000314
-0.049835
0.000010
0.078735
-0.062286
-0.042847
-0.034698
0.014473
0.019638
-0.034607
0.002699
-0.083801
0.016739
-0.069641
0.002024
0.058289
0.087585
0.074768
0.063416
-0.007942
-0.019547
-0.038177
0.030380
0.064514
0.066711
0.001517
0.083618
-0.048035
-0.032227
-0.023041
0.057312
-0.044922
0.036591
0.024124
0.072693
0.039093
0.018677
-0.014008
0.065735
0.034119
0.081604
-0.016464
-0.061249
-0.038635
0.026794
-0.040405
0.047455
0.047577
-0.020737
0.040161
-0.015747
-0.070557
0.051880
-0.066772
0.073547
-0.046722
-0.043396
0.070740
0.013641
0.048981
0.040649
-0.042847
-0.031738
0.024796
-0.045898
-0.054321
-0.057281
0.005505
0.065063
0.007763
-0.006332
-0.067810
-0.078003