0.015258789
0.047119141
0.0049247742
-0.066833496
-0.040405273
0.0047988892
-0.0013895035
-0.019042969
-0.0051345825
-0.065979004
0.0030193329
0.033996582
0.072998047
0.068969727
0.039794922
-0.074645996
-0.0340271
-0.061035156
-0.044830322
-0.025482178
0.022613525
-0.021240234
-0.054351807
0.058197021
0.042938232
-0.0074577332
0.010856628
0.0052757263
-0.073181152
-0.044830322
-0.0574646
0.022705078
0.038696289
-0.037902832
0.050048828
-0.0052337646
-0.065673828
-0.027709961
-0.060882568
-0.05670166
0.011657715
0.055847168
-0.0071754456
0.046691895
0.048461914
0.025665283
0.066772461
0.078796387
-0.051086426
-0.012550354
0.056640625
-0.014595032
-0.059783936
-0.01171875
0.0011301041
0.028717041
-0.011734009
0.044708252
-0.08795166
-0.04107666
-0.024703979
0.050323486
0.073608398
0.07434082
-0.00086593628
0.086853027
-0.023132324
-0.080627441
0.06640625
0.050109863
-0.058441162
-0.055938721
-0.073059082
0.0065803528
0.034332275
0.010147095
0.083862305
0.039337158
0.05657959
0.050048828
-0.00031328201
-0.016647339
-0.048095703
-0.072998047
-0.072509766
-0.038665771
0.043762207
-0.035400391
-0.046844482
-0.084533691
0.030441284
0.080871582
0.071411133
-0.0023403168
0.013824463
0.077941895
0.001540184
-0.083190918
0.071228027
0.038299561
-0.071716309
0.085266113
0.068237305
-0.036804199
0.060211182
0.048461914
0.0019760132
0.015434265
0.032012939
0.059539795
-0.04083252
0.063781738
0.076477051
-0.029998779
-0.046264648
0.043426514
0.038970947
0.072998047
-0.011230469
-0.009803772
-0.061309814
-0.068359375
0.035461426
0.016815186
-0.082763672
0.020828247
0.041992188
-0.024658203
