-0.008636
-0.020096
-0.006500
0.020020
0.031067
-0.004654
0.010849
0.007534
0.015884
-0.008888
0.006069
0.009613
-0.027390
0.004055
-0.008003
0.010674
0.025970
-0.035309
0.032379
0.008423
0.003201
0.000816
-0.028152
-0.000970
-0.001131
0.008232
0.018127
0.012489
0.030106
0.033325
-0.034912
-0.006218
-0.007767
-0.016586
-0.004997
0.021225
-0.029816
0.021194
-0.002901
-0.002409
-0.032623
0.002014
-0.014519
0.018265
-0.006584
0.021622
-0.009796
-0.028595
-0.028275
0.032104
0.005623
0.009216
0.036285
0.017227
0.027847
-0.009064
0.004894
-0.000622
-0.007431
0.017700
-0.033844
0.015144
0.041016
-0.013649
-0.021210
0.042480
-0.000003
0.017548
-0.018494
-0.010963
0.007442
0.016052
0.031097
-0.030411
0.030029
0.035309
-0.036102
-0.030350
0.012566
-0.012932
0.023987
0.015640
-0.001827
0.007637
0.034332
-0.021561
-0.018921
0.011894
-0.023422
-0.010345
-0.012154
-0.019592
-0.027634
-0.031311
0.023422
0.015747
-0.017532
-0.020294
0.026352
0.021637
-0.027008
0.029236
0.030502
-0.003838
-0.033600
0.012253
-0.019867
-0.000344
0.024460
-0.012115
-0.007011
0.016174
0.003538
0.027084
0.016647
0.033203
0.020248
-0.008522
0.009659
-0.001803
-0.027237
-0.037964
-0.014885
-0.015701
0.005314
0.006443
-0.001366
-0.030807
-0.007286
-0.031494
0.004986
0.046692
-0.012032
0.023483
-0.002745
-0.022827
-0.056793
-0.004700
-0.008659
0.012314
0.007942
-0.017426
0.033173
-0.016022
-0.035980
-0.003254
0.009514
-0.005993
0.010391
-0.019470
0.034851
-0.021133
0.018646
-0.006516
0.005253
0.002806
-0.004421
-0.035034
0.044281
-0.012207
-0.006863
0.036896
-0.012169
-0.015404
0.000054
0.004528
-0.037079
-0.021988
-0.027222
-0.033295
0.020584
-0.032196
-0.014702
0.027267
-0.011383
-0.013657
-0.002918
0.026016
0.010437
-0.037689
-0.034821
0.030090
-0.022079
-0.014046
0.028076
0.015068
0.018967
0.016754
0.036438
-0.025497
0.007652
-0.008293
0.005314
-0.013451
-0.001029
0.006104
-0.003878
0.018875
0.000451
-0.023788
-0.000107
-0.024719
0.024384
-0.022461
-0.013954
0.010666
0.020630
0.024567
0.006229
0.027161
0.010918
-0.029373
-0.015030
0.001918
0.005924
0.002943
-0.016129
0.004040
-0.007008
-0.004158
0.012108
0.037445
0.019196
0.003824
-0.009964
0.022629
0.004478
-0.038147
-0.023712
-0.006741
0.051178
0.018875
0.004852
-0.040436
0.048004
0.010643
0.036316
-0.008347
-0.026520
0.027237
0.000397
-0.018234
-0.010818
-0.030472
0.018021
-0.005779
-0.004436
-0.011139
0.008911
-0.025146
0.004013
-0.008484
-0.024734
0.012566
-0.031952
-0.032043
-0.053192
-0.028503
-0.006630
-0.030975
0.002140
0.023972
-0.005592
0.017151
0.005470
-0.008621
0.033356
0.019440
-0.023239
-0.017715
0.004475
0.008759
-0.011093
0.006580
-0.006290
0.006241
0.028809
0.018188
-0.014526
0.010338
-0.015717
0.004333
0.030884
-0.002726
-0.018600
0.008301
0.003054
-0.013535
0.001100
0.010590
0.001535
0.021637
-0.011734
-0.001438
0.001678
-0.024490
-0.017075
-0.004570
-0.030762
-0.035187
-0.014412
0.030792
0.023148
0.013176
0.047913
-0.014236
0.010735
0.009888
0.013672
0.038513
0.000075
-0.031677
0.014206
-0.029861
0.018585
0.027176
-0.032532
-0.026138
-0.027176
-0.000063
0.025223
-0.017136
-0.002201
-0.012749
0.008400
-0.026917
-0.027206
0.032745
-0.027145
-0.013329
-0.025940
-0.010704
0.034149
0.003445
-0.020767
0.008522
-0.006046
-0.007481
-0.007339
-0.024460
0.022186
-0.004993
-0.029175
0.052185
0.031036
0.008621
-0.012329
-0.006218
-0.025131
0.003538
0.022156
0.024246
0.028564
-0.021851
0.014702
-0.029724
-0.041107
-0.003326
0.009102
-0.023026
0.015343
0.015869
-0.005470
-0.026260
-0.017120
0.017273
-0.027863
-0.000916
0.018341
0.011467
0.009468
-0.014221
0.020737
0.017792
0.025116
-0.031738
-0.044800
0.008011
-0.018097
-0.038300
-0.035492
-0.004539
0.010345
0.003595
-0.007168
-0.014542
0.032562
-0.012154
0.007557
0.025497
0.001640
0.006767
0.000160
0.037567
0.014488
0.002092
0.028824
-0.002886
0.030777
-0.035767
-0.004040
-0.003963
0.017899
0.024673
0.008598
-0.029572
0.041992
-0.014366
-0.015297
-0.011536
-0.014603
0.030945
0.003145
-0.014984
-0.021606
0.033264
0.034760
0.002470
-0.012482
-0.000141
0.026855
0.016037
0.014801
0.013527
0.013985
0.035553
0.006557
-0.001144
0.023254
-0.002230
-0.002291
-0.037415
-0.009369
0.032532
0.011246
0.029739
0.027802
0.039764
-0.026031
-0.010773
0.026794
-0.021210
0.016388
0.005436
0.033447
0.013367
0.029236
0.009521
-0.023682
-0.033234
0.027512
0.026718
-0.020172
0.031433
0.024612
-0.011543
-0.012894
0.006493
-0.015572
-0.013779
-0.029053
0.013840
-0.015732
0.033020
0.017044
-0.021851
0.009529
-0.017899
0.028320
0.018982
-0.016922
-0.014458
0.002890
-0.028107
-0.011032
0.001391
0.014908
-0.009964
-0.030319
0.025024
0.008789
-0.034943
0.003599
-0.033630
-0.003153
-0.021011
0.046875
-0.009659
-0.024139
-0.015656
0.024719
0.027756
0.000259
-0.035675
0.028122
0.011978
0.015610
-0.014809
0.035248
-0.021118
-0.001589
0.023758
-0.025360
0.003658
-0.014809
0.022873
-0.027603
0.034393
-0.027359
-0.024933
-0.023392
0.004677
0.007271
0.020569
0.028793
-0.003809
0.004013
-0.022232
-0.008522
0.026062
-0.016983
-0.017929
0.019241
0.020660
0.006153
-0.037506
0.037048
0.034119
-0.006813
-0.017014
-0.030029
-0.014938
-0.024963
-0.001602
0.006004
-0.029739
-0.003042
-0.033630
-0.004311
0.012268
-0.023987
0.006527
0.030685
0.008606
-0.014145
0.013153
0.002762
0.037537
0.004059
0.014282
0.010498
0.025162
0.028625
-0.055511
0.023636
-0.010635
-0.022583
0.001272
-0.025726
-0.028671
0.017975
-0.028442
-0.006474
-0.007610
-0.032501
0.017044
0.030869
-0.029343
0.006306
0.034546
0.012482
-0.000418
0.018280
-0.018997
0.014008
0.033997
0.017715
-0.021881
-0.029297
-0.028885
-0.023895
-0.007774
-0.000242
0.016235
-0.034210
-0.032135
-0.019653
0.013191
-0.020477
0.016144
0.020493
0.009056
0.023651
0.026382
0.026459
0.011108
0.020599
0.012375
0.007393
0.038910
-0.017731
-0.038757
0.031799
0.022263
0.000576
0.024033
-0.018646
0.024323
0.010834
-0.011040
0.002247
0.033081
-0.030182
-0.006542
-0.028305
0.020187
-0.016907
0.021820
0.028870
-0.036011
0.022537
0.011948
-0.035400
-0.045227
-0.023422
0.027618
0.020432
-0.028748
0.017365
0.024048
-0.013374
-0.011002
0.023529
0.011177
-0.019180
0.009483
0.003738
0.007629
-0.013687
0.012581
0.011192
0.035187
-0.007332
0.021484
0.030762
0.001894
-0.012405
-0.025803
0.019714
0.002279
-0.023453
0.013573
-0.007065
-0.012451
-0.019974
-0.027512
0.019577
0.017059
-0.005287
-0.002634
-0.005795
0.028397
-0.031738
-0.006863
-0.003328
0.022552
0.017380
0.008446
0.008965
0.008514
-0.000515
0.004875
-0.030365
-0.026367
-0.024155
-0.011353
-0.009209
-0.021759
0.011002
0.026917
0.018692
-0.006439
0.013969
0.001028
0.001788
-0.008713
0.025223
-0.006756
0.002110
-0.013313
-0.013222
-0.011238
0.033112
-0.002262
-0.005524
0.036774
-0.014252
-0.024597
0.025864
-0.032654
0.029800
-0.022446
0.024033
0.003788
-0.008110
-0.002047
0.024765
0.033997
0.017929
-0.025208
-0.020599
-0.004520
-0.033264
-0.026749
-0.017151
-0.007557
-0.023926
-0.016861
-0.011200
-0.022064
0.033234
0.007042
0.018219
-0.013802
0.013252
0.027298
0.035461
0.012329
0.029205
0.029831
0.007072
-0.018692
0.006016
-0.031464
-0.016174
-0.015442
0.000034
0.008362
0.024963
0.038025
0.021835
-0.028885
-0.020920
-0.017136
0.017670
0.007538
0.005081
0.032196
0.001753
0.005219
-0.021530
-0.021454
0.022781
0.018753
-0.011398
0.036377
0.001980
0.030762
-0.007427
-0.016129
-0.018173
-0.027283
0.015358
0.018311
-0.018539
0.008949
-0.007191
0.019135
-0.013191
0.021942
0.021835
-0.015930
0.036133
-0.019775
0.025101
-0.000952
0.010811
-0.017960
-0.011948
-0.005730
0.021286
0.004436
0.042023
0.009415
0.008125
0.046753
-0.053680
0.013939
0.017334
0.035706
-0.047424
-0.043945
-0.069580
0.039185
0.044434
0.058502
0.011192
0.009720
-0.047211
-0.014389
-0.025269
0.010361
-0.010529
0.017471
-0.015495
-0.013458
0.049683
0.021057
0.028793
0.020798
-0.008934
0.014862
-0.040192
-0.006874
0.014259
0.014473
-0.043854
-0.004959
0.039490
-0.035706
-0.010147
0.006882
0.038757
0.010208
0.020111
0.036438
-0.002377
-0.007500
-0.012413
0.054138
0.046021
-0.011169
-0.021622
0.037170
0.008141
0.020798
-0.045685
-0.019302
0.039764
-0.026062
0.048553
0.001204
-0.020065
0.035706
-0.027100
0.000813
0.038055
0.030426
0.024460
-0.061646
-0.050385
-0.023972
0.014160
-0.008186
-0.008453
-0.006702
0.040955
0.031738
-0.004925
0.011597
0.045166
0.028732
-0.036896
0.013206
-0.000689
-0.000937
0.019958
-0.023987
0.031036
0.023544
-0.001859
-0.007652
0.004276
-0.014320
0.021194
-0.035278
0.057678
0.017136
-0.050079
-0.001579
-0.012383
0.042633
0.000958
-0.016113
-0.022522
-0.053375
-0.018784
0.043488
-0.025406
0.006466
0.014969
0.015320
-0.029022
0.015961
0.032501
-0.026611
0.034149
0.015701
-0.027283
0.012283
-0.007820
0.019287
-0.000960
-0.000120
-0.000317
-0.042267
-0.003122
0.015488
-0.017609
0.012527
0.011116
-0.015175
0.018600
0.017319
0.027084
-0.004658
-0.039948
-0.000139
0.022415
-0.043335
0.010406
0.021561
-0.024826
-0.015244
0.023773
-0.029083
0.031586
0.039368
-0.042419
-0.020569
0.027328
0.035950
-0.019333
0.024216
0.011612
-0.047607
-0.009087
-0.010849
-0.018539
-0.008636
0.003294
0.013634
0.027817
-0.011375
0.023819
0.030396
0.011688
0.028503
-0.037231
0.015472
-0.016541
-0.006996
-0.002844
-0.019638
-0.011391
-0.001195
-0.013054
0.051422
0.007442
0.007610
-0.032349
-0.038208
0.014496
0.006355
-0.007538
0.001014
-0.011131
0.046112
0.021622
-0.014900
0.021561
0.021408
0.014763
0.025269
0.058533
0.020630
-0.014214
0.011978
-0.027740
0.028717
0.028366
-0.032440
0.012840
0.007420
0.001196
0.007607
0.001244
-0.045898
0.013901
0.018555
0.012680
-0.018463
-0.017242
0.005566
0.004498
0.000778
-0.001254
-0.044617
0.042328
0.003796
-0.018280
-0.047211
0.014252
0.020996
0.025360
0.001554
-0.021133
0.011192
0.019516
0.034546
-0.028473
-0.026566
0.007236
0.016953
0.037262
0.005096
-0.045258
0.015625
-0.017212
0.020615
0.005215
-0.052490
0.026581
0.013321
-0.017517
0.001232
0.037079
-0.046478
0.013718
-0.010468
0.036438
0.007111
0.014351
-0.042358
-0.013321
-0.034454
0.021240
-0.024277
-0.020599
0.019867
-0.037231
0.001686
-0.005474
0.003134
-0.003532
-0.000937
-0.010200
-0.035126
0.037262
0.014702
-0.035065
0.013908
0.011719
-0.004078
0.032135
-0.014740
-0.011391
0.029373
0.026077
-0.003775
0.021072
0.037720
0.018173
0.003174
0.021194
-0.022430
0.032257
0.005836
0.019714
0.000175
-0.011185
-0.005932
0.027496
0.018250
-0.012444
0.056610
0.002731
-0.003532
0.016266
-0.027908
-0.009270
-0.037628
0.035461
-0.037567
-0.024353
0.040863
0.005859
0.011726
0.011925
0.003281
0.029388
-0.008255
0.038147
0.018402
-0.018707
0.005688
0.022690
-0.034790
0.008095
0.019165
-0.034882
-0.058716
0.021591
-0.000169
-0.031860
-0.036285
-0.041992
0.025040
0.028061
-0.019882
-0.022522
-0.061554
0.051544
0.014069
-0.024811
-0.001997
0.007256
0.003139
-0.009247
-0.011284
-0.043732
0.027298
0.000600
0.005875
-0.010719
0.019318
-0.010590
0.002007
0.043182
0.011162
0.011581
0.015205
-0.032227
0.039001
-0.004627
-0.028229
0.021149
-0.013306
-0.012337
-0.002651
0.027802
0.005413
0.009964
-0.029236
0.026138
-0.033813
-0.035126
-0.007858
-0.009750
0.002232
0.036407
0.008530
-0.008110
0.028610
0.016708
0.006393
-0.011253
0.004467
0.032532
0.017197
-0.030273
-0.020706
0.005596
0.038788
0.015671
-0.022995
-0.011848
-0.016251
-0.000242
-0.030762
-0.043427
0.009987
0.024261
0.036499
-0.052032
-0.001902
-0.003820
0.018082
0.016159
0.012093
0.017685
0.039368
-0.009026
0.021469
-0.017838
0.030640
0.004227
-0.001752
-0.014015
-0.017700
-0.002890
0.044861
0.034882
-0.020737
0.005642
0.023331
0.021454
0.009140
0.004971
0.023788
-0.011787
0.046570
0.028152
0.020142
0.038666
0.003111
-0.026489
-0.005692
-0.008675
0.039520
0.021515
0.030518
0.031830
-0.005768
0.028885
-0.005569
0.004379
0.042023
0.001386
-0.016647
-0.003645
-0.004829
-0.014442
0.012360
0.033386
0.001407
0.029877
-0.001525
-0.001326
-0.008026
0.023010
0.036896
0.022369
-0.003649
-0.010498
-0.023544
-0.004765
-0.011543
-0.004242
0.037231
0.014626
-0.026489
-0.029602
0.000654
-0.013977
0.002113
-0.018295
-0.032196
0.038818
-0.024750
0.041138
-0.034424
0.031677
0.040619
-0.009453
0.011879
0.011681
0.028214
-0.019211
-0.006008
0.014000
-0.005409
-0.007153
0.009476
0.015869
0.016815
0.004429
0.016266
0.034607
-0.025864
0.021652
0.014198
-0.001269
0.016785
0.009956
-0.024658
0.024506
-0.011246
-0.020340
0.022263
-0.013481
-0.026337
-0.017471
-0.014641
0.012596
-0.029922
0.002409
0.032959
-0.032196
0.015945
-0.014877
0.002356
0.027878
-0.018295
0.000912
-0.036011
0.019485
0.008476
-0.013901
0.022705
-0.031189
-0.019241
0.020493
0.013329
-0.018463
-0.032501
-0.017853
-0.013062
-0.021774
-0.030014
-0.030563
0.022858
-0.018967
-0.020615
-0.016998
-0.019287
-0.017410
-0.024567
0.020676
-0.025757
-0.028793
0.020554
0.002516
-0.005653
0.018463
0.029694
-0.014420
-0.025696
0.008698
-0.021729
-0.023163
0.001044
0.000943
0.005005
0.007629
0.029449
0.015640
0.038116
-0.011543
0.011986
-0.023788
0.014977
0.020676
0.001428
-0.013573
0.027161
0.001490
0.007343
0.000088
-0.015343
-0.006416
0.024033
-0.000478
-0.038727
-0.003159
-0.013931
-0.028214
0.024658
-0.020142
0.006500
0.002399
-0.020248
0.011620
0.005077
0.011421
0.033997
-0.006218
0.013802
-0.017685
0.017670
-0.015320
0.004581
0.012482
-0.005051
-0.039948
-0.040955
0.022263
-0.014229
-0.014229
0.009094
-0.001627
-0.016190
-0.006630
-0.011223
-0.031281
0.008377
0.037933
-0.032593
-0.042358
-0.033447
0.016266
-0.014572
0.003523
0.010704
0.020309
-0.025681
-0.006481
-0.026657
-0.044006
-0.002483
0.015007
0.010109
-0.024078
-0.032928
-0.038666
0.018768
-0.038483
0.019287
0.023300
-0.001792
0.022095
0.016052
0.013168
-0.008118
0.007328
0.073181
0.027802
0.039581
0.017609
0.037109
-0.002062
0.029312
-0.001944
0.016907
0.041779
0.000837
0.010605
0.003531
-0.011993
-0.037170
0.033630
0.039886
0.014519
0.021790
0.031860
-0.007828
0.009872
-0.018082
0.012131
-0.005680
0.048340
-0.001942
-0.047577
-0.047119
0.041412
-0.004383
-0.003298
0.045807
-0.016190
-0.003603
-0.007851
-0.001228
-0.052490
-0.025421
-0.028015
0.036713
-0.013481
0.008873
0.009872
-0.041992
0.004631
-0.009018
0.006660
-0.000840
0.002710
0.015190
-0.021713
0.035004
0.019791
-0.004387
-0.025024
-0.015991
0.051971
-0.001034
-0.032562
0.040955
-0.076843
0.018677
0.002798
-0.023056
0.012253
0.012566
0.054260
0.002478
-0.030991
-0.033600
-0.053680
-0.038818
0.044708
0.001374
-0.038177
0.036591
-0.020248
0.054321
0.047821
-0.032043
-0.026443
0.037323
-0.022079
-0.016953
-0.022141
0.040619
-0.011398
-0.023727
-0.021118
-0.002424
-0.000423
0.018539
0.012611
0.026611
-0.005512
-0.043152
-0.033813
-0.011658
0.030365
0.004623
-0.011650
0.017960
0.041626
0.049591
-0.001234
-0.016434
0.012970
0.024948
-0.015640
0.056274
-0.027145
-0.005260
0.038605
-0.034851
-0.019257
0.033691
0.035278
0.021500
-0.039673
0.027252
0.016159
-0.021286
-0.026031
0.023117
0.025116
0.004475
-0.003914
-0.015808
-0.031860
0.015640
-0.021103
0.013634
0.027649
-0.012772
0.029938
-0.023880
0.017059
-0.007259
0.004108
0.010063
0.028244
0.021133
-0.048126
-0.046082
0.014816
0.017731
0.020737
0.023438
-0.004005
-0.024048
0.018402
0.019653
-0.019730
0.018219
-0.014656
-0.035400
0.000952
-0.012932
-0.018280
-0.023529
-0.011055
0.009033
0.032593
0.004848
0.019226
0.005348
0.015396
-0.000659
-0.044067
0.038422
0.028595
-0.000661
0.003756
-0.028351
0.017334
0.005165
-0.013451
-0.006882
-0.028015
0.013809
0.031799
0.043243
-0.005730
-0.008018
-0.028793
-0.019730
-0.001792
0.033112
-0.016190
-0.018295
0.039032
-0.034119
0.025696
-0.028259
-0.010284
-0.014473
-0.036774
-0.009773
-0.021454
0.005909
0.043060
-0.020096
-0.010017
0.023682
0.036377
0.032562
0.024811
-0.000467
0.044739
0.002058
-0.007591
0.037445
0.005051
0.008522
-0.035187
0.003956
-0.009575
-0.026215
-0.012642
-0.045898
0.023041
-0.035400
0.013863
-0.040619
-0.023422
-0.035461
-0.011269
-0.007957
0.035065
-0.018936
-0.024155
0.021591
0.013527
-0.019211
0.021149
-0.026947
-0.001828
-0.002125
-0.044281
0.041077
-0.035400
-0.026428
-0.026764
0.010628
0.001308
0.026718
-0.033722
-0.048065
0.032745
0.008812
-0.019333
0.012535
-0.034973
0.035034
-0.029510
0.023712
0.019547
-0.018219
-0.053192
-0.042908
0.013489
-0.016846
0.011528
0.025848
-0.015259
0.009262
-0.001608
-0.014091
-0.000334
0.024185
0.016190
-0.024673
-0.009689
0.033020
0.011032
-0.027863
0.012482
-0.018082
-0.009018
0.045227
-0.008102
0.010612
0.039062
0.010223
0.019669
0.027008
0.028305
-0.031342
-0.024994
0.012611
0.024323
-0.028290
-0.010803
-0.037842
0.007809
-0.025009
-0.033325
0.017334
-0.023270
-0.031311
-0.029160
0.038391
-0.023712
0.021835
0.014992
-0.031250
-0.028931
-0.023804
-0.000957
0.042908
0.018890
0.024460
-0.034668
-0.022446
0.016556
0.015701
0.008636
0.028290
-0.023285
0.021530
0.035248
0.011589
-0.014183
-0.005524
0.017609
-0.003141
0.040985
0.038055
0.013466
-0.037598
-0.004124
0.032715
0.021103
0.024124
-0.014336
-0.026306
-0.008209
-0.030090
0.004856
-0.022430
-0.012726
0.058533
0.017807
-0.015335
-0.032623
0.022339
-0.025894
0.002342
0.005264
0.005238
-0.015182
0.035339
0.020386
-0.010933
0.036163
0.004574
-0.010483
-0.015617
0.021835
0.033234
0.004673
-0.000608
-0.014328
-0.000089
0.028473
-0.017883
-0.013313
0.039612
-0.015007
0.010948
0.003851
0.019989
0.020157
0.016006
0.006226
-0.017853
0.027115
0.005287
0.032196
0.036438
-0.017731
0.016876
-0.005871
0.017975
0.023514
0.022903
0.008751
-0.003422
0.024353
0.046204
-0.020767
0.010948
0.007919
-0.010109
0.034149
0.034119
0.041504
-0.001740
-0.010513
-0.020828
-0.029266
0.006577
-0.025238
-0.006157
-0.023254
0.010048
-0.032013
0.005306
-0.007809
0.024841
0.001370
0.027161
-0.037598
0.010681
0.036285
0.040833
-0.010086
0.008293
-0.007858
0.005821
-0.000413
0.002005
0.027985
0.037506
0.011269
0.017166
0.040710
0.008423
0.027512
-0.016052
-0.001254
-0.034851
0.015228
0.001383
-0.024872
0.041107
-0.024796
0.025879
0.040558
0.006748
-0.030151
0.046570
0.015381
0.015915
0.006042
-0.007866
0.039246
-0.018585
-0.007309
-0.007439
-0.010918
0.042511
-0.001122
-0.011307
-0.038727
0.027603
-0.020111
0.018356
-0.040741
0.008972
0.011780
0.012383
0.007122
-0.018906
0.000037
0.027588
-0.043427
0.034058
0.028519
0.028580
-0.004124
0.032135
0.037750
0.033112
0.043945
-0.017578
-0.031113
0.000128
-0.041443
-0.002224
0.018524
0.047363
0.007912
0.019745
-0.031555
-0.023575
0.016968
-0.011490
-0.025742
-0.008514
0.025467
-0.011009
-0.004421
0.011024
-0.005760
0.036591
0.017853
-0.028290
0.042786
0.034180
-0.019943
-0.010315
0.005684
0.021545
0.011406
-0.000701
0.000918
-0.038757
0.024429
0.030060
0.026627
-0.033875
-0.027939
0.011147
-0.012344
0.030258
0.030655
0.014656
-0.000765
0.003311
-0.039734
0.026459
-0.002602
0.026917
0.006794
0.014030
-0.024734
0.015518
-0.014236
-0.024628
-0.028412
0.032440
0.032166
0.023315
0.022751
-0.041138
-0.028564
0.008759
0.043304
0.037354
-0.006168
-0.000126
0.002884
-0.013489
0.033875
-0.052399
-0.020462
0.000859
0.033325
0.009468
-0.005619
0.015205
0.008171
-0.032074
0.010231
0.002758
-0.009842
-0.001512
0.009567
-0.038757
-0.022461
-0.016144
0.012733
-0.044342
-0.029053
0.006958
-0.003727
0.019745
-0.007748
0.000441
0.008369
0.022003
0.031708
-0.014412
0.026855
0.036652
0.026108
0.003525
-0.007626
-0.012314
-0.019333
0.035828
0.031982
0.018387
0.008400
0.025940
0.030304
0.006409
0.023285
-0.000591
-0.023315
0.035583
0.036377
-0.034637
-0.001175
-0.030258
0.017731
-0.008629
-0.028198
0.005413
-0.034393
0.001884
0.038879
-0.006653
-0.042694
-0.010468
0.021912
-0.005325
0.009117
-0.045013
0.012215
0.018250
-0.031921
0.018219
-0.006176
-0.033997
0.024551
-0.028366
-0.031052
-0.036255
0.021133
-0.016510
0.009117
-0.021973
-0.027924
0.018341
-0.022095
0.005318
0.012329
0.020462
0.043610
-0.043091
0.001697
0.031036
0.012238
-0.012527
-0.021652
0.012123
0.000422
-0.030472
-0.012764
0.028580
-0.004677
-0.007427
0.014771
0.001422
-0.020264
0.022079
-0.013138
0.003317
0.019333
0.034454
-0.011978
0.002069
0.016205
0.025177
-0.034241
0.023544
0.016876
-0.019897
-0.022308
0.035248
-0.013496
0.009315
-0.001560
0.037140
-0.002546
0.039703
-0.002340
-0.005135
0.021622
-0.001260
0.012093
0.008133
-0.028015
0.003273
-0.017227
-0.007809
-0.003157
0.031799
0.008606
0.023224
0.041260
0.015190
0.041595
0.015182
0.020996
0.027634
-0.034149
0.030884
0.003754
0.024414
-0.015594
-0.021973
-0.030853
0.002089
-0.028915
0.006927
-0.003901
0.001807
0.029434
0.023788
0.017929
0.031586
-0.027939
0.008217
-0.031372
0.010178
-0.012711
0.016190
0.001040
0.008636
-0.024094
0.046204
0.025574
0.002378
0.032928
0.026184
0.008568
0.001803
-0.005714
0.004036
-0.015472
0.045410
-0.017487
0.023102
-0.038239
0.025497
-0.032562
-0.010536
-0.004242
-0.015068
-0.009911
0.008018
-0.025742
0.002964
0.033173
-0.033630
0.016907
-0.029831
-0.002079
-0.034393
-0.027832
0.000747
0.015411
0.007565
0.002924
0.034332
-0.015190
0.029266
0.019562
0.014725
-0.016968
-0.004898
-0.018845
-0.007591
0.025009
0.013519
-0.033966
0.008766
0.028534
0.014359
0.017197
-0.016281
0.007462
0.000328
0.031769
0.018539
0.021133
0.000911
0.026764
0.037079
-0.033569
-0.028030
-0.008202
0.010162
0.018326
-0.026947
0.015541
0.016937
0.016205
0.035736
0.019196
-0.028946
0.001037
0.036407
-0.003271
-0.028564
-0.031372
0.010666
0.011757
-0.015388
-0.023972
-0.019455
-0.009109
-0.007595
0.018127
-0.016144
-0.031250
0.007294
0.024536
0.026978
-0.009544
-0.009300
0.031799
-0.000288
0.028885
-0.003910
-0.035370
0.032837
0.036530
-0.028687
0.037415
-0.015427
0.005207
-0.002087
-0.023590
0.011589
0.018372
0.004478
-0.013016
0.034241
-0.000348
0.030640
0.014816
0.015068
-0.030396
0.025497
0.024338
0.019028
-0.024673
-0.004482
0.016525
-0.024155
0.007721
0.015068
0.030319
-0.027435
0.015991
0.024796
-0.024612
0.006107
0.025909
0.014084
0.003607
0.003653
-0.011574
-0.015900
0.007843
0.027954
-0.009819
0.021133
0.009361
-0.007370
-0.026306
-0.000793
-0.025116
0.030777
-0.029343
-0.031311
0.008484
0.038666
0.011223
-0.010857
0.026672
0.018555
-0.019852
0.006565
0.020401
-0.019287
-0.036041
-0.019638
-0.015129
-0.014618
0.005890
-0.021744
0.028519
0.022278
-0.018433
-0.028214
0.034454
0.005672
-0.000940
0.001732
0.029419
-0.018188
-0.031250
0.005390
0.043427
-0.017548
0.000553
0.027725
-0.013474
0.024139
-0.023758
0.039215
0.027603
-0.003368
0.017807
-0.030853
0.019165
0.032196
0.004570
0.033783
0.012367
-0.019547
-0.020996
0.028976
0.004211
0.007530
-0.020966
0.014412
-0.015503
0.034698
0.027618
0.030167
-0.023239
0.039795
-0.026688
-0.037903
0.003937
-0.016220
0.019531
-0.000626
-0.018280
0.011879
-0.029953
-0.024918
0.002666
-0.028976
0.012428
0.003666
0.026993
-0.021652
-0.017853
0.002953
-0.022873
0.001427
0.021393
-0.007027
0.006866
-0.017776
0.003626
0.016708
-0.028458
-0.000600
-0.032104
0.015236
0.030853
-0.011925
-0.000539
-0.035156
0.025726
0.037170
0.018265
0.031052
-0.018585
-0.008347
-0.015854
-0.015465
-0.011848
-0.007046
0.022827
-0.015869
-0.000306
-0.007191
-0.030975
0.022400
-0.029160
0.009056
-0.023010
0.020752
0.020935
-0.017700
0.015587
0.007305
-0.039276
-0.030304
-0.013733
0.017258
-0.028046
-0.019455
-0.010780
0.031281
-0.021774
-0.032806
-0.008347
-0.021805
-0.018417
-0.025452
-0.018738
0.005260
0.014313
-0.016357
0.014656
-0.036652
0.014877
-0.002966
0.033417
0.044495
0.026947
0.003237
-0.008018
0.002537
0.032806
0.028076
0.021255
0.005280
0.024094
0.006657
0.009239
-0.028900
0.011047
-0.019623
0.001721
-0.031586
0.005138
0.033783
0.000688
0.001467
0.027054
0.024994
-0.006195
-0.021881
-0.035858
-0.028427
-0.037109
0.007347
0.027252
0.020447
0.033752
0.018356
-0.013268
0.030640
-0.016632
-0.007988
-0.006943
-0.000944
0.035095
0.005119
-0.018936
0.007133
-0.014923
0.008362
0.026993
0.015450
0.028488
0.042175
-0.017685
0.022797
-0.026367
0.023819
-0.010475
-0.007927
0.001396
0.020370
-0.034210
-0.006367
-0.030212
-0.006207
0.013756
0.028107
0.036438
-0.008171
0.032776
0.001663
0.022705
0.016022
0.015236
0.000288
0.007126
-0.018829
-0.001112
-0.006676
-0.019470
-0.016891
-0.005737
-0.020584
-0.023087
-0.007221
-0.032043
-0.030746
0.025772
-0.026505
-0.000054
0.037323
0.023376
-0.001155
0.010063
-0.006035
-0.025711
-0.012062
-0.002207
0.000831
0.035522
0.017578
0.005508
0.013313
0.001392
0.010193
-0.012001
-0.029663
0.021317
0.041260
-0.019104
-0.026321
0.028412
-0.014549
0.008049
-0.023163
-0.000168
0.003017
0.016052
-0.003929
0.001251
0.033661
0.039185
-0.022858
0.001156
-0.013786
-0.018753
0.013809
0.009254
0.027023
0.042603
0.015991
-0.006611
0.006485
0.020645
-0.001841
0.015259
0.012054
0.003487
0.017441
0.031281
0.021805
-0.005554
0.015007
-0.010902
-0.001073
-0.010078
-0.014397
0.027603
-0.015160
0.002691
-0.013100
0.022354
-0.021210
-0.009819
-0.000079
0.011238
-0.038788
0.006809
0.016708
-0.001932
-0.029617
0.013664
-0.029480
0.020905
0.038361
-0.009354
0.005642
-0.033295
-0.011322
-0.005848
-0.022827
-0.026230
0.023392
-0.035095
0.025940
0.021332
0.023163
-0.012947
0.008301
0.017273
-0.011940
0.008148
0.033783
0.024002
-0.013855
-0.006649
0.022385
-0.020477
-0.022705
0.005844
0.010559
0.004322
-0.008026
-0.028946
0.013313
0.023804
-0.029510
-0.027267
-0.014900
0.019653
0.014008
-0.014992
0.011292
-0.007637
0.028168
0.017242
-0.016998
0.007843
0.000618
-0.007309
0.020294
0.003347
0.015701
-0.029129
-0.009209
-0.013252
0.030807
0.013161
-0.030716
0.014359
-0.009857
-0.003370
0.014442
-0.009895
0.007771
0.028748
-0.010963
-0.014076
0.035339
-0.009079
0.007133
0.021713
0.010162
-0.010544
-0.012070
-0.003593
0.010590
-0.027893
0.001354
-0.023102
0.035217
0.025284
0.019318
-0.019470
0.015106
-0.029419
-0.016479
-0.000085
-0.031799
0.030182
-0.018402
0.021347
-0.005989
0.029800
0.029144
0.023087
-0.033539
-0.023804
-0.009224
-0.026398
-0.034637
0.024139
-0.018265
0.038025
0.013466
-0.018372
0.010475
-0.034088
-0.021378
-0.004868
-0.013611
0.014931
-0.000459
0.038239
-0.020523
0.002789
0.008194
0.009460
0.001772
0.025360
0.019989
-0.010712
0.034637
-0.003536
-0.008400
-0.010239
-0.017670
-0.032318
-0.048706
0.027130
0.006470
-0.005489
-0.009193
-0.021164
0.013107
0.021622
0.022690
-0.019913
0.015190
0.034698
-0.032318
0.026566
0.039612
0.014748
-0.032471
-0.004230
-0.027878
-0.037964
-0.015244
-0.047455
-0.024750
0.021805
0.021317
-0.000153
0.014900
0.016556
-0.041260
0.012421
0.030869
0.006306
-0.014412
0.035492
-0.014946
0.034180
-0.039581
0.040283
-0.014725
-0.048401
-0.005829
-0.006222
-0.005787
-0.014084
0.020035
0.020676
-0.027496
-0.005066
-0.033508
-0.043671
0.025055
0.004612
0.013100
-0.016693
-0.040009
-0.014977
0.007404
0.026306
0.042816
0.025909
0.038940
-0.005466
-0.014992
0.004299
-0.031113
0.045441
0.034485
0.029510
-0.034454
0.010269
-0.028229
-0.002586
-0.025467
-0.007473
0.006634
-0.029587
0.002493
0.018250
-0.006191
0.046906
-0.000733
-0.014229
-0.018967
0.017990
0.027786
-0.023376
-0.014000
-0.009857
0.011795
0.004578
-0.002892
0.014336
0.007233
0.026718
0.023148
0.005436
0.046661
-0.030945
0.036530
0.004860
0.016556
0.044525
-0.033386
0.005756
-0.046906
0.022415
0.021912
0.002090
-0.039062
-0.061920
0.017578
-0.010773
-0.016983
-0.001815
-0.042114
-0.016830
0.032715
-0.003902
-0.032471
-0.021759
0.046082
-0.017776
-0.020493
-0.024460
-0.015961
-0.012131
-0.013092
-0.015030
0.028809
0.024521
-0.000379
0.018494
-0.031647
-0.035583
-0.004944
0.012543
0.019318
-0.018997
0.029114
-0.002575
-0.008354
0.001897
0.031189
-0.028320
0.033417
0.034088
0.022186
0.005810
0.008080
-0.011917
0.014404
-0.029221
-0.032532
-0.021286
0.000091
0.016815
-0.017883
-0.030716
0.025085
0.036133
-0.009850
0.009743
-0.023605
-0.002783
0.008293
-0.035400
-0.003597
-0.009705
-0.032166
-0.019760
0.006554
0.010155
0.029404
0.009415
-0.028397
-0.024902
0.003588
-0.019196
0.023697
-0.007481
0.028305
0.007729
-0.015930
-0.007214
-0.015701
-0.034637
0.019501
-0.011482
0.007336
0.019897
0.035400
0.039673
-0.026276
0.027023
0.011101
-0.009895
0.027740
0.001616
0.031097
-0.018234
0.008614
-0.008293
-0.011604
0.007225
0.022766
-0.027390
0.004768
0.000701
0.031738
0.024033
0.035858
0.009384
0.012596
0.033691
-0.039459
0.018845
-0.029556
0.008934
0.036163
0.033569
0.018707
-0.012550
-0.017929
0.018723
-0.002949
0.035858
0.019623
-0.019165
0.041809
0.003485
-0.016220
-0.017990
0.001621
-0.021484
0.031097
0.011757
-0.037262
-0.012817
0.027939
0.011246
0.007759
-0.012161
-0.005688
-0.023132
0.013283
-0.015656
0.031647
-0.008209
-0.035522
0.000723
0.046539
-0.034393
-0.020615
0.050781
-0.036774
-0.037811
-0.013802
-0.005039
-0.007107
0.010162
-0.018280
-0.027557
0.003057
0.027435
-0.023773
0.036163
-0.003883
-0.004463
-0.003185
0.009323
0.010353
-0.040558
-0.005829
0.030884
-0.034821
-0.000720
0.013016
0.000169
-0.019089
0.001230
0.033386
0.019424
-0.041046
-0.015137
-0.034607
-0.000373
0.003160
-0.024902
-0.014038
0.027130
0.011726
-0.047974
-0.004707
0.001726
-0.003279
-0.006939
0.033478
-0.005547
-0.012810
-0.045349
-0.012787
-0.012688
-0.002502
0.037018
-0.011024
0.025162
0.004131
-0.008003
-0.014046
0.004932
-0.019791
-0.000769
-0.057434
0.047607
0.027451
-0.003141
0.001718
-0.021606
0.013557
-0.010948
0.015625
0.037750
0.019714
0.004303
-0.037964
-0.016434
-0.000542
-0.026611
-0.037170
-0.004475
0.027115
0.013809
0.030731
-0.052124
-0.029099
0.025314
0.010788
0.011101
-0.013947
0.001275
0.012955
-0.020798
0.011581
-0.012596
-0.000704
-0.028625
-0.023926
-0.007423
0.021454
0.015823
-0.003075
-0.052582
-0.003986
-0.046570
-0.022095
-0.032013
0.015930
-0.034271
-0.017288
-0.053711
-0.030273
-0.036682
0.032471
0.008965
-0.002853
-0.018631
-0.005501
-0.001773
-0.011017
0.001246
-0.012123
-0.016479
-0.003885
0.032288
0.017410
0.007919
-0.023254
-0.003521
0.000721
-0.030777
0.007809
0.026138
0.003309
0.000601
-0.011139
0.021637
-0.031128
-0.000319
-0.024628
-0.017929
0.024139
-0.018494
0.002855
0.011848
-0.008118
-0.021851
-0.034210
-0.029327
-0.004128
-0.025620
0.005932
-0.030594
0.014267
-0.012207
-0.020386
0.033447
0.017471
-0.007858
-0.009331
0.028030
0.045929
0.014343
-0.000919
-0.013908
0.000661
-0.003372
-0.023819
-0.012489
-0.033081
-0.015564
-0.020309
-0.026901
-0.018906
-0.023697
-0.002632
-0.026947
0.005260
-0.032928
-0.005146
0.001047
-0.030380
-0.006996
0.024078
-0.025894
0.001844
-0.037476
-0.020447
-0.012260
-0.017212
-0.019577
-0.032379
-0.034485
0.018188
0.026535
0.014709
0.041809
-0.016312
-0.004028
0.001653
0.021637
-0.013931
-0.000015
-0.021454
-0.033081
-0.010323
0.022690
-0.017273
-0.015808
0.032715
0.045441
0.006989
0.006454
-0.008064
0.017456
-0.017410
0.012077
0.030746
-0.008766
-0.017410
0.028503
0.011932
-0.032959
0.007725
-0.033997
-0.000056
0.015450
0.013512
0.023529
-0.027908
-0.029755
0.037659
-0.003716
0.034149
0.023361
0.020279
-0.016556
-0.029037
-0.025497
-0.012840
-0.020981
0.001315
0.012360
-0.001331
0.031647
0.012856
0.033020
0.016937
0.029572
-0.028427
0.023163
0.019318
-0.031128
-0.002172
0.004841
-0.000980
0.010193
0.012756
-0.019104
0.030182
-0.032440
0.041473
0.022003
0.033142
-0.026688
0.013031
0.021484
-0.008324
0.031982
0.020111
0.003368
0.011238
-0.024612
-0.004951
-0.002350
0.006119
0.036743
0.031555
0.003067
-0.020340
-0.013306
-0.024719
-0.004627
0.014107
0.016464
-0.019196
-0.035614
-0.017776
0.024612
-0.006622
-0.010132
0.005943
0.019745
-0.032440
-0.008743
-0.024933
-0.016327
-0.003391
0.002777
-0.014259
-0.013420
-0.027237
-0.031342
-0.020660
0.015701
0.015732
-0.004684
0.010674
-0.002897
0.012177
0.016647
0.013275
-0.009491
0.039185
0.004025
-0.027283
0.032501
-0.031433
-0.028336
-0.014465
-0.002092
0.012154
0.032806
0.029343
-0.037689
0.013634
0.016876
-0.030106
0.009163
0.009369
-0.032654
0.004513
0.005905
-0.019745
-0.032135
-0.007534
0.015030
0.023468
-0.006924
0.005604
-0.031525
-0.028397
0.019943
0.033966
-0.035492
0.023743
-0.025314
-0.028900
0.022095
0.009781
0.026169
0.032318
-0.022369
0.011162
-0.026459
-0.023499
0.027756
0.004620
-0.000545
-0.005131
-0.016769
-0.029205
0.012932
0.002134
0.027679
-0.015213
-0.012276
0.006615
-0.025238
0.013741
0.012665
0.022278
-0.013885
-0.021301
0.025116
0.011078
-0.007511
-0.019699
0.026047
-0.038452
0.029724
0.017670
-0.017807
-0.007549
-0.001453
-0.015495
0.013550
0.008820
-0.020554
0.002613
-0.024567
-0.031616
-0.026047
-0.030502
0.017624
0.029572
0.017731
0.002222
-0.068665
0.042938
-0.038208
0.001035
0.006332
-0.039917
-0.030441
-0.017883
0.006058
0.000576
0.026093
0.003201
-0.015182
-0.009094
-0.007809
0.050812
-0.035095
-0.032501
-0.003799
-0.019516
-0.028061
-0.013786
0.024551
0.002504
0.032867
0.038269
0.007130
0.003754
0.049225
-0.016724
-0.018753
0.026123
0.001538
-0.015976
-0.024002
0.018188
-0.028931
-0.005688
0.003345
-0.007889
-0.002089
-0.000868
-0.020859
-0.008316
-0.016907
0.038452
0.034790
-0.005562
0.026245
0.020218
0.018265
0.039795
-0.001168
0.010796
0.016022
-0.044128
-0.020309
0.015869
-0.039825
0.027557
-0.033813
0.032013
0.042664
0.035522
0.008705
-0.040863
-0.004368
0.022461
0.025635
0.003668
0.012817
0.016052
-0.004402
0.025848
-0.021362
-0.011406
0.006672
-0.033966
0.013260
-0.018600
-0.029480
-0.029999
-0.006893
-0.007061
0.022186
0.002861
0.024719
-0.034851
-0.011375
-0.063538
-0.001333
-0.007587
-0.000006
0.026703
0.028198
0.001999
-0.037964
-0.017075
-0.020935
0.000835
-0.034424
0.008598
-0.028641
0.015717
-0.013443
-0.026047
0.017151
0.015869
0.021683
-0.034302
0.063293
0.007812
-0.037506
0.014809
0.008308
-0.020432
-0.027496
-0.013702
0.045868
-0.020584
-0.029770
-0.018341
-0.022873
-0.002457
-0.019089
0.020218
-0.021835
0.042694
-0.012802
0.020508
-0.013657
0.017197
0.007244
-0.014336
0.033630
-0.023621
-0.031235
-0.044556
0.002226
-0.033417
-0.001711
-0.012016
-0.002403
-0.022949
-0.022598
0.014709
-0.047150
-0.002617
0.009674
-0.004910
0.037140
-0.029724
0.022202
-0.024078
-0.008575
0.024155
0.004971
0.018677
0.006599
-0.035461
0.013458
0.024948
-0.033142
-0.012962
0.000773
-0.056305
0.002464
-0.009857
0.027420
-0.039673
-0.009018
-0.030350
0.023315
-0.003839
-0.033875
0.016449
0.020981
-0.018127
0.031616
-0.035736
-0.013535
0.007374
0.048096
-0.010620
0.002815
-0.024826
-0.009506
-0.001072
-0.001189
-0.021332
-0.039215
0.034149
-0.010101
-0.000990
-0.015778
0.000948
0.001676
-0.075012
-0.031311
-0.001440
-0.006668
-0.032562
0.008522
-0.001712
0.038147
0.008659
-0.014412
0.054291
-0.015190
-0.005253
-0.048492
-0.019196
-0.002577
0.008179
-0.040497
0.000761
-0.041840
0.004601
-0.004219
0.048553
-0.011192
-0.022186
-0.011238
-0.040741
-0.042694
0.019547
-0.039032
0.009789
0.001478
-0.013077
-0.015121
-0.003347
-0.005424
-0.012634
-0.010269
-0.025864
0.042755
0.014595
0.014427
0.007153
-0.009384
-0.031647
0.016876
-0.048859
0.008827
-0.071106
0.005093
-0.004753
-0.008163
0.000209
-0.021973
0.010117
0.009491
0.015976
0.016068
0.046051
-0.013062
0.034607
-0.038422
0.044678
-0.017334
-0.058014
-0.015335
-0.018356
-0.024551
0.012169
-0.015404
-0.029861
-0.039185
0.039581
-0.034424
0.022888
0.019257
0.011269
-0.010063
0.038513
0.040955
0.003746
0.004402
-0.020477
-0.011093
0.000691
0.023422
0.034546
0.008316
-0.037445
-0.013397
0.016647
0.008469
-0.025223
-0.017563
0.042267
0.006367
-0.039856
0.024765
0.023895
-0.020416
-0.019699
-0.021088
-0.001367
0.010574
-0.030670
-0.014374
0.011658
0.001965
0.059235
0.012474
0.033966
-0.015594
-0.011215
0.057037
-0.022171
-0.021454
0.026932
-0.030319
-0.034698
0.049225
0.018097
-0.002405
-0.072449
-0.014984
0.039642
0.039429
0.025543
0.013306
0.018188
0.058746
0.011765
0.026199
0.029022
0.005405
0.002552
-0.035645
0.008057
-0.024643
-0.018387
-0.008286
-0.019226
-0.004158
-0.032440
0.053314
0.033051
0.006279
0.003710
0.025604
0.003536
0.037201
-0.010452
-0.033051
-0.021454
-0.001187
0.019379
0.026230
-0.041382
-0.025696
-0.065369
-0.010086
-0.007458
-0.002769
-0.023193
0.015121
-0.018707
0.016205
-0.027237
-0.008904
-0.047638
0.016983
-0.000730
0.018524
-0.017303
-0.003101
0.014053
-0.030777
-0.003691
0.010574
0.017075
-0.002733
0.035767
0.019638
0.004780
-0.005787
-0.028137
0.023193
0.014107
-0.015869
-0.031113
-0.011139
-0.011032
0.035034
-0.007118
0.022415
0.008957
-0.035034
-0.034027
0.023071
-0.030670
-0.025955
0.013359
-0.023666
0.031219
-0.029434
0.004932
0.012184
0.023346
0.021072
-0.034760
0.013565
-0.022385
0.009209
0.013580
0.009857
-0.023010
0.034424
-0.040192
-0.012115
-0.022720
0.004185
0.018478
0.031677
0.005344
0.010193
-0.011848
-0.033875
-0.000935
-0.012321
-0.004139
0.013870
0.011292
-0.033783
-0.003754
-0.028442
-0.026184
0.015556
-0.026489
0.025696
0.005535
-0.004570
0.014473
0.003500
0.008667
0.017395
0.004112
-0.030457
0.004356
-0.016678
-0.033203
0.009598
-0.016098
-0.002277
0.002176
0.009216
0.003351
-0.013206
0.023636
0.023590
-0.017746
0.016022
-0.001678
0.031830
0.033752
0.000850
0.007736
0.033356
-0.027054
-0.035126
-0.006725
-0.002867
-0.032562
-0.005226
0.029999
0.005028
-0.011993
0.037689
-0.011543
0.000693
0.024185
0.030197
0.017670
-0.027191
0.025375
0.025055
0.005772
-0.024536
-0.024200
0.000918
0.026291
-0.031494
-0.024979
-0.032471
0.029846
0.011032
-0.007538
0.036621
0.009811
-0.000889
-0.002052
0.032166
-0.029861
0.006889
0.023193
-0.021378
-0.042816
0.005112
-0.024216
-0.028244
-0.025558
0.033691
-0.010468
-0.017075
0.015419
0.028595
0.035156
-0.002802
0.002417
0.014320
0.033875
0.006245
-0.015617
0.036072
0.022400
-0.031586
0.018494
-0.012619
-0.009407
-0.036743
-0.034698
-0.013130
0.023788
0.019836
0.029388
-0.032135
-0.044678
-0.004730
-0.020370
0.004520
0.017166
0.016006
-0.028275
0.032562
-0.028381
0.028198
-0.013168
0.012863
0.017960
-0.038727
-0.004845
0.004696
0.030380
0.016327
0.005772
0.012482
-0.023392
-0.000178
-0.031769
-0.008514
0.003174
-0.011917
0.019135
-0.006966
0.003645
0.036835
-0.029953
0.024063
-0.017227
0.032135
-0.020035
-0.032623
0.008026
-0.018585
0.003309
0.021606
0.035706
0.005352
0.024246
0.012375
-0.013092
-0.019699
0.015427
-0.023026
-0.015671
0.002764
-0.003576
-0.006279
-0.023163
-0.009811
-0.002501
0.026840
-0.018982
-0.027069
0.024689
-0.037506
-0.016403
0.006516
0.022430
0.023331
0.035797
-0.028915
-0.010315
0.023056
-0.003506
-0.025208
-0.018372
-0.009598
-0.002819
0.019730
-0.011734
0.006985
-0.018616
0.022629
-0.017685
0.007721
-0.034424
0.002779
-0.025787
-0.014114
-0.005035
-0.001014
-0.011147
0.003819
-0.040527
0.031021
0.030365
-0.018921
-0.000651
0.002449
-0.017685
-0.030060
0.004631
-0.020355
0.023193
-0.069946
0.028091
0.020248
0.037354
0.009491
-0.008736
-0.030304
-0.039154
-0.054504
-0.014381
0.027100
0.008148
-0.022995
-0.028732
0.011894
0.042084
0.042114
-0.042938
-0.031158
0.006905
-0.004288
-0.031372
0.022980
0.026306
0.011436
-0.018082
0.042328
0.021973
-0.035370
-0.007774
-0.055847
0.033203
-0.012131
-0.046082
0.022812
-0.014130
0.002161
-0.010689
-0.043610
-0.009354
0.056732
-0.005264
0.021973
0.005215
-0.000225
-0.000467
0.006466
0.029770
0.019623
-0.013046
-0.048218
-0.023911
-0.003679
-0.031738
-0.015808
0.011955
0.017410
-0.007389
-0.013794
0.021713
0.031494
0.000250
-0.013062
0.010330
-0.076538
0.025085
0.005211
-0.004383
0.012589
0.041504
0.000402
-0.026917
-0.031921
0.056061
0.064270
0.020889
-0.021530
0.016922
0.070190
0.042542
-0.014076
-0.028824
0.004375
0.045135
-0.012657
-0.006851
0.023727
-0.015396
0.020721
-0.043427
-0.019592
-0.013229
-0.042664
0.016815
0.043182
-0.003845
0.019333
-0.044342
-0.013969
-0.020325
-0.010132
-0.057526
0.017929
-0.001374
0.018433
-0.002777
-0.008743
-0.026566
0.002008
0.032623
-0.035950
-0.018234
0.042633
0.005573
0.038879
-0.001460
-0.043060
0.001623
0.037292
-0.004559
