0.015777588
0.037597656
-0.028564453
0.023834229
-0.005191803
-0.056915283
-0.058197021
-0.081237793
-0.060211182
-0.024780273
0.015853882
-0.078796387
-0.037841797
0.035400391
0.052154541
0.0049171448
0.079162598
-0.018554688
0.073669434
-0.055633545
0.021438599
0.028884888
0.022033691
-0.051971436
-0.0061721802
0.042114258
0.08404541
-0.014511108
0.04586792
-0.042816162
-0.042663574
0.078491211
0.0087585449
-0.0087966919
-0.0080947876
-0.080078125
0.033294678
0.090087891
0.017944336
-0.024795532
0.053161621
-0.077209473
0.020111084
-0.048797607
-0.066589355
0.021774292
-0.012680054
0.0859375
0.084838867
-0.018173218
-0.011619568
0.035766602
0.0016012192
0.024475098
0.017852783
-0.05456543
-0.034667969
0.091491699
0.013313293
0.029754639
0.0076675415
-0.028945923
0.033477783
-0.054992676
-0.017181396
-0.069152832
0.021392822
-0.021820068
0.027740479
0.032196045
-0.027557373
0.037414551
-0.017684937
-0.020767212
0.062988281
0.073547363
-0.046813965
-0.057495117
0.067993164
0.076721191
-0.033172607
-0.064575195
0.051269531
0.038024902
0.073486328
-0.073791504
-0.023223877
-0.038787842
0.0095062256
-0.031402588
0.09161377
0.0039329529
0.017349243
-0.023513794
-0.065979004
0.0013113022
0.033355713
-0.07220459
-0.0079956055
0.03086853
0.027832031
0.012382507
0.05770874
0.047607422
0.019668579
0.04510498
-0.03918457
0.016784668
-0.024291992
-0.027450562
0.064697266
0.082519531
-0.021209717
0.022964478
-0.067443848
0.091247559
-0.0027580261
0.030914307
0.075622559
0.0034160614
0.079650879
-0.073791504
0.010437012
-0.045196533
-0.0090484619
-0.027069092
-0.017944336
0.038696289
