-0.032318
0.015175
0.026077
-0.004433
-0.027161
0.001289
0.013962
-0.027634
-0.013237
-0.005440
-0.018799
0.015625
-0.001193
0.000695
0.027176
-0.011757
0.012032
-0.008858
-0.014229
-0.024292
-0.024872
-0.017517
-0.011169
0.022400
0.011246
-0.022415
-0.016083
0.000510
0.029221
-0.011398
0.037415
-0.002445
0.011108
-0.015076
0.017227
0.002428
-0.017822
-0.035797
0.011360
0.011345
0.013016
0.022263
-0.023254
-0.029526
0.037140
-0.003983
0.008850
0.017349
0.028244
0.031464
0.011169
0.001210
0.017868
-0.001543
-0.024994
-0.034943
-0.041870
0.008331
0.014503
-0.011436
-0.009262
-0.024094
0.019958
0.033325
0.029587
0.026413
0.020737
-0.005253
0.025085
0.003887
0.016113
-0.027115
0.009315
-0.020035
-0.024933
-0.008125
-0.027084
0.042999
-0.001011
-0.020981
0.030731
0.024017
-0.006775
-0.033875
0.013046
-0.003866
0.000552
-0.020813
0.020035
0.000297
0.003344
0.011871
0.014000
-0.032501
0.033539
0.036011
0.029099
-0.009361
0.008293
0.025940
0.015961
0.022125
-0.022095
-0.001832
0.025604
0.013130
0.021271
0.006271
0.036621
0.025604
-0.032776
-0.012955
-0.030167
-0.030472
-0.014793
-0.005417
-0.025803
0.018311
0.023544
-0.033386
0.002714
0.008316
0.004456
-0.009125
-0.031158
-0.010048
0.018677
-0.006672
-0.048645
-0.028320
-0.016510
0.000691
0.022263
0.021210
0.042847
-0.004337
-0.018005
0.006332
0.032043
0.000910
-0.005611
0.019226
-0.028564
0.009872
0.016312
0.027908
0.025177
-0.020554
0.000390
0.013000
-0.007469
-0.026428
0.016815
-0.007259
-0.019073
0.016754
-0.021835
0.033966
0.019226
0.041016
-0.022461
-0.027084
0.029373
0.015030
-0.029007
-0.002586
0.001099
0.003223
-0.027725
0.009186
0.037415
0.007835
-0.005077
-0.019638
-0.027817
-0.028046
-0.027969
0.025330
-0.032837
-0.027191
0.024353
-0.009575
-0.003780
-0.023773
0.008766
0.022308
0.014191
0.031097
-0.019043
-0.026489
-0.015610
0.008797
-0.034241
-0.009048
-0.024994
-0.035126
0.003122
0.021667
-0.027313
0.020889
0.003994
-0.029770
0.016815
0.021301
-0.010277
0.047546
0.014145
-0.010292
-0.025452
-0.024994
-0.010101
0.004288
-0.013786
-0.002436
-0.015083
0.050140
0.035706
0.019730
0.021881
-0.013397
0.032928
0.029129
-0.006027
0.032318
-0.009361
-0.026505
0.025146
0.000437
0.001341
-0.019897
-0.020248
-0.009140
-0.012878
-0.015305
0.037170
-0.032379
0.004116
0.015503
0.030685
-0.005959
0.019821
-0.013809
-0.006603
-0.020966
-0.022797
-0.027008
0.029694
-0.005177
-0.021332
-0.023895
0.027649
0.030960
0.011711
-0.026993
0.037964
0.033478
-0.047150
-0.024750
0.004311
-0.017075
-0.012192
0.002163
0.010124
-0.009331
-0.070435
-0.013878
-0.018402
0.020828
-0.018860
0.011284
-0.026352
-0.033325
-0.036804
-0.016846
0.022583
-0.006840
-0.030212
-0.029434
0.038727
0.003193
0.007248
-0.003176
-0.045502
0.040924
-0.034149
-0.022568
0.027817
0.002100
0.000708
-0.000366
0.021423
0.008644
-0.036713
0.017670
-0.037476
0.021118
-0.003246
-0.004166
0.032257
-0.024246
0.041870
0.005196
0.010361
-0.048523
0.011192
-0.020905
0.014153
-0.012634
0.009216
0.002308
0.027267
-0.018051
-0.009216
-0.014008
0.010429
0.034515
-0.000753
0.034119
0.001658
0.013855
-0.018311
-0.019989
-0.033081
0.012833
0.021851
0.021729
0.011978
0.033142
-0.072998
-0.015991
-0.017914
-0.026321
0.022217
0.054779
-0.023163
-0.001654
-0.028351
0.021759
-0.005554
-0.027893
-0.023636
-0.012405
0.037445
0.042542
0.021500
-0.037048
0.013664
-0.004410
-0.016068
-0.000123
-0.009430
-0.050690
-0.004406
-0.074524
0.000546
-0.027496
-0.033142
0.006031
0.033875
0.018082
-0.017639
0.002808
0.033661
0.016724
0.032928
-0.004261
0.039917
0.022583
-0.041504
-0.011169
0.009331
0.033844
-0.020584
-0.038452
0.027435
-0.015381
0.005657
-0.033020
0.029480
-0.026321
-0.029343
-0.017731
0.011810
0.022827
0.003664
-0.008774
0.013260
-0.017288
-0.033905
0.028748
-0.053497
0.008568
-0.018280
-0.049377
-0.017624
-0.045563
0.011391
0.004589
-0.001525
-0.015244
-0.022049
0.024078
0.032135
-0.056305
-0.016205
-0.031021
-0.022003
-0.015404
-0.015945
-0.063416
-0.002563
-0.038605
-0.008278
0.007568
0.005318
-0.007462
-0.000888
-0.003839
0.030991
0.038574
0.013374
-0.055939
-0.042206
-0.023315
-0.042145
-0.066040
-0.025009
-0.005230
-0.019745
-0.019272
-0.022034
0.004303
0.025742
-0.023544
-0.015213
-0.006813
-0.012520
-0.002838
-0.015991
-0.015915
0.018768
-0.014862
-0.017578
-0.043823
-0.008461
-0.057068
-0.003771
0.011078
-0.022842
-0.027863
-0.025192
0.002394
0.039215
-0.008591
-0.026779
0.038757
-0.053406
0.012161
0.027466
-0.051239
0.029221
0.035278
-0.016525
-0.010895
-0.030823
0.002495
-0.013069
0.005005
-0.015991
-0.052063
-0.030853
-0.045227
-0.034637
0.005066
-0.041718
-0.021423
0.004143
-0.019623
0.054352
0.047272
0.001217
0.021378
-0.016846
-0.009537
-0.059631
-0.031677
-0.025406
-0.010757
-0.011871
-0.026047
-0.029602
-0.002026
0.003540
-0.000741
0.013855
-0.003166
0.035492
-0.050110
-0.039368
-0.046234
-0.048981
0.018387
0.042511
-0.045227
0.005215
0.004765
0.000532
-0.031555
-0.004128
0.014229
-0.003628
-0.011940
-0.057922
0.029419
0.011871
-0.019989
-0.004768
0.014236
0.035095
0.013809
0.013695
-0.006924
-0.012093
0.018417
-0.018036
0.016052
0.011780
0.035461
0.020996
0.015121
0.041290
-0.014938
0.035461
-0.022797
0.016571
0.045868
0.002148
-0.029312
0.041443
0.029724
-0.019226
0.011711
-0.041962
-0.019226
0.008049
0.014389
-0.007362
-0.009827
-0.043671
-0.058350
0.007484
0.015320
-0.023407
0.023972
-0.031189
-0.023788
0.022263
0.004929
-0.022354
-0.001266
0.012924
-0.026855
0.002308
0.040527
0.027954
-0.018433
0.010818
-0.018250
-0.016205
-0.023560
0.020355
-0.001993
0.020096
0.026428
0.000895
-0.033142
-0.022797
0.007732
0.004959
-0.038452
0.060394
-0.001723
0.026276
-0.008568
-0.047180
0.021637
0.019989
0.034790
0.000197
0.018661
0.048279
-0.016785
-0.048035
-0.007328
0.024139
-0.011650
-0.016266
0.015915
-0.009262
-0.000107
0.003067
-0.002535
-0.054504
0.048187
0.038940
-0.014122
-0.004898
0.035553
0.013466
-0.008842
-0.006340
0.026871
-0.041412
0.010376
-0.002590
-0.025833
-0.020752
0.050385
-0.046173
-0.034271
0.020386
-0.007607
-0.050293
-0.015144
-0.034180
-0.008690
0.009323
0.015015
-0.024933
-0.006195
0.046692
0.013535
0.001659
0.028503
-0.040802
0.003361
0.004734
-0.024033
0.066040
0.033356
-0.008102
-0.038879
-0.029114
-0.023880
-0.020508
0.038605
0.018600
-0.025497
-0.003489
0.000672
-0.007492
0.008888
-0.009026
-0.040955
0.018158
0.007664
0.008316
0.019226
-0.011238
-0.018860
-0.053833
0.021790
0.025833
0.011147
-0.001890
0.009552
-0.042725
-0.012047
0.049469
-0.043518
-0.021072
0.009735
0.008438
-0.012199
0.044159
-0.007187
0.042328
-0.028610
-0.014122
-0.024582
-0.032990
-0.015671
0.006641
-0.005264
0.024704
-0.026611
-0.032410
0.009430
0.038605
0.033447
-0.013969
0.027695
0.002514
0.020401
-0.001035
0.021149
0.029160
-0.042877
0.004025
-0.010101
-0.023468
-0.009293
-0.042389
0.036285
-0.031738
-0.017731
-0.043854
-0.010399
-0.024246
0.021515
0.009354
0.035400
0.015869
-0.004620
0.018921
0.017624
0.005085
0.029602
-0.013832
-0.022598
0.019989
0.036285
-0.015289
-0.016266
0.027573
-0.015442
-0.042084
-0.037903
0.008408
-0.011505
0.046936
-0.048370
-0.011681
0.016800
-0.010178
-0.018921
-0.019485
-0.037781
-0.049072
0.041138
-0.018143
0.012215
0.046722
0.033295
0.013748
0.010521
0.013641
-0.027817
0.019623
-0.052216
0.022110
0.044891
0.035004
0.020432
-0.001286
0.011688
-0.021194
-0.021851
0.027710
-0.028564
0.013351
-0.005257
0.022797
0.000079
-0.054718
-0.029953
0.016998
-0.000420
0.008408
0.003832
-0.012321
0.044647
0.042267
0.003649
0.032623
0.032104
-0.018814
0.032806
-0.003855
0.025436
-0.008781
-0.027161
-0.020813
-0.036926
-0.015358
-0.036865
0.013496
-0.002605
0.028580
-0.020996
-0.024826
0.006256
-0.027496
0.050812
0.005184
0.011223
-0.001865
-0.021851
0.038330
0.023193
0.031464
-0.001970
-0.010712
0.011940
-0.008148
0.016663
-0.037964
0.041016
0.007858
-0.022583
0.033661
0.002132
0.029221
-0.024612
0.025909
-0.005230
0.017883
0.050171
0.018707
0.020416
0.011963
-0.008965
0.034729
0.020966
-0.047913
-0.000891
-0.020477
0.008888
0.015022
0.041077
0.025604
-0.017349
0.026871
-0.025131
0.033966
-0.016403
0.021332
0.008728
-0.025528
0.022797
-0.027390
0.046661
-0.011230
-0.033356
0.005840
0.020218
-0.003069
-0.032257
-0.012680
0.064087
0.021591
0.047974
-0.002529
-0.002159
0.026978
0.062073
-0.022171
0.000443
-0.017242
-0.028076
0.031647
0.020844
-0.029755
-0.034576
0.006912
-0.060486
0.017349
-0.039734
-0.015114
-0.014648
0.046936
-0.045044
-0.034149
0.014168
-0.018845
0.003363
0.022110
0.016815
0.038940
0.045288
0.004635
-0.004200
-0.009476
0.047791
0.005451
-0.005856
0.000962
0.012146
0.004154
0.009720
0.031281
-0.007011
-0.000187
0.013847
-0.026901
-0.047424
-0.024261
-0.006420
0.022568
0.017471
0.025711
-0.028671
-0.008499
0.024445
-0.021393
0.015434
0.041199
0.008438
0.001233
-0.020645
0.002293
0.010399
-0.012222
-0.004421
-0.054993
0.027603
0.016418
-0.006207
0.003635
-0.013634
0.028687
-0.006901
0.033356
0.015640
-0.035828
0.004997
0.016815
0.010979
0.024017
0.001855
-0.038177
-0.038635
0.006668
0.007488
0.033020
-0.005943
0.001271
-0.021698
-0.024185
0.007336
-0.030365
0.000883
0.037720
0.006477
-0.054779
0.007565
-0.024994
0.000334
-0.025131
-0.000914
0.013641
-0.023499
0.022964
0.000260
0.031342
-0.026718
-0.013878
-0.033508
-0.004471
-0.009430
0.002090
-0.020416
0.012337
-0.030533
-0.039673
-0.035828
-0.002237
-0.023041
0.025574
-0.043457
-0.028366
-0.003576
0.006077
-0.028503
0.015640
-0.010910
0.035736
-0.005169
-0.024933
0.022018
0.024048
-0.004009
-0.013367
-0.002129
0.009583
0.001723
0.038422
0.027908
0.012718
-0.033234
-0.024048
-0.020493
0.007313
0.020859
0.008629
0.005768
0.031982
-0.029327
-0.015686
0.015327
-0.022812
-0.004597
-0.012245
0.000763
0.028961
0.032013
-0.027222
0.005795
-0.003574
-0.022202
0.037964
-0.023712
-0.016968
0.015617
-0.014793
0.029007
-0.003750
-0.017044
-0.014748
-0.035431
0.005035
-0.012413
-0.034790
-0.021332
-0.030640
0.033691
-0.034790
0.004498
0.020981
0.017578
-0.011421
-0.007130
-0.008873
0.027267
-0.011246
0.032471
-0.026520
0.005772
0.002653
0.012505
0.021576
-0.033386
-0.000619
0.025269
-0.016922
-0.019943
-0.010681
-0.036011
-0.005836
-0.000986
-0.022232
-0.002655
-0.019943
0.027222
-0.018280
0.015266
0.027145
0.025833
0.021179
-0.025970
-0.015518
0.006470
0.030746
-0.026382
-0.001026
0.017761
-0.031769
-0.004978
-0.010139
-0.009712
-0.027954
0.030350
0.025238
-0.005657
0.003868
0.008141
-0.029877
0.017273
0.029114
-0.005051
-0.004902
-0.002531
0.002302
-0.012527
0.026428
-0.025711
-0.005215
0.011703
0.002028
0.021530
-0.027878
-0.026657
-0.015503
0.028824
-0.005508
-0.024078
-0.018906
0.000673
-0.021393
-0.027573
-0.019196
0.020645
-0.027527
-0.026657
-0.027481
0.024765
-0.006893
-0.030243
0.011940
-0.015190
-0.018494
-0.027802
-0.018539
0.032349
0.029724
-0.020599
0.007729
-0.010048
-0.009720
-0.031219
-0.027542
0.006779
-0.029724
0.008476
0.019394
-0.026642
0.027588
-0.029221
-0.028015
0.013985
0.009460
0.019424
0.017746
0.006889
0.036041
0.026627
-0.003897
0.036072
-0.033295
-0.017059
-0.007648
0.006966
-0.013474
-0.029465
0.029739
0.000116
0.019180
0.000691
-0.024017
-0.037109
-0.002485
-0.017899
0.010338
-0.006279
0.042542
-0.026764
-0.022202
-0.001461
0.007027
0.019226
-0.016708
-0.031250
0.020569
-0.000336
-0.026749
0.025604
-0.026016
-0.001727
-0.025787
0.016388
0.003937
-0.004528
-0.024063
-0.015671
-0.030045
-0.026810
0.016388
0.003574
0.015839
0.002190
0.028519
0.036621
0.018234
0.032349
-0.037720
0.028656
0.027847
-0.030273
0.000858
0.006805
0.002043
-0.017426
-0.002853
0.016525
-0.034943
0.020615
-0.024811
0.003479
-0.009842
-0.027313
-0.002752
-0.022705
0.010284
-0.027313
0.008568
0.012489
0.026810
-0.040649
0.003517
0.009689
0.015099
-0.018402
-0.016739
-0.009659
0.039398
-0.036896
-0.002848
-0.010979
-0.021439
0.032013
-0.005066
0.029114
0.016525
-0.019089
0.033966
0.030807
-0.001860
0.026230
0.015053
-0.037292
-0.016251
0.032532
0.012665
0.017136
0.022095
0.009102
-0.024979
-0.020142
-0.001012
-0.032684
-0.007881
0.017639
0.014694
0.001524
-0.006474
-0.004547
0.015022
-0.032043
-0.010239
0.010727
0.035858
-0.011101
0.036713
0.037476
0.030746
0.025925
0.026672
0.004253
0.032043
-0.025040
-0.033539
0.038605
-0.014046
0.025589
-0.006344
0.009117
0.005035
-0.019577
-0.023575
-0.027649
0.037109
0.013969
0.014793
0.012398
0.027191
-0.019241
-0.032318
-0.008583
-0.017197
0.035431
0.039429
0.026215
0.039764
-0.004025
-0.011169
-0.034607
-0.011314
-0.013275
-0.009575
0.049957
0.006577
-0.012604
-0.021332
-0.024033
0.029022
-0.013939
0.035309
-0.036774
-0.012764
-0.016068
0.008713
0.036713
-0.001433
0.031616
0.008392
0.032135
-0.007874
0.000779
0.015289
0.021149
0.010139
-0.006912
0.003269
-0.024155
-0.045135
-0.010818
-0.000128
0.030792
0.029602
0.007591
-0.001733
-0.001139
0.012535
0.011909
-0.018936
0.040405
-0.013451
0.015060
-0.022934
-0.006168
0.024841
-0.050140
0.026718
0.016418
0.032776
-0.013802
-0.032104
0.036041
-0.019043
-0.008629
0.014198
-0.014153
-0.019699
0.007401
0.034729
-0.012070
0.011299
0.002310
-0.009811
0.020645
0.023163
-0.002134
-0.005413
0.014496
-0.024841
0.013817
-0.038483
0.032288
0.005852
0.013824
-0.018066
-0.021805
0.012177
-0.004398
-0.015717
-0.009537
-0.002142
0.044708
0.030792
0.012268
-0.028137
0.025940
0.031281
0.005867
-0.041077
-0.031097
-0.023621
-0.005203
0.035309
0.009354
-0.008141
-0.004566
-0.025467
-0.021591
0.012062
0.030380
0.013496
-0.014679
0.055023
0.020432
-0.022873
0.016479
-0.034576
0.027191
0.005280
-0.004707
-0.013527
-0.005379
-0.000666
0.007332
0.023315
-0.027710
-0.001673
0.043365
-0.013069
0.042114
-0.012291
0.010307
-0.011620
-0.010780
0.011116
-0.014412
0.021332
-0.021591
0.030167
-0.014732
-0.028824
-0.017822
-0.019226
-0.023346
0.009544
0.017807
0.025742
0.038483
-0.010262
-0.022079
-0.028046
0.039917
-0.000063
-0.007195
0.006516
-0.003809
0.001256
0.012131
0.037354
-0.010597
-0.030334
0.038666
0.036163
-0.005135
-0.001100
-0.021301
0.012138
0.007671
0.001301
-0.029144
0.020203
0.010857
0.009727
-0.028793
0.028671
0.018509
0.030960
-0.014046
0.000843
0.005524
-0.018341
0.020233
0.048340
-0.036774
-0.026993
-0.008812
-0.019577
-0.010529
-0.008377
0.022568
-0.029785
-0.012665
0.002607
0.025391
0.017639
-0.035858
-0.019638
0.025070
-0.029388
-0.017426
-0.029083
-0.004738
0.016251
-0.001071
0.007626
-0.027924
0.026138
0.007133
0.010384
0.035492
0.005692
-0.021240
0.010979
-0.024704
0.014160
-0.012360
-0.014366
0.022232
0.015282
-0.028107
-0.008148
-0.012726
-0.028809
0.027420
0.002464
0.037201
0.021530
0.001521
0.000807
-0.022339
0.004337
0.018234
0.011627
-0.001269
-0.018951
-0.017090
-0.029739
-0.031982
-0.021011
-0.023285
-0.020020
-0.015869
-0.004623
-0.014038
-0.023163
0.033630
-0.021896
0.005604
0.031006
0.009964
-0.004498
0.019638
0.003345
0.017029
0.045044
0.034729
-0.035614
-0.021530
-0.005199
0.031921
0.021210
0.014832
-0.005245
-0.020721
-0.003450
0.001258
-0.035889
0.040955
-0.019318
0.013313
-0.029831
0.011055
0.012863
-0.009094
-0.043457
0.003126
-0.013733
-0.028427
0.028885
-0.004837
0.012398
-0.007965
0.034882
0.008064
0.017105
0.016479
-0.018585
-0.004898
0.016479
0.018082
-0.001600
-0.003578
0.005112
0.012100
0.013123
0.007633
0.026428
-0.027115
0.019592
0.017639
-0.029922
-0.044647
-0.003010
0.003956
-0.010223
0.007404
-0.030151
0.033722
0.007133
0.023819
-0.026382
0.000689
-0.008148
0.009727
-0.008728
-0.007820
0.019501
-0.031342
0.001161
-0.011833
0.047455
0.019791
-0.001444
0.039642
-0.002394
-0.018631
-0.015778
-0.044739
0.025742
-0.031082
-0.045471
0.030670
0.004665
-0.027512
0.017731
0.001725
0.037994
0.015747
-0.008621
-0.008591
-0.047821
0.026779
0.031921
-0.028687
-0.050842
-0.025192
0.005165
-0.013542
-0.048767
-0.051880
0.004509
0.016495
0.003380
-0.004322
0.011734
0.047638
0.008484
-0.000963
0.008789
-0.008842
-0.009323
-0.012024
0.033569
-0.014534
0.005207
0.003613
-0.027481
-0.003630
-0.043854
0.020447
-0.026764
0.023560
-0.028915
-0.030396
-0.044312
-0.015488
-0.010437
-0.017380
0.018188
-0.035431
-0.038666
0.039368
0.000844
0.015007
0.023361
0.016907
0.023407
0.009666
-0.020142
-0.000100
0.028030
0.036621
-0.019760
-0.028625
-0.023636
0.020645
0.030502
-0.010948
0.043671
-0.013840
0.020737
0.025497
-0.008247
0.029922
-0.008591
-0.024857
-0.016388
-0.026489
-0.019958
0.022537
0.005589
-0.016113
-0.036133
0.040466
-0.005264
0.019257
0.006977
0.039948
0.001508
-0.029587
0.027588
-0.031677
-0.040802
0.017426
0.032562
-0.031860
0.006496
-0.010666
-0.024323
0.024521
0.019897
0.023590
-0.016968
-0.014603
0.005535
0.022034
-0.027756
0.026291
-0.002151
0.025726
0.006367
0.016724
0.031860
0.020706
-0.016891
-0.012848
0.004219
0.000840
0.039276
-0.005230
0.017822
-0.019485
-0.013672
-0.003880
-0.008926
0.014160
-0.023788
-0.017639
-0.031525
0.005157
0.019623
-0.011337
0.023743
0.000638
-0.032715
0.021881
0.014664
-0.019363
0.001742
0.008888
0.028595
0.030594
0.003313
0.001070
-0.011940
0.007275
0.011253
-0.003294
-0.019333
0.021118
-0.028244
0.011093
-0.007351
0.014107
-0.003887
0.016617
0.004086
0.023346
-0.020279
-0.000440
-0.002754
-0.026352
0.000417
-0.025970
0.012138
0.015251
0.001941
0.032288
-0.036285
-0.024200
0.024384
-0.018173
0.038025
0.018341
-0.026917
-0.014084
-0.006592
-0.016830
-0.012375
-0.006321
-0.030899
0.025757
-0.027573
-0.020828
-0.030289
0.025620
0.021255
0.030457
0.009232
0.026794
0.024750
-0.021683
-0.023727
0.009193
-0.030060
-0.016876
-0.017639
-0.031769
0.002399
0.009399
-0.026886
-0.028137
0.016098
0.014816
-0.004673
-0.034943
0.004745
-0.019531
-0.007626
0.026825
0.010094
0.020874
0.019852
0.034943
-0.030823
0.005123
0.004704
0.014008
-0.010048
0.021378
-0.007511
-0.025375
-0.010750
0.027679
-0.008804
0.036072
0.005741
0.004532
-0.030838
-0.012222
0.008751
0.015900
-0.003016
0.031616
0.011322
-0.022552
-0.005661
-0.011086
-0.030945
-0.020752
0.007072
-0.022598
-0.012352
0.014458
-0.003757
0.003107
0.037170
0.031677
0.005795
-0.027222
0.027878
-0.005089
0.021469
-0.008766
0.008949
-0.002396
0.015640
0.022949
0.023682
0.028198
0.007076
-0.008476
-0.034058
0.033203
0.035217
-0.033966
-0.016617
0.006927
-0.016602
-0.031891
0.020996
0.023544
-0.019501
-0.025833
-0.016251
-0.024139
-0.004749
-0.033508
-0.002972
-0.029236
0.022415
0.016342
-0.033997
-0.017654
0.036987
0.015640
-0.015617
-0.012764
0.019348
-0.008842
0.003344
-0.022003
-0.009438
0.007156
-0.015541
0.028503
-0.012550
0.036804
0.004940
0.023361
0.020355
-0.034821
0.016953
0.002224
0.026611
-0.010941
-0.018753
-0.010384
0.033447
0.016190
-0.029083
0.027924
-0.025116
0.027176
0.006588
-0.006516
-0.019699
-0.007523
0.006310
0.000739
-0.033295
-0.002241
-0.020630
0.006493
-0.000794
0.013840
-0.021255
-0.003967
0.015167
0.046692
0.026749
-0.001745
-0.014801
-0.024231
0.010101
0.038971
-0.017960
-0.013634
-0.034363
0.013535
-0.008003
0.025574
-0.027969
0.005527
0.004215
0.022842
0.019638
0.002100
0.028595
0.005272
0.037842
-0.019119
0.028580
0.025314
0.001241
-0.011993
0.009293
-0.024765
0.035706
0.002647
0.011185
0.024445
-0.010139
-0.014961
-0.009697
0.006809
-0.015045
-0.021271
-0.001176
0.027435
-0.027817
-0.023956
-0.028656
-0.039154
-0.010200
-0.010551
0.000041
0.024261
-0.008713
0.000716
0.035278
-0.017868
-0.007561
-0.016174
0.002848
0.013184
0.021011
-0.037170
-0.009361
0.019226
0.022934
0.009079
0.040558
0.010658
0.012756
-0.003181
0.017380
0.021408
0.028412
0.000890
0.036041
-0.015945
-0.010719
-0.015213
-0.012703
0.035187
-0.005913
0.013428
0.033691
0.021286
-0.033051
0.034149
0.037598
0.034393
-0.033142
0.030792
-0.019287
0.009483
0.015762
0.029434
0.017471
0.007771
-0.003212
0.019196
0.010101
-0.010208
0.016022
0.033661
-0.010536
0.016663
0.019775
-0.008728
-0.021667
-0.030731
-0.011330
-0.005787
-0.026123
0.021942
-0.003635
0.003054
0.014229
0.027939
0.006542
-0.027115
0.016312
-0.016098
-0.008255
0.028717
0.025925
0.033417
-0.000339
-0.021561
0.018967
0.021210
-0.018677
0.027283
-0.011711
0.004559
0.031067
0.010582
-0.014915
-0.013710
0.024261
-0.035309
-0.033875
0.016190
-0.030609
-0.007523
0.014038
-0.004814
-0.008858
0.009178
0.030060
-0.038055
0.032135
-0.010002
0.032501
-0.019226
-0.013062
0.020813
0.020447
0.026199
0.023529
0.032837
-0.005886
-0.005749
0.028214
-0.032837
-0.029602
-0.021408
0.021103
0.035156
-0.020309
-0.019440
0.026794
0.022217
0.008179
0.018555
0.015884
-0.025452
-0.024231
-0.002462
0.013077
0.017075
-0.010345
-0.011635
-0.020004
0.002319
0.017227
0.032379
-0.017624
-0.031097
0.006798
-0.001885
0.001357
0.019287
-0.021484
-0.032867
-0.028915
0.005054
0.019852
0.004864
-0.037567
0.029373
-0.020767
-0.023468
-0.002031
-0.018158
0.018463
-0.002314
0.027786
0.001245
0.018631
-0.029297
-0.026062
-0.014145
0.015129
-0.008492
-0.004921
-0.007507
-0.020126
-0.009399
0.014221
0.017227
-0.012367
0.013184
-0.027740
-0.007664
0.001404
0.016479
-0.024155
-0.028793
0.030548
0.029358
0.018188
-0.010284
0.008896
0.001822
0.018936
-0.028641
0.027969
-0.012535
-0.010933
-0.010704
0.001121
0.034485
0.036835
0.036407
0.026672
-0.006901
-0.007599
-0.027344
-0.004070
-0.005138
0.020889
0.033295
0.040161
-0.023788
0.036499
0.027283
-0.010696
0.016983
0.013252
-0.026123
-0.009109
-0.031372
-0.029709
-0.002155
0.008247
-0.031555
-0.032837
-0.033997
-0.038940
0.003582
-0.032745
0.038422
0.011696
-0.043182
-0.009949
0.000303
-0.027573
0.044464
0.034698
-0.003254
-0.016541
0.018967
0.004768
-0.012856
-0.015961
-0.030365
0.015587
-0.002131
-0.019775
-0.002100
-0.023849
-0.029007
-0.016830
0.029099
-0.002234
-0.019501
0.003361
-0.005840
-0.029587
0.003899
0.042511
0.005829
-0.003807
0.017242
-0.015358
-0.014282
0.028839
-0.004395
-0.003881
-0.007576
0.000923
-0.020798
0.050049
-0.040131
0.012848
0.044250
0.015869
-0.022202
-0.000414
0.002880
0.005314
0.017151
-0.019241
0.028900
0.019608
0.014610
0.010384
-0.025620
-0.015579
0.043335
-0.041626
-0.016693
-0.022324
-0.014656
-0.015747
0.019363
0.003862
0.020386
0.039001
0.025757
-0.027405
-0.032104
-0.036285
0.022995
-0.025635
-0.038208
-0.024170
0.023102
0.011894
-0.038788
-0.027267
0.039673
-0.031921
-0.029144
0.031311
0.035217
-0.005016
-0.008934
-0.016159
0.014572
0.003672
-0.010880
-0.008194
0.013214
-0.033905
-0.009979
-0.022903
0.028702
-0.008621
0.010025
0.034790
0.024536
0.027222
0.053009
-0.004848
0.009270
0.020462
0.024841
-0.020065
-0.039948
-0.008202
0.022842
0.038361
-0.000070
0.008476
0.024445
0.016922
-0.004513
-0.022064
0.036407
0.025970
0.018997
-0.008629
0.035675
-0.019180
-0.016434
-0.002621
0.001378
0.013626
0.009399
0.031250
-0.003925
0.025192
0.004658
-0.007717
0.015617
0.028122
-0.023132
0.025650
0.033386
0.033936
-0.004688
0.025986
0.035248
0.032166
-0.024536
0.017136
0.009201
-0.003273
-0.028778
0.005539
0.022202
-0.031067
-0.022797
-0.024124
-0.014877
0.017532
0.000892
0.005672
0.006500
-0.035797
-0.013863
0.019989
-0.031769
0.012680
-0.024506
-0.021042
0.015579
-0.037292
0.036621
-0.001423
0.038452
-0.033356
-0.000990
-0.023544
-0.024582
0.018433
0.011833
-0.027756
0.019318
-0.020905
0.015038
-0.010345
-0.019302
0.018631
-0.009186
-0.032867
0.030548
0.014626
0.001961
0.026917
0.009369
-0.012962
0.001633
-0.005211
0.020782
0.007027
-0.011658
0.010612
0.023941
0.012924
-0.011650
0.021408
0.017532
-0.015808
0.022064
-0.020020
0.036743
-0.012299
-0.025375
-0.028183
0.011024
-0.032593
-0.027542
-0.038086
-0.019531
0.002254
-0.012383
0.033539
-0.027084
0.029480
0.009560
-0.010902
-0.020081
-0.031860
-0.034515
-0.033844
-0.028564
-0.011299
0.012199
0.022202
0.029282
-0.019791
0.031769
0.042236
-0.001913
0.001497
0.014847
0.026947
-0.027161
0.002117
0.019897
-0.011841
-0.009285
-0.015762
0.030807
-0.032227
0.017990
0.008476
0.003883
0.012527
0.010124
0.049133
0.004787
-0.001055
0.008263
-0.004879
0.026917
-0.006737
0.022720
0.004814
0.026184
0.015717
0.000903
-0.019958
-0.002888
-0.018738
0.012657
0.011330
-0.002705
-0.025253
0.032166
0.029846
0.038422
0.023315
-0.009506
0.023712
-0.002523
0.000886
0.020233
0.002138
-0.012589
-0.022263
0.006306
-0.011429
0.002823
-0.009125
0.029236
-0.032990
0.012192
0.013931
-0.003242
-0.038910
-0.001707
0.030212
-0.012779
-0.028885
0.040070
-0.011475
-0.000067
0.018127
0.008087
0.036346
-0.000709
0.018158
0.007450
0.020004
0.046021
-0.023819
-0.031235
-0.034790
0.034180
0.003681
0.010529
-0.022995
-0.022827
0.020386
0.017059
0.010239
0.008438
0.007652
0.025497
-0.007763
0.030396
0.025650
0.041534
0.008575
-0.020447
0.017044
0.012665
0.025528
-0.018555
0.003599
0.049042
0.009468
-0.027588
-0.018250
0.042328
0.015190
-0.045624
-0.036621
0.018936
-0.014374
-0.016998
0.017334
0.013306
0.034576
-0.005180
-0.028397
0.010788
0.008736
-0.017334
-0.024277
0.021011
0.005878
-0.009102
0.032990
0.035706
-0.010437
0.027802
-0.045166
0.003914
0.026138
0.031433
0.040375
-0.009193
0.027328
0.014702
-0.050201
0.052521
-0.027420
0.001493
-0.035126
-0.016281
0.044189
-0.034485
0.018158
-0.046722
0.023300
-0.027069
-0.017914
0.009560
0.044952
0.035828
0.000849
-0.004528
-0.054291
0.027557
-0.038879
-0.021561
-0.004959
-0.024399
-0.014412
0.022919
-0.024185
-0.018402
-0.004242
-0.003471
-0.053497
0.026886
-0.014313
0.030869
0.045074
-0.020752
0.014122
0.013206
0.016449
-0.039246
-0.003336
-0.024384
-0.009903
0.005566
0.017899
-0.022507
0.034363
0.013817
0.012802
-0.002651
0.024445
0.015839
0.018784
0.011711
-0.017715
-0.015617
0.030685
-0.024796
-0.028717
-0.003061
0.035950
-0.015190
0.004478
-0.015808
-0.046570
0.038025
-0.016037
-0.000147
0.010361
0.063843
-0.030731
0.028687
0.035553
0.034271
0.046417
0.012009
-0.019714
-0.029663
0.040863
0.015205
0.029022
-0.011246
-0.031082
-0.026642
0.026978
-0.022095
-0.015503
-0.048004
0.009895
-0.029816
0.001035
-0.040192
-0.002846
0.013771
0.000308
-0.051147
-0.003426
-0.036987
0.059052
-0.012192
0.030106
0.000832
0.008705
0.022095
-0.046234
0.025238
0.029343
0.041199
0.034241
-0.011536
-0.007282
-0.037109
0.051849
-0.000443
-0.021088
0.000906
0.008369
-0.012146
0.003389
-0.046082
0.011536
0.010460
-0.023834
0.033630
0.024048
0.021988
0.020752
-0.004177
-0.006664
-0.026047
-0.026230
-0.018311
-0.030365
0.019119
0.001269
0.039398
0.001101
0.027786
-0.041718
0.028641
-0.024597
0.015533
0.007000
-0.021790
-0.014763
0.038910
-0.017487
-0.010971
0.009071
-0.025330
0.016754
0.039062
0.002028
0.009415
-0.000231
0.012444
0.031433
0.009995
0.024933
0.004620
-0.014091
-0.029465
0.021912
-0.019516
0.029404
-0.009834
0.002193
0.012108
0.025986
0.034851
-0.025360
0.011787
0.034241
0.014709
0.027557
0.006283
-0.022919
0.021927
0.014511
0.019318
0.002781
-0.026581
0.032349
0.032440
0.011559
0.018005
-0.021484
0.013756
-0.012482
0.046875
-0.019455
0.013702
-0.007896
0.025162
0.009155
-0.008575
0.036499
-0.017944
-0.023193
-0.006878
0.024078
-0.003757
0.026291
0.036224
0.027176
0.008209
-0.031281
-0.011711
-0.020630
0.014336
-0.008591
-0.019913
0.006035
0.030884
-0.039215
-0.008240
-0.036438
0.016953
0.031158
-0.016891
-0.023956
-0.030487
0.039612
-0.029785
-0.036438
0.011322
-0.028168
0.005318
0.006905
-0.016159
0.015228
-0.002186
-0.034607
0.040558
0.019348
0.037170
-0.015778
0.031464
0.002304
-0.004982
-0.016861
0.016724
-0.006775
-0.000052
0.007298
-0.017319
0.015526
0.007500
0.040039
-0.028610
-0.036896
0.031647
0.018921
-0.004604
-0.044769
0.002951
-0.006065
-0.020309
-0.031982
-0.029480
-0.023697
0.004272
0.010735
-0.025040
0.001431
0.007721
0.024719
-0.041901
0.001465
0.011063
0.022949
0.000020
-0.005703
-0.035706
-0.019760
-0.051392
0.012428
-0.034760
0.014053
-0.015175
-0.026901
-0.021851
0.020370
-0.029190
-0.028625
0.029800
-0.025024
-0.014435
-0.005028
-0.012665
-0.012863
-0.017349
0.019806
0.014046
-0.003189
0.002308
0.013046
0.012627
0.012779
0.029434
-0.014297
0.032135
-0.033264
-0.006756
0.004169
-0.008888
0.012260
-0.040649
0.006718
-0.045929
0.016617
-0.012794
0.011635
0.028137
-0.040436
0.007145
-0.018265
0.022003
-0.036926
-0.002047
-0.025558
-0.043304
-0.002602
0.014908
-0.017532
0.008659
-0.025452
-0.007706
-0.046997
0.025589
0.014908
0.021011
-0.002470
-0.036713
-0.031830
-0.015335
-0.002623
-0.048981
-0.014282
-0.022888
-0.005936
-0.033905
-0.016571
0.003729
-0.025284
0.010941
-0.003895
0.003893
-0.024963
0.018188
0.041870
0.023514
-0.045410
-0.008247
-0.025742
-0.018005
0.019653
0.010529
0.022964
-0.008080
-0.017044
0.011688
-0.037170
0.001540
0.013824
-0.006733
0.027008
-0.041107
-0.027313
0.042023
-0.032776
0.011337
-0.028015
0.001803
-0.014420
0.000165
-0.017181
0.013756
0.008873
-0.026031
0.025543
0.011459
0.020767
-0.007256
0.017410
0.031952
0.013252
-0.020737
0.002069
-0.002056
-0.027313
0.004734
0.004078
0.014175
-0.023346
-0.014381
0.040558
0.014282
0.016830
0.008499
0.017426
-0.027985
-0.014641
0.001231
-0.021378
0.024185
-0.014946
-0.009781
0.018997
0.000398
-0.002954
0.006409
-0.002626
-0.014076
-0.004700
0.032532
-0.007790
0.036346
-0.016800
0.035736
-0.017090
-0.012169
0.007473
0.034851
-0.036316
-0.011116
0.016006
0.028290
0.007370
0.004444
0.048981
-0.007633
-0.005215
-0.002605
0.003565
0.016296
0.009209
0.031830
0.051117
-0.020416
0.008430
0.010582
0.019272
-0.007397
0.002251
0.007896
0.009949
0.021103
0.036560
0.008575
-0.030991
-0.012161
0.010910
-0.024399
0.012009
0.041870
-0.016861
0.019562
-0.002014
0.039764
-0.006317
0.012192
-0.027771
0.001307
0.035706
0.029099
-0.046417
-0.013916
0.012856
0.014427
0.020935
-0.005711
0.031677
0.015793
0.010597
0.018539
0.021622
-0.007713
-0.035004
-0.038239
0.020874
-0.001292
0.003702
-0.015762
-0.012970
-0.003300
-0.004620
0.022018
-0.013840
-0.009651
0.004807
0.002459
-0.005627
-0.003963
-0.006409
0.017593
-0.009048
-0.063416
0.016327
-0.021652
0.018341
-0.022827
0.006779
-0.010109
-0.028671
0.031952
0.006264
-0.017365
0.018311
0.003510
0.019135
-0.037933
0.026993
0.031555
-0.005718
-0.001754
-0.017456
0.000264
-0.025543
0.004906
0.004257
-0.024811
-0.003731
-0.024338
-0.006962
0.042267
-0.034576
-0.032349
0.004272
0.018295
-0.012390
0.023895
0.011444
-0.029556
-0.033142
-0.032867
-0.015671
0.037079
-0.022827
-0.012016
-0.022751
-0.009148
0.024475
0.010048
-0.004387
0.007690
-0.010315
-0.014671
-0.001019
-0.020645
-0.032013
-0.030487
0.017578
0.005863
-0.021454
0.023834
0.033539
-0.013046
-0.006210
0.026489
-0.015656
0.015022
-0.029434
-0.020950
0.005341
0.034546
-0.028320
0.021866
-0.017181
-0.003012
-0.010704
-0.034363
-0.001477
0.024063
0.011742
0.007744
0.027771
-0.016602
0.007423
-0.011436
-0.015480
0.040619
0.018723
0.031097
0.005623
-0.001837
0.013512
-0.014572
0.021042
0.011307
-0.029633
-0.025848
-0.003426
-0.025345
0.021072
-0.007751
-0.022034
-0.024490
-0.023102
0.013252
-0.011467
-0.001047
0.012810
0.023514
-0.013794
0.018646
-0.000464
0.042847
0.035461
-0.003611
-0.011604
-0.026825
-0.021622
-0.000507
-0.036743
-0.028687
-0.007473
-0.026306
-0.029037
0.011856
0.000672
-0.003922
0.008331
0.012749
0.011444
0.014130
-0.018845
0.006104
0.005833
-0.014572
0.041534
-0.001878
-0.058502
0.019226
-0.012917
-0.025894
0.023834
-0.001636
0.033112
-0.048126
0.000246
0.014427
0.029587
-0.019852
-0.007492
-0.015549
-0.035309
0.028381
0.005394
0.040161
-0.029831
-0.039093
-0.012573
0.007759
0.040222
-0.022369
-0.031342
0.006001
0.003275
0.050812
0.020142
0.033691
-0.031174
0.001041
-0.000470
0.040863
0.019821
0.028458
0.012939
-0.054352
-0.002756
0.017212
-0.025040
-0.023911
-0.000996
-0.005524
-0.000934
0.001259
0.010765
-0.028870
0.014297
0.016174
-0.001144
-0.029083
0.043854
-0.035187
0.010033
0.044098
-0.006676
0.029572
-0.000258
-0.011665
-0.029602
-0.003832
-0.010620
-0.019211
-0.018539
-0.005131
0.000705
0.023224
0.019348
-0.018677
-0.005486
-0.015640
-0.008064
-0.029007
-0.045013
0.006599
-0.013046
0.029266
0.007782
0.025696
-0.015945
0.021378
-0.011108
0.028671
0.031342
-0.016037
0.040436
0.035034
0.014084
-0.030319
-0.016891
-0.012718
0.028122
0.003164
-0.011871
-0.024567
-0.017822
-0.024002
-0.016663
0.025818
0.011681
0.004105
-0.003618
-0.020447
0.012894
-0.002138
0.032288
-0.041046
0.009575
-0.040588
-0.000870
-0.035583
0.003660
0.017212
-0.025055
-0.009521
-0.012093
-0.030914
-0.008278
0.001259
-0.057373
-0.030396
0.009155
-0.012482
-0.001101
-0.019440
0.003817
-0.004295
0.007778
0.006359
0.017670
0.017212
0.015640
-0.001831
0.044098
0.030991
0.013733
0.042297
0.001014
0.016388
-0.032867
-0.014030
0.028656
0.019272
0.017654
-0.035217
0.007446
0.010254
0.030258
0.014595
0.023529
0.019165
-0.020737
0.004745
-0.002647
-0.009903
-0.003710
0.012726
0.012016
-0.004250
0.012741
0.008186
-0.038422
-0.000074
0.004311
-0.002632
-0.004917
0.032593
-0.021469
0.028534
-0.031311
0.005390
-0.035950
0.020218
-0.030151
0.021500
0.002575
0.033356
0.007278
-0.035309
0.008507
-0.042999
0.020279
0.040314
0.023865
0.055023
-0.029755
0.034088
0.027161
0.028229
0.020309
0.011772
0.036194
0.036621
0.014671
-0.012787
0.005924
0.004581
0.036713
-0.010590
-0.030350
0.047546
-0.021133
-0.035553
-0.030365
0.006012
-0.018005
-0.031891
-0.014915
0.007671
0.037659
-0.001215
0.017792
0.026047
0.025436
0.031586
-0.009338
-0.001102
0.019409
0.001887
-0.000925
-0.008202
0.005436
-0.025665
-0.027893
-0.017807
0.007740
0.003401
0.033386
0.042023
-0.033417
-0.030640
-0.039368
0.038818
-0.017090
-0.054321
-0.031006
-0.007622
-0.021545
0.042145
0.001470
0.023254
-0.001607
0.016602
0.038666
0.000101
-0.021118
0.002224
0.007042
0.017441
0.006824
-0.018890
0.009026
-0.019180
0.010887
-0.011253
0.027771
0.003845
0.004818
0.030151
0.017715
-0.025101
-0.000442
-0.001579
-0.013321
0.016403
-0.024765
0.001441
0.042023
-0.024597
0.031616
0.000376
0.014847
0.030838
0.028641
-0.006508
0.020645
0.018936
0.007118
0.013145
0.009575
-0.006222
-0.029434
0.018188
-0.021454
0.024063
-0.017181
0.016220
-0.035431
-0.020630
-0.026047
0.035919
0.018204
-0.009460
0.010834
0.010788
0.028275
-0.029510
-0.009460
0.008781
0.030975
-0.025162
-0.018814
-0.025696
-0.005524
-0.025543
-0.009415
-0.023743
-0.026291
0.036560
-0.035614
-0.022842
-0.031342
-0.012436
0.028824
0.005905
-0.019714
-0.016785
-0.007717
0.031860
0.003660
0.015442
-0.028458
0.021317
-0.026291
-0.020081
-0.019455
0.008011
0.009666
-0.003191
-0.010666
0.015083
-0.011612
0.014442
0.018784
-0.003061
0.001101
-0.000605
-0.004723
-0.018600
0.006397
0.030869
0.018997
-0.004086
-0.009445
-0.026764
-0.011810
-0.009315
0.012436
0.009056
-0.030579
-0.002266
-0.026733
-0.035492
0.028610
-0.008766
0.030746
0.033722
-0.002176
0.030334
-0.038239
-0.021271
-0.008926
0.001927
0.030334
-0.020309
0.005901
0.024261
-0.029739
0.025421
0.002729
0.032166
-0.009735
0.025223
0.011276
0.027954
-0.003086
0.001880
0.022430
-0.008919
-0.022095
-0.033936
0.010796
0.024414
0.030457
0.034180
0.020584
0.012337
-0.009636
-0.036896
0.030151
0.008911
0.004112
-0.001379
0.004814
0.025589
-0.006027
0.026138
0.001514
0.003305
0.009521
-0.019150
0.001196
0.018005
-0.025482
0.005287
-0.023666
0.013947
0.018036
-0.020309
0.027924
-0.020386
0.015823
0.039429
-0.027557
0.001528
0.005653
-0.023239
-0.009171
-0.017014
0.000778
0.016159
-0.018112
0.023743
-0.006744
-0.022949
0.027710
0.032013
-0.009689
0.033569
-0.009361
0.031235
-0.029358
-0.023483
0.027634
0.021271
0.028076
-0.026367
0.021088
0.031158
-0.031158
0.017914
0.022110
-0.003004
0.009171
0.019760
0.023972
0.033966
0.011566
-0.025696
0.005695
0.001934
-0.016388
-0.019058
0.014503
0.032532
0.009003
-0.002962
0.024734
0.026413
0.025452
0.025208
-0.007874
-0.008095
0.003160
-0.025375
-0.010193
0.007084
-0.006344
0.020111
0.012619
-0.009018
0.013626
-0.001932
-0.027847
-0.009430
0.022018
-0.016754
-0.015274
-0.009102
-0.030045
-0.010750
0.017731
0.023270
0.011375
0.028152
0.012642
-0.003405
0.028961
-0.012871
-0.018204
-0.001772
0.000407
-0.008751
-0.038177
0.011528
0.002481
-0.031403
-0.005184
0.030289
-0.037537
0.031403
-0.030075
0.022446
-0.002674
-0.035278
0.006207
-0.010269
0.012634
0.013794
0.018753
0.006313
-0.019211
-0.001550
-0.003721
-0.011925
-0.016388
0.013786
-0.047150
-0.004440
-0.025833
0.025879
-0.011772
0.011307
-0.023987
0.017471
0.023895
-0.040955
0.033081
-0.047577
0.011337
-0.040039
0.003790
0.000790
-0.017212
0.031403
0.010231
0.016556
0.037659
0.006096
-0.042755
0.013985
-0.014977
0.002949
0.021240
-0.028687
-0.051636
0.013077
-0.035675
-0.004719
0.014107
0.017136
0.010292
-0.016083
-0.033020
-0.025543
0.023712
-0.006264
-0.042908
0.018311
-0.005836
0.037384
-0.025574
-0.029785
-0.016800
-0.046021
-0.012444
0.004711
-0.012764
0.035248
-0.000997
-0.007362
0.002048
-0.030228
0.029160
-0.007465
0.021774
0.014069
0.003544
-0.000279
0.035461
0.012573
-0.039459
-0.028931
-0.003767
0.008026
0.034607
0.007256
0.027252
0.011047
-0.041046
0.014427
0.015190
0.026001
0.002155
0.016983
-0.050323
-0.017807
0.025864
0.007523
-0.011635
-0.013557
-0.021469
0.002159
-0.036774
-0.047058
0.019592
-0.010162
0.030640
0.047577
0.016418
-0.033508
-0.018799
-0.017776
-0.046661
-0.017975
0.014145
0.006889
0.012962
-0.032898
-0.009689
0.036652
-0.001562
-0.006657
-0.036346
0.048370
-0.034821
-0.003874
-0.021378
-0.009964
-0.027191
-0.013298
0.044159
-0.035614
-0.030731
-0.010452
0.029160
-0.004543
0.005398
0.022003
0.050140
0.009567
-0.021118
0.015076
0.037598
0.013908
0.018936
0.015404
0.002850
-0.027939
0.007957
0.016449
0.004818
-0.019012
-0.021744
0.037140
0.017731
-0.024185
-0.016174
-0.008858
-0.016510
-0.018906
-0.002575
-0.029953
0.019104
0.001698
0.039062
-0.004921
-0.001295
-0.009956
-0.052307
0.022095
0.032471
0.024216
-0.027817
-0.034851
0.010841
-0.005356
-0.022217
0.027725
0.034088
0.025116
0.019073
0.000577
-0.000663
0.038086
0.008629
-0.005795
0.021652
0.008209
0.044617
0.025833
-0.002998
-0.035614
-0.026917
0.017563
0.009979
0.029480
-0.035370
-0.024048
0.026001
0.031006
0.038727
-0.023727
-0.008865
-0.017746
0.015030
-0.030502
0.020859
0.029694
0.009583
0.007935
0.003603
0.022903
0.018326
0.019135
0.012093
-0.041718
0.011978
0.002790
0.031586
-0.009323
-0.033844
-0.010094
0.007874
-0.005856
0.027740
-0.009621
-0.013641
0.035889
-0.001841
-0.017975
-0.008408
0.000080
-0.006969
-0.008438
0.024887
-0.018799
0.009674
0.028824
0.040558
0.008751
-0.008362
-0.030273
-0.028564
0.050751
-0.034943
0.001220
-0.046356
0.039124
0.007633
0.000844
0.021652
-0.008698
-0.007797
-0.000189
0.036499
0.034149
0.009331
-0.008232
0.034821
0.015602
-0.002428
-0.028702
-0.007088
-0.011490
0.033661
0.047668
0.010551
0.014748
0.027069
-0.008026
0.023102
-0.007244
-0.010155
0.041046
0.000706
-0.022705
0.034943
0.036407
0.031555
0.018524
0.015854
0.032990
-0.023315
-0.006386
-0.032440
-0.026260
0.030258
0.021042
0.007057
0.025742
-0.026596
0.010818
-0.028915
-0.034546
-0.003004
-0.019257
0.021515
0.027359
-0.025955
0.023895
0.016632
0.015602
0.014252
-0.034027
0.016815
-0.016159
-0.031769
-0.012840
-0.032318
-0.021652
0.016769
-0.039093
0.019592
-0.032318
0.011551
-0.019699
0.013893
-0.000471
-0.006321
0.017151
-0.033844
0.011497
-0.004547
-0.013481
0.006969
-0.033325
0.023254
-0.017838
-0.030136
-0.027283
-0.020020
-0.008087
0.023880
0.011581
-0.020828
-0.039551
-0.001069
0.034210
-0.001630
0.012154
0.027924
0.015640
-0.002419
0.026123
-0.009842
-0.006248
0.009720
0.040192
-0.034027
0.016663
0.002357
-0.033508
0.020172
0.019211
0.016998
0.008736
0.035370
-0.001015
0.015236
-0.013130
0.004704
0.003323
-0.018234
0.000592
-0.027527
0.012970
0.006992
-0.012070
-0.003199
0.020935
-0.021194
0.016861
-0.025772
-0.037842
0.004162
0.018127
-0.010666
0.025177
0.025528
-0.013779
-0.012039
0.028519
0.016388
-0.003700
0.004223
-0.025406
0.008469
0.020325
-0.031403
-0.017914
0.024673
0.006611
-0.022324
-0.031403
