0.030548
0.026978
0.004883
-0.023819
0.005348
0.009193
0.011650
0.030869
0.031738
-0.020020
-0.021194
-0.036072
0.014061
0.019897
0.028015
0.037415
-0.018036
0.029190
0.014496
0.032532
-0.021759
0.013161
0.014046
-0.020645
-0.010330
0.024567
-0.011963
-0.000776
0.009056
-0.023148
0.008972
-0.007080
-0.028625
0.005272
0.003485
0.036346
0.009590
0.034607
0.030106
0.020309
-0.022003
-0.019440
-0.007103
-0.013062
-0.031708
0.011383
0.008095
0.022415
0.030945
0.012321
0.021072
0.004761
-0.020828
0.016296
0.033478
-0.029510
-0.028732
-0.030762
0.020523
0.008492
-0.004150
0.004627
-0.017014
-0.008835
0.003862
0.003155
0.027603
-0.019669
-0.032806
0.018784
0.000420
-0.011749
0.027802
-0.011406
0.032318
-0.008316
-0.021667
0.002968
-0.007595
0.010498
0.028549
-0.028000
0.009628
-0.012733
0.026733
-0.005375
-0.022583
0.033783
-0.001039
-0.016785
-0.006153
0.007504
-0.000916
0.020142
0.011147
-0.007389
0.011993
-0.023834
-0.001877
-0.019669
0.015205
0.002089
0.020950
-0.034149
0.033691
-0.005848
-0.011307
0.037170
0.004017
0.013649
-0.034760
0.021362
-0.002544
0.032501
0.012970
0.030518
0.028656
-0.009468
0.023895
-0.001513
0.036194
0.010315
-0.033600
-0.027618
-0.009491
-0.040222
-0.016785
-0.029648
0.015450
0.001598
-0.033478
0.035065
-0.015236
0.020950
0.018524
0.012527
0.007828
0.005371
0.032593
0.036530
0.040802
-0.023087
0.027115
-0.027344
-0.029709
0.013824
-0.024979
0.030899
-0.004082
-0.020676
-0.019943
-0.022247
-0.022980
0.018219
-0.021057
0.001568
0.014557
0.005066
0.017807
0.013763
-0.008728
0.002275
-0.038055
-0.005978
0.009697
-0.005638
-0.035461
0.023224
-0.011246
0.018448
-0.005093
0.020889
-0.012535
0.004753
0.019028
0.006573
0.019547
0.003883
0.000612
0.003284
0.031311
0.038361
-0.005405
0.003983
-0.003885
0.015038
0.025040
-0.021362
0.033264
0.038818
0.024841
0.013535
0.028854
0.005188
-0.033691
0.032776
0.000082
-0.027115
0.013016
-0.013962
-0.005009
0.006836
-0.004436
0.015854
0.030579
0.014771
0.028152
-0.004951
0.004208
-0.001013
0.026443
0.023972
-0.024567
0.008865
0.045654
-0.000935
0.006226
0.011642
0.006214
-0.015717
-0.007454
0.021683
0.005718
-0.037384
0.004753
-0.035858
0.028122
-0.011154
0.027771
0.006363
0.015808
-0.015747
0.000165
-0.015350
0.005852
0.009048
-0.031067
-0.043152
0.035400
-0.023041
-0.020691
0.017883
0.004120
-0.012665
-0.006245
0.017395
0.024734
-0.016876
-0.009460
0.011208
0.032806
-0.019241
-0.033447
0.016998
-0.004944
-0.032379
-0.005825
-0.007755
-0.018646
-0.019150
0.040192
0.025497
-0.015053
-0.007584
0.008850
0.017288
-0.028793
-0.006100
-0.022171
0.007244
0.013741
0.005100
-0.019363
0.005257
0.028473
-0.001672
-0.002724
0.003910
-0.020401
0.022125
-0.015854
-0.015373
-0.028137
0.014465
-0.034180
-0.028275
-0.018463
0.028534
0.016968
-0.021683
-0.013733
-0.010117
-0.021957
-0.005173
-0.004745
-0.031433
0.007801
-0.002724
0.010712
0.035736
0.032715
0.004887
-0.007187
-0.006798
0.029282
-0.014679
-0.003479
-0.007370
0.027802
0.027588
-0.022339
0.000408
-0.019913
0.015144
0.004250
-0.031738
-0.026611
0.003181
-0.021088
-0.014488
-0.007282
-0.027603
-0.002014
-0.009644
0.020798
0.005276
-0.022018
0.039276
0.006145
-0.010033
-0.037903
0.030258
0.018875
-0.004192
0.020218
-0.040649
-0.017380
0.005611
0.014351
-0.030792
-0.023239
-0.021103
-0.033142
0.010376
0.036713
0.000981
0.012848
0.016357
-0.015732
0.025757
-0.001149
-0.031799
-0.030319
0.028488
-0.017105
-0.032104
0.016266
-0.017044
-0.008446
-0.006905
0.015900
0.033813
0.008209
0.024948
0.011581
0.031281
0.019272
-0.022812
0.003338
0.028046
-0.036804
-0.028305
-0.022125
0.024811
-0.000861
0.016342
-0.030106
-0.005314
0.029541
0.007259
-0.019226
0.001500
0.015190
0.032379
-0.002350
-0.008904
-0.029846
0.028671
0.036011
0.027740
-0.024597
-0.024048
-0.049683
-0.023621
0.028320
0.023651
-0.016785
-0.018600
-0.027222
0.014374
0.022568
-0.030045
0.009369
0.017136
0.018692
0.028305
0.031128
0.017044
-0.020966
-0.015388
-0.012444
0.024841
0.013100
-0.000078
-0.010429
0.022751
-0.012375
0.014450
0.025299
0.009140
0.033264
-0.021164
-0.000299
-0.029678
0.006508
-0.011246
0.021667
-0.031494
0.029297
0.023407
-0.012245
-0.039612
-0.004059
-0.030106
0.004341
-0.029984
-0.010200
0.010269
0.007679
-0.027435
-0.001391
0.032349
0.004890
0.032379
0.012604
0.003881
0.005630
-0.007198
0.031235
-0.002813
0.018280
-0.013275
-0.007454
-0.022324
0.009605
0.014496
-0.036896
0.017288
-0.013908
-0.033325
0.006538
-0.014214
0.023178
0.021484
0.035950
-0.024796
-0.029846
0.031281
-0.013794
-0.039093
0.037384
0.009293
0.003725
-0.013199
0.027756
-0.018494
0.020920
-0.005474
-0.011223
-0.010529
-0.006779
0.004074
0.035034
0.034485
-0.021759
-0.013412
-0.018417
0.017944
0.029373
-0.031372
0.001738
0.026459
0.021683
-0.017075
-0.038025
0.001233
0.015221
0.025711
0.025833
0.034515
-0.004318
-0.030487
-0.014832
-0.006020
0.000338
0.035095
-0.003555
-0.015778
-0.019516
-0.010674
-0.005589
0.024963
-0.016571
0.010262
-0.004833
-0.029602
0.028793
0.032043
-0.033539
-0.010048
-0.002455
-0.003376
0.004459
0.013992
-0.010841
-0.017014
0.029037
0.017975
-0.019577
0.039703
-0.034088
-0.005421
0.004253
0.005417
-0.009285
-0.011887
0.019760
-0.021530
0.020370
0.001966
0.018311
0.033478
0.006622
0.009857
0.013901
0.020752
-0.026520
0.040955
0.025238
0.028061
0.011971
-0.011421
-0.020157
-0.022736
0.019150
0.013901
0.007294
0.028198
-0.035095
-0.001325
-0.028259
-0.033936
-0.000893
0.032776
-0.007980
0.031433
0.004150
-0.023743
-0.011703
0.000323
-0.021225
-0.039154
0.022827
-0.012711
0.014168
-0.029205
-0.038116
0.004787
0.023758
-0.027100
0.040558
-0.017075
-0.009727
-0.016190
-0.022766
-0.036224
-0.031372
0.012695
-0.002716
0.004276
0.015869
-0.033173
0.013855
-0.023499
0.010155
-0.009064
0.009216
-0.004612
0.001558
-0.003099
-0.002686
-0.001361
0.028549
-0.023834
0.007015
-0.040894
-0.013611
0.028503
0.003096
-0.017075
0.037872
0.035797
0.002632
0.009827
0.021988
0.025986
0.015076
-0.010628
-0.014496
-0.015381
-0.022476
0.000659
-0.021057
-0.022232
0.030182
0.026642
-0.036865
-0.003748
0.019516
0.032806
0.028351
-0.025879
-0.000296
0.001630
0.035309
-0.003077
0.000647
0.021393
0.005264
-0.023743
0.010071
-0.010651
-0.002850
-0.002548
-0.019516
0.005772
0.016052
-0.022446
-0.000868
-0.032867
0.026413
0.002827
0.027008
0.000872
-0.022125
0.029312
0.017365
-0.015793
-0.032501
-0.008789
-0.010704
-0.018341
-0.005787
0.020554
0.022278
0.028992
0.006893
-0.002773
0.022552
0.013176
0.039673
0.014359
-0.002645
0.034973
0.026566
0.001959
-0.001724
-0.004128
-0.004288
0.017563
0.029678
0.006844
0.034760
0.029831
0.022995
0.018951
0.037140
0.036743
-0.017288
0.009872
-0.033234
-0.028152
0.018417
0.028488
0.008942
-0.030716
-0.025497
0.020782
-0.010986
-0.029785
0.028809
-0.030624
-0.026855
-0.001815
0.005165
0.012482
0.013931
-0.021149
0.026489
-0.018051
0.034180
-0.018661
-0.023163
-0.035126
-0.018082
0.011345
0.006618
0.025208
-0.007011
-0.017273
0.024429
-0.005478
-0.003693
-0.023651
-0.005516
0.012947
0.036743
-0.016144
0.022644
-0.023743
0.023193
-0.018494
-0.033234
-0.033997
-0.012817
0.033051
-0.001123
0.025391
0.008949
-0.004784
-0.015205
-0.022171
0.013176
0.023849
-0.001300
-0.032349
0.022354
0.035095
-0.007000
-0.024948
0.039154
-0.049988
-0.013329
-0.007874
0.004234
-0.019684
-0.011497
-0.029037
0.029968
0.031555
-0.013893
-0.044769
-0.032013
-0.034454
0.023483
0.008446
-0.020493
0.022888
-0.005814
-0.006680
0.019730
-0.044342
0.034912
-0.018600
0.024017
-0.054016
0.025009
-0.023987
-0.015839
-0.019989
-0.009315
-0.016800
0.023499
0.061615
-0.005405
0.003887
-0.088074
0.061371
-0.012085
0.038300
-0.047089
-0.054626
-0.072144
-0.004192
-0.039459
0.002773
-0.028610
0.013443
-0.043304
-0.013489
0.009109
0.006435
0.027115
-0.005352
-0.007881
0.006733
0.023026
0.038635
0.044861
0.032623
-0.041534
0.029251
-0.019821
0.028000
0.042145
-0.035828
-0.034576
0.021835
0.020126
0.002998
0.014122
0.029251
0.049927
0.003416
-0.014702
0.029526
-0.013710
0.005379
-0.041229
-0.002884
0.055969
0.021347
0.021973
0.005405
-0.006439
-0.001302
-0.024490
0.013573
-0.011581
0.015045
0.060120
-0.002449
0.005859
0.047852
-0.023407
0.033691
-0.003477
-0.000810
0.053894
-0.032532
0.006958
0.043488
0.046051
0.021027
0.004341
-0.004627
0.013855
0.033295
0.036346
-0.012550
0.005310
0.011963
-0.024612
0.021927
0.023270
-0.013977
0.037323
-0.048187
0.041534
0.025162
0.006207
0.009819
-0.027420
0.020752
0.034302
-0.025879
0.001328
0.018478
-0.062073
0.010834
-0.012436
0.017166
0.016510
0.022873
0.004745
-0.040741
-0.022522
0.043488
0.020279
-0.015236
0.033936
-0.008110
-0.020798
0.018524
0.001341
-0.028763
-0.028107
0.009293
0.009750
0.022842
-0.001305
0.031921
0.003496
-0.020767
0.016876
-0.007843
-0.048035
0.027084
0.005363
0.012817
-0.034912
-0.018997
-0.033813
0.031036
0.003143
-0.021729
-0.050995
0.026962
0.008965
-0.062378
-0.000777
-0.010193
-0.019287
-0.004902
0.033203
0.012001
0.008385
0.024902
-0.036224
-0.024185
0.015137
-0.005501
0.003506
0.027374
-0.033813
-0.010887
-0.030792
-0.002920
0.034760
-0.008698
0.054352
-0.017868
0.047058
-0.047363
0.013382
0.006443
-0.040070
0.005245
0.021286
-0.014915
0.006168
0.011490
0.028397
-0.052429
0.024979
-0.036957
0.011101
0.043335
-0.003389
-0.024185
-0.003174
-0.008095
-0.042175
0.011604
0.020615
0.009903
-0.018967
0.007622
0.008026
-0.012184
-0.004673
-0.032990
-0.019562
0.002975
0.023773
0.033508
0.038666
-0.028061
0.001790
0.005463
0.016876
0.015289
-0.033630
0.016098
0.017319
-0.053589
0.053589
-0.067566
-0.022751
0.005424
-0.015213
-0.007442
-0.036377
-0.012642
-0.026443
0.017334
-0.024612
0.003828
0.040222
-0.000662
0.005180
0.019638
0.003881
0.024155
-0.001788
0.018173
0.037384
-0.021698
0.062500
0.018356
-0.029724
-0.035126
-0.005516
0.008598
0.033966
0.030838
0.011055
-0.006638
-0.033844
-0.010269
-0.003216
0.012024
-0.005272
-0.005497
0.018814
-0.014587
0.022095
0.011444
0.009422
0.031586
-0.014343
-0.000458
-0.039581
-0.007809
-0.047516
-0.015533
-0.018799
-0.008873
-0.030487
0.022919
-0.017120
0.040649
0.042053
0.036102
-0.004547
-0.010437
0.028549
-0.052948
0.029327
0.012291
0.014442
0.017242
-0.016495
0.000465
0.024490
-0.000540
-0.058472
0.025772
0.042694
0.042419
-0.049011
-0.011482
0.019501
-0.004581
0.031494
0.012848
0.014297
0.019806
0.024658
-0.027008
-0.004326
0.011337
0.006435
-0.030685
0.008286
-0.003035
0.002777
-0.002541
0.022293
-0.062103
0.037323
-0.017197
0.012413
0.020447
0.003204
0.022064
0.024536
0.016769
-0.042267
0.013756
-0.027435
-0.025208
0.034210
-0.028458
-0.013115
0.034943
-0.006126
-0.005795
-0.052765
0.031982
-0.036530
-0.055054
-0.008804
-0.008698
-0.042206
-0.041382
-0.032623
-0.008530
0.045044
0.009346
-0.044769
-0.029022
0.014465
-0.040497
-0.021484
-0.008911
-0.025864
-0.005123
0.003593
0.041809
-0.023239
0.043274
-0.023788
0.049622
-0.036987
0.036774
-0.024048
0.019302
0.040558
-0.015503
0.001432
0.019302
-0.002140
-0.008354
0.010414
-0.013649
-0.011375
0.006905
-0.004272
-0.000563
0.008476
-0.039520
0.035461
-0.023773
0.002342
-0.005383
-0.016785
0.001476
0.021713
-0.033966
0.048645
0.011742
-0.002096
0.013275
-0.013313
0.001502
0.033356
-0.011505
0.015472
0.025757
-0.026001
0.016632
0.041779
0.020081
-0.022369
0.005394
-0.011673
0.015717
0.032349
0.023666
0.001305
-0.020905
0.012222
0.020737
-0.052460
-0.007355
0.022171
0.008781
-0.027588
-0.014206
0.005993
0.027420
0.027664
0.018707
-0.002998
-0.000885
-0.004345
-0.032806
-0.017624
0.013718
-0.014984
-0.002279
-0.015312
0.031342
-0.041748
-0.002829
-0.004944
0.046539
0.036926
0.026459
0.008202
-0.022583
0.018723
0.001620
0.033752
-0.028412
0.006123
-0.020096
0.020462
0.013626
-0.006069
-0.013390
0.023788
-0.024933
0.045166
0.005501
0.026962
0.001999
0.020844
0.007927
-0.026138
-0.024979
0.036896
-0.008499
0.021820
0.036163
0.009430
0.011360
-0.029694
0.020340
0.019470
0.018387
0.022476
-0.015587
-0.025284
0.028076
-0.000412
0.034027
-0.000776
0.033295
0.031464
-0.010185
-0.011581
-0.014221
0.016815
0.012489
0.006798
0.020630
0.030289
0.014931
0.006775
-0.008789
0.021317
-0.001732
0.003042
0.017731
0.011093
0.008759
-0.009087
-0.033997
0.020767
-0.014160
0.018997
0.041046
-0.020889
0.018143
0.032471
-0.021057
0.025360
0.012596
-0.041016
0.038513
-0.002661
-0.010696
0.018570
-0.022827
0.016953
0.039032
0.020279
-0.027985
0.026627
0.005177
-0.023727
0.010345
0.011803
0.022461
-0.013901
-0.002991
0.004932
-0.017120
-0.003994
0.026855
0.034058
0.007206
0.036743
-0.035583
-0.004303
-0.028656
0.008957
-0.031982
0.006271
0.006886
-0.022003
0.002758
-0.008743
-0.025131
-0.031525
0.024216
-0.018372
-0.002882
-0.017426
-0.028030
0.017212
-0.010117
-0.019073
0.003298
-0.018311
0.030685
0.010864
0.031677
-0.010071
0.012619
0.004238
-0.019531
-0.021942
0.007896
-0.009941
-0.021454
-0.039490
0.043060
-0.022202
-0.007771
-0.009621
-0.003788
-0.024368
0.034180
-0.014343
0.013306
0.007500
0.000606
-0.003036
-0.027466
0.025421
-0.019958
-0.020111
0.002766
0.022888
0.026245
0.013512
-0.013329
0.015297
-0.026978
-0.018921
-0.000168
0.022156
-0.022171
0.030991
0.018860
0.024857
0.008324
-0.025986
0.018890
-0.025040
0.016785
-0.023376
-0.011002
-0.008286
0.029739
-0.022369
-0.019547
0.015175
-0.010750
0.017731
0.023331
0.029099
0.015976
-0.007729
-0.007607
0.001513
-0.026001
-0.011269
-0.028580
0.022751
0.004097
-0.022537
-0.018463
-0.023972
-0.044739
0.031769
-0.034576
-0.009331
0.047089
0.015808
0.002934
0.016647
0.030792
0.011650
-0.014572
-0.010628
0.007759
0.001781
-0.015930
0.034973
0.004890
-0.015022
-0.005573
-0.010124
-0.031433
0.041382
-0.007980
-0.028748
0.045776
-0.007679
-0.054169
0.000052
0.079041
-0.022278
0.034119
0.021408
0.010674
0.030014
0.000783
-0.000282
-0.007957
-0.012535
-0.007202
-0.039795
-0.045441
0.026169
-0.035706
0.033508
-0.011742
-0.014732
-0.012199
0.007828
0.011467
0.013596
-0.009033
0.017120
0.018997
0.030853
0.014610
-0.029068
-0.013649
-0.006229
0.014748
0.029221
-0.007175
0.013580
-0.023468
-0.003336
-0.013596
-0.017334
0.055664
-0.026749
0.005348
0.005188
0.034485
0.058655
-0.053833
0.013939
0.009529
-0.013939
0.063416
0.038208
0.034119
0.004074
-0.007942
0.009941
-0.008102
0.042694
-0.004360
0.026810
0.054077
-0.013184
0.012924
-0.062164
0.040100
-0.014282
0.002972
-0.012344
-0.003201
0.030243
-0.001248
0.004078
-0.040833
-0.037231
-0.048248
0.005852
0.007332
0.002380
-0.009369
0.013527
-0.000515
0.000939
-0.041046
-0.038483
-0.002485
-0.043091
-0.011017
-0.002686
0.013756
0.019958
-0.008858
0.006729
0.010963
-0.010315
-0.006039
0.046936
-0.018875
-0.030930
-0.060608
0.002810
-0.021194
-0.002899
-0.047546
0.027328
-0.029739
-0.008530
0.030518
-0.013206
-0.001519
0.000750
0.008087
-0.013687
0.023773
-0.059052
0.000858
0.031372
0.001197
0.030121
0.049896
-0.023178
0.029251
-0.027130
0.000522
0.018372
0.027985
-0.018417
0.044067
0.033569
0.008530
-0.026031
0.016815
-0.027740
0.007629
0.005440
0.037445
-0.022156
0.014236
0.039459
0.027710
0.032227
-0.035126
-0.053284
0.012466
-0.000132
0.012283
-0.008812
0.000594
-0.014870
-0.000453
-0.020477
-0.018143
-0.024063
0.005322
-0.022491
0.039551
-0.015266
-0.003260
-0.029129
-0.047699
-0.012535
0.024979
0.012589
-0.010200
-0.010551
0.012978
0.017151
0.004272
0.022232
0.012947
0.050842
-0.019348
-0.038635
0.045135
0.009529
-0.006912
0.028610
-0.000534
0.029999
0.026123
-0.009941
0.025009
-0.021042
0.035400
0.038391
-0.008087
0.017944
0.007168
0.028503
0.020126
-0.032471
0.022858
-0.055237
0.033752
0.013199
0.008842
0.045349
0.028778
0.029083
0.018204
-0.026733
0.009537
-0.015366
0.023636
0.007725
0.023422
-0.027924
-0.011063
0.002073
0.002419
0.052826
0.042389
0.000190
-0.021774
-0.013741
-0.001591
0.037994
0.035370
0.005116
-0.026169
-0.020157
0.021927
0.027710
0.001893
0.021759
-0.002245
0.016129
0.019226
-0.017593
-0.015808
0.025192
0.007843
0.044678
-0.048096
-0.002953
0.035858
0.006168
-0.017853
-0.016052
0.038483
0.008614
0.015327
0.004745
0.022049
-0.028748
-0.020691
-0.003487
-0.011658
-0.036835
0.020203
-0.007137
-0.016800
0.053772
-0.010391
0.009331
0.001913
0.016922
-0.023514
-0.019348
0.011406
0.018997
0.009438
0.006584
-0.003283
-0.005314
-0.038452
-0.022018
-0.028671
-0.010033
0.019180
-0.031067
0.011307
-0.042389
-0.025833
-0.013275
-0.006870
-0.020721
0.044189
-0.019012
-0.029785
0.047485
-0.001834
-0.013451
-0.006977
0.001368
-0.007778
0.022812
0.000133
0.028137
0.018799
-0.014198
-0.034668
0.038757
0.034393
0.005470
-0.033203
-0.008369
-0.052338
0.004154
0.014771
-0.026901
0.008003
-0.040680
0.027115
-0.025406
0.011841
0.024612
-0.040100
-0.014107
-0.044159
-0.000376
-0.007629
-0.027451
0.036865
0.019104
0.004051
0.023422
-0.011574
-0.035767
0.039124
-0.050385
0.033844
-0.022202
-0.002695
0.043762
-0.033539
0.046112
0.010841
-0.014389
-0.008919
0.000707
-0.022385
-0.002270
-0.005821
-0.026093
0.026978
-0.022980
0.015472
-0.008476
-0.050201
0.016739
0.018265
0.009346
-0.022171
0.023422
0.044128
0.001241
-0.021912
-0.029358
-0.017136
-0.043152
-0.011398
0.028915
-0.004421
0.015137
-0.016708
-0.026352
-0.001463
-0.007221
-0.005207
0.020126
-0.020981
0.010933
-0.013359
0.031219
0.009171
0.010307
0.000980
0.024353
0.006016
0.016174
0.032196
-0.008377
0.005177
-0.029449
-0.028717
-0.000824
0.006687
-0.020706
0.012550
-0.018936
0.027756
0.027481
0.007427
0.024597
-0.023727
-0.015778
0.022629
-0.009171
-0.033081
-0.003517
-0.035034
0.019455
0.024353
0.035400
-0.005444
0.009766
0.004253
0.015671
0.031738
0.022766
0.024307
-0.023285
-0.024368
0.006664
-0.017960
0.039154
0.016479
0.017181
0.029282
-0.018814
-0.033234
0.003693
0.011147
-0.020432
0.023880
0.022202
-0.009163
0.017395
0.015404
0.009323
0.029526
-0.040283
0.041870
-0.035980
-0.017288
0.009735
0.043060
0.022812
0.002426
0.037537
0.011276
0.035706
0.014664
-0.013451
0.009865
-0.020691
0.008560
-0.012299
0.023972
-0.028488
0.000003
0.044983
-0.011864
0.007435
0.047150
0.043335
-0.010956
0.021194
0.020340
-0.000801
0.021896
-0.011734
-0.026413
-0.037201
0.023514
-0.049133
-0.036621
0.016449
0.021286
-0.008522
0.031525
-0.042816
-0.029800
-0.003704
0.026291
-0.009941
0.001479
-0.027222
0.009148
0.011574
0.048920
-0.004353
-0.013359
-0.035828
0.020752
-0.027618
-0.004250
-0.019760
0.038391
0.028702
0.054932
0.022354
-0.010620
-0.021149
0.043823
-0.019577
-0.013931
-0.038116
0.032715
-0.041107
-0.022964
0.005547
0.016586
0.028656
0.014862
0.018677
-0.018051
-0.007729
0.014938
0.021057
-0.012070
-0.018936
-0.026321
0.046783
-0.008156
0.006729
0.014236
-0.003040
-0.013138
0.005375
0.003202
-0.027115
-0.002790
0.005867
0.007858
0.011269
-0.009262
-0.023483
0.005699
0.023346
0.015930
0.031158
-0.019714
-0.039825
0.019104
0.013519
0.019958
-0.016281
0.016754
0.009926
-0.000304
-0.009102
-0.013573
0.004971
0.036621
-0.023895
-0.015182
-0.014931
0.016006
0.013374
0.012772
0.025497
0.037445
-0.030472
-0.002159
0.010460
-0.027313
0.014206
-0.044037
-0.027191
0.023849
-0.019714
0.023239
-0.019348
0.005146
0.016342
0.011047
0.033417
0.032532
0.010750
0.016739
-0.005547
-0.009567
0.013779
-0.023071
0.010979
-0.016190
-0.041962
-0.027786
-0.016815
0.002541
-0.042023
-0.011490
-0.033142
-0.014374
0.038574
-0.016800
0.012016
-0.020920
0.036285
0.003998
-0.042725
-0.029205
0.013092
0.022522
0.019791
-0.012970
0.012207
-0.011559
-0.004993
-0.018677
0.011620
0.011253
-0.027695
0.025253
0.037811
-0.045715
0.011078
0.031677
0.025940
0.007835
-0.025589
0.022430
0.008675
0.034546
-0.008728
-0.017410
-0.001850
-0.036957
-0.021072
0.010994
-0.034668
-0.052704
0.004047
-0.010086
-0.014374
-0.019424
-0.024567
-0.044830
0.042664
-0.023544
-0.018311
0.014908
0.014488
-0.041504
0.010948
-0.006073
0.004833
-0.023895
-0.011337
-0.026382
0.011620
-0.011192
0.010696
-0.013779
-0.020035
-0.004196
0.031738
0.002947
0.010948
-0.017441
-0.009422
-0.036316
-0.052826
-0.001693
0.026764
0.016373
0.011169
-0.011665
-0.002283
0.009682
0.012413
0.017044
0.036346
0.016617
0.013313
0.019287
-0.032745
0.035431
-0.010689
0.001997
0.003408
-0.003393
-0.027710
0.041504
0.012665
0.000235
0.009239
0.011955
0.017990
-0.000204
0.009705
-0.027496
-0.031494
0.011505
0.007187
0.003979
0.015915
-0.004471
0.002897
-0.007671
0.026932
0.019058
-0.011269
0.019547
-0.015358
-0.008980
-0.000792
0.020554
-0.018097
0.023865
-0.043243
0.013405
-0.007629
-0.024246
-0.003351
0.018280
-0.028732
-0.019028
0.022644
0.027496
0.030014
-0.030472
0.036316
-0.036011
0.024277
0.022598
0.030960
0.021240
-0.014503
0.036652
0.020111
0.012436
0.018036
-0.007584
-0.025589
0.046265
0.000191
-0.028580
0.019928
-0.027359
-0.016052
0.001871
-0.034576
-0.021912
0.015297
0.010262
0.026520
-0.019012
-0.001235
-0.022827
-0.005680
0.039215
-0.013458
-0.023895
-0.031433
-0.020294
0.012001
-0.005535
-0.012871
0.029282
-0.028595
-0.018051
0.020737
-0.012230
0.010139
0.017258
-0.002163
-0.037201
0.008163
0.035187
-0.026428
0.027908
-0.010071
0.024231
0.009247
-0.031555
-0.008537
-0.020584
-0.013374
0.019455
-0.012039
0.012451
-0.014595
0.033447
0.021072
0.037659
0.019485
0.002293
-0.016388
0.026337
-0.025742
-0.016953
0.024536
-0.028961
-0.017120
0.033081
0.018005
0.031250
-0.008804
-0.025879
0.007557
0.018738
0.032471
-0.026611
0.028915
0.005238
-0.020538
0.034790
-0.022873
-0.019913
0.028854
0.029556
0.014305
0.022995
0.027695
0.007935
0.026901
0.013618
0.007221
-0.013634
0.016327
0.035309
-0.007015
-0.006893
-0.016739
-0.017807
0.020554
-0.003172
0.033752
0.005215
-0.036316
-0.022720
0.008804
0.025162
-0.012779
-0.011238
-0.032074
0.034546
-0.006622
0.034882
0.030411
0.027802
0.038971
0.002024
0.004719
-0.033051
0.028534
-0.022629
-0.026611
0.034241
0.019272
-0.017975
-0.029602
0.018326
0.005852
-0.013466
0.014725
-0.009766
0.018204
-0.024490
-0.011589
-0.009987
0.014198
0.032471
0.009178
0.040802
0.007942
-0.003271
0.038483
-0.008179
-0.028076
0.001209
0.029602
0.025787
0.001193
0.013710
0.028076
-0.009491
0.030609
-0.014915
0.018494
-0.036926
-0.004799
-0.007450
0.019440
0.012184
0.023346
-0.026932
0.020752
-0.043304
-0.019806
-0.006912
-0.030457
0.016251
-0.027084
0.015450
0.008644
0.008575
0.031982
-0.018341
0.033081
-0.003412
-0.003551
-0.020233
0.028687
0.038300
0.022049
0.014465
-0.013687
0.013184
-0.010574
0.010391
0.004616
-0.027115
-0.006626
0.012810
-0.035492
-0.010117
-0.000402
0.039246
-0.012573
0.012352
0.027130
0.004337
-0.022217
-0.004074
-0.028183
0.032684
0.009865
0.001855
0.019867
0.008034
0.024460
-0.018936
-0.029266
0.007336
-0.004604
-0.022003
-0.018646
0.028961
-0.025177
0.002281
-0.002935
-0.004906
-0.035034
-0.022186
0.015099
-0.016876
0.002851
0.036957
-0.006798
-0.023285
0.028381
0.005714
-0.012733
0.001424
-0.031433
0.022415
-0.024155
-0.023361
-0.019272
-0.023941
0.033600
0.018661
0.033783
-0.020706
0.023438
0.032227
-0.031342
0.012070
0.035889
-0.008926
0.008904
-0.006683
-0.030762
-0.002550
-0.027512
0.018524
0.014595
0.026489
-0.022141
-0.016663
0.024460
-0.006119
0.031464
0.011780
-0.029160
-0.024307
-0.023819
0.023926
0.006435
-0.027908
0.025864
0.004215
0.020554
0.013405
0.009048
0.016571
0.028519
-0.015274
0.032043
-0.002411
0.033569
-0.013138
0.013603
0.000481
0.020203
0.025177
-0.005909
0.025375
-0.025543
-0.004440
0.003693
0.030685
-0.010620
0.029755
-0.012238
-0.002268
-0.003305
0.030365
-0.033325
-0.011482
0.002352
0.016754
-0.002573
0.037231
0.031799
0.003998
-0.001974
0.016861
0.027817
0.022827
-0.019897
0.026123
0.020218
0.028687
0.011009
0.023209
-0.031494
0.002714
-0.024338
0.034454
0.025620
0.025375
0.001822
-0.019821
-0.025223
0.009941
-0.014343
-0.016785
0.034088
-0.020599
0.035828
-0.029587
0.016571
-0.006546
-0.013763
0.006508
-0.035980
-0.022446
-0.028854
-0.025009
0.011902
0.028656
0.023315
-0.035339
-0.017624
-0.004974
-0.012688
-0.007233
0.028656
0.025040
0.002275
-0.022034
0.016769
-0.026733
0.026031
-0.032196
-0.021210
0.018875
0.022003
-0.005463
-0.012978
-0.004478
0.026291
-0.022705
0.012589
-0.029053
-0.013756
0.011955
0.027527
-0.004536
0.009941
-0.017578
-0.014908
-0.005409
0.010109
-0.019073
0.013618
0.043945
0.007717
0.003971
-0.041809
0.028839
0.008713
-0.021362
0.015701
-0.023529
0.026047
0.034546
-0.053253
0.029266
-0.017410
0.009003
0.006023
-0.002647
-0.005844
0.027618
0.030258
0.028839
-0.027191
0.035583
0.017883
-0.004837
-0.024429
-0.011879
-0.013618
0.025925
0.025116
0.028244
-0.001870
0.001220
-0.008720
-0.006512
-0.035919
0.020523
0.007301
0.028854
-0.002230
-0.019623
0.012886
-0.009918
-0.017258
-0.006138
-0.027863
-0.007996
-0.025757
0.021942
-0.024567
0.004723
-0.007473
-0.013359
-0.024307
0.018784
-0.003704
0.017944
0.030563
0.024445
-0.001959
0.004047
0.017776
0.022171
0.008797
0.019104
0.033630
0.019440
-0.018951
0.009140
0.021362
0.021072
-0.000230
-0.034088
-0.001334
-0.019852
0.019623
0.010788
-0.002119
0.029556
-0.016541
-0.001546
0.017868
-0.013390
-0.026672
0.029816
-0.018127
-0.006302
-0.024948
0.019150
-0.012848
-0.030258
0.011246
-0.009720
-0.032166
0.009430
0.020218
-0.001738
-0.010841
0.014877
0.031036
-0.002195
-0.039490
-0.034363
0.008636
-0.018158
-0.023621
-0.009567
0.007744
0.006592
0.003572
0.018387
0.014153
-0.003963
0.018539
-0.002459
0.015808
0.032196
-0.015915
0.003042
0.041046
0.028336
-0.018326
-0.005058
-0.032043
0.043091
-0.020447
0.036987
0.030777
0.038391
0.028885
0.022842
0.032135
-0.014099
0.016968
-0.003345
-0.005024
0.008850
-0.009766
-0.034821
-0.022491
0.026947
0.030472
-0.019104
-0.032471
0.028381
0.030136
0.030090
0.020645
0.032440
-0.017349
-0.015450
0.011047
-0.029968
0.001486
0.015564
-0.020920
-0.007355
-0.031250
0.027710
-0.025711
0.035950
-0.037415
-0.010719
0.002396
-0.033203
0.037048
0.005718
0.006294
0.010292
0.015495
-0.038391
-0.027649
-0.005379
0.007881
-0.001019
0.045227
-0.033020
-0.034821
0.014572
0.004364
0.038330
-0.024200
-0.014267
0.012390
0.031403
-0.036926
-0.027710
0.016113
-0.027252
0.013374
0.001110
-0.024048
0.008408
0.007645
-0.015129
-0.030853
-0.029938
0.025375
-0.046631
0.022171
0.000566
0.028015
-0.025421
0.043121
-0.019791
-0.036743
-0.028580
0.008377
-0.006519
0.012138
0.032166
0.016602
0.036865
-0.009850
0.014656
-0.036133
0.036438
0.029404
-0.001321
0.028427
0.030396
-0.008545
0.027267
0.024185
-0.002296
-0.027817
0.028580
-0.016663
0.025131
-0.011047
0.012054
-0.031128
0.014549
-0.009285
-0.059326
0.016510
0.020538
-0.009941
-0.024780
-0.004120
-0.005604
-0.019211
0.014900
0.026413
-0.028702
-0.002991
-0.020187
0.017776
-0.005497
0.017197
-0.005161
-0.008751
-0.048279
0.015030
-0.033691
-0.032288
0.003862
-0.014557
0.018158
-0.038696
-0.005962
0.025009
-0.016876
0.032562
0.016953
0.004185
-0.004353
0.013184
0.004166
0.031677
0.003544
0.049805
0.034485
0.021484
-0.008202
0.012383
-0.020172
-0.027283
0.028290
-0.007919
-0.027878
-0.019638
-0.019913
0.000150
-0.002417
0.031647
-0.048401
-0.030167
0.031952
0.034241
0.033142
-0.018005
-0.014328
-0.033966
0.021118
0.031677
0.002064
0.041046
0.030975
-0.010033
0.005108
0.040466
0.035980
-0.011093
-0.013535
-0.018738
-0.044556
-0.013863
-0.023239
-0.038422
-0.006184
0.023987
0.010658
0.040924
0.001266
-0.047302
-0.011261
-0.048523
-0.034393
-0.010132
0.004398
-0.008942
-0.019531
0.038208
0.016083
-0.025894
-0.009964
0.010872
-0.000659
-0.003139
0.031677
0.002012
0.011642
0.017624
-0.012222
0.003656
-0.015305
-0.018677
-0.019272
-0.040344
0.026611
-0.004143
-0.015823
0.020996
-0.021851
0.009109
0.011238
0.027695
0.008186
-0.016373
0.030380
0.025650
-0.037506
-0.003630
0.017624
-0.004940
0.002213
-0.034821
0.018982
0.035339
-0.028244
-0.002287
0.019333
0.003883
-0.027924
-0.030518
-0.031342
-0.022659
0.007175
0.023010
0.014549
0.031219
0.036499
0.007656
-0.006493
0.032928
-0.023804
-0.029297
0.011894
-0.012070
-0.033997
-0.017105
0.025589
-0.010620
0.034821
0.020691
-0.014252
0.018707
0.002558
-0.009705
-0.000214
-0.007423
0.031021
-0.004894
-0.031525
-0.024216
-0.020432
-0.012810
0.011475
0.033325
0.015717
0.028748
0.024734
-0.003090
0.046021
0.008614
-0.008522
0.005840
0.030273
0.004669
0.019211
0.020172
-0.008270
0.007336
0.017929
0.019958
-0.023270
0.006073
-0.018204
-0.038330
0.001168
-0.020355
-0.025558
0.021622
-0.009789
-0.013687
0.007401
-0.017105
-0.003298
0.020386
-0.041870
-0.025681
-0.033356
0.019989
-0.003944
-0.004303
0.024826
0.032257
-0.032074
-0.015717
-0.000453
-0.007843
-0.017151
0.010117
0.037140
0.020325
-0.024323
0.009346
-0.027771
-0.032593
0.005142
-0.038330
0.007645
0.008652
-0.037506
-0.042603
0.010986
-0.021744
0.014557
-0.003561
-0.014549
-0.009781
-0.006157
0.042511
-0.024017
0.005886
-0.002373
-0.008743
0.012611
-0.011490
-0.025497
-0.009148
-0.039764
0.032501
0.010742
0.010513
0.001143
-0.006760
-0.033478
0.012558
0.004494
0.002300
-0.029526
0.012268
-0.032532
-0.026108
0.023666
-0.018860
-0.025681
-0.024048
0.006248
-0.030640
0.017502
0.004162
-0.040924
0.015373
-0.003782
-0.028275
-0.022888
0.012085
-0.038391
-0.022964
0.007729
-0.010040
-0.021790
-0.020554
-0.031586
-0.023270
-0.032440
0.010864
-0.044739
-0.008575
-0.020798
-0.034698
-0.000816
0.011810
0.005726
0.022278
-0.055450
-0.002239
0.035065
0.001625
0.032745
-0.005371
-0.028320
-0.011879
-0.049927
-0.016754
0.028122
0.006969
0.003548
-0.025391
-0.011826
-0.000982
-0.022598
-0.032135
-0.019119
-0.022491
-0.018906
-0.046478
0.007973
0.002537
-0.023209
-0.006546
-0.003937
0.027969
0.027557
0.008980
-0.015404
0.010437
0.017181
0.010147
-0.004913
0.015549
-0.031219
-0.028641
0.049133
-0.010788
0.039917
-0.042114
0.021332
0.036224
-0.011871
-0.019882
-0.019592
-0.047913
-0.014816
-0.013573
-0.014282
0.032379
0.018433
-0.019302
-0.023911
-0.016159
-0.028351
0.041748
0.007896
0.025330
0.033600
0.005478
-0.033813
0.022217
0.005405
0.016891
-0.009293
-0.021255
-0.003975
0.001900
0.010109
0.015976
-0.036957
0.013260
0.004215
0.001886
-0.031677
0.014091
-0.031891
-0.031464
-0.007935
0.006653
-0.021545
-0.023926
0.013359
0.023712
-0.019241
-0.004036
0.007259
-0.025421
0.019440
0.007782
0.039642
-0.029495
0.003345
0.003498
-0.026855
-0.012192
-0.006550
-0.030762
0.035339
-0.027496
0.001573
0.029449
0.002235
0.016251
0.039490
-0.039062
-0.013817
-0.047699
-0.002768
0.034943
-0.012520
-0.035919
0.037567
0.026489
0.002525
-0.019684
-0.035980
-0.024765
-0.004951
-0.022507
-0.018372
0.018829
0.022842
0.040619
-0.029907
-0.021423
-0.023178
-0.046814
-0.020767
-0.023834
0.000941
-0.005550
0.017593
-0.003494
-0.004482
0.018829
-0.040497
-0.033936
0.009621
0.005554
-0.031769
0.022003
0.020279
-0.012291
0.016495
-0.027069
-0.008179
0.018585
0.032196
-0.012398
0.021759
0.003756
-0.038452
0.035431
-0.032043
0.009575
0.007229
-0.005806
-0.027390
0.032410
-0.018372
-0.012733
-0.006157
0.021393
-0.018173
-0.018707
0.000880
0.043884
-0.000792
-0.016907
-0.008423
-0.015022
-0.035278
0.035492
-0.016937
0.022491
-0.029236
0.007381
-0.002129
0.032288
0.004662
-0.016861
-0.001628
-0.008652
-0.031525
0.006538
-0.006119
-0.016235
-0.029327
0.033630
-0.026443
-0.032776
-0.028687
0.027725
0.021133
-0.013596
-0.012169
-0.011490
-0.028397
0.031204
0.003340
-0.016647
0.003248
0.029694
0.020340
-0.000019
-0.032288
-0.019577
0.022018
-0.004330
0.004391
0.000440
0.034729
-0.034943
0.021347
0.030716
-0.024811
0.027145
-0.007114
0.018997
-0.001073
-0.010620
-0.027588
0.035828
-0.000458
-0.015526
-0.022324
-0.027420
0.024796
0.031677
-0.029297
-0.006573
0.030792
-0.002563
0.029205
-0.026520
0.018875
-0.005032
-0.008232
0.035736
-0.017899
-0.019562
-0.007446
-0.014748
0.013092
0.032349
0.019104
0.010231
-0.010490
-0.017288
0.017166
0.010780
0.012794
0.010780
-0.001466
-0.025101
0.000934
0.032928
0.024338
-0.021301
-0.040466
0.023575
-0.027054
-0.029663
0.006092
-0.001945
0.026794
0.026855
0.009796
-0.004021
-0.012077
-0.014908
-0.023987
0.030869
0.045502
-0.013443
-0.024689
0.042145
-0.003042
-0.021713
0.035461
-0.027405
-0.021652
0.016846
-0.011604
0.018631
-0.027954
0.020599
-0.028549
0.008041
0.025589
0.006134
-0.007519
0.014122
0.028091
-0.005062
-0.031525
0.004887
0.010445
-0.014473
-0.021271
-0.028275
0.026596
0.026581
-0.031250
-0.009781
0.033752
-0.017532
0.006420
0.020645
0.005398
-0.016968
-0.018982
-0.023285
-0.009239
-0.010674
0.030945
0.012764
0.009056
0.020737
0.006161
-0.018143
-0.034485
-0.035095
-0.003128
0.003441
0.016174
0.023956
-0.013023
0.017365
-0.023193
-0.023621
-0.034027
-0.022751
0.032104
-0.024887
-0.002533
-0.010292
-0.004002
0.017868
0.024536
-0.058411
-0.010185
-0.019821
0.003145
-0.015526
-0.023941
0.007843
-0.010040
-0.053436
-0.014473
-0.023163
0.031235
-0.014091
-0.029312
-0.001113
0.043304
0.012527
0.039978
-0.006901
-0.002760
0.044891
-0.005001
0.002478
0.032990
-0.013817
0.021317
0.021988
0.009750
-0.024216
0.001027
0.034027
-0.000455
0.010185
-0.008202
-0.020477
0.008110
0.021362
0.039307
-0.011673
0.016541
-0.012886
-0.012512
-0.001731
0.015930
-0.012199
-0.019226
0.017044
-0.040405
0.016510
-0.010056
0.021637
0.047241
-0.012863
0.033630
0.028412
0.034058
0.026749
-0.005165
0.048828
0.004360
0.033112
0.016418
0.023483
-0.036163
0.000430
-0.013611
-0.001266
-0.017349
-0.036163
0.011917
0.015358
-0.030151
-0.018417
-0.006630
0.008957
0.030167
-0.008369
0.040161
-0.005798
-0.049622
0.040955
-0.030914
-0.009239
-0.030472
-0.005299
0.017441
0.006054
0.011879
0.012024
-0.010597
0.011429
-0.035828
-0.040039
0.007122
-0.044098
-0.016144
-0.000242
-0.001662
0.002405
-0.039703
0.031158
-0.024597
0.007595
0.028732
-0.023163
0.016663
-0.036377
0.038239
-0.029846
-0.017120
-0.036804
-0.034729
-0.055481
-0.044922
-0.009254
-0.017914
0.016541
-0.004688
-0.043030
0.040680
0.037842
-0.009781
-0.025848
0.020721
-0.001193
-0.005238
-0.006592
-0.042023
0.000335
0.004398
0.005344
-0.033234
0.026505
0.015686
-0.006630
-0.020172
-0.017487
-0.013588
-0.043243
0.000073
0.032471
-0.038849
-0.030624
0.018204
0.012032
0.013985
-0.024155
-0.005535
-0.035767
0.036438
-0.015411
-0.056671
-0.026810
0.012428
0.010002
0.013924
-0.018784
-0.050018
0.001121
0.021103
-0.006405
0.009636
-0.007290
-0.054962
-0.000601
-0.015045
0.000027
0.002792
-0.007111
0.008461
0.033081
0.004314
-0.026581
-0.018188
0.004665
-0.035370
0.038055
-0.020630
-0.033264
-0.052734
-0.020813
0.004101
-0.016510
-0.026520
-0.001002
-0.016113
-0.040802
-0.034943
-0.041412
-0.024734
-0.013916
-0.026062
-0.035431
-0.029282
-0.038422
-0.035461
0.026779
0.042755
-0.040131
0.028839
-0.017746
0.051025
-0.034302
0.038177
-0.040741
0.045471
0.004864
0.022644
0.005135
0.009155
-0.006332
-0.009537
0.022644
0.004902
-0.012260
-0.004929
-0.020889
-0.008377
0.003752
-0.019608
0.015022
-0.016373
-0.010742
0.012207
-0.001749
0.008362
-0.012756
-0.005913
-0.014603
-0.001299
0.001523
0.015900
0.011749
-0.051575
-0.001484
0.022125
0.013550
-0.043793
0.011673
0.015083
-0.039948
0.001454
0.016464
-0.014862
0.026154
-0.004608
-0.003252
0.076111
0.020004
0.025406
0.012611
0.018845
-0.018188
-0.031921
-0.053864
0.005817
-0.028976
0.040344
0.006790
-0.034027
-0.021179
0.032532
0.006744
0.028442
-0.002235
0.017685
0.002087
0.041504
0.019455
-0.003590
0.052795
0.050049
-0.023422
0.016617
0.008629
-0.001060
0.013885
-0.007572
-0.003723
-0.004448
0.024948
-0.007290
0.044342
-0.021423
0.036804
-0.018906
0.028595
0.004475
0.004520
0.028168
-0.028687
0.055267
-0.002062
0.003803
-0.025604
-0.031555
0.024261
0.050812
-0.025757
0.014885
-0.021301
-0.037079
0.036469
0.011543
0.004391
0.012749
0.040833
0.019714
0.047791
0.042572
0.041687
-0.066040
-0.036865
0.011551
0.035492
-0.016205
-0.018265
-0.031250
0.040436
0.020752
0.017044
-0.034271
0.001882
0.030930
0.015762
0.020813
-0.027573
0.011391
-0.003611
-0.007980
0.025848
-0.021317
0.036499
0.050171
-0.031830
-0.023529
0.054688
0.033936
0.012817
-0.008453
-0.048737
-0.046417
0.004608
-0.002777
0.027771
-0.034241
0.013123
-0.072144
-0.020493
0.056702
0.007130
-0.010567
0.002005
-0.007011
-0.038513
0.032379
-0.023743
-0.012184
-0.033630
0.019867
0.013290
0.027222
-0.027618
0.024139
0.033417
-0.023712
0.016068
0.006496
-0.019211
-0.022186
-0.030258
-0.026566
-0.006863
0.017227
-0.010475
0.035461
-0.017090
0.024506
-0.029358
0.032593
-0.029755
-0.014816
0.012619
-0.021362
0.032684
0.017807
-0.001965
-0.009308
-0.014946
-0.016296
0.024597
0.023163
-0.025726
0.008545
-0.028687
0.005482
0.020126
0.029434
-0.003986
0.033997
-0.028000
0.032623
0.018036
-0.007565
0.020187
-0.013657
-0.029678
-0.002140
0.011887
0.005810
0.000448
0.037537
-0.029800
-0.036774
0.009796
-0.025711
-0.027878
-0.032013
0.010803
-0.000427
0.002300
0.033508
-0.044556
-0.028946
-0.001595
0.012566
0.031250
-0.027847
0.007511
-0.011993
-0.032745
-0.030212
-0.015808
-0.000347
0.023056
-0.007023
0.006958
0.030167
-0.001277
0.031235
-0.000176
0.004135
-0.023315
0.020126
-0.000480
0.028046
0.017563
0.013298
-0.017990
-0.027618
-0.000330
0.022003
0.027496
0.011742
0.026825
0.004440
0.028473
-0.025009
0.025574
-0.008522
0.029678
0.017029
-0.020767
-0.000620
0.010895
-0.026001
0.022873
-0.036194
0.022995
-0.006756
-0.026428
-0.020752
-0.012894
-0.002516
-0.030289
-0.020813
0.027390
0.023117
0.029175
0.007973
-0.037384
-0.019608
-0.035309
-0.007988
0.034027
-0.015762
0.006084
0.032227
0.034088
-0.031799
-0.006763
-0.015541
-0.027054
-0.020676
0.002762
0.000146
-0.042969
0.031128
0.022156
0.011398
-0.004711
0.000049
0.005760
0.006599
-0.002256
0.001472
0.035645
0.009216
0.032715
0.006733
-0.015762
-0.033875
-0.030380
0.016113
0.002726
0.023926
-0.009224
0.018082
0.009224
-0.013573
-0.020386
0.043671
-0.013184
-0.035217
0.002327
-0.043976
-0.011200
0.005634
0.015602
0.015190
-0.002874
0.008713
-0.021973
-0.028259
-0.012383
0.028564
0.023224
-0.016815
-0.027435
0.003941
0.027237
0.028152
-0.033630
-0.034058
0.039673
0.011124
0.015083
0.009911
0.020416
-0.018188
-0.043030
-0.010468
-0.019836
-0.036407
0.001129
-0.014473
0.032227
-0.021164
-0.044250
-0.013878
0.027603
-0.017822
0.035339
-0.007957
0.022995
-0.023041
-0.017059
0.020752
-0.004604
0.023529
-0.004589
0.015854
-0.018723
0.032501
-0.006592
-0.008766
-0.029709
0.016861
0.011124
0.014244
0.022217
0.020950
-0.041626
0.035248
0.031204
0.011421
-0.004734
0.023254
0.005657
0.020981
-0.025436
0.027557
0.024445
-0.012810
0.013374
0.020111
-0.022156
-0.056335
0.019669
0.008644
0.026352
-0.041718
-0.010643
-0.016022
0.033661
0.018143
-0.040802
0.007225
-0.000823
0.004063
0.016998
0.015518
0.033295
0.021515
-0.025909
-0.021927
0.018402
0.012100
0.019516
-0.022049
0.010124
-0.035400
-0.050385
0.039429
0.062561
0.033752
-0.005619
-0.023773
0.029785
-0.074219
0.020615
-0.008499
-0.000362
-0.013893
-0.046753
-0.003016
-0.000036
0.023941
0.017349
-0.046600
-0.000769
0.030167
0.011681
0.017273
0.046356
0.004192
0.034393
0.051483
-0.020782
0.028229
0.024490
-0.012161
-0.017807
-0.010719
-0.052521
-0.064880
0.028183
-0.023956
0.007996
0.030579
-0.032806
-0.052155
0.047333
0.010864
0.000695
-0.038208
0.001612
-0.026337
-0.025681
0.055206
-0.006687
-0.013809
0.012489
0.021225
0.003471
0.003586
-0.011292
-0.025726
-0.019257
0.016251
-0.024841
-0.010605
0.015656
-0.001925
-0.037811
0.021027
-0.071350
0.034058
-0.027924
-0.058563
-0.004189
0.059845
0.049591
-0.050598
-0.043915
0.029953
0.034241
0.001948
-0.006279
0.003979
0.015839
0.073547
0.016235
-0.038239
0.039520
-0.006439
0.014069
0.019165
0.045929
-0.050385
0.007488
-0.065552
0.020020
0.004951
-0.035217
0.004154
-0.014275
-0.033752
-0.028152
-0.003571
-0.010551
-0.004375
0.025742
0.005466
0.043671
-0.036438
-0.004204
0.042145
-0.027649
-0.011223
-0.026062
-0.021439
-0.032074
-0.014374
0.039429
0.018478
0.005386
0.006783
-0.010010
-0.030716
0.042480
0.028366
0.027176
-0.023041
0.034271
0.035065
0.023331
-0.019577
-0.004803
-0.016205
-0.025894
0.010818
-0.021393
-0.005791
-0.012299
0.030807
0.012695
0.002584
0.014763
-0.008507
0.020386
-0.031067
0.006252
-0.027557
0.010620
-0.014900
-0.015144
-0.032898
0.028168
0.009018
0.020447
0.017441
0.016525
0.032837
0.014549
-0.016205
-0.027557
-0.004131
0.034149
0.023605
0.003252
-0.036804
0.030655
-0.001135
0.021683
0.013023
0.013214
-0.016129
0.009346
-0.014618
0.009026
0.037567
-0.035309
-0.023102
-0.017578
0.002289
-0.027847
-0.009735
-0.004547
-0.021866
0.023438
0.001631
-0.017059
0.007805
-0.020828
0.003550
0.012772
-0.030136
0.009842
-0.004169
0.034637
0.015656
-0.021164
0.032806
-0.018616
0.026840
-0.030441
0.020691
-0.025558
-0.024216
-0.000613
-0.026337
-0.036438
0.005432
0.007618
0.014717
0.003630
0.008896
-0.023056
0.038300
0.000180
0.029541
-0.022858
-0.012436
0.008827
-0.024246
-0.018723
0.033020
0.022507
-0.011330
0.017792
-0.031311
0.007057
-0.019836
-0.028625
0.029587
-0.018585
-0.019089
-0.011833
-0.032715
-0.004147
0.015121
0.000226
-0.007935
-0.007748
0.030350
0.027435
0.029510
0.017044
0.000303
-0.009277
0.024445
-0.045624
0.014099
-0.003275
0.022903
-0.016113
-0.011452
-0.009270
-0.030334
-0.000719
-0.003191
0.013908
0.020599
0.000816
0.007309
0.034912
0.019119
-0.009338
-0.002171
-0.016663
-0.015190
0.002583
0.001836
-0.036041
-0.009323
0.010834
-0.023483
-0.030746
-0.027130
0.033691
0.034180
0.014946
-0.009468
0.010216
0.004318
0.015327
0.016464
-0.000009
-0.017273
-0.018082
0.003487
0.029160
-0.027359
0.009651
-0.027573
-0.023941
0.021103
0.016266
-0.001481
0.012527
0.007889
-0.034393
0.006744
0.011040
-0.001087
0.020447
-0.020355
0.000082
-0.013153
0.006481
-0.000812
-0.021454
0.006786
0.003323
0.039581
-0.022064
-0.029755
0.016235
-0.025620
-0.002960
0.021210
0.029099
0.031250
-0.008675
0.012978
0.006065
-0.001560
0.040955
0.013786
0.007637
-0.025131
-0.065063
-0.034790
0.010689
0.022675
-0.027054
-0.002243
0.015129
-0.033203
0.028732
0.016998
0.029587
0.013428
0.030258
-0.004230
-0.008789
0.039246
-0.029938
0.014496
-0.023026
0.028366
-0.029739
-0.016479
-0.017456
-0.003426
-0.029068
-0.030823
0.010216
-0.007362
-0.020432
0.035217
0.033478
0.024521
0.006241
-0.012108
0.040924
-0.031342
0.026230
0.012131
-0.018143
-0.046448
0.027802
0.002348
0.025192
-0.031921
0.027725
-0.023972
-0.004974
0.023499
0.012001
-0.007114
0.014946
0.013496
0.006985
-0.003222
-0.020065
0.026001
0.002134
0.022125
-0.001791
0.020355
-0.020020
-0.005363
0.013527
0.001980
0.007126
-0.006428
-0.008789
-0.018555
0.031982
0.008156
0.031738
0.002337
-0.031464
-0.022171
-0.033356
0.029129
0.015495
0.005981
0.036194
0.013237
-0.025345
0.013107
0.024979
-0.001495
0.006851
-0.017548
-0.017563
0.006638
-0.019730
0.047089
-0.031281
-0.006413
0.009026
0.038635
-0.039551
-0.009117
0.019043
-0.012375
-0.026703
-0.009827
0.005310
-0.027267
-0.024200
-0.003601
-0.019608
0.022568
0.023087
0.028381
-0.009468
0.014214
-0.001306
0.046570
-0.047119
0.028137
0.008942
0.022659
0.006954
0.005615
-0.017426
0.029938
0.001886
-0.003735
0.014465
0.034576
0.015327
0.002628
0.018005
0.034210
-0.022720
0.012947
0.001963
-0.033600
0.012459
0.046906
0.006516
-0.008461
0.025116
0.051056
0.024673
0.042633
-0.006126
-0.032806
0.025314
0.008705
0.013260
-0.047546
-0.007912
0.032501
0.000368
-0.009384
0.014351
-0.031082
0.011513
-0.068115
0.031097
0.016449
0.010017
-0.023422
-0.029892
0.012703
-0.024094
-0.035004
-0.011948
-0.020447
0.004936
-0.036987
-0.003429
-0.011497
-0.051453
0.000078
0.003613
0.014412
-0.028595
0.014038
-0.025009
0.007481
0.034576
0.032898
0.034912
-0.010048
0.022873
-0.034576
0.028610
-0.006237
0.024689
-0.024124
-0.007874
-0.034180
-0.007015
-0.022278
-0.041595
0.006145
-0.009880
-0.001754
-0.045563
-0.009857
0.045929
0.009575
-0.001572
-0.028076
-0.034424
-0.013329
0.041656
-0.067566
0.008598
-0.019455
-0.017212
0.029266
0.035828
-0.061676
-0.039093
-0.048645
-0.001961
-0.022354
0.002808
0.026825
-0.008141
-0.001145
-0.015823
0.008812
-0.019150
-0.060059
-0.050568
0.007454
-0.045807
0.004730
-0.022507
-0.055725
-0.020782
-0.029800
-0.014732
0.015457
-0.020523
-0.028275
-0.002352
0.002546
-0.055054
0.009621
-0.055389
-0.004635
0.008095
-0.016937
0.016327
0.005211
-0.015976
-0.009834
-0.051147
0.002020
-0.031128
-0.030334
-0.044891
-0.051697
0.013924
-0.009857
-0.007809
0.026321
-0.040619
0.017303
0.005753
0.004234
0.006481
-0.001508
0.001791
-0.016602
-0.068970
0.021698
0.032959
0.004349
-0.049866
-0.036133
-0.010910
0.011833
0.003052
-0.017914
-0.033936
-0.015030
-0.059692
-0.017761
0.033203
0.040680
-0.049316
0.052185
-0.002625
0.007866
-0.015419
-0.001149
-0.019424
0.037384
-0.057159
0.006035
0.009750
0.015976
-0.024933
0.037292
0.035553
0.006100
0.015701
-0.036407
-0.031174
-0.050964
-0.016571
-0.009247
0.012390
-0.003462
-0.013954
-0.006207
-0.014656
0.001925
0.020874
-0.010071
0.039185
0.020447
0.005257
0.033417
0.021500
-0.015442
0.025314
-0.013397
0.012604
0.001926
0.004574
-0.045959
0.017181
-0.020996
0.023270
-0.000329
-0.034485
0.019592
-0.001281
0.027496
0.016098
-0.009506
0.041382
-0.019714
-0.025146
-0.012802
-0.035645
-0.022141
0.030884
0.023285
0.009659
-0.010674
-0.033722
-0.002758
-0.004940
0.004776
-0.002930
0.036377
-0.017715
-0.049408
0.012924
-0.016159
-0.013657
-0.028244
0.008598
0.014900
-0.039948
-0.017700
0.007114
0.005997
0.036377
-0.036499
0.028687
0.018097
0.040314
-0.038574
0.025909
-0.044037
0.004070
-0.005131
0.035339
0.018158
-0.034607
0.011803
-0.011467
-0.004860
-0.031677
0.005966
0.057953
-0.015366
0.056335
-0.000883
-0.021271
0.039246
0.000645
0.055206
0.003712
0.026321
-0.032196
0.035004
0.015518
-0.005070
-0.016006
0.015045
0.010521
-0.006886
0.009209
-0.005684
-0.023407
0.041534
0.011269
0.039368
-0.041046
0.009384
0.013229
-0.013351
-0.024765
0.035583
-0.023834
-0.000328
-0.003500
0.032806
-0.016113
0.009720
-0.019318
-0.017303
0.024338
0.056000
-0.011795
0.018051
0.007790
0.004578
-0.032257
-0.018051
-0.048126
0.025299
-0.029907
0.024353
-0.040649
-0.017838
0.033600
-0.030991
0.003990
-0.032562
-0.018829
-0.024017
0.024338
-0.045776
0.041962
0.043671
0.010818
-0.039703
-0.012039
0.006386
0.007267
-0.003292
0.022156
0.004707
-0.002449
0.005573
0.006912
-0.006058
0.026962
-0.020676
0.030182
0.000859
0.011909
0.022690
-0.001880
-0.024719
-0.004185
-0.005154
0.004646
-0.001393
0.019745
-0.024277
0.018845
-0.011086
0.046387
-0.040680
0.008392
-0.012260
-0.035706
-0.009659
0.029007
0.023880
0.029495
-0.010178
-0.031464
-0.022156
-0.006832
-0.010139
0.054474
-0.012894
0.021423
-0.061371
0.036285
-0.014114
0.013046
0.002201
0.000742
0.028641
-0.029724
0.015419
-0.026825
-0.021423
0.015381
-0.035156
-0.027359
-0.015480
-0.023239
0.024734
0.012962
0.019928
0.003849
-0.045135
0.015121
0.015419
0.026535
-0.000234
0.024521
0.041473
-0.030045
-0.008514
0.023804
-0.016373
0.016373
-0.028412
0.025635
0.001020
-0.030594
0.000854
-0.017258
-0.033844
-0.017822
0.007622
-0.024551
-0.034027
0.015602
-0.010338
-0.011284
-0.035736
0.012749
0.047302
-0.013977
-0.001457
0.008774
0.012428
-0.044373
-0.014984
-0.003601
-0.031433
0.035065
0.027908
0.020554
-0.003597
0.027710
0.029266
0.004040
0.008659
0.035797
-0.023193
0.033661
-0.015869
-0.032959
-0.004131
-0.024918
0.012558
-0.021301
-0.029831
0.015556
0.041443
0.004963
0.024658
-0.048889
-0.017990
-0.024704
-0.045654
-0.007599
-0.045227
-0.043549
0.013657
0.011703
0.032837
0.015411
0.040741
-0.042664
-0.003279
0.016891
0.016388
-0.011627
-0.013657
-0.020630
-0.015594
0.020828
-0.036530
-0.004707
-0.037598
-0.001424
-0.008514
0.002853
-0.009445
0.002022
0.029449
0.017197
-0.016525
0.020294
0.002541
-0.016235
-0.011154
-0.033569
-0.013252
-0.049530
0.017593
0.025360
-0.012535
-0.037445
0.006542
-0.040405
0.024994
0.036255
-0.010979
-0.017181
-0.031799
-0.003094
-0.012238
-0.010742
0.045715
-0.002628
0.002567
-0.011337
0.018921
0.008842
0.043762
-0.021408
0.005939
-0.037262
-0.020462
-0.004761
0.043701
-0.023346
0.007015
0.028702
-0.005177
-0.005760
0.038147
0.036133
-0.008720
0.028992
-0.011635
-0.097046
-0.020844
0.028915
0.006489
0.018951
0.003597
0.022141
-0.015327
0.010460
0.015083
-0.006683
-0.006908
0.015869
-0.010521
0.030029
0.037842
-0.013474
0.026321
-0.027084
0.021332
0.005825
0.028473
-0.011932
-0.058807
-0.020752
-0.029099
-0.007565
-0.036072
-0.003796
0.012253
0.018448
-0.034576
-0.046539
-0.008232
-0.016144
0.012711
0.051788
-0.030685
0.030945
0.026230
0.025467
0.003460
0.045288
0.014290
0.043335
0.041687
-0.041504
0.003725
0.002390
0.022614
-0.012383
-0.013069
0.026230
-0.022964
-0.043671
-0.018417
-0.026443
0.024246
0.025787
-0.009781
-0.006077
0.009758
-0.031235
0.024124
0.024338
-0.010376
0.038666
-0.010406
-0.022766
-0.013252
0.037445
-0.012604
-0.007198
0.030334
-0.053558
0.022171
-0.027435
-0.028992
-0.016968
0.025604
0.011742
-0.003710
0.023544
0.028183
0.025528
-0.012199
-0.009232
0.018967
0.004864
0.003607
-0.016449
-0.010216
-0.028458
-0.020508
-0.027817
0.030655
0.033661
0.033417
0.002234
0.036377
0.014114
0.008980
-0.001018
0.015305
-0.059814
0.010208
-0.024445
0.001288
0.024506
0.000432
0.012390
-0.017807
0.008469
0.020950
0.030502
0.034882
0.015190
0.018097
-0.014229
0.010574
0.014832
-0.026215
-0.023636
-0.005684
-0.007027
-0.011749
0.007996
0.023193
-0.009460
-0.034851
0.033569
0.000052
0.014748
0.011581
-0.004345
-0.019806
-0.025146
-0.041168
0.004406
-0.017639
0.009216
0.004757
0.019547
0.039093
-0.032928
-0.000878
-0.006607
0.013893
-0.007252
-0.020264
0.010864
-0.002676
0.016998
-0.004112
0.021973
0.020767
-0.006256
-0.032440
0.032257
0.014786
0.008377
-0.032227
0.040771
0.009171
0.014359
0.031525
-0.033752
-0.028061
0.002644
-0.031403
0.014221
0.027618
0.003105
0.029465
-0.041748
0.029953
0.000746
0.023590
-0.000035
0.021515
0.029190
-0.029449
-0.016953
-0.015762
-0.019882
-0.024567
-0.013855
0.013367
0.032837
0.001771
0.024445
0.000037
-0.034241
0.015251
-0.022064
-0.011719
0.021179
-0.006260
-0.030045
0.005898
0.021347
-0.032104
-0.029663
0.012360
-0.034332
-0.000646
-0.028519
-0.032196
-0.007065
-0.016312
-0.013069
-0.008865
0.037628
0.025574
-0.032318
-0.031082
-0.008263
-0.013359
-0.017517
-0.036591
-0.018372
0.027206
0.009392
0.028473
0.025986
0.030106
0.005981
-0.035706
-0.021057
-0.010651
-0.004982
-0.027435
-0.031616
0.012573
0.024139
-0.016632
0.018753
0.007271
0.006378
-0.003094
0.022675
0.004414
0.017990
-0.002947
0.013519
-0.019104
0.005062
-0.009735
-0.015053
0.009636
-0.023376
0.031189
0.021484
0.023575
0.018799
-0.030640
0.021729
0.015854
-0.008064
-0.018723
-0.016556
0.014572
0.010132
-0.019150
-0.025101
0.032806
0.021347
-0.015297
0.024750
0.007694
0.024155
0.038239
0.023300
-0.025055
0.011650
0.001136
0.000580
0.015602
0.032745
0.028397
0.007595
-0.036102
-0.031677
0.011528
-0.000331
0.000478
-0.007599
-0.020264
0.031830
-0.036224
0.001363
-0.009666
0.037262
0.001524
-0.004086
-0.009071
-0.007828
-0.002699
-0.023636
0.019821
0.009285
0.017120
0.028397
0.001825
-0.016586
0.005493
0.016556
0.026886
-0.018814
0.007919
-0.020065
0.019424
-0.002747
0.014702
-0.015915
-0.032684
0.020645
0.000611
0.000575
-0.008171
-0.005970
0.015335
0.029343
-0.023758
0.006924
-0.017319
0.009399
0.000759
0.028305
0.012306
-0.005001
0.043121
-0.005489
0.003502
-0.015373
-0.030914
-0.000111
0.008194
-0.026367
-0.017868
-0.017273
0.023834
0.016083
0.010406
0.029510
-0.026016
0.033020
-0.034943
-0.032990
0.013252
-0.014442
0.014473
-0.012573
-0.013084
-0.006676
-0.000870
-0.032471
-0.023041
0.021423
0.038361
0.004532
0.001793
0.013611
-0.032379
-0.012321
-0.026794
0.004646
-0.003521
0.003515
-0.026810
-0.032562
0.003403
-0.000214
-0.008827
-0.007339
0.025085
-0.031891
0.037750
0.020233
-0.025238
-0.012917
-0.014824
-0.007076
-0.013443
0.045929
0.027908
0.014099
-0.020660
-0.019379
-0.009804
-0.012466
-0.016632
0.018524
0.028580
0.011612
0.031738
0.030899
-0.022644
0.025604
-0.028625
0.023117
0.034546
-0.038940
-0.001850
-0.020676
-0.010834
-0.026566
0.023865
-0.015045
0.022064
0.034637
-0.012863
-0.011475
0.002432
-0.020538
-0.000472
-0.019196
0.027130
0.000045
-0.028915
0.031281
0.019821
-0.028793
0.019882
-0.004055
-0.032471
0.016434
-0.005150
-0.022171
0.018219
-0.013893
0.018646
0.015686
-0.020645
0.030624
-0.015244
0.036530
0.019150
-0.033539
0.038025
-0.003960
0.020660
-0.025726
0.005352
-0.026566
0.012794
0.019836
0.015656
0.022919
0.007076
-0.005436
-0.009567
-0.024734
0.000003
0.000742
0.010033
0.026321
0.017593
-0.063599
-0.006432
0.021393
0.029907
-0.049316
-0.015182
0.019897
-0.015503
0.020248
0.045593
-0.010712
0.032898
0.010284
0.032410
0.047546
0.008705
0.017303
0.007919
0.033508
0.028717
0.037811
0.049194
-0.004543
0.039703
-0.030197
0.032379
-0.031021
0.012459
-0.006638
0.043304
0.004944
0.047058
0.044983
-0.010513
0.005333
0.010933
0.013649
-0.007401
-0.031891
0.001523
0.013252
0.018494
0.019043
0.022552
0.037781
-0.033966
0.046814
0.025284
-0.027756
-0.003902
-0.026627
-0.036133
0.018555
-0.044647
0.000651
0.037872
-0.013008
-0.019684
0.005562
-0.038757
-0.009178
-0.006672
0.001649
0.036652
-0.022964
0.043762
0.001385
0.019592
0.053375
0.013893
-0.014366
-0.029999
0.033081
0.039856
0.018188
0.002087
-0.032501
-0.047516
0.005272
0.029053
0.010841
0.008980
0.037781
0.004524
0.029938
0.014343
0.033417
-0.019333
0.023575
-0.017838
0.020996
-0.032928
-0.030838
0.027313
0.024368
0.003571
-0.007805
0.002075
0.011345
-0.018158
0.009956
0.044434
-0.010071
0.025482
0.041748
-0.001881
0.019730
0.009621
-0.024368
-0.030899
0.014748
0.019043
-0.005440
0.001803
0.018051
0.008423
-0.013763
-0.021118
0.024261
-0.014000
-0.016098
0.036835
-0.038177
-0.007660
0.000222
0.010262
0.024658
0.000475
0.012749
-0.013741
0.006943
0.034149
0.008820
0.034668
-0.006142
-0.017334
0.002560
0.026291
-0.006649
-0.014748
0.034607
0.023666
-0.004139
0.019760
-0.027756
0.022888
0.042236
0.023758
0.010490
0.012756
0.033173
-0.023529
-0.036102
-0.021133
0.015854
0.009834
0.032776
0.006199
-0.044373
0.029709
-0.016769
-0.026001
-0.008316
0.033752
0.033173
0.001500
0.031433
0.016052
0.014336
0.030228
0.027374
0.013374
0.037628
-0.002296
-0.027161
-0.012016
0.031860
0.010414
0.021698
-0.011185
-0.003304
-0.001792
-0.021469
-0.007866
-0.011169
0.039093
-0.017120
0.024902
0.007896
-0.022629
-0.001659
-0.017670
-0.019241
0.037781
-0.024002
-0.009644
-0.012817
0.006264
0.031342
-0.027023
0.020767
0.027023
-0.013962
-0.027451
-0.014519
0.022675
-0.024170
0.004356
0.036438
0.023621
0.031433
-0.009254
-0.033356
0.027756
-0.018600
0.011894
-0.010490
-0.033844
0.008377
-0.013641
0.021179
-0.008575
0.015366
0.010887
-0.025848
0.012993
0.041107
-0.028275
-0.025711
0.024765
0.003120
0.025131
0.042633
0.001480
-0.022095
-0.022797
-0.006069
0.006516
-0.026382
0.025055
-0.039795
0.017303
-0.010445
0.035614
-0.008888
-0.018509
0.026154
-0.017349
-0.008057
0.008385
0.020798
-0.013031
-0.034790
0.016602
-0.049286
-0.000517
-0.010590
0.007957
0.027130
-0.003956
0.001633
0.025177
0.006958
0.015343
0.007664
-0.020981
-0.015991
-0.046997
0.013138
-0.025909
0.026093
0.008675
0.032623
0.021057
0.018951
-0.031372
-0.028000
0.009369
-0.015945
-0.048950
-0.018341
-0.029800
-0.022232
-0.003223
-0.009857
0.022171
0.006687
-0.025803
-0.006447
-0.011795
-0.016342
0.028519
0.016022
0.007469
0.020020
0.013931
0.039368
-0.020004
-0.003233
-0.038818
-0.042480
0.007282
-0.007687
-0.020782
0.003994
-0.034851
-0.016953
0.019424
-0.026169
-0.019608
-0.021698
-0.023178
-0.012886
-0.013565
0.032990
0.005943
0.023575
-0.012466
0.012482
0.028870
-0.021759
0.003067
-0.060730
-0.000997
-0.024231
0.002300
-0.012871
-0.017426
-0.029205
0.005604
0.001844
0.008560
0.047180
0.010086
-0.002207
-0.015099
0.017853
-0.019409
-0.000023
-0.020386
0.011658
-0.024918
-0.037079
0.023071
-0.047089
-0.024963
-0.037933
-0.010696
-0.016479
0.009521
0.034332
0.007187
0.012512
-0.035034
-0.013718
0.025665
-0.007378
-0.008224
-0.016891
0.042145
0.000880
0.002041
0.033997
-0.013718
0.013283
0.038452
-0.009590
-0.011627
-0.018692
-0.003513
0.007030
-0.011864
0.030869
0.013878
0.011284
-0.003254
0.029007
0.027649
0.023163
-0.008446
-0.012840
0.024414
0.031464
-0.008835
-0.017548
-0.019363
-0.010017
0.024643
-0.035187
-0.018509
0.024399
0.030258
-0.014648
-0.015671
0.003038
0.004017
-0.020645
0.031250
0.013802
-0.030228
-0.004128
-0.031189
0.033600
-0.012909
-0.017273
-0.021698
-0.014389
0.017654
0.029785
0.005543
0.019394
-0.011955
-0.008575
-0.024323
0.021362
-0.022614
0.036987
-0.006985
0.003424
0.013664
0.020203
-0.022354
-0.024109
0.017624
-0.007046
0.007450
0.008240
0.001425
0.025421
-0.021652
0.037750
0.014664
0.017395
0.006687
-0.024170
-0.010406
-0.032074
-0.034607
0.019180
0.011604
0.012901
-0.024841
-0.015053
0.020569
-0.034393
-0.019028
0.017120
0.034363
0.035004
-0.018799
0.013756
0.021896
0.012573
-0.021408
-0.001186
-0.011353
0.027267
-0.006107
0.028809
-0.032074
-0.027878
-0.023697
0.022324
-0.001904
-0.024460
-0.012535
0.035797
-0.009842
0.016190
-0.026596
0.011108
-0.021027
-0.004128
-0.015747
0.013725
-0.016495
0.002901
0.038910
-0.007072
0.003025
0.036407
0.007236
0.024841
-0.023880
-0.022690
-0.012833
0.016006
-0.009583
-0.018204
0.031372
0.011505
0.021103
-0.034973
-0.009300
0.029053
-0.018967
0.023483
-0.025970
-0.002810
0.010246
0.026215
0.017197
0.019135
0.005329
-0.003389
0.008827
0.019989
0.000492
-0.003864
-0.026855
-0.004387
-0.000979
-0.010315
0.002489
0.026413
-0.004490
0.015366
-0.029861
0.022278
-0.034882
0.016068
-0.012733
-0.009254
0.005596
-0.023727
-0.021912
-0.017517
0.005726
-0.004505
-0.029404
-0.023254
-0.021286
-0.005554
0.006119
0.017654
0.018799
0.010216
0.017761
-0.011093
-0.033630
-0.017532
0.014313
-0.029572
0.012016
-0.019241
0.025848
-0.025299
0.040039
0.004196
-0.011200
0.020554
-0.007919
-0.005257
-0.001122
0.026276
-0.007652
0.019531
0.025894
0.010025
0.003189
-0.022141
0.008240
-0.020218
0.016281
-0.015762
-0.017456
0.016922
-0.013672
-0.017242
0.016296
0.019333
0.035156
-0.009148
-0.013817
0.032318
-0.011276
-0.023911
-0.034454
-0.031952
0.010345
0.021622
-0.006664
0.031174
0.022476
-0.019852
0.030121
0.025879
0.012573
-0.029724
0.004539
0.028229
0.017014
0.021637
-0.003094
-0.025299
-0.013115
0.039062
0.005901
-0.026688
-0.010300
-0.019241
0.008438
-0.036682
0.026703
0.006248
0.009171
0.008919
-0.029587
-0.012558
-0.004784
0.030396
0.024734
0.033142
0.001522
-0.001071
0.034302
0.018768
-0.007492
0.021240
0.022949
-0.008026
-0.006474
-0.029663
0.010605
0.002115
-0.001572
0.015976
0.008286
-0.011894
-0.013382
0.016006
-0.006683
0.023788
-0.021469
-0.013824
0.001275
-0.001740
-0.021133
0.020416
0.011559
0.019897
-0.030533
0.014076
0.024139
0.008911
0.031708
-0.018097
0.026443
-0.019211
0.037628
-0.028748
-0.019852
0.006275
-0.000129
-0.026443
0.030518
0.026138
-0.011429
0.023895
-0.010719
0.015778
-0.005413
-0.025146
-0.026001
-0.028915
-0.013451
0.004799
-0.025986
0.018936
0.027786
0.023239
0.022446
-0.014862
0.036163
-0.025665
-0.006767
-0.023819
-0.025513
0.006393
-0.009758
-0.033691
-0.019440
-0.000425
0.013084
-0.021774
0.028595
-0.018600
-0.023788
-0.005470
-0.003090
0.004910
-0.027466
-0.015259
0.011284
-0.001168
0.000490
0.007523
0.015160
-0.030594
0.013168
-0.024902
-0.016220
0.010231
0.017090
0.016861
0.020767
0.003380
-0.015930
-0.001501
0.035919
-0.004997
-0.026260
0.003960
-0.009453
-0.000365
0.007843
0.025528
0.002760
-0.009499
0.020645
0.026611
0.009399
0.028946
0.027847
0.036438
0.015038
0.034851
-0.036896
0.036560
0.014366
0.013031
0.026291
-0.012215
0.019073
0.009735
-0.004292
0.011871
-0.001812
0.008583
0.016205
0.025528
0.019043
-0.023376
0.036438
-0.033356
0.012527
-0.021835
0.014877
0.042572
-0.019760
-0.028854
-0.001406
-0.023621
0.024689
0.026779
0.024796
0.010941
-0.029739
-0.035339
-0.017548
-0.029617
-0.006321
0.028214
-0.003578
-0.021957
0.008842
0.022217
0.000002
0.023804
0.022125
0.005608
-0.013893
-0.023544
0.015976
-0.026535
0.032410
0.038055
0.028854
-0.015808
0.019196
-0.027008
-0.027634
0.025467
-0.017624
0.001383
-0.025116
0.015068
-0.002731
0.025482
0.028900
-0.007828
0.006088
0.008064
0.025848
-0.022110
0.007965
-0.021530
0.002653
-0.011215
0.022659
-0.001782
0.020401
0.029587
-0.010254
0.037384
-0.015465
0.025970
0.039337
0.028961
-0.025635
0.028061
0.018417
0.018448
0.020859
0.024811
0.011261
0.013748
0.004459
0.035156
0.002344
0.027557
0.010483
0.012306
0.000021
-0.001041
0.037994
0.025757
0.028229
0.027878
0.022095
0.028641
0.029953
-0.034088
0.015091
0.009689
-0.028259
-0.014931
0.016815
0.012688
0.002934
0.012329
0.038788
-0.014328
0.004406
0.010719
0.032776
-0.012207
-0.019531
-0.019089
0.014175
-0.028427
0.018173
-0.024643
0.032593
-0.014671
0.031052
0.017578
-0.025726
0.021347
0.002466
-0.024567
-0.018677
0.009155
-0.034607
-0.004784
-0.008827
-0.019073
-0.017624
-0.024643
0.015854
-0.009056
-0.010963
0.033691
-0.013618
-0.013123
-0.035095
0.018906
-0.012909
-0.008705
0.015808
0.026489
-0.013443
0.021881
0.027084
0.041656
-0.013504
0.041962
-0.005371
-0.009537
-0.002663
0.028656
0.033691
0.021149
0.020020
-0.024902
-0.001904
0.011787
-0.033813
0.005024
0.023666
0.005741
-0.013763
-0.031586
0.043579
0.051392
-0.027252
0.022980
0.023575
-0.007610
0.017593
-0.004253
0.014549
0.026230
0.020554
0.003311
-0.010857
-0.024200
-0.018494
-0.037598
0.036957
0.013664
-0.008514
0.016632
0.014740
-0.023026
0.004230
0.013794
-0.023682
-0.015640
-0.021194
-0.045258
0.020126
-0.013565
0.023911
-0.023727
0.019928
-0.021606
-0.018188
0.014709
0.037323
0.020874
-0.019897
0.006363
0.000728
0.021927
0.011230
-0.020462
0.074158
0.010017
-0.017319
0.003351
0.015442
-0.027893
-0.035034
0.035339
-0.016632
0.019028
-0.030273
0.031464
-0.010941
0.000343
0.033234
-0.026535
0.046021
-0.044739
0.030350
-0.000781
0.010498
0.025070
0.027664
-0.017303
0.039124
0.032013
0.002640
-0.014565
-0.004631
-0.047089
-0.036530
-0.004776
-0.000999
-0.030884
-0.043365
0.019531
0.044159
-0.011078
-0.031921
-0.000167
-0.010597
-0.025146
0.023911
-0.024811
-0.003933
0.016205
0.007130
-0.026688
0.032928
-0.011681
0.025620
-0.029495
0.023438
0.015656
0.008560
0.008499
0.019867
0.013351
0.010330
0.042603
0.036377
-0.023346
-0.030579
-0.029388
-0.011856
0.024841
-0.024231
-0.023224
0.026657
-0.033844
-0.016342
0.005383
-0.009102
0.032288
0.021866
0.016159
-0.016510
-0.016357
0.021133
0.001115
0.001270
-0.003551
0.023285
0.032440
0.036102
-0.022614
0.031982
0.019043
-0.012390
0.014107
-0.029221
0.001222
-0.005402
-0.000661
-0.009178
0.025284
0.014359
-0.011635
-0.004517
0.027588
-0.003910
0.031952
0.014908
-0.005333
0.031799
-0.006447
-0.005592
-0.019272
0.001331
-0.003063
0.034760
0.010063
0.031311
0.025803
-0.016998
-0.030411
0.012001
0.017105
-0.026474
-0.035370
0.008858
-0.022507
0.007740
-0.027145
0.034729
0.032288
-0.015762
-0.001849
-0.017792
0.003115
-0.014069
0.001452
-0.015144
0.009911
0.035095
-0.026733
0.022507
-0.013748
0.037750
0.004902
-0.027832
-0.029144
-0.033051
0.039581
-0.027191
-0.029022
0.006733
-0.013054
0.005226
0.009850
-0.026169
0.029297
0.025650
-0.005695
0.020905
-0.014519
0.009308
0.010506
0.005875
0.028961
0.032410
-0.028107
-0.029984
-0.013702
0.006214
-0.031143
0.003550
0.018356
0.030289
0.016479
0.013657
0.023254
0.012062
-0.000153
0.016113
-0.024475
0.002598
-0.019333
-0.026535
-0.024002
0.013054
0.033417
-0.019272
0.004055
0.017807
0.021805
0.034332
0.016922
0.019501
0.006821
0.018356
-0.008644
-0.024185
0.035828
-0.010040
-0.004456
-0.027634
0.002863
-0.009010
-0.036285
0.014519
-0.004620
0.023666
0.023178
-0.011314
-0.017120
0.013329
-0.018509
-0.020645
-0.010551
0.004395
-0.023209
-0.015099
0.003569
0.042084
0.031113
0.003933
-0.015327
-0.025665
-0.010620
0.006779
-0.036926
-0.023697
0.034271
-0.030228
0.019348
0.027695
-0.004803
0.023727
-0.042389
0.020218
-0.015068
0.029663
-0.018234
-0.008926
-0.001116
-0.011482
0.017349
-0.017181
0.035614
-0.014923
0.016083
0.002356
0.020584
0.047699
-0.010536
0.026047
-0.022766
0.030807
-0.002550
-0.029480
-0.003592
0.020966
0.032562
0.005604
0.032074
0.031464
0.028122
-0.026093
0.008316
0.002403
-0.014503
0.025482
-0.005085
0.024689
0.004196
-0.027725
-0.023865
-0.026596
-0.032593
-0.012779
0.044098
0.028839
-0.006248
-0.026215
0.012489
0.045776
-0.034607
-0.001437
0.029388
-0.012115
-0.039215
-0.017639
0.023651
0.017700
-0.013977
-0.024857
-0.010559
0.049805
-0.026962
-0.014313
0.043060
0.015602
0.023148
-0.008965
0.011330
-0.004101
0.013710
0.005878
0.019958
0.019180
0.021973
0.021835
0.006199
0.001281
-0.017441
0.017120
-0.002153
-0.031006
0.012032
-0.025421
0.017319
0.030563
0.037506
-0.012451
0.008942
-0.030258
-0.014336
0.029999
0.002113
0.035400
0.015717
0.026611
-0.002653
0.045471
0.016693
0.017365
0.023163
-0.014534
0.047760
-0.031525
0.021347
-0.025452
0.000813
0.005627
-0.023041
-0.004368
0.031616
-0.005619
0.023148
-0.005619
0.008385
-0.030609
0.012146
-0.018768
0.024765
-0.003372
-0.025436
0.015274
-0.000430
0.027237
-0.016342
-0.008415
-0.031555
0.007214
-0.025620
-0.025787
0.029907
-0.033234
-0.003277
-0.001164
0.011398
-0.019226
0.031647
0.022095
0.030701
-0.014740
-0.015701
0.013794
0.029831
0.033661
0.004383
0.032410
-0.038849
-0.026428
0.015625
0.007259
0.010933
0.028824
0.013718
-0.051361
-0.030655
0.012665
-0.006023
0.013306
-0.026764
-0.034149
-0.082703
0.006878
-0.031952
-0.007614
-0.055603
0.010414
-0.052063
-0.028152
-0.020279
0.032684
-0.007187
0.045624
-0.019714
0.015091
0.052704
0.057892
-0.004696
-0.013153
0.020645
-0.005463
0.005627
-0.033630
-0.041565
-0.052155
-0.010399
0.009010
0.018967
-0.003424
-0.008018
-0.011726
0.049896
0.004353
0.033539
-0.049164
-0.010757
-0.017227
0.029083
-0.066101
0.037415
0.055878
0.002920
0.034088
0.029724
-0.013016
0.008148
0.008339
-0.029434
0.016312
-0.020767
-0.004158
0.034729
0.033417
-0.050293
0.022461
0.009827
-0.016891
0.039032
0.026276
-0.007858
0.007011
0.009407
0.007488
0.025772
-0.031647
0.013763
-0.029999
-0.015060
0.025299
0.014168
0.022018
-0.019363
0.024124
-0.031433
0.022324
0.026489
0.030106
0.017593
0.004177
0.006161
0.008026
-0.021393
0.040436
0.009651
-0.019043
-0.034241
-0.032349
-0.012665
0.027008
0.029327
0.021957
0.001873
0.028595
0.003952
0.029846
0.002594
-0.020996
-0.033508
-0.012367
0.013329
-0.025711
0.031799
0.019653
-0.025192
0.031921
-0.036652
0.033966
0.026520
0.032532
-0.002941
0.005829
-0.038330
0.034943
-0.032776
-0.016174
-0.028030
0.027512
0.004932
-0.012901
0.010521
-0.000479
-0.025223
-0.014084
-0.022385
0.030426
-0.001493
-0.018829
0.031616
0.039459
0.043335
-0.026550
-0.025360
-0.019333
0.036560
0.003540
-0.007378
0.018707
-0.022995
-0.006218
0.027695
-0.011536
0.006420
0.013885
-0.013023
0.032196
0.019287
-0.021622
0.025284
-0.010277
0.013611
-0.009567
0.012154
-0.023590
0.024384
-0.018127
-0.008949
-0.030106
-0.029312
-0.026672
0.008156
0.015656
-0.009735
0.022461
-0.012466
-0.004139
-0.005669
-0.026657
0.020676
-0.000184
0.029938
0.018845
0.017380
0.030441
-0.031769
-0.025345
-0.015717
-0.013260
0.026169
0.030594
-0.036804
0.012520
-0.007896
-0.015114
0.014671
0.008125
0.006451
-0.030869
-0.036499
-0.033020
-0.009705
-0.010162
-0.032471
0.041809
-0.008400
0.004139
-0.006432
-0.039215
0.010963
0.008415
-0.020157
-0.022827
-0.019531
-0.036469
0.006847
-0.016708
0.004536
0.017838
0.036255
0.013924
-0.011780
-0.007500
0.013420
-0.019897
-0.001314
-0.044373
0.025375
0.025787
-0.028015
0.004601
0.030106
0.032654
0.020554
0.014290
0.005405
-0.035889
-0.017471
-0.018494
0.014542
-0.030792
-0.020935
-0.042480
-0.045013
-0.019379
-0.006371
-0.001640
-0.004784
-0.023651
0.015640
0.023163
-0.027924
-0.050720
0.016357
0.003582
0.014427
-0.013039
0.014946
-0.015472
-0.008202
0.020142
-0.025986
0.023834
-0.036987
-0.021362
0.028275
-0.003223
0.008820
0.000688
0.032959
-0.023941
0.027054
-0.045471
0.027618
0.031250
-0.001499
-0.003687
-0.027527
-0.018890
0.014618
-0.018341
-0.050415
0.014404
-0.035889
-0.034424
0.013710
0.000149
0.025833
0.005775
-0.021164
-0.023056
0.006798
0.016525
-0.041595
-0.015930
-0.021362
0.025299
-0.030594
-0.000033
-0.023727
-0.024628
-0.008018
-0.003119
-0.026016
-0.006935
-0.013206
0.022079
0.010468
0.021729
-0.000549
-0.018814
-0.043121
-0.027969
-0.031128
0.013458
0.014984
0.009590
-0.026169
0.033051
-0.016022
-0.015083
-0.006210
-0.010986
-0.007416
-0.024628
-0.006519
0.021255
-0.020538
-0.007965
0.040771
-0.005859
-0.007782
0.030075
-0.021927
-0.005684
-0.026855
0.003462
-0.028381
0.048553
0.006187
0.028961
-0.023727
-0.015701
0.047485
0.044861
-0.012856
-0.014374
0.001539
-0.002304
-0.029984
0.026367
0.044098
-0.033203
-0.057434
0.017410
-0.006218
-0.027176
-0.050659
-0.007584
-0.020523
0.024216
-0.033661
0.017395
-0.015450
0.041321
0.010124
-0.021896
-0.052002
0.004253
-0.013474
-0.010269
-0.033112
0.039612
-0.023270
-0.039154
-0.023621
0.032898
0.041077
0.017929
0.004883
-0.002903
-0.027969
0.014725
0.006367
-0.009377
-0.035797
0.002552
0.035553
0.022446
0.026505
-0.014503
-0.016693
-0.003086
0.022385
0.005150
0.034821
-0.040039
0.037598
0.027451
0.012947
0.052124
-0.028214
0.000594
-0.051636
0.020844
-0.002062
-0.026733
-0.032074
-0.016251
0.005726
-0.030441
-0.020905
0.002771
0.005661
0.034882
-0.031921
-0.005421
0.024872
-0.022446
-0.003914
0.035889
0.025375
0.007393
0.047211
-0.018967
-0.018723
0.054840
-0.030487
-0.010086
0.006168
0.006882
-0.022766
0.042480
-0.042908
-0.008759
-0.039459
0.013008
-0.014954
-0.029007
0.030533
-0.002186
0.004807
-0.011131
-0.018936
-0.024399
0.021957
-0.046387
-0.002569
0.026886
0.027908
-0.013824
0.004665
-0.010574
-0.006962
0.010605
0.008926
0.027863
0.010918
-0.003986
-0.000685
-0.017456
-0.006805
0.006237
0.004715
0.030106
0.030350
0.014046
0.024841
-0.013855
0.027817
-0.015320
0.006153
0.013702
0.016022
0.014008
-0.032013
-0.010651
-0.006836
-0.012932
0.024078
-0.010666
0.024353
0.029037
-0.033966
0.023468
-0.026779
0.035950
-0.024033
-0.008827
0.022827
-0.016312
0.021637
-0.024750
0.006577
0.032318
0.031555
0.001328
-0.026352
-0.033478
0.003000
0.010544
-0.007557
0.023117
0.022812
-0.023743
-0.019608
-0.030396
0.033356
0.033447
-0.037506
-0.028427
-0.007092
0.036194
-0.027115
-0.031006
-0.005379
0.038483
-0.033905
-0.013153
-0.015602
0.011703
0.034485
0.003325
-0.022644
0.006317
0.026459
-0.004539
-0.004768
0.028427
-0.020569
-0.023041
-0.016922
0.018616
0.012375
0.009338
0.006237
-0.006603
0.028336
-0.016068
0.012222
0.014305
0.038361
0.023071
0.028412
-0.018646
-0.018951
0.009102
-0.021988
-0.001978
0.003733
0.013664
-0.009094
-0.006283
0.027161
0.008575
-0.003889
0.031311
0.012695
0.027740
-0.018723
-0.008018
-0.013321
0.010223
0.004807
0.005493
0.028381
-0.003263
0.010765
0.005981
-0.007267
-0.021347
-0.027817
0.033203
0.023102
-0.025208
-0.012024
-0.000070
0.003025
-0.000451
-0.015076
0.015549
-0.012772
0.014412
0.014748
-0.028183
-0.005627
0.018173
0.029327
-0.022797
0.007225
-0.026398
-0.018539
0.012321
0.023422
0.029190
0.019424
-0.015221
-0.011826
0.015335
-0.033386
0.030228
0.003181
0.026428
0.012192
-0.032349
-0.047943
0.020523
0.007652
0.004337
-0.025467
0.017929
-0.036774
0.025818
0.022720
0.032318
0.002970
-0.006176
0.022064
0.018570
0.006752
0.005859
-0.033630
0.034821
0.027756
0.008621
-0.002874
0.010803
-0.009926
-0.039459
0.034027
0.040161
0.016724
0.011673
0.026840
-0.007835
0.007835
0.059448
0.004353
0.004829
0.013290
0.031342
0.003319
0.022522
0.026443
-0.006176
0.016922
-0.021912
-0.036011
0.008842
0.010841
0.027588
0.010582
0.007339
-0.003885
0.033081
0.002310
0.017319
-0.000362
0.013252
0.036560
-0.002872
0.015526
0.006855
-0.022568
0.018814
-0.009148
0.025208
0.029007
0.019180
-0.003801
0.019058
-0.015503
0.021240
0.044891
-0.002184
-0.024979
-0.007572
-0.035645
-0.033844
0.010742
0.024628
0.000989
0.008217
-0.002449
-0.022644
-0.028381
0.000340
0.005184
0.033966
0.033325
0.016800
0.030518
-0.031586
-0.008209
0.017731
-0.033997
-0.027328
0.033295
0.004086
-0.028748
-0.006649
-0.012840
-0.025543
-0.003771
-0.002920
-0.026306
0.015793
0.022141
-0.032410
0.005890
-0.011528
0.019043
0.028534
0.019196
-0.016098
0.030472
0.035950
-0.037628
0.041351
-0.014320
0.002535
-0.021286
0.022812
0.000188
0.027145
-0.006367
-0.026947
0.010185
0.006001
0.027161
-0.014954
0.010017
0.053192
-0.031311
0.029694
-0.004257
-0.036438
0.014732
0.037872
-0.016846
-0.018021
-0.015556
-0.035095
-0.038666
-0.043579
0.022980
0.000124
0.028702
0.046753
-0.034912
-0.003593
-0.008926
0.009834
-0.015350
0.024628
-0.001287
0.025604
0.026947
0.020050
0.049530
-0.038940
0.007530
-0.039001
-0.013237
0.008636
0.010193
0.036713
0.003622
0.039246
0.039276
0.027283
0.028671
-0.015167
0.013985
0.028992
0.014221
0.031525
-0.010880
0.047363
-0.026367
-0.038727
-0.066956
-0.000593
0.011688
-0.017410
-0.026459
0.025925
-0.045776
0.011131
-0.009254
0.024445
0.028198
0.022018
-0.032074
0.009811
-0.009140
0.004444
0.004959
-0.014702
-0.018417
-0.015091
0.013672
0.030899
-0.017441
-0.045013
0.009399
-0.060577
-0.023438
0.012581
-0.017029
0.045410
0.003172
-0.016083
-0.028198
-0.016525
-0.014656
0.003733
0.013054
-0.013443
0.010757
0.024139
-0.028458
-0.011444
0.033600
-0.015823
0.029861
0.039581
-0.046509
-0.003468
0.035339
-0.000610
-0.015533
-0.015053
0.029633
0.012138
0.005203
0.008812
0.003782
-0.040253
-0.015762
-0.009071
-0.032104
0.037018
0.026672
0.022141
0.003366
-0.006897
-0.026443
0.000494
-0.017761
-0.033020
0.030502
-0.010323
-0.023148
-0.029541
0.004711
-0.025421
0.022461
-0.028030
0.003384
0.012131
0.032867
0.013077
-0.006470
0.015472
0.033691
-0.017593
-0.018372
0.031830
0.005627
0.025803
-0.012634
-0.004879
0.027725
-0.001580
0.001318
0.015160
0.008492
-0.033478
0.007366
0.017792
0.012299
0.019730
-0.006664
-0.026031
-0.017593
-0.006718
0.011261
-0.015480
-0.009804
0.040222
-0.034332
0.000936
-0.007053
-0.035461
0.024796
-0.022629
-0.018829
-0.011787
0.006836
0.006916
-0.005810
-0.026825
-0.028885
-0.002438
-0.016800
0.014435
-0.001863
-0.019592
-0.001197
0.023895
-0.018661
-0.032379
-0.014603
-0.004929
0.008453
-0.016724
-0.002129
0.032379
-0.014938
-0.007683
0.002474
-0.024872
-0.004208
0.025940
0.027237
0.020477
-0.013847
-0.026505
-0.024429
-0.019043
-0.000738
-0.026428
-0.022385
-0.036224
-0.035339
-0.029999
0.026016
0.019806
0.045502
0.005608
-0.002234
0.020081
-0.000496
-0.022751
-0.007889
0.017456
0.003618
0.023254
0.005455
0.022522
0.030014
0.008858
0.003029
0.030396
-0.029449
-0.037781
0.010941
-0.029327
-0.005024
0.015297
0.014717
-0.024582
-0.001228
0.005894
-0.020294
-0.021713
0.006992
0.028030
-0.016754
-0.039429
0.020599
-0.011253
0.007248
0.027573
0.028610
-0.013382
0.015640
0.001053
0.017899
0.025894
-0.035004
-0.033905
-0.040344
-0.030975
0.019928
0.017471
-0.023453
0.005058
-0.003372
-0.007343
-0.037720
0.013298
0.013733
-0.019058
-0.013794
-0.002159
-0.016769
0.012024
0.001280
-0.027283
0.014198
-0.008965
-0.017044
0.037262
0.027634
-0.005299
-0.001201
-0.017349
-0.017517
-0.012939
0.011238
0.012688
-0.006660
-0.003967
0.019806
-0.010246
-0.021317
0.009315
0.023239
-0.016037
-0.018066
-0.027161
-0.032776
-0.004169
-0.000180
-0.026627
-0.012779
-0.020447
-0.029892
0.002335
-0.021622
0.029251
-0.021881
-0.033203
-0.022217
0.009460
0.023514
-0.029099
-0.020813
0.030746
-0.031799
0.034943
0.015228
0.020172
0.018387
-0.015854
-0.030090
-0.005264
0.025375
-0.035736
0.035309
-0.029510
-0.005768
-0.024612
0.020721
0.020218
0.025391
-0.031525
-0.033142
0.034302
-0.020157
-0.021774
0.036865
0.003801
-0.028885
-0.005825
-0.020523
-0.001592
0.013969
0.035583
-0.028366
-0.001439
-0.007259
-0.007545
0.008797
0.022095
0.024719
0.011574
-0.004658
-0.008583
-0.008385
0.023865
-0.008461
0.005806
-0.028519
-0.016113
0.027267
0.034271
-0.022491
0.017899
-0.004330
-0.028732
0.023270
0.022095
-0.004009
0.004002
-0.004173
-0.033600
0.007000
0.018417
-0.001164
0.004471
-0.019852
-0.003532
0.000762
-0.007607
0.008392
0.030212
0.035309
-0.041962
-0.030289
-0.050964
0.001758
0.006409
0.013039
0.042938
0.005264
0.036133
0.011421
0.015076
-0.019592
0.005646
0.018295
-0.015099
0.035339
-0.031982
0.008766
0.034241
0.028397
0.019165
0.024780
0.004440
-0.033386
-0.009888
0.000024
-0.034149
0.006111
-0.016647
-0.016190
-0.005917
-0.029510
0.008873
-0.035858
-0.015427
0.014381
-0.015564
-0.012070
0.049225
0.000688
0.035217
0.019821
0.028793
-0.012772
0.032471
-0.004967
-0.051147
0.024002
0.027130
0.015778
-0.045746
-0.013435
-0.006424
0.022766
0.018692
0.006004
0.004745
0.003498
0.018280
-0.032196
0.016357
-0.030731
-0.028442
0.017960
0.046021
0.028534
-0.035156
-0.036377
0.035522
0.019989
0.019867
0.003101
-0.001542
0.017090
0.031616
-0.033020
-0.015167
-0.031052
0.028366
-0.025558
0.003803
-0.012642
-0.009430
0.012611
-0.036377
-0.017868
0.007008
-0.027328
0.052917
0.023239
-0.016678
0.024139
0.013985
0.013435
-0.003752
-0.001097
0.038391
-0.000318
0.023376
-0.033173
0.047577
-0.010109
-0.004131
-0.029831
0.002470
0.025208
0.005653
-0.000686
-0.002245
-0.002703
0.055023
0.009773
-0.001959
-0.017166
0.006500
-0.003357
0.024353
0.030640
-0.019196
-0.020798
0.030548
-0.029312
0.018921
-0.004898
-0.005100
-0.011887
0.010857
-0.032837
0.017120
0.006184
0.006573
0.038788
-0.017014
0.020920
0.017593
-0.042694
0.052643
-0.008614
0.042023
-0.015945
0.000726
-0.034119
0.011749
-0.021118
-0.003605
-0.022156
-0.012711
0.020813
-0.017502
-0.008644
0.027313
0.038696
0.040039
-0.041046
-0.021729
-0.037598
0.020554
0.030960
0.042969
0.016586
0.017548
-0.007729
-0.025421
0.044159
-0.017380
0.033997
-0.041626
-0.035065
0.028091
-0.023849
-0.014481
0.004925
-0.024704
0.018997
-0.022903
0.001755
0.024719
0.010994
0.002823
0.007477
0.005596
0.007797
-0.037323
0.023682
0.026810
0.001294
0.039673
-0.006393
-0.018936
-0.006943
0.019440
-0.016922
0.025726
-0.042908
0.028870
0.020477
0.029861
-0.040009
-0.015358
-0.017181
0.049683
-0.015228
0.026566
-0.020966
0.005707
-0.021774
-0.028976
0.015358
-0.015602
0.010635
0.019455
0.006466
0.007107
-0.011505
0.003283
0.017380
0.035522
-0.040894
-0.025558
-0.026443
-0.010002
0.002090
0.039795
-0.006065
0.000028
-0.030853
0.025238
0.017441
-0.031799
0.022278
0.002106
0.015884
0.017029
0.024643
-0.009636
-0.008492
0.012833
-0.021667
-0.004406
-0.015274
-0.021500
0.004559
0.028259
-0.011238
0.026764
0.028885
0.016159
-0.025467
-0.022293
-0.001348
0.012939
-0.012619
0.026413
-0.029221
0.024368
-0.005863
-0.006424
-0.035034
0.000472
0.021179
0.004383
0.025925
0.024200
0.037659
-0.031616
-0.036804
-0.017670
0.018417
-0.028656
-0.016876
0.010773
0.000866
0.012741
0.010101
0.021072
-0.027496
0.023712
-0.037476
0.016556
-0.005413
-0.019623
0.000648
0.010994
0.030014
0.015335
0.008377
0.013618
0.003254
0.023529
-0.000999
-0.020309
0.029907
0.037231
-0.016327
-0.017960
-0.011948
0.021805
0.030106
-0.038971
0.039734
0.005051
0.001558
0.003262
0.011147
-0.013573
0.016785
0.000517
-0.007973
0.026901
-0.008514
0.022446
0.020294
-0.007919
-0.005234
0.013687
-0.012825
0.008148
0.022568
-0.012367
0.001354
-0.023682
0.025711
-0.032928
-0.032257
-0.013092
-0.005672
-0.024384
-0.039886
-0.036926
0.031311
-0.010323
0.009438
0.032684
0.001102
0.027725
-0.032684
-0.013748
0.022614
0.028091
-0.013947
-0.013794
0.005703
0.016129
0.026352
-0.018372
-0.001016
0.021164
-0.033203
0.021744
0.038666
0.015976
0.033417
0.028214
-0.002419
0.005188
0.011551
0.015152
-0.008766
0.032318
-0.003811
0.034821
-0.008965
-0.031891
0.024048
-0.000603
-0.005642
0.019501
