-0.0082626343
-0.056976318
0.050750732
-0.030029297
0.047485352
0.056091309
-0.0098953247
0.059295654
0.046569824
0.036193848
-0.021621704
-0.00079488754
0.053405762
0.052764893
0.042236328
0.019515991
0.052001953
-0.026062012
0.050933838
0.03427124
0.04486084
0.015022278
-0.041595459
0.054046631
-0.03704834
0.021362305
-0.028213501
-0.02494812
0.032775879
0.021957397
0.045715332
-0.050872803
0.018081665
-0.015296936
-0.00075483322
-0.052734375
-0.054748535
-0.030471802
0.045562744
0.021911621
0.029907227
0.0034313202
0.004486084
-0.016906738
-0.061065674
0.005191803
-0.0037670135
-0.016342163
-0.015655518
-0.023849487
0.021057129
-0.057861328
-0.00084447861
-0.045593262
-0.028808594
0.040496826
0.049804688
0.055358887
0.015838623
-0.050994873
-0.02545166
0.050933838
0.0054359436
-0.058624268
0.055908203
0.022460938
0.01398468
0.007522583
0.035644531
-0.0041732788
0.054595947
0.061737061
-0.0025272369
-0.039978027
-0.0029258728
-0.021270752
-0.038208008
-0.040618896
-0.0041275024
0.01776123
0.019012451
0.028823853
0.039581299
-0.048858643
-0.027908325
0.061523438
0.045959473
-0.044555664
-0.022674561
-0.009513855
-0.052337646
-0.04107666
0.029373169
-0.053253174
-0.058319092
0.047668457
0.047546387
0.049316406
-0.036071777
0.060302734
0.052886963
-0.038391113
-0.044647217
0.02444458
0.024963379
0.059661865
0.0074272156
0.037017822
-0.019271851
0.011360168
0.060638428
0.024856567
0.014846802
0.01058197
-0.031524658
0.026473999
-0.0062561035
-0.022689819
0.030822754
-0.03237915
-0.0062713623
0.038818359
-0.060638428
-0.006072998
-0.027511597
-0.057647705
0.013374329
-0.052154541
0.028961182
0.010612488
-0.023712158
-0.060119629
0.020584106
8.2969666e-05
0.0064697266
-0.046966553
-0.042114258
-0.012153625
0.013198853
0.023254395
0.0064239502
-0.01121521
0.022735596
0.048522949
-0.0033130646
0.030303955
0.016799927
0.031768799
0.013511658
0.031463623
0.024230957
-0.051849365
0.018295288
0.031860352
0.010612488
0.0033130646
0.047180176
-0.01084137
-0.019241333
-0.052886963
-0.024917603
-0.012878418
-0.012794495
-0.036224365
-0.03805542
-0.029632568
0.014099121
-0.0032711029
0.014480591
-0.01234436
-0.030517578
0.010093689
0.0082321167
-0.040985107
-0.015510559
0.019454956
-0.050079346
0.021118164
0.0496521
0.032287598
0.058288574
-0.02822876
-0.016738892
-0.044250488
-0.036132812
-0.0015249252
0.0093994141
-0.010551453
-0.049163818
-0.038482666
0.036743164
-0.0073127747
0.047943115
-0.056915283
0.061218262
0.02293396
-0.054443359
0.044128418
-0.0050849915
0.055511475
0.051361084
-0.0088729858
-0.062164307
0.042724609
0.035217285
-0.045959473
-0.058990479
0.03225708
0.011390686
0.01247406
-0.021652222
-0.050231934
0.0021972656
-0.037475586
0.060974121
-0.016571045
0.0097351074
-0.014015198
-0.0083084106
-0.0087432861
-0.031555176
-0.059570312
0.032196045
0.058441162
-0.015457153
-0.052520752
0.013000488
-0.044586182
-0.058898926
0.0044898987
-0.011306763
0.048858643
0.052124023
0.0067749023
0.024871826
0.010414124
-0.043395996
-0.0019311905
-0.02456665
-0.059265137
-0.0089874268
-0.032745361
0.016036987
-0.0092773438
0.019454956
-0.017913818
0.0034427643
-0.020431519
0.056732178
0.020629883
-0.061828613
-0.051086426
-0.0082626343
-0.032806396
0.0073432922
-0.043365479
0.032745361
-0.012062073
-0.024902344
0.0076713562
0.04776001
-0.0039749146
0.032897949
0.044677734
-0.033081055
0.030593872
-0.029708862
0.0098114014
0.024276733
0.060058594
0.020111084
0.035888672
0.011299133
0.053009033
0.01600647
-0.025894165
-0.00070571899
-0.0034351349
0.059295654
-0.02897644
0.045959473
-0.0095748901
-0.053009033
0.042358398
0.036315918
0.050109863
0.01008606
0.037017822
0.0016059875
0.012329102
0.020446777
0.026580811
0.032684326
-0.036529541
0.041412354
0.0064201355
-0.040283203
0.0060043335
-0.0043563843
0.050292969
0.014846802
0.030059814
0.058135986
-0.0053939819
-0.010520935
-0.032806396
-0.020050049
-0.04586792
0.022445679
0.039825439
0.045684814
0.0046386719
-0.018478394
-0.014778137
-0.062225342
0.04800415
0.015762329
0.050415039
-0.037414551
0.020217896
-0.042205811
-0.0103302
-0.036346436
0.00033044815
-0.039489746
0.04284668
0.047271729
0.0035228729
0.0030498505
-0.05178833
0.0026378632
-0.049957275
0.025848389
0.041809082
-0.035858154
0.048858643
-0.018936157
0.020126343
0.033874512
-0.050506592
0.054199219
-0.026702881
0.013427734
-0.04309082
0.046691895
-0.011581421
0.031585693
-0.023605347
-0.059387207
0.032745361
0.017410278
-0.019805908
0.034820557
-0.047821045
-0.045257568
-0.060760498
-0.055145264
-0.036712646
-0.023544312
-0.060211182
0.032501221
-0.04284668
0.053466797
-0.034057617
-0.023712158
0.034973145
0.016738892
-0.038299561
0.051300049
0.035583496
0.0031986237
0.0029945374
0.029327393
0.029312134
-0.010620117
0.034637451
0.030593872
-0.045043945
-0.033782959
0.0030784607
-0.010612488
-0.056732178
0.054626465
0.019134521
0.032775879
0.04107666
-0.059509277
0.028869629
-0.0063667297
0.0030555725
0.05368042
0.01449585
0.0010137558
0.041229248
0.060516357
0.039245605
-0.056335449
-0.046325684
-0.018692017
0.032775879
0.053527832
0.060760498
-0.010658264
-0.022399902
-0.0051879883
-0.020065308
0.06161499
0.059356689
-0.038208008
0.051147461
-0.00013208389
0.020797729
-0.051940918
-0.022155762
0.03237915
0.023788452
-0.040679932
0.022140503
0.06237793
0.059204102
0.039703369
-0.029663086
-0.036865234
-0.015228271
-0.03314209
-0.028778076
0.00060558319
-0.056243896
-0.049804688
-0.049438477
-0.004737854
-0.037658691
-0.046600342
-0.023727417
0.058868408
0.0079956055
-0.029159546
-0.0096435547
-0.025787354
0.057922363
0.050811768
-0.056976318
0.019607544
-0.0041923523
0.043487549
-0.049957275
0.050537109
-0.00013327599
-0.062194824
-0.0070266724
-0.054321289
-0.034362793
-0.045501709
0.055541992
0.055786133
-0.0090713501
0.033874512
-0.048187256
0.0017242432
0.012924194
0.0077896118
0.0057640076
-0.062011719
-0.0088348389
-0.041381836
0.0086517334
-0.046508789
0.01789856
0.028060913
0.054718018
0.042327881
-0.042602539
0.026077271
0.031341553
0.052856445
-0.06072998
-0.0023593903
0.060089111
-0.0068244934
0.058807373
-0.047119141
0.0082168579
-0.0032424927
-0.01108551
0.058258057
-0.024993896
0.043212891
0.024658203
0.027877808
-0.0066604614
0.017379761
-0.03213501
-0.0057601929
-0.057312012
-0.024917603
0.034484863
-0.059906006
-0.053588867
0.014862061
-0.049804688
-0.010650635
-0.058349609
-0.055603027
-0.04196167
0.052337646
-0.022277832
-0.013587952
-0.0074729919
0.05947876
0.045257568
0.058044434
-0.062316895
-0.0362854
0.026992798
-0.034088135
0.0054550171
0.048248291
-0.024963379
0.00026774406
0.044342041
0.045623779
0.0077362061
0.057006836
0.01373291
-0.0030899048
-0.057495117
-0.025466919
-0.0017280579
-0.019821167
0.056610107
0.047912598
0.055603027
0.053741455
-0.0287323
0.057617188
-0.056365967
0.005027771
-0.052459717
0.0097503662
-0.050933838
0.019012451
-0.0058097839
0.026657104
0.0023136139
-0.039550781
0.050201416
0.048736572
0.025299072
-0.012893677
-0.037841797
-0.024932861
-0.04083252
-0.053253174
0.032928467
-0.027679443
0.052215576
0.054046631
0.0054626465
-0.027236938
0.04876709
0.051605225
-0.024291992
-0.0027313232
-0.031616211
0.0079574585
0.029251099
-0.0002822876
0.034729004
0.028701782
0.039459229
-0.040771484
-0.0002720356
-0.030944824
-0.049407959
0.023788452
-0.040863037
-0.037719727
0.027923584
-0.041595459
-0.045227051
-0.057159424
-0.027587891
-0.057037354
0.050872803
0.0362854
-0.0015687943
-0.017105103
0.046203613
-0.0058403015
-0.0053253174
-0.0031299591
-0.020828247
0.014389038
-0.031890869
0.04788208
-0.050048828
0.025482178
0.036468506
-0.011474609
-0.04675293
0.029022217
-0.0089874268
-0.0059280396
-0.041229248
0.058135986
-0.06072998
0.052337646
0.011489868
0.053497314
0.0082855225
-0.030456543
-0.052001953
-0.038360596
-0.0065307617
0.010040283
-0.059661865
0.014556885
-0.0098190308
-0.01259613
0.013793945
-0.045776367
-0.016067505
0.01739502
0.0390625
-0.052581787
-0.026580811
-0.042816162
-0.010917664
-0.049957275
-0.014060974
0.033203125
-0.05947876
0.019210815
-0.015808105
-0.047180176
0.049682617
0.033996582
-0.0019683838
0.052001953
-0.052215576
-0.017272949
-0.022125244
0.00258255
0.0068473816
-0.028656006
-0.0053405762
0.011512756
-0.0519104
-0.043212891
-0.0033855438
-0.055084229
-0.049438477
-0.045135498
0.038635254
-0.044952393
0.028396606
-0.058074951
-0.020050049
-0.044342041
-0.02331543
-0.034484863
0.011520386
-0.058105469
0.047058105
0.045440674
0.057891846
-0.020385742
-0.024200439
-0.060791016
-0.037963867
0.020477295
0.053436279
0.047607422
-0.046722412
-0.0060081482
-0.0037326813
-0.0096969604
0.0031490326
0.048370361
0.024719238
0.036560059
0.02684021
0.020217896
0.0034313202
-0.025894165
0.020141602
0.025665283
0.059143066
-0.05645752
-0.010360718
0.0099563599
0.027313232
-0.0022068024
-0.061706543
-0.001584053
-0.01802063
-0.054656982
0.052185059
0.018035889
-0.025085449
0.024902344
0.051330566
-0.04119873
0.023834229
0.0078201294
-0.043273926
0.059417725
-0.055847168
0.0016174316
0.030792236
-0.019042969
-0.018753052
0.021255493
0.047546387
0.018890381
0.031311035
-0.0051345825
0.006477356
-0.0059280396
0.044952393
0.019927979
-0.050018311
-0.0062484741
0.02180481
-0.02684021
0.027801514
0.048492432
0.012306213
0.014526367
0.059539795
0.0519104
-0.044372559
-0.055541992
-0.041503906
0.0184021
0.0059623718
-0.020004272
-0.057678223
-0.055786133
-0.046234131
0.053710938
0.028045654
0.023880005
0.03125
0.050750732
-0.039855957
-0.0068702698
-0.0022697449
-0.020278931
0.062438965
0.05581665
0.035552979
0.015312195
0.061065674
-0.04208374
-0.026550293
-0.021575928
0.055938721
-0.021255493
-0.042938232
-0.045959473
0.055389404
-0.033996582
0.015640259
0.038452148
-0.016906738
-0.054656982
-0.011878967
0.037902832
0.018493652
-0.010482788
0.041229248
-0.047180176
-0.029525757
-0.04486084
-0.043487549
-0.050201416
0.041870117
0.0067520142
-0.055419922
0.048736572
-0.042144775
-0.0070724487
0.0032520294
-0.013916016
0.0080490112
-0.044555664
0.018951416
-0.014167786
0.026916504
0.005241394
-0.050994873
0.047027588
0.010528564
0.031921387
-0.057220459
0.050537109
0.013252258
0.061401367
-0.043487549
-0.023925781
-0.046539307
0.060821533
0.049835205
-0.044891357
-0.0071029663
-0.050292969
0.056396484
-0.0095901489
0.049743652
-0.0028018951
0.044769287
-0.014411926
0.034698486
-0.032836914
0.0073814392
-0.0095443726
0.058532715
0.038482666
-0.048339844
0.017105103
0.0055618286
0.0092544556
-0.038818359
0.060913086
-0.058288574
0.038116455
-0.04864502
-0.041229248
-0.033996582
-0.031066895
-0.039001465
-0.029907227
-0.030670166
0.0096893311
-0.01461792
0.019943237
-0.017532349
-0.011528015
0.018066406
0.034820557
0.0082092285
0.002986908
0.0063438416
-0.053527832
-0.035705566
0.029525757
-0.034759521
-0.039428711
-0.033843994
-0.0088806152
0.027603149
-0.016174316
-0.062194824
0.010826111
-0.0095825195
0.014907837
0.012069702
-0.018280029
0.047943115
-0.042694092
0.034637451
-0.017227173
0.039581299
0.04800415
0.034667969
0.0046081543
0.056915283
-0.031341553
-0.04675293
-0.03527832
0.048797607
-0.048248291
-0.017547607
0.013908386
0.040466309
-0.012962341
0.037963867
-0.029953003
0.0287323
-0.0034694672
-0.0082855225
-0.0065078735
0.031051636
0.033538818
-0.046142578
-0.052886963
-0.008605957
0.042694092
0.006778717
0.048919678
-0.044891357
-0.035827637
0.002204895
0.035919189
0.045379639
-0.032348633
-0.061553955
0.060913086
-0.012313843
0.031585693
0.034118652
-0.018783569
0.054473877
-0.041351318
0.015838623
0.035736084
0.057495117
-0.024154663
-0.01197052
0.0072555542
0.0074157715
0.06060791
0.014083862
-0.025588989
0.01423645
-0.0087127686
-0.010398865
0.0052032471
0.058013916
0.039123535
-0.04776001
-0.019836426
-0.055450439
-0.036529541
0.038757324
0.039001465
0.0064125061
0.055480957
0.031738281
-0.043792725
-0.0129776
-0.059539795
0.021713257
0.055847168
-0.053375244
-0.020202637
0.014610291
-0.010673523
0.0085144043
-0.050994873
-0.045562744
0.02130127
-0.0259552
0.037628174
-0.0099716187
0.037231445
0.062133789
0.0030899048
0.049285889
0.014343262
0.03225708
0.026977539
-0.043579102
0.03817749
0.011398315
-0.044158936
0.0084228516
-0.0029449463
-0.0076332092
-0.020217896
-0.054077148
0.012283325
0.062194824
-0.047027588
0.00020134449
0.014625549
0.0073356628
-0.035247803
0.022979736
-0.046234131
0.0020713806
0.00031614304
0.041412354
-0.054351807
-0.011322021
-0.018493652
0.041473389
-0.040557861
-0.012504578
-0.039367676
0.0020904541
-0.010177612
0.0050888062
0.059234619
0.048095703
-0.025802612
-0.046661377
0.030166626
-0.046722412
0.052398682
-0.030105591
0.018356323
-0.0017786026
0.051055908
0.035614014
0.014350891
-0.010543823
-0.041717529
0.037841797
0.029937744
-0.054199219
0.060455322
-0.035125732
-0.03805542
0.040435791
0.058166504
0.052093506
0.052093506
-0.020950317
-0.026794434
-0.0066490173
0.055023193
-0.01953125
0.035766602
0.016021729
-0.012870789
-0.034057617
0.0086746216
7.9929829e-05
0.055511475
-0.054748535
0.020523071
0.059783936
0.024871826
-0.0053443909
0.048828125
0.0035648346
0.00053882599
-0.04006958
0.0043754578
0.05480957
-0.015449524
0.022064209
0.050628662
0.03225708
0.059173584
-0.010749817
-0.011962891
0.05871582
0.020935059
-0.019470215
-0.050384521
-0.029388428
-0.03994751
-0.059234619
-0.024902344
-0.044799805
-0.02041626
0.016616821
-0.037994385
-0.013160706
0.003868103
-0.026428223
0.028518677
0.025497437
-0.024887085
-0.012107849
-0.04788208
0.032409668
0.015602112
0.023147583
0.028488159
0.050842285
-0.039093018
-0.021316528
-0.038818359
0.019195557
0.047912598
0.037597656
-0.051727295
0.017242432
0.016174316
-0.056396484
0.061187744
0.053985596
-0.059936523
-0.018386841
-0.038726807
0.05255127
0.040100098
0.0091705322
0.049194336
0.035797119
0.046081543
-0.044403076
-0.059661865
-0.059417725
0.029769897
0.019317627
-0.05267334
0.0010280609
0.052429199
-0.056762695
0.048797607
-0.045196533
-0.037841797
-0.023483276
0.037567139
-0.024368286
0.047149658
-0.021682739
-0.022537231
0.034332275
0.019805908
0.011505127
0.015823364
-0.047241211
-0.010353088
0.026168823
-0.049987793
-0.00094032288
-0.019210815
0.02305603
0.031951904
0.043334961
-0.020401001
0.04296875
-0.0099487305
-0.038146973
-0.015220642
0.039855957
-0.032714844
0.01108551
0.031585693
0.06060791
0.053283691
0.046325684
0.0064697266
-0.041412354
0.052642822
-0.029541016
-0.055084229
-0.018707275
-0.057434082
0.035705566
0.037719727
0.055938721
-0.046020508
-0.036010742
0.026687622
-0.047851562
-0.038024902
-0.0078964233
-0.0044174194
0.0072479248
0.044158936
-0.010192871
-0.010719299
-0.029769897
0.012413025
-0.057952881
0.055847168
-0.019424438
-0.057769775
0.038452148
-0.058776855
0.019821167
-0.05456543
0.04196167
0.05770874
0.043243408
0.022399902
-0.0017156601
-0.052032471
-0.0042533875
0.04107666
0.026580811
-0.035797119
0.026687622
0.03225708
-0.054351807
0.030593872
0.035949707
-0.062011719
-0.021286011
0.033660889
0.032623291
0.043121338
0.015357971
0.04574585
-0.028015137
0.049865723
0.058654785
0.009475708
-0.035827637
-0.013679504
0.06161499
-0.042144775
-0.017791748
0.034606934
0.0055465698
0.059875488
-0.043762207
-0.030471802
0.055114746
-0.056884766
-0.040740967
0.042541504
-0.059234619
-0.025924683
0.0574646
-0.056671143
-0.054351807
-0.010993958
-0.0041427612
-0.032684326
0.013221741
0.021759033
0.050262451
0.031097412
-0.057250977
-0.046356201
0.039428711
0.0035743713
0.061035156
0.043914795
0.029754639
-0.036071777
0.016708374
0.031646729
0.029266357
-0.044921875
-0.026992798
-0.048706055
0.041412354
0.048431396
0.020339966
-0.026535034
0.013931274
0.027252197
0.037475586
0.00038170815
-0.062286377
-0.038299561
0.048950195
0.023895264
-0.051483154
-0.030487061
-0.016220093
-0.052185059
0.057495117
-0.03012085
0.041748047
0.015174866
-0.047332764
-0.049530029
-0.0012626648
0.06048584
-0.028015137
-0.040252686
-0.051940918
-0.037078857
-0.028137207
-0.003080368
0.034942627
-0.041992188
-0.028015137
-0.061706543
-0.038024902
-0.056854248
-0.038208008
-0.017272949
0.039123535
-0.025726318
0.034637451
-0.021942139
-0.019271851
-0.045318604
-0.050720215
0.050567627
-0.039398193
0.01953125
-0.044342041
-0.022949219
0.012016296
-0.043151855
0.04800415
-0.028091431
-0.014831543
-0.028396606
0.0012540817
-0.042266846
0.043029785
0.0099716187
-0.045928955
0.058441162
-0.007774353
-0.027160645
-0.056304932
-0.04473877
0.0049705505
0.029891968
0.038665771
0.010185242
-0.010124207
-0.055603027
-0.042877197
-0.026794434
-0.023468018
-0.028930664
-0.036865234
0.04864502
-0.013412476
0.037902832
0.035888672
0.026931763
-0.031402588
0.014129639
0.055358887
-0.0035915375
-0.024093628
-0.028015137
0.053039551
-0.0061340332
-0.0055961609
-0.057495117
0.011604309
0.054168701
0.010154724
-0.010772705
0.036102295
-0.041625977
-0.014839172
0.0087127686
-0.0060424805
-0.031143188
0.062255859
0.050109863
0.013923645
-0.003194809
-0.016937256
-0.045440674
-0.032623291
0.045318604
0.051391602
0.059967041
-0.022674561
-0.016891479
0.032501221
-0.034210205
0.055084229
0.037719727
0.0052604675
0.01108551
-0.0056915283
-0.047393799
-0.038604736
0.053497314
0.025421143
-0.026382446
0.021331787
0.046112061
0.054321289
-0.044555664
-0.04598999
0.030593872
0.028884888
-0.044006348
-0.01914978
-0.026550293
-0.037231445
0.058624268
-0.037017822
0.018234253
0.022384644
0.055450439
0.054656982
-0.0020503998
-0.013343811
0.018844604
0.032287598
-0.04776001
-0.050537109
-0.05456543
0.061737061
0.056762695
0.0059776306
0.052429199
0.032714844
0.0019435883
-0.033111572
-0.024993896
0.0010614395
0.0083465576
-0.055603027
0.055175781
0.036865234
0.044921875
0.012123108
0.044525146
-0.0074043274
-0.017425537
-0.010932922
0.0030460358
0.049194336
0.034118652
-0.015869141
0.039733887
-0.057434082
-0.0036964417
0.013587952
-0.025680542
0.011520386
-0.043426514
0.053985596
-0.020507812
-0.023147583
0.036743164
-0.0090103149
-0.051727295
0.042663574
0.012611389
0.038818359
-0.034820557
-0.056945801
-0.041778564
0.022003174
0.011459351
0.014625549
-0.058197021
-0.04284668
0.051483154
-0.04989624
0.05581665
-0.037506104
-0.0013742447
0.023406982
-0.044189453
-0.025146484
-0.007648468
0.012557983
0.0087585449
-0.037322998
0.036499023
-0.026489258
-0.060974121
0.054473877
-0.042114258
0.055053711
-0.045135498
-0.010063171
-0.040313721
-0.056488037
-0.053588867
-0.030487061
-0.014862061
0.044616699
-0.05770874
0.026367188
0.027389526
-0.0049476624
0.059692383
0.054473877
0.027633667
-0.05279541
-0.025802612
0.042510986
-0.032409668
0.040100098
0.036529541
0.0032062531
-0.031890869
-0.037445068
0.036468506
0.045257568
0.060333252
-0.015205383
-0.018066406
-0.051330566
0.028106689
-0.033782959
-0.019836426
0.052368164
0.0066604614
-0.0032024384
0.0040817261
0.0095291138
0.03225708
0.0096740723
0.022872925
0.061523438
0.00080776215
-0.046875
-0.0085449219
0.01096344
0.0082778931
0.05960083
-0.036743164
-0.024612427
-0.0519104
-0.057647705
0.050384521
-0.032196045
0.058441162
-0.023300171
-0.060272217
-0.0055656433
-0.038330078
0.056304932
-0.033538818
0.033630371
0.030197144
-0.0088119507
0.042449951
-0.011863708
0.0049438477
-0.015762329
-0.053009033
-0.045532227
-0.021987915
0.011276245
-0.029342651
0.059997559
0.0096359253
-0.0075569153
0.040405273
0.028945923
0.060821533
-0.019256592
0.021606445
0.056121826
-0.0088348389
-0.011314392
-0.012504578
-0.0045166016
-0.041381836
0.050109863
-0.01373291
0.018005371
0.008644104
-0.033172607
-0.029434204
-0.029998779
-0.04800415
0.060424805
-0.017959595
-0.061004639
-0.018814087
0.025466919
-0.060302734
0.054992676
0.04473877
-0.046234131
0.040405273
0.061157227
0.011772156
0.047637939
0.02571106
-0.057006836
-0.038879395
-0.0014123917
0.028823853
-0.041931152
0.055847168
0.030654907
0.025375366
-0.0059127808
0.0097351074
-0.042266846
0.046844482
-0.032836914
-0.054443359
0.012062073
-0.041107178
-0.0054588318
-0.026931763
0.040100098
-0.041656494
-0.021362305
0.046630859
-0.021850586
-0.062164307
-0.0262146
0.00019180775
0.041778564
-0.054199219
0.0088272095
0.018371582
-0.022399902
-0.0036392212
-0.011024475
-0.025695801
-0.0104599
-0.054138184
0.033660889
-0.015281677
-0.026107788
0.036773682
0.024841309
-0.012016296
-0.030776978
0.053283691
0.034240723
0.018920898
0.014938354
-0.0065193176
0.058807373
-0.026916504
0.015640259
0.012832642
-0.0087432861
-0.011947632
-0.0060462952
-0.002538681
-0.025634766
0.03237915
-0.045501709
0.050842285
-0.0072746277
0.015823364
0.025161743
0.026641846
-0.042572021
-0.056335449
0.028900146
0.0021705627
-0.01701355
-0.053466797
0.018112183
0.043182373
-0.013679504
0.040588379
-0.011962891
0.032287598
-0.04083252
-0.030441284
0.042724609
-0.0096511841
0.027175903
0.049438477
-0.031829834
0.020385742
-0.0066490173
0.039672852
-0.017822266
0.013275146
0.0066223145
-0.032501221
-0.0087203979
-0.010398865
0.043640137
0.037628174
-8.8214874e-05
0.02204895
0.024139404
-0.010047913
-0.016387939
0.023651123
0.0076217651
-0.036010742
-0.054992676
-0.014282227
0.032073975
0.017089844
-0.058441162
-0.047393799
-0.001950264
-0.0085449219
-0.057891846
0.0033378601
-0.016265869
0.0065689087
0.061706543
0.050231934
-0.039398193
0.010871887
-0.042510986
-0.053771973
-0.0034790039
-0.024246216
-0.031402588
-0.0027122498
0.016967773
-0.047912598
0.010101318
-0.002779007
0.050811768
-0.016357422
-0.030258179
-0.044708252
-0.044281006
-0.003993988
-0.038208008
0.056243896
0.011512756
-0.026245117
0.038787842
-0.050872803
0.027984619
-0.060516357
-0.039611816
-0.04776001
0.061401367
-0.054382324
0.011810303
-0.00037336349
0.025817871
-0.039703369
0.001906395
-0.029586792
0.00034070015
-0.016647339
-0.059204102
0.048339844
0.028823853
0.011810303
-0.0209198
0.051483154
-0.047241211
-0.013259888
-0.033752441
0.05947876
-0.046234131
0.01146698
-0.026824951
0.042419434
0.045684814
0.059143066
-0.015129089
-0.043395996
0.027557373
-0.031051636
0.0065383911
0.015869141
0.0038223267
0.02281189
0.05090332
-0.037963867
-0.060516357
-0.0095367432
0.035125732
-0.042205811
0.014678955
0.061584473
-0.00043010712
-0.034881592
0.052398682
-0.04800415
0.029037476
-0.021728516
0.036102295
0.050140381
0.00083875656
0.059509277
-0.0059127808
-0.013328552
0.052124023
-0.031951904
0.045043945
-0.033294678
-0.032989502
-0.0057601929
0.0055465698
0.028579712
-0.041717529
0.04876709
-0.052032471
-0.037994385
-0.020996094
-0.0053749084
0.016036987
-0.042663574
0.041717529
-0.039825439
0.061584473
-0.019989014
-0.014717102
-0.059692383
0.025619507
-0.040130615
-0.060333252
0.022201538
0.050140381
0.057647705
-0.026504517
0.033813477
-0.0066604614
0.031982422
-0.062408447
-0.057312012
0.0066642761
0.0034141541
0.03503418
0.058532715
-0.061706543
0.040863037
-0.0091781616
-0.048706055
0.0023918152
-0.040985107
-0.019012451
0.014190674
-0.010650635
0.054046631
-0.014549255
-0.061248779
-0.012115479
0.059112549
0.027618408
0.041992188
-0.0024318695
-0.039855957
0.034179688
0.055084229
-0.042053223
0.010971069
0.049407959
-0.0094146729
0.0041694641
-0.052734375
0.01361084
-0.045928955
0.051086426
0.048522949
0.057830811
0.0496521
0.061706543
-0.031158447
-0.037689209
0.047576904
-0.014129639
0.0072860718
0.034637451
0.0016040802
-0.041412354
-0.038665771
0.028045654
0.0067825317
-0.038787842
0.0097427368
0.039398193
0.019210815
-0.035827637
0.060089111
-0.020889282
-0.042175293
0.05859375
0.013320923
-0.0050888062
0.0088119507
0.038146973
0.052581787
0.042144775
-0.043304443
-0.046783447
0.02243042
-0.01953125
-0.062133789
-0.0099868774
0.00028824806
-0.038208008
0.051055908
0.010848999
0.00072288513
0.016448975
0.006061554
-0.024917603
0.043060303
-0.051269531
0.017578125
0.046051025
0.039093018
-0.060699463
-0.028884888
-0.01902771
-0.025161743
-0.024841309
-0.034912109
-0.051696777
-0.051300049
-0.0030441284
0.0064086914
0.012062073
-0.036376953
0.018188477
0.049682617
0.016403198
0.020446777
0.043945312
-0.047668457
0.02142334
-0.055267334
-0.061065674
-0.016799927
-0.03805542
0.019195557
-0.0055351257
-0.021072388
-0.06060791
0.016174316
-0.013885498
0.011230469
0.055908203
0.047821045
-0.028900146
-0.034881592
0.031143188
-0.022766113
-0.003944397
-0.057739258
0.032531738
0.0048751831
0.030136108
0.0069656372
-0.048095703
0.015045166
-0.053222656
0.0057563782
0.021682739
0.040283203
-0.02243042
-0.0091323853
-0.00026750565
-0.0050392151
-0.035644531
0.025665283
0.050201416
0.011825562
-0.036224365
-0.042572021
-0.035125732
-0.016357422
0.041473389
0.00063705444
-0.047485352
0.017532349
0.018508911
-0.040313721
0.042724609
0.049255371
-0.019699097
-0.037841797
0.060638428
0.043182373
-0.011032104
0.035552979
0.057037354
-0.005657196
0.054992676
0.014266968
0.053955078
-0.046295166
-0.022109985
-0.038665771
0.015991211
-0.03237915
-0.056274414
0.051025391
-0.020278931
-0.033691406
-0.031036377
0.040466309
-0.021270752
-0.055236816
-0.0034275055
-0.032287598
-0.022354126
0.021286011
0.045288086
0.0077705383
0.0084533691
-0.040344238
-0.021087646
-0.027481079
0.016983032
-0.034332275
0.017883301
-0.038848877
-0.052124023
0.038757324
0.020751953
0.0060882568
-0.0065612793
0.025253296
0.023712158
-0.0093841553
-0.0048217773
0.035064697
-0.051849365
0.042053223
-0.053466797
0.059356689
-0.022659302
-0.033630371
-0.039825439
-0.023178101
-0.062042236
-0.054504395
-0.056945801
-0.052734375
-0.040679932
0.010787964
0.027053833
-0.051422119
-0.028945923
0.035888672
0.0056343079
-0.060913086
0.049499512
-0.0023117065
-0.05456543
-0.053222656
0.02355957
0.023010254
0.0093307495
0.041259766
-0.041168213
-0.0080795288
0.05090332
-0.021484375
0.0066566467
-0.037445068
-0.054992676
0.053375244
0.062103271
0.011650085
0.0024528503
-0.023345947
-0.00065231323
0.012252808
0.048034668
-0.018539429
-0.025802612
0.055664062
0.038208008
0.0030593872
-0.058654785
0.019210815
0.021743774
0.029693604
-0.056854248
0.00063848495
0.018173218
-0.0038871765
-0.049621582
-0.05380249
0.0032691956
0.053161621
-0.027999878
-0.019393921
0.04675293
-0.051574707
0.0021743774
0.041412354
-0.049224854
0.059112549
-0.03024292
0.048858643
0.024169922
0.01335907
0.027999878
0.0010108948
-0.036712646
-0.04888916
0.029907227
-0.061157227
-0.0083465576
0.046112061
-0.041778564
-0.043762207
-0.052337646
-0.040893555
-0.062011719
0.0083007812
-0.040802002
-0.037322998
-0.061950684
-0.039611816
-0.037750244
0.040374756
-0.034240723
-0.055236816
-0.040283203
0.016693115
-0.04397583
-0.0042037964
-0.020828247
-0.019317627
0.048919678
-0.0035457611
-0.025787354
0.0010223389
-0.023895264
-0.05557251
-0.053527832
-0.037506104
2.0265579e-06
-0.0016231537
0.006816864
-0.054656982
-0.036895752
-0.034423828
0.049041748
-0.034637451
0.021636963
-0.060241699
0.032897949
0.028579712
0.0069885254
-0.049407959
-0.0060386658
-0.042541504
0.024765015
-0.05645752
-0.036193848
-0.022369385
0.038574219
-0.010246277
-0.04901123
0.029983521
0.014389038
-0.026535034
-0.0055999756
-0.029937744
-0.023574829
-0.0068702698
-0.047393799
0.03225708
-0.027420044
0.0069847107
0.0001231432
-0.059356689
0.0031356812
0.028457642
0.011001587
-0.034912109
-0.033935547
0.014785767
0.0077934265
-0.0011663437
-0.0085144043
0.0059089661
-0.036224365
0.06237793
-0.047424316
-0.014602661
0.022628784
0.050140381
-0.020904541
-0.037109375
0.018264771
0.037200928
0.054260254
0.020767212
-0.037902832
0.022018433
0.053314209
-0.050750732
0.029373169
-0.046813965
-0.0076904297
-0.035095215
-0.053039551
0.029083252
0.02456665
-0.029891968
-0.044799805
-0.03604126
0.03137207
-0.047210693
0.032897949
-0.043334961
0.054931641
-0.025878906
0.014564514
-0.0026454926
0.01600647
-0.0018110275
0.043792725
-0.04397583
0.020339966
-0.021224976
-0.050964355
-0.027709961
0.00057935715
0.0099258423
-0.042785645
-0.04699707
0.0020503998
0.058105469
-0.061645508
0.049621582
0.029541016
0.034088135
-0.045562744
-0.056396484
-0.034057617
0.056213379
-0.010803223
-0.011474609
0.024978638
0.03503418
-0.045715332
0.023605347
0.036254883
-0.048278809
-0.022033691
-0.057830811
-0.042022705
-0.012550354
0.027175903
0.039733887
-0.058776855
-0.0028305054
0.053161621
0.051574707
-0.036071777
0.012527466
0.04598999
-0.059967041
0.0062294006
-0.028076172
-0.044677734
0.043121338
0.014022827
-0.054016113
-0.031341553
0.018630981
-0.026443481
-0.015609741
-0.030456543
-0.021530151
-0.03237915
0.039520264
0.010505676
0.025558472
0.059387207
-0.040374756
0.00028324127
0.038421631
-0.029678345
0.0084991455
-0.028335571
-0.049163818
0.031524658
-0.036865234
-0.0010471344
-0.042449951
-0.052398682
-0.025787354
0.02696228
-0.044189453
0.056213379
-0.00039386749
-0.030197144
-0.052368164
-0.023544312
-0.044799805
-0.044586182
0.053375244
-0.012527466
0.028091431
0.030426025
-0.044250488
0.015670776
0.06161499
-0.03918457
0.043701172
-0.036102295
-0.0040130615
-0.0074195862
0.015335083
-0.0262146
0.044067383
-0.03414917
0.036468506
0.045288086
-0.03515625
0.016540527
-0.039672852
-0.042785645
-0.00033020973
-0.051330566
-0.040374756
-0.035614014
0.039703369
0.016281128
0.051971436
0.044281006
-0.013237
-0.026626587
-0.049560547
-0.037353516
-0.035552979
-0.034454346
0.015327454
-0.024963379
0.043701172
0.023193359
-0.038146973
0.0037021637
-0.034057617
-0.04083252
-0.046447754
0.039428711
0.0077476501
0.04498291
0.0095291138
0.058288574
0.018615723
0.023269653
-0.0017957687
0.050720215
-0.061035156
0.060089111
0.056518555
0.058135986
-0.0051651001
-0.051574707
-0.048736572
-0.053833008
-0.04284668
0.05581665
-0.061065674
-0.013053894
0.0184021
0.052978516
-0.02722168
0.031005859
-0.024169922
-0.019699097
0.023223877
0.042327881
0.014526367
-0.054016113
-0.059417725
-0.024154663
-0.042572021
-0.018264771
0.033447266
-0.04486084
-0.051330566
-0.00016021729
0.061065674
0.019058228
0.057312012
-0.044281006
-0.010917664
-0.051147461
-0.021102905
-0.048248291
-0.038513184
0.030822754
0.008895874
-0.02003479
0.01058197
-0.036956787
0.0097045898
-0.056488037
0.0021648407
0.0052070618
0.055084229
-0.010620117
-0.0035171509
-0.028945923
-0.04119873
-0.0010595322
-0.017990112
-0.038116455
0.0062904358
-0.061523438
0.052307129
-0.0095901489
-0.017440796
0.049957275
0.042175293
0.011711121
-0.023117065
-0.018066406
0.012237549
0.055603027
-0.033721924
0.018417358
0.03338623
0.037963867
0.01033783
-0.059234619
-0.0496521
-0.040649414
0.012283325
-0.022766113
0.0046043396
-0.033813477
-0.015899658
0.0025081635
0.0035381317
0.0097732544
-0.05947876
-0.04901123
0.040527344
-0.051605225
-0.019393921
-0.032470703
-0.028900146
-0.025680542
0.02973938
0.017089844
0.040771484
-0.0287323
0.052612305
-0.034759521
-0.019348145
-0.03616333
-0.00017976761
-0.014694214
-0.019897461
0.047729492
0.035583496
-0.031921387
0.055419922
0.0099945068
0.015342712
0.0046005249
0.011413574
-0.028808594
-0.052703857
0.0010995865
0.028823853
-0.031707764
0.052093506
-0.013900757
0.058135986
-0.0095596313
-0.047576904
-0.051574707
-0.050140381
-0.052459717
-0.005569458
-0.0077590942
0.0072059631
0.038513184
0.01802063
-0.051574707
0.025634766
0.016036987
0.028060913
0.0030536652
-0.049316406
-0.031402588
0.047149658
0.050476074
0.017669678
-0.014022827
-0.0036411285
-0.028717041
-0.03729248
-0.019577026
0.013763428
0.03717041
0.059082031
-0.055084229
0.061248779
-0.033477783
-0.0019454956
-0.050079346
0.049713135
-0.017730713
-0.040283203
0.031311035
0.0041122437
-0.028274536
-0.050842285
-0.026916504
0.041564941
-0.010292053
-0.0022544861
-0.016677856
-0.01940918
-0.050018311
0.0496521
-0.013900757
-0.032501221
-0.049530029
-0.0084686279
-0.0050582886
0.026489258
0.039459229
-0.051818848
-0.041717529
0.023666382
0.038543701
0.0030021667
-0.018569946
-0.047363281
0.047821045
0.0084457397
0.0574646
0.014625549
0.045959473
0.047271729
-0.054107666
-0.02255249
0.023544312
-0.0076255798
-0.051330566
0.018157959
0.025192261
0.053222656
-0.012481689
-0.032348633
0.027404785
0.0059738159
-0.058868408
-0.061859131
-0.028381348
-0.057403564
0.051452637
0.057312012
0.007484436
-0.056854248
0.022216797
-0.0026626587
0.043823242
-0.0574646
0.028427124
-0.045257568
-0.038665771
-0.010566711
-0.033538818
0.034912109
0.026504517
0.016815186
0.014022827
0.054107666
-0.06237793
-0.059387207
0.058624268
0.040313721
-0.047210693
0.057891846
-0.011199951
-0.053375244
0.018692017
-0.04675293
0.002494812
-0.059753418
-0.019226074
0.051849365
0.050933838
0.034393311
0.046722412
0.04083252
0.020614624
-0.00063180923
-0.040222168
-0.043945312
-0.049530029
-0.030441284
0.061981201
-0.020965576
0.017776489
0.051940918
-0.034545898
-0.057037354
0.03918457
0.06137085
0.04486084
0.046539307
0.00010144711
0.032928467
-0.052337646
-0.024810791
0.0019216537
0.022445679
-0.044830322
-0.056884766
-0.053375244
-0.0070610046
0.036682129
0.034790039
-0.025314331
-0.0014810562
-0.031890869
-0.017028809
0.036651611
0.0079498291
-0.05355835
0.037689209
-0.043273926
0.039031982
0.014945984
0.0027446747
-0.047424316
-0.040222168
0.014076233
0.00045800209
-0.054626465
-0.039642334
0.06060791
-0.060638428
-0.015380859
0.054107666
-0.01322937
-0.03616333
-0.022262573
-0.034637451
0.035339355
-0.034698486
-0.052429199
0.01133728
0.061950684
0.040252686
0.042449951
-0.046905518
0.016952515
-0.023803711
-0.0011482239
-0.0081787109
0.043884277
0.057189941
0.031494141
-0.057922363
0.03112793
0.028884888
0.0047836304
-0.060546875
-0.011352539
0.040527344
0.019424438
-0.044525146
0.040283203
0.04776001
0.00019085407
-0.058746338
-0.018051147
0.054199219
0.018539429
0.01763916
0.030609131
-0.046813965
-0.05758667
-0.057769775
-0.020126343
-0.038024902
0.014778137
-0.029449463
-0.060394287
-0.023361206
-0.060974121
0.030014038
-0.0093383789
-0.028167725
-0.0058746338
0.031555176
-0.001537323
-0.038665771
0.0087280273
0.037719727
0.0023593903
-0.057678223
0.01020813
0.00044798851
-0.022598267
-0.015159607
0.0070877075
-0.05645752
-0.036437988
-0.030776978
-0.0033683777
-0.056304932
0.011184692
0.024520874
0.021179199
-0.054351807
0.011116028
-0.026168823
-0.019897461
0.044433594
0.0017929077
0.024581909
-0.0028171539
0.0087890625
0.042694092
-0.030044556
-0.029846191
0.033996582
-0.052398682
-0.015174866
0.036224365
0.050079346
0.033203125
-0.013259888
-0.041809082
0.057800293
0.00057697296
-0.053497314
0.024032593
0.027511597
0.04800415
-0.041717529
0.042907715
0.059753418
-0.023635864
-0.026168823
0.053924561
-0.051849365
0.011909485
-0.029708862
0.040283203
-0.03112793
-0.02583313
0.024093628
0.026382446
0.032684326
0.02305603
-0.054840088
-0.025772095
-0.0284729
-0.036804199
-0.051391602
0.029602051
0.026901245
0.015869141
0.0022525787
0.0062789917
0.0095672607
-0.0084228516
0.030395508
-0.058441162
-0.050109863
-0.010643005
-0.032043457
0.057983398
-0.059020996
-0.045013428
-0.041351318
0.01348877
0.025009155
-0.020065308
-0.032287598
-0.033660889
0.056152344
0.025848389
-0.052398682
-0.048126221
0.021209717
-0.023406982
0.014961243
-0.058380127
0.043792725
0.0024414062
-0.029647827
0.037658691
0.013511658
-0.025695801
0.027526855
0.023757935
0.033081055
-0.011581421
0.034545898
0.013114929
-0.020111084
-0.048706055
-0.0090408325
-0.026290894
0.02104187
0.0078659058
0.052093506
0.043273926
-0.034118652
-0.0055465698
-0.061218262
-0.045654297
-0.031951904
0.0024337769
-0.036895752
-0.012619019
0.015083313
0.0054969788
-0.048095703
-0.040100098
-0.037597656
0.013916016
0.041778564
-0.021957397
0.061340332
0.0069580078
0.035095215
0.026275635
0.058410645
0.041870117
0.0084381104
0.0037918091
0.012275696
-0.057952881
-0.019805908
-0.049316406
-0.046112061
0.036437988
0.023071289
0.022705078
0.04486084
0.042327881
-0.028823853
0.012283325
0.040710449
-0.02633667
-0.046905518
-0.058380127
0.013526917
-0.0038986206
-0.0072746277
-0.053253174
0.052001953
-0.0078964233
-0.012023926
0.011283875
0.016998291
-0.01348114
0.0019950867
0.003112793
0.021911621
0.0128479
0.035095215
-0.04977417
-0.039093018
-0.010864258
0.061187744
-0.017593384
0.052307129
-0.00072860718
0.0083312988
-0.029312134
0.015441895
-0.014297485
0.0075874329
-0.022109985
-0.021316528
0.041687012
0.029632568
-0.006603241
-0.0054283142
0.057403564
0.020095825
0.0093765259
0.022735596
0.040588379
-0.0091247559
0.024200439
0.037353516
0.039855957
0.053131104
-0.055511475
-0.058135986
-0.0016002655
0.021636963
0.041748047
0.029144287
0.026031494
0.057861328
-0.035644531
0.03894043
-0.056213379
-0.0055007935
0.016921997
-0.028274536
-0.029342651
0.047332764
-0.0011968613
0.0087738037
0.014312744
-0.002035141
-0.017120361
-0.013885498
-0.043731689
-0.030929565
-0.032043457
0.057128906
-0.026428223
0.03137207
0.054473877
-0.020233154
-0.05090332
0.051696777
0.0025253296
-0.061279297
-0.046905518
0.059539795
0.060241699
-0.0023880005
0.038574219
-0.01940918
0.045654297
-0.059692383
0.023132324
0.040374756
-0.043457031
0.061767578
0.0057563782
0.021316528
0.02822876
-0.020706177
0.0083312988
0.0029277802
-0.0010271072
-0.036193848
0.015655518
0.045440674
-0.028793335
0.011024475
-0.051513672
0.037322998
-0.055541992
0.021942139
0.02722168
0.062103271
0.044067383
-0.0038223267
0.037109375
0.034515381
0.061645508
0.0064506531
-0.041137695
0.024307251
-0.026153564
-0.0030822754
0.037261963
-0.046051025
-0.042114258
-0.029525757
0.0089187622
0.0028553009
-0.038085938
0.055786133
-0.014404297
0.061157227
0.011924744
0.051330566
-0.018707275
0.044525146
-0.028579712
-0.046447754
-0.036621094
0.046844482
-0.036254883
0.060058594
0.062194824
-0.0082778931
-0.019226074
-0.0051803589
0.059082031
0.054138184
-0.030441284
0.060974121
0.0027713776
-0.054046631
0.013534546
0.013763428
0.0055351257
-0.0041313171
-0.017044067
0.018539429
0.016021729
0.055847168
0.041473389
0.028320312
0.030944824
0.0076370239
0.0036449432
0.040802002
-0.058044434
-0.036010742
0.054901123
-0.00060176849
0.0048370361
-0.058563232
0.05871582
0.025482178
0.050262451
0.0031547546
-0.01675415
-0.048156738
0.0029392242
0.057891846
0.051849365
0.0007982254
0.036529541
0.054260254
-0.045928955
-0.011329651
0.041107178
-0.02053833
0.0069885254
0.020935059
-0.040161133
-0.0024585724
-0.05758667
-0.043609619
0.0073318481
-0.042266846
0.033996582
0.017547607
-0.014328003
0.05480957
-0.028503418
-0.051696777
-0.0048446655
0.033874512
0.040588379
0.023422241
-0.04019165
0.018157959
-0.025604248
-0.04095459
-0.015533447
-0.0074462891
-0.027938843
0.020324707
-0.013275146
0.059539795
0.047637939
-0.058502197
-0.061706543
-0.05947876
-0.043487549
0.018325806
0.050140381
0.051086426
-0.015441895
-0.019088745
0.058898926
0.026916504
0.035888672
0.05960083
-0.048431396
-0.027206421
-0.049438477
-0.033630371
0.048126221
-0.060668945
0.036102295
-0.0047264099
-0.0083312988
0.017486572
-0.0005273819
0.016403198
-0.0049858093
-0.033813477
0.047607422
0.044921875
0.012275696
0.032501221
0.01890564
0.059051514
-0.052886963
-0.03692627
-0.053222656
-0.034545898
0.029754639
0.029541016
0.033355713
0.0047302246
0.045928955
-0.041656494
-0.016311646
-0.015220642
-0.041595459
0.036987305
-0.060974121
-0.00077009201
-0.0028057098
-0.059326172
0.0076255798
0.0021190643
0.033935547
-0.042510986
0.034332275
0.018768311
0.055084229
0.010620117
-0.034240723
0.062072754
0.04876709
0.04598999
-0.0045471191
-0.039093018
0.051452637
0.0045585632
0.023071289
-0.0023612976
-0.021331787
-0.059143066
-0.017974854
0.05090332
0.047393799
-0.059814453
0.024520874
-0.032073975
-0.05557251
-0.0090560913
0.041717529
-0.022674561
-0.036407471
0.052429199
0.013748169
0.039306641
0.026184082
0.034759521
-0.041778564
-0.058868408
-0.026565552
-0.032562256
0.029815674
-0.044464111
-0.033660889
-0.044891357
-0.053253174
-0.018936157
-0.041107178
-0.03213501
0.021240234
-0.031494141
0.0002322197
-0.0046005249
-0.050292969
0.052185059
-0.04510498
0.047912598
-0.024337769
0.047058105
-0.01725769
-0.034667969
0.061126709
-0.019866943
0.037780762
0.058776855
0.037567139
0.030776978
-0.047729492
-0.031616211
-0.00054311752
0.043945312
0.030273438
-0.014801025
0.030548096
0.017669678
0.016357422
0.015045166
-0.011734009
-0.037384033
-0.033294678
0.056518555
0.06161499
-0.022567749
0.03427124
0.00074100494
0.048461914
0.0052528381
-0.060424805
-0.050323486
0.026016235
-0.009262085
0.0086288452
0.054870605
0.052398682
-0.055175781
-0.039703369
0.044494629
0.03125
0.027236938
0.060394287
0.021759033
-0.013092041
-0.018280029
-0.020523071
0.022247314
0.0056838989
0.062438965
-0.050994873
-0.059906006
-0.060211182
0.037536621
-0.035736084
-0.0014543533
0.049407959
-0.0092926025
-0.05166626
-0.0032272339
-0.039031982
0.040496826
-0.058288574
0.034362793
0.048156738
0.023910522
0.033416748
0.040771484
-0.042388916
0.0014400482
0.027954102
-0.002658844
-0.02015686
0.045410156
-0.014862061
-0.017089844
-0.051818848
-0.056243896
-0.04309082
0.055358887
-0.010017395
0.040222168
-0.019439697
0.0042266846
0.012214661
0.060241699
0.019622803
-0.01322937
-0.0597229
-0.019760132
0.052886963
-0.031951904
-0.047821045
-0.04675293
0.054382324
0.018783569
0.043884277
-0.046569824
0.061706543
0.023910522
0.046295166
0.017608643
-0.043457031
-0.057617188
0.017990112
-0.020553589
0.052947998
-0.040924072
-0.015625
-0.029006958
0.055786133
0.050964355
0.054168701
0.015617371
-0.03213501
0.059173584
-0.01537323
-0.0038909912
0.028411865
0.0063247681
0.015457153
-0.052886963
-0.032501221
-0.024490356
-0.011116028
0.023605347
-0.04296875
-0.0017633438
-0.027023315
0.0086898804
-0.052032471
0.0036811829
0.03314209
0.026000977
0.014205933
0.058990479
-0.00066137314
-0.050201416
-0.013954163
-0.048217773
0.02456665
2.604723e-05
-0.033874512
-0.022354126
-0.042633057
-0.035308838
0.055023193
-0.051513672
0.026229858
0.051361084
0.013809204
0.0362854
0.044830322
-0.040893555
0.015014648
-0.0014467239
-0.034698486
0.052429199
0.041656494
0.012023926
-0.042449951
0.049987793
-0.055145264
0.017303467
0.028915405
-0.059112549
0.01902771
0.021881104
0.060455322
-0.026565552
0.0017261505
-0.019058228
-0.029998779
-0.049987793
-0.008430481
-0.054321289
-0.009979248
-0.017776489
0.045593262
-0.0078811646
0.010253906
-0.033905029
-0.031311035
0.016311646
0.02482605
0.041748047
-0.051055908
-0.057037354
0.031097412
0.026245117
-0.015083313
-0.026702881
0.047088623
0.028915405
-0.042205811
-0.048583984
0.047698975
0.026657104
0.013290405
-0.042205811
0.035003662
-0.056365967
-0.016845703
-0.035308838
-0.061035156
-0.00028896332
0.023239136
0.055877686
-0.051727295
0.027496338
0.0037784576
-0.056640625
-0.043762207
0.0062713623
-0.019973755
-0.052154541
-0.0129776
0.025985718
-0.0059089661
-0.036193848
-0.029876709
0.035614014
0.0012168884
0.050476074
-0.0096054077
0.060272217
-0.052368164
0.049224854
0.03338623
-0.037750244
-0.014976501
0.036895752
-0.0053672791
-0.010971069
-0.021224976
0.019134521
0.0043563843
-0.052642822
-0.061065674
-0.018371582
0.0072288513
0.02507019
0.04284668
-0.028686523
0.037475586
0.0076370239
0.051422119
0.044342041
0.052001953
0.018249512
-0.020935059
-0.054626465
-0.024047852
0.053436279
0.052459717
0.01512146
0.0022087097
0.02204895
0.056640625
-0.045562744
-0.054718018
-0.034912109
-0.0082092285
-0.025619507
-0.042724609
0.0043525696
-0.052429199
-0.003370285
-0.044921875
-0.0050048828
0.029724121
-0.038818359
0.043945312
-0.0025596619
0.020523071
0.019424438
-0.045013428
-0.039581299
0.039306641
-0.022857666
-0.034118652
0.0060577393
0.055328369
0.020736694
0.0023021698
-0.020385742
0.034759521
-0.060028076
-0.0084915161
0.058288574
-0.021575928
-0.033203125
-0.041168213
-0.022949219
0.0046081543
0.032958984
0.010238647
0.038787842
-0.02986145
-0.036560059
-0.0039329529
-0.045288086
0.061950684
0.030426025
-0.015441895
-0.052124023
-0.044494629
0.041595459
-0.03338623
-0.061004639
-0.049163818
-0.0018396378
-0.0012435913
-0.052520752
0.039520264
0.037841797
0.0084381104
0.056427002
-0.013130188
-0.022277832
-0.055999756
0.037902832
0.060943604
-0.030441284
0.049835205
0.02204895
-0.03704834
0.012382507
0.039916992
0.054321289
0.029312134
0.05859375
-0.0037612915
0.057098389
0.020172119
-0.03112793
0.0076789856
-0.037841797
-0.052734375
-0.0017213821
-0.043121338
0.054077148
-0.049194336
0.018676758
0.035461426
0.032958984
-0.0070915222
-0.020462036
0.012443542
-0.057220459
0.021575928
0.058105469
-0.053833008
-0.052825928
-0.059356689
0.013092041
-0.027770996
0.026092529
-0.014862061
0.0092391968
0.026992798
0.044525146
0.050292969
-0.056335449
0.022567749
0.0071868896
0.059326172
0.020324707
-0.00079298019
0.025238037
-0.03994751
0.050598145
-0.018936157
0.035430908
-0.043670654
-0.048461914
-0.030471802
0.0032939911
-0.014404297
0.051574707
-0.054412842
-0.059936523
0.037963867
0.023284912
0.02897644
-0.045074463
-0.044464111
-0.0047492981
0.0032329559
0.06072998
-0.054840088
0.031616211
-0.035614014
0.022796631
0.040344238
-0.044311523
0.0094528198
-0.026443481
0.054992676
0.020965576
-0.0074729919
-0.045532227
0.034423828
-0.055938721
0.012542725
-0.044586182
-0.0014858246
-0.055419922
0.054534912
-0.027297974
-0.029876709
0.015365601
0.052612305
0.031173706
0.051025391
0.022216797
0.052307129
0.014373779
0.00074338913
-0.055114746
0.017669678
-0.029022217
0.024703979
-0.030593872
-0.042175293
-0.011306763
-0.012619019
0.023773193
0.044464111
-0.0047073364
0.057861328
0.041900635
0.046447754
-0.04977417
-0.024414062
-0.012214661
-0.021682739
-0.016372681
-0.014572144
-0.01235199
-2.9921532e-05
-0.04876709
0.0095443726
0.03692627
-0.054504395
0.039611816
0.036224365
0.057159424
-0.024475098
0.052307129
-0.023452759
-0.044525146
-0.025405884
-0.047576904
-0.0044021606
0.013114929
-0.0056381226
-0.055297852
0.030578613
-0.042785645
0.051452637
0.011505127
-0.017211914
0.030990601
-0.044952393
0.014099121
0.054016113
0.04598999
-0.018692017
-0.039337158
0.0051307678
-0.033782959
0.00071239471
0.019866943
0.060638428
-0.025512695
0.0069656372
-0.035797119
0.0031356812
-0.024917603
0.0033073425
0.051330566
0.014213562
0.034851074
-0.018630981
0.020355225
0.042480469
0.022994995
0.0029964447
-0.040618896
-0.013336182
0.022445679
-0.030426025
0.0022106171
0.052612305
-0.033630371
0.05657959
0.046630859
-0.035125732
0.061401367
-0.0074272156
-0.049530029
0.018493652
-0.061767578
-0.027297974
-0.035705566
-0.04598999
3.349781e-05
-0.058685303
0.010231018
0.011833191
0.059509277
-0.020721436
0.035308838
0.060119629
0.047149658
0.025604248
-0.027587891
0.028823853
-0.043273926
0.01197052
0.0077400208
0.010452271
0.043243408
-0.062164307
0.041381836
-0.039215088
0.002658844
-0.061828613
-0.0048980713
0.044616699
-0.051757812
-0.036224365
-0.012687683
-0.033294678
-0.0044288635
0.061889648
0.024246216
-0.051605225
-0.011711121
-0.040222168
0.046173096
0.05657959
0.0078811646
0.0060806274
-0.0094909668
0.053894043
0.036468506
0.035400391
-0.055328369
-0.013465881
0.016464233
0.034759521
0.0068130493
0.03237915
0.031280518
-0.038879395
0.016723633
-0.028030396
-0.036712646
-0.061279297
0.019378662
0.013786316
-0.058380127
-0.0079421997
0.009552002
0.0095901489
0.0043144226
0.04208374
-0.053344727
-0.030426025
0.041412354
-0.014701843
-0.024414062
0.014694214
0.037384033
0.028182983
-0.014633179
-0.0091629028
0.033477783
0.012306213
0.036651611
-0.0053367615
0.043243408
-0.032592773
0.0046005249
-0.035919189
0.061431885
-0.028518677
-0.045928955
0.048400879
-0.024642944
-0.050933838
0.029220581
-0.0019216537
0.045593262
0.022399902
-0.043060303
-0.061126709
0.011909485
-0.052429199
-0.061462402
0.015365601
-0.061920166
0.032958984
0.015563965
-0.016189575
0.0058708191
-0.032684326
0.049926758
0.060272217
0.046203613
0.041595459
-0.038330078
0.025802612
0.045135498
-0.0041847229
-0.048980713
-0.016143799
-0.011489868
0.031921387
-0.05090332
0.041229248
0.020111084
-0.058532715
0.012924194
-0.0082473755
0.0057640076
-0.021179199
-0.019439697
-0.014694214
-0.0044364929
-0.02406311
-0.051177979
0.045806885
-0.02243042
0.03729248
-0.0015106201
0.028839111
0.041046143
0.015556335
0.057891846
-0.046661377
-0.017623901
0.03326416
0.02532959
-0.0094985962
-0.050964355
-0.01108551
-0.0081329346
-0.027435303
0.03515625
-0.040893555
0.0017786026
0.0097808838
0.023513794
0.041259766
0.018081665
-0.007648468
0.033752441
-0.005531311
0.0010042191
-0.020217896
0.060882568
-0.017990112
-0.020935059
-0.025604248
0.00042915344
-0.05645752
-0.057983398
0.048828125
-0.015869141
0.009727478
-0.013145447
-0.058288574
0.0037002563
0.016525269
-0.038513184
-0.013198853
0.022293091
0.038299561
0.020172119
-0.0045051575
0.053771973
-0.017486572
0.02633667
-0.026809692
0.048706055
0.037078857
0.006149292
-0.058135986
0.055175781
0.01260376
0.04309082
0.006111145
0.053161621
-0.053649902
-0.011795044
0.041595459
-0.012489319
-0.0086746216
-0.00099468231
0.056030273
-0.055389404
-0.03515625
-0.016693115
0.041931152
0.013237
-0.016052246
0.053771973
0.034210205
-0.014694214
-0.03729248
0.010719299
-0.0083084106
-0.053985596
-0.043334961
-0.042327881
-0.048950195
-0.02822876
-0.0045852661
-0.024307251
-0.022674561
-0.027236938
0.0079345703
-0.0060386658
0.0083999634
-0.023330688
0.013717651
-0.016860962
-0.043884277
0.025024414
-0.054290771
0.00047874451
-0.0052986145
-0.033843994
-0.0073776245
-0.028717041
-0.060943604
0.030029297
0.011940002
-0.011604309
-0.012481689
-0.018844604
0.025390625
-0.035980225
0.055358887
-0.016738892
-0.0045280457
-0.03237915
-0.041412354
-0.048248291
-0.035369873
0.011650085
0.022888184
0.037750244
0.0020198822
-0.058288574
0.040100098
0.03326416
0.0066795349
-0.016845703
0.061248779
0.060424805
0.0046920776
-0.008140564
0.054656982
0.0074996948
-0.025375366
0.0063552856
0.017044067
0.0075531006
0.0028705597
-0.058319092
-0.05355835
0.058685303
0.022521973
-0.0049095154
0.0050506592
0.012046814
0.035247803
-0.050109863
0.0057067871
0.0073814392
0.032196045
0.061035156
-0.031311035
0.032470703
-0.0043144226
0.043060303
-0.022064209
0.03918457
-0.023376465
0.0206604
0.020935059
0.026672363
0.053405762
-0.060791016
0.032073975
0.049316406
0.043640137
0.006149292
0.023193359
0.0025367737
-0.019485474
0.0084457397
-0.021499634
-0.046325684
-0.011131287
-0.060211182
-0.034484863
0.054016113
-0.013000488
-0.027481079
0.0042800903
0.014801025
-0.050109863
-0.050689697
-0.0063400269
0.037841797
-0.030487061
0.053314209
0.0031814575
-0.026245117
0.0440979
0.0091400146
-0.022994995
0.006187439
0.06060791
0.046478271
-0.018188477
-0.0038528442
0.060394287
-0.028656006
-0.0043716431
0.02897644
-0.04977417
-0.026657104
0.059509277
-0.058807373
-0.048339844
-0.049468994
-0.052459717
-0.029647827
0.061798096
0.033325195
0.018371582
0.022109985
-0.04309082
0.0084228516
-0.02784729
0.017959595
-0.051483154
-0.035736084
0.052124023
-0.049468994
-0.014656067
0.020278931
0.026992798
0.011779785
0.014289856
0.03302002
0.053009033
0.013092041
0.028930664
0.014755249
0.06072998
-0.054016113
0.051025391
0.03692627
0.057403564
0.033569336
-0.0058097839
0.053497314
0.028427124
-0.00023579597
-0.043823242
-0.049987793
-0.045410156
0.026855469
-0.04977417
0.043395996
-0.0519104
-0.060882568
-0.0012397766
0.012947083
-0.024871826
0.017028809
0.024246216
-0.041931152
0.016799927
-0.061035156
-0.034210205
0.062011719
0.0546875
-0.0020141602
0.026000977
0.012817383
-0.046112061
0.05178833
0.0066566467
0.010353088
-0.028137207
0.049407959
-0.012611389
0.029907227
0.015151978
-0.052459717
0.020355225
-0.013130188
-0.0056419373
-0.043395996
-0.045349121
0.0020389557
0.011238098
0.025726318
-0.053405762
0.015853882
-0.015625
-0.039611816
-0.015441895
-0.042327881
-0.010704041
0.036621094
-0.030075073
0.0014362335
-0.040588379
0.051483154
-0.014335632
-0.043762207
-0.059112549
-0.0105896
0.061859131
-0.054962158
0.034637451
-0.020523071
0.025054932
0.0082244873
-0.011009216
-0.01600647
-0.038787842
0.048126221
0.011627197
-0.041717529
0.016189575
-0.0013151169
-0.050872803
0.025390625
-0.021118164
-0.062255859
-0.027862549
-0.017623901
0.036895752
-0.055755615
-0.045959473
0.051940918
-0.012252808
-0.033325195
0.03515625
0.019302368
-0.0029087067
0.038360596
0.028457642
-0.050231934
-0.040985107
0.023895264
-0.051300049
0.0010375977
-0.04888916
0.026519775
0.031158447
0.043701172
-0.018798828
-0.044158936
0.0071868896
0.017379761
-0.013824463
-0.041900635
0.061218262
0.04486084
0.014572144
-0.0067749023
-0.0064315796
0.061157227
-0.03729248
0.03137207
0.056549072
0.0075531006
-0.053222656
0.016143799
0.027252197
-0.062438965
-0.031555176
-0.035766602
0.059143066
-0.024108887
-0.060577393
-0.0015459061
0.053039551
0.0052566528
-0.055297852
-0.061767578
0.061309814
0.04977417
0.011581421
-0.037231445
-0.027099609
-0.015945435
0.053771973
-0.02053833
0.0078811646
-0.016860962
0.017700195
0.037322998
-0.029724121
0.019668579
-0.035797119
-0.042480469
-0.049621582
0.020401001
-0.040252686
-0.047424316
-0.047912598
0.014724731
0.015762329
-0.039276123
0.037780762
-0.0037765503
-0.0030040741
-0.026855469
-0.012809753
-0.0006108284
0.037628174
0.040985107
0.017852783
0.06060791
-0.01058197
-0.023834229
0.03326416
0.0026130676
0.043334961
-0.0015411377
0.0064888
-0.04196167
0.028167725
-0.016830444
0.029998779
0.022109985
0.025085449
0.046600342
-0.037475586
-0.015159607
0.026733398
-0.032104492
-0.033508301
0.018081665
0.029525757
-0.044769287
0.012054443
0.039825439
-0.04473877
-0.03704834
0.018859863
0.060241699
-0.061218262
0.048492432
0.055847168
0.016342163
-0.039398193
-0.057067871
-0.037963867
-0.042419434
-0.020889282
-0.038482666
0.029190063
-0.0098724365
0.052703857
-0.024719238
0.061737061
-0.019714355
-0.0037155151
0.046661377
0.032806396
0.0074234009
0.052246094
-0.016815186
-0.037872314
-0.029220581
0.032287598
0.0082092285
-0.04309082
6.6876411e-05
0.017852783
-0.017181396
-0.029922485
0.028091431
0.0059661865
0.058685303
0.0075569153
0.0051231384
0.042358398
0.010597229
0.0015659332
0.059967041
0.035552979
-0.049682617
0.030334473
0.044799805
0.0058021545
0.01713562
0.0088195801
-0.012916565
0.05355835
-0.047302246
-0.04107666
0.0087356567
0.028244019
-0.038665771
0.0040359497
0.007144928
-0.050811768
0.016235352
0.0045776367
0.01725769
-0.00015985966
0.009475708
0.01902771
0.051391602
-0.036529541
0.054229736
0.048522949
0.041412354
0.024765015
-0.043212891
0.053466797
0.0095062256
-0.051422119
-0.060333252
-0.052124023
0.04586792
0.050354004
0.0056114197
0.031860352
0.011398315
0.062072754
-0.052185059
-0.062194824
-0.050933838
0.011291504
0.017868042
0.029586792
0.005645752
-0.010345459
0.03338623
-0.03994751
-0.045257568
0.031921387
0.045013428
-0.022674561
0.031188965
0.0045013428
0.046722412
0.034088135
-0.05166626
-0.0077781677
0.01776123
-0.042602539
-0.034240723
-0.057067871
0.0048446655
0.0087814331
-0.035339355
-0.013816833
-0.04006958
-0.033935547
0.028686523
0.037719727
0.0078086853
0.018112183
-0.034912109
-0.016113281
0.051055908
0.040222168
0.05178833
-0.059875488
-0.059875488
-0.036743164
-0.054046631
0.014190674
0.02154541
-6.1511993e-05
-0.040466309
-0.021652222
0.041259766
0.0097122192
-0.0087127686
-0.021789551
-0.035675049
-0.041687012
0.033691406
-0.046234131
-0.013145447
-0.0097503662
-0.025695801
0.037994385
0.054229736
0.019943237
-0.061584473
0.052459717
-0.035552979
0.0028762817
0.059814453
-0.046142578
0.035186768
0.0069961548
0.03527832
0.049346924
-0.01651001
0.050262451
0.0034217834
0.061737061
-0.024108887
-0.0031776428
0.031494141
-0.0019350052
-0.061065674
0.037597656
0.042205811
-0.021484375
0.041290283
-0.039306641
0.045471191
-0.061309814
-0.041534424
0.00087738037
-0.037567139
-0.028961182
-0.036987305
0.0009393692
0.026428223
-0.004032135
-0.0020828247
-0.034057617
-0.062469482
-0.03793335
-0.02545166
-0.044128418
0.048400879
-0.030227661
-0.024124146
0.03024292
0.034881592
0.020935059
0.058685303
-0.0030498505
0.04385376
0.013389587
0.0041999817
-0.062164307
0.0037822723
0.017486572
-0.01260376
0.031219482
-0.06149292
-0.025039673
-0.037536621
0.018264771
0.016967773
-0.058227539
-0.057922363
-0.040283203
-0.037231445
0.026321411
-0.046936035
-0.047637939
-0.018066406
0.055725098
0.044158936
0.033233643
-0.039764404
-0.0206604
-0.035369873
0.020828247
3.3140182e-05
0.046722412
-0.036224365
0.015357971
-0.0095367432
0.056091309
-0.0092773438
-0.047271729
0.013641357
0.057342529
0.01449585
0.0041122437
0.041381836
-0.034637451
0.055999756
0.012237549
-0.043487549
0.015762329
0.0025024414
0.0092163086
-0.030380249
0.012207031
0.049560547
-0.024871826
-0.056945801
0.048736572
0.032989502
0.040374756
-0.015594482
-0.013328552
0.05267334
-0.057769775
-0.017089844
-0.013328552
0.06237793
0.0043678284
-0.030029297
0.021591187
-0.010879517
0.05166626
-0.030609131
-0.058227539
-0.024337769
0.0079574585
0.0030403137
-0.014480591
-0.025970459
0.012832642
-0.046661377
-0.051391602
-0.020950317
0.041473389
0.033813477
0.02772522
0.039581299
0.0010251999
-0.061645508
0.054199219
-0.061767578
0.03137207
-0.0036296844
-0.058288574
-0.038452148
-0.0094985962
-0.03237915
0.040344238
-0.01965332
-0.010490417
0.024795532
-0.05569458
0.017776489
-0.011985779
0.026397705
0.03125
-0.028182983
-0.020751953
0.029434204
-0.044708252
-0.055389404
-0.036529541
-0.049072266
-0.05267334
0.0016832352
-0.041534424
0.038208008
0.059570312
0.034332275
-0.020675659
0.0038852692
-0.0013799667
0.0054931641
-0.027511597
-0.0013151169
-0.060577393
-0.00060510635
0.0020256042
-0.049865723
-0.062255859
0.0068054199
-0.010520935
0.041931152
-0.04083252
0.0021419525
-0.057617188
-0.0045967102
-0.0032958984
0.058166504
-0.019897461
0.033905029
-0.024490356
0.013877869
-0.011207581
0.053955078
0.045501709
-0.055419922
-0.0028820038
-0.042114258
0.032745361
0.03692627
-0.046356201
-0.007434845
-0.011634827
0.06149292
-0.0019111633
0.037902832
-0.049194336
0.022903442
-0.049621582
-0.050170898
-0.042602539
-0.037475586
0.011795044
0.042907715
-0.049255371
0.056915283
-0.029754639
-0.042724609
0.036621094
-0.047058105
-0.017440796
0.021743774
-0.023956299
-0.038360596
0.057739258
0.0013074875
-0.018890381
0.019180298
-0.0035877228
0.0083847046
0.012046814
-0.0060577393
-0.033111572
0.043029785
0.00046682358
-0.054107666
-0.017242432
0.016067505
0.056884766
0.022338867
0.021713257
0.01802063
0.040557861
0.020339966
-0.049987793
0.0026931763
0.049102783
-0.042266846
0.0093688965
-0.016204834
-0.026229858
-0.035461426
0.011047363
-0.025405884
-0.024459839
0.031555176
0.032318115
0.021224976
0.05355835
-0.058929443
0.06161499
0.043151855
-0.042785645
-0.02961731
0.0063285828
-0.014129639
0.046539307
0.0070915222
-0.017791748
0.018386841
-0.014450073
0.0036468506
-0.019577026
-0.025650024
-0.01890564
-0.060516357
-0.053131104
-0.037902832
0.028030396
0.020599365
-0.027313232
-0.05657959
0.024307251
-0.0084457397
-0.016479492
-0.036437988
0.023101807
0.0013179779
-0.052886963
0.0060424805
-0.043609619
0.039611816
-0.025085449
0.025634766
0.012878418
-0.06161499
0.021026611
-0.021377563
0.010139465
0.056152344
-0.029342651
-0.033477783
-0.036743164
-0.03793335
-0.058868408
-0.027633667
-0.016281128
-0.014877319
0.025650024
-0.0090026855
-0.030410767
-0.040405273
-0.042114258
-0.043609619
-0.062347412
-0.0025520325
0.032623291
0.014587402
0.057495117
0.045013428
-0.040344238
-0.04800415
0.017745972
-0.0010719299
-0.017959595
-0.055297852
-0.0073776245
-0.03704834
0.019424438
0.013366699
-0.010429382
-0.0039634705
-0.039855957
-0.060180664
-0.0072937012
0.044555664
0.057495117
-0.015213013
-0.030197144
-0.059753418
-0.041290283
0.021850586
0.0073547363
-0.043151855
0.010696411
0.028656006
-0.041168213
0.0036144257
-0.0083389282
0.059356689
0.017150879
-0.026672363
0.046386719
-0.0087738037
-0.012428284
-0.053985596
-0.040710449
0.047332764
-0.024246216
0.045684814
-0.035491943
-0.046051025
-0.061187744
-0.032196045
-0.010879517
-0.032501221
-0.0051841736
-0.0018815994
0.026535034
0.053649902
0.024612427
0.0037326813
0.054901123
-0.02507019
0.013389587
-0.057403564
-0.025177002
0.046173096
0.010498047
-0.006893158
-0.039886475
-0.027740479
-0.042663574
0.020141602
0.057128906
0.043457031
-0.031982422
0.060424805
0.05065918
0.012924194
0.015899658
0.01424408
0.0078353882
0.011917114
-0.050231934
-0.0020694733
0.039093018
0.0099334717
0.057312012
0.013664246
-0.061889648
0.0050506592
-0.040344238
-0.013397217
0.026733398
-0.04006958
0.0040130615
-0.013504028
0.049591064
0.057952881
-0.038146973
0.0058479309
0.048278809
-0.050933838
-0.029373169
0.010704041
0.040008545
0.010643005
-0.030715942
0.004360199
-0.047485352
-0.052246094
0.05178833
-0.042877197
0.028244019
-0.029144287
-0.06060791
0.023849487
0.022476196
0.037628174
0.047973633
0.034851074
0.0010757446
0.0072669983
0.0021762848
-0.043792725
-0.011428833
-0.06072998
-0.012130737
-0.034820557
-0.0097961426
0.04385376
0.0060501099
-0.051757812
0.023132324
0.040252686
0.0058174133
-0.013328552
-0.03414917
0.048065186
0.017547607
0.0074729919
-0.020965576
-0.02104187
0.059204102
-0.046081543
0.018096924
-0.033721924
0.061309814
0.015510559
0.026412964
0.013656616
-0.019989014
0.012229919
-0.059967041
0.056182861
0.054962158
-5.9425831e-05
-0.041107178
0.022354126
-0.023986816
0.013801575
-0.023651123
0.059204102
-0.046234131
-0.0069961548
0.036956787
0.0078582764
-0.0055770874
-0.043151855
-0.0050010681
-0.056793213
-0.027801514
-0.046691895
0.02986145
-0.039550781
-0.045776367
0.048278809
-0.026885986
-0.02885437
0.015762329
-0.010810852
-0.0069236755
0.042602539
0.043579102
-0.010665894
-0.015533447
0.054290771
-0.0076026917
0.056091309
-0.020095825
-0.048187256
-0.039886475
-0.027526855
-0.041534424
0.037109375
0.043426514
-0.044036865
-0.026657104
0.0087203979
0.052154541
0.02822876
-0.060699463
0.030914307
0.00073862076
-0.035675049
-0.019836426
0.0030555725
0.0079040527
0.014030457
-0.059692383
-0.011734009
0.054779053
0.025985718
-0.054870605
0.042236328
0.012931824
-0.058746338
-0.031890869
0.011825562
0.030395508
0.023574829
0.016677856
-0.041290283
-0.058624268
0.052642822
0.015701294
-0.041778564
0.0028953552
0.038299561
-0.021789551
-0.017700195
-0.061645508
-0.021377563
-0.051330566
-0.031768799
-0.023712158
-0.010604858
-0.014633179
-0.061706543
-0.0362854
-0.053222656
-0.024383545
0.041442871
0.023193359
-0.050506592
0.034667969
0.047576904
-0.052001953
0.02947998
0.018936157
0.054199219
0.013664246
-0.04309082
-0.037597656
-0.052215576
0.053344727
0.017807007
-0.027145386
0.021911621
0.052978516
-0.049438477
0.047698975
0.0042991638
0.058105469
-0.062164307
-0.018493652
0.012207031
-0.050994873
-0.050842285
0.055023193
0.060028076
0.0085296631
0.050537109
-0.012580872
0.03427124
0.016845703
0.0089492798
-0.021224976
0.037780762
-0.010772705
0.048797607
0.051818848
-0.0287323
-0.058349609
-0.026992798
0.0090789795
-0.05291748
0.007598877
-0.062011719
0.0042304993
0.03527832
0.047912598
-0.035522461
-0.053710938
-0.026046753
0.049041748
0.047576904
-0.048553467
-0.0015478134
-0.049377441
-0.062469482
0.059295654
0.031799316
-0.00060939789
0.0023097992
0.019775391
-0.044830322
0.042663574
-0.038208008
-0.019287109
0.02381897
-0.030609131
0.0519104
-0.034606934
0.023025513
0.046447754
0.016021729
0.054046631
-0.059295654
-0.029724121
0.017440796
-0.04788208
0.038452148
-0.00054693222
-0.047668457
-0.025634766
0.0011787415
0.053527832
-0.020935059
0.039367676
-0.045043945
-0.038269043
0.029327393
0.060974121
-0.025268555
0.042449951
0.052093506
0.014129639
0.045135498
-0.006942749
-0.0065689087
-0.0079879761
0.023635864
0.0013885498
0.023162842
0.026397705
-0.0055847168
0.031555176
0.0057029724
-0.02822876
0.022827148
-0.026382446
-0.0029621124
-0.040893555
-0.0068092346
-0.03817749
-0.026062012
-0.062316895
-0.040863037
-0.0013723373
-0.050506592
0.049346924
-0.052978516
0.013397217
-0.0068511963
0.034759521
0.058685303
0.0054931641
-0.015007019
0.022521973
0.048706055
0.026687622
-0.031280518
-0.0058174133
-0.021118164
0.010536194
-0.015182495
-0.040283203
-0.042297363
0.03729248
0.05645752
0.047393799
-0.052703857
-0.042205811
-0.020401001
0.0075263977
-0.013725281
0.024215698
0.033172607
-0.031066895
-0.019454956
0.058837891
0.038269043
0.050445557
0.039520264
0.039825439
0.0284729
-0.061584473
-0.025756836
0.043701172
0.024459839
-0.051300049
0.014381409
-0.060455322
-0.0040931702
-0.042663574
-0.053436279
0.027038574
-0.0041160583
-0.033569336
-0.050445557
-0.011680603
0.062347412
-0.043823242
-0.048522949
-0.058502197
0.0014123917
-0.017791748
-0.054046631
-0.025894165
-0.027435303
0.057617188
-0.059783936
0.049133301
-0.034637451
-0.020324707
0.034240723
0.016876221
-0.038421631
0.017578125
-0.0027275085
0.017044067
0.010421753
-0.0091247559
-0.040344238
-0.030548096
0.031555176
0.010955811
0.009803772
-0.011573792
0.0020980835
-0.022964478
-0.037353516
-0.032287598
-0.025146484
0.050018311
0.037017822
0.031860352
-0.034240723
0.025100708
0.036254883
-0.060974121
-0.036743164
-0.057434082
-0.030609131
0.042205811
0.025390625
0.024963379
0.055603027
-0.036071777
-0.050506592
-0.056488037
0.028686523
0.03604126
-0.036865234
-0.052398682
0.045135498
0.0072174072
-0.030471802
-0.011001587
0.026794434
-0.031860352
-0.014823914
0.035522461
0.053314209
0.010635376
-0.05456543
0.058349609
0.0069122314
-0.046142578
0.009437561
0.036315918
0.047637939
0.01399231
0.0042610168
-0.023208618
-0.018661499
0.014060974
-0.039031982
-0.012931824
-0.056182861
-0.032501221
-0.048156738
-0.037628174
0.036865234
-0.029907227
-0.0029773712
0.01210022
-0.041229248
-0.0002925396
0.061737061
0.057067871
-0.0063056946
-0.042175293
-0.0096282959
-0.0017175674
0.060333252
-0.059143066
0.017959595
-0.038879395
-0.035766602
-0.021347046
0.020767212
-0.019577026
-0.0035095215
0.040435791
-0.021621704
-0.047485352
-0.040344238
-0.059661865
0.0070152283
0.039367676
0.019302368
0.061767578
-0.0094833374
0.038482666
0.018157959
0.016021729
0.03302002
-0.021911621
0.0096282959
-0.051269531
-0.04901123
-0.016830444
-0.041809082
-0.013999939
-0.049743652
0.042724609
0.015182495
-0.0049934387
0.062103271
0.029251099
-0.043060303
0.029647827
0.024139404
-0.029937744
-0.013465881
0.018112183
0.024261475
0.051513672
-0.0089263916
-0.0099105835
0.04977417
0.021606445
-0.060333252
0.046661377
-0.019393921
0.01473999
-0.056152344
-0.037963867
0.039031982
0.0026798248
0.0098800659
-0.053314209
0.030410767
-0.06072998
-0.023956299
-0.03338623
-0.021408081
0.013717651
-0.060119629
0.032836914
-0.032623291
0.0079040527
0.017593384
-0.047698975
0.016403198
-0.026016235
-0.031768799
0.040740967
-0.025482178
-0.042175293
0.030670166
0.056884766
0.006111145
-0.054962158
-0.014373779
0.0546875
-0.034118652
-0.059204102
0.012672424
0.031616211
-0.0046234131
-0.042694092
0.045776367
0.002166748
-0.035186768
-0.0048904419
0.037109375
-0.036224365
-0.060333252
-0.013008118
-0.00072383881
0.031097412
-0.0067443848
-0.0039978027
-0.039398193
-0.0081634521
0.039672852
0.017364502
-0.01574707
-0.054199219
0.020462036
0.033660889
-0.031982422
-0.0046043396
0.0625
-0.020278931
-0.046875
0.055328369
-0.0018644333
0.045928955
0.036529541
-0.024871826
-0.032104492
-0.049438477
0.0049362183
0.031677246
0.038696289
-0.019104004
0.05279541
-0.036560059
-0.010993958
-0.020812988
-0.033996582
-0.022445679
0.037109375
-0.055908203
0.06237793
0.0026798248
0.033599854
-0.038757324
0.035430908
-0.054260254
0.056945801
0.020721436
-0.032226562
-0.008430481
-0.013465881
-0.0033245087
-0.0028438568
0.045227051
-0.0036067963
0.061096191
-0.034820557
-0.045532227
-0.027923584
-0.029006958
-0.035736084
-0.010444641
0.023757935
0.058776855
0.042724609
-0.028289795
0.033996582
-0.0071716309
0.0016994476
0.040405273
0.0022773743
0.048431396
-0.041687012
-0.026702881
-0.040740967
-0.0259552
-0.0034828186
0.011985779
-0.023590088
0.047698975
0.061889648
0.0030879974
0.060791016
0.058258057
0.028610229
0.029891968
-0.052764893
-0.026199341
0.045654297
0.019744873
-0.052825928
0.0079650879
-0.026153564
-0.02935791
-0.0073509216
-0.033752441
0.005821228
-0.019866943
0.0086212158
-0.032989502
-0.029464722
0.0025920868
0.045806885
0.046356201
0.020690918
0.034759521
-0.0080184937
0.00078678131
-0.0068397522
0.059387207
0.041778564
-0.012985229
0.020111084
-0.010093689
0.04788208
0.030609131
-0.038299561
-0.055236816
-0.044464111
0.023025513
0.027572632
-0.046691895
-0.033538818
0.050567627
-0.038665771
-0.012527466
-0.032012939
-0.035827637
-0.023269653
0.046661377
-0.035522461
0.058044434
-0.022628784
-0.0073204041
0.030776978
0.031173706
-0.037780762
5.0246716e-05
0.034790039
0.045562744
-0.047851562
0.015342712
-0.0010385513
-0.041656494
0.012695312
0.048400879
0.036346436
-0.011863708
-0.055511475
0.023773193
0.018920898
-0.038024902
0.045928955
9.0181828e-05
-0.044464111
0.04788208
-0.052490234
0.024917603
-0.023895264
0.0028629303
-0.023254395
0.049499512
0.0032730103
-0.046142578
0.056549072
-0.0079574585
-0.061920166
0.019317627
0.032653809
0.018264771
0.010215759
0.0099105835
0.027114868
-0.018554688
-0.050170898
0.034240723
0.058441162
0.055419922
-0.033874512
0.059844971
-0.0063018799
-0.0012722015
0.056427002
0.053039551
-0.055755615
-0.052246094
0.018600464
-0.022766113
-0.017272949
-0.053466797
-0.054321289
-0.014503479
0.061798096
-0.015960693
0.050109863
-0.016937256
-0.05291748
0.011054993
-0.041564941
-0.021133423
-0.0048332214
0.0055389404
0.0418396
-0.047271729
0.028930664
-0.0005068779
-0.0028190613
-0.021331787
0.024246216
-0.0072250366
0.038482666
-0.04385376
0.0062141418
-0.022277832
0.047058105
0.05847168
0.047851562
0.041046143
0.050018311
0.016571045
0.058868408
0.01033783
-0.017578125
0.040130615
0.060424805
0.024932861
-0.030181885
0.05569458
0.020370483
-0.023895264
-0.057128906
0.060089111
0.057067871
-0.023513794
0.031005859
-0.024002075
0.011672974
-0.0088500977
-0.045654297
-0.013160706
0.023132324
-0.021209717
-0.00064945221
0.050201416
0.038360596
0.030197144
-0.057098389
0.042236328
0.03302002
-0.056884766
0.0097885132
0.041931152
0.014717102
-0.0045509338
-0.035125732
-0.010932922
0.0062866211
-0.056854248
-0.021316528
-0.0060577393
-0.019790649
-0.058929443
0.010231018
-0.031555176
0.048065186
-0.00018560886
0.00014281273
-0.024475098
0.012573242
-0.046356201
0.01701355
-0.0051002502
-0.045959473
-0.051361084
-0.04196167
-0.035888672
0.024032593
-0.039398193
0.025268555
0.028182983
0.045623779
0.052398682
0.0020484924
-0.052001953
0.018280029
0.027984619
0.042755127
-0.051757812
-0.021820068
0.055999756
0.058044434
-0.021636963
0.0079727173
-0.037261963
-0.052185059
-0.059448242
-0.00077390671
-0.051422119
-0.017166138
0.01651001
-0.018569946
-0.044036865
0.018081665
0.023834229
-0.020614624
0.055389404
-0.051757812
-0.020263672
-0.026306152
0.04498291
-0.034912109
-0.0059890747
-0.0077552795
-0.048034668
0.0059280396
0.054260254
0.0096359253
0.041931152
-0.050292969
-0.049468994
0.056518555
-0.041290283
-0.033111572
-0.023223877
-0.052947998
0.0099563599
-0.0094985962
0.039398193
-0.010910034
-0.031280518
-0.013626099
-0.012237549
-0.0037384033
-0.058685303
0.02230835
0.049133301
-0.062042236
0.00070238113
-0.061279297
-0.049072266
0.024414062
-0.042358398
0.011833191
-0.028213501
0.0026531219
-0.054870605
0.0037174225
0.032012939
0.021499634
-0.044036865
-0.00062704086
-0.029159546
0.056152344
-0.019332886
-0.054107666
0.0496521
-0.047302246
0.017837524
-0.004070282
0.037231445
-0.052062988
0.053192139
-0.036499023
-0.03012085
0.055114746
0.030883789
0.0077552795
-0.042785645
-0.036743164
0.0036392212
0.0090103149
0.022415161
0.027633667
0.019699097
0.044219971
-0.047912598
0.03894043
0.019256592
-0.00062561035
0.016342163
-0.00061416626
0.017425537
0.056030273
0.02053833
0.051177979
-0.011207581
0.027679443
-0.027786255
-0.028488159
0.013801575
-0.009185791
-0.051483154
0.039245605
0.032623291
0.039123535
-0.011703491
0.061065674
-0.0034255981
0.050750732
-0.0062294006
-0.036102295
0.011856079
-0.019515991
-0.022018433
0.019729614
0.00090169907
-0.026153564
1.847744e-06
0.0082473755
-0.0061798096
-0.024581909
0.05645752
-0.052093506
0.027069092
0.0062904358
0.028213501
-0.014068604
-0.01991272
0.0036392212
0.0065078735
-0.023406982
0.019668579
-0.031341553
-0.031082153
0.050140381
0.036315918
-0.040802002
-0.05355835
0.033233643
-0.0037937164
-0.050567627
-0.014289856
-0.042236328
0.043121338
-0.0098495483
-0.020492554
-0.0022182465
0.036132812
0.00045895576
-0.0098571777
0.043518066
-0.048522949
-0.042694092
0.042877197
-0.053192139
0.035888672
0.023742676
0.015182495
0.0070610046
-0.021102905
-0.00069475174
-0.026779175
0.018173218
-0.032989502
0.0092926025
0.019760132
-0.0083770752
0.057495117
0.025848389
-0.011268616
0.021636963
-0.058349609
0.016983032
0.021636963
-0.0077285767
0.026535034
0.027175903
-0.014007568
-0.041168213
-0.058380127
0.011901855
0.013343811
-0.020355225
0.015960693
0.02557373
-0.037078857
0.031829834
-0.051330566
-0.059967041
0.013244629
0.040557861
0.042205811
0.024765015
0.021820068
-0.018218994
-0.027389526
0.0021743774
-0.054870605
-0.041137695
-0.058959961
-0.039031982
-0.017166138
-0.057739258
-0.048400879
0.003238678
-0.035949707
0.02935791
0.01776123
-0.044677734
0.040313721
0.0340271
0.012458801
-0.0013570786
0.042175293
0.023529053
-0.050292969
-0.031860352
0.059295654
-0.049163818
-0.035858154
-0.049316406
-0.039550781
0.0083618164
0.037231445
0.0025310516
0.031051636
0.053192139
-0.039398193
-0.047393799
-0.033996582
-0.026184082
-0.057861328
0.059356689
-0.050048828
0.012168884
0.052764893
0.030563354
-0.038391113
0.033355713
0.035186768
-0.052490234
-0.045288086
-0.041992188
0.046539307
-0.011978149
-0.0096893311
0.043182373
-0.049957275
-0.019515991
-0.061676025
0.057525635
0.030181885
-0.025482178
-0.031585693
-0.046539307
-0.034820557
0.044525146
0.0037441254
-0.060394287
0.014968872
-0.060638428
-0.001663208
-0.0031356812
-0.0083236694
-0.0284729
0.058746338
0.036376953
0.041595459
-0.046081543
-0.044067383
-0.047241211
-0.022796631
0.026168823
0.014572144
0.057922363
0.0020618439
-0.022033691
-0.036560059
0.028289795
-0.049346924
0.046783447
0.041931152
0.050262451
0.060943604
-0.023193359
0.025177002
-0.051361084
0.033233643
-0.027404785
0.017700195
0.046600342
0.032989502
0.052215576
-0.036895752
-0.032073975
-0.027267456
0.024002075
-0.038482666
0.029663086
-0.0091018677
0.053131104
0.016311646
-0.0040969849
-0.018753052
-0.028762817
0.050079346
-0.021011353
0.042755127
0.061553955
0.048950195
-0.0010471344
0.037231445
0.054931641
-0.030776978
0.052612305
0.029968262
-0.00090932846
-0.057556152
-0.035675049
-0.0087051392
-0.04498291
0.036651611
-0.022827148
-0.032409668
0.029678345
-0.015563965
-0.048156738
0.052642822
0.010940552
0.050292969
0.051239014
-0.043273926
0.047027588
0.020782471
0.024871826
0.018035889
-0.030288696
0.0080947876
0.041046143
0.033355713
0.012817383
0.0015306473
-0.013618469
-0.0030403137
-0.057220459
-0.048675537
-0.0340271
0.012001038
0.051147461
-0.046356201
0.028533936
0.034759521
-0.049560547
-0.024093628
-0.021743774
-0.015380859
0.029510498
0.029052734
0.033477783
-0.02255249
-0.021850586
0.025024414
-0.061340332
0.02923584
-0.016891479
0.023544312
0.056152344
-0.059906006
0.026901245
0.035064697
-0.034576416
-0.00086641312
0.042633057
0.028335571
-0.005645752
-0.00062942505
0.0081634521
0.0038280487
0.040802002
-0.059265137
0.025878906
-0.014068604
0.027481079
-0.033569336
-0.0043716431
0.026428223
-0.04083252
-0.049102783
-0.033874512
0.061553955
0.058410645
-0.032196045
-0.039886475
-0.012573242
0.012771606
-0.051269531
0.0076141357
-0.027557373
-0.050811768
-0.017929077
0.0081100464
-0.01184845
-0.043457031
-0.041168213
-0.013656616
0.053619385
0.043151855
-0.034057617
0.019485474
-0.026657104
-0.023574829
-0.021591187
0.030410767
0.045227051
-0.013580322
-0.0032958984
0.0051994324
0.040618896
0.030517578
0.0028381348
0.062194824
-0.015151978
-0.015716553
0.019760132
0.029785156
0.011352539
0.042053223
0.041046143
-0.030929565
-0.025024414
-0.017501831
0.017425537
-0.036193848
-0.013061523
0.031021118
-0.0075378418
-0.028182983
-0.037475586
0.026641846
0.06161499
0.0017633438
0.016967773
0.026901245
0.050842285
0.060058594
0.020263672
-0.010574341
0.047698975
0.060699463
-0.0055923462
-0.0070152283
-0.018997192
0.03314209
0.051330566
-0.0069046021
0.0074424744
-0.036682129
-0.044647217
-0.035430908
0.024887085
-0.0206604
-0.051239014
0.024002075
0.0015439987
-0.056182861
0.034240723
0.03225708
0.022949219
-0.045715332
0.0076141357
0.027984619
-0.028945923
0.030914307
-0.052703857
-0.030258179
0.059417725
-0.044769287
0.051971436
-0.0093994141
0.042388916
0.056060791
0.04776001
0.047729492
-0.041564941
-0.039001465
-0.061462402
-0.013084412
0.058563232
0.0043296814
0.033325195
-0.036865234
0.042449951
-0.027954102
0.059967041
-0.010162354
0.020431519
-0.041595459
-0.022079468
0.034637451
0.0079498291
-0.013778687
-0.029815674
-0.0023231506
0.032806396
0.058105469
-0.044372559
0.04776001
0.031280518
-0.061462402
-0.0074081421
-0.0059814453
0.012268066
0.011192322
-0.024581909
-0.051605225
0.037078857
0.0030136108
0.0046615601
-0.011169434
0.051361084
-0.049285889
0.0047607422
0.0081939697
0.023590088
0.044067383
0.04486084
-0.029129028
0.054473877
-0.025558472
0.051544189
0.047271729
-0.029922485
-0.034393311
0.0090179443
-0.048187256
0.0072860718
0.061920166
-0.024978638
-0.010490417
0.012451172
0.0089797974
0.006980896
0.025588989
-0.029449463
-0.02885437
-0.032348633
-0.056732178
0.052764893
0.016662598
0.060028076
-0.0082321167
0.021057129
0.019958496
-0.01802063
-0.035064697
-0.022155762
-0.049133301
-0.044555664
-0.048492432
-0.0095367432
-0.046813965
-0.024520874
0.014678955
-0.017822266
0.00045633316
-0.0060386658
0.037597656
0.04083252
-0.015388489
-0.021652222
0.0081863403
0.0028152466
-0.031021118
0.021789551
-0.0074310303
0.031799316
0.018264771
-0.027114868
-0.057739258
-0.050689697
0.054473877
-0.044189453
-0.029663086
0.04574585
-0.0090637207
-0.03503418
-0.053436279
0.035675049
0.061401367
0.037445068
-0.041992188
0.051574707
-0.034301758
0.060455322
-0.058319092
0.041534424
0.0085220337
-0.012130737
0.0029449463
0.019622803
0.016555786
-0.014678955
-0.039855957
-0.019622803
0.022735596
-0.028564453
-0.047058105
0.051147461
0.0096740723
-0.032348633
0.0092468262
0.058929443
-0.01411438
0.0020904541
-0.035552979
0.056091309
0.047119141
-0.046905518
-0.02796936
0.046691895
0.049316406
-0.0090942383
0.046386719
0.058197021
-0.0039710999
-0.043579102
0.047393799
6.121397e-05
-0.039367676
-0.044769287
-0.027816772
-0.047637939
-0.0082244873
-0.0013380051
0.052154541
-0.022003174
-0.056915283
0.021255493
0.035888672
-0.0098419189
-0.028030396
-0.0020828247
0.011222839
0.053466797
0.05682373
-0.014381409
0.020812988
0.060211182
0.0029277802
-0.047546387
0.033233643
-0.060150146
-0.038787842
-0.00038409233
0.052886963
-0.00093078613
0.042175293
-0.035919189
0.0069198608
-0.042114258
0.043395996
-0.054199219
-0.050811768
0.044403076
-0.057769775
-0.059020996
0.034576416
0.015548706
0.037384033
-0.026184082
-0.024978638
0.04876709
-0.048858643
0.037963867
-0.045562744
-0.024856567
-0.0094451904
-0.05657959
-0.057769775
-0.055114746
-0.047241211
-0.022827148
0.017532349
-0.043182373
-0.0028610229
0.050506592
-0.0049781799
0.040985107
-0.032806396
-0.015388489
0.025695801
0.010070801
-0.043182373
-0.00022947788
-0.0033493042
-0.061645508
0.0043754578
0.042877197
-0.0035877228
-0.02684021
-0.061950684
0.010658264
0.032745361
-0.047027588
0.053100586
0.011108398
-0.0068054199
-0.046295166
-0.00052165985
0.0043067932
-0.060668945
0.0059013367
0.011924744
0.0093994141
0.050567627
0.017333984
0.034515381
0.062255859
-0.041717529
-0.031768799
-0.055267334
-0.0044822693
0.030319214
0.056915283
-0.061279297
0.044952393
-0.0010938644
0.030395508
0.038024902
0.060852051
0.031463623
0.014274597
-0.016647339
-0.0077934265
-0.048095703
-0.056091309
0.0362854
-0.0050621033
0.014633179
-0.0020122528
-0.044525146
0.037475586
0.032775879
-0.048126221
-0.050842285
-0.0040969849
0.038574219
-0.055236816
0.043823242
-0.0074424744
0.00039696693
0.011367798
0.054382324
-0.018493652
0.0019989014
-0.00053596497
-0.062438965
0.030303955
-0.022918701
0.026107788
-0.035064697
0.056060791
0.010002136
0.038360596
-0.050048828
-0.028518677
-0.060180664
-0.022125244
0.036437988
-0.049621582
-0.045257568
-0.045532227
-0.026199341
-0.0039978027
-0.02293396
-0.003660202
0.047058105
0.02381897
-0.012893677
-0.058349609
0.056030273
0.019165039
-0.0074386597
-0.049194336
-0.032287598
-0.055938721
0.0065345764
0.027832031
-0.0035076141
0.0154953
0.029510498
-0.018936157
-0.039581299
-0.05670166
0.023284912
0.0072288513
-0.0034008026
0.035797119
-0.01600647
0.034790039
0.032226562
0.0287323
0.011421204
-0.057281494
-0.037719727
0.053527832
-0.017303467
0.034301758
0.0041809082
-0.038421631
-0.035644531
0.046142578
-0.02444458
0.053588867
0.020004272
-0.055206299
-0.046081543
-0.036407471
0.027801514
0.0034980774
-0.035217285
0.0057258606
-0.010322571
-0.058929443
-0.026855469
0.056976318
0.041748047
0.0058364868
-0.012718201
0.032196045
0.03137207
0.060180664
-0.030883789
-0.011550903
-0.036621094
0.014381409
-0.045959473
0.016448975
0.059570312
-0.003900528
0.0390625
0.043121338
0.0496521
-0.038726807
-0.023773193
0.006023407
0.0004389286
-0.038909912
-0.059631348
-0.0043792725
-0.039733887
-0.051818848
0.050994873
-0.017501831
-0.039794922
0.012001038
-0.021621704
0.047515869
0.05859375
0.059173584
-0.048339844
0.048858643
0.050964355
-0.025146484
-0.05645752
-0.027053833
-0.034057617
-0.043762207
0.011314392
-0.0038261414
0.047515869
0.046569824
0.017074585
-0.043884277
0.02154541
0.041717529
0.052520752
-0.04864502
0.013153076
0.038818359
0.040161133
-0.0039863586
-0.03515625
0.05871582
0.055511475
-0.054504395
-0.014343262
-0.016921997
0.044799805
-0.058807373
0.039733887
0.047241211
-0.052185059
-0.031616211
0.047393799
-0.028533936
-0.01361084
0.046844482
-0.012870789
0.022506714
0.00091600418
-0.061950684
-0.05670166
-0.030960083
-0.020477295
0.05090332
-0.042907715
0.051544189
-0.048400879
-0.015098572
0.035766602
-0.051391602
0.059173584
0.024246216
-0.04296875
0.0065879822
0.019195557
0.058135986
0.017288208
0.05255127
-0.02520752
0.040893555
0.061218262
-0.06161499
0.0071296692
-0.01600647
0.011413574
0.0033721924
-0.04006958
-0.027511597
-0.044067383
0.045837402
-0.048553467
0.035186768
-0.0022296906
-0.041656494
0.0026073456
-0.024276733
0.051300049
0.058044434
0.024505615
-0.0038223267
0.06036377
0.023529053
0.04800415
0.0079956055
-0.026077271
0.011932373
0.061676025
-0.014808655
-0.055938721
-0.021286011
0.0077972412
0.0085754395
-0.025741577
0.032836914
0.029312134
-0.013702393
0.011978149
0.0060386658
-0.01763916
0.056304932
0.020141602
-0.049072266
0.026184082
0.0040359497
0.0087280273
-0.058502197
-0.018920898
-0.033172607
0.032501221
-0.027511597
0.029647827
-0.0062599182
-0.039825439
0.062164307
-0.028320312
-0.047363281
-0.052459717
-0.035888672
-0.030059814
-0.060394287
0.029220581
-0.048034668
-0.031860352
0.041442871
-0.012031555
0.052520752
0.028823853
-0.027404785
-0.014450073
0.031585693
-0.055664062
0.051177979
-0.045074463
-0.011138916
0.050170898
0.046356201
-0.035491943
-0.060272217
-0.0040245056
-0.037872314
0.057159424
-0.0079269409
0.060760498
0.025314331
0.032104492
0.044250488
-0.061828613
0.058074951
-0.045227051
0.057800293
-0.015670776
0.0022010803
-0.039031982
0.00031805038
-0.030914307
-0.05380249
0.00027108192
-0.044677734
-0.03918457
0.061004639
0.048492432
-0.027664185
0.028503418
-0.049499512
0.022872925
-0.040893555
-0.028396606
-0.058959961
-0.011451721
-0.029342651
-0.015151978
-0.055389404
0.05960083
-0.052001953
-0.029067993
0.018966675
-0.017913818
0.010826111
-0.04473877
-0.01335907
-0.0081787109
0.015419006
-0.036499023
0.0037174225
-0.014915466
-0.0080032349
0.035644531
-0.044708252
0.039276123
-0.008934021
-0.0057449341
-0.033752441
-0.0039634705
-0.043640137
0.036254883
0.060943604
-0.03604126
-0.054626465
-0.011016846
0.013282776
-0.014717102
0.039581299
0.0025482178
-0.002325058
0.049835205
-0.023513794
-0.0023860931
-0.047241211
0.01448822
0.011253357
-0.061431885
-0.061553955
0.018280029
-0.045440674
-0.0082473755
0.011192322
0.057830811
0.0209198
-0.022186279
-0.041870117
0.002204895
-0.059204102
-0.046234131
-0.049316406
0.058013916
0.049377441
-0.055419922
-0.051513672
0.013221741
0.033111572
-0.034667969
-0.020736694
-0.060760498
-0.042449951
-0.016433716
0.022521973
-0.061187744
-0.057067871
-0.0060195923
-0.026931763
0.032104492
0.037017822
-0.021835327
-0.058441162
0.055938721
-0.033538818
-0.027862549
-0.0070877075
0.03793335
0.026611328
-0.061859131
0.060180664
0.013023376
0.055969238
-0.006313324
0.045410156
-0.0072174072
0.052368164
0.0053215027
0.042114258
0.050628662
-0.012184143
-0.016113281
-0.022979736
0.039916992
-0.016525269
0.029464722
0.003616333
0.022857666
0.028198242
0.023208618
0.048339844
-0.0077819824
-0.039215088
-0.023834229
-0.056610107
0.060089111
0.038391113
0.010513306
-0.028442383
0.0496521
0.033630371
0.048065186
0.00079154968
-0.033203125
0.042785645
0.0068244934
-0.052185059
0.046386719
-0.046966553
0.027282715
-0.049194336
-0.027008057
0.025375366
-0.057983398
0.029754639
0.057769775
-0.010787964
0.015869141
0.052459717
-0.028823853
0.059326172
0.061340332
-0.049682617
0.042816162
0.049957275
0.019714355
0.043273926
-0.0024051666
0.050994873
-0.0082397461
-0.031280518
-0.002407074
-0.059661865
-0.060943604
0.015541077
0.0015497208
0.036560059
0.054534912
0.04019165
0.05557251
-0.057434082
0.017181396
-0.0024795532
0.016326904
-0.055297852
-0.047180176
-0.030273438
-0.022033691
-0.0089111328
0.0060691833
-0.024429321
-0.02734375
0.0065956116
0.020568848
-0.034301758
0.0016050339
0.038330078
-0.023849487
0.039154053
0.061950684
0.0053253174
0.031646729
0.023773193
0.048248291
0.061920166
0.007850647
-0.018157959
-0.030212402
-0.010040283
0.059295654
-0.035339355
-0.015930176
0.058898926
0.009727478
-0.037597656
0.027984619
-0.00047206879
0.049560547
0.0043983459
-0.036743164
-0.012878418
-0.033050537
0.054504395
-0.016342163
-0.045959473
0.043304443
0.058746338
0.043060303
-0.015548706
-0.004940033
0.0054397583
0.03302002
-0.0021457672
-0.045318604
0.025894165
-0.029327393
0.00065279007
0.053863525
0.058532715
-0.0039329529
0.013565063
-0.025039673
0.035827637
0.0070571899
0.0087356567
0.010902405
0.045593262
0.061676025
-0.049407959
-0.028823853
0.055358887
0.061859131
0.0013933182
0.052398682
0.055236816
-0.036621094
0.024276733
0.039825439
0.03994751
0.043609619
-0.015312195
0.061553955
-0.053283691
0.045074463
-0.054443359
-0.04397583
0.059051514
-0.059265137
-0.038879395
-0.055236816
0.01184845
0.030044556
0.051483154
0.047973633
-0.021453857
0.054382324
0.036407471
-0.015426636
0.044952393
-0.032104492
-0.028045654
-0.022644043
0.020477295
-0.044433594
-0.011154175
0.015388489
0.003074646
-0.03302002
0.04977417
-0.036224365
-0.024581909
-0.016815186
-0.055999756
-0.029830933
0.0048446655
0.048156738
-0.0071258545
-0.054016113
0.053405762
-0.04296875
-0.051025391
-0.0060157776
0.055847168
0.023254395
-0.0057868958
0.0020599365
-0.04800415
-0.017440796
0.03704834
-0.057159424
-0.054870605
-0.012321472
0.033721924
0.024078369
0.054229736
0.018280029
-0.028839111
-0.040222168
0.025665283
0.020050049
-0.046112061
0.04208374
0.0082321167
-0.06048584
0.044036865
0.015411377
0.058990479
0.058868408
0.031234741
0.040710449
0.022583008
0.027130127
-0.045562744
-0.041320801
0.019165039
-0.028488159
-0.059204102
-0.024154663
0.024795532
-0.034637451
0.0062522888
0.0038928986
-0.0098876953
-0.020339966
0.061950684
0.016998291
-0.023147583
0.04888916
-0.0046348572
0.0076332092
0.044342041
0.038360596
0.046539307
-0.053649902
0.0082015991
0.037811279
-0.031280518
-0.00099277496
-0.057312012
-0.052276611
-0.03414917
-0.039428711
0.023422241
-0.0024681091
-0.062316895
0.031219482
0.045928955
-0.036315918
-0.039276123
-0.060974121
-0.015434265
0.035980225
-0.046630859
0.020507812
0.049438477
-0.057403564
0.050598145
0.0065765381
-0.029907227
-0.057525635
0.0058059692
-0.047637939
0.051361084
0.035369873
-0.011924744
0.0056228638
-0.017440796
-0.012878418
0.056182861
0.033355713
-0.019699097
-0.047363281
-0.042449951
-0.021316528
-0.0097351074
0.0041465759
0.021072388
-0.042572021
-0.043640137
-0.0077629089
-0.033355713
-0.040466309
0.061309814
0.016296387
-0.046203613
0.059143066
0.041107178
-0.0016031265
-0.056182861
-0.052581787
-0.0021362305
-0.058929443
0.056518555
-0.019866943
-0.05065918
-0.015464783
-0.037750244
0.05871582
0.0003721714
0.0014295578
-0.015266418
0.038787842
-0.044799805
0.023422241
0.051391602
0.038787842
-0.0084686279
0.043060303
0.010803223
-0.031829834
0.049316406
0.048675537
-0.042755127
0.034088135
0.038787842
-0.051025391
0.051239014
-0.041564941
0.025863647
0.044921875
0.053833008
-0.036376953
-0.047454834
-0.0038967133
-0.029922485
-0.0011301041
0.043121338
0.06036377
-0.052764893
0.046081543
0.017074585
0.053771973
0.052246094
-0.010528564
0.024719238
0.011283875
-0.0026512146
0.032073975
0.024627686
-0.038482666
-0.022293091
0.0064430237
-0.042602539
0.037719727
0.028045654
0.031890869
0.01651001
-0.059082031
-0.051239014
-0.04586792
-0.010307312
-0.045166016
0.034637451
0.013641357
0.0012493134
-0.015174866
0.020996094
-0.055480957
-0.057250977
-0.024291992
-0.030792236
-0.027770996
-0.041687012
0.0059432983
0.024703979
0.05355835
0.05581665
-0.060180664
0.052520752
-0.059783936
0.01335144
0.058013916
0.026504517
-0.059753418
-0.019470215
-0.060821533
-0.053710938
0.017242432
0.0035743713
-0.061798096
-0.0090332031
-0.0082321167
0.0099029541
0.020370483
-0.033782959
-0.049804688
0.034881592
0.060577393
0.058105469
0.024551392
-0.0012788773
0.016220093
-0.051940918
0.024383545
-0.016494751
0.032775879
0.0072212219
-0.022903442
0.036529541
-0.04901123
-0.037628174
-0.034942627
-0.022491455
-0.014350891
-0.0097961426
-0.050170898
0.008140564
0.060546875
-0.037658691
-0.031402588
0.011535645
-0.050933838
0.019973755
0.043762207
0.030899048
0.055023193
0.0027198792
-0.047851562
0.045471191
-0.029083252
0.0079498291
-0.014465332
0.015213013
-0.0094833374
-0.014259338
0.027862549
0.054534912
-0.021209717
0.007183075
0.059692383
0.0181427
0.019744873
-0.0032081604
-0.037658691
-0.023895264
0.0074119568
0.047668457
-0.038116455
0.021652222
-0.027206421
0.01133728
-0.014770508
0.02696228
0.040252686
-0.023208618
0.016571045
0.062011719
0.027435303
-0.035705566
-0.037139893
-0.061401367
0.037719727
0.028121948
0.0013828278
-0.050262451
-0.035095215
-0.062316895
-0.06237793
-0.051269531
0.06149292
-0.0025253296
0.055419922
-0.029968262
-0.013824463
0.056488037
0.026809692
-0.055480957
-0.043914795
0.048309326
0.026733398
0.012336731
-0.05090332
-0.033172607
-0.01890564
-0.06161499
-0.011520386
-0.057098389
0.061004639
-0.053894043
0.021209717
0.027755737
0.019454956
-0.027282715
-0.026260376
0.031829834
0.050964355
-0.031188965
-0.0036411285
-0.057006836
-0.010848999
0.022094727
0.025146484
-0.024108887
-0.048400879
0.007270813
0.045684814
-0.054412842
-0.030548096
0.042694092
-0.05670166
0.017852783
0.062347412
0.060882568
-0.015472412
0.017608643
-0.016082764
-0.037719727
-0.0340271
0.019546509
0.037261963
0.053527832
0.055358887
0.021148682
0.041137695
0.060943604
0.042694092
0.018737793
-0.047973633
0.031616211
0.0087203979
0.037780762
-0.051818848
0.038970947
-0.018234253
0.042755127
-0.022003174
0.048950195
-0.047485352
-0.0031929016
-0.032775879
-0.0030632019
-0.021911621
0.043731689
-0.032836914
0.033752441
-0.0079116821
0.051025391
-0.037811279
-0.0094985962
-0.033691406
0.035430908
0.0071334839
0.030563354
0.034393311
0.052734375
0.059173584
-0.026885986
-0.016952515
-0.033813477
0.019104004
0.022003174
-0.013702393
-0.042388916
0.012947083
-0.016021729
-0.014373779
0.016647339
-0.008972168
0.056640625
0.028289795
0.054931641
0.054595947
0.030715942
-0.006816864
-0.042144775
0.052520752
0.036804199
-0.0019435883
-0.060058594
0.036102295
0.033996582
-0.05368042
-0.026489258
0.020568848
-0.027954102
-0.044494629
-0.026672363
-0.00058841705
-0.05291748
0.012207031
-0.050811768
0.053863525
-0.056121826
-0.02671814
0.034576416
0.018585205
-0.049865723
0.035491943
0.014778137
0.036682129
0.018066406
-0.041900635
0.014976501
-0.035003662
0.024597168
-0.011901855
-0.062255859
-0.034088135
0.0071678162
-0.035400391
-0.022018433
0.056671143
-0.031204224
-0.0041046143
0.013000488
-0.035003662
0.0058937073
-0.035552979
-0.035095215
-0.01234436
-0.061553955
0.027359009
-0.030593872
0.033203125
0.043762207
0.052886963
0.0046958923
0.0068740845
-0.016677856
-0.0040893555
-0.0046310425
-0.043151855
0.046295166
-0.0012464523
-0.024673462
-0.04510498
0.026580811
-0.0097427368
0.011314392
-0.0011749268
-0.044647217
0.049865723
0.027877808
-0.051635742
-0.03338623
0.0077552795
0.0042533875
0.062072754
0.052856445
-0.031616211
-0.028182983
-0.052764893
-0.032928467
-0.028427124
0.04095459
0.033813477
0.026504517
0.04196167
0.01763916
-0.0060501099
-0.053192139
0.034301758
-0.002532959
-0.030395508
0.033966064
-0.032440186
-0.02897644
0.021148682
0.032562256
0.037536621
-0.059875488
-0.023101807
-0.021743774
0.049804688
-0.050811768
0.00085401535
0.030258179
-0.029510498
0.022659302
0.0067100525
0.040466309
-0.022796631
0.022079468
0.020706177
0.047271729
0.047790527
0.047058105
-0.039489746
0.051757812
-0.034881592
-0.03616333
-0.03125
0.010253906
0.049621582
-0.028549194
-0.018081665
0.046112061
-0.0063514709
-0.057800293
0.048095703
0.039154053
0.016143799
0.039031982
-0.015563965
0.046417236
-0.047607422
-0.046630859
0.0026741028
0.030258179
0.0029678345
-0.050567627
0.017913818
0.042633057
-0.055755615
0.030838013
0.050842285
-0.019210815
-0.0020751953
0.018798828
-0.014511108
0.00095653534
-0.034301758
-0.01776123
0.012756348
-0.035949707
-0.026443481
0.050537109
0.0077285767
0.018127441
0.031051636
-0.025100708
-0.0043830872
0.0010757446
0.014587402
-0.019592285
0.031173706
0.023681641
-0.0040779114
0.061828613
0.053222656
-0.00090169907
-0.038116455
-0.0093460083
0.046295166
0.034912109
-0.05670166
-0.040100098
0.054748535
0.037078857
0.0076141357
0.04119873
-0.043579102
-0.034820557
0.055114746
0.060577393
0.032226562
-0.019454956
-0.012863159
-0.034332275
-0.00053453445
0.024841309
-0.03604126
0.050018311
-0.0061225891
-0.0017490387
-0.016540527
0.04598999
-0.016586304
-0.028701782
-0.052062988
0.048126221
-0.013687134
0.022659302
-0.047790527
0.025146484
-0.011955261
-0.049957275
-0.050109863
0.0059051514
-0.0047721863
-0.052581787
0.038787842
-0.061950684
0.039581299
-0.03503418
-0.023239136
0.057739258
0.033081055
0.06060791
0.041442871
0.0089492798
-0.027984619
-0.0025119781
-0.024734497
0.0016870499
-0.0063018799
0.00035834312
0.023956299
-0.02192688
-0.027297974
0.0066375732
-0.0038471222
-0.016906738
0.0064659119
-0.04284668
-0.022674561
-0.031555176
0.035125732
-0.056091309
0.00012093782
-0.0036411285
-0.012870789
-0.026321411
0.015213013
-0.027801514
-0.038604736
0.024246216
0.047393799
0.036651611
0.011161804
0.058837891
0.024719238
-0.032012939
0.019180298
-0.048065186
7.557869e-05
0.054595947
0.024261475
0.058044434
0.030792236
-0.03994751
-0.057098389
0.035400391
0.013717651
0.059997559
0.05682373
-0.046051025
-0.042999268
0.031234741
0.0088729858
0.0010757446
0.012947083
0.020797729
-0.056640625
-0.032348633
-0.024642944
-0.051177979
0.041809082
-0.026565552
-0.059539795
-0.039093018
0.019195557
0.047668457
0.012535095
-0.043121338
0.036346436
-0.039703369
-0.043243408
0.046234131
-0.045166016
0.059539795
0.012527466
0.028289795
0.015731812
0.030014038
-0.032806396
0.033416748
-0.0066871643
-0.061828613
0.033111572
-0.0081253052
-0.051605225
-0.050476074
0.013122559
0.043609619
0.042205811
0.0037994385
-0.048187256
-0.041046143
-0.015037537
-0.028823853
-0.046173096
-0.060791016
0.045501709
0.017181396
-0.004825592
-0.049072266
-0.013710022
-0.056976318
-0.008934021
0.04083252
0.043670654
0.02003479
-0.015792847
-0.043548584
0.043518066
-0.027313232
-0.043792725
-0.035461426
-0.033691406
0.024261475
0.058898926
-0.0086364746
-0.00020670891
-0.019195557
0.047912598
0.0036201477
-0.03717041
0.0014753342
-0.060913086
-0.059906006
-0.015899658
0.05847168
-0.048126221
-0.031341553
0.034637451
0.058990479
0.036499023
-0.0082931519
0.032958984
-0.0075912476
0.049194336
-0.029693604
0.022598267
0.0082702637
-0.060577393
-0.045623779
-0.015312195
-0.03894043
-0.039764404
-0.028518677
-0.04119873
-0.040466309
-0.038116455
-0.016906738
0.026916504
-0.020584106
-0.025848389
0.039306641
-0.0086593628
0.029632568
-0.058990479
0.042022705
-0.016876221
-0.017486572
-0.054321289
-0.060333252
-0.0071411133
-0.059234619
0.033599854
0.0078811646
-0.034790039
0.014549255
0.046173096
0.052978516
0.027435303
0.061645508
0.032806396
0.029785156
-0.036682129
0.048980713
0.040710449
0.046691895
-0.006526947
-0.022186279
0.026016235
-0.024688721
0.021347046
0.030136108
0.022491455
0.012802124
-0.051483154
0.022949219
-0.043304443
0.02835083
-0.032165527
-0.052032471
-0.040008545
0.047698975
-0.024032593
-0.030227661
-0.014518738
0.035980225
0.010688782
-0.028625488
0.014884949
0.012687683
0.057189941
0.018325806
-0.022705078
-0.018997192
-0.038635254
0.029663086
0.047210693
0.042999268
0.053710938
-0.042724609
-0.015838623
-0.0055084229
0.022262573
-0.047332764
-0.054718018
0.028320312
-0.0037250519
-0.022476196
0.018615723
-0.057250977
0.03503418
-0.011100769
0.058258057
-0.035186768
0.032196045
-0.013069153
0.050567627
-0.060394287
0.036560059
0.028137207
0.020507812
0.06072998
0.016998291
0.048187256
0.044525146
-0.0077476501
-0.047271729
0.021865845
0.052642822
0.0072937012
-0.056091309
0.013877869
-0.0083084106
0.012321472
0.021438599
-0.059417725
-0.041595459
-0.0067520142
-3.5643578e-05
0.0072135925
-0.04699707
0.0069274902
0.054595947
0.02015686
-0.019866943
0.061157227
0.018585205
-0.05255127
0.0085449219
-0.019470215
-0.0089035034
0.046875
0.029998779
0.0048027039
-0.045959473
0.016784668
-0.02053833
0.034698486
-0.0074272156
-0.060394287
0.041625977
0.054046631
0.002866745
-0.022750854
-0.039489746
-0.043884277
0.012161255
0.026702881
-0.062042236
-0.025863647
0.018310547
-0.054290771
-0.023086548
-0.058013916
-0.05557251
0.059448242
-0.034515381
0.028701782
0.056610107
-0.012397766
-0.038208008
-0.054931641
0.002790451
-0.052825928
0.0018539429
0.011054993
-0.0013589859
-0.036865234
0.04196167
-0.0090332031
0.026199341
-0.035583496
0.0081939697
-0.010551453
0.004940033
-0.042297363
0.0014190674
0.051300049
0.059112549
-0.025497437
0.019042969
0.057525635
-0.057952881
-0.032684326
0.014411926
0.055297852
0.024169922
0.043670654
0.050262451
0.034240723
0.033477783
0.0038337708
-0.018188477
0.022644043
-0.0081787109
-0.009262085
0.014289856
0.0050621033
0.033752441
0.033691406
0.048431396
-0.018630981
-0.035186768
-0.021560669
-0.0073623657
0.059051514
-0.035491943
-0.055786133
0.020141602
0.03692627
-0.015365601
-0.017303467
0.026306152
0.035766602
0.051757812
0.00030589104
0.016586304
0.0045127869
-0.033416748
-0.06161499
0.00027894974
-0.052764893
0.033081055
-0.024505615
-0.043914795
0.0085296631
0.047790527
-0.036437988
0.043334961
0.03616333
0.018661499
0.046081543
0.02104187
-0.042144775
0.059661865
0.059417725
0.053924561
0.022140503
-0.019088745
-0.0085144043
0.016906738
-0.045715332
0.0031147003
-0.035766602
0.035888672
0.049957275
-0.051849365
0.016494751
-0.013778687
-0.044128418
0.049621582
-0.0033168793
-0.032318115
-0.013679504
0.036132812
-0.062255859
-0.057983398
0.021575928
-0.0028018951
0.03604126
0.024856567
-0.055999756
0.0098724365
0.053588867
-0.010597229
0.04586792
-4.1723251e-05
-0.016738892
-0.0087203979
-0.024719238
0.057220459
-0.028366089
-0.030471802
0.029632568
-0.025650024
-0.053894043
-0.031555176
0.014434814
-0.034729004
0.044952393
0.045227051
0.022766113
-0.0016698837
0.0091781616
-0.053375244
0.048156738
-0.055755615
0.034881592
0.015777588
0.009147644
-0.017608643
-0.012451172
0.013893127
-0.05291748
-0.021759033
-0.040710449
0.00058174133
0.054504395
-0.0015487671
0.028396606
0.026306152
0.025161743
-0.047180176
0.0083847046
0.062011719
0.048522949
-0.037231445
0.060241699
-0.033294678
-0.034881592
0.03314209
0.0072174072
-0.010406494
-0.013870239
-0.030029297
0.0084762573
-0.061065674
0.017791748
-0.01348114
-0.036651611
0.046234131
0.03213501
0.027633667
-0.05090332
-0.041412354
0.0016870499
0.051757812
0.013679504
-0.028381348
0.06237793
0.011054993
-0.00390625
0.012321472
-0.055450439
-0.047271729
0.046875
0.0047187805
-0.011833191
0.045196533
-0.041137695
0.028274536
-0.030914307
-0.052398682
-0.040222168
0.0011835098
-0.030548096
-0.030776978
0.037719727
-0.042694092
-0.034362793
-0.034698486
-0.060943604
0.046508789
-0.017745972
-0.058776855
0.020187378
-0.010955811
0.013198853
0.042877197
0.042419434
-0.046661377
0.016952515
0.01309967
-0.046234131
-0.016601562
-0.032470703
-0.00021159649
-0.062042236
-0.040893555
-0.05480957
-0.0099029541
0.021697998
0.0033721924
0.058532715
0.0068664551
-0.044403076
0.0048370361
-0.0066070557
-0.060394287
-0.042327881
0.052703857
0.0016593933
-0.06048584
-0.055755615
0.036529541
-0.0065956116
-0.053375244
-0.03616333
-0.016433716
-0.028274536
-0.036102295
0.026748657
0.042205811
-0.047424316
-0.055389404
0.023803711
0.048095703
0.0099411011
0.015625
-0.016082764
