-0.054443359
-0.015991211
0.029815674
-0.072387695
-0.056427002
-0.084472656
0.06451416
-0.011299133
0.026565552
-0.00077772141
-0.039855957
0.035552979
-0.052124023
-0.062408447
-0.044616699
0.076965332
-0.042785645
0.044372559
-0.015510559
-0.023468018
0.079345703
0.062805176
0.048370361
-0.047576904
0.02696228
0.085327148
0.045501709
0.012672424
0.081359863
-0.029373169
0.07232666
0.0340271
-0.061737061
0.08026123
-0.023742676
-0.0012254715
0.059326172
-0.064025879
0.067687988
0.026931763
0.0092010498
-0.018356323
-0.068603516
0.015289307
0.059387207
0.020141602
-0.069396973
0.060119629
-0.045715332
-0.041381836
-0.03515625
-0.033874512
-0.077331543
0.079223633
-0.062866211
0.030990601
0.025283813
0.029495239
0.02015686
-0.076049805
-0.038818359
0.082946777
-0.040924072
0.063110352
0.057403564
-0.016036987
0.075317383
-0.044921875
-0.07220459
-0.057434082
-0.037780762
0.029541016
-0.047149658
0.030349731
0.03918457
0.043914795
0.029266357
-0.078918457
0.070739746
0.075866699
0.030517578
0.079101562
-0.04019165
-0.013679504
0.071105957
0.036773682
0.073364258
-0.077270508
0.0033435822
-0.073913574
-0.062683105
0.022796631
-0.070129395
-0.019104004
-0.029495239
-0.059692383
0.043640137
-9.649992e-05
-0.0013332367
0.024490356
0.087341309
-0.020599365
0.076904297
-0.067626953
-0.083007812
-0.066345215
0.020889282
-0.084472656
-0.056152344
0.012565613
0.043579102
0.018188477
0.046569824
0.0027294159
0.055114746
0.015899658
-0.032714844
-0.043304443
-0.026519775
-0.014808655
0.06262207
0.0071372986
0.031768799
-0.061126709
-0.0362854
-0.062805176
-0.045471191
-0.04776001
-0.044830322
0.013168335
0.038146973
-0.061157227
-0.0340271
0.07824707
0.014038086
-0.020812988
0.069458008
-0.07019043
-0.084533691
-0.04788208
-0.043640137
0.07598877
0.069763184
0.012802124
-0.080078125
-0.039093018
-0.0015125275
0.029983521
-0.058990479
-0.044647217
0.017318726
-0.01272583
0.079162598
-0.078857422
0.019210815
-0.049957275
0.063476562
-0.060180664
-0.0044784546
0.042510986
-0.014167786
-0.04309082
-0.075866699
-0.021255493
0.053649902
-0.084777832
-0.08215332
-0.030899048
0.05480957
-0.016098022
-0.052886963
-0.0076293945
0.039154053
-0.079406738
-0.00090837479
-0.041564941
-0.06628418
0.027664185
-0.0022315979
-0.003610611
-0.081054688
0.040924072
-0.0035114288
-0.060058594
0.067016602
-0.054077148
0.026489258
0.075317383
-0.03515625
-0.087402344
0.027664185
-0.057250977
-0.072937012
0.025466919
-0.011283875
0.085021973
-0.024414062
0.039611816
0.06427002
-0.021881104
-0.032989502
-0.051086426
0.088012695
0.072753906
-0.018951416
0.084228516
-0.043182373
0.051055908
-0.0074310303
-0.018890381
0.0026779175
-0.044403076
0.017593384
-0.010604858
-0.019134521
-0.015586853
-0.018066406
0.037353516
0.01210022
0.0043106079
-0.032348633
0.07824707
0.03729248
-0.036895752
0.061309814
0.0031108856
-0.069824219
-0.048675537
0.062347412
-0.05355835
-0.026000977
0.071838379
0.060699463
0.038513184
-0.050354004
-0.075073242
0.015541077
-0.075622559
0.038482666
0.080078125
-0.081481934
0.084838867
0.076965332
-0.015762329
-0.0031032562
-0.0037727356
0.036376953
-0.0064811707
0.014587402
0.028060913
0.06161499
-0.004535675
0.055145264
-0.059783936
-0.050231934
0.019927979
-0.013824463
-0.01940918
-0.071472168
-0.084655762
0.060302734
0.033599854
0.067749023
0.019088745
-0.023330688
0.027435303
-0.079406738
0.055175781
0.035614014
-0.040252686
-0.0048141479
0.050018311
0.0703125
0.0018291473
0.079589844
0.039642334
0.011459351
-0.020965576
-0.060913086
-0.086120605
-0.022949219
0.0057220459
-0.043243408
0.018737793
-0.067932129
-0.084960938
0.03213501
0.0048789978
-0.061004639
-0.055999756
-0.028717041
0.0068397522
-0.084594727
0.051879883
-0.0081634521
-0.061035156
-0.0028247833
0.021820068
-0.047424316
-0.084533691
0.0044212341
0.032806396
0.066040039
0.051391602
0.046234131
0.0034770966
0.06072998
0.047821045
0.035095215
0.034790039
0.07598877
0.027893066
0.030731201
0.013214111
-0.079467773
0.078186035
0.064025879
0.037506104
-0.054107666
-0.0076828003
-0.072021484
-0.022857666
-0.016311646
-0.03125
0.069030762
0.040710449
-0.030944824
-0.031646729
0.07244873
0.023239136
-0.021820068
-0.049987793
0.06262207
-0.041229248
0.066101074
-0.020568848
0.033660889
-0.086120605
0.068786621
0.037811279
0.015380859
-0.057891846
-0.081970215
0.045318604
0.036132812
-0.024093628
0.022247314
-0.036071777
0.04675293
0.045806885
0.058807373
-0.018814087
0.04019165
0.082397461
-0.05682373
-0.032745361
0.054504395
-0.026580811
-0.017379761
0.062988281
-0.027023315
-0.037322998
0.07434082
-0.019546509
0.084472656
0.023452759
0.031890869
-0.073913574
-0.014076233
0.063842773
-0.012573242
0.076538086
0.011901855
-0.025039673
-0.0010585785
-0.068908691
0.058410645
-0.021209717
-0.056182861
0.066955566
-0.065246582
-0.042724609
-0.058837891
-0.051239014
-0.037506104
0.029373169
0.072631836
0.065124512
-0.023422241
0.034729004
0.086242676
0.041900635
-0.0073738098
0.022766113
-0.021148682
-0.009262085
-0.019088745
0.045440674
-0.053894043
-0.043365479
-0.044555664
0.080505371
-0.0028705597
-0.058380127
0.048278809
-0.024642944
0.041687012
0.038818359
-0.064086914
0.079101562
-0.010154724
-0.072143555
-0.044677734
-0.030014038
-0.048370361
0.069152832
-0.021347046
-0.014717102
0.036651611
0.06237793
0.00021398067
0.0024623871
0.023727417
-0.070495605
0.084228516
0.047210693
-0.055175781
0.071777344
-0.05078125
0.026107788
-0.031463623
-0.061462402
-0.0066795349
-0.011566162
0.0037021637
-0.035980225
-0.027999878
-0.073059082
-0.035552979
0.013191223
0.025695801
0.016326904
-0.017166138
-0.020462036
0.012397766
0.043151855
0.047485352
0.044677734
-0.08190918
0.010604858
0.058502197
-0.04699707
-0.075073242
-0.072143555
0.032165527
0.045379639
0.07598877
0.033599854
-0.088256836
-0.018936157
0.038330078
0.08795166
-0.033996582
0.076782227
0.018157959
-0.073425293
0.021575928
0.036804199
-0.063964844
-0.0440979
0.073730469
0.01474762
0.049133301
-0.011711121
-0.041625977
-0.041992188
0.020706177
-0.010391235
0.012969971
0.017227173
-0.045837402
-0.074279785
0.059814453
0.073425293
0.015144348
0.032104492
-0.084838867
0.062988281
-0.023010254
-0.066040039
0.0060424805
0.030853271
-0.038635254
0.050964355
-0.036956787
-0.055725098
0.03326416
-0.0085067749
-0.025787354
0.07598877
-0.0056304932
-0.033874512
0.026382446
0.063354492
0.015228271
-0.065795898
0.050323486
-0.071411133
-0.087524414
0.02696228
0.065734863
0.085388184
-0.0019569397
-0.081359863
-0.014839172
0.079772949
-0.046508789
0.06652832
0.007194519
-0.054077148
0.070800781
-0.027999878
0.053710938
-0.031829834
0.031463623
-0.063659668
-0.01235199
0.06842041
-0.08203125
0.084472656
0.041992188
0.070556641
0.035675049
-0.049316406
-0.027404785
-0.03717041
-0.014640808
0.075073242
0.043914795
0.0184021
0.086975098
-0.055053711
-0.02532959
-0.06842041
-0.03036499
0.027893066
0.0032901764
0.055999756
0.044891357
0.030212402
0.056335449
0.0087661743
0.032012939
0.0084609985
-0.068359375
-0.060638428
0.086730957
-0.055267334
0.066650391
0.068725586
-0.010292053
-0.063110352
-0.0077896118
-0.082214355
0.033660889
-0.047912598
-0.044067383
-0.086242676
-0.056762695
0.078430176
-0.0085983276
0.02130127
0.080078125
0.069763184
0.021697998
0.030334473
0.028244019
0.017333984
-0.075744629
0.080627441
-0.030380249
0.018951416
0.056488037
0.074645996
0.055084229
0.038482666
-0.0028896332
0.018356323
-0.065307617
-0.039642334
-0.064697266
-0.0087203979
0.0071754456
0.065734863
0.031585693
0.054595947
-0.041229248
0.053894043
-0.03326416
-0.082092285
0.046813965
-0.06451416
-0.052978516
-0.022109985
0.034301758
-0.078369141
-0.019790649
0.058624268
-0.056091309
-0.077636719
-0.064331055
-0.010147095
-0.0051612854
-0.085754395
-0.023193359
-0.0031166077
0.082458496
0.003118515
0.049835205
0.00076675415
-0.024169922
-0.0009021759
0.077819824
0.016067505
-0.00015318394
-0.037322998
-0.023971558
-0.05581665
-0.082763672
-0.075317383
-0.021209717
0.075805664
-0.083984375
-0.067504883
0.017303467
-0.076843262
-0.0013284683
0.073181152
0.018325806
-0.030548096
-0.052734375
0.07434082
-0.036010742
-0.072021484
0.015304565
0.016479492
-0.071838379
0.055999756
0.081298828
-0.024475098
0.051269531
0.046569824
0.056243896
0.0081481934
0.039123535
0.042236328
0.060424805
0.070861816
-0.068908691
0.041046143
-0.038208008
-0.048553467
-0.085632324
-0.083007812
0.033996582
0.047546387
-0.012496948
0.064941406
0.026138306
0.012039185
-0.017684937
-0.016021729
-0.035003662
0.042724609
0.043365479
0.049743652
0.08795166
-0.01537323
-0.034301758
0.027664185
0.048431396
-0.028320312
0.024627686
0.076843262
-0.014274597
-0.026565552
-0.084777832
0.036956787
-0.017318726
-0.031341553
0.0028781891
0.087097168
0.0072021484
-0.043518066
-0.04989624
0.053131104
-0.0026702881
0.05657959
-0.010536194
0.041015625
-0.055236816
0.075134277
0.067565918
-0.055541992
0.065917969
0.05355835
0.059570312
0.0080032349
-0.021835327
0.024932861
-0.035247803
0.027328491
-0.026046753
0.012786865
0.04296875
-0.018722534
-0.0037117004
0.035766602
0.042236328
-0.021102905
-0.063598633
-0.05670166
0.027053833
-0.022369385
-0.087585449
0.081359863
-0.077514648
0.081848145
0.041870117
0.0018959045
0.050476074
0.061309814
-0.023986816
-0.033843994
-0.0043563843
0.041412354
0.079467773
0.05255127
0.074707031
-0.059143066
0.063537598
0.08807373
0.037536621
0.056915283
-0.041717529
0.0091400146
-0.048736572
0.0083465576
0.0062866211
0.070922852
-0.030670166
0.056793213
-0.0068855286
0.042999268
-0.058837891
-0.043365479
0.01386261
0.048187256
0.071899414
0.049072266
0.01763916
-0.058807373
0.083068848
-0.0076522827
0.050048828
-0.067199707
0.038421631
-0.044342041
-0.054656982
0.02243042
-0.028564453
-0.018325806
-0.040252686
0.047271729
-0.0017223358
0.035583496
0.06451416
0.017211914
-0.00016486645
0.052337646
-0.042785645
-0.0051307678
-0.02671814
0.0040435791
-0.049194336
0.020126343
-0.054077148
0.07434082
0.082092285
-0.0095825195
0.02885437
-0.032501221
-0.016784668
0.040557861
-0.011741638
0.028076172
0.048339844
-0.042480469
-0.0013113022
0.083068848
0.01789856
-0.016815186
-0.059661865
0.044281006
-0.067138672
0.053497314
-0.049194336
-0.0024471283
-0.010002136
0.057495117
0.087646484
0.057037354
-0.067871094
0.072570801
0.068359375
-0.040649414
0.04107666
-0.065795898
-0.04107666
0.064697266
0.019744873
-0.015258789
0.018661499
-0.06817627
-0.034423828
0.028457642
0.017745972
-0.043823242
-0.016937256
-0.086120605
-0.083190918
0.010375977
-0.02897644
0.058013916
0.084716797
-0.0091629028
-0.029083252
0.039916992
-0.042541504
-0.081359863
0.069335938
0.05947876
0.038696289
0.019515991
-0.029785156
-0.057312012
-0.043395996
-0.012825012
0.032104492
-0.0057067871
-0.026947021
-0.042663574
-0.026992798
0.029937744
-0.055053711
-0.072570801
0.026367188
-0.083312988
0.045898438
-0.083862305
0.056274414
0.066040039
-0.076416016
0.034729004
0.039154053
0.023849487
0.009727478
0.067382812
-0.026153564
-0.081481934
0.079040527
0.043762207
-0.022186279
0.056640625
-0.030319214
0.045166016
0.027008057
0.026565552
0.018997192
0.065185547
-0.055114746
-0.061401367
-0.0065727234
0.054748535
0.072509766
-0.044281006
0.013809204
-0.062683105
-0.080322266
-0.0042495728
0.069763184
-0.041625977
-0.08404541
0.050933838
-0.0025348663
-0.085144043
-0.087646484
0.04019165
-0.041137695
0.013328552
0.039154053
-0.077087402
-0.06854248
0.080749512
0.034667969
0.026809692
0.035491943
0.018768311
-0.02520752
0.045227051
0.014060974
-0.055267334
-0.054779053
-0.021499634
-0.075744629
0.067871094
-0.04598999
0.055755615
0.0014095306
0.052764893
-0.020141602
-0.046478271
0.023574829
-0.00082778931
0.021713257
0.032318115
-0.014389038
-0.041534424
0.0019779205
-0.05078125
0.02444458
-0.0015707016
-0.036804199
0.024353027
0.018981934
-0.031280518
0.020111084
-0.081115723
0.029006958
0.028686523
0.033416748
-0.075012207
-0.042388916
-0.080566406
0.076721191
-0.0066146851
-0.012802124
-0.080444336
0.062469482
-0.080566406
0.056243896
0.076965332
0.029922485
-0.085876465
-0.053131104
0.071960449
0.005279541
0.062561035
0.029693604
0.041259766
0.014877319
-0.049804688
0.034210205
-0.02394104
0.03338623
-0.0076675415
0.0068397522
-0.0059204102
-0.008972168
-0.033630371
-0.019058228
0.072143555
-0.058074951
-0.031738281
-0.083679199
-0.036560059
-0.057647705
0.071838379
-0.066223145
-0.06652832
0.0703125
0.056884766
0.054260254
-0.027786255
0.020339966
-0.058227539
-0.033630371
0.063049316
-0.053009033
-0.079589844
0.0181427
-0.040771484
-0.028198242
-0.075622559
0.015686035
-0.032958984
-0.001335144
0.035308838
-0.060302734
0.026428223
-0.023773193
-0.088134766
0.049255371
0.078308105
-0.009437561
0.072631836
-0.047119141
-0.062103271
0.06628418
0.055999756
0.014938354
-0.039031982
0.042694092
0.013137817
0.054931641
0.00021445751
-0.016281128
0.073974609
-0.077575684
-0.046722412
-0.0053634644
-0.044403076
-0.054199219
-0.067138672
0.033935547
0.0092849731
-0.0023002625
0.051879883
0.064453125
-0.052703857
0.035827637
-0.065002441
-0.07409668
0.0085983276
-0.058959961
0.034484863
0.0032444
-0.00065898895
0.007019043
0.01348877
0.0075569153
0.027359009
-0.069030762
0.078369141
-0.0092926025
-0.045684814
-0.012199402
0.020950317
-0.031341553
-0.038024902
-0.051300049
-0.037384033
0.02305603
0.069519043
-0.080871582
-0.075500488
0.016784668
0.058654785
0.052154541
0.026107788
0.042358398
-0.002872467
0.052185059
0.073181152
-0.0017251968
0.065246582
0.050292969
-0.07019043
-0.035797119
0.013305664
-0.025268555
0.051635742
-0.054534912
-0.029067993
-0.077087402
-0.026733398
-0.018875122
0.052307129
0.051971436
0.031402588
0.080383301
0.081298828
0.0040740967
0.031982422
-0.073913574
0.040435791
0.040344238
-0.030670166
0.032745361
-0.06842041
0.0061950684
-0.051971436
0.022705078
-0.069091797
0.038421631
0.040435791
0.024078369
-0.077026367
-0.061889648
-0.08770752
0.015518188
0.062744141
0.074279785
0.046630859
-0.069580078
0.0073471069
-0.062683105
0.056854248
-0.02507019
0.075500488
-0.05368042
-0.065734863
-0.059387207
-0.069030762
0.059051514
0.059387207
-0.076904297
0.041473389
-0.038696289
0.069152832
0.080383301
-0.065917969
0.032287598
-0.010108948
-0.02142334
0.063659668
-0.034851074
-0.035339355
-0.028411865
-0.024398804
-0.061523438
0.044250488
0.081604004
0.067138672
-0.0055160522
0.043182373
0.026077271
-0.046478271
-0.0072174072
-0.027557373
0.070373535
0.057220459
-0.043243408
-0.014015198
0.0013637543
0.059051514
-0.073608398
-0.069946289
0.038513184
0.065612793
0.027435303
-0.068969727
0.048919678
0.065246582
0.0090789795
-0.043060303
-0.07421875
-0.018966675
0.065246582
0.034362793
-0.087280273
-0.0096969604
-0.023651123
-0.083068848
-0.0030937195
0.033905029
0.039001465
0.007019043
-0.011810303
-0.032958984
0.081176758
0.0028133392
0.047851562
-0.059967041
0.017654419
-0.081726074
0.033172607
0.022796631
0.046691895
0.032592773
-0.0496521
-0.056793213
-0.061584473
0.010795593
-0.017211914
0.073486328
-0.037475586
-0.07409668
-0.0052757263
-0.041229248
-0.074462891
-0.057342529
-0.0418396
0.042388916
-0.020782471
-0.01914978
-0.009185791
-0.056304932
0.017272949
-0.014640808
-0.074951172
-0.035400391
0.039459229
0.014701843
0.020843506
0.015235901
-0.044189453
0.020385742
0.044250488
-0.027252197
0.071777344
-0.055480957
0.0025253296
-0.033782959
0.086425781
0.027252197
-0.048583984
0.04876709
0.03692627
-0.030258179
0.039916992
-0.087341309
0.075317383
0.06048584
-0.019622803
0.0080337524
0.047790527
0.047210693
0.076904297
0.0072402954
0.035339355
0.055389404
-0.040527344
0.00258255
-0.034759521
0.044281006
-0.048370361
-0.032196045
-0.060913086
0.065124512
-0.036987305
0.050262451
-0.047637939
-0.068359375
-0.043640137
0.019454956
0.074584961
0.026596069
-0.085754395
0.083984375
0.014900208
0.03515625
-0.050170898
-0.027557373
-0.052307129
-0.017654419
-0.046234131
0.0014200211
0.084777832
0.049804688
0.015586853
-0.019485474
-0.0062713623
-0.0062026978
0.061431885
0.0021419525
0.02053833
-0.052185059
-0.0062294006
-0.027496338
-9.4890594e-05
-0.024932861
0.073364258
0.014877319
-0.02053833
0.04977417
-0.023986816
0.058258057
-0.050018311
-0.055236816
-0.029266357
0.055877686
-0.082641602
-0.081054688
-0.027923584
0.0032482147
0.079101562
0.081420898
-0.032501221
-0.030487061
0.02822876
0.058685303
0.045715332
0.076599121
0.048583984
-0.071411133
-0.060089111
-0.067260742
-0.015449524
0.058044434
0.0063209534
0.058135986
-0.031051636
0.030181885
0.03314209
0.010231018
-0.00072383881
-0.048980713
0.069458008
-0.053039551
0.022033691
0.002872467
-0.027023315
-0.046539307
0.0088043213
0.0028648376
0.07989502
-0.056762695
0.079223633
0.013656616
0.034301758
0.076721191
-0.025375366
0.066223145
-0.087585449
-0.047546387
0.033416748
0.067749023
0.016906738
-0.0070648193
0.05078125
0.036315918
-0.018280029
-0.02204895
0.060302734
-0.029098511
0.0047988892
-0.050506592
0.07434082
0.010566711
-0.078491211
-0.027236938
-0.063476562
0.028335571
-0.044128418
-0.073120117
0.04486084
0.063476562
-0.062316895
0.0546875
-0.056335449
0.043792725
0.037750244
-0.085021973
-0.025787354
0.029022217
0.054016113
-0.065551758
0.0071334839
-0.070495605
-0.065734863
0.071960449
0.062011719
0.047912598
-0.07232666
-0.070617676
-0.085083008
0.0054321289
-0.082275391
-0.046020508
-0.065979004
-0.024703979
-0.0031642914
-0.06463623
-0.06237793
0.05581665
-0.087219238
0.018066406
-0.021728516
-0.027114868
-0.07244873
0.00038838387
0.039459229
0.066162109
0.077941895
0.012901306
0.0098876953
-0.034057617
-0.075622559
0.045623779
0.034973145
0.063537598
-0.0025863647
-0.034820557
0.033111572
0.0058898926
-0.083618164
0.064025879
-0.060180664
0.054992676
-0.035583496
0.070983887
-0.0082473755
0.017272949
0.034393311
-0.029953003
0.02897644
0.050231934
0.0012931824
-0.081359863
-0.01007843
-0.013160706
0.083374023
0.0079269409
0.0019683838
0.083190918
-0.00043582916
0.057556152
-0.046234131
0.052825928
0.088134766
-0.059936523
0.011512756
0.07598877
-0.060577393
0.020553589
-0.038909912
0.01763916
0.061126709
-0.056976318
0.062438965
0.033721924
-0.033752441
-0.037750244
-0.050323486
-0.015266418
-0.07611084
-0.043243408
-0.027542114
0.066833496
-0.052490234
0.020965576
-0.044403076
-0.037963867
-0.049865723
0.048126221
-0.063720703
0.036895752
-0.072875977
0.016647339
0.083068848
-0.045898438
-0.071472168
-0.025009155
-0.044403076
-0.029846191
-0.017089844
-0.0030517578
-0.073791504
0.033203125
0.072143555
0.053894043
0.083618164
-0.073791504
-0.020553589
0.033782959
-0.0078735352
0.035339355
-0.031204224
-0.080322266
0.08026123
-0.055450439
-0.041259766
-0.035308838
-0.0050430298
0.010894775
0.069885254
-0.025665283
-0.029998779
0.0019111633
0.023910522
0.03729248
0.074645996
-0.080932617
-0.014396667
0.014907837
0.066467285
0.087890625
0.029266357
0.056915283
-0.087280273
-0.014900208
0.061187744
0.048950195
0.082397461
-0.038360596
0.060302734
0.018585205
0.050598145
-0.043518066
-0.019119263
-0.016235352
-0.078979492
0.021438599
-0.053985596
-0.043823242
0.027816772
0.012565613
0.050079346
0.069396973
-0.07800293
0.022247314
-0.065979004
-0.048706055
0.02041626
-0.02444458
0.029342651
-0.043823242
-0.049499512
-0.086669922
0.070739746
-0.079284668
-0.054595947
0.012901306
0.017456055
-0.086608887
0.038360596
0.085266113
0.08605957
-0.083557129
-0.034790039
0.045623779
0.0064620972
0.0079650879
0.049591064
0.060455322
0.032501221
-0.03604126
0.046356201
-0.085083008
-0.053710938
-0.0096130371
-0.072509766
-0.042449951
0.014129639
0.046325684
0.020401001
-0.012313843
0.050537109
0.015563965
-0.042572021
0.031463623
0.01701355
-0.074157715
-0.023345947
-0.039703369
-0.054779053
0.031555176
0.012336731
0.015258789
-0.035186768
-0.017379761
-0.021942139
0.02571106
-0.032165527
0.041046143
0.044616699
0.042938232
0.06829834
0.070800781
0.0028247833
-0.0859375
-0.084350586
0.077636719
-0.0034103394
0.056213379
0.047180176
-0.051605225
-0.029373169
0.0102005
-0.06427002
0.064941406
0.056213379
-0.050811768
-0.016296387
-0.080932617
0.0083312988
-0.04586792
-0.04119873
0.013374329
0.024139404
0.041046143
0.051177979
0.029769897
-0.065734863
-0.080505371
0.061309814
0.029571533
0.057800293
-0.018722534
0.029525757
-0.076904297
0.042297363
0.063659668
0.064453125
0.0035648346
0.017669678
-0.029602051
-0.035125732
-0.019210815
-0.043395996
-0.04107666
0.055755615
-0.044494629
0.01171875
-0.012825012
-0.0049667358
0.015762329
-0.041168213
-0.062347412
0.056182861
-0.056518555
-0.01776123
0.034515381
0.080627441
0.045898438
0.02923584
0.06072998
-0.062316895
0.076721191
0.067687988
0.00020098686
0.0023937225
-0.0859375
-0.012374878
-0.076293945
-0.0021190643
-0.074707031
-0.017532349
0.04788208
-0.0059242249
0.013305664
0.012916565
0.039520264
-0.010276794
0.079467773
-0.011367798
-0.073242188
-0.025375366
0.020996094
-0.021987915
0.018661499
-0.01473999
0.05581665
-0.063903809
-0.024810791
-0.084411621
0.034729004
-0.07800293
-0.065979004
0.046630859
0.012001038
-0.02696228
-0.015113831
0.023880005
0.06829834
-0.033203125
0.030731201
0.052032471
-0.042236328
-0.079650879
0.083435059
0.022094727
0.047943115
-0.012237549
-0.068664551
-0.08770752
0.022766113
-0.0418396
0.0034675598
-0.087585449
0.086425781
0.079406738
-0.019378662
-0.0075531006
-0.038818359
-0.018249512
0.033111572
0.040008545
-0.069763184
0.03704834
-0.061859131
0.042297363
0.019714355
0.049163818
0.074157715
0.011276245
0.054321289
0.00034117699
0.0043334961
0.02255249
-0.015525818
-0.0064506531
0.01411438
0.073730469
-0.080810547
0.0038051605
-0.0091323853
-0.077270508
-0.035552979
-0.03604126
-0.075500488
0.076171875
-0.013191223
-0.073181152
0.033081055
0.082336426
-0.050598145
0.002614975
0.058197021
-0.027359009
-0.0047264099
-0.082885742
-0.045135498
-0.069702148
-0.0082397461
-0.032806396
0.057098389
-0.042755127
-0.051177979
0.037139893
-0.069152832
-0.037414551
-0.028717041
0.07434082
0.076660156
0.021057129
0.014953613
0.064941406
0.058959961
-0.030334473
0.014129639
0.0049476624
-0.019546509
-0.047485352
0.056182861
-0.017547607
-0.085632324
0.020309448
0.02696228
0.043731689
0.059692383
-0.0028972626
0.042938232
-0.060058594
0.038848877
-0.036193848
0.020294189
0.077880859
-0.018280029
-0.0010614395
-0.051177979
0.016387939
-0.034057617
0.053405762
0.059631348
0.019073486
-0.041229248
0.065490723
0.047973633
-0.0022907257
0.019836426
0.050018311
-0.034362793
-0.050628662
-0.026397705
-0.054382324
-0.027206421
0.042205811
0.027267456
0.049255371
0.042053223
-0.024902344
-0.05255127
-0.077819824
0.074645996
-0.070861816
-0.087585449
0.055908203
-0.050201416
0.0259552
0.050140381
-0.032989502
-0.076171875
0.00015854836
-0.07989502
0.079223633
-0.01890564
0.015113831
0.050140381
0.068969727
0.051483154
-0.035217285
0.015007019
-0.0082931519
-0.075866699
-0.035369873
0.0099563599
0.073730469
-0.031951904
0.076965332
0.042327881
0.07800293
-0.081420898
-0.058654785
0.026123047
-0.060394287
0.030899048
-0.0054664612
-0.020965576
-0.065063477
-0.02406311
-0.021484375
-0.083312988
-0.071899414
-0.0046768188
-0.065307617
0.014640808
-0.061859131
-0.085144043
0.077209473
-0.022018433
-0.014419556
0.041900635
-0.087158203
-0.021194458
0.0017051697
0.050018311
0.0043334961
0.064575195
0.028106689
-0.049041748
-0.079223633
0.047363281
0.055664062
0.068237305
-0.074157715
0.017776489
-0.056915283
0.075622559
0.077758789
-0.027328491
-0.0090484619
0.0078735352
0.020324707
0.046905518
0.081115723
0.018341064
0.017990112
-0.055358887
-0.081665039
0.018341064
0.078735352
-0.055328369
-0.060272217
-0.041229248
-0.013153076
0.057830811
-0.044433594
-0.010414124
0.056488037
0.075561523
0.042449951
-0.079711914
-0.059326172
0.031738281
-0.0024929047
0.066345215
-0.020263672
-0.048034668
0.036956787
0.014694214
0.074890137
0.059753418
0.01285553
-0.06137085
-0.076538086
-0.00058794022
0.046875
0.0095443726
0.079833984
-0.050811768
0.064086914
0.086914062
-0.066650391
0.08215332
-0.022521973
0.020065308
-0.03213501
-0.077880859
-0.031143188
-0.031341553
-0.0014533997
0.041046143
0.08215332
0.044067383
0.0084228516
0.030197144
0.070861816
-0.055480957
-0.034912109
-0.077880859
0.03338623
0.0055274963
0.020690918
0.01965332
0.021469116
0.083740234
0.056182861
-0.030303955
0.083374023
0.013847351
0.044830322
-0.033538818
0.060302734
0.039520264
0.010772705
0.047363281
-0.06451416
-0.055786133
-0.029846191
0.08416748
-0.058074951
0.021697998
0.038116455
-0.074951172
-0.039642334
0.04083252
0.027420044
-0.022964478
0.06842041
-0.069152832
0.022994995
-0.073181152
0.08026123
0.034240723
0.047210693
-0.029129028
-0.040374756
-0.082824707
0.088195801
-0.050201416
-0.0362854
-0.0039043427
-0.034118652
-0.03225708
-0.043518066
-0.038970947
-0.06262207
0.0390625
-0.0057945251
-0.069702148
-0.084960938
-0.0088348389
-0.041107178
0.029983521
-0.017105103
-0.054107666
-0.073303223
0.078125
0.044219971
-0.022506714
0.06640625
0.019836426
-0.0048980713
-0.0014438629
0.0076179504
0.078491211
0.0086975098
0.025894165
0.084716797
0.017120361
-0.0096054077
-0.028457642
-0.035522461
-0.026885986
-0.08203125
-0.06842041
0.070617676
-0.086853027
0.022033691
0.047332764
-0.037780762
-0.070007324
-0.055084229
-0.051940918
0.022537231
-0.064147949
0.014579773
-0.015914917
0.0064468384
-0.067565918
-0.057678223
-0.0084228516
0.084228516
0.043640137
-0.022537231
0.0051689148
0.031341553
0.057983398
-0.0012159348
0.046356201
-0.063354492
-0.075744629
-0.021743774
-0.0098190308
-0.081665039
-0.019424438
0.0010509491
-0.023345947
-0.066223145
0.084594727
0.057678223
0.015426636
0.081665039
-0.048583984
0.023422241
-0.071655273
-0.038299561
-0.012657166
-0.07019043
-0.079528809
-0.051574707
-0.047149658
-0.0028018951
0.051696777
-0.05456543
-0.057556152
0.046051025
0.051513672
0.020690918
-0.080749512
0.026870728
-0.030899048
0.088256836
-0.060211182
-0.04574585
-0.07635498
0.081481934
0.045715332
-0.024642944
-0.073120117
0.026199341
-0.068908691
0.067626953
0.073364258
0.037200928
0.035125732
-0.079833984
0.073974609
0.0053634644
-0.019897461
0.019104004
0.036834717
0.0095062256
0.0036487579
0.028610229
0.018157959
0.079528809
-0.0017280579
-0.053863525
0.038635254
0.059204102
0.085754395
0.079284668
0.011878967
0.050384521
0.03314209
0.056732178
-0.018432617
0.022125244
0.0097808838
-0.046936035
0.0040550232
-0.0031528473
-0.030578613
-0.051849365
-0.086730957
-0.016204834
0.032012939
0.0075263977
-0.012741089
0.055145264
0.065979004
-0.084106445
0.05947876
-0.063476562
0.070739746
-0.061859131
-0.046417236
-0.071716309
-0.019515991
0.009552002
0.07611084
-0.012229919
-0.031890869
0.012046814
-0.078430176
0.016815186
-0.057861328
-0.044311523
0.017654419
-0.028930664
0.077758789
0.039794922
-0.067138672
0.079772949
-0.06463623
0.079101562
-0.030960083
-0.035705566
-0.018707275
0.055908203
0.0086593628
-0.036193848
-0.012084961
0.067810059
-0.04510498
-0.046356201
-0.044921875
-0.013435364
-0.056243896
0.02772522
0.020431519
-0.044036865
0.015029907
-0.086608887
0.031921387
-0.088134766
-0.068359375
0.059082031
-0.052734375
0.045654297
-0.0091247559
0.040008545
0.07598877
0.08770752
0.08001709
-0.050567627
0.050384521
-0.041992188
0.056396484
-0.032653809
0.047485352
-0.0068778992
0.0083236694
-0.00071001053
0.038604736
-0.020706177
0.011802673
-0.044403076
-0.054199219
-0.029022217
0.069091797
-0.021652222
-0.0083847046
0.084106445
0.040100098
-0.046783447
0.043701172
-0.066833496
0.064331055
0.047180176
0.038879395
0.085144043
0.073547363
0.012573242
-0.076538086
0.056884766
0.059082031
0.028411865
0.075683594
0.055633545
0.078186035
0.0044174194
-0.081176758
0.012184143
-0.066894531
-0.0041465759
-0.085449219
-0.010665894
-0.068054199
-0.0042991638
0.07421875
0.020950317
-0.0418396
0.075622559
-0.050872803
-0.049713135
0.026596069
0.068969727
-0.073242188
-0.010993958
0.034729004
-0.063903809
-0.00057172775
0.070739746
-0.032836914
0.028366089
0.087646484
-0.0062561035
0.052856445
-0.019454956
0.014854431
0.032501221
-0.01713562
0.051605225
-0.062133789
0.086181641
-0.074951172
0.016601562
-0.010475159
0.013954163
-0.020278931
0.085693359
-0.050445557
0.03314209
-0.022232056
-0.0024681091
0.079162598
-0.070800781
-0.045532227
0.051696777
0.011764526
-0.083984375
0.04574585
0.040588379
0.057312012
-0.037139893
-0.059173584
-0.035003662
0.049499512
-0.056549072
0.057830811
-0.025299072
-0.042724609
0.050842285
0.027984619
0.061889648
0.015930176
0.02116394
0.031890869
-0.031341553
-0.012496948
0.0031414032
-0.0034980774
-0.064208984
-0.0097732544
0.03503418
0.0019741058
-0.015731812
0.072265625
0.042724609
-0.068786621
-0.080871582
-0.042419434
0.073730469
0.060546875
0.075500488
0.043334961
0.041290283
0.056671143
-0.076599121
-0.051391602
0.038665771
-0.015510559
0.07434082
-0.00071525574
-0.055541992
-0.033172607
-0.064819336
0.052886963
0.08001709
0.027160645
-0.012428284
-0.074829102
0.071472168
-0.065490723
-0.026489258
0.021881104
-0.063964844
-0.032684326
0.055541992
0.0027809143
0.068603516
0.054260254
0.028640747
0.067565918
0.069580078
-0.01134491
0.062805176
0.039794922
0.086242676
-0.024642944
-0.073608398
-0.081420898
0.081054688
-0.0093307495
0.071472168
-0.064208984
-0.07434082
-0.0034770966
0.038909912
0.0078125
-0.074951172
-0.065063477
-0.045410156
-0.085693359
0.029937744
-0.078063965
-0.05480957
0.018218994
-0.033355713
-0.03894043
0.077819824
-0.058044434
0.018447876
0.010307312
-0.07434082
0.0026817322
0.05947876
-0.061248779
0.012535095
0.00012409687
-0.046478271
-0.053955078
-0.0016374588
0.0071296692
-0.044555664
0.0089950562
0.023544312
-0.059906006
0.051971436
-0.064941406
-0.055664062
0.080810547
0.0098190308
-0.0038833618
-0.027786255
0.037506104
0.050964355
0.031188965
-0.061340332
0.018890381
0.039367676
0.063598633
-0.062805176
-0.0017147064
0.0209198
-0.053649902
-0.066040039
0.0036830902
-0.070556641
-0.078613281
0.068603516
0.05581665
0.022521973
0.026199341
-0.037872314
-0.010261536
-0.01701355
0.05847168
-0.028671265
-0.079467773
0.004196167
-0.017303467
-0.018264771
-0.027053833
-0.063293457
0.016204834
0.011642456
0.070800781
0.025299072
0.079956055
-0.0048103333
-0.036468506
-0.040588379
-0.015045166
0.054077148
0.015327454
-0.01965332
0.076293945
-0.0001333952
-0.056762695
-0.073974609
0.01235199
0.035797119
0.030944824
-0.018661499
0.019714355
-0.053131104
0.036804199
0.0092468262
-0.03717041
-0.01222229
0.045898438
0.071411133
0.086242676
-0.050170898
0.038421631
-0.0073547363
-0.0021705627
-0.024871826
0.033905029
-0.063232422
0.07232666
-0.044158936
0.063842773
-0.00021076202
0.076782227
-0.034759521
0.038421631
-0.082641602
-0.081787109
0.075927734
0.024078369
-0.01411438
-0.033477783
-0.069335938
0.078369141
0.030273438
0.030029297
0.080627441
-0.0030612946
-0.065307617
-0.00016176701
0.076416016
-0.065673828
-0.061889648
0.08404541
-0.057800293
-0.048858643
0.075439453
-0.070617676
-0.063049316
-0.049621582
0.045928955
0.01499176
-0.02003479
0.0084228516
-0.053314209
0.030334473
0.036834717
-0.00060462952
0.013587952
0.014564514
-0.054046631
0.045227051
0.061340332
-0.076721191
-0.073303223
0.060882568
0.044586182
-0.017364502
0.014694214
0.079040527
-0.072753906
-0.022918701
-0.035461426
0.075317383
-0.040527344
-0.053466797
0.050933838
-0.0043716431
0.028137207
0.0046806335
0.085083008
-0.024002075
0.0065002441
0.050842285
0.080200195
-0.056549072
0.012619019
-0.053283691
0.024139404
-0.025405884
0.052886963
0.07434082
-0.045562744
0.033630371
0.077331543
0.013450623
-0.02154541
-0.072509766
0.02746582
-0.06854248
0.031494141
0.055419922
0.028945923
-0.063598633
0.039123535
0.07232666
0.086547852
0.083374023
9.3579292e-06
-0.085632324
-0.038269043
0.059387207
-0.033752441
-0.043395996
0.023223877
0.0019302368
-0.073425293
0.05456543
0.016494751
0.08581543
-0.052947998
0.063110352
0.0056152344
-0.024536133
0.027633667
0.076416016
0.083862305
0.071777344
0.085693359
0.033538818
0.010398865
0.063537598
-0.076965332
-0.065185547
-0.031677246
-0.018554688
0.0074920654
0.046234131
-0.080322266
-0.054199219
0.033081055
-0.038421631
-0.063110352
0.081298828
0.037261963
0.025344849
-0.028427124
0.016311646
-0.019805908
0.0076408386
-0.065185547
-0.0010147095
-0.049072266
0.0077323914
0.018234253
-0.079223633
-0.062408447
0.0082321167
0.035858154
-0.013275146
-0.074951172
0.07208252
0.055114746
-0.052642822
-0.083312988
0.0033607483
0.015113831
0.0015220642
-0.063049316
-0.020690918
-0.05166626
-0.077392578
-0.079833984
0.034210205
-0.027679443
0.051483154
-0.076660156
0.069702148
-0.077148438
-0.03817749
-0.056640625
-0.018707275
0.038970947
-0.0055885315
0.046600342
-0.023132324
-0.072753906
-0.0053596497
0.0081329346
-0.010360718
0.084777832
-0.065979004
0.0340271
-0.033935547
-0.014312744
-0.066650391
-0.021530151
-0.022094727
-0.039489746
-0.075317383
-0.012443542
-0.031173706
-0.02166748
0.0073318481
0.075134277
0.052978516
0.019577026
0.051208496
0.0014295578
-0.067749023
-0.083618164
0.0032520294
-0.067932129
0.053894043
0.030853271
-0.030349731
-0.034637451
0.055603027
0.070068359
0.077026367
-0.042114258
0.06262207
0.036590576
0.039276123
0.031982422
-0.049560547
-0.073608398
0.020309448
-0.013244629
0.0086212158
-0.079833984
-0.021179199
-0.024978638
-0.067199707
0.084960938
0.0066719055
-0.06640625
0.078857422
-0.078430176
-0.04598999
-0.00069141388
-0.036071777
0.041168213
0.00025033951
0.072753906
0.065063477
-0.061035156
-0.0418396
-0.086120605
-0.080444336
0.018875122
-0.004940033
0.03515625
-0.025634766
-0.060089111
0.073425293
0.07220459
-0.059417725
0.01247406
-0.0093383789
-0.071350098
-0.0096511841
0.088134766
-0.07232666
0.053161621
-0.023193359
-0.054412842
-0.050537109
-0.015808105
0.050994873
0.023361206
0.06829834
-0.014053345
-0.0071487427
0.05065918
0.021636963
0.031036377
-0.087524414
0.048400879
-0.059661865
-0.00013041496
-0.036468506
-0.049133301
0.00074052811
-0.055450439
0.0021362305
-0.047851562
0.063842773
-0.012214661
-0.039520264
0.047485352
-0.0073204041
0.017715454
0.018325806
-0.034423828
-0.08203125
-0.04397583
0.038360596
0.057800293
0.045135498
-0.0046768188
0.07635498
-0.087402344
0.0054092407
-0.07208252
0.024261475
0.042755127
-0.07232666
-0.047027588
-0.039001465
0.057373047
-0.056365967
0.02015686
0.073120117
-0.04788208
-0.085388184
-0.082641602
0.05569458
-0.078735352
-0.01109314
0.010856628
0.054229736
-0.086242676
0.08416748
0.07019043
-0.048828125
-0.021636963
0.0081863403
0.073974609
-0.049316406
0.031112671
0.066040039
-0.018936157
-0.0005440712
-0.077575684
-0.074279785
0.01008606
-0.040893555
0.037078857
-0.041381836
-0.011932373
0.057342529
0.0093994141
0.082824707
-0.061126709
0.031982422
-0.0030403137
0.044555664
-0.00031423569
0.077819824
-0.030075073
0.010795593
-0.075378418
0.064819336
0.074645996
0.038970947
-0.021499634
-0.022064209
-0.076904297
-0.0093154907
0.057159424
-0.080627441
0.043060303
-0.05355835
0.065917969
0.01374054
0.08605957
0.086975098
-0.010620117
0.056640625
0.080444336
0.011726379
-0.0062446594
-0.011512756
-0.017745972
-0.062805176
0.03894043
0.032653809
0.075561523
0.078308105
0.01991272
-0.0071487427
-0.022521973
-0.045471191
-0.010787964
0.057983398
0.083984375
0.060913086
-0.020477295
0.011322021
0.03125
0.080200195
0.009513855
-0.017822266
-0.016555786
0.0025005341
-0.069580078
-0.070373535
0.049621582
0.030349731
-0.013900757
0.058166504
-0.084838867
-0.012962341
-0.084472656
0.038635254
0.0067176819
-0.039367676
0.052154541
-0.00089788437
-0.086364746
0.01096344
0.04510498
0.011962891
-0.036621094
-0.0071678162
-0.053833008
-0.061218262
0.052246094
0.085510254
0.049407959
-0.035217285
-0.032196045
0.038513184
-0.033355713
0.003408432
0.085327148
-0.017868042
0.054901123
-0.081115723
0.042358398
-0.007850647
-0.034820557
-0.068237305
0.052001953
0.041107178
0.083496094
-0.0093994141
0.025543213
0.030136108
-0.032562256
0.021896362
0.013519287
-0.005443573
-0.074279785
-0.026412964
-0.043121338
0.08380127
-0.06640625
-0.071044922
0.063171387
-0.022201538
-0.033416748
0.019119263
0.064941406
0.020629883
-0.080200195
-0.074890137
0.014587402
-0.074462891
-0.0059509277
0.059875488
0.088256836
-0.025405884
0.065795898
0.055236816
-0.054962158
0.014839172
-0.013404846
0.080322266
-0.044281006
0.0056037903
0.041809082
-0.07043457
0.037322998
0.052368164
-0.0018730164
0.016204834
0.031982422
-0.027481079
0.043914795
0.0033168793
0.0079650879
0.083129883
0.014038086
0.017486572
0.039672852
0.037322998
-0.063781738
0.015975952
-0.040161133
-0.036132812
0.03427124
0.043914795
0.047943115
0.054016113
-0.062744141
0.010253906
-0.036804199
-0.056884766
0.04309082
-0.029632568
-0.059387207
-0.059173584
0.087097168
-0.034698486
-0.033477783
-0.061248779
0.051696777
0.058959961
0.00037431717
0.083984375
0.046173096
0.047119141
0.042449951
0.019592285
-0.026809692
-0.024902344
-0.039337158
-0.049987793
0.081787109
-0.028625488
-0.0070343018
0.014053345
0.071472168
0.068908691
0.051544189
-0.034454346
0.087036133
-0.0024681091
0.031143188
-0.078369141
-0.045318604
-0.082641602
0.064697266
0.012245178
-0.031921387
0.056182861
-0.023391724
-0.078369141
-0.060058594
0.0362854
0.018035889
0.048980713
-0.0054130554
-0.01247406
0.028442383
-0.023162842
0.01084137
-0.056640625
-0.071166992
0.012176514
-0.010467529
0.061798096
-0.02293396
-0.075683594
0.043365479
0.028030396
0.075317383
0.0093078613
0.040985107
-0.073181152
0.05557251
-0.012123108
0.00026464462
-0.044921875
-0.0021362305
-0.04675293
0.030288696
0.07434082
0.059112549
-0.014549255
0.082824707
0.051727295
-0.055297852
-0.069458008
-0.055725098
0.039855957
0.00041270256
-0.01121521
-0.07019043
-0.059570312
-0.034484863
0.019927979
0.081848145
0.084411621
0.0034713745
0.087280273
-0.075256348
0.0065612793
0.062561035
-0.010978699
-0.0065841675
0.050720215
0.017593384
-0.031860352
-0.0053749084
0.066955566
-0.078369141
-0.0086898804
0.018844604
-0.055511475
-0.046844482
-0.049621582
-0.031677246
-0.026885986
-0.085571289
-0.080078125
-0.046417236
-0.063720703
0.071777344
0.015670776
-0.022567749
0.086853027
0.00066375732
-0.0055732727
0.036682129
-0.069335938
0.030075073
0.038879395
-0.0021743774
-0.064697266
-0.0262146
-0.085205078
-0.032104492
0.022232056
-0.021469116
0.086791992
-0.026260376
-0.056976318
0.051086426
0.061035156
-0.083068848
0.015731812
-0.005065918
-0.015945435
0.07623291
0.020462036
0.066650391
-0.075012207
-0.015975952
0.032196045
0.048736572
-0.044952393
0.053741455
0.0024814606
-0.050262451
-0.016265869
-0.083740234
-0.073486328
-0.0042953491
0.080749512
-0.081176758
0.025253296
-0.04119873
-0.069702148
-0.01537323
-0.054840088
-0.013023376
0.0016479492
-0.0062103271
-0.073303223
-0.061981201
-0.054443359
0.084106445
0.017791748
-0.076416016
0.049682617
-0.047180176
-0.012985229
0.0067939758
-0.075683594
-0.054870605
0.047973633
-0.040130615
-0.085510254
0.047210693
-0.031951904
-0.065856934
-0.020019531
0.030212402
0.0018110275
0.040039062
0.040313721
0.059082031
0.046630859
-0.032592773
0.031112671
-0.011123657
0.024520874
0.0097503662
0.01058197
0.018615723
-0.035461426
0.0082015991
-0.012405396
-0.083984375
0.0519104
-0.078063965
0.056732178
-0.001701355
-0.03225708
0.0519104
-0.03237915
-0.064147949
0.050506592
-0.076782227
0.058807373
0.026748657
0.027450562
0.084777832
-0.054779053
-0.082580566
0.041107178
-0.034454346
0.030700684
0.040802002
-0.040039062
-0.023986816
-0.010276794
-0.011573792
-0.063354492
-0.0070610046
0.07043457
0.072509766
-0.005645752
0.047332764
-0.080810547
-0.055633545
-0.0072288513
-0.023284912
-0.079284668
0.045135498
0.049194336
0.066101074
0.079101562
0.065551758
-0.027832031
-0.021713257
0.059356689
0.023010254
0.069763184
-0.031799316
0.042785645
0.032714844
0.035888672
0.071655273
0.026199341
-0.036499023
-0.059234619
0.00066232681
-0.071411133
-0.014076233
-0.0046577454
-0.014610291
0.068603516
-0.082824707
-0.051208496
-0.013809204
-0.015388489
-0.027664185
-0.039459229
0.052368164
0.0039367676
0.036987305
-0.065673828
0.0033130646
0.0046310425
-0.058654785
0.084411621
0.059509277
-0.07019043
0.0082778931
-0.0003221035
-0.032104492
-0.075439453
-0.085876465
0.071960449
-0.0080566406
-0.062072754
-0.075317383
-0.012931824
-0.080688477
0.087524414
0.015029907
-0.030273438
0.065368652
0.010520935
0.019866943
-0.037902832
0.0052032471
0.03225708
-0.068908691
0.080627441
-0.03692627
0.029388428
-0.020507812
-0.075012207
-0.015930176
-0.04473877
0.023239136
-7.1287155e-05
0.04196167
-0.050476074
-0.04876709
-0.071228027
0.026321411
0.035766602
1.7106533e-05
0.035369873
0.019729614
0.035980225
0.082092285
0.0064582825
-0.027236938
-0.085754395
0.0023441315
0.044128418
-0.062988281
-0.059631348
-0.021621704
0.00018393993
0.078674316
0.084228516
0.042907715
-0.045562744
0.015289307
0.018157959
0.058197021
-0.029327393
0.0060806274
0.087646484
0.0082244873
0.026580811
0.04397583
0.076416016
-0.014526367
0.035064697
-0.085571289
-0.06463623
-0.060943604
0.058074951
0.013961792
-0.0080337524
0.035095215
-0.065002441
0.00041723251
0.087158203
-0.035461426
-0.079467773
0.018051147
0.06829834
-0.060546875
-0.068908691
0.023925781
0.0013275146
0.067443848
0.0012016296
0.08203125
-0.039825439
0.030715942
-0.037109375
-0.070251465
-0.01663208
0.044647217
0.065612793
-0.015129089
-0.0060806274
-0.059356689
0.034057617
-0.042419434
0.085083008
0.03515625
-0.054626465
-0.058044434
-0.08807373
-0.070373535
-0.023239136
0.08404541
-0.03817749
0.014633179
0.0060958862
0.022476196
0.020553589
-0.036529541
-0.06652832
0.0025005341
0.076293945
-0.062225342
-0.077087402
-0.061035156
0.032470703
0.062225342
-0.046539307
0.004486084
-0.023803711
-0.00021779537
0.02015686
-0.047546387
0.0043983459
-0.08807373
-0.030670166
-0.055389404
0.019058228
-0.085449219
-0.015525818
-0.030303955
0.072998047
-0.0019416809
-0.048492432
-0.070068359
-0.020767212
0.0058174133
0.06137085
0.087463379
-0.061523438
-0.06439209
0.01612854
0.081848145
-0.081237793
0.03704834
0.013412476
-0.026794434
-0.06652832
-0.052520752
0.069458008
-0.069702148
0.049102783
0.05960083
0.085021973
0.00091600418
-0.080444336
-0.04586792
0.050354004
-0.021270752
-0.017944336
0.07409668
0.041595459
-0.039276123
0.053833008
0.055786133
0.01058197
-0.027023315
0.029296875
-0.0032691956
-0.047943115
0.043731689
0.085144043
-0.078430176
0.033172607
0.036254883
0.046844482
0.0049514771
0.025024414
-0.07019043
0.077819824
0.003742218
0.078491211
-0.05166626
0.028213501
-0.038330078
0.042358398
0.0063018799
-0.030944824
0.062042236
-0.049835205
-0.055450439
-0.066894531
-0.066711426
0.017654419
-0.034790039
0.061340332
0.015975952
0.064819336
0.007396698
0.05065918
0.028289795
-0.079772949
-0.067199707
0.025497437
0.010864258
-0.059783936
0.034545898
0.053009033
0.063903809
0.073425293
0.059631348
0.03326416
0.056945801
0.0040359497
-0.0034656525
-0.061248779
-0.062042236
-0.034240723
-0.054931641
-0.080078125
0.0025005341
0.052978516
0.052246094
-0.042907715
-0.052001953
-0.038696289
-0.031143188
-0.032440186
0.02192688
-0.028274536
-0.040924072
0.053894043
0.038635254
-0.065612793
-0.053009033
-0.0025444031
0.012489319
-0.042266846
-0.077941895
0.085998535
0.071838379
-0.08605957
0.064208984
-0.071655273
-0.045898438
0.045349121
-0.039245605
-0.016738892
-0.040374756
-0.06640625
0.0070838928
0.014686584
0.078735352
-0.08203125
0.015190125
-0.086791992
-0.066345215
0.042388916
0.029022217
0.049804688
-0.076049805
0.047027588
0.063659668
-0.081481934
0.013084412
-0.0044441223
0.04699707
-0.038696289
-0.017303467
0.087219238
0.073425293
-0.07409668
-0.06854248
-0.016403198
-0.072692871
-0.068115234
-0.046112061
-0.022262573
-0.015190125
0.053192139
-0.0090103149
0.070617676
0.02961731
0.021957397
-0.062805176
-0.054504395
0.0097045898
0.0418396
0.028320312
-0.060272217
0.018234253
-0.055053711
-0.027130127
0.038970947
0.061157227
-0.047637939
0.070861816
0.011604309
0.010749817
0.012130737
-0.052032471
0.056488037
-0.071350098
0.042755127
0.0019369125
-0.02507019
-0.029037476
0.038269043
-0.024917603
-0.056640625
0.046051025
0.061401367
-0.070373535
0.057067871
-0.024475098
-0.040374756
0.037109375
0.0024204254
0.0054512024
-0.020446777
0.077697754
-0.062866211
-0.079711914
-0.065551758
-0.074462891
0.008102417
-0.053619385
-0.082519531
0.029983521
-0.030044556
-0.067504883
-0.025405884
0.087402344
0.081604004
0.027740479
0.07019043
0.076538086
-0.031738281
0.069580078
-0.05947876
0.018493652
0.026672363
0.058013916
-0.078491211
0.024032593
0.051055908
-0.0013799667
-0.00023150444
0.043945312
-0.0859375
-0.040466309
-0.037139893
-0.078613281
-0.087463379
0.086914062
-0.068115234
0.019180298
0.042541504
-0.020599365
0.08782959
0.036499023
-0.01675415
-0.0064659119
0.056518555
-0.059234619
-0.016815186
0.012153625
-0.087219238
0.063781738
0.037536621
-0.019638062
-0.061553955
0.046386719
-0.024291992
-0.014190674
0.051269531
0.077514648
0.008102417
0.03137207
-0.066467285
-0.026016235
0.045654297
-0.0074729919
0.016342163
-0.049438477
0.076477051
0.05847168
-0.0039138794
-0.050689697
-0.078063965
0.073852539
-0.031738281
-0.053405762
0.059295654
-0.02432251
-0.047119141
0.071228027
-0.080444336
-0.022979736
0.0023651123
-0.053894043
0.055664062
-0.015808105
-0.03604126
-0.041656494
-0.0057868958
0.071044922
0.061798096
0.027618408
-0.062927246
0.06652832
0.085632324
-0.086547852
0.0096817017
0.046966553
-0.046661377
0.052856445
-0.0030994415
0.003900528
-0.024917603
0.020736694
0.051086426
0.065429688
-0.079956055
0.055908203
0.068481445
0.020904541
-0.083496094
-0.07611084
-0.087036133
0.08190918
0.033233643
-0.02456665
-0.050292969
-0.044219971
0.07623291
-0.022369385
0.027496338
0.066223145
0.052581787
-0.05279541
-0.073608398
-0.059326172
0.049072266
0.0048141479
0.057098389
-0.068359375
-0.081726074
-0.025894165
-0.012420654
-0.018814087
-0.049102783
0.086975098
-0.05859375
-0.0056838989
-0.078735352
0.03503418
-0.014648438
0.026489258
0.016265869
0.022644043
0.083862305
-0.085449219
0.023193359
0.019073486
-0.031921387
0.041900635
0.087524414
0.01424408
-0.020904541
0.061340332
-0.035919189
-0.03994751
-0.074035645
-0.021408081
0.054626465
-0.0034732819
-0.040863037
0.038665771
0.061676025
-0.014900208
0.032714844
-0.057983398
-0.035522461
0.0064697266
0.012580872
-0.059570312
0.021255493
-0.013504028
-0.043457031
-0.077636719
-0.076965332
0.02973938
0.049987793
-0.061157227
0.076904297
-0.054382324
0.022567749
-0.055511475
0.077758789
-0.031112671
-0.026931763
-0.02746582
0.079467773
-0.066040039
-0.057800293
0.010284424
0.076904297
0.08404541
-0.0096282959
-0.084838867
0.029205322
0.082397461
-0.045043945
-0.049072266
0.063598633
-0.07232666
-0.023208618
-0.075134277
0.012878418
-0.04788208
-0.0022964478
0.087097168
-0.06817627
0.041107178
-0.0099411011
-0.068237305
-0.049957275
0.030853271
0.073120117
0.064880371
0.013954163
0.0043296814
-0.070922852
0.0095062256
0.034332275
0.060119629
-0.0028877258
-0.073669434
-0.05090332
0.069152832
-0.043212891
0.028060913
0.029968262
0.002986908
-0.063476562
0.040771484
-0.073730469
-0.03805542
0.057739258
-0.059570312
-0.065795898
-0.0025234222
0.07421875
-0.049621582
0.0028133392
0.034881592
0.015220642
0.08404541
0.018341064
-0.011817932
0.050048828
0.050445557
0.059173584
0.074401855
-0.040924072
-0.045379639
-0.010932922
0.030075073
0.050109863
-0.060668945
0.043792725
-0.005115509
0.013214111
0.053283691
0.047515869
0.044006348
-0.034515381
0.02041626
0.083251953
-0.033447266
0.0033473969
0.011528015
0.016143799
-0.0071640015
0.028549194
0.0062408447
0.0029945374
0.016235352
-0.0001809597
0.063781738
-0.073913574
0.08605957
-0.0017995834
-0.057342529
0.087768555
-0.080749512
0.060302734
-0.077331543
-0.031158447
0.078552246
0.076965332
0.025817871
-0.030166626
0.017211914
0.040802002
-0.014839172
0.046295166
-0.043548584
0.052246094
0.051391602
-0.00076770782
-0.017227173
-0.077758789
-0.075683594
-0.007396698
0.022537231
0.0019607544
0.064758301
-0.043365479
0.0046958923
0.085266113
0.055419922
0.051239014
-0.019805908
-0.0078010559
0.044494629
0.013648987
0.027404785
-0.060058594
-0.0094451904
-0.072570801
-0.066711426
0.071838379
0.059783936
0.037322998
-0.012153625
-0.063537598
0.055541992
0.0091323853
0.084533691
-0.083190918
-0.075561523
-0.0098266602
0.0090179443
0.065124512
0.023910522
-0.040161133
0.0209198
0.055633545
-0.02671814
0.011787415
0.0067558289
-0.00024962425
-0.041564941
0.013137817
-0.040649414
-0.075317383
0.087768555
-0.064819336
-0.0086746216
0.083129883
0.060821533
-0.029525757
-0.001247406
-0.059204102
0.069274902
0.067565918
-0.074584961
0.073364258
0.0061950684
-0.0077590942
-0.022186279
0.077087402
0.00031495094
0.07409668
0.078063965
0.05480957
-0.022445679
0.058929443
-0.023986816
0.026367188
-0.081298828
0.021331787
0.015388489
0.056365967
-0.08380127
0.079223633
0.02947998
-0.018325806
-0.06149292
0.075622559
-0.064208984
-0.053192139
-0.060302734
0.022064209
-0.088195801
-0.022033691
0.067810059
0.028106689
-0.034881592
-0.026107788
0.04006958
-0.03604126
0.02456665
-0.059936523
-0.057556152
0.043518066
-0.046478271
0.086181641
0.0068969727
0.040649414
-0.063110352
-0.040100098
-0.065673828
0.024673462
0.067565918
-0.0078353882
0.057281494
0.087402344
-0.08392334
-0.065612793
-0.074157715
-0.053466797
-0.086975098
0.052154541
0.017776489
0.025024414
-0.044464111
0.069335938
-0.0035953522
-0.032318115
-0.07824707
-6.0737133e-05
0.052215576
-0.039733887
-0.079223633
-0.081298828
-0.074768066
-0.06463623
0.064025879
-0.025817871
0.041442871
0.022155762
-0.055419922
-0.067993164
0.069274902
-0.038604736
-0.0062408447
0.0038986206
0.041503906
-0.033050537
-0.0069084167
0.055541992
-0.06463623
-0.0026454926
-0.030075073
-0.044036865
-0.029708862
0.033752441
0.084106445
0.081542969
0.031143188
0.012733459
-0.022064209
-0.014976501
0.06451416
0.031082153
-0.076660156
-0.041778564
0.047027588
-0.081665039
-0.068603516
0.024200439
0.067749023
0.020523071
0.073730469
0.02281189
-0.047912598
-0.015716553
-0.046844482
-0.016983032
0.0055427551
0.042724609
-0.078857422
0.038818359
-0.0018663406
-0.014518738
-0.044830322
0.070983887
-0.022247314
-0.01071167
-0.028961182
0.0042457581
-0.023849487
-0.041564941
0.069763184
0.00049304962
0.06842041
0.046875
0.04296875
-0.011779785
-0.01890564
-0.050537109
0.070007324
0.078308105
-0.034515381
-0.041381836
-0.050445557
0.079467773
0.023147583
-0.072937012
-0.010742188
0.05480957
0.047119141
-0.042419434
0.016677856
0.059783936
-0.037902832
-0.054107666
-0.063537598
-0.039276123
-0.083740234
0.029815674
-0.073608398
0.031829834
0.0071144104
0.07623291
-0.0081787109
0.020690918
-0.081481934
-0.080932617
-0.020355225
0.0069541931
-0.037872314
0.043182373
0.053405762
-0.058502197
0.00078201294
-0.061309814
-0.013977051
-0.058898926
-0.082824707
-0.030563354
0.0091247559
-0.014083862
-0.069396973
-0.03805542
0.054107666
0.03326416
-0.034698486
0.015899658
0.062683105
-0.069274902
-0.067016602
0.02507019
-0.0054779053
0.029815674
0.026046753
0.025192261
-0.052886963
0.071228027
-0.075317383
-0.088134766
0.0052185059
0.076904297
-0.083862305
-0.011787415
0.041290283
0.022903442
-0.08782959
-0.070251465
0.078613281
0.069335938
0.053192139
0.00623703
-0.026168823
-0.079772949
-0.057617188
0.069274902
-0.079528809
-0.040679932
-0.035552979
0.0030155182
0.07623291
-0.063354492
-0.070861816
-0.084777832
0.084533691
-0.061889648
-0.012374878
0.088195801
-0.013023376
0.013153076
0.049041748
-0.00062322617
-0.079040527
-0.064086914
-0.026321411
-0.02520752
0.07800293
0.049072266
0.067077637
0.015655518
-0.02456665
-0.018493652
-0.043914795
0.087646484
-0.070068359
0.087341309
-0.068908691
0.063659668
-0.07800293
-0.068786621
-0.078857422
-0.021789551
0.026535034
-0.052947998
0.087097168
-0.032531738
0.043701172
-0.070800781
0.029052734
0.036682129
-0.065002441
0.0087203979
-0.013465881
-0.084533691
-0.07043457
-0.0045928955
0.058959961
0.056152344
0.02507019
0.022293091
0.041687012
-0.068115234
-0.066040039
-0.0069885254
0.052001953
0.084838867
0.07043457
0.0014915466
0.020950317
-0.039764404
0.018630981
-0.034362793
-0.061553955
0.044921875
0.013298035
0.06237793
-0.088134766
0.051635742
-0.043640137
0.014122009
0.024810791
-0.046661377
0.064758301
-0.030975342
0.067565918
-0.011505127
0.079833984
0.054870605
0.0038452148
-0.017715454
-0.082214355
0.085083008
0.08416748
0.032531738
0.072753906
0.033630371
-0.0058059692
0.073242188
0.064453125
0.013397217
0.048248291
0.027786255
0.010604858
-0.07232666
-0.013053894
-0.039306641
-0.038696289
-0.019088745
-0.014808655
0.0044021606
0.020004272
-0.075195312
-0.061798096
-0.085876465
0.0041503906
-0.088256836
-0.050476074
-0.0075683594
-0.046539307
0.054748535
-0.071533203
0.0014533997
0.083862305
-0.079223633
-0.012397766
-0.034301758
0.076599121
-0.015975952
0.053222656
-0.079284668
0.026062012
0.066711426
0.078918457
-0.010429382
0.057556152
-0.066772461
-0.037750244
-0.088012695
-0.03527832
-0.022216797
-0.019821167
0.070007324
-0.072021484
0.027572632
0.07220459
-0.03717041
0.087097168
-0.050445557
0.023376465
-0.014312744
0.026763916
-0.084899902
-0.031921387
0.014511108
-0.040740967
-0.010726929
-0.031219482
0.011512756
-0.05355835
0.01713562
-0.076049805
0.012718201
0.007183075
0.015090942
-0.083862305
-0.057434082
-0.049621582
-0.001996994
0.052581787
0.040374756
0.086547852
0.040252686
-0.064819336
-0.021911621
-0.068115234
-0.066711426
-0.024002075
-0.045227051
0.065246582
-0.00095462799
-0.020553589
0.016601562
0.025497437
-0.086486816
-0.083496094
0.034454346
0.0024433136
-0.011360168
-0.066955566
0.028900146
-0.029815674
0.013763428
0.054168701
-0.072998047
0.065185547
0.028930664
-0.019348145
0.08013916
-0.070251465
-0.069885254
-0.078918457
0.0041885376
-0.077148438
-0.082885742
0.033050537
-0.015823364
-0.013381958
0.047576904
-0.041473389
-0.070617676
0.06427002
-0.078125
-0.071716309
0.087158203
-0.072021484
0.085632324
0.06427002
0.037658691
0.036987305
-0.026687622
-0.005443573
0.032104492
0.063659668
-0.082702637
-0.027282715
0.014472961
0.0069274902
0.0085449219
0.018737793
-0.073547363
-0.057891846
-0.053436279
-0.0061454773
-0.018478394
0.043548584
-0.079772949
-0.032012939
-0.0059547424
0.083374023
0.054748535
0.029846191
0.00023162365
-0.043243408
0.08581543
-0.053222656
-0.071594238
0.030151367
0.076599121
-0.07409668
0.032043457
0.051483154
-0.026031494
-0.050933838
0.081726074
0.073913574
-0.020614624
0.077270508
-0.059997559
0.07208252
-0.063415527
-0.011039734
-0.071594238
-0.077026367
-0.040405273
-0.019943237
-0.021835327
-0.057891846
-0.076965332
0.030609131
0.078613281
-0.058441162
0.033508301
-0.068664551
0.051971436
-0.086669922
0.051574707
-0.028640747
-0.035522461
-0.044342041
-0.073669434
0.087341309
0.064697266
0.0098114014
0.030685425
0.067199707
0.039489746
0.0090179443
0.036987305
-0.026260376
-0.03817749
0.040100098
0.065979004
-0.041168213
-0.03225708
-0.077514648
0.072692871
-0.067810059
0.058532715
-0.063781738
-0.030471802
-0.012168884
-0.075805664
-0.020980835
0.028213501
0.042449951
0.055786133
-0.052978516
0.084289551
-0.049926758
0.064819336
0.084533691
-0.075744629
0.032958984
-0.037628174
-0.020980835
-0.073486328
0.064697266
0.022750854
-0.064880371
0.063171387
0.014633179
-0.0027294159
-0.0091094971
0.050109863
-0.03817749
-0.065917969
0.031433105
0.069396973
0.027084351
0.049255371
0.057678223
-0.084289551
-0.05255127
0.00045156479
0.081298828
-0.035461426
0.052246094
0.082092285
0.042755127
-0.077941895
0.037261963
-0.041473389
-0.053009033
-0.069641113
0.032165527
0.02015686
0.028076172
-0.061248779
0.039306641
-0.04776001
-0.050811768
0.0041389465
-0.068481445
-0.078796387
0.056243896
0.039337158
0.062866211
-0.066162109
-0.04196167
0.0038108826
-0.085266113
0.046142578
-0.022476196
-0.082824707
-0.036651611
-0.045440674
0.075439453
0.015594482
-0.038085938
0.040924072
-0.072265625
-0.040893555
-0.055755615
-0.018310547
0.050323486
-0.076538086
0.031280518
-0.042114258
-0.023757935
0.016784668
0.07611084
0.006729126
-0.086486816
-0.039001465
0.085205078
0.032440186
0.051055908
0.038116455
0.017318726
0.076904297
-0.05657959
-0.021255493
-0.030044556
-0.028656006
0.081481934
0.011955261
0.075622559
0.036499023
0.065063477
0.061767578
0.0097045898
-0.077453613
0.01260376
-0.054901123
0.045806885
0.004032135
-0.020553589
-0.071044922
0.037628174
0.050628662
0.043212891
0.051269531
0.04888916
-0.063537598
-0.027709961
-0.073791504
-0.043426514
-0.019989014
-0.025436401
-0.020843506
-0.059814453
-0.049041748
-0.027694702
0.055847168
-0.084533691
-0.011657715
0.026794434
-0.0059700012
-0.014701843
0.044586182
0.027999878
-0.085144043
-0.011932373
0.013259888
-0.071166992
-0.026016235
0.0039329529
-0.038665771
0.015991211
0.020004272
0.040924072
0.069641113
0.027282715
0.050964355
-0.013580322
0.059814453
0.0062408447
-0.055786133
0.081054688
0.0056266785
0.04486084
0.014320374
-0.042602539
-0.087036133
-0.057922363
0.02230835
-0.040344238
-0.087524414
-0.081604004
0.031158447
-0.059967041
-0.028030396
0.063171387
0.06439209
0.0054206848
-0.036773682
-0.043731689
0.081726074
0.064147949
0.02444458
-0.050964355
-0.049865723
-0.012077332
0.0050926208
0.063659668
-0.021469116
-0.019592285
-0.022140503
0.03314209
-0.041900635
-0.028060913
-0.078735352
-0.0067634583
0.049987793
-0.046783447
-0.015991211
-0.069335938
-0.0096893311
-0.021652222
-0.043914795
-0.071594238
0.0011129379
0.024658203
-0.021881104
0.061981201
0.0018434525
-0.029403687
0.069152832
-0.0045585632
0.054321289
-0.052215576
-0.06161499
0.010177612
0.04208374
-0.056365967
-0.029388428
-0.028656006
-0.025619507
-0.044006348
0.011650085
-0.021820068
-0.078613281
-0.029541016
0.031311035
0.029693604
-0.07019043
0.059417725
-0.055358887
-0.085327148
-0.075927734
0.018432617
-0.027862549
-0.059082031
-0.014587402
-0.066162109
-0.047088623
-0.028411865
-0.076660156
0.083251953
0.070251465
-0.025878906
0.073364258
-0.080505371
-0.030136108
-0.052185059
0.075012207
-0.033447266
-0.052642822
0.046569824
0.068054199
-0.062316895
-0.076782227
0.05456543
0.08190918
0.027297974
0.073547363
0.010543823
0.0031719208
0.041503906
-0.056854248
0.024093628
0.077148438
-0.026168823
-0.013519287
-0.0262146
-0.07989502
0.029968262
-0.0085983276
-0.02935791
-0.020812988
-0.074890137
-0.074768066
0.066101074
0.022750854
-0.012565613
0.04208374
-0.071411133
0.06451416
-0.04598999
0.078308105
-0.038513184
-0.039916992
0.07800293
0.016571045
-0.085205078
0.00026488304
0.026565552
-0.0061264038
-0.067321777
-0.040405273
-0.028717041
-0.044403076
0.070556641
-0.028915405
-0.052246094
-0.049133301
0.054595947
0.019454956
-0.052520752
0.0036010742
-0.033355713
-0.078063965
0.073608398
-0.032043457
0.083557129
-0.077331543
0.069519043
0.068359375
0.047668457
-0.041595459
0.005569458
-0.0030918121
-0.07208252
-0.044372559
-0.073974609
0.06137085
-0.030899048
0.059967041
-0.069396973
-0.00058269501
-0.073852539
0.015762329
0.042449951
-0.085388184
-0.0033111572
-0.0028553009
0.046661377
-0.07220459
0.037628174
-0.030670166
-0.0059890747
-0.082946777
0.034881592
-0.077270508
-0.045562744
-0.0071563721
0.075683594
0.08770752
0.083007812
0.052978516
-0.069885254
-0.048828125
0.062927246
0.048492432
-0.071044922
0.070617676
-0.0129776
0.028594971
-0.035217285
0.086669922
-0.025802612
0.059997559
-0.028945923
-0.086364746
-0.055053711
0.027313232
-0.087646484
-0.025512695
-0.028244019
-0.032684326
0.086791992
0.019302368
0.086791992
0.019866943
0.030441284
-0.06463623
0.019607544
0.077941895
-0.033416748
-0.055725098
0.079406738
0.037231445
0.035736084
-0.07043457
0.0040664673
0.03414917
-0.08782959
-0.04788208
-0.0032176971
-0.065734863
-0.030807495
0.075378418
-0.084838867
-0.045776367
-0.0038776398
0.061065674
-0.071289062
-0.071289062
-0.075256348
0.058654785
0.047302246
-0.057983398
-0.028091431
-0.016845703
0.086791992
-0.045776367
-0.061157227
0.047698975
-0.022918701
0.052368164
-0.021881104
-0.029647827
0.061737061
-0.0076522827
-0.066040039
0.045471191
-0.068359375
-0.02204895
-0.010643005
0.043914795
0.06072998
-0.0703125
0.041107178
-0.042388916
-0.0015144348
-0.065551758
-0.015228271
0.014289856
-0.062072754
-0.072509766
-0.057281494
0.06463623
-0.077697754
-0.032348633
0.035369873
-0.0038833618
0.073425293
0.067016602
0.040405273
-0.084716797
-0.036987305
0.047180176
-0.004283905
0.068054199
-0.07611084
-0.053985596
-0.057861328
-0.001244545
0.055877686
0.085998535
-0.070068359
-0.056671143
0.013259888
-0.0093231201
0.050079346
-0.067504883
-0.02923584
-0.063293457
0.072265625
0.032745361
0.072143555
0.047729492
0.033538818
0.059814453
-0.083190918
-0.059509277
0.037628174
0.060516357
0.08581543
-0.082763672
0.011283875
-0.0021781921
0.061309814
-0.048950195
0.080566406
0.07635498
-0.074279785
-0.025482178
0.07635498
0.077758789
-0.052734375
0.021896362
0.032623291
-0.026016235
-0.059417725
-0.044433594
0.05368042
-0.065185547
0.073425293
0.067016602
-0.069274902
0.0065612793
-0.078063965
0.084228516
-0.073181152
-0.036712646
0.024795532
0.073120117
-0.060241699
-0.057556152
-0.02243042
0.024932861
-0.047454834
-0.020263672
0.025680542
0.082641602
0.034790039
0.0071907043
0.045257568
-0.0049247742
-0.0075721741
0.085388184
0.018661499
0.058837891
0.021835327
-0.0022182465
-0.061340332
-0.08581543
0.024841309
0.077636719
0.049377441
0.031433105
-0.080200195
-0.086486816
0.025100708
0.04284668
0.023147583
-0.063781738
-0.067321777
-0.075500488
0.055419922
-0.048706055
-0.019805908
0.041595459
0.016586304
-0.038391113
0.034545898
-0.045349121
0.042602539
0.04989624
0.063598633
0.070007324
-0.082641602
0.023239136
-0.075927734
0.015991211
0.064880371
-0.040374756
-0.0026226044
-0.03302002
0.06237793
0.032531738
0.019775391
0.081848145
0.019393921
-0.022583008
0.034698486
-0.079223633
0.07409668
0.081604004
-0.0096893311
0.0090484619
-0.051971436
-0.018630981
0.041412354
-0.018615723
-0.072814941
0.073486328
-0.043548584
0.029830933
-0.037994385
-0.055603027
-0.074829102
-0.043060303
0.05770874
0.061126709
-0.0054473877
-0.015792847
-0.076782227
-0.079711914
0.070678711
0.07244873
0.035766602
0.073669434
0.038696289
-0.054962158
0.069641113
0.0029582977
0.0039176941
0.022842407
0.031585693
0.054595947
0.022003174
-0.029281616
-0.052459717
-0.027648926
0.0031757355
0.017456055
-0.076721191
-0.085693359
-0.065307617
0.00092124939
-0.041259766
-0.015975952
-0.077575684
-0.007068634
0.022903442
-0.02293396
0.012786865
0.06640625
0.081665039
-0.038574219
0.031860352
-0.086975098
0.009552002
-0.0018472672
-0.075805664
-0.035003662
-0.02166748
0.013183594
-0.043273926
0.044647217
0.025588989
-0.031616211
0.025588989
0.054382324
-0.063171387
0.059661865
0.05758667
-0.076904297
-0.0015726089
-0.01423645
0.053039551
0.048553467
0.064575195
-0.052856445
-0.033538818
0.0044670105
-0.055267334
-0.078308105
-0.060668945
-0.058868408
0.023681641
-0.042022705
-0.021911621
0.0090484619
-0.074279785
0.029373169
-0.026443481
-0.054840088
-0.072143555
-0.050628662
0.014633179
0.024475098
0.05291748
0.0496521
0.011444092
-0.034179688
0.05291748
-0.047668457
0.074890137
0.068115234
0.082946777
0.015602112
0.025375366
0.0014743805
0.026580811
0.061523438
0.063476562
0.049468994
-0.012252808
-0.025634766
-0.035736084
0.047485352
-0.034118652
0.0098953247
0.051422119
0.036102295
0.026138306
-0.014160156
-0.069396973
0.012687683
0.0018911362
-0.074462891
0.063232422
0.043457031
-0.035430908
-0.0061454773
-0.035736084
-0.014228821
-0.022277832
-0.021636963
0.060516357
-0.015914917
0.081115723
-0.010810852
-0.081115723
-0.071411133
0.061157227
-0.079223633
-0.073120117
-0.018859863
-0.026397705
-0.044708252
-0.021026611
-0.031158447
-0.070861816
-0.0015182495
0.025756836
-0.019683838
0.024978638
0.0703125
-0.0087966919
0.029129028
0.021682739
-0.0027866364
-0.087158203
-0.056671143
-0.04876709
0.063232422
-0.065307617
0.073974609
-0.037200928
0.076721191
-0.082824707
0.019515991
0.049743652
0.0018472672
-0.045898438
-0.023696899
-0.066833496
0.066589355
-0.059417725
-0.0859375
-0.04473877
-0.026351929
-0.030792236
0.071533203
-0.059173584
0.071899414
-0.046478271
-0.013092041
0.022277832
0.043823242
-0.0082931519
-0.020645142
-0.0088119507
-0.072631836
0.037963867
0.037902832
-0.034729004
-0.046966553
-0.037689209
0.022201538
0.071411133
-0.0023193359
0.001616478
-0.017715454
0.052398682
-0.0023365021
-0.034362793
0.014831543
0.057556152
0.020874023
-0.011787415
0.03414917
0.054443359
0.048522949
-0.020233154
-0.050628662
-0.032531738
-0.045776367
0.042877197
-0.075500488
-0.065673828
0.050628662
0.059539795
0.061248779
0.0037155151
-0.075866699
-0.011680603
0.029541016
-0.027587891
-0.011222839
-0.079772949
-0.065002441
-0.0546875
0.03213501
0.07409668
-0.063354492
0.070373535
0.0051040649
0.016448975
0.019348145
0.085388184
0.055328369
-0.072570801
-0.036376953
0.051086426
-0.061218262
-0.069152832
0.070068359
-0.051239014
0.079345703
0.05065918
-0.019775391
-0.058685303
0.081665039
0.065551758
-0.0087890625
-0.014984131
-0.064331055
0.05645752
0.018859863
-0.035980225
-0.044281006
0.046081543
-0.027816772
0.065368652
0.0077400208
-0.0065956116
-0.045196533
-0.010345459
-0.049468994
0.080993652
-0.048217773
0.004573822
-0.065795898
0.047943115
0.070739746
0.015716553
0.042236328
-0.056365967
-0.034759521
-0.069641113
-0.0069351196
-0.024780273
-0.0003528595
-0.061248779
0.067443848
-0.033905029
0.082519531
-0.054656982
-0.038543701
0.013237
0.080383301
-0.049743652
-0.06036377
0.081848145
-0.0052337646
-0.085266113
0.048858643
-0.058227539
0.0016441345
-0.072937012
0.069091797
0.044616699
0.053009033
-0.011787415
-0.080749512
-0.071960449
-0.08203125
-0.061126709
0.076477051
-0.087036133
-0.051757812
-0.040405273
-0.0040779114
0.043884277
0.026885986
-0.04800415
-0.018081665
0.044555664
-0.079284668
0.035858154
0.019302368
0.0024356842
-0.0071983337
-0.022537231
-0.070739746
-0.077758789
-0.055969238
-0.062225342
-0.023590088
0.074645996
0.025192261
-0.017684937
0.066833496
-0.054534912
-0.070922852
0.063232422
0.083312988
-0.0011129379
0.015327454
-0.083374023
0.052734375
0.067993164
-0.019607544
-0.075622559
0.020843506
-0.035522461
0.032897949
-0.057861328
-0.016845703
0.03793335
0.060668945
0.083190918
0.080627441
-0.085876465
-0.0011129379
0.081542969
0.071716309
0.044799805
0.082214355
0.060943604
0.032012939
0.013641357
0.024765015
-0.07043457
-0.028945923
-0.065429688
0.040130615
0.030715942
0.05682373
0.04788208
-0.032440186
-0.050048828
0.021179199
0.072753906
0.070617676
0.0084381104
0.025405884
-0.055450439
0.049316406
-0.031173706
-0.020828247
-0.032867432
0.0034923553
-0.013465881
0.07824707
-0.086730957
0.0064163208
0.04473877
-0.04296875
0.064208984
0.05682373
0.03314209
0.086853027
0.08404541
0.055053711
0.039611816
-0.037231445
-0.073242188
0.056610107
-0.017990112
-0.0065116882
-0.009147644
-0.03012085
0.029129028
0.0093154907
0.016876221
-0.033935547
0.071105957
-0.087402344
-0.0087280273
-0.07635498
-0.058563232
0.012382507
0.079956055
0.059204102
0.0040016174
-0.068908691
0.0064506531
0.074707031
0.022140503
0.047332764
-0.04901123
0.077758789
-0.050354004
0.082336426
-0.035705566
0.087402344
-0.021453857
-0.070251465
0.087219238
0.079589844
0.060668945
-0.069152832
-0.063842773
-0.056274414
0.04006958
-0.062164307
-0.031005859
0.042480469
0.024658203
-0.011497498
-0.055450439
0.0859375
-0.084228516
0.038574219
0.016433716
0.030700684
-0.037231445
0.049591064
0.036010742
0.075012207
-0.061798096
-0.067932129
0.075622559
-0.023986816
0.02166748
-0.025131226
-0.056762695
-0.018325806
0.070556641
0.059814453
-0.026626587
0.053619385
-0.0085067749
0.040344238
0.065856934
-0.0075378418
0.067810059
-0.056152344
-0.029205322
0.078186035
0.062561035
-0.015197754
0.079833984
0.0029239655
-0.00016129017
-0.0085601807
0.0089950562
0.012550354
-0.083374023
0.0043754578
0.032592773
-0.075134277
-0.0054168701
-0.0012550354
-0.075683594
0.080200195
0.040771484
0.058532715
0.028930664
0.085388184
-0.081359863
-0.039428711
-0.046539307
-0.071655273
0.0058059692
-0.084838867
-0.066894531
0.036468506
-0.067199707
-0.083251953
0.0030460358
0.024856567
0.009437561
0.030960083
0.047973633
-0.038909912
0.075195312
-0.0519104
0.059143066
0.058319092
-0.057983398
-0.029815674
-0.04309082
0.062286377
0.029769897
0.054718018
0.0023288727
-0.017456055
-0.046936035
-0.057189941
-0.036376953
-0.016403198
0.0043945312
-0.019317627
-0.045257568
-0.052520752
-0.031951904
-0.074645996
0.071105957
-0.062133789
-0.088195801
0.03024292
0.0094451904
0.041809082
0.054077148
-0.050048828
0.059204102
-0.01448822
-0.079162598
0.041442871
0.073425293
0.016555786
0.0029277802
-0.035797119
0.022186279
0.03616333
0.048400879
0.030975342
-0.052886963
-0.0028171539
-0.050262451
-0.067565918
0.022628784
-0.053192139
-0.018630981
-0.0089111328
0.056152344
0.0021038055
-0.022766113
-0.0042533875
0.03604126
0.016433716
-0.068969727
0.0076751709
-0.072631836
0.050140381
0.00062656403
-0.04119873
-0.017608643
-0.081665039
-0.052001953
0.070983887
-0.065856934
-0.062011719
-0.040496826
0.0019340515
-0.067321777
0.0093841553
-0.0068702698
-0.086669922
-0.024414062
-0.0079727173
0.036407471
-0.055603027
-0.04977417
0.027740479
0.059753418
-0.0044784546
0.032806396
0.024795532
-0.039703369
0.043884277
0.060577393
-0.021377563
-0.0078430176
0.064758301
0.069091797
-0.056671143
0.037963867
-0.076965332
0.038024902
0.087219238
0.010490417
-0.05078125
-0.05279541
0.037719727
0.061462402
-0.024490356
0.073608398
0.037017822
-0.057891846
0.063659668
0.041534424
-0.06640625
-0.051361084
-0.064941406
-0.0046691895
0.052062988
0.075866699
0.016616821
-0.034698486
0.030181885
-0.086242676
0.059448242
-0.061248779
0.038970947
0.017227173
0.084289551
0.063537598
0.074890137
-0.0046806335
0.022750854
0.040252686
-0.012588501
-0.0091171265
0.071411133
-0.024368286
-0.078430176
-0.048553467
0.0703125
0.017807007
-0.04385376
-0.056396484
0.063293457
0.085144043
0.020141602
0.038909912
-0.061309814
0.085449219
-0.038238525
0.022903442
-0.022689819
0.043426514
0.065734863
0.071777344
-0.022445679
-0.075317383
-0.041595459
-0.0056419373
0.054412842
0.0418396
-0.019241333
0.076843262
-0.065368652
0.075866699
-0.0032272339
-0.016891479
0.070739746
0.081665039
0.056945801
0.064453125
0.06628418
0.034332275
0.055145264
0.036224365
0.01361084
0.058990479
-0.064086914
-0.015174866
0.062103271
0.088256836
0.045501709
-0.065429688
0.036987305
0.057189941
-0.069030762
0.039764404
-0.0036792755
-0.0015821457
-0.067504883
0.062927246
-0.0030441284
-0.063354492
0.01776123
-0.081054688
-0.050262451
-0.034240723
0.051116943
0.080566406
-0.04019165
0.014465332
-0.028396606
-0.062133789
0.043518066
-0.027160645
0.029830933
0.056274414
-0.081848145
0.022323608
-0.033782959
0.085388184
0.010391235
-0.067077637
0.075622559
-0.044189453
0.021697998
0.020782471
0.034454346
-0.082641602
0.033203125
-0.0031337738
0.017700195
-0.072387695
0.064758301
0.050048828
-0.001206398
0.087402344
-0.01461792
0.045135498
-0.05480957
0.07989502
-0.010879517
-0.039428711
0.0496521
0.069396973
0.073669434
-0.044677734
0.050689697
-0.049468994
0.065856934
-0.071655273
-0.026290894
-0.05090332
0.022216797
0.086547852
-0.079284668
-0.032775879
0.023117065
0.014427185
0.017364502
-0.030593872
-0.031677246
0.058563232
-0.041564941
0.058227539
0.013793945
0.034362793
0.053070068
-0.0044288635
0.081787109
-0.01234436
0.087402344
-0.049041748
-0.075500488
-0.010887146
0.0037784576
-0.075500488
-0.073486328
-0.025283813
0.027877808
0.017715454
0.037414551
0.0080718994
0.083190918
0.040374756
0.014610291
0.050842285
0.02456665
-0.0057487488
-0.0053405762
-0.031311035
0.0073738098
0.039886475
-0.087585449
0.079650879
0.0029582977
0.012321472
-0.015853882
-0.0043411255
0.051177979
-0.026809692
0.074584961
0.0035247803
0.0092773438
-0.062683105
-0.050964355
0.048400879
-0.085083008
-0.012557983
0.05255127
-0.065551758
0.042999268
-0.042114258
0.0091247559
-0.070617676
-0.048828125
-0.026443481
-0.073669434
0.036437988
-0.0049781799
-0.0087051392
-0.010231018
0.043884277
-0.077270508
0.023574829
0.082397461
-0.016708374
-0.073974609
-0.016937256
0.017028809
0.051757812
0.076782227
0.038604736
-0.0090484619
-0.05166626
-0.011489868
0.045959473
0.052215576
-0.030670166
-0.048095703
-0.01247406
-0.080444336
0.08795166
0.084716797
0.049499512
0.050994873
0.083618164
-0.036804199
-0.04095459
-0.067626953
-0.042419434
-0.035217285
-0.00014305115
-0.052978516
-0.073486328
0.066650391
0.055389404
-0.08581543
0.082519531
-0.026062012
-0.085693359
-0.037597656
0.084289551
-0.032989502
0.052825928
0.055877686
-0.00077104568
0.047149658
0.031707764
0.0079345703
0.03338623
-0.040344238
-0.041473389
-0.062744141
-0.040802002
-0.051116943
0.035919189
-0.052276611
0.046295166
0.0052566528
0.04107666
-0.046569824
0.038818359
-0.026245117
-0.0038738251
0.076477051
0.078857422
0.08392334
-0.064880371
-0.0080871582
0.00415802
0.050140381
-0.057983398
0.050201416
-0.053894043
-0.015701294
0.066894531
-0.052459717
-0.058380127
0.037353516
-0.020858765
0.012023926
-0.0023212433
-0.022964478
0.088012695
-6.1452389e-05
0.0084381104
0.078491211
-0.01272583
0.038482666
0.033447266
-0.061523438
0.0030727386
0.081848145
0.016967773
0.022674561
-0.05670166
-0.020202637
-0.04876709
0.042602539
-0.061523438
0.069213867
0.0075950623
-0.080871582
-0.0546875
0.057250977
-0.050354004
0.075073242
0.071289062
8.5234642e-05
-0.057891846
-0.082763672
-0.018447876
0.050628662
0.0050430298
0.078308105
0.030441284
-0.019424438
0.05480957
0.006313324
-0.047241211
0.030532837
0.035797119
0.0026054382
-0.082641602
-0.022384644
-0.026702881
0.013763428
-0.046844482
0.053405762
0.0040092468
-0.047698975
-0.07611084
0.044158936
-0.058288574
0.027587891
0.020248413
0.03427124
-0.075378418
-0.087158203
0.0047149658
-0.0077476501
0.085876465
-0.013725281
0.0011644363
0.060028076
0.052246094
-0.019302368
0.029922485
-0.077026367
0.04095459
0.041748047
-0.022720337
0.078979492
0.057830811
0.056762695
-0.021194458
0.082580566
-0.073730469
-0.018951416
0.016281128
-0.043395996
0.056304932
-0.048278809
-0.021713257
-0.011360168
0.077209473
-0.058074951
-0.035797119
-0.0131073
-0.029830933
0.042236328
-0.031219482
-0.014289856
0.075317383
0.044342041
-0.0069732666
-0.0056915283
-0.043731689
-0.048065186
0.085632324
-0.039886475
0.052246094
0.029464722
0.008972168
0.070251465
0.060150146
0.017654419
-0.075866699
0.028396606
-0.030792236
-0.051574707
-0.00031852722
0.029937744
-0.069641113
0.071777344
0.038330078
0.08215332
-0.080932617
0.082336426
0.035247803
-0.036712646
-0.073669434
0.0034599304
0.066894531
-0.044403076
0.033721924
-0.057342529
-0.050811768
0.0045700073
0.054412842
-0.050506592
-0.0089263916
-0.028533936
0.0049438477
-0.043792725
-0.069641113
0.065368652
-0.051635742
0.083679199
0.00092220306
-0.022415161
0.032043457
-0.048400879
0.084533691
-0.016342163
0.018218994
0.023788452
-0.012199402
0.088256836
0.060302734
0.077026367
-0.051574707
0.018493652
-0.048828125
-0.0063514709
-0.042663574
0.078857422
0.033203125
0.030853271
-0.085144043
-0.042297363
-0.060119629
-0.033996582
-0.067199707
0.062683105
-0.048339844
0.023101807
-0.071655273
0.056610107
-0.057525635
-0.059295654
-0.083435059
0.059295654
0.055480957
0.02116394
0.082580566
0.085754395
0.043823242
-0.069580078
0.06652832
-0.055175781
-0.054412842
0.068359375
0.076538086
-0.032623291
-0.081359863
0.054229736
-0.05291748
-0.030212402
-0.070983887
0.0046844482
0.083557129
0.018051147
-0.087158203
-0.010925293
-0.085876465
-0.018493652
-0.05267334
0.042633057
-0.044372559
-0.032745361
-0.061340332
0.003572464
0.026992798
-0.020401001
0.034484863
0.01512146
0.057830811
0.0074386597
-0.085449219
-0.048492432
0.043060303
0.010192871
0.061523438
0.043518066
0.023880005
0.084960938
-0.0703125
0.019577026
-0.017532349
-0.064758301
0.033630371
-0.087158203
-0.084777832
-0.00099754333
0.011138916
0.059875488
-0.0082626343
0.0058441162
-0.010498047
-0.067871094
-0.049987793
-0.02142334
-0.06842041
0.078308105
0.024291992
0.084533691
0.031768799
0.058258057
-0.0064201355
-0.087036133
0.020629883
0.079345703
-0.079467773
-0.065551758
-0.025619507
0.076293945
-0.023910522
0.038604736
0.055023193
0.067993164
-0.026168823
0.0129776
-0.054901123
-0.046173096
0.0085678101
0.067138672
-0.070739746
-0.042694092
-0.032806396
0.022491455
0.022994995
-0.077392578
0.057434082
-0.066894531
-0.03427124
-0.023498535
0.012504578
-0.034057617
-0.085693359
-0.021286011
0.06427002
0.032226562
-0.04574585
-0.00050401688
-0.075256348
0.064331055
-0.053527832
-0.084228516
-0.044372559
-0.051300049
0.040130615
0.010314941
-0.05758667
-0.027694702
0.029388428
-0.065490723
-0.033172607
-0.034332275
0.014007568
0.040100098
-0.061309814
-0.012557983
-0.010910034
-0.020507812
0.0027770996
0.086425781
-0.06463623
0.071228027
-0.035766602
-0.056640625
-0.056488037
0.044677734
-0.07611084
-0.072570801
0.0034160614
-0.061309814
-0.033813477
-0.050994873
-0.030197144
0.0016050339
0.022491455
-0.028610229
0.036956787
0.0012350082
-0.034301758
-0.017623901
0.017150879
0.0039672852
0.027191162
-0.02482605
0.034790039
0.037567139
0.050964355
-0.032592773
0.063842773
-0.069580078
0.026443481
-0.053833008
0.0041847229
0.071289062
0.050689697
0.034545898
-0.037658691
-0.03012085
0.08215332
-0.012298584
0.067565918
-0.087463379
0.053161621
0.060821533
-0.031555176
0.08605957
-0.043640137
-0.071228027
-0.081481934
0.027618408
-0.035827637
-0.080505371
0.032592773
0.062225342
0.033630371
0.049407959
0.06854248
0.055847168
-0.022689819
-0.040496826
0.034912109
-0.044799805
0.032745361
0.048248291
0.052612305
-0.049346924
0.074890137
0.059814453
0.018432617
0.044830322
-0.051147461
0.022384644
-0.06451416
0.025024414
-0.0080871582
-0.057556152
-0.011627197
0.062255859
0.07232666
-0.074890137
-0.022125244
0.068481445
0.016082764
0.037628174
0.039611816
0.059326172
0.066162109
0.068481445
-0.074523926
0.03616333
-0.026123047
0.048431396
-0.025848389
0.038116455
-0.080444336
-0.019256592
-0.040863037
0.051208496
-0.022460938
0.086547852
-0.037811279
0.011566162
-0.0022563934
0.067382812
-0.036437988
0.042449951
0.077453613
0.0078353882
0.065368652
0.053710938
-0.030776978
0.066650391
0.086120605
-0.0082397461
-0.073913574
0.017623901
-0.0073432922
-0.046905518
0.010002136
0.021881104
-0.080505371
-0.068664551
0.012878418
0.0234375
-0.069641113
-0.036071777
-0.074401855
0.077209473
-0.02520752
0.026138306
0.052490234
0.015197754
-0.033905029
0.02532959
0.081176758
-0.056793213
0.015228271
0.024703979
-0.018661499
0.03112793
-0.057830811
0.036071777
0.012962341
0.039916992
0.048980713
-0.062866211
0.024673462
0.046783447
-0.011039734
0.024246216
0.026290894
0.063903809
0.060791016
-0.087585449
-0.020401001
0.065063477
0.0059776306
-0.060424805
0.087463379
-0.01235199
0.011276245
0.046325684
0.026107788
-0.018112183
0.068786621
0.06036377
-0.062438965
0.060913086
-0.046264648
-0.030685425
-0.0044517517
-0.051818848
-0.033508301
0.071350098
0.030227661
0.055938721
0.051605225
-0.024185181
-0.04699707
-0.022201538
-0.069946289
-0.0043945312
-0.066894531
-0.009262085
-0.0030212402
-0.025939941
0.047393799
0.0078811646
0.056152344
0.079589844
-0.011856079
-0.0035209656
-0.017883301
0.052947998
-0.05557251
-0.063598633
-0.019104004
0.084411621
-0.079833984
-0.037139893
-0.041748047
-0.022323608
-0.054199219
0.038024902
-0.017105103
0.068725586
-0.056030273
0.072875977
-0.073486328
0.04006958
0.072875977
-0.050842285
0.017944336
-0.065063477
-0.071166992
0.045806885
0.033233643
-0.05682373
0.042022705
0.059448242
0.043273926
0.052825928
-0.06854248
-0.045043945
0.047821045
0.038787842
-0.036895752
-0.072021484
-0.015037537
0.0010232925
-0.036682129
0.05456543
0.056945801
-0.040374756
0.075744629
-0.068237305
0.078796387
-0.045227051
0.0016508102
-0.048614502
0.012611389
0.069519043
-0.015838623
-0.074768066
-0.025924683
0.055786133
-0.074035645
0.057403564
-0.019729614
0.05859375
-0.019577026
-0.031951904
0.08795166
-0.031860352
-0.042236328
-0.043762207
0.079467773
0.042663574
-0.0051002502
0.050842285
-0.04574585
-0.054779053
-0.048248291
-0.035491943
-0.087036133
0.038726807
0.087768555
-0.0070877075
0.038421631
0.080627441
-0.085021973
0.024215698
0.065429688
-0.072021484
0.041381836
-0.072814941
-0.069946289
-0.086547852
0.046600342
-0.0030136108
-0.037139893
0.074645996
0.015930176
0.048828125
-0.040710449
0.031433105
-0.036468506
-0.031738281
0.061584473
0.067260742
-0.08416748
-0.076293945
0.021881104
-0.068054199
0.045959473
0.00049257278
-0.062744141
-0.0057525635
0.057281494
0.019073486
-0.079833984
-0.047546387
0.033630371
0.080993652
-0.010742188
0.0068397522
3.0398369e-05
-0.030654907
-0.069091797
4.8041344e-05
-0.073974609
-0.079467773
-0.048309326
-0.017120361
0.066467285
-0.027587891
-0.011062622
0.0014848709
-0.02671814
-0.06652832
-0.018310547
-0.040924072
-0.019958496
0.074157715
-0.054412842
-0.084838867
0.071655273
0.0066604614
0.029510498
-0.057922363
-0.039581299
-0.074157715
0.057189941
-0.051971436
0.05960083
0.042572021
0.065734863
0.060424805
-0.0077018738
0.064575195
0.029724121
-0.04107666
-0.071655273
0.05770874
0.068115234
0.074584961
0.032562256
-0.061553955
-0.011116028
-0.03086853
0.08026123
0.056976318
0.059509277
-0.082519531
-0.044616699
0.070800781
0.051635742
-0.055877686
-0.047241211
0.028884888
0.057189941
0.01158905
-0.031494141
-0.0038280487
-0.0020084381
0.067016602
0.00091171265
0.064758301
0.083068848
-0.086425781
-0.070922852
0.02885437
0.047454834
0.033782959
0.021347046
0.086914062
0.0067062378
0.030914307
-0.076538086
-0.082946777
-0.041992188
0.0049514771
0.0061187744
0.013954163
0.0086593628
0.0080413818
0.027923584
0.032012939
0.056854248
-0.056030273
0.009262085
-0.010505676
0.056243896
-0.049407959
0.077758789
-0.050750732
0.079345703
-0.042297363
0.031524658
0.012619019
0.020095825
0.076843262
0.044708252
0.025146484
-0.076904297
0.0090332031
-0.0073013306
0.079040527
-0.055084229
0.018035889
-0.0050430298
0.088012695
-0.05569458
-0.034484863
-0.024017334
0.077697754
-0.072753906
-0.047943115
0.0022792816
-0.072509766
0.021636963
0.078918457
-0.025085449
0.014976501
0.016723633
-0.011436462
0.042938232
0.032928467
-0.014099121
0.072265625
-0.040039062
-0.073181152
0.071594238
-0.043365479
0.078186035
0.010009766
-0.0035762787
-0.050048828
0.0091629028
0.025253296
0.03894043
-0.069030762
0.029586792
0.077758789
-0.075317383
-0.033721924
-0.006980896
-0.063659668
-0.037261963
-0.066589355
-0.038482666
0.028442383
0.05291748
-0.086914062
0.021682739
0.003370285
-0.057891846
-0.076660156
0.04107666
-0.054748535
-0.048614502
-0.028244019
-0.060150146
0.03994751
-0.034515381
-0.061157227
0.02204895
-0.071594238
-0.0043334961
0.067382812
0.058868408
0.048278809
-0.082458496
0.011512756
0.0097732544
-0.025543213
0.046264648
0.035949707
0.0028018951
-0.003616333
0.018981934
0.033569336
-0.058349609
0.069702148
0.029174805
0.026794434
-0.03503418
-0.06628418
0.057891846
0.027389526
0.063659668
0.087768555
0.063049316
-0.022674561
-0.079772949
0.063049316
-0.068237305
0.039794922
0.02545166
0.035064697
0.062866211
-0.039978027
0.047271729
0.0060691833
0.029312134
-0.031097412
0.047943115
-0.057250977
-0.045135498
-0.04083252
-0.014556885
0.082702637
-0.059295654
-0.0051994324
0.0128479
0.05645752
-0.02192688
-0.075256348
-0.061798096
-0.00016272068
-0.083435059
0.046630859
0.030960083
-0.020568848
0.056060791
-0.082885742
0.033752441
-0.037322998
-0.055786133
-0.076171875
0.015808105
0.040222168
0.065246582
-0.0859375
0.018707275
-0.086730957
0.054260254
0.073181152
-0.067016602
-0.029632568
0.073669434
0.022155762
0.020507812
0.077148438
-0.024734497
-0.010482788
0.0079574585
0.015548706
-0.060272217
0.053771973
-0.014511108
0.083496094
0.037719727
-0.0078125
0.043640137
0.032775879
-0.00806427
-0.016357422
-0.078796387
-0.017120361
-0.024749756
-0.014442444
0.062927246
0.086364746
-0.050140381
0.033294678
-0.011459351
-0.076293945
-0.012863159
-0.028762817
-0.035400391
-0.0061721802
-0.059082031
-0.079833984
0.034667969
-0.021469116
0.022827148
-0.055603027
-0.082092285
0.069152832
-0.054046631
0.079406738
0.012741089
0.024627686
0.034423828
0.070495605
-0.075927734
0.067138672
0.00077056885
-0.083862305
0.037597656
-0.05090332
0.077209473
0.034606934
-0.041625977
-0.08001709
0.069580078
-0.025512695
-0.036224365
-0.080993652
-0.0069694519
-0.030578613
-0.041381836
-0.082946777
0.015914917
0.07220459
-0.040435791
-0.07989502
-0.066467285
0.086608887
0.050048828
0.061065674
-0.083129883
0.048706055
0.067321777
-0.016296387
-0.070251465
0.081726074
-0.0046920776
-0.019775391
-0.067382812
0.083679199
-0.022155762
0.065673828
0.048156738
-0.051452637
0.082275391
-0.029266357
0.064331055
-0.081542969
0.05255127
-0.055328369
0.084411621
-0.03527832
0.044158936
0.060546875
0.0054550171
-0.084899902
-0.025970459
-0.026428223
-0.060791016
0.033355713
0.025390625
0.080810547
0.001581192
0.0022583008
0.075439453
-0.046173096
0.052886963
-0.044708252
0.033721924
-0.077636719
0.036376953
0.039001465
0.020248413
-0.033355713
-0.080566406
-0.034759521
0.061767578
-0.03036499
-0.057983398
-0.030853271
-0.060150146
-0.061920166
0.071166992
0.035125732
-0.070251465
-0.0021686554
0.058685303
-0.044769287
-0.078369141
-0.046295166
0.060028076
-0.024459839
0.010185242
0.039642334
-0.00044822693
0.022109985
-0.021759033
0.052307129
-0.070495605
-0.041320801
-0.0028057098
0.027389526
0.033111572
0.081787109
-0.076965332
-0.057861328
0.084472656
0.0072898865
0.007194519
0.0045127869
-0.066894531
0.079589844
-0.067077637
-0.061309814
0.033905029
0.03302002
0.025299072
0.0046615601
0.00097751617
-0.06628418
-0.073608398
-0.074829102
0.041229248
-0.029541016
0.042694092
0.076477051
-0.077514648
0.054595947
-0.037750244
0.052642822
-0.030517578
-0.042694092
0.041656494
0.026519775
-0.021850586
-0.015350342
0.0065040588
-0.0051269531
0.034454346
-0.058532715
0.080078125
0.08404541
-0.032928467
-0.076538086
0.055114746
-0.047637939
0.085327148
-0.071105957
0.014854431
-0.036956787
-0.023925781
-0.014587402
-0.086547852
0.0013141632
0.037078857
0.015762329
-0.076171875
-0.011299133
-0.013397217
-0.05291748
0.033355713
-0.07232666
-0.086242676
-0.013206482
0.055603027
0.021911621
-0.047637939
-0.0094299316
-0.043884277
0.054077148
-0.017120361
-0.0043525696
0.0036334991
0.030303955
-0.0097808838
0.038299561
-0.045776367
-0.063903809
-0.040008545
0.046569824
-0.026702881
-0.060241699
-0.023529053
0.042175293
0.024475098
0.0030670166
-0.0085372925
-0.043914795
0.02255249
0.045410156
-0.010177612
-0.083618164
0.045684814
-0.079589844
0.028900146
-0.071960449
-0.00039696693
-0.051361084
-0.025848389
-0.056976318
-0.0039176941
-0.005821228
0.04699707
0.022186279
-0.018768311
-0.068481445
0.029144287
-0.075256348
-0.039703369
-0.014823914
0.021011353
0.069458008
-0.035980225
-0.033416748
-0.05480957
0.076049805
-0.013626099
-0.031158447
0.045654297
-0.083435059
-0.068054199
-0.088378906
0.060546875
-0.062072754
0.027481079
0.0082626343
0.018417358
0.065856934
0.015701294
0.011634827
0.036834717
0.045471191
0.036102295
0.019378662
-0.028335571
0.053192139
0.0012588501
-0.048553467
0.0088806152
-0.047393799
-0.078674316
-0.055419922
-0.034301758
-0.080749512
0.086547852
0.084350586
-0.072692871
-0.015464783
0.052185059
-0.060302734
-0.074035645
-0.013999939
0.0062332153
-0.08605957
-0.00035810471
-0.039733887
0.019104004
-0.039428711
-0.018341064
0.040008545
0.051116943
-0.0028381348
-0.059417725
-0.05657959
-0.016326904
0.067932129
0.011619568
-0.065795898
-0.068786621
-0.054626465
0.016387939
-0.069274902
0.081481934
0.0033721924
0.072814941
0.061920166
-0.010795593
-0.081604004
0.060760498
0.015975952
0.011772156
0.022125244
0.080566406
-0.058990479
-0.045288086
-0.049499512
0.073059082
0.064086914
0.036376953
-0.074279785
-0.07598877
-0.075439453
0.057952881
-0.05557251
0.0087203979
-0.044372559
-0.034362793
0.050842285
0.017349243
0.069030762
0.015159607
-0.073059082
-0.040222168
0.03717041
-0.014328003
0.004486084
0.050384521
0.073791504
-0.055450439
-0.004322052
0.059387207
0.02456665
0.046447754
0.053192139
-0.025604248
-0.073852539
0.030944824
0.070617676
-0.0064277649
0.07623291
-0.038696289
-0.085632324
0.048400879
-0.028533936
-0.025619507
0.0067710876
-0.043243408
-0.059051514
-0.071105957
0.034393311
0.071166992
-0.053436279
-0.027328491
0.050872803
0.078552246
-0.045776367
0.032989502
-0.065368652
0.04776001
-0.063964844
0.068115234
0.0041351318
0.02796936
0.039550781
-0.071716309
-0.06463623
0.074768066
-0.065795898
0.061676025
0.072692871
0.066162109
0.06048584
0.0063781738
-0.054992676
-0.065612793
-0.011505127
-0.069213867
0.072753906
0.0059242249
0.026107788
0.024108887
-0.060852051
0.056671143
-0.014175415
0.083007812
0.064147949
0.020507812
0.083190918
0.060424805
-0.076538086
0.022125244
0.086120605
0.023193359
-0.030502319
0.079589844
0.084533691
0.027984619
0.014648438
-0.087585449
-0.0065193176
0.062469482
0.038543701
-0.0052757263
-0.065734863
-0.072021484
0.054443359
0.069946289
0.028671265
0.079772949
0.057067871
-0.086242676
-0.067687988
0.035949707
0.0094909668
0.075439453
-0.080322266
-0.038604736
0.0068244934
0.045166016
-0.050323486
0.067016602
0.033599854
0.068054199
0.061279297
-0.0089263916
0.086242676
0.083007812
-0.029815674
-0.036987305
0.05670166
-0.063415527
0.060058594
-0.067016602
0.011177063
-0.02822876
0.040618896
-0.083312988
-0.014282227
0.06427002
0.0069084167
-0.023040771
0.034088135
-0.053436279
-0.074523926
-0.081604004
-0.036407471
-0.073852539
0.014511108
-0.048706055
0.052215576
0.053192139
-0.05758667
0.060211182
-0.011985779
0.050048828
-0.08013916
-0.041625977
-0.017272949
-0.021972656
-0.049713135
0.01612854
0.016326904
-0.0043411255
0.081481934
-0.0703125
-0.015365601
-0.0080032349
0.038726807
-0.067504883
-0.017105103
-0.055938721
0.0418396
-0.04083252
0.071289062
-0.016555786
-0.056121826
-0.011672974
0.060821533
-0.073608398
-0.040496826
-0.088317871
-0.062866211
0.062072754
-0.05758667
0.0262146
0.0063514709
-0.073608398
-0.078674316
0.0061531067
0.05670166
0.060577393
0.027130127
-0.017684937
-0.0340271
-0.070251465
0.02482605
0.078186035
0.030197144
0.03213501
-0.07623291
0.056182861
0.022766113
0.071594238
-0.071777344
0.011932373
-0.035888672
0.012321472
0.047943115
-0.021286011
-0.081115723
0.011909485
0.018051147
0.070800781
0.075622559
-0.010055542
0.018371582
-0.081542969
-0.011474609
-0.087890625
-0.051635742
0.060913086
-0.081298828
-0.013633728
-0.026229858
0.054748535
0.022781372
-0.029800415
-0.012573242
0.0013437271
0.059356689
-0.028289795
-0.030731201
0.062683105
0.023910522
0.0090942383
0.039642334
0.061676025
0.022171021
-0.08404541
-0.04208374
-0.04989624
0.082397461
-0.013175964
-0.082702637
-0.048248291
0.075317383
0.022644043
-0.061340332
-0.014701843
-0.012405396
-0.063964844
-0.066772461
0.052185059
-0.0087356567
-0.011398315
-0.016189575
0.08404541
-0.020645142
-0.048736572
0.045166016
0.074890137
-0.0019226074
0.048553467
0.0287323
-0.0043258667
0.084838867
-0.079101562
0.080749512
-0.069824219
0.050720215
-0.020248413
-0.026031494
0.04675293
0.0025749207
0.078186035
0.020401001
-0.083312988
0.058105469
-0.038421631
-0.012306213
0.0086975098
-0.017562866
-0.086425781
-0.0082168579
-0.086364746
0.028076172
-0.085327148
-0.0597229
0.052825928
-0.018981934
-0.0050773621
0.030593872
-0.072814941
-0.034210205
0.0050010681
0.044555664
-0.014373779
-0.0088806152
0.064758301
-0.028274536
0.041107178
-0.056091309
0.0034389496
-0.0063209534
0.071472168
0.014213562
-0.041900635
0.079284668
0.062683105
-0.069763184
0.086242676
0.071472168
0.042510986
0.027023315
0.0062217712
-0.043731689
-0.048431396
-0.073791504
0.04800415
-0.030548096
0.019363403
-0.047180176
0.0051116943
-0.043060303
-0.074035645
0.061126709
0.014404297
-0.045379639
-0.039855957
-0.075927734
0.003118515
-0.073364258
-0.058013916
0.057128906
-0.002199173
0.0016908646
-0.067077637
0.012199402
-0.068237305
0.053436279
-0.040435791
0.05178833
-0.058013916
0.009185791
-0.0070381165
0.014572144
-0.0077667236
-0.063903809
-0.052307129
-0.036987305
-0.0025272369
-0.024765015
-0.052337646
0.03338623
-0.030761719
-0.031234741
-0.052337646
-0.020751953
0.0083389282
-0.0049324036
-0.018432617
0.010322571
-0.0078430176
-0.061035156
-0.033416748
0.086791992
0.055603027
-0.063659668
0.057312012
-0.016479492
0.080383301
-0.067260742
-0.014564514
-0.050537109
-0.010490417
0.0054893494
-0.069641113
-0.016906738
0.032928467
-0.0053291321
0.01902771
-0.076171875
-0.032287598
-0.087158203
0.018676758
-0.060699463
-0.038330078
0.06640625
-0.073120117
-0.025909424
-0.057006836
0.087402344
-0.073974609
0.022583008
0.077758789
-0.0063247681
0.024337769
-0.022521973
0.058166504
-0.026992798
-0.018478394
-0.06829834
-0.072143555
-0.018722534
-0.077270508
-0.0014390945
0.0073547363
-0.073364258
-0.077026367
-0.039733887
0.024505615
0.062316895
-0.081848145
0.0026893616
-0.041900635
-0.022064209
-0.032623291
0.043914795
0.063659668
0.0041923523
0.065246582
0.054595947
0.046569824
-0.024780273
-0.063354492
0.0085067749
0.022750854
0.082092285
0.011871338
0.081604004
-0.036529541
-0.015975952
-0.0067367554
-0.010231018
-0.0040893555
0.045532227
-0.078552246
-0.021972656
0.077880859
-0.054168701
-0.031555176
-0.085876465
0.01322937
-0.014472961
-0.0095825195
0.066162109
0.023849487
0.010887146
0.023406982
0.025436401
-0.025894165
0.046508789
-0.076171875
0.071472168
-0.076477051
-0.040679932
-0.079772949
-0.060424805
-0.017089844
0.020706177
-0.051971436
0.001332283
0.088317871
0.034088135
-0.056060791
0.081542969
-0.037414551
0.011497498
0.010276794
-0.060974121
-0.040618896
-0.063598633
-0.039581299
0.026306152
-0.081054688
0.012794495
0.04019165
0.03729248
0.067443848
-0.026763916
0.062164307
-0.045928955
0.056274414
-0.070861816
0.07043457
-0.037475586
0.060638428
-0.055603027
-0.070922852
0.029266357
0.086364746
-0.067260742
0.023681641
0.0064811707
-0.043304443
-0.087158203
-0.084777832
0.020904541
0.034973145
0.058013916
0.058807373
-0.042266846
0.074157715
0.059906006
0.022171021
-0.087585449
-0.00054121017
-0.0090026855
-0.011627197
-0.03604126
0.022750854
-0.064208984
-0.025344849
0.046081543
-0.043640137
0.058441162
-0.035217285
-0.031890869
0.028701782
0.0044288635
0.050750732
0.071411133
0.0094299316
-0.05645752
0.062683105
-0.036773682
0.060699463
0.050964355
-0.024627686
-0.048400879
-0.0021095276
0.048309326
-0.031158447
-0.017700195
-0.039550781
-0.024993896
-0.041534424
-0.081481934
0.023468018
-0.0010461807
0.018173218
0.040344238
0.084655762
-0.016448975
0.0039710999
-0.01537323
-0.0070610046
-0.012786865
0.039459229
-0.083251953
-0.011047363
-0.03692627
-0.0094604492
0.078369141
0.076965332
-0.0078201294
-0.072570801
0.023651123
-0.07421875
-0.086791992
-0.03894043
-0.072692871
0.040222168
0.069396973
-0.00064849854
0.044128418
-0.014419556
0.086425781
0.0013542175
0.05078125
-0.085632324
0.06829834
-0.056488037
-0.084106445
-0.05581665
-0.081176758
-0.011154175
0.001209259
-0.069274902
-0.025146484
0.023269653
-0.037719727
-0.037780762
-0.014343262
-0.019058228
0.058929443
0.046966553
0.062164307
-0.0015506744
0.0031070709
0.024307251
-0.039154053
-0.030319214
-0.032684326
0.019210815
-0.077819824
-0.0085601807
0.067626953
-0.073120117
-0.022369385
0.0418396
0.081420898
0.040466309
-0.057067871
-0.075378418
0.014305115
-0.06854248
-0.0104599
-0.083435059
-0.063598633
-0.023239136
-0.038848877
-0.036651611
0.044769287
0.08416748
-0.086669922
0.07019043
-0.077148438
-0.072692871
-0.02684021
-0.080627441
0.075317383
-0.0050010681
-0.075073242
0.012428284
-0.052215576
-0.020263672
-0.051635742
-0.060821533
0.056396484
0.037597656
-0.01852417
0.00098705292
0.0026473999
-0.064025879
-0.070129395
-0.029403687
0.028320312
0.041595459
0.072753906
0.02986145
0.0055541992
-0.072692871
0.026931763
-0.015419006
-0.019042969
0.034210205
-0.084716797
0.016769409
-0.034240723
-0.031280518
-0.020568848
0.0062522888
-0.088134766
-0.068969727
-0.055877686
-0.017440796
0.078369141
-0.0024814606
-0.087341309
0.021530151
-0.054199219
0.03604126
0.063659668
-0.037506104
-0.083496094
-0.0019207001
0.016220093
-0.051971436
-0.075561523
0.034667969
0.080993652
0.024200439
-0.050720215
0.055206299
0.074157715
0.071044922
0.043823242
0.0023231506
-0.026412964
-0.086669922
-0.077880859
-0.03314209
0.026504517
0.081665039
-0.028625488
-0.047271729
-0.088317871
0.040649414
-0.075073242
-0.077331543
-0.013633728
-0.039245605
0.049072266
0.016983032
0.055419922
-0.061676025
0.0032253265
-0.079589844
0.07421875
-0.018737793
0.063537598
-0.039703369
-0.076171875
0.079833984
-0.006690979
0.025543213
0.031738281
0.023284912
-0.069763184
0.04119873
-0.033752441
-0.065185547
-0.081665039
-0.024642944
0.031646729
-0.029296875
-0.070678711
-0.011795044
0.06463623
-0.078918457
-0.023101807
-0.048797607
-0.057525635
-0.001127243
-0.014717102
0.0030956268
-0.072875977
0.017593384
-0.034332275
-0.060424805
-0.085632324
0.064453125
0.087890625
0.07623291
-0.018417358
-0.037445068
-0.0084915161
-0.03527832
0.084106445
0.019378662
0.064208984
-0.077697754
-0.0362854
0.031890869
-0.022583008
-0.021316528
0.063720703
-0.019470215
0.0099182129
-0.049194336
-0.039550781
-0.0072555542
-0.018829346
0.016525269
-0.020446777
-0.074035645
-0.041381836
-0.087402344
0.030822754
0.045928955
-0.061401367
0.0011730194
-0.017623901
-0.031219482
-0.052154541
0.04296875
-0.028244019
0.017211914
0.062744141
-0.039733887
0.058197021
-0.030456543
-0.0098266602
0.037261963
0.014648438
-0.00043344498
-0.032012939
-0.082458496
0.07611084
0.024627686
0.081115723
0.04296875
-0.026901245
-0.0041694641
-0.082214355
0.019851685
-0.08026123
-0.046203613
0.062194824
0.006729126
0.039306641
0.019058228
0.078979492
-0.085876465
-0.067993164
-0.071472168
-0.067077637
0.004737854
-0.068847656
0.0065231323
0.058197021
-0.072998047
0.013809204
-0.054199219
0.058807373
0.066711426
0.075622559
-0.024291992
-0.013168335
0.047729492
-0.0047607422
-0.073181152
0.033996582
-0.071960449
0.06060791
0.01121521
-0.015670776
-0.023376465
-0.0072822571
-0.083740234
-0.065185547
-0.025131226
-0.070739746
-0.051086426
0.027618408
0.056549072
0.04473877
-0.030181885
-0.055145264
-0.0011672974
-0.0092315674
0.078186035
0.077880859
0.073547363
0.07019043
-0.018463135
0.063476562
0.042907715
-0.068054199
-0.027984619
-0.038879395
0.074707031
-0.011520386
-0.069641113
0.076293945
-0.026245117
0.0073051453
-0.037353516
0.010925293
0.079284668
0.03427124
-0.056060791
0.039031982
-0.041442871
0.022628784
-0.011169434
0.034057617
-0.031433105
0.031524658
-0.063110352
-0.075805664
-0.012413025
-0.024856567
0.065979004
-0.0025043488
-0.02835083
0.045196533
0.012947083
0.071166992
-0.0042991638
0.056854248
0.041870117
0.032714844
-0.07800293
-0.028701782
-0.048034668
-0.046813965
-0.023773193
-0.061065674
0.068359375
-0.015029907
0.042358398
0.039489746
-0.02545166
-0.030288696
-0.05947876
-0.048614502
-0.016525269
0.07244873
0.05255127
-0.011360168
-0.035186768
0.072814941
-0.016586304
0.012168884
-0.082946777
-0.048400879
-0.014320374
-0.077087402
0.011787415
0.040008545
0.067321777
0.072814941
0.08392334
0.024459839
-0.0128479
-0.083618164
0.0034637451
0.049133301
-0.0089645386
-0.027832031
-0.084350586
-0.071472168
0.061706543
0.0088272095
-0.01651001
-0.060943604
0.051116943
0.048217773
0.026687622
-0.079650879
0.087524414
-0.07989502
0.048522949
0.04208374
0.03994751
-0.037139893
-0.012969971
-0.077636719
0.062683105
-0.051239014
-0.06463623
0.032440186
-0.054107666
0.083496094
0.047912598
0.006401062
-0.009979248
0.070373535
0.046569824
-0.039215088
0.035186768
0.063293457
-0.076599121
-0.047485352
0.076843262
-0.029174805
-0.019805908
0.08215332
-0.023513794
-0.04800415
0.027160645
0.0035324097
0.087524414
0.0092849731
-0.077270508
0.075622559
-0.081787109
-0.025222778
0.062286377
0.0056152344
-0.075195312
0.064453125
-0.071105957
0.024536133
0.011070251
0.018615723
-0.013946533
-0.05065918
0.029342651
0.0054702759
0.034912109
-0.076171875
-0.058227539
-0.026275635
0.032623291
-0.053344727
-0.072509766
0.012329102
0.069396973
0.0066947937
0.034362793
0.02482605
0.0075645447
-0.078063965
-0.048706055
-0.08203125
0.01524353
0.06628418
-0.050720215
0.083557129
-0.074401855
0.0519104
-0.024658203
-0.018280029
-0.053192139
0.024459839
-0.036102295
0.068664551
-0.012382507
0.051086426
-0.030059814
-0.036468506
0.082458496
-0.040435791
-0.014137268
-0.043182373
-0.036132812
-0.058105469
0.0094070435
-0.043731689
-0.019989014
0.034515381
0.038604736
0.020217896
-0.015686035
0.075561523
-0.080444336
-0.032104492
0.0064353943
0.011108398
-0.040496826
0.064941406
-0.045593262
-0.075927734
0.0045623779
-0.059051514
0.041137695
-0.051055908
0.06817627
0.038787842
0.041687012
0.0047416687
0.083251953
-0.018539429
-0.0043334961
0.024749756
0.084289551
0.0077209473
0.057556152
0.054107666
0.08026123
-0.059570312
0.045288086
-0.038543701
0.066589355
0.00094461441
-0.050201416
0.055114746
-0.08605957
-0.04397583
0.032684326
-0.057556152
0.058227539
-0.025512695
0.057952881
-0.031433105
-0.080871582
