-0.022705078
-0.023162842
-0.003446579
0.025405884
-0.043182373
-0.070861816
-0.0021839142
0.044494629
-0.059509277
-0.029830933
-0.072509766
-0.051208496
-0.085327148
0.060424805
-0.034790039
0.020187378
0.063354492
-0.083435059
0.0017595291
0.033355713
0.080444336
-0.051849365
0.08782959
0.062438965
0.012001038
0.05368042
0.026000977
0.011375427
-0.024108887
-0.034179688
-0.070922852
-0.032806396
-0.02355957
-0.071594238
0.032470703
-0.040283203
0.042053223
-0.080688477
-0.038543701
-0.072387695
-0.0029315948
-0.068969727
0.014045715
-0.019775391
0.0026035309
-0.080444336
-0.070068359
0.054107666
-0.065124512
0.066467285
0.035369873
0.030654907
-0.048950195
0.0042915344
0.084350586
-0.048217773
-0.012954712
0.013183594
-0.072387695
0.029693604
0.069213867
0.083129883
-0.044342041
-0.015518188
0.038757324
-0.062347412
0.065734863
-0.0061035156
-0.061645508
-0.050476074
0.045715332
0.052612305
0.0025272369
0.069091797
0.008102417
-0.014389038
-0.06149292
-0.0181427
0.071533203
-0.032196045
0.019592285
0.015419006
-0.087463379
-0.015266418
-0.0072402954
0.02482605
-0.065612793
0.050842285
0.016815186
-0.025375366
-0.0038700104
0.035186768
0.076660156
0.042572021
-0.029693604
0.06451416
0.010787964
0.085754395
-0.0036563873
-0.054870605
0.087219238
-0.082702637
-0.031951904
0.031341553
0.07043457
-0.080932617
-0.012733459
-0.010688782
-0.034423828
0.010147095
0.013198853
0.016799927
-0.068908691
-0.03213501
-0.050720215
-0.040222168
-0.086242676
-0.04019165
-0.04888916
-0.023651123
-0.049743652
-0.056152344
-0.0079040527
-0.041595459
-0.023513794
-0.070068359
0.018310547
-0.048706055
0.012672424
-0.057220459
0.018936157
0.039398193
0.036895752
0.0015277863
0.064697266
0.041717529
0.084777832
0.062286377
-0.055419922
-0.081237793
0.030334473
0.022003174
0.023254395
0.040802002
-0.071105957
-0.016418457
-0.034057617
-0.0088272095
-0.020370483
0.087097168
0.07434082
0.028137207
0.063903809
-0.084106445
-0.04586792
0.064025879
-0.010414124
-0.015602112
0.045043945
0.059875488
-0.047698975
-0.0209198
-0.02557373
-0.045288086
-0.029418945
-0.00034379959
-0.051757812
0.067138672
0.042175293
-0.014808655
0.0016117096
0.078430176
-0.0046539307
-0.0546875
-0.04510498
-0.00071430206
-0.032775879
-0.020584106
-0.058349609
-0.0026874542
-0.049865723
0.054931641
-0.010322571
-0.03805542
0.010108948
-0.070739746
0.033569336
-0.01776123
0.032501221
0.042572021
-0.088195801
0.060943604
-0.039306641
-0.060089111
0.0057373047
0.039367676
0.021118164
0.015548706
-0.0062141418
0.073974609
0.0063972473
0.0085067749
0.055389404
0.085021973
-0.083007812
0.051361084
-0.069824219
-0.062805176
-0.078613281
-0.062805176
-0.031143188
-0.085021973
-0.042724609
0.057617188
0.083312988
-0.042266846
0.0011434555
0.066955566
-0.076293945
0.054016113
0.052032471
0.029220581
0.087463379
-0.062683105
-0.063415527
0.0027484894
0.015129089
-0.063720703
0.057434082
0.056976318
0.04196167
0.042999268
-0.044158936
-0.0076599121
-0.065673828
0.056243896
0.035003662
0.046569824
-0.039733887
-0.052368164
-0.081481934
-0.022918701
0.03527832
-0.03805542
0.052520752
0.066162109
-0.016357422
-0.028717041
0.062103271
0.041290283
-0.057769775
0.0099868774
0.063476562
-0.069641113
-0.02180481
-0.043426514
-0.00076675415
-0.015548706
0.067565918
0.069946289
-0.054870605
-0.042449951
0.078796387
-0.019210815
0.02444458
0.026153564
-0.013793945
-0.017440796
-0.077392578
-0.036895752
0.028945923
-0.039428711
0.043304443
0.060791016
0.059112549
0.07598877
0.084228516
0.047180176
-0.076416016
0.046112061
0.06451416
0.023086548
-0.07421875
-0.044769287
-0.077880859
0.075012207
-0.077148438
0.047698975
0.067138672
0.013511658
0.016723633
-0.039215088
-0.021224976
0.033233643
-0.081298828
-0.067993164
0.056427002
0.067932129
-0.019729614
0.037353516
0.075134277
-0.040710449
-0.028610229
0.02961731
-0.062561035
0.050964355
-0.020812988
0.030944824
-0.032958984
-0.064819336
-0.047210693
-0.080627441
-0.064086914
-0.079162598
-0.048217773
0.023620605
-0.034606934
0.030288696
-0.06137085
-0.061035156
0.074279785
0.068847656
-0.015464783
-0.072937012
0.079223633
-0.082397461
-0.012260437
-0.0024356842
-0.0061416626
0.067749023
0.062438965
-0.039245605
0.084411621
0.016769409
-0.041107178
-0.076721191
0.045288086
0.083618164
-0.021728516
-0.035186768
-0.074035645
-0.0099029541
0.020385742
0.048736572
-0.047698975
0.046569824
-0.054748535
0.046508789
-0.033599854
0.036102295
0.059539795
0.054534912
0.058959961
-0.085266113
0.027114868
0.002538681
0.068054199
-0.023254395
-0.055511475
-0.087341309
0.029403687
-0.031463623
-0.065551758
-0.084899902
-0.022781372
0.069885254
0.020797729
0.065551758
-0.0074043274
0.023101807
-0.034912109
0.055450439
0.084472656
0.011192322
0.062683105
-0.081787109
0.052612305
0.073303223
-0.017181396
0.064331055
-0.082336426
0.041503906
0.030136108
-0.013412476
0.070007324
0.0075874329
-0.081420898
0.071777344
0.032928467
-0.080444336
0.069885254
0.030029297
0.067626953
-0.020690918
-0.014099121
0.080810547
-0.051727295
-0.076171875
-0.01739502
0.069458008
-0.041870117
-0.082336426
-0.035400391
0.038360596
-0.056335449
-0.014671326
-0.08392334
0.068237305
-0.03704834
0.035888672
0.020965576
0.074890137
0.058685303
-0.028884888
0.018920898
-0.024780273
-0.046539307
-0.071289062
0.079101562
0.072937012
0.048706055
0.059326172
-0.048461914
-0.076660156
0.038482666
0.016036987
-0.022293091
0.002620697
0.031768799
0.050933838
-0.02331543
-0.083862305
-0.025741577
0.069824219
-0.024917603
0.039642334
-0.02684021
0.076660156
0.080810547
0.044219971
-0.037261963
-0.028747559
-0.0080337524
-0.075012207
0.040527344
-0.070800781
0.083129883
-0.059143066
-0.06036377
0.034210205
-0.00079679489
0.076171875
-0.074279785
-0.0091781616
-0.070251465
-0.085388184
0.071899414
-0.0031261444
0.057678223
-0.077697754
0.075805664
-0.074035645
-0.031219482
0.08807373
-0.081848145
-0.0056800842
0.030105591
-0.083984375
0.050872803
0.0026512146
0.056213379
0.035766602
0.0092544556
0.07434082
0.0053367615
-0.0028953552
-0.031082153
0.069946289
-0.084594727
-0.024490356
0.047576904
-0.04486084
-0.060852051
0.082458496
0.0014162064
0.0031833649
0.068725586
-0.053985596
-0.076049805
-0.067199707
-0.017410278
-0.054016113
0.080993652
-0.035614014
-0.0039901733
0.068481445
0.084716797
0.04989624
0.0041275024
-0.063781738
-0.061981201
0.028289795
-0.08190918
0.083862305
-0.084350586
0.029724121
-0.070983887
-0.00080871582
-0.043182373
0.0597229
-0.056121826
-0.080749512
0.020385742
0.054382324
0.048278809
-0.013931274
-0.052429199
-0.036895752
0.0048065186
0.054016113
-0.061828613
0.074462891
0.057189941
0.016815186
-0.068603516
-0.069702148
-0.052612305
0.087219238
0.063354492
-0.040588379
-0.081481934
-0.021331787
0.012817383
0.062744141
0.023696899
0.02645874
-0.070068359
-0.044952393
-0.0016870499
-0.062805176
0.0027294159
0.034881592
0.028289795
0.014350891
-0.017227173
0.033355713
0.085754395
-0.068603516
-0.017242432
0.064697266
-0.023971558
-0.069091797
-0.059509277
-0.0028209686
-0.024078369
0.042572021
-0.014572144
-0.0075035095
0.015357971
0.048736572
-0.021102905
-0.019104004
-0.0043449402
0.023376465
0.051391602
0.038604736
0.063293457
-0.010475159
-0.020263672
-0.00041627884
0.04486084
0.077148438
0.011680603
0.070861816
0.026397705
-0.020462036
-0.071228027
-0.056976318
-0.014228821
-0.051513672
-0.0058898926
0.05657959
-0.08795166
0.007648468
-0.020874023
-0.043792725
-0.045196533
-0.0021057129
-0.01134491
0.027786255
0.086120605
0.021850586
0.038635254
0.018814087
-0.082336426
-0.0052719116
0.067687988
-0.020492554
-0.015930176
-0.081726074
0.049407959
-0.082214355
0.035064697
0.083679199
-0.0546875
0.050079346
-0.084106445
-0.012489319
0.020751953
0.056671143
-0.079223633
0.014877319
0.032440186
-0.01411438
0.013183594
0.033630371
-0.00095462799
0.011192322
-0.067199707
0.015571594
-0.013145447
0.043579102
-0.013282776
0.047607422
0.059661865
0.081481934
-0.036804199
0.0028324127
-0.036651611
-0.0013122559
0.0859375
-0.027328491
0.04208374
0.018585205
-0.020629883
-0.032196045
-0.0015974045
0.054779053
-0.033691406
-0.040588379
0.03225708
-0.017730713
0.059020996
-0.070861816
-0.022094727
0.06817627
-0.055786133
-0.052978516
-0.0064620972
-0.019012451
-0.0093612671
-0.059997559
0.014808655
0.042419434
-0.013153076
-0.010856628
-0.026916504
0.021255493
0.0050086975
-0.013839722
-0.010780334
-0.063354492
-0.019332886
0.085876465
-0.086730957
0.050964355
0.083312988
0.0095748901
0.028457642
0.033508301
-0.045593262
0.042663574
-0.013900757
0.020599365
0.034362793
0.064941406
0.052642822
0.059417725
0.083190918
-0.045288086
0.033233643
-0.056915283
0.063171387
0.02583313
0.082275391
-0.088195801
0.031066895
0.054595947
-0.073486328
0.017593384
-8.3208084e-05
0.025024414
0.016616821
-0.083984375
0.073242188
0.0020427704
-0.015853882
0.073364258
-0.077514648
0.052337646
0.049560547
-0.084411621
0.020782471
-0.083374023
-0.077209473
-0.029022217
0.071777344
-0.010681152
-0.063171387
0.086975098
-0.067138672
0.070495605
-0.0017442703
0.022674561
-0.012420654
-0.012214661
0.051574707
0.053283691
0.044830322
-0.074035645
0.086791992
0.083374023
-0.01701355
0.014755249
-0.070495605
-0.030532837
0.018035889
-0.048431396
0.0018320084
-0.0097579956
-0.046112061
-0.02835083
0.058990479
-0.065124512
-0.051147461
-0.039093018
0.040039062
-0.0574646
0.015449524
-0.015151978
0.028091431
0.073120117
0.014312744
-0.025878906
-0.04473877
-0.086242676
-0.055236816
-0.030059814
0.0020141602
0.046417236
-0.054077148
-0.028335571
0.078857422
-0.046112061
0.011604309
0.075012207
0.046234131
-0.050750732
-0.0091934204
-0.071777344
-0.027557373
0.065002441
-0.069946289
-0.064941406
0.059356689
-0.072509766
-0.045776367
0.01234436
-0.067260742
0.048156738
-0.01612854
0.011711121
-0.047515869
-0.043426514
0.0018091202
-0.062683105
-0.036956787
-0.069274902
0.0096206665
0.040283203
-0.057312012
0.051818848
-0.08001709
-0.014358521
0.082092285
-0.060058594
0.062286377
-0.032989502
-0.066833496
0.069458008
0.055725098
0.019638062
-0.070129395
0.086914062
0.072265625
0.01802063
-0.024368286
-0.058135986
-0.029083252
-0.059020996
-0.022689819
0.073913574
-0.0048332214
0.01802063
0.079772949
-0.087219238
0.079711914
-0.019607544
0.044830322
-0.086975098
-0.085754395
-0.013381958
-0.086975098
0.074462891
-0.032806396
-0.054077148
-0.0390625
-0.022735596
0.0128479
-0.030990601
-0.058319092
0.044067383
-0.055999756
0.08404541
0.083007812
0.030471802
0.0080871582
0.021179199
-0.043273926
0.023803711
-0.088256836
-0.0060539246
0.079650879
-0.058044434
-0.00037837029
-0.067932129
0.0093002319
0.044616699
-0.030502319
-0.085205078
0.023696899
-0.07635498
-0.074645996
0.050292969
0.028198242
0.057952881
0.011116028
0.034637451
0.077514648
-0.069519043
-0.0082702637
0.052368164
0.088256836
0.044464111
0.079589844
-0.038238525
0.020202637
-0.0049057007
0.02822876
0.043029785
0.068603516
0.08001709
0.072143555
0.065795898
0.029663086
-0.070922852
0.069702148
-0.069152832
0.035369873
-0.074645996
0.016769409
0.058532715
0.065673828
0.081481934
0.0054092407
-0.030609131
-0.072265625
0.010353088
0.020950317
0.018859863
0.027740479
-0.020111084
-0.071899414
-0.077026367
-0.036743164
-0.055480957
0.070129395
0.0026226044
0.012580872
0.041015625
-0.019836426
0.01033783
0.047973633
0.039306641
0.011741638
0.012069702
-0.0859375
-0.07220459
-0.062072754
-0.0070037842
-0.03616333
-0.032714844
-0.052001953
-0.059844971
-0.0234375
-0.056182861
0.061035156
-0.0018815994
0.079284668
0.067260742
-0.017990112
-0.082885742
-0.057556152
-0.065917969
-0.05645752
0.075622559
-0.046081543
-0.0075836182
-0.070800781
-0.069030762
-0.035339355
-0.053924561
-0.071350098
-0.040985107
0.040740967
-0.062805176
-0.053833008
0.022766113
-0.022705078
0.078430176
-0.069580078
-0.015045166
-0.020980835
0.02671814
-0.0035266876
-0.024108887
-0.033966064
0.031677246
-0.054992676
-0.062988281
-0.043945312
0.030532837
-0.024459839
-0.038604736
-0.083251953
-0.025039673
-0.065490723
0.033752441
-0.035217285
-0.016296387
-0.0099105835
0.010551453
-0.027954102
0.086120605
0.025848389
-0.00025081635
0.061737061
0.0017490387
-0.0056686401
0.0011978149
0.070861816
-0.005241394
-0.0703125
0.054138184
-0.0037250519
0.040496826
0.016159058
-0.020553589
0.0079040527
-0.035736084
0.052032471
-0.0028743744
0.075317383
-0.018569946
0.072998047
-0.058227539
-0.029953003
-0.081481934
0.062103271
0.07043457
0.023178101
0.029998779
-0.013824463
-0.030960083
0.085449219
-0.0625
0.066650391
0.061126709
-0.04498291
0.016067505
0.087402344
-0.0075759888
-0.025436401
0.015884399
-0.065124512
0.035980225
-0.070068359
-0.039093018
0.018676758
0.086242676
-0.073059082
-0.0077400208
-0.066467285
0.0075454712
0.0026683807
-0.077087402
0.079711914
-0.049591064
-0.02116394
0.058013916
0.032287598
0.047119141
0.085510254
0.044311523
-0.055877686
0.012107849
0.0052070618
0.053710938
-0.077758789
0.018569946
0.0014266968
-0.083374023
-0.02230835
0.0074577332
0.058868408
-0.034790039
0.044830322
0.034423828
0.066711426
0.049682617
-0.046295166
-0.02230835
0.0091094971
-0.069030762
0.0092163086
0.054718018
0.052581787
-0.0045509338
-0.021011353
0.051544189
0.048553467
0.036712646
-0.057739258
-0.056030273
0.016357422
0.077941895
-0.013381958
0.064208984
-0.013435364
0.087768555
-0.032348633
0.020599365
0.040679932
0.063903809
-0.072998047
0.056793213
0.031951904
0.014724731
0.081848145
-0.043579102
0.0027713776
0.043395996
-0.014656067
0.056121826
-0.035003662
0.086242676
0.06262207
-0.084533691
-0.019073486
0.011154175
-0.017944336
0.028335571
-0.085571289
0.083984375
0.08605957
0.033538818
-0.070983887
-0.066772461
0.0090255737
0.05255127
0.045501709
0.074157715
0.027923584
-0.008934021
-0.02734375
-0.065307617
-0.030319214
-0.00025248528
0.066589355
0.084960938
0.019882202
-0.081420898
0.084106445
-0.024093628
-0.02394104
0.053527832
-0.024185181
-0.030883789
0.088195801
0.068359375
-0.050048828
-0.059875488
-0.019577026
-0.078186035
-0.037567139
0.073852539
0.03112793
-0.072753906
0.024993896
0.047363281
0.075256348
0.072998047
0.039642334
-0.050384521
0.055511475
0.081970215
0.02885437
-0.034881592
-0.059753418
-0.051483154
0.035614014
-0.012786865
0.036376953
-0.020217896
0.08026123
0.062988281
-0.083068848
-0.084594727
-0.018554688
-0.046386719
0.02281189
0.081298828
0.0859375
-0.0105896
0.071716309
0.040771484
0.067077637
-0.024627686
0.049499512
-0.081848145
0.028381348
-0.075805664
0.071533203
-0.039794922
0.023620605
-0.082824707
-0.049102783
-0.014663696
-0.068786621
0.063537598
-0.063842773
0.031555176
0.045806885
-0.010505676
0.016708374
-0.082763672
0.062927246
0.048400879
0.088012695
0.021865845
-0.079223633
-0.0096435547
-0.023590088
0.058013916
0.03036499
-0.026275635
0.05355835
-0.022109985
0.010070801
0.028091431
0.043945312
0.023391724
0.0056037903
0.0070915222
0.070861816
0.084899902
-0.037353516
-0.071044922
0.08770752
0.061553955
-0.051147461
-0.0094833374
-0.047332764
0.0094223022
-0.072509766
-0.038909912
-0.026794434
-0.047851562
-0.085327148
-0.06652832
0.053894043
0.010131836
-0.059204102
-0.0066375732
0.066101074
-0.030319214
-0.084655762
0.038818359
-0.065979004
-0.022460938
0.0094680786
0.011665344
-0.064086914
0.0046463013
-0.085693359
0.036437988
0.059143066
-0.061706543
-0.061309814
-0.060546875
-0.071838379
0.06817627
-0.046295166
-0.071594238
0.033447266
0.034637451
0.085021973
-0.018630981
-0.021697998
-0.0002194643
0.013473511
0.047729492
0.030059814
0.044921875
-0.035430908
-0.024856567
-0.0095825195
0.03074646
0.028015137
0.062866211
-0.073120117
0.0016870499
0.062316895
0.0094223022
-0.012969971
-0.070983887
0.077758789
0.048583984
0.072265625
-0.057861328
-0.071411133
-0.013755798
-0.078674316
0.04776001
0.044586182
0.026199341
0.085205078
-0.010681152
-0.011390686
0.0030288696
0.061462402
-0.023101807
0.059509277
0.020980835
-0.055541992
0.06640625
0.06427002
0.073852539
0.049133301
0.070800781
0.0284729
0.0055618286
-0.059173584
0.022583008
-0.0072135925
-0.020370483
-0.040527344
0.066040039
-0.042480469
-0.039825439
0.030670166
-0.050140381
-0.018936157
0.02494812
0.02130127
-0.080932617
-0.036346436
0.00089931488
0.064758301
-0.015838623
-0.045471191
0.085205078
-0.05581665
-0.010444641
0.069335938
0.081481934
0.085510254
-0.086181641
0.023788452
0.078491211
-0.044189453
0.0072784424
-0.0089035034
0.0031070709
0.060119629
-0.061157227
-0.02784729
-0.045440674
0.015533447
0.0057106018
0.060180664
0.059967041
0.0069580078
0.013710022
-0.037841797
-0.063964844
-0.063842773
-0.0077781677
0.063598633
0.033630371
0.019683838
-0.060638428
-0.070251465
0.026397705
-0.049468994
-0.026092529
-0.027374268
0.06817627
0.083679199
0.01386261
-0.049591064
-0.045166016
-0.031051636
0.055664062
0.038879395
0.056274414
-0.02557373
-0.025161743
-0.071899414
-0.072021484
-0.0042915344
-0.055999756
-0.078613281
-0.042877197
-0.0070075989
0.055175781
0.070556641
0.083557129
-0.0076828003
0.0048561096
0.03338623
-0.048248291
-0.069152832
0.042694092
-0.015403748
-0.055969238
0.0085525513
0.0033683777
0.08013916
0.036743164
-0.07635498
-0.0013437271
0.054229736
-0.033111572
-0.083618164
0.0016279221
-0.03894043
0.0075149536
0.025390625
0.0082931519
0.046691895
-0.03314209
0.00039768219
0.059661865
-0.059631348
0.0037288666
-0.016921997
-0.059173584
0.013786316
0.074768066
0.06262207
-0.026473999
-0.0006403923
0.055603027
0.040435791
0.0054206848
0.022735596
-0.018447876
0.085510254
-0.06048584
-0.02671814
0.0069885254
0.028213501
-0.088012695
-0.0069122314
-0.033325195
0.018310547
0.02394104
-0.083251953
0.086547852
-0.022384644
-0.054382324
-0.032043457
0.055480957
-0.039642334
0.00099563599
-0.061035156
-0.037536621
0.04107666
-0.0065307617
0.014503479
-0.021560669
-0.03314209
0.077575684
0.04510498
0.020278931
0.085876465
-0.023849487
0.049285889
0.077880859
-0.049133301
-0.019699097
-0.04019165
0.07800293
-0.045074463
-0.08001709
-0.004535675
-0.024536133
0.078308105
-0.044250488
-0.017288208
0.032928467
0.045166016
0.019424438
-0.048431396
0.0063552856
-0.0055847168
0.043121338
-0.086364746
0.067565918
-0.012420654
0.012168884
-0.016799927
0.059906006
-0.072998047
0.038513184
-0.040100098
-0.08416748
0.015556335
0.073181152
0.0053901672
-0.016891479
0.071960449
-0.041748047
0.030532837
-0.068359375
-0.033203125
-0.070617676
-0.018081665
0.021484375
-0.030166626
0.046173096
0.041809082
0.038604736
-0.04776001
-0.081481934
0.042510986
0.018508911
0.0085067749
0.017456055
0.081054688
0.0089187622
-0.057159424
0.0012979507
0.073242188
-0.069213867
0.06854248
0.041748047
0.0025482178
-0.048950195
0.036560059
0.075561523
-0.032043457
0.041290283
0.05859375
-0.075378418
-0.047332764
0.065124512
0.047241211
-0.025192261
-0.00032758713
-0.035522461
0.033630371
0.027038574
0.070556641
0.011451721
0.040100098
0.022354126
0.022949219
-0.0012712479
0.036102295
0.015975952
-0.059753418
-0.077819824
0.0055618286
-0.05380249
0.063476562
-0.027557373
-0.029937744
0.062927246
0.043151855
0.080932617
0.034790039
0.016311646
0.068969727
0.075866699
0.031951904
0.04901123
-0.0048980713
0.077087402
0.084655762
-0.025466919
-0.02885437
-0.007850647
0.075134277
-0.058380127
0.058990479
0.04675293
-0.062042236
-0.038299561
-0.050720215
0.031738281
0.086730957
-0.042816162
0.01272583
-0.085266113
-0.061584473
-0.032623291
-0.075317383
0.044128418
0.067077637
-0.071777344
0.024673462
-0.035339355
-0.055938721
0.086853027
0.081420898
0.072021484
-0.049407959
0.071960449
0.0859375
-0.074768066
-0.067687988
0.057830811
0.010910034
0.012123108
-0.0340271
-0.019393921
-0.055480957
-0.0048789978
-0.051696777
-0.0016479492
-0.023040771
0.034820557
-0.070556641
0.0055656433
-0.05960083
-0.070556641
0.079223633
-0.0091247559
0.064331055
-0.0440979
0.010398865
0.054168701
-0.01020813
-0.073608398
-0.066894531
0.056243896
-0.020263672
-0.072692871
0.08190918
0.060089111
0.0014200211
0.048156738
0.041381836
-0.060028076
-0.059844971
-0.037445068
-0.028427124
-0.07989502
0.045135498
-0.058654785
0.037200928
0.035095215
-0.0039176941
0.019607544
0.039428711
0.010093689
0.061737061
0.00058031082
0.02734375
0.071411133
-0.028274536
0.043945312
-0.063720703
0.044036865
0.020492554
0.069824219
-0.04095459
0.041870117
0.032409668
-0.064758301
0.049835205
0.082641602
0.085327148
0.0038948059
0.075927734
0.011535645
0.061035156
-0.043548584
-0.024902344
0.0091018677
0.035980225
-0.044433594
0.076599121
0.086486816
0.073486328
0.073913574
0.015914917
-0.038818359
-0.013801575
0.017059326
0.0053977966
0.019515991
-0.031768799
0.018280029
0.061645508
-0.079101562
0.069885254
0.077575684
6.3180923e-05
0.063354492
0.031890869
-0.076538086
0.019485474
-0.074707031
0.061920166
-0.0078277588
0.032562256
-0.019775391
-0.063964844
-0.084899902
0.049743652
0.031402588
-0.049560547
-0.048309326
-0.050506592
0.079284668
0.072570801
0.080749512
-0.012573242
-0.067504883
-0.082763672
-0.039489746
0.049804688
0.06829834
0.031188965
0.024017334
0.0054016113
0.0046195984
0.05670166
-0.047698975
0.076904297
-0.047058105
-0.05581665
-0.08013916
0.029586792
0.038452148
-0.0032806396
-0.03894043
-0.084106445
-0.0018415451
-0.082214355
0.059814453
0.01713562
0.074707031
0.081787109
-0.015281677
-0.076965332
0.011436462
0.074707031
-0.032073975
0.061767578
-0.070739746
-0.0021781921
0.065673828
0.071228027
-0.057281494
-0.073425293
0.047851562
-0.045166016
-0.01953125
-0.08392334
-0.047973633
0.0094680786
0.031188965
-0.038787842
-0.030136108
-0.011978149
-0.037567139
-0.063537598
-0.051483154
0.083557129
0.029342651
0.042022705
-0.038848877
-0.064819336
-0.075317383
-0.026031494
-0.035949707
0.038330078
0.019546509
-0.069274902
-0.060546875
-0.04296875
0.022659302
0.045166016
-0.051208496
-0.057037354
-0.054138184
-0.067687988
0.019073486
0.083435059
0.064758301
-0.081665039
0.063903809
-0.073242188
0.051696777
-0.019287109
-0.0052528381
0.059173584
-0.020217896
0.041687012
0.04119873
0.07635498
0.081176758
0.072692871
0.02696228
0.067749023
-0.006603241
0.031860352
-0.063171387
-0.060546875
-0.021957397
0.08190918
0.077209473
0.067565918
0.0086364746
0.051452637
-0.076538086
-0.0075645447
0.084655762
0.04385376
0.011474609
-0.0104599
-0.053771973
-0.0084381104
0.00069475174
-0.018844604
0.011955261
-0.081420898
0.062103271
0.058776855
-0.022979736
0.024917603
0.047698975
0.081970215
-0.075622559
-0.037322998
0.021392822
-0.044769287
-0.0020008087
-0.040771484
0.044616699
0.031082153
-0.016616821
-0.031768799
0.040893555
-0.07989502
-0.061767578
0.035491943
0.038848877
0.018447876
-0.016891479
-0.0021286011
0.010604858
-0.015571594
0.014663696
-0.015853882
-0.085144043
-0.079101562
0.073730469
-0.04598999
0.061065674
-0.0027980804
-0.028656006
-0.002035141
0.00023543835
-0.079223633
-0.071655273
0.053253174
0.010154724
-0.0078735352
-0.081787109
0.029724121
-0.0016183853
0.070007324
-0.042572021
-0.0053215027
0.063781738
0.044921875
-0.0022506714
0.073608398
0.01222229
0.0034866333
-0.035736084
-0.086791992
-0.04284668
-0.075317383
0.088317871
0.033050537
-0.029251099
0.046295166
-0.025299072
-0.053466797
-0.01574707
-0.049194336
0.048522949
-0.044219971
0.039825439
0.018615723
0.017120361
-0.031738281
-0.069458008
-0.087768555
-0.069152832
-0.055786133
0.071533203
-0.03692627
0.086364746
0.069335938
-0.057189941
0.075683594
-0.060974121
-0.018661499
0.072387695
0.036987305
-0.014770508
0.013824463
-0.029403687
0.020675659
-0.021530151
-0.074523926
-0.05380249
-0.036743164
-0.050811768
0.065368652
0.058258057
0.038116455
0.063903809
-0.087158203
0.073242188
-0.043945312
-0.049621582
0.035430908
0.061035156
-0.07623291
0.071594238
-0.024124146
0.0016832352
0.084350586
-0.068237305
0.060516357
0.06451416
-0.086120605
0.069213867
0.07611084
0.030426025
-0.0074958801
0.059631348
-0.016067505
-0.052001953
-0.084533691
-0.051422119
0.081176758
0.05657959
-0.082763672
-0.034698486
-0.08770752
-0.049346924
0.028839111
0.030914307
0.018478394
-0.018600464
-0.083190918
-0.021392822
-0.06451416
-0.04006958
-0.043884277
-0.028213501
-0.00052452087
-0.062316895
-0.05291748
0.047668457
-0.036468506
-0.083862305
0.065612793
-0.034515381
0.070800781
-0.037200928
0.048492432
0.067932129
0.070739746
-0.085144043
-0.028427124
-0.034240723
-0.06652832
0.031982422
0.028747559
-0.054870605
0.041412354
0.084655762
0.067626953
-0.060791016
-0.0053138733
-0.071472168
-0.035766602
0.083190918
0.059936523
0.017318726
0.056518555
0.039245605
-0.026931763
-0.040130615
-0.0079956055
0.067810059
0.0038051605
0.039642334
-0.056945801
-0.044189453
0.035705566
-0.015182495
0.08392334
0.08001709
-0.029495239
-0.0090789795
-0.030258179
-0.043273926
0.0418396
-0.008430481
-0.022354126
0.066162109
-0.020446777
0.02911377
-0.042999268
-0.034942627
0.037475586
0.063842773
-0.068481445
0.02281189
0.071044922
-0.078979492
-0.057525635
0.045532227
0.077270508
-0.041351318
7.8201294e-05
0.059570312
0.036712646
-0.046905518
0.07989502
0.065856934
-0.011703491
0.080383301
0.011009216
0.064880371
-0.015083313
0.081115723
0.031707764
-0.058074951
0.011833191
-0.044616699
0.072692871
-0.038116455
0.058563232
-0.075256348
-0.031311035
-0.067810059
-0.038696289
-0.063171387
-0.069030762
-0.045410156
0.087646484
0.031677246
-0.036895752
0.02571106
0.046386719
-0.0011863708
-0.057891846
0.010520935
-0.071411133
-0.058746338
-0.0059814453
0.052307129
0.020309448
-0.0020656586
0.07623291
0.060699463
0.079284668
0.034179688
0.044891357
-0.030532837
0.075622559
0.010421753
0.060516357
0.05291748
0.0074577332
-0.048370361
0.059082031
-0.075317383
-0.04675293
-0.04788208
-0.025283813
-0.011116028
0.031921387
-0.03137207
0.049163818
-0.051086426
-0.035797119
0.060821533
-0.08203125
0.034790039
0.074523926
-0.02923584
-0.035430908
0.010292053
-0.034515381
-0.071594238
0.040649414
0.035736084
0.0012617111
0.034210205
0.052856445
-0.040985107
-0.085205078
0.070617676
0.038879395
0.071411133
0.064758301
0.04574585
0.082763672
-0.046051025
0.077880859
0.046173096
-0.032623291
0.042175293
0.085144043
-0.014137268
-0.071044922
0.084472656
-0.074951172
-0.038208008
0.030807495
0.018630981
0.0041313171
-0.01675415
0.071777344
0.069152832
0.073303223
-0.021057129
0.0002348423
0.047668457
-0.054992676
0.013069153
-0.075134277
-0.017593384
0.02104187
-0.019805908
-0.05859375
0.088134766
0.061767578
0.026306152
0.027954102
0.044219971
0.010314941
-0.061126709
0.026580811
-0.012207031
-0.08026123
-0.064025879
0.0086746216
0.0027351379
0.046661377
0.086486816
-0.063598633
-0.057678223
-0.021377563
-0.06427002
-0.033447266
0.043792725
0.0022621155
0.040161133
-0.058563232
-0.035064697
0.011047363
-0.010444641
0.046081543
0.045898438
-0.082397461
-0.020690918
-0.01902771
0.081176758
-0.01713562
0.054229736
-0.05279541
-0.081848145
-0.043457031
0.035095215
-0.059753418
0.078430176
-0.044036865
0.064331055
-0.042144775
0.0035362244
0.0040664673
-0.049530029
0.025726318
-0.0014286041
0.0066986084
0.054534912
0.071044922
-0.054626465
0.011764526
-0.077148438
-0.077453613
-0.016952515
-0.014221191
0.068664551
0.072631836
0.010856628
0.048614502
-0.052764893
0.020202637
0.033172607
-0.059509277
0.07220459
-0.024978638
-0.053863525
-0.07989502
-0.062164307
0.011703491
-0.02885437
0.075012207
0.069274902
-0.067199707
0.071472168
0.053619385
-0.00057840347
-0.011535645
-0.063476562
-0.027175903
-0.039306641
-0.0056037903
0.043701172
-0.073181152
0.013389587
0.081054688
-0.032409668
-0.03237915
0.015144348
-0.084655762
-0.012260437
-0.030654907
-0.0496521
0.010971069
-0.061737061
-0.026443481
-0.040557861
-0.019607544
0.065734863
0.027420044
0.0063972473
0.061035156
0.069274902
-0.068054199
0.064331055
-0.039825439
-0.041564941
-0.066833496
0.030899048
0.036865234
-0.080505371
-0.051361084
0.0050392151
0.003408432
-0.063964844
0.063720703
0.033630371
0.056396484
-0.047637939
0.012893677
0.021621704
-0.068847656
-0.048736572
0.082885742
0.073303223
-0.019256592
-0.016540527
-0.060333252
0.082946777
-0.07019043
0.078613281
0.037963867
0.037353516
-0.065246582
0.026885986
-0.020599365
0.083068848
0.044799805
0.053314209
-0.071960449
0.047332764
0.070556641
0.030914307
-0.011489868
-0.070678711
-0.038482666
0.071044922
0.068725586
0.042297363
-0.076599121
0.0051002502
-0.029724121
0.030731201
0.035522461
-0.011940002
-0.055633545
0.068054199
0.0087966919
-0.083129883
0.0031471252
-0.035125732
-0.071105957
0.078735352
-0.054229736
-0.071533203
-0.064147949
0.044616699
-0.0061149597
0.062042236
-0.085083008
0.074951172
0.005153656
0.054748535
0.086730957
-0.0010461807
0.0089874268
-0.035583496
-0.056671143
-0.03994751
-0.025924683
0.050018311
-0.0050849915
-0.06161499
-0.030410767
-0.044616699
0.015853882
-0.083679199
-0.025192261
0.014183044
-0.04788208
-0.0039520264
-0.084716797
-0.011749268
-0.011276245
-0.062561035
-0.016616821
0.012176514
0.041687012
-0.065124512
0.083740234
0.036682129
0.053527832
0.06439209
0.018386841
0.065734863
-0.0091552734
0.0059127808
0.0088729858
0.02532959
-0.013633728
-0.045257568
-0.0061950684
-0.028442383
-0.011146545
-0.08807373
-0.047027588
-0.035461426
-0.0072402954
0.018768311
0.021682739
0.075927734
-0.053009033
-0.0056762695
-0.003660202
0.028076172
0.050842285
-0.040252686
0.023162842
-0.048278809
-0.0597229
-0.049316406
0.025604248
-0.061737061
-0.0089263916
-0.052154541
0.072509766
-0.0048065186
-0.066101074
0.043457031
0.040740967
-0.024200439
-0.044219971
-0.01953125
-0.039703369
-0.032165527
0.012557983
-0.080383301
0.007106781
0.0087203979
-0.057861328
0.052520752
0.082580566
-0.022796631
0.014251709
0.0074005127
0.048614502
0.06060791
0.082641602
0.040863037
0.029693604
-0.018127441
-0.0050125122
-0.036193848
0.04699707
-0.029602051
0.052490234
0.078125
-0.080383301
-0.056549072
0.010246277
0.062194824
0.0054664612
0.081787109
0.086364746
0.03326416
-0.022399902
0.0034313202
-0.0064926147
0.018554688
0.015129089
0.044647217
0.05947876
-0.041320801
0.056854248
-0.018707275
0.022918701
0.059173584
0.0097351074
0.08380127
-0.0011444092
-0.053710938
0.040100098
0.015380859
0.028762817
0.036804199
0.031646729
0.085021973
0.031555176
0.040802002
-0.0080947876
0.013191223
0.042510986
-0.038726807
-0.017318726
-0.042480469
0.074707031
-0.071228027
-0.050201416
-0.081359863
-0.034362793
0.04095459
0.030334473
0.069458008
-0.017715454
0.016418457
0.026550293
-0.02583313
0.048858643
0.02154541
0.040222168
0.0020904541
0.042114258
-0.075256348
-0.0062103271
0.020278931
-0.067443848
0.055389404
-0.020355225
0.04296875
-0.013977051
-0.044433594
0.031677246
-0.00073289871
0.088317871
0.077880859
0.012008667
0.052764893
-0.064208984
-0.011138916
-0.032348633
-0.080810547
0.0021286011
0.086853027
-0.050415039
-0.072998047
-0.031707764
0.0029125214
-0.0017776489
0.085998535
-0.038726807
0.07989502
-0.023925781
-0.064147949
-0.048217773
0.039794922
0.062988281
-0.061248779
-0.041473389
0.032043457
0.029678345
-0.046905518
-0.084533691
-0.0050010681
0.088378906
0.087402344
-0.083007812
-0.015686035
0.034210205
0.034484863
-0.069763184
-0.012420654
0.028213501
-0.061462402
0.076843262
0.041473389
-0.0066642761
-0.085083008
-0.064697266
-0.036499023
0.046936035
0.026931763
-0.075805664
-0.069274902
-0.023635864
0.084594727
0.08770752
0.011421204
-0.079284668
0.025085449
-0.0015592575
-0.024353027
-0.034057617
0.040252686
-0.00094747543
-0.0021018982
-0.066040039
-0.026306152
-0.015617371
0.05255127
-0.019271851
-0.058532715
-0.013656616
-0.028686523
-0.033660889
0.024429321
0.036560059
-0.054443359
0.047821045
-0.00088787079
-0.03616333
-0.001750946
-0.06854248
-0.017089844
-0.064941406
0.073669434
-9.8049641e-05
-0.031494141
-0.021408081
-0.069702148
-0.032806396
-0.046905518
0.047393799
-0.053070068
-0.031311035
0.068115234
-0.045318604
0.025222778
-0.049041748
-0.019180298
-0.055541992
-0.002325058
0.058502197
0.083190918
-0.047546387
-0.0045051575
0.075378418
0.072509766
-0.036743164
-0.078063965
0.085388184
-0.00099563599
0.022399902
0.023391724
-0.084411621
0.067810059
-0.07019043
0.023178101
-0.030410767
0.083068848
-0.046844482
-0.0059280396
-0.032867432
0.0024852753
-0.0046234131
0.060516357
-0.056274414
-0.074157715
0.014259338
-0.083984375
0.0020141602
0.022750854
-0.069641113
-0.041717529
0.061767578
-0.024108887
0.023208618
-0.075378418
0.042785645
0.024002075
-0.067260742
-0.052185059
0.037078857
-0.037078857
0.030822754
0.077819824
0.060943604
-0.010604858
0.027450562
-0.014892578
-0.050872803
-0.053131104
-0.076965332
-0.0029754639
0.076293945
0.077819824
-0.035766602
0.054473877
0.086669922
0.042236328
0.005657196
0.08190918
0.031402588
-0.014541626
-0.045135498
0.027420044
0.041015625
-0.028427124
-0.019744873
0.082824707
0.0085372925
0.073852539
0.00039339066
0.063293457
-0.036743164
0.027297974
-0.088256836
0.0012521744
-0.086791992
0.0081481934
-0.059753418
0.029800415
0.045410156
-0.080627441
-0.069274902
0.001499176
0.014343262
0.015022278
-0.044647217
-0.022003174
0.071838379
0.034973145
-0.0090942383
0.039306641
0.024734497
0.05758667
-0.066101074
0.013816833
-0.064025879
0.033966064
0.030334473
0.011192322
0.053314209
0.0044670105
0.027267456
0.012962341
0.060272217
-0.0034103394
0.026443481
0.038513184
-0.086730957
0.043365479
0.049163818
0.042541504
-0.03515625
0.081542969
0.044586182
0.031921387
-0.087524414
0.064147949
0.020629883
-0.075195312
0.065124512
0.049835205
0.025665283
0.055541992
0.030563354
-0.06854248
0.028778076
0.034820557
0.016433716
0.03515625
-0.077880859
0.051483154
-0.010543823
-0.01940918
0.012069702
0.025680542
-0.069824219
-0.023040771
-0.081665039
-0.05355835
-0.064331055
0.076049805
0.022125244
-0.047821045
0.0071144104
0.022323608
0.072265625
-0.057983398
0.024871826
0.077941895
-0.049926758
-0.051452637
-0.074707031
0.067687988
0.031707764
0.041748047
-0.067382812
0.040374756
0.058410645
0.057891846
0.013389587
-0.0093536377
0.041473389
-0.014381409
0.048339844
0.070983887
-0.079711914
-0.019332886
-0.038848877
-0.020736694
-0.026229858
0.020751953
0.00061368942
0.077758789
-0.082275391
-0.033660889
-0.042755127
-0.0021457672
-0.040130615
0.023254395
0.03817749
-0.016387939
-0.050292969
0.055755615
0.0069274902
-0.048309326
-0.062988281
-0.030670166
-0.028381348
0.0099563599
-0.042144775
-0.00079202652
-0.055999756
-0.086914062
-0.05078125
-0.02885437
0.074768066
-0.054290771
-0.036224365
0.023406982
0.040374756
0.004825592
0.073120117
0.05645752
0.057403564
0.059692383
0.029830933
0.064758301
0.021896362
0.020950317
0.016952515
-0.077941895
-0.083007812
-0.059051514
0.082275391
0.028091431
0.011497498
0.081848145
-0.041107178
0.0087738037
-0.00091123581
0.066955566
0.012756348
-0.067382812
-0.026092529
-0.047119141
-0.00052261353
-0.040405273
0.069519043
-0.083251953
-0.050262451
0.067687988
-0.087524414
0.016311646
0.078857422
0.023391724
-0.041503906
0.044647217
0.0703125
0.025375366
0.01159668
0.027130127
-0.044555664
0.045135498
0.079711914
-0.018936157
-0.080627441
-0.040252686
0.037780762
-0.017456055
0.065063477
-0.0037612915
0.036468506
-0.055877686
0.037139893
0.0031337738
0.029006958
0.049682617
-0.076782227
0.06161499
-0.063415527
0.041900635
-0.064758301
0.055389404
0.08782959
-0.055267334
0.00098419189
-0.0703125
-0.037689209
0.059967041
0.057952881
-0.068115234
-0.039794922
-0.055297852
0.027679443
-0.052703857
0.041595459
-0.014320374
-0.030822754
0.01864624
-0.059936523
0.052642822
0.057952881
0.0039024353
0.034820557
0.033294678
0.07019043
-0.03604126
0.058166504
0.046844482
-0.052978516
0.045501709
-0.018188477
0.048706055
0.048248291
-0.057952881
-0.084594727
-0.022216797
-0.063110352
0.042175293
0.017486572
-0.032623291
-0.01864624
0.069458008
-0.019302368
0.027404785
-0.061309814
-0.069274902
0.034606934
-0.042602539
-0.027130127
0.082763672
0.08203125
0.044891357
0.036071777
-0.025604248
0.040161133
0.047271729
0.0859375
0.033416748
0.037567139
0.044250488
-0.0073394775
-0.073730469
0.00053596497
-0.062225342
-0.00054121017
0.054046631
-0.083496094
-0.059753418
0.030639648
-0.059631348
0.03062439
0.075927734
0.0094146729
-0.020095825
0.032836914
0.01158905
-0.083007812
0.0074577332
0.048095703
0.042694092
0.012001038
0.069641113
0.062194824
-0.074707031
0.043579102
-0.07623291
-0.08392334
-0.05581665
0.075805664
-0.015586853
0.078186035
0.035003662
0.064208984
0.052337646
0.013076782
0.015419006
-0.070861816
-0.047332764
-0.042358398
-0.064819336
-0.0056686401
0.019165039
-0.047546387
-0.040649414
0.087341309
0.05960083
0.079528809
-0.039031982
0.012657166
0.012916565
-0.019515991
-0.086608887
0.029022217
0.060882568
0.011291504
0.068725586
-0.062225342
0.0091094971
-0.0070991516
-0.021591187
0.08770752
0.026748657
0.010124207
-0.014457703
-0.037139893
-0.082458496
-0.080993652
-0.054931641
0.084899902
0.041748047
0.019088745
-0.070251465
0.081115723
-0.043151855
-0.030410767
-0.035736084
-0.0033454895
0.086120605
0.034759521
0.066162109
-0.040618896
-0.064147949
-0.088012695
0.060760498
-0.0025043488
0.018371582
0.062561035
-0.029815674
-0.011680603
-0.015670776
0.033813477
-0.06427002
0.017059326
-0.083984375
0.087524414
0.014137268
0.002696991
-0.06427002
-0.068359375
0.023345947
-0.033203125
-0.032012939
0.074829102
-0.058807373
0.070007324
-0.019683838
-0.065002441
-0.058990479
-0.01134491
-0.082275391
-0.025238037
0.045806885
0.0083618164
0.041595459
-0.034973145
0.034912109
-0.051025391
0.035858154
0.021499634
0.052947998
-0.080322266
-0.039337158
0.066833496
-0.016967773
-0.079833984
0.034057617
0.011894226
-0.037658691
0.080383301
0.015220642
0.018569946
-0.041717529
-0.040771484
0.023178101
0.054168701
0.027420044
-0.04574585
-0.046264648
-0.036865234
-0.048553467
0.086791992
0.011451721
-0.0043144226
-0.010726929
0.01965332
-0.072814941
-0.071350098
0.04864502
0.0058517456
-0.021286011
-0.012634277
-0.015686035
-0.0022964478
0.01071167
-0.011276245
0.057830811
-0.0014791489
0.060516357
0.038024902
-0.037384033
-0.0063896179
0.058197021
0.0042724609
-0.012489319
0.0102005
-0.022750854
-0.043395996
-0.078125
0.043304443
-0.0055389404
0.0032844543
-0.0070495605
-0.00052404404
0.019577026
-0.065185547
0.027587891
0.077941895
0.01852417
0.043731689
-0.069091797
-0.065795898
-0.056549072
0.013931274
-0.084594727
0.066467285
0.033050537
-0.050811768
0.021896362
-0.051605225
-0.041870117
0.071350098
-0.037872314
-0.0020751953
0.047241211
-0.08380127
0.075195312
-0.087097168
0.086181641
0.048492432
-0.069396973
0.0234375
-0.046264648
0.0020484924
-0.073486328
-0.013015747
-0.041290283
-0.066345215
0.029449463
0.062927246
0.0097579956
-0.041046143
0.018035889
0.018829346
0.03704834
-0.058441162
0.018478394
0.025222778
-0.065429688
-0.033782959
-0.080993652
-0.021621704
0.044494629
0.0087280273
0.077880859
-0.021484375
0.039978027
-0.0076522827
-0.010231018
0.057098389
0.060943604
0.056518555
-0.036621094
0.083496094
0.010597229
0.074401855
-0.052642822
-0.024597168
-0.0047912598
0.057525635
0.060302734
-0.014320374
-0.074890137
-0.0031223297
-0.076843262
-0.07635498
-0.011253357
0.00077962875
0.067504883
0.0036144257
0.035583496
0.078613281
-0.01071167
0.068603516
-0.045928955
0.033599854
0.012077332
-0.086547852
-0.020889282
0.036102295
0.06451416
0.086120605
-0.0013008118
0.0097885132
0.00014293194
-0.0034484863
0.05078125
0.082397461
0.061889648
0.038543701
0.0060577393
-0.020187378
-0.011253357
-0.027770996
0.074035645
0.01184845
0.0011129379
0.051025391
0.011024475
-0.0012493134
0.0036716461
0.025009155
0.036437988
0.024795532
-0.038604736
0.069641113
0.087341309
0.02482605
-0.03692627
-0.077270508
0.050140381
0.0030651093
0.035095215
-0.015525818
-0.02444458
-0.054199219
0.03012085
-0.0088195801
-0.02571106
0.059753418
0.042816162
0.04498291
0.042694092
-0.040863037
-0.028686523
-0.026824951
0.078552246
0.035003662
-0.077270508
0.058837891
0.049133301
-0.050140381
0.074768066
-0.063720703
-0.043334961
-0.067077637
0.075866699
0.069763184
-0.06842041
0.0014867783
-0.069274902
0.045959473
-0.08605957
-0.047241211
-0.0088195801
-0.024658203
-0.040527344
-0.035491943
0.065979004
0.043365479
0.02897644
-0.071838379
-0.013504028
0.085327148
0.05758667
0.0090789795
-0.015777588
0.075195312
-0.017349243
0.068359375
0.056549072
-0.019760132
0.040161133
0.036437988
-0.059143066
-0.043273926
-0.037719727
0.025848389
0.009185791
0.085083008
-0.041442871
0.039672852
0.019927979
-0.081054688
-0.0047225952
-0.067504883
0.076049805
-0.026245117
-0.035552979
-0.063659668
-0.01084137
0.058380127
-0.038604736
-0.081970215
-0.078918457
0.018066406
-0.03213501
0.066467285
-0.020828247
-0.0065345764
0.075805664
0.017929077
-0.081848145
0.030502319
-0.018692017
0.061187744
-0.035583496
-0.025146484
-0.061981201
0.010498047
-0.023696899
0.055908203
0.025421143
0.032714844
-0.03338623
-0.059326172
0.039978027
0.06628418
0.039337158
0.051940918
0.00038051605
0.022369385
-0.0099487305
0.072570801
0.088317871
-0.0032329559
-0.055908203
0.087341309
0.042327881
-0.034881592
0.046295166
0.065856934
-0.01423645
0.054473877
-0.054962158
-0.047363281
0.07434082
0.077575684
0.041931152
0.058502197
-0.01197052
0.071350098
-0.085510254
-0.035919189
-0.017852783
0.067138672
-0.055145264
0.045074463
-0.0081481934
-0.053436279
0.030639648
0.020141602
-0.057861328
0.0859375
0.013572693
-0.04083252
0.083435059
-0.053375244
0.039428711
0.058013916
-0.021026611
0.087097168
-0.0011281967
-0.029327393
-0.084350586
0.07208252
-0.014938354
0.00020444393
0.027557373
-0.037261963
0.07611084
0.079528809
-0.072814941
-0.031738281
0.042541504
0.036224365
-0.0072746277
-0.048370361
0.065856934
-0.0086669922
-0.0023899078
-0.074584961
-0.022109985
-0.039642334
0.06652832
0.077392578
0.038269043
-0.0013980865
-0.0056991577
0.024765015
0.024978638
0.060058594
-0.0046043396
0.025634766
0.087402344
0.035583496
-0.028137207
-0.087158203
0.0055236816
-0.016357422
0.067871094
-0.042999268
-0.069946289
-0.073974609
-0.070007324
-0.026489258
0.061584473
0.052459717
-0.036193848
0.064941406
-0.078308105
0.083251953
0.014511108
0.059173584
-0.068603516
-0.0038108826
-0.026733398
-0.046478271
-0.057220459
-0.086914062
-0.022033691
-0.0038070679
-0.069946289
-0.020965576
-0.06451416
0.021087646
-0.030197144
0.046936035
0.033203125
0.016769409
-0.012817383
-0.069885254
0.018127441
-0.049865723
-0.07019043
0.044494629
0.0064964294
0.074401855
-0.046722412
0.0096893311
-0.086791992
-0.068481445
-0.058105469
0.075744629
0.080810547
0.027587891
-0.073791504
0.011917114
-0.079040527
-0.065795898
0.032806396
-0.015457153
0.085327148
-0.036193848
-0.022247314
-0.061676025
0.047393799
0.043243408
0.050811768
-0.023376465
-0.052001953
0.071899414
-0.040313721
0.035369873
-0.087097168
-0.075195312
0.0046882629
0.0044898987
0.0055198669
0.036773682
-0.042053223
0.065307617
-0.071228027
-0.085571289
0.060119629
0.039276123
0.050811768
-0.077209473
-0.087219238
-0.011924744
-0.059814453
-0.058044434
0.061920166
0.055603027
-0.084594727
0.047851562
-0.028717041
0.051239014
0.0049591064
0.043518066
0.032196045
0.010925293
0.018218994
-0.088378906
-0.026016235
-0.02432251
-0.0060348511
-0.032836914
0.017486572
0.072143555
-0.058135986
-0.052398682
-0.018951416
-0.069274902
0.027786255
0.01499176
0.003900528
0.058197021
-0.032073975
0.088012695
-0.022201538
0.074768066
-0.015838623
0.042510986
-0.063537598
-0.061584473
-0.024856567
0.013435364
0.024765015
0.077331543
0.054229736
-0.049560547
-0.0020370483
0.086975098
0.03817749
-0.019332886
-0.039428711
0.048614502
0.070007324
-0.064147949
-0.0048866272
0.080688477
-0.041900635
0.008026123
-0.0087509155
-0.075073242
-0.037261963
-0.036987305
-0.073608398
0.036102295
-0.073242188
0.047271729
-0.076049805
-0.0020771027
0.026824951
-0.06652832
0.078186035
-0.087219238
0.027603149
-0.055084229
-0.050537109
0.061004639
-0.061462402
0.081115723
0.022109985
-0.0574646
-0.0014266968
-0.015228271
-0.056182861
-0.032928467
-0.08203125
-0.043640137
-0.029174805
0.010635376
0.025680542
-0.077087402
-0.057922363
-0.074523926
-0.039794922
-0.030303955
0.040344238
-0.076599121
0.038208008
0.010223389
0.0016584396
0.064697266
0.048461914
-0.027389526
-0.029815674
0.026290894
-0.043640137
-0.03213501
-0.081726074
-0.050445557
-0.022247314
0.077331543
0.065917969
0.076904297
0.066162109
-0.082824707
0.08807373
0.065917969
0.027008057
0.080749512
0.037658691
0.045898438
-0.0027828217
0.087158203
0.0089263916
-0.014320374
-0.062866211
0.047149658
0.037902832
0.029525757
-0.029388428
-0.086425781
0.067565918
-0.064880371
0.017807007
0.0069160461
-0.057678223
-0.037689209
0.074584961
-0.01739502
0.075134277
0.0038661957
0.066467285
-0.039031982
0.056243896
-0.030944824
0.0023517609
-0.067810059
0.056762695
-0.035400391
-0.04309082
-0.053436279
-0.077575684
-0.075622559
-0.0099563599
-0.0069580078
0.0038719177
0.084472656
-0.077453613
-0.0076942444
0.074707031
0.048126221
0.036621094
0.082214355
0.024810791
0.0075378418
-0.069152832
0.083679199
-0.032897949
-0.074462891
-0.04800415
0.023910522
0.023544312
0.057067871
-0.074951172
-0.071960449
0.049499512
0.0076179504
0.024353027
-0.064758301
0.070007324
0.021896362
-0.076416016
-0.039123535
-0.086303711
0.0045509338
0.073791504
-0.079956055
0.075927734
0.071960449
0.076049805
0.082580566
0.0081329346
0.075744629
0.086853027
-0.039123535
0.03894043
0.019317627
0.048187256
-0.0028305054
0.056365967
0.074951172
0.0050926208
0.059020996
-0.049316406
0.064331055
0.043151855
0.037994385
-0.015975952
0.035400391
0.045166016
0.011077881
0.041992188
-0.087585449
-0.044708252
0.075622559
-0.036804199
-0.050048828
-0.08795166
-0.076293945
-0.017837524
0.039733887
0.076538086
0.021865845
-0.053161621
0.065612793
-0.0088119507
0.039276123
-0.055145264
0.014938354
-0.006362915
0.061157227
0.051269531
0.047271729
0.074035645
0.06842041
-0.021026611
0.084533691
0.080993652
-0.036743164
-0.027633667
-0.019805908
-0.070251465
0.01272583
0.03918457
0.058532715
0.0032558441
-0.040161133
0.079223633
0.046875
-0.062744141
-0.088012695
-0.034820557
-0.020828247
-0.078430176
-0.050292969
0.0077552795
0.0031585693
-0.034576416
0.038299561
-0.018692017
-0.024246216
-0.016769409
0.0073814392
-0.062408447
0.036865234
0.061523438
-0.0041694641
0.056854248
0.076660156
0.052246094
-0.026550293
-0.082458496
-0.040283203
-0.044189453
0.039794922
-0.028015137
-0.07232666
-0.039764404
-0.047698975
-0.06652832
-0.008102417
0.065063477
0.066101074
0.065856934
-0.062042236
0.046844482
0.027679443
0.083496094
-0.08581543
-0.024917603
-0.054870605
0.0046691895
0.0099105835
-0.0061454773
-0.03527832
0.0026798248
-0.062744141
-0.061523438
0.035400391
-0.0095367432
-0.027587891
0.028778076
-0.063537598
-0.08203125
0.026748657
0.03994751
0.0022354126
0.058166504
-0.080200195
-0.048217773
-0.037689209
0.075256348
-0.014816284
0.076782227
0.023986816
0.063354492
0.071289062
0.023651123
-0.030944824
-0.030044556
-0.035125732
0.039978027
-0.012405396
0.085388184
0.073547363
-0.048156738
-0.0054588318
-0.010993958
-0.059326172
0.070739746
0.044342041
-0.059387207
-0.041748047
0.084533691
-0.035949707
-0.024581909
-0.033050537
0.078186035
-0.069519043
0.025360107
0.015205383
0.051818848
0.047027588
0.031188965
0.074279785
0.068664551
0.0052642822
0.087219238
0.01260376
-0.0030956268
0.053405762
0.019256592
-0.065979004
0.082702637
0.0096130371
-0.043395996
0.015991211
-0.037841797
0.067077637
0.0059356689
0.069580078
-0.088195801
-0.02116394
-0.068237305
-0.06652832
-0.020553589
0.04574585
0.0062828064
0.070922852
-0.024429321
-0.011856079
-0.049987793
-0.0063591003
0.010093689
-0.06652832
0.063903809
0.037780762
0.0028915405
0.015914917
-0.057495117
0.033843994
0.056060791
0.047058105
0.016784668
-0.032806396
-0.03604126
0.073364258
0.043640137
-0.075805664
0.050018311
0.080444336
0.018844604
0.048583984
0.00077438354
-0.065124512
0.052429199
0.08782959
-0.018066406
-0.05380249
-0.081542969
0.020477295
0.067260742
-0.052093506
-0.062225342
0.051574707
-0.025741577
0.0094451904
-0.051483154
-0.028640747
0.050079346
0.028793335
0.011978149
0.0054779053
-0.046630859
-0.011116028
-0.059448242
0.086791992
0.0084381104
-0.0018186569
-0.059539795
-0.086669922
0.084106445
0.011543274
-0.050476074
-0.038299561
0.027130127
0.019561768
-0.08795166
0.054534912
-0.0024490356
0.039031982
-0.044219971
-0.064819336
0.06439209
0.024124146
-0.011245728
0.074951172
0.064208984
0.024642944
-0.06817627
0.039672852
0.024291992
-0.051574707
-0.0043411255
-0.01159668
0.0039138794
-0.050384521
-0.08770752
0.011253357
0.032531738
-0.026657104
0.074584961
-0.010566711
0.069885254
0.016448975
0.040679932
0.00049352646
-0.0079956055
-0.027572632
0.053161621
0.055541992
0.042602539
0.04006958
-0.024581909
0.010780334
0.019317627
0.036834717
-0.030639648
0.017242432
-0.05368042
0.031829834
-0.012306213
-0.041778564
0.02305603
0.074951172
0.019378662
-0.027053833
-0.0086212158
-0.080566406
0.049713135
-0.075622559
0.031143188
0.034912109
-0.08605957
0.076843262
0.064453125
0.00062322617
0.049926758
-0.074768066
-0.073608398
-0.046875
0.0051803589
-0.037567139
0.016479492
-0.061523438
0.066223145
0.047302246
0.080749512
0.0067443848
-0.087646484
0.0012683868
-0.02696228
0.026672363
-0.006690979
-0.078857422
-0.066040039
-0.02545166
-0.0083694458
-0.032226562
0.05581665
0.038208008
0.016571045
0.072753906
-0.034667969
0.073242188
0.050933838
0.033843994
-0.069213867
-0.031921387
-0.086425781
-0.084838867
-0.057617188
-0.0089797974
-0.040222168
0.080810547
-0.071960449
0.0072517395
0.016555786
0.031082153
-0.033996582
-0.049377441
-0.032196045
-0.076477051
-0.073791504
-0.081604004
-0.068481445
0.054931641
0.0012674332
0.060302734
-0.047973633
0.071228027
-0.086547852
-0.035949707
0.0020523071
-0.03225708
-0.067321777
-0.061645508
0.039398193
0.010063171
0.082824707
-0.048553467
0.0013036728
0.073608398
0.028396606
0.028503418
0.067321777
-0.022125244
0.01285553
-0.062469482
0.022323608
-0.066223145
-0.066223145
-0.046691895
0.026321411
0.03338623
-0.032073975
0.0058555603
0.060760498
-0.087341309
0.067749023
-0.066345215
-0.059295654
-0.0033950806
0.047424316
0.046844482
0.049865723
0.063476562
-0.0181427
-0.01550293
-0.056976318
0.0011501312
-0.05166626
-0.073669434
0.082275391
-0.018600464
0.060821533
-0.036834717
0.019607544
-0.044769287
0.063781738
0.077026367
-0.040222168
-0.058227539
0.062988281
-0.067810059
0.039611816
-0.058441162
-0.006023407
-0.025527954
-0.021697998
0.025222778
0.058685303
0.061737061
0.057556152
-0.0094528198
0.085205078
-0.0055656433
-0.049316406
-0.052856445
-0.081054688
-0.086303711
0.010665894
0.068054199
-0.051086426
-0.019668579
0.043304443
0.048309326
0.0087661743
-0.043640137
0.078918457
-0.017440796
-0.079956055
0.05947876
-0.064147949
0.040649414
-0.040252686
-0.074279785
-0.016296387
0.060333252
-0.075378418
0.054931641
0.019882202
-0.0036792755
-0.010398865
0.025909424
-0.045959473
-0.075683594
0.011886597
0.085205078
-0.0065078735
-0.03805542
-0.042144775
-0.0053443909
0.0044975281
0.027832031
0.046508789
-0.040161133
0.010101318
0.0097351074
-0.026184082
-0.002117157
0.024703979
-0.078491211
0.018463135
-0.037200928
-0.015014648
-0.077087402
0.071838379
0.052093506
0.056671143
0.055297852
0.031066895
-0.084594727
0.067993164
-0.020294189
0.018264771
0.021728516
0.073364258
-0.069030762
0.035827637
0.0082702637
0.077636719
-0.0055656433
-0.085388184
-0.018676758
0.0053939819
-0.086914062
-0.065246582
-0.04309082
-0.074829102
0.033874512
-0.022003174
-0.040893555
0.012710571
-0.070556641
0.021911621
-0.059326172
-0.018936157
-0.048492432
-0.062133789
-0.047180176
-0.010742188
0.057128906
0.076538086
-0.012619019
-0.063842773
0.044189453
0.015258789
-0.070007324
-0.020339966
0.060852051
-0.087768555
-0.019119263
0.060424805
-0.051940918
0.059417725
0.082519531
0.048126221
-0.053192139
0.065490723
-0.032226562
-0.0078582764
0.025695801
-0.035980225
0.014205933
0.063659668
-0.034881592
-0.079772949
0.0030117035
-0.065002441
0.071289062
0.031082153
-0.072265625
-0.04083252
-0.056213379
0.069335938
0.039215088
-0.010749817
-0.045562744
-0.068054199
0.03793335
-0.086914062
0.031311035
0.07019043
0.080566406
-0.086669922
0.016036987
-0.063964844
-0.0440979
0.05255127
-0.014587402
0.043914795
-0.059387207
-0.063781738
0.087768555
-0.080322266
0.015716553
0.0017204285
-0.0050163269
-0.067077637
0.0070648193
-0.041748047
0.033813477
-0.063415527
0.05078125
-0.053710938
-0.057617188
0.0055809021
0.071960449
0.063110352
0.011962891
-0.023010254
-0.071716309
0.03074646
-0.081726074
0.012939453
-0.083007812
-0.035308838
-0.046600342
0.062866211
-0.076843262
0.057983398
-0.065856934
0.08026123
0.011291504
0.014427185
0.033630371
-0.035705566
-0.014762878
0.060302734
0.036712646
0.012802124
0.012702942
0.010856628
0.010955811
-0.036071777
0.030792236
0.0023708344
-0.070556641
-0.025466919
0.075500488
0.05166626
0.060211182
-0.020401001
-0.018325806
-0.061584473
0.068969727
-0.056121826
-0.018310547
0.013778687
-0.010925293
0.083679199
-0.052215576
-0.014358521
-0.054473877
-0.0094604492
0.0018854141
0.051116943
0.024154663
0.011138916
-0.048583984
-0.067382812
-0.078918457
0.085021973
0.043304443
0.018386841
0.038574219
0.046020508
-0.072814941
-0.010620117
0.014221191
0.049316406
-0.068786621
0.082702637
-0.055877686
0.073791504
0.050567627
-0.059661865
0.073669434
0.0085601807
-0.05569458
-0.013648987
0.0058364868
0.048095703
-0.052276611
-0.065124512
0.054351807
0.051361084
0.029998779
0.018051147
-0.04309082
0.043762207
0.087280273
-0.010650635
0.075073242
0.015686035
-0.018997192
0.08001709
0.016601562
-0.084411621
-0.066223145
0.028045654
0.058776855
-0.087646484
-0.057067871
0.071716309
0.028915405
-0.057678223
0.03225708
0.071289062
-0.026641846
-0.025054932
0.083129883
0.053436279
-0.027816772
0.015487671
-0.010261536
0.077087402
0.077636719
-0.0038146973
-0.00082731247
0.058380127
0.037780762
-0.036987305
-0.077941895
-0.027252197
-0.044708252
-0.038269043
-0.048217773
0.062469482
-0.019729614
-0.041259766
0.085327148
0.030761719
0.0066375732
-0.0038757324
-0.065612793
-0.06628418
-0.078491211
0.059875488
-0.046844482
0.01953125
-0.084350586
-0.064575195
0.036621094
0.0025043488
0.053924561
0.078430176
0.0703125
-0.023574829
-0.013435364
-0.067016602
-0.050811768
0.0095443726
0.0029907227
0.084289551
0.017562866
0.082092285
0.067932129
-0.0017824173
0.065795898
-0.016403198
0.083312988
-0.073608398
-0.065917969
-0.049530029
-0.086486816
0.0061073303
-0.0021743774
-0.016983032
-0.056915283
-0.021331787
0.039459229
0.025436401
0.025253296
-0.048706055
0.084106445
0.0067481995
-0.011070251
-0.010696411
-0.024780273
0.043731689
0.0065155029
0.084777832
-0.078613281
0.084533691
-0.068969727
-0.042694092
0.072998047
0.0051040649
-0.087524414
0.019546509
-0.069763184
-0.0064544678
0.0094528198
-0.024765015
0.071594238
0.057281494
-0.075256348
0.017318726
-0.088012695
-0.082580566
-0.06842041
-0.052947998
0.056640625
0.073791504
0.0054397583
0.062988281
-0.082458496
-0.035949707
-0.032928467
-0.068664551
0.013305664
-0.0069236755
0.036865234
0.036071777
0.086608887
0.084594727
-0.0042915344
-0.044708252
0.079345703
0.07208252
-0.05859375
0.079467773
0.063720703
0.054534912
-0.011856079
0.06842041
0.08795166
0.073059082
-0.015716553
-0.031341553
0.017822266
-0.076416016
0.068359375
-0.042633057
-0.087097168
-0.076538086
-0.061248779
0.068908691
-0.0051765442
0.072692871
0.048095703
-0.05645752
-0.062194824
-0.028823853
0.050079346
0.017913818
0.056549072
-0.061950684
0.023620605
0.077087402
0.075866699
-0.070800781
-0.027038574
-0.083435059
-0.054290771
0.0074081421
-0.0073852539
-0.010040283
0.017684937
-0.040893555
0.053344727
0.012290955
-0.038848877
-0.015548706
-0.021362305
-0.065673828
0.014572144
-0.083190918
0.017593384
0.087463379
-0.0032463074
0.087585449
-0.054931641
0.059356689
-0.074157715
-0.079589844
0.036621094
-0.070678711
-0.051269531
-0.0023651123
-0.055755615
0.054534912
-0.065917969
-0.015586853
-0.030426025
0.032196045
0.065246582
0.042633057
0.0039710999
0.010482788
0.028747559
0.059295654
-0.018081665
-0.041290283
-0.0085449219
0.034698486
-0.045135498
0.010490417
-0.014556885
0.009147644
0.042724609
0.055114746
-0.037322998
0.060699463
0.05581665
0.071044922
0.038665771
-0.071838379
0.026885986
0.082336426
-0.079650879
0.043670654
-0.067565918
-0.050140381
0.034484863
-0.014045715
0.081359863
-0.034118652
0.037841797
-0.067565918
-0.056976318
0.044158936
0.061401367
0.027893066
0.085998535
0.029083252
0.073547363
0.052124023
0.022827148
-0.048034668
-0.062011719
0.073974609
0.022338867
-0.034210205
0.039093018
0.03086853
0.073852539
0.071044922
-0.064208984
-0.064819336
-0.018035889
0.013427734
0.018188477
-0.083251953
0.0027999878
-0.062866211
-0.02003479
-0.029525757
0.046539307
0.052215576
0.084106445
-0.08215332
0.076904297
0.07989502
0.031219482
0.073364258
-0.084289551
-0.075439453
-0.049133301
0.082397461
-0.020294189
-0.084533691
0.024673462
-0.030761719
0.024856567
0.01133728
-0.03427124
-0.087219238
-0.048919678
0.053344727
0.019485474
0.071289062
-0.024978638
-0.039306641
-0.056610107
-0.074584961
-0.057647705
-0.011558533
0.064453125
-0.065612793
-0.056610107
-0.029876709
-0.052215576
0.08416748
0.0087738037
-0.062194824
0.044616699
0.04208374
0.071105957
0.041625977
-0.017105103
-0.038604736
0.077148438
-0.0096054077
-0.032409668
0.07598877
-0.04788208
0.03817749
0.0088348389
0.054595947
0.060852051
-0.014045715
-0.069274902
-0.027908325
-0.0033416748
0.054199219
-0.054351807
-0.046936035
-0.0073280334
0.0078887939
0.058563232
0.038299561
-0.033508301
-0.003320694
0.063537598
0.00091981888
0.071044922
-0.040008545
0.022644043
0.049530029
0.061309814
0.0087585449
-0.0019311905
0.055908203
-0.050598145
0.069152832
-0.040039062
0.075927734
-0.078430176
0.025360107
0.041137695
-0.049743652
0.021591187
0.058227539
0.078918457
0.043487549
-0.014152527
-0.080627441
0.029953003
-0.0096511841
0.039489746
0.075744629
0.040771484
-0.071594238
0.0094909668
-0.06060791
0.062744141
0.042236328
0.052764893
0.00522995
0.0065155029
-0.012039185
0.085510254
0.035369873
-0.0012264252
0.048522949
0.049377441
0.07623291
-0.056915283
-0.031555176
0.081420898
0.0042953491
0.0023288727
-0.058624268
0.083435059
-0.017929077
-0.078186035
0.087463379
-0.041931152
-0.048522949
-0.010681152
0.038787842
0.034881592
0.033905029
-0.078796387
0.079711914
0.043426514
-0.031707764
0.0081863403
-0.010414124
0.024230957
-0.030471802
-0.072998047
-0.025466919
0.0097808838
-0.060638428
0.0066642761
-0.020523071
0.011123657
-0.037231445
0.013336182
-0.053131104
-0.052398682
0.049224854
-0.016891479
-0.047729492
-0.051727295
0.027862549
0.066772461
0.027160645
0.015579224
0.082702637
0.035217285
-0.023406982
0.072265625
0.065490723
0.077331543
0.002702713
-0.067565918
-0.043823242
0.044891357
-0.022277832
-0.014686584
0.082885742
-0.022201538
0.0065803528
0.025497437
-0.0078887939
-0.046417236
-0.02015686
-0.079711914
-0.027908325
0.061706543
-0.08026123
-0.0097427368
0.010124207
-0.030105591
0.018798828
-0.0060882568
-0.0029811859
0.066223145
-0.0017347336
0.067077637
-0.02897644
-0.075195312
0.080505371
-0.056427002
-0.080993652
0.020080566
-0.077575684
-0.048309326
-0.054260254
-0.070373535
0.087402344
-0.064086914
0.055847168
-0.027679443
-0.065856934
0.057159424
-0.068054199
0.016387939
0.037506104
-0.0090789795
0.03717041
0.019485474
0.036529541
-0.066223145
-0.028656006
0.080078125
-0.00011885166
-0.068054199
0.055999756
-0.057495117
0.011749268
-0.0018434525
-0.049591064
0.0081253052
-0.027954102
0.058074951
-0.02696228
-0.057281494
0.025009155
0.051055908
-0.053070068
0.088378906
-0.041473389
-0.034729004
-0.046264648
-0.019760132
0.055603027
-0.013557434
0.014579773
0.018798828
0.0073127747
0.004940033
0.057342529
0.00022470951
-0.023452759
0.067687988
0.014686584
0.063476562
0.013038635
0.042327881
0.00048875809
0.023712158
-0.026428223
0.0021133423
0.070495605
0.059326172
0.014228821
-0.025543213
-0.024383545
0.0090255737
0.036956787
0.02961731
-0.055999756
0.079345703
-0.0083618164
0.046508789
-0.04309082
0.05859375
0.059112549
-0.083557129
-0.020889282
-0.03036499
-0.067016602
0.067260742
0.018234253
-0.072875977
-0.0032157898
0.05480957
0.02633667
-0.046722412
0.059539795
-0.062561035
0.00094270706
0.086730957
-0.014389038
0.083374023
0.047973633
0.013626099
0.021652222
0.048187256
-0.073364258
-0.045959473
-0.078430176
-0.071228027
0.047485352
0.063964844
0.046295166
-0.046295166
-0.050506592
0.00730896
0.049285889
-0.02986145
0.049316406
0.083740234
-0.024490356
-0.045135498
0.0047836304
0.076049805
0.042633057
-0.059570312
0.058868408
0.023544312
-0.019836426
-0.031005859
0.0048332214
0.057983398
-0.0092163086
0.052581787
0.042694092
-0.049713135
0.039764404
-0.011611938
0.047729492
-0.041229248
-0.029296875
-0.08795166
0.072387695
0.056488037
-0.069213867
0.012840271
0.062133789
-0.08605957
-0.041564941
0.079101562
-0.062042236
0.014404297
-0.025009155
0.021774292
-0.085205078
0.067626953
-0.019882202
-0.022689819
0.014076233
0.057861328
0.048706055
-0.040802002
0.043701172
0.039428711
-0.078796387
-0.080322266
0.085266113
-0.039916992
-0.032226562
-0.030029297
-0.037811279
0.0072784424
-0.023605347
-0.065917969
0.026535034
0.069274902
0.041717529
-0.0079727173
0.014518738
-0.071594238
-0.048400879
0.027770996
0.02671814
0.040557861
-0.034454346
0.054962158
-0.04864502
-0.079833984
-0.063537598
0.025558472
-0.061309814
0.070922852
-0.058807373
-0.068725586
0.0073051453
0.086608887
0.049255371
0.041259766
0.019577026
0.05368042
0.046417236
-0.0012922287
0.028945923
0.044158936
-0.01424408
0.0053443909
0.066711426
-0.074890137
-0.024856567
-0.047241211
-0.004447937
0.082580566
0.070922852
-0.043518066
-0.04598999
0.033355713
-0.0095062256
0.054595947
-0.071350098
-0.0023841858
0.032653809
0.078796387
-0.053253174
0.0083312988
0.04019165
-0.010894775
-0.064208984
-0.034362793
0.075744629
-0.028411865
-0.062988281
-0.042510986
0.028198242
-0.0048522949
-0.030303955
0.07989502
0.076599121
-0.019989014
0.059051514
0.054656982
-0.000223279
-0.048370361
-0.033111572
0.028808594
-0.0004427433
-0.0053443909
0.055206299
0.070800781
-0.020828247
-0.069458008
-0.044067383
-0.050109863
-0.084960938
-0.022598267
-0.056304932
-0.01802063
0.020996094
0.02003479
-0.057342529
-0.049530029
0.067321777
-0.08795166
-0.070617676
-0.034881592
-0.04776001
0.070617676
0.081359863
-0.056396484
-0.05166626
-0.018005371
-0.05090332
-0.01360321
0.062103271
0.023284912
-0.013290405
-0.0010709763
-0.034820557
0.043060303
-0.046203613
0.084411621
-0.05557251
-0.028167725
-0.0043907166
-0.025924683
0.0061645508
-0.072570801
-0.030319214
0.04486084
-0.063720703
0.038513184
-0.08782959
0.0014781952
-0.0073699951
0.062988281
0.075195312
0.0022830963
0.04888916
-0.054168701
0.068237305
0.047363281
-0.065673828
-0.052856445
-0.011306763
0.061340332
0.045135498
-0.024414062
0.029098511
0.042633057
0.0070838928
0.041473389
0.085021973
-0.030899048
-0.04977417
0.0039825439
0.048828125
-0.067871094
0.0067710876
0.036834717
-0.073852539
0.046905518
-0.0080337524
-0.034973145
0.066833496
-0.039916992
-0.04208374
-0.040527344
-0.027786255
0.080993652
-0.025283813
0.03918457
-0.073974609
0.0546875
-0.017944336
0.071105957
0.081848145
-0.048980713
-0.022171021
-0.0061683655
-0.032836914
0.0053634644
0.054290771
-0.043487549
0.032989502
0.051483154
-0.038818359
0.032745361
0.071350098
-0.073608398
0.010848999
0.04498291
0.047454834
-0.0070533752
0.084899902
0.081970215
0.073242188
-0.072753906
-0.087585449
-0.082946777
0.052062988
0.030838013
-0.059173584
-0.080627441
0.04699707
-0.08795166
-0.081054688
-0.066955566
0.062927246
0.078918457
-0.055847168
0.00036048889
0.013008118
-0.0082702637
-0.018478394
0.073913574
0.033935547
-0.041381836
0.019805908
0.018280029
-0.019836426
0.088134766
-0.02104187
-0.024612427
0.034210205
0.086120605
-0.022079468
-0.063659668
-0.018432617
-0.03729248
0.018325806
-0.0035095215
0.033782959
-0.080871582
-0.020141602
-0.056365967
-0.028045654
0.012611389
0.073242188
-0.054534912
-0.0049247742
0.023910522
0.02897644
-0.027999878
-0.010894775
0.076599121
-0.072937012
-0.077392578
-0.063293457
-0.034454346
-0.078430176
0.067260742
0.029327393
-0.047088623
-0.060791016
0.032043457
-0.022994995
0.0096817017
0.044158936
0.034576416
-0.068481445
-0.059906006
-0.0042915344
-0.052032471
0.0073699951
-0.07019043
0.080078125
-0.046539307
0.059753418
-0.026702881
-0.052246094
-0.03225708
0.0287323
0.086730957
-0.017837524
-0.086791992
0.028457642
0.071716309
0.018005371
-0.015319824
0.079589844
-0.060455322
0.020675659
-0.00023674965
0.024353027
0.085998535
0.011459351
0.069580078
0.06463623
-0.026748657
0.07623291
-0.078735352
-0.025054932
-0.0037555695
0.075927734
0.019332886
-0.066467285
0.023086548
-0.050689697
-0.024353027
-0.015045166
-0.047729492
-0.069580078
0.0060653687
0.020339966
0.037017822
-0.00032663345
0.081176758
-0.046905518
0.04510498
-0.032867432
0.042510986
-0.060211182
0.017105103
0.0091171265
-0.025421143
-0.023178101
0.050079346
0.022323608
-0.026229858
0.06854248
-0.033966064
0.082214355
0.055114746
-0.069274902
-0.031082153
0.0059967041
-0.044403076
-0.0020618439
-0.071105957
0.011932373
0.031463623
0.081726074
0.038208008
0.075378418
-0.080688477
0.059753418
0.039367676
-0.040771484
0.058746338
0.081665039
-0.032043457
0.068786621
-0.036712646
-0.084594727
0.0098724365
-0.0083770752
0.054748535
-0.02583313
-0.030105591
0.052307129
-0.067077637
0.029083252
0.016265869
-0.018676758
0.0051651001
0.0030632019
0.0077476501
0.0084152222
0.021179199
-0.0084762573
0.0058822632
0.086303711
0.0074539185
-0.032409668
-0.048950195
-0.075805664
0.0080413818
0.0044403076
0.036499023
-0.046844482
0.027770996
0.051574707
0.0055427551
-0.02130127
-0.084655762
0.049285889
-0.058258057
-0.085388184
-0.060668945
-0.0042953491
-0.0067100525
0.013145447
-0.046691895
-0.015083313
-0.030731201
-0.065429688
-0.07800293
0.071777344
0.073120117
0.0016317368
0.016952515
0.078979492
-0.01474762
0.050537109
-0.0051345825
-0.031524658
0.025695801
0.057647705
0.052032471
0.022872925
-0.04510498
0.069580078
-0.031005859
-0.026794434
0.086791992
-0.080200195
0.026016235
0.036132812
-0.013427734
-0.056884766
-0.076171875
-0.024765015
-0.031158447
0.075134277
-0.065002441
-0.088134766
0.012313843
0.026916504
-0.038452148
-0.069396973
0.048614502
0.01374054
0.086120605
0.065124512
0.048248291
0.043945312
0.049468994
0.031799316
0.054626465
0.071411133
-0.045257568
0.047271729
0.034057617
-0.067810059
0.01008606
0.029647827
-0.04598999
-0.086608887
0.077636719
0.058624268
-0.014152527
-0.069946289
-0.036621094
0.066589355
-0.039642334
0.026153564
-0.020935059
0.02154541
0.063964844
0.088134766
-0.014709473
-0.026443481
-0.0045547485
0.058319092
-0.086181641
0.016586304
0.014022827
0.028945923
-0.08770752
0.086303711
-0.08026123
0.052520752
-0.073242188
0.039642334
0.061065674
0.082336426
-0.010253906
-0.006893158
-0.043334961
-0.016036987
-0.019607544
0.07220459
-0.0072212219
-0.038360596
-0.033569336
-0.0063362122
0.029602051
-0.0091323853
0.016479492
0.038604736
0.082092285
0.044281006
0.019042969
0.02331543
0.021194458
-0.05871582
0.014503479
0.0072212219
-0.043762207
-0.027603149
-0.059997559
0.031738281
-0.010353088
0.067993164
0.07623291
-0.034179688
-0.078430176
0.080993652
-0.041412354
-0.046600342
0.04574585
-0.083740234
-0.042755127
0.010559082
0.013900757
-0.0037631989
0.008102417
-0.0063247681
-0.0066146851
-0.04498291
-0.00052118301
0.009979248
0.058380127
0.026977539
-0.015426636
0.073913574
-0.080505371
0.066040039
-0.079040527
-0.008605957
0.086730957
0.01133728
0.00070381165
-0.069885254
0.038604736
-0.0094299316
0.071228027
-0.0045051575
-0.058685303
0.013244629
0.028518677
-0.043548584
0.066772461
-0.031890869
0.057312012
0.026916504
-0.076049805
0.082885742
-0.022491455
-0.030776978
0.0054626465
0.04296875
0.046905518
0.062255859
-0.016799927
-0.041595459
-0.045623779
0.071228027
0.058898926
0.040679932
0.081115723
-0.026794434
0.085998535
0.031112671
-0.08380127
0.077148438
0.038330078
0.015884399
-0.077636719
0.01399231
0.0048942566
0.042541504
0.022201538
0.07220459
0.065917969
-0.067016602
-0.021499634
0.079772949
-0.018432617
-0.010307312
-0.013084412
-0.05178833
0.063232422
0.010368347
-0.035491943
0.083740234
0.026611328
0.07434082
-0.020599365
0.081115723
0.067749023
0.030349731
0.013839722
0.082641602
0.063659668
0.018981934
-0.043762207
-0.070678711
0.015762329
0.042877197
-0.0020256042
-0.017211914
0.08581543
-0.0010271072
-0.05581665
-0.0067367554
0.032928467
0.011146545
0.058563232
8.2731247e-05
0.0007815361
-0.05847168
-0.058319092
-0.00049543381
0.026397705
0.018035889
0.06628418
-0.055297852
0.048553467
0.038299561
0.013412476
-0.053009033
-0.044403076
-0.0287323
-0.063293457
-0.030563354
-0.046417236
-0.027069092
-0.0046882629
0.072387695
-0.06640625
-0.016906738
0.075256348
0.060119629
-0.066772461
0.011657715
-0.015823364
0.0099182129
0.07244873
-0.034790039
-0.061645508
0.0018215179
0.084350586
-0.013137817
-0.03918457
0.08190918
0.062927246
0.047332764
-0.081665039
0.030715942
-0.088256836
0.05078125
0.077026367
0.065185547
0.031402588
-0.037841797
0.030639648
0.049926758
0.053283691
-0.070861816
0.078796387
0.019744873
-0.023117065
0.038482666
-0.078430176
0.073303223
-0.03213501
-0.061431885
0.087219238
-0.046875
-0.039367676
0.022659302
-0.077392578
-0.0042076111
-0.077575684
-0.049560547
-0.087036133
0.07208252
-0.017852783
0.014389038
0.008605957
-0.065063477
-0.0048103333
-0.074707031
0.031311035
-0.014678955
-0.0065727234
-0.024841309
0.054351807
-0.013496399
0.05569458
0.024719238
-0.080749512
0.047821045
0.041809082
-0.051147461
-0.028320312
-0.08416748
0.043121338
-0.020675659
0.004108429
-0.071350098
0.005405426
-0.018783569
0.01991272
-0.016220093
-0.062286377
0.035430908
0.03302002
0.032440186
0.026824951
-0.033630371
-0.026077271
0.063110352
-0.0056533813
-0.084472656
-0.006778717
0.060760498
0.082580566
0.063354492
0.070739746
-0.030807495
0.027374268
0.083618164
-0.018615723
0.067504883
-0.0036010742
-0.071472168
0.061798096
0.0496521
-0.08782959
0.04208374
0.041870117
-0.0096817017
0.044067383
0.058563232
0.011123657
-0.058105469
0.061157227
0.031555176
-0.056030273
0.029296875
-0.029724121
0.0016050339
0.053955078
0.021057129
0.05078125
-0.017700195
-0.052093506
0.0023937225
-0.011001587
0.023010254
0.011245728
-0.042175293
0.044158936
0.057189941
-0.028762817
-0.027084351
-0.00098800659
0.050170898
-0.024215698
-0.083984375
0.007850647
-0.065307617
-0.078857422
0.047271729
0.07623291
0.078796387
0.073852539
0.015991211
0.051300049
-0.017730713
0.024108887
0.064147949
-0.061431885
0.049194336
-0.048522949
0.027435303
-0.021865845
-0.065979004
0.0057640076
0.012565613
-0.029159546
0.0340271
-0.032348633
0.029571533
-0.0098953247
0.061920166
0.02961731
-0.058349609
-0.068054199
-0.068054199
-0.086486816
0.026580811
-0.020111084
-0.024047852
0.039398193
-0.034240723
-0.020797729
-0.01146698
0.071960449
-0.080688477
0.04473877
-0.078979492
-0.074951172
-0.020706177
-0.038970947
-0.048370361
-0.0034427643
0.050445557
0.038696289
0.040802002
0.012084961
0.073913574
-0.053466797
0.044494629
0.052978516
-0.039520264
-0.063476562
-0.06640625
-0.0038928986
-0.07019043
-0.066833496
-0.04699707
0.025100708
0.031036377
-0.062103271
0.070129395
0.014045715
-0.082885742
-0.077270508
-0.071594238
-0.069580078
-0.022781372
-0.054473877
-0.059997559
0.020507812
0.072937012
-0.029907227
-0.042663574
-0.062805176
0.0055580139
-0.072021484
-0.044830322
-0.040252686
0.03314209
0.0059547424
0.07989502
-0.014038086
0.046234131
-0.082214355
-0.038269043
-0.010879517
-0.041595459
-0.019866943
-0.0020656586
-0.001200676
-0.0018262863
-0.055267334
0.03314209
0.033752441
0.033874512
0.012702942
-0.028060913
0.020004272
-0.036987305
0.047973633
0.025421143
0.04498291
-0.062561035
0.076660156
-0.024398804
-0.051544189
0.005153656
-0.048858643
0.08013916
-0.0083084106
-0.079162598
-0.054473877
-0.014823914
0.075805664
-0.077026367
0.05178833
-0.061157227
0.005657196
0.022003174
0.034606934
0.072753906
-0.047851562
0.013450623
-0.061187744
0.047485352
0.020751953
-0.036895752
0.058013916
-0.023864746
0.0013179779
-0.057617188
0.037628174
0.072021484
-0.033691406
0.073242188
0.067016602
0.034790039
0.04800415
-0.047790527
0.079406738
-0.024459839
-0.069946289
-0.074157715
-0.044250488
-0.058532715
0.064880371
-0.041595459
-0.0090103149
0.013656616
0.0085601807
0.011352539
0.021026611
-0.034484863
0.027923584
-0.088195801
-0.04800415
0.011299133
0.0074577332
0.057861328
0.012710571
0.023864746
-0.087646484
-0.016372681
-0.063049316
0.033477783
0.055603027
0.074035645
0.049682617
-0.0073394775
-0.0026435852
-0.031066895
0.071166992
-0.031585693
0.026046753
-0.040039062
0.049926758
-0.010520935
0.072021484
-0.073852539
0.014808655
0.04486084
0.054626465
-0.072387695
0.041687012
0.0098800659
0.0023670197
-0.011901855
0.027496338
0.00097084045
0.04397583
-0.081115723
0.077270508
-0.084289551
-0.037139893
-0.081237793
-0.079772949
-0.069885254
0.013648987
-0.013275146
0.00080108643
0.056304932
-0.016662598
-0.029312134
0.067138672
-0.030715942
-0.017807007
0.030273438
-0.058135986
-0.042572021
-0.015457153
-0.030822754
-0.019165039
0.05090332
-0.019699097
0.08581543
-0.042480469
0.079101562
-0.078552246
-0.051727295
0.021224976
0.059448242
0.0068092346
0.03527832
-0.0053939819
-0.082275391
-0.0088653564
0.077697754
-0.042053223
0.041625977
0.0087356567
0.087646484
0.073120117
0.0057182312
0.070922852
-0.035736084
-0.071228027
-0.068908691
0.082824707
0.078369141
0.04107666
0.070007324
-0.04598999
-0.0085220337
-0.081054688
0.065185547
0.015548706
-0.06854248
-0.035491943
-0.032592773
0.035064697
0.069946289
-0.011398315
-0.022964478
-0.017745972
-0.00096416473
-0.02532959
0.055114746
0.057128906
-0.0094299316
0.068054199
-0.067565918
0.054382324
-0.027404785
-0.047821045
0.030014038
-0.059020996
0.054351807
-0.033050537
-0.058898926
0.072631836
-0.062988281
0.012374878
0.06137085
0.070251465
0.06048584
-0.056152344
0.037231445
0.083740234
-0.0011329651
-0.085449219
-0.045379639
-0.004989624
-0.01940918
-0.0049629211
-0.078369141
-0.04397583
0.017700195
-0.04208374
-0.063659668
0.07220459
0.079589844
-0.017089844
-0.055877686
0.053222656
-0.07824707
-0.086547852
-0.030990601
-0.074401855
0.066467285
-0.0023403168
-0.064025879
-0.0020961761
-0.020141602
0.047027588
0.040496826
0.063110352
0.038299561
-0.05581665
0.01902771
0.028335571
-0.010482788
0.079040527
-0.05480957
0.015113831
0.056945801
-0.066894531
0.041900635
0.062927246
-0.035308838
-0.07598877
-0.0023899078
0.042694092
0.055084229
0.035705566
0.031707764
0.027145386
-0.0020599365
0.043212891
0.077026367
-0.066101074
0.087524414
0.0092086792
-0.069152832
0.056976318
0.045074463
-0.031799316
0.073608398
0.048400879
0.030105591
0.0074424744
-0.066650391
0.074951172
-0.0032539368
-0.0085525513
-0.078491211
0.024398804
-0.047332764
-0.08013916
0.043579102
0.0010995865
-0.049468994
0.057617188
-0.0028324127
0.048065186
0.071044922
0.015487671
0.020401001
0.009979248
-0.037017822
0.035705566
0.052642822
-0.058532715
-0.058746338
-0.0062026978
-0.021881104
-0.06161499
0.041412354
-0.024993896
-0.084228516
0.074707031
-0.043914795
0.028320312
0.0042762756
-0.011291504
0.028213501
-0.085754395
0.018203735
-0.060028076
0.018600464
0.073181152
-0.030456543
0.082885742
0.084899902
-0.076904297
0.086242676
-0.021194458
0.005657196
0.075256348
-0.080078125
-0.059051514
-0.0060424805
-0.086181641
-0.07220459
-0.058837891
-0.041870117
0.047302246
-0.04598999
0.02154541
-0.053253174
0.032409668
-0.066833496
-0.058410645
0.044555664
-0.032196045
0.033996582
0.023147583
0.087524414
-0.054107666
0.063537598
-0.041229248
-0.0037155151
0.0023479462
-0.083312988
0.047058105
-0.068786621
0.081298828
0.082641602
0.051940918
-0.017623901
-0.028366089
-0.087524414
-0.027252197
0.07434082
-0.053161621
0.084594727
0.016525269
0.013916016
0.039703369
0.020401001
-0.025009155
0.020996094
0.045227051
-0.084960938
-0.038238525
-0.017929077
-0.04510498
-0.0390625
0.012115479
-0.011238098
0.023544312
0.03527832
-0.050720215
0.072814941
-0.0020103455
0.049530029
0.03692627
0.052215576
-0.060791016
-0.052154541
0.019607544
0.06854248
0.050079346
0.069885254
-0.010314941
0.012023926
-0.040802002
-0.027511597
0.031494141
-0.0069046021
-0.038726807
0.066833496
0.066772461
0.051513672
0.028701782
-0.057250977
-0.010597229
-0.012031555
-0.04888916
0.038513184
0.067016602
0.032684326
-0.069885254
0.059936523
-0.016448975
-0.029495239
0.025482178
0.065612793
-0.017471313
0.04284668
0.015296936
0.0088424683
0.003036499
-0.072875977
0.01473999
0.010528564
0.0011501312
0.041259766
-0.018249512
-0.069396973
0.011695862
-0.063537598
0.061401367
-0.040588379
-0.010856628
-0.023956299
0.027832031
0.061920166
-0.048828125
-0.07220459
-0.069152832
-0.064086914
0.047576904
-0.088134766
0.069152832
-0.071838379
-0.0083312988
0.044464111
-0.0094833374
0.040130615
-0.016174316
-0.034851074
-0.037414551
-0.081176758
0.037719727
0.014907837
-0.066101074
-0.0013513565
-0.035736084
-0.051330566
-0.035644531
0.050689697
-0.05178833
0.048156738
0.010383606
-0.066223145
0.044952393
-0.036468506
0.063537598
0.079162598
0.082092285
-0.050354004
0.071838379
-0.026382446
0.061584473
0.065673828
-0.058197021
0.078613281
-0.040466309
-0.052215576
-0.0082015991
0.00015938282
-0.001748085
0.0069694519
-0.0010175705
-0.038879395
0.06463623
0.072143555
0.085754395
0.082580566
0.053924561
0.061340332
-0.087524414
0.055908203
-0.077270508
-0.020828247
0.034057617
0.050079346
-0.036224365
-0.087402344
0.059844971
-0.032928467
0.037902832
0.052032471
0.0097503662
0.080383301
-0.084472656
0.02746582
0.00046014786
-0.084777832
0.083068848
0.078063965
-0.073364258
0.038391113
-0.023086548
0.082885742
0.065246582
-0.052825928
-0.036407471
0.067871094
-0.04019165
0.035064697
-0.029953003
-0.072937012
-0.052215576
0.00027346611
-0.067077637
0.082458496
-0.073974609
-0.0064468384
0.0033683777
-0.041931152
-0.025787354
-0.044708252
0.073669434
0.051391602
0.068603516
-0.04486084
0.063781738
-0.02104187
-0.0013408661
-3.862381e-05
0.0051689148
0.027694702
0.017379761
-0.041992188
-0.02571106
-0.042358398
-0.042999268
0.041778564
0.044525146
-0.031707764
-0.044586182
-0.015525818
-0.039916992
0.016784668
0.067810059
0.0040397644
0.07611084
-0.038696289
0.056427002
-0.045684814
-0.05770874
-0.030014038
-0.05947876
-0.042907715
0.0088043213
0.013969421
-0.081237793
0.052185059
-0.061462402
0.068725586
0.078918457
0.035583496
-0.014312744
-0.08026123
-0.02557373
0.0042648315
-0.059783936
0.011856079
0.056549072
0.0072822571
0.03503418
-0.047332764
-0.0027294159
0.058044434
0.073242188
-0.06628418
-0.010292053
0.061553955
0.061889648
-0.068481445
0.087402344
0.084960938
-0.056213379
-0.0098648071
0.08026123
0.072875977
0.077575684
-0.040222168
-0.055755615
0.086914062
0.074523926
0.0043067932
-0.040222168
0.0050506592
-0.065002441
-0.068603516
-0.044250488
-0.039764404
0.075073242
-0.016937256
-0.058807373
0.014335632
-0.0029029846
0.077331543
0.063415527
-0.043823242
0.01524353
-0.082885742
0.0074958801
0.0025882721
-0.072753906
-0.041564941
0.033203125
0.036804199
0.026184082
-0.039978027
-0.083618164
-0.071716309
0.0058364868
0.050994873
-0.015991211
0.077575684
-0.003282547
0.083251953
-0.04006958
0.032562256
0.057952881
0.072143555
-0.084838867
0.040802002
0.077575684
-0.046112061
0.083984375
-0.086975098
-0.020889282
0.022323608
-0.04876709
0.021194458
-0.058990479
0.076599121
0.0041809082
0.077880859
-0.0020465851
0.073486328
0.0071182251
0.034088135
-0.038757324
-0.055114746
-0.04309082
-0.060394287
0.066345215
-0.084960938
-0.022399902
0.0042076111
-0.057342529
-0.053344727
-0.027511597
-0.064025879
-0.070800781
-0.020019531
-0.072143555
-0.066711426
-0.055114746
0.08416748
0.075317383
0.028945923
-0.033050537
-0.02482605
0.058929443
-0.046905518
0.048919678
0.082763672
-0.031921387
0.013069153
0.073059082
-0.072937012
0.018157959
-0.042022705
-0.031890869
0.087219238
0.066894531
0.031921387
0.065124512
0.088317871
0.038513184
-0.044250488
0.017471313
0.014190674
0.0076980591
-0.011222839
0.022613525
-0.074523926
0.028320312
-0.078491211
0.045593262
0.05291748
-0.022476196
0.018783569
0.014602661
0.086853027
0.012046814
0.019454956
-0.009727478
0.069824219
-0.020050049
-0.041717529
0.077331543
0.021270752
0.034606934
-0.017700195
0.026657104
0.0089645386
-0.024734497
-0.065612793
0.024429321
-0.060302734
-0.086364746
0.071411133
0.078857422
-0.033630371
-0.077697754
-0.071044922
-0.020385742
-0.071228027
0.043457031
0.088256836
-0.062988281
0.021408081
0.043609619
-0.024795532
0.035705566
0.015029907
0.064941406
-0.051239014
-0.058258057
-0.044189453
-0.043212891
-0.025497437
0.03314209
0.038238525
0.013381958
-0.051361084
0.08782959
0.079406738
0.026977539
-0.062255859
-0.0015420914
0.08605957
-0.080993652
0.061340332
-0.046600342
-0.082458496
0.00053119659
0.055053711
-0.0034389496
0.059906006
-0.016494751
-0.074035645
0.075012207
0.031982422
0.039916992
0.072631836
0.012527466
-0.07824707
0.065063477
-0.034729004
0.0071372986
-0.085266113
-0.080383301
-0.068603516
-0.038787842
-0.03515625
0.087097168
-0.014778137
0.011436462
-0.042388916
-0.050628662
0.04586792
0.046173096
0.06463623
-0.0026683807
0.001540184
-0.064025879
0.020553589
-0.068786621
0.061523438
-0.069885254
0.03793335
-0.0099563599
0.057495117
-0.055084229
0.075012207
-0.057098389
-0.038879395
-0.053375244
0.023269653
0.059997559
0.071777344
-0.052520752
-0.01197052
0.07434082
-0.0059738159
-0.087768555
0.029342651
0.048950195
0.023742676
0.012641907
-0.044647217
0.05166626
-0.037414551
0.075134277
0.067871094
-0.0088882446
-0.0029201508
0.086120605
-0.0090026855
0.088256836
0.065368652
0.019210815
0.027694702
0.051971436
-1.8537045e-05
0.035736084
-0.056610107
-0.042297363
-0.08392334
-0.086303711
0.046905518
0.082641602
0.07208252
-0.022827148
-0.077514648
-0.046905518
0.069152832
0.029571533
-0.060455322
-0.04006958
0.016601562
0.038146973
0.074584961
0.079162598
-0.059112549
-0.065734863
0.062316895
-0.010154724
0.042602539
0.0062446594
-0.069335938
0.034637451
-0.058410645
-0.067626953
-0.035675049
-0.081970215
0.0086212158
0.029998779
0.0015573502
0.01625061
-0.075561523
-0.0019626617
-0.068908691
-0.0097351074
-0.00806427
0.041351318
0.01209259
0.025924683
0.025894165
0.059844971
-0.067443848
0.047729492
0.00061750412
0.032073975
-0.037261963
-0.06237793
0.0053596497
-0.07800293
0.086547852
-0.086120605
0.02255249
-0.027862549
-0.086914062
0.07824707
-0.016860962
-0.084411621
-0.072143555
-0.077636719
0.071411133
0.013908386
0.073486328
-0.029129028
0.082641602
-0.011581421
-0.020401001
0.061584473
-0.019851685
-0.036773682
-0.015029907
0.0011072159
0.061676025
-0.046875
0.069519043
0.06854248
-0.082214355
0.00045204163
0.065795898
0.082946777
-0.079956055
0.045471191
0.048248291
0.019485474
-0.013710022
0.040557861
0.068481445
-0.058563232
-0.061950684
0.086120605
0.077087402
0.017669678
0.039154053
-0.033569336
-0.055603027
0.062927246
-0.029373169
0.086547852
-0.018585205
-0.02180481
-0.074401855
-0.046173096
0.020339966
-0.07220459
0.075073242
-0.018981934
0.016708374
-0.03137207
0.082946777
-0.040374756
-0.010749817
-0.030181885
-0.015304565
0.02696228
-0.039703369
-0.052337646
-0.0043640137
0.012191772
-0.084350586
-0.020812988
-0.067077637
-0.014671326
0.02293396
0.012329102
0.024185181
-0.0052680969
0.036834717
0.059356689
0.063537598
-0.00083732605
0.028594971
-0.079528809
-0.013244629
0.021896362
0.067871094
-0.041229248
0.031402588
-0.016693115
0.075561523
0.036956787
0.087158203
0.0027885437
-0.0069313049
-0.073608398
0.017196655
0.067993164
-0.050964355
-0.0080566406
0.0032272339
0.022567749
-1.9729137e-05
-0.07989502
-0.063232422
-0.057861328
-0.066833496
0.069396973
-0.039642334
0.067749023
0.021774292
0.067138672
0.021011353
-0.017089844
0.007144928
-0.034790039
0.067199707
-0.056945801
-0.082885742
-0.013427734
-0.059417725
0.017868042
0.052307129
0.084411621
0.085754395
-0.047576904
0.080505371
-0.063720703
-0.038330078
-0.023544312
-0.0014629364
0.063842773
0.062561035
-0.08795166
-0.05267334
-0.081054688
-0.069030762
0.067932129
-0.08026123
0.031616211
-0.032653809
-0.059112549
0.022415161
0.079528809
0.02822876
-0.024337769
0.04776001
0.062866211
-0.036773682
0.031555176
0.0037250519
0.036956787
0.074951172
-0.077697754
-0.010719299
-0.042999268
-0.0082397461
0.048278809
-0.073669434
0.039703369
-0.026748657
-0.031433105
0.0085220337
-0.07824707
0.057525635
-0.011238098
0.040649414
-0.019271851
0.0012540817
0.086120605
0.069519043
0.033294678
0.078918457
0.052764893
-0.081726074
-0.015510559
-0.080444336
0.017562866
-0.055389404
-0.046142578
-0.060058594
-0.012039185
0.077636719
0.062927246
-0.051574707
-0.04095459
-0.041473389
0.057159424
-0.018936157
-0.053161621
-0.078857422
0.018264771
-0.02154541
0.037567139
-0.055023193
-0.010604858
-0.057983398
0.0025749207
0.06640625
-0.065612793
-0.073059082
0.057678223
0.06652832
0.03817749
0.066345215
0.049530029
0.0065307617
-0.02243042
0.043792725
0.020431519
0.025527954
-0.025741577
0.031066895
0.057403564
0.081970215
-0.070922852
-0.087646484
0.029312134
0.076293945
0.025299072
0.07244873
-0.032073975
-0.073791504
0.035705566
-0.031555176
0.08404541
-0.070617676
-0.08581543
0.014762878
0.084594727
0.002658844
-0.036102295
0.012756348
0.063659668
-0.071105957
0.02645874
-0.072937012
-0.040344238
0.078552246
0.019821167
-0.057250977
-0.075378418
-0.0018854141
0.053039551
-0.020904541
0.023849487
0.011207581
-0.048095703
0.078369141
0.079101562
0.077148438
0.021316528
-0.063964844
-0.0418396
-0.046966553
0.060150146
-0.060302734
0.048614502
0.082092285
-0.086608887
0.019500732
0.084838867
-0.060211182
-0.025222778
0.062286377
0.013420105
0.059387207
-0.073425293
-0.065002441
0.048614502
0.076782227
-0.028747559
0.0076408386
-0.0096130371
0.033905029
0.069030762
0.032958984
-0.083496094
0.0082244873
-0.030059814
-0.036468506
-0.076599121
-0.05947876
-0.019104004
-0.088195801
0.076171875
0.070617676
0.065063477
0.075256348
-0.045928955
-0.014732361
-0.060211182
0.06628418
-0.017333984
-0.07244873
0.008140564
0.060180664
0.028503418
-0.0089645386
-0.064941406
0.081726074
0.0057487488
-0.084350586
-0.050567627
-0.029586792
0.031951904
-0.015853882
0.0043067932
-0.038116455
-0.080932617
0.012702942
-0.042999268
-0.081726074
-0.013755798
-0.073059082
-0.067382812
-0.036193848
-0.07989502
0.085754395
-0.051849365
-0.071838379
0.056976318
-0.082336426
-0.048492432
0.038879395
-0.050079346
0.055389404
-0.040283203
0.061279297
0.07220459
-0.0037345886
0.08416748
-0.0042190552
0.064941406
-0.02243042
0.054534912
0.024505615
-0.0032424927
0.084289551
0.067687988
-0.083435059
0.066589355
0.022979736
0.010299683
0.00063276291
-0.077819824
0.063537598
-0.0035018921
-0.014480591
0.043945312
0.010856628
0.087890625
0.072875977
0.046966553
-0.086669922
-0.0097961426
-0.049713135
0.085998535
0.013183594
0.024765015
0.0094833374
0.07623291
-0.075927734
0.077148438
0.034637451
-0.017089844
0.074279785
0.072143555
-0.068115234
0.085021973
0.051086426
0.016693115
0.0046424866
0.086303711
-0.048309326
-0.065979004
0.06463623
0.032989502
-0.027893066
0.06652832
0.025726318
-0.015304565
-0.034454346
0.055145264
0.00036883354
0.027908325
0.076965332
-0.025436401
-0.024810791
0.027770996
0.015228271
0.026092529
-0.02822876
-0.075622559
-0.038696289
-0.021484375
0.054748535
0.035888672
0.0262146
-0.065673828
0.06829834
0.060089111
0.069335938
-0.034606934
-0.076843262
-0.014526367
0.072875977
-0.018875122
0.031463623
-0.075927734
0.069030762
-0.0024757385
0.034301758
0.049255371
-0.07623291
-0.055236816
0.0097198486
-0.019546509
0.05581665
-0.046844482
0.018157959
-0.055328369
-0.0048294067
-0.080383301
-0.0095443726
-0.068115234
0.051879883
0.053436279
-0.0025920868
-0.035095215
-0.069274902
0.019561768
0.031036377
0.044433594
0.056976318
-0.057037354
0.026260376
-0.078735352
0.028717041
0.073425293
-0.061218262
0.024185181
0.0087814331
0.055725098
-0.0082931519
0.08001709
-0.073669434
0.021118164
-0.031707764
0.073547363
0.047851562
0.054504395
0.039581299
-0.039733887
0.086730957
-0.072143555
0.040313721
0.068725586
-0.032928467
-0.050964355
0.032501221
0.086547852
0.051757812
0.067321777
0.040405273
-0.049987793
0.005821228
0.01373291
-0.022415161
-0.033843994
-0.037963867
-0.051757812
-0.046020508
-0.059509277
0.0083084106
-0.063293457
-0.038604736
-0.0089645386
0.0020980835
-0.085449219
-0.079284668
0.0025177002
-0.054077148
-0.059967041
-0.040649414
0.019790649
0.048675537
0.076843262
-0.056610107
-0.025100708
0.0062026978
0.079711914
0.060119629
-0.0030059814
0.025268555
0.067687988
0.084594727
0.034057617
0.059082031
0.026702881
0.056365967
0.064575195
0.034942627
-0.044219971
-0.056274414
-0.037994385
-0.00070476532
-0.051818848
0.020263672
0.012138367
0.03604126
0.065063477
0.01184845
0.0034770966
0.022857666
-0.020935059
-0.01197052
0.062133789
0.022232056
0.078979492
0.0068855286
-0.015129089
0.074890137
0.085510254
0.080078125
0.01109314
-0.037628174
-0.037261963
-0.01512146
0.012832642
0.0051078796
0.062011719
0.039031982
-0.030944824
0.052032471
0.022857666
-0.04083252
-0.040344238
-0.073547363
-0.012580872
0.029373169
0.0011606216
0.0064620972
0.026077271
-0.033935547
-0.036834717
-0.0096817017
0.081237793
-0.077880859
0.01285553
0.0090866089
-0.010025024
-0.008102417
-0.0069313049
-0.017486572
0.087097168
0.054473877
-0.039611816
0.078735352
-0.074401855
-0.087158203
-0.041412354
0.0028266907
-0.015975952
0.082336426
0.027832031
0.011688232
0.06652832
-0.047912598
-0.0012559891
-0.069946289
-0.070068359
0.029037476
-0.053649902
0.046447754
0.081359863
0.039886475
-0.057861328
-0.00049257278
0.049163818
0.01651001
-0.086486816
-0.0069961548
0.0014877319
0.01083374
-0.079772949
0.032653809
-0.072631836
0.041168213
-0.050140381
-0.079223633
0.0016546249
-0.086914062
-0.038970947
-0.046203613
0.021362305
0.001077652
-0.023971558
0.020217896
-0.057495117
-0.028244019
0.063476562
-0.04574585
-0.042022705
0.053405762
0.037780762
0.082397461
0.024673462
-0.014305115
0.014373779
-0.019332886
0.060058594
-0.03729248
0.017044067
-0.015075684
-0.047485352
0.043670654
0.075683594
-0.080322266
-0.02041626
-0.0072669983
0.023422241
0.066101074
0.080566406
-0.026535034
-0.058044434
0.0052947998
0.003446579
-0.079467773
0.010421753
0.040313721
0.078674316
0.040740967
0.076293945
-0.002117157
-0.079284668
0.087585449
-0.0012845993
-0.076538086
-0.0013694763
0.012687683
0.07434082
-0.067626953
-0.003528595
-0.054077148
0.040008545
-0.056762695
-0.059020996
-0.044311523
0.017074585
0.00390625
-0.072509766
-0.061035156
-0.061126709
0.051483154
-0.058532715
0.047180176
0.046661377
-0.058990479
0.081420898
-0.081237793
0.020614624
0.075561523
0.054626465
-0.0037021637
0.020584106
0.0047073364
-0.069641113
0.064331055
0.037414551
0.050994873
0.084777832
0.086181641
0.02255249
0.066589355
-0.023666382
-0.0043296814
0.033966064
0.042510986
-0.019439697
-0.0019178391
-0.011688232
0.073242188
-0.062866211
-0.044891357
-0.064758301
-0.036346436
0.037628174
-0.054443359
0.043609619
0.025177002
-0.056793213
0.087646484
-0.011238098
0.052093506
-0.074951172
-0.059387207
-0.045257568
-0.059143066
0.010131836
-0.073547363
-0.047180176
-0.036560059
0.011505127
-0.012825012
0.042816162
0.050476074
0.013290405
-0.022125244
0.046386719
0.049072266
-0.0063438416
-0.0098419189
0.0081176758
0.025680542
0.071044922
0.019897461
-0.085388184
-0.041137695
0.004737854
0.080627441
-0.0042991638
-0.087646484
0.080383301
0.050537109
0.037597656
-0.085876465
0.063415527
-0.078674316
-0.011314392
-0.011024475
0.028121948
-0.0095291138
-0.029815674
-0.042785645
0.071655273
0.042449951
-0.031890869
0.051269531
-0.061920166
0.062866211
-0.013778687
0.018035889
-0.0034751892
0.053466797
0.071105957
-0.057861328
0.039520264
0.06427002
0.04284668
-0.053924561
0.065185547
-0.076171875
-0.081054688
0.00094175339
-0.024887085
0.019210815
-0.049957275
-0.016983032
0.062164307
-0.0088043213
0.064697266
0.059539795
-0.035858154
-0.0024776459
-0.055206299
0.067382812
-0.016052246
-0.0088577271
0.0088653564
0.045928955
-0.085388184
0.014198303
-0.083251953
-0.049438477
-0.071838379
0.00045585632
0.077392578
-0.055877686
0.00089693069
0.072570801
-0.064819336
0.0074653625
0.052581787
0.086486816
0.0070266724
-0.074401855
0.073608398
0.05581665
0.021209717
0.065551758
-0.074768066
0.05670166
0.036804199
0.016876221
-0.051269531
-0.0084686279
-0.012123108
0.086486816
-0.039459229
-0.0287323
0.041748047
0.056396484
0.0058555603
0.003616333
-0.076843262
-0.049133301
-0.018325806
0.0234375
0.063781738
-0.018936157
0.08013916
-0.085021973
-0.068969727
-0.00087928772
0.04196167
-0.043823242
0.037963867
0.047363281
-0.075561523
-0.014427185
0.053833008
0.080810547
-0.055358887
-0.039581299
-0.050109863
0.033233643
0.084289551
0.063110352
0.067260742
-0.0093460083
-0.057403564
0.039611816
0.036437988
0.0055046082
0.049499512
-0.045959473
0.059967041
-0.020309448
0.0010356903
0.036621094
-0.085998535
0.028305054
-0.02281189
-0.014137268
0.011947632
0.063842773
0.020111084
-0.0052108765
-0.060760498
0.056640625
0.0022792816
-0.0036010742
-0.08581543
0.0046043396
-0.046447754
0.022613525
0.0057067871
-0.028533936
0.0013866425
0.010757446
0.079650879
0.045562744
0.06640625
0.048461914
0.015220642
-0.051300049
0.022338867
0.0046768188
0.017501831
0.05682373
0.061553955
0.053741455
-0.075866699
-0.036407471
-0.015174866
0.053039551
-0.014923096
0.08770752
-0.061279297
0.08416748
-0.012428284
0.00095558167
-0.012542725
0.013526917
-0.066589355
0.079467773
0.010345459
-0.085632324
0.027191162
-0.024795532
0.015525818
0.054107666
0.066345215
-0.038330078
0.077575684
0.06829834
-0.009475708
0.078308105
-0.02432251
-0.066162109
-0.073303223
-0.041748047
-0.024169922
-0.086547852
0.08001709
-0.080566406
0.041564941
0.021697998
-0.029098511
0.035217285
0.026733398
-0.010345459
-0.01701355
-0.049316406
-0.043640137
-0.030517578
0.030380249
-0.076049805
-0.0089645386
-0.075500488
-0.048126221
-0.019821167
0.00034213066
-0.0088272095
0.0055999756
0.029067993
-0.0051040649
-0.069396973
-0.058654785
-0.048278809
-0.028411865
0.052337646
0.035308838
-0.077575684
-0.024307251
0.0418396
-0.00088691711
-0.078491211
0.071533203
0.04864502
-0.067077637
-0.01159668
0.026916504
-0.024139404
0.017593384
-0.0063209534
0.087402344
-0.046112061
0.041046143
0.026092529
0.026870728
-0.02835083
0.0034751892
-0.029434204
-0.072692871
-0.083129883
-0.043823242
0.064025879
-0.064819336
-0.073852539
0.077514648
0.0060119629
-0.033172607
-0.046051025
-0.050048828
0.080627441
-0.0092086792
-0.086853027
-0.059783936
-0.0052871704
-0.00087213516
0.042999268
0.0076332092
0.0065879822
0.088378906
-0.083374023
0.049682617
-0.084960938
0.080200195
-0.040893555
0.039367676
0.077575684
-0.04296875
0.0033912659
-0.0049362183
-0.074157715
0.06161499
0.051696777
-0.084594727
0.059417725
-0.086181641
-0.041625977
0.030105591
0.074523926
0.054748535
0.039337158
0.015274048
0.02041626
-0.045715332
-0.052825928
-0.041900635
-0.013267517
0.0625
-0.017364502
0.016067505
0.0092086792
0.013145447
0.007610321
0.060241699
0.029663086
0.067871094
0.025375366
-0.046142578
-0.066589355
-0.0014429092
0.085083008
0.026535034
-0.025802612
-0.026672363
-0.038635254
-0.066223145
0.044769287
-0.0070152283
0.0076560974
0.070129395
0.057403564
-0.024658203
0.034423828
0.078735352
0.044158936
0.085571289
0.04397583
0.057861328
-0.063049316
0.083679199
0.073791504
-0.077331543
0.061737061
0.028091431
0.013427734
-0.067138672
0.0039520264
0.062469482
0.056945801
0.019210815
-0.08380127
0.079711914
0.062347412
0.011268616
0.04119873
-0.050292969
0.059020996
-0.073486328
0.021759033
0.05645752
0.07824707
-0.07220459
-0.07220459
-0.041717529
0.011184692
-0.063537598
-0.084228516
0.0060539246
0.0047111511
0.061157227
-0.028686523
-0.0039749146
0.038146973
-0.013442993
0.029129028
0.083312988
-0.064758301
0.078979492
0.02116394
-0.030090332
0.055175781
0.064758301
-0.068481445
-0.067260742
-0.066589355
-0.031799316
-0.037597656
-0.048400879
0.044342041
0.050689697
0.016708374
0.069885254
0.042541504
-0.021972656
0.053314209
0.076477051
0.025543213
0.083374023
0.028900146
0.032684326
0.018783569
0.031555176
0.081176758
0.004901886
-0.013038635
0.039978027
0.080688477
0.08605957
0.024414062
0.0079650879
0.065429688
-0.027648926
0.069641113
-0.032562256
-0.014167786
0.01991272
-0.04977417
-0.054504395
-0.00020706654
0.040802002
-0.034332275
0.050079346
-0.0030555725
-0.047241211
-0.087890625
-0.0128479
0.0068206787
-0.0094833374
-0.041473389
0.061737061
0.015510559
0.071105957
-0.034637451
0.054382324
0.068847656
-0.013633728
0.022399902
0.01725769
0.020812988
-0.056365967
-0.028396606
0.0073318481
-0.021209717
0.063781738
-0.0033340454
0.025619507
0.040100098
-0.007194519
-0.0089874268
0.025131226
0.0076332092
-0.030151367
0.0012865067
-0.0053520203
-0.0052566528
0.010192871
-0.086120605
0.025421143
0.04107666
0.010154724
0.023071289
-0.072631836
0.062469482
-0.076965332
-0.022888184
0.073120117
0.078308105
-0.013336182
0.033233643
0.023101807
-0.029724121
0.022827148
0.011428833
-0.0043258667
-0.0047302246
0.070495605
-0.086303711
-0.066772461
-0.025344849
0.011581421
0.082519531
0.013084412
0.023712158
0.046508789
0.042816162
-0.038208008
0.056976318
-0.079467773
0.035400391
-0.051635742
0.023025513
0.071533203
0.067565918
0.022064209
0.04901123
-0.049835205
-0.045196533
0.009437561
0.0048141479
-0.024490356
-0.0050582886
0.082336426
-0.081726074
-0.038757324
0.08001709
0.0066375732
0.027481079
0.058990479
0.04776001
-0.054168701
0.085754395
0.051879883
-0.029464722
0.0065612793
-0.020874023
0.065002441
0.07824707
0.017333984
0.046020508
0.074279785
-0.055450439
0.045288086
0.036865234
0.011657715
-0.084411621
0.0023059845
0.076171875
0.0099411011
0.01789856
-0.036712646
0.054473877
0.070129395
0.03918457
-0.070251465
-0.0061645508
-0.052001953
-0.035705566
-0.078735352
0.078491211
-0.083068848
0.084289551
-0.055908203
-0.080932617
-0.041015625
0.039550781
0.045623779
0.08392334
0.036102295
0.058532715
0.025405884
-0.077087402
-0.027084351
-0.00831604
-0.083557129
-0.04196167
-0.068603516
0.046478271
0.034240723
0.017959595
0.033447266
0.045349121
-0.087524414
-0.073730469
-0.05279541
-0.0087203979
-0.0015974045
0.0044746399
0.0035228729
-0.034301758
0.027877808
0.0010194778
-0.018768311
-0.0094528198
-0.066833496
0.038513184
-0.083068848
0.003068924
0.066040039
-0.0046653748
0.023300171
0.079345703
-0.077819824
0.064819336
0.075073242
-0.050689697
-0.020492554
-0.057830811
-0.013084412
-0.072631836
0.0022373199
0.064025879
-0.020584106
0.068481445
-0.058013916
0.041564941
0.050201416
0.024993896
-0.085144043
-0.037261963
-0.024398804
-0.03729248
-0.0024547577
0.030593872
-0.086486816
0.044616699
-0.087036133
-0.049133301
0.077331543
0.037475586
0.02154541
0.06137085
-0.085205078
-0.015487671
0.048248291
-0.02394104
0.012924194
0.004070282
-0.047637939
0.0017843246
0.035705566
-0.057281494
-0.013244629
-0.012870789
-0.075439453
0.020980835
-0.04107666
-0.068237305
-0.042022705
-0.058959961
-0.028656006
-0.042388916
-0.046508789
0.028671265
0.053405762
-0.00048208237
0.078674316
-0.013931274
0.013885498
-0.040985107
0.063659668
-0.065490723
-0.037384033
0.019958496
-0.036590576
-0.064453125
-0.060760498
-0.055999756
-0.074829102
0.026916504
-0.086730957
0.023681641
0.087158203
0.061706543
0.084655762
-0.040435791
-0.026702881
-0.025680542
-0.032897949
0.0086593628
-0.01109314
-0.014335632
0.050689697
-0.038085938
-0.049194336
-0.027618408
-0.072937012
0.018035889
-0.012168884
0.0050086975
-0.042602539
-0.024383545
-0.0055236816
-0.0011787415
0.045196533
-0.057312012
0.016265869
0.040252686
-0.062194824
0.011619568
0.016769409
0.015342712
-0.051879883
-0.069946289
0.0084533691
-0.045837402
0.06439209
0.059844971
-0.033416748
0.0055160522
-0.027511597
-0.050262451
0.021484375
0.038330078
-0.065490723
0.05368042
-0.039154053
-0.041351318
0.08380127
-0.071472168
0.0011997223
-0.016616821
0.045379639
-0.068786621
-0.080932617
0.027282715
-0.085144043
0.0097198486
-0.04486084
-0.054931641
-0.073730469
0.019271851
0.020095825
0.066101074
0.044494629
-0.029647827
0.052001953
-0.078979492
-0.034301758
-0.029205322
-0.058502197
-0.055328369
0.011413574
0.077697754
0.067077637
0.069885254
-0.012809753
0.0041313171
-0.030578613
-0.022109985
-0.082397461
-0.060424805
0.0054016113
-0.04119873
0.063476562
-0.055480957
0.071594238
0.042053223
0.002040863
-0.040344238
0.040863037
-0.045501709
0.05581665
0.046386719
-0.054260254
0.0091247559
-0.007686615
0.0062713623
0.01184082
-0.034606934
-0.081970215
-0.06652832
0.042480469
0.088012695
-0.052642822
0.030181885
-0.052429199
-0.005317688
0.040893555
0.046844482
-0.0060653687
0.036010742
-0.068847656
0.062988281
-0.057891846
-0.065490723
0.025924683
-0.014671326
-0.076904297
-0.049285889
0.048950195
-0.039855957
0.036468506
-0.034515381
0.0010471344
-0.062286377
0.031585693
-0.029144287
0.010765076
-0.0018815994
