-0.062316895
0.085571289
0.079833984
0.075378418
0.013969421
-0.060150146
-0.024703979
-0.025085449
-0.030944824
-0.011505127
0.037780762
0.085327148
0.086669922
0.00233078
-0.011535645
-0.0071105957
0.01335907
-0.0063209534
0.0625
0.02394104
-0.053314209
0.04296875
-0.055908203
0.01802063
0.020477295
0.083251953
-0.071105957
-0.077880859
0.0061416626
-0.084960938
0.082946777
0.071228027
-0.071838379
-0.043487549
0.024917603
0.064086914
0.078796387
-0.076782227
-0.045928955
0.033447266
-0.046020508
-0.034576416
-0.081604004
-0.0011262894
0.02684021
-0.0064048767
0.04486084
-0.042297363
-0.07244873
-0.024108887
-0.053497314
0.048583984
0.034759521
-0.023574829
-0.085021973
-0.012245178
0.037658691
0.078735352
-0.081665039
0.051513672
-0.037200928
0.055114746
0.029159546
-0.06427002
0.029464722
0.06451416
-0.029586792
0.045410156
0.079956055
-0.035522461
0.062011719
0.064941406
0.055419922
-0.078125
-0.042907715
-0.0033626556
0.020751953
0.016448975
0.0086975098
0.021499634
-0.017623901
-0.069396973
-0.063720703
0.014778137
0.079528809
-0.082336426
0.0006608963
-0.064025879
0.0096206665
0.063964844
0.0035228729
-0.049255371
-0.052368164
-0.077148438
-0.081054688
-0.077636719
0.08013916
-0.0040817261
0.052093506
0.021118164
-0.03237915
0.0014944077
0.042327881
0.022232056
0.0070533752
-0.019454956
0.085205078
0.039855957
0.051208496
-0.004524231
0.006313324
-0.019622803
0.038604736
0.053192139
0.083740234
-0.077941895
0.028045654
-0.054626465
0.0035495758
-0.064147949
-0.040435791
-0.031677246
-0.0418396
0.081726074
0.060424805
0.077331543
0.065124512
0.015426636