-0.071350098
0.046081543
-0.042785645
-0.043945312
-0.058776855
0.0012664795
-0.0017709732
0.028823853
-0.022216797
-0.04510498
-0.019989014
-0.086730957
0.01398468
0.083984375
0.03894043
0.078063965
0.072509766
-0.025924683
-0.053833008
0.016342163
-0.067382812
0.068054199
-0.075622559
0.080505371
-0.087890625
-0.011535645
0.016815186
0.03125
0.034057617
0.067199707
-0.072570801
-0.014915466
-0.0020637512
0.018753052
0.033294678
-0.040374756
0.029693604
0.083984375
0.058013916
-0.014511108
0.075927734
0.028076172
-0.034515381
0.071838379
-0.052001953
0.052001953
-0.045928955
-0.063049316
0.0044326782
0.081054688
-0.073974609
0.046020508
0.0018835068
-0.031951904
-0.016815186
0.052215576
-0.06842041
0.042022705
0.031173706
0.026565552
-0.03894043
0.074951172
-0.068237305
0.033996582
-0.042755127
-0.035888672
0.051300049
-0.083190918
-0.053039551
-0.073730469
0.04876709
-0.063720703
0.07043457
0.0014839172
-0.057495117
0.049102783
-0.007106781
0.069763184
-0.060180664
0.030838013
0.021270752
0.072021484
-0.046417236
-0.024169922
0.072875977
0.0089035034
0.033355713
-0.0023784637
0.023239136
0.079406738
0.038452148
-0.030471802
0.085510254
-0.069519043
0.052368164
-0.017883301
0.076660156
0.032196045
-0.042694092
-0.0859375
-0.052703857
-0.0050315857
0.029129028
-0.031555176
0.035522461
0.045135498
-0.051208496
0.0040092468
-0.0066375732
0.056793213
-0.083740234
-0.075927734
0.027587891
-0.030776978
-0.008026123
0.082580566
0.0089569092
0.086242676
-0.053955078
-0.0080566406
0.084655762
0.042114258
0.016647339
0.03225708
0.041015625
0.078186035
0.052734375
0.05847168
0.064575195
0.044677734
0.088134766
-0.040588379
-0.064147949
0.043304443
0.06842041
-0.063232422
-0.022949219
0.038848877
-0.027526855
0.011108398
-0.034667969
0.007106781
0.031829834
-0.014183044
-0.076660156
0.053283691
-0.039276123
-0.017120361
-0.082580566
0.061187744
0.016769409
-0.011894226
-0.022003174
-0.046936035
-0.0259552
0.039123535
0.068359375
0.046813965
-0.084350586
0.042694092
-0.027648926
-0.086791992
-0.024185181
-0.028137207
-0.0089111328
0.0030860901
0.037963867
-0.026657104
-0.042175293
0.039215088
-0.055328369
0.030929565
-0.08605957
0.067565918
-0.025558472
0.041107178
-0.083496094
0.071044922
-0.0033378601
0.054779053
0.036376953
-0.05255127
0.038452148
-0.057556152
0.056488037
0.015945435
-0.0093307495
0.035430908
0.040435791
0.05166626
0.065002441
-0.022872925
-0.009147644
-0.0075073242
0.048736572
-0.084655762
-0.026168823
-0.071655273
0.070129395
0.020263672
0.069335938
-0.027572632
-0.026473999
-0.053588867
-0.050201416
0.032440186
-0.051391602
0.062103271
0.020736694
-0.043762207
-0.03302002
-0.041503906
0.067077637
0.031524658
-0.082580566
0.084411621
0.008392334
0.01411438
0.024429321
0.063842773
-0.073364258
0.045928955
-0.081359863
0.081237793
0.073364258
0.045898438
-0.05657959
-0.040496826
0.071899414
0.062103271
-0.041320801
0.084716797
-0.077026367
-0.035125732
-0.039215088
-0.0025939941
0.059692383
0.0057182312
0.043426514
0.044616699
0.036254883
-0.079467773
-0.00095748901
0.018615723
0.033355713
0.031555176
-0.056671143
-0.02204895
-0.018508911
0.073913574
0.06628418
0.077331543
-0.059417725
0.07232666
0.04989624
0.049835205
-0.033691406
-0.057220459
-0.0037784576
0.012664795
0.025497437
0.085083008
-0.081481934
0.067199707
-0.059295654
-0.054199219
0.04196167
-0.043518066
0.04800415
-0.034515381
0.061859131
-0.040130615
-0.02645874
-0.055877686
0.0059013367
-0.0090408325
0.030197144
0.033325195
-0.080566406
-0.069396973
0.045654297
-0.010551453
-0.052703857
0.081726074
-0.053375244
-0.01663208
0.058013916
-0.032348633
0.052978516
-0.010055542
-0.062438965
-0.027694702
0.040466309
0.084106445
0.081787109
0.017730713
0.036315918
0.07598877
0.075744629
0.017410278
-0.011474609
-0.020675659
-0.014961243
-0.052276611
-0.039459229
0.015220642
0.029678345
-0.0022583008
0.079162598
0.027740479
0.062408447
0.015472412
0.049530029
-0.013435364
-0.03074646
-0.014587402
0.069458008
0.0029678345
0.013130188
0.088378906
0.081237793
0.078063965
-0.012817383
0.023864746
0.013519287
0.053924561
-0.053771973
0.017913818
0.018844604
-0.083496094
-0.063903809
-0.017791748
0.04385376
-0.047576904
0.0075073242
-0.0019178391
-0.069458008
0.015670776
0.033721924
-0.032104492
0.066833496
0.0023937225
0.051574707
0.050811768
-0.047180176
-0.012336731
-0.075622559
-0.019699097
-0.026245117
0.073425293
0.065979004
0.00053834915
-0.027618408
-0.0091781616
0.042419434
-0.024246216
0.013969421
0.066650391
0.058563232
0.013008118
-0.022964478
0.047851562
0.056182861
-0.022491455
-0.014984131
-0.054016113
0.010826111
-0.079345703
-0.052459717
0.07635498
-0.086486816
-0.069519043
0.027603149
0.066162109
-0.078552246
0.071105957
0.050262451
0.084777832
0.082885742
0.00090503693
0.00094413757
0.043029785
-0.050384521
-0.051940918
0.042327881
0.051177979
-0.051940918
-0.012893677
-0.086914062
0.044006348
0.081115723
0.011734009
0.029769897
-0.03616333
-0.058135986
0.01398468
0.022201538
-0.065002441
0.025497437
0.035919189
-0.051055908
0.049591064
0.087402344
-0.071228027
0.059295654
-0.04989624
-0.0082244873
0.032928467
-0.038574219
0.065429688
0.0073204041
-0.044036865
0.017868042
0.041809082
-0.063232422
-0.0033187866
0.066833496
-0.075317383
0.015068054
0.054229736
0.087768555
0.077392578
-0.045837402
0.033325195
0.028533936
-0.0057220459
0.050018311
0.070373535
-0.08190918
-0.011878967
-0.079406738
0.051757812
0.075622559
-0.072753906
-0.047973633
-0.021774292
0.071289062
0.055969238
0.0362854
-0.04397583
-0.022567749
0.042785645
-0.0002925396
0.00055360794
0.044464111
0.072998047
0.073791504
-0.017944336
0.017333984
0.06817627
-0.022018433
0.086791992
0.012924194
0.040435791
-0.0440979
0.045928955
0.077636719
0.041748047
0.065490723
-0.012794495
0.04876709
-0.038726807
-0.007232666
-0.072814941
-0.052185059
-0.018218994
0.0037651062
0.054626465
-0.074645996
0.073364258
0.015563965
-0.07220459
-0.028686523
-0.071777344
0.063842773
-0.071166992
0.079101562
0.019546509
0.080505371
-0.070129395
0.034179688
0.034973145
0.0087814331
0.030990601
-0.053833008
-0.078308105
-0.021484375
-0.062042236
-0.076965332
0.084655762
0.073486328
0.074890137
-0.055511475
-0.016433716
0.072570801
0.015960693
-0.087219238
-0.051483154
-0.033477783
-0.016174316
-0.06439209
0.08026123
0.066467285
0.012832642
0.064331055
-0.041168213
-0.05557251
0.072753906
0.0021324158
-0.0287323
0.061584473
0.041748047
-0.069458008
-0.051055908
-0.079772949
0.077575684
-0.0030021667
0.045013428
0.064697266
-0.070800781
-0.07800293
0.026779175
-0.081665039
0.081115723
0.05267334
-0.048736572
0.022415161
0.060058594
0.086364746
0.046569824
-0.063598633
0.068969727
-0.026428223
-0.059997559
-0.088134766
-0.052062988
0.00093460083
-0.0038394928
0.055328369
0.053314209
-0.018173218
-0.05368042
0.069396973
0.038482666
0.010047913
-0.075500488
-0.0037994385
-0.025558472
-0.065002441
-0.015869141
0.073730469
-0.056732178
0.054382324
-0.055206299
0.088195801
-0.053497314
-0.021484375
0.051330566
-0.074829102
0.040740967
-0.0017194748
-0.017196655
0.052886963
0.034118652
-0.028686523
-0.06451416
0.0042419434
-0.0076446533
0.036682129
0.082824707
-0.077941895
0.028289795
-0.012023926
-0.08404541
0.035491943
0.046508789
-0.069824219
0.038330078
0.080566406
-0.053344727
0.075195312
-0.067504883
-0.046783447
-0.080505371
0.066833496
0.026870728
0.041503906
0.0038013458
0.075561523
0.0035934448
-0.057006836
0.0056838989
-0.019470215
-0.063842773
0.06439209
0.078430176
-0.034332275
0.027832031
0.073547363
-0.075256348
-0.025161743
0.03112793
-0.0019855499
-0.085083008
0.028564453
0.026153564
-0.020355225
0.067687988
-0.073547363
-0.047637939
-0.038421631
-0.019515991
0.015823364
-0.029052734
-0.047332764
-0.003036499
0.047851562
0.071044922
0.032714844
0.063537598
-0.088378906
0.002368927
0.044067383
0.073486328
0.061920166
-0.053863525
0.082702637
0.088195801
0.0072517395
0.0007481575
-0.044250488
0.040466309
0.083679199
-0.047271729
-0.043243408
0.075073242
-0.082580566
-0.077697754
0.0390625
-0.062103271
0.034881592
0.072509766
0.044799805
0.011978149
0.050750732
-0.045227051
0.084838867
-0.0284729
-0.075866699
-0.018569946
-0.00057888031
0.047943115
0.073547363
0.00084877014
-0.051879883
-0.045318604
-0.048950195
-0.035095215
-0.015487671
0.0079727173
0.059234619
0.0046653748
-0.0080413818
0.031433105
-0.058990479
-0.058319092
0.016189575
-0.029891968
0.073181152
0.031082153
0.061340332
0.050567627
-0.054992676
-0.078857422
0.050598145
0.005569458
-0.055450439
-0.013633728
0.038421631
-0.073181152
-0.087463379
-0.022689819
0.084533691
-0.030044556
0.0025558472
0.03604126
0.071533203
-0.0040969849
-0.033935547
-0.023361206
-0.077819824
-0.069580078
-0.008934021
-0.031402588
0.034088135
-0.0087203979
0.05456543
0.083007812
-0.078674316
0.048126221
-0.06451416
-0.028549194
0.011451721
0.060913086
0.020751953
0.071472168
0.034790039
-0.031646729
0.06072998
-0.023834229
-0.034423828
-0.083984375
-0.039276123
0.02822876
-0.052581787
0.016265869
0.025985718
0.051147461
0.026657104
0.0053291321
0.032592773
0.019454956
-0.047576904
-0.065734863
0.051300049
0.015731812
-0.029327393
-0.043212891
0.056854248
-0.0047111511
-0.073852539
-0.069091797
-0.0039367676
-0.077819824
0.0047721863
0.075378418
0.023788452
-0.01259613
-0.039672852
-0.029510498
-0.072875977
0.070007324
0.035491943
0.080993652
0.078796387
0.07208252
-0.073303223
0.01789856
0.037506104
-0.051483154
-0.047241211
-0.046508789
-0.059692383
0.054229736
0.070068359
0.077758789
-0.0068664551
-0.060302734
0.074523926
0.048980713
0.019348145
0.039276123
0.068908691
-0.031707764
-0.067993164
0.046081543
0.080749512
-0.011489868
0.012550354
-0.034515381
0.001288414
0.062408447
-0.046173096
0.073852539
0.040466309
0.077209473
0.0064506531
0.0703125
0.02305603
-0.040161133
-0.07043457
0.0018720627
-0.081176758
-0.081542969
-0.07220459
-0.0061569214
-0.024017334
-0.015151978
-0.066894531
0.029464722
0.065307617
-0.011817932
0.015151978
0.040008545
0.024002075
-0.080627441
-0.052947998
0.030471802
-0.041687012
-0.073669434
-0.056030273
-0.041381836
0.083618164
-0.039093018
0.088256836
0.074523926
-0.078674316
-0.08807373
-0.014389038
-0.038909912
0.0053939819
-0.06048584
-0.0025482178
0.00058555603
-0.024291992
-0.0086746216
0.076660156
0.005355835
-0.063415527
0.050323486
0.022598267
0.031799316
-0.030639648
0.031951904
0.0039672852
-0.069030762
0.060638428
-0.043762207
-0.019241333
0.085083008
-0.053070068
-0.019165039
0.042724609
0.010513306
-0.071289062
0.030349731
0.016464233
0.016784668
0.065246582
0.063537598
0.014587402
-0.085510254
0.032012939
-0.054168701
-0.056213379
0.043395996
0.04284668
0.067138672
-0.016479492
-0.029342651
0.059417725
-0.040100098
-0.023223877
0.0059509277
0.010025024
-0.075561523
0.00031542778
-0.062316895
-0.027511597
-0.042724609
-0.010398865
-0.029678345
-0.067687988
0.033172607
0.031951904
-0.072753906
-0.062164307
-0.049713135
0.038604736
-0.06451416
0.018249512
-0.0597229
0.013587952
0.053161621
-0.026535034
-0.016662598
-0.030258179
0.0031108856
0.024856567
0.0081100464
-0.013397217
0.040618896
-0.036437988
-0.057312012
-0.044494629
-0.051727295
0.018737793
0.083679199
-0.029891968
0.028274536
0.073486328
-0.0091247559
-0.013824463
-0.012893677
-0.051452637
-0.069335938
-0.017501831
-0.026153564
-0.016296387
-0.014587402
0.075805664
0.020370483
0.051818848
-0.041381836
-0.053741455
0.024398804
-0.033111572
0.0067901611
-0.0099334717
0.058410645
0.041625977
0.013427734
0.016708374
0.024154663
-0.028808594
-0.0043067932
-0.073486328
-0.01436615
0.079467773
-0.024734497
-0.063049316
0.069458008
-0.0041275024
-0.046234131
-0.019439697
-0.07421875
-0.063476562
0.00040984154
0.037139893
0.056610107
0.0019035339
0.039001465
0.050445557
-0.016815186
-0.08380127
0.030059814
0.048522949
0.063476562
-0.02545166
-0.00072145462
0.038635254
0.077026367
0.071289062
-0.036254883
0.061126709
0.054992676
-0.055786133
0.05480957
-0.085571289
0.076416016
0.0018453598
-0.073120117
-0.014564514
0.071899414
-0.031494141
-0.065979004
0.0030059814
0.036834717
-0.086242676
0.016311646
-0.079956055
0.0042686462
0.018203735
-0.038970947
0.051055908
0.010543823
0.07989502
-0.027740479
-0.079711914
0.036712646
0.039550781
-0.0023727417
-0.0075302124
-0.071411133
0.06652832
0.02746582
0.017944336
-0.031311035
0.02180481
0.085754395
-0.02116394
-0.077880859
0.086669922
0.060577393
-0.047515869
0.0063591003
0.073547363
0.082885742
0.070983887
0.053955078
0.033203125
-0.064025879
-0.067993164
-0.0095291138
-0.079833984
-0.03213501
0.075866699
-0.013053894
0.038421631
-0.0081253052
-0.0037250519
0.082824707
-0.04864502
0.028381348
0.058288574
-0.0065498352
-0.039581299
-0.067382812
0.042236328
-0.065246582
0.020767212
-0.07635498
0.042327881
0.080688477
0.012145996
0.085388184
0.01940918
0.059906006
-0.066101074
0.07220459
0.039764404
-0.078125
0.049194336
-0.035095215
0.03817749
-0.018737793
0.04019165
0.025039673
0.04107666
-0.015602112
0.046112061
0.020996094
0.030960083
-0.056793213
0.075439453
-0.052215576
0.048217773
0.081604004
-0.079956055
-0.016052246
0.048614502
0.0021896362
0.053527832
0.080749512
0.048950195
0.023208618
0.036376953
0.058776855
-0.0020179749
-0.081848145
0.023330688
-0.038299561
0.002243042
0.076477051
0.067260742
-0.067443848
-0.086853027
0.078125
0.066223145
-0.057922363
-0.032958984
0.071655273
0.067199707
-0.07232666
-0.076171875
0.083190918
-0.015205383
-0.081237793
0.045318604
0.011123657
-0.030227661
-0.027145386
-0.01713562
0.066345215
-0.031112671
-0.055969238
-0.071716309
-0.0077552795
-0.071899414
-0.054443359
-0.076049805
0.037231445
0.038818359
-0.08416748
0.077453613
-0.04574585
-0.052642822
0.05368042
0.083374023
0.082580566
0.06628418
0.03125
-0.0023651123
0.057006836
-0.072265625
-0.051208496
0.002576828
-0.014900208
-0.003452301
0.0028610229
-0.016464233
0.040374756
0.042175293
-0.054931641
-0.027832031
-0.046661377
0.026763916
0.0018167496
-0.075439453
-0.085632324
-0.052490234
0.055053711
0.016983032
-0.022186279
-0.062927246
-0.041351318
-0.071289062
-0.041656494
-0.063049316
0.037994385
0.0087661743
-0.04309082
0.031646729
-0.05178833
0.084472656
-0.033416748
0.066589355
0.086669922
-0.035339355
0.066650391
-0.054595947
0.04119873
0.037811279
0.014419556
0.078979492
0.0055160522
0.011260986
-0.0022277832
0.051727295
-0.084716797
0.046386719
-0.047637939
-0.035491943
0.076721191
-0.073913574
0.049591064
-0.080200195
-0.061035156
-0.051940918
-0.037902832
0.079284668
0.042785645
0.078613281
-0.068725586
-0.075012207
0.056427002
0.057922363
-0.069641113
0.066955566
0.083679199
0.014328003
-0.074157715
-0.027633667
-0.069030762
-0.03414917
0.07421875
-0.071777344
-0.0040664673
0.031829834
0.061523438
-0.048431396
0.051574707
-0.085449219
-0.039703369
-0.054901123
0.014297485
0.00049161911
0.018844604
-0.083496094
-0.019683838
-0.039337158
-0.036804199
0.05065918
-0.050231934
0.073120117
-0.0062713623
0.020507812
-0.054016113
0.03314209
-0.061340332
0.0037555695
-0.050537109
0.060058594
-0.020614624
0.03414917
-0.074401855
0.087341309
-0.056610107
0.087341309
0.035339355
-0.0859375
-0.019805908
-0.025588989
-0.014167786
-0.058929443
0.060119629
-0.073181152
-0.023361206
-0.024490356
-0.018951416
-0.0006775856
-8.1837177e-05
-0.026977539
0.040435791
0.047149658
0.041015625
-0.070678711
0.043151855
-0.044647217
-0.034698486
-0.043334961
0.011627197
0.069030762
-0.013587952
-0.056488037
-0.077697754
0.044769287
0.085327148
-0.027786255
-0.072875977
-0.028686523
-0.021896362
0.021484375
-0.041259766
0.073364258
-0.084228516
-0.080993652
-0.062469482
-0.048187256
0.043121338
-0.084655762
0.043060303
-0.039001465
0.0060882568
-0.062561035
0.06072998
0.083984375
0.052978516
-0.022171021
-0.032348633
-0.040618896
0.010772705
-0.042053223
0.023773193
0.054840088
-0.03326416
-0.033203125
-0.025100708
-0.031402588
0.076721191
0.032104492
0.0085525513
0.077270508
0.022857666
-0.0098114014
-0.026428223
0.031829834
0.0089645386
0.035858154
-0.014297485
0.036712646
-0.056427002
0.041442871
-0.01651001
0.078674316
-0.032989502
-0.0069389343
-0.038116455
-0.017654419
0.022216797
-0.030838013
-0.027755737
-0.078674316
0.056793213
-0.060699463
-0.0015296936
-0.069458008
-0.0013332367
-0.040344238
0.015144348
0.022720337
0.055725098
-0.03527832
-0.042724609
-0.0060997009
0.030395508
0.081665039
0.065246582
-0.071350098
-0.022277832
-0.082885742
0.039794922
-0.016326904
-0.048309326
0.085998535
-0.022369385
-0.0010871887
0.032775879
0.0012350082
-0.02142334
-0.029693604
-0.046600342
-0.041473389
-0.039642334
0.071655273
0.020339966
-0.080505371
0.055328369
-0.03503418
-0.011047363
-0.067504883
-0.025924683
-0.051055908
-0.015098572
-0.050079346
-0.069519043
0.00072956085
-0.040222168
-0.037384033
0.040252686
-0.015411377
0.038208008
-0.017288208
0.072387695
0.042755127
-0.087768555
-0.012557983
0.043762207
-0.085510254
-0.088195801
0.017028809
-0.054840088
-0.027099609
-0.0042266846
-0.00020587444
0.077148438
0.0035438538
-0.022979736
-0.011009216
-0.014205933
0.029220581
-0.040222168
0.058990479
0.054931641
0.047180176
0.048736572
0.023666382
0.019577026
-0.0093841553
0.082092285
-0.07989502
0.0703125
-0.053100586
-0.0041847229
-0.049133301
-0.066589355
-0.019058228
-0.0012483597
0.033782959
0.086730957
0.053161621
0.066040039
0.044006348
0.058166504
-0.061798096
0.07598877
-0.030471802
0.054718018
0.078613281
-0.074279785
-0.017578125
-0.06262207
-0.075317383
-0.045471191
-0.035339355
-0.055236816
0.046722412
0.019104004
0.077514648
-0.086730957
-0.0012578964
0.0056266785
-0.070739746
0.0036334991
-0.032562256
-0.067749023
-0.022277832
-0.051147461
0.070068359
0.022186279
0.018051147
0.072143555
-0.049835205
-0.043914795
0.032440186
0.034301758
-0.081481934
0.049865723
-0.0054664612
-0.05480957
-0.02671814
-0.0043869019
0.058624268
0.072143555
0.060089111
0.078430176
0.040527344
-0.067443848
-0.034118652
-0.073547363
0.0703125
-0.0070571899
-0.010528564
0.071655273
-0.049377441
0.05871582
0.014389038
-0.045257568
-0.048614502
-0.041473389
0.0075187683
0.066955566
-0.033050537
0.077026367
0.062927246
0.039825439
-0.063293457
-0.087097168
0.020278931
0.050720215
0.086669922
-0.073974609
0.07824707
0.059020996
-0.033355713
0.026077271
0.086791992
0.0097198486
-0.024383545
-0.084289551
-0.080810547
0.014091492
-0.001162529
-0.010620117
0.046356201
-0.040374756
0.08581543
0.021896362
-0.041290283
-0.043426514
-0.04510498
-0.081542969
-0.020736694
0.022583008
-0.027252197
0.024017334
-0.072387695
0.053985596
0.038909912
-0.057128906
-0.034637451
-0.013305664
-0.020111084
0.061431885
0.0859375
0.058746338
-0.035858154
0.03729248
0.030685425
0.045074463
-0.01247406
-0.04385376
0.0044898987
-0.031402588
0.0033187866
-0.044464111
0.046905518
0.032073975
0.045440674
-0.041137695
-0.080078125
0.081420898
0.044158936
0.047210693
-0.027938843
-0.011795044
0.029067993
0.054260254
0.0013542175
0.027099609
-0.08782959
-0.046936035
0.073852539
0.035247803
0.00034213066
-0.018249512
0.052947998
0.086547852
0.04699707
-0.075683594
-0.025466919
0.069213867
-0.062744141
0.078674316
0.046356201
-0.072998047
-0.044372559
-0.077148438
0.0092010498
0.039916992
-0.0080413818
0.065124512
-0.0021877289
-0.074584961
-0.05859375
-0.020462036
0.030990601
-0.06149292
0.062988281
-0.072570801
0.039154053
0.06817627
-0.04107666
0.036437988
0.085021973
-0.054534912
-0.08795166
0.058563232
-0.004825592
-0.046234131
-0.024078369
0.030014038
0.034393311
0.065429688
0.006729126
0.031982422
0.014175415
0.075683594
0.059265137
0.057281494
-0.026245117
-0.084899902
-0.012802124
0.043518066
0.020172119
-0.047119141
0.016326904
0.03918457
-0.0027332306
0.0035457611
0.024185181
-0.014663696
0.0021800995
-0.030349731
-0.047241211
-0.06427002
-0.014907837
0.080566406
-0.082092285
0.069030762
-0.052124023
-0.027145386
-0.087280273
-0.001411438
0.056030273
0.0047531128
-0.072998047
0.067993164
0.022460938
0.0094223022
0.064819336
0.077209473
-0.084838867
0.031646729
0.052978516
-0.028656006
-0.015228271
-0.014984131
0.01348114
-0.076049805
-0.023422241
0.039611816
0.046508789
-0.0048217773
-0.012687683
-0.014205933
-0.019439697
0.05166626
-0.067504883
-0.075439453
-0.017990112
0.00015938282
0.0085525513
0.042480469
-0.070861816
0.056243896
0.0092926025
-0.025558472
-0.085449219
0.048400879
0.078552246
-0.013824463
0.051727295
0.026382446
0.056213379
0.087402344
-0.08215332
-0.070617676
-0.049713135
0.0048484802
0.052764893
0.04864502
-0.022125244
0.087890625
-0.0096282959
0.0041732788
0.034362793
-0.052764893
0.038970947
-0.011764526
0.033996582
0.017593384
0.013687134
0.067749023
0.054382324
0.010848999
0.040557861
-0.046875
-0.027740479
0.012542725
0.073669434
-0.062927246
-0.067993164
-0.059387207
0.083862305
0.03805542
-0.044525146
-0.012527466
-0.017456055
-0.0023021698
-0.019989014
-0.050506592
0.073730469
-0.086547852
-0.016830444
-0.065063477
0.0058364868
0.053588867
-0.053497314
-0.0093154907
-0.070983887
0.0036296844
0.011299133
0.013999939
0.074462891
-0.081237793
-0.059082031
0.038757324
-0.019683838
0.075500488
0.039276123
0.046112061
0.045196533
0.05065918
-0.055145264
0.039886475
0.033294678
-0.069824219
0.027633667
0.049499512
0.043792725
0.07019043
-0.035705566
-0.079772949
-0.033691406
0.0030117035
0.012908936
-0.01146698
-0.072631836
0.038513184
-0.068237305
-0.082641602
-0.0069122314
-0.0051841736
0.015151978
-0.050109863
-0.071289062
0.032775879
-0.0017585754
-0.06817627
0.066467285
-0.049713135
-0.025054932
-0.063964844
-0.067077637
0.01940918
0.077758789
0.045806885
-0.080749512
-0.016479492
-0.025756836
-0.054199219
-0.078125
-0.069213867
0.007648468
-0.080078125
0.014854431
0.063964844
0.076049805
0.067443848
-0.036102295
-0.081237793
0.015731812
0.044342041
-0.037353516
-5.364418e-06
0.00097751617
0.051330566
-0.068603516
0.086181641
0.014373779
0.023483276
-0.012069702
-0.019821167
-0.013473511
-0.036773682
0.016281128
-0.072509766
-0.019989014
0.080200195
-0.01525116
0.067810059
-0.043609619
-0.025878906
0.04196167
0.083557129
0.010917664
-0.0048904419
0.018417358
-0.048156738
0.013801575
-0.00049543381
0.028900146
-0.066711426
0.075256348
0.047363281
-0.059692383
0.036712646
0.00052499771
-0.087341309
-0.084838867
0.039978027
0.053924561
0.055755615
-0.049316406
0.036010742
-0.020111084
0.064819336
-0.056671143
0.067321777
0.074401855
-0.0084075928
0.040313721
-0.011177063
-0.04296875
-0.067565918
-0.054290771
-0.041778564
-0.013725281
0.063537598
-0.028152466
0.051361084
-0.0048141479
-0.086547852
0.080810547
0.045776367
0.065856934
0.011100769
-0.011383057
-0.026702881
-0.026535034
-0.064208984
0.076782227
-0.03717041
-0.0054512024
0.0043678284
-0.015792847
-0.035308838
-0.023773193
-0.00573349
-0.037750244
-0.077575684
0.080688477
-0.058013916
0.047241211
-0.0066604614
-0.07019043
-0.085327148
0.080627441
0.085083008
-0.067871094
6.1571598e-05
-0.0091781616
-0.053771973
-0.039215088
-0.0069580078
-0.059509277
-0.00025677681
-0.086364746
0.075317383
0.052093506
0.078674316
0.028060913
-0.032562256
-0.011535645
-0.017745972
-0.086547852
0.053710938
0.0066146851
0.0047721863
-0.063049316
0.033477783
0.065551758
-0.067199707
-0.065673828
0.024856567
0.00025105476
0.037994385
-0.041381836
0.0065574646
-0.044830322
0.044799805
0.088378906
-0.042785645
-0.0028953552
-0.023483276
-0.055725098
-0.082824707
0.040710449
-0.067626953
0.065795898
0.074523926
0.047424316
-0.038482666
0.065490723
-0.06451416
0.035705566
-0.019165039
-0.079284668
-0.046905518
-0.067016602
0.075378418
0.058959961
-0.072387695
0.065368652
-0.011703491
-0.077087402
0.04095459
0.053405762
0.01449585
0.041564941
-0.0039291382
-0.082214355
-0.027175903
0.070495605
0.034606934
0.081481934
0.035095215
-0.054260254
0.058502197
-0.026046753
0.075927734
0.065673828
0.069580078
-0.061096191
-0.040771484
0.065673828
-0.048492432
-0.070739746
-0.074523926
-0.0035152435
0.013290405
-0.075378418
-0.026000977
0.021484375
-0.0041809082
0.036132812
-0.045715332
0.085021973
0.057891846
-0.019577026
0.0042686462
-0.085693359
0.076538086
-0.06161499
0.035308838
0.08001709
-0.027572632
0.053009033
-0.050567627
0.010032654
-0.050506592
0.036529541
-0.0059165955
-0.06817627
0.040435791
0.028930664
-0.040924072
-0.074523926
-0.044067383
-0.005443573
-0.065002441
0.046783447
-0.0075912476
-0.078979492
0.04510498
0.037445068
0.028808594
-0.067077637
-0.051635742
0.056793213
0.07409668
0.082885742
0.063232422
-0.021469116
0.074768066
0.069641113
0.070983887
0.044128418
0.026473999
0.027618408
-0.052032471
0.011756897
-0.07019043
0.050750732
-0.0076332092
-0.08581543
-0.065002441
0.07232666
0.018447876
0.0084228516
-0.081359863
0.052734375
-0.046783447
0.044799805
0.02796936
0.088195801
0.086608887
0.0001001358
-0.024673462
-0.080383301
-0.068847656
0.048522949
-0.029846191
0.01512146
0.07611084
-0.0077934265
-0.048950195
-0.055633545
0.061187744
-0.029968262
0.03062439
0.07244873
-0.024246216
0.041412354
-0.029968262
-0.046020508
-0.038146973
0.055511475
0.075927734
0.080505371
0.031799316
-0.031677246
0.07232666
-0.025848389
0.021347046
0.0071105957
0.016998291
0.028167725
-0.032867432
-0.085388184
-0.011695862
0.044403076
0.067382812
-0.034545898
-0.024917603
0.031402588
0.047088623
-0.083312988
-0.076416016
-0.020294189
0.02243042
-0.019500732
-0.081726074
0.077941895
0.052734375
-0.073486328
0.073608398
-0.035003662
0.013221741
0.063781738
-0.052368164
0.009552002
0.024795532
-0.016311646
0.06842041
-0.059539795
-0.04498291
0.023406982
-0.028625488
0.056488037
0.083496094
0.061645508
0.075378418
0.086364746
-0.012184143
-0.045166016
0.029190063
-0.065979004
-0.077148438
-0.034362793
0.023223877
0.02003479
-0.03326416
-0.066162109
-0.064208984
-0.039733887
-0.018218994
-0.069274902
-0.081176758
0.04019165
-0.037811279
-0.047302246
-0.010437012
-0.010658264
-0.059020996
-0.028366089
0.049377441
-0.081970215
0.057220459
-0.083435059
0.038543701
-0.051757812
-0.060333252
-0.023712158
-0.016082764
-0.013549805
0.083862305
0.013793945
-0.035339355
-0.064208984
-0.053863525
0.02947998
0.047119141
-0.017318726
-0.017425537
0.079284668
0.0597229
-0.077270508
0.063842773
-0.081115723
0.0033740997
-0.014961243
0.032318115
0.078308105
-0.027832031
-0.062194824
-0.034179688
-0.043609619
0.0287323
0.034118652
-0.082946777
0.062408447
-0.061004639
0.0048027039
-0.032043457
-0.022964478
0.070129395
0.076904297
-0.01410675
0.023529053
-0.028442383
0.00080347061
-0.047149658
-0.064331055
0.018692017
-0.0037193298
-0.023971558
0.011283875
0.067504883
0.087402344
-0.04876709
0.070617676
0.061309814
-0.045593262
-0.0016365051
-0.0017108917
0.023422241
0.037658691
-0.037719727
-0.068115234
0.029327393
-0.053863525
-0.010566711
0.059753418
0.058166504
0.032684326
0.0088806152
-0.048400879
0.016387939
-0.020935059
0.056671143
0.065429688
0.052520752
0.0095977783
0.0020008087
-0.025344849
0.042053223
0.060699463
0.05657959
0.085510254
-0.050262451
-0.016967773
0.087890625
0.052764893
0.042236328
0.012565613
-0.0021076202
-0.058166504
0.02734375
-0.070739746
0.082519531
0.026473999
-0.023605347
-0.028594971
-0.078369141
0.071472168
0.040649414
-0.043640137
0.084228516
0.0052261353
-0.017868042
0.072692871
-0.054718018
-0.067443848
0.084960938
0.085083008
-0.023834229
0.062011719
-0.053894043
-0.047790527
-0.044311523
0.013008118
-0.025527954
-0.0010786057
-0.01751709
0.055297852
-0.0070343018
0.0023860931
0.050872803
0.056671143
0.068908691
-0.056091309
-0.07409668
0.027755737
0.067749023
-0.075927734
-0.0072517395
0.0056648254
-0.072875977
-0.068725586
-0.012649536
-0.045898438
0.025177002
0.040222168
0.015174866
0.035888672
0.0046348572
-0.062988281
-0.051208496
-0.0042381287
0.04296875
0.062561035
0.081359863
0.063964844
0.013031006
-0.06463623
0.085388184
0.063232422
0.053192139
0.023040771
-0.038848877
-0.0071907043
-0.008102417
0.0045852661
0.048370361
-0.040283203
0.043121338
0.063842773
0.082275391
0.080932617
-0.031341553
-0.070800781
-0.063903809
0.017150879
-0.064147949
0.029327393
-0.042480469
0.04901123
-0.063293457
-0.083374023
0.075378418
0.0011053085
-0.026779175
-0.027694702
-0.050323486
0.075622559
0.070861816
0.038360596
0.013824463
0.070129395
0.029205322
-0.021560669
0.0095901489
-0.04901123
-0.009765625
0.014808655
-0.048614502
0.060455322
-0.042816162
0.023666382
-0.032714844
-0.031524658
-0.068237305
-0.065063477
0.00037288666
-0.060699463
0.056854248
0.071655273
0.06817627
0.078552246
-0.052124023
0.057189941
0.084777832
0.087097168
0.084350586
-0.048675537
0.061462402
0.072875977
-0.070617676
-0.0053100586
0.052490234
-0.081237793
-0.069274902
-0.064453125
0.061431885
0.036407471
0.032928467
-0.032775879
-0.072509766
-0.064208984
-0.082946777
0.034393311
0.019073486
0.051757812
0.0016183853
-0.073486328
-0.050201416
-0.074157715
-0.032073975
0.07421875
-0.028411865
-0.059020996
-0.075805664
0.011680603
-0.044921875
-0.064941406
0.015609741
-0.067138672
-0.067321777
-0.012397766
0.080749512
0.075683594
0.04006958
-0.08392334
-0.033721924
-0.08001709
-0.0092315674
-0.060302734
-0.065551758
-0.020111084
0.0047264099
-0.011375427
-0.070007324
-0.030502319
0.070129395
-0.046020508
0.0094223022
0.087280273
0.063842773
-0.074890137
0.050750732
0.056640625
0.047668457
-0.050323486
-0.0034637451
-0.02394104
0.023101807
-0.081481934
-0.074584961
-0.084350586
-0.069152832
-0.057922363
-0.075073242
-0.054351807
0.018127441
0.036956787
0.012161255
-0.03237915
-0.070800781
0.013435364
-0.025360107
-0.058746338
-0.013847351
0.021392822
0.047607422
-0.067993164
0.020355225
-0.013412476
-0.015327454
-0.028381348
0.047515869
-0.0070533752
-0.045532227
-0.069824219
0.014755249
-0.010978699
-0.015556335
0.060272217
0.057922363
-0.082458496
0.011825562
-0.065673828
-0.079040527
0.081604004
0.0033607483
-0.039001465
0.084472656
0.0076332092
0.044189453
0.068664551
0.0061988831
0.041381836
0.01096344
-0.021316528
-0.079406738
0.06262207
0.01020813
0.045898438
0.028060913
0.075561523
0.049407959
0.016937256
-0.077270508
-0.063171387
-0.042114258
-0.039581299
-0.016159058
-0.029586792
-0.079956055
-0.035369873
-0.063659668
-0.053894043
-0.027770996
-0.035491943
0.022689819
0.042694092
-0.081298828
0.060516357
0.071228027
0.0060462952
0.045440674
-0.061950684
-0.05255127
-0.0068321228
-0.067687988
0.029067993
-0.016784668
-0.074951172
-0.012626648
0.015823364
-0.0084838867
0.071411133
0.065551758
0.063293457
-0.056793213
-0.06072998
-0.040344238
-0.08380127
-0.063110352
0.034210205
0.071472168
-0.069580078
-0.026321411
-0.011322021
-0.026107788
0.0032424927
-0.040283203
-0.013458252
-0.079162598
0.039733887
-0.084655762
0.086120605
-0.049133301
-0.039703369
0.017471313
-0.022827148
0.035919189
0.0022563934
0.079956055
-0.085266113
-0.05859375
-0.010070801
-0.058349609
0.058197021
0.086181641
0.043457031
-0.063415527
0.03692627
-0.0087966919
0.059356689
0.028091431
0.073181152
0.020828247
0.029129028
0.013015747
0.059539795
0.060394287
0.034301758
0.022613525
0.069458008
0.0496521
-0.049377441
-0.020294189
0.068847656
-0.031860352
0.051727295
-0.010559082
0.0070266724
0.061553955
0.073425293
-0.053863525
0.086425781
0.052368164
-0.058532715
0.052276611
-0.047393799
0.026428223
-0.056549072
-0.045776367
0.018188477
-0.070922852
0.03805542
0.046142578
0.010177612
-0.049621582
0.081787109
-0.086120605
-0.041748047
0.067932129
0.052185059
0.087768555
0.063903809
0.004360199
-0.0042114258
0.086486816
0.022354126
-0.016433716
0.06439209
-0.029052734
-0.080200195
0.03427124
0.05770874
0.047912598
-0.040985107
-0.048583984
-0.011558533
-0.087585449
0.037475586
0.011314392
-0.048614502
-0.084228516
-0.084472656
-0.040374756
0.014930725
0.0042610168
0.017105103
0.075134277
-0.033966064
0.077331543
-0.086303711
0.034606934
0.032714844
-0.064758301
-0.017715454
-0.047637939
-0.06060791
-0.0042381287
-0.068725586
-0.070129395
0.020874023
0.07421875
-0.008430481
0.080566406
0.0010185242
-0.010704041
-0.021911621
-0.038024902
0.049560547
0.080566406
0.025161743
0.038604736
-0.0068092346
-0.061401367
-0.042388916
-0.023101807
-0.073669434
0.046875
0.044036865
0.059570312
-0.065368652
0.039398193
-0.029159546
-0.071044922
-0.012207031
-0.046447754
0.062164307
-0.047546387
-0.072692871
-0.074584961
-0.068969727
0.001748085
-0.061828613
0.035217285
-0.059631348
-0.011871338
0.079589844
0.084411621
-0.034393311
0.071716309
-0.041870117
0.080200195
0.047729492
-0.0088043213
0.046813965
-0.057769775
-0.081542969
0.058105469
0.0032463074
0.081665039
-0.022689819
0.0519104
0.072631836
-0.066040039
-0.026107788
-0.057220459
-0.011810303
-0.082824707
0.086364746
-0.037475586
-0.086364746
-0.080200195
-0.016174316
-0.066101074
-0.078918457
-0.026626587
-0.0017576218
0.068969727
0.029220581
-0.026062012
0.07409668
0.059112549
0.049804688
-0.01612854
-0.016281128
-0.043426514
0.058990479
-0.021713257
-0.03704834
0.06463623
0.082702637
-0.00066661835
-0.065673828
-0.0049095154
0.085266113
-0.049957275
-0.056640625
-0.017837524
-0.075622559
-0.017669678
-0.078918457
-0.021286011
0.077697754
0.037841797
0.07019043
0.026535034
-0.038604736
0.0075569153
-0.010910034
-0.033325195
-0.073242188
0.0103302
-0.085693359
-0.013168335
0.065734863
-0.081726074
-0.0075035095
0.048126221
-0.08605957
0.052734375
-0.042022705
0.034088135
0.06439209
-0.014289856
-0.030105591
0.075500488
-0.014076233
-0.087402344
0.034667969
-0.035919189
-0.0052604675
-0.037994385
-0.064819336
-0.078430176
0.064575195
0.073852539
0.068481445
0.055847168
-0.0390625
0.062347412
-0.013877869
0.022750854
0.011238098
0.080200195
-0.03137207
-0.083618164
-0.010467529
0.03805542
-0.064819336
0.015213013
0.053863525
-0.022964478
-0.021911621
-0.067565918
-0.0015974045
0.054901123
-0.084716797
0.06048584
0.02331543
-0.034484863
-0.055664062
-0.070800781
0.0061378479
-0.031219482
0.029876709
-0.011924744
-0.061004639
0.030395508
0.070983887
-0.0057601929
0.0043296814
0.060577393
0.019287109
0.035186768
0.03918457
-0.026351929
0.088195801
0.060272217
0.025009155
-0.0048942566
0.028961182
-0.031082153
0.019592285
-0.073425293
-0.00011610985
0.013427734
-0.054046631
0.042724609
-0.054840088
0.018875122
0.020401001
0.066101074
0.037567139
0.040405273
0.056304932
-0.021575928
-0.013420105
-0.026168823
-0.023101807
0.043029785
-0.069763184
-0.012237549
0.04510498
0.025909424
0.034912109
0.042877197
0.086547852
0.0092010498
-0.082458496
-0.02406311
0.081054688
0.047515869
-0.04196167
-0.078613281
0.021743774
0.05480957
0.062072754
-0.027008057
0.068603516
0.0053024292
0.029525757
0.061309814
-0.037109375
-0.077331543
0.022583008
-0.049255371
-0.022964478
0.005027771
-0.028030396
-0.063171387
0.055938721
-0.028305054
0.051086426
0.053131104
0.050720215
-0.039215088
-0.0046043396
-0.012481689
-0.073242188
-0.087402344
0.016052246
0.016601562
-0.06463623
0.081787109
0.071044922
0.045440674
-0.068664551
0.023117065
0.044067383
0.0090866089
-0.064453125
-0.05355835
0.012588501
0.025756836
-0.026580811
0.071899414
0.056182861
-0.025100708
0.078186035
0.066772461
0.075622559
-0.021240234
-0.044555664
-0.0041122437
0.069702148
-0.030883789
0.074462891
-0.0090637207
0.082641602
0.019241333
-0.032440186
0.05380249
0.010803223
-0.0067138672
-0.004737854
0.054199219
0.043823242
0.074279785
-0.049468994
0.085083008
-0.015434265
-0.078369141
-0.0071372986
0.023391724
-0.028671265
0.055755615
-0.066955566
0.039428711
-0.034545898
-0.084899902
-0.036376953
-0.041717529
0.028991699
0.040985107
0.050994873
0.02243042
-0.026275635
-0.017333984
0.0060501099
0.077270508
0.0066070557
-0.071472168
-0.073913574
0.018676758
0.012313843
-0.08770752
0.071594238
0.045715332
0.058929443
-0.04473877
0.0087432861
0.087524414
-0.038024902
-0.041320801
0.045074463
0.038391113
-0.037994385
0.025009155
0.048614502
0.052032471
0.075256348
0.083740234
-0.024429321
0.073730469
0.060913086
-0.0703125
-0.057800293
-0.0073471069
0.06137085
0.062225342
0.019226074
-0.086120605
-0.06137085
0.017120361
-0.017486572
0.0018978119
-0.064453125
0.051055908
0.032531738
0.072021484
0.057373047
0.008682251
0.072509766
0.078857422
0.020309448
0.025375366
-0.069396973
-0.061950684
0.073242188
0.041442871
-0.012313843
0.021575928
0.051605225
0.082336426
-0.0059814453
0.087646484
0.01612854
0.040008545
-0.048950195
0.025222778
0.072021484
0.047424316
-0.080322266
0.047241211
-0.029464722
0.0086517334
0.088134766
0.02746582
0.067871094
-0.00010722876
0.030990601
-0.069030762
0.013427734
-0.049224854
0.012870789
-0.050842285
0.033508301
-0.0064926147
-0.037902832
-0.067382812
0.082824707
0.049560547
-0.04397583
0.0093002319
-0.076782227
0.086669922
0.077575684
0.067749023
0.043945312
-0.0075454712
-0.0088653564
-0.058532715
0.0041427612
0.077331543
0.072937012
0.065246582
0.056060791
-0.0033054352
-0.075561523
0.024795532
-0.023025513
0.08605957
-0.023040771
-0.024993896
-0.051086426
0.031768799
-0.025115967
0.043182373
-0.020217896
-0.031677246
0.037811279
-0.040130615
0.055603027
0.055053711
-0.075500488
0.055236816
-0.02381897
-0.01991272
-0.04586792
-0.050140381
0.086730957
0.081542969
-0.037628174
-0.085021973
-0.021118164
0.058258057
-0.051025391
-0.083312988
0.079711914
-0.060455322
0.088134766
-0.05279541
-0.085144043
0.022659302
0.042449951
-0.04309082
0.00059652328
0.01084137
-0.032043457
-0.046386719
-0.0181427
-0.031143188
0.040039062
-3.7312508e-05
0.036773682
0.068237305
0.073364258
0.081420898
-0.041687012
-0.071166992
-0.0082473755
0.0067710876
0.027557373
-0.058349609
-0.043212891
-0.023086548
-0.066101074
-0.052459717
-0.041046143
-0.070373535
-0.011863708
0.059265137
0.050720215
0.029083252
0.03112793
-0.070556641
-0.046234131
0.073303223
-0.077880859
-0.04574585
0.031646729
0.016983032
-0.00096511841
-0.039978027
0.021591187
-0.039550781
-0.036254883
0.059814453
0.034576416
0.0093688965
-0.054229736
0.019668579
0.068481445
0.073547363
0.036224365
-0.038024902
-0.054931641
0.026748657
-0.048675537
0.064025879
-0.010345459
-0.0039367676
0.0028934479
0.07244873
-0.080444336
-0.042419434
-0.0049781799
-0.060180664
0.069274902
0.059906006
-0.015052795
-0.011070251
-0.052734375
-0.029647827
-0.061035156
-0.040222168
0.014854431
-0.083190918
0.0045204163
-0.018157959
0.033752441
-0.045806885
-0.042724609
0.085449219
-0.079040527
0.055053711
0.023742676
0.026062012
0.031799316
-0.013542175
-0.075378418
0.017364502
-0.069580078
0.028045654
-0.020645142
-0.08782959
-0.013893127
0.06427002
-0.020996094
0.038482666
-0.021179199
-0.066711426
0.025772095
-0.023834229
-0.08770752
0.039916992
0.0062103271
0.022125244
-0.049713135
0.054229736
-0.037322998
-0.02571106
0.055206299
0.055755615
0.073974609
-0.020095825
0.038482666
0.026794434
0.029663086
-0.085388184
0.058654785
-0.046478271
0.040252686
-0.087646484
0.011421204
0.0046081543
0.065490723
-0.054748535
0.02545166
0.068847656
-0.052215576
0.068847656
0.060638428
-0.074401855
-0.034362793
0.0019302368
-0.0083389282
-0.02986145
0.083679199
-0.083435059
0.031799316
-0.058410645
0.038085938
0.030075073
0.0055847168
-0.058532715
-0.0016117096
0.087158203
0.075805664
0.045928955
-0.0090637207
-0.066833496
0.057800293
0.013092041
0.086669922
-0.029449463
-0.064941406
0.082763672
0.064819336
0.060882568
0.056182861
0.059814453
-0.084899902
-0.062469482
0.052490234
-0.055480957
0.048461914
-0.012214661
-0.058074951
0.031234741
0.017211914
0.084777832
0.026473999
0.064208984
0.077575684
0.061950684
0.044647217
0.037261963
0.0076637268
0.086608887
0.0048522949
-0.062194824
-0.063781738
0.034210205
-0.056518555
-0.0087661743
0.03527832
-0.036132812
-0.049346924
-0.083129883
0.070861816
-0.06439209
0.00015282631
0.033813477
-0.027114868
0.011795044
-0.086791992
0.066650391
0.072814941
0.07989502
-0.067810059
0.0055656433
0.04586792
0.08581543
0.025817871
0.065063477
-0.034667969
0.034210205
0.021728516
0.068481445
0.0036468506
0.059906006
-0.079650879
0.051940918
-0.024093628
0.066223145
-0.074645996
0.0048789978
0.013877869
-0.033172607
0.087036133
0.025421143
0.061065674
0.0079345703
-0.021560669
0.032592773
0.0340271
0.04864502
0.06439209
0.01612854
-0.073181152
-0.024536133
0.084472656
0.085021973
0.0033168793
-0.078857422
0.085449219
-0.022659302
-0.064025879
0.065368652
-0.0037059784
0.070800781
-0.029190063
-0.029800415
0.045623779
0.03137207
-0.045654297
-0.062133789
0.084533691
-0.069580078
-0.0546875
0.081237793
0.073364258
-0.052032471
-0.021286011
0.01574707
0.025497437
-0.0047416687
-0.082885742
-0.0093612671
-0.086486816
-0.06072998
-0.077880859
-0.017608643
0.035919189
-0.017883301
-0.052856445
0.044128418
-0.073974609
-0.015205383
-0.088317871
-0.041046143
0.059906006
0.01159668
-0.017913818
-0.051818848
0.058898926
0.038330078
0.043914795
-0.017883301
-0.044647217
-0.02331543
-0.08001709
0.013641357
0.065795898
0.057739258
0.046539307
-0.06463623
0.0362854
0.041595459
-0.0066337585
0.024353027
-0.073547363
-0.034332275
-0.048675537
0.0031795502
-0.00014460087
0.053649902
-0.053131104
0.083862305
0.042358398
-0.03213501
0.083129883
-0.069641113
-0.060821533
-0.0016670227
0.077331543
-0.0087890625
0.081420898
0.084960938
-0.0184021
-0.057525635
0.063903809
-0.0083084106
-3.8146973e-05
-0.040405273
0.054443359
0.045135498
0.067565918
0.049285889
-0.042755127
-0.084960938
0.039855957
0.044952393
0.055267334
0.075805664
-0.071350098
-0.0057792664
-0.032836914
0.0038490295
-0.049926758
0.033538818
-0.040679932
-0.087646484
-0.080566406
-0.071350098
0.05065918
0.072814941
-0.031280518
0.067138672
0.029067993
-0.030395508
0.075439453
0.042663574
-0.046478271
-0.066040039
0.028762817
0.046661377
0.074157715
0.076721191
-0.029129028
-0.076171875
0.061676025
-0.0015239716
0.045471191
-0.0340271
-0.030792236
-0.086120605
-0.0002720356
0.017364502
0.026229858
0.074768066
0.063598633
0.085449219
-0.073974609
0.059448242
-0.046600342
0.0052223206
0.07824707
0.036437988
-0.024078369
-0.0044059753
-0.078735352
-0.041656494
0.016296387
-0.084411621
0.029205322
0.0031471252
0.051330566
-0.051879883
0.055358887
-0.047332764
0.086242676
-0.045501709
0.0027217865
-0.029220581
-0.058898926
0.019287109
-0.028579712
-0.071228027
-0.02507019
-0.041748047
-0.0033607483
0.031005859
-0.072753906
-0.070373535
0.034698486
-0.0051651001
0.047149658
-0.058898926
-0.01751709
-0.056945801
-0.018768311
0.085754395
-0.079406738
0.03225708
0.021270752
0.052307129
0.022628784
-0.078674316
0.055969238
0.08190918
0.016143799
-0.076538086
0.035003662
-0.0051422119
0.0006814003
0.050048828
0.013397217
-0.060241699
-0.076049805
-0.011535645
0.027084351
-0.070251465
-0.0064582825
-0.00067472458
0.061798096
-0.0079956055
-0.066101074
-0.079223633
-0.0062026978
0.017410278
0.046875
0.050231934
0.068054199
0.052185059
0.084411621
-0.065979004
0.0092468262
0.028182983
0.06060791
-0.0034770966
-0.045623779
0.069335938
-0.0014448166
0.034332275
0.040405273
0.046539307
0.0340271
0.012664795
-0.073547363
-0.0085372925
-0.036743164
-0.046081543
-0.030929565
-0.038757324
-0.081481934
0.013465881
-0.022216797
0.086242676
-0.018554688
0.021057129
0.04498291
-0.033630371
-0.081665039
-0.024383545
0.005821228
0.029968262
0.063659668
0.08416748
-0.018737793
-0.065124512
0.054718018
0.079833984
-0.083984375
0.080749512
-0.0046539307
0.057769775
-0.006439209
0.050689697
-0.073120117
0.026809692
0.052947998
0.061065674
-0.015258789
-0.062347412
-0.046142578
0.038574219
0.00046944618
-0.087585449
0.033050537
-0.014793396
0.021682739
-0.015930176
-0.071655273
-0.0084762573
0.072265625
-0.037353516
-0.067077637
-0.01121521
-0.041381836
-0.021652222
-0.055603027
0.0056762695
0.072143555
-0.041625977
0.037750244
-0.003824234
-0.079467773
-0.086486816
-0.069396973
-0.08605957
0.067443848
-0.040130615
-0.036956787
0.042633057
0.045471191
-0.016921997
-0.030532837
-0.023696899
-0.038818359
-0.0061187744
0.04776001
0.056213379
0.035400391
-0.077575684
-0.05670166
0.058410645
0.023284912
0.048950195
-0.027618408
0.077331543
0.023498535
-0.048492432
-0.0093460083
-0.040039062
-0.027008057
0.0046730042
-0.056121826
-0.067871094
-0.04864502
-0.056640625
0.0021934509
-0.077880859
-0.066040039
-0.0093994141
0.030014038
0.079833984
-0.0046691895
-0.011878967
0.078308105
0.012702942
-0.030151367
-0.060577393
0.035125732
0.06137085
-0.033569336
-0.0072479248
0.055236816
-0.033782959
0.054962158
-0.087036133
-0.041748047
0.070068359
0.071411133
-0.029098511
0.055053711
-0.024734497
0.0069160461
0.049926758
0.0059356689
-0.023681641
-0.011787415
-0.041992188
0.0053825378
-0.034637451
0.049560547
-0.080871582
-0.036102295
-0.084289551
-0.024932861
-0.016937256
-0.043792725
0.073425293
0.0080490112
-0.050872803
0.054626465
0.088195801
0.069213867
0.030395508
-0.05645752
0.085021973
-0.022781372
-0.070922852
-0.061157227
0.047851562
-0.081726074
-0.062561035
0.012306213
0.021911621
-0.086425781
0.0007891655
0.04989624
0.030822754
-0.0068969727
0.083007812
-0.062988281
-0.019683838
-0.0007109642
0.023269653
-0.032867432
0.029052734
-0.067626953
-0.03414917
-0.039916992
0.063415527
-0.037445068
-0.043640137
0.047943115
0.056030273
0.0093002319
0.045013428
0.066162109
-0.040893555
0.064880371
0.046295166
0.05557251
0.068664551
-0.080566406
-0.072937012
0.058166504
0.035186768
-0.030288696
-0.032531738
0.0044555664
0.073608398
-0.050354004
-0.058807373
-0.053741455
-0.0017175674
0.035308838
0.083007812
-0.039611816
-0.0059928894
0.015319824
0.024688721
0.049957275
0.061859131
-0.057128906
-0.0128479
-0.029449463
0.025650024
-0.062927246
-0.017227173
0.02104187
-0.050323486
0.046325684
-0.07208252
0.087890625
0.079223633
0.04006958
-0.040313721
-0.012985229
-0.02784729
-0.035736084
0.018386841
0.073059082
-0.016098022
0.0496521
0.025634766
-0.052734375
-0.013526917
-0.066711426
-0.029907227
0.0033416748
0.063598633
0.061706543
-0.020248413
0.059326172
0.028869629
0.061920166
0.080810547
0.010437012
-0.037628174
0.069458008
0.029586792
0.079040527
-0.079223633
0.08392334
-0.029159546
0.043701172
-0.050750732
0.087585449
-0.053924561
-0.030197144
0.059753418
0.0013055801
-0.06427002
-0.0058250427
-0.040740967
-0.024536133
0.030349731
-0.065002441
0.080383301
0.044921875
0.032348633
-0.015213013
0.039154053
-0.045227051
-0.015670776
0.036834717
0.046417236
-0.063171387
-0.050537109
-0.012313843
0.033050537
0.025421143
0.060913086
0.05947876
0.035003662
-0.0030670166
-0.059906006
-0.058746338
0.0043945312
0.086853027
0.05682373
-0.070800781
-0.078063965
0.029098511
0.051605225
0.074768066
-0.052093506
0.058074951
-0.069580078
0.01486969
0.043914795
-0.035522461
-0.032806396
-0.01651001
0.0036125183
0.076171875
-0.086486816
-0.0035362244
0.041687012
-0.042816162
-0.053527832
0.070617676
0.012016296
-0.045654297
0.071838379
0.084472656
0.0496521
0.026046753
-0.033599854
-0.014945984
-0.061828613
-0.080200195
-0.084228516
0.040039062
-0.074035645
-0.0055809021
0.074584961
0.010101318
0.060028076
0.053100586
0.042816162
0.065002441
0.019760132
0.075195312
0.020706177
-0.067382812
0.062103271
-0.030838013
-0.083129883
0.050323486
0.0013580322
0.080200195
0.023223877
-0.00016081333
0.055969238
0.0089263916
-0.07598877
-0.0050888062
-0.0040931702
-0.036804199
0.012695312
0.059906006
-0.05670166
-0.058929443
-0.02671814
0.056945801
0.022537231
-0.086975098
-0.067382812
-0.0089035034
-0.083557129
0.068359375
0.061187744
0.0047454834
0.063598633
0.046905518
-0.075561523
0.05871582
-0.057495117
-0.039306641
0.025161743
0.074401855
-0.069274902
-0.020507812
0.074462891
-0.016281128
0.065551758
-0.031707764
0.083740234
-0.0042381287
0.078369141
-0.060180664
0.01776123
0.011734009
-0.04888916
0.064697266
0.0095748901
0.052734375
-0.071350098
-0.077819824
-0.06817627
0.044036865
0.03604126
-0.023040771
-0.062133789
0.072753906
0.073669434
0.067016602
0.0088653564
-0.074523926
0.0059051514
0.041412354
0.051940918
0.054168701
-0.020874023
-0.040130615
-0.046600342
-0.03225708
-0.028549194
0.013938904
0.018798828
-0.077514648
-0.046569824
0.053131104
0.016891479
-0.064025879
-0.07220459
0.010482788
-0.051361084
0.072998047
0.025390625
-0.052246094
0.026535034
0.082580566
-0.059539795
0.037689209
-0.048309326
0.0051956177
0.0440979
0.082214355
-0.030715942
0.0062866211
0.053649902
0.026306152
-0.065979004
-0.085571289
-0.00097751617
-0.048553467
-0.017562866
0.070556641
-0.0070304871
0.033569336
-0.014686584
0.068054199
0.069946289
-0.07434082
-0.08404541
0.059204102
-0.0073280334
0.064697266
-0.054840088
0.018173218
0.010803223
0.02204895
0.062927246
-0.081787109
0.033843994
-0.025985718
0.012664795
0.070251465
-0.07232666
-0.035217285
0.041656494
0.0035228729
-0.0098800659
-0.050750732
0.019165039
-0.045593262
-0.070251465
0.063842773
-0.011779785
-0.027709961
-0.0048332214
0.018951416
-0.050933838
-0.083862305
0.0025577545
0.02772522
0.062286377
-0.067077637
-0.038452148
-0.014572144
0.026550293
0.0362854
-0.065917969
-0.0054740906
0.087097168
0.062744141
0.039978027
0.011741638
0.030761719
0.040771484
0.05581665
0.0703125
0.060150146
-0.0017127991
-0.063903809
0.0054359436
-0.048217773
0.014793396
-0.002199173
0.075317383
0.02456665
0.044372559
0.044128418
0.060699463
0.018051147
-0.079528809
0.080566406
0.05255127
0.018356323
-0.070007324
0.014167786
0.061035156
0.051208496
-0.031234741
-0.067138672
-0.032989502
-0.081848145
0.060272217
0.044555664
-0.087219238
-0.083312988
0.024398804
0.084960938
-0.010131836
-0.021850586
-0.0098876953
0.016036987
0.018875122
-0.059234619
-0.077331543
-0.082458496
0.064880371
-0.045532227
-0.018280029
0.082702637
0.084960938
-0.066162109
-0.022583008
0.077819824
-0.07989502
-0.018127441
-0.018249512
-0.079223633
0.02835083
-0.019989014
-0.064453125
-0.052703857
0.06829834
0.077758789
0.082092285
-0.018554688
0.068664551
-0.043487549
-0.044403076
0.084655762
0.0029144287
0.019042969
-0.055969238
0.069274902
-0.044921875
0.069885254
0.086303711
-0.053588867
0.079772949
-0.023757935
0.059448242
-0.0095291138
0.07232666
-0.071350098
-0.04083252
0.013687134
0.058776855
0.023162842
0.023269653
0.0011835098
-0.067687988
0.081115723
0.050476074
-0.067810059
-0.08807373
-0.025741577
0.050231934
0.068603516
-0.081237793
0.070556641
-0.022247314
-0.064697266
0.047088623
-0.015930176
0.045257568
0.011482239
0.054901123
0.065795898
-0.083496094
0.0057067871
0.051849365
0.023193359
-0.065734863
0.015655518
0.020874023
0.016326904
-0.0052490234
0.084899902
0.013557434
-0.068786621
-0.019882202
-0.0011968613
0.024581909
-0.067077637
-0.0060462952
0.044708252
-0.054870605
-0.033935547
0.019165039
0.013923645
0.048065186
0.00067043304
0.046203613
0.046936035
0.076843262
0.048522949
-0.0075416565
-0.021957397
-0.0043830872
0.050323486
0.029541016
0.05859375
-0.057067871
-0.031341553
-0.014442444
0.072875977
0.011680603
-0.014564514
-0.029418945
0.010971069
-0.073852539
-0.021194458
0.043304443
-0.027191162
0.038208008
-0.085632324
-0.048614502
-0.049224854
-0.023300171
-0.055969238
0.044494629
0.037872314
0.041992188
0.0084686279
-0.069335938
0.080444336
0.011459351
-0.008354187
-0.029693604
-0.084960938
-0.025527954
0.0055999756
-0.038024902
-0.063476562
-0.073730469
0.073303223
-0.054443359
0.084777832
0.059356689
0.079833984
0.012390137
0.081481934
-0.029678345
-0.067565918
-0.069519043
-0.073425293
-0.085083008
0.077026367
-0.016677856
-0.059204102
0.042144775
-0.074584961
-0.039794922
0.069885254
-0.048400879
0.011657715
0.019363403
0.086730957
0.081542969
-0.073669434
0.0063285828
0.084777832
0.086914062
-0.021484375
0.0093460083
0.0096282959
0.052886963
-0.0031776428
-0.048706055
0.055969238
0.083251953
-0.0062408447
0.014678955
0.069458008
-0.08795166
0.086669922
0.082214355
0.022506714
-0.080810547
-0.041442871
-0.027923584
-0.0082473755
0.073486328
0.067443848
0.0043334961
-0.020278931
0.0039596558
0.031494141
0.037445068
0.06060791
0.069030762
-0.070678711
0.074523926
0.053649902
0.015228271
0.056732178
0.074401855
0.00086927414
0.057647705
0.041351318
-0.032897949
0.010559082
0.057952881
0.06854248
0.065246582
0.079711914
0.011245728
-0.011238098
0.00032687187
-0.07635498
-0.058441162
-0.084472656
-0.082336426
-0.010780334
-0.039123535
0.025741577
0.065795898
0.024154663
0.020675659
0.043579102
0.062866211
-0.041381836
-0.019882202
-0.034210205
-0.079589844
0.076660156
0.015563965
0.020782471
-0.022247314
-0.031982422
-0.021362305
-0.065490723
-0.011917114
-0.070861816
-0.064453125
0.032073975
0.028076172
-0.075927734
-0.040100098
-0.087646484
-0.048034668
0.034637451
0.018722534
0.062316895
0.06829834
-0.051574707
-0.031433105
-0.016647339
-0.069030762
0.0057106018
0.019943237
-0.084411621
0.07220459
0.084411621
0.029205322
-0.063903809
-0.019073486
-0.059295654
-0.013580322
-0.047363281
0.069641113
0.015296936
-0.032989502
0.062225342
0.011009216
-0.066345215
0.072021484
0.071594238
-0.081726074
0.057250977
0.049804688
-0.0039176941
-0.07824707
-0.051361084
0.020675659
0.011642456
-0.019638062
-0.03604126
-0.034790039
-0.046051025
-0.0015335083
0.0091323853
-0.016433716
0.048461914
-0.077270508
-0.027908325
0.051544189
0.00092554092
-0.030532837
-0.027252197
-0.0023574829
0.028640747
-0.0519104
-0.022842407
0.011535645
-0.053710938
0.048095703
-0.074829102
0.0340271
0.00065135956
-0.062866211
0.052429199
-0.032012939
-0.018157959
-0.038360596
-0.023696899
-0.0076408386
-0.017974854
0.034454346
0.042877197
0.012107849
0.055053711
0.0024929047
-0.082214355
0.062988281
0.0034656525
0.063659668
-0.012023926
-0.0859375
-0.083374023
0.015823364
-0.0340271
0.045349121
0.025253296
0.013084412
0.079711914
-0.017105103
0.042816162
-0.018096924
0.023040771
0.035980225
-0.0044784546
-0.067993164
0.02633667
-0.058044434
0.067138672
-0.062438965
0.0041885376
0.078186035
-0.043121338
-0.071655273
0.002040863
0.047180176
0.038482666
0.076721191
0.040985107
-0.07598877
-0.0029163361
0.032592773
0.045532227
0.041992188
0.050445557
-0.058959961
-0.020248413
0.00047826767
-0.022415161
0.0001667738
0.023483276
-0.074768066
0.025909424
0.065368652
-0.021987915
-0.025726318
0.054290771
-0.0080032349
0.0086669922
-0.00030493736
0.016708374
-0.062683105
-0.0092391968
-0.01235199
-0.088134766
-0.03024292
-0.0088043213
-0.048156738
0.022918701
0.051513672
-0.015884399
0.0036468506
0.079040527
-0.03225708
-0.0013532639
-0.0057220459
0.077453613
0.061920166
0.054382324
-0.042266846
0.085632324
0.065368652
0.020935059
0.006729126
0.01398468
0.048736572
0.02822876
-0.015853882
-0.02734375
-0.066223145
-0.0052871704
-0.083618164
0.077270508
0.054504395
0.030136108
0.035705566
0.014671326
-0.022949219
-0.027496338
-0.063293457
-0.055389404
0.058685303
-0.060455322
0.053588867
0.08581543
-0.068847656
-0.062194824
0.048095703
-0.051452637
0.077697754
0.050109863
0.08795166
0.063964844
-0.053375244
0.018341064
0.028015137
0.048095703
-0.046813965
0.086242676
0.032196045
-0.045501709
0.046905518
0.060546875
0.069091797
0.024795532
0.0041465759
-0.040588379
-0.0074577332
-0.041015625
0.069213867
0.056182861
0.053649902
0.055145264
-0.037689209
0.0045051575
-0.075012207
-0.086669922
-0.057067871
-0.010032654
-0.065734863
-0.0023059845
-0.068786621
-0.025344849
-0.013999939
0.046722412
0.076782227
0.013572693
0.055908203
0.017318726
0.075683594
0.030853271
0.00011795759
0.046142578
-0.031677246
0.067504883
-0.0082244873
0.042633057
0.080383301
-0.05166626
0.077026367
-0.018371582
-0.010429382
0.033569336
0.049835205
0.012252808
-0.073303223
0.019073486
-0.075439453
-0.076904297
-0.019012451
0.01802063
-0.036651611
0.05480957
0.064147949
-0.062805176
-0.040435791
-0.064208984
0.010467529
-0.018859863
-0.041625977
-0.088134766
0.063415527
-0.0081329346
0.027832031
0.0063476562
0.032501221
-0.04977417
0.071411133
0.062988281
0.080627441
0.058319092
0.087890625
0.034790039
-0.060119629
0.053497314
-0.02394104
-0.059204102
-0.059020996
-0.018264771
-0.066589355
0.085083008
0.04977417
-0.077514648
0.05557251
0.048278809
-0.04498291
-0.0084838867
-0.087585449
0.052459717
-0.031463623
0.044219971
-0.002374649
-0.0092163086
-0.08770752
-0.022842407
0.034301758
0.041992188
0.069946289
-0.039764404
-0.014633179
-0.0054893494
0.024246216
0.0095825195
0.085693359
0.01272583
-0.0340271
-0.017440796
0.061279297
0.07989502
0.0035896301
0.044464111
0.032287598
-0.017425537
0.080078125
0.0026378632
0.014900208
0.040100098
0.071533203
-0.08392334
-0.024765015
0.011184692
0.01663208
-0.025909424
-0.0083847046
-0.013275146
-0.074035645
0.024017334
0.085205078
-0.059936523
-0.046112061
0.06817627
0.02255249
0.08215332
0.028396606
0.025558472
0.054992676
-0.0020751953
0.060516357
-0.087524414
0.06817627
0.033782959
0.0024242401
-0.084472656
-0.063232422
0.068054199
0.079284668
0.037994385
0.050201416
0.0023174286
0.029846191
0.06036377
-0.0031585693
0.039337158
-0.012535095
-0.031951904
-0.026916504
-0.027328491
0.050506592
-0.070861816
-0.0057868958
0.057983398
0.039276123
-0.065002441
-0.041473389
-0.037139893
-0.027755737
-0.066345215
0.053466797
0.024398804
-0.082458496
0.030776978
-0.04699707
0.027633667
0.044219971
0.013717651
-0.0087585449
-0.077270508
-0.062683105
0.086975098
-0.043243408
-0.061950684
0.052215576
-0.032928467
-0.067321777
0.065734863
0.040740967
-0.073547363
0.076171875
0.039886475
0.036956787
-0.073181152
-0.07244873
-0.05758667
0.048248291
0.027420044
-0.0017185211
0.0038070679
0.039001465
0.069702148
0.012283325
0.036529541
0.053131104
0.077209473
-0.037139893
-0.010559082
0.07623291
0.070556641
-0.037017822
-0.040252686
-0.080810547
0.07220459
0.027023315
-0.061981201
-0.052276611
0.061065674
-0.066650391
-0.069213867
0.041137695
0.012886047
0.075134277
0.066955566
-0.014724731
0.022109985
0.014228821
0.036102295
0.064147949
-0.084411621
0.046844482
0.0031967163
-0.038726807
-0.0076065063
0.005947113
0.049682617
-0.064880371
0.0041160583
0.016555786
0.051849365
-0.018737793
0.032501221
-0.017822266
0.0056838989
-0.042602539
0.055633545
0.07232666
0.033294678
-0.068481445
-0.044464111
-0.028701782
0.051635742
-0.013031006
-0.042205811
-0.086791992
-0.074401855
-0.020751953
0.026916504
0.084716797
0.053100586
-0.0097122192
-0.045410156
0.020401001
-0.042785645
0.040588379
0.028289795
0.060455322
0.003534317
-0.015602112
-0.019439697
0.0066337585
0.072387695
0.046081543
-0.051208496
-0.022994995
-0.077026367
0.02986145
-0.0087585449
0.078674316
-0.057922363
-0.039916992
0.035522461
0.031738281
0.0059013367
0.049530029
-0.008026123
0.050994873
0.074279785
-0.083251953
0.069763184
-0.085266113
0.06652832
0.024703979
0.017684937
-0.028167725
-0.01524353
-0.081481934
-0.063781738
-0.02204895
-0.021072388
-0.020874023
0.077270508
-0.053344727
-0.088256836
-0.0026855469
-0.046722412
0.01184845
0.035491943
0.049804688
0.024688721
-0.077148438
-0.052612305
-0.080627441
0.077636719
0.07208252
-0.044494629
-0.061248779
-0.080810547
0.050872803
-0.040405273
-0.059234619
0.084533691
-0.035247803
0.077880859
0.074768066
0.029937744
0.040924072
-0.01109314
0.020889282
-0.059082031
-0.0030784607
-0.058349609
0.022521973
-0.069763184
-0.045318604
-0.058197021
-0.039520264
-0.085327148
0.060241699
0.076599121
-0.054199219
0.082336426
-0.01322937
-0.025482178
0.046112061
0.071411133
-0.08581543
0.0016317368
-0.036773682
-0.080078125
-0.067687988
-0.015289307
-0.031951904
-0.063415527
-0.051452637
0.074279785
-0.0068397522
-0.078308105
0.055633545
-0.082885742
0.0046043396
0.047943115
0.042877197
0.086853027
0.048950195
0.044189453
0.046844482
-0.065612793
0.056549072
0.040740967
-0.054138184
0.080566406
-0.079833984
0.059143066
0.065795898
-0.05947876
-0.019561768
0.038482666
0.031677246
-0.0097198486
0.087158203
-0.0035400391
0.011444092
-0.0076942444
-0.07409668
-0.0059890747
0.07232666
-0.014755249
0.086669922
0.075439453
-0.037078857
0.080200195
0.047576904
-0.011795044
-0.0030708313
0.0045661926
0.079528809
0.088195801
0.034240723
-0.025039673
0.021255493
-0.082641602
0.02571106
0.081115723
-0.047637939
0.07598877
-0.052490234
-0.081359863
-0.062927246
0.013542175
-0.035491943
0.0049209595
0.048583984
0.058044434
-0.087036133
0.020965576
0.038513184
0.079345703
-0.052734375
0.03237915
-0.071960449
-0.087524414
-0.075195312
-0.011444092
0.088256836
-0.051422119
0.05480957
0.0859375
0.085510254
-0.049835205
0.083129883
-0.013572693
-0.073974609
0.0054244995
0.0059700012
-0.061584473
-0.012519836
-0.04989624
0.042663574
0.043334961
0.042205811
-0.039764404
-0.01675415
-0.029693604
0.018264771
0.035064697
0.0859375
0.0062103271
0.0010681152
-0.017974854
0.042938232
0.088134766
0.013954163
0.070495605
0.052612305
0.058227539
0.071838379
0.00096797943
0.00065946579
0.043670654
-0.074584961
0.060852051
-0.06842041
-0.058135986
-0.078308105
-0.020065308
-0.070068359
-0.054748535
0.082092285
0.028747559
-0.059783936
-0.049804688
-0.025436401
-0.05770874
0.069519043
0.018234253
0.039215088
0.044250488
0.057952881
0.012702942
-0.017364502
0.033355713
0.058441162
0.083618164
-0.040985107
-0.031143188
0.044921875
0.026046753
0.016891479
-0.080322266
-0.023757935
-0.056396484
-0.041473389
-0.0090103149
-0.031951904
-0.04699707
-0.057189941
-0.022857666
-0.024612427
0.081298828
-0.011260986
0.042602539
-0.064758301
-0.002286911
-0.035858154
0.016159058
-0.026931763
0.014305115
-0.012985229
0.041717529
0.06829834
-0.045410156
0.0090942383
0.0065803528
-0.065307617
-0.012718201
0.03036499
0.055114746
0.014175415
-0.026321411
0.058044434
-0.039611816
-0.026702881
0.0096054077
0.008392334
0.014549255
0.035949707
-0.047943115
-0.024353027
0.0081100464
0.043395996
-0.050201416
-0.069213867
-0.032318115
-0.0077781677
0.071533203
-0.027557373
-0.068237305
0.032165527
-0.035736084
0.013290405
0.046234131
0.036560059
-0.036987305
0.064575195
0.047576904
-0.019638062
-0.010635376
-0.080932617
0.081665039
0.030776978
0.066955566
-0.075927734
-0.038970947
0.061004639
-0.021392822
-0.059051514
0.076477051
0.042602539
0.065734863
0.081176758
0.047729492
0.074584961
-0.052642822
-0.026397705
0.071228027
-0.0029754639
-0.030609131
-0.083496094
-0.016494751
-0.01940918
0.051757812
-0.028915405
0.0079040527
-0.078735352
-0.068664551
-0.070739746
0.073669434
0.021850586
0.081359863
-0.073730469
-0.050598145
-0.0013160706
-0.084838867
0.073059082
-0.045806885
-0.066833496
-0.042053223
-0.051177979
0.055145264
-0.057678223
0.037750244
-0.029708862
0.023345947
0.085876465
-0.074829102
-0.012077332
0.041900635
-0.079833984
-0.033569336
0.018447876
-0.084899902
-0.045227051
-0.053497314
-0.0062561035
-0.024475098
0.0056037903
-0.0031414032
0.031005859
0.049072266
0.082214355
-0.065002441
-0.042999268
-0.077331543
-0.0099639893
0.063110352
0.058563232
0.03805542
-0.062469482
-0.015609741
-0.072875977
0.048309326
0.018218994
-0.0069236755
0.0084533691
0.021789551
-0.074645996
-0.04888916
-0.0014266968
-0.043548584
0.08416748
-0.031982422
0.060272217
0.086730957
-0.024765015
0.038146973
-0.02243042
0.035675049
-0.013748169
-0.027770996
-0.025543213
-0.087768555
-0.020095825
-0.081298828
-0.010246277
0.066772461
0.072387695
0.085754395
-0.032836914
-0.085327148
0.032440186
-0.061126709
0.031280518
0.047363281
-0.06640625
-0.015174866
-0.032836914
0.038574219
-0.052001953
-0.027923584
-0.087890625
-0.075439453
-0.0067596436
-0.043914795
-0.010368347
-0.078735352
0.012588501
-0.0062294006
0.0071640015
0.070617676
0.085754395
0.0066871643
0.03062439
-0.034118652
0.031021118
-0.075439453
0.013343811
-0.033538818
-0.028106689
0.032928467
0.03302002
-0.015213013
-0.016159058
-0.076049805
0.064575195
-0.032196045
-0.049804688
0.010406494
0.074523926
0.011772156
-0.031860352
0.035217285
-0.057403564
0.043884277
-0.02696228
-0.02230835
-0.025497437
-0.02897644
0.088256836
-0.077636719
0.060150146
0.064086914
-0.028686523
-0.0060386658
-0.059356689
-0.036315918
-0.048309326
-0.010917664
-0.013885498
-0.04486084
0.039855957
0.067749023
-0.016357422
-0.08782959
0.0070457458
-0.00065422058
-0.0047874451
0.046691895
0.037322998
0.071777344
-0.062438965
-0.048339844
0.047912598
-0.030792236
0.026397705
0.086914062
0.022354126
-0.018981934
-0.04284668
-0.011199951
-0.069213867
-0.071594238
0.020462036
-0.071411133
0.022827148
0.040802002
0.0052757263
0.0060386658
0.0094680786
0.049285889
-0.017959595
-0.035797119
0.038299561
-0.086242676
-0.014175415
-0.028839111
-0.054138184
-0.038604736
0.070983887
-0.086547852
-0.051025391
-0.080200195
0.044952393
0.07623291
-0.036682129
-0.015388489
0.044586182
0.0092468262
-0.015731812
0.061340332
0.031051636
-0.040985107
0.065856934
-0.014183044
0.053649902
-0.0035820007
-0.065734863
0.083251953
-0.082885742
-0.01953125
0.063049316
0.036712646
0.054870605
0.065673828
0.0052604675
-0.00046515465
0.051422119
0.015991211
0.014419556
0.026626587
-0.053222656
-0.048339844
0.060394287
0.086608887
0.034759521
0.031143188
-0.043060303
-0.075195312
0.053283691
-0.079650879
0.064331055
0.045440674
0.081665039
-0.037628174
0.024581909
-0.0049209595
-0.064819336
0.042755127
0.079284668
0.081420898
0.074951172
0.040313721
0.057128906
0.023284912
-0.021087646
-0.010719299
0.062988281
0.0037841797
-0.025192261
-0.018798828
0.030136108
-0.056274414
-0.062744141
-0.083496094
0.05480957
-0.017868042
-0.001036644
0.068359375
0.0084762573
0.037445068
0.041931152
0.036712646
0.015960693
0.081420898
-0.01386261
-0.057525635
-0.0056266785
-0.061828613
0.072631836
-0.053039551
-0.025421143
-0.042938232
-0.006526947
0.0041427612
0.056335449
-0.060119629
0.012260437
0.070556641
-0.0037879944
-0.024368286
0.00076770782
0.034606934
0.03137207
0.066589355
0.00091075897
-0.080566406
0.022094727
0.026626587
-0.06439209
-0.076965332
0.027450562
0.050872803
0.039733887
0.079284668
0.081298828
0.079528809
-0.025283813
-0.028259277
-0.054626465
-0.033752441
-0.046234131
0.0073699951
0.041015625
0.033630371
0.080871582
0.069824219
0.022003174
-0.087524414
-0.039093018
0.025802612
0.0068664551
-0.074401855
0.077209473
0.069580078
-0.07598877
-0.081848145
0.0070533752
0.049316406
-0.012359619
-0.0023040771
0.022613525
0.00045466423
0.050476074
0.071166992
-0.046142578
-0.0057563782
0.017349243
-0.057037354
0.032684326
-0.0058288574
0.0097503662
0.049194336
0.066589355
-0.070495605
0.078491211
0.026931763
0.0043487549
0.076904297
0.087768555
-0.027664185
0.006893158
-0.015991211
0.046630859
-0.060394287
-0.026672363
0.0093231201
-0.025543213
0.0020122528
-0.054077148
-0.02053833
-0.012077332
-0.004825592
0.023864746
0.042724609
0.05368042
0.075073242
-0.055999756
-0.049926758
0.020019531
0.0020828247
0.053863525
-0.0075035095
0.027008057
-0.079711914
0.01159668
0.049743652
0.085205078
0.031433105
0.04473877
-0.045532227
-0.014831543
-0.076782227
-0.076843262
-0.036956787
-0.013580322
-0.079772949
-0.053894043
-0.061279297
0.056640625
0.016082764
0.047424316
-0.068969727
0.012626648
0.04675293
-0.0048332214
-0.0071144104
0.015571594
-0.059936523
-0.010047913
-0.052764893
0.0047225952
0.040008545
0.078979492
0.013832092
-0.052062988
-0.053222656
0.030212402
0.0099945068
-0.069519043
0.058959961
0.064453125
0.044372559
0.0043373108
-0.010643005
-0.03302002
-0.026748657
-0.0024356842
-0.006439209
0.058013916
0.068115234
-0.039581299
-0.07043457
-0.083312988
-0.086975098
-0.0036125183
-0.051940918
-0.037261963
0.047088623
-0.016738892
0.069763184
-0.017303467
-0.019287109
-0.054138184
0.047424316
-0.063964844
0.028305054
0.083312988
0.0060577393
0.034881592
0.080749512
0.067260742
0.045959473
-0.031524658
-0.034759521
-0.046600342
-0.027557373
0.0209198
-0.0051689148
-0.023544312
0.039398193
0.037475586
-0.085998535
-0.031860352
-0.087341309
-0.022369385
0.0086898804
0.050476074
-0.0027713776
0.080383301
-0.080383301
-0.049957275
0.014053345
0.061279297
-0.085632324
-0.022476196
-0.030685425
-0.078430176
-0.083312988
-0.0060997009
0.032043457
-0.029815674
-0.081420898
-0.00012457371
0.028930664
0.026046753
0.066162109
0.03793335
-0.049285889
-0.065368652
-0.0079727173
0.066040039
-0.0065536499
-0.055603027
-0.076965332
0.0089492798
0.002746582
-0.077941895
0.07244873
0.074035645
-0.036621094
-0.056243896
0.080627441
-0.081604004
-0.026245117
-0.079040527
0.074645996
-0.026245117
0.0022850037
-0.085998535
0.031036377
-0.037200928
-0.065612793
-0.018753052
0.038635254
-0.063049316
0.063903809
0.058013916
0.08807373
0.0006313324
0.030105591
-0.010543823
-0.084960938
0.0075645447
0.06451416
-0.074279785
0.065673828
0.076660156
0.0068473816
-0.047668457
0.035736084
-0.047637939
0.082946777
0.064758301
-0.069274902
-0.040527344
-0.060913086
0.016342163
-0.077453613
-0.058044434
0.087036133
0.028411865
0.0029411316
0.026809692
-0.014221191
-0.05947876
-0.023788452
0.082275391
-0.069519043
-0.080749512
0.045410156
-0.026428223
-0.060089111
0.0023059845
0.005771637
0.038818359
0.0010719299
-0.03918457
0.086547852
-0.069824219
-0.084655762
-0.046234131
-0.036071777
0.024887085
0.021881104
-0.028915405
-0.031951904
0.057189941
0.030151367
0.050720215
0.085144043
-0.002784729
0.087158203
0.049133301
0.057495117
0.017379761
-0.01751709
0.08795166
0.068664551
0.05871582
0.053863525
-0.050445557
-0.022216797
0.0012893677
0.011360168
-0.0021915436
0.011428833
0.04901123
-0.0081558228
0.065734863
0.044586182
0.04397583
0.036437988
-0.048095703
-0.016921997
0.00029015541
-0.087219238
-0.014190674
0.060699463
-0.074829102
-0.084289551
-0.031280518
0.063659668
0.0014123917
-0.062927246
0.065917969
0.012992859
0.081665039
0.021987915
0.030548096
-0.07598877
-0.023345947
-0.046600342
0.034942627
-0.070373535
-0.080566406
0.054718018
-0.079162598
0.015419006
-0.024536133
-0.042755127
0.017532349
0.052520752
0.020614624
-0.01991272
0.075622559
-0.0066947937
0.023971558
0.018249512
0.063903809
-0.043273926
0.044036865
0.0070953369
0.078735352
0.0082931519
-0.059265137
-0.063964844
-0.042327881
0.06829834
-0.078063965
-0.0026607513
-0.079833984
0.067321777
0.019897461
-0.047058105
0.056182861
0.03237915
0.012207031
0.037628174
-0.085144043
-0.047790527
-0.0034236908
0.016464233
-0.073730469
-0.012565613
-0.076965332
-0.063903809
0.058227539
-0.083618164
0.0093307495
0.033477783
0.06640625
0.065002441
0.040435791
-0.07244873
0.072814941
0.073425293
0.020523071
0.0029888153
-0.032745361
-0.087463379
-0.018661499
0.058807373
-0.024841309
0.003162384
-0.018936157
-0.060821533
-0.053863525
0.02003479
0.061920166
-0.037078857
-0.048736572
0.049133301
0.0022144318
0.0035247803
-0.064697266
0.066040039
0.0072174072
0.058105469
-0.016311646
0.0072822571
-0.038024902
0.05682373
0.06463623
-0.055236816
0.058288574
-0.035675049
0.0027675629
-0.0081176758
-0.025665283
-0.0062522888
0.044464111
0.024673462
-0.0060501099
0.039855957
-0.052215576
-0.017456055
-0.064697266
0.04284668
0.042144775
0.071594238
-0.036560059
0.077209473
0.047363281
0.0029888153
-0.017318726
0.030288696
-0.013885498
-0.086242676
-0.035949707
0.032165527
-0.038421631
0.031616211
0.019592285
0.038513184
-0.064331055
0.048706055
-0.079650879
-0.00060892105
-0.087524414
0.013137817
-0.052612305
-0.012496948
-0.051025391
0.061859131
-0.070068359
0.055236816
0.012718201
0.08581543
0.010505676
-0.028671265
0.02947998
-0.0703125
0.068054199
-0.015541077
0.062286377
0.023498535
0.0092163086
-0.012107849
0.016693115
-0.073120117
-0.020004272
-0.041809082
0.040161133
-0.053894043
-0.067077637
0.043029785
-0.0028476715
-0.010734558
-0.058013916
0.0039367676
0.0011825562
-0.005191803
-0.023162842
0.073730469
-0.025726318
-0.021514893
-0.023666382
-0.024169922
0.063476562
-0.087768555
0.041564941
0.03314209
-0.034637451
0.042663574
-0.011619568
0.048095703
0.079711914
0.0074768066
-0.084655762
0.043304443
0.030853271
0.017440796
-0.01020813
0.024139404
-0.073242188
0.073486328
0.003944397
0.049835205
-0.080749512
-0.027114868
0.065063477
0.081970215
0.06842041
-0.076171875
-0.057617188
-0.074523926
0.078857422
-0.016540527
-0.019165039
0.046478271
-0.018798828
0.072631836
-0.059509277
-0.045196533
0.061218262
0.03237915
-0.052459717
-0.066650391
-0.037780762
-0.058837891
-0.067199707
0.061950684
-0.061462402
0.070068359
0.016616821
0.026657104
-0.045440674
-0.011665344
0.021530151
0.0094451904
0.056121826
-0.049682617
-0.059753418
-0.064331055
-0.010162354
0.017471313
0.013519287
0.03616333
0.035125732
0.085754395
-0.023254395
0.049865723
0.059661865
-0.022415161
0.0059432983
0.078063965
0.0043792725
0.071044922
-0.013801575
-0.080810547
0.042144775
0.012840271
-0.052612305
0.081665039
-0.059967041
0.083007812
-0.030136108
-0.084777832
-0.019973755
0.031463623
0.067443848
-0.032287598
0.060699463
-0.004611969
0.076049805
-0.05557251
-0.040985107
0.0002810955
0.067199707
-0.05847168
-0.041503906
-0.031951904
0.07043457
-0.022003174
-0.085144043
-0.087280273
0.036346436
0.023529053
-0.058197021
0.021102905
0.047912598
0.048950195
-0.065856934
0.042999268
0.052581787
-0.078186035
-0.0077400208
0.068115234
-0.0089645386
0.029769897
-0.030776978
0.0021076202
0.009147644
-0.075805664
-0.022521973
-0.025146484
-0.082946777
-0.060394287
-0.044311523
-0.0098190308
-0.019973755
-0.051879883
0.060272217
0.055145264
0.008430481
0.044372559
-0.081665039
0.0050811768
0.025848389
-0.082092285
0.039154053
-0.065612793
-0.033111572
0.0057830811
0.057495117
-0.080383301
-0.018096924
-0.06451416
0.085998535
0.029129028
0.017883301
0.032073975
-0.044067383
-0.045776367
-0.0015134811
0.025482178
-0.038391113
0.0086746216
-0.069641113
-0.01033783
-0.024459839
-0.0076713562
0.082763672
-0.011787415
-0.0095596313
-0.06463623
0.052307129
0.073974609
-0.014709473
0.002779007
0.024871826
0.00064849854
-0.055297852
-0.014274597
-0.034973145
-0.080444336
0.05758667
0.073608398
-0.027114868
0.080749512
0.08392334
-0.012413025
0.048522949
0.064941406
0.004989624
0.039337158
-0.0010356903
0.046691895
-0.042236328
0.005645752
-0.033172607
0.047851562
-0.038421631
-0.024795532
-0.020233154
-0.00233078
0.072937012
0.009147644
0.033325195
-0.070800781
0.065979004
-0.024719238
0.051239014
0.080322266
-0.040161133
0.019546509
-0.05960083
0.052825928
-0.079040527
0.0039024353
-0.017562866
-0.058532715
-0.044128418
0.022369385
0.026870728
0.014663696
-0.039764404
-0.032043457
0.0085906982
0.044311523
-0.036987305
-0.051696777
-0.083129883
-0.020767212
0.021697998
0.018707275
-0.010063171
0.040283203
-0.070922852
0.036682129
0.059356689
0.067016602
0.040161133
0.067443848
0.084472656
-0.022018433
-0.080993652
0.001335144
-0.082275391
0.051727295
0.030166626
0.085449219
-0.029769897
0.06842041
-0.018432617
-0.036132812
0.056304932
0.038757324
-0.033813477
-0.029174805
-0.071472168
-0.0099258423
0.069030762
0.025131226
-0.035949707
-0.048858643
0.07421875
-0.012039185
-0.08026123
-0.024932861
0.063415527
0.0024757385
0.048797607
-0.077270508
-0.046661377
-0.058929443
-0.073974609
0.039886475
-0.049591064
0.023071289
0.05267334
0.035400391
0.032531738
-0.073120117
0.039123535
-0.0054512024
-0.055145264
0.058990479
-0.025146484
-0.00019574165
-0.074035645
0.0098342896
-0.017547607
0.057006836
0.044799805
0.085571289
0.031616211
0.074707031
0.029052734
-0.021240234
-0.056854248
0.025085449
-0.02406311
-0.033172607
-0.082397461
-0.079101562
0.065124512
-0.050689697
-0.0043869019
0.061065674
-0.075256348
-0.044494629
0.051177979
-0.053222656
0.052703857
0.017913818
-0.079833984
0.073608398
-0.019973755
-0.054351807
-0.053009033
0.060302734
0.084228516
-0.05368042
0.043945312
0.038391113
0.044036865
0.030776978
-0.059570312
-0.052734375
-0.045013428
-0.050109863
0.057617188
0.021682739
-0.011367798
-0.0093994141
0.083435059
-0.064453125
0.019805908
-0.0077819824
0.084777832
-0.030975342
0.036895752
-0.074645996
-0.0076599121
-0.065246582
-0.08215332
-0.012207031
0.032531738
0.088256836
0.06072998
-0.065429688
0.018600464
0.068847656
0.046875
0.036682129
-0.035125732
0.0061950684
-0.077697754
0.016601562
-0.062988281
0.002664566
-0.076171875
-0.018814087
0.03326416
0.014640808
-0.077453613
-0.015129089
-0.05960083
0.050842285
-0.050140381
0.043701172
0.030105591
-0.076782227
0.0077209473
0.042297363
-0.012893677
-0.023361206
0.0056381226
0.045440674
-0.051483154
0.034820557
0.019332886
-0.045562744
-0.051696777
-0.083557129
-0.063598633
0.077453613
-0.064758301
-0.052825928
-0.079528809
-0.056427002
-0.056915283
-0.043762207
-0.08026123
0.04397583
-0.016296387
0.053375244
-0.024307251
-0.073913574
-0.0042610168
0.05480957
0.039764404
-0.078796387
-0.086242676
0.022750854
0.0074806213
-0.053588867
0.0026988983
0.045593262
0.008644104
-0.0016126633
-0.046325684
-0.020446777
-0.053588867
0.030593872
0.012886047
-0.017349243
-0.013542175
-0.072387695
0.02331543
-0.018386841
-0.036590576
-0.083007812
0.047332764
-0.05758667
-0.088317871
0.083374023
-0.0028705597
-0.029876709
-0.046813965
0.061126709
0.020004272
0.056243896
-0.0058670044
0.0010967255
-0.015205383
-0.043273926
-0.0010814667
-0.018264771
-0.0015220642
-0.059143066
0.058105469
-0.065612793
0.057800293
-0.035552979
-0.036712646
0.079833984
0.02796936
0.030960083
-0.010421753
0.039764404
-0.0014600754
0.018814087
-0.078125
-0.029129028
0.0023441315
0.04196167
0.062561035
-0.083374023
-0.045837402
-0.055114746
0.0067558289
-0.024368286
0.030487061
-0.041870117
0.083496094
0.016860962
0.056121826
-0.022232056
-0.066833496
-0.059387207
-0.042297363
-0.076171875
0.064208984
0.01852417
-0.014350891
0.084960938
0.057098389
0.029388428
-0.064086914
0.048370361
-0.0074577332
-0.07635498
-0.063964844
0.0085220337
0.074462891
0.0052680969
0.034545898
0.0052528381
-0.08190918
0.079162598
0.065002441
0.075927734
-0.029724121
-0.016937256
0.0073356628
0.085632324
0.048858643
0.081542969
0.074645996
-0.03704834
0.024795532
0.034362793
0.037506104
0.07208252
0.0104599
0.042480469
0.036895752
-0.0060043335
-0.058654785
-0.087768555
0.087890625
-0.076782227
-0.06161499
0.070373535
-0.045562744
0.027481079
0.081420898
0.025054932
0.080749512
0.030273438
-0.055053711
0.082580566
-0.073120117
-0.050842285
-0.070007324
0.050201416
-0.0046310425
-0.056854248
0.020599365
0.024856567
-0.075622559
0.013526917
0.0063400269
0.024993896
0.01991272
-0.07635498
-0.046020508
-0.051940918
-0.045928955
0.067993164
0.082641602
-0.027053833
-0.083251953
0.081665039
0.032867432
0.024780273
0.042877197
-0.079162598
0.02796936
0.053741455
-0.080749512
-0.0050964355
-0.053833008
0.049224854
-0.082580566
-0.043060303
-0.051452637
0.076965332
0.0259552
-0.018569946
0.052642822
0.041442871
0.010444641
-0.082397461
0.060638428
0.0053443909
0.081420898
0.008354187
0.03338623
-0.051055908
0.084716797
0.042419434
0.052856445
-0.036499023
0.067504883
-0.017807007
-0.055267334
0.010284424
0.058563232
0.057159424
-0.0077438354
0.066101074
0.084960938
0.019119263
-0.028335571
-0.01713562
0.067749023
-0.023284912
0.013793945
-0.026153564
0.070983887
-0.080749512
-0.033660889
0.037780762
-0.0023117065
-0.086486816
-0.014289856
0.04309082
0.053436279
-0.069213867
0.003698349
-0.045715332
-0.053436279
0.087585449
-0.085632324
-0.050842285
-0.011360168
-0.083984375
-0.066223145
0.06036377
0.072998047
-0.036529541
-0.028427124
-0.078369141
-0.035430908
-0.083374023
0.052337646
0.088378906
-0.0064468384
-0.06652832
0.038970947
-0.021865845
0.0013093948
-0.045684814
-0.081298828
0.0095977783
-0.073059082
-0.053894043
0.071777344
-0.0040626526
0.079833984
0.047607422
0.071105957
0.03805542
-0.048278809
-0.050567627
0.086303711
-0.0038127899
-0.044464111
0.045562744
0.079162598
-0.035003662
-0.053649902
-0.040344238
0.050384521
-0.037811279
-0.054321289
-0.067504883
0.061004639
-0.076477051
-0.0098724365
0.04776001
-0.0012302399
0.017715454
-0.010055542
0.032592773
0.08380127
0.035430908
0.0010433197
-0.071289062
0.015762329
0.078979492
0.028518677
0.035675049
-0.058380127
-0.010475159
-0.021530151
0.0015535355
0.075195312
-0.050048828
-0.085693359
0.015327454
-0.071960449
-0.019210815
-0.02835083
-0.060974121
0.045471191
-0.057800293
-0.084594727
-0.055358887
0.050506592
-0.027984619
-0.023727417
-0.042694092
0.018478394
-0.078674316
0.001830101
-0.081298828
-0.057769775
0.009979248
0.039215088
-0.021011353
0.048675537
0.0037288666
-0.062561035
-0.081359863
-0.085388184
0.0067253113
0.025970459
0.010734558
-0.010673523
-0.076599121
0.062133789
0.034820557
0.0206604
-0.087646484
-0.041259766
-0.06237793
-0.053222656
-0.080383301
-0.014640808
0.039642334
-0.087097168
0.072753906
0.06048584
-0.049438477
0.03036499
0.073852539
-0.034667969
0.053894043
-0.085632324
-0.0055770874
0.059326172
0.011108398
-0.058135986
0.075561523
-0.022506714
-0.010406494
0.019714355
5.5015087e-05
0.086608887
-0.075012207
0.047424316
0.05770874
-0.0032978058
-0.023803711
-0.085083008
0.0070610046
-0.02796936
-0.056518555
0.087768555
0.065185547
-0.035491943
0.06829834
-0.06048584
-0.032043457
0.0075035095
0.018936157
-0.0030822754
0.041107178
-0.011207581
-0.023727417
-0.049285889
0.031890869
0.012786865
-0.070556641
0.045532227
0.018722534
0.030410767
-0.084228516
-0.047607422
-0.0066413879
-0.052459717
0.0085449219
0.033203125
-0.051300049
0.032989502
0.044311523
0.03237915
0.011077881
0.0032081604
-0.046539307
0.054107666
0.015853882
0.010757446
-0.0284729
0.046417236
0.042266846
-0.073852539
-0.034057617
-0.080688477
-0.038421631
-0.035095215
0.038452148
-0.0076637268
0.047149658
-0.087768555
0.016677856
-0.048156738
-0.017959595
0.002948761
0.05078125
-0.047912598
-0.077453613
0.012588501
-0.013618469
-0.058624268
-0.055755615
0.039093018
-0.019317627
-0.061065674
-0.036132812
-0.04675293
0.060882568
-0.021759033
0.014190674
0.049530029
-0.05355835
-0.030014038
-0.085510254
-0.0259552
0.060394287
0.060058594
0.037017822
-0.046112061
0.037902832
-0.042144775
-0.022293091
-0.072875977
-0.085388184
0.057098389
0.014732361
-0.037445068
-0.0090484619
-0.067138672
-0.054901123
0.067138672
-0.042114258
-0.012512207
-0.061065674
0.051757812
0.044342041
-0.042663574
0.024902344
-0.017105103
-0.081237793
0.040161133
-0.080932617
-0.0092926025
0.056365967
0.083007812
-0.088134766
0.07409668
0.081604004
-0.045135498
-0.082641602
-0.02204895
0.071350098
0.083435059
0.064758301
0.0081329346
-0.082519531
0.085205078
0.086853027
0.054992676
0.076660156
0.081054688
0.084472656
0.0029087067
0.028152466
0.015464783
-0.087463379
-0.031829834
-0.080749512
0.029312134
-0.052429199
0.04800415
-0.014373779
0.0044975281
0.059387207
-0.072998047
0.072021484
0.0094833374
-0.046051025
-0.031463623
0.025436401
-0.08770752
0.048675537
-0.080078125
-0.073181152
0.0098953247
0.013145447
-0.020690918
0.071838379
0.040283203
0.05065918
0.01448822
0.071105957
0.072937012
0.063171387
0.01159668
0.08807373
0.041503906
0.026229858
0.031097412
-0.048217773
0.0033931732
-0.022369385
-0.025253296
-0.068481445
0.082702637
0.019378662
0.026153564
0.065979004
-0.013801575
-0.07244873
-0.029510498
-0.083862305
-0.062469482
-0.0061378479
-0.016586304
0.053527832
-0.054473877
-0.084289551
-0.039825439
0.085876465
-0.027145386
0.066345215
-0.085327148
0.052124023
0.0546875
0.059265137
0.013534546
0.067687988
0.065124512
0.065917969
0.06036377
-0.031799316
-0.070373535
-0.02494812
0.075561523
0.058349609
-0.0095672607
-0.082458496
0.044647217
0.06628418
-0.00081062317
0.073181152
0.011695862
0.062133789
0.026733398
-0.038513184
-0.043518066
0.040466309
-0.036956787
-0.065185547
-0.027633667
0.07800293
0.035705566
0.077941895
0.047698975
-0.011062622
-0.080322266
-0.071655273
-0.0096664429
0.082275391
-0.028457642
0.086669922
0.071472168
-0.03704834
0.062469482
0.022735596
0.024536133
-0.013946533
-0.027267456
-0.022460938
0.04498291
-0.0070991516
0.084472656
-0.02633667
0.054473877
0.066833496
-0.045318604
-0.043609619
0.025222778
0.016677856
0.062286377
-0.010673523
-0.081542969
-0.057373047
-0.011322021
0.049957275
0.071411133
0.015960693
0.042755127
-0.041381836
-0.063781738
-0.077514648
0.048431396
-0.067260742
0.039825439
-0.067199707
0.08392334
0.038421631
-0.087646484
0.0085525513
0.068603516
-0.078735352
0.0068855286
-0.050079346
0.064453125
-0.0013523102
-0.013526917
-0.065185547
-0.025939941
0.017990112
0.052398682
0.018844604
0.067932129
0.016342163
-0.043457031
-0.072753906
-0.070373535
-0.011543274
-0.05078125
0.061706543
0.055023193
0.06628418
-0.039489746
0.024291992
0.01134491
-0.041656494
-0.061889648
0.052581787
0.073913574
-0.066589355
-0.082824707
-0.035491943
0.04473877
-0.018936157
0.0015611649
0.068786621
0.071960449
0.0340271
-0.059997559
0.0046043396
0.075439453
0.042419434
0.084594727
0.020980835
-0.025405884
-0.0097961426
0.028320312
-0.049163818
-0.077636719
0.050018311
-0.041168213
-0.0090332031
0.033905029
0.073974609
-0.0049972534
0.074523926
0.020019531
-0.049957275
-0.086242676
0.076599121
0.018920898
0.015701294
-0.081542969
0.075500488
-0.023986816
0.081481934
-0.0044898987
-0.070739746
0.076843262
-0.042480469
0.029647827
0.071533203
-0.057067871
-0.086181641
-0.067810059
0.078918457
-0.032348633
0.011390686
0.065246582
-0.068725586
0.012405396
0.044250488
0.059234619
0.044403076
-0.024002075
0.0061912537
-0.021621704
-0.0091705322
0.060150146
0.047180176
0.07220459
0.046173096
-0.010429382
0.027496338
-0.040222168
0.077209473
-0.03717041
0.083557129
0.05581665
0.039550781
-0.0019741058
0.05456543
0.015457153
-0.077880859
0.08807373
0.063232422
0.043731689
0.019241333
0.057495117
0.053161621
-0.015899658
0.043121338
0.070983887
0.0011987686
0.079956055
0.023223877
0.046722412
0.0031986237
0.045166016
0.054626465
0.0077819824
0.024520874
-0.0050735474
-0.028747559
-0.029067993
-0.020263672
-0.087097168
0.044616699
-0.048034668
-0.057067871
-0.019119263
-0.024612427
0.030593872
0.061706543
0.018539429
0.08782959
-0.035766602
-0.051513672
-0.059020996
-0.069763184
-0.013923645
0.076721191
0.02961731
-0.020584106
-0.026763916
0.0071716309
0.086730957
0.075927734
0.065551758
-0.037750244
0.084777832
0.042053223
0.03125
0.074462891
0.019668579
-0.043029785
-0.01361084
0.025787354
-0.0056610107
0.086791992
-0.00088882446
-0.072814941
0.020553589
-0.063964844
0.041229248
0.083618164
-0.060760498
0.045684814
-0.071655273
0.011505127
0.043395996
-0.012687683
-0.034790039
-0.08782959
-0.068664551
0.080688477
-0.048309326
-0.03125
-0.0046615601
-0.021972656
-0.063659668
-0.050018311
0.002325058
-0.030990601
0.072509766
0.074829102
0.067443848
-0.073669434
-0.013565063
0.0496521
-0.057739258
-0.047058105
-0.039520264
0.055908203
-0.058258057
-0.019577026
-0.074462891
0.031234741
0.069213867
-0.0081634521
0.001996994
0.083984375
-0.041137695
0.06036377
-0.0065040588
-0.007850647
0.030166626
-0.008644104
-0.012451172
-0.06060791
0.051147461
0.063110352
-0.047668457
-0.03616333
0.072937012
0.062255859
-0.06439209
-0.045166016
0.082092285
-0.044586182
-0.064697266
0.053161621
-0.013641357
0.074035645
-0.024459839
0.076293945
0.013053894
0.063842773
0.03125
0.026306152
0.0362854
0.068603516
0.047058105
-0.040679932
0.084350586
-0.044006348
-0.080810547
-0.0033397675
0.020690918
0.046722412
-0.079223633
-0.016387939
0.071655273
-0.045257568
0.055328369
-0.06463623
0.079833984
0.069702148
-0.029586792
0.08581543
0.046447754
-0.026016235
0.053955078
0.035308838
0.051086426
-0.06652832
-0.029586792
-0.085144043
0.0048408508
-0.054351807
0.069824219
0.024154663
0.0703125
0.033691406
0.027954102
-0.016616821
0.049682617
0.071411133
-0.068847656
-0.011749268
-0.033447266
0.012619019
0.079101562
0.0020923615
0.029434204
-0.0041656494
0.088195801
0.037689209
-0.042724609
0.07220459
-0.0081329346
0.063842773
0.085388184
0.011779785
-0.050964355
-0.081848145
0.075439453
0.0072669983
0.013427734
-0.018829346
0.071777344
-0.030227661
0.0036010742
0.053741455
0.009727478
0.084106445
-0.033050537
-0.00070476532
0.040313721
-0.0013246536
-0.04083252
-0.066223145
-0.027084351
0.077636719
-0.0068740845
0.066772461
-0.073059082
-0.045227051
-0.024642944
0.076782227
0.039459229
0.048858643
0.0022182465
-0.029693604
-0.0496521
0.008895874
0.066894531
0.062988281
-0.035827637
0.010452271
0.052581787
0.065490723
0.010467529
-0.056091309
0.048553467
-0.074890137
0.020019531
-0.010253906
-0.085388184
-0.057739258
0.080749512
0.016677856
-0.055633545
0.02671814
-0.024414062
-0.055419922
-0.057098389
0.082885742
0.071228027
0.070251465
0.021347046
-0.058166504
-0.030410767
0.074707031
-0.040374756
0.046386719
0.085876465
0.013832092
0.043457031
-0.043395996
0.077209473
0.011314392
0.052856445
-0.032043457
-0.077697754
-0.011039734
0.051055908
-0.056335449
-0.06842041
-0.059539795
0.073181152
0.044616699
-0.083679199
0.081665039
-0.045715332
-0.067749023
-0.051300049
-0.024047852
-0.050170898
-0.068847656
-0.046661377
0.025253296
0.055938721
-0.038330078
0.012115479
0.077880859
-0.056854248
-0.065612793
0.068481445
0.072937012
-0.015350342
-0.041992188
-0.049163818
-0.038391113
0.027008057
0.053192139
0.028839111
-0.007724762
-0.062408447
0.028137207
0.015960693
0.064453125
0.082519531
0.063293457
-0.060852051
-0.041046143
0.053283691
-0.016784668
-0.045654297
-0.072509766
0.013267517
-0.049163818
-0.063232422
0.0059013367
-0.075561523
-0.0014228821
-0.056121826
-0.06463623
0.045837402
0.018432617
-0.059936523
0.035919189
-0.08770752
0.026687622
0.011016846
-0.082885742
0.076782227
0.001285553
-0.071777344
0.084289551
-0.051544189
-0.084716797
0.0011415482
-0.033050537
-0.028762817
-0.0082626343
0.0029258728
-0.048553467
-0.015640259
0.035766602
-0.066711426
0.074890137
-0.040740967
-0.02331543
0.039642334
0.066162109
0.06628418
0.019851685
0.046661377
0.076599121
-0.029159546
0.035766602
0.0080718994
-0.011230469
-0.058319092
-0.084472656
-0.0015201569
-0.0038166046
-0.06628418
-0.084960938
-0.045898438
0.074401855
-0.068786621
-0.087036133
0.070922852
0.038452148
-0.070983887
0.026092529
-0.087219238
-0.071716309
-0.074584961
0.0064964294
0.04888916
0.048156738
0.0078430176
0.066894531
0.040313721
-0.076171875
0.081665039
0.025985718
0.08795166
-0.027420044
0.065307617
-0.066467285
-0.058319092
-0.032897949
-0.062561035
0.072631836
0.02507019
0.012001038
-0.0071640015
-0.01965332
0.066223145
0.050628662
0.00756073
-0.082275391
-0.058532715
0.012542725
0.050231934
-0.077880859
0.045043945
0.053405762
0.018493652
-0.077941895
-0.0036621094
0.040557861
-0.018981934
0.027877808
0.060180664
-0.085693359
0.047546387
-0.028778076
-0.008430481
0.011772156
0.081054688
-0.058044434
-0.0076599121
0.039398193
0.076477051
0.084350586
-0.03994751
0.069274902
-0.0054931641
-0.042755127
-0.0074272156
0.020706177
-0.012786865
-0.031311035
-0.0085067749
-0.022766113
0.058349609
-0.07244873
-0.0070571899
-0.058502197
-0.0083770752
-0.00011825562
-0.04083252
0.054595947
-0.036621094
-0.078491211
0.049713135
0.065063477
-0.081726074
-0.027282715
0.067504883
-0.064697266
0.0033988953
-0.0040245056
-0.043609619
0.08782959
-0.018844604
0.029220581
0.049804688
-0.059417725
-0.072875977
0.077026367
-0.0017528534
-0.067260742
0.050628662
-0.084838867
0.0040817261
0.011222839
-0.052215576
-0.069580078
-0.072998047
-0.04574585
0.057373047
0.085693359
-0.034698486
-0.021316528
-0.017837524
0.045196533
0.042388916
-0.041168213
-0.018936157
0.024932861
0.046875
0.057678223
0.010910034
0.031036377
0.04107666
-0.063049316
0.032226562
-0.053314209
0.084350586
0.077392578
0.041503906
-0.07421875
0.0047798157
0.078735352
-0.048950195
0.069396973
-0.023147583
-0.0022201538
-0.0051765442
-0.081970215
0.02142334
-0.079833984
0.050933838
0.052307129
-0.058105469
0.050018311
0.058502197
0.043487549
-0.079833984
-0.07611084
0.023468018
-0.06036377
-0.0096969604
0.035186768
0.086608887
0.087402344
0.087890625
0.078857422
-0.075683594
0.086914062
0.075866699
-0.041442871
-0.053039551
-0.057617188
-0.0043792725
0.0034770966
0.020080566
-0.027832031
-0.027008057
0.018554688
-0.069946289
0.069152832
0.039215088
-0.032836914
0.074157715
-0.032226562
-0.0040664673
-0.080322266
-0.056793213
0.041809082
-0.011070251
0.0092086792
-0.068115234
0.020004272
-0.058746338
0.036682129
-0.067993164
0.018508911
0.041900635
0.079162598
-0.051116943
-0.064086914
-0.024337769
-0.082763672
-0.077880859
-0.063781738
0.07598877
0.027191162
0.046386719
0.045166016
0.078491211
0.032684326
-0.027648926
-0.025924683
-0.0099182129
-0.08026123
0.023712158
0.029602051
0.08782959
-0.030929565
0.0043029785
0.011703491
0.010917664
-0.07800293
0.070373535
0.016906738
0.04598999
-0.006023407
0.039337158
0.059051514
-0.05670166
-0.080627441
-0.061187744
-0.049987793
-0.05645752
-0.0057106018
-0.062927246
0.078430176
0.077880859
-0.034088135
-0.0071678162
-0.06439209
0.068725586
-0.033233643
-0.078430176
-0.044372559
0.0128479
-0.025238037
-0.02432251
-0.0047988892
0.056304932
-0.045196533
0.0017614365
0.068603516
0.0037975311
0.032562256
-0.03213501
-0.045806885
-0.077819824
-0.013908386
-0.024856567
-0.070251465
0.067443848
0.045135498
-0.020507812
0.045654297
-0.01902771
0.042114258
0.042144775
0.035888672
0.021636963
0.015945435
-0.0055732727
-0.04006958
-0.060974121
0.036224365
-0.016113281
0.013809204
0.079589844
0.049133301
0.074707031
0.071899414
0.086791992
0.0059509277
-0.051422119
0.00072956085
-0.033691406
-0.053100586
-0.046356201
0.027511597
0.027832031
-0.034210205
0.049102783
0.048614502
0.063720703
0.063110352
-0.0048484802
0.077758789
-0.021697998
0.0077629089
-0.067260742
-0.032684326
0.075012207
-0.054443359
0.025100708
-0.076904297
0.054840088
-0.069580078
0.079101562
0.034423828
-0.00058174133
0.064819336
-0.079040527
-0.047332764
-0.044464111
-0.03817749
-0.031311035
0.061279297
-0.080871582
0.015716553
-0.067199707
0.013290405
-0.005607605
0.051147461
-0.036865234
0.083740234
0.081054688
0.025390625
-0.04977417
0.020294189
-0.030914307
-0.005405426
0.073364258
0.020477295
0.051177979
0.019256592
0.034820557
-0.022918701
-0.034088135
0.070739746
-0.081970215
0.055908203
0.06060791
0.02986145
0.042633057
0.080322266
-0.0005645752
-0.011238098
-0.039855957
0.013694763
0.042907715
-0.059875488
0.033416748
-0.0021762848
-0.0057983398
0.072265625
-0.058898926
0.025756836
-0.084106445
-0.021499634
-0.046661377
-0.080993652
0.076965332
0.040100098
-0.031555176
0.040435791
-0.023849487
0.029495239
0.027557373
-0.048736572
-0.016174316
-0.029342651
0.071411133
0.03604126
-0.0054283142
-0.066162109
-0.0014781952
0.0042762756
0.020233154
-0.017364502
0.03918457
0.052307129
-0.051239014
0.028305054
0.075744629
0.033874512
-0.087036133
-0.05557251
0.036804199
0.072570801
-0.078186035
-0.070251465
-0.022949219
-0.084899902
0.015945435
0.070922852
0.026947021
-0.025604248
0.0058898926
0.073059082
-0.031738281
0.080993652
0.050415039
-0.020217896
-0.014907837
-0.0025119781
0.029968262
-0.06149292
0.0089569092
-0.048278809
0.047485352
-0.041137695
-0.072387695
-0.021362305
0.0008020401
-0.022613525
-0.067749023
-0.026626587
-0.0011701584
0.064086914
-0.026199341
-0.017883301
-0.028747559
0.040618896
-0.038696289
0.038848877
-0.065124512
0.0032501221
-0.035491943
-0.023544312
-0.027587891
-0.052032471
0.01335907
0.012557983
0.0032157898
-0.036224365
-0.054229736
-0.0058822632
-0.086425781
0.083679199
-0.087646484
-0.034729004
0.0010099411
0.0045433044
-0.073486328
-0.037384033
-0.078186035
0.025161743
0.029754639
-0.042816162
0.02885437
-0.00069999695
0.063598633
-0.082275391
-0.071289062
-0.064147949
0.00340271
0.020553589
-0.038360596
-0.023483276
-0.023544312
-0.024032593
-0.058654785
0.047821045
-0.065307617
0.026916504
-0.080871582
-0.029983521
-0.046661377
0.073120117
-0.054138184
0.020584106
-0.0703125
-0.083068848
0.026077271
0.073669434
-0.004901886
0.040100098
0.037872314
0.029937744
0.083557129
-0.069458008
-0.067932129
-0.017807007
0.078063965
-0.027175903
0.0029201508
0.036499023
0.053619385
-0.018890381
-0.021728516
0.018249512
-0.0625
-0.063171387
0.03225708
0.071472168
-0.020767212
0.0091552734
-0.077331543
-0.009475708
-0.053833008
0.083984375
0.0022335052
-0.070983887
-0.077697754
0.0035152435
-0.018692017
-0.082458496
0.041168213
0.059997559
0.011665344
-0.062866211
-0.009979248
-0.033172607
0.071777344
-0.030319214
0.070861816
-0.075256348
0.003364563
0.0011835098
-0.029907227
-0.066040039
0.04800415
-0.014678955
0.0056610107
0.017776489
0.07598877
0.05859375
0.049743652
0.042938232
0.052734375
-0.039825439
0.049407959
0.049591064
0.085876465
0.07635498
0.073059082
-0.0184021
-0.013145447
-0.030487061
-0.079223633
-0.050231934
0.023971558
0.044464111
0.013175964
0.075378418
0.029754639
-0.028762817
0.058837891
-0.017074585
0.013084412
0.019058228
0.025817871
-0.019241333
0.077697754
0.077758789
0.028182983
-0.080810547
-0.04119873
0.03125
-0.074584961
0.042694092
-0.022201538
0.063537598
0.034210205
0.046173096
-0.088012695
-0.087097168
-0.053863525
0.037139893
-0.041259766
-0.032714844
0.036102295
0.049224854
0.072509766
0.070800781
0.052124023
0.059326172
0.074279785
-0.065185547
-0.042480469
0.0074577332
-0.028518677
-0.049316406
-0.079406738
0.050598145
0.078186035
-0.045532227
0.045623779
-0.047149658
0.050750732
-0.0018997192
0.044464111
-0.046325684
-0.045349121
-0.015823364
0.083007812
0.049377441
-0.039367676
0.01473999
0.029663086
-0.0069541931
-0.043060303
0.0440979
-0.0060997009
0.076660156
-0.069396973
-0.025512695
0.086425781
-0.016235352
-0.036682129
0.040405273
0.065429688
-0.06036377
-0.081481934
-0.061462402
0.042419434
0.048980713
0.033782959
0.064208984
0.061950684
-0.048706055
-0.036468506
-0.032745361
-0.0074234009
-0.074829102
0.085021973
-0.013046265
-0.075012207
0.049743652
0.087402344
-0.010696411
0.03729248
-0.04776001
-0.02897644
-0.023452759
-0.075744629
0.032592773
-0.028900146
0.034454346
0.067382812
0.00062990189
0.052886963
0.014297485
-0.0048065186
0.067749023
-0.02305603
0.046417236
-0.033203125
0.028289795
-0.087890625
-0.019332886
-0.085876465
-0.083312988
0.022491455
0.073120117
0.0066604614
0.061309814
0.0068511963
-0.081787109
-0.035949707
0.071899414
0.067138672
-0.084350586
-0.083374023
0.037628174
-0.054382324
-0.084350586
0.011520386
-0.014823914
0.066955566
-0.018585205
-0.0057601929
-0.065673828
0.047088623
-0.020355225
-0.0099945068
0.068786621
0.010734558
-0.0033245087
0.0064849854
-0.0390625
-0.030548096
-0.052337646
0.08416748
0.031463623
0.048156738
-0.022018433
0.041748047
-0.035095215
0.012901306
0.064208984
0.0027256012
0.071594238
0.068237305
-0.025436401
0.046722412
0.085449219
0.082336426
-0.023300171
-0.049346924
0.044464111
0.006526947
0.012229919
0.08782959
0.04083252
-0.0057601929
-0.034637451
-0.069335938
-0.030258179
-0.028076172
-0.000872612
-0.021347046
0.080932617
0.0010433197
-0.064147949
0.072814941
-0.082214355
-0.010803223
0.07598877
0.0046920776
0.0041122437
-0.017440796
0.034210205
-0.062225342
0.037384033
-0.017181396
0.01309967
-0.0021152496
-0.028289795
-0.078735352
0.079406738
0.014060974
-0.029693604
0.069946289
-0.03503418
-0.00075817108
-0.068786621
0.048400879
-0.065063477
-0.069152832
0.065979004
0.078430176
0.028106689
0.033508301
-0.075927734
0.045196533
-0.029266357
0.034912109
0.067749023
0.0010471344
0.016906738
0.0026035309
0.048156738
-0.03717041
-0.077941895
-0.046661377
0.022323608
-0.020645142
-0.035522461
-0.086669922
-0.075378418
0.04107666
0.043243408
0.016220093
0.087036133
0.047241211
-0.055419922
0.080566406
-0.049804688
0.056640625
0.083496094
-0.06149292
-0.051300049
0.063659668
0.022094727
-0.036621094
-0.051177979
-0.053405762
-0.025177002
0.02897644
0.050079346
-0.086791992
-0.023910522
-0.038543701
-0.086242676
0.0070838928
0.047576904
-0.014884949
0.017486572
-0.016784668
0.018478394
0.021987915
0.051574707
0.029541016
-0.051879883
0.086975098
0.050994873
-0.058135986
-0.069885254
-0.038360596
-0.042388916
-0.011787415
0.029434204
0.011322021
-0.046081543
0.00016462803
-0.063964844
-4.9173832e-05
-0.067138672
0.045593262
0.0071678162
0.017288208
0.061706543
0.039245605
-0.060546875
0.08782959
-0.067443848
0.053619385
0.0077590942
-0.077636719
-0.059509277
-0.068115234
-0.061859131
0.017044067
0.03225708
0.055908203
-0.02986145
0.011230469
0.030700684
-0.044311523
0.052764893
0.01751709
-0.050384521
-0.08795166
-0.033050537
-0.046478271
-0.0053443909
-0.014556885
0.02305603
-0.010147095
-0.058868408
-0.042510986
0.037414551
-0.0094223022
-0.045959473
0.045562744
0.0059127808
0.036071777
0.072753906
0.063110352
0.0029029846
-0.022598267
0.043426514
0.087158203
-0.083557129
0.073791504
0.043945312
0.062988281
-0.029876709
0.065429688
0.066223145
0.082824707
0.042449951
-0.081787109
-0.0017948151
0.03894043
-0.0015230179
0.014434814
0.051025391
0.020935059
-0.04876709
-0.071533203
-0.07019043
-0.015029907
-0.084594727
-0.027175903
0.043457031
0.072998047
0.0006814003
0.0092468262
-0.017105103
0.015182495
0.082336426
0.08782959
0.073242188
-0.061340332
0.0050544739
0.014213562
0.010002136
-0.029800415
0.014915466
0.034698486
0.039703369
0.035308838
-0.034606934
-0.042480469
-0.053771973
-0.00016117096
0.057373047
0.063903809
0.067504883
0.014793396
-0.025970459
0.042602539
-0.00042462349
-0.030853271
-0.052642822
-0.086547852
0.044525146
-0.027130127
-0.0098648071
0.063232422
0.07611084
-0.073181152
0.039123535
0.070800781
0.039672852
-0.084777832
0.069274902
-0.085571289
0.037353516
0.059143066
-0.0050201416
-0.028244019
0.027801514
-0.010803223
-0.0070343018
-0.054199219
0.0054969788
-0.0002104044
0.083740234
-0.023986816
0.078979492
-0.046691895
-0.059204102
-0.005191803
-0.042205811
0.042175293
0.0045204163
-0.065307617
-0.057922363
0.034454346
-0.026657104
0.0090332031
