-0.018127441
0.046691895
-0.020050049
-0.0081100464
-0.056518555
0.061676025
-0.046661377
0.051269531
-0.013763428
-0.0073127747
0.049530029
-0.060760498
-0.028442383
-0.016387939
-0.055114746
0.010398865
0.0050048828
0.031402588
0.01663208
-0.0059814453
-0.013305664
-0.048492432
-0.008605957
0.018295288
0.027481079
0.043395996
-0.039337158
-0.031707764
0.028320312
-0.010734558
0.050567627
-0.041412354
-0.053710938
-0.018829346
0.036468506
0.029541016
-0.004234314
0.015426636
-0.058105469
0.019088745
0.045806885
0.016921997
-0.038330078
-0.029678345
-0.05078125
-0.021789551
-0.039916992
-0.039123535
0.024627686
-0.0017700195
-0.052154541
-0.049102783
-0.054870605
0.0015487671
-0.020019531
-0.036834717
-0.059295654
-0.032440186
-0.014953613
-0.0041999817
-0.021881104
-0.026229858
-0.057189941
-0.052947998
-0.041351318
-0.053710938
0.050537109
-0.046691895
-0.0067749023
-0.049194336
0.0087890625
-0.036315918
0.0093994141
0.051879883
0.010894775
0.0037670135
-0.051727295
-0.05380249
0.011299133
-0.046325684
0.0073165894
0.034301758
-0.028884888
-0.039916992
-0.047332764
-0.035186768
-0.015617371
0.058624268
0.040100098
0.044067383
-0.035064697
0.021179199
-0.040496826
0.026565552
0.042907715
-0.043762207
0.051391602
-0.04006958
-0.031341553
-0.06072998
-0.024749756
0.060211182
0.054779053
-0.041717529
-0.029144287
0.044769287
0.038421631
0.015403748
-0.011199951
-0.050720215
-0.005279541
-0.017074585
0.061096191
-0.020248413
0.052856445
-0.036193848
0.032226562
0.055389404
0.032409668
0.038421631
0.0022087097
-0.050415039
0.045166016
-0.054138184
-0.054504395
-0.0023384094
0.040863037
-0.023956299
-0.03805542
0.031951904
-0.054107666
0.024719238
-0.038635254
0.044708252
0.0018825531
0.041809082
0.056945801
0.056274414
0.0091018677
0.04598999
-0.029998779
-0.062011719
-0.058258057
-0.0017604828
0.046264648
0.020812988
0.042358398
0.037017822
-0.034454346
0.059753418
-0.046508789
-0.023193359
0.054504395
-0.042175293
0.04586792
0.0028972626
-0.029174805
0.050415039
-0.0036849976
0.045715332
-0.032806396
0.015853882
0.0047225952
0.013694763
0.0046043396
0.05871582
0.017868042
0.0056114197
-0.03237915
0.030426025
-0.016479492
0.012924194
-0.029937744
-0.022384644
0.0042572021
0.0085601807
-0.041168213
-0.036651611
0.0099182129
-0.014167786
0.046356201
-0.043304443
-0.043914795
-0.058288574
0.0058860779
0.024200439
-0.048583984
0.027709961
-0.017547607
0.018875122
-0.018798828
0.006061554
-0.062164307
-0.03994751
-0.030075073
-0.039123535
-0.020202637
0.044799805
-0.045684814
0.0065879822
-0.028564453
-0.0072479248
0.0065155029
0.031768799
0.0010671616
-0.015762329
-0.019226074
-0.038330078
0.041687012
0.032318115
-0.046325684
-0.033996582
0.021377563
0.055023193
-0.0574646
0.038848877
-0.062408447
-0.041717529
0.010040283
-0.059051514
-0.055999756
0.050933838
0.031036377
-0.027801514
0.061767578
0.04284668
0.023666382
-0.013092041
-0.052062988
-0.041717529
-0.016204834
0.030715942
-0.056152344
-0.033843994
-0.0050125122
-0.061645508
0.030563354
0.058288574
0.00099277496
-0.016372681
-0.036132812
0.061096191
0.045532227
0.054138184
-0.02456665
0.010955811
0.012290955
0.058807373
-0.012054443
0.027770996
-0.060913086
-0.014328003
0.037475586
0.042480469
0.046020508
-0.054077148
0.018661499
-0.008026123
-0.040466309
0.047912598
-0.014907837
-0.038757324
0.053985596
0.057647705
0.050750732
-0.024597168
0.0055274963
0.025741577
0.05859375
0.061584473
-0.014976501
-0.01007843
-0.037994385
-0.051361084
0.014144897
0.062286377
-0.058868408
-0.011688232
0.038085938
-0.05065918
0.03137207
-0.021133423
0.03112793
0.041137695
0.047302246
0.045959473
-0.028549194
0.0059432983
0.056396484
-0.055297852
-0.051483154
-0.026077271
-0.01574707
0.010627747
-0.046112061
-0.025268555
0.052154541
-0.043243408
0.019134521
-0.05758667
0.0098800659
0.013916016
0.041931152
-0.045898438
-0.0093536377
0.031951904
-0.0049552917
-0.054779053
0.048400879
0.0045700073
0.026687622
0.055480957
-0.059814453
-0.029983521
-0.032318115
0.057006836
-0.028656006
-0.05279541
0.057800293
0.006565094
0.05355835
0.055450439
0.024597168
0.049316406
0.042541504
0.040710449
0.051452637
0.046783447
-0.02911377
0.0036277771
-0.059844971
-0.0045585632
-0.053039551
-0.028686523
0.0024356842
0.013717651
-0.00019645691
0.021453857
-0.053466797
0.0076675415
0.020980835
0.0085830688
-0.0043449402
-0.002368927
-0.043426514
0.035125732
-0.024337769
-0.012962341
0.058654785
-0.0039749146
-0.047210693
0.057556152
-0.048919678
0.013320923
0.061950684
-0.060516357
0.047027588
-0.0014543533
0.004234314
0.056915283
0.0049247742
0.0062828064
0.05960083
0.040008545
0.032714844
0.057495117
-0.053192139
-0.059448242
-0.0037956238
-0.023284912
-0.05380249
-0.022109985
0.043304443
-0.051116943
-0.035247803
0.030899048
-0.021209717
0.054840088
0.029266357
0.025772095
0.053283691
0.046966553
-0.013771057
0.034912109
0.062072754
-0.046386719
0.01210022
-0.00806427
-0.049804688
-0.051025391
-0.014663696
-0.03515625
0.02507019
-0.050811768
0.019897461
0.037719727
0.019470215
-0.032989502
-0.017608643
0.0054283142
0.046691895
-0.053588867
-0.058319092
0.0090713501
0.060913086
0.025039673
-0.0043563843
0.034118652
0.0093231201
0.045593262
-0.0029201508
0.01574707
-0.0056762695
0.058441162
-0.024047852
-0.033538818
0.052062988
0.0078887939
0.0092468262
0.0059661865
-0.055786133
-0.0031547546
0.024688721
-0.030838013
-0.033477783
0.0040817261
-0.0088500977
-0.040588379
0.050415039
-0.011360168
-0.034484863
0.0057411194
0.050537109
-0.013648987
-0.042724609
0.039123535
0.013648987
0.052276611
-0.048400879
0.024490356
-0.031890869
-0.050994873
-0.051483154
-0.061767578
0.044433594
-0.047058105
0.037475586
0.057525635
0.03427124
-0.0080108643
-0.014274597
-0.023239136
0.0099105835
-0.0081253052
-0.0023555756
-0.031158447
0.047546387
-0.029846191
-0.016983032
0.036499023
-0.055633545
0.0440979
0.0081558228
-0.0037727356
-0.03994751
-0.010253906
-0.0040359497
-0.037841797
-0.028335571
0.0069313049
0.012481689
0.026153564
0.026062012
0.055725098
-0.056213379
0.047119141
0.05847168
-0.024597168
-0.038787842
0.050201416
-0.0039291382
0.013595581
-0.019927979
-0.061645508
0.03137207
0.00022423267
-0.0026493073
0.060394287
-0.044433594
-0.040496826
-0.034545898
-0.04284668
-0.055603027
-0.051483154
0.039581299
-0.027587891
-0.013702393
0.0063285828
0.052062988
-0.003118515
0.018203735
0.052764893
-0.018997192
-0.060180664
0.020126343
0.034454346
0.015365601
-0.0058555603
-0.042449951
0.050292969
-0.01965332
-0.0066375732
0.014839172
0.011978149
-0.01210022
-0.055206299
0.024368286
0.011108398
0.017486572
0.032348633
0.016784668
-0.048248291
0.046142578
0.04675293
-0.004486084
0.031494141
0.034515381
-0.014595032
-0.033050537
-0.00061130524
-0.019973755
-0.048675537
0.0058479309
-0.0049095154
-0.052124023
-0.016433716
-0.017745972
0.010192871
-0.041595459
0.017990112
0.057891846
-0.012870789
-0.031066895
0.001832962
0.042388916
0.041351318
0.026733398
-0.031341553
0.026580811
0.047302246
0.060058594
0.026809692
0.047271729
-0.0390625
0.0519104
-0.015823364
-0.0091629028
-0.051971436
0.01473999
0.054412842
-0.054290771
-0.00013434887
-0.052886963
0.051422119
-0.060760498
-0.0098876953
0.054138184
0.04006958
-0.025680542
-0.055358887
-0.0089187622
0.043640137
-0.050140381
0.018600464
-0.052856445
-0.058288574
-0.05581665
0.036315918
-0.032104492
0.05581665
0.037750244
0.010887146
0.043151855
0.0099334717
0.004108429
0.025421143
0.035552979
0.033996582
0.06161499
0.016723633
0.061279297
-0.039733887
0.039764404
0.024505615
-0.042633057
0.04385376
-0.0072860718
-0.057983398
-0.0040817261
0.010643005
0.041992188
0.027816772
-0.018798828
-0.010047913
-0.047912598
0.046386719
-0.032806396
0.046142578
-0.0050125122
0.013320923
-0.027511597
-0.0075683594
-0.0020923615
-0.037658691
-0.057769775
-0.059936523
0.057830811
0.03994751
-0.049133301
-0.0086135864
0.061950684
0.04083252
-0.014099121
-0.041503906
0.0440979
0.010551453
-0.041259766
-0.04006958
0.026046753
-0.037658691
-0.024505615
0.013252258
0.0022945404
0.053466797
0.052398682
0.032867432
0.0056304932
-0.0045471191
0.047576904
-0.050750732
0.044647217
0.025283813
-0.0071792603
-0.013893127
-0.0044403076
-0.039611816
0.0043144226
0.053100586
-0.046447754
0.039154053
0.054168701
-0.058013916
-0.024276733
-0.037017822
-0.013366699
-0.014373779
-0.027496338
-0.042633057
-0.0096054077
0.022369385
-0.0084381104
-0.023193359
0.048706055
-0.015129089
-0.023223877
-0.0036125183
0.013534546
-0.044952393
-0.022460938
0.030349731
-0.040893555
0.061706543
-0.047668457
0.044006348
0.052978516
-0.041595459
-0.010574341
-0.041229248
-0.0546875
0.030380249
0.026184082
-0.022857666
-0.050323486
-0.0084152222
0.061309814
-0.02130127
-0.027236938
0.039520264
-0.044036865
0.058654785
-0.043029785
0.050872803
-0.061523438
0.012992859
-0.001865387
-0.026092529
0.032318115
-0.027999878
-0.043731689
-0.033233643
-0.032470703
0.03326416
0.054718018
-0.014518738
0.010108948
-0.057525635
-0.033203125
0.053710938
0.013290405
0.018585205
0.04196167
-0.043426514
0.020294189
0.043395996
0.014389038
-0.0018920898
0.020095825
0.056884766
-0.03793335
0.046539307
-0.044769287
-0.016647339
-0.039337158
0.059173584
0.053039551
-0.036254883
-0.018188477
0.0080795288
-0.051971436
-0.00010120869
-0.0098876953
-0.0084838867
-0.032592773
0.053527832
-0.024215698
-0.054443359
-0.02885437
-0.031158447
-0.046905518
0.020767212
0.0012626648
0.014953613
-0.0010986328
-0.021057129
0.01158905
-0.059875488
0.018875122
0.029602051
0.016326904
-0.041564941
-0.042236328
0.042999268
0.022338867
0.040130615
0.022949219
-0.055267334
-0.025268555
-0.055755615
-0.023651123
-0.060394287
0.047241211
-0.003944397
0.01940918
-0.022918701
0.015541077
0.015205383
0.0025348663
-0.025695801
-0.014572144
0.034301758
-0.062255859
0.059417725
-0.061767578
0.029312134
-0.044799805
-0.057739258
-0.013839722
0.0094604492
0.040588379
-0.037902832
-0.0061836243
-0.060852051
-0.057067871
0.035308838
0.023147583
-0.0084381104
-0.042633057
-0.019348145
-0.039276123
-0.053039551
0.04876709
-0.021972656
-0.024429321
-0.016647339
-0.051605225
0.027297974
-0.0032672882
0.050079346
-0.058959961
0.016143799
-0.048156738
0.037353516
-0.028457642
-0.045501709
0.014160156
-0.013473511
0.043945312
0.0013008118
-0.010375977
0.040649414
0.057678223
0.042724609
0.062011719
0.0017995834
0.028915405
0.013343811
-0.00034570694
0.035614014
0.016296387
-0.0015439987
0.024230957
0.029541016
0.0014009476
-0.00091648102
-0.038269043
-0.0082244873
-0.062042236
0.062347412
-0.00025653839
0.039215088
0.050689697
-0.059814453
0.039215088
0.054992676
0.051757812
0.02973938
-0.041931152
0.022247314
-0.057373047
0.05682373
0.053009033
0.024429321
-0.032897949
0.047668457
0.026031494
-0.00020337105
-0.018341064
0.0092010498
-0.062103271
-0.056671143
0.04776001
0.017883301
0.051452637
-0.014442444
-0.048919678
0.00037240982
0.018081665
-0.05657959
-0.059997559
0.046142578
-0.018539429
-0.011238098
0.030166626
0.055847168
-0.058563232
-0.011238098
0.030273438
-0.06036377
-0.013061523
-0.032928467
-0.059967041
0.052276611
-0.013542175
-0.050292969
-0.03012085
-0.03086853
0.011825562
0.021362305
-0.05770874
0.039459229
0.041381836
0.021697998
0.022338867
0.026794434
-0.034393311
0.030075073
-0.0047454834
-0.0099639893
-0.031036377
-0.013465881
-0.022094727
-0.04864502
0.022903442
-0.043579102
-0.054504395
-0.0071411133
0.02130127
0.060424805
0.037017822
0.053710938
0.004863739
-0.0027942657
0.025741577
-0.00034070015
0.017684937
0.020736694
-0.021316528
-0.035369873
0.010192871
0.0075912476
0.004234314
0.0045776367
-0.0072898865
-0.0031394958
0.015182495
0.041534424
0.03314209
-0.030975342
-0.025634766
0.040100098
-0.039825439
-0.023681641
0.01247406
-0.021484375
-0.02973938
-0.0093002319
-0.0340271
0.048919678
0.035919189
0.043914795
0.049926758
-0.00087690353
-0.049591064
-0.015853882
0.03225708
0.022491455
-0.016174316
0.0069046021
-0.0060882568
-0.042602539
-0.035308838
-0.028488159
0.046020508
-0.0028419495
-0.056488037
0.013870239
-0.022094727
0.043945312
-0.018920898
-0.04800415
0.017532349
0.025894165
-0.016693115
-0.053955078
0.050262451
0.030914307
0.036987305
-0.044342041
-0.046447754
-0.019699097
0.019165039
-0.031311035
0.012657166
0.020401001
-0.033081055
0.035217285
0.033172607
0.029373169
-0.055999756
0.042297363
0.046936035
0.010604858
0.036315918
-0.049346924
0.028030396
-0.030639648
0.019866943
-0.039611816
0.011108398
-0.0089111328
-0.0044174194
-0.045166016
0.049163818
0.048706055
-0.016052246
-0.036987305
-0.0011177063
0.011940002
-0.056976318
-0.047149658
0.023178101
-0.017379761
-0.029312134
-0.0027542114
0.050445557
0.049560547
-0.018707275
0.059204102
-0.053009033
-0.01108551
0.011070251
-0.043151855
0.031829834
0.020935059
0.035949707
-0.020706177
0.056427002
0.027618408
-0.014411926
-0.0069198608
0.025375366
-0.0052070618
-0.018539429
-0.010505676
0.034332275
0.053009033
0.030563354
-0.038238525
0.014938354
0.024963379
0.0084686279
0.038269043
-0.05682373
0.016372681
0.0055618286
-0.015060425
0.034881592
-0.045410156
-0.016525269
0.05078125
-0.050842285
0.024307251
-0.057281494
0.03515625
-0.042022705
-0.057769775
-0.005279541
0.050384521
0.047729492
0.027862549
0.02935791
-0.045959473
-0.037994385
-0.012489319
-0.0069923401
-0.033966064
-0.025848389
-0.019210815
-0.0021419525
0.04989624
0.00027489662
0.020767212
-0.0078887939
-0.016082764
0.032348633
-0.052368164
-0.041717529
-0.013092041
0.039764404
-0.012496948
-0.030563354
0.039123535
-0.038452148
0.024703979
-0.049621582
0.029434204
-0.021438599
-0.051422119
0.020202637
-0.056640625
-0.008972168
-0.012893677
0.0040168762
-0.01410675
0.022994995
0.0053863525
0.012466431
0.062408447
0.049072266
-0.057434082
0.039489746
-0.03024292
0.012359619
-0.034576416
-0.020629883
-0.047088623
0.04977417
-0.012710571
-0.016601562
0.0044708252
-0.045532227
-0.042877197
-0.040100098
-0.0040016174
-0.040435791
-0.031738281
-0.055419922
-0.0012750626
-0.013587952
-0.032012939
0.024307251
0.019393921
-0.029800415
0.048614502
0.050354004
0.047119141
-0.00093317032
-0.0011663437
-0.031738281
0.015350342
0.011917114
-0.03213501
0.01574707
-0.0091323853
0.03717041
-0.012756348
-0.059844971
0.036590576
-0.027984619
0.04901123
0.061584473
0.023880005
0.054870605
-0.028167725
0.044586182
-0.04574585
-0.019958496
0.03125
0.05859375
-0.059967041
0.028488159
0.006652832
0.040496826
0.03338623
0.018417358
0.026107788
-0.023849487
0.062072754
0.001789093
-0.011657715
0.010627747
-0.0053634644
-0.028518677
0.0061035156
-0.021865845
-0.021102905
-0.031524658
-0.025970459
-0.026153564
0.026870728
-0.041931152
0.011482239
0.049133301
-0.04574585
0.045318604
0.00440979
-0.04385376
-0.010368347
-0.061126709
0.011367798
-0.024856567
0.048156738
-0.035247803
-0.033081055
-0.031066895
0.039367676
-0.0089569092
-0.050872803
0.025588989
0.013183594
0.022506714
0.042114258
0.042419434
-0.018234253
0.031402588
0.024124146
-0.018005371
-0.047058105
-0.056518555
0.026626587
-0.013633728
-0.018554688
-0.00048565865
0.047332764
0.00044131279
-0.03137207
0.012878418
-0.028762817
0.016403198
0.015899658
0.050811768
0.04296875
-0.051300049
-0.013259888
-0.038116455
-0.031341553
-0.049285889
0.033966064
0.0092849731
-0.060333252
0.039916992
-0.03112793
-0.039672852
-0.023544312
0.047485352
0.031311035
-0.047637939
-0.061523438
-0.037628174
-0.032073975
0.045715332
-0.03894043
0.016021729
0.026977539
0.0087890625
0.029541016
0.0013780594
-0.0047531128
0.01914978
-0.033843994
-0.053436279
-0.00010579824
0.015571594
-0.00038862228
-0.026000977
-0.021331787
-0.04385376
0.02947998
-0.060882568
-0.058105469
0.043548584
0.054199219
-0.010864258
0.047790527
0.056060791
-0.045043945
0.011802673
0.030471802
0.056335449
0.03302002
0.059295654
-0.044311523
0.036132812
-0.056640625
0.017166138
-0.014221191
0.020812988
0.028305054
-0.029083252
0.033355713
-0.032989502
0.037109375
0.061584473
0.054351807
0.002166748
0.010643005
0.02947998
0.022659302
0.028121948
-0.060150146
-0.032012939
0.026275635
-0.05960083
0.014442444
0.010574341
0.012313843
0.047332764
-0.051971436
0.060699463
-0.020202637
0.0046310425
0.036834717
-0.029037476
-0.055175781
-0.023971558
-0.02645874
-0.045898438
0.026779175
0.026077271
-0.012145996
0.05368042
-0.012832642
-0.042419434
-0.0054893494
0.040802002
-0.014968872
0.062255859
-0.0060157776
-0.044555664
0.051544189
0.0058517456
0.04083252
-0.013870239
0.014984131
-0.038116455
-0.051757812
-0.047363281
0.038970947
0.029815674
0.033111572
-0.0057182312
0.054962158
0.019012451
-0.043029785
-0.013206482
-0.008354187
0.034210205
-0.0076217651
0.024429321
-0.015350342
0.020675659
0.012924194
-0.050140381
0.01625061
-0.018264771
0.030181885
-0.011497498
-0.026260376
0.0043144226
0.055999756
-0.015762329
0.062133789
0.039520264
0.014526367
-0.035797119
0.014602661
-0.019866943
0.029846191
-0.0049781799
0.012542725
0.032104492
-0.0015439987
0.01348114
-0.049530029
0.0062599182
-0.059265137
0.0090255737
-0.026687622
0.019256592
0.023330688
-0.011894226
-0.045776367
0.054077148
-0.033630371
0.022872925
-0.0048027039
-0.015060425
-0.055328369
0.042877197
-0.037506104
-0.006729126
0.050506592
-0.028518677
0.0080032349
0.041259766
-0.04498291
0.049163818
-0.024841309
-0.057617188
0.042022705
0.0060882568
-0.029449463
0.060974121
-0.013954163
0.012641907
-0.049072266
0.039978027
-0.0046958923
-0.0063591003
-0.010391235
-0.010467529
0.051086426
0.035675049
-0.019744873
0.0597229
-0.043457031
-0.010978699
-0.014320374
-0.011779785
0.028808594
0.018768311
-0.061584473
-0.010002136
-0.023986816
-0.005947113
-0.0043449402
-0.012756348
0.043395996
0.026153564
0.060394287
-0.0053024292
0.048675537
0.0209198
-0.0089263916
0.03503418
-0.013175964
-0.05758667
-0.060302734
0.0053520203
-0.049346924
-0.0042419434
-0.062316895
0.047485352
0.011787415
-0.014953613
0.009223938
0.054351807
0.048278809
0.014892578
0.022827148
0.05657959
0.048431396
0.038146973
-0.05947876
0.042572021
0.0065689087
-0.032073975
0.041748047
0.035552979
-0.050231934
-0.020568848
-0.036193848
0.01398468
0.032348633
0.040863037
-0.016647339
-0.02494812
0.010894775
0.059906006
-0.018005371
-0.0077476501
-0.052001953
-0.012443542
-0.025543213
-0.028839111
-0.036224365
-0.037872314
0.0060043335
-0.041564941
-0.056213379
0.053283691
-0.032531738
-0.049804688
-0.016204834
0.04397583
0.018280029
-0.0080795288
0.044342041
-0.03314209
-0.030487061
0.0037269592
-0.034301758
0.02015686
0.031204224
-0.049835205
0.0206604
0.0069351196
0.034362793
-0.019180298
-0.016555786
0.0068473816
0.042999268
0.052947998
-0.013549805
-0.062164307
0.042175293
-0.025314331
-0.00032806396
0.022003174
-0.021575928
-0.0181427
0.024887085
-0.033691406
0.060211182
-0.033203125
-0.017379761
0.034332275
0.029693604
-0.013031006
0.028106689
-0.047393799
-0.060668945
0.031616211
-0.0044822693
-0.016799927
0.05645752
-0.042541504
-0.049835205
0.007434845
0.032165527
-0.012702942
0.031921387
-0.013313293
0.056671143
-0.03527832
-0.035766602
0.018554688
0.053344727
-0.056732178
0.024932861
0.038116455
0.058776855
0.0096588135
-0.045013428
-0.060638428
-0.022079468
0.045806885
-0.031616211
0.033966064
-0.024047852
-0.026275635
-0.027923584
0.031173706
-0.013671875
-0.057189941
-0.041931152
-0.043579102
0.05657959
0.037475586
0.0044326782
-0.020599365
-0.041748047
0.037658691
-0.028701782
0.043304443
-0.051696777
0.0031700134
0.040222168
0.010162354
0.032470703
0.016052246
-0.020080566
-0.05368042
-0.04876709
0.058929443
0.026916504
0.040130615
0.010299683
0.061035156
-0.055236816
-0.0042724609
0.053100586
-0.038299561
-0.01385498
0.0013179779
-0.022293091
-0.0068969727
0.043792725
0.056854248
0.048156738
-0.0032367706
-0.0057792664
-0.06149292
-0.016387939
0.042999268
-0.018447876
0.032745361
0.058349609
-0.017974854
0.0069847107
-0.0045509338
-0.048400879
0.036712646
-0.037475586
0.021789551
0.04989624
0.038635254
0.015510559
0.016738892
-0.043914795
-0.05480957
0.00070095062
0.036865234
-0.009727478
-0.036651611
0.023727417
0.059844971
-0.013786316
-0.045501709
-0.043518066
-0.030990601
0.0036373138
0.0047225952
-0.0077438354
-0.0044708252
-0.051177979
0.032623291
0.05480957
0.021209717
-0.057037354
-0.011367798
0.022537231
0.060668945
0.012695312
0.036895752
-0.061737061
0.050262451
0.04989624
0.054138184
0.051055908
0.057861328
0.034576416
-0.017990112
0.021438599
-0.020996094
0.0024375916
-0.056488037
-0.04888916
0.0080566406
0.058227539
0.037231445
0.022415161
0.056274414
-0.018707275
-0.0181427
-0.0058097839
0.062438965
0.0018148422
-0.0012207031
0.01890564
-0.031585693
-0.016647339
0.049316406
-0.0062980652
0.040252686
-0.022506714
0.011131287
-0.040344238
-0.014175415
0.0078430176
0.0085601807
0.049926758
-0.020950317
-0.0027980804
-0.014564514
0.040130615
-0.017028809
-0.012176514
0.012802124
-0.0049247742
-0.013290405
0.053161621
0.0076217651
0.053314209
-0.0012121201
0.03414917
0.036895752
0.018203735
0.0076675415
0.062011719
-0.0057144165
0.04006958
-0.040344238
0.0052909851
0.061828613
0.053192139
0.01789856
-0.016464233
0.054046631
-0.011444092
0.034729004
0.056671143
-0.027908325
0.0064926147
-0.04119873
0.014846802
-0.044708252
0.037658691
0.040527344
-0.054138184
-0.0059013367
0.010108948
-0.059448242
-0.056976318
-0.0090332031
-0.044830322
-0.010635376
0.043670654
0.0016794205
0.037719727
-0.019393921
0.054840088
0.019638062
0.0044326782
0.059326172
-0.046539307
-0.034179688
-0.042053223
0.015472412
-0.031082153
-0.041748047
-0.027130127
0.03338623
0.014556885
0.037597656
-0.022918701
-0.050048828
0.0080871582
-0.062469482
0.053619385
0.014823914
0.049804688
0.061828613
-0.028869629
-0.020614624
0.047698975
-0.046508789
-0.058898926
0.030990601
-0.051696777
-0.016464233
0.0340271
-0.037872314
-0.058227539
-0.03314209
-0.055664062
0.013183594
-0.036407471
-0.017608643
-0.058776855
0.010879517
0.028198242
0.024291992
0.004611969
-0.0044975281
-0.03036499
0.039916992
0.040557861
-0.021072388
0.042724609
-0.036529541
0.0043449402
-0.0086212158
-0.034240723
-0.023147583
0.034973145
0.036682129
-0.023208618
-0.02935791
0.026123047
0.040527344
0.055480957
-0.054412842
-0.036407471
-0.019821167
-0.045227051
0.03604126
0.029220581
-0.015930176
-0.02822876
0.014060974
-0.014595032
-0.057739258
0.024154663
0.035186768
-0.0026054382
0.048095703
-0.0099945068
0.010765076
-0.0076637268
0.00039291382
0.039764404
0.013793945
0.0074234009
0.042022705
0.012512207
0.041137695
-0.015190125
0.055938721
-0.01991272
0.051422119
0.0046691895
-0.020996094
-0.042327881
0.0012378693
-0.030014038
0.017318726
0.032958984
0.036132812
0.060943604
0.060913086
-0.059417725
0.045471191
-0.0070571899
-0.00011527538
-0.031738281
-0.026123047
-0.029403687
-0.029067993
0.056030273
-0.013931274
-0.0069999695
0.034667969
0.048278809
0.055999756
0.035308838
0.0064163208
-0.049163818
-0.025909424
-0.046386719
-0.013511658
0.0021152496
0.031097412
-0.061828613
0.045623779
-0.059539795
-0.062438965
-0.026824951
-0.017318726
-0.046966553
0.021179199
0.034515381
0.053466797
-0.013244629
-0.035247803
-0.0022792816
-0.0071792603
0.004901886
0.0057945251
-0.008934021
-0.0262146
-0.020507812
-0.00086116791
0.051696777
0.032287598
0.044219971
-0.015266418
-0.038482666
0.0074539185
-0.01184082
0.0014610291
-0.015220642
-0.043670654
-0.044158936
-0.027313232
-0.062438965
-0.019775391
0.0074272156
-0.046417236
-0.041351318
-0.018585205
0.0094223022
-0.043762207
0.018981934
0.015075684
-0.051391602
0.011253357
-0.0032787323
-0.047302246
-0.051696777
-0.0035572052
-0.050872803
0.053405762
0.0081558228
-0.042907715
-0.052185059
0.039001465
0.053955078
0.04107666
0.046661377
-0.060943604
0.042297363
-0.038757324
0.024688721
-0.056427002
-0.032928467
0.016967773
-0.054321289
-0.021209717
0.04901123
0.022018433
-0.045410156
0.019561768
-0.022659302
0.020477295
0.017807007
-0.045562744
-0.018753052
-0.0022964478
-0.049957275
-0.0104599
-0.023620605
0.023101807
-0.0440979
0.0032978058
-0.05279541
0.038970947
0.007484436
-0.0032901764
0.061431885
0.026611328
-0.014564514
-0.0064620972
0.030151367
0.027893066
0.015808105
0.039855957
-0.0032253265
-0.026092529
-0.0070610046
-0.04598999
0.02053833
-0.034820557
-0.04385376
-0.053161621
0.040008545
-0.0091552734
0.062469482
-0.026748657
0.022247314
-0.032440186
-0.0045089722
0.034790039
-0.014083862
0.015960693
0.041442871
0.033538818
-0.0056838989
0.032287598
-0.018356323
0.026306152
-0.06149292
0.040802002
0.019546509
0.023391724
-0.03994751
0.02507019
0.0090484619
0.019485474
0.023361206
-0.049682617
0.038726807
0.042510986
-0.055847168
-0.06036377
0.052703857
-0.011817932
0.024414062
0.0034389496
-0.052734375
-0.0020370483
-0.0039138794
0.042297363
0.003780365
0.0546875
0.025283813
-0.023010254
-0.04586792
0.043212891
-0.015686035
-0.042510986
-0.0011873245
0.061584473
0.038330078
-0.020812988
0.00089216232
-0.03805542
0.0058403015
0.044006348
0.039794922
0.0050506592
0.045623779
0.035522461
-0.008392334
-0.030029297
0.046203613
-0.0022125244
0.002571106
0.038909912
-0.045806885
0.010986328
-0.0052185059
0.059661865
-0.034606934
-0.024642944
0.044677734
0.038391113
-0.038269043
0.057434082
-0.060150146
0.034057617
0.031341553
-0.04309082
0.04397583
0.042877197
0.048187256
0.010238647
0.059661865
0.041656494
0.0047531128
-0.039245605
-0.045043945
-0.057891846
0.011901855
0.019210815
0.025436401
0.054412842
0.061157227
-0.01272583
0.032836914
0.04208374
-0.010696411
0.0034885406
-0.0030727386
-0.054412842
0.021575928
-0.05480957
0.026596069
0.059082031
0.017150879
-0.043945312
-0.0027103424
0.021469116
0.061706543
-0.057769775
0.022827148
0.0074081421
0.010871887
-0.03314209
-0.0076065063
0.049377441
0.0033874512
-0.043151855
0.053894043
0.049346924
0.042724609
0.061431885
0.059448242
0.0074081421
-0.031158447
-0.019042969
-0.045349121
-0.0098953247
-0.022369385
-0.0035438538
0.027160645
-0.022583008
0.017883301
0.02671814
0.045349121
0.060852051
0.023376465
0.037109375
0.044433594
0.001496315
0.0031890869
-0.025314331
-0.015869141
0.042266846
0.0095596313
0.030441284
0.030944824
0.035186768
0.00056791306
0.035858154
-0.023605347
-0.018386841
0.051269531
-0.0262146
-0.0022888184
0.06149292
-0.0024738312
0.055236816
0.011444092
-0.038146973
-0.044006348
0.031173706
0.0051383972
-0.058319092
-0.033813477
-0.048095703
-0.00548172
0.023178101
-0.06137085
0.055786133
-0.023971558
-0.015525818
-0.0046005249
0.027770996
0.042541504
-0.04019165
0.017913818
0.047637939
-0.051574707
-0.043334961
0.044921875
0.012763977
0.020446777
-0.0021858215
-0.036407471
-0.030334473
-0.045257568
0.030807495
-0.057067871
-0.0028171539
0.0546875
0.023727417
0.06060791
-0.039703369
-0.023925781
0.024093628
0.058410645
-0.020828247
0.026199341
0.022323608
-0.012741089
-0.056884766
-0.046783447
0.021820068
-0.013519287
0.043670654
0.039520264
-0.0025997162
0.030670166
-0.049957275
0.019332886
-0.023132324
0.022994995
0.043487549
0.030960083
-0.01474762
-0.052185059
-0.0097427368
0.025756836
0.011070251
0.061798096
0.050750732
0.047912598
0.033630371
0.02192688
0.026306152
0.051574707
0.055389404
-0.0095977783
-0.00069713593
-0.035919189
0.037506104
0.012916565
-0.036743164
0.0069923401
-0.013465881
0.035522461
-0.055389404
-0.043579102
0.00014770031
-0.021865845
-0.023284912
-0.010757446
-0.031097412
0.055541992
-0.021789551
-0.043792725
0.022262573
-0.031829834
0.039794922
-0.02885437
-0.0597229
0.0049285889
0.052642822
0.046905518
-0.012992859
-0.059783936
-0.032806396
0.005355835
0.0010328293
-0.053375244
0.0089645386
-0.023330688
-0.0046386719
0.03515625
-0.042022705
-0.046905518
-0.037200928
-0.0066833496
-0.0031108856
0.055664062
0.0012531281
0.049743652
0.057312012
0.037689209
-0.020843506
0.029129028
-0.02885437
0.012260437
0.034362793
0.0051345825
-0.022598267
0.021575928
0.0060043335
0.043945312
-0.059509277
0.033172607
0.034423828
-0.032196045
-0.012359619
0.049865723
0.053833008
-0.049468994
0.062133789
-0.0048217773
0.01675415
0.055023193
0.013206482
-0.035003662
0.015762329
0.025360107
0.058319092
0.022247314
-0.050628662
0.021560669
-0.026016235
0.061401367
-0.021697998
-0.037445068
-0.033966064
0.0042419434
0.061248779
-0.039978027
-0.03717041
-0.0059661865
0.017227173
0.0016841888
0.055297852
-0.03302002
0.027008057
0.048522949
0.052215576
0.0063781738
-0.054016113
-0.013328552
0.018829346
0.034240723
-0.04901123
0.05859375
0.053436279
-0.0065193176
0.0018119812
-0.048187256
0.045196533
0.030715942
-0.045043945
0.004119873
0.048461914
-0.02293396
-0.02935791
0.049499512
0.029251099
0.053100586
0.03074646
-0.037872314
-0.042297363
0.0076217651
0.038330078
0.031066895
0.032653809
-0.032745361
-0.0088500977
0.0028057098
0.052886963
0.037322998
-0.059326172
0.030944824
0.062408447
0.033752441
0.0061645508
-0.047302246
0.025634766
-0.0049285889
0.0090408325
-0.041625977
0.046600342
-0.061065674
-0.023330688
0.036132812
-0.0546875
-0.056365967
0.041412354
0.033660889
0.044891357
-0.035888672
0.059539795
0.0010490417
-0.020004272
0.038970947
-0.045166016
0.059967041
-0.024658203
0.018218994
0.038208008
-0.039123535
-0.024246216
0.036682129
-0.00048923492
-0.0033454895
-0.052642822
0.0094146729
0.058227539
0.026916504
0.051361084
-0.0092544556
-0.058013916
-0.015914917
-0.058044434
-0.026611328
-0.053192139
0.019134521
-0.024230957
-0.0023536682
0.041168213
-0.036407471
-0.014923096
0.047180176
-0.0083465576
-0.052307129
-0.040679932
0.0045814514
-0.058807373
0.0042572021
0.040649414
0.026809692
0.0063476562
0.059661865
-0.0092926025
-0.033996582
-0.013633728
0.046264648
0.053588867
0.023010254
-0.044403076
0.060668945
-0.050323486
-0.05859375
0.0089569092
-0.023925781
0.062042236
-0.018890381
-0.014755249
-0.049865723
-0.046234131
0.023162842
-0.013748169
0.019393921
0.029098511
0.002746582
-0.040496826
-0.0090255737
0.050598145
0.0013408661
0.04776001
-0.051635742
0.025772095
-0.05090332
-0.010749817
0.056518555
-0.05569458
0.062347412
0.011245728
0.053833008
0.04296875
-0.0066833496
0.015533447
0.060913086
-0.02935791
-0.0072402954
0.047271729
-0.051361084
-0.0042610168
0.052886963
-0.048492432
-0.040893555
-0.007648468
0.052490234
-0.060241699
0.033447266
-0.01247406
-0.027435303
0.026443481
-0.052490234
-0.011642456
0.0055618286
-0.059204102
0.01259613
0.0066184998
-0.059448242
0.035736084
-0.024368286
0.038909912
-0.0040855408
-0.045532227
0.041778564
-0.020233154
0.026565552
-0.016448975
-0.046478271
-0.051818848
0.019805908
-0.049255371
0.033721924
-0.023193359
-0.0065307617
0.045928955
0.011070251
0.052856445
0.046936035
-0.036224365
-0.053314209
0.015655518
0.011444092
-0.014183044
0.045013428
-0.04397583
-0.055969238
0.00060415268
-0.028274536
0.049285889
-0.039001465
0.061553955
0.047393799
0.045043945
-0.031707764
0.015434265
0.015655518
0.018447876
0.049255371
0.024841309
-0.039672852
-0.042663574
0.051086426
-0.044219971
-0.050750732
-0.017593384
0.046630859
0.059753418
0.0011644363
-0.056365967
0.0032424927
-0.020263672
0.0041847229
-0.041259766
-0.022949219
0.01574707
0.04397583
0.023147583
0.020828247
-0.034881592
0.050598145
0.0034275055
-0.027832031
-0.010414124
-0.017776489
0.037628174
-0.0097885132
-0.011131287
0.030715942
0.03112793
0.019515991
0.020004272
0.0085983276
0.0044403076
0.012588501
0.01020813
-0.056915283
-0.0074272156
-0.057922363
0.018371582
0.040496826
-0.040313721
0.01285553
-0.045562744
-0.011039734
0.0082931519
0.04083252
0.0080490112
0.010093689
-0.054870605
0.026473999
-0.013786316
-0.060943604
-0.0045928955
0.037414551
0.02305603
0.026031494
-0.036224365
0.038085938
-0.052398682
0.048400879
0.032165527
-0.037475586
0.02003479
0.052185059
-0.045959473
0.022918701
-0.019195557
0.031951904
-0.023300171
-0.020004272
-0.035064697
-0.034637451
0.025039673
0.058197021
-0.048553467
-0.010574341
0.042449951
-0.011505127
-0.028244019
0.060455322
-0.0017776489
0.056121826
0.029815674
-0.016708374
-0.057098389
-0.04901123
-0.018859863
0.036376953
0.010154724
-0.034759521
0.036437988
0.034606934
0.039001465
0.029510498
0.02015686
-0.044342041
-0.037750244
-0.0075721741
0.015090942
-0.018066406
-0.033569336
-0.02192688
0.034515381
-0.043518066
0.056732178
-0.053863525
-0.011276245
-0.059356689
-0.044006348
-0.017074585
0.028091431
-0.048492432
-0.013381958
-0.0050544739
-0.035614014
-0.047393799
0.027954102
-0.033172607
0.052001953
-0.048522949
-0.0597229
-0.00037550926
-0.027618408
-0.00092029572
0.048187256
-0.038970947
0.061126709
0.054138184
0.053436279
0.027664185
-0.029464722
-0.050506592
0.019424438
0.0055618286
-0.03604126
0.032562256
0.059356689
-0.053131104
0.045654297
0.043792725
0.0051193237
0.020111084
0.024337769
-0.02243042
0.023925781
-0.042724609
0.0018253326
-0.023178101
-0.049926758
0.0013008118
-0.0049781799
0.0013227463
-0.018371582
-0.016952515
-0.011680603
-0.01474762
-0.013870239
0.040985107
0.04989624
-0.0070571899
0.054443359
0.0058441162
-0.0018692017
0.028961182
-0.029067993
0.037689209
0.05380249
0.032806396
0.051116943
-0.030090332
-0.014213562
-0.047393799
-0.035003662
0.0061798096
0.0053482056
-0.026153564
-0.025527954
0.04119873
0.022018433
-0.03805542
-0.030288696
-0.0072250366
-0.056762695
-0.0034160614
-0.010154724
0.022857666
-0.038024902
-0.0086135864
0.039733887
-0.025558472
-0.047576904
-0.044708252
-0.0086669922
-0.030792236
0.048858643
0.03414917
-0.022109985
-0.0093383789
-0.0073165894
-0.03704834
-0.0054664612
0.0033054352
-0.06149292
0.040283203
-0.02734375
-0.039794922
-0.044555664
-0.059417725
-0.057891846
-0.03112793
0.032470703
0.04586792
0.0033397675
0.035736084
-0.02381897
0.027252197
0.041625977
0.051239014
0.057342529
-0.053405762
0.044555664
-0.05065918
0.0021419525
-0.046386719
0.039886475
-0.052215576
0.021575928
-0.059356689
-0.040283203
-0.055023193
0.0048561096
0.0061264038
0.050628662
-0.02947998
0.036956787
0.027709961
-0.018386841
0.048156738
-0.057922363
0.010223389
-0.05947876
0.027694702
0.041442871
0.02192688
0.0050201416
-0.022369385
0.023529053
-0.039672852
0.006072998
-0.011756897
-0.052490234
-0.046051025
0.004825592
0.052581787
0.01020813
0.0028018951
-0.021087646
-0.018188477
-0.0081787109
-0.006565094
-0.055480957
0.031463623
0.053527832
-0.010787964
0.053985596
-0.029067993
3.0517578e-05
0.0027160645
-0.00035643578
0.058959961
-0.0023479462
0.056182861
-0.030609131
-0.055938721
0.026947021
0.026992798
0.0034866333
0.042724609
0.023635864
-0.030349731
0.059112549
0.05178833
0.032928467
-0.013084412
-0.050506592
0.03225708
0.036560059
-0.041412354
-0.012039185
0.042388916
0.04486084
-0.014396667
-0.032958984
-0.032073975
-0.039978027
0.0055046082
-0.033508301
-0.031082153
-0.019012451
0.0065841675
0.028533936
0.055938721
0.029327393
0.041381836
-0.015899658
0.050994873
-0.022659302
-0.021377563
0.047698975
0.029632568
-0.052215576
-0.058746338
-0.056762695
0.061187744
-0.0039329529
0.016479492
-0.037811279
-0.0040550232
-0.050201416
0.034667969
0.031921387
0.059417725
0.033203125
0.016311646
-0.044769287
0.046264648
-0.012115479
0.03338623
0.006603241
0.015563965
-0.058227539
-0.0094070435
0.058013916
0.05670166
-0.051300049
-0.04788208
-0.058044434
-0.017303467
-0.050262451
-0.052886963
0.019302368
-0.040802002
0.050384521
-0.0085449219
0.0181427
-0.037322998
-0.057006836
-0.016586304
-0.030151367
-0.036468506
0.060058594
0.019607544
-0.040740967
-0.062042236
0.020721436
0.048339844
0.05960083
-0.0017442703
0.049865723
0.0093460083
0.00056934357
-0.05847168
0.007183075
0.042938232
0.022659302
0.016693115
-0.024475098
0.027053833
0.03074646
0.026535034
-0.021133423
-0.00054121017
-0.032623291
0.033599854
0.032409668
0.052978516
0.041778564
-0.00059366226
0.012580872
-0.035247803
0.060638428
-0.029953003
0.040100098
-0.03503418
0.0035743713
0.004737854
-0.057983398
0.0072288513
-0.051635742
-0.039459229
0.012039185
0.059173584
-0.028564453
-0.0024089813
0.052246094
0.026092529
0.026107788
0.050994873
-0.016601562
-0.031494141
-0.038482666
0.044891357
-0.058410645
0.016647339
-0.052764893
-0.018600464
-0.040313721
0.037658691
0.040771484
-0.015914917
0.0013303757
-0.046081543
-0.045959473
0.0418396
-0.058197021
-0.041748047
-0.0054550171
-0.0088195801
-0.014190674
0.014030457
0.029937744
0.056671143
-0.027938843
0.038269043
-0.033081055
-0.030059814
-0.0032157898
-0.044891357
-0.018432617
0.061553955
0.041381836
0.056335449
-0.030456543
0.038360596
0.023788452
-0.0025253296
-0.034118652
0.055633545
-0.039367676
0.060760498
0.036895752
-0.041809082
0.022369385
0.0027370453
-0.016326904
0.057983398
0.0098876953
-0.027099609
-0.032104492
0.0023727417
0.01133728
-0.059844971
0.02432251
0.014434814
0.061706543
0.037780762
-0.03225708
0.058685303
-0.03074646
0.044525146
0.039764404
0.0020160675
-0.030792236
-0.044494629
0.058349609
0.038574219
-0.032867432
-0.05645752
0.01309967
-0.027313232
-0.0085906982
0.050018311
0.060577393
-0.014068604
0.009552002
0.055389404
0.037963867
0.0089569092
0.0070152283
-0.059234619
0.05090332
-0.029830933
0.030776978
-0.049713135
-0.038787842
-0.014602661
0.005191803
-0.001748085
0.00806427
0.061767578
-0.014167786
0.02897644
-0.041534424
-0.058929443
-0.044433594
-0.017440796
0.062103271
0.035980225
-0.026077271
-0.040283203
-0.0546875
0.04574585
0.023986816
0.0062065125
-0.023483276
0.026275635
0.03616333
-0.018508911
-0.061401367
-0.047454834
0.018356323
0.0129776
0.0069656372
-0.035369873
0.061645508
-0.048309326
-0.033721924
0.041259766
-0.014274597
0.027984619
-0.023361206
-0.054626465
-0.0033550262
0.0081253052
0.034210205
0.030136108
-0.039886475
-0.028533936
0.0065116882
-0.015762329
-0.0060462952
-0.0051956177
-0.022079468
-0.030822754
0.046600342
-0.06072998
0.026046753
-0.055908203
0.037689209
0.041931152
-0.0010557175
-0.0074462891
-0.049835205
-0.021102905
0.010795593
0.042358398
0.035003662
0.032745361
-0.029006958
-0.016113281
0.019866943
-0.0418396
0.023681641
-0.0060539246
-0.017211914
-0.012886047
-0.012893677
0.042175293
-0.040496826
0.062194824
0.027175903
0.020690918
0.032775879
0.030105591
0.030258179
0.048797607
-0.047851562
0.057678223
-0.016784668
0.043670654
0.03314209
-0.029129028
-0.01789856
-0.046051025
0.031860352
-0.017211914
-0.0077972412
0.045593262
-0.0025653839
0.0046310425
0.04107666
0.020935059
0.010856628
0.058227539
0.012306213
0.050231934
0.050689697
0.0044517517
0.0021190643
0.045227051
0.020202637
0.050933838
0.020370483
-0.035461426
-0.0045204163
-0.04776001
-0.032226562
0.013061523
0.053253174
-0.013923645
-0.046600342
-0.026931763
-1.9192696e-05
-0.015350342
0.015075684
0.011245728
0.01071167
-0.00066423416
-0.031051636
0.0041122437
0.05267334
0.0016040802
0.055511475
0.03326416
-0.047424316
0.049377441
-0.041900635
0.020431519
-0.022476196
-0.039245605
0.014556885
0.032501221
-0.040496826
0.015487671
0.044616699
-0.027252197
0.0024223328
0.0028762817
-0.0046730042
0.041534424
-0.030883789
0.031951904
0.030578613
-0.035980225
-0.034118652
-0.055725098
-0.040374756
-0.035308838
0.053894043
0.047485352
-0.045959473
0.023010254
-0.054748535
0.027130127
0.025650024
0.013153076
-0.014732361
0.020858765
0.030181885
0.012084961
-0.059631348
-0.050109863
0.0018167496
-0.018371582
0.053985596
-0.049468994
-0.0097198486
-0.038024902
0.034942627
0.044250488
0.0058250427
0.027862549
0.035491943
-0.059448242
-0.02432251
-0.027130127
-0.0042686462
-0.046661377
0.016311646
-0.004863739
-0.0032272339
-0.039154053
-0.027618408
-0.052856445
0.042541504
-0.05355835
-0.057952881
0.034790039
-0.032440186
-0.03918457
0.027893066
0.035552979
0.034790039
-0.046417236
-0.017456055
-0.044067383
0.033843994
0.055328369
0.030685425
-0.054504395
0.059906006
0.011016846
0.0046882629
0.059417725
-0.046508789
0.060333252
-0.016311646
-0.013328552
0.051300049
-0.024185181
-0.022613525
0.0038127899
0.026092529
-0.015068054
-0.048187256
-0.032714844
0.01789856
0.009513855
0.059051514
0.01776123
-0.031677246
0.03427124
-0.054718018
-0.014350891
-0.044494629
-0.030349731
0.011329651
-0.041015625
-0.0014600754
0.027648926
0.051757812
-0.033355713
-0.043487549
-0.05090332
0.037475586
0.049224854
-0.013679504
-0.026763916
0.011962891
-0.038970947
0.03125
0.052856445
0.0071372986
0.050079346
0.031494141
0.057891846
-0.022857666
-0.0026454926
-0.060852051
0.039611816
0.0097198486
-0.041290283
-0.016616821
0.052856445
-0.0013914108
-0.03692627
0.044891357
0.028884888
0.021179199
-0.036224365
-0.002122879
0.032745361
-0.038543701
0.040374756
0.0013046265
0.024612427
-0.038085938
0.012130737
-0.032470703
0.030929565
0.031707764
-0.025680542
0.054626465
-0.027313232
-0.035766602
0.038970947
0.045928955
0.058105469
-0.043060303
0.016860962
-0.0082092285
0.031677246
-0.034088135
0.061767578
0.035430908
-0.029602051
0.021469116
0.051452637
-0.0053634644
-0.00049591064
0.057037354
0.027023315
0.0062026978
-0.024887085
-0.056365967
0.060302734
-0.018585205
0.055908203
0.040283203
0.021347046
-0.046386719
0.060424805
-0.019729614
-0.041351318
0.032714844
-0.0016317368
-0.029037476
0.0055656433
0.0096893311
0.029159546
-0.057678223
-0.031280518
0.024459839
0.051635742
-0.061859131
-0.043609619
0.037750244
0.046173096
-0.012443542
0.011116028
-0.048156738
0.034698486
-0.041107178
-0.037109375
-0.052520752
0.056945801
0.016571045
-0.00623703
0.035827637
0.021881104
-0.028793335
-0.045776367
-0.02822876
0.031890869
0.05480957
0.047302246
0.051483154
0.0021305084
0.019592285
-0.031173706
0.046600342
0.018264771
-0.05758667
0.03237915
-0.040222168
-0.036834717
0.034515381
-0.04019165
-0.024246216
-0.055236816
0.02557373
-0.045013428
-0.033935547
0.042053223
0.046813965
0.043792725
0.05645752
0.031402588
-0.05847168
-0.048217773
-0.044799805
0.024795532
-0.013053894
-0.038848877
0.0066680908
0.025466919
0.03704834
0.0093765259
-0.061981201
0.047851562
0.016738892
0.046325684
0.0390625
0.0574646
-0.037017822
-0.0099182129
-0.044403076
-0.024993896
0.051391602
-3.8266182e-05
-0.048614502
0.0092010498
0.040496826
0.043884277
-0.034362793
-0.0013904572
0.0035953522
-0.01424408
-0.053619385
-0.044647217
0.049285889
-0.053527832
-0.055999756
-0.046936035
-0.014579773
-0.029037476
0.015060425
0.0062522888
0.017791748
0.018463135
0.057556152
0.028747559
0.0073814392
-0.046386719
0.032653809
0.049713135
0.039459229
-0.052032471
-0.026550293
0.014900208
0.0023975372
-0.051727295
0.0037269592
-0.0082626343
0.062164307
0.030609131
0.014526367
-0.061431885
-0.051391602
-0.046447754
-0.058807373
-0.0082473755
-0.034912109
-0.04196167
-0.05557251
0.04486084
-0.031402588
-0.057128906
0.042327881
0.049560547
0.0043029785
-0.06036377
-0.03503418
-0.024291992
-0.038452148
0.047241211
0.047912598
-0.050048828
-0.014877319
0.016326904
-0.026229858
-0.050323486
-0.031219482
0.015670776
0.056243896
0.051818848
-0.001537323
-0.0131073
-0.018630981
-0.015945435
0.018188477
0.0046768188
-0.017791748
-0.041381836
0.025192261
-0.0020694733
-0.056518555
-0.017471313
-0.0078811646
0.0034332275
0.0019378662
0.037078857
0.052062988
0.0094451904
-0.044525146
-0.010307312
0.017547607
-0.026428223
0.061187744
-0.042755127
0.058013916
-0.048553467
-0.020248413
-0.054382324
-0.055541992
0.015731812
0.029830933
-0.037506104
0.043060303
0.022354126
-0.030685425
-0.042358398
-0.040863037
-0.023513794
-0.010559082
0.001490593
-0.039215088
0.057952881
0.055541992
-0.04196167
-0.004447937
0.016906738
0.01234436
0.055725098
0.031616211
0.054718018
0.043640137
-0.049987793
0.037261963
-0.049072266
-0.029083252
-0.024429321
0.052978516
-0.050384521
0.042633057
-0.010864258
0.012207031
0.01247406
-0.0076675415
0.033782959
-0.043548584
0.041992188
0.048370361
0.033813477
-0.042449951
-0.027999878
0.014015198
0.041015625
0.040161133
-0.049194336
-0.004650116
-0.039886475
0.036499023
0.0040893555
-0.0060424805
-0.0028381348
0.013221741
-0.038208008
0.0096359253
0.024520874
0.040161133
0.029220581
-0.041351318
-0.02734375
0.00018286705
0.046173096
0.039093018
0.0019683838
-0.055633545
0.054534912
-0.01890564
-0.050231934
-0.05758667
-0.021438599
-0.057189941
0.062133789
-0.011222839
-0.01385498
0.015594482
0.011260986
0.024856567
0.014663696
-0.0079650879
0.062438965
-0.052856445
-0.042114258
-0.035247803
0.038909912
0.061737061
-0.011474609
-0.054992676
-0.02041626
0.032012939
0.026626587
-0.03213501
0.014335632
0.016494751
0.040679932
0.004234314
0.041412354
-0.054107666
-0.0016355515
0.0340271
-0.0078735352
-0.044128418
0.035614014
-0.026351929
-0.031707764
0.042510986
-0.050445557
-0.0048522949
0.04888916
0.016174316
0.053009033
-0.019256592
-0.034057617
-0.050994873
0.014183044
-0.028564453
0.020584106
0.022399902
0.0103302
-0.049926758
-0.02923584
0.051086426
-0.055633545
-0.033233643
-0.0060844421
0.031082153
-0.018371582
0.062255859
-0.041656494
-0.0082626343
0.0053863525
0.042694092
0.052185059
0.010429382
-0.0047912598
0.035430908
0.051574707
0.023834229
-0.020812988
0.021514893
0.043579102
0.028427124
-0.058258057
0.051696777
0.045318604
-0.053405762
-0.057556152
0.03137207
-0.043945312
0.026092529
0.013710022
-0.062194824
0.033325195
-0.059692383
0.039215088
0.0104599
0.056793213
0.040466309
-0.031616211
0.054992676
-0.024368286
0.014541626
0.0057907104
0.062255859
0.0574646
-0.0069732666
-0.0020389557
0.020858765
0.027816772
0.0043449402
0.040435791
-0.041015625
-0.061126709
-0.055114746
-0.035552979
0.031112671
0.030975342
0.010574341
-0.0066757202
-0.042999268
-0.056854248
-0.043426514
-0.050689697
-0.026031494
0.022674561
-0.029785156
0.038879395
-0.027984619
-0.055664062
0.032958984
-0.044036865
0.035766602
-0.018692017
0.056945801
-0.012825012
-0.052856445
-0.025085449
0.04989624
-0.038269043
0.030044556
0.0044975281
0.053497314
0.0091552734
-0.06036377
-0.052185059
0.026275635
-0.0010290146
-0.0069160461
-0.023239136
-0.054962158
0.061859131
0.044433594
-0.042755127
0.011894226
-0.037475586
0.030319214
-0.01386261
-0.0546875
0.034637451
-0.0010061264
0.04586792
-0.016845703
-0.030761719
0.062042236
0.031280518
-0.015441895
-0.0033798218
-0.043121338
-0.059112549
0.055999756
0.053100586
-0.046295166
0.05569458
-0.0050964355
-0.035400391
-0.026641846
0.0064620972
-0.025100708
-0.0050468445
0.03427124
-0.025665283
-0.015701294
0.051605225
0.058776855
0.052886963
-0.016296387
0.053314209
0.014259338
-0.021347046
-0.058197021
0.035949707
0.0049476624
-0.050079346
-0.0362854
0.05960083
0.0061988831
0.048248291
-0.038482666
0.039123535
-0.0070724487
-0.052734375
-0.040618896
-0.0056762695
0.03036499
0.044494629
-0.0016355515
-0.029129028
-0.046234131
0.035644531
-0.029815674
0.024002075
-0.040313721
0.011734009
0.048309326
0.020263672
0.018035889
-0.040283203
-0.0097961426
0.048126221
-0.001540184
0.0002810955
0.020935059
-0.06072998
0.026931763
0.0012598038
-0.0056228638
-0.047027588
-0.019515991
-0.007232666
-0.050811768
-0.046783447
-0.026031494
0.054901123
0.0029468536
-0.053741455
0.025619507
0.024856567
0.043731689
0.019042969
-0.019790649
-0.054656982
-0.036499023
-0.0519104
0.026260376
-0.038299561
-0.053894043
-0.038726807
0.013282776
-0.06137085
-0.013389587
-0.011787415
0.041656494
0.03225708
0.03729248
0.026077271
0.036315918
-0.060913086
-0.053833008
-0.018356323
-0.040679932
0.02305603
-0.060180664
0.015617371
-0.023468018
0.0059318542
-0.038757324
0.054748535
0.030960083
-0.059417725
0.058502197
-0.047027588
0.050231934
-0.049285889
0.049133301
0.040710449
-0.003993988
-0.013237
-0.03503418
0.036560059
-0.04498291
-0.046966553
-0.0080413818
-0.036529541
-0.0083999634
0.027664185
-0.019424438
0.0063095093
-0.050415039
0.025115967
-0.00077724457
-0.053985596
-0.058868408
0.036956787
0.02456665
-0.00021636486
0.042388916
-0.011360168
0.048095703
0.019241333
0.050170898
-0.031646729
0.0090789795
-0.04309082
-0.031829834
0.035888672
0.028625488
0.031860352
-0.016113281
0.021575928
0.028381348
-0.037963867
0.037017822
0.058288574
0.055023193
0.046569824
-0.057739258
-0.045806885
-0.040161133
-0.03604126
0.057220459
0.039703369
0.037719727
0.015159607
0.060638428
-0.040588379
0.055114746
0.043670654
0.030975342
0.0086669922
0.019607544
0.05380249
-0.0003516674
0.053009033
-0.0025234222
0.0023956299
-0.013717651
-0.022857666
-0.002620697
0.029129028
-0.057769775
0.043334961
0.049621582
0.039672852
-0.00340271
0.037750244
-0.018569946
0.0030498505
-0.062316895
-0.041107178
-0.011726379
0.050628662
-0.017410278
0.031585693
0.02947998
-0.042510986
-0.050140381
0.047393799
-0.041473389
0.059387207
0.034851074
0.034759521
-0.044067383
0.019622803
0.025970459
0.011108398
0.016891479
0.0026035309
0.039459229
-0.051300049
0.016525269
-0.040466309
-0.053955078
0.032928467
-0.053833008
-0.023727417
0.029678345
-0.046478271
0.057281494
0.060028076
0.030578613
0.00016951561
-0.058349609
0.043273926
0.035095215
0.0022678375
-0.017456055
-0.031097412
0.024459839
-0.039520264
0.037719727
0.022644043
-0.030471802
0.0013208389
0.020965576
-0.0074501038
-0.039245605
-0.027328491
-0.0041503906
0.028579712
-0.040008545
0.017654419
0.02796936
-0.019485474
-0.045593262
0.029693604
-0.0076828003
0.019332886
0.032592773
0.060821533
0.048278809
-0.056518555
0.039215088
-0.053283691
-0.023635864
0.032409668
0.057250977
-0.031646729
-0.042022705
0.027175903
-0.057952881
0.01260376
-0.02180481
-0.055877686
-0.057220459
0.052276611
0.032043457
-0.045471191
0.061798096
0.061401367
0.031280518
-0.0053672791
0.037322998
0.041870117
-0.0060119629
-0.029373169
-0.032623291
0.035400391
0.036560059
-0.023605347
-0.057983398
0.021713257
-0.0022525787
-0.056152344
0.0065002441
0.0054321289
0.044219971
0.041564941
-0.029525757
-0.027679443
0.0069580078
0.035766602
0.030303955
-0.062255859
0.023345947
-3.6776066e-05
0.020492554
0.0007481575
-0.04083252
0.029403687
-0.029266357
0.014968872
0.033569336
-0.024719238
0.0073013306
-0.048553467
0.040039062
-0.021621704
-0.033172607
-0.0062866211
0.044921875
0.04776001
-0.01285553
0.023712158
0.017868042
-0.021057129
0.03894043
-0.052490234
-0.047851562
-0.044036865
0.0093078613
0.057891846
0.046813965
-0.012290955
-0.049560547
0.024841309
-0.021179199
-0.017990112
-0.052642822
0.013206482
-0.054077148
-0.045288086
-0.060913086
0.052124023
-0.061126709
0.042602539
0.044677734
0.017593384
0.040100098
-0.014045715
0.02897644
0.048522949
0.031524658
-0.031890869
0.014709473
-0.034973145
0.055358887
-0.023223877
0.05267334
0.022186279
-0.016723633
-0.019851685
0.053527832
0.042480469
0.020553589
-0.010566711
0.04119873
0.055847168
0.025466919
-0.010810852
0.038696289
-0.003742218
0.053131104
0.053436279
0.026565552
-0.053527832
-0.059082031
-0.0043716431
0.015960693
0.043426514
0.013420105
0.057678223
0.055603027
0.010116577
-0.05770874
-0.014587402
-0.013237
-0.039733887
-0.04598999
-0.0091552734
-0.014900208
0.050506592
0.043518066
0.026947021
-0.018249512
0.013221741
0.036834717
0.004650116
0.0054092407
-0.055664062
0.044006348
-0.0092926025
-0.053588867
0.021987915
-0.047149658
-0.027740479
-0.035400391
-0.059356689
0.057891846
0.0028095245
-0.00064134598
-0.0062866211
-0.047119141
-0.047454834
0.047973633
0.04675293
0.050628662
0.045013428
0.01108551
-0.058227539
-0.026062012
-0.057830811
0.0010976791
0.039978027
0.057403564
0.032745361
0.039520264
-0.055999756
-0.055450439
0.038482666
-0.023956299
0.050292969
0.046264648
-0.0049209595
0.061981201
0.05657959
0.029693604
0.044616699
0.025192261
-0.033691406
-0.044219971
0.028045654
-0.038330078
0.012084961
0.028396606
0.0096664429
0.0094299316
0.042022705
-0.02571106
0.028274536
-0.02142334
0.048583984
0.019592285
-0.045318604
-0.0099716187
-0.040924072
0.033752441
0.010871887
-0.035552979
-0.061035156
-0.03817749
0.054290771
0.027832031
0.014472961
-0.02142334
-0.061004639
0.02557373
0.038421631
-0.033813477
0.056671143
-0.050842285
0.021179199
-0.030410767
-0.046295166
-0.026062012
-0.017150879
0.062255859
0.01663208
0.01374054
0.057220459
-0.0037384033
-0.060516357
-0.053436279
-0.027053833
0.012779236
0.039337158
0.059570312
0.017837524
0.031829834
0.045288086
0.040344238
-0.022766113
0.032287598
0.022735596
-0.00042486191
0.047607422
-0.03692627
-0.019256592
0.061676025
-0.036132812
0.022872925
0.013931274
-0.011070251
-9.2625618e-05
-0.012145996
0.0018110275
0.002904892
-0.060058594
0.035461426
0.0072746277
-0.051940918
0.01751709
-0.036437988
-0.0036640167
-0.0051193237
-0.03414917
0.03704834
0.056243896
0.024108887
0.001832962
-0.0039558411
0.0080413818
-0.062347412
-0.022720337
0.028411865
0.038574219
0.007610321
-0.058380127
-0.013633728
-0.060882568
0.047424316
-0.034973145
-0.047973633
-0.058898926
-0.0031776428
0.006275177
-0.0013990402
-0.0041732788
0.0093688965
-0.015014648
-0.046020508
0.0096206665
0.031036377
0.041137695
-0.024749756
-0.017913818
-0.032226562
0.029296875
-0.030685425
-0.033660889
0.023895264
0.035949707
-0.0128479
-0.010528564
0.028915405
0.0050430298
0.05355835
0.053955078
-0.062255859
-0.043060303
-0.061035156
-0.0061073303
0.0083312988
-0.059082031
-0.053649902
0.048034668
0.040802002
-0.014976501
-0.0053100586
0.0083618164
0.016891479
0.035247803
-0.020629883
-0.042022705
-0.0016803741
-0.03213501
0.062133789
-0.051361084
0.049133301
-0.016555786
-0.0031204224
-0.017684937
-0.051940918
0.0092468262
-0.026016235
-0.039367676
0.019454956
0.021942139
-0.014556885
0.051208496
0.015380859
0.0059547424
0.017959595
0.056304932
-0.020614624
0.059326172
-0.014373779
-0.038452148
-0.017379761
0.041656494
0.0064926147
-0.020797729
-0.055297852
0.0094070435
-0.014526367
0.0047874451
0.06060791
-0.054107666
-0.059783936
-0.033172607
0.028671265
0.0033855438
-0.02947998
0.0099105835
0.032165527
-0.012031555
0.022232056
0.053405762
-0.0079040527
0.0023059845
-0.016067505
-0.032684326
-0.055053711
-0.056060791
-0.011138916
0.060913086
0.033569336
0.021072388
0.0052642822
0.060699463
-0.024169922
0.040710449
-0.060638428
-0.039642334
0.044769287
-0.023284912
0.0046691895
-0.009147644
-0.011695862
0.054351807
0.040313721
0.04119873
-0.036071777
-0.043945312
-0.020599365
-0.031036377
-0.044036865
-0.0010509491
-0.043273926
0.057128906
0.04510498
0.031463623
-0.057037354
-0.050720215
0.045684814
-0.0036716461
-0.016830444
0.0032138824
-0.022979736
0.0046043396
-0.0021133423
-0.0035457611
0.053985596
-0.0079650879
-0.058441162
-0.05859375
-0.013275146
-0.027816772
-0.057037354
-0.058837891
0.014984131
0.058654785
-0.013710022
0.0037441254
0.057312012
0.00046300888
-0.044769287
-0.033874512
0.059661865
0.061279297
0.012733459
0.01725769
-0.049865723
0.023635864
-0.0099716187
-0.051544189
0.04284668
0.038604736
0.0059394836
-0.035614014
0.033660889
-0.0059280396
-0.027938843
-0.01322937
0.0086135864
-0.050292969
0.014289856
0.0055427551
0.023635864
0.02885437
0.031646729
0.024017334
-0.024673462
-0.016830444
-0.009437561
0.018310547
0.015090942
0.0050430298
-0.062316895
-0.022384644
-0.045898438
-0.0051689148
0.040649414
-0.013771057
-0.033996582
-0.048461914
0.016311646
-0.032043457
0.047271729
0.025360107
0.044281006
0.0099334717
0.035461426
-0.018737793
-0.028839111
0.015480042
0.040924072
0.021118164
0.030761719
0.047088623
-0.016113281
-0.03225708
-0.049804688
-0.05368042
0.025360107
-0.031890869
-0.037536621
0.020507812
-0.020294189
0.04788208
-0.0025959015
0.059204102
0.042572021
-0.022781372
0.024276733
0.037750244
0.047210693
0.035797119
0.04510498
0.036315918
0.023300171
0.0085830688
-0.057220459
0.014160156
-0.055358887
-0.034973145
0.0052223206
0.048553467
-0.02041626
0.058227539
-0.00099182129
-0.022994995
-0.024734497
0.027008057
0.040924072
-0.024917603
-0.049102783
0.031463623
0.0082626343
-0.022369385
0.027374268
0.034942627
-0.033935547
0.014808655
-0.046783447
0.012908936
-0.021530151
0.015762329
0.03704834
0.05380249
0.05090332
-0.036071777
0.052764893
-0.017227173
0.061401367
-0.021789551
-0.049072266
0.025863647
0.058624268
0.028503418
-0.017547607
0.045532227
0.007850647
-0.042236328
-0.050476074
0.0034198761
0.038146973
0.054473877
-0.022293091
-0.00052690506
0.0024662018
0.03729248
0.0056648254
0.026504517
0.010284424
0.04107666
0.055053711
0.055236816
0.028991699
-0.053649902
0.042144775
-0.062255859
0.02532959
0.038116455
0.038970947
-0.041900635
0.013725281
0.033447266
0.011886597
-0.053863525
0.034729004
-0.057617188
0.035339355
-0.026550293
0.061462402
-0.0090103149
-0.02331543
0.0034065247
-0.011734009
-0.0099258423
-0.056976318
-0.026519775
0.041625977
0.02053833
-0.054656982
0.011116028
0.056304932
0.022521973
-0.015380859
-0.0059089661
0.05645752
0.03036499
0.043243408
-0.008026123
-0.013549805
0.018447876
-0.036437988
-0.056396484
-0.032562256
0.048156738
0.056243896
0.0021686554
0.0059204102
0.059692383
0.015586853
-0.027114868
-0.049438477
0.018829346
-0.0084228516
-0.030288696
0.060272217
-0.00056219101
0.026123047
-0.044921875
-0.026290894
0.055877686
-0.00076341629
-0.020828247
0.030593872
-0.016723633
0.050415039
0.060760498
-0.02394104
0.0064315796
0.006149292
-0.047912598
0.01348114
0.00034213066
-0.0048675537
-0.01713562
0.044219971
0.013008118
0.055175781
0.062408447
-0.062103271
-0.040710449
-0.02947998
0.0097427368
-0.026260376
-0.053955078
-0.025695801
0.043029785
0.056365967
-0.026641846
-0.013343811
0.0082473755
-0.060821533
-0.022201538
0.036712646
-0.022674561
-0.059295654
0.042938232
-0.059814453
-0.012626648
0.023803711
-0.015342712
0.058746338
-0.024780273
-0.040496826
0.010177612
0.03414917
0.015899658
0.037322998
-0.043334961
0.040924072
-0.04119873
0.034088135
-0.048553467
0.043212891
0.013168335
-0.049682617
-0.0052833557
-0.020355225
0.038970947
0.015144348
-0.011047363
0.024124146
-0.042694092
-0.055938721
0.024642944
-0.061035156
0.053985596
0.0050315857
0.043457031
-0.0059967041
-0.057189941
0.04119873
0.033416748
-0.010360718
-0.031280518
0.024490356
-0.049957275
-0.03616333
0.014068604
0.048126221
0.020690918
0.0063095093
0.021911621
0.032745361
-0.057373047
0.016036987
0.045318604
0.0076560974
-0.052093506
-0.0034065247
0.044342041
0.047302246
0.010925293
0.042022705
0.015388489
0.0081100464
0.015205383
-0.048187256
0.0011968613
0.034362793
0.0026988983
-0.0096588135
0.022415161
-0.051727295
-0.057098389
0.017883301
0.048278809
-0.017456055
0.047851562
0.023300171
-0.014076233
-0.038146973
-0.038238525
0.020065308
0.009223938
-0.022140503
0.0080108643
0.011154175
0.00070619583
0.006690979
0.053314209
-0.0082473755
-0.046325684
0.018569946
-0.0043678284
-0.051330566
0.056243896
0.0033397675
-0.038269043
0.051300049
0.026138306
0.012069702
0.0077209473
-9.4115734e-05
0.039398193
0.026397705
-0.0082931519
0.016433716
-0.017425537
0.060546875
0.035522461
0.0042724609
0.035552979
0.035369873
-0.030059814
-0.016372681
-0.0030937195
-0.038238525
0.051849365
-0.025375366
0.049835205
-0.024856567
0.01473999
0.02633667
0.01171875
-0.058807373
0.017028809
-0.052062988
0.04498291
0.051971436
-0.010795593
0.049926758
0.031280518
0.01474762
0.052490234
-0.031707764
0.031921387
-0.024246216
-0.032684326
0.0054244995
0.055419922
-0.06072998
0.030776978
0.045562744
0.028488159
-0.043426514
0.060882568
-0.030593872
-0.0034732819
0.020385742
0.050872803
0.055725098
-0.056030273
-0.050933838
-0.033477783
-0.00025701523
0.061645508
0.018997192
0.026550293
0.043640137
0.043762207
-0.026321411
-0.037750244
0.049316406
0.035003662
-0.041625977
0.035919189
-0.057647705
-0.0023193359
0.0035991669
0.024475098
0.017654419
0.033508301
0.016311646
0.042907715
0.045806885
0.044433594
-0.043701172
0.039123535
-0.011749268
-0.018173218
0.053894043
0.0026092529
0.013961792
-0.044311523
-0.051971436
0.0084838867
-0.00071668625
0.0016641617
-0.054168701
0.012069702
-0.021408081
0.020507812
0.058685303
0.060394287
-0.020050049
0.02961731
-0.032989502
-0.013961792
0.041870117
0.020004272
0.0390625
-0.058105469
-0.0055809021
-0.036834717
0.01436615
0.0030136108
0.042327881
0.059417725
0.029876709
-0.024215698
0.025802612
-0.028579712
-0.036010742
0.062011719
-0.018280029
-0.041687012
0.061798096
-0.039367676
0.060882568
-0.013641357
0.0037307739
-0.0042877197
-0.044494629
0.057922363
-0.038208008
-0.048828125
0.057922363
-0.056304932
-0.048400879
0.039794922
0.0055084229
-0.050506592
0.029174805
0.0022926331
0.033447266
-0.028488159
0.05078125
0.020523071
0.052978516
0.054840088
-0.058868408
0.058868408
-0.051971436
-0.042358398
-0.006149292
-0.01789856
0.02835083
-0.054138184
0.046722412
-0.036346436
-0.027954102
-0.0023612976
-0.053283691
0.039489746
-0.048583984
0.037261963
0.061248779
0.052490234
0.035491943
0.0015125275
0.012870789
0.004486084
-0.055725098
-0.0096664429
0.043365479
0.0095214844
0.011169434
-0.016967773
0.05456543
-0.011413574
-0.040161133
0.045837402
-0.033935547
0.0034790039
0.036773682
-0.048278809
-0.060668945
-0.042724609
-0.020965576
-0.013374329
-0.057159424
-0.05279541
-0.02281189
-0.048828125
-0.02142334
-0.029251099
-0.047485352
0.020614624
0.018768311
0.053405762
0.041564941
-0.044525146
0.031005859
-0.0074539185
-0.018310547
-0.024139404
-0.017608643
-0.0022029877
0.032348633
-0.035583496
0.04977417
-0.0098419189
-0.010108948
-0.050384521
0.049591064
0.046295166
0.035644531
0.041412354
0.060241699
-0.058654785
0.033752441
0.051940918
0.034637451
0.0034065247
0.030334473
0.023193359
0.0083694458
0.032104492
0.041564941
0.023330688
0.053497314
0.030105591
-0.0069961548
0.013542175
0.0019197464
-0.056915283
0.015625
-0.0028152466
-0.0089645386
-0.059997559
0.053436279
-0.013053894
-0.015945435
0.03616333
-0.050598145
-0.047454834
-0.011314392
0.0287323
-0.039550781
0.051422119
-0.027618408
-0.043762207
-0.023468018
0.046356201
-0.026199341
-0.059173584
0.02053833
-0.050689697
-0.028396606
0.00078201294
-0.0048103333
-0.041687012
-0.058746338
0.060241699
0.011390686
0.00079059601
-0.042205811
0.010658264
0.037261963
0.037445068
0.033874512
-0.02255249
-0.028823853
0.047363281
0.0039367676
-0.037445068
-0.04083252
0.047668457
0.032501221
-0.052154541
-0.016021729
0.042633057
0.052825928
0.0068092346
0.057800293
0.061065674
0.048126221
-0.061889648
0.043548584
0.039031982
-0.019439697
0.035827637
0.016433716
-0.0098266602
0.035980225
-0.056671143
0.060974121
0.01473999
0.035583496
-0.0071372986
0.01574707
0.026641846
-0.012481689
0.058563232
-0.00047063828
-0.059906006
-0.0035247803
-0.051177979
0.00092029572
-0.058776855
-0.051208496
-0.02494812
-0.033294678
-0.057525635
-0.01965332
0.058959961
-0.041168213
-0.044006348
-0.042114258
-0.015716553
0.05581665
-0.033508301
0.004611969
0.047454834
0.023483276
0.024551392
-0.0030784607
0.032348633
0.0044364929
0.0028648376
0.057312012
-0.054443359
0.015869141
0.012992859
-0.041717529
0.0044784546
0.038085938
0.018066406
-0.051177979
0.061981201
-0.020019531
0.039367676
-0.056640625
-0.014770508
-0.0056648254
0.053588867
-0.061096191
-0.016662598
0.025054932
0.039978027
-0.050506592
-0.0034942627
0.029052734
0.032684326
0.048706055
0.040344238
0.017166138
0.051849365
0.015190125
0.061523438
-0.059753418
-0.03036499
0.02746582
-0.057556152
0.028747559
0.033721924
0.062133789
0.032562256
-0.028564453
-0.0085678101
0.025161743
0.050598145
-0.027877808
0.010437012
0.014595032
-0.038482666
-0.057922363
0.012710571
-0.0077095032
0.050506592
-0.017471313
0.058197021
-0.031463623
0.015655518
0.0030841827
-0.048736572
-0.0091781616
0.023361206
-0.03515625
-0.0025367737
0.038208008
0.035797119
0.041320801
0.010475159
0.060211182
-0.049499512
0.056030273
-0.03704834
-0.029754639
0.051574707
0.034515381
0.053955078
-0.0259552
0.053039551
-0.0046234131
0.041748047
-0.014823914
-0.059448242
-0.010238647
-0.050415039
-0.012374878
0.029418945
-0.01763916
0.018463135
-0.018844604
0.030090332
-0.026611328
-0.060272217
-0.034332275
0.057952881
0.050140381
0.061798096
-0.051300049
0.00088167191
-0.034362793
0.026351929
-0.038330078
0.047607422
0.013542175
-0.030960083
-0.037536621
0.016845703
0.02104187
-0.055938721
0.027450562
0.0087966919
0.033782959
-0.0088119507
0.035797119
0.015396118
0.0003721714
-0.031082153
-0.042907715
0.0036201477
0.048187256
0.034210205
-0.011642456
-0.052124023
-0.035888672
-0.058197021
0.0035095215
0.022109985
-0.052612305
0.019088745
0.018676758
0.04083252
-0.054748535
-0.036010742
0.055969238
0.0090255737
-0.0057754517
-0.048553467
-0.0017766953
-0.020095825
0.042419434
-0.032318115
-0.031555176
0.031112671
0.020187378
-0.0018444061
0.034484863
-0.054473877
0.046508789
-0.062286377
0.043182373
-0.023681641
0.016372681
0.054504395
-0.047943115
0.016479492
0.038452148
-0.054962158
-0.022338867
-0.051269531
-0.052764893
-0.042755127
0.023178101
0.02456665
0.033813477
0.023284912
0.024993896
-0.054199219
-0.022735596
-0.023071289
-0.058990479
0.057189941
-0.046173096
0.024185181
0.027893066
0.0053138733
0.032165527
-0.020629883
-0.021591187
0.052703857
-0.020248413
0.044158936
-0.023132324
0.041992188
0.043884277
0.050598145
0.045043945
-0.047607422
-0.055603027
0.018356323
0.056732178
-0.025741577
-0.0440979
0.010345459
-0.057342529
0.031860352
0.036376953
0.046173096
-0.024963379
-0.02822876
0.027664185
-0.044006348
0.033111572
-0.057861328
-0.053527832
-0.031402588
0.052398682
0.030975342
0.0098266602
0.031738281
0.028305054
0.053314209
-0.021697998
0.017364502
-0.030441284
0.045135498
-0.0062866211
0.043060303
-0.048278809
0.007358551
-0.0015048981
-0.0056648254
0.048156738
0.053070068
-0.047119141
0.0072975159
-0.030380249
-0.051849365
-0.0083618164
-0.017028809
-0.0071678162
0.029754639
-0.0024776459
0.025848389
-0.019042969
0.054534912
-0.040863037
0.049438477
0.035003662
-0.057098389
0.02243042
0.0064659119
0.028900146
0.058380127
0.022827148
-0.0036869049
-0.048065186
-0.036468506
0.01335907
0.034759521
-0.0092010498
0.01524353
0.038391113
-0.049133301
0.028549194
-0.045959473
0.048706055
0.060150146
0.039825439
0.018692017
0.056549072
-0.028289795
-0.055999756
-0.047546387
0.03036499
0.017822266
-0.0044212341
-0.046722412
-0.012611389
-0.053771973
0.013450623
0.029998779
0.055267334
-0.050415039
-0.052459717
0.012214661
-0.044769287
0.033294678
0.059143066
0.042755127
-0.059631348
0.039154053
0.0085220337
-0.011993408
0.055908203
-0.037902832
0.012908936
-0.048431396
-0.057006836
0.039520264
0.037139893
0.025039673
-0.023849487
-0.053070068
-0.020797729
0.0418396
0.049499512
0.053283691
0.055389404
-0.058990479
-0.019775391
-0.032531738
-0.043731689
0.00025248528
-0.055633545
0.055786133
0.04586792
0.029846191
-0.002122879
-0.0073699951
-0.060882568
0.043640137
0.04498291
-0.038452148
0.016983032
0.00522995
-0.02507019
0.053192139
-0.02772522
0.060760498
0.061981201
-0.014793396
-0.055389404
-0.039398193
0.022567749
-0.026916504
0.022964478
-0.023178101
0.036132812
0.014884949
0.039215088
-0.04864502
-0.031082153
0.013458252
-0.059844971
0.00060319901
-0.059692383
0.040740967
0.019058228
0.011642456
-0.0362854
0.04598999
0.02911377
0.016738892
0.009727478
0.0088729858
-0.016708374
-0.040740967
0.037506104
-0.035766602
0.054840088
0.011581421
-0.0046272278
0.00027751923
0.017440796
0.0070838928
0.015930176
-0.025527954
0.0048751831
-0.020141602
-0.012786865
-0.026229858
0.050933838
0.062194824
-0.024108887
-0.04397583
-0.03036499
-0.04196167
-0.035736084
0.0181427
-0.045257568
-0.062103271
-0.028747559
0.047943115
-0.037353516
0.015472412
0.0014200211
0.0046730042
0.018630981
0.01940918
0.014808655
0.041442871
-0.033477783
-0.058319092
-0.015853882
-0.011520386
-0.024017334
0.027359009
0.021621704
0.021987915
0.019165039
-0.039794922
-0.039031982
-0.052124023
-0.027252197
-0.051940918
0.0068283081
-0.020904541
-0.033416748
-0.010887146
-0.024765015
-0.047790527
0.05859375
0.0075492859
-0.019439697
0.037689209
-0.037322998
0.0090179443
0.026779175
-0.0519104
-0.030029297
-0.060821533
-0.011528015
0.030303955
0.017608643
-0.05758667
0.035827637
0.012748718
0.059143066
-0.0049552917
-0.032653809
-0.039794922
0.017425537
0.0097122192
0.047912598
-0.03817749
-0.046203613
-0.059875488
0.050750732
-0.043792725
0.022079468
-0.0033836365
-0.020324707
0.025436401
0.0091705322
0.047821045
-0.043609619
-0.059204102
0.022796631
-0.0096511841
-0.0087280273
-0.041534424
-0.0073471069
0.052062988
-0.0055389404
0.054626465
-0.032043457
-0.01625061
-0.03074646
0.045928955
0.017028809
0.051208496
0.0084915161
-0.054412842
-0.0085754395
0.017593384
0.050933838
0.022262573
-0.014671326
0.017318726
-0.010986328
-0.043426514
0.013221741
-0.008354187
-0.040130615
-0.029663086
-0.0048828125
0.0055580139
0.029266357
0.044067383
0.016647339
0.022659302
-0.011054993
0.054138184
0.039367676
-0.031951904
-0.0035572052
0.010551453
-0.031524658
-0.031280518
0.05078125
0.018157959
-0.037353516
-0.010635376
0.037322998
0.026611328
0.020126343
0.040466309
-0.026824951
-0.036987305
0.048156738
-0.028564453
-0.018569946
0.037322998
-0.044464111
0.061157227
-0.054595947
0.014076233
0.061676025
0.034942627
0.032623291
0.051635742
0.024261475
-0.056304932
-0.043518066
0.034301758
-0.02456665
-0.034240723
-0.0002194643
0.014213562
-0.05279541
-0.012298584
-0.011779785
-0.013221741
-0.029464722
-0.058837891
-0.03237915
0.028594971
0.012557983
0.044921875
0.018035889
0.0098648071
-0.020080566
0.018371582
-0.0094680786
0.011062622
-0.046813965
0.00094509125
-0.061126709
-0.053771973
-0.018432617
-0.023376465
0.026672363
-0.013626099
0.010009766
0.060638428
0.019592285
0.0284729
0.026123047
0.044677734
-0.0091400146
-0.037536621
-0.045623779
0.054504395
0.00098228455
-0.02192688
-0.02507019
-0.051757812
-0.019363403
0.043884277
-0.027832031
0.020797729
-0.050109863
0.012710571
0.004737854
0.032653809
-0.024459839
0.045043945
0.011543274
-0.043548584
0.014572144
-0.047821045
0.020553589
0.054718018
0.05480957
-0.036499023
0.03074646
0.0087585449
-0.056274414
-0.043579102
-0.049468994
-0.03704834
0.046569824
0.017593384
0.039306641
0.036987305
0.036895752
-0.054260254
0.022537231
-0.058807373
0.046234131
0.05682373
-0.054595947
-0.044891357
0.040435791
0.028244019
0.019439697
0.013031006
-0.0051116943
0.029083252
-0.031112671
-0.061950684
0.0013647079
0.053283691
0.017364502
0.024856567
0.062011719
0.052703857
-0.026565552
-0.02885437
0.0011796951
0.014045715
0.047576904
0.017944336
0.057220459
-0.02355957
-0.032165527
0.0037841797
0.040161133
0.030914307
-0.036193848
-0.012252808
-0.02355957
-0.045471191
-0.031051636
0.03616333
0.03137207
0.0083084106
-0.016021729
-0.049804688
-0.026748657
0.034881592
-0.049316406
0.0071563721
-0.010925293
-0.0011816025
0.045166016
-0.031768799
0.037719727
-0.056121826
-0.0065193176
-0.046417236
-0.01197052
-0.043823242
0.034881592
-0.055145264
-0.020187378
-0.0023193359
0.054412842
0.023651123
-0.036743164
-0.060974121
0.059967041
0.008392334
0.027648926
-0.049072266
-0.038543701
0.059570312
-0.036804199
-0.036560059
-0.059783936
0.039398193
0.051422119
-0.031005859
-0.04586792
-0.0038757324
0.010391235
-0.0234375
0.029266357
0.023483276
0.042327881
0.042205811
-0.04598999
0.055938721
0.037322998
-0.0054779053
0.00065803528
0.050415039
0.029830933
-0.039916992
0.037963867
-0.031829834
0.025009155
-0.057800293
0.045532227
0.03692627
-0.012123108
-0.035400391
-0.04107666
0.028961182
0.035003662
-0.022644043
-0.045928955
0.0044746399
-0.037200928
0.013397217
-0.023040771
-0.054321289
-0.019805908
0.027557373
0.038879395
0.059356689
0.0069084167
-0.0037879944
-0.050872803
-0.024154663
0.019302368
-0.030807495
-0.060180664
0.012207031
-0.03314209
-0.014480591
0.024688721
0.036987305
-0.042694092
-0.026290894
0.056610107
0.030441284
0.033111572
0.032684326
0.029983521
-0.047302246
-0.014656067
0.029525757
-0.057128906
-0.039978027
0.042938232
-0.053192139
0.040557861
-0.0057296753
0.046356201
0.061676025
0.0087432861
-0.056182861
0.0094985962
-0.034057617
0.06161499
0.016891479
-0.0057106018
-0.0021953583
0.0051612854
-0.049560547
-0.052215576
-0.057128906
-0.042907715
0.0055046082
-0.00044965744
-0.03805542
0.016586304
0.045623779
-0.058166504
0.025741577
0.029891968
0.0077629089
-0.040710449
-0.0083084106
-0.016647339
0.057861328
-0.011764526
0.054016113
0.060272217
-0.041625977
0.040100098
0.039001465
0.036468506
-0.041625977
-0.054595947
0.031738281
-0.038787842
0.017059326
-0.019515991
-0.035430908
-0.019119263
-0.030334473
0.011489868
-0.023544312
0.013305664
-0.04598999
-0.0053939819
-0.027236938
-0.0020484924
-0.030303955
-0.0088195801
-0.045379639
0.055725098
-0.023193359
-0.028701782
-0.052459717
0.055969238
-0.055419922
0.036560059
0.061431885
-0.061553955
-0.014663696
0.056549072
-0.057312012
-0.021682739
0.0031147003
-0.0038070679
-0.044006348
0.022827148
0.015777588
0.011451721
0.047363281
0.0046882629
0.038391113
-0.020782471
-0.013923645
-0.057891846
0.024398804
0.027420044
-0.026824951
-0.050476074
0.032836914
-0.047485352
0.018753052
-0.01537323
-0.015762329
-0.048309326
0.034637451
-0.058349609
0.014137268
-0.053192139
-0.0077018738
0.019500732
0.020446777
0.054870605
0.036346436
0.0093154907
0.052642822
-0.049835205
-0.025131226
-0.050354004
-0.061340332
-0.051300049
-0.013534546
0.046936035
-0.052093506
0.052612305
-0.0053024292
-0.062255859
-0.026351929
0.008682251
0.023513794
0.058349609
-0.038024902
-0.030639648
0.026504517
0.036193848
0.024093628
-0.042419434
0.04888916
-0.055297852
0.033813477
0.040588379
0.053192139
-0.059204102
-0.022354126
-0.042755127
0.032348633
-0.047088623
0.05657959
0.039764404
-0.043395996
-0.038909912
-0.054351807
0.052642822
-0.045654297
-0.046234131
-0.039215088
-0.059997559
0.030700684
0.04006958
-0.053222656
0.030914307
0.039398193
-0.051391602
0.030578613
0.0074424744
0.046630859
-0.051208496
0.032867432
0.03225708
-0.046569824
0.012741089
0.050048828
0.039794922
0.055480957
-0.053588867
0.03994751
-0.053009033
0.046295166
0.011314392
0.053070068
-0.053253174
-0.0088577271
-0.019226074
0.025878906
0.026123047
-0.058929443
0.035644531
0.052398682
0.01864624
-0.036712646
-0.017776489
-0.0035419464
0.030975342
-0.031707764
0.044250488
-0.0034999847
-0.0090103149
-0.05456543
0.023544312
0.038269043
-0.05758667
-0.053161621
0.031768799
-0.059906006
-0.0090866089
-0.010681152
-0.033325195
0.0082244873
0.021865845
-0.01953125
0.018875122
0.03994751
-0.054382324
0.059661865
-0.0056190491
-0.04598999
0.0051231384
-0.044586182
0.031738281
-0.010978699
-0.009437561
0.052337646
-0.033111572
0.055877686
0.0035171509
0.011100769
-0.038452148
0.035339355
0.062255859
0.056976318
-0.0027217865
-0.061950684
0.0025291443
0.031143188
-0.060974121
0.041778564
-0.045074463
-0.054962158
0.046630859
0.048431396
0.0098419189
-0.054107666
-0.0049209595
0.052032471
0.0362854
0.039398193
-0.037445068
-0.059936523
-0.036590576
-0.0056228638
-0.060943604
-0.056671143
0.047729492
0.006980896
0.02986145
0.01612854
-0.039764404
-0.0075111389
0.029510498
0.043914795
-0.048583984
-0.036499023
-0.013175964
-0.045898438
-0.0078811646
0.025695801
-0.044342041
-0.019592285
-0.0081329346
-0.027099609
-0.034179688
0.018127441
0.023620605
0.027145386
0.019485474
0.030990601
0.020431519
-0.041595459
0.024642944
0.019104004
-0.045837402
-0.057678223
-0.018066406
0.053161621
-0.048736572
0.010726929
0.032714844
0.060089111
0.0009021759
-0.050201416
-0.012901306
0.023284912
-0.050323486
0.011314392
0.018295288
-0.048217773
-0.01385498
-0.048858643
-0.033843994
0.046417236
-0.023681641
-0.0033397675
-0.018661499
0.048126221
-0.029190063
0.031707764
0.02532959
-0.059997559
-0.043457031
0.038665771
-0.020858765
0.052978516
0.06060791
-0.0048027039
-0.03414917
-0.059509277
-0.0095825195
0.032867432
-0.012123108
-0.014282227
0.049621582
-0.059356689
0.00017035007
0.029464722
0.012893677
0.022720337
-0.045166016
0.059631348
0.054901123
-0.011543274
-0.025436401
-0.014511108
0.021713257
0.049468994
0.036834717
0.01399231
-0.0072631836
-0.040222168
-0.01612854
0.0095825195
0.033905029
0.030670166
-0.051696777
0.028396606
-0.016952515
0.03503418
-0.054901123
0.026016235
-0.037780762
0.048828125
0.0018014908
0.050262451
-0.0065460205
-0.009262085
-0.028915405
0.04574585
0.048828125
0.031860352
-0.041595459
0.037719727
0.027023315
-0.043395996
0.047515869
-0.059082031
-0.048614502
-0.0086212158
-0.050018311
-0.0012311935
-0.031097412
0.050964355
-0.037994385
0.053527832
-0.015808105
-0.056121826
-0.051422119
0.048492432
-0.039794922
-0.047973633
0.021530151
0.023361206
0.060760498
0.037078857
0.056396484
-0.014602661
-0.058563232
0.014671326
-0.0025939941
0.060058594
0.004447937
0.0031280518
0.036682129
-0.036895752
-0.055908203
0.035552979
0.059844971
-0.045471191
-0.014610291
0.037719727
0.053924561
-0.015083313
-7.1406364e-05
-0.036529541
0.034240723
-0.048370361
0.061737061
0.032562256
-0.045562744
0.061431885
0.02911377
-0.039001465
-0.022232056
0.052307129
0.061950684
-0.046112061
0.010154724
-0.050567627
-1.5437603e-05
-0.049926758
0.039428711
-0.009147644
0.061035156
-0.052856445
0.0085144043
-0.018371582
0.019927979
-0.033203125
0.023254395
-0.027236938
0.053405762
0.028625488
0.026199341
0.033050537
-0.017547607
0.034301758
0.0048522949
0.038085938
0.002494812
-0.033569336
0.033905029
0.0069961548
-0.025894165
0.016937256
0.044219971
0.040588379
0.046600342
-0.0574646
-0.048126221
-0.024368286
0.015068054
0.051177979
0.025314331
-0.055603027
-0.018203735
-0.031173706
-0.028610229
0.053253174
-0.042694092
0.0091247559
0.035888672
-0.00032114983
0.0043754578
0.017303467
0.016036987
0.051757812
0.032653809
0.030822754
0.04284668
-0.043212891
0.0071716309
-0.029983521
-0.0023918152
0.0043258667
-0.038665771
-0.062469482
-0.036071777
0.056518555
-0.062347412
-0.012489319
-0.062133789
0.0094451904
-0.020477295
0.052337646
0.037567139
-0.0012264252
0.0069122314
-0.041290283
0.020431519
0.035552979
0.022842407
0.010231018
0.026107788
-0.057006836
0.056488037
0.020874023
0.025848389
-0.04699707
0.040435791
0.042816162
0.039886475
0.040161133
0.032897949
-0.036376953
-0.027435303
-0.033355713
0.0081863403
0.05569458
0.0095062256
-0.0032444
0.044128418
-0.005115509
-0.049682617
0.012657166
-0.038818359
0.005569458
-0.023254395
-0.043945312
-0.051483154
0.00051546097
-0.054351807
0.040466309
0.01121521
-0.052398682
0.0024604797
0.060974121
0.02671814
-0.025680542
0.039520264
-0.042572021
-0.0010089874
-0.038024902
-0.0057640076
-0.054046631
-0.012207031
0.019821167
-0.058044434
0.051391602
-0.027267456
-0.014709473
-0.046234131
0.053253174
-0.018997192
0.038482666
-0.054016113
0.0077705383
0.056640625
-0.058776855
-0.038452148
0.024993896
0.0035152435
0.016983032
-0.056060791
0.031005859
0.013534546
-0.061035156
0.061523438
-0.047790527
0.032867432
0.039367676
0.013153076
0.02166748
-0.018005371
0.055633545
0.0016155243
-0.022750854
0.014434814
0.061431885
-0.0284729
-0.051177979
0.035919189
0.039916992
0.059417725
0.057128906
0.035003662
-0.052185059
0.020278931
-0.0048561096
0.0032749176
-0.018875122
0.0064544678
-0.05368042
-0.033203125
0.042724609
-0.042999268
0.039764404
-0.057739258
0.013755798
0.052886963
0.050018311
-0.033477783
0.047210693
0.03729248
-0.039886475
0.022705078
0.0065383911
0.059906006
-0.013870239
-0.0045661926
0.025390625
0.038238525
0.026367188
-0.036529541
-0.043518066
-0.019927979
-0.018066406
0.033905029
-0.0041160583
0.032440186
0.019180298
0.0015993118
0.0128479
-0.012718201
-0.048919678
0.01234436
0.0006685257
0.057617188
0.051269531
0.038421631
-0.038360596
0.030105591
-0.024459839
-0.0042915344
-0.052642822
0.04510498
0.010314941
-0.026947021
0.00085306168
0.015792847
0.040740967
-0.0038604736
0.0020713806
0.055938721
-0.019088745
-0.044708252
-0.05670166
0.019119263
0.023025513
0.020355225
0.041900635
0.0021343231
-0.016235352
-0.029556274
0.043884277
-0.046936035
0.014778137
-0.036987305
-0.027954102
-0.017944336
0.041229248
0.0034122467
0.051513672
-0.025787354
-0.05871582
-0.02645874
-0.015853882
0.031051636
-0.029037476
0.0057830811
0.028717041
-0.015136719
-0.026397705
-0.057312012
0.033782959
0.061401367
-0.05380249
0.056213379
0.058197021
-0.053009033
0.0085449219
-0.040466309
0.061004639
-0.043121338
-9.894371e-06
-0.034118652
0.010742188
-0.025421143
0.020477295
-0.059417725
0.024871826
0.012786865
0.060333252
-0.050231934
-0.044555664
-0.0085678101
0.015235901
-0.057342529
0.060791016
-0.033935547
-0.0013227463
0.014038086
0.0088882446
0.028717041
0.053283691
-0.042449951
0.0035018921
0.023696899
-0.047943115
0.0021915436
0.039245605
-0.025115967
-0.0013370514
-0.016448975
-0.02230835
0.048126221
-0.042205811
-0.040008545
-0.052154541
-0.060455322
0.0036621094
-0.047119141
-0.031066895
0.0051078796
-0.031005859
-0.031066895
-0.0042495728
0.056854248
-0.037567139
0.011032104
0.04989624
0.016738892
-0.047363281
-0.012565613
-0.0103302
0.052062988
0.015731812
0.050964355
0.021591187
0.044311523
0.041625977
0.01096344
-0.021820068
0.046661377
-0.029083252
0.0097732544
-0.017990112
0.06036377
0.052856445
0.0092010498
0.010017395
0.051330566
-0.039001465
-0.014801025
0.059661865
0.061889648
0.014465332
-0.052886963
-0.012458801
0.059997559
0.057067871
-0.034332275
-0.025588989
0.012748718
0.0058746338
-0.032470703
-0.016540527
-0.032012939
-0.043029785
0.057495117
-0.024810791
-0.03086853
0.0069313049
-0.031585693
-0.037200928
0.044677734
-0.025054932
0.035430908
-0.020584106
0.0025367737
0.035491943
0.045806885
0.06072998
-0.014053345
-0.035766602
0.0056037903
-0.053833008
0.048278809
-0.046203613
-0.044799805
0.042022705
0.028869629
-0.00032353401
0.035095215
0.044677734
0.060211182
-0.056854248
0.022720337
-0.056030273
0.021591187
-0.035644531
0.049438477
-0.039703369
0.037384033
-0.054046631
0.049163818
0.003578186
0.046875
0.024002075
-0.058959961
-0.025619507
0.052093506
-0.018264771
0.0010843277
-0.032226562
-0.035888672
-0.0088424683
-0.056030273
-0.018264771
-0.060821533
-0.015396118
0.022888184
-0.049530029
-0.015930176
0.04699707
-0.034698486
-0.0067825317
0.060760498
0.037231445
0.0026607513
0.059936523
-0.056976318
0.035736084
0.052215576
0.057983398
0.052703857
0.044708252
0.010925293
0.032653809
0.018280029
-0.034179688
0.059112549
-0.06237793
-0.012817383
0.025817871
0.029663086
0.016357422
-0.052337646
-0.018753052
-0.01322937
0.050109863
0.053192139
-0.008354187
0.049530029
-0.0023765564
0.00030398369
-0.032318115
0.054901123
0.046966553
-0.034912109
0.032958984
0.035949707
-0.047729492
0.028442383
0.04119873
0.014480591
0.057739258
0.031829834
0.0029640198
0.043273926
0.06048584
-0.021530151
-0.007850647
-0.036346436
0.040252686
0.017852783
-0.02381897
-0.035125732
-0.030502319
-0.029129028
-0.043762207
-0.049621582
-0.062225342
-0.012435913
0.021530151
-0.0072402954
-0.061004639
-0.062225342
0.026626587
0.058929443
0.025772095
-0.025039673
0.055755615
-0.0073547363
0.046569824
0.036499023
-0.019134521
-0.058837891
0.01751709
0.057800293
-0.038757324
0.020172119
0.01512146
0.021469116
-0.046142578
0.058044434
-0.023651123
0.039031982
-0.024871826
0.050598145
-0.034851074
0.03237915
0.0032119751
-0.0062255859
0.049407959
0.040344238
0.052734375
-0.0045814514
0.0059585571
-0.0076522827
0.026306152
-0.052001953
-0.010971069
0.0079574585
-0.044494629
0.030639648
0.019592285
0.019989014
-0.030273438
-0.05847168
0.036132812
-0.05291748
-0.026153564
-0.032287598
-0.013145447
0.012298584
-0.032775879
0.02305603
0.019226074
-0.0030708313
0.025085449
-0.062255859
-0.02822876
0.013885498
-0.025863647
-0.053985596
-0.035919189
0.0095596313
-0.056091309
0.0096511841
-0.016464233
-0.024200439
0.050628662
0.026153564
-0.0021209717
0.059783936
0.010772705
0.0048103333
0.037353516
0.023620605
0.050689697
0.051147461
0.034515381
0.06137085
0.052124023
-0.033355713
0.05758667
-0.058563232
-0.040710449
0.042510986
0.051208496
0.01084137
-0.009765625
0.010070801
0.062194824
-0.036987305
0.034515381
0.048400879
0.04309082
0.053314209
-0.053009033
-0.031982422
0.034606934
-0.020675659
-0.05078125
-0.0017948151
0.0043144226
-0.056060791
0.030899048
0.0029411316
-0.042633057
-0.022705078
-0.00045609474
0.018798828
-0.037689209
-0.044769287
0.037506104
-0.0045776367
0.05291748
0.015258789
0.0032920837
0.056488037
-0.01020813
-0.0013427734
0.057128906
0.057403564
-0.034545898
-0.050964355
0.031066895
0.014450073
0.018722534
0.056335449
-0.038360596
0.053955078
0.007270813
0.028060913
0.0016708374
0.016708374
0.0031108856
0.03918457
-0.046905518
0.0574646
-0.037963867
-0.037963867
0.00078725815
0.056884766
-0.038421631
0.028091431
-0.004234314
0.022186279
-0.059570312
-0.011108398
-0.041168213
0.026199341
-0.036499023
0.049804688
0.054656982
0.033050537
-0.033447266
-0.022705078
0.052642822
-0.0052146912
0.010536194
0.045623779
-0.031799316
0.0097732544
-0.053161621
0.038696289
0.044677734
0.024780273
0.05581665
0.02180481
0.00087785721
-0.061676025
-0.0095825195
-0.012893677
0.031585693
0.0090332031
0.048492432
0.048858643
0.029144287
0.013381958
0.00046658516
-0.0027828217
-0.045013428
0.053955078
-0.038757324
-0.0030326843
-0.037475586
-0.059844971
-0.030197144
-0.055938721
0.0063972473
-0.046722412
-0.047790527
0.04309082
-0.0546875
0.051483154
0.0041503906
-0.013961792
0.057830811
-0.01423645
0.015235901
-0.037536621
0.0098419189
-0.042755127
0.061737061
-0.0043907166
-0.043609619
-0.0022258759
-0.058288574
-0.040039062
-0.056091309
0.0080718994
-0.053741455
0.019073486
-0.033294678
-0.035095215
0.05670166
0.04586792
-0.05178833
0.0068626404
-0.0029945374
-0.023529053
-0.040802002
-0.013565063
-0.012336731
0.043304443
-0.035339355
-0.017730713
-0.036743164
0.046020508
-0.049194336
-0.013305664
-0.036254883
0.030349731
0.01083374
0.016601562
0.044555664
-0.048370361
0.021743774
0.054138184
0.052429199
0.040588379
0.0094223022
0.027938843
0.01235199
-0.02835083
0.027435303
-0.028717041
-0.022979736
-0.026626587
0.038024902
0.038513184
0.023742676
0.0028533936
-0.024093628
-0.0034599304
-0.029266357
0.03503418
0.015884399
-0.0076637268
-0.035430908
-0.032318115
-0.060302734
0.028121948
0.0086975098
-0.020462036
-0.040802002
0.047698975
-0.061767578
0.05255127
-0.048828125
0.019348145
0.038726807
-0.05078125
-0.04107666
-0.019088745
-0.023742676
-0.027709961
0.049987793
-0.0039558411
-0.0070419312
0.0098953247
-0.050842285
-0.05480957
0.06237793
0.061950684
0.0020046234
-0.048278809
-0.00068712234
-0.054443359
-0.055603027
-0.016571045
0.012153625
-0.049591064
7.8320503e-05
0.0090332031
0.012359619
0.016479492
-0.045440674
-0.027130127
-0.04699707
-0.034423828
0.032989502
0.015655518
-0.03225708
0.038574219
-0.040130615
-0.0071220398
-0.048156738
-0.00039410591
0.062225342
-0.046661377
-0.047485352
-0.061401367
0.041412354
-0.037994385
0.047363281
-0.0051651001
-0.026687622
-0.025970459
0.031799316
-0.0078277588
-0.028198242
-0.040924072
-0.0025196075
-0.019165039
-0.037536621
0.0041542053
0.057312012
0.050567627
0.018478394
0.0067176819
0.048156738
-0.058380127
0.023605347
0.057037354
0.056213379
-0.037780762
0.032440186
-0.036254883
-0.055328369
-0.0049743652
0.012207031
0.012748718
-0.062194824
0.013305664
0.041473389
-0.048919678
-0.031280518
-0.059936523
-0.035186768
0.021759033
0.037628174
-0.013191223
0.022827148
-0.021636963
0.03427124
-0.019714355
-0.043609619
-0.011650085
0.0073356628
0.048339844
-0.01171875
-0.0064888
-0.059326172
0.041870117
-0.050750732
0.038421631
0.040466309
0.039611816
-0.015129089
-0.027511597
0.01550293
-0.058349609
0.020965576
-0.01436615
-0.04385376
-0.043914795
-0.037384033
0.053924561
-0.020111084
0.050476074
0.0072784424
0.0046234131
-0.042358398
-0.024917603
-0.043365479
0.012115479
-0.032714844
0.041595459
-0.02394104
-0.054992676
-0.00831604
0.048095703
-0.045349121
-0.042022705
0.021621704
-0.0029621124
0.010192871
0.033782959
-0.039581299
0.0035667419
0.040588379
0.026779175
0.046722412
0.035247803
0.038482666
0.053283691
-0.010444641
-0.034088135
0.0013837814
-0.035003662
-0.045440674
0.038665771
-0.018890381
0.0058631897
0.06048584
-0.058074951
-0.034362793
0.01222229
0.060913086
-0.046020508
-0.047943115
-0.050506592
-0.022903442
0.016571045
0.038360596
0.019851685
-0.021682739
-0.0050354004
-0.057952881
-0.020141602
-0.028915405
0.015586853
-0.023574829
0.058624268
0.033874512
-0.057159424
0.010047913
0.0038337708
0.059082031
-0.0010385513
-0.043884277
-0.0081176758
-0.018295288
0.051025391
0.039550781
-0.053771973
-0.034057617
0.012512207
0.056213379
-0.060028076
-0.011474609
-0.019989014
0.0519104
0.0017223358
0.03338623
0.056549072
-0.045959473
0.050384521
0.0074462891
0.044250488
-0.0089569092
0.025085449
-0.058654785
0.034973145
-0.057037354
-0.047180176
0.031677246
-0.041778564
0.011924744
-0.0340271
-0.034423828
0.0080032349
0.026535034
0.02003479
0.0034828186
-0.015975952
-0.017868042
0.060302734
-0.050018311
0.049468994
0.040649414
-0.036437988
0.020568848
0.01235199
0.047088623
-0.036804199
-0.017807007
0.050720215
-0.0047721863
-0.040710449
-0.037506104
-0.0032711029
-0.014556885
-0.051055908
0.029174805
-0.026153564
0.03805542
-0.061187744
-0.040649414
0.0084152222
0.01550293
-0.028198242
0.0066947937
0.040618896
0.011329651
-0.059417725
-0.009803772
-0.050384521
0.057373047
-0.039398193
0.053771973
-0.033325195
-0.031402588
-0.022705078
0.013320923
-0.013755798
0.03918457
0.026107788
-0.019638062
-0.041870117
-0.038299561
0.045501709
0.017745972
0.011047363
0.044464111
0.045135498
-0.0093612671
0.0072517395
-0.042358398
-0.027893066
-0.0010223389
-0.011169434
0.0096511841
-0.035949707
-0.047454834
0.039703369
0.007686615
-0.025650024
0.022583008
0.039154053
0.01209259
-0.0059127808
-0.0036563873
-0.048736572
-0.0015697479
-0.024856567
-0.026000977
0.02507019
0.026382446
-0.0078735352
0.022293091
0.029632568
0.055236816
0.0071487427
-0.010742188
0.052886963
0.004032135
-0.0041465759
0.041534424
0.056640625
0.030593872
0.034576416
0.0052833557
0.03616333
0.05368042
0.031829834
0.047119141
0.016189575
0.057495117
0.025222778
-0.015609741
-0.017456055
0.024612427
-0.06149292
-0.045440674
-0.052825928
0.029296875
-0.036254883
-0.050262451
0.041748047
0.046539307
0.0024681091
-0.041625977
0.030807495
-0.040924072
-0.036560059
0.042724609
-0.012252808
0.027862549
-0.022979736
-0.056610107
-0.062133789
-0.031829834
-0.022506714
-0.0088806152
-0.012763977
-0.044342041
-0.01108551
0.033233643
0.020690918
0.020950317
-0.049285889
0.0041656494
0.060058594
0.061218262
-0.055603027
-0.044342041
0.039154053
-0.0028591156
0.026519775
-0.051391602
0.031463623
-0.059844971
-0.053863525
0.0574646
0.012237549
0.061187744
-0.0362854
-0.050750732
0.058502197
-0.013633728
0.030380249
-0.0065422058
0.055053711
0.0094223022
-0.061828613
-0.040527344
-0.0099105835
0.042877197
-0.036682129
-0.014724731
-0.044555664
0.012191772
0.028259277
-0.033111572
-0.031860352
-0.030578613
0.036468506
-0.021987915
0.015518188
0.035614014
-0.060760498
0.03717041
-0.048339844
0.0049781799
-0.058258057
0.042175293
0.0069847107
-0.060913086
-0.028640747
0.053100586
-0.022842407
-0.056091309
-0.01499176
-0.021789551
-0.019943237
0.0064277649
-0.0022773743
-0.025878906
0.036468506
-0.011177063
0.0091781616
0.032806396
-0.017318726
0.038391113
-0.038360596
0.037811279
0.022293091
0.0040626526
-0.022521973
-0.010734558
-0.053924561
-0.016342163
-0.028594971
0.060699463
-0.034545898
-0.0021419525
-0.019439697
0.03515625
-0.03515625
-0.017211914
-0.027542114
-0.014434814
-0.057373047
0.054504395
-0.013511658
-0.0010318756
0.0081939697
-0.03692627
0.012611389
0.018768311
0.040313721
0.0023117065
0.03692627
0.010307312
0.0035648346
-0.060424805
-0.043182373
0.058441162
-0.031433105
0.015541077
0.056213379
0.062103271
-0.0021533966
0.054077148
0.033111572
-0.053466797
-0.044677734
0.024703979
-0.018035889
-0.058837891
0.046600342
-0.04598999
0.01386261
0.060150146
-0.010070801
0.03793335
-0.033050537
-0.04598999
-0.056640625
0.00028562546
0.0063476562
-0.022491455
-0.034942627
0.045776367
0.027114868
0.0072898865
0.0061607361
-0.0095596313
-0.0028991699
0.060333252
-0.038330078
0.010948181
0.035217285
-0.032562256
-0.043792725
-0.0090179443
0.058410645
-0.021469116
-0.027130127
-0.028747559
-0.048156738
0.052764893
-0.013725281
0.033691406
-0.046539307
-0.031890869
0.0047035217
0.059783936
0.029693604
0.045288086
0.054931641
0.0087051392
0.048217773
0.0089263916
-0.012199402
-0.062255859
0.0056800842
0.018951416
-0.019958496
-0.014579773
0.059082031
0.012710571
-0.042999268
-0.059936523
0.0064353943
0.045928955
-0.037231445
-0.060943604
-0.054931641
0.035247803
-0.052307129
0.052032471
0.062286377
0.020401001
0.036590576
0.038970947
-0.0073471069
0.023849487
-0.018707275
0.0035171509
-0.015396118
0.0099716187
-0.040130615
-0.0044364929
-0.033355713
-0.031951904
-0.02796936
0.045562744
0.01802063
-0.044250488
0.029449463
0.028076172
-0.029495239
0.017440796
-0.045471191
0.03793335
0.022842407
0.042755127
-0.017715454
0.034729004
-0.0077819824
-0.057983398
-0.061309814
-0.010284424
0.00068378448
-0.061157227
-0.061553955
0.037963867
-0.0048103333
0.022842407
0.007232666
0.036712646
0.015281677
-0.0037193298
0.038482666
0.035736084
0.03994751
0.045410156
-0.0073242188
-0.023880005
0.028701782
-0.027511597
-0.051513672
0.031799316
0.042236328
0.04006958
-0.036560059
-0.058624268
0.0015993118
-0.004070282
-0.01625061
0.04675293
0.0079345703
-0.062225342
-0.032928467
-0.053375244
-0.058563232
0.02494812
0.061798096
-0.016952515
-0.036102295
0.0061302185
-0.048400879
-0.045166016
-0.017410278
-0.0038337708
0.005241394
0.040130615
-0.043457031
-0.004108429
-0.059387207
-0.023880005
-0.052856445
-0.043457031
-0.040618896
0.014663696
0.0023593903
-0.043792725
0.024505615
0.051940918
0.062225342
-0.049835205
0.052337646
-0.060028076
0.027893066
-0.048553467
-0.055755615
-0.03112793
0.0088043213
-0.013687134
0.032989502
-0.011077881
-0.061309814
0.024124146
0.027832031
0.020355225
0.062225342
-0.040771484
0.060882568
0.046020508
0.025146484
0.038208008
-0.058227539
0.026733398
-0.052581787
-0.034423828
0.018463135
0.0057678223
0.044525146
-0.00067234039
-0.0046958923
0.057830811
-4.5895576e-05
-0.02331543
0.046325684
-0.0056381226
0.045654297
0.045074463
0.0071105957
0.049530029
-0.036560059
-0.015396118
0.062255859
0.054443359
-0.043731689
0.045959473
0.047454834
0.014312744
9.2029572e-05
0.045257568
0.044464111
0.057037354
0.029281616
-0.042236328
-0.033172607
0.044891357
-0.032531738
-0.053833008
0.022659302
-0.0031318665
-0.048461914
0.038452148
-0.039154053
0.046478271
0.029586792
-0.048797607
0.049468994
-0.043212891
0.017776489
-0.043487549
-0.029754639
0.020050049
-0.013946533
-0.025634766
-0.056640625
0.059539795
-0.011581421
0.046600342
0.0051193237
-0.056335449
-0.014801025
0.062194824
0.05090332
-0.01802063
-0.047912598
0.0098800659
-0.039093018
0.052581787
0.012275696
0.05456543
0.0069847107
-0.04864502
-0.019119263
0.05847168
0.054290771
-0.03225708
-0.033630371
-0.0064430237
0.061004639
0.035491943
-0.00072574615
0.015426636
-0.062103271
-0.050109863
-0.050628662
0.050994873
-0.031890869
0.039611816
0.039123535
0.016464233
0.044494629
-0.027679443
-0.038879395
0.032745361
0.030426025
0.054138184
0.036773682
0.013122559
0.053039551
-0.046478271
0.058197021
-0.010971069
-0.042877197
-0.03338623
-0.021331787
-0.039733887
-0.059783936
-0.037445068
0.022781372
0.025726318
-0.02961731
0.0055274963
0.021438599
0.053894043
0.016815186
0.015563965
-0.046112061
0.049865723
0.0044326782
0.020233154
-0.019500732
-0.042938232
-0.016647339
0.0064506531
0.0024471283
-0.047271729
0.026397705
0.061096191
0.031402588
0.045928955
-0.024887085
-0.0496521
0.01133728
-0.061004639
-0.052825928
0.038848877
-0.026229858
0.052734375
-0.045959473
-0.057525635
-0.035858154
0.025253296
0.033172607
0.023269653
-0.041564941
0.050872803
0.016220093
-0.050231934
0.033660889
0.0070571899
-0.060211182
0.039916992
0.022766113
0.037658691
-0.019561768
-0.0062217712
-0.031280518
-0.049407959
0.027770996
0.0519104
0.011772156
-0.026672363
-0.0049476624
0.02053833
-0.056640625
-0.018890381
0.062133789
-0.025634766
-0.046783447
0.060760498
-0.015136719
-0.011672974
0.050720215
-0.046844482
-0.049255371
0.03314209
-0.058441162
0.028381348
-0.047668457
0.0018558502
-0.054229736
0.05947876
-0.015792847
-0.050048828
0.062286377
-0.062286377
0.040710449
0.0069770813
0.060913086
0.010253906
0.0084609985
0.0087585449
0.017181396
0.019210815
-0.028274536
0.048187256
-0.052490234
0.028808594
-0.032928467
0.018051147
-0.017166138
-0.045166016
-0.057098389
-0.046020508
-0.013542175
0.0074920654
0.057617188
-0.009185791
-0.020584106
-0.021606445
0.017745972
0.022369385
0.031066895
0.010444641
-0.03503418
-0.0047950745
-0.039978027
0.01386261
0.033935547
-0.050537109
0.056274414
0.056335449
-0.058685303
-0.048858643
0.0037441254
0.021286011
0.056518555
0.010513306
0.028533936
0.058441162
-0.015899658
0.026565552
0.0099029541
0.047119141
-0.062103271
0.012985229
0.043609619
0.058837891
0.0093154907
-0.031768799
-0.02772522
0.023849487
0.013671875
-0.010726929
-0.051300049
0.016738892
0.034332275
-0.0057525635
-0.059326172
-0.00623703
-0.057250977
-0.011947632
0.050842285
-0.013175964
-0.044677734
-0.028442383
0.043365479
-0.051483154
0.032684326
0.0016965866
0.015594482
-0.038635254
-0.025802612
0.0085449219
0.015640259
-0.013755798
0.060760498
0.058624268
-0.0050315857
0.0073623657
0.0067329407
-0.054290771
0.045623779
0.0041542053
-0.0077972412
0.0053520203
0.012901306
0.02381897
0.051300049
-0.019699097
0.014122009
-0.052581787
-0.049194336
0.017715454
0.010215759
-0.02772522
-0.058807373
0.0074043274
-0.046264648
0.043670654
-0.049926758
-0.055633545
0.040527344
-0.018951416
-0.016967773
-0.030014038
-0.03604126
-0.0014257431
0.012390137
0.020523071
-0.036499023
0.034423828
0.0066413879
-0.041900635
-0.046478271
0.0014429092
-0.048126221
-0.016662598
-0.061462402
0.00089120865
0.058837891
-0.056182861
0.032623291
0.0089263916
0.039855957
-0.057739258
0.049957275
0.055084229
0.033752441
-0.025161743
0.020385742
0.015144348
-0.0069656372
-0.011283875
-0.00085735321
-0.041778564
-0.025772095
-0.0031490326
-0.021774292
0.032196045
0.051086426
-0.059020996
-0.024963379
-0.011665344
-0.033996582
-0.042358398
-0.038391113
-0.034240723
0.0020694733
0.043457031
0.0234375
0.016998291
0.040496826
-0.030059814
-0.051818848
-0.030548096
0.042999268
0.030715942
-0.031402588
-0.060241699
0.038482666
-0.044036865
-0.049530029
-0.010986328
0.01776123
0.022994995
-0.010185242
-0.043151855
-0.011650085
0.038085938
0.032073975
-0.056488037
-0.018554688
-0.056915283
-0.059906006
0.0625
-0.011940002
0.040618896
-0.060638428
-0.011566162
-0.0026760101
0.040222168
-0.046447754
-0.044891357
-0.030258179
0.037719727
0.017700195
0.035675049
0.0086364746
0.0070266724
0.045776367
0.057434082
0.02116394
0.00044631958
0.051269531
-0.014709473
-0.06237793
-0.046142578
0.048400879
0.021026611
0.014434814
0.049285889
0.0028781891
0.042541504
0.017501831
-0.050415039
0.022262573
-0.0028018951
0.044830322
0.011177063
0.052246094
-0.034362793
0.015762329
0.0017623901
-0.0042953491
0.053833008
-0.018234253
0.017944336
0.023422241
0.049560547
0.0083847046
-0.062072754
0.017288208
0.051757812
-0.0019340515
0.051696777
0.020904541
-0.026535034
-0.0073051453
0.059326172
0.025253296
0.018875122
-0.034790039
-0.017578125
0.061462402
-0.03137207
-0.038757324
-0.024291992
-0.036773682
-0.021575928
0.006439209
0.018249512
0.013557434
-0.029891968
-0.013946533
0.0057296753
-0.03894043
0.0054779053
0.046447754
0.050140381
-0.003786087
0.045684814
-0.049865723
0.0094985962
0.037139893
-0.026184082
-0.0017499924
0.0019855499
0.042053223
0.015541077
0.061004639
-0.011413574
-0.017288208
0.024307251
0.042175293
0.014297485
0.016586304
0.04284668
0.056152344
0.04586792
-0.015411377
-0.046600342
0.044067383
-0.025680542
-0.019012451
0.044006348
0.026702881
-0.055419922
0.017562866
0.036987305
-0.045166016
0.035522461
-0.049591064
-0.04864502
0.039642334
0.038787842
0.014717102
0.017669678
0.06036377
-0.032043457
-0.045776367
0.027587891
0.038665771
-0.0057067871
0.053527832
-0.014930725
0.030532837
-0.0089263916
-0.05758667
0.028076172
-0.045806885
-0.04776001
-0.045623779
0.04699707
-0.049102783
0.024093628
0.011611938
-0.054260254
-0.053344727
0.0020618439
-0.012039185
-0.025558472
-0.0022525787
0.050872803
-0.051696777
0.043579102
-0.0061073303
-0.051361084
0.028762817
0.059356689
0.0078201294
0.053833008
0.055328369
-0.0059700012
-0.0061225891
-0.047424316
0.032043457
-0.058105469
0.040039062
-0.0072517395
0.016967773
-0.028106689
-0.011779785
-0.0055198669
-0.059387207
-0.0092773438
0.036407471
-0.051361084
0.022598267
-0.0078887939
-0.029403687
-0.043487549
-0.010482788
0.0039749146
-0.027938843
0.014610291
0.0088424683
0.03717041
-0.013153076
-0.02545166
-0.037902832
-0.0086975098
0.02406311
0.036743164
-0.012275696
0.055938721
0.034484863
0.06237793
-0.029464722
0.0057983398
-0.052124023
0.014556885
-0.059082031
0.03314209
-0.025482178
0.010047913
0.017822266
7.7486038e-05
0.028045654
0.040679932
-0.0043106079
0.03515625
0.045959473
0.040802002
-0.05770874
0.046966553
0.030380249
0.035644531
-0.010002136
-0.035888672
-0.023574829
-0.0059776306
-0.046203613
-0.0072174072
-0.038604736
-0.0034160614
0.055389404
-0.062011719
-0.032897949
0.028762817
0.058197021
0.038818359
-0.028793335
0.0033836365
0.042999268
-0.021789551
-0.050598145
0.024200439
0.01651001
0.023651123
0.044555664
0.045593262
0.013725281
0.044952393
-0.059692383
-0.0011196136
0.0020904541
0.0097427368
0.06137085
0.015327454
-0.055145264
0.055358887
-0.048126221
0.015533447
-0.026153564
0.00093507767
