-0.002979
0.012108
-0.001461
-0.021149
0.035553
0.016800
-0.002192
0.005222
-0.007835
-0.038116
-0.023376
0.000882
-0.036255
-0.011276
-0.012001
0.025009
0.023438
0.007820
-0.015602
0.001720
-0.008659
0.046814
0.019028
0.033356
-0.012955
-0.021042
0.031525
0.004753
0.014778
0.035309
0.030579
0.001566
0.009521
0.017334
0.008423
0.037628
0.025818
-0.010216
0.021835
-0.011681
0.029373
0.018967
0.003168
0.010147
-0.013153
-0.027771
-0.025940
0.007019
-0.012489
-0.013924
-0.022614
-0.024445
-0.002188
-0.011864
-0.007275
-0.036346
-0.009003
-0.017746
0.009254
-0.035736
-0.036163
0.002661
-0.004307
0.024384
0.019440
0.001104
0.004219
-0.010834
-0.001745
-0.039398
-0.000422
-0.005928
0.001367
-0.003841
-0.028717
0.002756
-0.003128
0.032593
-0.017700
0.023132
0.008430
0.014679
-0.022583
-0.032227
0.011124
0.016693
0.022003
-0.024536
0.039703
-0.012596
0.012962
0.024734
-0.006176
0.014961
-0.029099
-0.007599
0.014786
0.001186
0.037109
0.020157
-0.005592
-0.011696
-0.020187
0.028625
-0.005474
-0.000133
0.006577
0.020081
-0.032623
-0.015160
-0.005619
-0.009956
0.008240
-0.007591
0.009094
-0.023087
-0.023376
-0.029556
0.042633
-0.014763
-0.033997
0.032196
0.002045
-0.043091
0.023590
0.001661
0.030731
0.035370
0.032990
0.004681
-0.008698
0.029037
-0.019287
0.010803
-0.002089
0.034027
0.001285
0.013153
0.032562
-0.029358
0.000916
-0.029327
-0.003418
0.002136
0.007423
-0.034454
-0.000630
0.002657
-0.034363
-0.016525
0.042389
-0.014648
-0.018936
-0.006805
0.018509
-0.033722
0.014526
0.014709
-0.015167
-0.004875
0.037201
-0.051483
-0.005520
0.001391
0.027725
-0.008904
-0.022552
0.020218
0.023117
0.009735
-0.000098
0.010506
0.004070
-0.023239
-0.010078
0.007423
-0.029999
-0.021713
0.017288
-0.032837
0.025894
-0.008209
-0.008698
-0.001400
-0.023743
-0.036621
0.018402
-0.015533
0.051056
-0.004822
0.006905
0.015106
-0.009224
-0.026993
0.003689
0.020737
0.028992
0.005524
0.001013
-0.000194
0.013443
-0.015434
-0.001264
-0.023087
-0.004547
-0.023651
-0.034821
-0.038422
0.016129
0.028458
0.009705
0.006065
0.015747
-0.015282
0.003128
0.004768
-0.013252
-0.028534
-0.007195
0.011772
-0.032684
-0.025330
0.025558
-0.001491
0.023438
0.019653
-0.016342
-0.023331
0.035919
0.012253
0.012978
-0.007805
-0.045776
-0.011551
0.004730
-0.027374
0.029984
-0.037628
0.031311
-0.005707
-0.018494
0.034119
0.032867
-0.029404
0.005264
0.028351
-0.002558
-0.009590
0.023117
0.037384
-0.038177
0.028122
0.018539
-0.036163
0.013268
-0.013763
0.020813
0.040344
0.015167
0.021469
-0.005550
0.008347
-0.029099
0.010292
0.023209
0.014366
0.019394
-0.011711
0.001924
0.039825
0.022125
0.012680
-0.008179
0.022781
0.012787
0.026184
-0.018066
0.034454
0.015388
-0.029358
0.022644
0.030594
0.019562
-0.022461
-0.014259
0.014366
0.009232
-0.003151
-0.009064
0.010300
0.020111
-0.024979
-0.026123
0.025116
0.009705
-0.019287
0.000976
-0.009293
-0.016312
-0.029861
-0.021942
-0.005867
0.007244
0.030685
-0.037811
0.023666
0.012146
0.022766
-0.023315
-0.000018
0.034973
0.036774
0.000005
0.032898
0.009995
-0.021347
0.029755
0.014587
0.034698
-0.003157
-0.006470
0.028885
0.000392
-0.004585
-0.006927
0.028259
0.026443
-0.040131
0.035461
0.034180
-0.006420
0.024399
-0.003139
-0.018036
-0.022552
0.026321
-0.011330
0.010803
-0.002462
0.009399
-0.011009
0.034790
-0.005226
0.001596
0.027573
0.022629
-0.000267
-0.010963
0.029922
-0.026764
-0.001368
-0.002512
-0.022873
-0.026459
-0.000310
0.015076
0.004421
-0.009750
0.001921
0.018295
-0.001062
-0.026154
0.031830
-0.005741
0.002453
-0.018250
-0.003012
-0.019913
0.021072
0.015312
-0.019821
0.022736
0.005001
0.007683
0.021347
-0.027847
-0.032745
-0.027557
0.028809
0.003628
0.004597
0.038422
0.016083
-0.029602
0.021973
0.034912
-0.010460
-0.031067
-0.024979
-0.015358
0.001849
-0.026550
0.002363
-0.018356
0.042511
0.013374
0.001445
0.018555
0.007874
0.028412
0.020737
-0.015404
0.027054
-0.020645
0.015884
-0.007980
-0.024261
-0.000613
-0.038910
0.006302
0.008675
0.016006
0.000807
-0.019348
-0.018509
-0.018082
0.024796
-0.009911
-0.001539
0.022141
-0.034454
-0.002270
0.030273
0.043793
0.020325
0.041962
-0.023956
0.023331
-0.044586
0.030090
0.002790
0.000896
-0.002028
-0.012398
0.028183
0.015732
-0.019714
-0.027206
-0.007851
-0.034943
0.009010
0.012054
-0.038879
-0.007519
0.023041
-0.023041
0.040710
-0.010674
-0.021759
0.036285
0.049408
-0.027008
0.032318
0.050415
-0.008293
-0.047791
-0.025269
0.003881
-0.018173
0.006718
-0.011642
-0.044159
0.013908
0.001665
-0.009064
0.032532
0.009644
0.014778
0.037689
0.037140
-0.021698
-0.003986
0.006371
0.034271
-0.046448
0.048706
0.015091
-0.011246
-0.007389
0.003696
0.034851
0.021561
0.014641
-0.007889
0.016953
0.054749
-0.013054
0.028915
0.016403
0.052643
-0.043518
0.024078
-0.007820
0.030960
-0.008476
-0.016113
-0.000551
0.021271
0.001002
0.011925
0.016083
0.051270
-0.024124
0.051727
0.006531
-0.045715
0.016785
0.012466
-0.005806
0.020111
0.003471
-0.001213
-0.036407
-0.005852
-0.025681
-0.029358
0.011429
-0.024521
-0.003075
-0.006031
-0.007919
0.012329
-0.004925
0.004589
0.028091
-0.023026
0.029312
-0.014908
0.021942
-0.008827
0.003788
0.013618
0.008102
-0.023788
0.009117
-0.002275
0.003828
-0.003225
0.016235
-0.011024
0.013489
0.017410
0.024460
0.011673
0.014816
-0.033203
-0.014328
0.017624
-0.024841
0.011513
-0.007614
-0.024963
0.018845
-0.016632
0.015747
0.011215
0.014381
-0.033997
-0.006954
-0.010597
0.023529
0.001452
-0.002295
0.017136
-0.004784
0.004322
0.012672
-0.012558
0.018677
0.021698
0.009834
0.029037
-0.002583
0.023636
0.024384
-0.005047
-0.038239
-0.004642
-0.001955
-0.007149
-0.002371
0.021790
-0.011177
0.037048
-0.032074
-0.002872
0.022141
0.025299
0.028992
0.024307
-0.011444
-0.009819
-0.017792
-0.028900
0.034912
0.033905
-0.035034
-0.029694
-0.028152
0.023148
0.021103
-0.021454
0.004173
0.010284
-0.037354
-0.017319
0.005856
-0.002813
0.004185
0.018646
0.021591
-0.013145
-0.032806
-0.031982
0.052338
0.030807
0.013626
-0.033875
-0.009056
0.032166
0.013733
-0.032410
0.009819
0.006866
0.008469
0.015114
-0.006966
0.004246
0.007271
-0.005142
0.018539
0.019135
-0.003151
-0.011238
-0.019638
0.011314
0.012184
-0.001989
-0.007565
-0.005665
0.023651
0.028870
0.027069
0.003555
0.018723
0.027802
0.019897
-0.015274
-0.013405
-0.017441
-0.031113
-0.029007
0.000209
-0.027557
0.018738
0.031555
-0.011185
-0.011955
0.017914
0.012047
-0.017029
0.007633
0.020584
-0.018448
0.039825
0.009766
-0.028595
-0.008156
-0.013863
0.034485
0.037415
-0.004852
0.018585
0.029190
-0.029312
-0.012589
0.037811
-0.018631
0.020187
0.008804
-0.005848
0.023163
0.003561
0.027466
-0.003855
0.026260
0.023300
0.017807
-0.009109
-0.023911
-0.017899
0.030289
0.029861
0.009811
-0.013931
-0.005600
0.027771
0.035614
-0.022888
-0.014244
-0.025040
0.012794
0.013283
0.005970
-0.000604
0.008858
0.021164
-0.006630
-0.013077
-0.004318
-0.006207
0.017242
-0.035004
0.012245
-0.016296
-0.028427
0.019943
-0.014511
0.018005
0.018875
0.017746
0.036469
-0.002329
0.036346
0.024902
0.026749
-0.019897
0.018402
0.024109
-0.024078
0.002844
0.045868
0.012367
-0.009094
0.008064
-0.005749
0.010727
0.013924
0.023041
-0.005013
0.001217
-0.021057
0.032410
0.012833
0.009865
0.037231
-0.003309
-0.048279
-0.005421
-0.003826
0.028427
0.036255
-0.025986
0.030258
0.010048
-0.002325
0.006836
0.014229
0.029190
0.016830
0.000078
-0.008484
-0.020660
-0.002039
0.031860
0.016907
-0.013458
-0.024246
-0.032104
-0.012466
-0.010002
-0.028931
-0.006718
0.022263
0.015900
-0.046204
0.008400
-0.030502
-0.003983
0.024338
-0.018127
0.003531
0.012299
0.018112
0.013313
-0.013474
0.000491
-0.001494
-0.018967
0.039459
-0.044312
-0.015778
-0.031189
0.010208
-0.017197
0.013245
0.016098
-0.016220
-0.026154
0.000971
0.002701
0.012817
-0.002638
0.037598
-0.013031
-0.028366
0.008484
-0.001633
-0.006397
0.009201
0.050842
-0.030228
-0.006073
-0.026627
0.035950
-0.056122
0.005058
-0.002548
0.002626
0.016251
0.001705
-0.009529
0.023544
-0.019745
0.028671
-0.034668
-0.028030
0.027237
-0.025101
0.026215
0.002193
0.023544
-0.020004
0.011620
-0.005035
-0.015305
-0.009041
-0.004978
0.005966
0.040802
0.028381
-0.023712
0.006618
-0.014862
0.038208
0.030670
-0.006695
0.001282
0.029648
0.014214
0.014153
-0.034454
0.002708
0.012650
0.016113
0.036469
0.033569
-0.009094
0.020935
0.015854
-0.020004
0.032928
0.006973
0.029007
-0.001252
-0.026184
-0.028030
-0.032959
-0.022141
0.007053
0.011276
-0.011246
-0.027252
-0.002787
0.030136
0.010826
-0.009453
-0.030838
-0.021835
0.011742
0.028854
0.009651
-0.020248
-0.019775
0.012100
0.012329
0.034424
-0.045502
-0.042908
-0.009102
0.022766
0.021591
0.014420
-0.032227
-0.001997
0.003620
0.048492
-0.032837
0.008171
0.003477
0.000174
0.004292
0.001935
0.007866
-0.007935
-0.008141
0.002033
0.016129
-0.005009
-0.034668
-0.028397
0.025864
-0.027252
0.017990
-0.001341
0.013443
-0.015762
0.021286
-0.006798
-0.007736
0.008179
-0.007607
-0.023743
-0.014275
-0.025681
-0.012306
0.041779
-0.036591
0.012306
0.025772
0.018188
-0.018753
-0.013611
0.009132
0.021744
-0.016998
-0.026138
-0.049591
0.014206
0.017899
0.046997
-0.008331
-0.001230
-0.013062
0.023529
-0.010811
-0.024612
-0.028809
0.010246
0.025497
0.020126
-0.044800
-0.026489
-0.035706
-0.010223
-0.021515
-0.003273
-0.051331
-0.042633
0.029831
-0.040985
-0.034271
-0.040039
-0.023682
0.012833
0.006863
-0.036194
-0.018967
0.006092
-0.043640
-0.024933
0.002827
-0.012184
0.020416
0.016418
-0.021347
-0.030899
0.030884
-0.001274
-0.009941
0.021713
0.009277
0.002916
-0.026535
0.033600
-0.011223
0.014748
-0.019348
0.011658
-0.001575
0.000604
0.002455
0.004646
0.007519
0.024155
0.037567
-0.012146
-0.027863
-0.004841
-0.015503
0.034058
-0.048157
0.003353
-0.021957
-0.002323
0.038177
-0.006481
-0.008003
0.014404
0.007858
0.028534
0.033966
-0.023071
0.012726
-0.018204
-0.032562
0.015823
-0.013008
-0.027496
0.010742
-0.029999
-0.021210
-0.001021
-0.001625
-0.008766
0.023682
-0.014961
0.012100
0.018951
0.013321
0.025818
0.024460
-0.022003
-0.008430
0.014870
-0.014877
0.021439
0.012779
-0.006496
-0.019577
0.033173
0.022125
0.022934
-0.000249
0.017029
-0.018646
0.000165
0.016769
0.027191
0.019745
-0.005089
-0.021957
-0.033661
0.019547
-0.025543
0.031738
-0.022415
-0.031433
0.011452
0.012665
-0.021667
-0.000792
0.025391
0.000796
-0.025360
0.017868
-0.009399
0.019104
0.038849
-0.022202
-0.029297
-0.021774
0.009239
0.029877
-0.025742
0.032013
0.008629
-0.002146
0.030396
0.030823
0.018326
-0.009506
0.006912
0.015358
-0.016296
0.001760
0.006065
0.006050
-0.022369
-0.014435
-0.027878
-0.006554
-0.011337
0.005211
-0.006348
-0.006641
-0.040649
-0.026291
-0.018219
0.031143
-0.003685
0.013680
-0.029205
-0.037018
-0.013123
0.009811
-0.020828
-0.022614
0.004002
-0.020737
-0.023102
-0.007935
0.004276
0.032837
-0.027618
0.016342
0.022369
-0.032135
-0.029633
-0.028091
-0.032898
0.022110
0.006969
0.021118
0.011047
-0.020203
-0.029999
0.024414
0.023788
0.016602
-0.033081
-0.024628
-0.021271
-0.025024
0.007038
0.003311
0.008125
-0.006096
-0.034210
0.010094
-0.022217
0.025085
0.013611
0.017792
-0.017227
0.030350
0.019821
-0.018784
0.010452
-0.030090
0.006027
0.021271
0.002632
0.015762
0.006058
-0.034210
0.035339
0.052277
0.014641
-0.032623
0.011528
-0.044342
0.010544
-0.013794
0.006058
-0.001316
-0.047211
0.019424
-0.009705
0.042664
-0.038666
0.005539
-0.002094
0.014839
-0.012489
-0.046356
-0.048126
0.009979
-0.008408
0.010101
0.053772
-0.054260
-0.030548
0.034851
-0.053741
-0.044464
0.023834
-0.008186
0.009064
-0.003283
-0.007416
-0.017151
0.021591
-0.000150
-0.034210
-0.007179
-0.037384
-0.033386
0.036560
-0.003057
0.034607
-0.014030
-0.054932
0.002459
-0.025558
0.010818
-0.021088
-0.005268
0.034424
-0.043518
-0.029205
0.027100
-0.051453
0.008171
-0.004509
0.037476
-0.044067
-0.008514
0.023285
0.010010
0.007298
0.040405
0.046295
0.047577
0.002066
0.000654
-0.036407
-0.038849
0.039856
0.040833
0.071350
-0.021637
-0.011314
-0.083130
-0.041168
0.027008
-0.010788
0.019028
-0.048462
0.002544
0.007957
0.036835
-0.010788
0.010841
0.023941
0.045807
0.026749
0.033173
-0.017288
0.001857
0.011497
-0.001171
0.058167
-0.026779
0.050995
-0.001646
0.026718
-0.003643
0.034363
0.002234
-0.012428
0.037781
-0.000289
-0.069946
0.022644
0.039459
-0.002893
0.014740
0.029373
-0.032440
-0.009949
0.019806
-0.031052
0.039307
-0.045258
-0.023056
-0.003765
-0.051117
0.009682
0.030685
0.017822
-0.015411
0.019241
0.047302
0.007034
-0.022568
0.010666
0.055267
0.005341
0.034698
0.046539
0.015030
0.005043
-0.015022
0.019043
0.015930
0.021469
-0.049011
-0.075439
-0.000111
0.013542
-0.003654
-0.022278
-0.055267
-0.039673
0.095032
0.028030
0.065491
-0.019684
0.023651
-0.081177
0.070679
-0.002722
0.029602
-0.009163
-0.070312
0.026016
0.066406
0.065002
0.044373
0.053833
0.039734
0.023148
0.031525
-0.013466
0.018524
0.017990
0.033844
0.012093
0.076904
0.016739
-0.068542
0.005997
-0.055450
0.018326
0.050751
0.028717
0.030884
-0.054932
0.069824
0.000600
0.049774
0.018890
-0.011505
0.029190
0.022049
0.007130
0.056213
-0.028305
0.044250
0.075012
0.018600
0.001289
0.030563
-0.028610
0.019180
0.015160
0.019547
0.015442
0.056946
0.026031
0.018494
-0.026566
0.068115
0.027969
0.017014
0.031525
0.002756
0.009995
0.012459
0.003925
0.019547
0.005974
0.053528
-0.059875
-0.043060
0.020660
-0.084045
0.051788
-0.072876
0.100647
-0.009117
0.002405
-0.055542
-0.013443
0.025650
0.054626
-0.062225
0.034424
-0.017456
-0.015228
0.017532
-0.014961
0.055939
0.039703
0.045013
0.031052
-0.042450
-0.063477
0.020523
0.051941
-0.014244
-0.003746
0.030045
0.007004
-0.019775
-0.013901
0.029999
-0.016647
0.017105
-0.029877
-0.032501
-0.004707
-0.034027
0.007755
-0.032623
0.028870
0.029556
-0.031204
-0.023285
-0.027481
-0.033936
0.024399
0.000730
0.017426
-0.023315
0.009392
0.031311
0.023315
0.022614
-0.000943
0.023926
-0.021133
0.004063
-0.033081
-0.001160
0.029526
0.010979
0.023407
-0.020996
0.032837
0.020401
-0.010391
0.037750
-0.028351
0.009636
0.030731
-0.011345
-0.012802
0.024338
-0.023254
-0.019592
-0.030365
0.009644
-0.003366
-0.010483
0.013931
0.030106
0.003172
-0.018433
0.013649
0.026413
-0.024399
0.012978
-0.038391
0.009552
0.021072
-0.034088
0.011002
0.016586
-0.031921
-0.002287
-0.028717
-0.006340
-0.010902
0.018311
-0.034515
0.002544
-0.000876
-0.014610
-0.010773
-0.015587
-0.014008
-0.027359
0.002930
-0.010750
0.005253
-0.017487
0.023956
-0.012146
0.002665
0.007771
-0.027664
0.004108
0.010475
0.006493
0.030823
-0.008858
0.021286
0.032745
0.031586
-0.006741
-0.028397
0.001882
-0.035553
-0.021988
-0.014977
-0.028534
0.012169
-0.014320
-0.029144
-0.008339
0.008835
-0.001607
0.024445
0.036224
0.029587
-0.020447
-0.026733
-0.009048
0.024048
0.001344
-0.020767
-0.034058
0.008537
-0.020844
-0.028137
0.030304
-0.010307
-0.030121
-0.005871
-0.027588
0.017242
-0.033661
0.005970
-0.017181
0.006653
0.010803
-0.012894
0.000419
0.018478
0.035339
-0.018433
0.015533
0.038269
-0.008553
-0.014542
0.011650
-0.021545
0.005135
0.001924
0.027756
-0.010445
0.006294
0.043304
0.029510
0.025101
-0.003117
-0.030411
0.007210
0.014336
-0.013618
-0.002472
-0.023270
0.038910
0.021179
-0.022430
0.031052
0.000693
-0.025818
-0.004856
-0.012527
0.028488
-0.010033
0.009758
0.013046
0.014229
-0.028137
-0.011818
0.020325
0.026947
-0.029053
-0.021942
-0.038269
-0.002214
-0.028412
-0.008522
-0.016052
-0.014465
0.003826
0.018234
-0.050293
-0.012222
-0.007481
-0.004848
-0.017410
-0.038574
-0.019699
0.019211
0.005821
0.010445
-0.001621
-0.007801
0.023621
-0.007645
0.034302
-0.034790
0.024582
0.015015
-0.000267
0.034546
0.031097
0.021881
-0.029861
0.018433
-0.010460
-0.024780
-0.016159
-0.026443
0.028854
0.022888
-0.008011
-0.028152
-0.019882
-0.018677
0.028534
0.019974
-0.060425
0.001222
-0.000486
-0.008781
-0.027481
-0.018677
-0.008736
0.015793
-0.003721
0.024796
-0.028000
-0.017075
-0.013603
0.020523
0.000683
0.003363
0.009689
-0.004841
0.011703
-0.000654
0.006752
0.007313
0.005135
-0.001451
0.013489
0.029785
-0.042145
0.023087
-0.025925
0.028488
0.034912
0.018021
0.018005
-0.013191
-0.016235
-0.013542
-0.001700
0.007660
0.016403
0.050964
0.031738
0.024460
-0.013138
0.046722
-0.013138
0.031403
0.004875
0.020157
-0.013145
-0.043365
0.000840
-0.004398
0.056976
-0.015076
-0.030869
0.017776
-0.023422
0.002069
0.033997
-0.034149
0.023666
0.023056
0.001553
0.028748
-0.003088
-0.026703
0.037659
0.019653
-0.015839
0.014061
-0.014359
-0.015327
0.030563
-0.029938
-0.009079
0.000692
0.021713
-0.002119
-0.012802
-0.016663
0.038635
0.001601
-0.012817
-0.001277
0.004971
-0.013443
-0.033997
0.019226
0.027908
0.011078
-0.024323
0.046844
-0.014359
-0.012650
0.054382
0.016556
0.043121
-0.022278
0.008369
0.005085
0.005356
-0.018646
0.023407
0.048889
-0.029495
-0.003317
-0.022919
-0.015579
-0.023254
-0.022644
-0.012642
-0.021179
0.015312
-0.050446
-0.022995
-0.031830
-0.012894
-0.032227
-0.010353
-0.055145
0.009644
0.042206
0.006927
-0.002069
0.008926
0.043457
0.016174
-0.054047
0.031204
0.035706
-0.030197
-0.027649
0.002344
0.029358
-0.023895
0.054230
0.024506
-0.022644
0.044403
-0.033173
0.020447
0.043671
0.023361
0.020676
0.023239
-0.015320
0.035400
-0.046478
0.009155
-0.044647
0.002481
0.007275
-0.000351
-0.010796
-0.020248
0.018814
-0.017212
-0.005310
-0.028412
0.047760
0.020737
-0.013741
0.023880
0.023270
-0.002897
-0.005188
0.010300
-0.006535
0.014549
0.023224
-0.007767
-0.003078
0.029861
0.017166
0.020996
-0.028702
0.034149
0.028336
0.000924
-0.007114
0.018234
-0.008919
0.019394
-0.015205
0.033844
-0.034454
0.008507
-0.020264
-0.010880
-0.018112
0.010765
-0.010269
0.037231
0.034058
-0.012077
-0.019592
-0.008186
-0.017670
-0.006924
-0.008034
0.000853
0.013985
0.010338
-0.014481
0.029678
-0.021896
0.006390
-0.020508
-0.007328
0.035370
0.018661
0.002829
-0.023483
0.024689
-0.001915
-0.017044
-0.001298
0.026810
0.029144
0.017487
-0.020020
-0.037811
-0.020599
0.021988
0.028015
0.027191
0.032196
-0.024353
0.031769
-0.001753
-0.021484
-0.037201
0.027084
0.005375
-0.000163
0.025299
-0.029282
-0.025146
0.014832
0.009621
0.005470
0.040466
0.018082
0.005211
0.000573
-0.031982
-0.026413
-0.016617
0.001534
0.019180
-0.028214
-0.021011
0.029129
-0.031036
0.023605
0.004452
0.015213
-0.027222
-0.011528
0.013046
-0.008797
-0.035522
-0.026474
-0.027679
0.030670
-0.035370
-0.035126
0.029022
-0.015594
0.002195
0.026825
0.038147
0.027634
-0.013832
0.010017
-0.011696
0.004448
-0.024750
-0.010017
-0.036102
-0.020737
0.029419
-0.020294
-0.011833
-0.031799
-0.001366
-0.029678
0.002073
-0.007008
0.002895
0.019135
0.036255
-0.031281
0.041199
0.022018
0.032104
0.012680
0.007896
0.034058
-0.037750
-0.011589
-0.002201
-0.017685
-0.043945
-0.035645
-0.006657
-0.009521
0.019882
-0.012688
-0.032440
-0.019028
-0.020218
0.032257
0.016769
-0.022629
0.003065
-0.044006
-0.003029
0.010246
-0.032257
0.009666
0.023087
0.013039
0.027115
0.001824
-0.039856
-0.020432
0.012581
-0.029022
0.036133
0.022522
-0.017807
-0.014160
-0.016449
0.011642
0.018890
-0.015274
0.049866
-0.043671
-0.019974
-0.043091
0.017258
-0.023407
-0.034943
-0.023438
-0.008377
0.017166
0.006424
-0.041748
-0.020477
-0.028641
-0.002565
-0.022690
-0.014717
-0.006870
-0.032074
-0.002699
-0.004391
-0.028275
-0.024567
-0.007168
-0.003647
0.000887
-0.000719
-0.013222
0.005341
-0.006428
-0.028412
-0.009987
0.001755
-0.040710
0.015884
0.003841
0.004265
0.012741
0.011009
-0.015602
0.010109
-0.026520
-0.033295
-0.029953
0.018951
0.015457
0.027542
-0.025574
0.018692
0.026810
0.028915
0.014107
-0.035645
-0.003990
0.006729
-0.023712
-0.001587
0.027344
0.022369
0.012718
0.006493
-0.031311
0.018127
-0.020294
-0.026093
-0.023392
0.036316
-0.028290
-0.004246
0.032684
-0.016815
-0.021317
0.017487
-0.036316
0.031830
-0.031647
-0.022491
0.036316
0.002556
-0.028259
-0.029221
-0.038879
-0.012619
0.022400
-0.001037
0.023941
0.024536
-0.022324
0.002796
0.004913
0.024246
0.021072
0.010086
-0.017899
-0.009422
-0.029968
0.010757
0.003206
0.026657
-0.000668
0.020554
0.028183
0.030151
0.011292
0.002932
0.038788
-0.019348
0.018661
0.007320
0.002632
0.004391
0.010643
0.026840
0.036560
0.016891
0.026764
-0.000804
-0.019928
-0.028275
0.036774
0.015839
-0.001927
-0.003250
0.018387
-0.027405
0.031433
-0.026077
0.033081
0.030060
-0.010437
0.010017
-0.017731
-0.014771
0.015282
0.009148
-0.008148
-0.016556
0.013962
-0.015976
-0.006149
-0.016602
0.022446
-0.006138
0.014748
0.005283
0.041351
0.029297
0.006271
-0.035706
0.022537
-0.033112
0.014069
-0.030090
0.017075
0.030472
-0.028015
-0.026077
-0.033722
-0.000979
0.010956
0.018646
-0.006161
-0.025955
-0.004726
-0.019730
-0.006401
0.017654
0.029846
0.009430
-0.023651
0.022156
0.005226
0.017319
-0.004623
-0.003826
0.005482
-0.000011
0.024170
-0.011139
-0.030975
-0.019989
-0.022949
0.030319
-0.001130
0.003859
-0.027496
-0.016769
-0.001645
0.002232
-0.008675
0.035919
0.035553
-0.002974
-0.031769
-0.024338
-0.027664
-0.014412
-0.023651
-0.016586
0.000007
0.018311
-0.005276
0.016525
-0.019318
-0.010666
-0.028366
-0.025269
0.018051
0.013451
0.023849
-0.027298
-0.003822
-0.014984
0.023331
-0.018845
0.005638
0.014099
0.008682
-0.033081
-0.035706
0.014236
-0.018250
0.020905
-0.013794
0.017487
0.007858
-0.010445
0.021683
0.015511
0.013412
-0.033234
0.018921
0.016571
0.012619
-0.032471
0.002838
-0.033600
-0.008415
0.017517
0.033691
0.001809
0.030212
0.031189
-0.005939
0.019211
0.006451
-0.020386
-0.031174
0.020859
0.018021
0.006931
-0.037689
-0.019257
0.020126
0.040405
0.005001
-0.010536
0.003756
0.035309
-0.023483
-0.003717
0.010574
0.018951
0.035919
-0.033295
0.009277
0.025894
0.036316
-0.012970
0.022964
-0.005367
0.020950
-0.017578
0.019608
-0.018890
-0.016922
0.012672
-0.030563
-0.027359
-0.006859
-0.015160
0.023239
0.014519
-0.022675
0.038635
-0.033203
-0.013565
-0.013626
0.037354
-0.002743
0.042023
-0.029556
0.007217
0.023361
0.009132
-0.004944
-0.025650
-0.010086
-0.008148
-0.001144
0.004692
0.010109
0.021652
0.007717
-0.002954
0.024445
0.031433
0.015976
-0.010918
0.013405
-0.030640
0.032745
-0.004391
-0.000273
0.004971
0.025711
0.025726
0.009834
-0.016632
0.037506
0.008392
0.018555
0.016510
-0.029922
-0.002485
0.029770
-0.027405
-0.035553
-0.005714
-0.009094
-0.029343
-0.016342
-0.009949
0.003344
-0.028519
-0.026367
0.019348
0.012093
0.007412
-0.011421
0.019196
-0.018951
-0.003748
-0.003929
0.044403
-0.036652
0.033508
0.012886
0.008186
0.014420
-0.020386
0.012802
0.000545
-0.014244
-0.014015
0.031708
0.001413
-0.028671
0.011009
-0.000482
0.032166
-0.007675
0.010742
-0.011505
0.024628
-0.021729
-0.010422
0.020844
0.018036
0.010666
-0.015945
-0.023056
-0.028885
0.030777
-0.006111
0.016678
-0.026291
-0.014290
0.024399
-0.000648
-0.003807
0.006924
0.005844
0.004013
-0.009758
0.037292
-0.021683
0.025238
-0.009384
0.035400
0.023346
0.017990
-0.009438
-0.002047
-0.016556
-0.009949
0.032715
0.006542
0.028763
0.034607
-0.044067
-0.008163
0.033844
-0.012794
-0.006790
-0.019089
0.023987
-0.015587
0.007843
-0.014526
0.032654
-0.013634
0.041321
0.019806
-0.010925
-0.003166
-0.017120
-0.016388
0.032898
0.046356
-0.006428
0.008438
-0.009918
0.017731
0.016815
-0.013054
0.027100
-0.019119
0.024719
0.021988
-0.022690
-0.004501
-0.009048
-0.009186
0.026581
-0.035004
0.019089
-0.020325
0.041840
-0.003786
0.004807
0.004078
-0.031403
-0.008156
0.008720
-0.034607
-0.023895
-0.008987
0.028046
0.025253
0.010269
-0.020844
-0.021072
-0.023254
0.038666
-0.003204
0.029953
-0.004135
0.024597
-0.016006
0.014206
-0.024963
-0.020767
0.037018
-0.004112
-0.009125
0.010757
-0.031097
-0.011528
-0.023666
0.022873
-0.010513
-0.018799
-0.010933
0.030472
-0.021896
-0.009468
0.019638
0.019852
0.022156
0.028839
-0.015823
0.029099
-0.007450
-0.031830
0.005024
-0.017029
0.001646
0.026260
-0.005650
0.000243
-0.007004
0.035553
-0.006294
-0.032104
-0.002527
-0.017929
0.021027
-0.013992
-0.037079
-0.027390
-0.001842
0.002083
0.030487
0.031708
0.009567
-0.005169
-0.025146
-0.023590
0.012535
0.022461
0.009682
0.028381
0.000486
-0.001277
0.012848
0.017654
-0.026291
0.021881
-0.030823
-0.023361
-0.024689
-0.028305
0.014801
0.015915
0.033752
-0.004475
-0.028717
0.028488
0.006157
-0.018295
-0.001387
-0.019135
-0.028397
0.028427
-0.022461
-0.003841
-0.026947
0.006699
0.013756
-0.005116
0.016678
0.036041
0.019577
-0.016281
0.022507
-0.013504
0.026917
-0.014397
-0.020966
0.025879
-0.004707
-0.032593
0.032867
-0.017838
0.032654
-0.016113
0.023911
0.021210
0.008095
0.030502
-0.000890
0.018463
0.002752
-0.000866
0.011848
-0.012321
-0.027222
0.025635
-0.029449
0.010765
-0.037445
0.015686
-0.018051
0.029114
-0.003633
0.007706
0.020645
-0.028229
0.012383
0.015732
0.003084
0.024170
-0.024155
0.023315
0.017578
0.031830
0.017517
0.031921
0.021851
0.032898
-0.031860
-0.007778
0.034821
0.008759
0.004841
0.026077
0.004967
0.002415
-0.008888
0.006565
0.017105
0.003393
-0.051941
0.011391
-0.014420
-0.015137
-0.016830
0.030426
-0.033356
0.014084
0.021988
-0.009773
0.013496
0.016647
-0.008064
-0.008873
-0.013519
-0.020782
0.023102
-0.012550
-0.027084
-0.029907
0.015808
0.021133
0.019897
-0.022766
-0.030334
-0.002777
-0.003380
-0.014656
0.039978
0.008453
-0.027725
0.002609
-0.016144
-0.015976
0.007217
-0.008629
-0.026398
0.032288
-0.015762
0.013733
0.000401
0.001351
-0.009499
-0.006958
-0.015884
-0.013496
0.052277
-0.024155
-0.013496
0.004757
-0.025665
0.040955
0.010323
-0.018326
0.023224
-0.005524
-0.005569
-0.049835
-0.031281
-0.016220
-0.011063
0.028305
0.018951
-0.013451
0.029236
0.008972
-0.054626
0.015823
0.025055
0.003769
0.048553
0.041809
0.021683
-0.005276
-0.012314
-0.027832
-0.043915
-0.006794
-0.024567
0.014709
-0.011665
-0.015083
-0.017349
-0.000475
0.010696
0.008026
-0.000455
-0.007111
-0.022049
0.016159
0.026779
-0.040985
0.034912
-0.025116
-0.022491
0.021286
0.021790
-0.026459
0.019272
0.039520
-0.007626
-0.022736
0.031952
0.039429
-0.032166
-0.013550
0.000813
-0.027817
-0.033447
0.016113
0.012749
0.010719
-0.026993
-0.009941
-0.018127
0.001022
0.013397
-0.006531
0.016434
0.003044
-0.030014
0.045746
0.007980
-0.003447
0.038208
-0.060455
0.035828
-0.013023
0.044312
-0.028961
-0.035034
-0.025711
-0.001572
0.051147
-0.047394
0.033875
-0.020813
-0.029831
0.016556
0.001335
-0.005585
-0.059692
-0.033844
0.001431
0.037476
0.052948
-0.054504
-0.006866
-0.000645
0.036926
-0.030014
0.050934
-0.016342
-0.001498
-0.000711
0.061340
-0.005669
-0.031525
-0.014458
-0.016403
-0.029968
-0.005825
-0.075989
0.018646
-0.049622
0.009666
-0.019348
-0.029068
0.002220
-0.004326
0.009338
0.007221
-0.030609
-0.022507
0.034943
-0.021652
0.003246
-0.027069
0.014229
-0.001705
-0.053864
0.035461
-0.023270
-0.010162
0.012672
0.000197
-0.020584
-0.045990
-0.040710
0.026291
-0.040131
-0.001239
0.022186
-0.009422
0.000464
0.047791
0.000359
0.009186
0.046234
0.033752
-0.016785
0.001816
0.046722
0.061859
-0.040985
-0.041412
-0.013199
0.018692
0.028732
-0.027100
-0.022751
0.055145
-0.044373
0.000594
0.005646
0.000777
-0.013359
-0.020874
0.051453
-0.004208
-0.002302
-0.036346
-0.043823
0.024155
0.038300
-0.052673
-0.023376
-0.001558
0.015411
-0.001635
0.017868
0.014610
0.030823
0.015312
0.002205
-0.002529
-0.043579
-0.053375
0.029434
0.032898
-0.026688
0.018326
0.051361
-0.002113
-0.019897
-0.031403
-0.038025
0.006176
-0.033691
-0.003033
-0.026932
-0.016357
0.013756
0.021973
0.015030
-0.004303
-0.008232
0.021622
0.021591
-0.013290
-0.020035
0.004482
0.020630
-0.028366
0.024445
0.025406
-0.013153
0.020889
-0.007439
-0.015152
0.005692
0.012924
0.013176
-0.008354
-0.004768
0.030167
-0.017868
0.002451
-0.032471
-0.023941
-0.006306
-0.020844
0.024475
-0.029785
-0.007858
-0.027466
-0.012604
0.024490
-0.032867
0.008911
0.021805
0.036469
0.017090
0.028030
-0.025436
0.014946
0.030930
0.028366
0.013947
-0.023804
-0.029007
-0.035736
-0.017014
0.007416
0.007339
0.008850
-0.029678
0.037415
-0.023178
0.015465
0.022919
0.024307
-0.024536
-0.017746
0.002464
0.015007
-0.000821
-0.005219
0.017456
0.002947
-0.012314
-0.009682
0.017578
-0.019867
0.011322
-0.031586
-0.035034
0.016571
0.008293
0.023865
0.012886
-0.004879
0.031403
0.019836
-0.022003
-0.033997
-0.030014
0.023224
0.001679
-0.034637
-0.017395
0.021484
0.022766
0.019852
-0.020020
-0.004902
-0.020447
-0.001513
0.026398
-0.004864
0.032532
-0.010269
-0.021881
0.015511
-0.002571
0.028259
-0.018982
-0.020508
0.023666
0.019058
0.001268
0.011978
0.024673
0.032928
-0.012497
-0.032166
0.001417
-0.007515
-0.022690
-0.035095
0.025436
-0.012421
-0.008163
-0.029373
-0.023987
0.001881
0.006222
0.047180
-0.019012
-0.015884
-0.041870
0.022903
-0.022034
-0.039185
0.043488
0.036774
-0.047943
-0.045898
-0.045502
-0.017807
0.029343
0.005135
-0.014656
-0.000413
0.030518
0.017090
-0.033905
0.019653
-0.000034
-0.023041
0.003376
0.016251
-0.013275
-0.011627
0.016556
-0.035950
-0.034607
0.002407
-0.002455
-0.044861
-0.040710
0.012703
0.026611
0.022919
-0.015228
-0.029510
-0.014786
0.031982
0.002520
-0.017776
-0.037537
-0.012871
0.035645
-0.036560
0.030762
-0.003424
-0.035431
-0.016983
-0.001825
-0.001591
-0.003531
-0.028442
0.006653
0.003229
-0.001801
0.049347
0.024475
-0.026276
-0.045074
0.001760
0.026306
-0.006058
0.030457
-0.037354
-0.013496
0.023453
0.024353
-0.009499
-0.028458
0.029724
0.022568
0.000773
-0.031342
-0.006393
-0.036591
-0.034821
-0.009415
-0.038452
0.013939
-0.024506
-0.039642
-0.028290
-0.024536
-0.019012
-0.032471
0.023438
0.000220
-0.025375
-0.011650
-0.009087
-0.016769
-0.020157
0.018021
-0.016052
-0.015060
-0.021698
0.042542
-0.043732
-0.023315
0.002474
0.003941
-0.000357
0.019638
-0.019913
-0.023590
-0.022217
0.025513
0.010788
-0.033508
-0.013824
-0.042877
0.000148
0.013870
-0.034485
0.034119
0.044617
0.000009
0.014847
-0.015839
-0.016052
-0.039520
-0.005589
-0.024445
-0.019562
-0.020844
0.016220
0.011955
0.025482
0.005253
0.022659
0.021042
-0.032806
0.036072
0.020325
0.039154
0.012527
0.017548
0.001037
0.034393
0.014297
-0.006027
-0.014473
0.004196
0.010872
-0.022400
-0.009575
0.015900
0.006012
0.028381
0.014648
0.029633
0.024368
0.015312
-0.002998
0.002962
-0.014595
0.039581
-0.027863
0.013824
-0.006046
-0.020691
-0.001380
0.017029
-0.008957
0.026596
-0.026321
0.007950
-0.032227
0.029327
0.001442
-0.037903
-0.023621
-0.009392
-0.009171
-0.021484
-0.025772
-0.000739
-0.000115
-0.031342
0.025131
0.004932
-0.020325
0.031677
-0.007210
0.020554
-0.023926
-0.005829
0.021729
0.013344
-0.018677
0.021957
0.013268
0.029160
-0.006927
0.035919
-0.002655
-0.017288
-0.020599
0.015495
-0.020844
0.035828
-0.014900
0.011368
-0.023926
0.015053
-0.031082
-0.002556
-0.007534
-0.003147
-0.017319
0.034790
0.033661
0.022781
-0.011475
-0.023590
0.014130
-0.014236
-0.025330
-0.020782
-0.027817
0.030838
0.033722
0.012001
0.012886
0.007164
0.022263
-0.025421
0.029556
-0.007549
-0.015030
0.020813
0.005939
-0.032257
-0.006447
0.031586
0.011742
0.002211
-0.011650
-0.009453
-0.005550
-0.024155
-0.023926
-0.025558
0.012863
0.004620
0.018463
0.019928
-0.008720
0.032501
-0.028381
-0.009193
0.012657
0.007030
-0.031021
0.052063
0.037628
-0.019806
0.047028
-0.030762
0.005642
0.033936
0.000712
0.016052
0.006783
0.057281
-0.038116
0.038574
0.026154
0.036591
0.041870
-0.002680
-0.053101
0.007950
0.026474
0.024567
-0.060944
0.008659
-0.058014
0.070557
0.032440
0.014725
-0.014389
0.010498
-0.030807
0.008415
0.023865
0.000409
-0.020187
-0.036499
-0.001548
0.000288
0.075439
0.012909
0.008133
0.009567
-0.021484
-0.008560
-0.059540
-0.035919
0.065247
0.012482
-0.037842
0.024948
-0.003418
-0.046753
0.014938
-0.018524
0.045105
0.007542
0.030457
-0.012596
-0.024429
0.033630
-0.003319
0.011841
0.027847
-0.013664
-0.000043
0.061676
-0.018219
0.004654
-0.032074
0.013992
0.008812
-0.024017
0.057800
-0.012215
0.028900
0.011993
0.028671
-0.035126
-0.010498
0.004162
0.071838
0.011528
-0.052216
0.037720
0.048065
0.058167
0.047028
0.050293
-0.024994
0.039795
0.012856
0.012108
-0.017761
0.056213
0.002800
-0.031464
-0.005886
-0.045776
0.011116
-0.015106
0.058929
0.009346
0.008675
0.010300
0.007889
0.008148
0.030945
-0.032837
0.081421
0.018372
-0.052734
0.002947
0.007626
0.040894
0.027878
0.058502
0.010841
-0.042297
-0.049744
0.000200
0.020004
-0.010956
-0.011383
0.005329
0.004776
-0.006275
-0.014099
-0.022049
0.037537
-0.025101
0.025391
0.019943
0.030090
-0.016647
0.001656
-0.030273
-0.005947
0.027954
-0.020477
-0.035889
-0.041443
0.013313
0.007584
-0.020111
-0.035950
-0.025711
0.038361
0.027557
0.025711
0.027618
-0.039917
0.000428
-0.034027
0.008919
0.029510
-0.019775
-0.024551
0.020996
0.006844
-0.000087
-0.004906
0.024948
-0.041107
-0.006065
0.032104
-0.014099
0.024551
-0.015717
0.025909
0.015160
-0.026062
-0.010719
0.004532
-0.018555
0.030319
0.014832
0.016754
0.032440
-0.022964
-0.033600
0.021637
0.019608
0.001587
0.000813
0.030273
0.028503
-0.005760
0.031082
-0.002155
-0.003910
0.021011
0.007904
0.024841
0.013000
-0.004185
0.023468
0.023560
-0.003506
-0.030106
0.027191
0.013535
0.004326
-0.009865
-0.025620
-0.022141
0.003019
0.007957
0.007210
0.008347
-0.033539
-0.000507
-0.019577
-0.014572
0.034149
-0.025177
0.008911
0.020966
-0.028625
0.026291
0.021637
-0.022827
0.030655
-0.032654
0.018387
-0.001752
0.024857
0.039490
0.030380
0.025070
-0.007259
0.002254
-0.010666
-0.021484
0.002699
0.000143
0.003269
-0.019928
-0.001679
0.010033
0.014572
-0.021881
-0.001299
-0.006767
0.010223
-0.019028
-0.026886
-0.019226
-0.016205
-0.002438
0.023087
0.030563
-0.010788
-0.017670
-0.011185
-0.021027
-0.024902
0.024368
-0.017975
0.018524
0.003447
0.007187
0.055756
0.012726
0.002150
0.049316
-0.033600
-0.017212
-0.060425
0.014359
-0.003160
-0.001644
0.001863
-0.002859
0.027695
-0.011841
-0.045044
-0.038818
-0.006207
-0.005638
0.005219
0.030121
0.014053
-0.041504
-0.046936
0.042664
-0.051300
-0.002193
-0.019958
-0.022125
-0.012779
0.043274
-0.000005
-0.004757
-0.013153
0.004990
0.001959
0.009811
-0.028839
-0.017136
-0.040924
-0.009750
-0.050232
-0.030685
-0.007393
0.050354
0.024078
-0.021790
0.041687
0.011978
0.041138
-0.037720
0.004230
0.032867
-0.022095
0.038361
0.009552
0.023438
-0.014313
-0.054535
0.043701
-0.007919
-0.003057
-0.025375
0.005890
0.012856
0.043854
-0.041168
-0.013206
-0.008034
-0.021515
0.020584
0.002871
-0.021286
0.034729
0.045532
-0.043976
-0.011192
-0.022583
-0.015602
0.002934
-0.023468
0.012398
-0.050842
-0.018692
-0.019608
0.014801
-0.003710
-0.036835
0.008537
-0.001718
-0.001862
0.031281
-0.024124
0.023605
-0.040741
0.029999
-0.023605
-0.031052
0.011520
0.034943
-0.037354
-0.022659
0.006145
-0.026611
0.020477
0.019257
-0.006264
-0.003248
0.033630
-0.007206
-0.032104
-0.026855
-0.014381
0.027206
0.016281
0.016068
-0.062103
0.026276
-0.064453
0.008286
-0.001023
-0.045258
0.025894
-0.017441
-0.045044
0.033966
0.006836
-0.044464
0.060425
-0.017639
0.017700
-0.047882
-0.017166
-0.058960
0.006458
0.008293
-0.091431
0.072693
-0.026535
0.011597
-0.000073
0.060608
-0.017700
0.026016
0.050812
0.068481
-0.012718
-0.002352
-0.005341
0.000880
0.006535
0.055450
-0.022491
0.036316
0.010200
-0.072327
-0.007366
0.052246
0.013046
0.055634
-0.043976
0.005043
0.075439
0.012856
0.064575
0.018936
-0.037048
0.010010
0.000002
0.012169
0.016525
0.017181
0.007393
-0.026749
0.046448
0.001552
0.043365
-0.042297
-0.000835
-0.039825
-0.027328
0.033600
0.010422
0.023300
-0.072021
0.017853
0.065918
0.051056
0.027756
0.026855
0.038483
-0.028320
0.009979
-0.085632
0.019958
-0.058746
0.025040
0.008438
-0.052887
0.054382
-0.028992
0.003794
-0.026108
0.028305
-0.050323
-0.041870
-0.038605
0.020477
0.070129
-0.013275
-0.000422
0.024506
-0.007198
0.046143
-0.023010
0.047516
0.039795
-0.002249
-0.040131
0.020081
0.048370
-0.003553
-0.012062
0.004124
0.014809
0.003986
-0.028122
-0.012344
0.069458
0.042145
-0.044281
-0.030685
-0.022476
0.047180
-0.013077
-0.058289
-0.049072
-0.039093
-0.034760
-0.025482
0.071960
0.005882
-0.004734
0.042847
0.007896
-0.035889
-0.014671
0.003138
0.046326
0.013924
0.083923
-0.031982
-0.015541
-0.018051
0.016739
0.007282
0.000307
-0.008667
0.045898
-0.023132
0.001486
0.003883
0.030640
-0.033295
-0.022964
0.036987
-0.023636
0.018234
0.025238
0.017197
0.001048
0.046356
0.019958
0.002312
0.021820
0.032471
0.011139
0.034119
-0.008232
-0.010735
-0.026260
0.041412
-0.021606
-0.028809
0.002266
0.015976
-0.029495
0.007698
-0.011230
-0.011887
-0.012863
0.005856
0.046936
-0.008888
-0.021255
0.044769
-0.008270
0.039764
0.021606
0.041962
-0.018494
-0.012009
0.009766
-0.004986
0.034851
0.022614
0.032074
-0.006668
-0.005470
-0.016525
0.035004
0.041687
-0.019714
0.021896
0.002851
0.000910
0.005310
0.048035
0.044861
-0.005558
-0.029770
0.011246
0.042175
0.003859
0.041565
0.021713
-0.032166
-0.012527
-0.000789
-0.023483
-0.025482
0.006744
-0.011421
-0.007607
0.001374
-0.002861
0.034698
-0.017960
-0.041656
-0.041321
-0.008377
0.004120
-0.038208
-0.016815
-0.020279
-0.013969
-0.029541
0.001893
0.032166
-0.001863
0.027023
-0.011551
0.011108
0.023071
0.019653
0.000210
-0.018600
0.036255
0.014076
0.033691
-0.003189
0.015854
-0.009308
-0.006435
-0.019806
-0.029419
0.003317
-0.012054
0.012054
-0.004131
0.036835
-0.026321
0.014557
-0.025940
0.039612
0.014351
-0.019516
-0.018188
0.036652
0.026474
-0.077087
0.013123
0.002289
-0.009872
-0.007919
-0.006733
-0.019196
-0.042206
-0.020874
-0.032471
-0.020447
0.019791
-0.005558
0.000590
-0.016891
0.019958
0.025055
0.007912
-0.026215
0.051666
-0.003706
0.036804
-0.027710
0.004101
-0.019531
0.002190
0.018082
0.003159
0.053009
-0.037506
-0.022659
-0.029343
-0.022293
0.000258
0.021469
0.003569
0.000322
-0.033081
0.045532
0.024338
0.031342
-0.025223
0.002285
-0.025894
0.006153
-0.003153
0.039398
-0.054016
-0.004528
-0.006668
0.006413
0.020126
0.023636
-0.007122
0.000304
0.018005
-0.032776
-0.030243
-0.011742
0.011559
-0.024353
0.015396
-0.027420
0.002638
0.013695
0.009590
-0.021408
-0.023483
0.017059
-0.003447
0.033630
-0.021851
-0.045166
0.018967
-0.029465
0.009506
0.008636
0.041412
0.014893
0.033417
-0.002703
0.013260
0.023590
0.009888
-0.000346
0.018738
-0.032471
0.057343
0.029678
-0.017487
0.002773
0.006252
0.013336
-0.031097
0.026794
0.033661
0.005692
-0.015778
0.003880
0.015503
0.020096
-0.022446
0.009277
0.007572
0.006699
-0.008926
-0.014992
0.040009
-0.008972
-0.016998
-0.015793
-0.023911
-0.009857
0.010056
0.014000
0.019470
0.045349
-0.050354
0.017670
0.008743
-0.030930
0.020569
0.000855
-0.021317
-0.030502
-0.007572
0.011368
-0.003189
-0.014824
0.010887
0.035309
-0.018356
0.025955
-0.007256
-0.004780
-0.020584
-0.016785
0.025543
0.018005
0.014183
0.028366
-0.029099
0.011955
0.005009
-0.030289
0.014526
0.022934
-0.020477
-0.031403
-0.037445
0.004749
0.009415
0.010406
-0.024323
0.036407
0.012489
-0.034058
-0.004944
-0.039520
-0.006367
-0.023209
-0.010422
-0.019424
-0.032318
0.038330
-0.031235
-0.022263
-0.023453
0.004807
0.033691
0.026810
-0.020004
0.009689
-0.003536
0.006794
0.014442
-0.004459
-0.028931
-0.012161
0.034637
-0.029099
-0.003057
-0.025436
-0.014214
0.035004
0.019531
0.017136
0.029297
-0.003683
-0.014648
-0.014626
-0.021423
-0.019928
0.016907
0.012657
-0.032776
0.033478
0.032928
0.027817
-0.018661
0.002048
0.008072
0.031494
0.020828
-0.028900
-0.016205
-0.003313
-0.039703
-0.016861
0.015259
-0.033112
0.022964
-0.020050
0.035736
-0.044434
-0.003382
-0.007099
0.000763
0.023514
-0.031250
0.003281
0.039337
0.001474
0.042023
0.015030
0.002832
-0.025024
0.037170
-0.026733
0.009537
0.028885
0.000415
0.028351
0.012711
-0.036255
-0.026306
-0.017410
0.039337
0.031372
-0.015282
-0.029266
-0.030930
-0.019440
0.000264
-0.010132
0.015457
0.003483
0.008987
-0.022537
0.015717
-0.026062
-0.017593
0.033722
0.032013
0.017914
0.026260
