-0.078918
0.087341
-0.083923
0.054779
0.089783
-0.026627
-0.021439
-0.093079
-0.069275
-0.005569
-0.012527
-0.015991
0.054230
-0.042664
0.075500
0.007812
-0.057648
-0.021530
0.090820
0.012581
0.091675
0.010933
0.005547
-0.068115
0.028015
0.029648
-0.067383
-0.041870
0.042267
-0.056396
0.021973
-0.056824
-0.094299
-0.022217
0.054108
-0.022705
0.086670
0.028778
0.085571
0.072998
0.053558
0.059387
0.027969
0.038300
0.068848
-0.034454
0.060730
-0.009705
0.024719
0.018997
0.090088
-0.022949
-0.058472
0.088867
0.040222
0.011261
0.051819
0.062866
-0.081543
-0.081299
0.051941
0.063354
-0.038788
0.009666
-0.026733
0.026672
0.007008
-0.003216
0.069763
0.004959
-0.046631
0.083313
0.108826
0.014694
0.012970
-0.029663
-0.071350
0.008766
-0.028992
0.076904
-0.087341
0.086914
0.006699
-0.038757
0.012161
0.003290
-0.012024
-0.014275
-0.028107
-0.007874
-0.026077
0.039551
-0.056732
0.079834
0.085693
0.079590
-0.070618
0.076050
-0.002747
0.067322
0.036438
-0.015503
-0.077881
-0.001155
0.054474
0.058746
0.083374
0.073425
-0.036804
-0.033447
0.033508
0.027664
-0.003000
0.062561
0.117676
0.089172
-0.001226
-0.002567
-0.031616
0.067139
-0.036621
-0.027710
-0.070435
-0.002377
-0.054535
-0.047028
-0.026932
-0.005230
-0.062561
0.053864
-0.026031
-0.069458
0.019135
-0.034210
0.069092
-0.040802
-0.078369
-0.088135
0.074463
0.009529
0.046722
0.092407
0.073120
-0.067688
-0.054962
0.011330
0.000773
-0.003092
-0.002626
-0.062164
-0.022720
0.061340
-0.032410
0.030640
-0.037384
0.060303
0.071594
-0.062927
-0.009285
0.058228
0.088135
-0.023178
0.048096
-0.010857
0.015778
-0.059082
0.040192
0.015961
0.047516
0.038605
-0.074768
0.054108
-0.007645
0.084900
-0.037109
-0.051697
0.047699
0.048462
-0.037933
0.062622
0.050323
0.029160
0.034210
-0.050079
-0.061157
-0.050537
-0.025513
-0.035614
-0.045898
0.032013
-0.017960
-0.049744
0.030777
-0.069580
-0.068298
0.076050
-0.065674
-0.042175
0.045227
-0.010040
-0.076355
-0.005665
0.075623
-0.074280
-0.046783
-0.099976
0.053040
-0.058197
-0.018753
-0.033691
-0.001098
0.044739
0.083862
-0.000107
0.012856
-0.003721
0.062805
-0.027344
-0.005268
0.006657
-0.065491
-0.077393
-0.040894
-0.029297
0.062988
-0.067627
0.067932
0.068726
0.053375
-0.053741
-0.050537
-0.048004
-0.041473
0.022980
-0.001449
-0.027969
-0.034454
0.015625
0.012100
-0.012405
0.016083
-0.044403
0.046387
-0.030441
0.061676
0.044647
0.061218
-0.082520
0.010963
-0.071838
-0.036285
-0.032043
-0.040802
-0.024872
-0.038116
-0.068665
-0.067688
-0.063416
-0.022583
0.093750
0.039734
-0.008896
-0.035278
-0.082275
0.083862
0.014252
-0.024796
0.069885
-0.067627
0.044525
-0.065735
0.032928
-0.042725
0.061554
-0.018097
-0.035553
-0.005669
0.024323
0.082336
-0.036652
0.056915
0.069580
-0.011887
-0.016998
0.044678
-0.075256
0.029755
0.025986
0.041321
-0.045685
0.021393
-0.078064
0.025101
-0.000072
-0.038422
-0.046478
-0.020355
-0.061401
0.021484
-0.085022
-0.078796
0.030106
-0.049805
0.045563
0.057404
0.042114
-0.086548
-0.034698
0.027390
-0.011879
0.004818
-0.029343
0.017746
-0.009064
0.049988
0.040710
0.007042
0.051453
0.006504
-0.041840
-0.045135
0.074768
-0.008484
-0.029282
-0.005424
0.042114
-0.016602
0.011238
-0.000190
0.060516
0.003260
0.028458
0.047516
-0.007408
-0.085083
-0.012825
0.080566
-0.020462
0.099426
-0.027267
0.007786
-0.057281
-0.055237
0.057709
0.000590
-0.050079
0.029114
-0.067139
0.009552
0.039948
-0.039185
0.084473
0.002901
-0.016144
0.061066
0.064209
-0.048492
0.062683
-0.060272
0.050812
0.057495
-0.036163
-0.000738
-0.039368
0.010590
0.016220
0.037292
-0.047668
-0.002747
0.063416
-0.040009
-0.059204
0.069458
-0.067139
-0.076721
-0.095581
-0.083191
0.047211
-0.049133
0.006413
-0.059357
-0.000544
-0.049194
0.067322
0.033325
-0.052368
-0.021011
0.004761
-0.048889
0.049316
-0.013336
0.055328
0.049072
0.022980
-0.039551
-0.031616
0.056793
0.026855
-0.098572
-0.016190
-0.061890
0.012299
0.045776
-0.029892
-0.075562
-0.039948
0.019897
0.056824
0.089722
-0.000164
0.043823
-0.051758
0.037933
-0.068054
-0.042450
0.002642
0.002342
0.039795
0.084595
0.016251
0.030655
-0.039886
-0.083740
0.063293
-0.057709
-0.012161
-0.060211
0.073547
0.074158
-0.009285
-0.078613
-0.004772
0.043182
0.077759
0.019852
0.055481
-0.021561
-0.012779
0.094910
0.043213
0.069031
0.084534
-0.080994
-0.050385
0.032440
0.029709
-0.069824
-0.025482
0.007820
0.066284
-0.034973
0.000642
-0.011360
-0.054474
-0.049347
-0.025742
0.029724
0.052032
0.064819
-0.020645
-0.043091
0.003019
0.035583
-0.011040
0.011292
0.045715
-0.002962
0.053284
0.033691
0.070435
-0.065674
0.031281
0.000338
-0.066833
-0.085632
-0.077515
0.062469
0.040955
-0.013947
0.070801
-0.085083
0.015686
-0.046417
-0.041931
-0.025970
-0.054077
0.000646
0.028320
-0.064087
0.036957
0.064880
-0.055878
-0.074219
0.016006
0.087402
0.083618
-0.074768
0.051483
-0.033478
-0.018127
0.057953
0.069336
0.008743
-0.086670
0.023514
0.015160
0.008492
-0.010506
-0.092590
-0.073425
0.083008
-0.066772
-0.024490
0.015884
0.088013
-0.037598
0.012779
0.028671
-0.053802
-0.074890
-0.005283
-0.072327
0.068726
-0.081421
0.029877
-0.073730
0.008667
0.008072
-0.040405
-0.048096
0.081909
-0.077087
0.029953
0.018982
-0.000805
-0.022491
0.064270
-0.036438
-0.046204
0.026474
-0.007401
-0.035950
-0.061005
-0.024033
-0.052795
-0.028854
0.039886
-0.072510
-0.037415
0.068787
0.046753
-0.077820
-0.010628
0.065796
-0.032990
0.068848
0.033875
0.084595
0.017258
-0.028534
-0.012505
0.068115
0.017670
-0.038818
0.035889
-0.078064
-0.009491
0.017410
0.010117
0.070007
0.083618
0.068665
0.023148
-0.025467
0.048981
0.079224
0.044434
-0.017303
0.068481
-0.069580
0.056244
0.071716
-0.046265
-0.084167
0.053497
0.061310
-0.035400
-0.046021
0.044067
0.031128
-0.038208
0.034424
-0.069153
-0.007874
0.002014
0.007679
0.086304
-0.002392
-0.019196
-0.041199
0.071350
0.042572
-0.082458
0.001509
0.016113
0.039825
0.042023
-0.030228
0.011284
-0.018723
0.078552
0.036407
-0.064575
-0.006714
0.034515
-0.041260
0.061554
-0.009834
0.058258
0.042053
-0.049744
-0.027618
0.018738
0.016571
-0.029846
-0.038727
-0.084351
0.089294
0.007580
0.064514
-0.040405
-0.023178
0.071960
0.035950
0.081177
-0.014725
-0.047516
0.058807
-0.042023
0.073425
-0.004185
0.007965
0.023834
-0.000855
-0.075928
0.027908
0.049866
0.033051
0.043976
-0.009125
-0.060120
-0.041809
-0.043182
-0.068909
-0.017303
-0.080078
-0.070923
0.018524
-0.015053
-0.006344
0.087097
0.026901
0.039062
0.052246
0.009499
-0.082520
-0.068054
0.082703
-0.025131
-0.080505
0.035828
-0.011017
-0.068909
0.070496
-0.018311
0.077148
-0.029236
0.027435
0.027649
-0.013321
-0.033752
-0.039825
-0.003597
-0.082764
-0.066589
0.052856
-0.092041
-0.036957
0.096863
-0.030457
-0.074585
0.034027
-0.064819
-0.039185
0.038025
0.053436
0.090210
0.028976
0.052185
-0.020782
0.091125
0.036865
0.014557
0.027405
-0.027145
0.056580
-0.059357
-0.058563
-0.077148
0.033630
-0.017578
0.059631
0.046539
0.001688
-0.026276
0.091675
-0.003286
0.047394
0.067749
0.003048
0.004025
0.042908
0.029007
0.030975
0.041504
0.070984
-0.002930
0.056274
0.007454
0.080627
-0.010666
0.031067
-0.047516
0.045258
0.012825
0.034424
-0.061371
-0.067200
0.099609
0.048492
0.030029
0.079895
-0.014435
-0.071350
-0.011230
-0.013412
-0.018494
0.054352
-0.018173
0.046112
0.025970
0.062805
-0.014862
0.016129
0.070374
0.055695
-0.018097
0.006035
0.075012
0.073425
0.014107
0.052399
0.054901
0.004028
-0.022522
0.066650
0.049927
0.074951
-0.047516
0.039215
-0.094604
-0.070068
-0.040771
-0.073975
0.068787
0.044525
0.019974
0.004955
0.014954
-0.030243
0.017944
-0.046631
-0.051208
-0.095459
-0.089233
0.012741
0.009216
0.003534
0.051727
0.021393
-0.085693
-0.024948
-0.023468
0.047302
-0.077454
0.050568
-0.003874
-0.044434
0.013077
-0.071655
-0.077209
0.071777
-0.039062
-0.076294
-0.022858
0.017349
0.072510
-0.047211
-0.062561
-0.090454
-0.020218
-0.004055
0.026627
-0.064880
-0.045746
-0.017410
-0.041565
0.055481
-0.057343
0.063110
0.033447
-0.030853
-0.011635
0.071167
0.057617
0.079163
-0.015671
0.054291
-0.036926
-0.006584
0.037628
0.077393
-0.049591
0.034515
0.030609
0.106384
-0.000641
0.014824
0.045715
0.012672
0.047119
0.066528
0.007107
0.061859
-0.070740
-0.037048
0.044006
0.018188
0.035614
-0.068420
-0.066284
-0.037689
-0.068665
-0.068420
-0.103271
-0.073669
-0.034119
-0.071167
-0.059448
-0.091675
0.052032
0.062622
0.088135
-0.074463
0.012970
0.025940
-0.092712
0.066162
-0.050964
-0.033417
0.054657
0.063965
0.057251
-0.057068
-0.061340
0.009735
0.059296
0.013466
0.055634
-0.017258
0.038696
0.056854
-0.059723
-0.051270
0.047241
0.030258
-0.020721
-0.061768
0.024216
0.006321
0.071045
0.032959
0.025299
0.087219
0.069031
0.028030
-0.006657
0.070129
-0.034790
-0.021088
-0.008469
0.019531
-0.010277
-0.057556
0.093018
0.010704
-0.030487
-0.075195
-0.072510
0.071411
0.000769
0.078857
0.092285
-0.039734
0.046021
0.029007
-0.067322
-0.072876
0.094360
0.010796
0.067810
0.004375
-0.053467
-0.009834
0.018295
-0.091736
-0.003603
-0.041077
-0.050964
-0.042480
-0.090576
0.044495
0.087036
0.027985
-0.044220
-0.071594
0.091248
-0.071167
0.040314
0.087463
-0.057953
-0.028488
0.084412
-0.001578
-0.044617
0.065979
-0.022507
-0.043060
0.002319
0.056854
0.079468
0.049042
-0.079834
-0.005127
0.021545
0.044647
0.017120
-0.037170
0.088867
0.069275
-0.013596
-0.046204
0.062988
-0.058655
-0.010811
-0.066467
0.026840
-0.057892
-0.059387
-0.069641
0.065308
0.043427
0.023010
-0.035522
-0.048920
-0.004833
0.052948
0.043610
0.017059
-0.051727
0.069946
-0.083008
0.076782
0.075073
0.023544
-0.039795
0.007755
-0.065613
0.044037
-0.067688
-0.004368
0.084045
0.081116
-0.014679
-0.026367
0.037079
0.015388
-0.004993
0.094055
0.000345
0.070007
-0.004894
0.071289
0.066467
-0.002630
-0.046539
-0.058441
0.063110
-0.048645
0.063232
-0.016220
0.045624
-0.028854
-0.030777
-0.030396
-0.079834
0.104858
-0.050476
0.057251
-0.034210
-0.074646
0.093323
0.043976
0.022064
0.078308
-0.009865
0.051025
0.029572
0.037140
0.008232
-0.021225
-0.071960
0.037262
-0.046753
0.002653
0.019180
-0.090881
0.055237
-0.021652
-0.085999
-0.072632
-0.047485
0.073975
0.034119
-0.008987
-0.048279
-0.038452
0.034912
0.087646
0.044617
-0.014267
-0.024628
-0.081116
-0.016418
0.105164
-0.038544
0.020020
0.067566
-0.059601
0.030594
-0.075562
-0.037994
0.007519
-0.060699
0.007648
-0.008095
0.097839
-0.003229
-0.050049
-0.049469
0.010200
0.022003
0.104858
-0.069641
-0.000902
-0.037933
-0.007763
0.022064
-0.068420
-0.051666
-0.097534
0.016876
0.039001
0.084961
-0.043304
0.034454
0.041412
-0.035339
0.057861
0.052338
0.047333
-0.009384
-0.073730
0.049866
0.017685
-0.041412
0.026001
-0.017609
0.052582
-0.000797
0.069092
0.020935
0.044098
0.082031
-0.071167
-0.042847
0.088989
-0.002918
-0.066284
-0.030090
-0.043793
0.031281
-0.022827
0.075684
0.012573
-0.024139
-0.076355
0.072571
-0.028320
0.049164
-0.035034
-0.097290
0.018646
0.069275
-0.044098
-0.014618
0.050537
-0.070007
-0.048645
0.090088
-0.031052
-0.064209
0.035187
-0.010361
0.044342
-0.035614
0.067810
0.069763
0.008186
0.090698
0.028488
0.083862
-0.016632
0.020370
0.092407
-0.064331
0.031830
-0.077148
0.066162
0.008804
-0.062286
-0.035217
-0.021942
-0.053558
-0.057800
-0.012108
0.003296
-0.009651
-0.037476
-0.002779
0.005199
0.044281
0.025909
0.059357
-0.075867
-0.060699
-0.063477
0.030014
0.103699
0.013779
-0.001242
0.024857
0.012024
0.069092
-0.042847
-0.057190
0.069092
0.044922
-0.011780
0.003103
0.028824
-0.068481
-0.094055
-0.076538
0.053955
-0.064087
-0.037109
-0.036346
0.087158
0.079285
0.026825
-0.006935
0.056244
-0.073120
-0.027481
-0.045135
0.055328
0.052795
-0.080933
0.041473
-0.023880
0.065491
-0.008995
-0.008751
0.000704
-0.034607
-0.052338
0.037018
0.000497
0.033600
-0.087952
0.041779
0.073669
0.040741
-0.053528
-0.084106
-0.001550
-0.083801
-0.090332
-0.042603
0.025391
0.012215
0.065308
0.027191
0.023575
0.057800
0.065186
0.073730
-0.021881
0.027023
0.011955
-0.037109
-0.075684
0.019577
0.009827
-0.028992
0.068359
0.058472
-0.037567
-0.012253
-0.059662
0.016342
0.106201
-0.026688
-0.026367
-0.067322
0.010559
0.055115
0.046204
0.083008
-0.020325
-0.023865
0.051361
0.033600
-0.083740
0.038177
-0.005360
-0.075378
0.042847
-0.014717
0.028778
-0.005825
0.082703
-0.048340
-0.082703
-0.040710
-0.006542
-0.001040
-0.042847
0.087097
-0.082214
0.018631
-0.052582
0.017059
0.077148
-0.072266
-0.044891
0.010559
-0.073547
-0.018250
0.057220
-0.029434
-0.036713
0.081787
-0.012939
0.045990
-0.042969
0.030502
-0.025803
0.053497
0.084900
-0.018250
-0.068054
-0.063721
-0.056000
0.008163
-0.003099
-0.030716
0.053101
0.060394
-0.033783
-0.044037
0.039001
0.004166
0.039795
-0.060791
-0.070435
0.021179
-0.057343
0.057373
-0.066711
0.041504
-0.009712
0.030960
0.064453
-0.075745
-0.006428
0.042419
-0.077881
-0.036621
-0.048218
-0.085510
-0.060425
-0.079346
-0.031494
0.091919
-0.002001
0.012451
-0.074768
0.036407
0.038727
0.087280
-0.064636
0.085815
-0.044250
-0.007740
0.068848
0.084045
-0.006149
-0.040222
-0.037567
-0.083252
0.037903
-0.072327
0.045715
-0.027206
-0.051544
0.012512
0.009338
-0.071838
0.098389
0.090454
-0.021027
-0.078430
-0.081360
-0.042816
-0.033386
0.043671
0.044586
0.099060
0.060913
0.019669
0.066467
0.083496
0.035797
0.018173
0.055695
-0.027100
0.072693
0.052002
0.001297
0.052551
0.006554
0.049988
0.077148
-0.038788
0.056549
0.021454
0.028946
-0.058441
0.067688
0.021439
-0.013596
-0.002563
-0.063843
0.033173
0.057465
0.010040
0.056152
0.016251
-0.014725
0.097351
0.049408
-0.071594
-0.028732
0.040039
-0.059021
0.036102
-0.042267
0.007160
-0.008003
-0.048340
-0.019684
0.002527
0.014175
-0.067017
0.066223
0.066101
-0.028839
0.032410
0.086548
-0.022690
-0.061066
0.045074
-0.036133
0.076538
0.043762
-0.037323
0.039368
-0.063293
0.021027
-0.089966
-0.013435
-0.072510
-0.027954
-0.055145
-0.018417
-0.028412
0.038391
-0.002010
-0.011421
-0.076233
0.068054
-0.003937
-0.050476
0.077087
0.075439
-0.035706
0.071167
0.032257
-0.008049
-0.010895
-0.032043
0.034729
-0.016220
-0.093933
0.059326
-0.069580
-0.044556
-0.077576
0.066467
-0.022507
0.028183
-0.027405
-0.062622
-0.073303
0.086304
0.073975
-0.081604
0.058167
-0.017731
-0.000988
-0.000124
0.069153
-0.032990
-0.037140
0.044159
-0.068970
0.089233
0.045715
-0.067139
-0.025650
-0.068604
0.027313
-0.043854
0.015656
0.044189
0.067200
0.047882
0.047424
0.120789
-0.002453
-0.014404
0.079163
-0.036011
0.009758
0.059845
0.099365
-0.078247
0.062622
0.044342
0.043701
-0.045929
-0.020523
-0.000183
0.076050
-0.032715
-0.030502
0.064819
0.011917
0.050964
0.071655
-0.011147
0.037628
0.016434
-0.045074
0.091370
-0.075806
-0.041901
-0.042816
0.028290
-0.071289
-0.001844
-0.041260
-0.066650
0.082092
-0.070740
0.006386
-0.022308
-0.057159
-0.048035
-0.013145
-0.051788
-0.021149
-0.029022
0.015640
0.027557
-0.011780
-0.066406
0.088440
0.086670
0.032227
-0.071289
0.088257
0.025345
0.041809
-0.047974
0.019623
-0.012543
-0.060272
-0.081238
0.005535
0.083130
-0.064026
-0.028534
-0.045807
-0.064697
-0.052917
-0.053680
-0.067871
0.071411
-0.037231
-0.027863
-0.021194
0.016083
0.020172
-0.005787
0.043945
-0.006981
0.056030
0.033264
-0.010605
-0.037384
-0.055847
0.030289
0.033173
-0.033356
-0.087708
-0.008080
0.066528
0.009529
-0.037933
-0.059021
-0.041870
-0.004795
0.049225
-0.053986
0.082214
0.108032
0.085205
0.003925
-0.000501
-0.044098
0.063354
0.017105
0.044403
-0.017883
0.046143
-0.051178
0.078369
0.058990
-0.048798
0.023331
0.032318
0.027634
-0.065979
0.011169
0.002750
-0.047913
0.077820
-0.048859
0.059570
-0.072693
-0.003960
-0.008316
0.001002
0.052429
-0.078918
0.014946
0.047058
0.052155
-0.088196
0.048767
0.007061
-0.003309
-0.046173
0.109192
-0.094360
-0.004925
0.061005
-0.044647
-0.068298
0.057861
0.043060
0.090515
0.033234
-0.022934
0.022736
-0.064941
0.061981
0.107849
-0.002729
0.048828
-0.055267
-0.023270
-0.043915
0.033356
-0.022125
-0.083923
0.076172
0.045746
0.042419
-0.004723
-0.040771
-0.070068
0.024521
-0.004570
0.032837
0.017090
0.091980
-0.005596
-0.034607
0.093994
-0.091309
0.011765
-0.016479
0.070984
-0.073792
0.034851
0.019409
0.074280
0.062622
-0.054657
-0.088806
0.053101
-0.024109
0.017517
-0.060516
0.061584
-0.029160
-0.006031
-0.065552
0.062500
-0.070129
-0.024963
0.056580
0.005295
-0.070496
-0.060150
0.072998
-0.055389
-0.013092
0.087097
0.015358
-0.025558
0.020615
0.082336
-0.044220
-0.073303
-0.017288
-0.051300
-0.010933
-0.011238
-0.084656
0.069214
-0.036713
0.023636
-0.028748
-0.021774
-0.061493
-0.015579
-0.052429
-0.076294
-0.050018
-0.001390
0.063049
-0.047729
-0.073303
-0.034943
0.046722
0.050873
-0.025940
-0.047089
-0.067444
-0.056274
0.023666
0.036591
-0.024124
0.009262
-0.069580
0.002689
0.081604
0.024185
0.074219
-0.067505
0.003675
0.083313
-0.053375
0.087891
0.008728
0.075378
-0.022812
-0.070190
0.052643
0.066101
0.036072
-0.044067
-0.031174
0.081909
0.060577
0.043732
0.011063
-0.079834
0.064941
0.035736
0.076904
-0.040955
0.096069
0.051666
0.026062
0.048859
-0.069946
-0.023560
0.086914
0.087769
-0.062408
-0.046173
0.062683
0.037445
0.028290
0.076660
0.079102
-0.072815
0.026688
0.073547
0.003061
0.094727
-0.005791
0.033783
-0.035675
0.074036
0.081970
0.056122
-0.002697
-0.018097
0.018112
-0.062622
-0.029251
0.100769
-0.069580
-0.014297
0.016785
-0.087585
-0.060699
0.041046
-0.077454
0.011345
0.046967
-0.062622
0.084778
0.051514
-0.022064
-0.066772
0.050446
-0.090515
0.045074
0.063904
-0.018585
-0.038300
-0.008949
-0.050720
-0.053619
-0.028717
-0.040283
-0.027695
0.007614
-0.040558
-0.031555
0.068359
0.081360
0.076843
0.058960
-0.010002
0.004715
-0.024994
0.086426
0.042969
0.078918
-0.072876
0.025208
0.031204
0.020218
-0.048218
0.095154
-0.034454
-0.033997
-0.037842
-0.036102
-0.029999
0.037170
0.043274
-0.017975
-0.038361
-0.061371
0.018555
-0.058655
-0.035950
0.091492
0.066956
0.117432
0.032990
-0.032349
0.056274
-0.017715
-0.031738
-0.089111
-0.049988
-0.039917
0.036438
0.053040
-0.028931
0.062561
-0.012825
-0.019455
0.029602
0.036652
0.032257
0.093140
0.057587
0.064026
-0.040955
-0.065308
0.108826
-0.021805
0.050507
-0.062805
0.025284
-0.071411
-0.012733
0.044800
0.008255
0.104614
-0.067139
0.068970
0.020096
-0.035614
0.009491
-0.071045
-0.019684
0.098572
-0.087341
0.071899
0.036438
-0.074646
-0.057922
0.119934
0.048309
-0.024689
-0.018845
-0.086365
0.062744
-0.002262
0.087585
0.091858
0.004047
0.016312
-0.078003
0.027893
0.010063
-0.016312
0.005505
0.009392
-0.050293
0.017365
-0.066284
0.056000
0.068542
-0.052734
0.043762
-0.022980
0.002119
-0.052765
0.120911
0.000786
0.101440
-0.064453
0.082947
0.106506
-0.045776
0.023666
0.021332
-0.038300
-0.031403
0.042542
0.075073
0.013840
0.071106
-0.094177
0.063660
-0.005768
-0.000035
0.075012
0.003733
-0.001577
-0.045471
-0.033844
0.078308
-0.094910
0.072632
-0.038239
0.022919
-0.069214
0.024246
0.017075
0.016266
-0.082214
0.018127
0.017746
0.091675
0.067078
-0.059967
0.005508
-0.013550
-0.073669
-0.015060
0.028854
0.013290
-0.070374
0.037506
0.064453
0.025803
0.035828
-0.069031
-0.073425
0.020309
0.030762
-0.017807
0.051666
-0.035400
0.015915
-0.080505
-0.084839
0.070679
-0.026352
0.038330
-0.049774
0.067749
-0.032501
0.041321
0.082520
0.073120
-0.011055
0.063293
0.058838
0.047699
0.059448
0.009430
0.068787
0.070190
0.042236
-0.001997
-0.041351
-0.022552
0.021942
-0.001499
-0.000141
-0.084717
0.036255
-0.086853
-0.022568
0.096436
-0.024765
-0.042297
0.038116
-0.062744
0.009071
0.051361
0.057678
0.092529
-0.032104
0.031158
0.004120
0.041107
0.075623
0.065796
0.093689
0.001007
0.068848
-0.020355
-0.091370
-0.025681
-0.004971
0.043427
-0.043427
0.077087
0.067383
0.023178
0.029022
0.071228
0.028839
0.027115
0.016937
0.068176
0.087585
0.089600
-0.035492
-0.005520
0.009499
-0.011559
0.083313
-0.010803
0.004230
0.059845
0.041504
-0.012283
-0.010841
0.093262
0.089661
0.055878
-0.007751
0.013092
0.058746
0.065979
0.000448
-0.026077
0.044281
-0.006283
0.012444
-0.059875
-0.026123
-0.017990
0.083374
-0.076416
-0.057190
0.044678
0.004597
-0.005821
0.049622
-0.018478
0.077087
0.053741
-0.073120
0.085938
0.082642
-0.015701
0.010208
-0.029221
0.008659
0.054260
-0.012650
0.079773
-0.018600
-0.001510
-0.074829
-0.070618
0.074951
0.054108
-0.060486
0.036560
-0.062805
-0.035583
-0.028732
-0.043945
-0.059906
-0.038422
-0.019913
0.085815
0.048065
-0.087341
-0.049896
-0.015175
-0.046478
0.046570
-0.055511
-0.023193
-0.001505
0.066406
-0.052002
-0.069641
-0.062256
0.059387
-0.055023
0.048431
0.070801
-0.047333
0.084412
0.067383
-0.037354
0.037170
-0.022125
-0.047821
-0.025833
0.028763
0.088745
0.062561
-0.077698
0.033173
-0.035065
-0.031128
0.075562
-0.049438
-0.041290
0.038361
-0.004040
0.029907
0.087708
-0.014442
-0.048309
-0.070312
-0.014442
0.038605
-0.024872
-0.009399
0.072754
-0.016388
0.044678
0.008316
0.069946
0.003670
-0.050842
0.007702
-0.024063
0.013573
0.049347
0.042603
-0.073730
-0.007774
-0.062286
-0.037689
-0.072998
0.002985
-0.001730
0.097229
0.016281
-0.062500
0.085815
-0.033356
0.005722
-0.050690
-0.032471
0.018021
-0.032898
0.079895
-0.023987
0.059296
-0.057129
0.000319
0.039703
0.014366
0.017517
0.035980
0.035797
0.104980
0.100525
-0.107788
0.020111
-0.073853
-0.049255
-0.042053
-0.011627
-0.029144
0.047272
0.059113
0.036469
0.101562
-0.018677
-0.074829
0.031403
-0.040161
0.028351
0.018784
0.044464
0.011971
-0.033997
-0.085876
0.002676
0.082703
0.014664
0.031799
-0.092529
0.090210
-0.050171
-0.034698
-0.014679
0.091125
-0.014534
0.065613
0.109924
-0.059296
-0.078369
-0.020004
0.033539
-0.023010
0.082886
0.039398
-0.085266
0.046326
-0.018311
-0.096313
0.015114
-0.048309
-0.096130
0.022568
-0.012695
-0.024612
-0.067139
-0.056366
0.018478
0.059479
0.076294
-0.038483
-0.075256
0.082275
-0.012627
-0.046692
-0.063232
0.030899
-0.005188
0.121460
-0.045654
-0.005703
-0.003742
-0.059296
0.009895
0.112427
-0.038361
-0.050751
-0.072998
0.065857
0.062683
-0.087708
-0.036621
-0.093262
0.004517
0.034607
-0.050354
0.041199
0.036743
-0.077332
-0.030014
-0.043182
-0.083191
0.036987
-0.027390
0.056122
-0.022003
0.056274
0.066650
0.057770
-0.043518
-0.034027
-0.053253
0.058563
-0.024521
-0.025269
-0.055603
0.036316
-0.065063
-0.051849
0.026962
0.055939
0.039673
-0.028824
-0.078369
0.066895
0.103271
0.076050
-0.062408
0.040710
0.062683
0.040955
-0.000301
0.016281
-0.018448
0.064636
-0.093079
0.016113
0.003872
0.051239
0.089905
-0.077271
-0.047699
0.036377
0.091431
-0.049042
-0.013748
-0.015961
-0.019424
-0.027908
0.051514
-0.009972
0.050964
-0.070068
0.063232
0.055786
0.037537
0.072083
-0.085022
-0.077393
-0.062927
0.027176
0.074097
-0.054626
0.032166
0.078125
0.074829
0.007084
0.054474
-0.046783
0.078918
0.075500
-0.090820
0.077026
0.084595
-0.085266
0.024796
0.006496
-0.047089
-0.057281
0.002937
-0.023468
-0.037811
-0.068420
0.080811
-0.028763
0.019592
-0.055145
0.048737
-0.019897
-0.064758
-0.005207
-0.042572
0.019714
-0.047577
0.027573
-0.084167
0.069702
0.042572
-0.060120
0.075806
-0.087952
0.090027
0.036346
0.008316
0.049286
-0.020386
0.029678
-0.041962
0.061981
-0.028778
-0.033295
-0.049255
-0.096008
-0.073853
0.080566
0.063660
-0.051941
-0.066040
-0.087341
0.052704
0.009834
-0.010994
0.035370
-0.063293
0.000365
0.058319
0.001473
0.064880
-0.090088
-0.014992
-0.096069
0.004116
-0.050354
0.029968
0.048584
0.005455
-0.072144
-0.053528
-0.068726
0.045715
0.066528
0.087524
-0.077454
0.028442
0.091064
0.079163
-0.069763
-0.016449
0.089355
0.029861
-0.001929
0.035889
0.025192
0.001767
-0.060333
-0.041840
0.088562
0.020645
0.042603
0.033997
0.006264
0.061584
0.052246
0.072021
-0.056213
0.040100
-0.050873
-0.040955
-0.050629
-0.011093
-0.043732
-0.051849
-0.090454
-0.058807
-0.043304
0.068176
0.023636
0.036499
0.091553
-0.038910
-0.065125
0.073853
-0.069580
0.006809
0.035034
0.052795
-0.015221
0.076111
0.003944
-0.014824
-0.041046
-0.000946
0.038544
0.017609
0.095764
-0.086365
0.024033
-0.045288
-0.073303
0.054199
0.077698
0.079956
0.053192
-0.009224
-0.028168
-0.069031
-0.044037
0.060272
0.047546
0.054169
0.079895
-0.048492
0.097412
0.089783
-0.042419
-0.094238
-0.058624
-0.039734
-0.079712
0.042786
-0.084473
0.000277
0.075684
-0.069458
0.090088
0.058990
-0.018326
-0.066528
-0.028656
0.028732
-0.044373
0.112976
0.013725
-0.043518
-0.019836
-0.089294
-0.018936
0.078247
-0.051239
0.052338
0.083618
0.091187
0.006767
0.062561
0.044342
0.053192
-0.061127
0.021652
0.103943
0.015427
0.093689
0.037262
0.104736
0.000869
-0.017456
-0.076660
0.085083
0.079102
-0.004044
0.022446
0.017792
-0.076355
-0.049866
0.087708
0.009605
0.037811
0.011780
-0.050079
0.060394
0.045502
0.075562
-0.061340
-0.079651
-0.054901
-0.014015
-0.078308
-0.046692
0.012276
0.088196
0.084167
0.015701
0.078796
0.033661
-0.031708
0.078186
-0.064514
0.089661
0.097168
0.046173
-0.022690
-0.002193
0.005180
0.075928
0.009293
-0.009720
0.052521
-0.073303
0.071411
-0.046326
0.057983
-0.014526
-0.000176
-0.002853
-0.050812
0.017105
0.026840
0.060974
-0.052063
0.009506
-0.051910
0.028107
-0.051605
0.010277
-0.009140
-0.086304
0.014717
0.058472
0.056213
0.011810
0.088074
0.082214
0.038391
-0.037109
-0.022293
0.003817
-0.075745
0.062225
-0.039886
-0.087830
-0.030518
-0.102661
-0.063232
0.075439
0.012764
0.040161
-0.021866
0.036346
-0.092346
0.048981
0.040619
0.000581
-0.066589
0.056641
0.092041
0.022141
-0.030823
-0.032471
-0.072449
-0.048431
-0.079956
0.017487
0.016937
-0.017242
-0.012184
0.079712
-0.042419
0.021530
0.014481
0.051025
-0.082214
-0.021667
-0.066284
-0.089844
0.029816
-0.006096
0.030624
0.051575
-0.044830
0.048126
-0.099548
0.038635
0.024475
-0.028717
0.018646
0.057770
0.035065
0.032562
-0.044128
0.087952
-0.048004
0.047852
0.028564
-0.001355
-0.049347
0.072693
-0.058380
-0.004684
0.086121
-0.003704
0.008873
0.045227
-0.086670
0.062439
-0.008530
0.055420
0.063538
-0.058167
0.007812
-0.016876
0.077271
-0.062805
0.038452
0.070618
-0.041107
-0.072632
0.000976
0.076050
0.049408
0.008812
-0.025665
0.039246
-0.040436
-0.061127
-0.013580
-0.032867
-0.094299
0.040131
0.015465
0.044556
0.067993
-0.040009
-0.019440
-0.038971
-0.090210
-0.072388
-0.081787
0.065918
0.007267
0.001731
-0.045197
0.020996
0.048004
-0.086609
0.074829
0.003397
-0.028778
0.047363
0.067383
-0.031647
-0.087036
-0.007317
0.043640
-0.033142
-0.028717
-0.088684
0.079407
0.020920
-0.051666
0.008347
-0.032837
0.015732
0.023132
0.047119
0.026855
0.039978
-0.006577
-0.040100
0.028168
-0.026978
0.004555
0.082642
0.014999
0.016342
0.005341
0.052277
0.044312
0.059906
0.075928
0.083984
0.042908
0.086182
0.017395
0.010399
-0.051483
-0.083862
-0.049042
-0.072021
0.016586
-0.053467
-0.076172
-0.023117
-0.086914
-0.078857
0.001358
0.012367
-0.041290
0.066223
-0.065247
0.044464
-0.039459
0.081177
-0.002991
-0.056305
-0.038971
0.093140
0.078369
0.077576
-0.056305
-0.069031
-0.027847
-0.004627
0.019318
-0.015839
0.056549
0.042938
0.050934
-0.058807
-0.082886
-0.069214
-0.046906
-0.045349
0.019577
-0.037079
0.021317
0.042084
0.072510
-0.028763
0.084900
-0.055023
0.053101
-0.013802
0.026520
0.009117
0.027466
0.047577
-0.010834
-0.070374
-0.072998
0.033569
0.065552
0.077698
0.047272
-0.032288
-0.034790
-0.022629
0.071533
-0.010933
0.052856
0.016922
-0.040649
-0.070923
0.035645
-0.035980
0.082031
-0.007874
0.097168
0.021515
0.024399
-0.060120
-0.049561
0.055786
0.026932
-0.043884
-0.055511
-0.007828
0.054260
-0.067078
-0.060608
-0.037201
-0.058563
0.003387
-0.038239
-0.056854
-0.059265
0.067566
-0.009903
0.055908
-0.006382
0.079407
0.042847
-0.073059
0.018509
-0.027786
0.037811
-0.007580
0.031036
0.044800
-0.078125
-0.013374
-0.062500
-0.067322
-0.041290
0.080017
-0.080017
-0.014442
-0.041077
0.039948
0.073181
-0.048737
0.024277
-0.034271
-0.008636
0.034027
0.077515
0.012650
-0.032501
0.017471
0.022324
0.009338
0.092590
-0.031403
-0.028778
-0.057037
0.016129
0.063232
-0.011131
-0.021835
-0.006176
0.010559
0.088501
0.058289
-0.025711
0.053497
0.054352
-0.019806
-0.072449
0.015808
-0.033386
0.060028
0.040802
0.072327
-0.086487
-0.020447
0.030899
0.057587
0.104187
-0.030930
0.062866
-0.057556
0.027069
-0.074158
-0.037689
-0.014481
0.082336
-0.001581
-0.076172
-0.009644
0.012833
0.012886
-0.066895
0.052521
-0.076538
-0.013237
0.008202
0.070190
-0.055573
-0.020294
-0.051758
0.006878
-0.051697
-0.077026
0.082886
-0.051514
-0.008636
-0.059814
-0.056793
-0.030106
0.070007
0.026764
0.061493
0.034973
0.009743
0.001117
-0.063965
0.039368
-0.044312
0.044556
0.074158
0.014740
-0.040680
-0.013763
-0.045898
0.059662
-0.009735
-0.027115
0.046539
0.060944
0.017868
0.012642
0.089355
0.075562
-0.008331
-0.030945
-0.045654
0.016861
-0.053619
-0.038849
0.024307
-0.034973
-0.044159
0.042786
-0.075928
0.113281
-0.059357
-0.013245
0.010933
-0.056274
0.066895
-0.088013
-0.021500
0.037567
0.015007
0.046448
0.002092
0.018143
-0.021988
0.070984
-0.004913
-0.077148
-0.039215
0.027557
0.062500
0.034271
0.004864
0.111389
0.104309
-0.005936
-0.024673
-0.083069
0.087463
0.048950
0.101379
0.013290
-0.065674
-0.080200
0.056122
-0.062439
-0.025299
-0.083252
-0.006855
0.008247
-0.059082
0.011230
0.061279
-0.077393
-0.005287
-0.080750
-0.035889
-0.033569
-0.048309
0.073242
0.012451
0.028870
0.034882
0.011986
-0.043304
-0.035950
0.055115
-0.071899
-0.043091
-0.045685
0.058746
0.020706
-0.011284
0.082275
-0.015488
0.070312
-0.059845
-0.063110
-0.001010
0.051331
0.088867
0.023132
-0.055878
0.065369
-0.039276
0.087646
0.008904
0.022079
-0.038666
0.028015
0.005871
0.054932
0.050842
0.033203
-0.090088
0.069702
-0.052765
0.030457
0.046082
-0.073608
0.009499
-0.085571
0.071960
0.069031
0.032227
-0.008675
0.076416
-0.047638
0.029617
-0.047150
0.044800
-0.079651
0.062805
-0.058502
-0.088867
-0.088684
0.007744
0.080811
-0.078857
-0.029022
-0.068054
-0.070435
0.012047
0.031830
0.017105
0.029068
0.011948
0.063660
0.020538
0.073425
-0.042511
0.014030
-0.018463
0.037994
0.049255
-0.035675
-0.046509
-0.034668
0.029907
0.031204
0.065613
0.058441
0.042542
-0.082703
0.009476
0.010818
-0.077881
-0.020721
0.067200
-0.083130
0.103455
-0.014008
-0.060822
0.038300
-0.017502
-0.096802
-0.067505
-0.060577
0.019989
-0.071167
-0.056000
-0.085815
-0.017609
-0.042938
-0.045502
-0.041016
-0.053375
-0.071167
-0.024857
-0.056854
-0.056854
0.103210
-0.058197
-0.029373
0.034210
-0.065002
0.085876
-0.002972
0.093567
-0.009926
0.094360
-0.035309
0.075745
0.093567
0.022339
0.098083
0.030685
-0.090027
-0.042664
-0.021423
0.031311
0.033417
-0.029938
-0.042938
0.056976
-0.033661
0.053955
0.048126
0.060608
-0.085632
-0.078125
0.044312
0.086853
-0.077271
-0.048157
0.055786
0.044586
0.044739
0.006805
0.048431
0.088196
0.037567
-0.059448
-0.056458
-0.052490
-0.027878
0.071899
0.081177
0.085022
-0.044434
0.091553
0.080078
0.054504
-0.044830
-0.047852
-0.049469
0.068787
-0.020538
0.099426
-0.055542
-0.051941
0.016159
-0.015617
-0.018127
-0.041199
-0.033905
-0.088196
0.101685
0.019226
0.093323
0.060516
0.008408
0.098022
0.064453
0.045868
-0.037415
0.096130
0.064331
0.047363
-0.081177
-0.015404
-0.076477
-0.056763
0.010368
0.036163
-0.015961
0.067322
0.023636
0.083069
0.015152
-0.075195
0.021774
-0.077576
-0.039307
-0.046417
0.063538
0.081543
0.089844
0.002989
-0.049988
-0.056122
0.076477
-0.046448
-0.001483
0.004608
0.059052
0.066528
-0.032043
0.086243
-0.019119
-0.054596
-0.098633
-0.090881
0.062012
0.061951
0.034363
-0.026459
0.067749
-0.081299
0.032410
-0.028336
-0.016281
0.064880
-0.005226
0.077942
0.014412
-0.049805
0.031525
-0.087769
0.059753
0.097473
0.013557
-0.065430
-0.048523
-0.073547
0.026779
-0.011772
0.018021
-0.027100
0.075256
-0.027542
0.027100
0.015091
-0.068665
-0.059174
0.077759
0.075317
-0.052307
0.056000
0.095825
0.047699
-0.091736
-0.054199
-0.027710
-0.045227
-0.036346
0.058533
-0.055511
-0.007957
0.094666
-0.039185
-0.014824
0.020355
-0.038300
0.066528
0.014656
-0.014214
-0.024765
-0.073914
-0.052979
0.017944
0.000559
0.081543
-0.054260
0.032654
-0.046265
-0.028320
-0.062866
-0.052063
-0.001135
0.006584
0.017899
0.060730
0.070190
-0.004150
-0.069946
-0.037231
0.024399
-0.017792
-0.074585
0.062561
-0.047760
0.096008
0.068115
-0.063660
-0.055542
-0.005550
0.058167
0.069763
0.028824
0.065002
-0.071472
0.076721
-0.059814
0.040649
-0.043884
0.043945
0.039917
-0.016922
0.007748
0.062744
0.028885
0.045807
0.011650
0.070679
-0.073730
0.030914
-0.065552
-0.026825
-0.021118
-0.066711
-0.046478
-0.016861
-0.062622
-0.013344
-0.012878
-0.021652
0.042358
-0.040375
-0.043945
0.043182
0.023987
-0.020233
-0.005619
-0.014145
-0.043182
-0.094421
-0.074341
-0.045380
-0.082214
0.019882
-0.025665
-0.038605
0.034882
-0.085754
-0.090820
0.014656
0.070740
0.004345
0.080566
0.038269
-0.016937
0.014191
0.002970
0.000402
0.044983
-0.022095
0.031952
0.075195
0.033569
-0.033142
0.056183
0.105347
0.047150
-0.070190
0.009109
-0.054901
0.028671
0.013870
0.106934
-0.075500
-0.079163
0.013771
0.027023
0.041107
-0.036774
0.016129
-0.070007
-0.085754
0.001478
0.029724
0.067383
-0.018707
0.034790
-0.102417
0.051788
-0.004547
0.025772
-0.028275
-0.053467
-0.059784
-0.070312
0.075012
0.023575
0.087341
-0.040710
0.019760
-0.004368
0.035339
-0.046021
0.046509
0.011475
0.002989
-0.050323
-0.086914
-0.036621
0.003555
0.036346
-0.043274
0.021881
-0.057220
0.043091
-0.074463
0.068054
-0.033386
0.030441
-0.043579
-0.030701
-0.019348
-0.063049
-0.076965
-0.074036
-0.005985
0.093567
-0.049652
-0.017990
-0.032776
0.059143
0.074890
-0.075867
-0.019394
-0.053986
0.009254
0.050507
-0.038483
-0.059998
-0.023819
-0.046082
-0.048462
0.028564
-0.080566
0.076721
-0.073669
0.019135
0.067932
0.078064
0.003485
-0.002039
0.071838
0.045105
0.002016
-0.087891
-0.017487
-0.003611
-0.013008
-0.074829
-0.057007
0.067261
-0.067627
-0.026840
0.059937
-0.062988
0.000492
-0.061768
-0.069763
-0.049438
0.032837
0.007034
0.036285
0.049591
0.042725
-0.048523
0.032440
0.030991
-0.027481
0.071106
0.069702
-0.041565
0.065125
-0.057678
0.000228
0.012680
0.072449
0.062195
0.053436
-0.037903
-0.067505
0.067139
0.089233
0.049988
0.027771
-0.043945
-0.033966
0.052643
-0.013039
-0.057129
0.033081
-0.001263
0.087524
0.005508
-0.036713
-0.062225
-0.044373
-0.083679
-0.064270
-0.018143
0.018173
0.066589
-0.043091
0.089111
-0.014870
0.011147
0.048157
0.074768
0.009735
-0.031952
0.046997
0.068054
-0.067078
0.080322
-0.054199
-0.003237
0.013481
-0.075317
0.005775
0.067322
0.002348
-0.072021
-0.010345
0.000367
0.054321
-0.014030
-0.060486
0.026855
-0.016266
-0.035126
-0.050293
0.024399
-0.067688
0.013435
-0.055603
0.088623
-0.067932
-0.040985
-0.033447
-0.031311
-0.056732
-0.023315
0.069824
-0.033722
0.007240
-0.025467
-0.057556
-0.038513
0.032654
0.075012
0.079224
-0.011055
0.090393
0.050262
0.034546
0.095459
0.079712
0.028900
-0.083984
0.064087
-0.059937
0.005936
-0.001832
0.005463
0.035248
0.037231
-0.026062
0.025864
-0.060944
0.020172
0.061493
0.042847
0.033020
-0.093140
-0.021393
0.034515
0.036377
-0.062988
0.026123
0.078430
0.089294
0.058197
0.076843
-0.052765
0.073730
0.070312
0.031708
0.053009
-0.037872
0.018906
-0.048767
0.054871
-0.019913
-0.066711
0.064697
0.019470
0.039978
0.084351
-0.017349
0.005669
-0.072998
-0.043793
0.054840
0.019272
0.038910
0.007103
0.079712
-0.027817
-0.025574
-0.026871
0.034180
0.055908
0.043762
0.058899
0.099426
0.033478
-0.008293
-0.054749
0.031769
-0.023468
-0.003262
-0.043091
0.009872
0.052948
-0.023254
0.097229
-0.000219
0.088867
-0.016296
-0.055206
-0.075256
0.047943
-0.047668
-0.001096
0.056152
-0.060150
-0.010941
0.073547
-0.020416
-0.011040
0.011124
-0.047729
0.012115
0.041199
-0.009811
-0.047668
0.022568
-0.059387
0.044037
-0.003706
0.032043
0.041840
0.000538
-0.019485
0.071350
0.078674
-0.030151
0.103455
-0.091492
-0.074219
-0.023712
-0.019073
-0.082703
-0.002750
-0.055481
-0.026169
0.080750
-0.034943
0.085754
0.038391
0.006981
-0.063721
0.056763
0.093689
-0.012619
0.041107
0.060516
0.010849
0.070374
0.040253
-0.064270
0.070923
0.018219
0.016205
-0.020294
0.028763
-0.051178
-0.049713
0.032288
-0.078430
-0.073303
0.074524
0.071472
0.026886
-0.048950
0.051147
0.068237
0.005924
0.078613
-0.051636
0.088135
0.030411
-0.067627
-0.046295
0.004135
-0.080017
0.065796
-0.070068
-0.018707
-0.058014
-0.086792
0.037994
0.035034
0.045746
0.017044
-0.059570
-0.052948
0.097412
0.044586
0.046814
-0.038361
-0.052551
0.086182
-0.018692
-0.092529
0.000144
-0.029648
0.037903
0.042236
0.048859
-0.021713
0.015556
-0.034912
0.063660
0.085876
0.012657
0.010124
-0.079346
-0.085815
-0.043823
-0.072388
0.008636
-0.004616
0.020142
-0.006542
-0.029175
0.052429
-0.085999
0.080139
-0.009003
0.006207
0.063538
0.011429
0.019409
-0.026016
0.061798
-0.031982
-0.044067
0.063904
0.082458
-0.028214
-0.013504
0.072571
0.055603
0.020782
0.087158
0.076538
-0.057312
-0.012894
0.077820
0.045410
-0.066406
0.088440
-0.006039
0.059448
0.031799
0.015808
0.029190
-0.045197
-0.007526
-0.058502
-0.054138
-0.006649
-0.021515
0.098328
-0.074097
-0.068604
-0.023224
0.044769
-0.008987
0.050659
0.039948
-0.086060
0.037323
-0.014015
0.049500
-0.050934
-0.089172
0.032074
-0.000002
-0.038177
0.059937
-0.059082
0.064880
-0.018494
0.087585
-0.039520
0.036652
0.024506
0.003263
-0.014526
0.053284
0.040375
0.001417
0.083191
-0.020630
-0.071289
0.055023
-0.036896
0.045532
0.058990
0.037262
0.050995
0.039764
0.053314
-0.028687
-0.015854
0.032898
0.002447
0.051392
-0.009575
0.037964
0.063416
0.051910
-0.036499
-0.057007
0.071533
0.084839
-0.007904
-0.060638
-0.030014
0.077576
0.023392
0.074341
-0.023483
0.051758
-0.083252
0.080994
-0.049133
0.033478
-0.010582
-0.017853
0.085571
0.011406
0.022018
-0.005085
0.064270
0.023392
-0.073853
0.066345
0.028625
0.032135
0.068970
-0.018036
0.017212
-0.048309
0.002172
-0.017090
0.038818
-0.033539
-0.066589
-0.083191
-0.050690
-0.016373
-0.023865
-0.015640
0.088928
-0.004448
-0.049438
0.007191
-0.014992
-0.022842
0.035614
0.048584
0.073242
0.103027
-0.051178
-0.079285
0.010994
-0.049194
-0.085205
0.077515
-0.027008
0.037720
-0.094788
-0.000593
-0.049011
0.009033
0.045868
-0.022141
0.034088
0.024261
0.007263
0.066406
-0.020691
-0.029190
-0.040680
-0.074890
0.039124
0.007412
-0.013687
-0.063538
-0.047943
-0.034332
0.007381
-0.098816
0.039948
-0.041595
-0.054840
-0.014801
0.046448
0.057800
-0.016663
-0.064270
-0.007305
0.012878
0.047821
-0.050873
0.078308
0.081360
-0.042938
0.075806
0.066101
0.036438
0.050232
-0.074585
0.099121
-0.060455
0.060028
0.046478
0.071045
0.064514
0.024384
0.011703
0.073059
0.018860
-0.050812
-0.049377
-0.042969
0.050934
-0.063843
-0.057190
0.041962
0.037262
0.028030
-0.070007
-0.057190
-0.057312
-0.053955
0.068787
-0.037994
0.060852
-0.093140
0.001460
0.104248
-0.078491
-0.003006
0.076904
0.063171
0.031799
-0.012215
-0.073364
-0.060425
0.090393
-0.016953
0.024643
-0.014236
0.021774
0.040344
-0.067383
-0.040863
-0.024704
0.023834
0.080872
0.047272
0.013687
0.055878
-0.086853
-0.074097
0.076294
0.019760
0.048737
0.074219
-0.016037
0.025345
-0.033234
0.008339
-0.044098
-0.049133
0.079346
-0.033752
-0.042816
0.024750
-0.049072
0.036224
0.053070
-0.029343
0.001370
-0.028320
-0.060364
-0.033112
-0.052429
0.032532
0.012794
0.025909
-0.036255
0.063782
-0.054657
-0.012054
-0.019760
-0.087097
0.099731
-0.057587
0.094727
-0.069153
-0.038086
0.017090
0.059937
0.074890
0.076782
0.028839
0.019089
0.083862
0.030670
-0.008881
0.008820
-0.046661
0.074707
0.093628
0.039551
0.011215
-0.009285
0.072021
-0.093445
0.065796
-0.064331
0.080566
-0.096619
-0.028961
0.049194
-0.016174
-0.025009
0.031433
-0.063416
0.085999
-0.034241
0.084778
0.062286
-0.013519
-0.001706
-0.000054
0.006451
0.080566
0.008736
0.064758
-0.007835
0.048004
0.071472
0.083374
-0.091003
0.065063
0.020340
-0.022675
-0.026993
0.040619
-0.014595
-0.027328
0.036041
-0.042999
-0.056549
0.063477
-0.044769
-0.071472
-0.039490
-0.045776
-0.041412
-0.086670
-0.037628
-0.046051
-0.007904
-0.010689
0.084106
-0.077637
0.056122
-0.033020
0.062927
-0.051239
0.091187
-0.033722
0.033051
-0.057404
-0.040680
0.014603
-0.076538
0.065063
0.072632
0.069702
0.030380
0.088135
0.031952
-0.027405
0.032013
0.029755
0.028809
0.032898
0.024719
0.014870
-0.049469
-0.036682
-0.012543
-0.053345
0.064026
0.026260
-0.059021
0.039917
0.029922
-0.070740
-0.001840
-0.029526
-0.044037
-0.016495
-0.029037
-0.014030
-0.079529
0.080200
-0.011894
0.062988
0.012871
-0.051605
-0.055267
-0.055542
0.038147
-0.050537
0.068665
0.073547
-0.042267
-0.039001
0.076843
0.061371
-0.005432
0.003922
-0.032288
-0.065369
0.080872
-0.048645
-0.081665
-0.053894
0.078857
0.030914
-0.059265
0.082214
0.051636
-0.052704
0.069702
-0.005898
-0.069458
0.082886
-0.080872
-0.047577
0.014702
-0.021378
0.056122
0.061737
0.046906
0.093933
-0.031433
0.033203
-0.059814
0.060150
-0.080017
0.004982
0.071594
-0.029327
-0.084595
0.049072
0.046844
-0.060791
-0.055573
-0.030167
-0.041595
-0.090637
0.063782
-0.017441
0.066345
0.022079
-0.033661
-0.000792
-0.069031
0.003349
0.045227
0.065369
0.038086
0.051514
0.005417
-0.020584
0.036835
0.013695
-0.019089
0.006744
-0.001864
0.033295
-0.026627
-0.016388
-0.086792
0.077332
0.070557
0.055145
-0.036438
-0.064270
-0.015656
0.002741
0.064575
-0.087952
-0.060425
-0.029572
-0.001506
0.116333
0.074524
-0.077637
-0.027527
-0.003569
-0.040344
0.091370
0.029572
-0.064575
-0.026520
0.032471
-0.060028
0.096008
0.023239
-0.006870
0.086365
0.058838
0.094910
0.087097
0.017410
0.035004
-0.017532
0.048401
0.011772
0.013985
-0.070496
-0.034271
0.047455
-0.017731
-0.066650
0.069336
-0.005562
0.098694
-0.058533
0.050903
0.084473
-0.076233
-0.081482
0.055664
0.090027
0.110107
-0.006489
-0.044037
-0.027649
0.051086
0.071960
-0.012184
-0.028549
-0.079956
0.007210
0.034729
0.045319
0.025024
0.004288
-0.047729
0.015915
0.094360
0.093994
0.004269
-0.005222
-0.063843
-0.039093
-0.041626
-0.065125
-0.007168
0.068909
-0.085266
0.051941
-0.015686
-0.085327
0.025864
-0.069153
0.032959
0.034912
-0.028625
0.030502
0.089966
-0.001940
0.056061
0.075928
0.079468
-0.088684
-0.056641
-0.048157
-0.072937
-0.028015
0.035278
-0.059143
0.028778
0.099792
-0.004341
-0.049774
0.028030
0.033508
-0.012909
0.002335
-0.061981
-0.073242
-0.007088
0.004498
0.055603
-0.050079
0.055237
-0.045898
0.019440
-0.004108
-0.005600
0.056671
-0.046539
0.085754
0.047577
0.059357
0.070801
-0.010010
0.052094
0.024216
-0.096130
0.033356
0.058411
-0.058899
-0.039215
0.080566
0.057739
-0.078247
0.085999
0.077148
0.022598
-0.003588
0.033020
0.015236
0.005871
-0.071716
-0.039154
0.070923
0.046448
-0.034912
0.000349
-0.063477
0.054016
0.011513
-0.000819
-0.038269
0.083862
-0.073242
0.056122
-0.009033
0.061859
0.039398
0.065308
-0.077393
0.076660
0.070496
-0.059204
0.030869
-0.093384
0.047241
0.027451
-0.026855
0.003851
0.032654
0.079834
0.037506
-0.021072
0.049622
-0.016205
-0.027878
0.024597
0.083557
-0.007412
-0.041473
0.059174
0.062744
0.036957
-0.066833
-0.063477
-0.021530
0.059998
-0.023834
0.036682
0.038513
0.065552
0.076660
-0.083557
-0.039917
-0.019379
-0.023956
0.004776
-0.085327
0.080139
-0.017487
0.066650
0.016815
-0.077759
0.019897
0.025116
-0.072449
-0.022797
0.056458
0.028305
-0.023529
-0.066833
0.088013
0.094299
-0.044067
0.013733
-0.055084
-0.029358
0.081482
-0.003786
0.076050
0.081604
-0.092651
-0.058350
-0.034515
0.085510
-0.095337
-0.061401
0.011307
0.022751
-0.062500
-0.025726
0.027985
0.083069
-0.082092
0.017960
-0.011818
0.087891
0.015945
-0.037933
-0.066650
-0.008858
-0.037964
0.027863
0.017563
0.003134
0.026108
0.020767
-0.087402
0.033722
-0.054840
-0.020981
-0.025665
-0.078369
-0.079590
-0.075195
0.004261
0.005619
0.062256
0.058167
0.079712
-0.085938
0.096313
0.048553
0.076721
-0.029251
-0.066406
0.000189
0.066467
-0.051575
-0.019974
0.003107
-0.026779
-0.019211
-0.071472
-0.072571
0.039612
-0.033783
-0.037262
-0.069580
0.045166
-0.046021
-0.001350
0.054138
-0.000710
0.071838
0.001397
0.017929
-0.042908
-0.080994
0.007874
0.030289
-0.003521
0.020477
0.055481
0.083984
-0.028046
0.076477
-0.044464
-0.048370
0.049286
-0.054535
0.072205
0.033447
0.011894
-0.052460
-0.055725
0.036133
-0.015244
0.030624
0.011658
0.065430
0.053284
0.071350
0.073364
0.011124
0.079224
0.036072
0.076050
0.054077
-0.062683
-0.011230
-0.009941
0.008476
-0.071411
0.044495
-0.009666
-0.057129
-0.004482
-0.032410
0.059937
0.031128
0.009232
-0.026947
0.019516
-0.028946
0.043030
-0.068237
-0.077820
-0.042328
0.042328
0.034363
-0.091492
-0.014587
-0.055176
0.014038
0.095642
-0.075195
0.051849
0.010590
-0.026108
0.070984
0.035339
-0.004791
-0.025497
-0.081299
-0.003138
0.004520
-0.029037
-0.005238
0.078552
-0.002151
0.019089
-0.068115
0.063049
0.051239
0.071899
0.031921
0.083008
0.055664
-0.026962
0.023804
-0.001018
-0.050934
0.038116
0.093140
0.052795
0.040863
-0.051910
-0.071899
-0.023956
-0.092041
-0.035095
0.069641
0.060028
-0.062286
-0.014977
0.050446
-0.082764
0.074829
-0.059357
-0.079529
-0.028915
0.030563
0.019608
0.023544
-0.028061
-0.055817
0.046356
-0.035675
0.021667
0.067078
0.068054
-0.014397
0.027893
0.067688
0.071594
-0.094055
-0.020782
-0.036072
-0.079529
0.050842
0.043396
-0.068420
0.064087
-0.036469
0.062927
-0.065308
0.001117
0.018677
-0.019897
0.031921
0.004875
0.060486
-0.034149
-0.083557
0.081909
0.054840
0.071350
0.043457
0.009087
-0.018326
-0.075684
0.043365
-0.056274
0.085999
-0.024445
-0.043884
0.013489
-0.058746
0.008324
-0.069641
0.028702
-0.055786
-0.097351
0.090454
0.009315
-0.036896
-0.033386
-0.044403
-0.083618
-0.065613
-0.019577
-0.079285
0.069519
0.076111
-0.085632
-0.002859
-0.069214
0.077393
0.060669
0.052948
-0.037201
-0.046051
0.044922
-0.063416
-0.016937
-0.033325
0.084167
-0.000638
-0.046814
0.049622
-0.039917
0.020798
-0.057556
-0.000479
0.039703
-0.000139
0.030304
0.088867
0.017258
0.073059
0.003414
-0.038116
-0.000087
-0.009895
-0.063599
0.013107
-0.053467
-0.001193
0.062561
0.054291
-0.001443
0.051025
0.008392
0.051239
-0.018112
-0.003918
0.045715
-0.010551
-0.040100
-0.070984
-0.064514
0.076904
0.059631
-0.039642
0.005550
0.021576
-0.038239
0.032013
-0.028198
-0.093018
0.022339
-0.003756
-0.045532
0.085388
-0.075684
0.067078
0.008293
-0.067932
-0.035492
-0.070557
0.036133
0.039307
0.057495
0.093689
-0.027588
-0.012077
-0.050476
0.064941
-0.007221
0.052490
0.009537
0.021301
-0.078064
0.082275
0.058197
0.018005
0.042084
-0.050690
-0.070740
-0.086365
-0.038147
0.077698
0.042175
-0.013725
0.086975
-0.058014
-0.027023
0.036133
-0.067810
0.075623
-0.035370
0.070618
0.008949
0.006077
-0.081665
0.029495
-0.049866
0.062012
0.066589
0.026917
-0.056610
0.014992
0.044159
-0.003317
0.060242
-0.062561
0.077515
0.006119
0.085999
0.081116
-0.045776
0.002256
-0.013435
0.031082
-0.083435
0.075989
0.074219
-0.082703
0.010117
0.050934
-0.075439
-0.054474
-0.045044
-0.003700
-0.007076
-0.033722
0.016098
-0.003885
-0.026093
0.002529
0.031525
-0.018677
0.035492
-0.063782
0.006184
0.043152
-0.037354
0.076050
-0.004799
-0.062469
-0.023056
-0.025146
0.009399
0.095276
0.077209
-0.085205
0.059235
-0.041656
0.012039
0.004742
-0.088196
-0.023682
0.068604
0.015778
0.087952
0.041687
-0.002768
-0.039856
0.013634
-0.024872
-0.092957
0.053406
0.004864
-0.073486
0.078918
-0.006840
0.007782
0.070496
-0.040436
-0.024261
0.018433
0.030472
-0.023453
-0.070740
0.067017
0.075684
-0.020035
-0.005852
-0.045013
-0.090027
0.070129
0.033295
0.022736
0.008781
-0.020187
0.067688
-0.077515
-0.081726
-0.001009
0.088074
-0.033539
-0.047913
0.061462
0.022522
0.021317
0.050812
0.024811
-0.064697
0.057556
0.057556
-0.063721
-0.055817
0.056091
-0.005596
0.062866
-0.008560
0.032593
-0.006527
0.027756
-0.037720
-0.008797
0.027893
-0.026993
-0.039001
-0.036194
0.010658
0.041351
0.037750
0.077148
0.016541
-0.008873
0.002087
-0.017624
-0.056641
-0.079224
-0.022491
-0.025024
0.029922
0.050171
0.091736
-0.021423
0.019775
0.031860
0.040558
0.002260
0.005829
-0.040680
0.043030
-0.076660
0.081299
-0.060608
0.067383
-0.022125
0.013870
-0.053192
-0.074890
0.013451
-0.076050
0.015190
0.085083
0.015884
-0.040588
0.080383
0.018814
-0.056366
-0.076294
0.001146
0.098511
-0.050446
-0.034607
0.019012
-0.026886
-0.072021
-0.044556
0.007221
-0.077271
0.090698
-0.053802
0.038635
0.044128
-0.073364
0.027451
0.086487
0.054382
0.010406
-0.053680
0.017517
0.059082
0.025253
0.049805
0.031677
0.040009
-0.039093
-0.036774
-0.026352
-0.072693
-0.083008
-0.058441
0.030426
0.014214
0.080994
0.039246
0.029495
0.097107
0.011414
-0.051178
0.081177
0.078491
0.042969
0.073425
0.021957
0.001347
0.069519
0.038818
0.001023
0.021057
0.044220
-0.028030
0.081848
-0.037567
-0.029877
-0.031281
0.035034
0.035034
-0.033752
-0.043976
-0.076416
-0.045654
-0.001616
0.025894
-0.006592
0.074158
0.094360
0.093506
0.004280
0.094421
-0.065247
-0.055573
0.061188
-0.014122
0.051605
0.072632
0.027878
-0.036774
0.040649
0.004326
0.099060
-0.033478
-0.055725
0.033997
-0.063599
-0.059387
-0.051849
-0.051575
-0.077026
0.001013
-0.067627
0.027420
0.058472
-0.061188
-0.021500
0.018478
-0.091980
0.011093
-0.003300
-0.043579
-0.000156
0.030655
0.008354
0.100281
0.070068
-0.044617
-0.066711
-0.037384
0.081421
-0.064453
0.011864
0.065491
0.045227
0.042419
0.056274
0.013687
0.051666
0.028610
-0.049713
0.085266
0.021454
-0.039459
0.002602
-0.045746
-0.025604
-0.060089
0.033875
-0.081116
-0.018707
0.099426
0.080872
-0.064209
0.031158
-0.060089
-0.017181
-0.050507
-0.025772
0.000029
0.050476
-0.035736
-0.028946
-0.015884
0.070862
0.046448
-0.050171
-0.067566
-0.017151
-0.073303
0.035339
0.080566
0.064758
0.096802
0.082336
0.068298
-0.082886
0.091736
-0.061584
0.056458
-0.087036
0.028809
-0.036438
-0.026794
-0.011017
0.038696
0.044830
-0.056702
0.007957
-0.019180
0.079773
0.036438
0.032043
-0.084717
0.044922
-0.020370
-0.085999
0.033203
0.108032
-0.023346
-0.064087
-0.017563
0.000229
-0.067810
-0.005363
0.101135
-0.026047
0.040588
-0.013199
0.002724
0.056793
-0.001185
0.059052
0.065369
0.026703
-0.057495
-0.082886
-0.067566
-0.032166
0.081726
-0.024704
-0.105408
0.030426
0.070679
0.061768
-0.046173
-0.068909
0.032684
-0.009026
0.041748
0.087280
-0.053070
0.046082
0.131958
0.034241
-0.026520
0.079346
0.021866
0.104797
0.005848
0.033966
0.116821
0.013451
0.079834
0.102722
-0.008324
-0.040985
0.067200
0.067505
0.019714
-0.018860
-0.064636
0.127808
-0.054657
-0.091309
0.030991
-0.032837
0.047974
-0.080017
0.085510
0.044708
0.078918
-0.024796
0.055969
0.053741
0.071899
0.003580
-0.014778
0.076355
0.042480
0.048920
-0.041321
-0.009949
0.041962
-0.057861
0.101135
0.057617
0.088989
0.012253
0.028793
-0.044769
-0.020905
0.134766
0.110107
0.069519
0.081787
0.056641
-0.047882
0.003569
0.089233
-0.001665
-0.058777
-0.007526
-0.052368
-0.079956
0.058563
-0.027359
-0.013008
0.100586
-0.079285
0.017670
-0.089966
0.048615
0.062225
-0.057526
0.031616
-0.057770
0.021301
0.026428
0.008209
-0.053680
-0.051178
-0.079285
0.021439
0.081177
-0.052704
-0.085022
-0.088074
-0.088318
0.065735
-0.041077
0.025085
0.088928
0.018143
-0.045441
-0.048126
-0.002405
-0.056580
-0.051300
-0.020279
-0.011971
-0.032928
0.051025
0.037292
0.083923
0.003069
0.045593
0.004875
-0.001763
-0.086975
-0.011635
0.013138
0.017593
-0.039551
0.037720
0.037231
0.056244
0.020142
-0.054108
-0.058807
0.005600
-0.010902
0.081909
0.004086
-0.069275
-0.001676
-0.038055
0.090942
0.003084
0.011360
-0.022446
0.028809
-0.067139
0.071655
0.097717
0.040833
-0.018967
0.081238
0.033508
-0.036987
-0.065857
-0.025101
-0.042389
0.013466
0.061249
-0.070923
-0.019608
-0.034729
-0.025909
0.019257
0.022278
0.010452
-0.025543
0.048126
0.057587
-0.062561
0.047882
-0.023087
0.064819
-0.061462
-0.007183
0.041992
0.087036
-0.013664
-0.023575
-0.058899
0.005508
-0.004414
-0.029602
0.093506
0.046173
0.053711
-0.027847
0.049072
0.063965
-0.000598
-0.002531
0.010460
0.022217
-0.050018
0.025269
0.045990
-0.048706
-0.019943
-0.064697
-0.085754
-0.000882
-0.047424
0.076355
-0.082764
-0.039551
0.011177
-0.069458
-0.077454
-0.030319
0.070068
0.055878
0.028214
0.078430
0.036835
-0.061920
0.098999
-0.020294
-0.076477
0.037079
0.063782
0.013016
0.051208
0.062561
0.086975
-0.031372
0.054993
-0.074707
0.006077
-0.075378
-0.051453
-0.004505
-0.052917
-0.053619
0.034180
0.015717
0.081848
0.037323
-0.073853
-0.002703
-0.097595
0.030685
-0.038147
0.074463
0.032684
-0.024719
0.052216
0.085999
0.070984
-0.026688
0.012688
0.011482
-0.041351
0.032013
0.061127
0.034088
0.070007
0.052246
-0.079712
0.058014
0.065369
-0.031921
0.018768
0.027847
0.071655
0.061066
-0.019791
-0.045319
-0.034760
0.070740
0.046570
0.029083
0.008301
0.018433
-0.020248
-0.062164
0.086731
-0.073547
0.057129
0.071960
0.018387
0.062622
0.018204
0.094238
-0.012466
0.007812
-0.006702
0.062042
0.006622
0.048615
-0.061462
0.011833
0.004066
0.035248
0.078857
0.001680
0.091309
0.066589
-0.039520
0.029083
0.011314
-0.019775
-0.072205
-0.080811
-0.027435
0.064514
0.004608
0.072327
-0.076660
-0.086670
-0.036682
0.000844
-0.040375
0.059479
-0.025406
0.019089
-0.064026
0.066345
-0.034088
0.078735
0.006672
-0.029160
-0.068115
-0.060791
-0.013542
0.070190
-0.007038
-0.035583
0.008133
-0.032654
-0.073059
-0.049194
-0.036652
-0.033447
-0.001961
-0.033936
-0.005100
-0.018677
0.064453
0.082703
0.037384
0.079346
0.077881
0.007298
-0.005707
-0.042450
-0.028259
-0.007446
0.037567
0.034485
0.083313
0.089111
0.075378
0.004547
0.031982
-0.064026
0.002020
-0.093872
-0.076172
-0.008583
-0.034119
0.060638
0.056915
-0.064331
-0.005825
-0.014404
-0.011566
0.008392
0.039978
-0.034637
0.001690
0.002388
-0.065063
0.089600
0.058624
-0.005417
-0.038116
-0.015480
0.050446
-0.031433
-0.089966
0.039978
0.094666
0.060089
0.088501
0.063232
-0.037262
0.031708
-0.027542
0.067139
0.066467
0.006763
-0.079346
0.071960
-0.036682
-0.049500
0.022430
0.058960
0.057556
-0.024628
0.015160
-0.047638
-0.007160
-0.062744
0.043610
0.042389
0.036224
-0.048706
0.093750
-0.057220
-0.017639
0.010826
-0.042664
-0.007462
0.015778
-0.028961
-0.016312
-0.043274
0.021271
0.082092
0.020554
0.092957
-0.006493
-0.056885
-0.075928
-0.046722
-0.064697
0.020752
0.024017
0.026382
-0.039642
-0.004974
-0.057129
-0.000363
0.084106
-0.057892
-0.048035
-0.086426
-0.009514
0.056610
-0.041626
0.019821
0.035767
0.017151
0.069702
0.078552
0.054352
0.066589
-0.064758
0.087402
-0.044037
-0.013695
0.042908
0.012398
0.013412
-0.091614
-0.050995
-0.001591
-0.024307
0.080994
0.098206
0.096191
0.090698
0.032471
-0.067078
0.092224
0.043884
-0.020065
0.077820
-0.097351
-0.054901
0.086609
0.067810
0.060913
-0.050934
-0.025772
-0.011703
-0.002081
0.054749
-0.037079
-0.075317
0.051208
0.086975
0.051727
-0.064941
-0.018631
0.010880
0.012672
0.006485
-0.049500
-0.092712
-0.034515
0.013374
0.006672
0.018127
-0.066650
-0.045013
0.007759
0.009720
-0.026550
0.067688
-0.052368
-0.063354
-0.017578
0.026733
0.018539
0.055847
0.054047
0.086304
0.035126
0.090027
-0.017181
0.006691
-0.048065
-0.042084
0.025757
0.000951
-0.088562
-0.013481
-0.008026
-0.064209
0.011505
-0.057709
-0.088623
0.085815
0.005020
-0.057495
-0.074768
-0.050995
0.025238
-0.025742
0.014442
-0.062500
-0.080505
-0.012291
0.097473
0.016098
0.071655
0.057678
0.036926
0.005672
0.002087
0.047668
-0.024170
-0.031128
-0.012566
0.091492
0.049469
0.040131
0.058289
0.038635
0.064331
0.085999
-0.024200
-0.039307
0.050690
0.052277
0.000015
-0.014778
0.059021
-0.042938
0.057373
-0.069458
0.034576
0.031021
-0.019623
-0.044739
-0.090027
0.064270
-0.034058
0.017212
-0.035736
0.046051
-0.002571
-0.047638
0.084473
-0.048309
-0.000271
0.063599
0.003647
-0.052612
0.055298
0.018616
-0.032257
0.035156
-0.043091
-0.030289
0.070923
0.033020
-0.002548
-0.017532
0.013405
0.071655
-0.061951
0.045410
0.018478
0.042511
-0.085144
-0.052765
0.018143
-0.070984
-0.052155
-0.024277
-0.084534
-0.038544
0.071045
-0.049652
0.014023
-0.001603
0.073669
0.003263
0.035187
-0.039673
-0.059998
0.069214
-0.002703
0.023987
-0.040161
-0.063965
0.076538
-0.078857
-0.049500
0.071472
0.028183
0.020752
-0.078613
-0.033081
0.049347
0.061737
0.003365
-0.081421
0.073425
-0.042969
-0.014069
0.026382
0.065247
-0.074646
0.069702
-0.014877
-0.001199
0.076416
0.002668
0.034393
0.030731
0.057251
-0.018768
-0.005058
0.000431
-0.002665
0.003416
-0.022583
-0.092163
0.011566
0.078857
0.040894
-0.048370
0.090271
-0.034058
0.052155
0.049713
0.047943
-0.039917
0.016495
0.005032
-0.024338
-0.053162
0.036163
0.092407
-0.001616
-0.052002
-0.049042
-0.023651
0.085938
-0.078552
0.072876
0.085571
-0.087708
0.022995
0.059570
0.097107
0.003036
0.082825
-0.008064
0.072876
-0.043396
-0.074585
0.052490
0.002207
0.059509
0.021500
-0.087280
-0.067444
0.019760
0.015854
-0.057526
-0.080505
0.034576
0.045135
-0.016891
-0.031738
0.020218
-0.087952
-0.014404
-0.020782
0.065735
-0.062988
0.019867
0.085327
-0.064758
-0.067932
0.063660
0.051086
0.072754
0.054993
-0.090942
0.009773
-0.001189
0.025314
-0.045929
-0.021271
-0.000759
-0.000075
0.066101
-0.058105
-0.034027
0.038300
0.049438
-0.055237
0.093750
-0.025787
-0.003071
-0.096558
-0.011642
-0.010429
-0.059113
0.056641
-0.073120
-0.002035
-0.001190
-0.008942
-0.029160
0.037140
-0.059814
0.077576
0.021133
-0.045898
0.001555
-0.047791
0.050415
-0.072998
-0.048553
0.080017
0.070923
0.008621
0.004635
-0.054901
0.023102
-0.037598
-0.008339
0.013374
0.002718
-0.039642
-0.058075
0.014580
0.087463
0.041199
0.062988
0.019272
0.007660
0.066162
0.022308
-0.038452
-0.058594
-0.083923
-0.015411
0.058105
0.005627
-0.013298
0.066101
-0.097534
0.008591
0.006771
0.025711
0.081238
0.072449
0.085876
0.051270
-0.000539
-0.016342
0.033875
0.109863
-0.015884
0.095093
0.080933
0.017685
-0.002253
0.039795
0.025589
-0.057617
-0.029602
-0.018341
0.033997
0.015106
-0.047852
-0.024536
0.095032
-0.022522
-0.038055
-0.009079
0.060791
-0.026962
0.022949
0.043610
0.009659
0.055939
0.037964
0.053253
-0.047424
-0.091309
-0.033112
0.079712
0.046021
-0.068237
-0.074097
0.084900
-0.067017
-0.003227
-0.071594
0.078247
0.084229
-0.000592
0.002884
0.080017
0.065308
-0.004341
0.094116
0.087524
0.024445
-0.065063
-0.078674
-0.041626
-0.074524
0.043182
0.071899
0.013298
-0.059845
0.028641
0.056976
0.105713
0.035065
-0.014618
0.076172
0.024261
-0.019028
0.086304
-0.093384
0.015244
0.004692
0.070557
-0.064514
0.037903
-0.083740
-0.041779
0.039001
-0.073181
0.054901
0.058716
0.050476
0.049866
-0.042175
0.057739
0.030090
-0.042786
0.086914
-0.091248
-0.035095
0.070312
0.080688
0.048828
0.068665
-0.017746
0.002192
-0.003040
0.045929
-0.048584
0.010391
0.082947
0.081177
0.069153
-0.012283
-0.066772
0.015518
-0.042236
0.087463
-0.058380
-0.023834
-0.003639
-0.029892
-0.002930
0.021957
0.076660
0.063232
0.032867
0.046082
-0.043549
0.034027
0.017334
0.048065
-0.082825
0.076782
0.061676
0.026138
-0.077026
-0.074951
0.071960
0.065369
0.067749
-0.050354
-0.019440
-0.008354
0.007187
0.061646
0.048218
0.034363
-0.027740
-0.009453
0.056763
-0.065369
-0.015091
0.045807
0.020081
0.084106
-0.025497
-0.064392
-0.035126
-0.053986
-0.042419
0.024353
0.049377
0.050690
-0.005596
-0.063782
-0.035492
0.031616
0.040771
-0.013741
0.057220
0.034393
0.014725
0.078125
0.077881
-0.006050
-0.072998
-0.068115
0.063293
-0.034790
-0.024033
-0.053864
-0.011078
0.052155
-0.026093
-0.022659
-0.058777
-0.043091
0.001052
0.084167
-0.047607
0.020309
0.039307
0.025421
-0.012695
0.074219
0.087646
-0.017593
-0.035492
-0.075256
0.054016
-0.021973
-0.030563
-0.070801
-0.013802
0.042511
-0.069214
0.089783
0.022079
-0.071655
-0.030060
-0.070984
0.013054
-0.033386
-0.023407
0.089966
-0.021576
0.044678
-0.033600
0.072815
-0.041168
-0.056061
0.020737
0.083496
0.011246
-0.038788
0.021927
0.032867
0.013245
-0.022949
-0.072266
-0.035980
0.060944
0.018616
0.024963
0.000027
-0.015640
0.033661
0.068054
0.037659
0.078247
-0.051239
-0.062561
-0.012886
-0.086304
-0.083252
0.015503
0.039581
-0.011002
0.080566
-0.008347
0.014267
-0.062378
0.071472
-0.001681
-0.102112
-0.065063
-0.018402
-0.063477
0.068420
-0.037079
0.033142
-0.039062
-0.054657
0.048798
0.080933
-0.000645
0.015152
-0.058350
-0.027115
-0.026505
-0.022629
-0.034088
-0.010513
-0.028992
-0.000223
-0.046814
0.040710
-0.055176
-0.013168
0.021713
-0.079163
0.014633
0.010635
-0.001820
-0.080933
0.029510
-0.004627
0.072571
-0.056000
0.055511
-0.033813
-0.034119
0.023895
-0.050995
-0.019226
0.048920
0.071289
-0.044739
0.034882
-0.061951
-0.005016
0.060699
0.074402
-0.023514
0.018967
-0.033356
0.079895
0.049164
-0.085205
0.048187
0.054260
-0.054626
0.017609
-0.014626
0.054810
0.084412
-0.036255
0.035339
-0.018509
-0.052795
-0.054596
0.052612
0.041443
0.052551
0.065430
0.071594
0.056213
0.007511
0.027603
-0.054962
0.056854
-0.031128
-0.017441
-0.082458
-0.075317
-0.029510
0.090210
0.009354
0.036407
0.007721
-0.054871
0.106934
-0.037384
-0.080811
-0.042908
-0.051239
-0.057831
0.039948
0.005253
-0.045258
-0.007896
0.049072
-0.056549
0.059784
-0.042969
0.044891
-0.029694
0.061646
0.062134
0.044739
0.011208
0.053192
0.064270
-0.030457
-0.073242
-0.022293
-0.029999
-0.000820
-0.066223
0.016724
0.039520
0.066162
0.006836
-0.062683
0.101868
0.054535
-0.007549
-0.083740
0.005291
0.072327
0.069153
0.013733
-0.030045
-0.015640
0.092773
-0.072021
0.058014
0.019318
0.009789
-0.021484
0.013687
-0.007137
0.038025
0.021927
-0.078430
0.085693
0.086121
0.042114
0.076660
-0.052765
-0.075745
-0.008110
-0.018967
0.026794
-0.038330
-0.052429
-0.027756
0.049683
0.068542
-0.028168
-0.082703
-0.055511
-0.063782
0.004498
-0.047760
0.061768
-0.004795
-0.053680
0.072144
0.027130
-0.076355
0.087280
-0.079285
0.016891
0.109253
0.071594
0.067139
-0.055267
0.036041
-0.016357
-0.050171
0.105286
-0.001675
0.083557
0.011696
-0.022842
-0.045074
0.074707
0.054657
-0.026108
0.070801
-0.038086
0.096802
-0.065918
0.026123
0.046112
0.088440
-0.076477
0.044830
0.028275
0.011246
-0.045746
0.053375
-0.020996
0.010376
0.061768
-0.040833
-0.076172
-0.065552
-0.045959
0.012878
0.011543
0.072876
0.027725
0.061157
-0.040161
-0.035522
-0.016479
0.035461
0.070068
0.084351
-0.006794
-0.029007
-0.012970
-0.023926
0.080872
0.035583
-0.002468
0.070068
-0.038879
-0.062561
0.074158
0.092529
0.012634
0.073059
-0.010246
-0.035919
-0.051575
0.065735
0.073059
0.005234
0.018677
-0.080994
-0.042755
-0.015068
-0.052246
0.007935
-0.074280
-0.024902
-0.040833
-0.090759
0.025269
-0.064209
0.055664
0.080872
0.066528
0.034271
-0.050964
0.010536
-0.052368
0.069519
0.104309
0.053467
-0.065002
0.092468
0.098267
0.034882
0.005768
0.018600
-0.097412
0.098206
0.083435
-0.028717
-0.045898
0.037231
-0.001172
-0.054565
0.076416
0.057709
-0.048767
-0.059082
0.023697
-0.045410
0.036163
0.059479
-0.020340
-0.019714
0.059448
-0.092896
-0.061371
0.102356
0.049408
-0.038971
0.037506
0.041870
-0.059937
-0.054626
0.052094
0.035187
0.111816
-0.070435
0.033905
-0.070374
0.016571
-0.031128
0.046814
0.020905
0.039062
-0.051392
-0.052704
-0.060944
0.034668
-0.003504
-0.032501
-0.008812
0.009590
0.043365
-0.047333
-0.035583
-0.012047
0.078430
0.019867
0.043915
-0.004982
0.057587
0.059723
-0.075928
0.030029
0.074768
0.007812
-0.024612
0.058258
0.024979
0.004845
0.021881
0.060791
0.067993
0.050171
-0.096619
0.071350
0.055695
0.022293
-0.043365
-0.081116
0.034760
0.042603
-0.040222
-0.058563
0.002632
0.001495
-0.055420
0.066711
-0.068848
0.078674
-0.019775
-0.029541
-0.054474
0.032471
-0.003815
0.084900
0.009628
-0.077271
0.071533
-0.035583
0.001442
0.084412
-0.095276
-0.083374
-0.023056
-0.077209
0.038971
-0.080139
-0.030380
0.025375
-0.029007
0.085876
-0.028137
0.041351
0.051086
0.047729
0.053284
0.065735
0.084229
0.046143
0.079956
0.046112
-0.014893
-0.055603
0.007320
0.055267
-0.016495
0.032532
-0.009033
-0.025726
-0.101379
-0.000727
0.000703
0.011726
-0.029434
0.042694
-0.002968
0.038605
0.080505
-0.031769
-0.035126
-0.035919
-0.048523
0.040527
-0.010948
-0.069458
0.018997
-0.024246
-0.055725
0.055389
0.050568
0.001986
-0.011757
-0.076538
0.020187
0.068787
0.024658
0.047882
0.013504
-0.030579
-0.042358
-0.086060
0.008308
0.017044
0.026367
-0.022461
0.086853
-0.017685
0.048615
0.063721
-0.017166
0.069397
0.016998
-0.019012
-0.012581
0.005871
0.025803
0.002111
0.062469
-0.012016
-0.056885
0.018036
0.067810
-0.011505
0.049225
0.030579
0.070007
-0.002438
0.076721
-0.093750
-0.027954
-0.033783
-0.077026
-0.053345
-0.009346
0.016708
0.027451
-0.037476
0.005005
-0.091187
-0.063416
0.075012
-0.043640
0.081543
-0.048767
0.018295
0.063049
0.071960
0.079407
0.070740
0.011505
-0.032959
-0.004993
0.055145
0.079224
0.055603
-0.028763
-0.003859
0.026093
-0.071228
-0.040680
-0.048157
0.061279
0.069946
0.028244
-0.071167
0.078918
0.046692
0.056641
-0.076355
-0.059143
0.040710
0.003744
-0.058777
-0.016357
0.007145
-0.079773
-0.036316
0.018250
-0.002930
0.077637
0.064697
-0.065918
0.103271
-0.040222
-0.006500
0.010185
0.035828
0.007011
0.051971
-0.095215
0.017593
-0.029205
0.038849
-0.085022
0.060089
0.016052
0.076599
0.046509
-0.000825
0.039032
0.049744
-0.071472
0.049103
-0.086609
0.012558
0.033447
0.022476
0.016373
0.053101
-0.064575
0.021011
0.097290
-0.006790
0.020004
-0.060516
0.051392
0.024246
-0.049866
-0.066956
-0.062988
0.077637
-0.062378
0.052948
-0.061005
-0.072083
0.070618
-0.008820
-0.054779
-0.001307
-0.004219
0.000710
0.012054
-0.027756
-0.027878
-0.049561
0.036743
0.096924
-0.007904
0.045502
-0.012718
-0.070984
-0.078186
-0.012001
-0.081909
0.034760
-0.052643
0.065002
0.078552
0.026154
0.003128
0.039032
0.112000
0.035645
-0.084656
0.100769
-0.065979
-0.085022
-0.019073
-0.039612
-0.026337
-0.013885
-0.008423
0.080383
-0.062469
0.073181
0.017105
-0.015190
-0.058899
-0.040710
-0.012650
-0.019867
-0.061310
0.051453
-0.003168
-0.070679
-0.061340
-0.049500
-0.055267
0.092834
-0.055908
0.022552
-0.018661
-0.081909
-0.019836
-0.029572
0.038361
-0.014420
0.037781
-0.021225
0.001644
-0.084595
-0.062500
0.025833
0.025101
0.072266
-0.027863
-0.008217
0.006039
0.018539
0.083374
0.063232
0.080566
-0.064392
0.020721
0.062012
-0.035889
0.068909
-0.009132
0.068726
0.068909
0.028183
-0.014641
-0.089966
0.092224
0.020462
0.060516
-0.008911
-0.051453
0.027206
-0.073792
0.055176
0.003813
-0.011169
0.002014
-0.051880
0.013008
0.028534
-0.034790
-0.059296
0.005398
0.055725
-0.012955
-0.046265
-0.041138
0.058960
-0.009499
0.068848
-0.014183
-0.030640
0.052429
0.053375
0.012230
-0.089172
0.007767
-0.056091
0.087830
-0.005013
-0.066040
0.053101
-0.038422
0.070923
0.005146
0.030304
0.042816
0.043152
-0.037598
-0.030487
0.006561
-0.011810
0.074280
0.062317
0.079102
-0.024323
0.004837
0.041504
0.058594
-0.037994
0.042572
-0.023178
0.044495
-0.001173
0.050629
-0.003736
0.038147
0.059448
0.073303
0.062744
0.010078
-0.047272
-0.018005
-0.011314
0.074585
0.015175
0.071167
-0.086060
-0.023758
0.018280
-0.041290
-0.018311
0.052734
0.042969
-0.009132
-0.080078
-0.049652
-0.005138
0.078613
-0.014343
0.083252
0.012711
0.041992
-0.073486
0.037201
-0.090942
-0.038696
-0.045349
-0.041046
-0.042023
0.008347
0.042358
-0.087097
0.061249
0.044983
-0.046539
-0.062469
-0.023483
-0.074890
-0.009453
0.011093
-0.048157
-0.051605
0.000044
-0.051941
-0.050171
-0.017548
-0.074463
0.019333
0.005013
0.060150
0.002312
-0.082458
0.035004
-0.083313
0.050201
0.075867
-0.037964
0.014503
-0.046417
0.028061
-0.012024
-0.063721
0.064148
-0.004559
0.083252
0.056976
-0.051819
-0.079224
0.024261
0.031097
0.072144
0.088623
-0.014641
0.077209
0.016785
0.073486
0.082581
0.079651
0.031174
0.008255
0.075439
0.037018
0.043732
0.050323
0.019669
0.016464
-0.063965
0.026627
-0.028366
-0.036957
0.064636
-0.087341
0.072998
-0.024185
0.053406
0.027161
-0.007896
0.016647
-0.042206
0.030579
0.035248
0.006012
0.091797
-0.001608
-0.065125
0.076172
0.074524
0.078308
-0.020370
-0.034973
-0.075439
0.028717
-0.046692
-0.042389
-0.044617
-0.057007
-0.025604
-0.046326
0.035309
-0.049164
-0.000081
-0.001574
0.066406
-0.075500
-0.006268
0.083679
0.074036
-0.083313
0.044342
0.058411
-0.029800
-0.032013
-0.019211
-0.012871
0.046631
0.018158
0.009071
0.042450
-0.062866
0.078674
0.082764
0.014076
0.006374
0.044556
0.032043
-0.079834
0.072937
-0.073792
0.038727
-0.015778
-0.035248
-0.064819
0.034058
-0.054993
-0.060883
-0.059723
0.015762
0.061279
-0.022354
0.099304
-0.040436
0.015053
0.063477
-0.012611
0.050537
0.037231
-0.025696
-0.006592
0.029861
0.013504
-0.027802
0.023804
0.070862
-0.021744
0.004791
0.024597
0.082336
0.061432
0.049072
0.061554
-0.039215
0.018661
0.019150
0.022659
-0.038513
0.024429
0.005253
-0.061462
-0.023697
0.017410
-0.077881
0.000880
0.079163
-0.105164
0.055145
-0.007065
-0.031158
0.010124
-0.001000
-0.044464
-0.006512
0.042023
0.016144
-0.002262
-0.053528
0.091553
-0.016373
-0.000682
-0.059082
-0.003185
0.034393
0.029022
0.010757
0.083923
0.030167
0.059570
-0.065735
-0.031342
0.054382
-0.033508
0.126953
0.007252
-0.030029
0.033081
-0.096436
0.047363
0.088867
0.085571
0.055054
0.065674
0.043091
-0.015602
0.082275
-0.049591
0.063843
0.048126
0.043762
0.055054
-0.022598
-0.069763
0.029160
-0.033905
0.032684
0.041504
-0.056671
0.099243
0.082825
0.012787
0.090393
-0.006470
0.062988
-0.072266
0.012848
-0.087280
-0.012115
-0.081604
-0.074707
0.005638
-0.034241
-0.089844
-0.099548
0.067322
-0.002195
-0.090332
-0.040985
-0.035889
-0.060577
0.026169
-0.090759
-0.060547
0.076233
0.036316
0.029236
-0.065796
-0.034424
0.092529
0.099426
-0.085449
-0.067261
-0.016983
0.033112
0.019318
0.008293
-0.023621
-0.036163
-0.018112
0.057709
0.092041
-0.049927
-0.067078
0.023010
-0.003855
0.011520
-0.005096
-0.021881
0.075317
-0.024445
0.070923
-0.019592
0.032104
-0.004379
0.072998
-0.016174
-0.095947
0.083862
0.093872
0.037018
0.027542
-0.056915
0.018433
0.001989
-0.062286
0.013519
-0.017014
0.006908
-0.013008
0.069580
0.067383
-0.026978
0.018539
0.008362
-0.037231
-0.075806
-0.059967
-0.078796
0.050201
-0.087830
-0.054321
0.024475
0.079956
0.000265
0.069519
-0.065918
0.040222
-0.009415
0.083679
-0.012032
0.066956
0.083740
0.008240
-0.005486
0.050262
0.068420
-0.053955
-0.066406
0.042206
0.063599
-0.020203
0.047516
0.023132
-0.083618
-0.018982
-0.040680
-0.053101
0.091919
0.070679
-0.056427
0.093201
-0.062042
0.073181
-0.026230
-0.009056
-0.023483
-0.051300
0.054077
0.057159
0.081848
-0.010124
0.090149
-0.008339
0.104248
0.109192
-0.015945
-0.018219
0.076355
-0.002544
0.079285
-0.063293
-0.011467
-0.054810
0.037964
0.044708
0.058502
0.098328
0.001756
-0.040314
-0.056152
-0.082947
-0.030167
-0.076477
-0.082336
-0.055664
0.093750
-0.018448
-0.093079
-0.025558
-0.046417
0.027267
-0.028076
0.035828
-0.007580
0.010902
0.013481
-0.051910
-0.040253
-0.059967
0.069092
0.050415
-0.052673
0.087830
0.078064
-0.024323
0.058868
-0.046967
0.085754
0.021408
0.068420
0.063538
-0.047119
-0.051544
-0.091492
0.037537
-0.068054
-0.039368
-0.066223
-0.043030
-0.044250
-0.063416
0.048981
0.054077
-0.032654
-0.051697
0.000255
0.032654
0.036072
0.082031
0.067200
-0.001953
0.000412
0.067993
0.036591
0.091492
0.021225
0.037781
0.029251
-0.072815
0.071838
-0.036560
0.093933
-0.076477
0.014740
-0.068848
-0.061707
0.073486
-0.078247
0.064026
0.016815
-0.068420
-0.032257
0.074829
0.011322
-0.081665
0.073059
0.078247
0.015610
0.022705
-0.046753
0.034485
0.014427
-0.055176
0.025803
0.015465
0.086548
-0.027817
0.035065
0.054962
0.089417
0.008972
0.070984
-0.011871
-0.048096
0.008308
-0.049866
0.035461
0.009705
0.053467
0.022781
-0.062469
-0.006012
0.015656
-0.061737
0.044800
0.001811
0.009872
-0.001218
0.068665
-0.076599
-0.080994
-0.008789
0.016129
0.079895
-0.057526
0.003439
-0.051392
0.053314
0.064758
0.070862
-0.059814
-0.012367
0.047577
-0.010422
-0.074768
-0.027359
0.093384
-0.068481
-0.051361
-0.050751
-0.078613
0.034882
-0.051056
0.034515
0.029037
0.063782
0.019516
0.030029
0.012871
-0.005798
-0.024399
-0.007484
0.055664
-0.042297
-0.086426
-0.066711
0.000547
-0.056732
0.067993
0.034210
-0.085449
0.089111
-0.026047
-0.042877
0.080322
-0.012672
-0.023941
0.068359
-0.076660
-0.032288
-0.013374
0.048950
0.022446
0.078491
0.038696
0.016968
-0.055695
-0.030869
-0.068909
0.031799
-0.049011
0.074463
-0.006153
-0.033630
-0.023407
-0.020920
-0.069458
0.080750
-0.008102
0.038910
0.033905
0.026718
0.023346
0.035553
0.049774
0.005890
0.062927
-0.080688
0.086304
0.067749
-0.002731
-0.007820
-0.071045
0.006439
-0.068359
-0.051758
0.085327
0.058289
-0.036255
0.106384
0.032349
0.021698
0.010803
-0.055237
-0.075073
-0.005692
-0.085938
-0.087891
0.080933
-0.082275
-0.034546
0.070557
0.037384
-0.078064
-0.012276
-0.085938
0.073853
0.000575
-0.081055
-0.086243
-0.044830
-0.074951
0.070129
-0.050171
0.008881
0.014313
0.086975
0.002113
0.049255
-0.025574
0.048859
0.010239
-0.001202
-0.034760
0.092590
0.099792
0.121094
-0.064087
-0.026855
0.064392
0.075317
-0.016754
0.034180
0.001768
0.008766
-0.005871
-0.024612
-0.085876
-0.056885
0.046875
0.069153
0.069946
0.079529
-0.039825
0.028061
0.107361
-0.064880
-0.069641
0.034088
-0.024277
0.022110
0.084045
0.047363
0.027054
-0.019623
0.062073
0.060883
-0.010880
-0.062805
-0.079224
-0.012527
-0.075439
-0.010246
-0.054657
-0.049805
-0.070618
-0.002087
-0.080261
-0.054321
0.095032
-0.059265
-0.032410
-0.035767
0.004311
-0.085571
0.069397
-0.015701
0.038116
0.016830
0.046173
-0.083496
0.080994
-0.039276
0.029083
-0.032043
0.074280
-0.047607
0.045898
-0.018982
-0.048370
-0.064270
-0.034393
0.073608
0.016861
0.040985
0.057892
0.090820
-0.051117
-0.021652
0.032837
0.070740
0.032410
0.010704
-0.090637
0.051941
0.074463
-0.064636
-0.014313
0.028046
-0.026764
0.084595
0.072449
-0.054871
-0.050537
0.051270
-0.072998
0.047394
-0.071899
0.054077
-0.030624
-0.070618
0.031891
0.094849
0.099670
0.053406
0.004913
0.025589
-0.048767
-0.017639
0.071899
0.066345
-0.010544
0.010521
-0.084045
0.026047
-0.054230
-0.033417
0.059845
-0.055695
-0.043762
-0.020782
-0.013847
0.054260
-0.078613
0.016953
-0.002527
0.080017
-0.074585
-0.084900
-0.051941
0.084229
-0.044556
-0.037079
-0.052795
-0.048553
-0.000024
0.032135
-0.026550
-0.035400
0.057129
-0.062225
0.004082
0.000035
-0.001743
-0.056763
-0.027542
0.004864
-0.029953
0.064331
0.007812
-0.068237
-0.033417
-0.055328
0.064880
-0.038757
-0.040253
0.027527
-0.039978
-0.068665
-0.080200
0.048035
0.056183
-0.045227
0.003544
0.062927
-0.027481
0.039429
-0.057312
-0.041962
-0.090271
-0.047821
0.006939
-0.045532
0.033051
0.018524
-0.090515
-0.078369
0.051361
-0.039246
-0.015228
-0.057373
0.045624
-0.050018
-0.008270
-0.020981
-0.062073
0.075500
-0.032806
0.009079
0.003508
-0.026489
0.099487
0.003742
0.008385
0.099731
-0.040741
-0.047333
0.054016
-0.025009
-0.044006
-0.078796
0.027191
-0.064270
0.069763
-0.013878
-0.024643
0.041534
-0.089966
-0.084290
0.001366
-0.008698
0.055603
-0.060150
-0.011139
0.078735
0.035645
-0.011879
-0.047058
0.042053
-0.071777
-0.076599
0.054962
-0.069397
-0.068970
-0.045868
0.026917
0.086975
0.035034
0.021683
0.036011
0.034271
-0.004166
-0.042938
-0.068665
0.013039
0.054688
-0.062469
0.076477
0.016113
0.038727
-0.049164
0.002047
0.068848
0.065002
0.078979
-0.066345
0.061066
-0.085327
-0.036011
-0.043457
0.063904
0.093872
-0.072449
0.005707
-0.072510
0.074280
0.042236
0.009392
0.067444
0.102783
0.088867
0.057373
0.044586
0.054382
0.060791
-0.051758
0.051514
0.051666
0.093384
0.095703
-0.051910
-0.053101
-0.075745
-0.025406
0.012978
0.062012
-0.036682
0.102295
0.081116
-0.038116
0.028152
-0.036255
0.040375
-0.007507
-0.041199
-0.086792
0.029083
-0.035187
0.043640
-0.019531
0.050842
0.046417
0.091614
0.030212
-0.034668
-0.065552
0.028503
-0.054840
0.064758
0.043915
0.044556
-0.010132
-0.048126
-0.051392
0.012642
0.094849
-0.058594
0.081421
-0.019562
0.045532
-0.002474
0.069458
-0.018417
-0.018936
-0.063354
0.066833
-0.054108
-0.046509
-0.002193
0.044830
0.033386
0.016159
-0.072815
0.019012
0.034698
-0.054810
0.055969
0.085571
-0.016495
-0.008659
0.047760
0.058929
-0.054901
0.068604
0.011604
0.069336
-0.046082
-0.043427
0.049194
0.046783
0.048492
0.050659
-0.012268
0.004482
0.056732
-0.025223
0.040131
-0.014771
-0.052673
0.034637
-0.052490
0.078674
-0.069275
0.028732
-0.007763
-0.053406
-0.075317
0.012077
-0.062225
0.043762
-0.065002
0.063293
0.072571
0.014488
-0.008156
-0.054779
-0.069214
-0.002836
0.044495
0.080383
-0.056396
-0.003464
0.083008
0.082642
0.045990
0.084595
-0.077942
0.012985
-0.007957
-0.032928
-0.021057
-0.037659
-0.079285
0.057770
-0.061615
0.041351
0.028610
0.011650
-0.001171
0.000998
-0.015427
-0.014015
-0.077576
-0.022888
-0.018982
-0.079407
0.010040
-0.051422
-0.079407
0.016953
0.078674
0.009850
-0.023804
0.062347
0.050232
0.044800
-0.011742
-0.065796
-0.015373
0.001137
-0.031708
-0.056885
-0.085693
0.036774
-0.077759
-0.037903
0.079712
-0.008667
-0.041626
-0.060516
-0.053070
0.027542
-0.008469
-0.067139
-0.007668
-0.051392
0.076355
-0.041748
-0.037537
0.036407
0.048859
0.044800
0.032501
0.049530
-0.003424
-0.049652
-0.006767
-0.037689
0.028854
-0.041321
0.068909
0.058594
-0.037659
-0.082275
-0.079834
-0.060669
-0.025635
-0.045715
-0.049011
-0.076904
-0.039917
0.051056
-0.000125
0.018326
0.084961
0.042969
0.069397
-0.005589
0.069885
0.077454
-0.004345
0.069702
0.090759
-0.044891
-0.018845
0.077454
-0.000573
0.050995
0.027283
-0.010254
0.068726
0.088135
-0.084229
0.077576
-0.017059
0.054565
-0.026550
0.016602
0.058319
0.086914
-0.001825
-0.029572
0.081299
-0.034790
-0.019547
-0.004681
0.062073
0.083984
-0.082703
-0.058685
-0.063599
-0.016479
-0.031647
-0.012184
-0.054657
-0.076721
-0.067322
0.014389
-0.037109
-0.018219
0.050781
0.017014
-0.056885
-0.061401
0.057404
-0.040771
-0.081848
0.010460
-0.029099
0.002716
0.043976
0.039948
-0.033142
-0.061798
0.069702
0.041504
0.075806
0.071289
-0.006645
0.008781
-0.007851
-0.058319
0.109497
0.052704
0.092590
-0.013062
0.005394
-0.063660
-0.006794
0.024216
0.063965
0.079712
0.020279
0.002275
-0.019653
-0.020447
0.091980
-0.057007
0.021179
0.082275
-0.076843
0.050476
-0.068176
-0.062378
0.096436
-0.038879
0.093628
0.092712
-0.013832
0.032104
0.010292
-0.079163
-0.040680
0.070374
-0.016922
0.012749
-0.052338
-0.019348
-0.047546
0.028778
-0.048553
0.043335
-0.051483
-0.001853
0.077332
0.048004
0.028305
0.088135
-0.071594
-0.047638
-0.061371
-0.022583
-0.010300
0.033478
0.046570
0.060425
-0.064087
-0.037170
0.039093
-0.077148
-0.053345
0.067566
0.057404
-0.004494
-0.073242
-0.062683
0.072754
-0.031586
0.066711
-0.002478
-0.045563
0.039246
-0.069275
0.079895
-0.027924
0.044983
0.033173
-0.008812
-0.021179
-0.074036
-0.000757
0.045532
0.067810
0.083252
0.081665
0.083008
0.013138
-0.006214
0.051636
0.088867
-0.054474
-0.082214
0.076355
0.050659
0.042908
-0.002735
0.065308
-0.009926
0.029190
0.054993
0.033936
-0.052124
-0.009911
0.082520
-0.014473
0.068054
0.070618
-0.037018
-0.028152
-0.080139
0.084045
0.089539
0.039917
-0.030441
0.049255
0.076477
-0.047729
-0.020889
-0.080261
-0.054108
-0.073975
0.039185
0.018585
0.035400
-0.066406
-0.081787
0.010307
0.001450
-0.029648
0.047821
-0.026245
-0.045197
0.063416
-0.020523
0.016586
0.007950
0.084656
-0.000700
0.026566
-0.010628
-0.004868
0.095459
-0.071594
0.058075
0.044464
0.014252
-0.074646
-0.051147
-0.047729
-0.057861
0.005833
-0.060059
0.092346
0.015823
-0.022537
-0.081299
0.003096
-0.046234
-0.035034
0.062988
0.043732
-0.073730
0.052307
0.001710
-0.040253
-0.042542
-0.064697
0.006489
-0.018356
0.091858
-0.054565
-0.001255
