0.091109
0.037902
0.002728
-0.030512
0.006750
-0.014071
-0.032606
-0.050485
-0.074117
0.066732
0.018230
-0.062111
0.057944
0.052945
-0.035552
0.014541
-0.036223
-0.095204
-0.066496
-0.009943
-0.038475
-0.002268
0.058018
-0.032021
-0.070450
-0.019911
0.046495
0.049536
-0.020614
0.009798
0.019222
0.031648
0.028329
0.003948
0.041867
-0.046420
0.086014
0.081378
-0.057278
0.083277
0.064285
-0.015736
-0.063108
-0.049318
0.042609
0.017032
-0.083423
0.029531
0.016350
-0.051946
-0.020361
0.048913
-0.027277
0.046233
-0.067405
-0.022499
0.046668
-0.024510
-0.088361
-0.067469
-0.054139
0.065451
0.064617
-0.023596
0.029220
-0.078243
-0.006777
-0.050586
0.017839
-0.054041
0.025271
-0.016231
0.011689
-0.018845
0.005988
0.062522
-0.054757
-0.060627
0.010970
0.042594
-0.052885
-0.071040
0.064512
0.014180
-0.032885
-0.059618
-0.036159
-0.025202
0.008929
-0.090608
0.020651
0.014636
-0.053775
-0.062300
0.030767
-0.020187
0.034039
-0.038023
0.054080
0.087062
-0.029663
-0.060921
-0.001738
0.034597
0.006991
0.059882
-0.089062
0.072461
0.002359
-0.075893
-0.096489
0.010715
0.065148
-0.003254
0.071712
-0.083732
0.015796
0.001510
-0.037316
0.053600
-0.062534
-0.059885
-0.075064
0.016991
0.067395
-0.063092
-0.025787
0.034785
0.088574
-0.068646
0.030759
0.067478
0.014009
0.063577
0.053029
-0.018028
-0.057876
0.083273
0.059384
0.082266
0.002346
0.015430
-0.049140
0.060396
-0.009618
-0.102670
-0.007323
-0.028969
0.047917
-0.096586
0.079284
0.027324
0.046780
0.053280
-0.047514
-0.069282
0.056146
0.040460
0.088249
0.055381
-0.067235
-0.045330
-0.027552
0.077572
-0.022977
0.001070
0.034397
0.013887
0.057055
-0.083982
0.016168
0.031978
-0.098834
0.005226
-0.036536
-0.078129
0.028115
-0.022814
0.054813
-0.007786
-0.067992
-0.005683
-0.062133
0.056154
-0.110723
0.030633
-0.049188
-0.042585
-0.081387
0.021045
0.062631
-0.061617
0.007494
-0.084130
-0.032094
-0.032613
0.038076
0.004328
0.009275
0.007608
-0.064832
-0.088826
-0.083171
0.011159
-0.042967
-0.018934
0.037266
0.072672
0.098106
0.057818
-0.051939
0.061492
0.059524
0.036835
0.047479
0.041062
-0.073735
-0.071140
-0.074136
-0.095946
-0.030387
-0.028923
-0.070498
-0.012599
0.031605
0.038021
0.066579
-0.026148
0.081565
-0.073919
0.097779
-0.019436
-0.057552
0.087738
0.003457
0.042509
0.041086
0.076682
-0.031318
0.079846
0.047118
0.037734
0.006946
0.020446
-0.046927
0.063870
-0.021828
0.055974
0.012341
0.090900
0.089062
-0.077466
-0.081231
0.063664
0.107086
-0.005587
0.060217
0.033683
0.060104
0.091852
-0.016682
0.012821
-0.075716
0.072001
-0.093919
-0.087156
0.032339
-0.086770
0.007701
-0.076603
-0.050487
0.028223
0.028071
0.013815
0.086362
-0.007810
-0.005910
0.010272
-0.000815
-0.065860
-0.015559
-0.010875
-0.034323
-0.063227
0.076266
-0.071041
-0.057230
-0.065347
0.052540
0.010906
0.072489
-0.040048
0.044969
-0.076218
-0.042460
0.057906
0.024693
-0.041722
-0.011021
0.026925
-0.016835
0.012863
0.034895
0.011937
-0.029051
0.040487
0.025931
0.086066
0.001034
-0.026161
-0.077318
0.018527
-0.094020
-0.029350
-0.065449
-0.088232
-0.078684
0.025323
0.050204
-0.083024
0.078985
0.020926
0.074218
-0.059782
0.008464
-0.096335
0.006197
-0.043831
-0.043777
-0.021663
-0.079755
-0.049698
-0.068667
-0.074816
0.051340
0.033616
0.060088
-0.087810
-0.062098
-0.056386
-0.061133
0.028415
-0.008980
0.066357
0.013696
-0.078041
-0.003244
-0.053477
0.056508
-0.013302
0.072735
0.045582
-0.074951
0.053402
-0.043089
-0.046972
0.022277
-0.076316
-0.068046
0.013655
-0.063359
0.024406
0.068689
-0.002274
0.056938
0.008159
-0.014863
0.062177
0.074499
0.005574
0.027734
-0.042462
-0.023877
-0.043949
-0.041883
-0.003434
0.013218
-0.004133
0.018380
0.065714
-0.027054
0.065062
0.047981
-0.031932
-0.045079
-0.036385
-0.049028
0.009087
-0.072131
0.046895
0.053354
-0.072067
0.006129
-0.058041
0.042205
-0.015547
0.015676
-0.055965
0.069720
0.016005
-0.054554
0.077245
-0.007354
0.013105
0.061080
-0.035240
-0.019633
-0.072216
0.048776
0.027661
-0.015966
-0.043243
0.050763
0.081564
0.003702
0.025167
0.024961
-0.029568
0.077330
0.033538
0.013253
-0.100829
0.074497
-0.059636
0.038678
-0.024781
0.060599
-0.008388
-0.031794
-0.008900
0.040576
-0.009720
-0.059995
0.015115
0.056629
-0.068160
0.007403
-0.057279
0.027592
-0.062841
0.046896
-0.006751
-0.004182
-0.076014
0.100603
0.017021
0.020623
-0.070740
-0.035150
0.015840
-0.023665
0.020270
-0.091221
0.059578
0.021230
0.069145
-0.031056
0.051831
-0.019338
-0.033590
0.051129
0.061414
0.081251
-0.003289
-0.030471
-0.082047
-0.028653
-0.030538
0.026110
-0.027942
0.024354
-0.052839
0.046616
-0.075745
-0.008858
-0.044238
0.069989
-0.035311
0.049507
-0.088607
0.075691
-0.078678
-0.046283
0.001743
-0.080579
-0.012987
-0.059178
0.034659
-0.055990
0.087657
0.011908
-0.011348
0.017016
0.023218
0.083319
0.004081
-0.085600
0.068434
0.015337
0.032512
0.028770
0.092273
-0.021419
-0.068487
0.002505
0.012547
-0.030412
-0.022209
-0.051015
0.079188
0.026054
-0.049354
-0.019623
0.010477
-0.042561
-0.033245
-0.046482
-0.076467
-0.039183
-0.000550
-0.032074
0.000188
-0.037830
0.044099
0.002932
0.003326
-0.006637
0.018094
-0.051286
0.034720
-0.027242
-0.032319
0.096396
0.017731
-0.004753
-0.021750
0.018452
-0.044868
-0.071087
-0.054697
0.052450
0.062630
0.004395
0.006852
-0.038107
0.032383
0.052440
0.090634
0.024892
-0.084639
0.049829
0.015225
-0.079171
-0.013109
0.027184
0.073282
-0.058857
-0.060458
0.060848
-0.001847
-0.038408
-0.010069
-0.092102
0.068219
-0.071765
-0.037106
0.022505
0.075320
-0.026395
0.036950
0.010901
0.075792
-0.094330
-0.011053
-0.046371
0.019036
-0.028043
-0.045118
-0.038131
-0.071336
0.061093
-0.083969
-0.073438
0.071591
-0.068500
-0.013977
-0.065492
0.016452
-0.026273
0.045021
0.010202
-0.080283
-0.068510
-0.048626
-0.027025
-0.099003
-0.088792
-0.046964
-0.039591
-0.056942
0.086476
0.071039
-0.075246
-0.083177
-0.064603
0.046775
0.032984
-0.055089
0.037701
0.019347
-0.086277
0.041623
-0.050494
-0.064920
-0.040034
0.074059
0.069845
-0.042295
0.075906
-0.030248
-0.012575
0.035268
0.065087
-0.047584
-0.020293
0.056887
-0.012988
-0.073197
-0.023709
-0.001089
0.093165
0.038863
-0.051597
-0.058676
-0.053369
0.055653
-0.026970
0.058922
0.022019
-0.053264
0.048090
0.052720
0.083705
0.018812
-0.006310
-0.008182
-0.021143
0.060686
0.013588
-0.067244
0.030701
0.074478
0.063473
0.051906
-0.027883
-0.080947
-0.050345
0.090476
-0.003829
0.041399
-0.052943
-0.030026
-0.058403
-0.060402
-0.030956
0.093036
-0.029097
0.012249
0.038796
-0.037041
-0.011879
-0.017257
0.017294
0.040801
-0.045365
-0.074723
0.019554
0.084370
-0.031618
0.067742
-0.072919
-0.044826
0.007199
0.062935
-0.055652
0.092312
0.075194
-0.011245
0.068891
-0.052100
0.023933
0.024700
-0.040298
0.046045
0.065875
-0.004688
0.075800
0.037105
-0.039894
0.004291
-0.022307
-0.027953
0.070689
-0.034019
0.022310
-0.013844
0.033869
0.066744
0.057672
0.012310
0.077511
-0.058445
-0.004404
0.077282
-0.006352
-0.008459
0.071358
-0.070194
0.070367
-0.054666
0.074816
0.019153
0.070058
-0.008509
-0.007308
0.009121
0.004992
-0.008084
0.082484
0.071286
-0.004235
-0.058020
0.009354
0.022189
0.083148
0.076359
-0.076452
0.034357
0.073080
-0.040884
0.045090
-0.072200
0.023300
0.088347
-0.041887
-0.068299
0.066312
0.071455
-0.003916
-0.028326
-0.039440
0.076440
-0.026432
-0.074790
-0.062368
0.011072
-0.011692
0.001959
-0.067163
-0.012096
0.087262
0.032794
-0.008486
0.097881
0.003468
0.081248
-0.043759
-0.019757
0.046438
0.059621
-0.084663
0.018745
0.011536
-0.070772
0.011460
0.070178
0.058806
-0.053707
-0.004126
-0.078444
-0.026095
0.016497
0.047141
-0.054228
0.065166
-0.012461
-0.048199
-0.071027
-0.069493
-0.043647
-0.007622
-0.004281
-0.001317
-0.046890
-0.020409
-0.024416
0.047900
-0.010120
-0.014395
-0.076937
0.064106
-0.085501
0.062545
0.001214
0.005754
0.066187
-0.078366
0.005201
0.070047
0.074012
-0.010064
-0.073298
-0.040730
0.069225
0.058283
0.043115
0.010307
-0.046383
-0.027643
0.000428
-0.001834
-0.007039
0.000885
-0.060552
0.044772
-0.034857
0.024965
0.049225
-0.046349
0.006522
-0.088499
0.071711
-0.045255
-0.050821
0.014526
-0.073311
-0.080991
-0.047674
-0.055437
-0.077506
0.065625
0.080446
-0.093353
-0.057607
-0.058203
-0.030182
0.060537
0.011773
-0.066440
0.082034
0.073925
-0.039946
0.020441
-0.048481
0.032271
-0.042209
0.063951
0.010151
0.011494
-0.006742
-0.033875
0.058526
-0.032712
-0.027965
0.026368
0.006837
-0.037282
-0.051412
-0.021541
-0.054277
-0.066585
-0.056758
-0.041058
-0.011158
-0.001726
0.084673
-0.036412
0.051683
0.000680
-0.007293
0.066030
0.010041
0.010446
-0.007187
-0.064446
-0.025651
0.082609
0.096124
0.062915
-0.060225
0.034220
0.054273
0.007643
-0.027062
0.000443
-0.088051
-0.062765
0.003463
-0.063441
-0.057031
-0.062017
-0.002354
0.041254
-0.039433
0.025345
0.027212
-0.020707
-0.057981
0.044769
-0.009716
-0.004688
0.005299
0.050011
-0.044188
-0.028704
0.066422
0.074609
0.058296
0.069480
-0.059853
-0.028243
0.012567
-0.061219
-0.002241
-0.016854
-0.014271
0.079542
0.028906
0.007110
0.007859
-0.040361
0.037239
0.008107
-0.014076
-0.043656
-0.050725
-0.079919
-0.056250
-0.019455
0.043560
0.067131
0.054067
0.059137
-0.038269
-0.041387
0.022152
-0.062167
0.026255
-0.012824
0.041427
0.065268
-0.073919
-0.046595
0.021835
-0.075246
-0.044708
0.001861
0.059133
-0.066786
0.027643
-0.014378
0.075576
-0.073051
0.049823
-0.076581
0.077441
-0.047577
0.014969
0.024380
0.055387
0.008323
-0.097466
-0.085011
-0.035578
0.011535
0.000876
-0.031092
0.036563
0.019149
0.035170
-0.056492
0.014050
0.030770
0.013155
0.092771
-0.034956
0.023155
0.097945
-0.055841
-0.049334
-0.057420
-0.070263
-0.057170
0.047756
0.062485
0.052992
-0.019191
0.043846
-0.001590
-0.097086
-0.075366
0.061468
-0.064843
-0.012554
0.009876
-0.048496
0.024369
0.047274
-0.050199
0.024730
0.020239
0.010498
0.079046
0.055431
0.074575
0.035575
-0.068109
-0.053717
-0.012427
-0.061458
0.058739
-0.051565
-0.037013
0.013708
-0.049675
-0.037381
-0.015097
-0.040856
-0.039896
-0.064924
-0.050576
-0.031605
0.078884
0.063673
-0.067985
-0.024785
0.064443
0.071888
-0.048062
0.050820
-0.066527
0.085203
0.030196
0.077393
-0.036603
-0.016702
0.077639
-0.069563
-0.004020
0.041226
0.046736
0.042820
-0.008108
0.082948
0.059058
-0.068260
0.066189
0.005464
0.036161
0.062698
0.047157
0.003661
0.003132
0.012812
0.015816
-0.076069
0.043457
0.049213
-0.050630
0.061877
0.082294
-0.001533
0.082139
0.082493
-0.040705
0.042547
0.017376
0.092416
-0.040029
-0.024525
-0.021888
-0.031454
0.026145
-0.056775
-0.067795
-0.001644
0.067614
-0.090429
-0.039840
0.091755
0.103962
0.083131
0.083294
0.045760
0.047002
-0.017221
0.069227
0.092953
-0.066032
-0.085911
0.063907
0.088409
0.007886
0.049314
-0.039943
0.086061
0.020227
0.002633
0.040332
0.063838
0.054355
0.054048
-0.006653
-0.012010
0.066204
-0.060646
-0.065790
0.044998
0.029821
-0.043049
0.087434
0.049794
-0.009589
-0.013397
-0.017162
-0.030691
-0.024418
0.076524
0.043149
-0.041150
0.030265
0.066003
-0.061855
-0.040150
-0.007342
0.027181
-0.011997
-0.072092
0.024013
-0.111273
-0.026019
-0.063642
-0.005351
0.068198
-0.036965
-0.016028
-0.065636
0.013653
0.093564
0.039863
0.036910
-0.010132
-0.070578
0.089205
0.090578
0.084381
-0.071250
0.006376
0.032661
0.051475
0.087204
0.050374
0.071382
0.064134
-0.025255
-0.013964
0.037456
-0.011318
-0.031913
0.051177
-0.017877
0.037851
0.080079
0.075275
0.038186
0.049492
0.054292
0.077820
-0.010977
-0.091086
0.010659
0.003042
-0.088417
-0.018824
-0.066159
0.052483
0.000215
0.044952
0.003255
-0.010551
0.000617
0.065314
0.066334
-0.073299
-0.068988
-0.048125
-0.027495
0.001669
0.080834
0.077695
0.041476
-0.054309
0.063410
0.072631
0.058962
-0.075370
0.010934
-0.057276
0.081311
-0.025027
0.033318
0.033536
0.030033
-0.003321
0.001993
0.061899
0.030078
0.083588
0.040708
-0.046867
0.065810
-0.040438
-0.064336
0.019918
-0.037886
0.069128
0.081689
0.052164
0.072156
-0.017424
0.073604
-0.002673
-0.058734
0.074782
0.013239
0.038974
0.007908
-0.079411
-0.073113
0.000141
0.096752
0.058652
0.076936
-0.064420
0.003284
-0.069448
-0.054441
-0.081180
-0.065193
-0.009558
-0.082634
-0.082285
-0.032525
-0.022132
0.043372
-0.018852
0.069043
0.076047
-0.031951
0.070073
-0.060952
-0.053367
-0.060135
-0.032229
-0.084936
0.013020
-0.078758
0.046109
0.006312
0.006683
0.040130
0.040835
-0.009771
0.012597
0.030569
-0.057090
0.044612
-0.068047
-0.087202
0.070864
0.012636
0.044798
-0.060479
-0.016375
0.060441
0.018534
-0.000364
-0.022393
0.039764
-0.084489
0.002661
0.007838
-0.013328
0.077226
0.041134
-0.084534
0.049484
0.072692
-0.007210
0.040254
0.005562
-0.087634
-0.069587
0.037130
0.011755
-0.041220
-0.004005
0.072865
0.046950
-0.046528
0.021665
-0.031380
0.026318
-0.085665
0.048877
-0.036497
0.064470
-0.048394
0.025544
0.015269
0.020298
-0.062002
-0.031731
0.053513
-0.035586
-0.049516
0.078302
0.082531
-0.064635
0.031105
-0.078138
-0.026403
0.009143
0.077917
-0.017666
-0.089610
-0.028539
-0.079605
0.014683
-0.036109
0.023521
-0.063993
0.076380
-0.006944
-0.017471
0.064269
-0.026794
0.038150
-0.065027
-0.072573
0.008758
-0.003322
-0.031678
0.082018
0.027178
-0.017062
0.073862
0.014806
-0.077763
0.076865
-0.001755
-0.021544
-0.035122
0.068581
0.075059
-0.044415
-0.059507
-0.092969
-0.070010
-0.058543
-0.050292
0.044743
0.077014
0.057792
-0.002755
0.089595
0.055415
-0.038665
0.014887
-0.090871
-0.060860
-0.036880
-0.083898
-0.049509
-0.001826
-0.022194
-0.080835
-0.000189
0.005005
-0.055673
0.053682
-0.051193
0.021045
-0.037314
-0.088917
0.033620
0.082684
0.022617
-0.090623
0.037074
-0.026227
-0.021935
0.058612
0.015560
-0.005452
-0.077338
-0.025178
0.043176
0.085946
-0.012877
-0.016371
0.032011
-0.092169
0.015617
0.057305
0.004817
-0.046073
0.088078
0.018319
0.017421
0.024485
0.072298
0.074472
-0.013865
0.018555
-0.007715
0.070363
-0.086943
-0.029101
-0.050398
0.004433
-0.019587
-0.052796
-0.035782
0.042909
-0.041618
-0.031707
-0.045162
0.012095
-0.039897
0.084486
0.093703
-0.074062
0.071099
-0.058499
0.006781
-0.044275
0.059553
0.062099
-0.066906
-0.056200
-0.077778
-0.004980
0.061795
-0.083905
-0.070852
-0.021520
-0.072122
-0.001085
0.065099
-0.017627
-0.068976
-0.052705
0.037885
-0.080864
-0.007008
0.073077
-0.051061
-0.068924
-0.076226
-0.074928
0.058057
-0.016740
-0.049504
0.069908
0.021099
0.051917
-0.035065
0.005781
0.037679
0.019759
0.030302
0.064778
0.064771
-0.020828
0.051355
0.022325
-0.029421
0.076313
0.065175
-0.085914
0.001950
0.029555
0.058401
-0.085391
-0.038854
0.071011
0.062199
0.069802
0.088669
-0.057506
0.076183
-0.071745
-0.010961
0.019809
-0.004729
-0.047378
0.028924
-0.001124
-0.063323
-0.074656
0.032314
-0.034973
0.075249
0.085183
-0.029825
0.058252
-0.075202
-0.070991
0.023471
0.030445
0.030523
-0.045096
-0.021701
0.076139
0.050047
-0.053779
-0.061141
0.031824
-0.040348
-0.013741
0.051013
0.017190
0.081498
-0.025537
0.022599
-0.094735
0.000595
-0.022574
0.038055
0.016330
-0.027649
0.045457
-0.067760
0.082249
0.073296
-0.033486
-0.079678
-0.063664
-0.058734
-0.066747
0.057120
-0.073841
0.020474
0.029102
0.010524
0.004566
-0.013460
-0.019101
-0.044643
-0.052867
-0.100374
0.083101
0.081337
0.049334
0.054593
0.064342
-0.031606
-0.056910
0.019538
-0.071480
-0.106895
0.005016
-0.100539
-0.041202
-0.057672
0.056902
-0.074410
0.009512
0.070149
0.127868
-0.048701
0.017308
0.049895
0.072881
0.031288
0.051754
-0.013540
-0.026408
0.057886
-0.074123
-0.076041
-0.063119
0.013148
-0.003732
-0.011985
-0.043160
-0.070736
0.008241
-0.019890
-0.079679
-0.022603
0.032010
-0.004134
-0.059449
0.037570
0.047338
0.051520
-0.062059
0.094751
0.040573
0.030725
0.051222
-0.005404
-0.050907
0.080494
-0.071414
0.068047
-0.024987
-0.016643
-0.058381
0.014434
-0.007845
-0.070084
0.044084
-0.055446
-0.054575
0.039027
-0.018120
-0.041386
0.018321
-0.035746
0.009699
-0.052510
0.043029
-0.074876
0.029812
0.105984
-0.067650
-0.055992
-0.076735
-0.034547
-0.068551
-0.009217
0.035220
-0.057088
0.013462
0.020751
-0.094769
-0.030283
0.070359
0.011847
-0.039626
0.071517
0.056177
0.044898
0.019258
0.096791
-0.013230
0.023371
-0.037024
-0.064031
-0.037528
0.069545
0.087790
0.018807
-0.077946
0.082920
0.018773
0.068861
0.034464
0.059021
0.054675
-0.053286
-0.065532
0.027953
-0.026070
-0.046330
0.045681
0.015117
0.062712
-0.046672
-0.008449
0.051868
-0.045751
-0.060459
-0.030708
0.073351
-0.083739
0.046883
0.036286
-0.058171
0.021742
0.006355
-0.030974
-0.028446
-0.038759
0.041305
0.017543
-0.027201
-0.036562
-0.074968
0.078463
-0.036846
-0.046176
0.071657
0.038446
0.069740
0.002948
-0.012957
0.028200
-0.088453
0.036976
0.061848
0.030543
-0.026114
-0.000611
0.034497
-0.063284
-0.014148
-0.090874
0.008137
0.001625
-0.068361
0.043574
-0.004254
-0.006330
-0.084363
0.043128
0.038655
-0.023797
-0.075980
-0.056143
-0.002737
-0.026316
-0.013372
0.005951
-0.084671
-0.090970
-0.015249
-0.098264
0.017734
0.000123
0.017041
-0.031065
-0.088777
-0.006820
0.031452
0.011312
0.009337
-0.042599
-0.061659
-0.053674
-0.093028
-0.000380
-0.061197
-0.066114
0.065150
0.059115
-0.065428
0.023503
-0.002186
0.064472
0.057019
0.007112
0.038833
0.061607
-0.067104
0.020430
-0.071827
0.025562
-0.005581
-0.060322
-0.067562
0.046433
-0.038353
0.037855
-0.043033
-0.033960
0.055228
-0.087397
-0.066344
0.023217
0.072519
0.053742
0.058907
0.019207
-0.016042
-0.045972
-0.070208
-0.064864
-0.049535
0.001642
0.071676
-0.010280
-0.029814
0.002777
0.064850
-0.079407
0.045778
0.047196
0.059879
-0.036088
0.016818
-0.049825
-0.079002
-0.017350
-0.030449
0.032213
0.062411
-0.013462
0.040731
-0.040532
-0.064898
-0.038137
0.051321
-0.077500
0.018466
0.015996
0.033088
-0.017918
-0.078731
0.082974
-0.072476
0.011865
-0.024598
0.017980
0.075876
-0.073120
0.047422
-0.046400
-0.077683
-0.017634
-0.071611
0.025033
-0.030240
-0.015412
-0.053155
0.008440
0.049305
0.060942
-0.046228
0.075502
-0.084328
-0.005218
-0.037917
0.011482
-0.013413
-0.038709
0.063362
0.076621
-0.011289
-0.081408
0.028970
0.046673
-0.022806
0.060181
0.071334
-0.056631
0.008844
-0.033497
-0.035582
0.062830
0.044314
0.043784
-0.068083
0.015267
-0.072496
0.067032
-0.022838
0.016167
0.039798
0.025314
0.014418
-0.009055
-0.050393
0.013416
0.026010
0.068542
0.051896
-0.035354
-0.030046
-0.063723
0.049743
0.032597
0.064799
0.064879
-0.025660
-0.065299
0.036388
0.085769
0.018395
0.010972
-0.073455
0.010380
-0.056057
-0.065215
-0.056293
0.050047
-0.036645
-0.007764
-0.040675
0.031757
0.015965
-0.041563
-0.067708
-0.012288
-0.030331
-0.033518
-0.017985
-0.006181
0.022559
0.024401
0.043347
-0.075665
-0.020649
-0.014720
0.091429
-0.033192
-0.040289
0.085425
-0.079253
0.052222
0.044721
-0.098966
0.008514
-0.056161
-0.023378
-0.017991
0.021916
-0.054408
0.018835
-0.041083
-0.059172
0.005259
0.007926
0.044073
-0.089603
-0.082253
-0.033833
-0.033797
-0.051995
-0.048731
0.044312
0.059746
-0.083508
0.054258
0.003076
-0.056540
-0.039880
-0.020487
0.012772
0.021987
0.061511
-0.010315
-0.059002
-0.087596
0.019299
-0.011788
0.083120
-0.029927
-0.022146
-0.023738
-0.028574
0.015626
-0.019636
-0.017818
-0.023294
0.024685
0.015262
0.008200
0.007221
-0.027358
0.046820
-0.013479
-0.029474
-0.068345
-0.068629
0.016843
-0.019340
0.034692
0.058087
-0.070876
-0.065337
-0.050186
0.049791
-0.093331
0.031331
-0.056062
0.024916
0.077254
0.022515
0.014603
-0.019269
-0.001753
-0.000355
0.072162
-0.064090
0.047754
-0.031716
-0.008119
-0.089268
0.013928
0.073241
0.048269
-0.037671
-0.079933
0.002289
-0.058994
-0.055569
-0.072978
0.075272
0.028508
-0.079486
-0.000025
0.009405
0.065544
-0.059933
-0.007110
-0.029059
0.062517
-0.022480
-0.048227
0.065268
-0.067973
-0.084006
-0.034564
-0.029212
-0.035324
0.007036
0.019335
0.017941
0.018358
-0.014148
0.044561
0.057739
-0.081124
-0.096620
0.007774
-0.062529
-0.030026
0.072346
0.047900
0.023832
-0.067626
-0.060860
-0.085521
0.023460
-0.008789
-0.045706
0.005938
-0.039170
-0.038097
0.021661
-0.000408
-0.088620
-0.035749
-0.006796
0.056881
0.064461
0.032002
0.023533
-0.033972
0.069338
-0.031460
-0.057944
-0.072882
0.023279
0.059049
0.003680
0.068744
-0.050455
0.064558
-0.005770
-0.019374
0.038551
-0.029821
0.073777
-0.026009
-0.059888
0.058304
-0.023992
0.076248
-0.043888
0.043122
0.076250
-0.048204
-0.033889
0.057631
0.064966
0.003677
0.051104
0.094512
-0.021066
-0.040130
0.062299
-0.054860
0.060000
-0.055716
0.075223
0.001918
0.058590
-0.050959
0.014037
-0.025748
-0.038964
-0.016940
-0.001299
-0.008353
-0.004248
0.048016
0.046242
-0.072537
0.066358
-0.073478
0.096393
0.021050
0.020238
0.006945
0.047694
-0.024649
0.070593
0.042128
0.018221
0.007097
-0.049616
0.007434
-0.041303
0.013758
0.044415
-0.059392
0.048707
-0.092667
-0.009532
0.057827
-0.038985
-0.054295
-0.010526
0.039280
-0.075808
-0.032797
0.069091
0.039472
0.026415
0.058478
0.051426
-0.004259
-0.056451
0.019146
0.004703
0.032949
-0.030357
-0.050055
0.078611
0.072624
-0.057976
-0.020930
0.061128
-0.064247
-0.003601
-0.008047
-0.021738
0.081136
0.039897
0.062947
0.082430
-0.044118
-0.074264
-0.023010
-0.024442
-0.063842
-0.075871
-0.039253
-0.014236
0.016104
0.048933
-0.014858
0.067513
0.009923
0.046941
-0.049626
0.066980
-0.034330
-0.058552
0.073183
0.015160
-0.086010
-0.074819
-0.049947
0.011157
0.056191
0.075915
-0.068282
-0.041483
-0.010305
0.099318
-0.022548
-0.079328
-0.015310
0.008738
0.022702
-0.050126
-0.014068
-0.085400
0.078237
0.063595
-0.085879
-0.065437
0.051604
-0.030299
-0.045800
0.026723
-0.060562
0.047345
-0.060555
0.062260
-0.022110
0.074338
-0.022575
0.081266
0.036879
0.033737
0.079477
0.026612
-0.056331
0.076634
-0.068696
-0.070387
0.006769
0.010647
-0.080408
0.072227
-0.054331
-0.086388
-0.021864
0.057089
0.027554
0.069735
-0.015070
0.081791
-0.029263
-0.000277
0.070741
0.062608
0.065461
-0.049198
0.074251
-0.009157
0.008388
-0.008825
0.066840
0.032812
0.062602
0.073753
-0.066698
0.064355
-0.058933
-0.074401
0.015743
0.011756
0.034349
0.070810
0.057677
0.050820
-0.011290
-0.060873
-0.072119
-0.071549
0.039031
-0.027860
-0.029896
-0.077868
0.070833
-0.018254
-0.018944
0.048556
-0.027951
0.039603
0.069118
0.067177
0.038179
0.005267
-0.010638
-0.050285
0.015645
-0.027801
0.069985
0.072723
-0.001541
0.043283
-0.069581
0.045075
-0.031036
0.034721
0.000758
-0.001142
0.078282
-0.079439
-0.033443
0.011629
-0.027699
-0.084242
-0.092412
-0.086530
-0.051064
0.015775
-0.065332
-0.018269
0.068554
0.048234
-0.072599
-0.052591
0.050856
-0.047511
-0.008430
-0.092584
0.043782
-0.082424
-0.019735
-0.034117
-0.029415
0.041355
0.005266
0.026470
0.096681
0.046580
-0.084186
-0.016760
-0.049739
-0.108845
0.032360
-0.101649
-0.050076
-0.083675
0.027854
0.032965
-0.018004
-0.044878
-0.065100
0.045295
-0.016654
-0.005234
0.097762
0.005061
-0.057775
-0.022788
-0.032671
0.065948
-0.088406
-0.091793
0.009472
0.042360
-0.002116
-0.037853
0.041503
-0.039960
-0.017160
0.089812
-0.021081
-0.035719
0.008913
-0.075377
0.022116
0.012092
-0.100445
0.063089
0.001555
-0.045010
-0.088136
0.064097
-0.079055
-0.007962
0.067153
0.036363
0.041937
0.012590
0.002782
-0.075095
-0.014560
0.046802
-0.008037
-0.034090
-0.083302
-0.047812
0.049086
0.044391
0.018378
-0.036704
0.045045
0.070090
0.041034
-0.023483
-0.011106
0.020207
-0.017972
-0.000002
0.019026
-0.026456
0.033951
0.077027
0.044954
0.013898
-0.017918
-0.037426
0.063649
-0.063548
0.076482
0.006359
-0.037885
-0.054617
-0.045057
-0.067589
-0.022969
-0.034600
-0.028875
-0.048561
-0.029821
-0.050362
0.033096
0.005712
-0.080840
-0.061941
-0.005796
0.026170
-0.095276
0.009875
-0.047184
0.036793
-0.052773
0.076819
-0.044916
0.008171
0.067680
0.051127
-0.029283
-0.056718
-0.054147
-0.056720
-0.036253
-0.032225
-0.070120
0.049002
-0.014356
0.035032
-0.080266
-0.046785
-0.004592
0.033080
0.042746
0.079616
-0.083081
0.002835
-0.079240
-0.078743
0.056532
-0.006912
-0.013960
-0.031247
0.045686
0.047001
-0.030907
-0.036656
-0.031490
-0.005772
-0.045715
-0.012142
-0.011819
0.061985
-0.019572
-0.067435
-0.025167
-0.053519
-0.093798
0.019043
0.075507
0.074726
0.013861
0.029575
0.022893
0.021675
-0.052896
0.026361
-0.076612
0.052551
-0.011380
-0.062874
-0.066798
-0.040491
-0.003824
0.006509
0.027883
-0.034219
-0.075385
0.064948
-0.009652
0.055124
0.010746
0.062199
-0.080894
-0.005768
-0.073142
-0.020677
-0.031527
-0.067968
0.026514
-0.046557
0.033009
0.053267
0.087266
-0.072241
-0.068866
0.059260
0.014016
0.028995
0.047405
0.070833
0.004145
-0.021884
-0.010419
-0.076025
-0.012070
0.055698
-0.028315
-0.068371
0.016895
-0.015799
-0.053267
-0.053575
-0.032452
0.026812
-0.051617
0.080161
-0.013607
0.024548
-0.073926
0.046434
-0.051112
-0.048716
0.025041
0.084256
0.049598
-0.008027
0.006277
0.081980
-0.036182
0.033102
0.031307
-0.038740
0.070778
0.018469
-0.037307
0.029349
-0.080203
-0.019916
0.077122
-0.040956
0.067887
-0.065100
-0.008456
0.053070
0.034177
-0.045733
-0.067201
0.053790
-0.072983
0.000408
-0.091987
0.005863
-0.061183
0.041791
0.044895
0.064061
-0.086201
0.010063
0.056533
-0.027391
-0.022673
-0.080662
0.000400
-0.039463
-0.044690
-0.000310
0.040092
-0.063930
-0.066923
0.007378
-0.009394
0.067902
-0.050369
0.040232
0.059796
-0.035972
0.090083
-0.018124
-0.004892
-0.010992
0.034734
0.006175
0.055935
0.040842
-0.053182
-0.046556
-0.031071
-0.079416
0.062786
-0.058521
0.003821
-0.063615
0.058510
-0.032317
-0.005144
0.036927
0.003637
0.025137
0.081057
-0.063704
-0.001363
-0.022629
0.013002
-0.038448
0.078318
0.008389
0.013269
-0.085228
0.013796
-0.034002
0.022601
0.028208
-0.054536
0.081012
0.021183
-0.049420
-0.050222
0.072370
-0.071223
-0.087119
0.077901
-0.043726
-0.062682
0.060317
0.030300
-0.010999
-0.008669
-0.036073
0.078088
-0.012631
0.003195
0.005379
-0.070235
-0.020795
0.068511
-0.049078
-0.030787
0.018495
-0.028019
0.024205
0.072652
0.068106
-0.056317
0.062700
0.013399
-0.038876
0.032615
0.085529
-0.077720
-0.043486
0.033449
-0.054432
-0.027511
-0.024579
0.070427
-0.011007
-0.015412
0.067801
0.060663
-0.080360
0.034516
-0.036507
-0.057290
-0.076714
0.037835
-0.036532
-0.022738
-0.002047
0.056354
0.073667
-0.087211
-0.064327
0.019132
-0.081171
0.059008
0.063512
-0.094188
-0.099698
0.037067
-0.051120
0.032599
-0.015461
-0.026988
-0.037221
0.035070
-0.056088
0.060308
0.073412
-0.068707
0.053850
-0.071637
-0.062534
-0.027224
-0.018885
-0.041988
0.027001
0.055161
-0.069459
-0.009197
-0.016955
-0.090708
-0.037200
0.069320
-0.000294
-0.028142
-0.034588
-0.078320
0.067384
0.036933
-0.084564
0.010763
0.078291
-0.000275
-0.009619
-0.090353
-0.039430
-0.009210
0.041813
0.064517
-0.071102
0.028258
-0.098330
0.059789
-0.033593
-0.013469
-0.000787
0.016814
0.075818
-0.019100
-0.037816
-0.076672
0.056054
-0.112418
-0.083415
-0.090055
0.029499
0.024571
0.047574
0.057000
0.016374
-0.025508
0.051363
-0.049858
0.047785
0.014366
0.062626
-0.029535
0.089706
0.066244
0.034594
-0.001291
-0.050751
-0.038885
-0.074410
0.074580
-0.049388
-0.028556
0.051327
-0.015552
0.057828
0.072888
0.075285
-0.054990
0.101101
-0.064228
-0.059390
-0.023523
0.026851
-0.014066
0.061576
-0.003896
0.013602
-0.049046
-0.031329
0.076798
-0.006697
0.091812
-0.076392
0.008259
-0.024551
0.051043
-0.024214
-0.008363
-0.023108
-0.019043
-0.044080
-0.069317
-0.020095
0.043034
-0.056595
0.003021
-0.031243
0.029473
-0.045509
0.097091
-0.063916
-0.078280
0.001434
-0.088300
0.073098
0.087436
-0.061596
-0.014850
0.019910
0.078223
0.004799
-0.056934
0.005104
-0.028594
-0.036372
-0.072872
-0.070218
0.015828
-0.006723
-0.001240
0.075017
0.016327
-0.013684
0.040841
-0.085766
0.047549
-0.066421
-0.061252
0.081134
-0.076171
0.043942
0.006939
-0.086227
-0.029568
-0.025585
-0.021134
-0.017605
-0.039344
0.084563
-0.024256
0.106538
0.043665
-0.042347
-0.061802
-0.073144
-0.076301
-0.077921
0.031203
0.024637
-0.036762
0.092767
-0.050761
-0.075361
-0.077518
-0.059151
-0.005631
-0.040012
-0.058872
0.005263
0.019726
0.020009
-0.022120
0.005601
-0.037859
-0.064847
0.048634
-0.018456
-0.074215
-0.042119
0.030269
-0.020830
-0.003154
-0.040513
-0.035302
-0.066445
-0.043845
-0.023719
-0.016454
0.038937
-0.089164
-0.083079
0.010502
-0.061650
-0.026663
0.011925
-0.022234
0.072499
0.002984
0.063616
0.035055
-0.061338
0.046494
0.075461
0.064171
-0.073667
-0.065459
0.041192
-0.043439
-0.048328
-0.071148
-0.076739
0.068062
-0.016307
0.049114
-0.029332
-0.080725
0.057315
-0.039734
0.026566
0.054425
0.025504
0.081265
-0.001779
-0.053658
0.052493
0.075941
-0.052254
0.075436
0.008646
-0.018912
0.048465
0.071363
0.091415
0.031091
0.068196
-0.011413
0.038084
0.064863
-0.058006
-0.039796
0.026074
0.105822
-0.003153
-0.012449
0.029005
0.010240
-0.027451
-0.028255
0.048517
0.023435
0.035461
-0.039466
-0.038624
-0.064253
-0.000256
0.077556
0.061852
0.024593
-0.061686
-0.043110
0.074408
-0.098603
0.019781
-0.067632
0.105126
-0.039088
-0.007606
-0.016023
0.056770
0.068211
-0.049332
0.015049
0.089392
0.056636
-0.018973
0.034156
-0.090023
0.111287
-0.025086
0.072747
-0.076476
-0.032332
0.091910
0.023715
0.066964
-0.013523
0.114736
-0.056173
0.053819
-0.040631
-0.067364
0.028793
-0.006487
0.076480
0.055620
0.029739
0.145230
-0.109922
-0.008412
0.052556
-0.011958
0.022235
0.016593
-0.015957
0.028886
0.071928
-0.071844
-0.042843
-0.050010
-0.011369
-0.027750
-0.007422
0.016683
0.052323
-0.039774
0.061872
0.065781
-0.046024
0.003539
-0.012743
-0.060997
0.113688
0.035630
0.016698
0.023409
0.004522
-0.072676
0.104528
-0.075651
0.030929
0.057489
0.020675
0.082790
0.023393
-0.026960
-0.052100
0.029838
-0.040690
-0.045961
-0.004404
0.009554
-0.031736
0.051203
-0.091481
-0.072809
-0.060441
0.003421
0.062581
0.040499
0.021347
-0.040729
-0.010455
-0.054700
-0.064705
-0.015768
-0.050847
0.012896
-0.006584
-0.132218
0.044176
-0.087882
0.055952
0.025761
0.049372
-0.095127
-0.055177
-0.077280
0.075158
-0.016505
-0.014601
0.051192
0.005771
0.058457
-0.018084
-0.010088
-0.014650
-0.071207
-0.114316
0.040090
0.033406
-0.064161
0.071872
0.041562
0.032529
0.023004
-0.010066
-0.034385
-0.004379
-0.051955
0.005051
0.058095
0.001418
0.031103
0.049684
-0.119615
0.020981
0.072613
0.002971
-0.076484
0.089534
0.062018
0.039587
-0.092265
0.064200
-0.045711
0.091913
-0.029973
-0.021467
-0.041550
-0.044875
0.074047
-0.032232
0.012646
0.010721
-0.056258
-0.035340
-0.019189
-0.081718
-0.041047
0.045359
-0.020594
-0.038149
0.058379
-0.063461
0.066681
0.049910
0.085965
0.074509
0.039269
-0.006476
-0.047260
0.077316
0.031458
0.054095
-0.043226
0.002983
-0.022076
0.040255
0.064749
-0.032766
0.021101
-0.024625
0.051684
0.020908
0.053880
-0.036487
-0.049756
0.024952
-0.016255
0.103949
0.009507
-0.006578
-0.014311
0.122869
-0.026294
-0.028202
-0.073116
-0.086706
-0.015477
0.093255
-0.043789
-0.080876
-0.029934
-0.024259
0.005062
-0.067208
0.089736
-0.005044
0.024375
-0.069066
-0.046075
-0.067545
0.049352
-0.022714
0.032032
-0.031593
0.070180
-0.028427
0.025390
0.061499
0.085563
0.002941
-0.092143
-0.026725
-0.089164
0.070342
0.006042
-0.009781
0.017351
0.050147
0.066611
0.028162
0.026688
-0.042254
-0.054040
0.108661
0.024842
0.018900
-0.047308
-0.040906
-0.048053
0.083182
-0.071353
0.065677
0.034654
-0.066721
-0.004339
0.006164
0.003667
0.007571
-0.003216
-0.046088
-0.076596
-0.006212
-0.075046
-0.079078
0.056494
0.007183
0.064487
0.069591
0.040433
-0.066526
-0.006783
-0.076599
0.020486
-0.030758
0.066755
0.051048
0.095573
0.062653
-0.032837
0.023697
0.071979
-0.054294
-0.005449
-0.077455
-0.043010
-0.036227
0.026654
0.056729
0.082614
0.002635
-0.017333
-0.030919
-0.102685
0.010677
0.003609
-0.073382
0.038199
0.067268
-0.082815
-0.003489
-0.035418
0.067442
0.068532
0.001368
0.008027
-0.005159
0.069197
0.003235
-0.010936
0.012042
0.003206
0.045865
-0.077981
0.072672
0.048797
-0.010483
-0.059914
0.035310
-0.049198
0.002969
-0.025555
-0.025323
-0.015418
0.094024
0.096821
-0.089460
0.075183
-0.011085
-0.062157
0.029392
-0.040845
-0.073529
-0.046097
-0.065610
0.002544
-0.013506
-0.045690
-0.025646
-0.090548
0.064953
-0.000918
-0.083074
-0.058291
-0.064786
0.058696
0.064948
0.032383
0.013232
-0.029474
0.003305
0.051356
0.076967
-0.007013
-0.074238
-0.004207
0.077394
-0.017756
0.041217
-0.007607
0.016478
0.002375
0.049459
-0.039498
0.064901
0.084783
0.010635
-0.028152
0.050551
0.054782
-0.021410
-0.012833
0.020196
-0.027239
0.024851
0.071979
0.093938
-0.063809
0.022782
-0.016411
0.029520
0.033697
0.040463
0.080371
0.079889
-0.002784
0.038381
0.010169
0.098658
0.065981
-0.064044
-0.017939
0.000975
0.062166
-0.054829
-0.004235
-0.044265
-0.029493
-0.086441
-0.031702
0.045820
0.021918
0.077631
-0.054067
-0.042770
-0.069438
-0.036112
0.068939
0.047327
-0.085088
0.071140
-0.047284
-0.003765
0.054895
-0.027047
-0.053200
0.076636
-0.021563
-0.012090
0.032868
-0.070461
0.058795
0.045908
0.004404
0.000886
0.047303
0.012534
-0.020887
0.051619
0.011567
-0.075454
-0.042489
0.020969
-0.032695
0.033521
0.022138
-0.076768
0.051376
0.002256
-0.075794
0.023469
-0.079732
-0.072888
0.059979
-0.018579
0.049295
-0.072186
-0.051754
0.010680
0.027508
-0.041049
-0.053737
0.068170
0.008985
0.012607
0.079946
-0.033930
-0.066352
-0.054814
-0.084615
-0.012362
0.025137
0.014998
0.043021
0.030245
-0.058315
0.056491
-0.060993
0.020751
-0.072147
0.005896
0.068078
-0.015084
0.066430
0.003612
0.092855
-0.038208
-0.061725
-0.070690
0.073149
-0.000736
-0.011525
-0.092217
0.033290
-0.027775
-0.082322
-0.000918
0.081900
0.082925
-0.001668
-0.021483
0.021280
-0.047350
0.097474
-0.004812
0.019206
0.076433
0.043511
0.073654
0.065526
0.075785
-0.071191
-0.021840
0.001473
-0.010608
0.053615
-0.016833
-0.064837
0.064039
0.035952
0.030127
-0.067421
-0.088605
0.005972
-0.069876
0.035464
0.100917
0.008387
0.003711
0.062816
-0.012456
0.026607
-0.049035
-0.026200
-0.031671
0.038114
-0.095430
-0.002396
-0.073595
-0.088381
-0.014312
-0.000227
0.043043
-0.048134
0.051082
0.040927
-0.050446
-0.073671
-0.000256
0.031350
-0.066959
-0.038495
-0.050778
0.027227
0.043576
0.033068
-0.024638
0.030249
0.058290
-0.056472
0.061921
0.040626
-0.029730
0.047524
-0.004905
-0.108183
0.090785
0.037800
0.069651
0.002645
0.039543
-0.042410
-0.092272
0.078220
-0.004071
-0.026452
0.040132
-0.051012
-0.036381
-0.031515
-0.070551
0.030562
-0.043856
-0.066144
-0.089183
0.071714
0.040607
-0.091543
-0.049813
0.004553
0.017032
0.064115
-0.012067
0.005415
0.045108
-0.007152
-0.018602
0.073759
-0.027313
0.027641
-0.064854
-0.008615
-0.035064
-0.004849
0.100904
0.039854
-0.032666
0.077646
-0.070127
0.025146
-0.041875
-0.021439
0.051768
-0.086278
-0.067783
0.052002
0.007537
0.033556
-0.009668
-0.071271
-0.022047
-0.039474
-0.047989
0.040881
0.056114
-0.020835
0.044736
-0.036825
0.036540
0.042991
-0.015323
0.063319
-0.049891
0.021409
-0.085969
0.004532
-0.031764
0.042755
-0.055403
0.021838
0.030296
0.085401
-0.004985
-0.043114
0.009618
0.056271
0.035428
0.007139
-0.001831
-0.040233
-0.013943
0.047222
0.065875
-0.081810
0.022736
0.064465
0.058609
-0.050764
-0.101101
-0.030140
0.005301
-0.072692
-0.072309
0.082433
-0.031704
-0.012459
0.050356
-0.043494
0.053910
-0.022290
0.082990
-0.063197
0.091233
0.074778
-0.037668
0.043833
-0.031241
-0.064371
0.060074
-0.076326
0.106268
0.083102
0.023021
-0.026245
-0.022732
0.017756
-0.004320
-0.052546
-0.044089
0.086794
-0.042168
-0.004216
-0.013021
0.047000
0.082855
-0.030847
0.024742
0.044747
0.073986
0.030604
0.070675
-0.016033
-0.001011
0.066434
0.075071
-0.013853
0.028457
-0.030758
-0.027152
-0.040424
0.002086
0.019643
0.095078
0.097338
0.028571
0.091905
0.050192
-0.003371
-0.053260
0.050708
-0.042375
0.044179
-0.005321
-0.004608
-0.011362
-0.087659
-0.015463
0.005938
0.040075
-0.055005
0.013058
0.053237
-0.005724
0.026123
0.021262
-0.039838
-0.050854
-0.034769
0.026511
-0.044986
0.058688
0.000414
0.091021
0.087153
0.011035
-0.016822
-0.052545
0.013284
0.078987
-0.049445
-0.031691
-0.056547
0.035016
0.059595
0.001236
-0.060367
0.020865
-0.011429
-0.064507
0.068840
-0.016455
0.013783
0.051492
0.051131
-0.078761
0.073443
0.084099
0.065585
-0.022671
-0.039962
-0.034117
0.048505
0.023551
-0.068484
-0.030181
0.032444
-0.116033
-0.033649
0.000325
-0.014148
-0.011802
0.065800
-0.016074
-0.085859
-0.079515
0.023178
0.057524
-0.069571
-0.027255
0.027250
-0.005904
0.004858
0.016681
-0.008769
0.028718
-0.065574
0.010805
0.065027
0.028326
0.069794
-0.029325
-0.058783
-0.086144
-0.037245
-0.048579
-0.012761
-0.081503
0.088177
-0.044447
-0.006661
-0.017966
-0.084277
-0.052365
0.041361
-0.083228
0.083355
-0.019300
-0.053279
-0.078485
-0.028228
-0.057025
-0.066818
0.005052
0.086077
-0.070005
0.015008
0.044459
-0.045270
0.007623
-0.009222
-0.052858
0.058957
0.012244
-0.026796
0.004541
-0.061181
-0.010196
0.076326
0.076313
0.054942
-0.088243
-0.066716
0.075076
-0.003202
0.017679
-0.070509
-0.046435
0.063830
0.093525
-0.028555
0.085297
-0.005711
0.065471
-0.024220
-0.073188
-0.050043
0.035298
-0.021699
-0.053271
0.042858
0.057185
-0.063524
-0.081632
0.031906
0.004400
-0.077996
-0.004149
0.053736
-0.045230
-0.003912
-0.074938
-0.023177
0.067087
0.031102
-0.028837
-0.062765
-0.072530
0.072081
0.047637
0.051508
0.000282
-0.038694
0.054457
0.034038
0.034007
-0.066828
-0.052744
0.085663
0.060852
-0.034477
-0.053999
-0.033474
-0.015906
0.015785
-0.082208
0.097905
0.071783
-0.003903
0.004106
-0.064367
-0.069900
-0.017892
0.059327
-0.000413
0.032128
-0.042124
0.031334
0.004264
-0.040804
0.035974
0.075709
0.038353
-0.038878
0.046830
-0.066706
-0.006820
0.068252
-0.013221
0.000814
-0.047460
0.007232
-0.021554
-0.006932
-0.067644
0.030095
0.028011
0.091808
0.080279
-0.007239
-0.041331
0.026418
-0.054991
0.036183
-0.087131
0.067506
-0.051274
0.078379
-0.056539
0.007181
-0.017784
0.012542
-0.024587
-0.040325
0.022143
-0.024508
-0.058404
0.038999
-0.040324
0.030907
-0.060469
0.095255
-0.064432
-0.038783
-0.081602
-0.039698
-0.039628
-0.073211
0.085462
0.043997
0.009854
0.033527
-0.015808
-0.059761
0.003121
-0.069065
0.046614
-0.051022
-0.082247
-0.056247
0.077888
-0.036681
0.054681
0.056373
0.040503
-0.010896
0.031220
-0.015170
-0.043265
-0.053295
0.018249
0.070556
-0.019272
-0.074020
0.107649
0.017752
0.035616
-0.003725
-0.071742
0.073920
-0.065052
0.083828
-0.074465
-0.018163
0.013442
0.041004
0.032135
-0.045166
0.033035
0.040304
0.029035
-0.027354
0.041631
-0.063324
-0.087392
0.069943
0.059536
-0.011461
-0.062445
0.000864
0.015146
0.062630
0.030681
0.004697
0.083444
0.063264
-0.014567
-0.012970
-0.064179
-0.029356
0.023111
0.020938
-0.011536
0.073967
-0.030696
-0.055031
0.018747
-0.069755
0.001747
-0.060725
0.008130
0.016500
0.020478
0.062067
-0.052055
-0.034159
0.019359
0.036516
0.022381
0.001532
-0.040446
0.074998
-0.064943
0.045917
0.020626
0.071492
0.028139
0.084069
-0.009041
-0.019101
-0.004849
-0.074888
-0.003435
-0.071607
-0.080169
-0.040032
-0.007723
0.013177
-0.041400
-0.055374
0.026979
-0.091192
-0.011034
0.015808
-0.023358
-0.055986
0.037155
0.047905
-0.067214
0.012179
0.020350
-0.036989
-0.062210
0.028088
0.022436
0.023038
0.035256
0.007751
-0.096640
0.052574
0.076173
0.037922
0.025650
-0.082187
0.047504
0.082333
0.080905
0.019734
0.034964
0.078286
0.076695
0.018211
-0.041368
0.025856
-0.019708
0.040679
0.076305
-0.026194
0.020489
-0.018725
0.020879
0.005703
-0.031258
0.093164
0.082028
0.081308
-0.015756
-0.075240
0.077150
0.024304
0.050802
-0.055711
-0.038368
-0.029587
-0.019781
-0.058340
0.034572
0.054268
-0.058430
0.055121
0.032586
0.082488
0.000751
-0.000074
-0.053377
0.054808
0.043473
0.039342
-0.066870
0.051149
-0.056133
-0.075776
0.018261
0.049493
-0.010390
0.017025
-0.003204
-0.025784
-0.084155
-0.029440
-0.042595
-0.014743
-0.033304
0.054304
0.061752
0.058483
-0.012298
0.075184
0.033257
0.091293
-0.076183
0.020665
-0.027430
0.057038
0.022423
-0.004903
-0.045533
0.055290
-0.009414
0.050468
-0.003162
0.002213
0.001271
-0.040122
0.018870
-0.029280
-0.025629
0.057269
0.063174
0.006953
0.050048
0.066332
0.016578
0.084860
0.068658
-0.078094
-0.094617
0.023769
0.048077
0.068946
-0.025922
-0.026003
0.015248
-0.030862
-0.002665
-0.043257
0.066702
-0.057615
0.009418
0.041714
-0.080965
-0.025840
-0.013577
0.041306
-0.009618
-0.069268
0.080117
-0.073497
0.033471
0.082683
0.085849
0.078679
-0.057670
-0.050145
-0.013848
0.047815
0.034839
-0.036371
0.012940
-0.063736
0.074165
-0.053403
-0.034653
0.065460
0.018549
0.079905
-0.028643
-0.033093
-0.008339
0.043242
-0.055295
-0.016496
0.047391
0.085951
0.071656
-0.012206
0.007969
-0.030839
0.034843
-0.023889
0.055283
-0.013182
0.079342
-0.021103
0.023654
-0.025056
-0.025330
0.022337
-0.031796
-0.044582
-0.076662
0.064265
-0.015059
-0.031074
0.060196
-0.044343
-0.003764
0.053477
0.056727
0.017202
-0.024406
-0.091069
-0.084499
-0.053288
-0.052197
-0.012436
0.079554
0.017242
-0.003141
-0.035635
-0.060669
0.036814
-0.008491
-0.014866
-0.037745
-0.029606
-0.028081
0.079695
-0.061375
0.076147
-0.089694
-0.019394
-0.055971
0.029212
-0.065410
0.056562
0.034775
0.032738
0.032445
0.050520
-0.008252
0.075682
-0.007077
-0.005046
0.021146
-0.042405
0.018879
0.049877
-0.043877
-0.060583
-0.025107
0.042621
-0.007005
0.046125
-0.064289
-0.004407
0.014178
-0.005680
-0.024138
-0.039759
0.048039
-0.056700
-0.023565
0.009858
0.089781
-0.078362
-0.023455
-0.096384
-0.053989
-0.083070
-0.073087
-0.057209
-0.011013
-0.002761
-0.001390
0.081563
-0.012919
-0.041795
0.049650
-0.091727
-0.052493
-0.023973
-0.027185
-0.013882
0.009376
-0.015100
-0.001945
0.013432
0.012237
-0.089798
0.078579
-0.020835
-0.008148
0.067581
0.063856
0.075343
-0.018361
-0.080222
0.075193
-0.071220
-0.062706
-0.063776
0.025825
-0.051601
0.027825
-0.041466
0.058735
-0.067918
-0.087856
0.033687
-0.037751
0.034757
-0.020262
-0.025065
-0.035998
-0.025769
-0.062677
0.035552
-0.036739
0.000845
0.002085
-0.023296
0.022015
-0.043425
0.043605
0.060559
-0.040058
0.017219
-0.012808
-0.010756
0.055394
-0.069041
-0.059305
0.022729
0.023479
0.051971
-0.016542
0.038759
-0.050258
0.079797
0.079473
0.011902
0.067947
0.083309
-0.056915
-0.071291
-0.068597
0.026895
0.050825
-0.046940
0.005242
0.014734
0.067993
0.055174
0.043104
0.049576
-0.042164
0.081030
0.024537
0.061513
-0.004927
0.007079
0.034403
-0.071673
-0.013236
-0.033624
-0.084151
-0.030410
-0.070110
0.057092
0.050552
-0.077523
-0.061306
0.052268
0.051988
-0.048015
0.019022
-0.018845
0.025060
-0.075025
0.053669
-0.035576
0.019581
-0.017484
-0.048709
-0.078713
-0.004299
-0.088353
0.042995
-0.014733
-0.053940
-0.026746
0.034040
-0.055605
-0.021631
-0.006586
-0.052268
-0.060845
-0.082314
-0.069454
0.049554
0.036334
0.011873
0.035816
0.028773
0.001398
-0.035005
-0.087475
0.054627
-0.084693
-0.030094
-0.036587
-0.018729
-0.023046
0.060969
0.072016
-0.043007
-0.067142
0.020206
-0.087075
0.022318
-0.017923
0.072054
0.032824
-0.062286
-0.089550
-0.038678
-0.090736
-0.045501
0.003321
-0.069304
0.016789
0.042349
-0.058039
0.041268
0.024511
0.026104
-0.057920
-0.080529
-0.000009
-0.016650
-0.019805
-0.044105
0.036804
0.068571
-0.081705
-0.038755
0.077905
0.054421
-0.070712
0.005092
0.044497
-0.078624
0.029452
-0.033996
-0.005393
0.051589
0.071612
-0.072573
0.044872
0.011416
-0.006648
0.081573
-0.060083
-0.025463
-0.053677
-0.001399
-0.095304
-0.000811
-0.069438
0.094233
0.073925
-0.094508
0.042923
0.019371
-0.073365
-0.055314
0.000112
-0.039145
0.037931
-0.006900
0.021829
0.006332
-0.079684
0.008526
0.035337
-0.056798
-0.041213
0.031875
0.030401
-0.038277
-0.004869
-0.018808
0.083346
-0.034431
0.067015
-0.029127
0.002038
0.052923
-0.012039
-0.106878
-0.057663
0.048849
-0.085399
-0.064578
-0.047532
-0.018908
-0.045452
-0.036574
0.043514
-0.020512
0.019185
0.017737
-0.043592
-0.043222
0.017218
-0.086481
-0.010473
0.075187
-0.005050
0.045944
-0.030882
-0.029655
0.042870
-0.055599
0.080518
-0.066883
-0.001698
0.004199
-0.055463
-0.036418
0.024892
0.087666
0.010204
0.009594
0.029788
0.067435
-0.100910
0.062389
-0.023513
-0.034022
-0.060613
0.021296
-0.032659
0.013516
-0.017869
-0.040043
0.000515
0.022748
-0.024726
-0.068495
-0.020822
-0.029327
-0.031713
0.016610
0.002118
-0.054914
-0.017734
0.038765
0.052230
-0.072377
0.007721
0.040342
-0.051597
-0.058961
0.035497
-0.062005
-0.033637
-0.032965
-0.016243
-0.048484
0.049528
0.057668
-0.085015
-0.045907
-0.056840
-0.021212
-0.039503
0.057062
0.042828
-0.049796
-0.023250
0.067150
-0.107139
-0.020986
0.009219
-0.013403
0.076148
-0.058575
0.020477
0.061929
-0.022004
0.026844
-0.055511
0.066413
0.045887
-0.012553
0.000001
-0.010715
-0.041166
0.074447
0.071741
0.014920
0.025120
0.009257
-0.030691
0.011852
-0.029888
-0.075604
-0.021017
-0.073309
-0.043617
0.043941
0.024845
-0.091313
-0.089989
0.034712
-0.037594
-0.086707
0.000842
-0.058139
-0.008821
-0.094298
0.025359
-0.023602
0.008923
0.067431
-0.055114
0.034572
0.016107
-0.060154
-0.002550
0.083573
0.006113
-0.009685
0.023382
-0.088220
-0.065195
-0.010974
-0.047774
0.053426
0.054619
-0.037155
-0.075457
0.057929
-0.036814
-0.094506
0.087046
0.056875
-0.013787
0.065615
-0.041596
-0.066032
0.001613
-0.049985
-0.048042
-0.049299
0.053328
0.073353
-0.057291
0.027997
0.049371
-0.002915
0.073774
0.066216
-0.024991
-0.035017
-0.003329
0.026041
0.043395
0.073367
0.036748
-0.000111
0.069092
-0.086670
-0.001037
0.011173
-0.055885
0.070931
0.079672
-0.008477
-0.020212
0.094970
0.025476
-0.069640
0.029105
0.074340
-0.048320
0.005692
-0.030045
0.041902
-0.006173
-0.052344
0.033866
0.041303
0.000170
-0.036620
-0.013372
0.045959
0.087807
-0.031843
0.049728
0.052424
-0.020453
-0.065697
0.087303
-0.020107
-0.002840
0.053599
0.077683
0.015663
0.012304
0.082599
-0.028155
-0.072585
-0.052616
0.007527
0.076620
-0.088598
-0.030161
-0.086511
-0.000025
0.026662
-0.038131
0.062893
0.001829
-0.045350
0.018855
0.043653
0.074357
0.084393
0.052866
-0.038935
-0.012305
-0.014978
0.013807
-0.046747
-0.064534
-0.085528
-0.019574
0.098312
0.016079
-0.046924
-0.073798
-0.085771
-0.006082
0.061789
-0.043174
-0.016936
-0.055662
0.062803
-0.050175
0.095110
-0.044148
0.016351
-0.022288
-0.055859
-0.017781
0.056973
-0.028127
-0.034793
0.074382
-0.066247
0.057134
0.029591
0.050646
-0.064761
0.057548
-0.035385
-0.030969
0.032327
-0.019991
0.042425
-0.065253
-0.060628
0.073009
-0.052125
0.030778
-0.029961
0.055657
0.058238
-0.077643
0.058069
0.067580
0.039788
-0.070439
0.042903
-0.029706
0.083276
-0.090148
0.009375
0.051808
0.045202
0.026254
-0.018465
0.027102
0.088827
0.080533
0.052491
-0.000939
0.060036
0.008210
0.048664
0.044992
0.054798
-0.074633
0.056002
-0.044189
-0.050841
0.052179
0.047542
-0.046869
0.023202
-0.058008
-0.047129
0.019960
0.077017
0.072533
-0.039509
-0.066979
-0.078224
-0.043659
-0.045935
-0.024212
0.018316
-0.024419
0.002194
0.014932
0.026534
-0.074984
-0.036207
0.019893
-0.026510
-0.018064
0.013721
-0.067665
-0.076132
0.037296
-0.054617
-0.029860
0.084095
-0.000694
0.086460
-0.060903
-0.009362
-0.036173
0.054323
-0.059173
0.043893
0.004998
0.023360
0.069108
0.074321
-0.074250
0.041531
-0.028045
-0.002335
0.021696
-0.052865
0.059313
0.017784
-0.081875
0.008757
-0.056758
-0.026125
0.043223
0.022072
-0.018418
-0.030968
-0.061835
-0.009044
-0.027626
-0.005687
0.050791
-0.054212
-0.043133
-0.080186
0.009335
0.029598
0.018385
-0.075859
-0.050820
-0.049597
0.049531
-0.025358
-0.089252
0.061693
0.029928
-0.092200
0.086655
-0.037156
0.025746
0.067381
0.063368
0.042476
-0.023937
-0.079076
-0.075285
0.054201
-0.019632
0.063574
-0.044966
-0.028537
-0.064612
-0.076515
0.074361
-0.082046
0.041155
0.056125
-0.061347
0.000979
-0.017858
-0.039355
-0.063208
-0.073109
-0.085505
-0.054938
0.038852
0.078998
0.064868
0.013678
-0.060824
-0.003081
0.102319
-0.100078
0.061400
-0.038094
-0.035109
0.026742
0.062773
-0.045141
0.045404
0.063222
0.094547
0.010700
-0.090323
0.047640
-0.003104
0.015769
-0.027100
-0.019383
-0.000927
0.062088
-0.013544
0.054480
-0.087203
-0.052094
0.005083
-0.010190
-0.008689
-0.013810
-0.063958
-0.054219
0.030285
-0.036437
0.005558
-0.051013
0.061012
0.066055
-0.078106
0.042299
-0.045075
0.079038
0.030939
0.084572
0.067266
-0.012934
0.006076
-0.056512
-0.041033
0.032655
-0.020820
-0.003635
-0.080320
-0.025736
-0.089019
0.032013
-0.085563
0.096984
-0.013161
-0.076898
0.005575
0.072868
0.042527
-0.018893
0.025448
-0.055904
0.065836
0.034205
-0.063672
-0.083306
-0.026125
-0.042691
-0.006039
0.024923
0.049343
-0.051000
-0.084153
-0.020133
-0.016111
0.072983
-0.098977
-0.032651
-0.049026
-0.028305
0.047548
-0.003655
-0.064123
0.067062
-0.060876
0.060769
-0.056472
0.043324
0.096385
-0.023723
0.006538
0.018104
-0.083536
0.045602
-0.067872
-0.073779
0.077497
-0.076500
0.028042
0.020826
-0.044605
-0.082421
-0.092605
0.007527
0.073488
0.084767
0.007089
0.074129
-0.003034
-0.005755
0.033952
-0.072009
-0.005337
0.022045
-0.010039
0.055966
0.074576
0.046483
0.015238
0.050297
-0.089303
-0.077794
0.096289
-0.096183
-0.054828
0.033445
-0.047821
0.060062
-0.032488
0.032158
0.007745
-0.038957
0.093237
0.069198
-0.059856
0.095352
-0.082359
-0.008050
-0.014119
0.018090
-0.080801
0.005725
0.027174
-0.002827
0.049522
0.016142
-0.061925
0.059245
0.070922
0.070951
0.035101
0.008943
0.020001
0.085143
0.018780
-0.024706
-0.049479
-0.020695
-0.003962
0.049924
-0.004520
0.056647
0.032731
0.086292
-0.013652
-0.056762
0.032157
0.017199
0.051130
0.002301
0.081521
0.047254
0.053599
0.035798
0.006787
-0.050332
-0.013936
-0.047762
0.043797
-0.014516
-0.002297
-0.027582
0.053298
0.048847
-0.045405
-0.045079
-0.085847
0.047456
0.005164
0.055973
0.062434
0.043564
-0.033473
0.082932
0.017426
-0.075938
-0.062688
0.102839
0.063666
-0.073127
-0.053442
0.114732
-0.069458
-0.003068
0.022600
-0.118712
-0.025352
-0.017344
-0.064332
-0.040814
0.092733
-0.004456
-0.061097
0.022137
-0.031478
-0.018925
-0.081355
-0.064854
-0.002913
0.067368
0.006095
-0.075450
0.065338
-0.049976
0.031747
0.072467
-0.028947
-0.095455
0.030902
0.050782
-0.071316
-0.060201
0.101126
0.062531
0.038599
-0.078330
0.057800
-0.071647
-0.003555
0.045596
0.055442
0.006288
0.055535
0.065828
0.062029
-0.050569
-0.088732
0.002071
0.060242
0.019018
0.032455
-0.022127
-0.062333
0.066699
0.062076
-0.024164
0.019767
0.051973
-0.056700
-0.005910
-0.065410
-0.057763
0.016172
0.006060
-0.083050
-0.047450
0.002628
0.004094
-0.068208
-0.028053
-0.057420
-0.014480
-0.032472
0.041076
-0.096854
-0.042070
-0.039679
0.036929
0.019460
0.016529
0.077440
0.074954
0.054537
-0.005431
0.003313
0.059340
-0.046436
0.003417
-0.070225
-0.006256
-0.026203
0.011533
-0.053486
0.061590
-0.019322
-0.012682
-0.026400
0.029698
-0.016777
-0.009304
0.038026
-0.086858
-0.026515
0.063617
0.015304
0.002751
-0.052273
0.018157
-0.033963
-0.065726
0.016176
0.041533
0.071123
-0.055145
-0.010998
0.080137
0.072153
-0.074810
0.039352
0.034746
0.027723
0.046442
-0.081750
-0.009382
0.045216
-0.072839
-0.073977
0.026143
0.039107
0.050203
0.082643
-0.066213
-0.008908
-0.044308
0.020614
0.008729
0.087151
0.064339
0.020751
-0.082215
-0.078408
-0.037212
0.048968
0.083625
0.055541
-0.070897
-0.008784
-0.021343
0.076489
-0.000757
0.051351
-0.056643
0.007184
0.082453
0.074923
0.086179
-0.025318
0.077425
-0.037370
0.035284
-0.053512
-0.031281
-0.005412
-0.026258
0.067527
0.023184
0.053814
0.057396
0.043666
0.074483
0.050028
-0.002260
0.062893
0.004522
0.015963
-0.011146
0.087077
0.059103
0.012215
-0.089249
-0.021832
-0.039860
-0.019035
0.025815
-0.071071
-0.012648
0.042871
-0.089486
0.054503
-0.019175
0.093748
0.037315
0.051365
0.041653
-0.038041
0.050407
-0.076455
-0.071887
-0.028312
-0.003707
-0.001071
0.020658
-0.063127
-0.021395
-0.063465
-0.076031
-0.012821
-0.064577
-0.029597
0.040476
0.008331
-0.073519
-0.001618
0.046920
-0.089653
-0.034883
0.030241
0.014110
0.021775
0.015073
-0.049786
-0.002444
-0.005376
0.057653
-0.034289
0.010830
0.041605
0.032931
-0.020430
0.075216
-0.055578
0.059184
-0.064905
0.059156
-0.018480
0.053497
0.081174
0.011769
-0.041386
0.094663
0.092246
0.076085
-0.017710
-0.009871
-0.032534
-0.044119
-0.026611
-0.036794
-0.015116
0.075908
-0.031686
-0.022236
-0.011386
-0.013410
-0.088470
-0.075152
0.059297
-0.056811
0.031708
0.004606
-0.071590
-0.100399
0.011358
0.091900
-0.021057
-0.033856
-0.010970
-0.010740
-0.023854
0.066775
0.010920
0.010263
-0.007230
-0.070533
-0.004138
0.050560
0.038496
-0.033844
0.057021
0.009318
-0.006941
0.067339
-0.054216
-0.037261
-0.092674
-0.012377
0.063593
0.066592
0.000401
-0.006643
0.017593
0.015929
-0.066962
-0.008635
0.054123
-0.040613
0.022609
-0.082883
0.068572
-0.006536
0.041494
0.033647
-0.000090
0.031922
-0.003236
-0.097287
-0.006389
0.033786
-0.060102
0.052719
-0.051698
0.068600
0.047667
0.024608
-0.003265
-0.026027
0.013076
0.021921
0.064757
-0.066348
0.019797
-0.034164
-0.040831
-0.064190
0.035118
0.050725
0.024328
0.073958
0.045634
0.004450
0.007219
0.008054
-0.080097
-0.024137
-0.094557
0.026260
0.024686
-0.045822
-0.076626
0.056248
-0.036569
0.019131
0.035191
-0.087447
-0.065088
-0.078973
0.041294
0.103829
0.046965
0.054269
0.031921
0.005735
0.045892
0.044501
-0.000939
-0.066832
0.025465
0.037370
0.039354
-0.063888
0.009364
-0.111443
0.000514
-0.009746
0.074710
-0.058436
0.060826
0.052748
-0.080869
0.021248
0.086100
-0.054708
-0.020783
-0.072583
0.049497
-0.024087
-0.037781
-0.085795
0.043303
-0.087429
-0.025661
0.043920
0.074478
-0.018336
0.027720
0.000512
-0.019903
0.034678
-0.064446
-0.049487
-0.014493
-0.011148
-0.032373
0.047794
0.000143
-0.005507
0.065798
0.083583
-0.040959
0.046087
0.121082
0.016855
0.006903
-0.088184
0.147495
-0.062771
-0.030564
-0.046101
-0.046574
0.044939
-0.098224
-0.086372
-0.069854
0.030889
-0.063963
-0.043262
-0.048172
-0.086078
-0.036832
-0.108057
0.073698
0.083613
0.075145
0.006185
-0.041576
-0.038162
0.076024
0.067130
-0.092122
0.018085
0.053647
-0.033797
-0.059824
0.021236
0.012166
0.033098
-0.070109
-0.083784
-0.024756
-0.072171
0.080862
-0.038274
-0.021861
-0.067503
0.025667
0.070909
0.063614
-0.000734
-0.003295
-0.089189
0.063345
-0.007454
0.027781
-0.046266
0.008970
0.016116
0.048985
0.053345
0.036972
0.028513
0.063768
0.034189
0.066609
-0.019606
-0.038935
-0.009614
-0.093865
-0.091277
0.013120
0.077705
-0.058107
0.047943
0.076072
0.084226
-0.093955
0.009790
-0.042932
0.016433
-0.016347
-0.002004
-0.020720
-0.051085
0.046553
0.010422
-0.006867
0.061166
-0.041621
-0.074146
-0.065676
-0.077705
-0.037349
0.076055
-0.047221
0.048199
-0.012048
0.021965
0.047648
0.080468
0.016540
-0.064769
-0.026561
-0.094008
0.022287
0.073773
0.039424
-0.073923
-0.047032
-0.063336
0.075595
0.047209
-0.000605
0.074955
-0.059052
-0.064200
-0.053487
0.085917
-0.049391
-0.022818
-0.043846
-0.030017
0.077879
0.052157
-0.033744
0.079463
0.103912
0.004738
0.018896
-0.073413
0.011105
0.004544
-0.041998
0.041230
0.047493
0.081774
0.020297
-0.011309
-0.061026
-0.016967
0.013647
-0.007096
-0.081832
-0.061139
-0.092038
0.001607
-0.065613
0.064046
-0.078599
-0.059037
0.006930
0.020524
0.019059
0.057992
-0.004508
0.055281
-0.029708
-0.094637
0.027217
0.090556
-0.075388
0.087100
-0.089608
0.030657
0.066493
-0.060865
-0.084852
-0.035285
0.049518
-0.034473
-0.034975
0.030751
0.058634
0.042576
0.022258
0.038513
-0.030495
-0.042984
0.039739
-0.095794
-0.063078
0.050079
0.057387
-0.038662
-0.045917
0.014754
-0.091131
-0.076353
0.039268
-0.059886
-0.025210
0.044553
0.004001
0.082810
-0.011295
0.041365
0.025619
0.071369
0.067718
-0.008878
0.037607
-0.027286
0.069054
-0.021887
0.078247
-0.003109
-0.003357
0.008086
0.019008
0.058882
-0.074806
0.006990
-0.066174
0.038418
-0.038867
0.047773
-0.007957
0.015819
-0.011390
0.063149
0.063383
0.056764
-0.004530
-0.014420
0.017113
0.005736
0.008442
0.084247
0.088968
-0.069859
-0.011043
0.075434
-0.000881
-0.095356
-0.041986
-0.048101
0.009073
-0.078847
-0.049321
-0.026731
-0.058437
-0.062388
-0.013049
0.029012
0.076750
0.070897
0.081865
-0.015218
0.003556
-0.029089
0.068245
0.064730
-0.043768
0.011507
-0.027297
-0.016476
0.028024
-0.102990
0.034043
-0.020347
-0.021681
0.011113
-0.015932
-0.107845
0.056996
-0.052693
0.004670
-0.017392
0.075070
0.031548
0.038533
0.013016
0.019705
0.008071
-0.039596
-0.012831
0.041833
-0.032104
-0.004753
0.097807
0.012659
0.084680
-0.025627
0.041156
0.033036
0.017877
-0.075108
-0.036845
0.038739
-0.033061
-0.082891
-0.029934
-0.110842
-0.025459
-0.083014
-0.005851
0.035345
-0.003195
-0.042734
-0.047564
0.004155
0.036515
0.040592
0.028982
-0.014297
-0.055737
-0.044213
0.071064
-0.115845
-0.048121
-0.074629
-0.034827
0.058115
0.047831
-0.003997
-0.013486
0.138684
-0.007145
-0.056050
0.041536
0.007573
-0.112439
-0.024874
-0.064115
-0.008077
-0.035371
0.023910
-0.066257
-0.002176
0.073075
-0.091664
0.013808
-0.021103
-0.069390
0.102597
0.014984
0.097021
-0.009269
-0.008072
0.016321
-0.058768
0.013528
-0.121064
0.095682
-0.049341
-0.049350
-0.095254
0.058641
0.057434
-0.029014
-0.030690
-0.054740
-0.006690
-0.003494
-0.101927
0.093009
0.089078
-0.073688
-0.017168
-0.031418
-0.002009
0.061635
0.012004
-0.064487
-0.005740
0.016443
-0.057209
0.011523
-0.054616
-0.045400
-0.009483
0.049046
-0.066460
0.051842
-0.067908
0.094973
0.047623
-0.015669
-0.016310
-0.079342
-0.032611
0.026408
-0.005160
-0.022355
0.067566
-0.027506
-0.075604
0.088004
-0.060666
-0.068382
-0.025204
-0.075073
-0.036830
0.017447
0.066168
-0.090934
0.006096
-0.034168
-0.042506
0.019539
0.078026
-0.027917
0.051003
-0.003901
0.019991
0.006051
0.009294
0.017433
-0.010377
-0.000181
0.023825
-0.041941
-0.068113
0.023723
0.077772
0.071572
-0.064932
-0.026417
0.027279
-0.094033
-0.020562
-0.090930
-0.067434
-0.044559
-0.087312
-0.063126
-0.073436
-0.040669
-0.069260
-0.055668
-0.067531
0.059478
0.058040
0.012349
0.055278
0.039230
-0.050941
-0.040721
-0.021910
0.006800
0.028154
-0.049510
0.033192
-0.072284
0.053570
-0.085492
0.049661
0.055856
-0.076245
0.026191
-0.007733
-0.027246
-0.019303
-0.073236
0.016681
-0.039119
-0.084094
-0.050236
0.074282
-0.039624
-0.028853
-0.084392
0.016757
0.034790
0.064365
0.033834
-0.018737
-0.070963
0.072054
0.017177
-0.010301
0.089078
-0.028603
0.020781
-0.026410
0.031294
-0.030138
-0.074826
-0.032101
0.039657
0.032602
-0.062031
0.006965
-0.012958
-0.057189
-0.081076
-0.051554
-0.017928
0.064260
0.015463
-0.046485
-0.064298
0.045807
0.029166
0.029725
0.061846
0.009269
0.021581
-0.051958
0.066363
-0.091582
-0.069307
-0.070428
0.060154
-0.055559
0.026984
0.019249
-0.043736
0.022930
0.056315
-0.048183
-0.087258
-0.088133
0.024133
0.025602
-0.004023
0.005403
0.067421
0.057296
-0.064931
0.071971
-0.026834
-0.052539
0.013113
0.094483
0.056816
-0.067145
-0.008273
0.063158
-0.092052
-0.035465
-0.071117
-0.085410
-0.056723
-0.004694
-0.026870
0.060741
-0.073390
0.035435
0.037680
0.054411
0.032275
-0.028187
-0.061991
-0.038457
-0.080621
0.047784
-0.003784
-0.041942
0.076339
-0.031734
0.022454
-0.034541
-0.051550
-0.042370
-0.023166
-0.064578
0.061088
0.036174
-0.018830
0.071256
-0.080603
0.060650
-0.090380
0.005542
0.048381
-0.093487
0.013671
0.047739
-0.080757
0.074784
-0.068365
-0.013315
0.067011
0.010310
-0.021538
0.082219
0.039368
0.025623
0.071378
-0.048114
-0.032763
-0.079838
-0.071816
0.042214
-0.012156
0.020576
-0.041416
-0.003560
-0.049228
0.015272
-0.079465
0.031574
0.012838
0.038559
0.025942
-0.034937
0.055918
0.030181
0.071267
-0.054729
0.077104
-0.006472
0.040816
-0.063135
0.028984
-0.036642
0.049067
0.015880
-0.083011
0.054712
-0.070447
0.045905
0.000508
-0.013007
0.050602
-0.045982
0.004175
0.023194
0.043015
-0.009620
0.080359
-0.081488
0.054615
0.065503
0.054556
0.056583
0.001544
0.033370
0.058942
0.025270
0.052632
-0.013800
-0.101100
-0.014577
0.054067
0.024491
-0.051754
-0.077983
0.008146
-0.034016
0.027094
-0.019586
0.028946
0.035223
-0.000670
-0.074349
-0.094726
0.052719
-0.050563
0.073122
-0.050553
0.079692
-0.004577
-0.011556
-0.016551
-0.006597
-0.074396
-0.016236
0.092491
0.034141
-0.023661
-0.018010
-0.036348
-0.041506
-0.051802
0.057331
0.042245
0.038656
0.001752
0.052713
0.011085
-0.086809
0.025078
-0.006134
-0.038436
-0.048122
0.045084
-0.043791
0.022099
0.059508
0.058297
0.017835
-0.057186
0.021288
-0.085464
-0.057512
-0.086001
0.008568
-0.047314
-0.064555
-0.004861
0.075606
0.044658
0.083669
-0.020557
0.069167
0.068857
-0.011780
-0.000242
-0.024455
0.080030
0.058529
-0.042777
0.061581
0.043092
-0.072237
-0.021642
-0.036401
0.022585
-0.048592
-0.073292
0.029472
0.016238
-0.019977
0.052913
-0.019712
-0.065345
0.031386
-0.010600
-0.006143
-0.025011
0.053772
-0.025264
0.015711
-0.040606
-0.061323
-0.050403
0.033479
0.000024
-0.062058
0.093795
-0.030762
0.076857
-0.064096
0.041287
0.069037
-0.082532
-0.037841
0.022127
-0.048090
-0.029889
-0.060370
-0.002726
-0.037338
0.035987
0.066823
-0.038327
0.026449
-0.037169
0.016328
0.047221
0.040112
-0.018388
-0.029991
-0.069554
-0.023665
-0.061523
-0.024457
-0.043675
-0.083094
-0.035338
-0.028177
-0.035825
-0.080874
0.082876
-0.006567
0.056023
-0.027417
0.013041
0.089096
-0.011189
0.076172
-0.042332
-0.073883
0.030229
-0.068377
0.011406
-0.008025
0.016379
-0.021264
-0.030321
-0.050306
-0.037232
-0.091623
0.046176
-0.040427
-0.029756
-0.058065
-0.035014
0.038811
0.004678
-0.062167
-0.002070
-0.055318
0.044253
0.048279
-0.060847
0.071308
0.082250
-0.065301
0.054059
0.041528
0.083474
0.075868
-0.068296
0.035082
-0.030734
0.019073
-0.007689
0.001708
0.037700
0.014830
0.079929
-0.037994
0.065359
-0.027587
0.035325
0.027564
0.043696
-0.026763
0.032079
-0.068635
-0.029283
-0.013652
-0.010383
0.054033
0.039448
0.005066
0.009473
-0.045208
-0.020581
0.043916
-0.036134
-0.063570
0.078076
0.080270
-0.047758
-0.031097
-0.075984
-0.000930
-0.012538
-0.019893
0.025478
-0.052123
0.013860
0.048558
0.052788
0.006104
0.047753
-0.024090
-0.086642
-0.072343
-0.011799
-0.018567
-0.056431
-0.017025
0.019799
0.079277
0.052676
-0.043496
-0.040351
0.007035
-0.057589
-0.008048
-0.024415
-0.076789
0.078842
0.046918
0.062962
0.068683
-0.071934
0.082812
0.040956
-0.053841
0.067862
0.055998
0.022727
-0.088705
0.010551
-0.008769
0.062989
-0.075667
-0.030642
-0.039307
-0.067593
0.082970
-0.008961
0.003135
0.007990
0.072021
-0.042466
0.022212
0.046922
0.017992
0.058906
-0.000435
-0.040455
-0.081619
-0.058931
0.054825
-0.046635
-0.013221
-0.001375
0.082656
-0.089822
0.070536
0.051369
0.036505
-0.018216
0.022860
-0.059323
-0.081644
0.053133
-0.012976
-0.086389
-0.044171
-0.036502
0.010464
0.082311
-0.014482
-0.080852
0.044856
-0.013302
-0.043673
-0.041772
0.033543
-0.025194
-0.020639
0.055165
0.011996
0.029326
-0.051232
0.018763
0.094957
-0.088453
-0.016851
-0.085060
0.028363
-0.029673
0.063708
0.032848
0.024562
0.081870
0.005267
0.062809
-0.069590
0.039088
-0.045630
0.050479
0.064844
0.031513
-0.063582
0.072822
-0.091098
-0.020115
0.042101
0.021519
0.061334
0.059356
-0.052837
-0.023787
-0.018612
0.067814
0.061042
-0.074525
0.003024
0.060285
0.038223
-0.041170
0.014070
-0.071558
0.080630
0.033634
0.014407
-0.029548
-0.036447
0.049839
0.026595
-0.047391
0.047082
0.038375
0.044370
-0.073785
0.006937
0.034487
-0.042131
0.012304
0.009455
-0.084438
-0.017122
-0.018705
0.022230
0.014254
-0.021760
-0.090375
-0.005865
0.090460
0.024187
-0.020634
-0.044179
0.060721
0.080765
-0.065718
0.026950
-0.043484
-0.056263
0.033477
-0.028256
-0.057575
0.012380
0.083535
-0.058597
0.034248
-0.069463
0.016751
0.040541
-0.067122
0.060186
0.076119
-0.064708
0.002229
0.012704
-0.017320
-0.047935
-0.041949
0.087099
-0.043624
0.042781
-0.069919
0.079541
0.025156
0.006165
0.037348
-0.040901
0.079074
-0.062127
-0.012202
0.087570
-0.056964
0.041164
-0.051137
0.039088
-0.065199
0.042717
0.062570
0.020192
0.079278
0.094810
-0.052137
-0.041348
-0.063825
-0.048395
-0.011474
0.068757
0.064386
0.080385
0.044029
-0.012942
-0.000581
-0.084285
-0.055682
-0.097473
-0.006988
0.019586
0.004347
0.070834
0.040195
0.063482
0.152605
0.052964
-0.045491
0.050184
0.018571
0.021885
0.024666
0.044874
0.059830
-0.044741
-0.028331
0.055202
-0.059470
-0.090604
0.032999
0.001970
-0.006806
-0.088437
0.040092
0.089048
-0.039091
-0.018483
0.064874
-0.000432
0.061236
-0.028582
-0.113325
-0.054176
0.044385
0.074747
0.066498
-0.082836
0.031153
-0.038245
-0.018054
-0.052949
0.062810
0.023421
-0.080047
-0.067961
0.017278
-0.098058
-0.004493
-0.028518
-0.090259
-0.024550
-0.070400
0.082636
-0.063652
-0.006737
-0.038498
-0.011564
0.006037
-0.103227
0.011170
0.098991
-0.111281
-0.082694
-0.015448
-0.077540
0.020691
-0.047736
-0.064383
0.016463
0.045490
0.005560
-0.036009
0.004601
0.009649
0.019046
0.085495
-0.121172
-0.063133
-0.043352
0.102571
0.034976
0.014899
0.060487
-0.105939
0.080180
0.094010
0.040547
0.046522
-0.051433
-0.043671
0.018264
0.043970
0.063287
0.027068
0.047249
-0.067636
0.080852
0.013936
-0.052950
0.016811
-0.069892
0.010188
0.017016
0.053946
0.045116
-0.023574
0.056421
0.078214
-0.066751
0.040946
-0.010066
-0.047751
-0.018180
0.019840
-0.065962
-0.037417
-0.031684
0.089277
-0.011429
0.062683
0.044054
0.037997
0.077923
0.037632
0.001478
-0.013349
-0.058386
-0.017939
0.027964
0.074389
0.075405
0.052633
0.078097
-0.002416
0.064198
0.045100
0.057328
0.037607
-0.034794
-0.088222
-0.062502
0.033676
0.041875
-0.074149
0.023707
0.076788
0.069728
-0.066595
-0.038232
0.062310
-0.067514
0.001695
-0.028465
-0.012889
-0.051716
-0.081889
-0.034957
-0.029769
-0.027436
-0.006885
-0.041179
-0.037718
0.047905
0.059282
0.091181
0.085568
0.002785
-0.002341
0.052729
-0.038020
0.018235
-0.061600
0.023478
-0.067711
-0.035863
-0.027847
-0.002846
-0.050560
-0.077942
-0.026676
-0.064028
0.032859
0.057717
0.030854
-0.085300
0.035827
-0.017383
-0.079228
-0.026906
0.012378
0.030808
0.047618
0.022399
0.088377
0.067423
-0.022828
-0.049972
0.045399
-0.020472
-0.052639
-0.058154
0.020849
-0.021013
0.007331
-0.054784
0.045862
-0.003010
0.029653
-0.030672
0.055522
-0.043882
-0.058983
-0.017218
0.057126
0.033814
-0.008453
-0.019354
-0.092510
0.003323
0.069842
0.033743
-0.010932
0.057695
-0.035173
-0.081790
0.034220
0.028713
-0.087550
-0.013386
0.059537
0.046782
0.004345
0.046213
-0.092711
0.023658
-0.033038
0.051246
-0.036678
-0.032414
-0.042095
0.061834
-0.087004
0.028814
-0.035476
0.048400
-0.089500
-0.084828
0.050341
-0.037777
-0.069086
-0.007405
0.148221
0.026264
-0.013494
-0.080289
-0.087193
0.070868
0.005164
-0.033677
-0.046961
0.066564
-0.051373
0.021740
-0.039955
0.036180
0.023757
-0.039417
-0.098099
0.078325
0.038314
0.061608
0.000412
0.016255
0.061474
-0.080090
0.080974
-0.033296
0.004138
0.040469
0.027831
-0.043586
-0.083603
0.032097
-0.031238
-0.061293
0.066172
-0.070542
-0.057540
0.037324
-0.030011
-0.042676
-0.036253
-0.080315
0.017266
-0.082460
0.068739
0.010240
-0.026274
-0.082511
-0.108898
-0.101542
0.051210
-0.043400
0.115438
-0.038332
-0.097658
0.004086
-0.062554
0.041365
-0.038777
0.023474
-0.018365
0.054363
0.051552
0.002545
0.049269
0.051945
-0.111176
0.048829
0.040592
-0.075057
0.066040
-0.066526
-0.050778
0.006795
-0.066738
-0.077584
-0.017928
0.040266
-0.004229
-0.088219
0.038326
0.006246
-0.015981
-0.051250
-0.060435
-0.045397
0.040502
-0.031827
-0.105286
-0.032929
0.084238
-0.014654
0.022794
0.034066
0.039470
-0.069209
-0.086258
0.057518
0.049989
-0.039459
0.015942
-0.027469
-0.032953
0.062797
0.029295
-0.071751
-0.048084
-0.069263
0.093071
0.054599
0.032491
-0.003812
0.006760
0.007834
0.044387
0.080018
-0.059021
-0.066106
-0.006743
0.040459
0.037619
0.036661
0.012604
0.035951
-0.004150
0.016105
-0.029848
-0.036235
-0.039071
0.002640
-0.075140
-0.014878
0.063944
0.040303
0.053916
-0.016983
-0.050720
0.064423
0.047731
-0.080375
0.077183
0.041705
0.022290
0.036281
0.036452
0.051239
-0.033488
-0.065295
0.026073
-0.026588
-0.009828
0.006979
-0.026362
0.035373
0.086004
0.065570
0.072451
0.068191
0.011695
0.080537
0.060086
0.058012
-0.026957
0.070866
-0.080139
0.025907
-0.073628
0.060530
-0.016168
0.031342
0.017524
0.061566
0.066673
0.048881
0.074607
0.039606
0.053550
-0.045377
-0.031526
-0.026131
0.030696
0.039651
-0.014873
-0.081089
-0.034529
0.003867
0.012788
0.059632
-0.004435
-0.056732
-0.043750
-0.015330
0.059975
0.070178
0.064478
-0.047888
-0.049977
-0.019339
0.077921
-0.069237
0.004405
-0.029822
-0.081909
-0.020398
-0.093012
0.031313
0.017351
-0.027629
-0.077958
0.046149
0.058082
0.026919
0.051374
-0.020881
0.065067
0.058826
-0.075372
0.008791
-0.000070
-0.005353
-0.043422
-0.023537
-0.076628
-0.007466
0.023873
0.046059
-0.000585
-0.013360
-0.022449
-0.052036
0.012072
0.029561
-0.025781
0.008569
-0.071748
-0.007830
-0.063212
-0.032106
-0.013387
0.008708
-0.016658
0.021930
-0.048303
0.011638
0.039887
-0.080943
0.053787
0.017285
-0.046943
-0.013404
0.035745
-0.040693
0.026319
0.067096
-0.066144
-0.017419
-0.009724
-0.023843
0.076259
0.010198
0.036486
-0.090841
-0.039810
0.047448
0.057673
0.006044
0.027119
-0.010406
0.036839
-0.100162
0.058614
-0.000805
0.054271
-0.062631
-0.083358
0.084299
0.076083
-0.048081
0.007302
-0.022048
0.055529
-0.017940
-0.069397
0.042436
0.013637
0.064287
-0.083129
-0.005190
-0.001550
-0.063143
0.010781
-0.034040
-0.088113
-0.061250
-0.057844
0.022506
0.014465
0.058031
0.018097
-0.069614
-0.085113
-0.081508
-0.031477
0.074004
0.059817
-0.019211
0.005281
-0.019478
0.032807
0.045152
-0.001033
0.036753
-0.017846
0.037871
-0.088502
0.049885
0.035846
0.065438
0.048766
-0.083041
0.051168
-0.045159
0.052622
-0.079395
-0.027471
-0.067618
0.046047
-0.083520
0.014049
0.052123
0.026921
0.032085
-0.029849
0.051480
-0.000174
0.042137
0.001884
-0.036057
0.002234
0.068750
-0.000655
0.052958
0.000321
-0.069583
0.004067
0.020696
-0.046998
0.017353
-0.093334
0.037614
0.022382
0.080112
0.024431
0.000487
0.055517
-0.043821
0.025054
-0.059688
-0.062552
-0.078613
-0.018081
-0.054161
-0.082887
0.038528
0.033104
0.063452
-0.065328
0.084657
-0.047238
-0.035889
-0.055628
0.019051
0.080633
0.072464
0.074616
0.010716
0.059949
-0.076420
0.070805
0.033153
0.012617
-0.058277
-0.018383
0.081396
-0.052290
-0.081287
-0.065738
-0.059217
0.018725
-0.009342
0.034197
0.037464
0.069975
0.007874
-0.061513
-0.062701
-0.012150
-0.063885
0.006900
-0.054606
-0.000267
-0.082885
0.051762
-0.011974
-0.076686
0.024087
0.074627
-0.051613
-0.080178
-0.094449
-0.067896
-0.002201
0.083375
-0.059535
-0.024178
-0.059591
0.007875
0.036486
-0.052598
-0.038383
0.082740
-0.066629
-0.043079
0.004273
-0.067017
-0.012983
-0.040632
0.037856
-0.082423
0.057720
0.057204
-0.054984
-0.044626
0.065564
0.004692
0.002258
-0.069552
-0.083813
0.016580
-0.022574
-0.083331
-0.014146
0.069215
-0.044938
0.091687
-0.078270
0.012754
0.064457
-0.065197
-0.050860
-0.029171
0.027021
0.063988
-0.036430
-0.026082
0.077212
0.025400
-0.071710
0.037296
0.060447
0.036552
-0.049239
-0.042770
0.055525
0.039728
0.059976
-0.009800
-0.019486
0.008968
-0.063340
0.003253
-0.022155
0.055355
0.008944
0.018549
0.028670
-0.038300
0.076621
-0.015034
0.099739
-0.065384
-0.037388
0.083732
-0.020035
0.013152
-0.007936
0.081051
-0.042161
-0.051490
-0.004190
0.058757
-0.026968
-0.013459
-0.044851
-0.034563
0.117131
-0.077019
-0.053212
0.113938
-0.016512
-0.066972
0.097858
0.078066
0.040007
0.035573
-0.028236
-0.016013
-0.033745
0.068942
-0.066764
-0.082972
-0.053057
0.081885
-0.080670
-0.003495
0.032831
-0.042938
0.012217
-0.028791
0.058143
0.052016
-0.056298
-0.053925
-0.079422
0.000694
0.005318
0.013225
0.045259
-0.036492
-0.002857
-0.053276
0.005495
-0.126260
0.033894
0.038510
0.023416
0.037999
0.034225
0.008847
0.068535
0.072775
-0.058039
0.086781
0.058303
0.036765
-0.011985
-0.093079
0.105800
0.061362
-0.002316
0.096143
0.035361
-0.048001
0.063538
-0.078481
0.038324
-0.073438
0.046808
0.002582
-0.030745
-0.000510
0.095435
0.067323
0.097015
0.023348
0.034327
0.080260
0.063548
-0.076614
-0.071719
-0.048618
-0.005227
0.020322
0.065952
0.091539
0.010702
-0.066885
-0.007257
-0.005818
-0.017928
0.062716
0.045959
0.068653
0.067008
0.093480
-0.038466
-0.075999
-0.086948
-0.056006
0.049430
0.014901
-0.081212
0.051881
0.047900
0.083182
-0.052733
-0.048770
-0.007872
0.013415
-0.029170
-0.061436
-0.036170
-0.037449
-0.031290
-0.073792
-0.021672
-0.028264
0.032473
0.059820
-0.091834
-0.003497
-0.034703
0.008931
0.051242
0.015434
-0.064418
0.070115
-0.003884
-0.041963
0.077117
-0.067240
0.074760
0.070465
0.027735
-0.041619
-0.002891
-0.033620
-0.062755
-0.004279
-0.016272
-0.038756
-0.049050
-0.005773
-0.082953
-0.023346
-0.063958
-0.085429
0.007563
0.005052
0.082951
0.020251
-0.007035
0.043836
-0.022053
-0.046031
0.072991
-0.064197
-0.073267
-0.035845
0.063827
-0.047965
0.056991
0.069336
-0.086104
0.012098
0.065317
0.060205
-0.038086
-0.084548
-0.016698
-0.038341
0.076798
-0.022371
-0.037673
0.007941
0.047436
-0.034806
0.008208
0.057632
-0.050673
0.072325
0.020380
0.069470
-0.031250
-0.110683
-0.083606
-0.039645
0.003770
0.016601
-0.057310
-0.049323
-0.069572
-0.011855
-0.048746
-0.053305
0.070769
0.035760
-0.074398
-0.005599
-0.011725
0.063749
-0.003565
-0.025717
-0.082136
0.037660
-0.000050
0.038625
0.046571
-0.080683
-0.023112
-0.014662
-0.080647
0.035225
-0.023487
0.008731
0.002469
0.009580
-0.048946
0.036825
0.011158
-0.072712
-0.042792
0.075519
0.083714
0.009353
-0.004856
-0.065209
-0.083262
-0.065855
-0.090454
-0.017514
0.053965
-0.058444
-0.034107
0.057590
-0.059426
0.064167
0.034363
0.010931
0.037085
-0.056101
0.080643
-0.054497
0.019690
0.020829
0.052139
0.012451
-0.003456
0.019717
-0.073073
0.041458
0.054004
0.014672
0.056966
-0.092834
0.076538
-0.062097
-0.090645
0.089289
0.069665
-0.038038
-0.081453
-0.050706
0.069542
0.054500
0.011752
-0.021537
0.068289
-0.011577
-0.079391
0.023909
-0.056175
-0.068035
-0.039584
0.018019
0.017229
0.075916
-0.053796
-0.035223
0.064700
0.041153
-0.027101
-0.084950
-0.053055
0.026060
0.072755
-0.016235
0.036198
-0.017287
0.022870
-0.007439
0.004402
-0.054068
0.019821
0.056015
-0.048721
0.007831
-0.048896
0.039831
-0.029224
-0.033861
0.025240
0.003923
-0.076383
-0.031379
0.008724
0.035303
-0.004139
-0.034833
0.059931
0.061232
-0.032737
-0.043796
-0.026230
-0.109769
-0.087749
-0.046576
0.013781
-0.027320
0.014209
-0.087564
0.046932
-0.061122
-0.019608
0.061371
-0.061183
-0.060413
-0.056107
0.011855
-0.085043
0.088835
0.016975
-0.032156
-0.035903
-0.004694
0.039229
0.041662
0.075513
-0.026093
-0.036741
-0.013451
0.002915
0.066267
0.095546
0.037116
-0.031665
0.043166
-0.076583
-0.041818
-0.094786
-0.081214
0.056731
-0.006230
-0.031012
0.023388
-0.003622
0.053948
-0.050747
-0.017331
-0.086983
-0.044177
0.054888
-0.058568
0.005966
0.042884
0.064503
0.013285
0.029034
-0.064005
-0.023528
0.017595
-0.039688
0.059736
0.010983
-0.020663
-0.079878
-0.018315
-0.041550
0.069091
-0.069203
0.059757
-0.018059
-0.082318
-0.077261
-0.062795
-0.074757
-0.043877
0.004572
-0.030528
0.087935
-0.001415
-0.002175
-0.019189
-0.042985
0.001414
0.067004
0.060959
0.046037
0.060207
0.013335
0.031075
-0.050645
-0.067160
-0.067597
0.015867
0.009230
-0.062844
-0.006760
-0.085049
-0.080399
-0.001922
-0.075597
0.012840
0.004330
0.045895
0.012891
-0.022113
0.008747
-0.052190
-0.066213
-0.058800
0.044493
-0.048908
-0.038290
-0.019430
0.071175
0.036603
-0.000092
-0.045710
-0.028271
-0.009683
-0.045751
0.008506
-0.089278
0.002233
0.067363
0.034369
-0.069255
0.033073
0.044092
0.071784
-0.048620
0.060446
0.059587
0.090310
-0.080470
-0.008440
-0.059371
-0.017617
0.084390
-0.061058
0.079571
-0.000577
-0.071642
0.045726
-0.056325
-0.051962
0.019883
0.010862
-0.027071
0.001978
-0.023391
-0.041736
0.072484
-0.013449
-0.086031
-0.066949
-0.085167
-0.059165
-0.042477
0.004756
0.061983
0.066129
0.062770
0.043258
0.010834
0.066061
0.075188
-0.002044
-0.029956
-0.007704
0.049128
0.050586
0.073869
0.025115
-0.013248
0.052673
-0.063041
-0.055653
0.064159
-0.010733
-0.016907
-0.042709
-0.032221
0.045396
0.040783
-0.058455
-0.011526
-0.046724
-0.062934
0.053538
0.066283
-0.028337
0.069017
0.045011
0.018600
0.058426
-0.030698
0.058988
0.062499
0.012420
0.060692
0.055876
-0.001510
0.045307
-0.065403
0.058142
-0.023800
0.047197
0.028877
-0.078586
0.050865
0.060075
-0.000332
-0.100354
-0.002327
-0.029296
-0.030045
-0.040014
0.071412
-0.023850
-0.012283
0.086741
-0.047994
-0.034222
-0.007130
-0.052802
-0.002746
-0.000289
0.074829
0.030593
0.004412
-0.057331
-0.027704
-0.000122
0.013865
0.007244
-0.015231
-0.070748
-0.021947
-0.084170
-0.018719
-0.038153
0.033687
-0.054779
0.070440
0.047848
0.061739
-0.003746
0.016045
-0.043337
-0.064733
0.068213
-0.005705
-0.064064
0.077697
0.013289
0.030607
-0.029783
-0.073900
0.011793
0.052036
-0.058618
-0.097780
0.097170
-0.038400
-0.081238
-0.072274
-0.052049
0.057661
-0.012115
0.055645
-0.023364
-0.020695
-0.084361
0.016254
0.068482
0.023087
-0.034831
-0.040676
0.086342
-0.082736
0.058001
-0.043605
-0.011664
-0.090883
-0.027627
0.076876
0.013070
0.032178
0.003493
-0.086939
-0.055667
0.031349
-0.057280
-0.053456
0.056942
-0.067216
0.055841
-0.066271
0.068141
0.081608
-0.058308
-0.056885
-0.036708
-0.086739
0.051302
0.089875
0.041232
0.049679
-0.051143
0.044182
0.011529
-0.024380
-0.021492
0.052007
0.069211
-0.088094
0.080148
-0.098502
-0.085831
0.059840
0.095557
-0.110827
-0.051576
0.098745
-0.041580
0.004112
-0.043520
0.084562
0.099953
0.039840
0.055042
-0.032774
0.046823
0.017445
0.075340
-0.084990
-0.022971
-0.028064
-0.033696
-0.039325
-0.038632
-0.013099
0.060694
-0.037484
0.093034
0.021050
-0.032210
0.035972
0.032464
0.041007
0.047923
-0.048310
-0.003318
0.002820
0.001430
0.061675
-0.066599
-0.052125
0.013840
-0.048422
-0.044586
-0.001300
0.033413
0.087589
0.079077
-0.031458
0.056824
-0.037720
0.127867
-0.006330
-0.009972
-0.063443
0.115653
-0.022333
-0.081131
0.053321
0.024222
-0.017147
-0.050544
-0.077992
0.086657
-0.017440
-0.057551
0.007128
-0.039249
-0.001632
0.038028
-0.012598
-0.035099
0.066769
0.008892
0.044484
-0.009751
-0.070862
0.092010
0.090424
-0.017409
-0.011848
-0.029428
-0.010691
0.011670
0.057360
-0.096463
0.061765
-0.037289
-0.007807
-0.002801
0.070129
0.042041
-0.052050
-0.080274
0.017422
-0.036301
0.003225
0.057259
-0.078379
-0.044921
0.070609
0.105864
-0.021082
0.065086
0.058781
0.082616
-0.097421
-0.035458
0.074143
0.050630
0.010724
0.016986
0.046345
0.000393
-0.042467
0.005387
-0.012097
0.039793
-0.043062
0.071683
-0.066538
-0.010010
0.015055
0.062640
0.062052
-0.042791
0.045422
-0.010838
-0.016328
-0.022590
-0.054835
0.055188
0.043029
0.008661
-0.063210
-0.057816
-0.048254
0.073244
-0.010841
-0.062033
0.007607
0.038835
-0.022527
-0.024729
-0.071081
0.018942
-0.086208
0.004666
0.059647
-0.014519
-0.033830
0.026273
0.059172
-0.027519
-0.044685
-0.027905
0.013319
-0.071893
0.009209
-0.074413
0.000803
-0.094436
-0.060237
0.020952
0.027507
0.049204
0.009589
-0.049724
0.062450
-0.029107
-0.070339
-0.054430
0.035676
-0.016346
0.074715
0.022274
0.082523
-0.058634
-0.041936
-0.082615
-0.087637
-0.041629
0.023014
0.039084
-0.022854
-0.023194
0.009022
0.039989
0.018442
0.023304
-0.030951
-0.080034
-0.031483
-0.007282
0.049878
-0.039651
-0.041762
-0.033424
0.027938
-0.034287
-0.077076
0.025106
-0.037348
0.088233
-0.055039
-0.057118
0.069397
0.072584
0.048444
-0.043357
0.036737
-0.054255
0.011730
-0.061702
0.004084
-0.059739
0.003022
0.008298
0.049046
-0.067237
-0.027494
-0.048558
-0.084164
-0.008090
0.011662
0.022561
-0.026766
-0.067862
-0.034404
0.009304
-0.084990
-0.079389
0.081774
0.058410
-0.000554
0.066810
-0.027971
-0.068520
-0.072604
-0.038505
-0.004616
0.005196
-0.002969
-0.052205
-0.029584
0.052947
-0.052050
0.033889
-0.025427
-0.056988
0.055964
-0.017859
-0.051399
-0.026895
